~o
<STREAMINFO> 1 25
<VECSIZE> 25<NULLD><MFCC_D_N_Z_0><DIAGC>
~s "silst"
<MEAN> 25
 -9.486479e+00 5.881995e+00 -2.377367e+00 5.540433e+00 2.025743e+00 8.836517e-01 -2.874984e-01 4.318498e+00 5.850926e+00 4.998070e+00 9.032033e+00 2.334650e+00 3.459597e-03 -1.647614e-02 2.555051e-02 -1.309115e-02 1.945695e-02 -1.792028e-02 1.810459e-02 -1.491946e-02 2.157986e-02 1.504073e-02 1.919264e-02 8.159625e-03 5.091701e-02
<VARIANCE> 25
 3.071482e+00 6.813395e+00 9.046168e+00 9.635592e+00 1.448846e+01 1.408963e+01 1.369855e+01 1.508356e+01 1.529581e+01 1.525070e+01 1.393659e+01 1.206137e+01 1.088378e-01 2.529070e-01 4.233784e-01 6.153517e-01 8.069016e-01 9.794546e-01 1.151338e+00 1.248029e+00 1.305618e+00 1.292085e+00 1.237462e+00 1.129228e+00 6.520458e-02
<GCONST> 6.799901e+01
~h "a"
<BEGINHMM>
<NUMSTATES> 5
<STATE> 2
<MEAN> 25
 4.172382e+00 -5.587562e+00 -1.253330e+00 -1.474024e+00 1.502643e-01 -4.040639e+00 -4.708203e-01 2.607370e+00 -5.239782e-01 -2.506137e+00 -4.142648e+00 3.093750e-01 2.843972e-01 -7.450266e-01 -1.350841e-02 -4.472672e-01 7.630513e-01 7.648750e-02 2.619993e-01 8.950239e-01 -3.600304e-01 -2.389702e-01 -9.134169e-01 -1.028566e-01 5.997392e-01
<VARIANCE> 25
 3.292842e+01 6.837618e+01 5.334088e+01 6.305640e+01 7.291930e+01 4.749430e+01 4.543776e+01 5.470259e+01 4.585314e+01 5.324062e+01 5.765435e+01 3.423385e+01 2.848853e+00 4.927173e+00 3.279207e+00 4.545227e+00 5.102048e+00 3.732736e+00 4.062613e+00 4.087356e+00 3.796586e+00 3.997771e+00 4.978027e+00 3.058162e+00 4.073274e+00
<GCONST> 1.110902e+02
<STATE> 3
<MEAN> 25
 5.315610e+00 -6.730965e+00 -1.781857e+00 -1.895052e+00 1.532339e+00 -4.377585e+00 5.624800e-01 3.800331e+00 -1.316054e+00 -2.215375e+00 -6.188045e+00 -6.224802e-02 -2.567655e-01 8.041351e-01 -1.524763e-02 6.909906e-01 5.624312e-02 1.784678e-01 1.142125e-01 -8.965523e-03 -2.578178e-02 -5.886866e-02 3.202121e-01 -1.446704e-01 -8.272353e-01
<VARIANCE> 25
 2.369548e+01 6.366117e+01 4.367335e+01 5.282710e+01 6.655005e+01 4.631126e+01 4.375711e+01 5.199298e+01 4.147811e+01 4.940514e+01 5.125975e+01 3.395829e+01 9.619406e-01 2.343309e+00 1.833378e+00 2.455593e+00 2.926484e+00 2.676664e+00 2.931314e+00 2.781051e+00 2.496295e+00 2.864030e+00 2.559608e+00 2.196575e+00 1.467917e+00
<GCONST> 1.024115e+02
<STATE> 4
<MEAN> 25
 5.317215e-02 6.076540e-01 -2.515059e+00 3.494756e+00 4.576005e-01 -2.622720e+00 5.331532e-02 3.131344e+00 1.310538e+00 -1.971513e+00 5.170050e-01 -8.796793e-02 -6.269163e-01 5.121101e-01 -6.747028e-02 2.867528e-01 1.438285e-01 4.314347e-01 9.895416e-02 -4.133384e-02 2.031405e-01 1.152915e-01 5.280212e-01 -3.671038e-02 -8.225635e-01
<VARIANCE> 25
 4.278455e+01 5.484456e+01 4.244282e+01 4.067968e+01 4.695148e+01 3.947686e+01 3.635414e+01 4.501232e+01 4.199042e+01 3.879927e+01 5.366326e+01 2.474656e+01 9.958118e-01 1.711428e+00 1.831772e+00 1.807661e+00 2.290588e+00 2.173064e+00 2.305055e+00 2.687169e+00 2.443216e+00 2.451842e+00 2.327366e+00 1.918295e+00 8.020129e-01
<GCONST> 9.889852e+01
<TRANSP> 5
 0.000000e+00 1.000000e+00 0.000000e+00 0.000000e+00 0.000000e+00
 0.000000e+00 2.686712e-01 7.313288e-01 0.000000e+00 0.000000e+00
 0.000000e+00 0.000000e+00 4.546703e-01 5.453297e-01 0.000000e+00
 0.000000e+00 0.000000e+00 0.000000e+00 5.518972e-01 4.481029e-01
 0.000000e+00 0.000000e+00 0.000000e+00 0.000000e+00 0.000000e+00
<ENDHMM>
~h "b"
<BEGINHMM>
<NUMSTATES> 5
<STATE> 2
<MEAN> 25
 6.988915e+00 4.091542e+00 -3.011914e-01 3.358276e+00 -8.005602e-01 -1.355437e+00 -3.303460e+00 -3.521287e+00 -3.554488e+00 -3.043471e+00 -4.916586e+00 -6.920091e+00 -9.976552e-02 1.974707e+00 2.224423e-01 1.244147e+00 9.460384e-02 1.867679e-01 2.764764e-01 -3.166161e-01 6.431799e-02 -7.881633e-01 -8.161583e-02 -5.792526e-01 -1.204637e+00
<VARIANCE> 25
 1.041850e+01 5.249701e+01 4.324637e+01 2.726965e+01 4.917152e+01 2.191806e+01 3.164458e+01 3.976060e+01 3.419091e+01 3.128044e+01 2.763289e+01 2.488321e+01 9.680388e-01 1.859136e+00 1.157048e+00 2.230420e+00 1.601862e+00 1.748091e+00 2.358590e+00 2.768836e+00 2.199675e+00 2.217682e+00 2.465970e+00 2.201623e+00 1.203595e+00
<GCONST> 9.485591e+01
<STATE> 3
<MEAN> 25
 5.784972e+00 9.535885e+00 1.697599e+00 6.611134e+00 -1.940072e+00 -6.845492e-01 -4.876026e-01 -5.622217e+00 -3.684107e+00 -3.217225e+00 -3.417553e+00 -7.476962e+00 1.747933e-01 -9.656150e-01 -6.728467e-01 -3.202390e-01 5.523376e-01 -6.806143e-02 -4.391150e-01 5.868289e-01 7.669095e-01 3.063110e-01 6.423945e-01 4.082904e-01 5.499898e-01
<VARIANCE> 25
 1.101598e+01 3.684637e+01 2.557985e+01 1.703767e+01 3.956744e+01 2.335342e+01 2.684945e+01 4.648218e+01 2.613235e+01 3.234042e+01 2.287537e+01 2.185448e+01 1.831968e+00 5.378310e+00 3.381375e+00 2.512500e+00 3.661169e+00 2.701312e+00 2.429116e+00 3.965448e+00 2.977876e+00 3.071937e+00 2.829214e+00 2.607899e+00 2.096173e+00
<GCONST> 9.887844e+01
<STATE> 4
<MEAN> 25
 8.019067e+00 -6.275243e-01 -5.177683e+00 1.019166e+00 2.296614e+00 -1.088132e+00 -5.139160e+00 -6.373612e-01 1.942357e+00 4.393156e-01 -2.526916e+00 -6.087979e+00 6.947527e-01 -4.127746e+00 -1.798602e+00 -2.644888e+00 8.130779e-01 1.079896e-01 -2.847581e-01 1.703252e+00 1.087897e+00 1.451953e+00 -9.699084e-01 3.562231e-01 2.611560e+00
<VARIANCE> 25
 1.553960e+01 6.142452e+01 5.402850e+01 5.757635e+01 3.269172e+01 3.289163e+01 2.699587e+01 3.524023e+01 3.109160e+01 4.205268e+01 3.218319e+01 2.396697e+01 1.764573e+00 5.875440e+00 7.120407e+00 4.639051e+00 7.163674e+00 4.989800e+00 4.433065e+00 5.858312e+00 4.451024e+00 5.741346e+00 5.116650e+00 3.211591e+00 2.477982e+00
<GCONST> 1.081300e+02
<TRANSP> 5
 0.000000e+00 1.000000e+00 0.000000e+00 0.000000e+00 0.000000e+00
 0.000000e+00 7.293360e-01 2.706640e-01 0.000000e+00 0.000000e+00
 0.000000e+00 0.000000e+00 5.903506e-01 4.096494e-01 0.000000e+00
 0.000000e+00 0.000000e+00 0.000000e+00 5.415316e-01 4.584684e-01
 0.000000e+00 0.000000e+00 0.000000e+00 0.000000e+00 0.000000e+00
<ENDHMM>
~h "d"
<BEGINHMM>
<NUMSTATES> 5
<STATE> 2
<MEAN> 25
 6.407663e+00 4.661877e+00 -1.298828e-01 5.811221e+00 -2.087833e+00 -3.896765e+00 2.942428e-01 3.265882e-01 -2.008790e+00 -6.044725e+00 -4.733721e+00 -2.045852e+00 -5.312138e-01 1.583642e+00 -4.969543e-02 1.121152e+00 6.141502e-01 5.829335e-01 -1.157732e-01 -3.112080e-02 1.439481e-01 -5.972259e-01 8.615188e-01 -6.945897e-01 -1.368237e+00
<VARIANCE> 25
 1.088307e+01 4.330124e+01 3.043495e+01 2.218981e+01 3.979152e+01 3.834515e+01 3.301365e+01 5.189839e+01 3.394088e+01 3.375643e+01 3.316912e+01 2.843074e+01 5.460350e-01 1.795373e+00 1.164231e+00 1.921393e+00 1.956174e+00 2.272618e+00 2.204543e+00 2.455300e+00 2.093080e+00 2.179414e+00 2.368446e+00 2.219762e+00 6.607159e-01
<GCONST> 9.401575e+01
<STATE> 3
<MEAN> 25
 2.462597e+00 8.952069e+00 1.071258e+00 7.440532e+00 -1.273796e-01 -1.601118e+00 -6.665378e-01 -6.347599e-01 -1.245546e+00 -5.269931e+00 -4.223692e-01 -2.998585e+00 -1.167582e+00 -1.834276e+00 -2.947040e-01 -4.659831e-01 2.154996e-01 -4.925902e-02 6.739081e-01 -8.318281e-01 3.961822e-01 6.434609e-01 2.046204e+00 3.746889e-01 6.822744e-01
<VARIANCE> 25
 2.302088e+01 3.296431e+01 3.049434e+01 1.567512e+01 3.984894e+01 2.535679e+01 2.469940e+01 4.084252e+01 3.004621e+01 3.334812e+01 2.953038e+01 1.782034e+01 1.820009e+00 4.421956e+00 2.788975e+00 2.416843e+00 4.824559e+00 3.651969e+00 3.951998e+00 4.973693e+00 3.507647e+00 3.519174e+00 4.308521e+00 2.585356e+00 1.993334e+00
<GCONST> 1.012129e+02
<STATE> 4
<MEAN> 25
 5.664850e-01 -5.665287e-01 -8.786716e-01 3.426228e+00 -4.853802e-01 -3.512707e+00 3.307336e+00 -4.244243e+00 3.749543e-01 -3.374261e+00 4.940702e+00 -9.258242e-01 4.993019e-01 -2.234707e+00 4.456176e-01 -2.876799e+00 -1.149302e+00 -1.070041e+00 -3.225526e-04 -7.180872e-01 3.999376e-01 1.335809e+00 -4.113384e-01 1.114565e+00 2.559278e+00
<VARIANCE> 25
 2.405283e+01 4.103470e+01 3.520057e+01 3.691758e+01 4.794662e+01 5.512859e+01 4.875695e+01 5.230517e+01 3.669472e+01 3.987629e+01 4.862279e+01 3.273896e+01 3.035903e+00 5.993489e+00 6.620095e+00 4.285194e+00 7.052319e+00 5.911637e+00 6.703028e+00 8.309702e+00 4.257360e+00 5.414507e+00 6.775844e+00 2.980194e+00 2.565287e+00
<GCONST> 1.114780e+02
<TRANSP> 5
 0.000000e+00 1.000000e+00 0.000000e+00 0.000000e+00 0.000000e+00
 0.000000e+00 6.877519e-01 3.122480e-01 0.000000e+00 0.000000e+00
 0.000000e+00 0.000000e+00 4.992875e-01 5.007125e-01 0.000000e+00
 0.000000e+00 0.000000e+00 0.000000e+00 5.118126e-01 4.881874e-01
 0.000000e+00 0.000000e+00 0.000000e+00 0.000000e+00 0.000000e+00
<ENDHMM>
~h "g"
<BEGINHMM>
<NUMSTATES> 5
<STATE> 2
<MEAN> 25
 7.036577e+00 2.086010e+00 -3.006510e+00 -2.722693e-01 2.175128e+00 -3.043770e+00 -3.633952e+00 -1.652771e+00 -3.437752e-01 -7.487639e-02 -7.261754e+00 -2.253629e+00 -8.601936e-03 1.729377e+00 4.491094e-03 1.549854e+00 -4.626900e-01 -1.850808e-01 -3.113339e-01 -5.369468e-01 4.485489e-02 -6.264982e-01 6.118608e-01 -5.079947e-01 -1.294478e+00
<VARIANCE> 25
 1.178941e+01 6.056868e+01 3.334367e+01 4.162045e+01 6.172221e+01 4.413290e+01 3.606824e+01 4.857388e+01 3.002975e+01 4.220993e+01 4.981588e+01 2.912687e+01 1.299675e+00 2.323482e+00 1.332995e+00 2.579527e+00 2.763214e+00 2.775190e+00 2.187206e+00 2.813935e+00 2.161895e+00 2.945467e+00 2.878688e+00 1.797402e+00 1.539028e+00
<GCONST> 9.967718e+01
<STATE> 3
<MEAN> 25
 5.009599e+00 9.634267e+00 -9.428208e-01 3.750895e+00 -8.284849e-01 -9.675309e-01 -2.666810e+00 -2.939214e+00 -8.298022e-01 -3.998144e+00 -1.584500e+00 -2.790507e+00 -7.718310e-01 -9.197258e-02 -8.525540e-02 9.132448e-01 8.225303e-01 -2.518770e-01 -2.461591e-01 4.364696e-01 2.217053e-01 -1.523189e-01 7.833409e-01 2.736434e-01 -6.505818e-01
<VARIANCE> 25
 1.813368e+01 3.208857e+01 3.409939e+01 2.699106e+01 3.648406e+01 2.642684e+01 2.784519e+01 3.476010e+01 2.255513e+01 2.756114e+01 3.344709e+01 2.059391e+01 6.778115e-01 2.257779e+00 2.065388e+00 2.252892e+00 2.823734e+00 2.888116e+00 2.631274e+00 2.399477e+00 2.153683e+00 2.531906e+00 2.309738e+00 1.760109e+00 5.001346e-01
<GCONST> 9.416190e+01
<STATE> 4
<MEAN> 25
 4.001252e+00 1.397789e+00 -4.324801e+00 5.454720e+00 4.503062e+00 -4.456233e+00 -3.896301e+00 -1.759045e-01 6.633468e-01 -1.282108e+00 -1.729808e+00 1.760276e-01 1.070347e-01 -2.499151e+00 -4.496490e-01 -1.365700e+00 5.114811e-01 -7.597588e-01 1.963980e-01 9.522896e-01 2.369922e-01 1.147838e+00 -7.702132e-01 8.701050e-01 1.592534e+00
<VARIANCE> 25
 2.556568e+01 6.787916e+01 5.702636e+01 4.790372e+01 6.451523e+01 4.896014e+01 3.765728e+01 4.499771e+01 3.435027e+01 3.542035e+01 4.768069e+01 2.847983e+01 2.079958e+00 5.295145e+00 9.094591e+00 7.695393e+00 9.936620e+00 5.989505e+00 4.394616e+00 5.579622e+00 4.447700e+00 4.259972e+00 5.227703e+00 3.767211e+00 1.859094e+00
<GCONST> 1.116045e+02
<TRANSP> 5
 0.000000e+00 1.000000e+00 0.000000e+00 0.000000e+00 0.000000e+00
 0.000000e+00 5.261208e-01 4.738791e-01 0.000000e+00 0.000000e+00
 0.000000e+00 0.000000e+00 5.829713e-01 4.170287e-01 0.000000e+00
 0.000000e+00 0.000000e+00 0.000000e+00 6.362175e-01 3.637824e-01
 0.000000e+00 0.000000e+00 0.000000e+00 0.000000e+00 0.000000e+00
<ENDHMM>
~h "h"
<BEGINHMM>
<NUMSTATES> 5
<STATE> 2
<MEAN> 25
 3.522125e+00 -3.661397e+00 6.500370e+00 -3.393511e+00 -6.082004e+00 6.895138e+00 8.080153e+00 -5.859083e+00 -2.023192e+00 6.297708e-02 -5.328228e+00 -4.860672e-01 3.802227e-02 1.658400e-01 1.890479e-01 -5.065059e-01 -6.284432e-01 7.161581e-02 -3.886821e-02 -2.254442e-01 7.506459e-02 5.865749e-01 8.144975e-02 -1.688845e-01 -1.849297e-02
<VARIANCE> 25
 1.245422e+01 3.873304e+01 3.327830e+01 4.829151e+01 5.608497e+01 6.815834e+01 4.090258e+01 3.324163e+01 3.398321e+01 4.049030e+01 3.320060e+01 2.169054e+01 7.129312e-01 1.615658e+00 1.549923e+00 2.052775e+00 2.532971e+00 3.703039e+00 2.117824e+00 2.876310e+00 2.222143e+00 2.499003e+00 1.939413e+00 1.601939e+00 6.524130e-01
<GCONST> 9.654299e+01
<STATE> 3
<MEAN> 25
 3.653944e+00 -1.902723e+00 4.052754e+00 -4.182540e+00 -4.854602e+00 4.293586e+00 3.565047e+00 -5.028342e+00 -1.934981e+00 1.038077e+00 -3.441561e+00 -7.295542e-02 -8.312492e-02 1.050440e+00 -3.503177e-01 6.533729e-01 3.723624e-02 1.381480e-01 -4.043031e-01 -1.199926e-01 1.100921e-01 -4.998048e-01 3.754124e-01 -7.542045e-03 -8.871195e-01
<VARIANCE> 25
 2.004715e+01 5.092529e+01 6.611017e+01 4.426399e+01 1.180110e+02 6.144823e+01 5.148164e+01 3.869294e+01 4.057932e+01 5.709014e+01 3.914629e+01 2.746083e+01 5.764170e-01 1.559972e+00 1.441843e+00 2.128530e+00 2.195313e+00 2.649418e+00 2.112157e+00 2.413040e+00 2.380986e+00 2.192702e+00 2.000115e+00 1.679850e+00 8.399567e-01
<GCONST> 9.916519e+01
<STATE> 4
<MEAN> 25
 -2.429999e-01 2.075757e+00 -4.354469e-01 1.810968e-01 -5.775059e-01 4.129896e+00 2.037430e+00 -1.653152e+00 2.890946e-01 -1.958502e-01 1.372461e+00 6.328689e-01 1.162656e-01 5.282981e-01 -8.883498e-02 -3.650093e-02 -1.092992e-01 -1.687301e-01 -2.334794e-01 1.036645e-01 -1.089954e-01 -1.754411e-01 1.095703e-01 -5.899923e-02 -2.306251e-01
<VARIANCE> 25
 5.462816e+01 6.064579e+01 6.293415e+01 5.549639e+01 9.556289e+01 4.303321e+01 4.258009e+01 4.142528e+01 3.631499e+01 4.241632e+01 5.063285e+01 2.573182e+01 1.044752e+00 1.688728e+00 1.397406e+00 1.866859e+00 1.937978e+00 2.127994e+00 2.122058e+00 1.956445e+00 2.231166e+00 2.026894e+00 2.028366e+00 1.579552e+00 7.337683e-01
<GCONST> 9.925087e+01
<TRANSP> 5
 0.000000e+00 1.000000e+00 0.000000e+00 0.000000e+00 0.000000e+00
 0.000000e+00 8.035602e-01 1.964398e-01 0.000000e+00 0.000000e+00
 0.000000e+00 0.000000e+00 4.084363e-01 5.915637e-01 0.000000e+00
 0.000000e+00 0.000000e+00 0.000000e+00 5.340396e-01 4.659604e-01
 0.000000e+00 0.000000e+00 0.000000e+00 0.000000e+00 0.000000e+00
<ENDHMM>
~h "i"
<BEGINHMM>
<NUMSTATES> 5
<STATE> 2
<MEAN> 25
 1.827702e+00 9.650949e-02 1.052937e+01 -7.067489e+00 -7.466479e+00 -6.880438e-01 -8.960037e-01 -5.546561e+00 -2.110529e+00 1.950027e+00 -2.897686e+00 6.186850e-02 1.120124e+00 -7.868219e-01 2.471118e+00 -3.205063e+00 -1.288214e+00 -8.924308e-02 -7.350583e-01 -9.017059e-01 -1.089573e+00 1.488321e+00 -2.279013e+00 2.642620e-01 2.138160e+00
<VARIANCE> 25
 2.617835e+01 4.451902e+01 3.540163e+01 7.799371e+01 4.668647e+01 5.857648e+01 3.536831e+01 4.689281e+01 3.923488e+01 4.140863e+01 4.499814e+01 2.692483e+01 3.835188e+00 3.924452e+00 4.376471e+00 5.697321e+00 4.320240e+00 4.527030e+00 4.572168e+00 4.657369e+00 4.167563e+00 4.401751e+00 6.168228e+00 2.790635e+00 2.863482e+00
<GCONST> 1.095179e+02
<STATE> 3
<MEAN> 25
 2.585247e+00 -9.115924e-01 1.470014e+01 -1.386783e+01 -6.414196e+00 8.628023e-01 -3.075470e+00 -6.496691e+00 -3.192337e+00 3.678433e+00 -8.569850e+00 1.031915e+00 1.541801e-02 -3.285618e-02 2.596024e-01 -3.187674e-01 9.162374e-02 -3.300414e-02 -7.165455e-02 -4.301462e-02 -8.462739e-02 3.976227e-01 -5.527014e-01 3.551921e-01 8.962971e-02
<VARIANCE> 25
 6.530689e+00 4.597250e+01 1.818970e+01 3.663448e+01 3.225361e+01 4.827703e+01 3.756970e+01 3.023710e+01 2.633266e+01 3.441355e+01 3.372372e+01 1.975994e+01 4.050757e-01 1.492061e+00 1.113919e+00 2.501530e+00 1.749486e+00 2.188831e+00 2.023978e+00 2.358205e+00 1.862479e+00 2.328804e+00 2.183666e+00 1.564119e+00 5.429298e-01
<GCONST> 9.136205e+01
<STATE> 4
<MEAN> 25
 2.289847e+00 2.706141e+00 1.100034e+01 -5.031899e+00 -7.867364e+00 -1.649889e+00 -1.734680e+00 -6.513539e+00 -2.593990e+00 2.478907e+00 -4.667042e+00 1.125518e+00 -3.644312e-01 9.988590e-01 -1.088529e+00 2.004481e+00 1.864168e-01 -2.163977e-01 6.343645e-02 2.007671e-01 3.296916e-01 -7.621983e-01 1.072368e+00 -1.995790e-01 -1.435172e+00
<VARIANCE> 25
 1.180431e+01 5.067409e+01 2.256340e+01 5.804411e+01 2.996081e+01 4.274683e+01 3.149331e+01 3.136034e+01 3.407169e+01 3.770594e+01 3.866151e+01 2.356092e+01 8.449478e-01 2.173564e+00 1.171304e+00 2.713408e+00 2.091601e+00 2.259082e+00 2.093686e+00 2.382788e+00 2.248316e+00 2.363824e+00 2.377433e+00 1.698740e+00 1.028636e+00
<GCONST> 9.556046e+01
<TRANSP> 5
 0.000000e+00 1.000000e+00 0.000000e+00 0.000000e+00 0.000000e+00
 0.000000e+00 5.092808e-01 4.907192e-01 0.000000e+00 0.000000e+00
 0.000000e+00 0.000000e+00 6.976343e-01 3.023657e-01 0.000000e+00
 0.000000e+00 0.000000e+00 0.000000e+00 7.541556e-01 2.458443e-01
 0.000000e+00 0.000000e+00 0.000000e+00 0.000000e+00 0.000000e+00
<ENDHMM>
~h "j"
<BEGINHMM>
<NUMSTATES> 5
<STATE> 2
<MEAN> 25
 3.742585e+00 8.345686e+00 1.285086e+00 6.184690e+00 -3.376822e-01 -2.296911e+00 -2.460274e-01 -1.180779e+00 -1.864484e+00 -4.739640e+00 -8.478562e-01 -2.389329e+00 -1.623438e+00 1.470282e-01 2.560774e-01 -7.507957e-01 1.655398e+00 -1.197726e-02 8.980661e-03 -7.115199e-02 3.515233e-02 4.369520e-02 7.941956e-01 -1.786369e-01 5.034480e-02
<VARIANCE> 25
 2.303758e+01 3.869268e+01 3.138614e+01 2.287782e+01 3.796233e+01 2.976782e+01 3.286196e+01 4.891218e+01 2.896333e+01 3.253124e+01 3.167251e+01 2.116253e+01 5.393215e+00 5.546170e+00 2.682832e+00 4.468824e+00 5.388914e+00 3.567960e+00 3.341727e+00 3.740056e+00 3.359560e+00 3.271909e+00 3.870265e+00 2.530979e+00 2.391051e+00
<GCONST> 1.039995e+02
<STATE> 3
<MEAN> 25
 -1.167532e+01 5.400501e+00 4.157773e+00 -3.882627e+00 9.240151e+00 -3.360465e+00 1.332031e+00 -1.143919e+00 -1.398712e+00 -1.054162e+00 5.208644e+00 -2.596816e+00 -3.289330e+00 4.117563e-01 1.090587e+00 -2.032838e+00 7.712313e-01 -5.017009e-01 1.221357e+00 5.043643e-03 -1.175154e-01 6.505661e-01 1.642033e+00 -2.666491e-01 1.198263e+00
<VARIANCE> 25
 5.034596e+01 4.862492e+01 5.207327e+01 3.270155e+01 4.046940e+01 5.030218e+01 5.493567e+01 5.360611e+01 3.983398e+01 4.273948e+01 4.088551e+01 2.755298e+01 5.520819e+00 3.760093e+00 3.431632e+00 4.559265e+00 6.711921e+00 3.933985e+00 3.753476e+00 3.527750e+00 3.187942e+00 2.984890e+00 3.014203e+00 2.570731e+00 1.758187e+00
<GCONST> 1.077680e+02
<STATE> 4
<MEAN> 25
 -7.417162e+00 4.427086e+00 8.037939e+00 -5.942272e+00 8.755397e-01 -6.894073e+00 4.153379e+00 -1.619010e+00 -1.852302e+00 -8.824279e-01 5.407657e+00 -2.424973e+00 4.014734e+00 -2.388472e+00 2.076032e-01 -5.956495e-01 -3.024428e+00 -7.262776e-01 -2.266146e-01 1.360670e-01 3.045627e-01 -1.327875e-01 -1.954163e+00 4.009027e-01 1.489974e+00
<VARIANCE> 25
 8.134067e+01 5.134481e+01 4.382681e+01 2.321447e+01 5.796553e+01 4.973333e+01 3.400403e+01 4.391385e+01 2.661604e+01 3.543670e+01 4.068740e+01 2.153777e+01 3.973145e+00 5.555497e+00 3.727610e+00 2.572269e+00 5.446908e+00 4.700916e+00 3.453828e+00 4.967090e+00 3.434213e+00 3.342032e+00 3.622123e+00 2.033254e+00 1.604885e+00
<GCONST> 1.064595e+02
<TRANSP> 5
 0.000000e+00 1.000000e+00 0.000000e+00 0.000000e+00 0.000000e+00
 0.000000e+00 7.271381e-01 2.728619e-01 0.000000e+00 0.000000e+00
 0.000000e+00 0.000000e+00 6.792526e-01 3.207474e-01 0.000000e+00
 0.000000e+00 0.000000e+00 0.000000e+00 6.790044e-01 3.209956e-01
 0.000000e+00 0.000000e+00 0.000000e+00 0.000000e+00 0.000000e+00
<ENDHMM>
~h "k"
<BEGINHMM>
<NUMSTATES> 5
<STATE> 2
<MEAN> 25
 -4.196476e+00 8.384871e-01 -1.242679e+00 3.639113e+00 2.129160e+00 -1.408802e+00 -1.950757e+00 -7.325427e-01 2.159868e+00 -1.359442e+00 2.846380e+00 6.445338e-01 -7.291604e-01 -2.384778e+00 -1.142603e+00 -7.625204e-01 2.414769e+00 -2.206070e-01 3.063402e-01 5.576549e-01 1.041251e+00 5.588753e-01 8.438599e-01 1.181312e+00 1.152097e+00
<VARIANCE> 25
 2.268880e+01 5.853956e+01 7.510363e+01 5.367437e+01 6.973917e+01 4.292234e+01 3.967244e+01 5.043530e+01 3.900100e+01 4.295309e+01 3.427981e+01 2.434591e+01 2.565296e+00 6.710958e+00 9.406046e+00 7.356279e+00 6.976971e+00 6.208770e+00 4.615468e+00 5.524349e+00 4.280134e+00 5.052962e+00 3.967380e+00 3.222860e+00 2.370688e+00
<GCONST> 1.117718e+02
<STATE> 3
<MEAN> 25
 -5.049286e+00 -5.528311e+00 -5.345239e+00 -2.508925e-01 8.395230e+00 -2.617064e+00 7.678453e-02 1.239612e+00 5.878018e+00 1.321636e+00 4.188368e+00 4.923026e+00 1.797235e+00 3.026315e-02 5.958038e-01 -2.339833e+00 -7.790587e-01 -4.195485e-01 -4.978762e-01 -6.214044e-01 -3.721328e-01 3.127285e-01 -1.799483e+00 2.371406e-01 2.053717e+00
<VARIANCE> 25
 3.858648e+01 7.957333e+01 1.438748e+02 7.316931e+01 7.073470e+01 7.402591e+01 4.146243e+01 5.801972e+01 4.245225e+01 5.449704e+01 4.147111e+01 2.948180e+01 3.796317e+00 6.641593e+00 6.637900e+00 5.854815e+00 7.515681e+00 4.721472e+00 4.038370e+00 4.794102e+00 4.572620e+00 4.113173e+00 5.549717e+00 3.303971e+00 3.361848e+00
<GCONST> 1.149179e+02
<STATE> 4
<MEAN> 25
 2.725876e+00 -2.678643e+00 -2.099657e+00 -4.814476e+00 2.076823e+00 -3.413117e+00 -2.603660e+00 -1.056859e+00 1.793643e+00 4.985408e-01 -3.903450e+00 2.238915e+00 2.339150e+00 -2.571567e-01 1.990928e+00 -3.043084e+00 -2.157184e+00 6.102357e-01 -3.387353e-01 -4.383418e-01 -2.068844e+00 3.008449e-01 -3.050895e+00 -1.330327e+00 2.615166e+00
<VARIANCE> 25
 3.526305e+01 8.229336e+01 1.055228e+02 6.417303e+01 6.279819e+01 4.433612e+01 3.304813e+01 5.508825e+01 3.527129e+01 3.496693e+01 5.861456e+01 3.226902e+01 3.847863e+00 4.185508e+00 4.326573e+00 4.771617e+00 6.017823e+00 5.690069e+00 4.477982e+00 4.233237e+00 5.106349e+00 5.291609e+00 6.052448e+00 4.179723e+00 2.434095e+00
<GCONST> 1.125408e+02
<TRANSP> 5
 0.000000e+00 1.000000e+00 0.000000e+00 0.000000e+00 0.000000e+00
 0.000000e+00 6.127797e-01 3.872203e-01 0.000000e+00 0.000000e+00
 0.000000e+00 0.000000e+00 4.457341e-01 5.542659e-01 0.000000e+00
 0.000000e+00 0.000000e+00 0.000000e+00 2.792779e-01 7.207221e-01
 0.000000e+00 0.000000e+00 0.000000e+00 0.000000e+00 0.000000e+00
<ENDHMM>
~h "l"
<BEGINHMM>
<NUMSTATES> 5
<STATE> 2
<MEAN> 25
 6.043190e+00 -4.860965e+00 5.400278e+00 -3.361019e+00 -4.503931e+00 -6.665771e+00 -1.630568e+00 2.155530e+00 -1.752316e+00 -1.988247e+00 -4.834955e+00 3.155681e+00 4.408236e-02 1.498809e+00 6.819635e-01 7.084137e-01 -4.766697e-01 -6.292313e-01 -1.316583e+00 -5.269794e-01 4.875223e-02 -7.659571e-01 6.920357e-02 7.838973e-01 -8.323207e-01
<VARIANCE> 25
 5.588302e+00 5.049767e+01 3.090474e+01 3.297536e+01 2.888985e+01 3.972549e+01 5.571896e+01 5.705774e+01 3.420238e+01 3.270387e+01 2.676511e+01 2.233925e+01 3.271315e-01 1.948550e+00 1.765407e+00 2.059610e+00 2.354836e+00 4.239036e+00 3.622248e+00 3.268559e+00 2.734854e+00 3.353100e+00 3.009598e+00 1.990767e+00 5.394878e-01
<GCONST> 9.604131e+01
<STATE> 3
<MEAN> 25
 5.552403e+00 2.380242e+00 8.459333e+00 -2.769392e+00 -6.873194e+00 -2.281389e+00 -4.091071e+00 -3.345464e+00 1.361339e-01 -3.938162e+00 -6.521151e+00 3.178556e+00 -6.194303e-03 8.474373e-01 -5.809019e-03 2.527973e-01 -1.600791e-02 4.783345e-01 -2.850890e-01 -1.432464e-01 4.569708e-01 -3.930658e-01 -1.018361e-01 -4.810574e-02 -5.370390e-01
<VARIANCE> 25
 4.430488e+00 4.349657e+01 2.519755e+01 3.142406e+01 2.901165e+01 6.499961e+01 2.489753e+01 4.602045e+01 3.418481e+01 3.240509e+01 4.385987e+01 2.417420e+01 1.926045e-01 8.079405e-01 8.916360e-01 1.235426e+00 1.474483e+00 1.970884e+00 1.762571e+00 2.200582e+00 1.931676e+00 2.202679e+00 2.414601e+00 1.424365e+00 2.723449e-01
<GCONST> 8.848601e+01
<STATE> 4
<MEAN> 25
 5.832901e+00 2.270459e+00 7.328665e+00 -1.702694e+00 -5.864940e+00 -2.950249e+00 -5.339225e+00 -1.317712e+00 9.064515e-01 -4.090579e+00 -4.593486e+00 2.684781e+00 -1.829791e-01 -1.135237e+00 -2.671646e-01 -3.986329e-01 1.447208e-01 -2.047349e-01 9.187464e-01 4.017552e-01 -5.132290e-01 7.731566e-01 5.571108e-01 -6.130670e-01 5.849325e-01
<VARIANCE> 25
 5.014988e+00 5.430200e+01 2.789083e+01 3.598277e+01 3.062521e+01 6.008836e+01 3.550854e+01 5.616047e+01 3.659639e+01 3.516765e+01 4.166751e+01 2.350599e+01 4.783765e-01 3.075723e+00 3.100481e+00 3.281357e+00 3.338541e+00 3.602863e+00 4.508934e+00 4.315836e+00 3.411838e+00 4.477345e+00 4.132041e+00 1.976786e+00 1.058767e+00
<GCONST> 1.006732e+02
<TRANSP> 5
 0.000000e+00 1.000000e+00 0.000000e+00 0.000000e+00 0.000000e+00
 0.000000e+00 5.648354e-01 4.351646e-01 0.000000e+00 0.000000e+00
 0.000000e+00 0.000000e+00 6.840805e-01 3.159195e-01 0.000000e+00
 0.000000e+00 0.000000e+00 0.000000e+00 4.705848e-01 5.294152e-01
 0.000000e+00 0.000000e+00 0.000000e+00 0.000000e+00 0.000000e+00
<ENDHMM>
~h "m"
<BEGINHMM>
<NUMSTATES> 5
<STATE> 2
<MEAN> 25
 6.879915e+00 -2.137415e-01 -6.332778e-01 4.258070e+00 -1.785210e+00 -8.324094e-01 -2.006117e+00 -5.621030e+00 -5.245042e+00 -1.691881e+00 -2.992622e+00 -4.930766e+00 1.259812e+00 1.026351e+00 6.851258e-01 1.338191e+00 -1.823123e+00 -5.742497e-01 -7.414680e-02 -2.672615e+00 -5.211732e-01 3.276897e-01 -9.107566e-01 -6.106439e-01 2.104583e-01
<VARIANCE> 25
 2.202404e+01 5.706857e+01 2.960233e+01 2.927427e+01 4.702614e+01 3.173742e+01 3.117651e+01 4.664492e+01 3.078960e+01 2.989658e+01 3.249981e+01 2.707403e+01 3.268813e+00 3.713441e+00 2.411918e+00 3.479073e+00 3.667794e+00 2.908045e+00 2.501654e+00 3.502292e+00 3.335598e+00 3.608871e+00 4.240135e+00 2.695855e+00 3.776218e+00
<GCONST> 1.034571e+02
<STATE> 3
<MEAN> 25
 8.724546e+00 1.933632e+00 8.475158e-01 6.590919e+00 -5.233130e+00 -8.403875e-01 -1.000498e+00 -1.024419e+01 -5.300339e+00 -2.137990e+00 -5.260417e+00 -4.781262e+00 1.158472e-01 3.498352e-01 -9.805465e-02 2.505749e-01 -1.963871e-01 1.019390e-01 2.316528e-01 -2.598738e-01 1.742883e-01 7.947072e-02 2.911855e-02 -1.435681e-01 -1.679217e-01
<VARIANCE> 25
 3.835663e+00 2.573303e+01 1.725651e+01 2.120002e+01 2.849275e+01 2.856359e+01 2.720204e+01 2.721786e+01 2.557890e+01 3.305203e+01 3.036972e+01 2.606150e+01 1.565299e-01 1.277463e+00 9.924003e-01 1.398223e+00 1.381572e+00 1.462444e+00 1.526641e+00 2.133140e+00 1.585390e+00 1.960317e+00 1.749649e+00 1.712003e+00 3.198971e-01
<GCONST> 8.485715e+01
<STATE> 4
<MEAN> 25
 9.162081e+00 -1.261372e+00 -1.223377e+00 4.593462e+00 -4.048475e+00 -1.061829e+00 -1.198426e+00 -5.819948e+00 -4.568579e+00 -2.628273e+00 -3.733962e+00 -6.328632e+00 -3.735686e-01 -1.951200e+00 -5.568906e-02 -2.208448e+00 9.885305e-01 5.198990e-01 -1.955007e-01 2.502899e+00 -3.560669e-01 -7.065317e-01 4.329026e-01 2.424861e-01 1.119365e+00
<VARIANCE> 25
 5.962429e+00 4.629972e+01 3.532860e+01 3.867075e+01 4.169786e+01 3.888190e+01 2.773310e+01 5.348325e+01 2.804153e+01 3.604196e+01 2.967241e+01 2.631874e+01 7.126439e-01 2.800629e+00 6.080187e+00 4.675224e+00 5.524760e+00 4.739826e+00 3.251468e+00 5.059771e+00 3.429118e+00 4.088416e+00 3.363884e+00 3.014750e+00 8.797998e-01
<GCONST> 1.019922e+02
<TRANSP> 5
 0.000000e+00 1.000000e+00 0.000000e+00 0.000000e+00 0.000000e+00
 0.000000e+00 5.136800e-01 4.863199e-01 0.000000e+00 0.000000e+00
 0.000000e+00 0.000000e+00 7.917470e-01 2.082530e-01 0.000000e+00
 0.000000e+00 0.000000e+00 0.000000e+00 6.128837e-01 3.871163e-01
 0.000000e+00 0.000000e+00 0.000000e+00 0.000000e+00 0.000000e+00
<ENDHMM>
~h "n"
<BEGINHMM>
<NUMSTATES> 5
<STATE> 2
<MEAN> 25
 6.407500e+00 -6.999257e+00 2.832214e+00 1.061350e-01 -4.473101e-01 -3.582859e+00 3.089574e-01 3.156039e+00 -8.509324e+00 -8.175962e+00 -4.842021e+00 -1.438735e-01 3.360354e-01 1.830804e+00 5.594115e-01 1.353292e+00 -1.825874e+00 -7.764032e-01 -1.177358e-01 -1.553324e+00 1.134651e-02 4.192517e-01 -3.793523e-03 -5.257289e-02 -9.720845e-01
<VARIANCE> 25
 5.267554e+00 5.424618e+01 2.487547e+01 3.341718e+01 4.599326e+01 2.970176e+01 3.244987e+01 5.231643e+01 3.869194e+01 3.591422e+01 2.723417e+01 2.205009e+01 3.137613e-01 1.824211e+00 1.537636e+00 2.039909e+00 2.308968e+00 2.176211e+00 2.343448e+00 3.231273e+00 2.300461e+00 2.851635e+00 2.214584e+00 1.893553e+00 5.891520e-01
<GCONST> 9.362576e+01
<STATE> 3
<MEAN> 25
 7.921422e+00 8.134111e-01 3.535441e+00 5.316967e+00 -7.274374e+00 -3.443985e+00 1.753151e+00 -5.264305e+00 -6.145394e+00 -5.628041e+00 -6.039935e+00 -4.033133e-01 1.655349e-01 9.878671e-01 -2.618391e-01 6.700017e-01 -5.458351e-01 1.332270e-01 3.982415e-01 -7.568386e-01 1.734148e-01 -7.932763e-02 -3.351055e-02 -1.625129e-02 -5.954221e-01
<VARIANCE> 25
 3.769310e+00 2.242895e+01 1.757329e+01 1.979627e+01 2.594605e+01 2.508591e+01 2.690022e+01 3.242119e+01 3.094336e+01 2.618806e+01 3.291920e+01 2.390142e+01 1.476174e-01 1.146000e+00 8.412333e-01 1.327932e+00 1.336956e+00 1.466392e+00 1.529858e+00 2.083326e+00 1.577607e+00 1.729945e+00 1.655287e+00 1.489757e+00 3.129740e-01
<GCONST> 8.376194e+01
<STATE> 4
<MEAN> 25
 7.859228e+00 4.649961e+00 1.796008e+00 5.713574e+00 -6.050020e+00 -3.120357e+00 9.809235e-01 -4.674316e+00 -5.628847e+00 -6.166151e+00 -3.554499e+00 -1.050870e+00 -4.446526e-01 -1.018084e-01 7.699320e-02 -4.908416e-01 8.255073e-01 2.215423e-01 -6.534809e-01 5.642479e-01 1.720517e-02 -1.209550e-01 5.436023e-01 -2.274558e-01 -9.130086e-02
<VARIANCE> 25
 5.678626e+00 3.684590e+01 2.088631e+01 2.304218e+01 3.357647e+01 3.007853e+01 3.286549e+01 3.567934e+01 3.077548e+01 2.751129e+01 3.880552e+01 2.604504e+01 4.207493e-01 3.013671e+00 1.873574e+00 2.767824e+00 2.311810e+00 2.294155e+00 2.338131e+00 2.870393e+00 2.305021e+00 2.363543e+00 2.276246e+00 1.817313e+00 1.082785e+00
<GCONST> 9.376134e+01
<TRANSP> 5
 0.000000e+00 1.000000e+00 0.000000e+00 0.000000e+00 0.000000e+00
 0.000000e+00 6.119773e-01 3.880228e-01 0.000000e+00 0.000000e+00
 0.000000e+00 0.000000e+00 7.056759e-01 2.943241e-01 0.000000e+00
 0.000000e+00 0.000000e+00 0.000000e+00 5.734239e-01 4.265762e-01
 0.000000e+00 0.000000e+00 0.000000e+00 0.000000e+00 0.000000e+00
<ENDHMM>
~h "p"
<BEGINHMM>
<NUMSTATES> 5
<STATE> 2
<MEAN> 25
 -5.202190e+00 3.964674e+00 -2.995436e+00 4.889264e+00 6.032135e-01 2.458124e-01 -3.455859e-01 1.398818e+00 2.861907e+00 2.006887e-01 4.510155e+00 3.307970e-01 -3.704189e-01 -8.611796e-01 -2.065402e-01 3.777538e-01 4.996472e-01 1.701114e-01 9.685934e-02 3.996458e-01 5.131022e-01 2.319756e-01 5.413870e-01 3.748106e-01 5.385299e-02
<VARIANCE> 25
 1.495889e+01 2.247085e+01 3.500721e+01 1.773417e+01 3.934836e+01 2.520393e+01 2.117704e+01 2.602619e+01 2.289275e+01 2.333007e+01 2.355435e+01 1.742115e+01 9.113255e-01 3.242539e+00 1.973584e+00 1.701466e+00 2.462244e+00 1.854128e+00 2.109103e+00 2.415280e+00 2.284964e+00 2.115695e+00 2.014614e+00 1.736637e+00 1.220108e+00
<GCONST> 9.217295e+01
<STATE> 3
<MEAN> 25
 -3.520742e+00 -3.848019e+00 -3.382999e+00 5.840579e+00 1.405259e+00 -2.083816e-01 -5.906364e-01 2.214080e+00 4.272182e+00 8.179422e-02 5.043710e+00 1.664117e+00 2.523979e+00 -1.919736e+00 -3.667750e-01 -9.184431e-01 -5.329262e-01 -4.248638e-01 -1.024596e+00 -3.380564e-01 9.936448e-03 -8.733549e-02 -7.805321e-01 -3.772826e-01 2.911352e+00
<VARIANCE> 25
 1.424453e+01 5.798816e+01 4.437168e+01 3.627726e+01 3.876327e+01 3.580270e+01 2.700953e+01 3.222172e+01 2.888977e+01 2.871379e+01 2.573569e+01 2.106105e+01 3.733749e+00 7.755110e+00 6.041518e+00 5.660766e+00 6.591080e+00 4.330769e+00 4.061242e+00 4.787842e+00 4.353890e+00 4.624462e+00 4.211994e+00 3.519655e+00 3.131876e+00
<GCONST> 1.071252e+02
<STATE> 4
<MEAN> 25
 7.013503e+00 -5.217033e+00 -5.984040e+00 -2.572673e-01 -2.368593e+00 -1.673466e+00 -5.372760e+00 -1.990082e-01 2.924361e+00 -6.394383e-01 -8.418714e-01 -2.495341e+00 2.784897e+00 -1.485640e+00 -3.994714e-03 -2.501017e+00 -5.977364e-01 -4.823884e-02 -4.856072e-01 4.989848e-01 -6.611261e-01 2.113141e-01 -2.416879e+00 -1.244522e+00 3.234720e+00
<VARIANCE> 25
 2.524748e+01 5.366911e+01 5.130067e+01 6.356404e+01 7.583942e+01 3.928247e+01 3.171111e+01 2.845862e+01 3.706237e+01 4.532180e+01 3.595898e+01 3.200106e+01 3.345514e+00 7.087254e+00 5.421775e+00 5.895484e+00 7.466363e+00 4.550209e+00 3.963329e+00 5.484607e+00 5.045159e+00 4.452891e+00 5.110592e+00 3.749948e+00 2.931707e+00
<GCONST> 1.109030e+02
<TRANSP> 5
 0.000000e+00 1.000000e+00 0.000000e+00 0.000000e+00 0.000000e+00
 0.000000e+00 6.931760e-01 3.068240e-01 0.000000e+00 0.000000e+00
 0.000000e+00 0.000000e+00 5.086010e-01 4.913990e-01 0.000000e+00
 0.000000e+00 0.000000e+00 0.000000e+00 4.002620e-01 5.997381e-01
 0.000000e+00 0.000000e+00 0.000000e+00 0.000000e+00 0.000000e+00
<ENDHMM>
~h "r"
<BEGINHMM>
<NUMSTATES> 5
<STATE> 2
<MEAN> 25
 6.659847e+00 -1.007384e+01 -6.935409e-01 -1.958791e+00 -7.464782e-01 -3.683559e+00 1.624631e-01 5.259631e+00 -3.568875e-01 -2.386320e+00 -5.659030e+00 -2.688580e-01 3.544694e-01 -7.696369e-01 5.446637e-01 -2.078236e-01 -8.818154e-01 -7.147920e-01 5.189900e-01 8.162860e-01 -3.300661e-01 -2.434750e-01 -2.417214e-01 1.359729e-01 7.009050e-01
<VARIANCE> 25
 1.295280e+01 4.476674e+01 4.296369e+01 4.840292e+01 6.893846e+01 3.695778e+01 6.196389e+01 4.294886e+01 3.835172e+01 3.776914e+01 4.653656e+01 2.210188e+01 1.617710e+00 2.742793e+00 3.487757e+00 3.893557e+00 4.657479e+00 3.188587e+00 3.434844e+00 3.230340e+00 3.371063e+00 4.112014e+00 3.680060e+00 2.186422e+00 1.792419e+00
<GCONST> 1.043944e+02
<STATE> 3
<MEAN> 25
 6.649053e+00 -1.239177e+01 9.884413e-01 -3.469087e+00 -2.265687e+00 -6.191763e+00 2.787326e+00 7.941644e+00 -2.195133e+00 -1.884447e+00 -6.217903e+00 4.230378e-01 1.842880e-02 5.749622e-01 6.049503e-01 6.835077e-01 -1.251733e+00 -4.915410e-01 -6.381996e-01 -3.090648e-01 2.821517e-02 -2.121081e-01 8.337817e-01 1.549444e-01 -5.088356e-01
<VARIANCE> 25
 6.284835e+00 2.556290e+01 2.575715e+01 3.068076e+01 3.865511e+01 2.641580e+01 4.424227e+01 3.041149e+01 2.910556e+01 2.763791e+01 3.037286e+01 2.024629e+01 2.721896e-01 1.469458e+00 1.376948e+00 2.303400e+00 3.139332e+00 2.139737e+00 3.491270e+00 2.075361e+00 2.228955e+00 2.435656e+00 2.531626e+00 1.538137e+00 7.096186e-01
<GCONST> 9.177448e+01
<STATE> 4
<MEAN> 25
 6.493063e+00 -5.889654e+00 1.174258e+00 3.243342e+00 -6.268826e+00 -7.180130e+00 -1.729565e+00 3.547619e+00 -2.913601e-01 -4.076723e+00 -2.163170e+00 3.824688e-01 -3.693011e-01 1.440846e+00 -3.181855e-01 9.877342e-01 2.443928e-01 2.980851e-01 -2.926093e-01 -6.684266e-01 2.595510e-01 -4.122890e-01 4.873599e-01 -2.335280e-01 -1.270866e+00
<VARIANCE> 25
 8.426440e+00 3.096493e+01 2.985439e+01 3.170521e+01 2.938567e+01 3.055846e+01 4.103784e+01 3.038122e+01 3.532290e+01 2.945719e+01 2.619491e+01 2.194139e+01 6.822371e-01 2.113116e+00 1.811553e+00 2.758598e+00 2.643511e+00 2.444462e+00 3.140488e+00 3.199854e+00 2.569633e+00 2.501884e+00 2.675011e+00 1.938387e+00 1.114962e+00
<GCONST> 9.535738e+01
<TRANSP> 5
 0.000000e+00 1.000000e+00 0.000000e+00 0.000000e+00 0.000000e+00
 0.000000e+00 3.356896e-01 6.643104e-01 0.000000e+00 0.000000e+00
 0.000000e+00 0.000000e+00 6.593724e-01 3.406276e-01 0.000000e+00
 0.000000e+00 0.000000e+00 0.000000e+00 6.557925e-01 3.442076e-01
 0.000000e+00 0.000000e+00 0.000000e+00 0.000000e+00 0.000000e+00
<ENDHMM>
~h "s"
<BEGINHMM>
<NUMSTATES> 5
<STATE> 2
<MEAN> 25
 -4.880540e+00 4.936674e+00 -1.920092e+00 3.829844e+00 -2.449075e-01 -7.750093e+00 3.651277e+00 -5.548887e+00 2.105229e-01 -4.191421e+00 2.280492e+00 -4.271290e-01 -2.868679e+00 1.921673e+00 -1.503559e+00 1.455860e+00 3.652307e-01 3.365237e-02 8.992391e-01 -2.750561e-01 1.262606e+00 -5.668477e-01 1.926801e+00 -6.733193e-01 -8.392631e-01
<VARIANCE> 25
 4.162960e+01 3.818281e+01 5.253421e+01 3.629753e+01 7.095513e+01 4.359288e+01 4.663209e+01 6.462055e+01 3.897675e+01 4.589791e+01 3.987532e+01 2.972340e+01 1.933657e+00 2.462906e+00 2.713890e+00 3.180178e+00 2.814747e+00 3.210394e+00 3.925058e+00 3.676725e+00 3.211301e+00 3.261413e+00 3.544057e+00 2.782361e+00 6.531609e-01
<GCONST> 1.042844e+02
<STATE> 3
<MEAN> 25
 -1.253119e+01 7.199788e+00 -5.896877e+00 6.864960e+00 1.383598e+00 -4.308678e+00 4.773788e+00 -2.583623e+00 3.988445e+00 -2.504414e+00 7.496983e+00 -4.214653e-01 -3.827276e-01 -6.159782e-01 3.033311e-02 5.296106e-02 3.175713e-01 3.753436e-01 3.523502e-01 3.733222e-01 2.522813e-01 2.319387e-01 4.855643e-01 3.219687e-01 -3.656396e-01
<VARIANCE> 25
 2.186247e+01 2.861370e+01 3.874619e+01 3.117981e+01 5.404367e+01 3.925305e+01 4.006418e+01 4.949610e+01 3.543562e+01 3.956992e+01 3.060739e+01 2.481390e+01 1.188140e+00 2.700909e+00 1.939685e+00 1.785471e+00 2.498317e+00 2.374481e+00 3.049875e+00 3.221237e+00 2.688529e+00 2.691265e+00 2.481366e+00 1.960992e+00 1.090475e+00
<GCONST> 9.873433e+01
<STATE> 4
<MEAN> 25
 -6.396665e+00 1.732293e-01 -4.199234e+00 4.005600e+00 9.482258e-01 -5.437192e+00 6.993962e+00 -1.643784e+00 3.671547e+00 -3.677221e+00 5.174806e+00 1.794344e+00 4.558672e+00 -1.875331e+00 4.582931e-01 -1.989218e+00 -1.030462e+00 -6.178176e-01 -1.014113e+00 -7.324788e-03 -9.647703e-01 -4.155990e-01 -3.443402e+00 -2.865913e-02 2.349325e+00
<VARIANCE> 25
 8.418883e+01 4.011167e+01 4.595907e+01 3.863277e+01 6.526979e+01 4.080587e+01 4.241848e+01 4.297294e+01 3.091865e+01 4.689547e+01 6.776308e+01 2.401009e+01 4.266118e+00 5.389988e+00 4.985574e+00 3.370430e+00 6.167115e+00 4.028442e+00 5.120771e+00 5.440354e+00 3.944756e+00 4.579630e+00 6.616873e+00 2.968882e+00 2.700077e+00
<GCONST> 1.109845e+02
<TRANSP> 5
 0.000000e+00 1.000000e+00 0.000000e+00 0.000000e+00 0.000000e+00
 0.000000e+00 7.122696e-01 2.877304e-01 0.000000e+00 0.000000e+00
 0.000000e+00 0.000000e+00 8.479378e-01 1.520622e-01 0.000000e+00
 0.000000e+00 0.000000e+00 0.000000e+00 6.521536e-01 3.478464e-01
 0.000000e+00 0.000000e+00 0.000000e+00 0.000000e+00 0.000000e+00
<ENDHMM>
~h "t"
<BEGINHMM>
<NUMSTATES> 5
<STATE> 2
<MEAN> 25
 -3.767529e+00 5.026776e+00 -2.898669e+00 5.119922e+00 -7.937582e-01 -2.195849e+00 -6.627759e-01 3.001548e+00 3.346359e+00 -3.173621e-02 5.065530e+00 7.539541e-01 -8.571245e-01 -5.362335e-01 -2.922629e-01 -4.161160e-02 3.972815e-01 5.302905e-01 2.430505e-01 1.727512e-01 3.759551e-01 1.981725e-01 7.593212e-01 1.277819e-01 -3.866415e-01
<VARIANCE> 25
 1.583012e+01 1.818310e+01 2.604425e+01 1.578997e+01 3.416379e+01 3.209207e+01 2.572605e+01 3.513119e+01 2.329374e+01 2.809468e+01 2.451275e+01 1.580791e+01 7.377803e-01 2.310008e+00 1.603423e+00 1.332915e+00 2.066779e+00 1.926377e+00 2.127702e+00 2.531141e+00 2.010012e+00 2.119838e+00 2.206707e+00 1.654194e+00 1.265914e+00
<GCONST> 9.121644e+01
<STATE> 3
<MEAN> 25
 -4.823505e+00 -2.099123e+00 -4.572961e+00 3.570692e+00 5.885088e-02 -8.560032e-01 2.324191e+00 1.383873e+00 4.207786e+00 -2.432503e-01 8.412196e+00 2.024223e+00 6.998929e-01 -3.082081e+00 -2.468365e-01 -1.328628e+00 -3.568554e-01 -2.367108e-01 1.544681e+00 -1.077294e+00 2.264664e-01 -4.189928e-01 4.402857e-01 2.693231e-01 3.405200e+00
<VARIANCE> 25
 1.439104e+01 6.224575e+01 3.112497e+01 2.806771e+01 3.577544e+01 3.743409e+01 4.212626e+01 4.107898e+01 3.253851e+01 3.499867e+01 3.706882e+01 2.330140e+01 3.903631e+00 4.731267e+00 4.324883e+00 4.051019e+00 5.716216e+00 6.554232e+00 5.564236e+00 8.157787e+00 4.797974e+00 4.809597e+00 8.271201e+00 3.494430e+00 3.872281e+00
<GCONST> 1.090471e+02
<STATE> 4
<MEAN> 25
 -4.802729e-01 -4.641014e+00 -3.086699e+00 1.157401e-01 -2.624342e+00 -3.777797e+00 4.258446e+00 -2.412495e+00 3.264743e+00 -1.903496e+00 5.187510e+00 8.806611e-01 2.614601e+00 -4.557582e-01 1.621131e+00 -2.252181e+00 -7.653128e-01 -8.325263e-01 -1.023171e+00 -7.084467e-01 -1.152216e+00 1.514187e-01 -3.705978e+00 -4.887461e-01 2.903876e+00
<VARIANCE> 25
 4.041177e+01 4.579804e+01 3.651009e+01 4.331913e+01 4.835085e+01 6.137103e+01 5.878952e+01 5.868075e+01 4.018402e+01 3.997065e+01 8.272002e+01 2.825645e+01 3.354905e+00 6.082079e+00 6.511271e+00 5.027578e+00 6.497875e+00 5.109894e+00 5.755388e+00 8.809531e+00 4.583302e+00 4.560282e+00 8.107224e+00 3.173337e+00 3.923916e+00
<GCONST> 1.137037e+02
<TRANSP> 5
 0.000000e+00 1.000000e+00 0.000000e+00 0.000000e+00 0.000000e+00
 0.000000e+00 7.446732e-01 2.553267e-01 0.000000e+00 0.000000e+00
 0.000000e+00 0.000000e+00 5.162194e-01 4.837806e-01 0.000000e+00
 0.000000e+00 0.000000e+00 0.000000e+00 3.774526e-01 6.225474e-01
 0.000000e+00 0.000000e+00 0.000000e+00 0.000000e+00 0.000000e+00
<ENDHMM>
~h "u"
<BEGINHMM>
<NUMSTATES> 5
<STATE> 2
<MEAN> 25
 6.484821e+00 3.618198e+00 -6.438495e+00 -6.561975e+00 2.606578e+00 -9.023118e-01 -3.502568e+00 -4.465231e+00 -2.998192e+00 3.107640e+00 1.115462e+00 6.117314e-01 2.400759e+00 5.614461e-01 -1.212135e+00 -2.820026e+00 6.269144e-01 8.113196e-01 -1.118186e+00 -1.311555e+00 -1.841207e+00 1.351399e+00 -4.562878e-01 -2.991768e-01 1.428066e+00
<VARIANCE> 25
 3.451378e+01 4.539249e+01 3.855429e+01 8.089159e+01 4.628809e+01 5.442896e+01 5.498771e+01 3.968076e+01 5.859263e+01 5.542317e+01 4.161741e+01 3.368755e+01 4.189760e+00 3.845767e+00 3.626251e+00 5.939235e+00 5.509508e+00 4.231730e+00 6.003870e+00 4.040554e+00 6.327843e+00 4.590035e+00 4.765299e+00 3.139684e+00 3.617464e+00
<GCONST> 1.117472e+02
<STATE> 3
<MEAN> 25
 1.025668e+01 3.650168e+00 -8.704895e+00 -1.023858e+01 4.804847e+00 1.797346e+00 -5.046099e+00 -5.980867e+00 -5.754941e+00 5.072360e+00 -1.241531e+00 -1.304275e+00 -1.262961e-01 -1.249695e-01 3.434472e-01 1.050073e+00 -6.228129e-02 -2.849947e-01 -3.578241e-01 2.906620e-01 5.441279e-01 -5.147305e-01 -4.778799e-01 -3.048108e-01 -2.124322e-01
<VARIANCE> 25
 5.906907e+00 3.440517e+01 2.592672e+01 4.873989e+01 4.219935e+01 4.260728e+01 5.531654e+01 2.601305e+01 5.418747e+01 5.391872e+01 3.973934e+01 3.641457e+01 4.799660e-01 2.623073e+00 1.724012e+00 4.158824e+00 2.805494e+00 3.527006e+00 3.486007e+00 2.659565e+00 4.173285e+00 4.244819e+00 3.417595e+00 2.911595e+00 9.324240e-01
<GCONST> 1.002476e+02
<STATE> 4
<MEAN> 25
 4.292229e+00 6.392118e+00 -4.913167e+00 -1.329143e-01 1.998864e+00 -9.726814e-01 -5.001843e+00 -2.469363e+00 -7.579481e-01 -2.934641e-01 1.254217e+00 -1.158764e+00 -1.059047e+00 1.761243e-01 6.786597e-01 1.270239e+00 -3.895508e-01 -7.520840e-02 3.809623e-01 4.352331e-01 5.004131e-01 -5.730814e-01 5.290614e-01 1.224593e-01 -9.611094e-01
<VARIANCE> 25
 3.375977e+01 3.682469e+01 2.477433e+01 3.137578e+01 3.381145e+01 3.803267e+01 4.138773e+01 2.856504e+01 3.471367e+01 3.675756e+01 4.063858e+01 2.346124e+01 8.435254e-01 1.453948e+00 1.886844e+00 2.169487e+00 2.143756e+00 2.358982e+00 2.270791e+00 2.152828e+00 2.439112e+00 2.945097e+00 2.618464e+00 2.066512e+00 8.544621e-01
<GCONST> 9.629832e+01
<TRANSP> 5
 0.000000e+00 1.000000e+00 0.000000e+00 0.000000e+00 0.000000e+00
 0.000000e+00 6.161433e-01 3.838567e-01 0.000000e+00 0.000000e+00
 0.000000e+00 0.000000e+00 7.769377e-01 2.230623e-01 0.000000e+00
 0.000000e+00 0.000000e+00 0.000000e+00 7.177814e-01 2.822186e-01
 0.000000e+00 0.000000e+00 0.000000e+00 0.000000e+00 0.000000e+00
<ENDHMM>
~h "v"
<BEGINHMM>
<NUMSTATES> 5
<STATE> 2
<MEAN> 25
 4.893071e+00 1.674923e+00 -1.121111e+00 3.340259e+00 1.285946e-01 -3.498497e+00 -4.385214e+00 -2.038459e+00 -1.091691e+00 2.280429e-02 -6.056991e-01 -3.828672e+00 1.420617e+00 4.503912e-01 -1.037656e+00 -4.186227e-02 3.040206e-01 -4.679834e-02 -1.175640e+00 -8.839715e-01 1.073779e-01 2.306966e-01 -2.485123e-01 -9.223441e-01 4.915673e-01
<VARIANCE> 25
 3.036666e+01 4.638462e+01 4.057869e+01 4.456836e+01 3.905527e+01 3.646710e+01 3.799692e+01 3.546039e+01 3.770616e+01 3.166365e+01 3.094408e+01 2.505534e+01 4.179625e+00 3.317437e+00 3.493705e+00 3.764782e+00 3.632178e+00 3.455685e+00 3.387080e+00 3.173656e+00 4.032206e+00 3.783428e+00 3.236493e+00 2.601416e+00 3.383901e+00
<GCONST> 1.050884e+02
<STATE> 3
<MEAN> 25
 8.972181e+00 2.170283e+00 -7.017731e+00 -6.564712e-01 3.595040e+00 6.322388e-02 -6.812663e+00 -4.359877e+00 9.561743e-02 3.345073e+00 -3.056858e-01 -5.403000e+00 1.575274e-01 -1.672138e-01 -5.082383e-01 -3.325294e-01 3.892578e-01 4.468119e-01 -6.038120e-02 1.997363e-01 3.217887e-01 2.351293e-01 -1.535974e-01 -3.023780e-01 1.070443e-01
<VARIANCE> 25
 8.336689e+00 2.715897e+01 3.778856e+01 4.913598e+01 3.054023e+01 3.367167e+01 2.428131e+01 2.350091e+01 3.380277e+01 3.767384e+01 3.178378e+01 1.848675e+01 6.572994e-01 3.282248e+00 2.533971e+00 3.288569e+00 2.283417e+00 2.340662e+00 1.709682e+00 2.370241e+00 2.148576e+00 2.981036e+00 3.202987e+00 2.021404e+00 1.452362e+00
<GCONST> 9.576657e+01
<STATE> 4
<MEAN> 25
 8.379597e+00 -2.199159e+00 -4.668731e+00 -2.973262e-01 1.920547e+00 -1.951672e+00 -5.017475e+00 2.937680e-01 1.392025e+00 1.460593e+00 -3.768151e+00 -5.326047e+00 -3.308681e-01 -2.083418e+00 1.193727e+00 -5.564706e-01 -7.294610e-01 -2.144733e-01 1.446521e+00 1.243896e+00 -5.932996e-01 -1.268118e-01 -8.047091e-01 5.508594e-01 1.221201e+00
<VARIANCE> 25
 1.133786e+01 4.668737e+01 6.411797e+01 5.494186e+01 5.196326e+01 4.107910e+01 2.598785e+01 2.640766e+01 3.293724e+01 4.379599e+01 3.447792e+01 2.510251e+01 5.239604e-01 2.752088e+00 2.343138e+00 3.138338e+00 3.801329e+00 2.746580e+00 2.471477e+00 3.713484e+00 2.974158e+00 3.962951e+00 3.578617e+00 2.387234e+00 1.124650e+00
<GCONST> 1.002735e+02
<TRANSP> 5
 0.000000e+00 1.000000e+00 0.000000e+00 0.000000e+00 0.000000e+00
 0.000000e+00 5.197052e-01 4.802949e-01 0.000000e+00 0.000000e+00
 0.000000e+00 0.000000e+00 6.978002e-01 3.021998e-01 0.000000e+00
 0.000000e+00 0.000000e+00 0.000000e+00 5.532967e-01 4.467033e-01
 0.000000e+00 0.000000e+00 0.000000e+00 0.000000e+00 0.000000e+00
<ENDHMM>
~h "y"
<BEGINHMM>
<NUMSTATES> 5
<STATE> 2
<MEAN> 25
 2.709275e+00 1.378156e+00 9.543218e+00 -6.324237e+00 -6.204809e+00 -6.605567e-01 -1.612848e-01 -4.101741e+00 -2.521279e+00 1.861846e+00 -3.342084e+00 -8.089155e-01 7.356408e-01 -7.971503e-01 1.411670e+00 -1.908123e+00 -1.053777e+00 -9.558336e-02 3.010899e-02 -5.818595e-01 -8.340368e-01 1.179365e+00 -1.244685e+00 -1.884809e-01 1.468295e+00
<VARIANCE> 25
 2.400442e+01 6.951800e+01 4.238136e+01 6.767765e+01 5.795747e+01 4.377500e+01 5.024874e+01 4.749469e+01 4.033920e+01 4.025806e+01 4.905328e+01 2.456894e+01 3.685287e+00 4.871035e+00 3.935180e+00 5.337357e+00 4.982638e+00 3.998718e+00 4.523785e+00 4.813358e+00 4.176349e+00 4.508219e+00 5.354837e+00 2.496064e+00 2.166589e+00
<GCONST> 1.097378e+02
<STATE> 3
<MEAN> 25
 2.873831e+00 -2.828243e+00 1.307521e+01 -1.240846e+01 -6.797260e+00 -6.457138e-01 8.284888e-01 -4.923048e+00 -3.734144e+00 5.029041e+00 -6.977428e+00 -1.747969e-01 3.348612e-02 -8.083723e-01 -1.640457e-01 9.608302e-02 -2.041366e-01 -3.106978e-01 6.022645e-01 3.400145e-01 -2.204215e-01 3.400853e-01 1.222557e-01 -1.312317e-02 3.458818e-01
<VARIANCE> 25
 5.430159e+00 5.656610e+01 2.076738e+01 2.465371e+01 3.990794e+01 3.191622e+01 3.966190e+01 2.755793e+01 2.664874e+01 3.366846e+01 2.632649e+01 1.916796e+01 3.066517e-01 2.907163e+00 1.570344e+00 1.900189e+00 1.977077e+00 2.404183e+00 2.689709e+00 2.879788e+00 1.937784e+00 2.528694e+00 2.122850e+00 1.519020e+00 8.205915e-01
<GCONST> 9.222881e+01
<STATE> 4
<MEAN> 25
 4.649760e+00 -8.527432e+00 7.446611e+00 -7.180685e+00 -7.543485e+00 -4.311621e+00 5.298482e+00 1.206672e+00 -5.571278e+00 3.364033e+00 -4.389692e+00 -5.239827e-01 3.344923e-01 -3.732514e-01 -1.720162e+00 1.347485e+00 1.108945e+00 -2.844881e-01 -2.624435e-01 1.019451e+00 1.213313e-01 -1.356693e+00 5.893232e-02 2.771766e-01 -2.515959e-01
<VARIANCE> 25
 6.787168e+00 2.969241e+01 2.484970e+01 2.872473e+01 3.551239e+01 3.615856e+01 3.264276e+01 4.023343e+01 2.786950e+01 4.060835e+01 2.526364e+01 1.954516e+01 3.607371e-01 2.631933e+00 2.468508e+00 1.937522e+00 3.205009e+00 2.626650e+00 2.940847e+00 4.022572e+00 2.320036e+00 3.555094e+00 1.959159e+00 1.648823e+00 9.190906e-01
<GCONST> 9.470750e+01
<TRANSP> 5
 0.000000e+00 1.000000e+00 0.000000e+00 0.000000e+00 0.000000e+00
 0.000000e+00 5.509912e-01 4.490087e-01 0.000000e+00 0.000000e+00
 0.000000e+00 0.000000e+00 7.736681e-01 2.263319e-01 0.000000e+00
 0.000000e+00 0.000000e+00 0.000000e+00 6.982841e-01 3.017159e-01
 0.000000e+00 0.000000e+00 0.000000e+00 0.000000e+00 0.000000e+00
<ENDHMM>
~h "aa"
<BEGINHMM>
<NUMSTATES> 5
<STATE> 2
<MEAN> 25
 6.425551e+00 -1.232654e+01 -6.102317e+00 -2.139326e+00 7.072753e+00 1.459970e+00 1.251410e+00 4.264048e+00 -2.178429e+00 -4.350848e+00 -6.881459e+00 -1.275507e+00 6.323906e-01 -1.758239e+00 -8.920913e-01 -1.155332e-01 2.097850e+00 1.819774e+00 -1.149265e-01 2.888129e-01 -1.109441e+00 -1.111862e-01 -7.025740e-01 -4.162052e-01 1.056225e+00
<VARIANCE> 25
 1.555293e+01 3.191191e+01 3.248358e+01 3.841016e+01 5.204369e+01 4.628162e+01 3.810240e+01 3.594524e+01 3.459115e+01 4.196231e+01 3.585216e+01 3.344714e+01 1.772793e+00 2.735219e+00 2.866608e+00 3.048681e+00 4.000817e+00 2.926954e+00 3.401131e+00 3.452782e+00 2.885334e+00 2.951102e+00 3.585860e+00 2.661814e+00 2.191804e+00
<GCONST> 1.025149e+02
<STATE> 3
<MEAN> 25
 8.097758e+00 -1.378291e+01 -9.175760e+00 -6.896098e-01 1.193047e+01 7.685308e+00 -5.082803e-01 1.934734e+00 -4.376052e+00 -2.941605e+00 -5.337215e+00 -3.080967e+00 -7.573721e-04 -5.170828e-02 2.800710e-02 2.176987e-01 -1.432655e-01 -5.979253e-02 8.192391e-02 1.037020e-01 -1.643792e-01 -1.908953e-01 8.420485e-02 1.345012e-01 -6.998523e-02
<VARIANCE> 25
 5.673264e+00 2.634339e+01 2.456203e+01 3.056911e+01 2.502151e+01 2.780837e+01 3.200352e+01 2.961786e+01 2.520333e+01 3.604111e+01 3.121143e+01 2.686057e+01 2.015686e-01 7.468351e-01 9.635012e-01 1.162090e+00 1.816463e+00 2.124259e+00 1.782719e+00 1.886706e+00 1.456852e+00 1.535853e+00 1.507640e+00 1.458341e+00 2.300106e-01
<GCONST> 8.542387e+01
<STATE> 4
<MEAN> 25
 5.658850e+00 -9.149280e+00 -7.412797e+00 5.542893e-01 5.252318e+00 9.970429e-01 2.610235e+00 4.360291e+00 -2.688501e+00 -4.061566e+00 -5.165508e+00 -3.101890e-01 -5.494092e-01 1.370442e+00 4.452655e-01 4.718229e-01 -1.062883e+00 -7.325735e-01 2.932310e-01 -1.238717e-01 5.023320e-01 -1.443423e-02 5.220931e-01 2.257774e-01 -1.174982e+00
<VARIANCE> 25
 1.734639e+01 4.485848e+01 3.820515e+01 4.365605e+01 4.418363e+01 5.031594e+01 4.660153e+01 3.282621e+01 3.684443e+01 3.972134e+01 3.725987e+01 3.415039e+01 6.450072e-01 1.529399e+00 2.216717e+00 2.149989e+00 2.689993e+00 3.469370e+00 2.645269e+00 2.637232e+00 2.183974e+00 2.457730e+00 2.007814e+00 2.025748e+00 9.115173e-01
<GCONST> 9.821458e+01
<TRANSP> 5
 0.000000e+00 1.000000e+00 0.000000e+00 0.000000e+00 0.000000e+00
 0.000000e+00 6.240129e-01 3.759871e-01 0.000000e+00 0.000000e+00
 0.000000e+00 0.000000e+00 8.501875e-01 1.498125e-01 0.000000e+00
 0.000000e+00 0.000000e+00 0.000000e+00 7.908819e-01 2.091180e-01
 0.000000e+00 0.000000e+00 0.000000e+00 0.000000e+00 0.000000e+00
<ENDHMM>
~h "ai"
<BEGINHMM>
<NUMSTATES> 5
<STATE> 2
<MEAN> 25
 2.946232e+00 5.226302e-01 5.722637e+00 -3.008358e+00 -1.111606e+01 2.674214e+00 8.814857e+00 -2.377689e+00 -2.305668e+00 3.060960e+00 -1.959298e+00 -3.533713e+00 -7.613240e-01 7.112175e-01 -4.789442e-01 1.107370e+00 8.393332e-01 -1.288712e-01 -2.673277e-01 3.862356e-01 1.560473e-01 -6.262329e-01 3.513046e-01 -1.190089e-01 -1.138673e+00
<VARIANCE> 25
 1.391207e+01 6.676069e+01 2.051977e+01 4.625864e+01 3.536026e+01 3.331493e+01 3.681745e+01 2.717196e+01 3.139800e+01 3.225777e+01 2.948372e+01 1.803840e+01 9.873086e-01 1.481861e+00 1.144183e+00 1.949541e+00 2.492767e+00 1.661407e+00 2.025901e+00 2.175242e+00 2.026864e+00 1.855984e+00 1.928763e+00 1.475337e+00 9.081701e-01
<GCONST> 9.317440e+01
<STATE> 3
<MEAN> 25
 -2.681517e+00 4.448402e+00 1.149751e+00 4.679284e+00 -3.793075e+00 1.885836e+00 4.913870e+00 3.202887e-01 -1.158571e+00 -1.081395e+00 2.712463e+00 -1.729889e+00 -1.141887e+00 -1.539647e-01 -1.060618e+00 5.301843e-01 1.519621e+00 -4.292687e-01 -1.026890e+00 8.391780e-01 6.852388e-01 -6.522158e-02 9.377553e-01 6.716263e-01 -1.053105e+00
<VARIANCE> 25
 1.698439e+01 3.798127e+01 2.454481e+01 3.711938e+01 2.932242e+01 2.815516e+01 3.302372e+01 2.573131e+01 2.932837e+01 2.809066e+01 2.847946e+01 2.143948e+01 6.215736e-01 1.161769e+00 1.199598e+00 1.525400e+00 2.212042e+00 1.989942e+00 2.337754e+00 2.003273e+00 2.166487e+00 2.211912e+00 1.849191e+00 2.023998e+00 2.353476e-01
<GCONST> 9.056514e+01
<STATE> 4
<MEAN> 25
 -6.508742e+00 4.077237e+00 -1.850599e+00 5.425282e+00 1.042704e+00 1.488413e+00 1.092450e+00 3.363501e+00 2.989369e+00 1.318515e+00 5.884398e+00 5.959032e-01 -2.597381e-01 1.008175e-01 -1.807614e-01 9.137288e-02 4.045555e-01 1.122848e-02 -3.690557e-01 1.003044e-01 2.990327e-01 8.112489e-02 1.872976e-01 1.280323e-01 -3.082026e-01
<VARIANCE> 25
 1.347237e+01 2.147872e+01 1.596926e+01 2.258592e+01 2.477391e+01 1.763185e+01 1.848699e+01 1.945727e+01 2.217231e+01 1.795413e+01 2.902172e+01 1.572635e+01 2.487154e-01 5.056950e-01 6.390942e-01 8.940759e-01 1.313864e+00 1.226354e+00 1.505693e+00 1.351870e+00 1.419959e+00 1.534398e+00 1.388261e+00 1.301220e+00 1.494719e-01
<GCONST> 7.960176e+01
<TRANSP> 5
 0.000000e+00 1.000000e+00 0.000000e+00 0.000000e+00 0.000000e+00
 0.000000e+00 8.053499e-01 1.946501e-01 0.000000e+00 0.000000e+00
 0.000000e+00 0.000000e+00 5.996922e-01 4.003078e-01 0.000000e+00
 0.000000e+00 0.000000e+00 0.000000e+00 7.665301e-01 2.334699e-01
 0.000000e+00 0.000000e+00 0.000000e+00 0.000000e+00 0.000000e+00
<ENDHMM>
~h "au"
<BEGINHMM>
<NUMSTATES> 5
<STATE> 2
<MEAN> 25
 -2.073454e+00 1.863004e+00 -6.828001e+00 -1.028056e+00 5.502727e+00 2.776908e+00 -1.763923e+00 7.484195e-01 2.003489e+00 2.584732e+00 4.375194e+00 4.881027e-01 1.540381e+00 -6.028796e-01 -1.707025e+00 -3.200207e+00 1.846428e+00 2.164814e+00 -2.253141e-01 2.732819e-01 -1.304908e+00 8.388009e-01 2.291893e-01 -4.997861e-01 1.496531e+00
<VARIANCE> 25
 3.705124e+01 2.981178e+01 5.220811e+01 7.469096e+01 4.579937e+01 6.464542e+01 3.870754e+01 3.682248e+01 4.125493e+01 4.413866e+01 3.942173e+01 3.041274e+01 3.783329e+00 2.947355e+00 5.880914e+00 1.138453e+01 5.263364e+00 5.234668e+00 3.758023e+00 3.807940e+00 4.847484e+00 4.378867e+00 3.619791e+00 2.683728e+00 4.253675e+00
<GCONST> 1.104435e+02
<STATE> 3
<MEAN> 25
 7.772616e+00 -1.717880e+00 -1.071559e+01 -2.069627e+01 1.114925e+01 1.065491e+01 -4.791055e+00 3.106425e+00 -5.727295e+00 4.742414e+00 3.700187e+00 -1.814664e+00 1.565089e+00 -8.761718e-01 3.294716e-01 -3.247099e+00 7.166516e-01 1.534461e+00 -7.657111e-01 4.845819e-01 -1.006988e+00 5.765463e-01 -6.541103e-01 -6.835399e-01 2.351293e+00
<VARIANCE> 25
 1.474931e+01 3.326536e+01 2.952817e+01 6.956760e+01 3.264366e+01 3.838111e+01 3.598332e+01 3.594803e+01 4.064733e+01 4.303299e+01 2.919854e+01 2.156945e+01 2.642165e+00 3.157516e+00 3.584806e+00 8.625746e+00 2.744499e+00 2.911553e+00 3.118701e+00 2.858158e+00 3.998352e+00 3.348728e+00 3.192679e+00 1.732076e+00 4.769954e+00
<GCONST> 1.036666e+02
<STATE> 4
<MEAN> 25
 9.347509e+00 -5.739568e+00 -8.585915e+00 -1.799845e+01 9.589912e+00 1.008871e+01 -4.309599e+00 2.905417e+00 -4.137875e+00 5.043758e+00 -1.518248e+00 -5.499518e+00 -9.794180e-02 -5.262203e-01 2.898422e-01 1.346359e+00 -3.723622e-01 -1.219463e+00 -1.689456e-02 1.893170e-01 5.475447e-01 -1.583215e-01 -9.134041e-01 -3.182222e-01 4.408678e-02
<VARIANCE> 25
 5.727987e+00 3.324582e+01 2.287841e+01 5.620753e+01 2.018965e+01 5.125132e+01 2.474389e+01 1.893781e+01 4.030097e+01 4.018496e+01 3.197280e+01 2.829881e+01 2.787659e-01 1.515475e+00 9.706362e-01 2.386917e+00 1.401439e+00 4.231732e+00 1.391303e+00 1.826152e+00 1.908586e+00 2.009093e+00 2.004764e+00 1.969042e+00 4.860718e-01
<GCONST> 9.033152e+01
<TRANSP> 5
 0.000000e+00 1.000000e+00 0.000000e+00 0.000000e+00 0.000000e+00
 0.000000e+00 7.009155e-01 2.990846e-01 0.000000e+00 0.000000e+00
 0.000000e+00 0.000000e+00 6.652048e-01 3.347953e-01 0.000000e+00
 0.000000e+00 0.000000e+00 0.000000e+00 8.984221e-01 1.015780e-01
 0.000000e+00 0.000000e+00 0.000000e+00 0.000000e+00 0.000000e+00
<ENDHMM>
~h "bh"
<BEGINHMM>
<NUMSTATES> 5
<STATE> 2
<MEAN> 25
 3.351025e+00 4.926899e+00 9.042172e-01 5.447536e+00 -1.433801e+00 -1.552379e+00 -2.144528e+00 -3.591434e+00 -2.544456e+00 -1.059062e+00 -1.146441e+00 -4.026289e+00 1.127421e+00 1.223106e+00 2.409537e-01 1.069369e+00 -5.861207e-01 -3.645075e-01 -1.250829e-01 -1.246941e+00 -5.918353e-01 -6.466488e-01 -8.084896e-01 -1.296223e+00 9.656038e-02
<VARIANCE> 25
 4.202084e+01 5.103074e+01 3.440107e+01 2.912769e+01 4.291267e+01 2.654121e+01 3.493079e+01 5.341206e+01 4.071277e+01 5.024691e+01 4.345804e+01 2.736993e+01 4.605781e+00 4.422983e+00 2.037959e+00 2.917469e+00 3.360414e+00 2.914850e+00 2.989508e+00 5.178554e+00 3.694998e+00 2.985311e+00 4.006690e+00 3.060644e+00 4.206852e+00
<GCONST> 1.059636e+02
<STATE> 3
<MEAN> 25
 6.568970e+00 8.636617e+00 1.198657e+00 6.851429e+00 -2.143076e+00 -1.993603e+00 -1.844602e+00 -4.964064e+00 -3.341487e+00 -3.756015e+00 -3.410797e+00 -6.619832e+00 -3.591337e-01 4.159941e-01 6.700941e-02 5.051818e-01 5.541927e-01 1.128422e-01 -6.591365e-03 4.470876e-01 5.318884e-01 -2.945682e-01 6.680940e-01 3.437558e-01 -4.734229e-01
<VARIANCE> 25
 8.140059e+00 3.715874e+01 2.918628e+01 1.839489e+01 3.532625e+01 2.381081e+01 2.565675e+01 4.125016e+01 3.207488e+01 3.717672e+01 2.317986e+01 2.149941e+01 5.930018e-01 3.709320e+00 1.696486e+00 1.797237e+00 2.161169e+00 1.981993e+00 2.175776e+00 2.392925e+00 2.091634e+00 2.312436e+00 1.852218e+00 2.288170e+00 8.533731e-01
<GCONST> 9.280856e+01
<STATE> 4
<MEAN> 25
 5.627499e+00 1.937893e+00 -2.483830e+00 4.617882e+00 2.883489e+00 -4.863146e-01 -3.579310e+00 -1.879188e+00 6.492078e-02 -2.584335e+00 -1.156457e+00 -4.142659e+00 4.415163e-01 -3.007704e+00 -1.405827e+00 -1.933808e+00 1.108569e+00 6.827245e-01 1.025940e-01 4.768466e-01 2.715700e-01 7.272083e-01 -9.587736e-01 1.708245e-01 1.860851e+00
<VARIANCE> 25
 1.646932e+01 5.934822e+01 4.982420e+01 4.601363e+01 3.854439e+01 3.508181e+01 2.437157e+01 3.158562e+01 3.001412e+01 2.941620e+01 3.569779e+01 2.356464e+01 1.506282e+00 5.806786e+00 7.016315e+00 4.222137e+00 8.139458e+00 4.094401e+00 3.123473e+00 4.405404e+00 4.633204e+00 3.753500e+00 5.616291e+00 3.290268e+00 1.228336e+00
<GCONST> 1.056066e+02
<TRANSP> 5
 0.000000e+00 1.000000e+00 0.000000e+00 0.000000e+00 0.000000e+00
 0.000000e+00 4.183216e-01 5.816783e-01 0.000000e+00 0.000000e+00
 0.000000e+00 0.000000e+00 6.846606e-01 3.153395e-01 0.000000e+00
 0.000000e+00 0.000000e+00 0.000000e+00 6.583745e-01 3.416254e-01
 0.000000e+00 0.000000e+00 0.000000e+00 0.000000e+00 0.000000e+00
<ENDHMM>
~h "d:"
<BEGINHMM>
<NUMSTATES> 5
<STATE> 2
<MEAN> 25
 4.990537e+00 1.990831e+00 5.566484e+00 6.319420e+00 -7.506651e+00 -4.147277e-01 -3.319286e-01 -1.904180e+00 -1.351006e+00 -4.694422e+00 4.953724e-01 -3.151134e+00 -5.914928e-01 -6.405373e-01 9.490479e-01 -5.532303e-01 1.240110e-02 2.455973e-01 6.021195e-02 -2.649120e-01 -7.682821e-01 1.773215e-02 7.556890e-01 -1.281337e-01 3.588056e-01
<VARIANCE> 25
 2.211001e+01 1.128913e+02 3.313103e+01 3.980910e+01 7.006448e+01 3.183582e+01 3.190017e+01 4.743046e+01 2.884025e+01 3.207984e+01 3.743570e+01 2.056326e+01 2.463412e+00 7.489443e+00 3.038212e+00 4.382607e+00 6.000298e+00 2.940063e+00 2.980683e+00 5.044082e+00 4.515478e+00 3.716289e+00 5.386806e+00 2.351594e+00 2.472164e+00
<GCONST> 1.068109e+02
<STATE> 3
<MEAN> 25
 1.952667e+00 -3.089236e+00 1.012657e+01 2.146272e+00 -5.869309e+00 3.221412e+00 -9.867971e-01 -2.582583e+00 -5.025444e+00 -2.853017e+00 4.068977e+00 -4.585678e+00 -4.584534e-01 -2.101751e+00 1.272423e+00 -4.225505e+00 5.102154e-02 -2.980671e-01 -6.158391e-01 2.812386e-01 -5.937498e-01 1.283284e+00 -7.256883e-01 8.175342e-01 2.086895e+00
<VARIANCE> 25
 2.122450e+01 4.566457e+01 5.529834e+01 6.224692e+01 4.251999e+01 6.526598e+01 4.324977e+01 3.754568e+01 4.912285e+01 3.572692e+01 3.670533e+01 2.529634e+01 1.397466e+00 5.571293e+00 4.642964e+00 5.078854e+00 6.640023e+00 4.147915e+00 3.715115e+00 3.428186e+00 3.927203e+00 5.352816e+00 4.573776e+00 2.184409e+00 1.688768e+00
<GCONST> 1.075362e+02
<STATE> 4
<MEAN> 25
 2.408977e+00 -4.916673e+00 1.073643e+01 -6.400641e+00 -6.522036e+00 -7.941828e-01 -3.274302e+00 -2.954962e+00 -5.054851e+00 1.973395e-01 3.093729e-01 -2.199299e+00 2.946263e-02 -1.125889e+00 5.252015e-01 -4.169067e+00 5.272667e-01 -6.421340e-01 -6.154026e-01 2.403711e-01 1.164474e-01 1.273473e+00 -2.574681e+00 1.314341e+00 1.767668e+00
<VARIANCE> 25
 1.954237e+01 4.004501e+01 7.626229e+01 7.111814e+01 4.451773e+01 4.857649e+01 3.876100e+01 5.359501e+01 4.574358e+01 4.820012e+01 4.379365e+01 2.790370e+01 1.786620e+00 4.304924e+00 4.315538e+00 5.452547e+00 3.807130e+00 4.096544e+00 4.242041e+00 3.815700e+00 3.437948e+00 3.930072e+00 3.655785e+00 2.142851e+00 1.675039e+00
<GCONST> 1.072400e+02
<TRANSP> 5
 0.000000e+00 1.000000e+00 0.000000e+00 0.000000e+00 0.000000e+00
 0.000000e+00 5.528412e-01 4.471587e-01 0.000000e+00 0.000000e+00
 0.000000e+00 0.000000e+00 1.010321e-01 8.989679e-01 0.000000e+00
 0.000000e+00 0.000000e+00 0.000000e+00 3.450932e-02 9.654906e-01
 0.000000e+00 0.000000e+00 0.000000e+00 0.000000e+00 0.000000e+00
<ENDHMM>
~h "ch"
<BEGINHMM>
<NUMSTATES> 5
<STATE> 2
<MEAN> 25
 -6.661522e+00 8.906372e-01 -1.556771e+00 -4.479857e-01 4.784881e+00 -3.927640e+00 8.585742e-01 2.628817e+00 1.770305e+00 -3.469876e-01 4.299501e+00 7.780272e-01 -3.639602e+00 -4.119571e-01 8.334628e-01 -2.634387e+00 2.697667e+00 1.417717e-01 7.052664e-01 -4.572526e-01 6.771973e-02 8.519576e-01 1.340637e+00 1.406435e-01 1.750351e+00
<VARIANCE> 25
 3.106445e+01 4.329501e+01 4.782462e+01 5.037029e+01 6.238800e+01 4.548838e+01 5.424293e+01 5.919764e+01 3.475872e+01 4.683707e+01 3.483040e+01 2.200283e+01 2.627118e+00 4.936030e+00 4.650940e+00 4.039249e+00 5.413812e+00 4.899580e+00 3.957479e+00 4.779602e+00 3.602316e+00 3.734189e+00 3.973315e+00 2.514140e+00 2.303028e+00
<GCONST> 1.084484e+02
<STATE> 3
<MEAN> 25
 -2.027329e+01 4.896315e+00 3.378061e+00 -7.154385e+00 9.406727e+00 -1.769513e+00 5.048972e+00 1.618750e+00 1.654394e+00 2.605605e+00 1.005018e+01 -2.762632e-01 -9.411440e-01 8.472235e-01 1.438583e+00 -8.046673e-02 -6.709334e-01 -7.698380e-02 1.235430e+00 -5.472508e-02 -4.555921e-01 9.230893e-02 7.391092e-01 -3.490041e-01 5.143698e-01
<VARIANCE> 25
 1.953486e+01 2.532946e+01 4.399467e+01 2.898913e+01 3.397376e+01 4.473685e+01 3.409848e+01 4.340270e+01 3.289337e+01 3.566440e+01 3.279014e+01 2.433137e+01 8.014301e+00 3.339584e+00 3.048845e+00 3.169767e+00 3.745980e+00 4.225489e+00 3.960098e+00 3.554461e+00 2.870794e+00 3.193895e+00 3.758093e+00 2.506247e+00 1.825172e+00
<GCONST> 1.036995e+02
<STATE> 4
<MEAN> 25
 -8.693821e+00 2.072354e+00 5.356392e+00 -6.274044e+00 2.014561e+00 -7.063870e+00 5.670665e+00 8.786045e-02 -8.355409e-01 -8.623927e-01 5.179248e+00 -1.206516e+00 5.593076e+00 -2.208590e+00 -2.845264e-01 -3.309408e-01 -3.062227e+00 -1.695948e+00 -5.986302e-01 -4.414885e-01 -5.871277e-01 -1.240287e+00 -2.970393e+00 -6.280813e-01 2.150264e+00
<VARIANCE> 25
 9.965543e+01 4.542062e+01 4.284782e+01 2.357336e+01 5.629909e+01 4.232777e+01 3.193465e+01 3.556172e+01 2.989722e+01 3.489538e+01 4.673630e+01 1.860532e+01 4.215391e+00 5.290925e+00 3.962402e+00 2.478842e+00 4.461296e+00 3.857982e+00 3.490043e+00 4.529131e+00 3.010762e+00 3.042686e+00 3.718721e+00 2.050780e+00 1.483273e+00
<GCONST> 1.054477e+02
<TRANSP> 5
 0.000000e+00 1.000000e+00 0.000000e+00 0.000000e+00 0.000000e+00
 0.000000e+00 6.998355e-01 3.001645e-01 0.000000e+00 0.000000e+00
 0.000000e+00 0.000000e+00 6.378907e-01 3.621092e-01 0.000000e+00
 0.000000e+00 0.000000e+00 0.000000e+00 6.068807e-01 3.931193e-01
 0.000000e+00 0.000000e+00 0.000000e+00 0.000000e+00 0.000000e+00
<ENDHMM>
~h "dh"
<BEGINHMM>
<NUMSTATES> 5
<STATE> 2
<MEAN> 25
 5.644035e+00 6.599866e+00 5.880698e-01 6.010406e+00 -1.331152e+00 -4.047550e+00 -1.000960e+00 -1.036668e+00 -1.575983e+00 -4.721760e+00 -3.511695e+00 -1.242292e+00 -4.000550e-01 8.961869e-01 -1.154357e-01 8.111275e-01 4.987146e-01 5.606511e-01 -7.514840e-02 -1.388926e-02 2.947832e-02 -4.177884e-01 1.068152e+00 -4.432479e-01 -8.457129e-01
<VARIANCE> 25
 1.786160e+01 3.628598e+01 2.770842e+01 1.998977e+01 3.878302e+01 2.792927e+01 3.194530e+01 4.844851e+01 2.787222e+01 3.092068e+01 3.271908e+01 2.262855e+01 1.635889e+00 2.989740e+00 1.434908e+00 2.237662e+00 2.179924e+00 2.380985e+00 2.249462e+00 2.442080e+00 2.441106e+00 2.617995e+00 3.280101e+00 2.736182e+00 1.497408e+00
<GCONST> 9.699366e+01
<STATE> 3
<MEAN> 25
 2.048496e+00 6.518283e+00 1.621544e-01 7.069313e+00 4.187333e-01 -2.171887e+00 -7.698613e-01 -7.590771e-01 -3.683755e-01 -3.739794e+00 2.197746e+00 -1.344119e+00 -1.315984e+00 -3.337559e+00 -9.582654e-01 -7.995421e-01 1.232353e-01 1.081155e-01 1.547102e+00 -4.143116e-01 6.185502e-01 2.104851e-01 2.287860e+00 7.041605e-01 1.367609e+00
<VARIANCE> 25
 1.892046e+01 4.529816e+01 3.451654e+01 1.787466e+01 3.253873e+01 2.591715e+01 3.282851e+01 4.508369e+01 2.757970e+01 3.350520e+01 3.240981e+01 2.018141e+01 1.482473e+00 4.394620e+00 2.940868e+00 3.019507e+00 3.871425e+00 4.517883e+00 4.011973e+00 5.696498e+00 3.400507e+00 3.388910e+00 4.107213e+00 3.054162e+00 1.815721e+00
<GCONST> 1.020933e+02
<STATE> 4
<MEAN> 25
 3.665771e-01 -4.181177e+00 -2.716615e+00 2.565602e+00 -5.134024e-02 -3.168407e+00 5.177700e+00 -1.706440e+00 1.364419e+00 -5.515156e+00 5.139492e+00 2.204702e+00 5.825143e-01 -1.740522e+00 3.441787e-01 -1.575388e+00 1.350829e-01 -2.738416e-01 7.959821e-01 5.465724e-02 1.158504e-01 -6.113523e-01 -1.913450e+00 9.567763e-01 1.933766e+00
<VARIANCE> 25
 2.825105e+01 2.545393e+01 2.751395e+01 2.575631e+01 3.283482e+01 5.237083e+01 3.595768e+01 4.535196e+01 3.237861e+01 4.336131e+01 6.550859e+01 2.487573e+01 2.329841e+00 6.105027e+00 4.982893e+00 3.315248e+00 5.497023e+00 5.151117e+00 5.305235e+00 8.237637e+00 3.885311e+00 5.095317e+00 8.040041e+00 2.963987e+00 2.134558e+00
<GCONST> 1.080731e+02
<TRANSP> 5
 0.000000e+00 1.000000e+00 0.000000e+00 0.000000e+00 0.000000e+00
 0.000000e+00 6.457729e-01 3.542272e-01 0.000000e+00 0.000000e+00
 0.000000e+00 0.000000e+00 4.609102e-01 5.390899e-01 0.000000e+00
 0.000000e+00 0.000000e+00 0.000000e+00 5.613337e-01 4.386663e-01
 0.000000e+00 0.000000e+00 0.000000e+00 0.000000e+00 0.000000e+00
<ENDHMM>
~h "ei"
<BEGINHMM>
<NUMSTATES> 5
<STATE> 2
<MEAN> 25
 3.293685e+00 -1.603148e+00 1.168097e+01 -9.895431e+00 -9.743751e+00 -1.716330e-01 -6.564246e-01 -6.851096e+00 -3.043412e+00 3.647245e+00 -4.879361e+00 6.130236e-01 2.099014e-01 -1.054374e+00 2.238334e+00 -3.274223e+00 -4.324663e-01 6.668093e-01 -7.505879e-01 -3.726048e-01 -5.493796e-01 1.891317e+00 -1.727400e+00 3.430907e-01 1.608284e+00
<VARIANCE> 25
 1.150554e+01 3.976645e+01 2.835309e+01 6.350050e+01 3.914447e+01 3.806411e+01 3.276666e+01 3.644107e+01 3.749401e+01 3.564747e+01 3.061580e+01 2.990392e+01 2.761222e+00 3.008126e+00 3.173041e+00 4.790729e+00 4.397670e+00 3.910834e+00 3.568429e+00 3.693878e+00 3.749948e+00 3.226355e+00 3.762317e+00 2.350602e+00 1.866766e+00
<GCONST> 1.035366e+02
<STATE> 3
<MEAN> 25
 2.620046e+00 -2.609685e+00 1.501491e+01 -1.541837e+01 -7.667579e+00 9.496317e-01 -2.484962e+00 -6.552110e+00 -2.493533e+00 6.788114e+00 -7.610537e+00 2.060169e+00 -5.965339e-03 -9.934752e-02 -1.155146e-01 8.661822e-02 -4.298113e-02 -6.956554e-02 1.215755e-01 5.559634e-02 -5.824283e-02 1.344329e-01 -6.470058e-02 9.569542e-02 -5.256007e-02
<VARIANCE> 25
 5.422029e+00 3.915469e+01 1.474580e+01 2.361345e+01 2.343955e+01 3.227703e+01 2.636240e+01 1.971965e+01 2.451234e+01 2.565374e+01 2.198062e+01 1.907958e+01 2.072210e-01 9.347048e-01 6.884695e-01 1.445204e+00 1.136682e+00 1.400512e+00 1.387274e+00 1.402428e+00 1.288493e+00 1.543609e+00 1.411169e+00 1.176601e+00 2.914525e-01
<GCONST> 8.196840e+01
<STATE> 4
<MEAN> 25
 1.591363e+00 9.938074e-01 1.032701e+01 -6.400081e+00 -9.619077e+00 -8.072438e-01 -9.581137e-01 -6.614952e+00 -1.787978e+00 4.582878e+00 -4.244536e+00 1.516305e+00 -3.732826e-01 1.125042e+00 -1.159104e+00 2.150736e+00 2.739636e-01 -1.983544e-01 -1.177100e-01 1.543791e-01 4.109032e-01 -1.018360e+00 9.195184e-01 -2.270542e-01 -1.592214e+00
<VARIANCE> 25
 1.385868e+01 5.623238e+01 2.376180e+01 5.670639e+01 2.827936e+01 4.218632e+01 3.199599e+01 3.453263e+01 4.026302e+01 3.836043e+01 3.299050e+01 2.520710e+01 8.291950e-01 1.958572e+00 1.181946e+00 2.199255e+00 2.223827e+00 2.603082e+00 2.228833e+00 2.717772e+00 2.343663e+00 2.280780e+00 2.388229e+00 1.756021e+00 8.303515e-01
<GCONST> 9.589019e+01
<TRANSP> 5
 0.000000e+00 1.000000e+00 0.000000e+00 0.000000e+00 0.000000e+00
 0.000000e+00 5.962965e-01 4.037035e-01 0.000000e+00 0.000000e+00
 0.000000e+00 0.000000e+00 8.432885e-01 1.567115e-01 0.000000e+00
 0.000000e+00 0.000000e+00 0.000000e+00 7.905961e-01 2.094039e-01
 0.000000e+00 0.000000e+00 0.000000e+00 0.000000e+00 0.000000e+00
<ENDHMM>
~h "h:"
<BEGINHMM>
<NUMSTATES> 5
<STATE> 2
<MEAN> 25
 3.447854e+00 -1.177403e+01 -2.044464e+00 -7.559482e+00 2.605349e+00 -2.966703e+00 1.159227e+00 6.394433e+00 -1.727350e+00 2.752702e+00 -7.080004e+00 -2.776987e+00 -1.637304e-01 6.144699e-01 -4.942045e-01 3.591580e-01 1.431731e-01 -9.672514e-02 -2.992154e-02 -8.177199e-01 5.766295e-02 -1.546443e-01 -1.198465e-01 -1.966907e-02 -6.626890e-01
<VARIANCE> 25
 1.835234e+01 3.807495e+01 4.643872e+01 4.891955e+01 5.696047e+01 3.015493e+01 3.034421e+01 1.890678e+01 1.739220e+01 2.773675e+01 4.224251e+01 4.532315e+01 3.657472e-01 1.006204e+00 9.644809e-01 1.844429e+00 1.583866e+00 1.615828e+00 9.531242e-01 2.248101e+00 1.362540e+00 1.401318e+00 1.267390e+00 2.040954e+00 7.089082e-01
<GCONST> 9.029269e+01
<STATE> 3
<MEAN> 25
 3.579377e+00 -6.720062e+00 -5.175925e+00 -4.518074e+00 4.421345e+00 -5.470413e+00 -6.434428e-01 3.265107e+00 1.665591e+00 -8.172409e-01 -7.767335e+00 4.532558e-01 -5.715841e-02 8.399165e-01 -5.142101e-02 3.644481e-01 6.778765e-01 5.034179e-01 2.163623e-01 -1.376495e+00 5.143499e-02 -8.719758e-01 -8.016105e-01 4.275094e-01 -3.769448e-01
<VARIANCE> 25
 2.839846e+01 4.581389e+01 1.965276e+01 3.895221e+01 6.733527e+01 2.382536e+01 2.025428e+01 4.128706e+01 1.620627e+01 2.321257e+01 9.042473e+01 3.049252e+01 1.297248e+00 1.442625e+00 1.394328e+00 2.201589e+00 1.081512e+00 2.534179e+00 2.920391e+00 2.739113e+00 2.008811e+00 1.374256e+00 3.440717e+00 1.474551e+00 2.202323e+00
<GCONST> 9.598473e+01
<STATE> 4
<MEAN> 25
 5.509749e+00 -7.497024e+00 -6.980034e+00 -7.002839e+00 9.340120e+00 -3.352725e+00 -2.524274e+00 -1.750776e+00 2.173301e+00 -3.281668e-01 -1.482099e+01 2.695760e+00 -1.707508e-01 1.976614e-01 -1.727510e-01 1.521200e-01 -3.368872e-01 -2.000957e-02 -1.599946e-01 8.588074e-02 8.368392e-02 -2.170331e-02 3.897637e-01 2.235819e-01 -3.625707e-01
<VARIANCE> 25
 7.683841e+00 2.046322e+01 1.408157e+01 3.245387e+01 3.815445e+01 2.737851e+01 2.746587e+01 5.059042e+01 2.361002e+01 3.091429e+01 2.961585e+01 2.376803e+01 3.601521e-01 1.498346e+00 9.901096e-01 1.680877e+00 2.199547e+00 2.016514e+00 2.576155e+00 3.215672e+00 1.965115e+00 2.018834e+00 2.146999e+00 1.652274e+00 1.025090e+00
<GCONST> 9.063256e+01
<TRANSP> 5
 0.000000e+00 1.000000e+00 0.000000e+00 0.000000e+00 0.000000e+00
 0.000000e+00 6.649963e-01 3.350037e-01 0.000000e+00 0.000000e+00
 0.000000e+00 0.000000e+00 2.165179e-01 7.834821e-01 0.000000e+00
 0.000000e+00 0.000000e+00 0.000000e+00 9.222183e-01 7.778171e-02
 0.000000e+00 0.000000e+00 0.000000e+00 0.000000e+00 0.000000e+00
<ENDHMM>
~h "gh"
<BEGINHMM>
<NUMSTATES> 5
<STATE> 2
<MEAN> 25
 2.866210e+00 6.003256e+00 3.510577e+00 3.744229e+00 -2.659361e+00 -1.989693e+00 -8.825166e-01 -3.773970e+00 -3.210968e+00 -4.037865e+00 -3.275140e+00 -1.882405e+00 -2.211415e-01 -2.144249e+00 -1.900946e+00 1.315516e+00 2.100681e+00 -1.641165e+00 -3.428074e-01 8.909885e-01 -1.376534e-01 2.764091e-01 1.075806e+00 4.351099e-01 4.580616e-01
<VARIANCE> 25
 2.557102e+01 3.074863e+01 6.548795e+01 2.864827e+01 5.364102e+01 5.483201e+01 5.052903e+01 5.376576e+01 3.523322e+01 3.427835e+01 4.492139e+01 2.339142e+01 2.003834e+00 6.073213e+00 3.784776e+00 4.722993e+00 8.009648e+00 5.057590e+00 5.345829e+00 6.461385e+00 5.035117e+00 4.642429e+00 4.862248e+00 2.941639e+00 1.845727e+00
<GCONST> 1.091498e+02
<STATE> 3
<MEAN> 25
 1.725761e+00 -4.983555e+00 -5.839772e+00 7.516776e+00 7.465471e+00 -4.948792e+00 -3.865438e+00 -3.508437e-01 -7.309258e-01 -2.863679e+00 2.065996e-01 2.056605e+00 6.023846e-02 -2.428095e+00 -2.627021e+00 -2.961904e-01 2.856259e+00 -4.236364e-01 -2.467158e-01 1.269281e+00 1.156045e+00 8.215486e-01 -2.993551e-01 1.156595e+00 9.988856e-01
<VARIANCE> 25
 1.895457e+01 4.443589e+01 6.856361e+01 5.158787e+01 6.020111e+01 7.359364e+01 3.885983e+01 4.520567e+01 4.181242e+01 4.593766e+01 4.329962e+01 3.638472e+01 1.903800e+00 6.497018e+00 3.809174e+00 4.670801e+00 3.475932e+00 6.476305e+00 4.628685e+00 5.118521e+00 3.898140e+00 7.115683e+00 5.879161e+00 2.237473e+00 2.061336e+00
<GCONST> 1.099403e+02
<STATE> 4
<MEAN> 25
 3.232617e+00 -3.488684e+00 -8.427462e+00 2.870095e+00 9.972050e+00 -4.305494e-01 -3.521562e+00 1.750470e+00 3.272218e+00 -2.011107e+00 -5.131430e+00 9.287791e-01 1.291116e+00 -4.714115e-03 1.879829e-01 -2.067817e+00 3.731595e-01 9.218513e-01 -8.675410e-02 4.173287e-01 -2.593264e-01 -1.592887e-01 -2.585506e+00 -5.398510e-01 1.181505e+00
<VARIANCE> 25
 2.859246e+01 2.363375e+01 4.601334e+01 3.470778e+01 3.499851e+01 8.372578e+01 3.693214e+01 4.881343e+01 2.942040e+01 7.062651e+01 6.709629e+01 2.790244e+01 2.132336e+00 3.084734e+00 3.478019e+00 2.959459e+00 4.465955e+00 7.063568e+00 2.880907e+00 3.525080e+00 5.414190e+00 4.634434e+00 7.730644e+00 3.007800e+00 2.561850e+00
<GCONST> 1.077868e+02
<TRANSP> 5
 0.000000e+00 1.000000e+00 0.000000e+00 0.000000e+00 0.000000e+00
 0.000000e+00 4.780856e-01 5.219144e-01 0.000000e+00 0.000000e+00
 0.000000e+00 0.000000e+00 3.985796e-01 6.014205e-01 0.000000e+00
 0.000000e+00 0.000000e+00 0.000000e+00 5.806730e-01 4.193271e-01
 0.000000e+00 0.000000e+00 0.000000e+00 0.000000e+00 0.000000e+00
<ENDHMM>
~h "ii"
<BEGINHMM>
<NUMSTATES> 5
<STATE> 2
<MEAN> 25
 2.622763e+00 2.215005e+00 1.230739e+01 -8.705322e+00 -8.285051e+00 9.679776e-01 -3.271051e+00 -7.490528e+00 -1.823570e+00 1.186766e-01 -5.312355e+00 -2.562723e-01 5.733197e-01 -9.825051e-02 2.316608e+00 -3.682359e+00 -5.539016e-01 1.110870e+00 -1.597662e+00 -5.603931e-01 -4.404245e-01 8.977185e-01 -2.692760e+00 4.094493e-01 1.302894e+00
<VARIANCE> 25
 1.262544e+01 4.107405e+01 2.538940e+01 7.517685e+01 3.727751e+01 3.850602e+01 3.790533e+01 4.066927e+01 3.698686e+01 3.568859e+01 3.906409e+01 2.586736e+01 3.334416e+00 3.479630e+00 3.147390e+00 4.340090e+00 4.911002e+00 3.881476e+00 4.739100e+00 5.275471e+00 4.295331e+00 3.733113e+00 4.841599e+00 2.573294e+00 1.495428e+00
<GCONST> 1.053975e+02
<STATE> 3
<MEAN> 25
 1.992487e+00 2.721393e+00 1.582323e+01 -1.638251e+01 -4.431345e+00 3.774956e+00 -7.038628e+00 -6.145817e+00 -2.177121e+00 1.376460e+00 -1.075090e+01 1.339480e+00 -4.141971e-02 -1.275044e-03 4.861886e-02 -1.784082e-01 7.787593e-02 9.714799e-02 -9.104527e-02 -4.785227e-02 -1.263409e-01 1.346809e-01 -2.351335e-01 2.311898e-01 -4.325242e-02
<VARIANCE> 25
 5.364997e+00 3.418377e+01 1.409753e+01 2.505423e+01 2.750401e+01 2.583816e+01 2.210509e+01 2.321086e+01 2.609309e+01 2.755880e+01 2.062230e+01 1.997725e+01 2.060221e-01 1.088492e+00 7.230597e-01 1.678606e+00 1.682063e+00 1.521099e+00 1.736643e+00 1.751406e+00 1.626717e+00 1.969984e+00 1.647108e+00 1.286680e+00 3.172786e-01
<GCONST> 8.394945e+01
<STATE> 4
<MEAN> 25
 1.393541e+00 5.292119e+00 1.113083e+01 -6.499423e+00 -6.112925e+00 8.845272e-01 -5.072007e+00 -7.076005e+00 -1.710998e+00 3.035872e-01 -5.355846e+00 1.941584e+00 -2.913500e-01 5.679666e-01 -1.285683e+00 2.422484e+00 2.459847e-01 -5.868893e-01 4.116701e-01 1.587247e-01 2.180682e-01 -5.956764e-01 1.344442e+00 -2.540098e-01 -1.240606e+00
<VARIANCE> 25
 1.318294e+01 4.847523e+01 2.514487e+01 7.004192e+01 3.261081e+01 3.789587e+01 2.936826e+01 3.033673e+01 4.026947e+01 4.020554e+01 3.660007e+01 3.039599e+01 9.027119e-01 2.345321e+00 1.372925e+00 2.570585e+00 2.163125e+00 2.961291e+00 2.449336e+00 2.797932e+00 2.677734e+00 2.739948e+00 2.464243e+00 1.860032e+00 8.978422e-01
<GCONST> 9.739703e+01
<TRANSP> 5
 0.000000e+00 1.000000e+00 0.000000e+00 0.000000e+00 0.000000e+00
 0.000000e+00 6.158862e-01 3.841138e-01 0.000000e+00 0.000000e+00
 0.000000e+00 0.000000e+00 8.510165e-01 1.489835e-01 0.000000e+00
 0.000000e+00 0.000000e+00 0.000000e+00 8.060566e-01 1.939435e-01
 0.000000e+00 0.000000e+00 0.000000e+00 0.000000e+00 0.000000e+00
<ENDHMM>
~h "jh"
<BEGINHMM>
<NUMSTATES> 5
<STATE> 2
<MEAN> 25
 5.588834e+00 8.967802e+00 7.833520e-01 4.739345e+00 1.525178e-01 -3.900349e+00 -4.353447e+00 -1.523732e+00 -1.660366e+00 -5.759688e+00 -7.884869e-01 -1.967111e+00 -2.064602e+00 9.062648e-01 7.586414e-01 -5.737218e-01 1.507219e+00 6.585272e-02 -1.839075e-02 -1.542824e-01 1.582000e-01 4.946283e-01 1.353391e+00 -1.794940e-01 -4.893367e-01
<VARIANCE> 25
 1.097532e+01 3.217615e+01 1.929537e+01 1.919715e+01 2.641645e+01 2.623324e+01 3.786816e+01 2.340653e+01 1.775226e+01 2.262823e+01 2.984064e+01 2.613872e+01 4.432752e+00 5.706023e+00 2.421855e+00 3.734259e+00 4.084684e+00 2.807176e+00 3.557329e+00 2.669157e+00 3.346710e+00 4.244920e+00 3.662807e+00 2.624502e+00 1.896457e+00
<GCONST> 9.939121e+01
<STATE> 3
<MEAN> 25
 -1.119406e+01 8.027898e+00 4.605158e+00 -3.142149e+00 9.716095e+00 -5.444789e+00 -3.827570e-01 -1.058366e+00 -3.159555e+00 -9.187168e-01 5.853683e+00 -3.901359e+00 -3.626624e+00 -3.438066e-01 7.199242e-01 -1.635522e+00 9.702164e-01 -2.082833e-01 1.808729e+00 4.965093e-02 -4.655948e-01 1.169654e+00 1.503108e+00 -3.044763e-01 1.232866e+00
<VARIANCE> 25
 4.618266e+01 6.264579e+01 3.687073e+01 3.774437e+01 2.984176e+01 4.161159e+01 7.010321e+01 6.378450e+01 3.507860e+01 3.442320e+01 3.740363e+01 3.098573e+01 5.986874e+00 5.282020e+00 3.404986e+00 3.821178e+00 6.741580e+00 4.109611e+00 3.690719e+00 4.307586e+00 3.265036e+00 2.547202e+00 3.399319e+00 2.888496e+00 1.776566e+00
<GCONST> 1.079214e+02
<STATE> 4
<MEAN> 25
 -1.186374e+01 3.581124e+00 7.114244e+00 -5.977904e+00 4.252323e+00 -3.687709e+00 7.010992e+00 -9.082499e-01 -2.591545e+00 1.108320e+00 6.450834e+00 -1.594357e+00 2.738335e+00 -1.555985e+00 -2.521768e-02 -7.092045e-02 -1.715323e+00 7.780772e-02 2.699925e-01 -3.006938e-01 8.893641e-02 -5.435771e-01 -1.691980e+00 3.316790e-01 4.369827e-01
<VARIANCE> 25
 6.217000e+01 5.342022e+01 4.189670e+01 1.905475e+01 3.841027e+01 3.768117e+01 3.936171e+01 4.584235e+01 2.703602e+01 3.533221e+01 3.674491e+01 3.349069e+01 5.007784e+00 4.520925e+00 2.472263e+00 2.293148e+00 4.212944e+00 2.778400e+00 5.051172e+00 4.330551e+00 2.288208e+00 2.719657e+00 5.828011e+00 3.047614e+00 1.514774e+00
<GCONST> 1.050109e+02
<TRANSP> 5
 0.000000e+00 1.000000e+00 0.000000e+00 0.000000e+00 0.000000e+00
 0.000000e+00 6.705605e-01 3.294395e-01 0.000000e+00 0.000000e+00
 0.000000e+00 0.000000e+00 7.311878e-01 2.688122e-01 0.000000e+00
 0.000000e+00 0.000000e+00 0.000000e+00 7.787748e-01 2.212252e-01
 0.000000e+00 0.000000e+00 0.000000e+00 0.000000e+00 0.000000e+00
<ENDHMM>
~h "kh"
<BEGINHMM>
<NUMSTATES> 5
<STATE> 2
<MEAN> 25
 -2.421257e+00 1.362669e+00 -6.615118e-01 3.372439e+00 -1.666869e+00 -2.117493e+00 -2.426702e+00 -2.994369e+00 2.601214e+00 1.996650e+00 3.337962e+00 1.676425e+00 -6.536186e-01 -3.626508e+00 -2.522300e+00 2.963032e-01 2.944643e+00 -3.150494e-01 6.718259e-01 7.608760e-01 2.838383e-01 6.110101e-01 1.126207e+00 6.337956e-01 1.097706e+00
<VARIANCE> 25
 1.408929e+01 6.947814e+01 7.913998e+01 3.851715e+01 6.860167e+01 4.333546e+01 3.617089e+01 4.911344e+01 3.448162e+01 3.706889e+01 3.178926e+01 2.708821e+01 1.654271e+00 4.939994e+00 9.406879e+00 6.470859e+00 7.785992e+00 7.187230e+00 4.988708e+00 6.459430e+00 3.458879e+00 5.847798e+00 3.609643e+00 3.176903e+00 2.678408e+00
<GCONST> 1.103854e+02
<STATE> 3
<MEAN> 25
 -3.448587e+00 -9.458826e+00 -1.036446e+01 1.672067e+00 9.108906e+00 -6.008101e-01 7.726989e-01 1.089582e+00 4.102043e+00 4.871730e+00 5.043278e+00 4.519150e+00 -7.265646e-01 -6.641552e-01 7.336043e-02 -5.799586e-01 8.164830e-01 9.357671e-01 8.019790e-01 3.696658e-01 4.471605e-01 -5.905123e-02 1.273844e-01 7.716556e-01 1.385367e-01
<VARIANCE> 25
 2.201558e+01 3.311887e+01 1.085366e+02 5.391106e+01 6.663632e+01 8.264268e+01 4.458244e+01 7.261250e+01 4.481523e+01 5.251870e+01 3.248618e+01 3.266577e+01 9.935785e-01 3.203072e+00 4.705361e+00 3.671333e+00 4.996982e+00 5.235394e+00 3.045982e+00 3.859300e+00 4.010540e+00 4.320278e+00 3.371040e+00 2.625169e+00 1.306341e+00
<GCONST> 1.076757e+02
<STATE> 4
<MEAN> 25
 -6.592640e+00 -5.521937e+00 -4.747329e-01 -2.462314e+00 4.736576e+00 4.392915e+00 3.416458e+00 -1.741947e+00 5.163017e+00 1.331040e+00 3.359448e+00 5.675770e+00 1.902122e+00 1.470613e+00 8.757937e-01 -3.958564e-01 -1.251782e+00 3.983488e-01 -5.140555e-01 -6.574559e-01 -1.300379e+00 -9.219407e-01 -1.562093e+00 -8.295656e-01 6.128775e-01
<VARIANCE> 25
 4.131805e+01 5.016856e+01 1.301142e+02 5.550830e+01 6.379579e+01 5.752493e+01 4.141606e+01 4.678994e+01 4.638334e+01 4.165918e+01 5.076826e+01 2.718736e+01 4.146137e+00 3.685134e+00 2.342341e+00 3.421943e+00 3.102133e+00 4.701312e+00 3.219038e+00 2.889836e+00 4.481113e+00 3.879826e+00 3.587313e+00 2.919456e+00 2.262139e+00
<GCONST> 1.087811e+02
<TRANSP> 5
 0.000000e+00 1.000000e+00 0.000000e+00 0.000000e+00 0.000000e+00
 0.000000e+00 6.436384e-01 3.563616e-01 0.000000e+00 0.000000e+00
 0.000000e+00 0.000000e+00 6.965882e-01 3.034118e-01 0.000000e+00
 0.000000e+00 0.000000e+00 0.000000e+00 6.685125e-01 3.314876e-01
 0.000000e+00 0.000000e+00 0.000000e+00 0.000000e+00 0.000000e+00
<ENDHMM>
~h "n:"
<BEGINHMM>
<NUMSTATES> 5
<STATE> 2
<MEAN> 25
 6.359009e+00 -3.183204e+00 1.588521e+00 -9.892467e-01 -2.563302e+00 -8.238963e-01 9.057016e-01 -2.333036e+00 -6.362408e+00 -3.534791e+00 -6.452061e+00 -1.990736e+00 5.705976e-02 1.550087e+00 2.755452e-01 1.441882e+00 -1.200277e+00 -2.854586e-01 -2.911342e-01 -1.290697e+00 4.088321e-01 -1.377481e-01 2.872420e-01 -2.530700e-02 -1.083438e+00
<VARIANCE> 25
 1.717118e+01 5.042104e+01 4.546491e+01 5.386586e+01 4.632489e+01 3.947844e+01 3.040444e+01 4.169339e+01 4.366495e+01 3.287090e+01 3.112125e+01 2.935296e+01 3.509681e-01 1.318730e+00 1.925977e+00 1.795306e+00 3.470668e+00 2.267887e+00 1.869112e+00 3.129027e+00 2.255807e+00 2.800417e+00 2.222126e+00 1.681371e+00 4.146788e-01
<GCONST> 9.583748e+01
<STATE> 3
<MEAN> 25
 7.024037e+00 4.780914e+00 1.566397e+00 3.793672e+00 -5.750138e+00 -6.385494e-01 5.548261e-02 -5.847967e+00 -3.677501e+00 -5.324398e+00 -4.795437e+00 -1.900375e+00 -3.011007e-01 1.301319e+00 -1.795077e-01 6.148794e-01 4.591747e-01 -1.197000e-01 -2.219173e-01 6.819175e-03 -2.021558e-02 -4.269643e-01 5.502340e-01 -2.014939e-01 -9.359073e-01
<VARIANCE> 25
 1.537858e+01 3.216126e+01 2.633124e+01 3.374127e+01 2.876567e+01 3.246803e+01 2.831866e+01 3.161292e+01 2.950886e+01 2.780428e+01 2.740933e+01 2.766101e+01 4.153086e-01 8.565923e-01 1.031001e+00 1.670290e+00 1.800944e+00 1.764442e+00 1.505425e+00 2.096628e+00 1.754560e+00 1.727262e+00 1.674392e+00 1.475169e+00 3.363246e-01
<GCONST> 8.865632e+01
<STATE> 4
<MEAN> 25
 -2.383920e-01 7.218631e+00 5.528659e-01 5.701310e+00 -3.655294e-01 4.394616e-01 -1.027358e+00 -2.100814e+00 -1.847509e+00 -3.357712e+00 1.519017e+00 -9.368996e-01 -9.922917e-01 -9.248105e-02 -4.986831e-01 4.160712e-01 7.828787e-01 -5.531616e-02 6.981362e-02 5.989679e-01 4.770548e-01 3.001265e-01 8.589170e-01 1.034293e-01 -7.576787e-01
<VARIANCE> 25
 3.720158e+01 2.655361e+01 2.974559e+01 3.041017e+01 3.137148e+01 2.922694e+01 2.563077e+01 3.599357e+01 3.269853e+01 2.635883e+01 3.719573e+01 2.220527e+01 9.652924e-01 1.676575e+00 1.662815e+00 1.847046e+00 2.046940e+00 1.738224e+00 1.997440e+00 2.235241e+00 1.985767e+00 2.060143e+00 2.370225e+00 1.756864e+00 5.081478e-01
<GCONST> 9.330096e+01
<TRANSP> 5
 0.000000e+00 1.000000e+00 0.000000e+00 0.000000e+00 0.000000e+00
 0.000000e+00 6.146294e-01 3.853706e-01 0.000000e+00 0.000000e+00
 0.000000e+00 0.000000e+00 6.491358e-01 3.508642e-01 0.000000e+00
 0.000000e+00 0.000000e+00 0.000000e+00 6.179830e-01 3.820170e-01
 0.000000e+00 0.000000e+00 0.000000e+00 0.000000e+00 0.000000e+00
<ENDHMM>
~h "oo"
<BEGINHMM>
<NUMSTATES> 5
<STATE> 2
<MEAN> 25
 9.123764e+00 2.799136e+00 -8.818237e+00 -6.898173e+00 3.595996e+00 1.741444e+00 -4.793441e+00 -5.135557e+00 -2.661711e+00 2.027782e+00 1.519456e+00 -3.636450e-01 1.851472e+00 1.604507e+00 -1.060628e+00 -2.879225e+00 -3.161732e-01 1.066332e+00 -1.079844e-01 -7.688600e-01 -1.901100e+00 5.961559e-01 1.786509e-01 1.371720e-02 5.616435e-01
<VARIANCE> 25
 1.690688e+01 4.299986e+01 3.191518e+01 6.804472e+01 3.419538e+01 4.050631e+01 4.610157e+01 2.773203e+01 5.843150e+01 4.607059e+01 3.011705e+01 2.245633e+01 2.863372e+00 3.038643e+00 3.029146e+00 3.726362e+00 5.087460e+00 3.512414e+00 3.846741e+00 3.166215e+00 3.967021e+00 4.557512e+00 3.378477e+00 2.602559e+00 1.383223e+00
<GCONST> 1.043839e+02
<STATE> 3
<MEAN> 25
 1.167810e+01 8.340032e+00 -1.078977e+01 -1.384107e+01 1.454609e+00 5.297257e+00 -7.179816e-01 -4.049446e+00 -8.358207e+00 9.531934e-01 2.747058e+00 1.562614e+00 -4.374343e-02 1.555404e-01 3.121643e-02 3.740011e-02 1.042973e-01 7.462901e-03 -2.134748e-01 -9.354400e-02 7.335158e-02 2.199193e-01 -1.417175e-02 -1.019895e-01 -1.128744e-01
<VARIANCE> 25
 5.319774e+00 3.118573e+01 1.681642e+01 4.312727e+01 2.922001e+01 1.913996e+01 2.932566e+01 2.806109e+01 2.510616e+01 3.867461e+01 2.836165e+01 2.361280e+01 2.001195e-01 1.081653e+00 7.530346e-01 2.224761e+00 2.316059e+00 1.417855e+00 2.978445e+00 2.125197e+00 2.556530e+00 3.169494e+00 1.727261e+00 1.705965e+00 3.108990e-01
<GCONST> 8.809398e+01
<STATE> 4
<MEAN> 25
 7.778241e+00 6.296456e+00 -7.405932e+00 -5.150828e+00 3.723385e+00 1.663958e-01 -7.942743e+00 -4.427017e+00 -6.028653e-01 3.357818e+00 1.511297e+00 -8.250907e-01 -1.163029e+00 -3.290826e-01 1.284178e+00 1.991982e+00 -5.020692e-01 -8.840300e-01 -9.028370e-02 6.486925e-01 1.058356e+00 -6.332408e-01 -2.069118e-01 -8.981944e-02 -7.846765e-01
<VARIANCE> 25
 2.026151e+01 4.600566e+01 2.787229e+01 5.685439e+01 3.973145e+01 3.249152e+01 5.691404e+01 3.662452e+01 4.234342e+01 5.068156e+01 4.429124e+01 2.736269e+01 6.762415e-01 2.269286e+00 2.264084e+00 2.663155e+00 2.897715e+00 3.759024e+00 4.548721e+00 2.806784e+00 3.970917e+00 3.819299e+00 4.482031e+00 2.648291e+00 1.056821e+00
<GCONST> 1.021375e+02
<TRANSP> 5
 0.000000e+00 1.000000e+00 0.000000e+00 0.000000e+00 0.000000e+00
 0.000000e+00 6.583654e-01 3.416346e-01 0.000000e+00 0.000000e+00
 0.000000e+00 0.000000e+00 8.317391e-01 1.682609e-01 0.000000e+00
 0.000000e+00 0.000000e+00 0.000000e+00 7.807633e-01 2.192367e-01
 0.000000e+00 0.000000e+00 0.000000e+00 0.000000e+00 0.000000e+00
<ENDHMM>
~h "o~"
<BEGINHMM>
<NUMSTATES> 5
<STATE> 2
<MEAN> 25
 9.419135e+00 -1.231725e+00 -1.007600e+01 -9.844994e+00 4.423853e+00 2.645065e+00 -4.385741e+00 1.112891e+00 -3.928303e+00 1.966015e+00 2.169807e+00 -2.019991e+00 1.842225e+00 -9.439897e-01 -1.048763e+00 -4.814452e+00 1.251995e+00 2.279154e+00 -6.777396e-01 6.256136e-01 -1.311641e+00 9.905216e-01 -3.351139e-01 -5.986633e-01 2.466101e+00
<VARIANCE> 25
 1.714713e+01 5.919598e+01 2.615179e+01 2.119078e+02 3.256893e+01 8.979046e+01 3.878960e+01 2.265513e+01 4.731080e+01 3.519532e+01 2.954519e+01 2.350516e+01 3.307120e+00 6.737548e+00 4.585998e+00 1.068394e+01 4.567153e+00 6.391941e+00 3.742411e+00 3.431281e+00 4.141698e+00 3.113983e+00 2.706090e+00 2.565729e+00 3.706870e+00
<GCONST> 1.089369e+02
<STATE> 3
<MEAN> 25
 9.643040e+00 -5.411814e+00 -9.595604e+00 -1.783998e+01 9.853910e+00 1.050224e+01 -3.594331e+00 1.588433e+00 -7.480114e+00 2.578527e+00 4.170637e-01 -4.431097e+00 -1.725729e-01 -1.002805e+00 1.775594e-01 5.733729e-01 5.781904e-01 2.243019e-01 -3.215641e-01 2.897150e-02 5.265335e-01 1.152584e-01 -5.672192e-01 -5.505573e-01 4.151685e-01
<VARIANCE> 25
 4.861611e+00 4.410166e+01 2.232488e+01 3.523286e+01 2.004716e+01 1.629311e+01 2.049998e+01 2.257979e+01 6.893423e+01 5.499177e+01 2.165623e+01 2.515528e+01 1.614909e-01 1.283022e+00 6.079473e-01 2.987171e+00 1.613121e+00 2.157518e+00 2.214350e+00 1.347557e+00 3.307201e+00 2.004073e+00 2.114897e+00 1.492387e+00 2.687863e-01
<GCONST> 8.753930e+01
<STATE> 4
<MEAN> 25
 8.917596e+00 -8.419584e+00 -7.951971e+00 -5.841895e+00 6.361137e+00 1.715295e+00 -7.015214e+00 2.406955e+00 1.609668e+00 2.505558e+00 -4.938500e+00 -7.293657e+00 -4.390119e-01 3.577419e-01 5.447720e-01 2.468968e+00 -1.118982e+00 -2.396698e+00 -1.527565e-01 2.245091e-01 9.459599e-01 -7.892783e-01 -2.562114e-01 4.800715e-01 -8.936082e-01
<VARIANCE> 25
 6.167004e+00 3.784871e+01 2.109795e+01 8.597574e+01 2.420036e+01 5.277035e+01 1.828464e+01 3.289753e+01 4.297083e+01 4.279561e+01 4.144597e+01 3.923723e+01 3.591317e-01 3.115546e+00 1.757121e+00 2.917515e+00 2.495980e+00 3.062665e+00 2.422722e+00 2.572310e+00 2.951137e+00 2.853757e+00 3.730081e+00 2.808596e+00 1.190955e+00
<GCONST> 9.763084e+01
<TRANSP> 5
 0.000000e+00 1.000000e+00 0.000000e+00 0.000000e+00 0.000000e+00
 0.000000e+00 6.208529e-01 3.791471e-01 0.000000e+00 0.000000e+00
 0.000000e+00 0.000000e+00 8.433319e-01 1.566681e-01 0.000000e+00
 0.000000e+00 0.000000e+00 0.000000e+00 8.145592e-01 1.854408e-01
 0.000000e+00 0.000000e+00 0.000000e+00 0.000000e+00 0.000000e+00
<ENDHMM>
~h "ph"
<BEGINHMM>
<NUMSTATES> 5
<STATE> 2
<MEAN> 25
 -2.549911e+00 -4.767715e+00 -1.392429e+00 4.171808e+00 1.888266e+00 -8.927146e-01 2.921157e-01 9.043940e-01 -8.416822e-02 -3.203538e+00 1.817726e+00 2.163590e-01 -2.063129e+00 -9.827707e-01 -1.130123e-01 2.177632e-01 7.892542e-01 -9.946793e-02 9.535123e-01 8.275375e-01 9.834387e-01 -6.348728e-01 1.202435e+00 1.077824e+00 -3.408206e-01
<VARIANCE> 25
 2.497963e+01 2.877583e+01 6.498962e+01 2.082874e+01 4.406788e+01 4.823591e+01 3.959484e+01 3.384454e+01 3.630354e+01 3.014474e+01 2.873664e+01 2.348093e+01 1.489245e+00 2.219942e+00 2.721456e+00 2.935626e+00 2.081603e+00 2.692507e+00 2.915041e+00 3.249955e+00 1.827702e+00 3.333903e+00 2.130686e+00 2.697177e+00 1.098609e+00
<GCONST> 9.900555e+01
<STATE> 3
<MEAN> 25
 -8.872927e+00 -6.823572e+00 -2.463201e+00 4.530761e+00 4.192094e+00 -1.317224e-01 3.389659e+00 3.019046e+00 3.473466e+00 -2.892779e+00 4.733923e+00 2.332485e+00 -7.544137e-01 -2.190477e-01 2.312501e-01 1.410868e-01 2.849045e-01 -1.732247e-01 3.476723e-01 4.217958e-01 2.975989e-01 7.346107e-02 3.308935e-01 2.879356e-01 -1.922586e-01
<VARIANCE> 25
 1.549897e+01 2.338560e+01 3.787340e+01 2.541951e+01 2.971095e+01 4.156359e+01 2.767010e+01 3.009129e+01 2.936604e+01 2.598426e+01 2.711158e+01 2.314346e+01 1.077772e+00 1.483677e+00 1.826324e+00 1.367629e+00 1.823972e+00 2.094870e+00 2.187442e+00 1.903744e+00 1.667763e+00 2.047365e+00 2.024506e+00 1.740063e+00 7.847102e-01
<GCONST> 9.202862e+01
<STATE> 4
<MEAN> 25
 -9.537902e+00 -8.935940e+00 -1.695188e+00 2.870235e+00 4.182349e+00 -1.554047e+00 6.365031e+00 5.575020e+00 4.186890e+00 -1.094100e+00 6.293957e+00 3.237419e+00 2.226583e+00 4.402945e-01 6.173711e-01 -1.065460e+00 -1.776107e+00 -5.991768e-01 -3.904799e-01 -9.193790e-01 -1.221721e+00 5.375230e-01 -8.912373e-01 -9.623872e-01 1.192499e+00
<VARIANCE> 25
 3.591727e+01 3.245113e+01 4.086309e+01 2.697678e+01 4.510003e+01 3.205629e+01 2.965320e+01 2.846827e+01 3.545661e+01 2.177236e+01 3.173722e+01 2.474665e+01 7.403175e+00 3.578016e+00 5.184090e+00 3.928936e+00 6.522806e+00 3.834234e+00 4.470778e+00 4.186829e+00 4.346761e+00 3.071643e+00 3.786341e+00 2.247864e+00 2.083024e+00
<GCONST> 1.052493e+02
<TRANSP> 5
 0.000000e+00 1.000000e+00 0.000000e+00 0.000000e+00 0.000000e+00
 0.000000e+00 6.018733e-01 3.981268e-01 0.000000e+00 0.000000e+00
 0.000000e+00 0.000000e+00 8.144004e-01 1.855996e-01 0.000000e+00
 0.000000e+00 0.000000e+00 0.000000e+00 7.545415e-01 2.454585e-01
 0.000000e+00 0.000000e+00 0.000000e+00 0.000000e+00 0.000000e+00
<ENDHMM>
~h "rx"
<BEGINHMM>
<NUMSTATES> 5
<STATE> 2
<MEAN> 25
 -1.829815e+00 -3.947543e+00 9.181936e+00 1.177495e+00 -8.521319e-01 -2.245639e+00 -7.261877e+00 4.743258e+00 3.131504e+00 -6.010062e+00 4.407056e+00 2.540765e+00 1.351539e+00 -3.739298e-01 1.952106e+00 -1.046065e+00 -2.155455e+00 -1.509775e-01 -7.420622e-01 2.502965e-02 -1.155165e+00 -5.142093e-01 1.745049e-01 -6.994172e-02 1.474287e+00
<VARIANCE> 25
 7.460819e+01 3.692084e+01 4.797934e+01 4.866519e+01 1.008949e+02 5.604001e+01 4.972890e+01 7.054979e+01 7.219379e+01 3.685023e+01 3.172394e+01 2.974899e+01 6.729846e+00 4.360908e+00 5.953614e+00 4.316333e+00 7.550273e+00 6.126669e+00 5.120312e+00 5.966968e+00 6.201955e+00 5.286116e+00 3.624139e+00 3.606782e+00 2.380693e+00
<GCONST> 1.139699e+02
<STATE> 3
<MEAN> 25
 6.043480e+00 -7.465992e+00 1.044512e+01 -3.874067e+00 -1.099639e+01 -5.750806e+00 -4.003675e+00 2.061474e+00 -4.472939e+00 -1.189458e-01 2.875004e+00 -3.356837e-01 6.536415e-01 -7.678360e-01 3.374921e-01 -1.740893e+00 -8.821187e-01 -1.051883e+00 1.901207e+00 -7.506763e-01 -1.513978e+00 3.410402e+00 -1.306697e+00 -1.311521e-01 1.333198e+00
<VARIANCE> 25
 5.648708e+00 2.318235e+01 1.849470e+01 2.700599e+01 2.856650e+01 3.048820e+01 2.946620e+01 2.420533e+01 2.688690e+01 5.351823e+01 2.224788e+01 1.271925e+01 2.795332e+00 1.776984e+00 2.090521e+00 3.053587e+00 6.318072e+00 3.141325e+00 2.864880e+00 4.799470e+00 3.639068e+00 3.966037e+00 2.662283e+00 2.279881e+00 1.119151e+00
<GCONST> 9.694278e+01
<STATE> 4
<MEAN> 25
 4.691040e+00 -2.698271e+00 9.593589e+00 -2.657713e+00 -9.505943e+00 -8.268207e+00 1.521900e+00 -2.269769e+00 -5.686502e+00 5.664853e+00 -1.582161e+00 1.262880e+00 -5.079583e-01 1.570342e+00 -4.451703e-01 1.174525e+00 1.860460e-01 3.833018e-01 1.096970e-01 -5.936070e-01 4.778236e-01 -5.562737e-01 3.668580e-01 -3.991739e-02 -1.461773e+00
<VARIANCE> 25
 6.691771e+00 4.278910e+01 2.315246e+01 5.428537e+01 2.212537e+01 3.452627e+01 2.363574e+01 2.653510e+01 2.294875e+01 3.689194e+01 3.237697e+01 2.037317e+01 5.471326e-01 1.378876e+00 9.887015e-01 2.576229e+00 1.459482e+00 1.636517e+00 1.810210e+00 2.018893e+00 1.706043e+00 2.826047e+00 2.885326e+00 1.637745e+00 1.147234e+00
<GCONST> 9.113622e+01
<TRANSP> 5
 0.000000e+00 1.000000e+00 0.000000e+00 0.000000e+00 0.000000e+00
 0.000000e+00 6.613579e-01 3.386421e-01 0.000000e+00 0.000000e+00
 0.000000e+00 0.000000e+00 6.858457e-01 3.141543e-01 0.000000e+00
 0.000000e+00 0.000000e+00 0.000000e+00 8.319796e-01 1.680205e-01
 0.000000e+00 0.000000e+00 0.000000e+00 0.000000e+00 0.000000e+00
<ENDHMM>
~h "t:"
<BEGINHMM>
<NUMSTATES> 5
<STATE> 2
<MEAN> 25
 -2.171092e+00 1.199701e+00 -5.393209e+00 4.707347e+00 4.202452e-01 -7.838312e-01 1.125097e+00 3.644345e+00 2.415379e+00 -4.356477e-01 4.474575e+00 -2.392811e+00 -8.283319e-01 -9.161438e-01 5.388758e-01 -8.682024e-01 4.576131e-01 8.585077e-01 1.471805e-01 3.025163e-01 2.386819e-01 3.087435e-01 9.394804e-01 7.767655e-01 2.770371e-01
<VARIANCE> 25
 3.087322e+01 2.682101e+01 4.702474e+01 3.135955e+01 4.904589e+01 3.055830e+01 5.058698e+01 3.763044e+01 3.510936e+01 3.311233e+01 2.648027e+01 2.032747e+01 1.281299e+00 5.710523e+00 5.508080e+00 4.024650e+00 3.916854e+00 3.429361e+00 3.226947e+00 4.935399e+00 3.559306e+00 3.449732e+00 2.761642e+00 2.480155e+00 3.612351e+00
<GCONST> 1.043437e+02
<STATE> 3
<MEAN> 25
 -7.295677e+00 -5.235798e+00 3.825666e+00 -7.821550e-01 9.205601e-01 4.254432e+00 1.292157e+00 3.362373e+00 3.268377e+00 6.535541e-01 1.036040e+01 1.904922e+00 1.324120e+00 -1.966140e+00 2.244964e+00 -1.919507e+00 -1.145966e+00 -7.354470e-01 -6.904453e-02 -4.456363e-01 -1.164795e+00 -3.882917e-02 -7.120907e-01 2.510494e-01 3.241868e+00
<VARIANCE> 25
 5.265787e+01 7.167345e+01 5.740206e+01 5.719871e+01 4.396311e+01 4.995280e+01 4.216972e+01 3.779492e+01 3.902723e+01 4.246211e+01 3.341011e+01 2.499209e+01 5.814080e+00 9.096081e+00 4.502469e+00 7.083827e+00 7.591121e+00 5.375986e+00 5.174860e+00 9.599633e+00 5.229821e+00 4.727793e+00 6.660289e+00 3.957921e+00 5.176785e+00
<GCONST> 1.146570e+02
<STATE> 4
<MEAN> 25
 1.304834e+00 -5.298421e+00 5.487681e+00 -3.159743e+00 -4.491392e+00 -3.573551e+00 4.120525e-01 2.746589e-01 -2.673723e+00 -9.501925e-01 3.117876e+00 -6.056044e-01 2.615605e+00 -1.152663e+00 1.363135e+00 -1.868516e+00 -1.633035e+00 -1.598558e+00 -7.615292e-01 -5.053184e-01 -1.549704e+00 -4.097403e-01 -3.589682e+00 -1.866437e-01 3.006955e+00
<VARIANCE> 25
 3.398785e+01 8.159995e+01 4.742621e+01 7.437409e+01 5.984002e+01 4.347910e+01 3.775088e+01 7.410928e+01 3.028851e+01 4.371542e+01 5.145803e+01 2.402587e+01 4.733285e+00 6.622254e+00 5.819145e+00 7.698503e+00 8.013860e+00 4.844900e+00 5.781667e+00 5.716579e+00 4.904109e+00 5.725479e+00 4.773576e+00 3.063573e+00 4.369207e+00
<GCONST> 1.140486e+02
<TRANSP> 5
 0.000000e+00 1.000000e+00 0.000000e+00 0.000000e+00 0.000000e+00
 0.000000e+00 5.805167e-01 4.194833e-01 0.000000e+00 0.000000e+00
 0.000000e+00 0.000000e+00 4.654476e-01 5.345524e-01 0.000000e+00
 0.000000e+00 0.000000e+00 0.000000e+00 2.100020e-01 7.899981e-01
 0.000000e+00 0.000000e+00 0.000000e+00 0.000000e+00 0.000000e+00
<ENDHMM>
~h "sh"
<BEGINHMM>
<NUMSTATES> 5
<STATE> 2
<MEAN> 25
 -6.800615e+00 1.698233e+00 1.055501e+01 -6.491179e+00 -8.188605e-01 -3.304968e+00 1.530608e+00 -3.084737e+00 -2.593247e+00 -1.512076e+00 3.808054e+00 -9.915021e-01 -4.199116e+00 1.429875e+00 6.743634e-01 -7.133500e-01 1.311934e+00 5.968638e-02 1.030278e+00 4.479984e-01 4.713472e-01 -1.983149e-01 2.459535e+00 -7.413153e-01 1.310538e-01
<VARIANCE> 25
 5.846262e+01 4.004185e+01 3.839633e+01 3.613683e+01 3.975758e+01 3.723975e+01 4.883137e+01 5.561734e+01 2.869008e+01 4.242529e+01 4.165986e+01 2.399898e+01 1.715257e+00 2.240400e+00 3.001197e+00 2.824893e+00 3.195827e+00 2.887126e+00 3.374748e+00 2.602233e+00 3.048223e+00 3.164313e+00 3.073616e+00 2.169246e+00 5.191780e-01
<GCONST> 1.015461e+02
<STATE> 3
<MEAN> 25
 -2.092444e+01 3.618695e+00 1.098531e+01 -6.196712e+00 1.103977e+00 1.799790e-01 5.240941e+00 8.826467e-02 1.813411e+00 7.782348e-01 1.142431e+01 -9.409099e-01 -4.509269e-01 -3.667996e-01 -9.559214e-02 3.707618e-01 5.718096e-02 2.468831e-01 5.396162e-01 4.475376e-01 3.284529e-01 2.322857e-01 4.473800e-01 3.428091e-01 -4.969561e-01
<VARIANCE> 25
 1.278467e+01 2.877626e+01 2.422318e+01 2.749369e+01 3.371405e+01 3.577414e+01 3.423110e+01 3.256545e+01 3.556293e+01 3.152855e+01 2.542104e+01 2.129769e+01 2.180458e+00 1.405971e+00 1.313260e+00 1.252647e+00 1.791343e+00 2.068342e+00 2.187334e+00 2.184477e+00 2.069254e+00 1.908026e+00 1.854307e+00 1.604987e+00 4.511477e-01
<GCONST> 9.194363e+01
<STATE> 4
<MEAN> 25
 -1.222354e+01 6.052785e-02 8.543099e+00 -4.296893e+00 8.964043e-01 -3.060994e+00 5.711928e+00 1.540885e+00 8.919388e-01 -1.789382e+00 8.291517e+00 -2.152449e-01 4.939487e+00 -9.557213e-01 -1.381981e+00 -1.848665e-01 -8.166708e-01 -1.440809e+00 -1.272973e+00 -4.832228e-01 -9.533607e-01 -9.657556e-01 -2.757281e+00 -1.052670e+00 1.191065e+00
<VARIANCE> 25
 7.803270e+01 3.390128e+01 3.873831e+01 3.758796e+01 3.994493e+01 4.310590e+01 3.450069e+01 3.436655e+01 3.191844e+01 4.013127e+01 4.100882e+01 2.244999e+01 4.697001e+00 4.402843e+00 3.952276e+00 2.613976e+00 5.905612e+00 3.924080e+00 3.566293e+00 3.896005e+00 3.312342e+00 3.938545e+00 4.039841e+00 2.389233e+00 3.322824e+00
<GCONST> 1.067960e+02
<TRANSP> 5
 0.000000e+00 1.000000e+00 0.000000e+00 0.000000e+00 0.000000e+00
 0.000000e+00 7.433259e-01 2.566741e-01 0.000000e+00 0.000000e+00
 0.000000e+00 0.000000e+00 8.689571e-01 1.310429e-01 0.000000e+00
 0.000000e+00 0.000000e+00 0.000000e+00 6.850765e-01 3.149234e-01
 0.000000e+00 0.000000e+00 0.000000e+00 0.000000e+00 0.000000e+00
<ENDHMM>
~h "th"
<BEGINHMM>
<NUMSTATES> 5
<STATE> 2
<MEAN> 25
 -2.221637e+00 -4.687309e+00 -7.702725e+00 3.438434e+00 2.197008e+00 3.822508e-01 3.679555e+00 4.751362e+00 4.998989e+00 -2.628244e+00 3.283899e+00 3.159536e+00 -4.039910e-01 -1.672675e+00 -5.112345e-01 -3.809559e-01 1.126717e+00 1.341990e+00 5.670937e-01 -1.482187e-01 1.425031e-01 3.132289e-02 2.858386e-01 6.732451e-01 6.694651e-01
<VARIANCE> 25
 1.424617e+01 7.699609e+01 3.030015e+01 2.939013e+01 4.826228e+01 5.495559e+01 3.474982e+01 3.642310e+01 3.311396e+01 3.723743e+01 4.810108e+01 4.017955e+01 2.107480e+00 5.674114e+00 2.406420e+00 2.915236e+00 4.021015e+00 3.249730e+00 3.829368e+00 4.057041e+00 4.140419e+00 3.633395e+00 8.658744e+00 4.849101e+00 2.943407e+00
<GCONST> 1.067201e+02
<STATE> 3
<MEAN> 25
 -1.285721e+00 -1.963050e+00 -6.078311e+00 5.334079e+00 1.586853e+00 -1.436637e+00 2.296144e+00 4.370758e+00 1.976569e+00 -4.467495e+00 1.032330e+00 5.459358e-01 -2.560995e-01 -1.217733e+00 -3.069184e-01 -8.254399e-01 1.261469e-01 4.273811e-01 5.740159e-01 -1.194140e+00 -1.689968e-02 2.820523e-01 1.167172e+00 -9.540064e-02 1.236249e+00
<VARIANCE> 25
 1.278294e+01 5.568435e+01 2.272307e+01 2.305101e+01 6.218276e+01 6.016900e+01 2.271161e+01 4.187154e+01 2.082211e+01 3.329140e+01 4.161821e+01 2.274712e+01 4.594500e+00 5.581306e+00 2.066466e+00 3.115106e+00 3.213889e+00 3.404542e+00 5.707276e+00 4.993342e+00 4.008386e+00 3.493392e+00 8.936469e+00 4.428954e+00 3.234704e+00
<GCONST> 1.055952e+02
<STATE> 4
<MEAN> 25
 -5.051042e+00 -5.795170e+00 -3.549425e+00 1.138834e+00 -1.545962e+00 1.723461e+00 7.845005e+00 -1.992414e+00 3.846794e+00 -4.363006e-01 7.022074e+00 3.279549e+00 2.467967e-01 -3.779320e-01 7.944267e-01 -8.164799e-01 -8.479027e-02 5.729942e-01 3.316933e-01 -1.149241e+00 6.674660e-02 2.266212e-01 -7.259043e-01 4.549696e-01 9.536693e-01
<VARIANCE> 25
 2.205713e+01 3.457959e+01 3.700668e+01 2.913848e+01 5.133146e+01 7.606493e+01 4.855619e+01 6.119630e+01 3.661760e+01 4.782307e+01 6.313015e+01 2.570603e+01 4.470741e+00 5.594629e+00 3.029869e+00 3.216778e+00 4.164851e+00 5.466827e+00 6.895224e+00 4.988764e+00 4.533427e+00 4.655322e+00 1.012560e+01 3.958019e+00 3.237294e+00
<GCONST> 1.107683e+02
<TRANSP> 5
 0.000000e+00 1.000000e+00 0.000000e+00 0.000000e+00 0.000000e+00
 0.000000e+00 5.681956e-01 4.318043e-01 0.000000e+00 0.000000e+00
 0.000000e+00 0.000000e+00 1.422304e-01 8.577696e-01 0.000000e+00
