~o
<STREAMINFO> 1 25
<VECSIZE> 25<NULLD><MFCC_D_N_Z_0><DIAGC>
~s "silst"
<NUMMIXES> 5
<MIXTURE> 1 2.178285e-01
<MEAN> 25
 -9.846092e+00 5.527023e+00 -2.614131e+00 5.396111e+00 2.086764e+00 1.028184e+00 8.960670e-02 5.305178e+00 6.731388e+00 6.211446e+00 9.948436e+00 2.945682e+00 1.227172e-01 1.760664e-01 3.617675e-01 3.395859e-01 4.458391e-01 4.162306e-01 5.217940e-01 4.435138e-01 3.926839e-01 2.634233e-01 1.654343e-01 3.770903e-02 1.345479e-01
<VARIANCE> 25
 3.386723e+00 6.920728e+00 9.402035e+00 9.751660e+00 1.564975e+01 1.401771e+01 1.403938e+01 1.517155e+01 1.489681e+01 1.411456e+01 1.388279e+01 1.174628e+01 1.137573e-01 2.578542e-01 3.958331e-01 5.738255e-01 7.408502e-01 9.005279e-01 9.887280e-01 1.129059e+00 1.284751e+00 1.304371e+00 1.220096e+00 1.137096e+00 8.958524e-02
<GCONST> 6.793948e+01
<MIXTURE> 2 2.621593e-01
<MEAN> 25
 -9.138315e+00 6.556517e+00 -1.618293e+00 5.644052e+00 2.112049e+00 9.040134e-01 -2.760145e-01 4.259696e+00 6.167331e+00 5.539806e+00 9.451443e+00 2.650551e+00 -8.673252e-03 -5.377757e-02 -5.846898e-02 -1.167869e-01 -1.116503e-01 -1.639025e-01 -1.321986e-01 -1.301968e-01 -2.476595e-02 4.563878e-02 1.179910e-01 1.328692e-01 4.333076e-02
<VARIANCE> 25
 3.129048e+00 6.535735e+00 8.477632e+00 9.159609e+00 1.403974e+01 1.316475e+01 1.296049e+01 1.448029e+01 1.493333e+01 1.452781e+01 1.368952e+01 1.174262e+01 1.033743e-01 2.364934e-01 3.798933e-01 5.832013e-01 7.379248e-01 8.916077e-01 1.061962e+00 1.170719e+00 1.237168e+00 1.242212e+00 1.216874e+00 1.113218e+00 5.442295e-02
<GCONST> 6.663386e+01
<MIXTURE> 3 1.439310e-01
<MEAN> 25
 -9.181633e+00 6.465152e+00 -1.790002e+00 5.768667e+00 2.190825e+00 1.098963e+00 9.515218e-02 4.863339e+00 6.731332e+00 5.990191e+00 9.838431e+00 2.740994e+00 6.316159e-02 8.614850e-02 1.636567e-01 1.820519e-01 2.508557e-01 2.507843e-01 2.981177e-01 2.527636e-01 2.744997e-01 2.662367e-01 2.590512e-01 1.913298e-01 6.731966e-02
<VARIANCE> 25
 2.993206e+00 6.524203e+00 8.443172e+00 9.085900e+00 1.444520e+01 1.330815e+01 1.307255e+01 1.401927e+01 1.398560e+01 1.389665e+01 1.329416e+01 1.128175e+01 9.361235e-02 2.137494e-01 3.439304e-01 5.003532e-01 6.470110e-01 8.269178e-01 9.487939e-01 1.062955e+00 1.155568e+00 1.192381e+00 1.163789e+00 1.076352e+00 5.220546e-02
<GCONST> 6.531371e+01
<MIXTURE> 4 2.059958e-01
<MEAN> 25
 -9.491837e+00 5.800211e+00 -2.219656e+00 4.598971e+00 1.197968e+00 -1.796659e-01 -1.436805e+00 3.041023e+00 4.812832e+00 4.259342e+00 8.193277e+00 1.798855e+00 -1.185780e-01 -2.107965e-01 -2.783459e-01 -3.626692e-01 -4.177060e-01 -4.885021e-01 -4.973617e-01 -4.903257e-01 -4.179675e-01 -3.585554e-01 -2.881791e-01 -1.919652e-01 -2.024539e-02
<VARIANCE> 25
 3.267922e+00 6.734026e+00 8.668126e+00 9.403894e+00 1.385800e+01 1.330781e+01 1.283383e+01 1.459528e+01 1.517735e+01 1.459448e+01 1.406105e+01 1.200145e+01 1.045265e-01 2.403777e-01 3.878824e-01 5.933736e-01 7.664704e-01 8.892106e-01 1.084266e+00 1.186586e+00 1.238614e+00 1.214949e+00 1.234315e+00 1.100182e+00 5.306945e-02
<GCONST> 6.691220e+01
<MIXTURE> 5 1.700301e-01
<MEAN> 25
 -9.536121e+00 5.666001e+00 -2.522760e+00 4.682003e+00 1.135464e+00 -1.514952e-01 -1.118046e+00 3.653122e+00 5.438416e+00 4.759282e+00 8.619106e+00 1.823889e+00 -4.024645e-02 -5.325070e-02 -3.101279e-02 -3.711756e-02 -7.138327e-03 -2.869323e-02 -3.712808e-02 -9.465858e-02 -1.048169e-01 -1.348971e-01 -1.519981e-01 -1.488443e-01 8.881621e-03
<VARIANCE> 25
 3.147908e+00 6.810848e+00 8.807609e+00 9.220060e+00 1.453085e+01 1.350475e+01 1.294689e+01 1.401506e+01 1.425868e+01 1.393113e+01 1.304084e+01 1.154697e+01 9.378938e-02 2.140189e-01 3.426096e-01 5.131530e-01 6.529436e-01 8.272737e-01 9.556113e-01 1.070454e+00 1.149596e+00 1.175551e+00 1.158320e+00 1.069940e+00 5.206938e-02
<GCONST> 6.551608e+01
~h "a"
<BEGINHMM>
<NUMSTATES> 5
<STATE> 2
<NUMMIXES> 5
<MIXTURE> 1 1.722916e-01
<MEAN> 25
 -5.351686e+00 -1.797452e+00 -1.967045e+00 1.403247e+00 1.770647e+00 -2.987216e+00 1.551970e+00 2.141781e+00 4.117301e+00 -4.741446e-02 4.494442e+00 2.761887e+00 1.812426e-01 -5.893195e-01 -4.691125e-01 -9.398624e-02 1.252627e+00 1.948584e-01 -5.799030e-02 6.642905e-01 1.864090e-01 -9.497019e-02 -6.335478e-01 1.179703e-01 1.553970e-01
<VARIANCE> 25
 3.785978e+01 5.203627e+01 7.507560e+01 6.179439e+01 7.218800e+01 6.378299e+01 5.897536e+01 5.571080e+01 4.225734e+01 5.371599e+01 5.206647e+01 3.583021e+01 4.016925e+00 6.072119e+00 4.653410e+00 4.846616e+00 7.147839e+00 4.456612e+00 4.074543e+00 4.735625e+00 3.609958e+00 4.600483e+00 4.664166e+00 2.853913e+00 4.925063e+00
<GCONST> 1.134899e+02
<MIXTURE> 2 2.401775e-01
<MEAN> 25
 6.932937e+00 -1.018062e+01 -3.004772e+00 -4.703709e+00 3.112173e+00 -3.775607e+00 1.089918e-01 6.179246e+00 8.737667e-01 -1.473141e+00 -7.985141e+00 9.132541e-01 7.472786e-01 -1.650484e+00 6.624687e-01 -1.154541e+00 7.839723e-01 6.623709e-02 8.943819e-01 1.561141e+00 -6.996018e-01 1.962378e-01 -1.813360e+00 1.547999e-01 1.683773e+00
<VARIANCE> 25
 1.063385e+01 3.298773e+01 4.073496e+01 4.134427e+01 6.727415e+01 4.820394e+01 3.684761e+01 3.465729e+01 3.642912e+01 5.318208e+01 3.412418e+01 3.469525e+01 2.201124e+00 2.844422e+00 3.218936e+00 3.550840e+00 4.975976e+00 3.971514e+00 4.185559e+00 3.662704e+00 3.325944e+00 4.347122e+00 3.982325e+00 3.495901e+00 2.377459e+00
<GCONST> 1.052733e+02
<MIXTURE> 3 1.740809e-01
<MEAN> 25
 5.044389e+00 -9.262778e-01 8.887361e-01 1.301576e+00 -2.894368e+00 -3.483514e+00 -5.028924e-01 3.186526e-01 -1.050889e+00 -2.242851e+00 -1.765235e+00 3.135610e-01 -4.710095e-01 7.418561e-01 -2.152924e-01 7.397224e-01 6.393878e-01 3.795930e-01 3.023576e-01 5.710187e-01 4.981747e-01 -7.251641e-02 5.085295e-01 1.174107e-01 -9.120297e-01
<VARIANCE> 25
 1.717553e+01 6.504657e+01 5.768026e+01 6.433691e+01 5.552950e+01 4.511077e+01 5.018258e+01 5.575025e+01 4.134707e+01 4.717360e+01 3.932669e+01 3.097267e+01 1.126878e+00 2.590890e+00 2.038720e+00 2.758370e+00 2.805101e+00 2.578653e+00 3.028011e+00 2.749153e+00 2.510491e+00 2.869567e+00 3.020902e+00 2.353019e+00 1.279433e+00
<GCONST> 1.027066e+02
<MIXTURE> 4 2.158547e-01
<MEAN> 25
 6.418117e+00 -1.128332e+01 -2.574918e+00 -6.033729e+00 2.343448e+00 -5.293478e+00 -1.322227e+00 4.365728e+00 -2.052893e+00 -3.260867e+00 -9.323122e+00 -3.980897e-01 9.847498e-01 -1.776287e+00 3.840080e-01 -1.530921e+00 5.208271e-01 -3.249344e-01 1.842594e-01 1.070283e+00 -1.362591e+00 -2.961997e-01 -2.364505e+00 -4.466777e-01 1.795143e+00
<VARIANCE> 25
 9.567748e+00 3.448910e+01 4.013214e+01 4.087171e+01 6.546254e+01 4.411221e+01 3.460745e+01 3.954209e+01 3.682565e+01 5.339814e+01 3.237427e+01 3.325348e+01 2.458620e+00 3.039326e+00 3.190230e+00 3.460172e+00 5.116457e+00 3.925477e+00 4.205897e+00 3.848958e+00 3.310526e+00 4.088706e+00 4.156222e+00 3.363563e+00 2.215937e+00
<GCONST> 1.051392e+02
<MIXTURE> 5 1.976130e-01
<MEAN> 25
 4.550849e+00 -2.722197e+00 1.280736e+00 1.122362e-01 -3.558535e+00 -4.836248e+00 -2.158551e+00 -1.312596e+00 -3.297115e+00 -3.921184e+00 -3.512913e+00 -7.836506e-01 -4.527209e-01 7.829090e-01 -4.534138e-01 6.994702e-01 4.295638e-01 5.505596e-02 -4.202580e-02 9.855723e-02 9.673879e-02 -5.300884e-01 1.113057e-01 -2.896748e-01 -9.661925e-01
<VARIANCE> 25
 1.628853e+01 5.797293e+01 5.823009e+01 6.723814e+01 5.238799e+01 4.212422e+01 4.867521e+01 5.712563e+01 4.214981e+01 4.798609e+01 3.680819e+01 3.023851e+01 1.154444e+00 2.461914e+00 1.890029e+00 2.874152e+00 2.729639e+00 2.610403e+00 3.042281e+00 2.815799e+00 2.412247e+00 2.892502e+00 2.870564e+00 2.266745e+00 1.224383e+00
<GCONST> 1.021931e+02
<STATE> 3
<NUMMIXES> 5
<MIXTURE> 1 2.316075e-01
<MEAN> 25
 -8.906934e-01 1.236774e+00 -9.943462e-01 3.994160e+00 -6.674997e-01 -4.229609e+00 4.288142e-01 1.123603e+00 1.479266e+00 -1.681704e+00 2.357507e+00 6.726149e-01 -7.692460e-01 9.050918e-01 -3.022979e-01 6.263372e-01 3.948978e-01 5.784189e-01 1.127503e-01 5.125499e-01 4.147227e-01 4.523069e-02 3.833850e-01 -2.123454e-01 -1.450575e+00
<VARIANCE> 25
 4.501917e+01 4.500671e+01 5.531620e+01 4.391128e+01 5.942849e+01 4.640056e+01 5.091502e+01 5.692369e+01 4.959688e+01 4.677429e+01 4.409887e+01 2.858662e+01 2.107721e+00 2.411305e+00 2.580906e+00 2.684963e+00 3.206295e+00 3.073430e+00 3.050536e+00 2.755353e+00 2.829086e+00 2.893936e+00 3.399990e+00 2.126045e+00 1.443465e+00
<GCONST> 1.045647e+02
<MIXTURE> 2 2.730450e-01
<MEAN> 25
 7.254323e+00 -9.967392e+00 -2.458754e+00 -4.102881e+00 3.895212e+00 -3.420864e+00 1.640322e+00 6.150489e+00 -9.861696e-01 -1.437880e+00 -8.531297e+00 3.536079e-01 7.486034e-02 7.693672e-01 1.924837e-01 7.532120e-01 3.918742e-02 1.747192e-01 2.102797e-01 -5.613792e-02 -4.589101e-02 2.138287e-01 3.973936e-01 -1.043825e-02 -5.140141e-01
<VARIANCE> 25
 6.109526e+00 3.309225e+01 3.526027e+01 3.718831e+01 6.250571e+01 4.620265e+01 3.778751e+01 3.802975e+01 3.507359e+01 5.121242e+01 2.719501e+01 3.391182e+01 4.097852e-01 2.056511e+00 1.346659e+00 1.999802e+00 2.769184e+00 2.415086e+00 2.742561e+00 2.447450e+00 2.126818e+00 2.656130e+00 2.212287e+00 2.094878e+00 1.016612e+00
<GCONST> 9.589898e+01
<MIXTURE> 3 1.236828e-01
<MEAN> 25
 7.227210e+00 -5.802733e+00 -2.292835e+00 -8.289489e-01 1.908684e-01 -4.335760e+00 1.644946e+00 4.583233e+00 5.438765e-01 -1.461669e+00 -6.365771e+00 5.134420e-01 -3.168804e-01 9.105807e-01 3.599542e-01 8.657623e-01 -2.556831e-02 3.711899e-01 6.558815e-01 4.306294e-01 1.514704e-01 -7.002108e-02 6.968768e-01 2.040654e-01 -8.210300e-01
<VARIANCE> 25
 1.018012e+01 5.025676e+01 4.603498e+01 4.404792e+01 6.052456e+01 4.275375e+01 4.254685e+01 4.874060e+01 3.819610e+01 4.878556e+01 3.537762e+01 3.194081e+01 6.031576e-01 2.544068e+00 1.870034e+00 2.476906e+00 2.723956e+00 2.442088e+00 3.055587e+00 2.635385e+00 2.644189e+00 2.770202e+00 2.595816e+00 2.248905e+00 1.639782e+00
<GCONST> 1.000472e+02
<MIXTURE> 4 2.425114e-01
<MEAN> 25
 6.433027e+00 -1.105214e+01 -2.017253e+00 -5.415174e+00 3.989097e+00 -4.444295e+00 -1.836742e-01 4.646630e+00 -3.361994e+00 -2.638357e+00 -9.835812e+00 -6.138164e-01 -9.101779e-03 7.451451e-01 -1.373468e-01 5.655867e-01 -1.434978e-01 -2.189376e-01 -3.402205e-01 -5.983986e-01 -4.632818e-01 -1.940217e-01 -1.443826e-02 -3.770170e-01 -6.513654e-01
<VARIANCE> 25
 6.183816e+00 3.179528e+01 3.441830e+01 3.598396e+01 6.053431e+01 4.499781e+01 3.842862e+01 3.985030e+01 3.704609e+01 5.198262e+01 2.814516e+01 3.529887e+01 3.962135e-01 2.036414e+00 1.357539e+00 2.055725e+00 2.548315e+00 2.338380e+00 2.636068e+00 2.424208e+00 2.152228e+00 2.708321e+00 2.220824e+00 2.092864e+00 1.055083e+00
<GCONST> 9.586212e+01
<MIXTURE> 5 1.291549e-01
<MEAN> 25
 6.134619e+00 -6.424219e+00 -1.764197e+00 -1.874264e+00 -2.408799e-01 -5.437479e+00 -1.705559e-01 2.823004e+00 -1.720947e+00 -2.644613e+00 -7.281281e+00 -5.069563e-01 -4.189409e-01 8.505359e-01 4.505896e-03 6.786958e-01 -1.928056e-01 7.032465e-02 2.017408e-01 -2.497637e-02 -2.209319e-01 -5.450242e-01 2.313698e-01 -2.348247e-01 -9.532673e-01
<VARIANCE> 25
 1.133215e+01 4.976355e+01 4.720457e+01 4.811229e+01 6.204551e+01 4.175389e+01 4.394059e+01 5.323302e+01 4.039929e+01 5.122608e+01 3.602502e+01 3.289358e+01 6.462807e-01 2.426134e+00 1.863212e+00 2.568367e+00 2.561207e+00 2.358842e+00 2.766614e+00 2.682398e+00 2.577864e+00 2.806733e+00 2.527409e+00 2.194693e+00 1.654866e+00
<GCONST> 1.003539e+02
<STATE> 4
<NUMMIXES> 5
<MIXTURE> 1 1.650945e-01
<MEAN> 25
 -7.928715e+00 5.031707e+00 -2.391163e+00 6.707490e+00 2.715846e+00 1.696540e+00 5.534183e-01 4.408751e+00 5.079630e+00 2.191594e+00 7.976556e+00 1.880548e+00 -1.094795e-01 9.841773e-02 1.139946e-01 1.585344e-01 2.745945e-01 3.534155e-01 2.381854e-01 2.819889e-01 3.083406e-01 3.852358e-01 3.086436e-01 2.017540e-01 -1.514724e-01
<VARIANCE> 25
 3.816314e+00 8.409812e+00 8.852518e+00 1.199959e+01 1.166665e+01 1.585506e+01 1.486023e+01 1.591470e+01 1.571566e+01 1.865365e+01 1.708194e+01 1.383960e+01 2.129437e-01 4.770705e-01 6.476774e-01 7.967837e-01 1.085556e+00 1.212861e+00 1.438272e+00 1.443826e+00 1.427902e+00 1.425974e+00 1.461385e+00 1.246218e+00 1.096671e-01
<GCONST> 7.307132e+01
<MIXTURE> 2 1.911762e-01
<MEAN> 25
 5.295528e+00 -3.231970e+00 -9.275495e-01 5.231571e-01 -8.827834e-02 -2.687685e+00 1.113448e+00 2.558379e+00 -9.548916e-01 -2.285648e+00 -3.878169e+00 -3.999760e-01 -2.607464e-01 1.054720e+00 3.590649e-01 8.196107e-01 -6.957570e-02 5.166131e-01 2.870099e-01 -2.837600e-01 8.870511e-02 1.235050e-02 7.721694e-01 -1.632436e-02 -7.864026e-01
<VARIANCE> 25
 2.111394e+01 6.646621e+01 5.157119e+01 4.967585e+01 6.733356e+01 4.352855e+01 4.753851e+01 5.733671e+01 4.328082e+01 4.648542e+01 4.124405e+01 3.142171e+01 1.364622e+00 2.270092e+00 2.172578e+00 2.409524e+00 3.045812e+00 2.869816e+00 3.038391e+00 3.396645e+00 2.849414e+00 3.065654e+00 2.983764e+00 2.339432e+00 1.201084e+00
<GCONST> 1.032913e+02
<MIXTURE> 3 2.822668e-01
<MEAN> 25
 -1.371815e+00 3.122759e+00 -3.430892e+00 5.434017e+00 -1.462597e-02 -3.355485e+00 -3.586332e-01 2.868410e+00 2.297308e+00 -2.566440e+00 2.285504e+00 -3.127044e-01 -1.085261e+00 3.168029e-01 -3.406608e-01 5.163084e-02 5.401306e-01 6.949247e-01 1.523672e-01 3.548454e-01 5.104933e-01 2.834973e-01 5.988421e-01 8.100145e-02 -1.147828e+00
<VARIANCE> 25
 2.727635e+01 3.092983e+01 4.838644e+01 2.739954e+01 4.621092e+01 3.927428e+01 4.042365e+01 4.748187e+01 3.865310e+01 3.285196e+01 3.191333e+01 2.261316e+01 8.510107e-01 1.453024e+00 1.909371e+00 1.514570e+00 2.156438e+00 2.200116e+00 2.242175e+00 2.417752e+00 2.466838e+00 2.200228e+00 2.147099e+00 1.837461e+00 4.460912e-01
<GCONST> 9.544440e+01
<MIXTURE> 4 1.941254e-01
<MEAN> 25
 4.776680e+00 -4.669922e+00 -7.328826e-01 -6.954389e-01 -4.627886e-01 -4.189748e+00 -5.033579e-01 1.355167e+00 -3.217137e+00 -3.740589e+00 -5.528131e+00 -1.666863e+00 -3.883879e-01 9.817245e-01 2.936572e-02 6.786065e-01 -3.359756e-01 1.513496e-01 -9.493133e-02 -6.802236e-01 -3.157603e-01 -3.881412e-01 3.640614e-01 -4.573314e-01 -9.264771e-01
<VARIANCE> 25
 1.797628e+01 6.335173e+01 4.973985e+01 5.182368e+01 6.902126e+01 4.292109e+01 4.597311e+01 5.830536e+01 4.369477e+01 4.830858e+01 3.810383e+01 3.157586e+01 1.248844e+00 2.059550e+00 1.981333e+00 2.379890e+00 2.851677e+00 2.643834e+00 2.854785e+00 3.307042e+00 2.703624e+00 3.011816e+00 2.755856e+00 2.204136e+00 1.119375e+00
<GCONST> 1.022491e+02
<MIXTURE> 5 1.673175e-01
<MEAN> 25
 -7.780465e+00 4.641770e+00 -2.762637e+00 5.922283e+00 1.793267e+00 4.696048e-01 -7.618405e-01 2.847316e+00 3.483347e+00 5.956495e-01 6.386355e+00 8.310764e-01 -2.724290e-01 -7.499745e-02 -1.786881e-01 -1.672151e-01 -9.094638e-02 -1.113119e-02 -1.804475e-01 -1.866556e-01 -1.128270e-01 -2.277005e-02 -7.808861e-02 -1.127700e-01 -2.487779e-01
<VARIANCE> 25
 4.411100e+00 8.845295e+00 9.837968e+00 1.228560e+01 1.213160e+01 1.716251e+01 1.599711e+01 1.642619e+01 1.588342e+01 1.818587e+01 1.645149e+01 1.379882e+01 2.588245e-01 5.375752e-01 7.180894e-01 8.171787e-01 1.089166e+00 1.254823e+00 1.394578e+00 1.517528e+00 1.492703e+00 1.542501e+00 1.445649e+00 1.333770e+00 1.281566e-01
<GCONST> 7.439913e+01
<TRANSP> 5
 0.000000e+00 1.000000e+00 0.000000e+00 0.000000e+00 0.000000e+00
 0.000000e+00 2.639157e-01 7.360843e-01 0.000000e+00 0.000000e+00
 0.000000e+00 0.000000e+00 4.723801e-01 5.276199e-01 0.000000e+00
 0.000000e+00 0.000000e+00 0.000000e+00 5.707936e-01 4.292064e-01
 0.000000e+00 0.000000e+00 0.000000e+00 0.000000e+00 0.000000e+00
<ENDHMM>
~h "b"
<BEGINHMM>
<NUMSTATES> 5
<STATE> 2
<NUMMIXES> 5
<MIXTURE> 1 1.546692e-01
<MEAN> 25
 7.594193e+00 1.069012e+01 -1.703476e+00 5.096160e+00 1.519197e+00 1.755888e+00 -1.488641e+00 -3.217268e+00 -9.760584e-01 -3.054484e+00 -2.314070e+00 -6.729573e+00 -4.046197e-01 1.259948e+00 6.814324e-01 2.401845e-01 3.442169e-01 1.963339e-01 2.290728e-01 6.579966e-01 4.442017e-01 3.646246e-02 7.251559e-01 5.386941e-01 -7.113535e-01
<VARIANCE> 25
 6.619867e+00 1.639699e+01 1.747005e+01 1.308128e+01 2.931187e+01 2.382377e+01 2.275240e+01 4.278323e+01 2.445698e+01 2.810890e+01 1.799630e+01 1.975316e+01 2.058679e-01 5.256242e-01 7.045779e-01 7.942722e-01 1.117857e+00 1.247082e+00 1.355777e+00 1.865904e+00 1.392174e+00 1.613731e+00 1.606586e+00 1.469947e+00 1.374349e-01
<GCONST> 8.004207e+01
<MIXTURE> 2 1.744521e-01
<MEAN> 25
 7.950895e+00 8.809505e-02 -1.654950e+00 1.198262e+00 1.878438e-01 -1.568236e+00 -4.957418e+00 -1.718338e+00 -2.137992e+00 -3.280113e-01 -3.697050e+00 -5.922354e+00 -1.517837e-01 3.045388e+00 5.000871e-01 2.515286e+00 3.649304e-02 2.911572e-01 4.588889e-01 -6.756141e-01 1.354650e-02 -1.377613e+00 -1.854251e-01 -7.347251e-01 -1.974808e+00
<VARIANCE> 25
 1.325293e+01 3.646096e+01 5.053702e+01 2.680663e+01 4.304466e+01 2.107200e+01 2.529873e+01 3.720783e+01 4.072746e+01 2.722253e+01 2.640845e+01 2.677231e+01 6.046054e-01 1.539625e+00 1.300116e+00 1.777379e+00 1.435296e+00 2.105960e+00 2.444093e+00 2.836390e+00 2.190624e+00 2.046613e+00 2.554951e+00 2.124472e+00 7.664077e-01
<GCONST> 9.330239e+01
<MIXTURE> 3 3.486134e-01
<MEAN> 25
 7.070604e+00 5.346473e+00 2.383559e+00 6.429554e+00 -5.133699e+00 -8.820308e-01 6.139480e-01 -7.780175e+00 -5.844040e+00 -3.165642e+00 -6.729674e+00 -8.765189e+00 -1.851858e-02 1.587454e+00 -4.452137e-01 3.406701e-01 7.198955e-01 5.099616e-01 3.734929e-01 4.816764e-01 4.669849e-01 -4.406028e-01 2.725554e-01 -5.669164e-01 -8.901296e-01
<VARIANCE> 25
 5.341509e+00 2.376170e+01 3.035027e+01 1.976686e+01 4.281948e+01 2.073119e+01 2.823109e+01 4.489299e+01 2.653517e+01 3.559309e+01 1.974693e+01 2.179723e+01 2.748504e-01 7.770008e-01 7.243834e-01 1.250672e+00 1.811685e+00 1.669635e+00 1.954209e+00 2.162866e+00 1.879981e+00 1.867772e+00 1.528400e+00 1.994544e+00 2.639198e-01
<GCONST> 8.598029e+01
<MIXTURE> 4 1.617615e-01
<MEAN> 25
 7.208447e+00 -2.051437e+00 -8.123829e-02 1.691822e-01 -1.300255e+00 -3.291494e+00 -6.300541e+00 -3.152808e+00 -5.227694e+00 -1.827247e+00 -6.098198e+00 -6.470726e+00 -1.834289e-01 2.785627e+00 1.246760e-01 2.400427e+00 -2.899118e-01 2.100211e-01 1.901634e-01 -1.083126e+00 -3.501291e-01 -1.816576e+00 -7.228840e-01 -1.304550e+00 -2.055800e+00
<VARIANCE> 25
 8.015380e+00 3.246648e+01 4.743120e+01 2.733856e+01 4.727145e+01 1.821064e+01 2.548837e+01 3.479955e+01 3.430750e+01 2.862864e+01 2.645376e+01 2.677190e+01 4.645965e-01 1.219665e+00 1.160738e+00 1.688813e+00 1.291675e+00 2.153198e+00 2.744901e+00 2.276012e+00 2.183101e+00 2.017755e+00 2.506692e+00 2.043242e+00 4.243140e-01
<GCONST> 9.089342e+01
<MIXTURE> 5 1.605033e-01
<MEAN> 25
 7.378526e+00 9.578970e+00 -2.347592e+00 4.607388e+00 1.517503e+00 -1.391492e-01 -2.995882e+00 -3.725036e+00 -2.188251e+00 -4.208660e+00 -3.997104e+00 -8.095231e+00 -5.095326e-01 1.254107e+00 5.244165e-01 9.613031e-02 2.135951e-01 6.713475e-02 -9.775643e-02 3.393031e-01 2.435422e-01 -4.340269e-01 2.984978e-01 1.308982e-01 -7.989292e-01
<VARIANCE> 25
 6.383303e+00 2.031335e+01 1.836568e+01 1.404508e+01 2.923279e+01 2.443036e+01 2.377549e+01 3.925750e+01 2.773905e+01 2.909257e+01 2.023619e+01 2.177076e+01 2.448433e-01 5.733456e-01 6.894487e-01 9.041649e-01 1.245743e+00 1.345490e+00 1.519240e+00 1.644124e+00 1.544352e+00 1.579579e+00 1.499799e+00 1.630678e+00 1.581535e-01
<GCONST> 8.149372e+01
<STATE> 3
<NUMMIXES> 5
<MIXTURE> 1 2.952989e-01
<MEAN> 25
 3.437690e+00 1.468332e+01 4.178653e+00 6.649879e+00 6.312450e-01 -9.300217e-01 -3.058635e+00 -3.883223e+00 -1.782487e+00 -3.362298e+00 7.369556e-02 -4.600721e+00 -7.064623e-01 -9.184062e-01 2.809209e-01 7.358987e-01 6.148258e-01 -3.298868e-01 -1.456702e-01 8.572264e-01 3.738711e-01 -1.289512e-01 5.775366e-01 6.166977e-01 -5.604437e-02
<VARIANCE> 25
 1.292837e+01 6.607038e+00 1.222688e+01 1.020299e+01 2.063123e+01 1.734973e+01 1.466404e+01 2.212421e+01 1.664101e+01 1.633556e+01 1.245429e+01 1.598135e+01 6.546605e-01 2.990867e+00 1.619222e+00 1.484118e+00 1.645406e+00 2.009741e+00 1.664934e+00 2.595883e+00 2.033563e+00 1.849792e+00 1.389054e+00 1.694864e+00 8.035160e-01
<GCONST> 8.395269e+01
<MIXTURE> 2 1.737185e-01
<MEAN> 25
 5.894541e+00 7.541533e+00 -1.972960e+00 6.272975e+00 1.912326e+00 -5.932255e-01 -1.669691e+00 9.912891e-02 -1.066681e+00 -5.818810e+00 -4.317238e+00 -6.233849e+00 -1.480176e-01 -8.151259e-01 -1.070215e-01 -5.940489e-01 1.535374e-02 2.656092e-01 -1.264817e-01 2.455932e-01 7.914129e-01 6.161508e-01 1.322277e+00 9.693683e-01 3.784876e-01
<VARIANCE> 25
 1.634155e+01 3.477136e+01 3.796936e+01 2.492174e+01 3.744204e+01 2.944856e+01 2.505023e+01 5.129536e+01 3.565113e+01 2.949763e+01 2.572237e+01 2.127013e+01 2.043248e+00 3.431982e+00 3.888801e+00 2.351618e+00 2.888115e+00 3.043227e+00 2.487808e+00 3.868198e+00 3.146091e+00 3.648997e+00 3.178390e+00 2.384839e+00 1.752390e+00
<GCONST> 1.001943e+02
<MIXTURE> 3 1.739731e-01
<MEAN> 25
 5.603952e+00 1.335735e+01 4.083959e+00 6.077722e+00 -3.576458e+00 -6.237717e-02 6.021488e-01 -3.940954e+00 -3.415427e+00 -4.365462e+00 -2.474296e+00 -7.534048e+00 3.788739e-01 -2.274501e+00 -1.653804e+00 -3.479049e-01 1.602899e+00 -4.525182e-01 -1.106039e+00 1.020316e+00 1.569330e+00 8.087506e-01 1.036027e+00 9.389718e-01 1.208336e+00
<VARIANCE> 25
 5.423825e+00 1.442304e+01 1.651514e+01 1.338581e+01 3.083519e+01 1.985713e+01 2.438074e+01 2.728896e+01 1.807064e+01 1.889490e+01 1.836151e+01 1.275927e+01 7.551786e-01 4.159925e+00 3.432511e+00 2.755304e+00 2.650163e+00 2.796144e+00 2.819468e+00 2.867770e+00 2.910840e+00 2.679337e+00 2.074845e+00 2.106242e+00 1.077781e+00
<GCONST> 9.100039e+01
<MIXTURE> 4 1.723678e-01
<MEAN> 25
 5.992036e+00 5.270543e+00 -2.500526e+00 5.355857e+00 1.875241e+00 -2.222990e+00 -4.104351e+00 -1.575633e+00 -3.032100e+00 -6.924279e+00 -6.214870e+00 -7.019241e+00 -2.066537e-01 -6.595296e-01 -3.590404e-01 -5.305477e-01 -4.622373e-02 -2.887859e-02 -2.620591e-01 1.413714e-01 4.304250e-01 6.220142e-02 1.179336e+00 5.120004e-01 2.302191e-01
<VARIANCE> 25
 1.245785e+01 4.102078e+01 3.457982e+01 2.901084e+01 3.991316e+01 2.805231e+01 3.261599e+01 4.786983e+01 3.535308e+01 2.607942e+01 2.458372e+01 1.942596e+01 2.468068e+00 3.560980e+00 3.408328e+00 2.423729e+00 2.819761e+00 3.358728e+00 2.559299e+00 4.281535e+00 3.341598e+00 3.459193e+00 2.797816e+00 2.274231e+00 1.848294e+00
<GCONST> 1.003031e+02
<MIXTURE> 5 1.846411e-01
<MEAN> 25
 5.468431e+00 1.222596e+01 3.915529e+00 5.640741e+00 -3.951489e+00 -8.918965e-01 -3.943522e-02 -5.556722e+00 -4.841632e+00 -5.388346e+00 -4.202001e+00 -8.524022e+00 2.805503e-01 -2.246901e+00 -1.565618e+00 -2.469331e-01 1.391066e+00 -7.651169e-01 -1.387289e+00 8.724024e-01 1.352717e+00 3.916973e-01 6.676909e-01 5.847812e-01 1.127452e+00
<VARIANCE> 25
 5.243766e+00 1.701138e+01 1.701478e+01 1.574360e+01 3.149968e+01 1.880589e+01 2.380996e+01 2.530951e+01 1.952178e+01 2.020333e+01 1.819245e+01 1.297830e+01 7.981921e-01 3.977961e+00 3.741292e+00 3.102718e+00 2.792641e+00 2.962227e+00 2.890491e+00 3.060104e+00 2.806296e+00 2.306905e+00 1.973493e+00 2.088431e+00 1.086542e+00
<GCONST> 9.152231e+01
<STATE> 4
<NUMMIXES> 5
<MIXTURE> 1 2.792993e-01
<MEAN> 25
 3.759939e+00 2.679644e+00 8.803086e-01 6.507844e+00 9.525788e-01 -2.374065e+00 -3.195607e+00 1.407722e+00 6.117435e-01 -4.739397e+00 -9.086869e-01 -2.712425e+00 -2.846328e-03 -2.986491e+00 2.122729e-01 -1.507192e+00 -1.608908e+00 -2.533207e-01 1.598400e-01 3.630503e-01 5.012481e-01 9.242775e-01 8.198271e-01 1.023078e+00 1.646780e+00
<VARIANCE> 25
 1.854962e+01 6.484572e+01 4.077125e+01 3.442080e+01 3.457983e+01 4.212828e+01 2.175677e+01 3.457488e+01 2.424817e+01 2.627435e+01 2.458605e+01 2.131870e+01 2.903263e+00 7.418018e+00 6.173027e+00 4.575484e+00 6.778173e+00 5.171487e+00 3.153038e+00 4.579980e+00 3.864207e+00 4.859414e+00 3.004728e+00 2.441354e+00 3.862478e+00
<GCONST> 1.058261e+02
<MIXTURE> 2 2.148807e-01
<MEAN> 25
 1.092500e+01 -2.912288e+00 -1.045889e+01 -3.498521e+00 4.876162e+00 7.371306e-01 -6.506818e+00 -2.009329e-01 4.689767e+00 5.090465e+00 -3.285398e+00 -7.735758e+00 9.106892e-01 -4.515334e+00 -2.388446e+00 -2.803771e+00 1.944319e+00 3.432143e-01 1.052689e-01 2.857588e+00 1.417845e+00 1.331165e+00 -2.136896e+00 4.177522e-01 2.941413e+00
<VARIANCE> 25
 4.050003e+00 3.445067e+01 2.311704e+01 3.552265e+01 2.098811e+01 3.064660e+01 1.993066e+01 3.208004e+01 2.933218e+01 2.707125e+01 3.270045e+01 1.713098e+01 1.036891e+00 5.001689e+00 5.237468e+00 4.677491e+00 4.323037e+00 5.418905e+00 4.000228e+00 5.094565e+00 3.979541e+00 5.979959e+00 3.473892e+00 3.026113e+00 1.468597e+00
<GCONST> 1.004477e+02
<MIXTURE> 3 1.527341e-01
<MEAN> 25
 6.621550e+00 4.959961e+00 -6.010550e-01 5.381447e+00 6.570740e-01 -6.765572e-01 -2.463688e+00 -2.311891e+00 -6.424788e-01 -1.989588e+00 7.493376e-01 -4.584463e+00 1.430839e+00 -4.506745e+00 -3.248386e+00 -3.278373e+00 1.400970e+00 3.310094e-01 -1.450819e+00 8.301432e-01 1.709543e+00 2.914776e+00 4.389139e-02 1.331317e-01 3.088692e+00
<VARIANCE> 25
 7.508531e+00 6.193203e+01 2.974136e+01 3.253818e+01 2.525606e+01 2.788637e+01 2.230653e+01 2.806369e+01 2.351523e+01 2.789121e+01 2.264384e+01 1.766248e+01 1.069501e+00 3.494426e+00 5.626515e+00 4.099987e+00 5.612873e+00 4.495154e+00 3.285060e+00 5.106639e+00 4.730896e+00 4.112613e+00 4.592122e+00 3.164234e+00 1.074764e+00
<GCONST> 1.006591e+02
<MIXTURE> 4 2.016381e-01
<MEAN> 25
 1.056846e+01 -4.512661e+00 -1.047325e+01 -4.787801e+00 4.200054e+00 -3.956122e-01 -8.349857e+00 -1.306102e+00 3.235133e+00 3.998577e+00 -5.218317e+00 -8.941108e+00 6.559965e-01 -4.709107e+00 -2.045649e+00 -2.812249e+00 1.677566e+00 1.983804e-02 -2.004297e-01 2.591086e+00 8.851010e-01 9.422227e-01 -2.501531e+00 9.058779e-02 2.906124e+00
<VARIANCE> 25
 4.024803e+00 3.246324e+01 2.583252e+01 3.693268e+01 2.322941e+01 3.094426e+01 1.861090e+01 3.446671e+01 3.080046e+01 2.644401e+01 3.168059e+01 1.732893e+01 9.417769e-01 4.405113e+00 4.992910e+00 3.926438e+00 4.593201e+00 4.499533e+00 3.957484e+00 4.719470e+00 4.402174e+00 5.252626e+00 3.236937e+00 3.267662e+00 1.251814e+00
<GCONST> 9.981074e+01
<MIXTURE> 5 1.514472e-01
<MEAN> 25
 6.678322e+00 2.728251e+00 -4.240848e-01 4.749892e+00 -9.049750e-01 -2.509670e+00 -3.636381e+00 -3.851024e+00 -2.411107e+00 -3.172621e+00 -1.112915e+00 -5.598586e+00 1.096959e+00 -4.485690e+00 -2.627468e+00 -3.407823e+00 1.009056e+00 1.009855e-01 -1.558061e+00 7.885367e-01 1.192392e+00 2.553193e+00 -1.712172e-01 -9.087639e-02 3.005273e+00
<VARIANCE> 25
 7.340645e+00 7.049179e+01 2.898565e+01 3.721860e+01 3.371996e+01 2.857215e+01 2.185328e+01 3.035600e+01 2.551336e+01 2.732172e+01 2.063171e+01 1.733809e+01 1.097504e+00 3.715214e+00 6.990064e+00 4.300342e+00 7.216640e+00 4.647542e+00 3.882836e+00 5.485804e+00 5.006135e+00 4.078707e+00 3.612938e+00 2.910275e+00 1.158180e+00
<GCONST> 1.018701e+02
<TRANSP> 5
 0.000000e+00 1.000000e+00 0.000000e+00 0.000000e+00 0.000000e+00
 0.000000e+00 7.797453e-01 2.202547e-01 0.000000e+00 0.000000e+00
 0.000000e+00 0.000000e+00 4.232592e-01 5.767408e-01 0.000000e+00
 0.000000e+00 0.000000e+00 0.000000e+00 5.851840e-01 4.148161e-01
 0.000000e+00 0.000000e+00 0.000000e+00 0.000000e+00 0.000000e+00
<ENDHMM>
~h "d"
<BEGINHMM>
<NUMSTATES> 5
<STATE> 2
<NUMMIXES> 5
<MIXTURE> 1 2.621540e-01
<MEAN> 25
 5.041098e+00 8.464970e+00 -1.027519e+00 7.893545e+00 8.660845e-02 -3.041517e+00 1.058828e+00 3.456722e+00 -1.997449e-01 -5.850523e+00 -5.299171e-01 -2.448893e+00 -9.607345e-01 9.901512e-01 2.911425e-01 3.116192e-01 7.194049e-01 2.733115e-01 -5.200735e-01 1.334834e-01 3.208232e-01 5.302739e-02 1.096710e+00 6.643557e-02 -1.105619e+00
<VARIANCE> 25
 1.510658e+01 2.670562e+01 2.488083e+01 1.628097e+01 3.125507e+01 2.266049e+01 2.561666e+01 3.234372e+01 2.571554e+01 3.197025e+01 2.780758e+01 1.723420e+01 3.297954e-01 1.038415e+00 1.010559e+00 9.425831e-01 1.635739e+00 1.964130e+00 1.798115e+00 1.960001e+00 1.698501e+00 1.552069e+00 1.933766e+00 1.407901e+00 2.130463e-01
<GCONST> 8.584886e+01
<MIXTURE> 2 2.120380e-01
<MEAN> 25
 7.893419e+00 1.096289e+00 -7.607281e-01 5.298137e+00 -1.870112e+00 -6.340405e+00 3.024518e-01 2.043766e+00 -1.655512e+00 -4.561811e+00 -5.746600e+00 3.740104e-01 -1.760736e-01 2.665421e+00 -1.769102e-01 2.079877e+00 5.428656e-01 1.418662e+00 3.785769e-01 -1.751442e-02 3.094008e-01 -1.195695e+00 7.878001e-01 -1.362081e+00 -1.978500e+00
<VARIANCE> 25
 5.553141e+00 2.422265e+01 2.882391e+01 2.245021e+01 3.736603e+01 2.753756e+01 3.129421e+01 4.473299e+01 3.478721e+01 3.408176e+01 2.514527e+01 2.964435e+01 2.677370e-01 1.074966e+00 9.159572e-01 1.606300e+00 1.990786e+00 1.831391e+00 2.471381e+00 2.472626e+00 2.067363e+00 1.941450e+00 1.951257e+00 1.872931e+00 3.973705e-01
<GCONST> 8.920065e+01
<MIXTURE> 3 1.606144e-01
<MEAN> 25
 5.939715e+00 9.072420e+00 2.404239e+00 5.621386e+00 -3.490137e+00 5.713627e-01 1.663695e+00 -2.825459e+00 -1.879200e+00 -5.513394e+00 -4.270395e+00 -4.163906e+00 -6.573826e-01 1.019867e+00 9.465834e-02 7.586811e-01 1.027714e+00 1.099487e-01 -1.426777e-01 5.716586e-01 4.248658e-01 1.547471e-01 1.433251e+00 -2.880002e-02 -9.398293e-01
<VARIANCE> 25
 9.883797e+00 2.488280e+01 2.996854e+01 1.920822e+01 4.633060e+01 3.567164e+01 3.512829e+01 4.928353e+01 3.053648e+01 3.449200e+01 3.111878e+01 1.980801e+01 4.609540e-01 1.253715e+00 1.330991e+00 1.201584e+00 2.127076e+00 2.125071e+00 2.034191e+00 2.305585e+00 1.944956e+00 1.776433e+00 2.209933e+00 1.682218e+00 3.801950e-01
<GCONST> 9.061884e+01
<MIXTURE> 4 1.907003e-01
<MEAN> 25
 7.104579e+00 -1.151410e+00 -1.546741e-01 3.691525e+00 -3.049787e+00 -7.377077e+00 -1.530995e+00 -7.831755e-02 -4.116840e+00 -6.916931e+00 -7.761484e+00 -2.190039e-02 -1.683675e-01 2.423279e+00 -4.469511e-01 2.145850e+00 1.489337e-01 1.081211e+00 5.424272e-02 -8.738685e-01 -2.771181e-01 -1.478642e+00 1.933429e-01 -1.815887e+00 -1.997404e+00
<VARIANCE> 25
 5.542639e+00 2.805253e+01 2.872385e+01 2.718229e+01 3.604190e+01 3.220455e+01 3.052400e+01 4.539124e+01 3.303882e+01 3.082168e+01 2.333718e+01 3.484499e+01 3.329723e-01 1.203378e+00 9.199517e-01 1.596354e+00 1.742595e+00 1.931103e+00 2.190060e+00 2.438015e+00 2.311166e+00 1.968813e+00 2.082130e+00 1.990633e+00 4.071639e-01
<GCONST> 8.996804e+01
<MIXTURE> 5 1.744911e-01
<MEAN> 25
 5.556282e+00 7.700308e+00 1.798985e+00 5.425330e+00 -3.760233e+00 -1.345627e+00 -2.220954e-02 -3.793717e+00 -3.600352e+00 -7.395587e+00 -6.038264e+00 -4.877650e+00 -7.977606e-01 8.471644e-01 -1.134735e-01 5.362902e-01 7.789077e-01 -7.077466e-02 -4.031302e-01 1.976979e-01 1.744900e-02 -2.450243e-01 1.017810e+00 -4.206039e-01 -9.999314e-01
<VARIANCE> 25
 1.161188e+01 2.941085e+01 3.584121e+01 2.072263e+01 5.066360e+01 3.275980e+01 3.777523e+01 4.974374e+01 2.999377e+01 3.346618e+01 2.778826e+01 1.990700e+01 4.947383e-01 1.280292e+00 1.389939e+00 1.168051e+00 2.033581e+00 1.852208e+00 1.902407e+00 2.217973e+00 2.034651e+00 1.850228e+00 2.397184e+00 1.672712e+00 3.539917e-01
<GCONST> 9.104055e+01
<STATE> 3
<NUMMIXES> 5
<MIXTURE> 1 1.981609e-01
<MEAN> 25
 -3.645149e+00 7.046622e+00 -1.238612e+00 7.173489e+00 3.363900e+00 9.237133e-01 3.561182e-01 2.898574e+00 2.775662e+00 -1.600119e+00 3.391512e+00 -8.675798e-01 -5.375575e-01 -1.399197e+00 -4.970328e-01 -5.111350e-01 -4.157824e-01 9.087859e-02 6.675770e-01 -3.555137e-01 5.698193e-02 4.033116e-01 9.443532e-01 4.092938e-01 4.015035e-01
<VARIANCE> 25
 2.446676e+01 1.793998e+01 2.019818e+01 1.623699e+01 2.086279e+01 1.866548e+01 2.112796e+01 2.351806e+01 1.702432e+01 2.579797e+01 2.250850e+01 1.291451e+01 2.324114e+00 4.324151e+00 1.829238e+00 1.467012e+00 2.510861e+00 2.389172e+00 2.369693e+00 3.060549e+00 2.421482e+00 3.063638e+00 3.304998e+00 1.823938e+00 1.843702e+00
<GCONST> 9.323415e+01
<MIXTURE> 2 2.345861e-01
<MEAN> 25
 4.917921e+00 8.662383e+00 1.166949e+00 7.859311e+00 -1.091486e+00 -1.297041e+00 1.640583e-01 -1.643891e+00 -2.878237e+00 -7.052236e+00 -1.837024e+00 -3.738663e+00 -1.258502e+00 -1.911070e+00 9.659821e-02 -7.400565e-01 2.616118e-01 -1.259641e-01 6.788934e-01 -8.978708e-01 9.266901e-01 1.094312e+00 2.826210e+00 5.836911e-01 1.056579e+00
<VARIANCE> 25
 1.096673e+01 3.652025e+01 3.342388e+01 1.843946e+01 3.948638e+01 2.531301e+01 2.632880e+01 4.370893e+01 2.898880e+01 3.153784e+01 2.307318e+01 1.982853e+01 1.409295e+00 3.520590e+00 3.467723e+00 3.155941e+00 6.076078e+00 3.935547e+00 4.073973e+00 5.971935e+00 3.942640e+00 4.197252e+00 4.298839e+00 2.987915e+00 1.637864e+00
<GCONST> 1.014760e+02
<MIXTURE> 3 1.688149e-01
<MEAN> 25
 2.266309e+00 1.071218e+01 2.070945e+00 7.925928e+00 4.604838e-01 -1.994735e+00 -9.693800e-01 6.413828e-01 4.153257e-01 -3.490440e+00 1.357231e+00 -2.255826e+00 -1.440856e+00 -2.749280e+00 -5.007650e-01 -2.848784e-01 3.604489e-01 2.931502e-01 1.157145e+00 -1.123897e+00 3.073381e-01 8.831472e-01 2.324314e+00 6.722539e-01 8.445991e-01
<VARIANCE> 25
 1.346753e+01 2.754105e+01 2.647985e+01 1.444413e+01 3.470779e+01 2.545606e+01 2.557286e+01 3.463869e+01 2.133197e+01 2.572578e+01 2.095906e+01 1.560653e+01 7.536250e-01 4.559846e+00 2.805716e+00 2.842562e+00 4.459228e+00 4.474121e+00 4.924449e+00 5.262108e+00 3.700779e+00 3.216317e+00 2.963860e+00 2.683099e+00 2.032348e+00
<GCONST> 9.829618e+01
<MIXTURE> 4 2.293072e-01
<MEAN> 25
 4.633139e+00 7.370325e+00 9.904664e-01 6.978364e+00 -1.673164e+00 -2.816195e+00 -9.224498e-01 -3.194786e+00 -4.584764e+00 -8.180726e+00 -3.371589e+00 -4.492235e+00 -1.334757e+00 -1.843927e+00 -1.272105e-01 -9.505347e-01 2.081331e-01 -2.698711e-01 5.365469e-01 -1.060374e+00 7.241686e-01 6.944379e-01 2.522593e+00 4.348467e-02 1.024626e+00
<VARIANCE> 25
 1.091136e+01 4.000717e+01 3.434651e+01 1.912556e+01 4.206578e+01 2.486341e+01 2.485611e+01 4.489562e+01 3.054491e+01 3.048022e+01 2.573878e+01 1.860792e+01 1.709417e+00 3.450195e+00 3.477072e+00 3.252465e+00 6.340450e+00 3.754789e+00 3.733789e+00 5.611262e+00 3.987508e+00 4.138196e+00 4.376148e+00 2.917747e+00 1.701423e+00
<GCONST> 1.017855e+02
<MIXTURE> 5 1.691296e-01
<MEAN> 25
 2.056722e+00 9.200534e+00 1.396525e+00 7.305805e+00 5.807807e-02 -3.179164e+00 -2.128551e+00 -3.838400e-01 -6.694636e-01 -4.885878e+00 8.066646e-02 -2.989839e+00 -1.532930e+00 -2.698920e+00 -6.587666e-01 -5.410068e-01 1.303363e-01 4.352715e-03 1.031431e+00 -1.341685e+00 1.300305e-01 6.766485e-01 2.076744e+00 3.249654e-01 8.453473e-01
<VARIANCE> 25
 1.354149e+01 3.426258e+01 2.860488e+01 1.372286e+01 3.546484e+01 2.353336e+01 2.386287e+01 3.264902e+01 2.263639e+01 2.646408e+01 2.169908e+01 1.580412e+01 7.490535e-01 4.680200e+00 2.953112e+00 2.931554e+00 4.346440e+00 4.361141e+00 4.514165e+00 5.111916e+00 3.782209e+00 3.077982e+00 2.966561e+00 2.669931e+00 2.204274e+00
<GCONST> 9.848548e+01
<STATE> 4
<NUMMIXES> 5
<MIXTURE> 1 2.512976e-01
<MEAN> 25
 -1.716181e+00 1.013198e+00 -2.144577e+00 5.467685e+00 2.118104e+00 -3.242507e+00 2.044260e+00 -7.652359e-01 1.578018e+00 -2.809255e+00 5.084296e+00 1.166394e+00 -7.692244e-02 -2.068199e+00 -1.160280e+00 -1.063872e+00 4.158895e-02 -1.565928e+00 1.008510e+00 -3.651432e-01 4.295825e-01 -1.805703e-01 9.670702e-01 1.005620e+00 1.793255e+00
<VARIANCE> 25
 2.164580e+01 4.806321e+01 3.775990e+01 2.555382e+01 4.458096e+01 4.370198e+01 4.267219e+01 3.655205e+01 2.578581e+01 3.609248e+01 3.353907e+01 2.051001e+01 3.993510e+00 6.655907e+00 4.390426e+00 3.323370e+00 6.316833e+00 6.781538e+00 8.969184e+00 5.687010e+00 3.569381e+00 5.465533e+00 5.493241e+00 3.765385e+00 3.417446e+00
<GCONST> 1.089419e+02
<MIXTURE> 2 2.327634e-01
<MEAN> 25
 1.840072e+00 -1.757106e-01 1.198788e+00 2.532771e+00 -3.015739e+00 -3.565856e+00 4.668261e+00 -6.169401e+00 4.263507e-01 -1.978578e+00 5.426556e+00 -9.475372e-01 1.056453e+00 -1.806216e+00 1.677009e+00 -3.832877e+00 -1.785557e+00 -8.407045e-01 -8.203539e-01 -7.168365e-01 4.762241e-01 2.280680e+00 -1.566486e+00 1.495787e+00 2.816962e+00
<VARIANCE> 25
 2.103554e+01 3.435897e+01 3.353031e+01 3.526635e+01 5.238039e+01 6.394640e+01 4.540371e+01 5.870628e+01 3.611229e+01 3.606303e+01 5.290404e+01 3.574791e+01 2.500640e+00 5.945830e+00 6.408588e+00 3.226487e+00 6.309839e+00 4.945575e+00 5.006927e+00 9.012109e+00 4.300252e+00 4.400736e+00 5.434299e+00 2.489247e+00 1.703802e+00
<GCONST> 1.093833e+02
<MIXTURE> 3 1.420276e-01
<MEAN> 25
 3.217593e-01 -1.164639e+00 -1.027048e+00 5.066015e+00 8.823352e-02 -1.991794e+00 4.962028e+00 -3.576878e+00 4.777309e-01 -3.281368e+00 6.517286e+00 -8.528426e-01 4.897184e-01 -2.629401e+00 5.635598e-01 -2.697377e+00 -1.433865e+00 -1.124935e+00 4.210851e-01 -1.097316e+00 6.363926e-01 1.617915e+00 7.603224e-02 1.237239e+00 2.898845e+00
<VARIANCE> 25
 2.187423e+01 4.121617e+01 2.949301e+01 2.769897e+01 4.116665e+01 4.865257e+01 3.664526e+01 4.394117e+01 3.673884e+01 3.284414e+01 4.104494e+01 3.191288e+01 2.330497e+00 5.402494e+00 5.307277e+00 3.184769e+00 7.283152e+00 5.087234e+00 5.061348e+00 8.830334e+00 3.740400e+00 4.682513e+00 5.568061e+00 2.965088e+00 2.011490e+00
<GCONST> 1.078548e+02
<MIXTURE> 4 2.231878e-01
<MEAN> 25
 1.679077e+00 -1.434552e+00 6.482291e-01 5.420719e-01 -3.728761e+00 -4.714777e+00 3.307024e+00 -7.892514e+00 -6.671235e-01 -3.304881e+00 4.256889e+00 -2.286210e+00 8.685949e-01 -1.993345e+00 1.674598e+00 -4.187089e+00 -1.866626e+00 -8.877274e-01 -1.102993e+00 -7.376412e-01 1.093520e-01 1.963334e+00 -1.933062e+00 1.152640e+00 2.785944e+00
<VARIANCE> 25
 1.877395e+01 3.006316e+01 3.622036e+01 3.582788e+01 5.150065e+01 6.467154e+01 4.646505e+01 5.686118e+01 3.893102e+01 4.224969e+01 5.427728e+01 3.457883e+01 2.510854e+00 5.197924e+00 6.354746e+00 3.158155e+00 6.147730e+00 4.925638e+00 4.978289e+00 8.862288e+00 4.480392e+00 4.224092e+00 5.183053e+00 2.484266e+00 1.814219e+00
<GCONST> 1.092411e+02
<MIXTURE> 5 1.507230e-01
<MEAN> 25
 1.253623e-01 -2.550916e+00 -1.913953e+00 3.511198e+00 -4.011461e-01 -3.292968e+00 4.004550e+00 -5.047935e+00 -2.061361e-01 -4.983081e+00 5.522451e+00 -2.155187e+00 3.651906e-01 -2.672868e+00 3.144334e-01 -2.917922e+00 -1.383018e+00 -1.335083e+00 1.192296e-01 -1.139402e+00 4.306788e-01 1.170411e+00 -2.290385e-01 7.981319e-01 2.882183e+00
<VARIANCE> 25
 2.211279e+01 3.601215e+01 3.180815e+01 2.929945e+01 4.351765e+01 5.062163e+01 3.783969e+01 4.574421e+01 4.181725e+01 3.996200e+01 4.568759e+01 3.194608e+01 2.191186e+00 5.164530e+00 5.314052e+00 3.429248e+00 6.961086e+00 5.248591e+00 4.803996e+00 8.633103e+00 3.855309e+00 4.521594e+00 5.439013e+00 2.830851e+00 2.315916e+00
<GCONST> 1.084099e+02
<TRANSP> 5
 0.000000e+00 1.000000e+00 0.000000e+00 0.000000e+00 0.000000e+00
 0.000000e+00 7.082024e-01 2.917976e-01 0.000000e+00 0.000000e+00
 0.000000e+00 0.000000e+00 4.736759e-01 5.263241e-01 0.000000e+00
 0.000000e+00 0.000000e+00 0.000000e+00 5.061138e-01 4.938862e-01
 0.000000e+00 0.000000e+00 0.000000e+00 0.000000e+00 0.000000e+00
<ENDHMM>
~h "g"
<BEGINHMM>
<NUMSTATES> 5
<STATE> 2
<NUMMIXES> 5
<MIXTURE> 1 3.379723e-01
<MEAN> 25
 5.990414e+00 9.977429e+00 -1.024970e+00 8.801712e-01 -3.246650e+00 1.144901e+00 -1.465353e+00 -4.845184e+00 -1.006948e+00 -2.540427e+00 -1.541722e+00 -2.221219e+00 -7.637739e-01 6.222519e-01 2.213358e-01 1.235174e+00 5.383346e-01 -5.668377e-01 -3.281765e-01 6.870817e-01 3.852585e-01 -3.356866e-01 7.581995e-01 -8.732586e-02 -9.932216e-01
<VARIANCE> 25
 1.941611e+01 2.398944e+01 4.674230e+01 3.544370e+01 4.169187e+01 2.742648e+01 3.266243e+01 3.715474e+01 3.088438e+01 2.940272e+01 3.819939e+01 2.245412e+01 5.759930e-01 1.328172e+00 1.523465e+00 2.029643e+00 2.074549e+00 2.044450e+00 1.916471e+00 1.950270e+00 2.019168e+00 2.243778e+00 2.348402e+00 1.727705e+00 3.782725e-01
<GCONST> 9.277556e+01
<MIXTURE> 2 2.081633e-01
<MEAN> 25
 8.147737e+00 -2.436594e+00 -4.037169e+00 -1.243305e+00 6.757527e+00 -6.002931e+00 -4.898653e+00 2.621073e+00 1.299177e+00 2.395880e+00 -1.060207e+01 -7.407783e-01 8.809935e-02 2.830685e+00 1.338122e-02 2.232694e+00 -7.723348e-01 -9.563743e-02 -3.671966e-01 -9.205167e-01 2.147285e-01 -5.272397e-01 1.118286e+00 -4.479454e-01 -1.963636e+00
<VARIANCE> 25
 3.907648e+00 2.895196e+01 1.730701e+01 4.491936e+01 2.429840e+01 3.588102e+01 2.889609e+01 2.667274e+01 2.223957e+01 3.896230e+01 2.353350e+01 3.301726e+01 2.022612e-01 7.801937e-01 7.157454e-01 1.235550e+00 1.945291e+00 2.780738e+00 2.218561e+00 1.816989e+00 1.854078e+00 3.369426e+00 2.036630e+00 1.588747e+00 2.933330e-01
<GCONST> 8.706215e+01
<MIXTURE> 3 1.358539e-01
<MEAN> 25
 8.148126e+00 4.640079e+00 -3.058022e+00 4.020395e+00 2.510138e-01 -1.568326e+00 -2.446439e+00 -1.630707e+00 4.274879e-01 -2.303264e+00 -5.749849e+00 -3.067173e+00 -2.303257e-01 1.792811e+00 -1.031440e-01 1.114644e+00 -3.012043e-02 6.423367e-01 1.263949e-01 -1.233466e-03 3.757280e-01 -9.147541e-01 1.264390e+00 -1.709202e-01 -1.337930e+00
<VARIANCE> 25
 5.348352e+00 2.014131e+01 3.213657e+01 2.648996e+01 5.288198e+01 3.452471e+01 3.591945e+01 5.219912e+01 3.070060e+01 2.722834e+01 2.609642e+01 2.634785e+01 3.179743e-01 9.565253e-01 1.182461e+00 1.485116e+00 2.074714e+00 1.943551e+00 1.793193e+00 1.569733e+00 1.750084e+00 1.722952e+00 2.253221e+00 1.732283e+00 4.471307e-01
<GCONST> 8.914374e+01
<MIXTURE> 4 1.807595e-01
<MEAN> 25
 7.476608e+00 -4.319913e+00 -4.219853e+00 -3.221734e+00 7.065143e+00 -7.087203e+00 -5.785870e+00 1.042000e+00 -1.954048e-01 2.097709e+00 -1.257883e+01 -1.436935e+00 6.171793e-02 2.636894e+00 -2.304128e-01 2.143369e+00 -9.896878e-01 -4.074060e-01 -6.308747e-01 -1.312893e+00 -2.879216e-01 -8.546641e-01 4.160399e-01 -8.418362e-01 -2.013438e+00
<VARIANCE> 25
 3.753965e+00 2.661018e+01 1.541846e+01 3.897008e+01 1.950720e+01 3.258549e+01 2.846063e+01 2.676125e+01 2.088716e+01 4.179824e+01 2.116090e+01 3.162706e+01 2.089920e-01 9.387014e-01 7.973693e-01 1.237417e+00 1.818101e+00 2.843633e+00 1.928177e+00 2.019038e+00 1.950718e+00 3.506741e+00 1.984162e+00 1.557403e+00 3.059394e-01
<GCONST> 8.654434e+01
<MIXTURE> 5 1.372516e-01
<MEAN> 25
 7.281882e+00 3.161834e+00 -2.528044e+00 2.529023e+00 8.934072e-02 -1.718553e+00 -3.818334e+00 -4.096260e+00 -1.951600e+00 -3.742672e+00 -7.774924e+00 -4.058815e+00 -2.314291e-01 1.519899e+00 -3.729452e-01 1.128179e+00 -2.415016e-01 4.157598e-01 -7.003854e-02 -9.684871e-02 8.599107e-02 -1.288224e+00 8.174326e-01 -6.236513e-01 -1.320559e+00
<VARIANCE> 25
 5.978717e+00 2.325850e+01 4.160035e+01 3.696674e+01 5.486972e+01 3.303833e+01 3.875370e+01 4.744760e+01 3.179688e+01 2.923151e+01 2.822499e+01 2.364539e+01 3.525617e-01 9.397572e-01 1.197905e+00 1.652711e+00 1.654433e+00 2.234597e+00 1.666576e+00 1.609886e+00 1.910141e+00 1.977453e+00 2.090356e+00 1.571544e+00 3.691221e-01
<GCONST> 8.997194e+01
<STATE> 3
<NUMMIXES> 5
<MIXTURE> 1 1.991393e-01
<MEAN> 25
 -2.348380e+00 8.242569e+00 -1.052201e+00 5.102022e+00 1.189138e+00 -1.061470e+00 -2.154556e+00 7.755806e-02 1.949878e+00 -4.299102e-01 5.461975e+00 2.367160e-02 -7.257798e-01 -1.170267e+00 -5.211356e-01 2.706572e-01 7.055405e-01 1.656973e-02 4.559016e-01 5.810001e-01 1.035977e-01 2.208293e-01 4.107070e-01 2.171140e-01 -1.897007e-01
<VARIANCE> 25
 3.521136e+01 2.027131e+01 3.234681e+01 3.354124e+01 2.859762e+01 2.165513e+01 2.497008e+01 2.870645e+01 1.632245e+01 3.059487e+01 2.988513e+01 1.943522e+01 1.492188e+00 2.942674e+00 2.948311e+00 3.068089e+00 3.887023e+00 2.149402e+00 2.590397e+00 2.199597e+00 2.127127e+00 2.729644e+00 2.618240e+00 1.682941e+00 4.132305e-01
<GCONST> 9.499100e+01
<MIXTURE> 2 2.269641e-01
<MEAN> 25
 6.333104e+00 9.656005e+00 -2.188226e+00 3.566887e+00 4.544057e-01 -5.340929e-01 -2.606050e+00 -2.120746e+00 -4.737638e-01 -4.160824e+00 -2.507721e+00 -2.926475e+00 -5.177110e-01 8.966282e-02 9.827671e-02 8.116224e-01 6.668892e-01 -1.836353e-01 -8.035677e-02 3.902618e-01 3.075066e-01 -4.044353e-02 7.865490e-01 5.171647e-01 -4.750543e-01
<VARIANCE> 25
 8.994231e+00 3.368461e+01 3.675517e+01 2.888332e+01 3.961674e+01 2.579390e+01 2.927114e+01 3.732109e+01 2.546040e+01 2.737730e+01 2.959333e+01 2.098127e+01 6.683578e-01 1.218102e+00 2.042108e+00 1.692926e+00 2.729040e+00 2.861026e+00 2.609614e+00 2.452968e+00 2.183353e+00 2.235508e+00 2.033842e+00 2.304849e+00 4.504648e-01
<GCONST> 9.281091e+01
<MIXTURE> 3 1.818158e-01
<MEAN> 25
 4.834981e+00 1.298134e+01 1.051396e+00 4.203076e+00 -1.506792e+00 -2.896276e-01 -1.733195e+00 -2.884377e+00 -8.699496e-01 -4.453166e+00 -2.565721e-01 -2.216616e+00 -1.056130e+00 -1.029547e+00 -1.742318e-01 1.525247e+00 1.789842e+00 -5.525265e-01 -7.086576e-01 5.552580e-01 4.876259e-01 5.386222e-01 1.146529e+00 5.326340e-01 -4.091826e-01
<VARIANCE> 25
 1.089344e+01 1.672409e+01 2.893348e+01 2.107706e+01 2.635978e+01 2.301824e+01 2.448233e+01 2.758420e+01 1.606789e+01 2.014728e+01 1.888411e+01 1.563551e+01 7.054248e-01 2.393947e+00 3.024309e+00 3.077449e+00 4.070351e+00 4.053216e+00 3.458380e+00 3.236371e+00 2.642752e+00 3.364959e+00 2.507376e+00 1.667599e+00 4.760919e-01
<GCONST> 9.280318e+01
<MIXTURE> 4 2.070588e-01
<MEAN> 25
 5.675477e+00 7.811487e+00 -2.414936e+00 2.812631e+00 1.937125e-01 -1.740712e+00 -4.403157e+00 -3.936070e+00 -2.114101e+00 -4.933063e+00 -3.887955e+00 -3.830781e+00 -6.027367e-01 -1.048784e-02 -1.502918e-01 7.745256e-01 4.216856e-01 -2.341658e-01 -2.818914e-01 1.205814e-01 -4.428845e-03 -4.403383e-01 5.052805e-01 4.491360e-02 -6.321194e-01
<VARIANCE> 25
 9.793236e+00 3.902530e+01 3.968265e+01 3.172228e+01 4.101014e+01 2.890927e+01 2.875988e+01 4.211162e+01 2.897091e+01 3.428148e+01 3.448619e+01 2.313382e+01 7.289884e-01 1.307475e+00 2.068879e+00 2.006732e+00 2.888534e+00 3.158140e+00 2.481454e+00 2.581719e+00 2.457745e+00 2.222389e+00 2.418422e+00 2.399365e+00 4.706250e-01
<GCONST> 9.493681e+01
<MIXTURE> 5 1.850216e-01
<MEAN> 25
 3.923947e+00 1.203660e+01 1.206642e+00 3.785352e+00 -2.314254e+00 -1.544834e+00 -3.201946e+00 -4.435637e+00 -2.161044e+00 -5.097261e+00 -1.044879e+00 -3.302555e+00 -1.155925e+00 -1.067296e+00 -3.968742e-01 1.298018e+00 1.631998e+00 -6.561989e-01 -7.867081e-01 2.901548e-01 1.587209e-01 2.662507e-01 7.769719e-01 3.019105e-01 -5.480271e-01
<VARIANCE> 25
 1.199675e+01 2.018240e+01 3.195183e+01 2.388831e+01 2.590399e+01 2.397003e+01 2.441624e+01 2.634469e+01 1.735425e+01 2.268020e+01 2.171241e+01 1.648795e+01 7.532073e-01 2.162570e+00 2.796431e+00 2.947520e+00 3.824510e+00 4.034682e+00 3.259173e+00 3.041620e+00 2.598683e+00 2.936227e+00 2.364252e+00 1.673262e+00 4.574932e-01
<GCONST> 9.308032e+01
<STATE> 4
<NUMMIXES> 5
<MIXTURE> 1 2.132839e-01
<MEAN> 25
 -6.310860e-01 -4.859248e+00 -4.469463e+00 9.641637e+00 6.098001e+00 -7.565040e+00 -4.209908e-01 4.681697e+00 1.295286e+00 -1.398214e+00 2.036550e+00 4.182432e+00 1.644102e+00 -2.042015e+00 -5.864213e-01 -2.778310e+00 -1.220010e-01 -7.968896e-01 4.758693e-02 1.027491e+00 -1.877784e-02 7.457478e-01 -1.765579e+00 5.845529e-01 2.750733e+00
<VARIANCE> 25
 2.707900e+01 6.190454e+01 4.857058e+01 6.074772e+01 6.383281e+01 3.970092e+01 3.451770e+01 3.113428e+01 3.967268e+01 3.271031e+01 3.250855e+01 2.278274e+01 3.255577e+00 9.178532e+00 8.354047e+00 8.545024e+00 9.623131e+00 5.506310e+00 3.600306e+00 4.737721e+00 4.657349e+00 5.261071e+00 5.245568e+00 4.083765e+00 2.056668e+00
<GCONST> 1.114106e+02
<MIXTURE> 2 2.339720e-01
<MEAN> 25
 7.221591e+00 1.401893e+00 -6.568334e+00 3.916979e+00 5.841951e+00 -4.832378e+00 -5.497167e+00 -5.327126e-01 2.019021e+00 3.119738e-01 -4.093862e+00 2.091147e-02 1.493794e-01 -2.076806e+00 4.467321e-01 -1.709648e+00 -3.741120e-01 -1.041834e+00 3.504958e-01 1.193790e+00 6.254087e-01 1.446165e+00 -1.049445e+00 1.196632e+00 1.661810e+00
<VARIANCE> 25
 1.069491e+01 4.199568e+01 4.739234e+01 3.865339e+01 6.362583e+01 5.021917e+01 3.755416e+01 4.574091e+01 3.449693e+01 3.454347e+01 4.169878e+01 2.906252e+01 1.113627e+00 3.317549e+00 6.969670e+00 5.894452e+00 8.633817e+00 5.032480e+00 4.663805e+00 5.189557e+00 4.376271e+00 4.066546e+00 4.389586e+00 3.989470e+00 1.333099e+00
<GCONST> 1.072784e+02
<MIXTURE> 3 1.641836e-01
<MEAN> 25
 2.528844e+00 5.634237e+00 -1.832495e+00 6.512500e+00 2.385735e+00 -1.768851e+00 -2.408414e+00 -1.037665e+00 3.085067e-02 -2.256254e+00 1.282383e+00 1.110799e-02 -3.391135e-01 -3.167427e+00 -1.666041e+00 -2.098305e-01 1.735727e+00 -4.557099e-01 2.267221e-01 7.858530e-01 4.245648e-01 1.229966e+00 5.383853e-01 1.155113e+00 1.118628e+00
<VARIANCE> 25
 2.011208e+01 5.568851e+01 5.437200e+01 3.725920e+01 5.277465e+01 4.236349e+01 3.174888e+01 3.596263e+01 3.365971e+01 3.307889e+01 3.163069e+01 2.193077e+01 1.837024e+00 6.130054e+00 9.735005e+00 7.106393e+00 9.769444e+00 7.739328e+00 4.634960e+00 6.341637e+00 4.109412e+00 4.450877e+00 4.199170e+00 3.498081e+00 1.288168e+00
<GCONST> 1.091028e+02
<MIXTURE> 4 2.203322e-01
<MEAN> 25
 6.724941e+00 -1.370387e-02 -7.001143e+00 2.986345e+00 6.240675e+00 -5.413566e+00 -6.592400e+00 -2.324946e+00 1.531556e-01 -1.866120e-01 -6.062685e+00 -1.524236e+00 -6.424218e-02 -2.183631e+00 5.698022e-01 -1.785946e+00 -2.248799e-01 -1.279137e+00 7.969463e-03 9.674887e-01 2.157926e-01 1.238724e+00 -1.467935e+00 9.241121e-01 1.663453e+00
<VARIANCE> 25
 1.081660e+01 4.033858e+01 5.482973e+01 3.694536e+01 7.154513e+01 5.387119e+01 3.340041e+01 4.497047e+01 3.174597e+01 3.472372e+01 4.151072e+01 3.089214e+01 1.084737e+00 3.517115e+00 7.230868e+00 6.094379e+00 8.676033e+00 5.186516e+00 4.465137e+00 4.903491e+00 4.399250e+00 3.989664e+00 4.403008e+00 4.024923e+00 1.505276e+00
<GCONST> 1.075386e+02
<MIXTURE> 5 1.682282e-01
<MEAN> 25
 2.586622e+00 5.124406e+00 -1.845576e+00 5.857631e+00 1.711516e+00 -2.568730e+00 -3.561676e+00 -2.521950e+00 -1.210737e+00 -3.404403e+00 -5.005402e-01 -1.395120e+00 -4.029570e-01 -3.008277e+00 -1.695935e+00 -1.835136e-01 1.700787e+00 -5.178408e-01 -4.912474e-02 5.266159e-01 5.533831e-02 8.214763e-01 3.264781e-01 7.950806e-01 9.814388e-01
<VARIANCE> 25
 1.944022e+01 6.026310e+01 5.489875e+01 3.522167e+01 5.129023e+01 4.182827e+01 2.799713e+01 3.835424e+01 3.099977e+01 3.457286e+01 3.318639e+01 2.317650e+01 1.674555e+00 5.707838e+00 9.879511e+00 6.338617e+00 9.772045e+00 7.126722e+00 4.785965e+00 5.972441e+00 4.278066e+00 4.490878e+00 4.141538e+00 3.285598e+00 1.372386e+00
<GCONST> 1.087260e+02
<TRANSP> 5
 0.000000e+00 1.000000e+00 0.000000e+00 0.000000e+00 0.000000e+00
 0.000000e+00 6.141355e-01 3.858645e-01 0.000000e+00 0.000000e+00
 0.000000e+00 0.000000e+00 4.926280e-01 5.073720e-01 0.000000e+00
 0.000000e+00 0.000000e+00 0.000000e+00 6.262884e-01 3.737116e-01
 0.000000e+00 0.000000e+00 0.000000e+00 0.000000e+00 0.000000e+00
<ENDHMM>
~h "h"
<BEGINHMM>
<NUMSTATES> 5
<STATE> 2
<NUMMIXES> 5
<MIXTURE> 1 2.443734e-01
<MEAN> 25
 9.717427e-01 -2.913724e+00 2.224477e-01 1.308454e+00 1.899226e+00 8.326073e+00 4.431083e+00 -3.800985e+00 -4.258173e-01 -1.499530e+00 -2.383327e-01 2.768749e+00 -3.430518e-01 1.753752e-01 2.052415e-01 -2.131059e-02 1.103892e-01 1.905583e+00 4.401263e-01 -8.600701e-01 -1.376032e-01 -2.971190e-03 -1.970613e-02 7.371989e-03 -5.207756e-01
<VARIANCE> 25
 3.362884e+01 4.694550e+01 8.162649e+01 3.860983e+01 8.985519e+01 6.756368e+01 6.687097e+01 4.245796e+01 4.240303e+01 4.017125e+01 4.064539e+01 3.307825e+01 1.301703e+00 1.980818e+00 2.646104e+00 2.320586e+00 3.214542e+00 3.832333e+00 3.752787e+00 2.621151e+00 3.751267e+00 2.862643e+00 2.903009e+00 2.448096e+00 5.138788e-01
<GCONST> 1.039021e+02
<MIXTURE> 2 2.181897e-01
<MEAN> 25
 3.290404e+00 -5.321786e+00 7.997654e+00 -5.931688e+00 -4.067130e+00 5.235411e+00 8.486086e+00 -6.345134e+00 -2.775374e+00 -1.410765e+00 -8.290524e+00 -6.345617e-01 -7.902621e-03 -2.953175e-02 3.009128e-01 -2.225901e-01 -3.277190e-01 2.303025e-01 1.163397e-01 -2.091579e-02 3.740243e-01 5.712073e-01 9.455694e-02 1.475950e-01 7.126979e-02
<VARIANCE> 25
 6.565044e+00 2.594348e+01 1.520960e+01 3.344981e+01 3.161873e+01 6.334714e+01 3.190543e+01 3.656757e+01 3.134652e+01 3.436624e+01 1.988223e+01 1.786724e+01 2.955706e-01 1.394806e+00 1.099150e+00 1.728590e+00 1.753048e+00 3.019672e+00 2.012807e+00 3.144767e+00 2.024344e+00 2.813424e+00 1.633020e+00 1.446865e+00 5.237753e-01
<GCONST> 9.005617e+01
<MIXTURE> 3 1.597356e-01
<MEAN> 25
 2.967255e+00 -3.314315e+00 6.005975e+00 2.484126e+00 -3.953294e+00 1.133991e+01 1.103276e+01 -4.340642e+00 -9.180513e-01 -2.427257e+00 -4.512403e+00 1.013679e+00 -2.813668e-01 8.287213e-01 8.475445e-01 -3.482973e-01 -9.526631e-01 9.461145e-01 3.348694e-02 -1.101427e+00 7.273888e-01 7.179793e-01 -1.185389e-01 -2.073779e-01 -4.668217e-01
<VARIANCE> 25
 8.288804e+00 2.785715e+01 2.183857e+01 4.771288e+01 3.479414e+01 5.791787e+01 4.078282e+01 3.115909e+01 2.873575e+01 2.652173e+01 2.107920e+01 1.834980e+01 5.216923e-01 9.426987e-01 1.161463e+00 1.454151e+00 2.336526e+00 3.189669e+00 2.269460e+00 1.735387e+00 1.948921e+00 2.131255e+00 1.582661e+00 1.627390e+00 2.694885e-01
<GCONST> 8.994026e+01
<MIXTURE> 4 2.145503e-01
<MEAN> 25
 2.571556e+00 -7.195021e+00 7.695800e+00 -7.206962e+00 -3.365832e+00 3.779504e+00 7.516320e+00 -7.713146e+00 -5.133153e+00 -3.258662e+00 -9.927073e+00 -1.987889e+00 -6.107358e-02 -3.229422e-01 1.610125e-01 -5.031980e-01 -4.582543e-01 -2.041044e-01 -3.818820e-01 -9.228270e-02 -2.128592e-01 1.238752e-01 -3.145498e-01 -1.783503e-01 1.720745e-01
<VARIANCE> 25
 6.579292e+00 2.184112e+01 1.519286e+01 2.934863e+01 3.089244e+01 5.642642e+01 3.250996e+01 3.767223e+01 3.056616e+01 3.537207e+01 1.927182e+01 1.644003e+01 2.877601e-01 1.409970e+00 1.126735e+00 1.768349e+00 1.889254e+00 3.153687e+00 1.847563e+00 3.646990e+00 2.105184e+00 2.883395e+00 1.722412e+00 1.325578e+00 5.359174e-01
<GCONST> 8.981781e+01
<MIXTURE> 5 1.631527e-01
<MEAN> 25
 2.730207e+00 -4.789612e+00 5.535367e+00 6.777937e-01 -3.421213e+00 9.656714e+00 9.658740e+00 -5.579972e+00 -2.185874e+00 -3.903548e+00 -6.531323e+00 -3.111552e-01 -2.269968e-01 7.835378e-01 6.400135e-01 -4.998137e-01 -1.068276e+00 6.992129e-01 -2.721676e-01 -1.294672e+00 4.847599e-01 3.352005e-01 -4.221743e-01 -5.203313e-01 -4.382559e-01
<VARIANCE> 25
 9.515468e+00 2.636884e+01 2.259517e+01 5.105766e+01 3.883355e+01 6.253904e+01 4.615498e+01 3.253517e+01 2.835440e+01 2.892527e+01 2.145752e+01 1.864066e+01 5.268050e-01 8.980136e-01 1.166689e+00 1.380940e+00 2.423462e+00 3.337316e+00 2.201886e+00 1.798165e+00 1.980183e+00 2.260912e+00 1.558738e+00 1.647801e+00 2.914083e-01
<GCONST> 9.073718e+01
<STATE> 3
<NUMMIXES> 5
<MIXTURE> 1 3.014213e-01
<MEAN> 25
 -1.423834e+00 -2.384061e+00 1.410066e-01 8.846024e-01 -9.665713e-01 9.949277e+00 7.016060e+00 -4.999210e+00 7.490005e-01 6.477716e-01 5.872112e-01 2.022830e+00 1.497132e+00 1.633684e+00 3.467454e-01 -1.144901e+00 -1.442603e+00 -7.635610e-01 -7.529126e-01 -3.667922e-01 -5.276272e-01 4.056600e-01 6.547570e-03 -5.957215e-01 4.116995e-01
<VARIANCE> 25
 3.099726e+01 3.924969e+01 9.161279e+01 3.856306e+01 1.000034e+02 6.127542e+01 4.979245e+01 3.165925e+01 3.598698e+01 3.099809e+01 3.912476e+01 2.863416e+01 2.278078e+00 3.665414e+00 2.994089e+00 3.372492e+00 4.041050e+00 5.438608e+00 3.131940e+00 2.740247e+00 4.123631e+00 4.092022e+00 2.709320e+00 2.136747e+00 6.477619e-01
<GCONST> 1.051644e+02
<MIXTURE> 2 2.058759e-01
<MEAN> 25
 3.940667e+00 -3.115863e+00 5.122150e+00 -4.238655e+00 -3.056806e-03 6.479775e+00 1.893336e+00 -5.725006e+00 -2.235970e+00 -2.343513e+00 -6.368936e+00 2.220396e-01 1.026837e-01 5.874022e-01 2.261656e-02 1.831371e-01 1.274749e-01 5.534058e-03 -5.937933e-01 -2.282397e-02 3.044875e-01 1.308062e-02 4.561689e-01 3.697234e-01 -2.699961e-01
<VARIANCE> 25
 1.105777e+01 4.653771e+01 6.927297e+01 5.073046e+01 1.080627e+02 6.454660e+01 4.686272e+01 4.410534e+01 4.313281e+01 5.275020e+01 3.089918e+01 2.650731e+01 2.665333e-01 1.416845e+00 1.343373e+00 1.743193e+00 2.252495e+00 2.045747e+00 2.148930e+00 2.864794e+00 2.101098e+00 2.493690e+00 2.172523e+00 1.709491e+00 4.404502e-01
<GCONST> 9.664750e+01
<MIXTURE> 3 1.392013e-01
<MEAN> 25
 3.181586e+00 2.143110e+00 5.363860e+00 -1.874675e+00 -3.559402e+00 1.044255e+01 3.221584e+00 -7.228164e+00 1.136756e+00 -9.623793e-01 -2.684281e+00 1.683604e+00 2.736859e-01 7.509382e-01 -2.278722e-01 -3.096979e-01 -3.228985e-01 -3.119732e-01 -1.897931e-01 1.107427e-01 1.444217e-01 3.354369e-01 6.428565e-01 1.296884e-01 -1.861806e-01
<VARIANCE> 25
 2.096568e+01 4.128706e+01 7.603524e+01 4.072980e+01 7.856551e+01 6.409538e+01 4.811886e+01 4.094158e+01 3.712180e+01 3.759866e+01 2.907138e+01 3.147570e+01 3.900196e-01 1.170745e+00 1.572695e+00 1.814389e+00 2.257058e+00 2.402420e+00 2.582727e+00 2.252811e+00 2.296064e+00 2.294359e+00 1.662745e+00 1.789423e+00 3.563233e-01
<GCONST> 9.635506e+01
<MIXTURE> 4 2.071496e-01
<MEAN> 25
 3.186684e+00 -5.685995e+00 5.294885e+00 -5.991146e+00 1.231487e+00 4.846261e+00 6.414928e-01 -6.897472e+00 -5.053133e+00 -3.758401e+00 -8.670662e+00 -9.051307e-01 2.558101e-02 3.461165e-01 -9.074500e-02 1.048099e-01 1.901122e-02 -1.852296e-01 -8.983982e-01 -2.826276e-01 -3.647180e-02 -3.523470e-01 1.368702e-02 -5.369765e-02 -2.568085e-01
<VARIANCE> 25
 1.090926e+01 4.322193e+01 6.203194e+01 5.115837e+01 1.003799e+02 5.599385e+01 4.045432e+01 4.561292e+01 4.246947e+01 4.940995e+01 3.213070e+01 2.474055e+01 2.700776e-01 1.389490e+00 1.362266e+00 1.757167e+00 2.308070e+00 2.082925e+00 2.094546e+00 2.866298e+00 2.052989e+00 2.476596e+00 2.228421e+00 1.764847e+00 5.037835e-01
<GCONST> 9.621243e+01
<MIXTURE> 5 1.463522e-01
<MEAN> 25
 2.917154e+00 -4.064428e-01 4.709735e+00 -2.940839e+00 -2.047975e+00 9.237508e+00 1.762511e+00 -7.971037e+00 -1.029178e+00 -2.376209e+00 -4.786088e+00 2.432268e-01 2.012101e-01 6.049185e-01 -2.973693e-01 -3.838941e-01 -3.461688e-01 -4.377559e-01 -5.822103e-01 -1.824670e-01 -1.768159e-01 -2.721032e-02 2.492573e-01 -7.777473e-02 -1.951531e-01
<VARIANCE> 25
 2.213512e+01 4.472610e+01 7.561884e+01 4.382956e+01 8.192913e+01 6.666167e+01 4.661681e+01 3.969083e+01 3.954316e+01 3.368242e+01 3.150003e+01 3.366605e+01 4.236195e-01 1.267805e+00 1.549729e+00 1.732650e+00 2.271397e+00 2.525908e+00 2.495448e+00 2.380671e+00 2.322468e+00 2.366140e+00 1.867257e+00 1.811456e+00 4.212289e-01
<GCONST> 9.719294e+01
<STATE> 4
<NUMMIXES> 5
<MIXTURE> 1 1.759221e-01
<MEAN> 25
 -4.213200e-01 1.231341e+00 2.381154e-02 5.546626e-01 -2.132282e-01 7.107425e+00 3.845765e+00 -3.868121e+00 8.353435e-01 4.185825e-01 1.577089e+00 1.487154e+00 2.951416e+00 2.016482e+00 1.311493e+00 -1.644592e+00 -1.664956e+00 -1.350093e+00 -1.206028e+00 -6.292931e-01 -1.544580e+00 -3.637812e-01 -1.329508e+00 -1.042330e+00 1.799714e+00
<VARIANCE> 25
 3.280679e+01 5.261706e+01 8.325844e+01 4.033110e+01 1.023696e+02 4.906634e+01 5.357557e+01 3.272529e+01 2.947061e+01 3.107326e+01 3.668934e+01 2.444797e+01 3.268038e+00 6.445922e+00 2.794600e+00 4.519283e+00 4.437637e+00 5.119946e+00 3.763838e+00 3.558740e+00 3.991153e+00 4.035781e+00 3.911170e+00 2.388092e+00 1.650470e+00
<GCONST> 1.079459e+02
<MIXTURE> 2 2.853329e-01
<MEAN> 25
 5.263118e+00 3.382518e-01 4.133539e+00 -3.357995e+00 -3.167338e+00 6.458043e+00 2.821321e+00 -5.909956e+00 -1.629745e+00 -1.487145e+00 -4.398195e+00 -1.590658e-01 5.473382e-01 2.000654e-01 -3.980509e-01 -6.978357e-01 -6.168513e-01 -8.422820e-01 -1.172939e-02 5.315419e-01 1.715665e-01 8.586625e-01 5.247735e-01 1.388685e-01 3.101602e-01
<VARIANCE> 25
 1.020594e+01 6.577171e+01 6.411941e+01 4.703573e+01 1.059192e+02 5.290414e+01 5.582258e+01 4.119130e+01 3.384066e+01 4.921145e+01 3.042283e+01 2.481125e+01 5.993107e-01 1.834886e+00 1.795978e+00 2.746036e+00 2.679262e+00 2.846817e+00 2.490831e+00 2.707749e+00 2.216724e+00 2.677913e+00 2.178897e+00 1.611861e+00 6.935188e-01
<GCONST> 9.918605e+01
<MIXTURE> 3 1.238743e-01
<MEAN> 25
 6.106610e+00 5.151340e+00 9.411699e-01 -2.278450e+00 -6.024837e+00 4.686807e+00 5.206869e+00 -2.852119e+00 -6.760366e-01 -1.013592e+00 2.801042e-01 1.310798e+00 4.352709e-01 3.912870e-01 -1.496283e-01 -9.015061e-01 -1.026272e+00 -6.376484e-01 3.082240e-01 4.895909e-01 1.440224e-01 8.712593e-01 7.678090e-01 2.051442e-01 1.961968e-01
<VARIANCE> 25
 2.326039e+01 9.577096e+01 5.410409e+01 2.759515e+01 7.827792e+01 3.818974e+01 3.958484e+01 3.514007e+01 2.526601e+01 3.948259e+01 2.657990e+01 2.178140e+01 7.047199e-01 1.262569e+00 1.418901e+00 2.029850e+00 2.326367e+00 2.298784e+00 1.447749e+00 1.729768e+00 1.914665e+00 2.172958e+00 1.787631e+00 1.485632e+00 4.379068e-01
<GCONST> 9.458368e+01
<MIXTURE> 4 2.875323e-01
<MEAN> 25
 4.397210e+00 -3.184568e+00 3.983546e+00 -4.596186e+00 -1.414692e-01 5.105453e+00 6.733439e-01 -6.747913e+00 -3.938450e+00 -3.276444e+00 -6.986372e+00 -1.358352e+00 4.697527e-01 8.579516e-02 -4.534413e-01 -6.147963e-01 -5.830573e-01 -1.039629e+00 -4.415810e-01 2.543916e-01 -2.265347e-01 4.099755e-01 -1.005103e-01 -1.971531e-01 2.602341e-01
<VARIANCE> 25
 1.065922e+01 6.249536e+01 7.173922e+01 5.494678e+01 1.162277e+02 5.602002e+01 5.209589e+01 4.341050e+01 3.500347e+01 4.806860e+01 3.415036e+01 2.544377e+01 5.789419e-01 1.715817e+00 1.752464e+00 2.635775e+00 2.547976e+00 2.582264e+00 2.664773e+00 2.853039e+00 2.163406e+00 2.692903e+00 2.240770e+00 1.627067e+00 7.534052e-01
<GCONST> 9.963697e+01
<MIXTURE> 5 1.273406e-01
<MEAN> 25
 5.975416e+00 3.447633e+00 7.068296e-01 -2.904560e+00 -4.350151e+00 4.569919e+00 3.537736e+00 -4.000950e+00 -2.246066e+00 -2.699648e+00 -1.647090e+00 2.527002e-01 4.166903e-01 3.488345e-01 -2.210522e-01 -9.947428e-01 -1.146924e+00 -8.107088e-01 6.806681e-03 2.822816e-01 -2.018313e-01 4.784659e-01 2.864436e-01 -2.019752e-01 1.803053e-01
<VARIANCE> 25
 2.314109e+01 1.031685e+02 6.114737e+01 2.995989e+01 7.908184e+01 4.191306e+01 4.119963e+01 3.482207e+01 2.850898e+01 3.783620e+01 2.967805e+01 2.192439e+01 6.728794e-01 1.279676e+00 1.445648e+00 2.015891e+00 2.344532e+00 2.272927e+00 1.705718e+00 1.916439e+00 1.946561e+00 2.185621e+00 1.882419e+00 1.492309e+00 4.518973e-01
<GCONST> 9.553850e+01
<TRANSP> 5
 0.000000e+00 1.000000e+00 0.000000e+00 0.000000e+00 0.000000e+00
 0.000000e+00 7.220139e-01 2.779861e-01 0.000000e+00 0.000000e+00
 0.000000e+00 0.000000e+00 2.630376e-01 7.369624e-01 0.000000e+00
 0.000000e+00 0.000000e+00 0.000000e+00 4.395483e-01 5.604516e-01
 0.000000e+00 0.000000e+00 0.000000e+00 0.000000e+00 0.000000e+00
<ENDHMM>
~h "i"
<BEGINHMM>
<NUMSTATES> 5
<STATE> 2
<NUMMIXES> 5
<MIXTURE> 1 1.734094e-01
<MEAN> 25
 -5.799562e+00 3.392767e+00 8.804999e+00 -5.518635e+00 -7.996306e-01 3.450278e+00 -7.560470e-01 -2.051755e+00 3.852468e+00 4.750741e+00 1.499596e-01 3.452969e+00 2.200331e+00 -4.747646e-01 4.225359e+00 -4.775331e+00 -1.680257e+00 -1.139636e-01 -9.613286e-01 -2.448198e+00 -1.844921e+00 1.063839e+00 -3.653308e+00 3.031279e-01 3.986481e+00
<VARIANCE> 25
 2.274818e+01 2.610626e+01 6.382603e+01 1.129612e+02 4.053859e+01 4.190193e+01 3.930598e+01 5.217929e+01 3.404961e+01 5.026843e+01 5.521911e+01 3.127080e+01 2.737103e+00 4.115035e+00 4.730935e+00 9.101036e+00 4.795913e+00 4.510517e+00 3.279111e+00 3.853485e+00 3.819594e+00 3.862900e+00 4.954245e+00 2.860805e+00 4.942117e+00
<GCONST> 1.099151e+02
<MIXTURE> 2 2.241886e-01
<MEAN> 25
 2.749693e+00 1.636960e+00 1.433397e+01 -1.257398e+01 -7.919043e+00 9.594430e-01 -2.428765e+00 -8.446049e+00 -1.988461e+00 3.517100e+00 -6.560279e+00 1.034484e+00 1.308444e+00 -7.547709e-01 1.962043e+00 -2.752889e+00 -7.299895e-01 -3.720365e-01 -1.020483e+00 -4.996658e-02 -8.598133e-01 1.454936e+00 -2.468605e+00 4.485556e-01 1.998866e+00
<VARIANCE> 25
 5.752040e+00 4.036665e+01 1.836798e+01 5.281490e+01 3.526799e+01 4.795013e+01 3.105260e+01 2.897876e+01 2.554968e+01 3.446310e+01 3.008346e+01 1.887833e+01 3.004659e+00 3.694803e+00 3.877384e+00 4.841498e+00 4.373279e+00 4.577345e+00 4.611500e+00 4.135779e+00 3.762142e+00 3.859366e+00 5.670889e+00 2.773675e+00 1.926400e+00
<GCONST> 1.030008e+02
<MIXTURE> 3 1.842417e-01
<MEAN> 25
 4.843596e+00 -2.076053e+00 9.923489e+00 -3.408323e+00 -9.645157e+00 -3.655193e+00 1.416825e+00 -3.224940e+00 -4.044615e+00 3.208034e+00 -8.156130e-01 -5.245336e-01 -1.040403e-01 -7.022535e-01 2.112074e+00 -2.479663e+00 -8.801290e-01 4.639051e-01 2.393510e-01 -7.745752e-01 -1.958900e-01 2.348083e+00 -9.143135e-01 7.777493e-01 1.119550e+00
<VARIANCE> 25
 1.019280e+01 4.372132e+01 2.401238e+01 3.765445e+01 3.348212e+01 4.168154e+01 2.895851e+01 3.721603e+01 2.706198e+01 3.482148e+01 3.247191e+01 2.120745e+01 1.217723e+00 2.674588e+00 2.459014e+00 3.464471e+00 3.500865e+00 3.557646e+00 3.634650e+00 4.175895e+00 3.510360e+00 3.453845e+00 3.709463e+00 2.075836e+00 8.665269e-01
<GCONST> 9.941847e+01
<MIXTURE> 4 2.185002e-01
<MEAN> 25
 2.278401e+00 -3.210028e-01 1.353483e+01 -1.448491e+01 -8.905600e+00 -7.587578e-01 -3.811901e+00 -9.641597e+00 -3.821007e+00 1.666957e+00 -6.980514e+00 -6.837429e-01 1.647874e+00 -1.082940e+00 1.846002e+00 -3.063565e+00 -1.229590e+00 -5.017474e-01 -1.375760e+00 -2.986138e-01 -1.514030e+00 9.957441e-01 -3.263344e+00 -9.068724e-02 2.171915e+00
<VARIANCE> 25
 5.346411e+00 3.770329e+01 1.959442e+01 4.247302e+01 3.317362e+01 4.758276e+01 3.029550e+01 2.983686e+01 2.401398e+01 3.360571e+01 3.298035e+01 1.877013e+01 2.999978e+00 3.674752e+00 4.312730e+00 4.364448e+00 4.160367e+00 4.587626e+00 4.404375e+00 3.745278e+00 3.834901e+00 3.768643e+00 5.625510e+00 2.595180e+00 1.859216e+00
<GCONST> 1.023289e+02
<MIXTURE> 5 1.996603e-01
<MEAN> 25
 4.300105e+00 -3.951756e+00 9.815491e+00 -5.153099e+00 -9.834723e+00 -4.155893e+00 3.400840e-01 -3.808660e+00 -5.885601e+00 1.714807e+00 -2.196846e+00 -2.206869e+00 -2.059144e-01 -9.830174e-01 1.916137e+00 -2.761399e+00 -9.726626e-01 3.551732e-01 1.314652e-02 -8.733755e-01 -6.032423e-01 1.981938e+00 -1.434107e+00 2.611237e-01 1.118925e+00
<VARIANCE> 25
 9.782719e+00 3.882062e+01 2.571484e+01 4.000296e+01 3.395669e+01 4.067707e+01 2.793287e+01 3.693069e+01 2.778556e+01 3.121197e+01 3.678526e+01 2.207999e+01 1.341055e+00 2.551292e+00 2.495597e+00 3.936246e+00 3.590359e+00 3.620411e+00 3.341720e+00 4.085389e+00 3.563071e+00 3.484103e+00 3.585751e+00 2.085311e+00 8.874284e-01
<GCONST> 9.956203e+01
<STATE> 3
<NUMMIXES> 5
<MIXTURE> 1 2.748272e-01
<MEAN> 25
 4.694505e+00 -2.271725e+00 1.157131e+01 -7.842162e+00 -9.956362e+00 -2.849067e+00 3.911851e-01 -5.035965e+00 -2.818144e+00 4.842300e+00 -3.695361e+00 8.609501e-01 -1.277556e-01 4.597309e-01 5.531542e-01 -6.713505e-01 5.288117e-01 2.478190e-01 -4.639822e-01 -1.156020e-01 2.658231e-01 3.926018e-01 -7.223263e-01 8.483238e-01 -1.126269e-01
<VARIANCE> 25
 5.929270e+00 5.374797e+01 1.942219e+01 2.668402e+01 2.396118e+01 5.288450e+01 3.334565e+01 3.468913e+01 3.188034e+01 3.731872e+01 2.676202e+01 2.023559e+01 4.147771e-01 1.425681e+00 1.151628e+00 2.272769e+00 1.920461e+00 2.071136e+00 2.626354e+00 2.920827e+00 2.123632e+00 2.125914e+00 2.394228e+00 1.465757e+00 4.370397e-01
<GCONST> 9.132540e+01
<MIXTURE> 2 2.426330e-01
<MEAN> 25
 1.723569e+00 1.073429e-01 1.695091e+01 -1.691648e+01 -4.557807e+00 2.203604e+00 -4.143737e+00 -6.601432e+00 -2.905335e+00 4.689795e+00 -1.046238e+01 1.866865e+00 2.502296e-01 -8.774626e-02 -2.342101e-01 8.439490e-01 -2.093482e-01 -2.102300e-01 4.811426e-01 1.383759e-01 -1.141071e-01 1.245363e-01 1.799839e-01 1.507027e-01 -5.437788e-02
<VARIANCE> 25
 4.020686e+00 3.404746e+01 1.199186e+01 1.932198e+01 2.384100e+01 3.132970e+01 2.647910e+01 2.115519e+01 1.877225e+01 2.965422e+01 1.959019e+01 1.822897e+01 2.938871e-01 1.422087e+00 8.218006e-01 2.198449e+00 1.327572e+00 1.916061e+00 1.516246e+00 1.777812e+00 1.561092e+00 1.991833e+00 1.716858e+00 1.349940e+00 5.003955e-01
<GCONST> 8.438279e+01
<MIXTURE> 3 1.289978e-01
<MEAN> 25
 2.858407e+00 4.811148e+00 1.469075e+01 -1.372994e+01 -4.972212e+00 3.695846e+00 -5.843241e+00 -6.251142e+00 4.982473e-01 1.791975e+00 -8.314218e+00 2.705996e+00 9.630000e-03 1.291617e-01 2.254011e-01 -2.757586e-01 3.633104e-01 9.055708e-02 -1.002621e-01 2.747627e-01 2.579910e-01 5.635585e-01 -1.727832e-01 5.426309e-01 3.131890e-02
<VARIANCE> 25
 4.442432e+00 4.834484e+01 1.398490e+01 2.829017e+01 3.212839e+01 3.630020e+01 3.240055e+01 3.119952e+01 2.535611e+01 3.632046e+01 2.398725e+01 2.349691e+01 3.130891e-01 1.138970e+00 9.109396e-01 2.042537e+00 1.869599e+00 1.928864e+00 1.749778e+00 2.173747e+00 1.490128e+00 2.279618e+00 1.898276e+00 1.394725e+00 4.246678e-01
<GCONST> 8.798534e+01
<MIXTURE> 4 2.233328e-01
<MEAN> 25
 1.218241e+00 -1.873826e+00 1.650293e+01 -1.764995e+01 -5.500934e+00 1.571058e+00 -4.567713e+00 -7.569944e+00 -5.024142e+00 3.466428e+00 -1.195768e+01 6.582942e-01 1.218445e-01 -1.149920e-01 -4.675483e-01 6.917763e-01 -3.966076e-01 -4.124144e-01 2.142136e-01 -2.394414e-01 -4.773936e-01 -3.350072e-01 -2.115409e-01 -1.340261e-01 -2.109177e-01
<VARIANCE> 25
 4.092230e+00 2.967188e+01 1.138171e+01 1.608897e+01 2.321292e+01 3.093929e+01 2.716293e+01 1.928766e+01 1.807858e+01 2.574750e+01 1.917707e+01 1.633249e+01 2.672566e-01 1.377215e+00 7.944777e-01 2.143980e+00 1.253647e+00 1.859825e+00 1.518242e+00 1.807283e+00 1.597017e+00 1.865049e+00 1.812579e+00 1.345957e+00 4.601440e-01
<GCONST> 8.328044e+01
<MIXTURE> 5 1.302010e-01
<MEAN> 25
 2.479021e+00 1.206070e+00 1.405524e+01 -1.487707e+01 -5.836595e+00 2.839599e+00 -5.973177e+00 -7.271943e+00 -1.921229e+00 1.176660e+00 -1.008125e+01 7.818868e-01 -1.016434e-01 1.535729e-02 3.212338e-02 -4.792967e-01 1.562691e-01 -1.662992e-01 -3.231819e-01 -9.846268e-02 -8.444066e-02 1.795649e-01 -6.911288e-01 1.662577e-01 -2.047854e-02
<VARIANCE> 25
 4.752075e+00 4.881072e+01 1.395042e+01 2.278496e+01 3.440933e+01 4.195146e+01 3.881016e+01 3.183961e+01 2.904142e+01 3.565083e+01 2.503200e+01 2.300025e+01 3.043688e-01 1.155508e+00 8.862420e-01 1.924615e+00 1.817609e+00 1.997172e+00 1.739390e+00 2.174150e+00 1.545081e+00 2.237702e+00 2.035567e+00 1.458654e+00 4.093440e-01
<GCONST> 8.839148e+01
<STATE> 4
<NUMMIXES> 5
<MIXTURE> 1 2.849043e-01
<MEAN> 25
 -3.479680e-01 8.572430e+00 7.830706e+00 1.812318e+00 -6.146225e+00 -9.013242e-01 -3.006619e+00 -5.154709e+00 1.531832e+00 6.084252e-01 5.348206e-01 1.497533e+00 -1.030771e+00 1.794212e-01 -1.119942e+00 1.011722e+00 7.885954e-01 -2.041716e-01 -1.374824e-01 8.688893e-01 6.349955e-01 1.004778e-02 1.351148e+00 -1.209239e-01 -1.333527e+00
<VARIANCE> 25
 1.404409e+01 2.086039e+01 2.024671e+01 3.498506e+01 3.794950e+01 3.069978e+01 2.962267e+01 2.465241e+01 2.574965e+01 3.814808e+01 2.733265e+01 2.193623e+01 4.965489e-01 1.798360e+00 1.518200e+00 2.441613e+00 2.775287e+00 1.986313e+00 2.409642e+00 2.078535e+00 2.353802e+00 2.124402e+00 2.228231e+00 1.640820e+00 8.409817e-01
<GCONST> 9.237784e+01
<MIXTURE> 2 2.400286e-01
<MEAN> 25
 4.190104e+00 -7.645881e-01 1.164929e+01 -6.046438e+00 -8.407770e+00 -3.311098e+00 4.503873e-01 -5.845834e+00 -4.842370e+00 4.401482e+00 -5.446206e+00 1.195851e+00 1.063491e-02 1.698907e+00 -1.111521e+00 2.776893e+00 2.436362e-01 -5.951350e-02 1.993841e-01 1.290951e-01 3.263135e-01 -1.229540e+00 1.130484e+00 -9.157710e-02 -1.644042e+00
<VARIANCE> 25
 6.060990e+00 3.507254e+01 1.795144e+01 3.359932e+01 2.355566e+01 4.225752e+01 2.226537e+01 3.425920e+01 2.311291e+01 3.223551e+01 3.150415e+01 1.983565e+01 7.296918e-01 1.642357e+00 9.625931e-01 1.798523e+00 1.645966e+00 2.292542e+00 1.896768e+00 2.293855e+00 2.069670e+00 1.844238e+00 2.471442e+00 1.686403e+00 8.352734e-01
<GCONST> 9.041467e+01
<MIXTURE> 3 1.245971e-01
<MEAN> 25
 2.332693e+00 5.576682e+00 1.161872e+01 -4.271627e+00 -7.620121e+00 2.854085e-02 -1.833215e+00 -6.889694e+00 -2.942021e-01 2.759488e+00 -4.041625e+00 2.519780e+00 -6.060618e-01 1.103328e+00 -7.031674e-01 1.869258e+00 2.848061e-01 3.505708e-02 2.396297e-01 4.404006e-01 7.390511e-01 -2.911859e-01 1.336398e+00 -2.049983e-02 -1.530234e+00
<VARIANCE> 25
 1.239260e+01 3.448741e+01 2.180840e+01 6.295401e+01 3.007635e+01 3.933117e+01 3.601394e+01 3.102538e+01 2.682120e+01 3.885835e+01 3.233475e+01 2.724244e+01 6.527619e-01 2.390830e+00 1.146798e+00 2.828445e+00 2.333586e+00 2.422161e+00 2.087395e+00 2.241520e+00 2.331071e+00 2.377874e+00 2.358412e+00 1.797858e+00 1.581355e+00
<GCONST> 9.556615e+01
<MIXTURE> 4 2.208374e-01
<MEAN> 25
 3.311246e+00 -2.643510e+00 1.153830e+01 -7.790030e+00 -8.943242e+00 -4.161932e+00 -6.430474e-01 -6.555706e+00 -6.743127e+00 2.981959e+00 -6.733433e+00 2.342509e-02 -1.579175e-02 1.420846e+00 -1.393745e+00 2.651954e+00 -1.483657e-02 -3.843537e-01 -1.121630e-01 -3.415669e-01 -9.983923e-02 -1.568481e+00 8.211231e-01 -4.660578e-01 -1.606506e+00
<VARIANCE> 25
 6.340139e+00 3.850246e+01 1.771274e+01 3.361342e+01 2.313952e+01 4.028997e+01 2.299927e+01 3.445573e+01 2.364693e+01 3.161782e+01 3.069289e+01 2.138310e+01 7.365346e-01 1.619749e+00 9.574774e-01 1.803323e+00 1.523190e+00 2.258671e+00 1.974409e+00 2.387782e+00 2.031470e+00 1.914262e+00 2.434338e+00 1.618817e+00 7.747823e-01
<GCONST> 9.043327e+01
<MIXTURE> 5 1.296245e-01
<MEAN> 25
 9.604397e-01 4.161479e+00 1.087595e+01 -4.609179e+00 -8.400764e+00 -1.420055e+00 -3.168300e+00 -8.137135e+00 -2.141052e+00 1.457534e+00 -4.989720e+00 9.041708e-01 -7.087371e-01 8.326416e-01 -9.718478e-01 1.798133e+00 -8.267558e-02 -1.153482e-01 -3.325819e-02 -2.206605e-02 3.867116e-01 -7.149167e-01 9.210821e-01 -4.855544e-01 -1.592340e+00
<VARIANCE> 25
 1.274876e+01 3.425386e+01 2.104164e+01 5.902549e+01 3.108310e+01 3.790025e+01 3.269859e+01 3.013468e+01 2.677836e+01 3.952484e+01 3.127922e+01 2.894736e+01 6.291274e-01 2.276497e+00 1.086680e+00 2.922467e+00 2.229378e+00 2.449489e+00 2.008390e+00 2.226067e+00 2.317261e+00 2.269365e+00 2.246570e+00 1.710287e+00 1.385688e+00
<GCONST> 9.493031e+01
<TRANSP> 5
 0.000000e+00 1.000000e+00 0.000000e+00 0.000000e+00 0.000000e+00
 0.000000e+00 5.158431e-01 4.841569e-01 0.000000e+00 0.000000e+00
 0.000000e+00 0.000000e+00 7.135013e-01 2.864986e-01 0.000000e+00
 0.000000e+00 0.000000e+00 0.000000e+00 7.311745e-01 2.688255e-01
 0.000000e+00 0.000000e+00 0.000000e+00 0.000000e+00 0.000000e+00
<ENDHMM>
~h "j"
<BEGINHMM>
<NUMSTATES> 5
<STATE> 2
<NUMMIXES> 5
<MIXTURE> 1 2.391270e-01
<MEAN> 25
 1.842653e+00 1.068202e+01 -3.450033e-01 6.671503e+00 3.466934e+00 -1.266008e+00 -2.277272e+00 1.666724e+00 1.865735e+00 -1.633261e+00 3.578640e+00 -6.541321e-01 -2.158303e+00 -1.128370e+00 8.998102e-01 -1.058585e+00 1.036010e+00 5.169367e-01 -2.108750e-01 -8.022129e-02 -1.708715e-01 5.294278e-01 9.026226e-01 1.425163e-01 3.383029e-02
<VARIANCE> 25
 3.054062e+01 1.764848e+01 2.436229e+01 1.392270e+01 2.079711e+01 2.136967e+01 2.493449e+01 2.351668e+01 1.799601e+01 2.328771e+01 1.825607e+01 1.681911e+01 2.481589e+00 5.512298e+00 3.397268e+00 3.847861e+00 2.522230e+00 2.926121e+00 2.656100e+00 2.261260e+00 3.111240e+00 2.359626e+00 2.643908e+00 2.257406e+00 1.925990e+00
<GCONST> 9.571244e+01
<MIXTURE> 2 2.227110e-01
<MEAN> 25
 6.029506e+00 7.399075e+00 2.233925e+00 5.427964e+00 -2.883963e+00 -2.003425e+00 1.212912e+00 -2.682927e+00 -3.583716e+00 -5.253855e+00 -3.146221e+00 -2.952143e+00 -4.760630e-01 1.746187e+00 4.622790e-02 5.556264e-01 1.253388e+00 1.372445e-01 1.131591e-01 4.621609e-01 1.508099e-01 -6.089541e-01 6.102846e-01 -5.600697e-01 -7.340370e-01
<VARIANCE> 25
 1.639444e+01 4.083608e+01 2.128671e+01 2.537959e+01 3.137944e+01 3.647988e+01 2.856827e+01 5.008194e+01 2.529312e+01 2.691342e+01 2.527058e+01 2.296181e+01 3.403527e+00 2.358818e+00 1.607155e+00 2.551773e+00 3.567564e+00 3.326043e+00 2.575737e+00 2.818703e+00 2.491984e+00 2.425410e+00 3.148138e+00 2.038651e+00 1.677224e+00
<GCONST> 9.806660e+01
<MIXTURE> 3 1.566468e-01
<MEAN> 25
 4.039794e+00 8.920976e+00 5.944440e-01 7.879147e+00 4.500568e-01 -2.566451e+00 1.497247e+00 1.799321e+00 -1.506152e+00 -5.684382e+00 1.079859e-01 -1.931787e+00 -2.647779e+00 -4.144922e-01 1.773063e-01 -1.315147e+00 2.887952e+00 -2.008111e-02 1.700790e-02 1.611161e-01 6.441196e-01 7.003810e-01 1.545940e+00 6.073841e-01 1.578761e-02
<VARIANCE> 25
 1.246954e+01 3.998316e+01 3.808252e+01 1.820368e+01 2.919010e+01 2.490643e+01 3.214106e+01 4.286776e+01 2.125458e+01 2.723907e+01 1.772186e+01 1.939914e+01 2.136751e+00 5.207393e+00 2.451589e+00 3.998335e+00 4.363880e+00 3.768381e+00 4.152776e+00 3.715787e+00 3.184825e+00 3.100901e+00 2.626631e+00 2.311379e+00 1.925404e+00
<GCONST> 9.969562e+01
<MIXTURE> 4 2.054694e-01
<MEAN> 25
 5.770757e+00 5.703989e+00 2.250934e+00 4.235933e+00 -3.907599e+00 -3.634178e+00 -4.892477e-01 -5.201272e+00 -5.898429e+00 -7.147117e+00 -5.574402e+00 -3.718416e+00 -3.714719e-01 1.568983e+00 -1.683380e-01 4.825505e-01 9.216914e-01 -1.571003e-01 -2.761086e-02 -2.515889e-01 -1.432441e-01 -9.795799e-01 9.719895e-02 -1.132503e+00 -5.096118e-01
<VARIANCE> 25
 1.579400e+01 4.366206e+01 2.276159e+01 2.682036e+01 3.476136e+01 3.637325e+01 2.832048e+01 5.086300e+01 2.410369e+01 2.892992e+01 2.811899e+01 2.175528e+01 3.917619e+00 2.854113e+00 1.777099e+00 3.410883e+00 4.194558e+00 3.206606e+00 2.755503e+00 3.352850e+00 2.583938e+00 2.323681e+00 3.488427e+00 1.964748e+00 2.016320e+00
<GCONST> 9.973306e+01
<MIXTURE> 5 1.760467e-01
<MEAN> 25
 3.429818e+00 7.196581e+00 4.967247e-01 7.173392e+00 -3.096541e-01 -4.133498e+00 2.621659e-01 8.160111e-02 -2.891463e+00 -7.183031e+00 -1.710371e+00 -2.885724e+00 -2.990437e+00 -4.717876e-01 5.482985e-02 -1.844543e+00 2.776825e+00 -3.130668e-01 -6.131767e-02 -1.638348e-01 3.826132e-01 5.949010e-01 1.213434e+00 1.241433e-01 2.732879e-01
<VARIANCE> 25
 1.299997e+01 4.119251e+01 4.070385e+01 1.843584e+01 3.108105e+01 2.529002e+01 3.541870e+01 4.516790e+01 2.379234e+01 2.905259e+01 1.824776e+01 2.079988e+01 1.991076e+00 4.687524e+00 3.000747e+00 3.863595e+00 4.827999e+00 3.999170e+00 3.989536e+00 3.807990e+00 3.201112e+00 2.753616e+00 2.459884e+00 2.142144e+00 1.687811e+00
<GCONST> 1.001000e+02
<STATE> 3
<NUMMIXES> 5
<MIXTURE> 1 2.620602e-01
<MEAN> 25
 -1.913748e+01 7.979701e+00 6.527709e+00 -6.664672e+00 9.331556e+00 -1.934683e+00 2.647409e+00 -6.521574e-01 -6.603577e-01 1.494731e+00 9.222171e+00 -3.129365e+00 -1.968496e+00 1.218044e+00 1.698968e+00 -4.455785e-01 -1.124036e+00 1.169240e-01 1.688709e+00 1.505583e-01 3.555083e-03 2.041839e-01 1.454272e+00 -2.302637e-01 2.352388e-01
<VARIANCE> 25
 1.467307e+01 2.094269e+01 4.000715e+01 2.053613e+01 3.069641e+01 3.735515e+01 3.504419e+01 4.364717e+01 3.643869e+01 3.698328e+01 2.802188e+01 2.495301e+01 3.186724e+00 2.844579e+00 2.622657e+00 2.266714e+00 2.761443e+00 3.599544e+00 3.249501e+00 3.253960e+00 2.679363e+00 2.691797e+00 2.469170e+00 2.353871e+00 1.009627e+00
<GCONST> 9.890661e+01
<MIXTURE> 2 2.525948e-01
<MEAN> 25
 -7.001461e+00 4.459696e+00 3.320182e+00 -1.516954e+00 9.412365e+00 -4.004322e+00 9.342691e-01 -1.430150e+00 -1.448688e+00 -1.916552e+00 2.777561e+00 -1.775561e+00 -4.452930e+00 1.195937e-01 7.584376e-01 -2.937783e+00 2.397038e+00 -7.200675e-01 1.163531e+00 3.910971e-02 9.907174e-02 1.156626e+00 2.036058e+00 -1.604076e-01 1.733856e+00
<VARIANCE> 25
 2.990090e+01 5.501905e+01 5.167048e+01 3.309739e+01 4.417250e+01 5.441933e+01 6.126828e+01 6.124695e+01 3.516051e+01 3.992973e+01 3.177408e+01 2.526014e+01 3.009048e+00 4.169458e+00 3.644922e+00 3.295832e+00 4.985998e+00 3.938278e+00 4.044894e+00 3.803989e+00 3.609523e+00 3.099687e+00 3.075904e+00 2.569968e+00 1.161279e+00
<GCONST> 1.061049e+02
<MIXTURE> 3 1.218221e-01
<MEAN> 25
 -1.022885e+01 4.717016e+00 3.657079e+00 -2.557150e+00 8.724516e+00 -2.667537e+00 4.619648e-01 -4.004085e-01 5.122274e-01 -5.972580e-01 6.195405e+00 -8.712586e-01 -3.858686e+00 -1.251729e-02 9.731295e-01 -2.629888e+00 1.195149e+00 -1.691072e-01 1.357760e+00 1.936997e-01 1.475193e-01 8.792996e-01 1.875526e+00 5.896036e-02 1.732511e+00
<VARIANCE> 25
 3.632038e+01 5.127564e+01 5.071205e+01 4.036374e+01 4.875915e+01 5.267416e+01 6.100327e+01 5.092910e+01 3.989735e+01 3.376049e+01 3.687900e+01 2.938474e+01 4.220255e+00 4.716941e+00 3.806015e+00 4.553565e+00 4.688885e+00 4.088459e+00 3.938092e+00 3.655123e+00 3.835144e+00 3.074606e+00 4.329911e+00 3.032597e+00 1.734292e+00
<GCONST> 1.082434e+02
<MIXTURE> 4 2.354935e-01
<MEAN> 25
 -7.088455e+00 3.840520e+00 3.105919e+00 -2.766104e+00 8.896801e+00 -4.583473e+00 2.239036e-01 -2.643152e+00 -3.341376e+00 -3.295997e+00 1.201493e+00 -3.531703e+00 -4.405891e+00 2.271708e-01 6.630784e-01 -2.883559e+00 2.204867e+00 -9.492433e-01 8.494925e-01 -1.464162e-01 -3.566097e-01 6.518682e-01 1.682333e+00 -5.942737e-01 1.614792e+00
<VARIANCE> 25
 2.859975e+01 5.591898e+01 5.219429e+01 3.133805e+01 4.034737e+01 5.529930e+01 5.764171e+01 5.838264e+01 3.665361e+01 4.366137e+01 3.198513e+01 2.496721e+01 3.063682e+00 3.725737e+00 3.684779e+00 3.250407e+00 5.569815e+00 3.924713e+00 3.988559e+00 3.849488e+00 3.215568e+00 2.926654e+00 2.882406e+00 2.439607e+00 1.123688e+00
<GCONST> 1.056592e+02
<MIXTURE> 5 1.280287e-01
<MEAN> 25
 -9.828063e+00 4.354486e+00 2.942847e+00 -3.695630e+00 8.520076e+00 -3.791265e+00 -2.606399e-01 -1.874925e+00 -1.627826e+00 -1.903822e+00 4.555315e+00 -2.562201e+00 -3.761049e+00 1.418340e-01 7.810884e-01 -2.463015e+00 9.035648e-01 -5.693423e-01 1.123574e+00 -2.137615e-01 -2.693984e-01 4.988625e-01 1.516735e+00 -4.878311e-01 1.482443e+00
<VARIANCE> 25
 3.405708e+01 5.392444e+01 5.265890e+01 3.720386e+01 4.675169e+01 5.278092e+01 5.675096e+01 5.025930e+01 4.012067e+01 3.966071e+01 3.688757e+01 2.839214e+01 4.550014e+00 3.840889e+00 3.546237e+00 4.477818e+00 4.708331e+00 3.875231e+00 3.719253e+00 3.673931e+00 3.319318e+00 2.950639e+00 3.442211e+00 2.623285e+00 1.750172e+00
<GCONST> 1.073225e+02
<STATE> 4
<NUMMIXES> 5
<MIXTURE> 1 1.213353e-01
<MEAN> 25
 -1.847445e+01 4.922104e+00 9.002786e+00 -4.655932e+00 6.559435e+00 -2.764783e-01 6.785727e+00 2.072948e+00 -3.897223e-01 1.569497e+00 1.224184e+01 -1.436854e+00 2.784626e+00 -4.303987e-01 9.853618e-01 3.726180e-01 -2.318622e+00 -1.051346e+00 3.720627e-01 -7.945917e-02 6.375840e-02 -2.251346e-01 -7.953047e-01 1.195748e-01 3.561953e-01
<VARIANCE> 25
 1.757531e+01 1.931081e+01 5.418340e+01 2.229628e+01 3.985476e+01 4.597982e+01 3.534146e+01 4.848962e+01 3.822454e+01 4.027543e+01 2.717218e+01 2.493404e+01 4.521898e+00 2.755791e+00 2.776818e+00 2.096085e+00 4.429229e+00 3.767702e+00 3.110221e+00 2.818228e+00 2.724887e+00 2.110651e+00 3.210276e+00 1.992645e+00 1.780390e+00
<GCONST> 1.011400e+02
<MIXTURE> 2 2.168304e-01
<MEAN> 25
 5.427237e-01 -5.204257e-02 5.790809e+00 -5.866423e+00 -3.407282e+00 -1.112356e+01 4.691806e+00 -1.233998e-02 -1.063959e+00 -1.717785e+00 2.540797e+00 -7.479926e-01 4.186363e+00 -4.050085e+00 -6.672906e-01 -2.463939e-01 -2.146801e+00 9.303527e-02 -8.382599e-02 1.537756e+00 1.215285e+00 1.903920e-01 -2.231784e+00 9.222600e-01 1.879009e+00
<VARIANCE> 25
 1.752842e+01 4.804001e+01 3.229480e+01 1.591997e+01 2.877216e+01 2.118159e+01 2.901534e+01 3.777655e+01 1.925152e+01 2.157761e+01 2.037170e+01 1.584329e+01 2.801054e+00 2.894604e+00 2.704188e+00 1.964683e+00 6.137764e+00 4.350764e+00 3.424044e+00 4.434165e+00 2.526504e+00 3.232869e+00 2.969712e+00 1.779606e+00 1.060001e+00
<GCONST> 9.773475e+01
<MIXTURE> 3 3.220840e-01
<MEAN> 25
 -9.616710e+00 1.006402e+01 1.000688e+01 -5.254757e+00 3.959129e+00 -5.487364e+00 3.831359e+00 -3.712231e+00 -2.548939e+00 -4.590770e-01 5.249794e+00 -4.140895e+00 3.915299e+00 -1.525835e+00 9.061491e-01 -1.399508e+00 -3.983608e+00 -9.077404e-01 -1.457565e-01 -7.071601e-01 -1.334802e-01 2.902129e-01 -1.539184e+00 4.112357e-01 1.639925e+00
<VARIANCE> 25
 4.550275e+01 2.642466e+01 4.537447e+01 2.859057e+01 5.437322e+01 3.758038e+01 3.446788e+01 4.145930e+01 2.913192e+01 3.573079e+01 3.442300e+01 2.407775e+01 5.263819e+00 4.032918e+00 3.499795e+00 2.974264e+00 4.367824e+00 4.828067e+00 3.119456e+00 4.648808e+00 3.343638e+00 3.484064e+00 4.140570e+00 2.169184e+00 1.233762e+00
<GCONST> 1.047435e+02
<MIXTURE> 4 2.043806e-01
<MEAN> 25
 -6.834204e-02 -1.237961e+00 5.852170e+00 -8.090184e+00 -5.127036e+00 -1.171101e+01 1.981399e+00 -2.614870e+00 -2.551234e+00 -3.790484e+00 1.066331e+00 -2.305113e+00 4.399980e+00 -4.108683e+00 -6.498876e-01 -5.552501e-01 -2.362546e+00 -5.367656e-01 -7.436699e-01 7.311289e-01 5.909665e-01 -5.923803e-01 -2.932195e+00 2.940377e-01 1.923360e+00
<VARIANCE> 25
 1.524781e+01 4.679792e+01 2.778836e+01 1.569399e+01 2.271796e+01 2.153253e+01 2.830517e+01 3.715783e+01 1.624710e+01 2.322017e+01 1.959669e+01 1.356700e+01 2.493325e+00 2.888595e+00 3.049631e+00 2.041851e+00 5.493423e+00 4.409659e+00 3.735049e+00 4.401632e+00 2.802140e+00 3.382493e+00 2.981285e+00 1.672676e+00 8.719788e-01
<GCONST> 9.677110e+01
<MIXTURE> 5 1.353697e-01
<MEAN> 25
 -1.820074e+01 4.448001e+00 8.483479e+00 -5.610797e+00 6.054635e+00 -1.318768e+00 5.225168e+00 8.860264e-01 -1.513573e+00 3.505972e-01 1.048625e+01 -2.349616e+00 2.897435e+00 -4.498203e-01 7.777817e-01 5.794234e-02 -2.713863e+00 -1.568596e+00 6.537790e-03 -4.631004e-01 -5.126007e-01 -7.459295e-01 -1.103233e+00 -1.737188e-01 4.507085e-01
<VARIANCE> 25
 1.604198e+01 1.804528e+01 5.512751e+01 2.211973e+01 3.556469e+01 4.425690e+01 3.395755e+01 4.458361e+01 3.685130e+01 4.757536e+01 2.633304e+01 2.432179e+01 4.251233e+00 2.731018e+00 3.231328e+00 2.007634e+00 4.606299e+00 3.785630e+00 3.076171e+00 2.848142e+00 2.869121e+00 2.396411e+00 2.790694e+00 2.002850e+00 1.776095e+00
<GCONST> 1.009104e+02
<TRANSP> 5
 0.000000e+00 1.000000e+00 0.000000e+00 0.000000e+00 0.000000e+00
 0.000000e+00 7.230044e-01 2.769956e-01 0.000000e+00 0.000000e+00
 0.000000e+00 0.000000e+00 6.726309e-01 3.273690e-01 0.000000e+00
 0.000000e+00 0.000000e+00 0.000000e+00 7.081413e-01 2.918587e-01
 0.000000e+00 0.000000e+00 0.000000e+00 0.000000e+00 0.000000e+00
<ENDHMM>
~h "k"
<BEGINHMM>
<NUMSTATES> 5
<STATE> 2
<NUMMIXES> 5
<MIXTURE> 1 2.529629e-01
<MEAN> 25
 -4.101053e+00 -2.289353e+00 -5.003251e+00 8.552423e+00 5.737759e+00 -2.765848e+00 -2.212284e+00 2.088537e+00 3.645372e+00 7.548084e-01 4.104952e+00 1.670918e+00 8.203703e-01 -5.151630e+00 -4.117400e+00 1.451572e-01 3.947162e+00 -1.703370e+00 2.565080e-01 1.743136e+00 1.038406e+00 1.213896e+00 -1.038257e-02 1.926776e+00 2.709586e+00
<VARIANCE> 25
 1.647433e+01 6.648054e+01 4.863822e+01 3.081053e+01 7.467703e+01 4.374430e+01 3.390419e+01 3.488968e+01 3.027131e+01 3.138359e+01 2.634283e+01 2.200098e+01 1.515791e+00 3.274368e+00 4.334971e+00 4.924339e+00 6.712138e+00 6.017195e+00 5.372317e+00 5.897898e+00 4.352845e+00 5.642711e+00 4.276480e+00 3.400516e+00 1.413509e+00
<GCONST> 1.066856e+02
<MIXTURE> 2 2.345929e-01
<MEAN> 25
 -4.284370e+00 3.737674e+00 2.408360e+00 1.667189e+00 -4.960161e-02 -3.009442e-01 -2.147240e+00 -2.307787e+00 1.741555e+00 -2.079887e+00 2.551019e+00 3.864108e-01 -1.475216e+00 -1.477167e+00 -1.386777e-01 -1.202721e+00 2.379288e+00 2.561661e-01 3.793495e-01 6.095531e-01 1.412628e+00 5.353369e-02 1.494321e+00 1.071361e+00 6.755825e-01
<VARIANCE> 25
 2.354206e+01 3.804574e+01 5.751992e+01 5.185421e+01 5.925654e+01 3.400235e+01 3.865859e+01 4.650400e+01 3.845573e+01 4.582664e+01 3.805651e+01 2.318860e+01 1.770833e+00 4.615856e+00 6.141165e+00 8.422919e+00 5.415388e+00 4.950322e+00 4.033003e+00 4.211444e+00 4.174903e+00 4.656160e+00 3.586344e+00 2.858674e+00 1.796364e+00
<GCONST> 1.081533e+02
<MIXTURE> 3 1.384865e-01
<MEAN> 25
 -3.966372e+00 1.510323e+00 -3.594202e+00 4.781511e+00 1.652848e+00 -1.383596e-01 1.790092e-01 1.895883e+00 3.283041e+00 -3.878030e-01 3.578150e+00 5.004534e-01 -7.525141e-01 -2.679681e+00 -7.726044e-01 -9.644950e-01 2.020442e+00 7.325655e-01 6.485515e-01 -1.924242e-02 9.454299e-01 1.161966e+00 1.144732e+00 1.512200e+00 1.217699e+00
<VARIANCE> 25
 1.976877e+01 3.832731e+01 6.310626e+01 3.092761e+01 5.230762e+01 4.072770e+01 3.631412e+01 4.823311e+01 3.324913e+01 3.497643e+01 3.029509e+01 2.017482e+01 2.203324e+00 4.155379e+00 1.158054e+01 7.876053e+00 8.145350e+00 6.947563e+00 5.346262e+00 5.928940e+00 5.286250e+00 4.915900e+00 3.813566e+00 2.875903e+00 1.617055e+00
<GCONST> 1.091128e+02
<MIXTURE> 4 2.304294e-01
<MEAN> 25
 -3.463112e+00 3.140874e+00 2.852258e+00 1.159869e+00 -8.835550e-01 -1.929691e+00 -3.391398e+00 -4.031590e+00 -8.162331e-01 -3.881202e+00 5.511121e-01 -1.050413e+00 -1.563853e+00 -1.422480e+00 -2.909962e-01 -9.554511e-01 2.125994e+00 -1.552328e-01 1.510664e-02 2.078850e-01 1.009956e+00 -3.681333e-01 1.100083e+00 5.540895e-01 5.153276e-01
<VARIANCE> 25
 2.396729e+01 4.334428e+01 5.888427e+01 5.461005e+01 6.309173e+01 3.749913e+01 3.999670e+01 4.741779e+01 4.297264e+01 4.569867e+01 3.813100e+01 2.413536e+01 1.731666e+00 4.870401e+00 6.112791e+00 8.545535e+00 5.503522e+00 5.079003e+00 4.098797e+00 4.152133e+00 4.006871e+00 4.427884e+00 3.675152e+00 2.832250e+00 1.793414e+00
<GCONST> 1.087482e+02
<MIXTURE> 5 1.435300e-01
<MEAN> 25
 -3.198151e+00 1.115503e+00 -2.935645e+00 4.217367e+00 3.766773e-01 -1.981168e+00 -1.240606e+00 -1.417511e-02 8.573430e-01 -2.133410e+00 1.555354e+00 -7.384368e-01 -9.068313e-01 -2.809644e+00 -7.700783e-01 -6.735346e-01 1.827160e+00 2.638599e-01 2.706312e-01 -3.113700e-01 6.349087e-01 7.714809e-01 5.867087e-01 1.031195e+00 1.065186e+00
<VARIANCE> 25
 1.992773e+01 4.472129e+01 6.260048e+01 3.401921e+01 5.497668e+01 4.267670e+01 4.018011e+01 5.302235e+01 3.662558e+01 3.637647e+01 3.051176e+01 2.158142e+01 2.156204e+00 4.424612e+00 1.118321e+01 7.773894e+00 8.623454e+00 6.826337e+00 5.763503e+00 6.126895e+00 4.793810e+00 4.924006e+00 3.796161e+00 2.828998e+00 1.423453e+00
<GCONST> 1.097611e+02
<STATE> 3
<NUMMIXES> 5
<MIXTURE> 1 1.552995e-01
<MEAN> 25
 -1.120125e+00 -1.323588e+01 -1.524618e+01 5.808053e+00 1.309993e+01 -6.375376e+00 -3.074085e-02 5.492048e+00 6.265656e+00 3.924664e+00 3.168385e+00 6.515131e+00 1.968874e+00 -2.299030e+00 -1.581524e+00 -2.033701e+00 1.497165e+00 -8.458965e-01 4.177130e-01 9.395756e-01 5.998979e-01 1.282520e+00 -1.721002e+00 1.264606e+00 3.099329e+00
<VARIANCE> 25
 1.089817e+01 2.789234e+01 4.191472e+01 3.840176e+01 4.855998e+01 6.676488e+01 3.808989e+01 3.784650e+01 3.685300e+01 4.335219e+01 3.543819e+01 2.839242e+01 1.953661e+00 3.339226e+00 4.992452e+00 5.155863e+00 6.247880e+00 5.742343e+00 3.519002e+00 4.017921e+00 4.320914e+00 4.056243e+00 5.116499e+00 3.205312e+00 2.346807e+00
<GCONST> 1.065619e+02
<MIXTURE> 2 1.949628e-01
<MEAN> 25
 -1.085250e+01 -4.670981e-03 3.785166e+00 -6.098594e+00 6.355555e+00 9.277617e-01 9.007437e-01 -1.934343e+00 7.229495e+00 -1.697342e+00 6.627963e+00 4.351665e+00 8.782620e-01 1.564666e+00 1.817989e+00 -1.763602e+00 -5.292888e-01 -8.258020e-02 -5.634786e-01 -1.031177e+00 4.258617e-01 2.968285e-01 -6.271673e-01 6.301118e-01 9.582484e-01
<VARIANCE> 25
 2.643332e+01 5.186551e+01 6.773009e+01 4.745122e+01 5.750346e+01 4.376619e+01 3.735036e+01 4.536739e+01 3.868246e+01 5.455808e+01 4.520860e+01 2.889358e+01 3.897971e+00 3.919517e+00 3.149592e+00 5.609962e+00 5.769802e+00 3.447656e+00 3.569031e+00 3.858150e+00 3.521406e+00 3.516274e+00 3.713994e+00 2.424163e+00 2.322257e+00
<GCONST> 1.081083e+02
<MIXTURE> 3 2.746341e-01
<MEAN> 25
 -3.872525e+00 -5.621212e+00 -5.680974e+00 8.066620e-02 4.854616e+00 -7.392832e-01 7.617499e-01 1.825699e-01 3.328081e+00 1.200250e+00 3.449108e+00 3.322824e+00 -1.490538e-01 -3.206024e-01 5.864754e-01 -1.690779e+00 2.047633e-01 2.870100e-01 3.461670e-01 -2.749940e-01 4.672460e-01 3.504459e-01 1.651505e-01 6.825525e-01 9.610370e-01
<VARIANCE> 25
 3.124445e+01 5.261454e+01 1.309012e+02 6.601260e+01 8.315420e+01 7.466490e+01 5.083469e+01 5.903858e+01 4.993483e+01 5.420393e+01 4.024665e+01 2.960929e+01 3.846051e+00 4.036946e+00 6.737321e+00 6.561098e+00 5.120401e+00 4.387259e+00 3.832432e+00 4.818689e+00 4.336131e+00 3.670473e+00 5.106946e+00 2.804928e+00 3.025473e+00
<GCONST> 1.132388e+02
<MIXTURE> 4 1.772858e-01
<MEAN> 25
 -1.013926e+01 -4.813131e-01 4.073480e+00 -7.168913e+00 5.265846e+00 -6.255744e-01 -5.586119e-01 -3.702561e+00 5.669871e+00 -3.214957e+00 5.460270e+00 3.200324e+00 1.087048e+00 1.354102e+00 1.450556e+00 -2.122015e+00 -1.060093e+00 -5.115241e-01 -9.570842e-01 -1.573643e+00 -1.916488e-01 -9.367749e-02 -1.133964e+00 1.943132e-01 1.149173e+00
<VARIANCE> 25
 2.758128e+01 5.788220e+01 5.952597e+01 4.521076e+01 6.238861e+01 4.120068e+01 3.624633e+01 4.572188e+01 4.140851e+01 5.005620e+01 4.852109e+01 2.837281e+01 3.616450e+00 3.600127e+00 3.179146e+00 5.818566e+00 5.762915e+00 3.254380e+00 3.274767e+00 3.910985e+00 3.499638e+00 3.645701e+00 3.837341e+00 2.345607e+00 2.695496e+00
<GCONST> 1.080498e+02
<MIXTURE> 5 1.978219e-01
<MEAN> 25
 -9.918357e-01 -1.474527e+01 -1.546390e+01 3.958446e+00 1.234515e+01 -8.936590e+00 -1.991071e+00 3.929501e+00 4.696368e+00 3.283057e+00 1.367240e+00 5.829731e+00 2.058478e+00 -2.238029e+00 -1.667139e+00 -2.500839e+00 9.643940e-01 -1.065089e+00 -2.018226e-01 2.554194e-01 -4.580275e-02 6.190925e-01 -2.453526e+00 6.131107e-01 3.141201e+00
<VARIANCE> 25
 1.070221e+01 2.532643e+01 4.181506e+01 3.577136e+01 4.819584e+01 6.084536e+01 3.908967e+01 3.984492e+01 3.905219e+01 4.813327e+01 3.433406e+01 2.992183e+01 1.820289e+00 2.836963e+00 4.541561e+00 4.478839e+00 5.918920e+00 5.083317e+00 3.204195e+00 3.659238e+00 4.254549e+00 3.761054e+00 4.400715e+00 3.430616e+00 2.241060e+00
<GCONST> 1.054820e+02
<STATE> 4
<NUMMIXES> 5
<MIXTURE> 1 2.935084e-01
<MEAN> 25
 -1.956815e+00 -4.500051e+00 -6.453708e+00 2.886539e+00 6.220954e+00 -2.917507e+00 9.218609e-01 2.870766e+00 3.966909e+00 2.425347e+00 2.360275e+00 3.077257e+00 1.046461e+00 1.028958e+00 1.272717e+00 -1.722506e+00 -1.153584e+00 1.352105e-01 -4.076706e-01 -2.383857e-01 -7.593490e-01 -5.044018e-01 -1.165121e+00 -7.664832e-01 1.106378e+00
<VARIANCE> 25
 2.397403e+01 5.173095e+01 1.012352e+02 5.546037e+01 8.983159e+01 7.472011e+01 4.493253e+01 6.815001e+01 5.233976e+01 4.377716e+01 4.112542e+01 2.836739e+01 6.397938e+00 4.331925e+00 5.459190e+00 6.892609e+00 5.884461e+00 4.419943e+00 5.110746e+00 4.767403e+00 5.384517e+00 3.544680e+00 7.697917e+00 3.420945e+00 3.242997e+00
<GCONST> 1.141380e+02
<MIXTURE> 2 2.109098e-01
<MEAN> 25
 5.958420e+00 -6.210107e+00 -8.439852e+00 -2.457865e+00 6.043857e+00 -4.830249e+00 -2.256880e+00 2.322394e+00 2.920067e+00 2.368293e+00 -6.603812e+00 2.863095e+00 2.656972e+00 -5.623837e-01 2.441987e+00 -3.721222e+00 -1.835051e+00 1.375361e+00 3.997540e-01 1.618184e-01 -2.219312e+00 2.566096e-01 -3.764024e+00 -1.940153e+00 3.405727e+00
<VARIANCE> 25
 1.360609e+01 3.743974e+01 4.420858e+01 4.776117e+01 4.581520e+01 3.817736e+01 2.151393e+01 2.953649e+01 2.837507e+01 2.949484e+01 3.186254e+01 3.600604e+01 1.204080e+00 2.689919e+00 3.726038e+00 2.722276e+00 4.305145e+00 5.825408e+00 3.112938e+00 3.023821e+00 4.757892e+00 4.111364e+00 3.308842e+00 4.324623e+00 9.012371e-01
<GCONST> 1.020180e+02
<MIXTURE> 3 1.588943e-01
<MEAN> 25
 -4.515601e+00 4.342494e+00 5.279465e+00 -2.366792e+00 5.417499e+00 3.169679e-01 -8.619793e-01 -2.009506e+00 6.507819e+00 -1.009555e+00 3.845994e+00 5.217579e+00 3.691947e+00 1.006740e+00 2.307634e+00 -3.370532e+00 -3.634484e+00 -2.424976e-01 -1.453290e+00 -1.585854e+00 -1.950710e+00 1.282211e+00 -3.530048e+00 -3.795204e-01 2.659341e+00
<VARIANCE> 25
 3.258807e+01 5.035121e+01 9.898853e+01 5.732859e+01 5.982594e+01 4.036595e+01 3.249982e+01 4.326770e+01 3.218705e+01 3.538171e+01 3.810118e+01 2.492379e+01 1.479801e+00 4.030975e+00 3.065004e+00 3.849828e+00 4.346665e+00 4.095107e+00 4.020829e+00 3.855041e+00 3.830407e+00 5.626132e+00 3.991758e+00 3.570020e+00 1.317180e+00
<GCONST> 1.068023e+02
<MIXTURE> 4 1.758989e-01
<MEAN> 25
 6.599944e+00 -8.144711e+00 -7.569571e+00 -6.930015e+00 2.756052e+00 -5.898886e+00 -4.197426e+00 -8.542187e-02 1.869237e-01 7.256871e-01 -9.330668e+00 1.634409e+00 2.350150e+00 -1.011037e+00 2.276214e+00 -3.849263e+00 -2.137195e+00 1.198424e+00 5.618959e-03 -2.777341e-01 -2.593498e+00 -4.300722e-01 -4.151375e+00 -2.022490e+00 3.257455e+00
<VARIANCE> 25
 1.221563e+01 4.577788e+01 4.724344e+01 4.207737e+01 3.963997e+01 3.481895e+01 2.154474e+01 3.089293e+01 2.571783e+01 2.826848e+01 3.329935e+01 3.681387e+01 1.270880e+00 2.589079e+00 3.480737e+00 2.632328e+00 3.900332e+00 5.279788e+00 3.116010e+00 3.203640e+00 4.412065e+00 4.181033e+00 3.041162e+00 4.077393e+00 8.456869e-01
<GCONST> 1.012962e+02
<MIXTURE> 5 1.607908e-01
<MEAN> 25
 -3.981353e+00 4.571211e+00 6.005094e+00 -5.740883e+00 2.800098e+00 -1.635516e+00 -3.195933e+00 -4.698977e+00 4.756742e+00 -2.878135e+00 2.103696e+00 3.594181e+00 3.596896e+00 7.037359e-01 2.157875e+00 -3.392722e+00 -3.937079e+00 -3.956566e-01 -1.759280e+00 -2.005008e+00 -2.355874e+00 8.661443e-01 -3.961253e+00 -7.059396e-01 2.581656e+00
<VARIANCE> 25
 3.322287e+01 5.906205e+01 8.522202e+01 5.432134e+01 6.395158e+01 3.775606e+01 3.294334e+01 4.584193e+01 3.095827e+01 3.635788e+01 3.953435e+01 2.542944e+01 1.704491e+00 3.883143e+00 3.249106e+00 3.698473e+00 4.543634e+00 4.137416e+00 3.842076e+00 3.599209e+00 3.887615e+00 5.599620e+00 4.109296e+00 3.322664e+00 1.329517e+00
<GCONST> 1.069334e+02
<TRANSP> 5
 0.000000e+00 1.000000e+00 0.000000e+00 0.000000e+00 0.000000e+00
 0.000000e+00 5.501020e-01 4.498980e-01 0.000000e+00 0.000000e+00
 0.000000e+00 0.000000e+00 3.747567e-01 6.252433e-01 0.000000e+00
 0.000000e+00 0.000000e+00 0.000000e+00 3.646668e-01 6.353331e-01
 0.000000e+00 0.000000e+00 0.000000e+00 0.000000e+00 0.000000e+00
<ENDHMM>
~h "l"
<BEGINHMM>
<NUMSTATES> 5
<STATE> 2
<NUMMIXES> 5
<MIXTURE> 1 2.575119e-01
<MEAN> 25
 8.193156e+00 -7.017388e-01 9.226667e-01 2.945011e+00 -5.125722e+00 -7.200146e+00 -3.420510e+00 2.132286e+00 1.749736e+00 -4.183671e+00 -1.800029e+00 4.408731e+00 -1.954328e-01 1.313253e+00 8.354702e-01 6.038344e-01 -2.604963e-01 -1.119865e+00 -9.207597e-01 1.248166e-01 -5.565416e-01 -1.030409e+00 7.256765e-01 8.307351e-01 -6.578782e-01
<VARIANCE> 25
 3.900873e+00 3.858977e+01 2.978112e+01 1.963983e+01 2.559295e+01 3.675657e+01 5.285702e+01 4.179915e+01 3.539347e+01 2.935950e+01 2.519107e+01 2.186051e+01 4.594402e-01 2.393003e+00 2.585750e+00 2.406827e+00 2.944097e+00 3.152276e+00 4.346853e+00 3.014021e+00 2.632342e+00 2.805470e+00 2.948333e+00 2.107146e+00 6.499649e-01
<GCONST> 9.525591e+01
<MIXTURE> 2 2.535712e-01
<MEAN> 25
 5.141728e+00 -4.497418e+00 8.083067e+00 -5.203713e+00 -3.870848e+00 -7.515951e+00 -1.417188e+00 1.722063e+00 -3.427847e+00 -1.074674e+00 -5.214163e+00 4.320934e+00 2.015297e-01 1.655327e+00 3.812869e-01 8.443195e-01 -2.163125e-01 2.160979e-01 -1.186554e+00 -5.646701e-01 5.586402e-01 -6.248101e-01 -9.199015e-02 6.802230e-01 -9.570730e-01
<VARIANCE> 25
 3.506484e+00 3.607530e+01 2.080906e+01 1.919066e+01 2.581209e+01 3.822372e+01 3.898179e+01 5.508343e+01 2.442994e+01 3.361679e+01 2.237080e+01 2.019780e+01 1.777541e-01 1.053596e+00 1.071171e+00 1.338420e+00 1.742686e+00 3.532444e+00 2.692145e+00 2.740750e+00 2.027254e+00 2.679967e+00 2.515006e+00 1.641347e+00 3.184173e-01
<GCONST> 8.863433e+01
<MIXTURE> 3 1.254436e-01
<MEAN> 25
 6.715518e+00 -3.209323e+00 4.496520e+00 -1.337309e+00 -4.125812e+00 -7.617795e+00 -1.089060e+00 3.004326e+00 -9.818959e-01 -1.626015e+00 -3.404105e+00 4.908968e+00 9.995882e-02 1.676848e+00 5.200003e-01 6.968542e-01 -2.163809e-01 -8.012881e-01 -1.307132e+00 -4.089751e-01 2.601778e-01 -2.881741e-01 6.337948e-01 1.136146e+00 -8.202241e-01
<VARIANCE> 25
 4.988276e+00 4.672176e+01 2.612859e+01 2.438254e+01 2.441529e+01 4.711915e+01 4.789057e+01 4.840762e+01 2.903727e+01 3.803419e+01 2.522651e+01 2.738595e+01 1.760987e-01 1.274979e+00 1.415092e+00 1.542620e+00 1.842554e+00 3.579710e+00 2.797905e+00 2.305288e+00 2.366677e+00 3.123252e+00 2.076258e+00 1.753011e+00 3.252259e-01
<GCONST> 9.140302e+01
<MIXTURE> 4 2.323403e-01
<MEAN> 25
 4.635990e+00 -6.671283e+00 7.607677e+00 -6.460016e+00 -4.243598e+00 -8.845894e+00 -2.050435e+00 2.088511e+00 -5.079782e+00 -2.775061e+00 -6.508836e+00 3.273581e+00 9.233163e-02 1.540729e+00 3.033801e-01 6.734237e-01 -4.629659e-01 1.573572e-01 -1.486184e+00 -1.071535e+00 9.069727e-02 -9.713753e-01 -6.145496e-01 8.552828e-02 -1.050142e+00
<VARIANCE> 25
 3.394438e+00 3.155175e+01 2.061691e+01 1.854128e+01 2.513098e+01 3.300406e+01 4.164801e+01 4.891386e+01 2.397958e+01 3.154669e+01 2.227005e+01 1.886382e+01 2.051786e-01 1.032906e+00 1.078644e+00 1.343151e+00 1.711297e+00 3.423020e+00 2.556207e+00 3.040133e+00 2.072203e+00 2.445211e+00 2.439775e+00 1.708193e+00 3.005259e-01
<GCONST> 8.806131e+01
<MIXTURE> 5 1.311329e-01
<MEAN> 25
 6.226812e+00 -5.699466e+00 3.947213e+00 -2.360732e+00 -4.401982e+00 -9.439746e+00 -2.249273e+00 3.377466e+00 -2.390341e+00 -3.373467e+00 -5.013062e+00 3.923642e+00 -3.625041e-02 1.518770e+00 3.945150e-01 4.499860e-01 -4.754603e-01 -9.658340e-01 -1.354821e+00 -7.530386e-01 -2.350511e-01 -6.834444e-01 3.067113e-01 5.969388e-01 -8.657613e-01
<VARIANCE> 25
 4.520242e+00 4.239653e+01 2.229855e+01 2.376788e+01 2.526578e+01 4.221358e+01 4.622596e+01 4.623447e+01 2.688771e+01 3.620961e+01 2.555472e+01 2.830924e+01 1.892259e-01 1.247689e+00 1.444721e+00 1.559951e+00 1.938868e+00 3.466462e+00 2.780063e+00 2.294656e+00 2.437366e+00 2.850969e+00 1.949051e+00 1.964938e+00 3.284637e-01
<GCONST> 9.087528e+01
<STATE> 3
<NUMMIXES> 5
<MIXTURE> 1 2.937912e-01
<MEAN> 25
 6.461582e+00 4.496459e+00 4.851184e+00 2.195208e+00 -4.445956e+00 -7.601271e+00 -5.372578e+00 1.212507e+00 -6.394839e-01 -5.242428e+00 2.134516e-01 4.178323e+00 -2.480976e-01 5.190035e-01 1.832841e-01 7.965786e-03 4.122145e-01 -8.045444e-03 -3.791865e-01 2.805473e-01 3.529091e-02 -8.413350e-02 3.006302e-01 -9.073602e-02 -3.386581e-01
<VARIANCE> 25
