~o
<STREAMINFO> 1 25
<VECSIZE> 25<NULLD><MFCC_D_N_Z_0><DIAGC>
~s "silst"
<MEAN> 25
 -9.407222e+00 5.860766e+00 -2.602337e+00 5.854390e+00 2.232422e+00 1.211854e+00 -1.454140e-01 4.312776e+00 5.676198e+00 4.506125e+00 8.757063e+00 2.158095e+00 4.597485e-03 -1.497120e-02 2.460124e-02 -1.298513e-02 1.924505e-02 -1.686198e-02 1.781897e-02 -1.443070e-02 1.920904e-02 7.909670e-03 1.482254e-02 8.067425e-03 4.930386e-02
<VARIANCE> 25
 2.885659e+00 6.483040e+00 8.887030e+00 9.659554e+00 1.403858e+01 1.407840e+01 1.342852e+01 1.477179e+01 1.516427e+01 1.604330e+01 1.414198e+01 1.206206e+01 1.018328e-01 2.385674e-01 4.069982e-01 5.939484e-01 7.859852e-01 9.597105e-01 1.125869e+00 1.227559e+00 1.283985e+00 1.273843e+00 1.217380e+00 1.117093e+00 6.110769e-02
<GCONST> 6.744693e+01
~h "a"
<BEGINHMM>
<NUMSTATES> 5
<STATE> 2
<MEAN> 25
 4.008345e+00 -5.411826e+00 -1.332106e+00 -1.099415e+00 4.344825e-01 -4.158679e+00 -3.577267e-01 2.710512e+00 -4.599695e-01 -2.352514e+00 -4.121702e+00 3.822244e-01 1.694914e-01 -6.715802e-01 -3.806200e-02 -2.714495e-01 7.469552e-01 5.531919e-02 2.953331e-01 9.407066e-01 -2.647543e-01 -2.747708e-01 -7.195113e-01 -3.741763e-02 4.537701e-01
<VARIANCE> 25
 3.422592e+01 6.995744e+01 5.134243e+01 6.334015e+01 7.027284e+01 4.681408e+01 4.522541e+01 5.299755e+01 4.503710e+01 5.243230e+01 6.067117e+01 3.547525e+01 2.567265e+00 4.977962e+00 3.228106e+00 4.434348e+00 4.939338e+00 3.620908e+00 3.968694e+00 4.057809e+00 3.708870e+00 4.010157e+00 4.770771e+00 3.061702e+00 3.946771e+00
<GCONST> 1.107627e+02
<STATE> 3
<MEAN> 25
 4.626873e+00 -5.861835e+00 -1.488426e+00 -9.733587e-01 1.171654e+00 -4.464121e+00 4.944774e-01 3.610923e+00 -1.244641e+00 -2.732003e+00 -5.299528e+00 4.728415e-02 -3.267425e-01 6.456090e-01 9.005524e-03 5.530277e-01 1.625401e-01 2.346625e-01 1.924931e-01 1.461570e-01 -3.802777e-02 -7.719851e-02 3.156183e-01 -1.146759e-01 -7.443106e-01
<VARIANCE> 25
 2.690597e+01 7.137406e+01 4.374267e+01 5.495723e+01 6.403455e+01 4.493256e+01 4.388385e+01 5.315475e+01 4.191171e+01 4.718237e+01 5.711398e+01 3.271690e+01 1.174651e+00 2.531899e+00 2.056846e+00 2.552773e+00 3.128676e+00 2.823686e+00 3.070696e+00 2.919044e+00 2.712886e+00 2.978243e+00 2.658896e+00 2.375615e+00 1.518327e+00
<GCONST> 1.036042e+02
<STATE> 4
<MEAN> 25
 8.255109e-01 -6.402962e-01 -2.716411e+00 2.848793e+00 5.642515e-01 -3.060999e+00 3.009601e-01 3.701106e+00 1.157079e+00 -2.070329e+00 -4.582458e-01 -4.414775e-02 -5.557876e-01 5.840694e-01 -3.326895e-02 3.243882e-01 5.758146e-02 3.978479e-01 5.222747e-02 -1.711227e-01 1.707479e-01 1.212989e-01 5.539939e-01 -5.956845e-02 -7.977166e-01
<VARIANCE> 25
 4.384423e+01 6.056008e+01 4.030978e+01 4.266562e+01 4.781425e+01 4.011614e+01 3.559564e+01 4.397486e+01 4.177550e+01 3.929275e+01 5.672873e+01 2.642091e+01 1.122087e+00 2.069262e+00 1.881183e+00 2.126761e+00 2.593103e+00 2.305079e+00 2.401958e+00 2.817395e+00 2.472642e+00 2.546685e+00 2.462081e+00 1.983804e+00 1.031937e+00
<GCONST> 1.002984e+02
<TRANSP> 5
 0.000000e+00 1.000000e+00 0.000000e+00 0.000000e+00 0.000000e+00
 0.000000e+00 2.842894e-01 7.157105e-01 0.000000e+00 0.000000e+00
 0.000000e+00 0.000000e+00 3.116520e-01 6.883480e-01 0.000000e+00
 0.000000e+00 0.000000e+00 0.000000e+00 5.575602e-01 4.424398e-01
 0.000000e+00 0.000000e+00 0.000000e+00 0.000000e+00 0.000000e+00
<ENDHMM>
~h "b"
<BEGINHMM>
<NUMSTATES> 5
<STATE> 2
<MEAN> 25
 6.263057e+00 4.234268e+00 3.940230e-01 3.606528e+00 -1.093512e+00 -1.361360e+00 -2.955761e+00 -3.518923e+00 -3.484740e+00 -2.526349e+00 -3.996612e+00 -6.469497e+00 8.285484e-02 1.823414e+00 2.268873e-01 1.206607e+00 8.014809e-02 1.029672e-01 1.490797e-01 -3.980133e-01 -1.793406e-02 -7.432180e-01 -1.546896e-01 -6.091270e-01 -1.000370e+00
<VARIANCE> 25
 1.761855e+01 5.954809e+01 3.926317e+01 2.983400e+01 4.706485e+01 2.172998e+01 3.231870e+01 3.926970e+01 3.205365e+01 3.373647e+01 3.128623e+01 2.553769e+01 1.574287e+00 2.402400e+00 1.379918e+00 2.486373e+00 1.859254e+00 1.787164e+00 2.510647e+00 3.161868e+00 2.479647e+00 2.356233e+00 2.871914e+00 2.197315e+00 1.804667e+00
<GCONST> 9.774765e+01
<STATE> 3
<MEAN> 25
 6.077413e+00 8.820683e+00 1.109364e+00 6.448370e+00 -1.646186e+00 -6.891347e-01 -7.017381e-01 -5.380878e+00 -3.423855e+00 -3.008718e+00 -3.613280e+00 -7.744750e+00 3.232727e-01 -1.098967e+00 -9.318822e-01 -4.628399e-01 5.715384e-01 4.454553e-02 -4.358877e-01 4.762293e-01 7.997537e-01 3.925841e-01 4.281350e-01 2.299480e-01 6.648335e-01
<VARIANCE> 25
 9.563581e+00 4.125436e+01 2.601892e+01 1.837069e+01 4.065294e+01 2.417754e+01 2.858026e+01 4.603248e+01 2.726274e+01 3.268762e+01 2.439234e+01 2.364733e+01 1.973370e+00 6.201934e+00 3.964712e+00 2.933836e+00 3.777783e+00 2.576126e+00 2.588503e+00 4.092718e+00 3.166265e+00 3.582844e+00 3.043165e+00 2.741009e+00 2.631930e+00
<GCONST> 1.004285e+02
<STATE> 4
<MEAN> 25
 8.152942e+00 -1.161972e+00 -5.158834e+00 6.095659e-01 2.245366e+00 -9.998429e-01 -4.885434e+00 -4.818343e-01 1.781697e+00 4.871270e-01 -3.129036e+00 -6.334388e+00 5.717521e-01 -3.842688e+00 -1.521738e+00 -2.371020e+00 7.449409e-01 1.629962e-02 -1.155836e-01 1.778047e+00 9.347727e-01 1.189727e+00 -9.103636e-01 5.366943e-01 2.411627e+00
<VARIANCE> 25
 1.392743e+01 6.441286e+01 5.428526e+01 5.727018e+01 3.641159e+01 3.305968e+01 3.221556e+01 3.630053e+01 3.264764e+01 4.414575e+01 3.328105e+01 2.429500e+01 1.683568e+00 6.621853e+00 6.927390e+00 5.181925e+00 7.134243e+00 5.045529e+00 4.572453e+00 5.403499e+00 4.392590e+00 5.811156e+00 5.146370e+00 3.230908e+00 2.803331e+00
<GCONST> 1.087782e+02
<TRANSP> 5
 0.000000e+00 1.000000e+00 0.000000e+00 0.000000e+00 0.000000e+00
 0.000000e+00 7.316170e-01 2.683830e-01 0.000000e+00 0.000000e+00
 0.000000e+00 0.000000e+00 5.418426e-01 4.581575e-01 0.000000e+00
 0.000000e+00 0.000000e+00 0.000000e+00 5.596467e-01 4.403534e-01
 0.000000e+00 0.000000e+00 0.000000e+00 0.000000e+00 0.000000e+00
<ENDHMM>
~h "d"
<BEGINHMM>
<NUMSTATES> 5
<STATE> 2
<MEAN> 25
 6.001973e+00 4.457028e+00 1.298164e-01 5.817237e+00 -1.829280e+00 -4.195265e+00 9.311350e-02 7.107516e-01 -1.884351e+00 -5.690191e+00 -4.270692e+00 -1.855438e+00 -4.756548e-01 1.484852e+00 -2.938293e-02 1.138118e+00 5.066534e-01 6.239883e-01 -4.203911e-02 -1.670147e-01 7.567071e-02 -6.325136e-01 7.955854e-01 -7.042538e-01 -1.277264e+00
<VARIANCE> 25
 1.361795e+01 4.552537e+01 2.930708e+01 2.307539e+01 3.968389e+01 3.855965e+01 3.317752e+01 4.566546e+01 3.398572e+01 3.667042e+01 3.449192e+01 2.951265e+01 8.738794e-01 2.339388e+00 1.284008e+00 2.044044e+00 2.207030e+00 2.432726e+00 2.277745e+00 2.584506e+00 2.387015e+00 2.327306e+00 2.757038e+00 2.269290e+00 1.049693e+00
<GCONST> 9.633325e+01
<STATE> 3
<MEAN> 25
 3.188394e+00 8.600651e+00 1.046180e+00 7.270117e+00 -8.640149e-01 -1.355522e+00 -4.851437e-02 -1.110366e+00 -1.579133e+00 -5.272589e+00 -1.159637e+00 -2.980584e+00 -9.223188e-01 -1.409776e+00 -2.259145e-01 -3.867584e-01 1.994585e-01 -6.038658e-02 4.672267e-01 -7.096652e-01 3.347425e-01 4.706678e-01 1.730155e+00 2.886539e-01 5.544131e-01
<VARIANCE> 25
 2.346007e+01 3.442170e+01 2.891258e+01 1.639600e+01 4.381971e+01 2.610879e+01 2.739939e+01 4.700937e+01 3.035142e+01 3.390961e+01 3.305112e+01 1.823781e+01 2.621142e+00 4.562877e+00 2.510717e+00 2.224852e+00 4.974564e+00 3.351479e+00 3.666562e+00 5.021332e+00 3.438905e+00 3.575373e+00 5.186816e+00 2.421894e+00 2.243923e+00
<GCONST> 1.021202e+02
<STATE> 4
<MEAN> 25
 5.787312e-01 -8.679488e-02 -8.351574e-01 3.556761e+00 -1.907851e-01 -3.481631e+00 2.717126e+00 -3.813658e+00 3.882333e-01 -3.373384e+00 4.539092e+00 -9.075830e-01 4.000471e-01 -2.305068e+00 2.884721e-01 -2.757921e+00 -1.028615e+00 -1.011170e+00 1.254992e-01 -7.524190e-01 4.011260e-01 1.304120e+00 -2.194132e-01 1.088296e+00 2.503253e+00
<VARIANCE> 25
 2.458475e+01 4.660181e+01 3.564625e+01 3.910099e+01 4.695466e+01 5.477877e+01 4.970034e+01 5.224247e+01 3.544125e+01 4.021164e+01 5.004477e+01 3.169877e+01 3.332811e+00 6.063125e+00 6.564167e+00 4.207170e+00 7.110482e+00 6.030232e+00 7.227209e+00 8.401382e+00 4.254927e+00 5.390742e+00 7.560624e+00 3.079308e+00 2.514896e+00
<GCONST> 1.119678e+02
<TRANSP> 5
 0.000000e+00 1.000000e+00 0.000000e+00 0.000000e+00 0.000000e+00
 0.000000e+00 6.844917e-01 3.155083e-01 0.000000e+00 0.000000e+00
 0.000000e+00 0.000000e+00 4.979980e-01 5.020021e-01 0.000000e+00
 0.000000e+00 0.000000e+00 0.000000e+00 5.603570e-01 4.396431e-01
 0.000000e+00 0.000000e+00 0.000000e+00 0.000000e+00 0.000000e+00
<ENDHMM>
~h "g"
<BEGINHMM>
<NUMSTATES> 5
<STATE> 2
<MEAN> 25
 6.640272e+00 1.649024e+00 -2.437667e+00 -5.747377e-01 2.064328e+00 -2.794999e+00 -3.192237e+00 -1.459629e+00 -5.019467e-01 2.998730e-01 -6.819081e+00 -2.102777e+00 1.506634e-01 1.566952e+00 3.381050e-02 1.371603e+00 -4.167477e-01 -4.310902e-01 -4.016587e-01 -5.903667e-01 -3.757744e-02 -4.323027e-01 3.912447e-01 -3.915304e-01 -1.032847e+00
<VARIANCE> 25
 1.638538e+01 7.417068e+01 3.405582e+01 4.399648e+01 6.419111e+01 4.393933e+01 3.793946e+01 5.128496e+01 2.854487e+01 4.564652e+01 5.402980e+01 2.877015e+01 1.966182e+00 2.956216e+00 1.422607e+00 3.105624e+00 3.282881e+00 2.834912e+00 2.291578e+00 3.580639e+00 2.414687e+00 3.151730e+00 3.211356e+00 1.881019e+00 2.238757e+00
<GCONST> 1.026163e+02
<STATE> 3
<MEAN> 25
 5.985085e+00 8.349962e+00 -1.478020e+00 3.954104e+00 -3.105211e-01 -1.775271e+00 -2.965544e+00 -2.428092e+00 -5.353155e-01 -3.771667e+00 -3.021150e+00 -2.729436e+00 -6.510986e-01 1.760590e-01 -1.304217e-01 1.009036e+00 6.522223e-01 -2.410300e-01 -2.373023e-01 4.813985e-01 2.379191e-01 -4.281265e-01 8.475853e-01 1.930887e-01 -7.407746e-01
<VARIANCE> 25
 1.190663e+01 4.215503e+01 3.374130e+01 2.550477e+01 4.189423e+01 2.758733e+01 3.035710e+01 3.496131e+01 2.380858e+01 2.843101e+01 3.557111e+01 2.310574e+01 6.809351e-01 2.925315e+00 2.061344e+00 2.450984e+00 3.054538e+00 3.201596e+00 2.350060e+00 2.727670e+00 2.015928e+00 2.771374e+00 2.528336e+00 1.995093e+00 8.432711e-01
<GCONST> 9.578723e+01
<STATE> 4
<MEAN> 25
 4.222614e+00 2.720305e+00 -4.251533e+00 5.560596e+00 4.289930e+00 -3.849638e+00 -4.162530e+00 -4.859869e-01 6.749715e-01 -1.586863e+00 -1.634082e+00 -5.911525e-01 -1.935301e-01 -2.404014e+00 -5.785178e-01 -9.863886e-01 7.594455e-01 -5.754782e-01 1.382617e-01 8.233339e-01 3.274281e-01 1.097909e+00 -4.346301e-01 8.528300e-01 1.206125e+00
<VARIANCE> 25
 2.261642e+01 6.479894e+01 5.554432e+01 4.596429e+01 6.082396e+01 4.646762e+01 3.610381e+01 4.281677e+01 3.058878e+01 3.486729e+01 4.593941e+01 2.679179e+01 1.686636e+00 5.219780e+00 8.415677e+00 6.659419e+00 8.922251e+00 5.845968e+00 4.356198e+00 5.170033e+00 3.974007e+00 3.947047e+00 4.934644e+00 3.509401e+00 1.985387e+00
<GCONST> 1.100200e+02
<TRANSP> 5
 0.000000e+00 1.000000e+00 0.000000e+00 0.000000e+00 0.000000e+00
 0.000000e+00 5.128304e-01 4.871697e-01 0.000000e+00 0.000000e+00
 0.000000e+00 0.000000e+00 5.020157e-01 4.979844e-01 0.000000e+00
 0.000000e+00 0.000000e+00 0.000000e+00 6.091796e-01 3.908204e-01
 0.000000e+00 0.000000e+00 0.000000e+00 0.000000e+00 0.000000e+00
<ENDHMM>
~h "h"
<BEGINHMM>
<NUMSTATES> 5
<STATE> 2
<MEAN> 25
 3.755896e+00 -3.335195e+00 6.439752e+00 -3.387125e+00 -7.061286e+00 6.477582e+00 8.376502e+00 -5.473826e+00 -1.947316e+00 8.616301e-01 -4.763477e+00 -5.836037e-01 2.362547e-02 2.667866e-01 1.392692e-01 -4.090084e-01 -5.994537e-01 7.292675e-02 -8.923490e-03 -2.275361e-01 7.829688e-02 4.892332e-01 9.710973e-02 -1.817728e-01 -9.650062e-02
<VARIANCE> 25
 1.299466e+01 3.860826e+01 3.182313e+01 4.543062e+01 5.694200e+01 6.640265e+01 3.941308e+01 3.284307e+01 3.372754e+01 4.322389e+01 3.381423e+01 2.149493e+01 7.115875e-01 1.607342e+00 1.533682e+00 2.074656e+00 2.427583e+00 3.542130e+00 2.068815e+00 2.718168e+00 2.197897e+00 2.535884e+00 1.847119e+00 1.588071e+00 7.216046e-01
<GCONST> 9.635658e+01
<STATE> 3
<MEAN> 25
 3.889743e+00 -5.579399e-01 2.986419e+00 -3.460923e+00 -5.543022e+00 4.164256e+00 4.440235e+00 -4.425516e+00 -2.103720e+00 7.495314e-01 -2.863380e+00 -8.348415e-01 -2.239668e-01 1.056246e+00 -3.556770e-01 7.401887e-01 1.609217e-01 2.669773e-02 -3.099640e-01 6.500574e-02 1.358775e-01 -6.266543e-01 2.614489e-01 -1.037396e-01 -9.764796e-01
<VARIANCE> 25
 2.225217e+01 5.730302e+01 6.353758e+01 4.082271e+01 1.198156e+02 5.691928e+01 5.564922e+01 3.809380e+01 4.139392e+01 5.302705e+01 4.010826e+01 2.854257e+01 5.520886e-01 1.554364e+00 1.408090e+00 2.069979e+00 2.086685e+00 2.464674e+00 2.076339e+00 2.258368e+00 2.355634e+00 2.214285e+00 1.871297e+00 1.614722e+00 9.009384e-01
<GCONST> 9.893511e+01
<STATE> 4
<MEAN> 25
 -1.021313e+00 2.630837e+00 -2.797107e-01 1.423445e+00 -9.927075e-01 3.223649e+00 2.204264e+00 -9.197426e-01 7.947933e-01 -3.012947e-02 1.793609e+00 2.199234e-01 -9.113015e-02 4.740614e-01 -9.407543e-02 2.011235e-01 1.554119e-01 -8.678816e-02 -2.992605e-01 1.330340e-01 -3.136982e-02 -2.419614e-01 1.949623e-01 -4.525327e-03 -3.949838e-01
<VARIANCE> 25
 4.900062e+01 5.184465e+01 5.581408e+01 5.340039e+01 8.555176e+01 4.033556e+01 4.364669e+01 4.277347e+01 3.689700e+01 3.676136e+01 5.240698e+01 2.574168e+01 8.973921e-01 1.518013e+00 1.410947e+00 1.965189e+00 2.085387e+00 2.212716e+00 2.099864e+00 2.024879e+00 2.230094e+00 2.142824e+00 2.094131e+00 1.572395e+00 8.164266e-01
<GCONST> 9.874363e+01
<TRANSP> 5
 0.000000e+00 1.000000e+00 0.000000e+00 0.000000e+00 0.000000e+00
 0.000000e+00 8.213633e-01 1.786367e-01 0.000000e+00 0.000000e+00
 0.000000e+00 0.000000e+00 4.392156e-01 5.607845e-01 0.000000e+00
 0.000000e+00 0.000000e+00 0.000000e+00 5.271518e-01 4.728482e-01
 0.000000e+00 0.000000e+00 0.000000e+00 0.000000e+00 0.000000e+00
<ENDHMM>
~h "i"
<BEGINHMM>
<NUMSTATES> 5
<STATE> 2
<MEAN> 25
 1.495605e+00 1.064431e-01 9.712036e+00 -6.032478e+00 -6.940341e+00 -4.642080e-01 -6.317092e-01 -5.044850e+00 -1.708916e+00 1.604407e+00 -2.295342e+00 2.493277e-02 1.015714e+00 -7.353876e-01 2.536762e+00 -3.143553e+00 -1.298096e+00 2.317034e-02 -6.828658e-01 -9.740547e-01 -1.036045e+00 1.454394e+00 -2.153713e+00 2.647585e-01 2.067080e+00
<VARIANCE> 25
 3.128000e+01 4.442154e+01 3.914968e+01 7.925236e+01 5.035147e+01 6.103157e+01 3.655826e+01 4.941105e+01 4.227573e+01 4.271108e+01 4.735755e+01 2.741158e+01 3.941113e+00 3.986435e+00 4.467948e+00 6.059576e+00 4.380911e+00 4.546318e+00 4.544395e+00 4.807847e+00 4.232604e+00 4.519195e+00 6.348229e+00 2.805448e+00 3.060696e+00
<GCONST> 1.104987e+02
<STATE> 3
<MEAN> 25
 2.811604e+00 -1.900114e+00 1.421238e+01 -1.289398e+01 -7.182017e+00 4.499587e-02 -1.931210e+00 -6.342027e+00 -3.471895e+00 4.259227e+00 -7.473606e+00 6.934717e-01 2.774573e-02 -1.313645e-01 5.736251e-01 -7.591749e-01 1.409436e-01 -2.340419e-03 -1.776912e-01 -7.382707e-02 -1.425637e-01 6.607674e-01 -8.533560e-01 4.105189e-01 3.074405e-01
<VARIANCE> 25
 7.103130e+00 4.444087e+01 2.000356e+01 4.315001e+01 3.153194e+01 5.565744e+01 3.701814e+01 3.306208e+01 2.720164e+01 3.415142e+01 3.559354e+01 2.023183e+01 6.460091e-01 1.946436e+00 1.258356e+00 2.771439e+00 2.006815e+00 2.547910e+00 2.224461e+00 2.695408e+00 2.188262e+00 2.448173e+00 2.532348e+00 1.765931e+00 9.072613e-01
<GCONST> 9.443578e+01
<STATE> 4
<MEAN> 25
 2.163962e+00 2.446307e+00 1.188945e+01 -7.020291e+00 -7.301504e+00 -8.414957e-01 -2.406590e+00 -6.674755e+00 -2.572353e+00 2.492991e+00 -5.794317e+00 1.175477e+00 -2.831948e-01 7.918499e-01 -9.561163e-01 1.711112e+00 1.237863e-01 -2.243088e-01 1.014018e-01 1.591451e-01 2.469632e-01 -6.386949e-01 8.878513e-01 -1.379973e-01 -1.182334e+00
<VARIANCE> 25
 1.046415e+01 4.915164e+01 2.402861e+01 7.079348e+01 3.146506e+01 4.286377e+01 3.321722e+01 2.995980e+01 3.244157e+01 3.656603e+01 4.192741e+01 2.286987e+01 7.683964e-01 2.094112e+00 1.155150e+00 2.823551e+00 1.988619e+00 2.163222e+00 2.021401e+00 2.281986e+00 2.114014e+00 2.329429e+00 2.361121e+00 1.639963e+00 1.097760e+00
<GCONST> 9.537003e+01
<TRANSP> 5
 0.000000e+00 1.000000e+00 0.000000e+00 0.000000e+00 0.000000e+00
 0.000000e+00 5.161123e-01 4.838877e-01 0.000000e+00 0.000000e+00
 0.000000e+00 0.000000e+00 5.932077e-01 4.067923e-01 0.000000e+00
 0.000000e+00 0.000000e+00 0.000000e+00 8.031810e-01 1.968190e-01
 0.000000e+00 0.000000e+00 0.000000e+00 0.000000e+00 0.000000e+00
<ENDHMM>
~h "j"
<BEGINHMM>
<NUMSTATES> 5
<STATE> 2
<MEAN> 25
 3.082408e+00 7.575366e+00 1.234421e+00 5.783900e+00 1.616421e-01 -2.298033e+00 -2.538372e-01 -1.221336e+00 -1.638832e+00 -4.202281e+00 -7.042599e-01 -2.274689e+00 -1.587404e+00 1.981591e-01 2.629904e-01 -7.585162e-01 1.569023e+00 -5.632727e-02 4.067692e-02 -1.070091e-01 -1.483283e-02 2.991206e-02 7.357497e-01 -2.301122e-01 1.209069e-01
<VARIANCE> 25
 2.956389e+01 4.468107e+01 3.422750e+01 2.649597e+01 4.150393e+01 3.166385e+01 3.555305e+01 4.910154e+01 2.945031e+01 3.543620e+01 3.427963e+01 2.166191e+01 6.049943e+00 5.279418e+00 2.748061e+00 4.670896e+00 5.494953e+00 3.468786e+00 3.402062e+00 3.809853e+00 3.470574e+00 3.474941e+00 4.056224e+00 2.498878e+00 2.377538e+00
<GCONST> 1.053473e+02
<STATE> 3
<MEAN> 25
 -1.193754e+01 5.580159e+00 4.124166e+00 -3.889361e+00 9.485175e+00 -3.415714e+00 1.350457e+00 -1.231405e+00 -1.504820e+00 -9.857605e-01 5.393539e+00 -2.735436e+00 -3.224486e+00 3.633660e-01 1.112836e+00 -2.049937e+00 6.502740e-01 -4.932385e-01 1.254529e+00 4.075520e-02 -1.236954e-01 6.661190e-01 1.652938e+00 -2.402261e-01 1.237111e+00
<VARIANCE> 25
 4.771046e+01 4.941298e+01 5.223228e+01 3.298804e+01 3.975450e+01 4.957020e+01 5.581279e+01 5.219922e+01 4.002140e+01 4.188489e+01 3.982527e+01 2.749393e+01 5.902173e+00 4.085142e+00 3.408496e+00 4.409953e+00 6.831208e+00 4.001255e+00 3.791646e+00 3.589076e+00 3.242302e+00 2.968538e+00 3.049994e+00 2.587657e+00 1.766360e+00
<GCONST> 1.078609e+02
<STATE> 4
<MEAN> 25
 -7.219792e+00 3.919240e+00 7.948482e+00 -6.003314e+00 7.378771e-01 -6.754892e+00 4.148945e+00 -1.268950e+00 -1.734552e+00 -7.356817e-01 5.304242e+00 -2.292265e+00 3.824563e+00 -2.354584e+00 1.424427e-01 -5.253553e-01 -2.796130e+00 -5.911153e-01 -2.153346e-01 2.166766e-01 3.074770e-01 -1.585371e-01 -1.915585e+00 3.680708e-01 1.410838e+00
<VARIANCE> 25
 8.562109e+01 5.489267e+01 4.438233e+01 2.222921e+01 5.701714e+01 5.190373e+01 3.405083e+01 4.383602e+01 2.643844e+01 3.587509e+01 4.205813e+01 2.111539e+01 4.477608e+00 5.563406e+00 3.739132e+00 2.596544e+00 5.947062e+00 4.817097e+00 3.407165e+00 4.882293e+00 3.290609e+00 3.218049e+00 3.705355e+00 2.019666e+00 1.713743e+00
<GCONST> 1.068076e+02
<TRANSP> 5
 0.000000e+00 1.000000e+00 0.000000e+00 0.000000e+00 0.000000e+00
 0.000000e+00 7.517437e-01 2.482563e-01 0.000000e+00 0.000000e+00
 0.000000e+00 0.000000e+00 6.575459e-01 3.424541e-01 0.000000e+00
 0.000000e+00 0.000000e+00 0.000000e+00 6.983621e-01 3.016379e-01
 0.000000e+00 0.000000e+00 0.000000e+00 0.000000e+00 0.000000e+00
<ENDHMM>
~h "k"
<BEGINHMM>
<NUMSTATES> 5
<STATE> 2
<MEAN> 25
 -4.547844e+00 6.574509e-01 -1.255732e+00 3.572797e+00 2.554468e+00 -1.293488e+00 -1.953227e+00 -4.251868e-01 2.561622e+00 -1.328239e+00 3.132063e+00 8.076074e-01 -6.578402e-01 -2.354239e+00 -1.138099e+00 -8.007936e-01 2.369714e+00 -2.633475e-01 2.890602e-01 5.236468e-01 1.040953e+00 5.599008e-01 7.828882e-01 1.180723e+00 1.205665e+00
<VARIANCE> 25
 2.335539e+01 5.968601e+01 7.376158e+01 5.502344e+01 6.976849e+01 4.281816e+01 3.973404e+01 5.018660e+01 3.808540e+01 4.273965e+01 3.490498e+01 2.442511e+01 2.668756e+00 7.085593e+00 9.478494e+00 7.253642e+00 7.162481e+00 6.121955e+00 4.620690e+00 5.512019e+00 4.217458e+00 5.002284e+00 4.006528e+00 3.182231e+00 2.418897e+00
<GCONST> 1.119051e+02
<STATE> 3
<MEAN> 25
 -4.678695e+00 -5.228157e+00 -4.945211e+00 -1.275631e-01 8.231787e+00 -2.808912e+00 -2.146591e-01 1.064698e+00 5.955674e+00 1.126384e+00 3.795925e+00 5.004454e+00 1.963891e+00 -5.250587e-02 6.852117e-01 -2.561223e+00 -9.729520e-01 -3.641782e-01 -5.078466e-01 -7.105941e-01 -5.519587e-01 4.212746e-01 -2.057794e+00 1.435675e-01 2.231420e+00
<VARIANCE> 25
 3.687275e+01 8.377859e+01 1.446813e+02 6.926165e+01 7.157079e+01 7.113300e+01 3.963628e+01 5.787434e+01 4.123000e+01 5.232306e+01 4.192684e+01 2.911582e+01 3.799895e+00 6.320944e+00 6.913748e+00 5.700904e+00 8.228656e+00 4.944514e+00 4.227792e+00 4.848938e+00 4.917617e+00 4.336447e+00 5.897102e+00 3.602109e+00 3.100069e+00
<GCONST> 1.150787e+02
<STATE> 4
<MEAN> 25
 3.308745e+00 -3.751762e+00 -2.061305e+00 -6.197141e+00 1.196901e+00 -3.413410e+00 -2.633822e+00 -1.310686e+00 1.107968e+00 1.048310e+00 -4.970275e+00 1.850099e+00 2.129066e+00 -5.040262e-01 1.877433e+00 -2.815186e+00 -1.925691e+00 6.664820e-01 -1.620903e-01 -2.974796e-01 -2.029711e+00 3.702976e-01 -2.857869e+00 -1.328161e+00 2.528005e+00
<VARIANCE> 25
 3.260025e+01 8.128362e+01 1.080453e+02 6.494556e+01 6.752556e+01 4.434815e+01 3.644934e+01 5.872593e+01 3.598362e+01 3.707583e+01 5.690634e+01 3.285601e+01 3.690034e+00 4.138318e+00 4.346719e+00 4.927981e+00 5.936141e+00 5.691566e+00 4.170465e+00 4.074872e+00 5.047003e+00 5.237791e+00 6.077592e+00 4.050002e+00 2.506784e+00
<GCONST> 1.126285e+02
<TRANSP> 5
 0.000000e+00 1.000000e+00 0.000000e+00 0.000000e+00 0.000000e+00
 0.000000e+00 6.080573e-01 3.919427e-01 0.000000e+00 0.000000e+00
 0.000000e+00 0.000000e+00 4.378330e-01 5.621670e-01 0.000000e+00
 0.000000e+00 0.000000e+00 0.000000e+00 3.111870e-01 6.888130e-01
 0.000000e+00 0.000000e+00 0.000000e+00 0.000000e+00 0.000000e+00
<ENDHMM>
~h "l"
<BEGINHMM>
<NUMSTATES> 5
<STATE> 2
<MEAN> 25
 6.008508e+00 -4.402151e+00 5.546940e+00 -3.799844e+00 -4.909853e+00 -5.738690e+00 -1.280979e+00 1.327540e+00 -1.672537e+00 -1.552306e+00 -4.963901e+00 2.520796e+00 8.396354e-02 1.330448e+00 6.988540e-01 6.691011e-01 -5.147055e-01 -5.557370e-01 -1.334100e+00 -4.523408e-01 1.946682e-01 -8.001946e-01 -5.696363e-02 7.908449e-01 -7.213654e-01
<VARIANCE> 25
 6.326391e+00 5.539066e+01 3.036814e+01 3.385149e+01 3.092266e+01 4.266096e+01 5.560450e+01 6.089896e+01 3.451482e+01 3.357695e+01 2.860745e+01 2.381906e+01 4.853375e-01 2.265124e+00 1.858896e+00 2.214044e+00 2.316575e+00 4.219830e+00 3.784304e+00 3.280098e+00 3.059354e+00 3.288357e+00 3.198176e+00 1.992490e+00 8.461952e-01
<GCONST> 9.793478e+01
<STATE> 3
<MEAN> 25
 5.805274e+00 1.514917e+00 7.576043e+00 -2.156744e+00 -6.408409e+00 -3.758743e+00 -4.435799e+00 -2.127441e+00 -9.977754e-02 -4.293341e+00 -5.767740e+00 3.726500e+00 -3.096395e-02 8.202971e-01 3.969348e-02 2.677940e-01 -1.218483e-02 3.756585e-01 -3.855028e-01 -1.222038e-01 4.026743e-01 -4.419937e-01 -3.286149e-02 3.401298e-02 -5.310125e-01
<VARIANCE> 25
 4.604049e+00 4.660545e+01 2.551064e+01 3.036755e+01 2.910398e+01 6.932661e+01 2.824836e+01 4.789349e+01 3.543725e+01 3.223227e+01 4.373394e+01 2.459827e+01 2.046446e-01 9.846066e-01 9.990368e-01 1.419000e+00 1.637217e+00 2.158936e+00 1.913979e+00 2.491382e+00 2.088133e+00 2.291116e+00 2.339087e+00 1.549952e+00 3.321628e-01
<GCONST> 9.013210e+01
<STATE> 4
<MEAN> 25
 5.679211e+00 2.775025e+00 7.634710e+00 -2.201198e+00 -6.044814e+00 -2.539741e+00 -5.272563e+00 -1.732110e+00 8.823442e-01 -4.074535e+00 -5.055885e+00 2.531493e+00 -1.800674e-01 -7.328422e-01 -2.994096e-01 -1.960355e-01 2.661324e-01 -1.217724e-01 7.771940e-01 3.027716e-01 -3.962734e-01 5.911510e-01 4.486657e-01 -5.631198e-01 3.341996e-01
<VARIANCE> 25
 5.203557e+00 6.015090e+01 2.862047e+01 3.892388e+01 3.258826e+01 6.146889e+01 3.384773e+01 5.462232e+01 3.643341e+01 3.390287e+01 4.351474e+01 2.276717e+01 4.327514e-01 3.090468e+00 2.655241e+00 2.960537e+00 2.949616e+00 3.358119e+00 4.143472e+00 3.777567e+00 3.050814e+00 3.914198e+00 3.773213e+00 1.830573e+00 1.080117e+00
<GCONST> 9.973701e+01
<TRANSP> 5
 0.000000e+00 1.000000e+00 0.000000e+00 0.000000e+00 0.000000e+00
 0.000000e+00 5.613800e-01 4.386200e-01 0.000000e+00 0.000000e+00
 0.000000e+00 0.000000e+00 6.567900e-01 3.432100e-01 0.000000e+00
 0.000000e+00 0.000000e+00 0.000000e+00 5.116063e-01 4.883936e-01
 0.000000e+00 0.000000e+00 0.000000e+00 0.000000e+00 0.000000e+00
<ENDHMM>
~h "m"
<BEGINHMM>
<NUMSTATES> 5
<STATE> 2
<MEAN> 25
 6.432658e+00 -4.301501e-01 -7.756775e-01 4.083456e+00 -1.373306e+00 -8.124082e-01 -2.099958e+00 -5.046398e+00 -5.115333e+00 -1.663344e+00 -2.532619e+00 -4.575977e+00 1.247267e+00 1.095421e+00 6.813343e-01 1.405658e+00 -1.737643e+00 -5.953910e-01 -9.563231e-02 -2.628157e+00 -5.814600e-01 2.620877e-01 -8.733159e-01 -6.194725e-01 1.735346e-01
<VARIANCE> 25
 2.751741e+01 5.780359e+01 3.007514e+01 2.951144e+01 4.679456e+01 3.088220e+01 3.230914e+01 4.551867e+01 3.335181e+01 3.165856e+01 3.534048e+01 2.879581e+01 3.222831e+00 3.373791e+00 2.446611e+00 3.325366e+00 3.688616e+00 2.818404e+00 2.490990e+00 3.460642e+00 3.344163e+00 3.601532e+00 4.226824e+00 2.634197e+00 3.753604e+00
<GCONST> 1.037635e+02
<STATE> 3
<MEAN> 25
 8.694510e+00 1.830427e+00 8.631961e-01 6.804651e+00 -5.199948e+00 -1.087987e+00 -1.111617e+00 -1.034034e+01 -5.335730e+00 -2.045187e+00 -5.326932e+00 -4.858776e+00 1.273743e-01 3.733124e-01 -5.377344e-02 3.120726e-01 -2.571283e-01 1.151831e-01 2.553677e-01 -3.650779e-01 1.743028e-01 9.556049e-02 -2.670469e-02 -1.643330e-01 -1.772142e-01
<VARIANCE> 25
 3.777565e+00 2.544512e+01 1.687728e+01 1.933765e+01 2.759266e+01 2.739988e+01 2.681309e+01 2.643069e+01 2.527528e+01 3.271583e+01 2.979959e+01 2.575462e+01 1.878063e-01 1.415102e+00 1.016917e+00 1.396423e+00 1.418384e+00 1.457318e+00 1.540277e+00 2.129893e+00 1.593004e+00 1.997839e+00 1.805016e+00 1.723005e+00 3.851210e-01
<GCONST> 8.513066e+01
<STATE> 4
<MEAN> 25
 8.872891e+00 -2.832453e-01 -6.564354e-01 3.752995e+00 -4.302983e+00 -3.810773e-01 -7.515848e-01 -6.493948e+00 -4.789753e+00 -2.598124e+00 -4.119098e+00 -5.891236e+00 -2.863573e-01 -1.468485e+00 -2.092644e-01 -1.798514e+00 8.345062e-01 3.564275e-01 -1.831613e-01 2.084981e+00 -2.212877e-01 -5.320001e-01 4.559909e-01 1.508404e-01 8.266914e-01
<VARIANCE> 25
 7.148292e+00 4.991716e+01 3.535300e+01 4.918504e+01 4.141260e+01 4.019081e+01 2.933724e+01 4.840569e+01 2.698958e+01 3.518697e+01 2.930730e+01 2.650930e+01 6.081544e-01 3.249992e+00 4.755212e+00 4.412395e+00 4.453231e+00 4.164105e+00 2.937163e+00 5.011513e+00 3.064405e+00 3.546280e+00 2.971440e+00 2.623965e+00 1.058361e+00
<GCONST> 1.013028e+02
<TRANSP> 5
 0.000000e+00 1.000000e+00 0.000000e+00 0.000000e+00 0.000000e+00
 0.000000e+00 5.254462e-01 4.745538e-01 0.000000e+00 0.000000e+00
 0.000000e+00 0.000000e+00 7.871524e-01 2.128476e-01 0.000000e+00
 0.000000e+00 0.000000e+00 0.000000e+00 6.564708e-01 3.435292e-01
 0.000000e+00 0.000000e+00 0.000000e+00 0.000000e+00 0.000000e+00
<ENDHMM>
~h "n"
<BEGINHMM>
<NUMSTATES> 5
<STATE> 2
<MEAN> 25
 6.294751e+00 -7.503629e+00 2.619306e+00 -5.175270e-01 3.072357e-01 -3.253265e+00 3.685205e-01 3.478590e+00 -8.408683e+00 -8.170912e+00 -5.017415e+00 -1.037477e-01 3.248720e-01 1.593351e+00 6.059129e-01 1.235798e+00 -1.742929e+00 -7.651904e-01 -1.075781e-01 -1.372963e+00 -1.322479e-01 2.726559e-01 3.943467e-02 -4.258673e-02 -8.268027e-01
<VARIANCE> 25
 5.517346e+00 5.568264e+01 2.559550e+01 3.360946e+01 5.089219e+01 3.018316e+01 3.428595e+01 5.422851e+01 3.929029e+01 4.020740e+01 2.788783e+01 2.352753e+01 4.370714e-01 2.181863e+00 1.595919e+00 2.212502e+00 2.662596e+00 2.243505e+00 2.417689e+00 3.329789e+00 2.431941e+00 3.097719e+00 2.320396e+00 1.914051e+00 8.244299e-01
<GCONST> 9.555247e+01
<STATE> 3
<MEAN> 25
 7.829619e+00 1.580335e-01 3.442957e+00 5.312964e+00 -6.724159e+00 -4.024971e+00 1.462549e+00 -4.276004e+00 -6.407547e+00 -5.929725e+00 -5.775911e+00 -2.641763e-01 1.947271e-01 1.151613e+00 -2.133543e-01 8.769292e-01 -7.024175e-01 7.470053e-02 3.950057e-01 -9.683015e-01 2.173131e-01 -3.225533e-02 -7.646012e-02 -7.536580e-03 -6.901667e-01
<VARIANCE> 25
 3.738091e+00 2.402815e+01 1.814677e+01 2.063253e+01 2.638938e+01 2.438760e+01 2.657797e+01 3.348588e+01 3.114832e+01 2.645317e+01 3.328411e+01 2.324331e+01 1.716122e-01 1.377289e+00 9.470928e-01 1.367340e+00 1.494844e+00 1.571212e+00 1.650681e+00 2.380978e+00 1.688428e+00 1.852834e+00 1.769229e+00 1.559243e+00 3.779016e-01
<GCONST> 8.521437e+01
<STATE> 4
<MEAN> 25
 7.731120e+00 4.518391e+00 2.010920e+00 5.682582e+00 -6.180219e+00 -2.859054e+00 1.123714e+00 -5.108883e+00 -5.647028e+00 -6.055979e+00 -3.972783e+00 -1.249187e+00 -3.849327e-01 1.284750e-01 -8.389197e-03 -3.730323e-01 6.869559e-01 2.400251e-01 -4.912095e-01 4.065568e-01 6.799968e-02 -7.242361e-02 4.513459e-01 -2.279330e-01 -2.192582e-01
<VARIANCE> 25
 6.451979e+00 3.628628e+01 2.126968e+01 2.428796e+01 3.497109e+01 3.012796e+01 3.314695e+01 3.648305e+01 3.139857e+01 2.720411e+01 3.773225e+01 2.616148e+01 4.105231e-01 2.460668e+00 1.549065e+00 2.231758e+00 2.155358e+00 2.003545e+00 2.154916e+00 2.482370e+00 2.168603e+00 2.136073e+00 2.087782e+00 1.727949e+00 8.911627e-01
<GCONST> 9.244399e+01
<TRANSP> 5
 0.000000e+00 1.000000e+00 0.000000e+00 0.000000e+00 0.000000e+00
 0.000000e+00 6.054483e-01 3.945517e-01 0.000000e+00 0.000000e+00
 0.000000e+00 0.000000e+00 6.952528e-01 3.047472e-01 0.000000e+00
 0.000000e+00 0.000000e+00 0.000000e+00 6.569313e-01 3.430687e-01
 0.000000e+00 0.000000e+00 0.000000e+00 0.000000e+00 0.000000e+00
<ENDHMM>
~h "p"
<BEGINHMM>
<NUMSTATES> 5
<STATE> 2
<MEAN> 25
 -5.042363e+00 3.295197e+00 -3.043355e+00 4.862395e+00 4.933609e-01 -1.287706e-01 -4.662232e-01 1.338900e+00 2.881237e+00 6.697404e-02 4.397349e+00 2.797250e-01 -2.826639e-01 -1.081220e+00 -2.423507e-01 3.866842e-01 5.046417e-01 1.589849e-01 7.839506e-02 3.965215e-01 5.750152e-01 2.715884e-01 6.005738e-01 4.185567e-01 2.304820e-01
<VARIANCE> 25
 1.515669e+01 2.860436e+01 3.705244e+01 1.924553e+01 4.085061e+01 2.505769e+01 2.294354e+01 2.712434e+01 2.450661e+01 2.490536e+01 2.478239e+01 1.810873e+01 1.276365e+00 4.139448e+00 2.418381e+00 2.037544e+00 2.836401e+00 2.151629e+00 2.409447e+00 2.825178e+00 2.517433e+00 2.415450e+00 2.226305e+00 1.833716e+00 1.780995e+00
<GCONST> 9.524881e+01
<STATE> 3
<MEAN> 25
 -3.119068e+00 -3.974027e+00 -3.754230e+00 5.631344e+00 1.513590e+00 -7.585388e-02 -4.469461e-01 2.235418e+00 4.509852e+00 3.002161e-01 5.169300e+00 1.734947e+00 2.745949e+00 -1.895016e+00 -4.935483e-01 -1.183194e+00 -5.494432e-01 -4.358451e-01 -1.126349e+00 -3.613302e-01 -3.061188e-02 -1.642215e-02 -9.073353e-01 -5.082139e-01 3.073619e+00
<VARIANCE> 25
 1.673781e+01 5.481944e+01 4.383673e+01 3.569715e+01 3.871908e+01 3.436707e+01 2.676152e+01 3.171713e+01 2.717159e+01 2.793499e+01 2.530409e+01 1.977520e+01 3.792269e+00 7.754953e+00 6.056632e+00 5.665618e+00 6.574710e+00 4.337104e+00 3.919651e+00 4.662485e+00 4.387866e+00 4.727697e+00 4.182649e+00 3.683810e+00 3.291855e+00
<GCONST> 1.070404e+02
<STATE> 4
<MEAN> 25
 6.690119e+00 -5.611206e+00 -6.063180e+00 -7.543620e-01 -1.542516e+00 -1.622336e+00 -5.279713e+00 1.681889e-01 2.861509e+00 4.522147e-02 -1.061345e+00 -2.666691e+00 2.693770e+00 -1.454201e+00 1.187804e-01 -2.303589e+00 -6.015796e-01 -2.400867e-01 -4.298635e-01 5.112658e-01 -6.871902e-01 1.212484e-01 -2.509049e+00 -1.166105e+00 3.159692e+00
<VARIANCE> 25
 2.935274e+01 5.351250e+01 4.983297e+01 7.008894e+01 7.385996e+01 3.937691e+01 3.448035e+01 3.085579e+01 3.708109e+01 4.603965e+01 4.130550e+01 3.486033e+01 3.494711e+00 6.906416e+00 5.449141e+00 6.164552e+00 7.418724e+00 4.530230e+00 4.310568e+00 5.504808e+00 4.879932e+00 4.566982e+00 5.043753e+00 3.731297e+00 2.899387e+00
<GCONST> 1.116075e+02
<TRANSP> 5
 0.000000e+00 1.000000e+00 0.000000e+00 0.000000e+00 0.000000e+00
 0.000000e+00 6.838117e-01 3.161883e-01 0.000000e+00 0.000000e+00
 0.000000e+00 0.000000e+00 4.237872e-01 5.762128e-01 0.000000e+00
 0.000000e+00 0.000000e+00 0.000000e+00 4.177054e-01 5.822946e-01
 0.000000e+00 0.000000e+00 0.000000e+00 0.000000e+00 0.000000e+00
<ENDHMM>
~h "r"
<BEGINHMM>
<NUMSTATES> 5
<STATE> 2
<MEAN> 25
 6.283340e+00 -9.874584e+00 -3.979643e-01 -2.106413e+00 -6.580390e-01 -4.467813e+00 7.896178e-01 5.462014e+00 -6.382222e-01 -2.036209e+00 -5.657352e+00 -8.271156e-03 3.766411e-01 -6.238366e-01 6.390676e-01 2.007461e-02 -1.224045e+00 -6.871979e-01 2.891660e-02 6.429151e-01 -1.109666e-01 -3.232284e-01 6.743746e-02 1.243662e-01 5.221438e-01
<VARIANCE> 25
 1.577891e+01 4.743440e+01 3.900846e+01 4.962752e+01 6.074020e+01 3.516323e+01 6.684458e+01 4.645897e+01 3.875853e+01 3.691365e+01 4.774409e+01 2.314330e+01 1.682941e+00 3.118052e+00 3.176257e+00 3.862173e+00 4.066093e+00 2.874355e+00 3.603911e+00 3.494747e+00 3.452692e+00 3.953340e+00 3.853304e+00 2.160842e+00 2.029922e+00
<GCONST> 1.047119e+02
<STATE> 3
<MEAN> 25
 6.806917e+00 -1.148038e+01 1.271231e+00 -2.609095e+00 -3.530710e+00 -6.015453e+00 1.449171e+00 7.516851e+00 -1.141265e+00 -2.137017e+00 -4.963415e+00 5.503984e-01 3.897494e-02 4.085343e-01 5.064207e-01 5.864263e-01 -1.005901e+00 -2.012597e-01 -6.342254e-01 -1.691620e-01 5.082314e-02 -2.343062e-01 7.227929e-01 7.677819e-02 -4.170952e-01
<VARIANCE> 25
 7.275880e+00 3.141627e+01 2.768151e+01 3.686029e+01 3.667875e+01 2.625197e+01 5.110639e+01 3.455261e+01 3.302786e+01 2.914653e+01 3.182319e+01 1.974687e+01 4.486232e-01 2.118053e+00 1.873963e+00 3.065100e+00 3.771131e+00 2.369799e+00 4.351423e+00 2.499169e+00 2.625274e+00 2.914109e+00 3.340072e+00 1.634498e+00 1.102697e+00
<GCONST> 9.606947e+01
<STATE> 4
<MEAN> 25
 6.542606e+00 -7.194075e+00 1.270883e+00 2.040212e+00 -5.870080e+00 -6.914298e+00 -1.330639e+00 4.293203e+00 -4.937893e-01 -3.697122e+00 -2.733670e+00 5.791615e-01 -2.705485e-01 1.248868e+00 -2.700641e-01 8.307750e-01 1.802085e-01 1.899782e-01 -2.704106e-01 -7.191492e-01 1.417902e-01 -2.742592e-01 3.502948e-01 -1.694737e-01 -1.063839e+00
<VARIANCE> 25
 8.074712e+00 3.369571e+01 2.939460e+01 3.749401e+01 2.975881e+01 2.991262e+01 4.219736e+01 3.186496e+01 3.625117e+01 3.015773e+01 2.704099e+01 2.206017e+01 6.202332e-01 2.295309e+00 1.826248e+00 2.932652e+00 2.960664e+00 2.509453e+00 3.268108e+00 2.889335e+00 2.562342e+00 2.551612e+00 2.771471e+00 1.864316e+00 1.271941e+00
<GCONST> 9.598388e+01
<TRANSP> 5
 0.000000e+00 1.000000e+00 0.000000e+00 0.000000e+00 0.000000e+00
 0.000000e+00 3.483406e-01 6.516594e-01 0.000000e+00 0.000000e+00
 0.000000e+00 0.000000e+00 5.107279e-01 4.892721e-01 0.000000e+00
 0.000000e+00 0.000000e+00 0.000000e+00 6.913052e-01 3.086949e-01
 0.000000e+00 0.000000e+00 0.000000e+00 0.000000e+00 0.000000e+00
<ENDHMM>
~h "s"
<BEGINHMM>
<NUMSTATES> 5
<STATE> 2
<MEAN> 25
 -5.511083e+00 5.529305e+00 -2.383209e+00 4.379976e+00 -7.596147e-01 -7.266328e+00 3.178415e+00 -5.386891e+00 2.702521e-01 -4.051826e+00 2.719543e+00 -6.544532e-01 -2.485820e+00 1.573135e+00 -1.333060e+00 1.245513e+00 3.605607e-01 4.237496e-02 7.404537e-01 -6.363293e-02 1.064860e+00 -4.305755e-01 1.636015e+00 -5.187097e-01 -8.186132e-01
<VARIANCE> 25
 3.751101e+01 3.927792e+01 5.010875e+01 3.597013e+01 6.883897e+01 4.408574e+01 4.490414e+01 6.608089e+01 3.826965e+01 4.522577e+01 3.829647e+01 2.865620e+01 2.428753e+00 2.843866e+00 2.744757e+00 3.186954e+00 2.810294e+00 3.226785e+00 3.887067e+00 3.592814e+00 3.351212e+00 3.228468e+00 3.644510e+00 2.707412e+00 7.650530e-01
<GCONST> 1.045549e+02
<STATE> 3
<MEAN> 25
 -1.281582e+01 6.847083e+00 -6.078876e+00 6.824029e+00 2.026599e+00 -4.178012e+00 5.135495e+00 -2.038332e+00 4.438923e+00 -2.375650e+00 7.753218e+00 -2.141665e-01 -3.471498e-01 -6.928908e-01 1.181643e-01 -1.821141e-02 3.379063e-01 3.651582e-01 4.047619e-01 3.104511e-01 2.501906e-01 2.586784e-01 4.696015e-01 3.582228e-01 -2.886349e-01
<VARIANCE> 25
 2.121173e+01 2.930300e+01 3.874688e+01 3.241651e+01 4.909860e+01 3.903051e+01 3.965642e+01 4.743542e+01 3.422477e+01 3.951735e+01 3.023977e+01 2.460566e+01 1.327765e+00 2.730202e+00 1.956405e+00 1.820633e+00 2.545400e+00 2.431304e+00 3.125600e+00 3.351471e+00 2.720992e+00 2.725466e+00 2.527223e+00 1.973145e+00 1.146517e+00
<GCONST> 9.891153e+01
<STATE> 4
<MEAN> 25
 -5.885377e+00 -3.719220e-01 -4.066049e+00 3.450494e+00 1.072306e+00 -5.414363e+00 6.760207e+00 -1.499191e+00 3.449160e+00 -3.493866e+00 4.644148e+00 1.798784e+00 4.349651e+00 -1.941030e+00 4.231140e-01 -1.979128e+00 -9.381839e-01 -5.106398e-01 -9.561986e-01 8.023624e-03 -9.661183e-01 -3.431330e-01 -3.338710e+00 -3.377347e-02 2.385672e+00
<VARIANCE> 25
 8.762820e+01 4.419286e+01 4.981637e+01 4.249937e+01 7.103042e+01 4.355714e+01 4.381406e+01 4.382683e+01 3.226442e+01 4.859903e+01 7.262070e+01 2.464024e+01 4.998116e+00 5.470719e+00 5.040771e+00 3.590220e+00 6.371107e+00 4.282204e+00 5.302940e+00 5.393549e+00 4.035125e+00 4.588867e+00 6.976661e+00 3.073212e+00 2.786721e+00
<GCONST> 1.121838e+02
<TRANSP> 5
 0.000000e+00 1.000000e+00 0.000000e+00 0.000000e+00 0.000000e+00
 0.000000e+00 7.613195e-01 2.386805e-01 0.000000e+00 0.000000e+00
 0.000000e+00 0.000000e+00 8.363673e-01 1.636327e-01 0.000000e+00
 0.000000e+00 0.000000e+00 0.000000e+00 6.803877e-01 3.196124e-01
 0.000000e+00 0.000000e+00 0.000000e+00 0.000000e+00 0.000000e+00
<ENDHMM>
~h "t"
<BEGINHMM>
<NUMSTATES> 5
<STATE> 2
<MEAN> 25
 -3.931976e+00 4.713116e+00 -2.853610e+00 5.229869e+00 -7.217025e-01 -2.396308e+00 -6.684414e-01 2.933557e+00 3.454514e+00 8.479755e-02 5.360878e+00 8.675556e-01 -8.074137e-01 -1.015176e+00 -3.992350e-01 -1.468395e-01 4.058848e-01 5.588442e-01 4.857879e-01 5.490667e-02 4.376291e-01 1.369649e-01 9.393920e-01 2.057612e-01 4.656724e-02
<VARIANCE> 25
 1.666098e+01 2.123504e+01 2.660596e+01 1.739881e+01 3.377014e+01 3.089414e+01 2.662774e+01 3.499933e+01 2.353368e+01 2.763555e+01 2.442347e+01 1.622160e+01 9.538773e-01 3.970536e+00 1.985734e+00 1.871789e+00 2.590158e+00 2.489708e+00 2.847414e+00 3.167907e+00 2.454445e+00 2.573143e+00 2.711108e+00 1.908957e+00 2.687863e+00
<GCONST> 9.538365e+01
<STATE> 3
<MEAN> 25
 -4.531634e+00 -4.412030e+00 -5.196105e+00 3.007400e+00 2.800858e-02 -1.047206e+00 3.633143e+00 1.158062e+00 4.724760e+00 -8.682249e-01 9.096938e+00 2.485217e+00 1.298065e+00 -2.716281e+00 -4.153243e-02 -1.536427e+00 -5.413446e-01 -5.936092e-01 1.225565e+00 -1.086725e+00 -6.425635e-02 -4.997648e-01 -4.591582e-01 3.732641e-02 3.636222e+00
<VARIANCE> 25
 1.683144e+01 5.295364e+01 3.107356e+01 3.195524e+01 3.758387e+01 4.451532e+01 4.126510e+01 4.320652e+01 3.473103e+01 3.751700e+01 4.100199e+01 2.452227e+01 4.289737e+00 5.303803e+00 4.324690e+00 4.217666e+00 5.453871e+00 6.615943e+00 6.009803e+00 8.501631e+00 4.779314e+00 4.659250e+00 9.656202e+00 3.467112e+00 4.638960e+00
<GCONST> 1.103306e+02
<STATE> 4
<MEAN> 25
 5.838801e-01 -5.157367e+00 -2.849574e+00 -4.948875e-01 -2.700304e+00 -3.980225e+00 3.647526e+00 -2.080339e+00 2.532151e+00 -1.738047e+00 3.312544e+00 5.609996e-01 2.494035e+00 -3.537212e-01 1.615185e+00 -2.168728e+00 -5.946184e-01 -5.800890e-01 -1.043812e+00 -5.724803e-01 -1.310078e+00 3.045555e-01 -3.698275e+00 -5.333539e-01 2.639153e+00
<VARIANCE> 25
 4.224166e+01 5.055740e+01 3.547605e+01 4.433826e+01 4.946410e+01 6.212216e+01 5.816611e+01 6.194946e+01 3.907834e+01 3.927863e+01 9.232126e+01 2.710929e+01 3.422688e+00 5.552788e+00 6.400754e+00 4.970704e+00 6.696680e+00 5.048716e+00 5.968000e+00 9.086524e+00 4.626623e+00 4.764023e+00 8.194353e+00 3.211397e+00 3.651762e+00
<GCONST> 1.139325e+02
<TRANSP> 5
 0.000000e+00 1.000000e+00 0.000000e+00 0.000000e+00 0.000000e+00
 0.000000e+00 7.393324e-01 2.606677e-01 0.000000e+00 0.000000e+00
 0.000000e+00 0.000000e+00 4.254698e-01 5.745302e-01 0.000000e+00
 0.000000e+00 0.000000e+00 0.000000e+00 3.649076e-01 6.350924e-01
 0.000000e+00 0.000000e+00 0.000000e+00 0.000000e+00 0.000000e+00
<ENDHMM>
~h "u"
<BEGINHMM>
<NUMSTATES> 5
<STATE> 2
<MEAN> 25
 6.206130e+00 3.569903e+00 -6.739539e+00 -6.240452e+00 2.765343e+00 -2.236942e-01 -3.364827e+00 -4.124181e+00 -2.884125e+00 3.237439e+00 1.583122e+00 7.943271e-01 2.143082e+00 5.297859e-01 -1.181204e+00 -2.636742e+00 6.519741e-01 8.188999e-01 -9.039764e-01 -1.189905e+00 -1.788804e+00 1.279225e+00 -2.942072e-01 -2.046813e-01 1.280521e+00
<VARIANCE> 25
 3.996422e+01 4.692744e+01 3.398328e+01 8.625777e+01 4.598177e+01 4.946303e+01 5.412023e+01 4.170971e+01 5.930996e+01 5.301107e+01 4.103096e+01 3.317207e+01 3.998958e+00 3.843808e+00 3.475537e+00 6.180315e+00 5.368924e+00 4.106121e+00 5.657137e+00 3.939830e+00 6.159781e+00 4.547681e+00 4.689927e+00 3.165163e+00 3.621391e+00
<GCONST> 1.115014e+02
<STATE> 3
<MEAN> 25
 1.011698e+01 3.906810e+00 -8.787903e+00 -1.030350e+01 5.180302e+00 1.579347e+00 -5.339253e+00 -5.894127e+00 -5.716818e+00 5.205762e+00 -1.178720e+00 -1.098779e+00 -1.707123e-01 -4.385614e-02 3.518519e-01 1.140375e+00 -9.332163e-02 -2.749572e-01 -3.686312e-01 2.727216e-01 5.974742e-01 -5.265284e-01 -4.105090e-01 -3.750131e-01 -3.035063e-01
<VARIANCE> 25
 6.434203e+00 3.363040e+01 2.622807e+01 4.923793e+01 4.144037e+01 4.503910e+01 5.544630e+01 2.614030e+01 5.390482e+01 5.413438e+01 3.909861e+01 3.567876e+01 5.890602e-01 2.691566e+00 1.645962e+00 4.107759e+00 2.764164e+00 3.475782e+00 3.491057e+00 2.576934e+00 4.164676e+00 4.135632e+00 3.606351e+00 2.882468e+00 1.141024e+00
<GCONST> 1.006685e+02
<STATE> 4
<MEAN> 25
 3.618381e+00 6.574520e+00 -4.920012e+00 1.103660e-01 1.832851e+00 -5.103512e-01 -4.725780e+00 -2.285292e+00 -3.354449e-01 6.519818e-02 1.922090e+00 -1.084141e+00 -9.359865e-01 1.812936e-03 6.405019e-01 1.111062e+00 -3.471127e-01 -1.003684e-01 3.531972e-01 4.450542e-01 4.822234e-01 -4.739978e-01 3.588275e-01 1.021171e-01 -7.639660e-01
<VARIANCE> 25
 4.149905e+01 3.278233e+01 2.382870e+01 3.516732e+01 3.035071e+01 3.274546e+01 3.970390e+01 2.983407e+01 3.586204e+01 3.768085e+01 4.024419e+01 2.328903e+01 9.983595e-01 1.419381e+00 1.837895e+00 2.414633e+00 2.121892e+00 2.240587e+00 2.214990e+00 2.121306e+00 2.334782e+00 2.994970e+00 2.565143e+00 1.924922e+00 9.295297e-01
<GCONST> 9.633771e+01
<TRANSP> 5
 0.000000e+00 1.000000e+00 0.000000e+00 0.000000e+00 0.000000e+00
 0.000000e+00 6.443149e-01 3.556851e-01 0.000000e+00 0.000000e+00
 0.000000e+00 0.000000e+00 7.652895e-01 2.347105e-01 0.000000e+00
 0.000000e+00 0.000000e+00 0.000000e+00 7.415470e-01 2.584530e-01
 0.000000e+00 0.000000e+00 0.000000e+00 0.000000e+00 0.000000e+00
<ENDHMM>
~h "v"
<BEGINHMM>
<NUMSTATES> 5
<STATE> 2
<MEAN> 25
 5.372241e+00 9.729273e-01 -2.021602e+00 1.961335e+00 3.785956e-01 -2.687827e+00 -4.235678e+00 -1.725054e+00 -6.114174e-01 1.260078e+00 -6.434684e-01 -3.736127e+00 1.193500e+00 6.547616e-01 -1.027119e+00 1.245781e-01 3.441334e-01 4.283202e-02 -1.052061e+00 -9.359314e-01 4.492497e-02 2.513415e-01 -4.793539e-02 -9.547192e-01 2.066238e-01
<VARIANCE> 25
 3.151377e+01 4.676564e+01 4.083347e+01 4.862633e+01 3.715321e+01 3.414592e+01 3.883428e+01 3.640300e+01 3.617208e+01 3.358243e+01 3.599681e+01 2.295233e+01 3.536887e+00 2.885595e+00 3.274843e+00 3.588806e+00 3.429110e+00 3.288407e+00 3.075917e+00 2.957841e+00 3.872653e+00 3.484543e+00 3.297609e+00 2.387257e+00 3.245072e+00
<GCONST> 1.043155e+02
<STATE> 3
<MEAN> 25
 8.858979e+00 2.039176e+00 -6.727281e+00 -5.289637e-01 3.275007e+00 -3.740809e-01 -6.871068e+00 -4.347160e+00 -3.048167e-01 3.119806e+00 -3.788527e-01 -5.654001e+00 2.370057e-01 -3.123560e-01 -5.774508e-01 -3.484252e-01 3.598268e-01 3.983607e-01 -3.289355e-02 2.523426e-01 3.253725e-01 2.173038e-01 -2.767721e-01 -3.893752e-01 2.181704e-01
<VARIANCE> 25
 8.893970e+00 2.796096e+01 4.005565e+01 4.938714e+01 3.227243e+01 3.211865e+01 2.450823e+01 2.407815e+01 3.557459e+01 4.077501e+01 3.018505e+01 1.891288e+01 8.936629e-01 3.519323e+00 2.606407e+00 3.522782e+00 2.341513e+00 2.422035e+00 1.828207e+00 2.558758e+00 2.387373e+00 3.135770e+00 3.255479e+00 2.086988e+00 1.772504e+00
<GCONST> 9.714677e+01
<STATE> 4
<MEAN> 25
 8.191186e+00 -1.363806e+00 -4.738675e+00 -6.199310e-01 2.384513e+00 -1.443515e+00 -5.085749e+00 -4.923491e-01 1.274024e+00 1.819088e+00 -3.732559e+00 -5.344229e+00 -3.238511e-01 -1.552413e+00 9.386779e-01 -3.610286e-01 -5.444252e-01 -1.391390e-01 1.149290e+00 1.013815e+00 -3.523875e-01 -2.109450e-01 -6.880877e-01 5.101511e-01 8.614713e-01
<VARIANCE> 25
 1.201987e+01 4.656474e+01 6.449816e+01 6.036642e+01 5.003610e+01 4.026255e+01 2.866015e+01 2.753424e+01 3.277071e+01 4.366132e+01 3.458314e+01 2.408180e+01 5.158550e-01 3.473252e+00 2.174097e+00 2.908520e+00 3.310630e+00 2.547593e+00 2.502262e+00 3.543769e+00 2.825897e+00 3.476930e+00 3.436244e+00 2.148712e+00 1.463612e+00
<GCONST> 1.002186e+02
<TRANSP> 5
 0.000000e+00 1.000000e+00 0.000000e+00 0.000000e+00 0.000000e+00
 0.000000e+00 5.659609e-01 4.340391e-01 0.000000e+00 0.000000e+00
 0.000000e+00 0.000000e+00 6.363122e-01 3.636877e-01 0.000000e+00
 0.000000e+00 0.000000e+00 0.000000e+00 6.279207e-01 3.720792e-01
 0.000000e+00 0.000000e+00 0.000000e+00 0.000000e+00 0.000000e+00
<ENDHMM>
~h "y"
<BEGINHMM>
<NUMSTATES> 5
<STATE> 2
<MEAN> 25
 2.490541e+00 1.703961e+00 9.620889e+00 -6.585510e+00 -6.056094e+00 -6.492914e-01 -3.270176e-01 -4.053851e+00 -2.340305e+00 2.161633e+00 -3.472035e+00 -5.374705e-01 6.604091e-01 -9.028770e-01 1.382314e+00 -1.788479e+00 -1.059682e+00 -9.421059e-02 2.221618e-01 -5.107794e-01 -8.490230e-01 1.247009e+00 -1.067348e+00 -2.139910e-01 1.464656e+00
<VARIANCE> 25
 2.338802e+01 7.172520e+01 4.269831e+01 6.792070e+01 5.657214e+01 4.106060e+01 4.872903e+01 4.687080e+01 3.964759e+01 3.951295e+01 5.135575e+01 2.378077e+01 3.181652e+00 5.064466e+00 3.953761e+00 5.293820e+00 4.649005e+00 3.876801e+00 4.504926e+00 4.901970e+00 3.879148e+00 4.512646e+00 5.457632e+00 2.355904e+00 2.090956e+00
<GCONST> 1.092544e+02
<STATE> 3
<MEAN> 25
 3.144960e+00 -2.920255e+00 1.292499e+01 -1.178651e+01 -7.228281e+00 -8.351020e-01 1.342850e+00 -4.536195e+00 -3.834374e+00 5.407458e+00 -6.359155e+00 -4.387447e-01 4.144389e-02 -9.428645e-01 -2.218682e-01 7.007328e-02 -4.468079e-02 -3.532874e-01 6.291038e-01 5.710505e-01 -2.282591e-01 2.440791e-01 7.313643e-02 -9.672166e-03 4.252256e-01
<VARIANCE> 25
 5.843893e+00 5.107858e+01 2.296074e+01 2.772258e+01 4.047429e+01 3.489607e+01 4.045561e+01 2.851912e+01 2.561862e+01 3.300529e+01 2.791877e+01 1.907677e+01 3.493601e-01 2.872040e+00 2.120030e+00 2.182132e+00 2.202437e+00 2.712269e+00 2.866807e+00 3.516533e+00 1.960208e+00 2.694834e+00 2.197096e+00 1.522108e+00 7.219817e-01
<GCONST> 9.360229e+01
<STATE> 4
<MEAN> 25
 4.095397e+00 -8.050786e+00 8.109601e+00 -7.969214e+00 -7.234489e+00 -3.512602e+00 4.819354e+00 -3.921090e-01 -5.402561e+00 3.193917e+00 -5.133096e+00 -4.516229e-01 1.961980e-01 -5.619198e-02 -1.279436e+00 1.079325e+00 7.472770e-01 -1.229136e-01 -2.755100e-01 5.878399e-01 1.031863e-01 -1.010215e+00 8.375812e-02 1.864368e-01 -3.842765e-01
<VARIANCE> 25
 7.533821e+00 3.382532e+01 2.502436e+01 3.071275e+01 3.610335e+01 3.712266e+01 3.420764e+01 4.619421e+01 2.755658e+01 3.988411e+01 2.547619e+01 1.912073e+01 3.930599e-01 2.243544e+00 2.320451e+00 2.038838e+00 2.999534e+00 2.327135e+00 2.466430e+00 3.554051e+00 2.156875e+00 3.486330e+00 1.868291e+00 1.609532e+00 8.946212e-01
<GCONST> 9.443819e+01
<TRANSP> 5
 0.000000e+00 1.000000e+00 0.000000e+00 0.000000e+00 0.000000e+00
 0.000000e+00 5.836196e-01 4.163804e-01 0.000000e+00 0.000000e+00
 0.000000e+00 0.000000e+00 7.261437e-01 2.738563e-01 0.000000e+00
 0.000000e+00 0.000000e+00 0.000000e+00 7.625757e-01 2.374243e-01
 0.000000e+00 0.000000e+00 0.000000e+00 0.000000e+00 0.000000e+00
<ENDHMM>
~h "aa"
<BEGINHMM>
<NUMSTATES> 5
<STATE> 2
<MEAN> 25
 6.457750e+00 -1.244331e+01 -6.397366e+00 -2.257975e+00 7.715806e+00 2.111577e+00 1.329090e+00 4.317393e+00 -2.347558e+00 -4.023105e+00 -6.823580e+00 -1.409603e+00 5.127557e-01 -1.594188e+00 -8.766737e-01 -1.875526e-02 2.100763e+00 1.792936e+00 -1.751294e-01 1.945755e-01 -1.053442e+00 -9.270753e-02 -4.669083e-01 -3.552290e-01 8.963890e-01
<VARIANCE> 25
 1.608336e+01 3.219646e+01 3.169279e+01 3.838890e+01 4.770191e+01 4.368857e+01 3.721113e+01 3.651594e+01 3.371658e+01 4.265327e+01 3.557979e+01 3.414797e+01 1.560348e+00 2.767420e+00 2.678893e+00 2.916144e+00 3.881117e+00 2.839917e+00 3.265059e+00 3.418536e+00 2.807430e+00 2.893253e+00 3.179392e+00 2.550941e+00 2.145679e+00
<GCONST> 1.018126e+02
<STATE> 3
<MEAN> 25
 8.069249e+00 -1.376820e+01 -9.173675e+00 -8.499563e-01 1.207411e+01 7.810547e+00 -7.032906e-01 1.851518e+00 -4.413610e+00 -2.840660e+00 -5.266794e+00 -3.167466e+00 5.465257e-03 -1.816049e-02 1.216327e-02 2.150995e-01 -1.618881e-01 -7.694763e-02 6.396706e-02 8.688068e-02 -1.435169e-01 -1.991545e-01 8.208299e-02 1.219135e-01 -8.623118e-02
<VARIANCE> 25
 5.660114e+00 2.639756e+01 2.469111e+01 3.080315e+01 2.484749e+01 2.772325e+01 3.191251e+01 2.963049e+01 2.514021e+01 3.599178e+01 3.172505e+01 2.686120e+01 2.077375e-01 7.961190e-01 9.441924e-01 1.158076e+00 1.656078e+00 1.960699e+00 1.721003e+00 1.859497e+00 1.440585e+00 1.515356e+00 1.484583e+00 1.439331e+00 2.579953e-01
<GCONST> 8.534611e+01
<STATE> 4
<MEAN> 25
 5.814919e+00 -9.172784e+00 -7.445024e+00 8.428810e-01 5.179452e+00 1.043414e+00 2.917114e+00 4.438004e+00 -2.844784e+00 -4.336806e+00 -5.123539e+00 -4.252716e-01 -5.340856e-01 1.308279e+00 5.336336e-01 4.358019e-01 -1.152428e+00 -8.248422e-01 3.484274e-01 -6.646819e-02 4.616801e-01 -3.158020e-02 4.878303e-01 2.735070e-01 -1.096841e+00
<VARIANCE> 25
 1.732689e+01 4.617248e+01 3.829623e+01 4.023534e+01 4.255326e+01 4.934164e+01 4.535110e+01 3.316743e+01 3.615636e+01 3.786081e+01 3.708796e+01 3.269002e+01 5.994383e-01 1.526680e+00 2.096723e+00 2.050410e+00 2.677574e+00 3.450810e+00 2.611141e+00 2.621011e+00 2.137858e+00 2.383229e+00 1.975673e+00 1.981679e+00 8.742159e-01
<GCONST> 9.763462e+01
<TRANSP> 5
 0.000000e+00 1.000000e+00 0.000000e+00 0.000000e+00 0.000000e+00
 0.000000e+00 6.449206e-01 3.550794e-01 0.000000e+00 0.000000e+00
 0.000000e+00 0.000000e+00 8.456842e-01 1.543158e-01 0.000000e+00
 0.000000e+00 0.000000e+00 0.000000e+00 7.983860e-01 2.016140e-01
 0.000000e+00 0.000000e+00 0.000000e+00 0.000000e+00 0.000000e+00
<ENDHMM>
~h "ai"
<BEGINHMM>
<NUMSTATES> 5
<STATE> 2
<MEAN> 25
 9.395863e-01 3.411026e+00 3.985284e+00 1.086863e+00 -9.223588e+00 2.402741e+00 7.965337e+00 -1.644028e+00 -1.649734e+00 1.397307e+00 -4.344014e-02 -3.490728e+00 -1.198556e+00 3.268774e-01 -7.742711e-01 1.225101e+00 1.600022e+00 -3.236461e-01 -7.028270e-01 8.073462e-01 3.656634e-01 -5.022863e-01 8.036221e-01 2.282211e-01 -1.302389e+00
<VARIANCE> 25
 1.805428e+01 5.665959e+01 2.225419e+01 4.434119e+01 3.836835e+01 3.001224e+01 4.072518e+01 2.548924e+01 2.875096e+01 3.180898e+01 2.821259e+01 1.920265e+01 8.921562e-01 1.487813e+00 1.305695e+00 1.737335e+00 2.559766e+00 1.838174e+00 2.322461e+00 2.181388e+00 2.075952e+00 1.862280e+00 2.049214e+00 1.828201e+00 5.458941e-01
<GCONST> 9.322025e+01
<STATE> 3
<MEAN> 25
 -2.882164e+00 2.997306e+00 7.377641e-01 3.857000e+00 -3.027899e+00 1.266065e+00 4.115721e+00 9.443414e-01 -9.160799e-01 -1.022286e+00 2.732839e+00 -1.136689e+00 -8.821186e-01 -8.939743e-04 -8.439769e-01 2.990666e-01 1.188963e+00 -3.253231e-01 -9.168681e-01 5.987949e-01 6.398085e-01 -3.060082e-02 6.920271e-01 5.361034e-01 -8.817536e-01
<VARIANCE> 25
 2.079959e+01 4.872154e+01 3.002347e+01 4.843105e+01 3.471913e+01 2.698367e+01 2.814814e+01 2.543756e+01 3.131955e+01 2.787094e+01 3.644722e+01 1.998011e+01 5.091335e-01 1.082298e+00 1.072897e+00 1.412676e+00 1.897761e+00 1.910746e+00 2.269172e+00 1.880155e+00 2.142329e+00 2.265878e+00 1.759257e+00 1.915848e+00 2.213691e-01
<GCONST> 9.077457e+01
<STATE> 4
<MEAN> 25
 -6.536693e+00 4.002396e+00 -1.886830e+00 5.472876e+00 1.001160e+00 1.655376e+00 8.474293e-01 3.495171e+00 3.131978e+00 1.479166e+00 6.072922e+00 6.326911e-01 -2.314158e-01 7.731152e-02 -1.492324e-01 6.534134e-02 3.420976e-01 1.907567e-02 -3.115090e-01 8.810443e-02 2.616387e-01 7.403445e-02 1.469931e-01 1.043611e-01 -2.692138e-01
<VARIANCE> 25
 1.257880e+01 2.163291e+01 1.591249e+01 2.244441e+01 2.395600e+01 1.813384e+01 1.842673e+01 1.856409e+01 2.167130e+01 1.824255e+01 2.896654e+01 1.548987e+01 2.413608e-01 4.845011e-01 6.298996e-01 8.668382e-01 1.270844e+00 1.220228e+00 1.495244e+00 1.316346e+00 1.396389e+00 1.531639e+00 1.400729e+00 1.312449e+00 1.457230e-01
<GCONST> 7.923415e+01
<TRANSP> 5
 0.000000e+00 1.000000e+00 0.000000e+00 0.000000e+00 0.000000e+00
 0.000000e+00 7.306516e-01 2.693484e-01 0.000000e+00 0.000000e+00
 0.000000e+00 0.000000e+00 3.805050e-01 6.194949e-01 0.000000e+00
 0.000000e+00 0.000000e+00 0.000000e+00 7.769319e-01 2.230680e-01
 0.000000e+00 0.000000e+00 0.000000e+00 0.000000e+00 0.000000e+00
<ENDHMM>
~h "au"
<BEGINHMM>
<NUMSTATES> 5
<STATE> 2
<MEAN> 25
 -1.505682e+00 1.507613e+00 -6.901497e+00 -1.836970e+00 5.482800e+00 2.794081e+00 -1.963783e+00 8.966046e-01 1.735586e+00 2.575422e+00 4.115704e+00 5.670118e-01 1.695399e+00 -7.950441e-01 -1.938503e+00 -3.655884e+00 2.116541e+00 2.317813e+00 -2.664767e-01 3.759924e-01 -1.428478e+00 9.864709e-01 2.384292e-01 -5.086300e-01 1.749090e+00
<VARIANCE> 25
 3.924157e+01 3.416750e+01 5.108924e+01 8.294229e+01 4.448883e+01 6.751125e+01 4.068145e+01 3.630309e+01 4.366284e+01 4.468261e+01 4.017719e+01 3.037731e+01 3.943909e+00 3.252015e+00 5.723876e+00 1.140098e+01 5.232331e+00 5.094386e+00 3.951574e+00 4.119845e+00 5.089261e+00 4.559616e+00 3.723412e+00 2.690383e+00 4.619278e+00
<GCONST> 1.112696e+02
<STATE> 3
<MEAN> 25
 7.504920e+00 -1.965039e+00 -1.109915e+01 -1.983430e+01 1.132292e+01 1.029889e+01 -4.764467e+00 2.571582e+00 -5.389713e+00 4.977251e+00 3.672753e+00 -1.819358e+00 1.495478e+00 -6.874374e-01 3.719832e-01 -3.136940e+00 6.284053e-01 1.463147e+00 -7.098770e-01 4.979686e-01 -1.024568e+00 5.357767e-01 -5.863030e-01 -6.699079e-01 2.179323e+00
<VARIANCE> 25
 1.703238e+01 3.536818e+01 3.157786e+01 7.491695e+01 3.336588e+01 4.273013e+01 3.690696e+01 3.260019e+01 4.408894e+01 4.363877e+01 2.992818e+01 2.516679e+01 2.532721e+00 3.255145e+00 3.577274e+00 7.721499e+00 2.771564e+00 3.041193e+00 3.173601e+00 2.969291e+00 3.632965e+00 3.336634e+00 3.390546e+00 1.819739e+00 4.896446e+00
<GCONST> 1.043645e+02
<STATE> 4
<MEAN> 25
 9.260383e+00 -5.786655e+00 -8.470410e+00 -1.776402e+01 9.597246e+00 9.675493e+00 -4.380456e+00 3.097830e+00 -4.012300e+00 4.967251e+00 -1.641050e+00 -5.430302e+00 -1.017771e-01 -5.024225e-01 3.148085e-01 1.327843e+00 -3.968248e-01 -1.205022e+00 -2.252362e-02 2.106752e-01 5.392394e-01 -2.178469e-01 -8.692387e-01 -2.487127e-01 3.359207e-02
<VARIANCE> 25
 5.915106e+00 3.412936e+01 2.264323e+01 5.925497e+01 2.110314e+01 5.510444e+01 2.463050e+01 2.160994e+01 3.977272e+01 3.961462e+01 3.433617e+01 2.829184e+01 2.909312e-01 1.541667e+00 1.039676e+00 2.442313e+00 1.458779e+00 4.243072e+00 1.403958e+00 1.894512e+00 1.920867e+00 2.163179e+00 2.034413e+00 2.084031e+00 5.357810e-01
<GCONST> 9.120928e+01
<TRANSP> 5
 0.000000e+00 1.000000e+00 0.000000e+00 0.000000e+00 0.000000e+00
 0.000000e+00 6.918252e-01 3.081748e-01 0.000000e+00 0.000000e+00
 0.000000e+00 0.000000e+00 6.527041e-01 3.472959e-01 0.000000e+00
 0.000000e+00 0.000000e+00 0.000000e+00 9.044987e-01 9.550132e-02
 0.000000e+00 0.000000e+00 0.000000e+00 0.000000e+00 0.000000e+00
<ENDHMM>
~h "bh"
<BEGINHMM>
<NUMSTATES> 5
<STATE> 2
<MEAN> 25
 3.668429e+00 4.840969e+00 1.131407e+00 5.230927e+00 -1.173489e+00 -1.471164e+00 -2.048621e+00 -3.881262e+00 -3.002149e+00 -1.191548e+00 -1.486702e+00 -3.890143e+00 1.236168e+00 9.967416e-01 1.010680e-01 1.009612e+00 -4.771670e-01 -2.736403e-01 -1.776317e-01 -1.303152e+00 -5.907544e-01 -5.135195e-01 -7.997658e-01 -1.272290e+00 2.689037e-01
<VARIANCE> 25
 3.648426e+01 6.018172e+01 3.676663e+01 3.010198e+01 4.449530e+01 2.744926e+01 3.753332e+01 4.718650e+01 3.997349e+01 5.148632e+01 3.872331e+01 2.695192e+01 4.517842e+00 5.508782e+00 2.559760e+00 3.823074e+00 3.723338e+00 3.105084e+00 3.321084e+00 5.533408e+00 4.247790e+00 3.385009e+00 4.388917e+00 3.280853e+00 4.605923e+00
<GCONST> 1.075318e+02
<STATE> 3
<MEAN> 25
 6.777803e+00 7.842592e+00 9.225711e-01 6.564717e+00 -2.047351e+00 -1.860400e+00 -1.953633e+00 -5.115842e+00 -3.323125e+00 -3.259561e+00 -3.588444e+00 -6.933193e+00 -2.146972e-01 3.137794e-01 -2.155408e-01 3.770934e-01 7.207779e-01 1.488011e-01 -9.216707e-02 5.358767e-01 6.677411e-01 -2.871714e-01 5.019441e-01 2.366027e-01 -3.546066e-01
<VARIANCE> 25
 7.243118e+00 4.035583e+01 3.137921e+01 2.171486e+01 3.837190e+01 2.472958e+01 2.747176e+01 4.133759e+01 3.126103e+01 3.791958e+01 2.450903e+01 2.174005e+01 7.591115e-01 4.731457e+00 2.318251e+00 2.588495e+00 2.430303e+00 2.005204e+00 2.239342e+00 2.741611e+00 2.316937e+00 2.579709e+00 2.233575e+00 2.487904e+00 1.336881e+00
<GCONST> 9.565746e+01
<STATE> 4
<MEAN> 25
 5.962635e+00 2.105171e+00 -2.982385e+00 4.490300e+00 3.573165e+00 -5.160729e-01 -3.418504e+00 -1.553980e+00 2.654751e-01 -2.996689e+00 -2.078376e+00 -4.356514e+00 2.110553e-01 -2.719533e+00 -1.094276e+00 -1.609470e+00 9.955187e-01 5.363660e-01 2.207904e-01 4.979737e-01 2.397816e-01 5.428210e-01 -7.773000e-01 4.037644e-01 1.588500e+00
<VARIANCE> 25
 1.312793e+01 6.127072e+01 4.726679e+01 4.711441e+01 4.048703e+01 3.444117e+01 2.351718e+01 3.110472e+01 2.935455e+01 2.931650e+01 3.798769e+01 2.135873e+01 1.370435e+00 6.078915e+00 6.528747e+00 4.406385e+00 7.509392e+00 3.897224e+00 3.005345e+00 3.883910e+00 4.011020e+00 3.476315e+00 5.609360e+00 3.095551e+00 1.546723e+00
<GCONST> 1.048754e+02
<TRANSP> 5
 0.000000e+00 1.000000e+00 0.000000e+00 0.000000e+00 0.000000e+00
 0.000000e+00 4.349337e-01 5.650663e-01 0.000000e+00 0.000000e+00
 0.000000e+00 0.000000e+00 6.357149e-01 3.642850e-01 0.000000e+00
 0.000000e+00 0.000000e+00 0.000000e+00 6.524279e-01 3.475721e-01
 0.000000e+00 0.000000e+00 0.000000e+00 0.000000e+00 0.000000e+00
<ENDHMM>
~h "d:"
<BEGINHMM>
<NUMSTATES> 5
<STATE> 2
<MEAN> 25
 4.429907e+00 2.041405e+00 5.825237e+00 6.313160e+00 -7.014781e+00 -1.493246e-02 -4.150710e-01 -2.023657e+00 -1.568399e+00 -4.602140e+00 1.045880e+00 -3.071072e+00 -5.541322e-01 -9.416954e-01 1.025746e+00 -1.077507e+00 7.146030e-03 1.114800e-01 -4.510297e-02 -1.101653e-01 -8.113953e-01 2.112823e-01 5.192658e-01 -1.138040e-01 6.854177e-01
<VARIANCE> 25
 2.358220e+01 1.037800e+02 3.498417e+01 4.181007e+01 6.658047e+01 3.390115e+01 3.385879e+01 4.459883e+01 2.893500e+01 3.462519e+01 4.028629e+01 1.887161e+01 2.747595e+00 8.383519e+00 3.846847e+00 6.186416e+00 6.358039e+00 3.315656e+00 3.277241e+00 5.018898e+00 4.496816e+00 4.495123e+00 5.686807e+00 2.592751e+00 2.971652e+00
<GCONST> 1.085643e+02
<STATE> 3
<MEAN> 25
 1.972567e+00 -4.429086e+00 1.101108e+01 -1.485288e+00 -6.048417e+00 1.303514e+00 -2.035187e+00 -2.034742e+00 -5.776814e+00 -1.125675e+00 2.954227e+00 -4.026750e+00 -3.252345e-01 -1.620885e+00 1.137580e+00 -4.347988e+00 2.074176e-01 -3.417673e-01 -7.883348e-01 1.386938e-01 -4.393997e-01 1.424743e+00 -1.333540e+00 9.193940e-01 1.912350e+00
<VARIANCE> 25
 1.966772e+01 3.689989e+01 6.506671e+01 6.885803e+01 5.207912e+01 6.865345e+01 4.479996e+01 3.820024e+01 4.973633e+01 4.228855e+01 3.992484e+01 2.694282e+01 1.714572e+00 5.094962e+00 4.150759e+00 5.709484e+00 4.645801e+00 3.796733e+00 3.767220e+00 3.137441e+00 3.453811e+00 4.708196e+00 4.658279e+00 2.043340e+00 1.769237e+00
<GCONST> 1.074857e+02
<STATE> 4
<MEAN> 25
 2.617884e+00 -2.461855e+00 1.231616e+01 -9.288339e+00 -6.789800e+00 1.389206e-01 -4.560845e+00 -4.184658e+00 -4.099370e+00 7.993286e-01 -3.970785e+00 -1.553664e+00 1.299376e-01 -8.072918e-02 -1.380901e-02 -2.605675e+00 7.337250e-01 -2.017217e-01 -4.090220e-01 4.163742e-02 7.084979e-01 5.524365e-01 -2.556629e+00 1.144716e+00 8.609012e-01
<VARIANCE> 25
 1.529643e+01 5.285618e+01 6.815685e+01 7.576105e+01 3.855285e+01 4.557037e+01 3.188576e+01 5.105996e+01 3.367334e+01 3.964537e+01 5.141890e+01 3.293854e+01 1.020181e+00 4.057013e+00 2.432653e+00 6.931267e+00 2.799260e+00 3.661571e+00 3.374680e+00 3.216594e+00 3.713340e+00 3.951673e+00 4.902000e+00 2.532527e+00 2.174173e+00
<GCONST> 1.056282e+02
<TRANSP> 5
 0.000000e+00 1.000000e+00 0.000000e+00 0.000000e+00 0.000000e+00
 0.000000e+00 5.743933e-01 4.256066e-01 0.000000e+00 0.000000e+00
 0.000000e+00 0.000000e+00 2.015476e-01 7.984524e-01 0.000000e+00
 0.000000e+00 0.000000e+00 0.000000e+00 2.185696e-01 7.814304e-01
 0.000000e+00 0.000000e+00 0.000000e+00 0.000000e+00 0.000000e+00
<ENDHMM>
~h "ch"
<BEGINHMM>
<NUMSTATES> 5
<STATE> 2
<MEAN> 25
 -5.938022e+00 1.111429e+00 -1.714563e+00 2.236930e-01 4.218310e+00 -4.125954e+00 7.327095e-01 2.858336e+00 1.721047e+00 -6.027623e-01 4.022483e+00 7.107477e-01 -3.523794e+00 -4.992123e-01 7.583798e-01 -2.620468e+00 2.704843e+00 1.577511e-01 6.170821e-01 -3.795340e-01 1.456778e-01 8.705657e-01 1.345382e+00 2.199459e-01 1.610245e+00
<VARIANCE> 25
 2.916252e+01 4.280349e+01 4.696488e+01 4.965352e+01 6.086453e+01 4.303467e+01 5.433001e+01 6.040626e+01 3.405669e+01 4.652574e+01 3.515485e+01 2.114231e+01 2.571045e+00 4.957427e+00 4.662155e+00 4.163418e+00 5.544950e+00 4.883849e+00 3.971038e+00 4.784567e+00 3.663838e+00 3.679437e+00 3.885122e+00 2.491667e+00 2.492575e+00
<GCONST> 1.083157e+02
<STATE> 3
<MEAN> 25
 -1.953388e+01 4.214517e+00 3.057779e+00 -7.056882e+00 9.435643e+00 -1.857597e+00 4.790964e+00 1.806106e+00 1.870777e+00 2.432658e+00 9.823522e+00 2.106400e-02 -1.267285e+00 8.447794e-01 1.466025e+00 -2.700523e-01 -4.182580e-01 -7.110554e-02 1.252809e+00 -1.298617e-01 -4.390306e-01 1.414717e-01 8.053920e-01 -3.257545e-01 6.220297e-01
<VARIANCE> 25
 2.312870e+01 3.053213e+01 4.450188e+01 2.999844e+01 3.528599e+01 4.650767e+01 3.690151e+01 4.564796e+01 3.381395e+01 3.647123e+01 3.395222e+01 2.470843e+01 8.330266e+00 3.257888e+00 3.063908e+00 3.587317e+00 4.326393e+00 4.193429e+00 4.003344e+00 3.735707e+00 2.877764e+00 3.173657e+00 3.590789e+00 2.403394e+00 2.146461e+00
<GCONST> 1.048176e+02
<STATE> 4
<MEAN> 25
 -8.589475e+00 1.952733e+00 5.321932e+00 -6.180172e+00 2.012160e+00 -7.096854e+00 5.573021e+00 1.930384e-01 -8.698040e-01 -9.058315e-01 5.119435e+00 -1.234448e+00 5.396503e+00 -2.099323e+00 -2.848825e-01 -2.761839e-01 -2.882391e+00 -1.598351e+00 -5.930126e-01 -4.205509e-01 -5.713832e-01 -1.219589e+00 -2.938077e+00 -6.236885e-01 2.085397e+00
<VARIANCE> 25
 1.008101e+02 4.546822e+01 4.237419e+01 2.386117e+01 5.624968e+01 4.175032e+01 3.278994e+01 3.488508e+01 2.919508e+01 3.465615e+01 4.600484e+01 1.810937e+01 5.209335e+00 5.645629e+00 3.909116e+00 2.614981e+00 4.888684e+00 4.063810e+00 3.544601e+00 4.519289e+00 3.033367e+00 3.111766e+00 3.660427e+00 2.030921e+00 1.646002e+00
<GCONST> 1.059623e+02
<TRANSP> 5
 0.000000e+00 1.000000e+00 0.000000e+00 0.000000e+00 0.000000e+00
 0.000000e+00 6.819007e-01 3.180993e-01 0.000000e+00 0.000000e+00
 0.000000e+00 0.000000e+00 6.596040e-01 3.403960e-01 0.000000e+00
 0.000000e+00 0.000000e+00 0.000000e+00 6.292481e-01 3.707519e-01
 0.000000e+00 0.000000e+00 0.000000e+00 0.000000e+00 0.000000e+00
<ENDHMM>
~h "dh"
<BEGINHMM>
<NUMSTATES> 5
<STATE> 2
<MEAN> 25
 4.974946e+00 5.187644e+00 3.061722e-01 5.133338e+00 -1.348180e+00 -4.843858e+00 -7.510554e-01 -4.750244e-01 -9.252843e-01 -4.003679e+00 -3.362656e+00 -2.479292e-01 -1.047480e-01 9.171653e-01 -5.542554e-02 1.038070e+00 2.575883e-01 4.624155e-01 -7.997991e-02 -1.980108e-01 -1.850786e-01 -6.724785e-01 7.590386e-01 -5.686719e-01 -7.025853e-01
<VARIANCE> 25
 2.809152e+01 4.595515e+01 2.868634e+01 2.379347e+01 3.603838e+01 3.385092e+01 3.747465e+01 4.572306e+01 2.673651e+01 3.159640e+01 4.221389e+01 2.501940e+01 2.356717e+00 4.288681e+00 1.846542e+00 2.569865e+00 2.536428e+00 2.640154e+00 2.943513e+00 2.652432e+00 2.614132e+00 2.750722e+00 4.487428e+00 2.983155e+00 2.307870e+00
<GCONST> 1.011207e+02
<STATE> 3
<MEAN> 25
 3.014604e+00 6.062622e+00 -9.358710e-02 7.014804e+00 1.568929e-01 -2.724596e+00 -5.072315e-01 -9.040580e-01 -1.224248e+00 -4.647372e+00 1.248003e+00 -1.418817e+00 -1.040657e+00 -2.608867e+00 -8.151870e-01 -6.749415e-01 2.263132e-01 2.514980e-01 1.186620e+00 -1.370884e-01 4.781843e-01 4.945647e-02 1.913109e+00 6.516516e-01 9.952092e-01
<VARIANCE> 25
 1.891783e+01 4.814373e+01 3.076282e+01 1.883911e+01 3.033576e+01 2.604679e+01 3.027545e+01 4.568933e+01 2.821990e+01 3.435717e+01 4.104786e+01 2.295214e+01 1.681309e+00 6.899642e+00 3.047804e+00 2.634730e+00 3.343633e+00 3.947098e+00 3.945037e+00 4.926444e+00 3.082157e+00 3.236824e+00 4.826273e+00 2.896036e+00 2.461388e+00
<GCONST> 1.026726e+02
<STATE> 4
<MEAN> 25
 1.550081e+00 -3.949328e+00 -2.627780e+00 2.448592e+00 6.803259e-01 -3.446427e+00 4.756634e+00 -8.060353e-01 8.656688e-01 -6.292907e+00 3.112763e+00 2.124991e+00 4.749722e-01 -1.828361e+00 1.879767e-01 -1.626899e+00 2.368906e-01 -6.468501e-02 9.110683e-01 8.171250e-02 1.508139e-01 -3.803448e-01 -1.914814e+00 7.849070e-01 1.830226e+00
<VARIANCE> 25
 2.401755e+01 2.644118e+01 2.722108e+01 2.576663e+01 3.463599e+01 5.022663e+01 3.633801e+01 4.636287e+01 3.122949e+01 3.758035e+01 7.274760e+01 2.588898e+01 2.591134e+00 5.226463e+00 4.216010e+00 2.940505e+00 5.647994e+00 5.136970e+00 5.120721e+00 8.157280e+00 3.968270e+00 5.200716e+00 9.182920e+00 2.915496e+00 1.819499e+00
<GCONST> 1.075895e+02
<TRANSP> 5
 0.000000e+00 1.000000e+00 0.000000e+00 0.000000e+00 0.000000e+00
 0.000000e+00 6.114799e-01 3.885201e-01 0.000000e+00 0.000000e+00
 0.000000e+00 0.000000e+00 4.894097e-01 5.105903e-01 0.000000e+00
 0.000000e+00 0.000000e+00 0.000000e+00 5.657713e-01 4.342287e-01
 0.000000e+00 0.000000e+00 0.000000e+00 0.000000e+00 0.000000e+00
<ENDHMM>
~h "ei"
<BEGINHMM>
<NUMSTATES> 5
<STATE> 2
<MEAN> 25
 3.354318e+00 -1.667530e+00 1.155275e+01 -9.465712e+00 -9.579805e+00 -6.904780e-02 -5.535216e-01 -6.581525e+00 -3.158294e+00 3.452018e+00 -4.835279e+00 4.828958e-01 9.136730e-02 -1.036397e+00 2.265369e+00 -3.312591e+00 -3.484832e-01 7.250065e-01 -7.379521e-01 -3.429072e-01 -4.914923e-01 1.870643e+00 -1.631882e+00 3.654786e-01 1.571605e+00
<VARIANCE> 25
 1.276224e+01 4.011891e+01 2.959726e+01 6.453872e+01 3.868752e+01 3.837696e+01 3.279252e+01 3.656268e+01 3.799940e+01 3.678604e+01 3.156932e+01 3.015585e+01 2.585775e+00 2.989734e+00 3.224932e+00 4.886471e+00 4.095623e+00 3.926827e+00 3.619306e+00 3.738447e+00 3.661482e+00 3.198291e+00 3.770911e+00 2.306716e+00 1.827645e+00
<GCONST> 1.036456e+02
<STATE> 3
<MEAN> 25
 2.607218e+00 -2.615642e+00 1.502399e+01 -1.540538e+01 -7.620470e+00 9.382312e-01 -2.492731e+00 -6.555253e+00 -2.512630e+00 6.770641e+00 -7.664816e+00 2.069546e+00 -9.953091e-03 -1.071126e-01 -1.052544e-01 7.063365e-02 -4.161701e-02 -7.391857e-02 1.165728e-01 4.697766e-02 -5.660982e-02 1.503231e-01 -7.130058e-02 1.062025e-01 -4.401878e-02
<VARIANCE> 25
 5.371312e+00 3.887644e+01 1.482309e+01 2.350742e+01 2.363829e+01 3.220793e+01 2.635032e+01 1.973043e+01 2.429817e+01 2.570594e+01 2.200651e+01 1.910167e+01 2.101762e-01 9.835648e-01 6.980532e-01 1.457032e+00 1.147730e+00 1.406433e+00 1.401731e+00 1.414642e+00 1.297663e+00 1.558105e+00 1.415034e+00 1.177611e+00 3.180186e-01
<GCONST> 8.218188e+01
<STATE> 4
<MEAN> 25
 1.651843e+00 1.235596e+00 1.035978e+01 -6.383853e+00 -9.656589e+00 -5.565306e-01 -1.024364e+00 -6.780162e+00 -1.662975e+00 4.424775e+00 -4.358060e+00 1.485550e+00 -3.617744e-01 1.089922e+00 -1.139267e+00 2.115142e+00 2.721776e-01 -1.913741e-01 -1.017067e-01 1.732970e-01 3.977843e-01 -1.017195e+00 9.137374e-01 -2.323305e-01 -1.551230e+00
<VARIANCE> 25
 1.379495e+01 5.614077e+01 2.312910e+01 5.582517e+01 2.801622e+01 4.325321e+01 3.225681e+01 3.392109e+01 4.025256e+01 3.875134e+01 3.314082e+01 2.495650e+01 8.090518e-01 1.964970e+00 1.170953e+00 2.194563e+00 2.227746e+00 2.598191e+00 2.211849e+00 2.652870e+00 2.349376e+00 2.247372e+00 2.387170e+00 1.743680e+00 8.466941e-01
<GCONST> 9.578653e+01
<TRANSP> 5
 0.000000e+00 1.000000e+00 0.000000e+00 0.000000e+00 0.000000e+00
 0.000000e+00 5.909287e-01 4.090713e-01 0.000000e+00 0.000000e+00
 0.000000e+00 0.000000e+00 8.470145e-01 1.529855e-01 0.000000e+00
 0.000000e+00 0.000000e+00 0.000000e+00 7.970939e-01 2.029061e-01
 0.000000e+00 0.000000e+00 0.000000e+00 0.000000e+00 0.000000e+00
<ENDHMM>
~h "h:"
<BEGINHMM>
<NUMSTATES> 5
<STATE> 2
<MEAN> 25
 4.561173e+00 -8.529837e+00 -1.307180e+00 -5.041544e+00 2.821327e+00 -5.845219e+00 -6.899893e-01 7.292413e+00 -1.475129e+00 -6.993474e-01 -8.168516e+00 -5.793943e-01 -2.918668e-01 9.607869e-01 -3.625976e-01 6.416984e-01 3.522790e-01 8.212655e-02 -2.193919e-01 -8.384832e-01 2.598655e-01 6.937730e-02 1.091594e-01 1.710811e-01 -1.005909e+00
<VARIANCE> 25
 1.053016e+01 4.753602e+01 1.873575e+01 4.274195e+01 4.886891e+01 3.169460e+01 2.780292e+01 3.111812e+01 2.046010e+01 2.680637e+01 4.759355e+01 2.881366e+01 3.537434e-01 2.111913e+00 9.991132e-01 2.155446e+00 1.515316e+00 2.082951e+00 1.162327e+00 1.908371e+00 1.792655e+00 2.209767e+00 2.156203e+00 2.160375e+00 1.733422e+00
<GCONST> 9.237406e+01
<STATE> 3
<MEAN> 25
 2.074008e+00 -5.143035e+00 -4.090045e+00 -2.227775e+00 2.597302e+00 -4.686672e+00 -8.071025e-01 5.598790e+00 2.021876e+00 -1.657795e+00 -2.590114e+00 1.334051e+00 2.370690e-01 -2.358346e-01 -2.268918e-01 -6.197845e-01 1.849451e-01 4.799651e-02 -1.323939e-01 -7.584482e-01 2.727791e-01 -1.058611e-01 -7.706246e-01 1.158337e-01 5.012599e-01
<VARIANCE> 25
 1.880936e+01 4.294802e+01 1.864010e+01 4.059887e+01 3.865874e+01 3.011370e+01 2.824330e+01 3.471158e+01 1.949311e+01 1.611696e+01 7.750244e+01 2.739267e+01 2.280954e+00 2.816627e+00 1.936296e+00 3.320100e+00 2.088028e+00 3.929077e+00 1.982715e+00 2.766323e+00 2.222036e+00 1.497799e+00 9.876792e+00 1.820239e+00 4.382501e+00
<GCONST> 9.972524e+01
<STATE> 4
<MEAN> 25
 5.618051e+00 -7.781419e+00 -6.751663e+00 -7.264619e+00 9.386987e+00 -3.425750e+00 -2.625508e+00 -1.104612e+00 2.052669e+00 -2.199742e-01 -1.450506e+01 2.359133e+00 -1.573979e-01 2.261766e-01 -1.659578e-01 1.507735e-01 -1.516573e-01 3.383213e-02 -1.219592e-01 -4.309006e-02 2.288812e-02 -3.859614e-02 3.168573e-01 1.831490e-01 -3.438425e-01
<VARIANCE> 25
 6.208548e+00 2.094737e+01 1.454207e+01 3.174321e+01 3.725917e+01 2.747332e+01 2.597719e+01 5.080888e+01 2.480569e+01 2.937058e+01 3.020264e+01 2.473110e+01 3.534786e-01 1.538562e+00 1.022455e+00 1.680645e+00 2.496941e+00 1.994473e+00 2.484111e+00 3.279366e+00 2.032827e+00 2.038887e+00 2.219658e+00 1.632805e+00 1.017711e+00
<GCONST> 9.063541e+01
<TRANSP> 5
 0.000000e+00 1.000000e+00 0.000000e+00 0.000000e+00 0.000000e+00
 0.000000e+00 3.864281e-01 6.135719e-01 0.000000e+00 0.000000e+00
 0.000000e+00 0.000000e+00 6.237133e-01 3.762867e-01 0.000000e+00
 0.000000e+00 0.000000e+00 0.000000e+00 9.302732e-01 6.972682e-02
 0.000000e+00 0.000000e+00 0.000000e+00 0.000000e+00 0.000000e+00
<ENDHMM>
~h "gh"
<BEGINHMM>
<NUMSTATES> 5
<STATE> 2
<MEAN> 25
 2.702721e+00 5.952345e+00 3.144112e+00 4.262591e+00 -2.022449e+00 -1.658363e+00 -1.099133e+00 -3.800907e+00 -2.721121e+00 -3.900445e+00 -2.766081e+00 -1.591792e+00 -2.141178e-01 -2.266521e+00 -1.972515e+00 1.314456e+00 2.246393e+00 -1.650299e+00 -3.776249e-01 8.406360e-01 -1.350676e-01 3.820354e-01 9.509751e-01 4.503268e-01 5.102670e-01
<VARIANCE> 25
 2.824204e+01 3.274446e+01 6.421682e+01 3.067138e+01 5.374810e+01 5.113483e+01 4.824724e+01 5.266924e+01 3.457687e+01 3.806541e+01 4.540346e+01 2.389840e+01 1.962245e+00 6.002220e+00 3.992412e+00 4.759695e+00 8.080933e+00 5.243719e+00 5.172189e+00 6.743555e+00 5.255971e+00 4.812077e+00 6.009886e+00 3.034279e+00 1.888418e+00
<GCONST> 1.097719e+02
<STATE> 3
<MEAN> 25
 1.703633e+00 -4.444660e+00 -5.364015e+00 7.262852e+00 6.673209e+00 -4.976749e+00 -3.876331e+00 -3.989075e-01 -8.939023e-01 -2.610945e+00 2.539703e-01 1.788103e+00 1.480726e-01 -2.410610e+00 -2.468480e+00 -3.553435e-01 2.685339e+00 -5.023183e-01 -2.758605e-01 1.169777e+00 1.089091e+00 7.611746e-01 -3.074616e-01 1.171620e+00 1.110214e+00
<VARIANCE> 25
 1.932472e+01 4.747177e+01 7.419344e+01 4.568887e+01 6.695088e+01 7.351521e+01 4.229377e+01 4.760984e+01 4.556925e+01 4.347111e+01 5.000879e+01 3.552110e+01 2.363852e+00 6.342622e+00 4.393682e+00 4.666357e+00 4.013231e+00 6.269351e+00 4.904037e+00 5.418815e+00 4.270649e+00 6.861406e+00 6.424023e+00 2.338391e+00 2.496364e+00
<GCONST> 1.113151e+02
<STATE> 4
<MEAN> 25
 3.525105e+00 -3.706715e+00 -8.259203e+00 2.700812e+00 1.010399e+01 -8.689263e-01 -3.546827e+00 1.783340e+00 3.120524e+00 -2.437639e+00 -5.656426e+00 1.098527e+00 1.135511e+00 -1.254866e-01 9.644887e-02 -2.081412e+00 4.368849e-01 9.484941e-01 4.853113e-02 5.502983e-01 -1.840415e-01 -9.004917e-02 -2.493185e+00 -5.405535e-01 1.163275e+00
<VARIANCE> 25
 2.777532e+01 2.521458e+01 4.446887e+01 3.910949e+01 3.522943e+01 8.430424e+01 3.621417e+01 4.954361e+01 2.995763e+01 6.774290e+01 6.419205e+01 3.341285e+01 2.004808e+00 3.051619e+00 3.640202e+00 3.001539e+00 4.609178e+00 6.395893e+00 3.024981e+00 3.376964e+00 5.371058e+00 4.841284e+00 7.358764e+00 2.847439e+00 2.104014e+00
<GCONST> 1.076889e+02
<TRANSP> 5
 0.000000e+00 1.000000e+00 0.000000e+00 0.000000e+00 0.000000e+00
 0.000000e+00 4.826929e-01 5.173071e-01 0.000000e+00 0.000000e+00
 0.000000e+00 0.000000e+00 3.708656e-01 6.291344e-01 0.000000e+00
 0.000000e+00 0.000000e+00 0.000000e+00 6.153429e-01 3.846572e-01
 0.000000e+00 0.000000e+00 0.000000e+00 0.000000e+00 0.000000e+00
<ENDHMM>
~h "ii"
<BEGINHMM>
<NUMSTATES> 5
<STATE> 2
<MEAN> 25
 2.252780e+00 2.065330e+00 1.167463e+01 -7.626328e+00 -8.195307e+00 7.222432e-01 -2.600683e+00 -7.516959e+00 -1.691871e+00 -1.204826e-03 -4.494507e+00 -4.422756e-01 7.004741e-01 -2.072156e-02 2.491965e+00 -3.751118e+00 -7.799531e-01 1.143471e+00 -1.697174e+00 -7.245584e-01 -4.230998e-01 8.532774e-01 -2.776248e+00 4.449655e-01 1.361798e+00
<VARIANCE> 25
 1.738111e+01 4.100332e+01 2.810347e+01 8.115739e+01 3.954665e+01 4.120177e+01 4.235303e+01 4.384595e+01 3.827202e+01 3.568992e+01 4.360429e+01 2.633198e+01 3.662458e+00 3.874623e+00 3.271934e+00 4.568587e+00 4.975553e+00 4.097206e+00 5.039084e+00 5.449821e+00 4.505001e+00 4.024081e+00 4.964511e+00 2.655925e+00 1.542756e+00
<GCONST> 1.070314e+02
<STATE> 3
<MEAN> 25
 2.012731e+00 2.643564e+00 1.579325e+01 -1.621858e+01 -4.471090e+00 3.761275e+00 -6.900352e+00 -6.210060e+00 -2.133790e+00 1.340685e+00 -1.070552e+01 1.232266e+00 -5.792538e-02 -2.199185e-02 1.286164e-01 -3.402032e-01 1.539134e-01 1.564000e-01 -1.700153e-01 -7.357565e-03 -1.421472e-01 1.644623e-01 -3.464121e-01 2.316598e-01 5.660057e-03
<VARIANCE> 25
 5.312531e+00 3.307972e+01 1.400591e+01 2.602899e+01 2.781937e+01 2.613480e+01 2.233143e+01 2.348235e+01 2.607197e+01 2.760124e+01 2.096938e+01 1.928786e+01 2.243791e-01 1.146254e+00 7.606304e-01 1.779474e+00 1.719443e+00 1.554393e+00 1.763430e+00 1.811397e+00 1.648434e+00 1.961768e+00 1.705509e+00 1.297927e+00 3.392112e-01
<GCONST> 8.442352e+01
<STATE> 4
<MEAN> 25
 1.478186e+00 5.313098e+00 1.138394e+01 -7.050656e+00 -6.051664e+00 1.243103e+00 -5.230878e+00 -7.187444e+00 -1.635750e+00 2.607511e-01 -5.666104e+00 2.020723e+00 -2.579937e-01 5.074685e-01 -1.214666e+00 2.291929e+00 1.761700e-01 -5.803719e-01 4.458270e-01 1.382609e-01 1.898142e-01 -5.268006e-01 1.296640e+00 -2.202323e-01 -1.155251e+00
<VARIANCE> 25
 1.265402e+01 4.868911e+01 2.477691e+01 7.158642e+01 3.211247e+01 3.874912e+01 2.937826e+01 2.936277e+01 3.918888e+01 3.989295e+01 3.645491e+01 3.024733e+01 8.431587e-01 2.327510e+00 1.348819e+00 2.625462e+00 2.148225e+00 2.864653e+00 2.404642e+00 2.727861e+00 2.614187e+00 2.759455e+00 2.422671e+00 1.851896e+00 9.211591e-01
<GCONST> 9.712923e+01
<TRANSP> 5
 0.000000e+00 1.000000e+00 0.000000e+00 0.000000e+00 0.000000e+00
 0.000000e+00 5.964770e-01 4.035230e-01 0.000000e+00 0.000000e+00
 0.000000e+00 0.000000e+00 8.508045e-01 1.491955e-01 0.000000e+00
 0.000000e+00 0.000000e+00 0.000000e+00 8.235331e-01 1.764669e-01
 0.000000e+00 0.000000e+00 0.000000e+00 0.000000e+00 0.000000e+00
<ENDHMM>
~h "jh"
<BEGINHMM>
<NUMSTATES> 5
<STATE> 2
<MEAN> 25
 4.775567e+00 9.146305e+00 6.938307e-01 4.602135e+00 5.665966e-01 -4.095257e+00 -3.852168e+00 -1.411108e+00 -1.427144e+00 -5.316890e+00 -5.583762e-01 -1.844576e+00 -2.202267e+00 7.261823e-01 7.373807e-01 -8.315591e-01 1.696968e+00 -1.054974e-01 2.783162e-02 -1.235530e-01 5.387059e-02 5.237754e-01 1.291712e+00 -1.342414e-01 -2.368362e-01
<VARIANCE> 25
 1.698402e+01 3.308181e+01 1.901341e+01 1.848263e+01 2.813719e+01 2.801537e+01 4.303735e+01 3.061281e+01 2.088126e+01 2.203363e+01 3.266142e+01 2.645100e+01 5.541392e+00 5.833498e+00 2.548686e+00 3.706179e+00 4.310678e+00 2.771418e+00 3.484892e+00 2.711480e+00 3.749068e+00 4.300130e+00 4.162241e+00 2.678048e+00 2.266209e+00
<GCONST> 1.013436e+02
<STATE> 3
<MEAN> 25
 -1.107511e+01 7.765674e+00 4.727775e+00 -3.216160e+00 9.770405e+00 -5.402183e+00 -9.133593e-01 -9.092169e-01 -3.106048e+00 -9.228644e-01 6.014939e+00 -3.904430e+00 -3.743365e+00 -3.476438e-01 7.556069e-01 -1.687355e+00 1.004893e+00 -2.200871e-01 1.821914e+00 7.509341e-02 -4.737375e-01 1.218634e+00 1.567816e+00 -3.566455e-01 1.287118e+00
<VARIANCE> 25
 4.579256e+01 6.457439e+01 3.587642e+01 3.835793e+01 3.057941e+01 4.141154e+01 6.940649e+01 6.236547e+01 3.522595e+01 3.450197e+01 3.465350e+01 3.030801e+01 5.947223e+00 5.225917e+00 3.514540e+00 3.800105e+00 6.378537e+00 4.084464e+00 3.814609e+00 4.366182e+00 3.327743e+00 2.507445e+00 3.349049e+00 2.981287e+00 1.821876e+00
<GCONST> 1.078662e+02
<STATE> 4
<MEAN> 25
 -1.182663e+01 3.743967e+00 6.882036e+00 -5.913419e+00 4.532887e+00 -3.768005e+00 6.809982e+00 -9.905880e-01 -2.659321e+00 9.191344e-01 6.244690e+00 -1.769940e+00 2.600919e+00 -1.532535e+00 -5.182006e-02 -6.732103e-02 -1.664649e+00 9.702753e-02 3.258388e-01 -3.257014e-01 3.987001e-02 -4.818243e-01 -1.649770e+00 2.933023e-01 4.642558e-01
<VARIANCE> 25
 6.398083e+01 5.480990e+01 4.306205e+01 1.946926e+01 4.107430e+01 3.683921e+01 3.967198e+01 4.609115e+01 2.669333e+01 3.645462e+01 3.947330e+01 3.340899e+01 5.504662e+00 4.534462e+00 2.629279e+00 2.273490e+00 4.358548e+00 2.815181e+00 5.025724e+00 4.360627e+00 2.344832e+00 2.717516e+00 6.010359e+00 2.963919e+00 1.484940e+00
<GCONST> 1.054660e+02
<TRANSP> 5
 0.000000e+00 1.000000e+00 0.000000e+00 0.000000e+00 0.000000e+00
 0.000000e+00 6.560813e-01 3.439187e-01 0.000000e+00 0.000000e+00
 0.000000e+00 0.000000e+00 7.037418e-01 2.962582e-01 0.000000e+00
 0.000000e+00 0.000000e+00 0.000000e+00 7.928483e-01 2.071517e-01
 0.000000e+00 0.000000e+00 0.000000e+00 0.000000e+00 0.000000e+00
<ENDHMM>
~h "kh"
<BEGINHMM>
<NUMSTATES> 5
<STATE> 2
<MEAN> 25
 -2.132511e+00 1.764172e+00 -9.884152e-01 3.291255e+00 -1.551607e+00 -1.768958e+00 -2.790424e+00 -3.223510e+00 2.588484e+00 2.083836e+00 3.098795e+00 1.550926e+00 -6.372377e-01 -3.448722e+00 -2.633633e+00 3.814713e-01 3.004735e+00 -2.439067e-01 5.465822e-01 7.199571e-01 2.508112e-01 6.594405e-01 1.187814e+00 5.626060e-01 9.255209e-01
<VARIANCE> 25
 1.335538e+01 6.522542e+01 8.536171e+01 3.405495e+01 7.243452e+01 4.072440e+01 3.405306e+01 4.670179e+01 3.434592e+01 3.585008e+01 3.029287e+01 2.694923e+01 1.550948e+00 5.238857e+00 8.782480e+00 6.224647e+00 7.608551e+00 7.112568e+00 4.949977e+00 6.164441e+00 3.350526e+00 5.713659e+00 3.449945e+00 3.171485e+00 2.694860e+00
<GCONST> 1.097149e+02
<STATE> 3
<MEAN> 25
 -3.917772e+00 -8.941288e+00 -8.923072e+00 1.460775e+00 8.444631e+00 -1.164699e+00 8.022463e-01 6.579134e-01 4.424354e+00 4.737227e+00 5.190599e+00 4.465097e+00 -8.260341e-01 -9.570271e-01 8.030743e-02 -6.028827e-01 8.893285e-01 7.211490e-01 9.171927e-01 4.930241e-01 5.988320e-01 8.366273e-02 2.088894e-01 8.602329e-01 2.937622e-01
<VARIANCE> 25
 2.458455e+01 4.051865e+01 1.218212e+02 5.735549e+01 7.099008e+01 7.968748e+01 4.579808e+01 7.654585e+01 4.485067e+01 5.543414e+01 3.198940e+01 3.225447e+01 1.035869e+00 3.824998e+00 5.079114e+00 4.021430e+00 4.847357e+00 5.487092e+00 3.168706e+00 4.136413e+00 3.904681e+00 4.259201e+00 3.348578e+00 2.717457e+00 1.667653e+00
<GCONST> 1.090415e+02
<STATE> 4
<MEAN> 25
 -6.106661e+00 -6.157153e+00 -1.376996e+00 -2.091560e+00 4.893470e+00 4.362695e+00 3.333194e+00 -1.484086e+00 4.991800e+00 1.823144e+00 3.009819e+00 5.593469e+00 1.749602e+00 1.226512e+00 7.749742e-01 -3.917409e-01 -1.186801e+00 4.710068e-01 -3.973896e-01 -5.803115e-01 -1.300331e+00 -9.438925e-01 -1.525974e+00 -7.505746e-01 5.859275e-01
<VARIANCE> 25
 4.045482e+01 4.940815e+01 1.368744e+02 5.538469e+01 6.959074e+01 6.088707e+01 4.180072e+01 4.690565e+01 4.388700e+01 4.166791e+01 4.982675e+01 2.870984e+01 3.937821e+00 3.572480e+00 2.560395e+00 3.314788e+00 3.151373e+00 5.225685e+00 3.315348e+00 2.943144e+00 4.381945e+00 3.832555e+00 3.678062e+00 2.961448e+00 2.383642e+00
<GCONST> 1.091301e+02
<TRANSP> 5
 0.000000e+00 1.000000e+00 0.000000e+00 0.000000e+00 0.000000e+00
 0.000000e+00 6.406716e-01 3.593284e-01 0.000000e+00 0.000000e+00
 0.000000e+00 0.000000e+00 6.793790e-01 3.206210e-01 0.000000e+00
 0.000000e+00 0.000000e+00 0.000000e+00 6.948291e-01 3.051709e-01
 0.000000e+00 0.000000e+00 0.000000e+00 0.000000e+00 0.000000e+00
<ENDHMM>
~h "n:"
<BEGINHMM>
<NUMSTATES> 5
<STATE> 2
<MEAN> 25
 6.232132e+00 -2.552824e+00 2.583575e+00 -1.096543e+00 -3.745276e+00 -5.793329e-01 9.130152e-01 -3.315238e+00 -6.211412e+00 -3.239823e+00 -6.384112e+00 -1.882282e+00 2.772805e-02 1.459690e+00 1.171150e-01 1.390008e+00 -9.473489e-01 -2.083594e-01 -2.511928e-01 -1.086125e+00 3.936035e-01 -3.111870e-01 2.962982e-01 -1.442709e-02 -1.052004e+00
<VARIANCE> 25
 1.674009e+01 4.977440e+01 4.452771e+01 5.689983e+01 4.082610e+01 4.097282e+01 3.090878e+01 3.748232e+01 4.066861e+01 3.084725e+01 3.036329e+01 2.885972e+01 4.008785e-01 1.414092e+00 1.900944e+00 1.966341e+00 3.311091e+00 2.220094e+00 1.813002e+00 3.065203e+00 2.174675e+00 2.529080e+00 2.208904e+00 1.637901e+00 5.158110e-01
<GCONST> 9.568643e+01
<STATE> 3
<MEAN> 25
 6.790906e+00 5.061595e+00 1.501107e+00 4.023659e+00 -5.590009e+00 -8.151933e-01 -7.083097e-02 -5.884034e+00 -3.787578e+00 -5.272011e+00 -4.523038e+00 -2.164810e+00 -3.699848e-01 1.277609e+00 -2.267561e-01 6.210375e-01 5.571786e-01 -1.002210e-01 -2.070050e-01 8.761457e-02 9.368430e-03 -3.708437e-01 6.053470e-01 -2.411424e-01 -9.633068e-01
<VARIANCE> 25
 1.699830e+01 3.132027e+01 2.624640e+01 3.283655e+01 2.889018e+01 3.082871e+01 2.802843e+01 3.218999e+01 2.982268e+01 2.856250e+01 2.743296e+01 2.765714e+01 5.040244e-01 9.592519e-01 1.094482e+00 1.719281e+00 1.854430e+00 1.749946e+00 1.570217e+00 2.107271e+00 1.853223e+00 1.774672e+00 1.724468e+00 1.498805e+00 3.541922e-01
<GCONST> 8.934064e+01
<STATE> 4
<MEAN> 25
 -1.751139e-01 7.341542e+00 2.974646e-01 5.759218e+00 -2.928226e-01 2.738426e-01 -1.033978e+00 -2.145279e+00 -1.672599e+00 -3.263075e+00 1.511260e+00 -1.078059e+00 -9.137581e-01 -6.632297e-02 -4.223577e-01 3.245928e-01 7.215638e-01 -2.448252e-02 5.997591e-02 5.777184e-01 4.430172e-01 2.774696e-01 7.817054e-01 1.287618e-01 -6.844832e-01
<VARIANCE> 25
 4.002430e+01 2.585934e+01 2.756122e+01 2.961430e+01 3.083741e+01 2.810657e+01 2.501986e+01 3.606212e+01 3.180384e+01 2.696886e+01 3.631329e+01 2.211428e+01 9.777657e-01 1.700429e+00 1.629361e+00 1.698732e+00 1.993727e+00 1.686610e+00 1.959628e+00 2.156608e+00 1.930582e+00 2.016561e+00 2.324405e+00 1.685739e+00 5.056078e-01
<GCONST> 9.282946e+01
<TRANSP> 5
 0.000000e+00 1.000000e+00 0.000000e+00 0.000000e+00 0.000000e+00
 0.000000e+00 6.479067e-01 3.520933e-01 0.000000e+00 0.000000e+00
 0.000000e+00 0.000000e+00 6.180597e-01 3.819403e-01 0.000000e+00
 0.000000e+00 0.000000e+00 0.000000e+00 6.383587e-01 3.616413e-01
 0.000000e+00 0.000000e+00 0.000000e+00 0.000000e+00 0.000000e+00
<ENDHMM>
~h "oo"
<BEGINHMM>
<NUMSTATES> 5
<STATE> 2
<MEAN> 25
 8.082272e+00 2.539070e+00 -9.152767e+00 -5.804321e+00 3.996975e+00 2.047310e+00 -3.900962e+00 -4.752485e+00 -2.337767e+00 1.503305e+00 1.914229e+00 -5.369614e-02 2.094915e+00 1.812606e+00 -9.221115e-01 -2.893239e+00 -4.226613e-01 1.007956e+00 -3.126038e-01 -8.892514e-01 -1.943808e+00 5.397595e-01 9.005553e-02 -1.009843e-01 6.489656e-01
<VARIANCE> 25
 2.456374e+01 4.231400e+01 3.516980e+01 6.642055e+01 3.708236e+01 4.382175e+01 5.102797e+01 2.838944e+01 5.678276e+01 4.405505e+01 2.956179e+01 2.282576e+01 2.989323e+00 3.384408e+00 3.533188e+00 4.172476e+00 5.407782e+00 3.814586e+00 3.957795e+00 3.132303e+00 4.112533e+00 4.754565e+00 3.518180e+00 2.665178e+00 1.483188e+00
<GCONST> 1.058148e+02
<STATE> 3
<MEAN> 25
 1.169402e+01 8.029134e+00 -1.091723e+01 -1.389729e+01 2.003736e+00 5.327485e+00 -1.320673e+00 -4.446985e+00 -8.208297e+00 1.501140e+00 2.821188e+00 1.562232e+00 1.682017e-03 1.556165e-01 -3.093254e-02 -7.180572e-02 1.473816e-01 5.457233e-02 -2.258145e-01 -1.124851e-01 1.247094e-02 2.765539e-01 -1.412072e-03 -6.046370e-02 -7.818771e-02
<VARIANCE> 25
 5.444015e+00 3.192573e+01 1.640177e+01 4.342371e+01 2.755598e+01 1.912811e+01 3.007959e+01 2.825872e+01 2.649134e+01 4.018994e+01 2.854745e+01 2.375071e+01 2.283214e-01 1.213175e+00 7.965055e-01 2.461306e+00 2.407553e+00 1.596966e+00 3.311200e+00 2.170396e+00 3.010120e+00 3.250772e+00 1.847970e+00 1.797497e+00 3.295237e-01
<GCONST> 8.925510e+01
<STATE> 4
<MEAN> 25
 7.686096e+00 6.815163e+00 -7.372425e+00 -5.073743e+00 3.228700e+00 2.376716e-01 -7.168838e+00 -4.225490e+00 -8.645669e-01 2.881957e+00 1.641155e+00 -7.958989e-01 -1.145258e+00 -2.363002e-01 1.221182e+00 1.926578e+00 -5.241292e-01 -8.223444e-01 -2.840519e-02 6.237004e-01 9.806696e-01 -6.617392e-01 -1.631442e-01 -9.316318e-02 -8.255485e-01
<VARIANCE> 25
 2.003214e+01 4.483643e+01 2.583186e+01 5.530013e+01 4.122980e+01 3.038808e+01 6.108012e+01 3.527843e+01 4.247862e+01 4.999880e+01 4.323267e+01 2.681628e+01 6.551796e-01 2.157869e+00 2.113364e+00 2.521490e+00 2.546363e+00 3.505625e+00 3.929612e+00 2.706502e+00 3.522095e+00 3.426595e+00 4.168728e+00 2.521419e+00 9.325543e-01
<GCONST> 1.008828e+02
<TRANSP> 5
 0.000000e+00 1.000000e+00 0.000000e+00 0.000000e+00 0.000000e+00
 0.000000e+00 6.516161e-01 3.483839e-01 0.000000e+00 0.000000e+00
 0.000000e+00 0.000000e+00 8.349115e-01 1.650885e-01 0.000000e+00
 0.000000e+00 0.000000e+00 0.000000e+00 7.962934e-01 2.037066e-01
 0.000000e+00 0.000000e+00 0.000000e+00 0.000000e+00 0.000000e+00
<ENDHMM>
~h "o~"
<BEGINHMM>
<NUMSTATES> 5
<STATE> 2
<MEAN> 25
 8.024981e+00 -6.079128e-02 -1.033329e+01 -6.596822e+00 3.788438e+00 2.579445e+00 -2.513465e+00 4.898697e-01 -4.319784e+00 4.481703e-01 3.280135e+00 -1.935994e+00 2.222996e+00 -9.869565e-01 -1.364481e+00 -5.121969e+00 1.395668e+00 2.116731e+00 -7.952181e-01 8.333169e-01 -1.453595e+00 1.003277e+00 -2.005909e-01 -6.089767e-01 2.745667e+00
<VARIANCE> 25
 3.047824e+01 6.130632e+01 3.583205e+01 2.042337e+02 3.624771e+01 8.538095e+01 5.182983e+01 2.605958e+01 5.035322e+01 2.701340e+01 2.734734e+01 2.349548e+01 3.315684e+00 8.143901e+00 5.186551e+00 1.172960e+01 5.067768e+00 7.387932e+00 4.436231e+00 4.033367e+00 4.066367e+00 4.452887e+00 2.910441e+00 2.791710e+00 3.464771e+00
<GCONST> 1.114498e+02
<STATE> 3
<MEAN> 25
 9.595635e+00 -4.326065e+00 -9.785006e+00 -1.827107e+01 9.693955e+00 1.048173e+01 -3.386101e+00 2.102554e+00 -8.582439e+00 2.681705e+00 1.450701e+00 -4.291597e+00 -1.014150e-01 -1.110592e+00 1.643528e-01 -2.168984e-01 9.530464e-01 8.321713e-01 -3.507713e-01 1.192539e-01 2.975970e-01 2.829126e-01 -4.834706e-01 -5.771669e-01 6.814193e-01
<VARIANCE> 25
 5.518555e+00 5.015846e+01 2.266332e+01 4.460799e+01 2.175315e+01 2.170949e+01 2.517638e+01 2.562168e+01 7.367650e+01 5.064147e+01 2.024351e+01 2.731178e+01 3.648033e-01 1.302241e+00 8.654346e-01 5.055257e+00 2.176887e+00 1.880653e+00 2.846668e+00 1.701671e+00 3.744586e+00 2.515112e+00 1.971888e+00 1.463976e+00 5.706964e-01
<GCONST> 9.211610e+01
<STATE> 4
<MEAN> 25
 8.719047e+00 -7.515920e+00 -8.248594e+00 -8.017697e+00 7.192108e+00 3.079165e+00 -6.603008e+00 1.793408e+00 7.271784e-01 2.907056e+00 -3.737452e+00 -6.254792e+00 -4.043204e-01 1.908109e-01 3.076824e-01 1.880117e+00 -7.067899e-01 -1.662795e+00 -9.136274e-02 1.549346e-01 8.264995e-01 -4.185438e-01 -2.522017e-01 2.510785e-01 -6.921811e-01
<VARIANCE> 25
 7.890083e+00 3.813174e+01 2.064494e+01 1.027319e+02 2.603821e+01 5.822816e+01 1.822930e+01 2.959273e+01 4.346297e+01 4.879897e+01 3.775521e+01 3.539795e+01 4.013706e-01 2.770249e+00 1.574780e+00 3.498108e+00 2.436511e+00 3.989753e+00 2.205137e+00 2.304255e+00 2.983864e+00 2.673511e+00 3.369510e+00 2.602465e+00 1.149142e+00
<GCONST> 9.788414e+01
<TRANSP> 5
 0.000000e+00 1.000000e+00 0.000000e+00 0.000000e+00 0.000000e+00
 0.000000e+00 5.608400e-01 4.391600e-01 0.000000e+00 0.000000e+00
 0.000000e+00 0.000000e+00 7.999063e-01 2.000937e-01 0.000000e+00
 0.000000e+00 0.000000e+00 0.000000e+00 8.791014e-01 1.208986e-01
 0.000000e+00 0.000000e+00 0.000000e+00 0.000000e+00 0.000000e+00
<ENDHMM>
~h "ph"
<BEGINHMM>
<NUMSTATES> 5
<STATE> 2
<MEAN> 25
 -3.025280e+00 -3.659430e+00 -1.179050e+00 4.925820e+00 1.463124e+00 -1.628790e+00 -1.083859e-01 5.364279e-01 1.415879e-02 -2.719775e+00 2.023062e+00 -9.469381e-02 -1.641797e+00 -1.039803e+00 -2.830628e-01 2.001857e-01 6.475230e-01 1.276041e-01 7.665544e-01 6.341243e-01 9.391365e-01 -3.663538e-01 1.082276e+00 9.069179e-01 -2.311409e-01
<VARIANCE> 25
 2.681494e+01 2.583907e+01 5.915118e+01 2.349672e+01 4.034726e+01 4.728386e+01 3.523792e+01 2.977117e+01 3.716471e+01 3.233729e+01 2.601084e+01 2.147841e+01 2.146707e+00 2.516711e+00 2.620667e+00 2.934062e+00 2.113944e+00 2.710046e+00 2.864955e+00 2.985468e+00 1.761758e+00 3.590808e+00 2.102320e+00 2.591395e+00 1.419595e+00
<GCONST> 9.916006e+01
<STATE> 3
<MEAN> 25
 -7.232479e+00 -6.861132e+00 -3.237420e+00 3.556884e+00 3.925133e+00 3.209897e-01 2.410343e+00 2.195879e+00 2.973760e+00 -2.810915e+00 4.194766e+00 1.965327e+00 -1.140130e+00 -5.308048e-01 1.638726e-01 1.026791e-01 4.437448e-01 2.988631e-02 5.984542e-01 5.662395e-01 3.701805e-01 -2.410711e-02 6.546239e-01 5.729071e-01 -2.585599e-01
<VARIANCE> 25
 1.426614e+01 2.178934e+01 4.358323e+01 2.614888e+01 3.342694e+01 5.089224e+01 2.490853e+01 3.178944e+01 2.735827e+01 2.468050e+01 2.843470e+01 2.537591e+01 1.092953e+00 1.686115e+00 2.043344e+00 1.363710e+00 2.074791e+00 2.297972e+00 2.240060e+00 1.948703e+00 1.473766e+00 2.196820e+00 1.994209e+00 1.968842e+00 8.335770e-01
<GCONST> 9.296674e+01
<STATE> 4
<MEAN> 25
 -1.038256e+01 -8.742811e+00 -1.910516e+00 3.673452e+00 4.737770e+00 -9.377937e-01 6.196508e+00 5.599470e+00 4.602606e+00 -1.583242e+00 6.258425e+00 3.476563e+00 1.260421e+00 2.769862e-01 4.969750e-01 -5.652578e-01 -1.060742e+00 -6.245872e-01 -6.913246e-02 -3.705603e-01 -7.542437e-01 3.157025e-01 -5.362539e-01 -5.983073e-01 7.389576e-01
<VARIANCE> 25
 2.588250e+01 2.963116e+01 3.635006e+01 2.630615e+01 3.529446e+01 2.940688e+01 2.939116e+01 2.615689e+01 3.168818e+01 2.508946e+01 3.017228e+01 2.237857e+01 6.717863e+00 2.839575e+00 3.843875e+00 3.159412e+00 5.284327e+00 3.137489e+00 3.834363e+00 3.387449e+00 3.825820e+00 2.587230e+00 3.198579e+00 2.203371e+00 1.888677e+00
<GCONST> 1.019340e+02
<TRANSP> 5
 0.000000e+00 1.000000e+00 0.000000e+00 0.000000e+00 0.000000e+00
 0.000000e+00 6.096132e-01 3.903868e-01 0.000000e+00 0.000000e+00
 0.000000e+00 0.000000e+00 7.163888e-01 2.836111e-01 0.000000e+00
 0.000000e+00 0.000000e+00 0.000000e+00 8.262908e-01 1.737092e-01
 0.000000e+00 0.000000e+00 0.000000e+00 0.000000e+00 0.000000e+00
<ENDHMM>
~h "rx"
<BEGINHMM>
<NUMSTATES> 5
<STATE> 2
<MEAN> 25
 -3.160268e+00 -4.118738e+00 8.476206e+00 1.808655e+00 6.621756e-02 -1.991486e+00 -6.300200e+00 4.933417e+00 3.946893e+00 -5.176327e+00 4.393327e+00 2.719447e+00 1.318760e+00 -2.478791e-01 2.114385e+00 -8.878142e-01 -2.151008e+00 -1.974198e-01 -8.570167e-01 5.721352e-02 -1.032568e+00 -8.529879e-01 1.515216e-01 1.972041e-02 1.455127e+00
<VARIANCE> 25
 8.164915e+01 3.608605e+01 5.461190e+01 5.228745e+01 9.326854e+01 5.633896e+01 5.629536e+01 7.172803e+01 7.288178e+01 3.934934e+01 3.666462e+01 2.915017e+01 6.949419e+00 4.504745e+00 5.903189e+00 4.044061e+00 7.458463e+00 6.051457e+00 5.077493e+00 5.920830e+00 6.209735e+00 5.029345e+00 3.514657e+00 3.663240e+00 2.399743e+00
<GCONST> 1.143997e+02
<STATE> 3
<MEAN> 25
 5.820823e+00 -6.526526e+00 1.022942e+01 -2.861087e+00 -1.035882e+01 -5.233191e+00 -5.471116e+00 2.293263e+00 -3.443741e+00 -2.601387e+00 3.776212e+00 -5.667736e-02 9.832034e-01 -9.679489e-01 3.865677e-01 -1.827360e+00 -1.405420e+00 -1.064195e+00 1.680680e+00 -6.015635e-01 -1.741191e+00 3.196517e+00 -9.826176e-01 -3.332230e-01 1.574420e+00
<VARIANCE> 25
 8.397977e+00 2.823018e+01 1.976919e+01 2.746831e+01 4.058278e+01 3.021760e+01 2.966959e+01 2.534025e+01 2.837912e+01 4.880742e+01 2.064526e+01 1.468596e+01 3.595855e+00 1.933329e+00 2.524779e+00 3.442873e+00 7.113071e+00 3.569907e+00 3.585368e+00 5.391746e+00 3.934804e+00 4.906772e+00 3.391975e+00 2.300843e+00 1.243710e+00
<GCONST> 9.992561e+01
<STATE> 4
<MEAN> 25
 4.586943e+00 -2.862687e+00 9.651734e+00 -2.757883e+00 -9.724711e+00 -8.313791e+00 1.229836e+00 -1.931602e+00 -5.606503e+00 5.707522e+00 -1.027482e+00 1.126243e+00 -5.151015e-01 1.385244e+00 -3.988410e-01 8.887563e-01 2.345255e-01 2.925555e-01 2.220427e-01 -6.051172e-01 4.131308e-01 -2.304492e-01 1.898571e-01 1.468249e-02 -1.282852e+00
<VARIANCE> 25
 7.714303e+00 4.623427e+01 2.315396e+01 5.374893e+01 2.206972e+01 3.246384e+01 2.246727e+01 2.705797e+01 2.388218e+01 3.601650e+01 3.400009e+01 1.973589e+01 5.552215e-01 1.543371e+00 1.063209e+00 2.998716e+00 1.606846e+00 1.787465e+00 2.094609e+00 2.101585e+00 1.788809e+00 3.602689e+00 3.124276e+00 1.711849e+00 1.330342e+00
<GCONST> 9.256813e+01
<TRANSP> 5
 0.000000e+00 1.000000e+00 0.000000e+00 0.000000e+00 0.000000e+00
 0.000000e+00 6.397583e-01 3.602417e-01 0.000000e+00 0.000000e+00
 0.000000e+00 0.000000e+00 6.709092e-01 3.290908e-01 0.000000e+00
 0.000000e+00 0.000000e+00 0.000000e+00 8.515509e-01 1.484491e-01
 0.000000e+00 0.000000e+00 0.000000e+00 0.000000e+00 0.000000e+00
<ENDHMM>
~h "t:"
<BEGINHMM>
<NUMSTATES> 5
<STATE> 2
<MEAN> 25
 -3.173472e+00 1.191996e+00 -4.435261e+00 4.533369e+00 3.297981e-01 -3.861435e-01 1.635375e+00 3.959584e+00 2.488265e+00 -5.545059e-01 5.151199e+00 -1.620627e+00 -5.307637e-01 -1.113622e+00 7.953971e-01 -8.843723e-01 2.901549e-01 7.329497e-01 2.012959e-01 1.101301e-01 3.008566e-02 2.377835e-01 8.363646e-01 6.101327e-01 6.960133e-01
<VARIANCE> 25
 3.453217e+01 3.015441e+01 5.713766e+01 3.433389e+01 4.505781e+01 3.198677e+01 4.686847e+01 3.603789e+01 3.499063e+01 3.375651e+01 2.662697e+01 2.137660e+01 2.922482e+00 6.159929e+00 5.694386e+00 4.218971e+00 4.500960e+00 3.996940e+00 3.545602e+00 5.519615e+00 4.122980e+00 3.580164e+00 3.514617e+00 2.748216e+00 3.942514e+00
<GCONST> 1.068655e+02
<STATE> 3
<MEAN> 25
 -5.344385e+00 -5.558400e+00 2.961853e+00 -3.548395e-01 3.061680e-01 3.344652e+00 1.499558e+00 3.374541e+00 2.301365e+00 9.699121e-01 9.915091e+00 1.160883e+00 1.509738e+00 -2.366665e+00 2.465714e+00 -2.345767e+00 -1.265412e+00 -7.177026e-01 -2.391085e-01 -4.295749e-01 -1.245522e+00 7.121484e-03 -9.048585e-01 3.355244e-01 3.589506e+00
<VARIANCE> 25
 3.498100e+01 7.931696e+01 5.495020e+01 6.309039e+01 4.684867e+01 4.919853e+01 4.558974e+01 3.667104e+01 3.919977e+01 4.228404e+01 4.030701e+01 2.771440e+01 5.362094e+00 8.673323e+00 4.812072e+00 7.100975e+00 8.237700e+00 5.800361e+00 5.533132e+00 1.038695e+01 5.398134e+00 5.598906e+00 7.406469e+00 4.158148e+00 4.955789e+00
<GCONST> 1.153477e+02
<STATE> 4
<MEAN> 25
 1.778305e+00 -6.584047e+00 5.624002e+00 -3.865509e+00 -4.846312e+00 -3.670419e+00 2.354029e-01 6.738376e-01 -2.775853e+00 -8.083307e-01 2.465697e+00 -1.703028e-01 2.370385e+00 -1.318166e+00 1.256961e+00 -1.901575e+00 -1.364335e+00 -1.558880e+00 -6.740053e-01 -2.384393e-01 -1.491363e+00 -3.475300e-01 -3.534111e+00 -1.667543e-01 2.965191e+00
<VARIANCE> 25
 3.515109e+01 7.293633e+01 4.546165e+01 6.841145e+01 6.297427e+01 4.708904e+01 3.568294e+01 7.823425e+01 3.173208e+01 4.253681e+01 5.537537e+01 2.492182e+01 4.023136e+00 7.160069e+00 5.809957e+00 7.816871e+00 8.815854e+00 5.017715e+00 5.896697e+00 5.514194e+00 4.632890e+00 5.276017e+00 5.225673e+00 2.984637e+00 4.528982e+00
<GCONST> 1.141069e+02
<TRANSP> 5
 0.000000e+00 1.000000e+00 0.000000e+00 0.000000e+00 0.000000e+00
 0.000000e+00 5.164189e-01 4.835811e-01 0.000000e+00 0.000000e+00
 0.000000e+00 0.000000e+00 3.980150e-01 6.019850e-01 0.000000e+00
 0.000000e+00 0.000000e+00 0.000000e+00 2.294879e-01 7.705120e-01
 0.000000e+00 0.000000e+00 0.000000e+00 0.000000e+00 0.000000e+00
<ENDHMM>
~h "sh"
<BEGINHMM>
<NUMSTATES> 5
<STATE> 2
<MEAN> 25
 -5.593760e+00 1.058447e+00 1.008456e+01 -6.024777e+00 -9.575875e-01 -3.066063e+00 1.392349e+00 -2.881171e+00 -2.534974e+00 -1.448886e+00 3.213721e+00 -6.372222e-01 -4.215331e+00 1.401986e+00 9.032103e-01 -8.307059e-01 1.364594e+00 5.327404e-02 1.105021e+00 3.838809e-01 3.498962e-01 -2.940626e-01 2.533752e+00 -7.755868e-01 1.688128e-01
<VARIANCE> 25
 5.457187e+01 3.971959e+01 4.147294e+01 4.006062e+01 4.073651e+01 4.052562e+01 5.043792e+01 5.669431e+01 3.033258e+01 4.253207e+01 4.202998e+01 2.481221e+01 1.846995e+00 2.676057e+00 3.391585e+00 3.042460e+00 3.400405e+00 3.122798e+00 3.459071e+00 2.678347e+00 3.271154e+00 3.197366e+00 3.044189e+00 2.261277e+00 6.581248e-01
<GCONST> 1.029024e+02
<STATE> 3
<MEAN> 25
 -2.065173e+01 3.976423e+00 1.109543e+01 -6.530579e+00 1.092187e+00 2.672437e-03 4.900757e+00 -2.982084e-01 1.544918e+00 6.047511e-01 1.116507e+01 -1.186762e+00 -7.623967e-01 -2.726274e-01 -8.249210e-02 3.373499e-01 6.493466e-02 3.549558e-01 5.673831e-01 4.730391e-01 4.156743e-01 2.979909e-01 5.658177e-01 2.912403e-01 -4.197673e-01
<VARIANCE> 25
 1.391175e+01 2.845415e+01 2.463529e+01 2.583615e+01 3.357536e+01 3.508993e+01 3.501056e+01 3.360909e+01 3.573982e+01 3.216962e+01 2.546121e+01 2.097009e+01 2.298541e+00 1.433828e+00 1.274253e+00 1.228007e+00 1.735377e+00 1.909418e+00 2.194834e+00 2.153519e+00 2.062465e+00 1.856192e+00 1.864752e+00 1.577335e+00 4.045518e-01
<GCONST> 9.176154e+01
<STATE> 4
<MEAN> 25
 -1.316991e+01 -3.222700e-02 8.434204e+00 -4.075660e+00 9.474500e-01 -2.755366e+00 5.920296e+00 1.729401e+00 1.166338e+00 -1.326483e+00 8.697228e+00 -7.783357e-02 4.421962e+00 -9.089653e-01 -1.282753e+00 -6.965419e-02 -6.084266e-01 -1.330166e+00 -1.106135e+00 -3.588833e-01 -8.576978e-01 -8.631905e-01 -2.383653e+00 -8.113239e-01 8.530436e-01
<VARIANCE> 25
 7.892912e+01 3.314268e+01 3.817613e+01 3.781233e+01 3.898897e+01 4.589926e+01 3.367386e+01 3.296684e+01 3.320971e+01 4.126842e+01 4.321331e+01 2.256324e+01 5.614440e+00 4.080560e+00 3.734338e+00 2.546901e+00 5.547987e+00 3.850239e+00 3.555857e+00 3.786640e+00 3.127627e+00 3.754014e+00 4.521962e+00 2.731913e+00 3.656636e+00
<GCONST> 1.070178e+02
<TRANSP> 5
 0.000000e+00 1.000000e+00 0.000000e+00 0.000000e+00 0.000000e+00
 0.000000e+00 7.261583e-01 2.738417e-01 0.000000e+00 0.000000e+00
 0.000000e+00 0.000000e+00 8.675267e-01 1.324733e-01 0.000000e+00
 0.000000e+00 0.000000e+00 0.000000e+00 7.374693e-01 2.625307e-01
 0.000000e+00 0.000000e+00 0.000000e+00 0.000000e+00 0.000000e+00
<ENDHMM>
~h "th"
<BEGINHMM>
<NUMSTATES> 5
<STATE> 2
<MEAN> 25
 3.494038e-01 -9.290586e+00 -6.407297e+00 -3.113565e+00 6.409204e+00 2.387623e+00 1.532473e+00 5.434363e+00 4.195526e+00 2.805504e-01 -3.471284e+00 2.973413e+00 2.211195e-01 -7.323832e-01 -6.737477e-02 -1.492384e-01 4.467195e-01 3.776110e-01 3.918432e-01 -1.684268e-01 -2.240493e-01 -1.211477e-01 -3.541771e-01 -1.347406e-01 6.691239e-01
<VARIANCE> 25
 2.473965e+01 6.787812e+01 2.646166e+01 7.269572e+01 5.413241e+01 4.537202e+01 3.645723e+01 3.059231e+01 2.872878e+01 3.726052e+01 8.060654e+01 3.221270e+01 2.544580e+00 5.708635e+00 2.258631e+00 3.629347e+00 3.669647e+00 3.381923e+00 3.664648e+00 3.155966e+00 3.615530e+00 3.103009e+00 6.206002e+00 3.808394e+00 4.780496e+00
<GCONST> 1.074872e+02
<STATE> 3
<MEAN> 25
 3.992496e+00 -9.031550e+00 -3.189841e+00 -7.032655e-01 1.890442e+00 -3.490346e+00 2.409816e+00 4.899531e+00 -9.889123e-01 -2.875554e+00 -5.667574e+00 -1.146341e+00 2.435825e-04 1.448490e-02 1.806628e-01 5.301481e-01 -1.016124e+00 -6.695873e-01 1.047704e-01 -1.936626e-01 -3.387738e-01 -4.620597e-01 7.962171e-01 -2.986087e-01 -2.846977e-02
<VARIANCE> 25
 2.697366e+01 5.604077e+01 2.656135e+01 4.479879e+01 4.561836e+01 5.142130e+01 2.338558e+01 3.354869e+01 2.576226e+01 3.137128e+01 7.799409e+01 2.390699e+01 2.381305e+00 3.630086e+00 1.887741e+00 2.922477e+00 3.280278e+00 2.678640e+00 4.266242e+00 2.865173e+00 2.923327e+00 2.574606e+00 4.964525e+00 2.724860e+00 2.795301e+00
<GCONST> 1.031930e+02
<STATE> 4
<MEAN> 25
 -1.163289e+00 -4.340626e+00 -4.305924e+00 3.153912e+00 -2.417008e+00 -3.343246e+00 4.303418e+00 1.745647e+00 2.272812e+00 -3.333625e+00 2.849838e+00 1.523038e+00 -4.401639e-01 -7.285821e-02 6.487197e-02 -3.218555e-01 8.807816e-02 6.358849e-01 3.476511e-01 -7.433751e-01 3.804675e-01 1.308162e-01 3.155301e-01 4.777699e-01 -1.220999e-02
<VARIANCE> 25
 3.482623e+01 3.786790e+01 2.805528e+01 2.565850e+01 4.841623e+01 8.181553e+01 4.564185e+01 5.949791e+01 3.694477e+01 4.300308e+01 7.323557e+01 2.599707e+01 2.307098e+00 4.427472e+00 2.359074e+00 3.002095e+00 3.326679e+00 4.030548e+00 4.243794e+00 5.452275e+00 3.266846e+00 3.610704e+00 7.624093e+00 3.192993e+00 3.398918e+00
<GCONST> 1.077261e+02
<TRANSP> 5
 0.000000e+00 1.000000e+00 0.000000e+00 0.000000e+00 0.000000e+00
 0.000000e+00 6.659189e-01 3.340811e-01 0.000000e+00 0.000000e+00
 0.000000e+00 0.000000e+00 4.801729e-01 5.198272e-01 0.000000e+00
 0.000000e+00 0.000000e+00 0.000000e+00 7.867813e-01 2.132186e-01
