~o
<STREAMINFO> 1 25
<VECSIZE> 25<NULLD><MFCC_D_N_Z_0><DIAGC>
~s "silst"
<NUMMIXES> 7
<MIXTURE> 1 1.061458e-01
<MEAN> 25
 -9.468182e+00 6.125365e+00 -1.974220e+00 5.817846e+00 2.600316e+00 1.590960e+00 6.248921e-01 5.984192e+00 7.477349e+00 7.121086e+00 1.079318e+01 3.744003e+00 2.162925e-01 3.096232e-01 5.451892e-01 5.361087e-01 6.737278e-01 6.244174e-01 7.120218e-01 5.963106e-01 5.107637e-01 3.342952e-01 2.311134e-01 1.541727e-01 2.253269e-01
<VARIANCE> 25
 3.448561e+00 6.975650e+00 9.683423e+00 9.934980e+00 1.630197e+01 1.471448e+01 1.440528e+01 1.554915e+01 1.582771e+01 1.443186e+01 1.392645e+01 1.186915e+01 1.191179e-01 2.700904e-01 3.907982e-01 5.957118e-01 7.506517e-01 9.317695e-01 1.015454e+00 1.187959e+00 1.365218e+00 1.327356e+00 1.226640e+00 1.130434e+00 9.304304e-02
<GCONST> 6.860702e+01
<MIXTURE> 2 1.325712e-01
<MEAN> 25
 -8.968755e+00 6.938548e+00 -1.280052e+00 6.368548e+00 2.907591e+00 1.667730e+00 6.063344e-01 5.367558e+00 7.246870e+00 6.700412e+00 1.053288e+01 3.412234e+00 3.348483e-02 5.880654e-03 -1.809523e-04 -6.739661e-02 -5.837126e-02 -1.007972e-01 -1.335877e-02 5.825421e-02 2.621418e-01 3.961389e-01 4.693040e-01 4.165334e-01 8.236720e-02
<VARIANCE> 25
 3.025848e+00 6.181395e+00 8.403098e+00 8.573543e+00 1.382616e+01 1.277051e+01 1.278389e+01 1.412277e+01 1.421819e+01 1.394632e+01 1.313392e+01 1.147743e+01 1.031942e-01 2.287692e-01 3.604306e-01 5.430355e-01 6.753991e-01 8.311451e-01 1.022991e+00 1.143099e+00 1.230337e+00 1.244367e+00 1.197088e+00 1.116484e+00 5.643873e-02
<GCONST> 6.587119e+01
<MIXTURE> 3 1.497736e-01
<MEAN> 25
 -9.234061e+00 6.454134e+00 -1.788051e+00 5.673418e+00 2.138802e+00 9.034865e-01 -1.155071e-01 4.523267e+00 6.413070e+00 5.603422e+00 9.483960e+00 2.393994e+00 3.516974e-02 7.901838e-02 1.456195e-01 2.103141e-01 2.795278e-01 3.240163e-01 3.827784e-01 3.634898e-01 3.615949e-01 3.624795e-01 3.416201e-01 2.151734e-01 2.330070e-02
<VARIANCE> 25
 2.755224e+00 5.864563e+00 7.680515e+00 8.367865e+00 1.291012e+01 1.230177e+01 1.243823e+01 1.345705e+01 1.301306e+01 1.296446e+01 1.314631e+01 1.086520e+01 7.750671e-02 1.841293e-01 3.036305e-01 4.203629e-01 5.520777e-01 7.330557e-01 8.711877e-01 1.004854e+00 1.098308e+00 1.147436e+00 1.128193e+00 1.035856e+00 3.544844e-02
<GCONST> 6.287208e+01
<MIXTURE> 4 1.888108e-01
<MEAN> 25
 -9.414785e+00 6.041202e+00 -1.957066e+00 4.826083e+00 1.467083e+00 5.801247e-02 -1.227561e+00 3.264971e+00 5.012683e+00 4.534911e+00 8.488643e+00 2.074387e+00 -1.224207e-01 -2.305556e-01 -3.140434e-01 -4.186551e-01 -4.937197e-01 -5.806153e-01 -5.787745e-01 -5.423377e-01 -4.336890e-01 -3.513047e-01 -2.627784e-01 -1.497041e-01 -1.696148e-02
<VARIANCE> 25
 3.191869e+00 6.411246e+00 8.627868e+00 8.746551e+00 1.334249e+01 1.292097e+01 1.254872e+01 1.440608e+01 1.482092e+01 1.423880e+01 1.399316e+01 1.181403e+01 1.046040e-01 2.379399e-01 3.846754e-01 5.744985e-01 7.390017e-01 8.232011e-01 1.061006e+00 1.180041e+00 1.218238e+00 1.174662e+00 1.223401e+00 1.088818e+00 5.324287e-02
<GCONST> 6.633323e+01
<MIXTURE> 5 1.839256e-01
<MEAN> 25
 -9.224870e+00 6.037584e+00 -2.229533e+00 4.477294e+00 8.629647e-01 -5.154808e-01 -1.549750e+00 3.147681e+00 5.121653e+00 4.474103e+00 8.317365e+00 1.621315e+00 -2.391216e-02 -9.184632e-03 2.546899e-02 7.214291e-02 1.194648e-01 1.214025e-01 7.366932e-02 -2.765333e-02 -1.256936e-01 -2.151618e-01 -2.443162e-01 -1.942207e-01 1.861960e-04
<VARIANCE> 25
 3.090872e+00 6.692846e+00 8.662901e+00 8.781954e+00 1.368751e+01 1.302518e+01 1.254560e+01 1.381177e+01 1.436291e+01 1.358192e+01 1.274739e+01 1.132147e+01 8.174776e-02 1.912366e-01 3.136155e-01 4.555654e-01 5.829880e-01 7.582772e-01 9.065113e-01 1.036697e+00 1.116969e+00 1.119446e+00 1.105994e+00 1.014478e+00 3.901771e-02
<GCONST> 6.400411e+01
<MIXTURE> 6 1.325712e-01
<MEAN> 25
 -9.664554e+00 5.944052e+00 -2.439576e+00 5.197324e+00 1.420249e+00 2.382960e-01 -8.238482e-01 3.864347e+00 5.738589e+00 5.206622e+00 9.083252e+00 2.057100e+00 -9.501059e-02 -1.854386e-01 -2.403244e-01 -3.621604e-01 -3.871019e-01 -4.654658e-01 -4.179308e-01 -3.694090e-01 -1.815405e-01 -5.006590e-02 3.165798e-02 -6.121829e-03 -1.266015e-02
<VARIANCE> 25
 3.025848e+00 6.181395e+00 8.403098e+00 8.573543e+00 1.382616e+01 1.277051e+01 1.278389e+01 1.412277e+01 1.421819e+01 1.394632e+01 1.313392e+01 1.147743e+01 1.031942e-01 2.287692e-01 3.604306e-01 5.430355e-01 6.753991e-01 8.311451e-01 1.022991e+00 1.143099e+00 1.230337e+00 1.244367e+00 1.197088e+00 1.116484e+00 5.643873e-02
<GCONST> 6.587119e+01
<MIXTURE> 7 1.061458e-01
<MEAN> 25
 -1.021099e+01 5.068907e+00 -3.218948e+00 4.557054e+00 9.852880e-01 5.658168e-02 -8.932795e-01 4.406896e+00 5.885987e+00 5.601514e+00 9.300457e+00 2.365937e+00 7.823867e-02 1.017422e-01 2.951338e-01 2.273792e-01 3.271672e-01 2.383046e-01 3.089429e-01 1.603364e-01 4.339351e-02 -1.265486e-01 -2.119017e-01 -2.711148e-01 1.033151e-01
<VARIANCE> 25
 3.448561e+00 6.975650e+00 9.683423e+00 9.934980e+00 1.630197e+01 1.471448e+01 1.440528e+01 1.554915e+01 1.582771e+01 1.443186e+01 1.392645e+01 1.186915e+01 1.191179e-01 2.700904e-01 3.907982e-01 5.957118e-01 7.506517e-01 9.317695e-01 1.015454e+00 1.187959e+00 1.365218e+00 1.327356e+00 1.226640e+00 1.130434e+00 9.304304e-02
<GCONST> 6.860702e+01
~h "a"
<BEGINHMM>
<NUMSTATES> 5
<STATE> 2
<NUMMIXES> 7
<MIXTURE> 1 1.783671e-01
<MEAN> 25
 -5.157560e+00 -1.680260e+00 -1.316669e+00 9.536745e-01 1.854226e+00 -3.154581e+00 1.903440e+00 1.497257e+00 3.450762e+00 -1.563471e-01 4.021871e+00 2.781772e+00 6.670075e-01 -5.078225e-01 -1.542175e-01 -2.389491e-01 1.019304e+00 1.146625e-01 -3.159780e-01 4.626590e-01 -5.853438e-02 -2.111418e-01 -1.007916e+00 2.519090e-02 4.592457e-01
<VARIANCE> 25
 4.040568e+01 5.045095e+01 7.583429e+01 6.879836e+01 7.288610e+01 6.555393e+01 6.000466e+01 6.180164e+01 4.535336e+01 5.498250e+01 5.482337e+01 3.703166e+01 4.762795e+00 6.977236e+00 5.502551e+00 5.771644e+00 8.169404e+00 4.855418e+00 4.999781e+00 5.476644e+00 3.821570e+00 5.104281e+00 4.815215e+00 3.194266e+00 5.255226e+00
<GCONST> 1.155693e+02
<MIXTURE> 2 1.229661e-01
<MEAN> 25
 8.006510e+00 -1.016230e+01 -3.142621e+00 -3.690727e+00 5.220535e+00 -2.460747e+00 8.950759e-01 7.800044e+00 2.896252e+00 1.499617e-01 -8.249892e+00 1.153741e+00 3.822456e-01 -1.320071e+00 1.026322e+00 -4.564855e-01 1.104546e+00 2.616146e-01 1.648353e+00 2.120472e+00 -2.210001e-01 2.780411e-01 -1.237001e+00 8.863263e-01 1.428618e+00
<VARIANCE> 25
 1.135689e+01 1.955068e+01 3.579768e+01 3.659992e+01 5.363815e+01 4.529190e+01 3.814253e+01 2.466352e+01 3.529032e+01 5.332473e+01 3.035485e+01 3.911903e+01 1.134394e+00 1.732035e+00 2.798548e+00 2.772670e+00 4.152936e+00 3.599416e+00 3.364347e+00 3.088094e+00 2.965847e+00 4.511675e+00 3.149858e+00 3.519244e+00 1.049397e+00
<GCONST> 1.006066e+02
<MIXTURE> 3 1.838379e-01
<MEAN> 25
 3.936042e+00 7.364425e-01 3.164994e-01 1.902853e+00 -3.544081e+00 -3.435412e+00 -1.225733e+00 -9.297152e-01 -1.047671e+00 -2.103825e+00 -3.619391e-01 1.725273e-01 -8.532545e-01 7.559463e-01 -2.900486e-01 6.662452e-01 6.039348e-01 3.303927e-01 2.301650e-01 5.019174e-01 5.303067e-01 5.082040e-02 7.267102e-01 4.135206e-03 -1.184903e+00
<VARIANCE> 25
 2.044230e+01 6.221728e+01 5.806579e+01 6.048025e+01 5.555149e+01 4.659858e+01 5.495788e+01 5.608830e+01 4.081589e+01 4.804513e+01 3.793707e+01 3.079871e+01 8.283966e-01 1.918508e+00 1.756459e+00 2.201967e+00 2.406326e+00 2.212159e+00 2.460253e+00 2.340067e+00 2.415047e+00 2.462029e+00 2.420555e+00 1.916801e+00 9.093354e-01
<GCONST> 1.002568e+02
<MIXTURE> 4 1.723922e-01
<MEAN> 25
 6.112627e+00 -1.248022e+01 -2.014227e+00 -6.942586e+00 3.392337e+00 -4.969745e+00 -5.383063e-01 5.405954e+00 -2.647664e+00 -2.841797e+00 -9.146382e+00 5.798625e-01 1.289057e+00 -1.991847e+00 5.413589e-01 -1.845013e+00 6.971913e-01 -2.306437e-01 1.249143e-01 1.090052e+00 -1.532854e+00 2.571986e-02 -2.459021e+00 -6.888424e-01 2.267672e+00
<VARIANCE> 25
 8.385144e+00 2.482695e+01 3.795953e+01 3.745518e+01 6.853601e+01 4.604029e+01 3.189346e+01 3.555711e+01 3.376557e+01 5.294015e+01 2.879711e+01 3.033683e+01 2.233650e+00 2.677371e+00 2.977286e+00 3.058297e+00 4.899659e+00 3.914678e+00 3.562178e+00 3.281845e+00 3.157624e+00 3.905864e+00 3.753079e+00 2.886882e+00 2.681125e+00
<GCONST> 1.031879e+02
<MIXTURE> 5 1.097411e-01
<MEAN> 25
 5.466373e+00 -9.562582e-01 5.210207e+00 9.333240e-01 -3.674161e+00 -3.281300e+00 -1.510270e-01 -5.639776e-01 -2.835967e+00 -1.299284e+00 -2.641059e+00 9.416565e-01 -1.512048e-01 1.497124e+00 -2.848192e-01 1.459003e+00 7.281969e-01 4.569175e-01 2.136661e-01 1.619101e-01 4.587362e-01 -2.232486e-01 5.709432e-01 -6.688279e-02 -1.028324e+00
<VARIANCE> 25
 1.237907e+01 5.342812e+01 5.078722e+01 7.441837e+01 4.583805e+01 4.473983e+01 4.913547e+01 5.542389e+01 3.929289e+01 5.439193e+01 3.145515e+01 2.879147e+01 8.129507e-01 1.728671e+00 1.405603e+00 2.608254e+00 2.223015e+00 2.444625e+00 2.693445e+00 2.427091e+00 2.142277e+00 2.604447e+00 2.394751e+00 1.962147e+00 9.827426e-01
<GCONST> 9.914878e+01
<MIXTURE> 6 1.229661e-01
<MEAN> 25
 6.658510e+00 -1.193094e+01 -5.535867e+00 -6.110641e+00 2.291013e+00 -5.152717e+00 -1.575310e+00 5.813549e+00 5.200257e-01 -2.770990e+00 -1.045370e+01 -1.348068e+00 -4.378617e-02 -1.846499e+00 3.571680e-01 -1.122539e+00 2.893958e-01 -4.972705e-01 9.146669e-01 1.417554e+00 -9.098655e-01 -5.715871e-01 -1.946915e+00 1.359404e-01 1.018858e+00
<VARIANCE> 25
 1.135689e+01 1.955068e+01 3.579768e+01 3.659992e+01 5.363815e+01 4.529190e+01 3.814253e+01 2.466352e+01 3.529032e+01 5.332473e+01 3.035485e+01 3.911903e+01 1.134394e+00 1.732035e+00 2.798548e+00 2.772670e+00 4.152936e+00 3.599416e+00 3.364347e+00 3.088094e+00 2.965847e+00 4.511675e+00 3.149858e+00 3.519244e+00 1.049397e+00
<GCONST> 1.006066e+02
<MIXTURE> 7 1.097411e-01
<MEAN> 25
 4.059017e+00 -3.880040e+00 2.359601e+00 -2.517320e+00 -6.382313e+00 -5.956813e+00 -2.954895e+00 -3.541866e+00 -5.343328e+00 -4.249320e+00 -4.884455e+00 -1.204651e+00 -5.118600e-01 9.712082e-01 -7.590518e-01 8.129992e-01 1.318057e-01 -1.684943e-01 -4.428027e-01 -4.612549e-01 -1.267246e-01 -8.687806e-01 -4.805610e-02 -6.271894e-01 -1.424858e+00
<VARIANCE> 25
 1.237907e+01 5.342812e+01 5.078722e+01 7.441837e+01 4.583805e+01 4.473983e+01 4.913547e+01 5.542389e+01 3.929289e+01 5.439193e+01 3.145515e+01 2.879147e+01 8.129507e-01 1.728671e+00 1.405603e+00 2.608254e+00 2.223015e+00 2.444625e+00 2.693445e+00 2.427091e+00 2.142277e+00 2.604447e+00 2.394751e+00 1.962147e+00 9.827426e-01
<GCONST> 9.914878e+01
<STATE> 3
<NUMMIXES> 7
<MIXTURE> 1 1.405864e-01
<MEAN> 25
 5.849938e-01 3.303495e+00 1.146125e+00 5.718627e+00 4.214988e-01 -2.744275e+00 1.359761e+00 1.593473e+00 1.968092e+00 -7.879002e-01 3.879221e+00 1.399182e+00 -3.285091e-01 1.284613e+00 1.187864e-02 9.248115e-01 8.143963e-01 8.691345e-01 3.136180e-01 7.308493e-01 6.592485e-01 3.386808e-01 6.087319e-01 -4.003337e-02 -1.149966e+00
<VARIANCE> 25
 4.169329e+01 4.201562e+01 5.231686e+01 4.123349e+01 5.976200e+01 4.592847e+01 5.377982e+01 5.493724e+01 5.042097e+01 4.536095e+01 3.750872e+01 2.855523e+01 2.462608e+00 2.361215e+00 2.530402e+00 2.649488e+00 3.252805e+00 3.128457e+00 3.102280e+00 2.943055e+00 2.844761e+00 3.031467e+00 3.426732e+00 2.175261e+00 1.329466e+00
<GCONST> 1.043547e+02
<MIXTURE> 2 1.380293e-01
<MEAN> 25
 8.085864e+00 -1.092271e+01 -2.694662e+00 -3.019868e+00 5.617281e+00 -2.099007e+00 3.925100e+00 8.630284e+00 6.450099e-01 -9.389862e-01 -8.847908e+00 1.176201e+00 1.512268e-01 4.696760e-01 5.706216e-01 5.792200e-01 3.340672e-01 3.458045e-01 7.613938e-01 5.278171e-01 -3.124762e-02 5.456577e-01 5.460368e-01 3.449323e-01 -1.171610e-02
<VARIANCE> 25
 5.497790e+00 1.774994e+01 2.765913e+01 3.005950e+01 4.649615e+01 3.912824e+01 3.223096e+01 2.611844e+01 3.234190e+01 4.860584e+01 2.326355e+01 3.036427e+01 3.167187e-01 1.349570e+00 1.359079e+00 1.381223e+00 3.182951e+00 2.563095e+00 2.728502e+00 2.301483e+00 2.080096e+00 2.695847e+00 2.077191e+00 2.233273e+00 4.848469e-01
<GCONST> 9.166369e+01
<MIXTURE> 3 9.852435e-02
<MEAN> 25
 7.929983e+00 -5.388793e+00 -3.965455e+00 5.814284e-01 -1.380540e-01 -5.861942e+00 5.512786e-01 4.589371e+00 1.346068e+00 -1.742041e+00 -7.066514e+00 4.030731e-02 -6.253806e-01 1.158728e+00 5.689318e-01 1.063234e+00 -4.449726e-01 1.861639e-01 7.705799e-01 2.950131e-01 -1.138847e-01 -4.910326e-01 1.068472e+00 3.396784e-01 -1.155233e+00
<VARIANCE> 25
 7.698761e+00 3.392989e+01 3.611465e+01 3.167536e+01 4.671813e+01 4.023151e+01 4.201043e+01 3.783984e+01 3.533852e+01 4.607326e+01 3.011532e+01 3.219579e+01 4.648766e-01 2.925252e+00 2.352288e+00 2.626286e+00 2.480392e+00 2.470041e+00 3.760532e+00 2.862476e+00 3.470855e+00 2.970057e+00 2.683578e+00 2.516264e+00 1.871216e+00
<GCONST> 9.892340e+01
<MIXTURE> 4 2.181943e-01
<MEAN> 25
 6.106975e+00 -1.285217e+01 -1.604055e+00 -6.763509e+00 5.953601e+00 -3.795776e+00 4.939792e-01 6.071354e+00 -3.429954e+00 -2.483600e+00 -1.030112e+01 7.318598e-02 1.367033e-01 6.632026e-01 -1.905277e-01 4.855085e-01 3.729651e-02 -2.576137e-01 -4.175709e-01 -6.088126e-01 -3.710182e-01 1.032728e-01 -1.848225e-02 -2.452019e-01 -4.791626e-01
<VARIANCE> 25
 5.627750e+00 1.906312e+01 2.723420e+01 2.764653e+01 5.228068e+01 4.283065e+01 3.354857e+01 2.948142e+01 3.494628e+01 5.066547e+01 2.507074e+01 3.474674e+01 3.214568e-01 1.546358e+00 1.236650e+00 1.571626e+00 2.547960e+00 2.226155e+00 2.400047e+00 2.056015e+00 2.112334e+00 2.541779e+00 2.012014e+00 1.957052e+00 6.620742e-01
<GCONST> 9.204205e+01
<MIXTURE> 5 1.260547e-01
<MEAN> 25
 5.990934e+00 -3.606584e+00 4.658335e-01 -1.224886e+00 -2.157113e+00 -6.209371e+00 -1.186947e+00 5.818039e-02 -2.227112e+00 -1.187561e+00 -6.311815e+00 2.711061e-02 -4.509031e-01 1.661802e+00 -2.036980e-01 1.411341e+00 -5.626410e-02 4.571569e-01 1.586698e-01 -2.827271e-01 1.736382e-01 -7.707779e-01 3.745255e-01 -4.581769e-01 -1.580965e+00
<VARIANCE> 25
 9.436839e+00 3.453902e+01 4.836238e+01 5.178511e+01 5.618479e+01 4.580465e+01 4.803351e+01 5.150774e+01 3.769398e+01 5.593933e+01 3.035525e+01 3.712691e+01 5.538699e-01 2.130468e+00 1.459988e+00 2.957513e+00 1.933669e+00 2.159111e+00 2.447007e+00 2.662661e+00 2.479018e+00 2.587840e+00 2.436933e+00 2.041980e+00 1.434567e+00
<GCONST> 9.866301e+01
<MIXTURE> 6 1.405864e-01
<MEAN> 25
 -1.997820e+00 7.107168e-01 -1.747091e+00 3.150095e+00 -2.670737e+00 -5.455097e+00 -1.573628e+00 -1.371313e+00 -8.722168e-01 -3.481922e+00 1.429447e+00 -7.383018e-01 -9.562171e-01 6.699636e-01 -6.244109e-01 2.737216e-01 9.297493e-02 1.616367e-01 -3.909136e-01 4.463592e-02 -1.540828e-02 -3.577635e-01 -1.317255e-01 -6.299840e-01 -1.611176e+00
<VARIANCE> 25
 4.169329e+01 4.201562e+01 5.231686e+01 4.123349e+01 5.976200e+01 4.592847e+01 5.377982e+01 5.493724e+01 5.042097e+01 4.536095e+01 3.750872e+01 2.855523e+01 2.462608e+00 2.361215e+00 2.530402e+00 2.649488e+00 3.252805e+00 3.128457e+00 3.102280e+00 2.943055e+00 2.844761e+00 3.031467e+00 3.426732e+00 2.175261e+00 1.329466e+00
<GCONST> 1.043547e+02
<MIXTURE> 7 1.380293e-01
<MEAN> 25
 7.147970e+00 -1.260793e+01 -4.798340e+00 -5.212930e+00 2.889757e+00 -4.601110e+00 1.654208e+00 6.586036e+00 -1.629788e+00 -3.727702e+00 -1.077720e+01 -1.027951e+00 -7.388425e-02 4.992008e-03 1.043034e-01 1.091182e-01 -3.795659e-01 -2.945823e-01 1.006666e-01 -7.900849e-02 -6.081492e-01 -1.111037e-01 -3.046179e-02 -2.528333e-01 -2.902399e-01
<VARIANCE> 25
 5.497790e+00 1.774994e+01 2.765913e+01 3.005950e+01 4.649615e+01 3.912824e+01 3.223096e+01 2.611844e+01 3.234190e+01 4.860584e+01 2.326355e+01 3.036427e+01 3.167187e-01 1.349570e+00 1.359079e+00 1.381223e+00 3.182951e+00 2.563095e+00 2.728502e+00 2.301483e+00 2.080096e+00 2.695847e+00 2.077191e+00 2.233273e+00 4.848469e-01
<GCONST> 9.166369e+01
<STATE> 4
<NUMMIXES> 7
<MIXTURE> 1 1.711522e-01
<MEAN> 25
 -8.292624e+00 4.820557e+00 -2.720789e+00 6.487361e+00 2.608464e+00 1.632766e+00 4.912855e-01 4.592521e+00 5.298656e+00 2.497713e+00 8.195834e+00 1.885742e+00 -6.002426e-02 8.566421e-02 1.101444e-01 1.618529e-01 2.180353e-01 2.790074e-01 1.989879e-01 2.356117e-01 2.445422e-01 2.864364e-01 2.134132e-01 1.141881e-01 -1.056042e-01
<VARIANCE> 25
 2.850732e+00 7.617146e+00 7.683218e+00 1.116507e+01 1.058482e+01 1.478281e+01 1.411180e+01 1.456153e+01 1.461955e+01 1.801389e+01 1.629194e+01 1.384097e+01 1.269071e-01 3.236462e-01 4.724009e-01 6.756881e-01 9.283731e-01 1.075883e+00 1.314218e+00 1.331223e+00 1.307686e+00 1.343513e+00 1.374279e+00 1.163738e+00 6.150538e-02
<GCONST> 6.931512e+01
<MIXTURE> 2 1.601372e-01
<MEAN> 25
 4.122156e+00 -3.471357e+00 -1.590395e+00 2.826697e-01 8.019108e-02 -2.443045e+00 1.282905e+00 1.966345e+00 -3.236903e-01 -2.130111e+00 -3.548546e+00 -5.295058e-01 5.519099e-03 8.346475e-01 4.353929e-01 3.896017e-01 -3.147559e-01 4.616317e-01 1.115462e-01 -6.175722e-01 -2.170274e-01 -1.306829e-01 3.935673e-01 -1.049455e-01 -3.969738e-01
<VARIANCE> 25
 3.477573e+01 6.218618e+01 5.649824e+01 4.828011e+01 6.567514e+01 4.808508e+01 4.779951e+01 6.084617e+01 4.331136e+01 4.766932e+01 4.488889e+01 3.136685e+01 3.047610e+00 3.159455e+00 3.058527e+00 3.211506e+00 4.137516e+00 3.843531e+00 4.170339e+00 4.086343e+00 3.550702e+00 3.550032e+00 4.460048e+00 2.625372e+00 1.879471e+00
<GCONST> 1.082299e+02
<MIXTURE> 3 1.596796e-01
<MEAN> 25
 -6.912990e-01 4.326476e+00 -2.321075e+00 6.589915e+00 1.552982e+00 -1.900498e+00 6.342722e-01 4.361485e+00 3.750956e+00 -1.457670e+00 3.429323e+00 5.967058e-01 -9.516701e-01 5.221152e-01 -7.320592e-02 2.438862e-01 8.139951e-01 9.752482e-01 5.141883e-01 7.274930e-01 8.340321e-01 6.019870e-01 9.225464e-01 3.841812e-01 -1.004990e+00
<VARIANCE> 25
 2.458737e+01 2.826238e+01 4.601660e+01 2.626366e+01 4.262130e+01 3.772020e+01 3.682904e+01 4.651944e+01 3.780453e+01 3.308074e+01 3.133974e+01 2.228702e+01 7.275232e-01 1.393804e+00 1.882854e+00 1.479013e+00 2.122187e+00 2.150033e+00 2.268668e+00 2.408250e+00 2.412440e+00 2.167005e+00 2.024475e+00 1.832080e+00 3.780501e-01
<GCONST> 9.434299e+01
<MIXTURE> 4 9.792495e-02
<MEAN> 25
 6.908553e+00 -5.688305e+00 7.932022e-01 -8.617963e-01 2.670462e+00 -2.777874e+00 1.573893e+00 4.646674e+00 -2.333577e+00 -1.847295e+00 -5.819230e+00 -2.629268e-02 3.530147e-02 1.546483e+00 4.071179e-01 1.288169e+00 -1.566829e-01 4.275430e-01 1.789668e-01 -4.956640e-01 2.456710e-02 1.558633e-01 8.948432e-01 -1.245227e-01 -7.885720e-01
<VARIANCE> 25
 8.825237e+00 5.246844e+01 4.303933e+01 4.736142e+01 6.519709e+01 4.204459e+01 4.202821e+01 5.269339e+01 3.944142e+01 4.873075e+01 3.099113e+01 3.371958e+01 6.346573e-01 1.810840e+00 1.451292e+00 1.996614e+00 2.368428e+00 2.308192e+00 2.649595e+00 2.851814e+00 2.291654e+00 2.942001e+00 2.386480e+00 2.109604e+00 8.663502e-01
<GCONST> 9.814185e+01
<MIXTURE> 5 1.534904e-01
<MEAN> 25
 -7.522405e+00 5.075393e+00 -2.373481e+00 6.244074e+00 1.956253e+00 6.768480e-01 -8.106336e-01 2.481118e+00 3.217500e+00 3.358275e-01 6.111589e+00 7.263962e-01 -2.589417e-01 -5.698138e-02 -1.817339e-01 -1.899088e-01 -1.008727e-01 -7.126323e-03 -1.736388e-01 -1.938292e-01 -8.438274e-02 2.162410e-02 -6.585721e-02 -7.941370e-02 -2.412354e-01
<VARIANCE> 25
 3.865517e+00 8.230173e+00 9.464454e+00 1.105602e+01 1.192519e+01 1.711299e+01 1.576988e+01 1.518350e+01 1.509430e+01 1.619655e+01 1.482685e+01 1.307390e+01 2.375337e-01 5.503249e-01 7.500784e-01 8.263641e-01 1.100655e+00 1.267869e+00 1.390750e+00 1.528136e+00 1.540044e+00 1.566766e+00 1.467022e+00 1.386033e+00 1.147267e-01
<GCONST> 7.361977e+01
<MIXTURE> 6 1.596796e-01
<MEAN> 25
 -2.674725e+00 2.199980e+00 -5.034497e+00 4.539992e+00 -1.058417e+00 -4.357169e+00 -1.793205e+00 1.633279e+00 1.291540e+00 -3.758304e+00 1.190047e+00 -1.291659e+00 -1.292850e+00 4.987733e-02 -6.220745e-01 -2.425725e-01 2.312860e-01 3.887286e-01 -8.829567e-02 1.067516e-01 2.127509e-01 1.315698e-02 3.534102e-01 -1.572362e-01 -1.250933e+00
<VARIANCE> 25
 2.458737e+01 2.826238e+01 4.601660e+01 2.626366e+01 4.262130e+01 3.772020e+01 3.682904e+01 4.651944e+01 3.780453e+01 3.308074e+01 3.133974e+01 2.228702e+01 7.275232e-01 1.393804e+00 1.882854e+00 1.479013e+00 2.122187e+00 2.150033e+00 2.268668e+00 2.408250e+00 2.412440e+00 2.167005e+00 2.024475e+00 1.832080e+00 3.780501e-01
<GCONST> 9.434299e+01
<MIXTURE> 7 9.792495e-02
<MEAN> 25
 5.720261e+00 -8.585710e+00 -1.830972e+00 -3.614582e+00 -5.593263e-01 -5.371546e+00 -1.019274e+00 1.743066e+00 -4.845673e+00 -4.639591e+00 -8.046018e+00 -2.349035e+00 -2.833601e-01 1.008213e+00 -7.476047e-02 7.229629e-01 -7.722709e-01 -1.801664e-01 -4.721363e-01 -1.171157e+00 -5.809613e-01 -5.302272e-01 2.769138e-01 -7.055017e-01 -1.160884e+00
<VARIANCE> 25
 8.825237e+00 5.246844e+01 4.303933e+01 4.736142e+01 6.519709e+01 4.204459e+01 4.202821e+01 5.269339e+01 3.944142e+01 4.873075e+01 3.099113e+01 3.371958e+01 6.346573e-01 1.810840e+00 1.451292e+00 1.996614e+00 2.368428e+00 2.308192e+00 2.649595e+00 2.851814e+00 2.291654e+00 2.942001e+00 2.386480e+00 2.109604e+00 8.663502e-01
<GCONST> 9.814185e+01
<TRANSP> 5
 0.000000e+00 1.000000e+00 0.000000e+00 0.000000e+00 0.000000e+00
 0.000000e+00 2.911729e-01 7.088271e-01 0.000000e+00 0.000000e+00
 0.000000e+00 0.000000e+00 4.550126e-01 5.449874e-01 0.000000e+00
 0.000000e+00 0.000000e+00 0.000000e+00 5.593279e-01 4.406721e-01
 0.000000e+00 0.000000e+00 0.000000e+00 0.000000e+00 0.000000e+00
<ENDHMM>
~h "b"
<BEGINHMM>
<NUMSTATES> 5
<STATE> 2
<NUMMIXES> 7
<MIXTURE> 1 1.394357e-01
<MEAN> 25
 7.611892e+00 1.143768e+01 -1.586819e+00 4.087302e+00 1.049523e+00 2.312391e+00 -1.451505e+00 -4.569145e+00 -2.030179e+00 -2.802881e+00 -1.590792e+00 -6.543672e+00 -4.322547e-01 1.206790e+00 8.044612e-01 1.998527e-01 4.424454e-02 -4.170718e-02 1.490492e-01 6.007075e-01 4.039365e-01 1.080977e-01 6.250571e-01 3.931047e-01 -6.777226e-01
<VARIANCE> 25
 4.526457e+00 1.377922e+01 1.194476e+01 1.176232e+01 2.476416e+01 2.031364e+01 2.221625e+01 3.786961e+01 2.389895e+01 2.607152e+01 1.364807e+01 1.678598e+01 1.610107e-01 4.640657e-01 6.257039e-01 7.771973e-01 1.064620e+00 1.267982e+00 1.267641e+00 1.817104e+00 1.287485e+00 1.687086e+00 1.691531e+00 1.356393e+00 1.184684e-01
<GCONST> 7.714224e+01
<MIXTURE> 2 1.611109e-01
<MEAN> 25
 8.952736e+00 -1.513414e+00 -6.405044e+00 -4.440722e-01 3.209196e+00 -1.013081e+00 -5.979902e+00 7.304649e-01 1.062967e+00 9.926891e-01 -3.239188e+00 -6.367356e+00 -3.718950e-01 3.103780e+00 6.860255e-01 2.359473e+00 -4.496457e-02 -3.591914e-01 4.720722e-02 -5.147984e-01 -2.992528e-01 -1.293612e+00 2.750948e-01 -3.359445e-01 -2.130121e+00
<VARIANCE> 25
 1.658005e+01 3.778490e+01 2.232638e+01 3.447317e+01 2.049753e+01 2.388824e+01 2.029922e+01 2.945592e+01 3.239819e+01 2.639763e+01 2.990937e+01 3.149747e+01 5.278110e-01 1.046395e+00 1.282837e+00 1.640224e+00 1.475301e+00 1.401105e+00 2.776499e+00 2.848947e+00 2.383892e+00 2.068956e+00 2.876325e+00 1.889016e+00 5.380068e-01
<GCONST> 9.083260e+01
<MIXTURE> 3 1.770582e-01
<MEAN> 25
 7.119328e+00 6.964193e+00 4.834335e+00 7.030771e+00 -5.658980e+00 3.078967e-01 2.274274e+00 -7.831157e+00 -5.429244e+00 -1.508843e+00 -5.591383e+00 -7.574776e+00 1.603381e-01 1.743970e+00 -3.258842e-01 5.725611e-01 1.019152e+00 7.309389e-01 6.798996e-01 8.028483e-01 7.387396e-01 -9.180605e-02 5.284586e-01 -3.585479e-01 -7.372577e-01
<VARIANCE> 25
 5.530291e+00 2.452930e+01 2.231281e+01 2.054622e+01 2.918370e+01 2.209699e+01 2.515219e+01 3.518305e+01 2.436601e+01 3.305582e+01 1.880113e+01 2.166097e+01 3.006854e-01 8.113621e-01 7.192404e-01 1.341945e+00 1.941119e+00 1.628581e+00 2.009464e+00 2.106668e+00 1.801061e+00 1.876154e+00 1.638245e+00 2.065742e+00 2.740378e-01
<GCONST> 8.523026e+01
<MIXTURE> 4 9.013590e-02
<MEAN> 25
 7.515807e+00 -1.110510e+00 3.208309e+00 1.423420e+00 -1.048832e+00 -2.684417e+00 -4.911098e+00 -2.110805e+00 -4.777066e+00 -5.783947e-01 -4.581718e+00 -4.503749e+00 6.879020e-02 3.266167e+00 2.820648e-01 2.947881e+00 7.661161e-02 8.902852e-01 5.278541e-01 -9.188293e-01 9.587735e-02 -1.558031e+00 -4.237319e-01 -1.214445e+00 -2.063828e+00
<VARIANCE> 25
 5.768142e+00 3.194266e+01 4.187997e+01 2.794207e+01 4.916780e+01 1.760510e+01 2.398685e+01 3.345265e+01 2.997582e+01 2.645607e+01 2.492097e+01 2.569065e+01 3.403603e-01 8.882312e-01 1.088783e+00 1.507816e+00 1.370529e+00 2.299270e+00 2.769771e+00 2.174706e+00 2.049230e+00 1.938543e+00 2.361069e+00 1.683710e+00 2.210074e-01
<GCONST> 8.830976e+01
<MIXTURE> 5 1.650644e-01
<MEAN> 25
 8.203665e+00 7.547788e+00 -4.157180e+00 5.623658e+00 3.730077e+00 -8.046985e-01 -3.697715e+00 -1.351469e+00 -1.296595e+00 -5.565060e+00 -5.691277e+00 -8.527496e+00 -4.467567e-01 1.466743e+00 4.268790e-01 1.588703e-01 3.717511e-01 4.039123e-01 1.486303e-02 2.154490e-01 4.158807e-01 -6.071944e-01 1.936354e-01 1.847773e-01 -8.912921e-01
<VARIANCE> 25
 4.443732e+00 1.963599e+01 1.365668e+01 1.546600e+01 2.485858e+01 2.579894e+01 2.343256e+01 3.782150e+01 2.609667e+01 2.949080e+01 2.348457e+01 2.313638e+01 2.517857e-01 4.660072e-01 7.451379e-01 9.211919e-01 1.238903e+00 1.551207e+00 1.837029e+00 1.780168e+00 1.788579e+00 1.476293e+00 1.432453e+00 1.905296e+00 1.332284e-01
<GCONST> 8.124123e+01
<MIXTURE> 6 1.770582e-01
<MEAN> 25
 6.178664e+00 4.983110e+00 2.944877e+00 5.217653e+00 -7.819858e+00 -1.572401e+00 2.681957e-01 -1.020377e+01 -7.403722e+00 -3.808611e+00 -7.325795e+00 -9.436430e+00 -5.900103e-02 1.383668e+00 -6.651164e-01 1.091917e-01 4.618557e-01 2.204754e-01 1.128773e-01 2.222737e-01 2.019252e-01 -6.396971e-01 1.648283e-02 -9.334555e-01 -9.466521e-01
<VARIANCE> 25
 5.530291e+00 2.452930e+01 2.231281e+01 2.054622e+01 2.918370e+01 2.209699e+01 2.515219e+01 3.518305e+01 2.436601e+01 3.305582e+01 1.880113e+01 2.166097e+01 3.006854e-01 8.113621e-01 7.192404e-01 1.341945e+00 1.941119e+00 1.628581e+00 2.009464e+00 2.106668e+00 1.801061e+00 1.876154e+00 1.638245e+00 2.065742e+00 2.740378e-01
<GCONST> 8.523026e+01
<MIXTURE> 7 9.013590e-02
<MEAN> 25
 6.555129e+00 -3.371224e+00 6.197193e-01 -6.909908e-01 -3.853622e+00 -4.362755e+00 -6.870152e+00 -4.424335e+00 -6.967073e+00 -2.635813e+00 -6.578555e+00 -6.531187e+00 -1.645714e-01 2.889183e+00 -1.353143e-01 2.456708e+00 -3.916668e-01 2.837514e-01 -1.378511e-01 -1.508705e+00 -4.767280e-01 -2.114957e+00 -1.038363e+00 -1.733477e+00 -2.251874e+00
<VARIANCE> 25
 5.768142e+00 3.194266e+01 4.187997e+01 2.794207e+01 4.916780e+01 1.760510e+01 2.398685e+01 3.345265e+01 2.997582e+01 2.645607e+01 2.492097e+01 2.569065e+01 3.403603e-01 8.882312e-01 1.088783e+00 1.507816e+00 1.370529e+00 2.299270e+00 2.769771e+00 2.174706e+00 2.049230e+00 1.938543e+00 2.361069e+00 1.683710e+00 2.210074e-01
<GCONST> 8.830976e+01
<STATE> 3
<NUMMIXES> 7
<MIXTURE> 1 1.663662e-01
<MEAN> 25
 4.355969e+00 1.528603e+01 4.993389e+00 6.877609e+00 8.984719e-01 -4.034340e-01 -2.344158e+00 -2.964350e+00 -1.071288e+00 -2.873648e+00 1.302681e-01 -4.235124e+00 -4.980179e-01 -1.403284e-01 5.208020e-01 1.045228e+00 9.552402e-01 9.602904e-04 1.304265e-01 1.024049e+00 5.514121e-01 7.361223e-02 7.733669e-01 6.704853e-01 -1.042845e-01
<VARIANCE> 25
 1.124001e+01 6.091770e+00 1.120039e+01 1.238316e+01 2.006430e+01 1.606202e+01 1.476878e+01 2.166060e+01 1.617437e+01 1.546962e+01 1.320122e+01 1.658185e+01 6.216849e-01 2.082121e+00 1.207381e+00 1.187344e+00 1.274848e+00 1.659526e+00 1.608924e+00 2.216024e+00 1.866890e+00 1.538559e+00 1.474652e+00 1.628594e+00 5.075439e-01
<GCONST> 8.145193e+01
<MIXTURE> 2 1.371481e-01
<MEAN> 25
 5.122605e+00 6.814264e+00 -4.359866e+00 6.080287e+00 3.903570e+00 1.471701e-01 -1.376112e+00 2.177805e+00 7.191408e-01 -5.219445e+00 -3.502500e+00 -5.955786e+00 -4.660101e-01 -6.582408e-01 6.921329e-01 -4.904221e-01 -2.907086e-01 4.579361e-01 -2.699033e-01 -4.593889e-01 5.137613e-01 6.074449e-01 9.799374e-01 9.844813e-01 2.249909e-01
<VARIANCE> 25
 2.590158e+01 2.823703e+01 2.717291e+01 2.093710e+01 2.145846e+01 3.258155e+01 1.835755e+01 4.230601e+01 3.542902e+01 3.594003e+01 2.903096e+01 2.314325e+01 2.178428e+00 2.903140e+00 2.816616e+00 2.025660e+00 2.189840e+00 3.840329e+00 2.255819e+00 3.890493e+00 3.616807e+00 3.630389e+00 3.391869e+00 2.373357e+00 1.385596e+00
<GCONST> 9.862389e+01
<MIXTURE> 3 9.088100e-02
<MEAN> 25
 5.976413e+00 1.448642e+01 4.166564e+00 6.404069e+00 -2.171993e+00 -2.367896e-02 1.001954e+00 -2.095563e+00 -2.002786e+00 -3.568365e+00 -1.111913e+00 -6.638227e+00 8.283685e-01 -2.381215e+00 -2.050066e+00 -5.884945e-01 1.951904e+00 1.857510e-01 -7.632159e-01 8.972015e-01 1.635565e+00 1.296525e+00 1.189431e+00 1.006905e+00 1.709837e+00
<VARIANCE> 25
 5.449998e+00 1.375177e+01 1.416517e+01 1.071091e+01 2.815155e+01 1.850269e+01 2.328633e+01 2.743862e+01 1.448134e+01 1.825656e+01 1.719581e+01 1.322763e+01 5.524613e-01 3.467253e+00 2.621296e+00 2.051579e+00 2.247967e+00 2.274249e+00 2.902051e+00 3.014470e+00 3.139021e+00 2.575239e+00 2.397218e+00 2.181138e+00 8.202243e-01
<GCONST> 8.868407e+01
<MIXTURE> 4 1.707562e-01
<MEAN> 25
 6.942700e+00 3.673453e+00 -4.055813e+00 4.611109e+00 3.826960e+00 -3.005997e+00 -5.921242e+00 -3.702688e-01 -2.504389e+00 -6.948178e+00 -7.328354e+00 -7.106410e+00 -5.474386e-01 -4.253391e-02 -1.870064e-02 -9.525064e-02 -2.590749e-01 1.550216e-01 1.115258e-01 2.024662e-01 1.514680e-01 -2.204626e-01 1.265924e+00 5.069929e-01 -3.585992e-01
<VARIANCE> 25
 5.867912e+00 4.323417e+01 2.075233e+01 2.917108e+01 2.326182e+01 2.594645e+01 2.796785e+01 3.948220e+01 3.485588e+01 2.575253e+01 2.172233e+01 2.171574e+01 2.123245e+00 3.387851e+00 2.000685e+00 2.399150e+00 2.090372e+00 3.394405e+00 2.540117e+00 3.774223e+00 2.119591e+00 3.166976e+00 2.870170e+00 2.361762e+00 1.874352e+00
<GCONST> 9.646245e+01
<MIXTURE> 5 1.776019e-01
<MEAN> 25
 5.519198e+00 1.089906e+01 4.712517e+00 6.082308e+00 -4.886744e+00 1.612503e-01 1.013114e+00 -7.070576e+00 -5.974700e+00 -4.957582e+00 -4.777234e+00 -8.498206e+00 3.004854e-01 -2.196776e+00 -1.678416e+00 -2.243119e-01 1.530507e+00 -9.605029e-01 -1.391652e+00 1.560737e+00 1.962936e+00 3.817841e-01 8.725207e-01 7.747707e-01 1.117544e+00
<VARIANCE> 25
 6.956635e+00 1.923357e+01 1.840500e+01 1.885106e+01 3.123605e+01 2.009908e+01 2.581440e+01 2.512108e+01 2.002921e+01 2.501609e+01 1.929064e+01 1.256098e+01 9.485555e-01 3.278010e+00 4.099033e+00 4.027556e+00 3.069658e+00 3.422001e+00 2.733826e+00 2.946282e+00 2.390564e+00 2.340049e+00 1.929426e+00 2.291215e+00 8.361256e-01
<GCONST> 9.272167e+01
<MIXTURE> 6 1.663662e-01
<MEAN> 25
 3.014925e+00 1.429877e+01 3.654709e+00 5.470020e+00 -8.932558e-01 -2.006532e+00 -3.881364e+00 -4.825988e+00 -2.679982e+00 -4.446906e+00 -1.323071e+00 -5.863956e+00 -8.134059e-01 -7.175106e-01 8.127841e-02 6.093666e-01 5.036036e-01 -5.143301e-01 -3.769470e-01 4.285962e-01 4.875332e-03 -4.225425e-01 2.876259e-01 1.600198e-01 -3.892529e-01
<VARIANCE> 25
 1.124001e+01 6.091770e+00 1.120039e+01 1.238316e+01 2.006430e+01 1.606202e+01 1.476878e+01 2.166060e+01 1.617437e+01 1.546962e+01 1.320122e+01 1.658185e+01 6.216849e-01 2.082121e+00 1.207381e+00 1.187344e+00 1.274848e+00 1.659526e+00 1.608924e+00 2.216024e+00 1.866890e+00 1.538559e+00 1.474652e+00 1.628594e+00 5.075439e-01
<GCONST> 8.145193e+01
<MIXTURE> 7 9.088100e-02
<MEAN> 25
 5.042603e+00 1.300308e+01 2.661098e+00 5.094968e+00 -4.294315e+00 -1.744269e+00 -9.282821e-01 -4.190839e+00 -3.524960e+00 -5.277472e+00 -2.770627e+00 -8.093019e+00 5.310576e-01 -3.126037e+00 -2.697682e+00 -1.161428e+00 1.352176e+00 -4.174736e-01 -1.444632e+00 2.027123e-01 9.268733e-01 6.546227e-01 5.701131e-01 4.161576e-01 1.347573e+00
<VARIANCE> 25
 5.449998e+00 1.375177e+01 1.416517e+01 1.071091e+01 2.815155e+01 1.850269e+01 2.328633e+01 2.743862e+01 1.448134e+01 1.825656e+01 1.719581e+01 1.322763e+01 5.524613e-01 3.467253e+00 2.621296e+00 2.051579e+00 2.247967e+00 2.274249e+00 2.902051e+00 3.014470e+00 3.139021e+00 2.575239e+00 2.397218e+00 2.181138e+00 8.202243e-01
<GCONST> 8.868407e+01
<STATE> 4
<NUMMIXES> 7
<MIXTURE> 1 1.517103e-01
<MEAN> 25
 4.984606e+00 3.785151e+00 2.089915e+00 7.696963e+00 1.989014e+00 -1.324224e+00 -3.017256e+00 2.267982e+00 1.586784e+00 -3.537412e+00 -2.861226e-02 -1.758766e+00 3.516335e-01 -2.279051e+00 9.467540e-01 -8.479260e-01 -1.355626e+00 -1.071482e-01 5.999227e-01 8.849579e-01 7.026052e-01 1.211415e+00 1.074927e+00 1.447933e+00 1.972657e+00
<VARIANCE> 25
 1.974379e+01 6.443475e+01 4.248272e+01 4.462782e+01 3.887679e+01 5.127362e+01 2.580121e+01 3.799511e+01 2.587754e+01 2.658282e+01 2.479919e+01 2.008815e+01 2.799495e+00 7.515320e+00 5.187402e+00 4.768851e+00 6.367387e+00 4.588142e+00 3.086304e+00 4.674222e+00 4.000581e+00 5.220942e+00 3.276494e+00 2.394367e+00 3.748517e+00
<GCONST> 1.065917e+02
<MIXTURE> 2 1.852503e-01
<MEAN> 25
 1.128254e+01 -1.613250e+00 -1.193724e+01 -3.843897e+00 4.621793e+00 1.425048e+00 -6.580459e+00 -2.221788e+00 4.473208e+00 5.482155e+00 -2.509144e+00 -8.050253e+00 1.272599e+00 -4.528127e+00 -3.284100e+00 -3.081400e+00 2.195832e+00 7.497445e-01 -4.226434e-01 2.165200e+00 1.607352e+00 1.700432e+00 -2.383334e+00 -1.746414e-01 2.927517e+00
<VARIANCE> 25
 3.159460e+00 2.656570e+01 1.682283e+01 2.725214e+01 1.641825e+01 2.666198e+01 1.608121e+01 2.402337e+01 2.958033e+01 2.142621e+01 2.758569e+01 1.739778e+01 8.214722e-01 5.945134e+00 4.002033e+00 4.204743e+00 3.898475e+00 5.062475e+00 3.202085e+00 5.160840e+00 3.729868e+00 5.541321e+00 3.562331e+00 2.983638e+00 1.711162e+00
<GCONST> 9.729411e+01
<MIXTURE> 3 9.380330e-02
<MEAN> 25
 7.051396e+00 6.798347e+00 -4.614695e-01 5.562844e+00 1.811081e+00 6.908264e-01 -1.657555e+00 -1.435384e+00 1.017419e+00 -1.615930e-02 2.186348e+00 -4.472196e+00 1.850470e+00 -4.380371e+00 -3.777582e+00 -2.991837e+00 2.148660e+00 1.151524e+00 -1.416589e+00 1.000239e+00 2.233782e+00 3.307107e+00 6.123337e-02 -1.987737e-01 3.276770e+00
<VARIANCE> 25
 7.579548e+00 5.864058e+01 2.815175e+01 2.331385e+01 1.727222e+01 2.437363e+01 1.912971e+01 2.672044e+01 2.116707e+01 2.811193e+01 2.260149e+01 1.643391e+01 7.587710e-01 2.580621e+00 3.083506e+00 3.510973e+00 3.675684e+00 3.273141e+00 2.343487e+00 4.851375e+00 4.052031e+00 3.906828e+00 4.451749e+00 2.830800e+00 7.620527e-01
<GCONST> 9.611213e+01
<MIXTURE> 4 1.806656e-01
<MEAN> 25
 1.077223e+01 -6.295352e+00 -1.061394e+01 -5.629194e+00 5.302292e+00 -3.327766e-01 -8.875710e+00 1.065479e+00 4.218185e+00 4.389632e+00 -6.613305e+00 -9.055316e+00 2.877989e-01 -4.596493e+00 -1.112596e+00 -2.382188e+00 1.498207e+00 -2.825963e-01 4.798571e-01 3.284418e+00 7.181388e-01 3.553744e-01 -2.566635e+00 7.438307e-01 2.829661e+00
<VARIANCE> 25
 3.575730e+00 2.188529e+01 2.330658e+01 3.336047e+01 2.507145e+01 3.176369e+01 1.907351e+01 3.518140e+01 3.115502e+01 2.808362e+01 2.623286e+01 1.740812e+01 7.033994e-01 4.108444e+00 3.619476e+00 4.096842e+00 4.506094e+00 4.526175e+00 3.627520e+00 3.979216e+00 4.181858e+00 4.707510e+00 2.692411e+00 2.905110e+00 1.329520e+00
<GCONST> 9.781436e+01
<MIXTURE> 5 1.430570e-01
<MEAN> 25
 6.923406e+00 2.252464e+00 3.573440e-01 4.868306e+00 -1.407129e+00 -2.537880e+00 -2.956008e+00 -4.122430e+00 -3.616048e+00 -3.858460e+00 -1.470015e+00 -5.535048e+00 7.536223e-01 -4.892543e+00 -1.812123e+00 -3.792352e+00 1.040671e+00 -4.934354e-02 -1.423152e+00 1.493323e+00 9.603394e-01 2.769740e+00 2.916254e-01 4.202273e-01 3.328852e+00
<VARIANCE> 25
 6.979240e+00 7.181141e+01 2.973097e+01 3.309608e+01 4.182198e+01 2.297007e+01 1.918670e+01 2.643473e+01 2.066584e+01 2.390536e+01 1.707250e+01 1.884537e+01 8.151224e-01 2.964291e+00 5.951426e+00 4.263339e+00 7.720888e+00 4.912294e+00 4.446815e+00 6.186097e+00 5.538071e+00 3.641370e+00 2.870330e+00 2.539112e+00 8.865568e-01
<GCONST> 1.000643e+02
<MIXTURE> 6 1.517103e-01
<MEAN> 25
 3.207247e+00 5.743006e-01 -5.172356e-01 5.024801e+00 -5.050364e-01 -4.188448e+00 -5.049052e+00 -1.976244e-01 -4.480146e-01 -5.599753e+00 -2.020564e+00 -3.551558e+00 -3.176342e-01 -3.375615e+00 3.571922e-02 -1.721434e+00 -2.364974e+00 -9.639462e-01 -1.027925e-01 2.015993e-02 -9.745282e-02 2.974393e-01 3.508831e-01 8.289832e-01 1.198213e+00
<VARIANCE> 25
 1.974379e+01 6.443475e+01 4.248272e+01 4.462782e+01 3.887679e+01 5.127362e+01 2.580121e+01 3.799511e+01 2.587754e+01 2.658282e+01 2.479919e+01 2.008815e+01 2.799495e+00 7.515320e+00 5.187402e+00 4.768851e+00 6.367387e+00 4.588142e+00 3.086304e+00 4.674222e+00 4.000581e+00 5.220942e+00 3.276494e+00 2.394367e+00 3.748517e+00
<GCONST> 1.065917e+02
<MIXTURE> 7 9.380330e-02
<MEAN> 25
 5.950157e+00 3.735261e+00 -2.583798e+00 3.631468e+00 1.486869e-01 -1.283960e+00 -3.407055e+00 -3.503056e+00 -8.228887e-01 -2.136987e+00 2.847075e-01 -6.093746e+00 1.502040e+00 -5.022943e+00 -4.479978e+00 -3.741341e+00 1.381778e+00 4.278513e-01 -2.028927e+00 1.192060e-01 1.428596e+00 2.516479e+00 -7.827333e-01 -8.717730e-01 2.927588e+00
<VARIANCE> 25
 7.579548e+00 5.864058e+01 2.815175e+01 2.331385e+01 1.727222e+01 2.437363e+01 1.912971e+01 2.672044e+01 2.116707e+01 2.811193e+01 2.260149e+01 1.643391e+01 7.587710e-01 2.580621e+00 3.083506e+00 3.510973e+00 3.675684e+00 3.273141e+00 2.343487e+00 4.851375e+00 4.052031e+00 3.906828e+00 4.451749e+00 2.830800e+00 7.620527e-01
<GCONST> 9.611213e+01
<TRANSP> 5
 0.000000e+00 1.000000e+00 0.000000e+00 0.000000e+00 0.000000e+00
 0.000000e+00 7.844583e-01 2.155417e-01 0.000000e+00 0.000000e+00
 0.000000e+00 0.000000e+00 4.749897e-01 5.250103e-01 0.000000e+00
 0.000000e+00 0.000000e+00 0.000000e+00 5.881436e-01 4.118564e-01
 0.000000e+00 0.000000e+00 0.000000e+00 0.000000e+00 0.000000e+00
<ENDHMM>
~h "d"
<BEGINHMM>
<NUMSTATES> 5
<STATE> 2
<NUMMIXES> 7
<MIXTURE> 1 1.434078e-01
<MEAN> 25
 5.755611e+00 8.598321e+00 -1.256893e+00 8.972286e+00 2.418750e+00 -2.522189e+00 1.340166e+00 5.502168e+00 1.065769e+00 -5.908664e+00 -3.420260e-01 -1.443016e+00 -8.958560e-01 1.040985e+00 5.456042e-01 4.360368e-01 7.391518e-01 7.683502e-01 -3.392088e-02 1.396327e-01 4.620186e-01 3.029523e-01 1.245268e+00 2.380693e-01 -9.934060e-01
<VARIANCE> 25
 1.593538e+01 3.036226e+01 2.419764e+01 1.567387e+01 2.539064e+01 2.497391e+01 2.803983e+01 3.013346e+01 2.667771e+01 3.339342e+01 2.916880e+01 1.763459e+01 3.802755e-01 1.078866e+00 1.260494e+00 9.284300e-01 1.390562e+00 1.791484e+00 1.734061e+00 2.046245e+00 1.801081e+00 1.632026e+00 2.085114e+00 1.494629e+00 2.030539e-01
<GCONST> 8.635971e+01
<MIXTURE> 2 1.828377e-01
<MEAN> 25
 8.182266e+00 1.213682e+00 -2.203510e+00 5.907408e+00 -1.415714e+00 -7.107470e+00 3.453985e-01 3.690154e+00 -4.184396e-01 -4.132863e+00 -5.172476e+00 1.524453e-01 -3.310922e-01 2.788394e+00 -1.773361e-01 1.913328e+00 6.459905e-01 1.398900e+00 3.653749e-01 2.013965e-01 3.330901e-01 -1.326296e+00 8.592601e-01 -1.401269e+00 -2.102537e+00
<VARIANCE> 25
 5.489464e+00 1.968479e+01 2.643575e+01 1.915655e+01 3.209495e+01 1.996015e+01 2.932242e+01 2.989256e+01 3.141498e+01 3.753630e+01 2.458017e+01 2.628813e+01 2.237009e-01 7.995924e-01 1.003907e+00 1.234339e+00 2.219852e+00 1.790139e+00 2.913485e+00 2.207364e+00 2.039595e+00 1.842132e+00 1.881301e+00 1.826131e+00 2.389348e-01
<GCONST> 8.649950e+01
<MIXTURE> 3 1.805927e-01
<MEAN> 25
 5.764153e+00 1.021346e+01 4.284505e+00 4.056849e+00 -5.965010e+00 1.428070e+00 2.247095e+00 -4.780002e+00 -2.591084e+00 -4.318227e+00 -4.198355e+00 -4.622765e+00 -6.477450e-01 1.113748e+00 -8.112959e-02 8.851317e-01 1.166611e+00 -3.369308e-01 -4.853730e-01 7.609649e-01 5.145323e-01 1.394181e-01 1.436960e+00 -2.365528e-02 -1.037122e+00
<VARIANCE> 25
 6.644032e+00 1.896649e+01 2.027465e+01 1.686849e+01 3.549223e+01 2.657896e+01 3.008767e+01 3.341372e+01 2.780379e+01 2.871550e+01 2.997590e+01 1.731641e+01 4.271393e-01 1.271185e+00 1.046787e+00 1.165671e+00 2.286541e+00 2.376075e+00 2.302989e+00 2.144148e+00 2.066180e+00 1.968223e+00 1.949942e+00 1.686620e+00 3.836546e-01
<GCONST> 8.782841e+01
<MIXTURE> 4 9.184305e-02
<MEAN> 25
 7.347453e+00 -2.331139e+00 2.614430e+00 2.486025e+00 -1.917162e+00 -7.150717e+00 -6.578666e-01 1.864986e+00 -3.420482e+00 -4.370951e+00 -6.649219e+00 2.821021e+00 1.657714e-01 3.032596e+00 -1.528237e-01 3.001020e+00 1.046038e-01 1.417893e+00 2.537715e-01 -9.681314e-01 -1.527518e-02 -1.220675e+00 3.184648e-01 -1.542710e+00 -2.115715e+00
<VARIANCE> 25
 4.897288e+00 2.628375e+01 2.701140e+01 2.858273e+01 3.404630e+01 3.342389e+01 2.837583e+01 4.232189e+01 3.237930e+01 3.127267e+01 2.253789e+01 3.398038e+01 2.501993e-01 8.556372e-01 7.936599e-01 1.159267e+00 1.366786e+00 2.143276e+00 2.074830e+00 2.015996e+00 2.135696e+00 1.922336e+00 1.853973e+00 2.001631e+00 2.726176e-01
<GCONST> 8.744770e+01
<MIXTURE> 5 1.660665e-01
<MEAN> 25
 6.364649e+00 7.277864e+00 2.803445e+00 5.531127e+00 -4.709997e+00 -9.228393e-01 7.233339e-01 -5.597469e+00 -5.162706e+00 -7.248529e+00 -7.052421e+00 -5.031465e+00 -5.047373e-01 1.007476e+00 -2.158933e-01 7.115266e-01 8.591672e-01 2.628370e-01 -1.748328e-01 3.040316e-01 1.807608e-01 -4.646699e-01 9.979308e-01 -5.458049e-01 -9.055103e-01
<VARIANCE> 25
 9.981485e+00 2.706637e+01 3.078263e+01 1.985109e+01 4.899108e+01 2.581739e+01 4.203645e+01 3.770657e+01 2.489750e+01 3.280112e+01 2.840780e+01 2.240692e+01 5.331397e-01 1.289801e+00 1.211364e+00 1.265647e+00 2.189408e+00 1.786483e+00 1.877589e+00 2.046643e+00 2.169087e+00 2.009220e+00 2.641964e+00 1.813259e+00 4.186128e-01
<GCONST> 9.056428e+01
<MIXTURE> 6 1.434078e-01
<MEAN> 25
 4.158845e+00 6.394243e+00 -3.224537e+00 7.388676e+00 4.031844e-01 -4.521145e+00 -7.779402e-01 3.306410e+00 -1.000249e+00 -8.220146e+00 -2.502352e+00 -3.122758e+00 -1.142522e+00 6.255108e-01 9.651735e-02 5.061646e-02 2.674634e-01 2.329650e-01 -5.606559e-01 -4.325553e-01 -7.479882e-02 -2.080508e-01 6.676713e-01 -2.509508e-01 -1.173652e+00
<VARIANCE> 25
 1.593538e+01 3.036226e+01 2.419764e+01 1.567387e+01 2.539064e+01 2.497391e+01 2.803983e+01 3.013346e+01 2.667771e+01 3.339342e+01 2.916880e+01 1.763459e+01 3.802755e-01 1.078866e+00 1.260494e+00 9.284300e-01 1.390562e+00 1.791484e+00 1.734061e+00 2.046245e+00 1.801081e+00 1.632026e+00 2.085114e+00 1.494629e+00 2.030539e-01
<GCONST> 8.635971e+01
<MIXTURE> 7 9.184305e-02
<MEAN> 25
 6.462260e+00 -4.381846e+00 5.355301e-01 3.475126e-01 -4.251130e+00 -9.463253e+00 -2.788625e+00 -7.372255e-01 -5.696594e+00 -6.607829e+00 -8.548182e+00 4.893131e-01 -3.430829e-02 2.662594e+00 -5.091741e-01 2.570343e+00 -3.630347e-01 8.322954e-01 -3.223993e-01 -1.536075e+00 -5.998360e-01 -1.775269e+00 -2.261779e-01 -2.108626e+00 -2.324567e+00
<VARIANCE> 25
 4.897288e+00 2.628375e+01 2.701140e+01 2.858273e+01 3.404630e+01 3.342389e+01 2.837583e+01 4.232189e+01 3.237930e+01 3.127267e+01 2.253789e+01 3.398038e+01 2.501993e-01 8.556372e-01 7.936599e-01 1.159267e+00 1.366786e+00 2.143276e+00 2.074830e+00 2.015996e+00 2.135696e+00 1.922336e+00 1.853973e+00 2.001631e+00 2.726176e-01
<GCONST> 8.744770e+01
<STATE> 3
<NUMMIXES> 7
<MIXTURE> 1 1.846313e-01
<MEAN> 25
 -3.753821e+00 6.347474e+00 -1.962932e+00 7.029917e+00 3.722608e+00 1.296107e+00 8.749618e-01 3.671773e+00 2.924582e+00 -2.025392e+00 3.004415e+00 -8.516203e-01 -6.805072e-01 -1.091937e+00 -3.538414e-01 -4.355819e-01 -4.354905e-01 6.450263e-02 4.705424e-01 -2.189549e-01 1.621118e-01 6.281540e-01 1.009994e+00 3.941374e-01 6.203158e-02
<VARIANCE> 25
 2.623864e+01 1.446364e+01 1.953899e+01 1.616666e+01 2.015837e+01 1.840710e+01 2.056992e+01 2.479201e+01 1.727003e+01 2.687786e+01 2.371532e+01 1.307937e+01 1.510841e+00 2.437486e+00 1.519959e+00 1.238642e+00 2.092483e+00 1.961130e+00 2.094294e+00 2.783181e+00 2.052145e+00 2.495202e+00 2.609380e+00 1.417820e+00 1.164729e+00
<GCONST> 8.987431e+01
<MIXTURE> 2 1.162635e-01
<MEAN> 25
 5.731481e+00 8.428073e+00 6.499833e-01 8.792885e+00 1.120817e+00 -3.726975e-01 1.857768e+00 7.505911e-01 -2.106214e+00 -6.797745e+00 -7.618687e-01 -3.455874e+00 -1.082305e+00 -1.587418e+00 9.833837e-01 -9.533308e-01 4.733717e-02 3.133822e-01 8.611400e-01 -1.018345e+00 1.236548e+00 1.707939e+00 2.996238e+00 9.920350e-01 1.410086e+00
<VARIANCE> 25
 8.578061e+00 3.272512e+01 3.154268e+01 1.540940e+01 3.631966e+01 2.618919e+01 2.638920e+01 4.515056e+01 2.846755e+01 2.928147e+01 2.015751e+01 1.922739e+01 1.133400e+00 2.699355e+00 3.632028e+00 2.900605e+00 6.566959e+00 4.357119e+00 4.207547e+00 6.647224e+00 3.653511e+00 4.316277e+00 4.086167e+00 3.151973e+00 1.281216e+00
<GCONST> 1.001163e+02
<MIXTURE> 3 1.987701e-01
<MEAN> 25
 1.184916e+00 1.166403e+01 3.622458e+00 7.689616e+00 -5.054452e-01 -2.312514e+00 -1.888149e+00 -8.465458e-01 2.167110e-01 -2.323526e+00 2.246335e+00 -2.241166e+00 -1.522707e+00 -3.333276e+00 -9.339621e-01 -3.124517e-01 5.433699e-01 1.576585e-01 1.271268e+00 -1.136689e+00 1.481899e-01 6.370046e-01 2.277025e+00 6.580224e-01 1.060204e+00
<VARIANCE> 25
 1.164759e+01 1.908718e+01 1.903157e+01 1.503866e+01 3.628797e+01 2.460669e+01 2.346342e+01 2.858412e+01 2.092798e+01 2.386624e+01 2.077965e+01 1.376169e+01 7.761864e-01 4.568087e+00 2.859867e+00 3.123376e+00 4.970125e+00 4.750967e+00 5.658298e+00 5.456521e+00 3.935630e+00 3.647086e+00 3.171517e+00 2.625846e+00 2.181666e+00
<GCONST> 9.779083e+01
<MIXTURE> 4 1.076823e-01
<MEAN> 25
 5.745242e+00 8.013012e+00 2.623989e+00 8.016774e+00 -1.257623e+00 -1.837422e+00 5.041692e-01 -2.135816e+00 -3.797761e+00 -6.998154e+00 -2.873582e+00 -3.068441e+00 -9.826419e-01 -1.148553e+00 1.170348e-01 -4.242251e-01 1.041898e+00 1.621686e-01 7.886534e-01 -1.585565e-01 1.443868e+00 1.061596e+00 3.161877e+00 4.216651e-01 1.134867e+00
<VARIANCE> 25
 9.549541e+00 4.101771e+01 3.653406e+01 2.042116e+01 4.239074e+01 2.574256e+01 2.438986e+01 4.818486e+01 2.959831e+01 3.018105e+01 2.674876e+01 2.080713e+01 1.793445e+00 3.216677e+00 3.234553e+00 3.199707e+00 5.928484e+00 3.617352e+00 3.172020e+00 5.120672e+00 3.950178e+00 3.964373e+00 4.618414e+00 2.859892e+00 1.785985e+00
<GCONST> 1.015678e+02
<MIXTURE> 5 1.687066e-01
<MEAN> 25
 2.179240e+00 1.026319e+01 2.103346e+00 7.614900e+00 6.732638e-01 -3.262966e+00 -2.806698e+00 -5.258833e-01 -4.966205e-01 -4.500361e+00 2.634687e-01 -2.742098e+00 -1.581908e+00 -3.003312e+00 -5.866030e-01 -3.484607e-01 1.664771e-01 1.982357e-01 1.528861e+00 -1.368660e+00 2.673611e-02 8.085458e-01 2.332536e+00 2.821514e-01 1.023918e+00
<VARIANCE> 25
 1.170179e+01 3.330878e+01 2.472160e+01 1.367687e+01 3.038670e+01 1.981146e+01 2.005132e+01 2.980469e+01 2.163567e+01 2.406507e+01 1.989592e+01 1.612412e+01 7.862898e-01 4.831835e+00 2.782822e+00 3.439096e+00 4.314050e+00 4.437737e+00 4.104700e+00 4.839897e+00 4.061405e+00 3.070404e+00 3.306725e+00 2.914927e+00 2.394875e+00
<GCONST> 9.775203e+01
<MIXTURE> 6 1.162635e-01
<MEAN> 25
 4.559947e+00 6.139838e+00 -1.596532e+00 7.222692e+00 -1.289815e+00 -2.419713e+00 -1.970488e-01 -1.937176e+00 -4.240414e+00 -8.962239e+00 -2.557753e+00 -5.209836e+00 -1.508151e+00 -2.244606e+00 2.210684e-01 -1.634577e+00 -9.777060e-01 -5.215664e-01 4.064777e-02 -2.049633e+00 4.719812e-01 8.769130e-01 2.187667e+00 2.818831e-01 9.573224e-01
<VARIANCE> 25
 8.578061e+00 3.272512e+01 3.154268e+01 1.540940e+01 3.631966e+01 2.618919e+01 2.638920e+01 4.515056e+01 2.846755e+01 2.928147e+01 2.015751e+01 1.922739e+01 1.133400e+00 2.699355e+00 3.632028e+00 2.900605e+00 6.566959e+00 4.357119e+00 4.207547e+00 6.647224e+00 3.653511e+00 4.316277e+00 4.086167e+00 3.151973e+00 1.281216e+00
<GCONST> 1.001163e+02
<MIXTURE> 7 1.076823e-01
<MEAN> 25
 4.509148e+00 5.451210e+00 2.062527e-01 6.209183e+00 -3.861949e+00 -3.866907e+00 -1.471275e+00 -4.912428e+00 -5.973935e+00 -9.195645e+00 -4.942350e+00 -4.893034e+00 -1.518320e+00 -1.865957e+00 -6.023598e-01 -1.139734e+00 6.795856e-02 -5.986050e-01 7.624677e-02 -1.063713e+00 6.488659e-01 2.651664e-01 2.302257e+00 -2.547835e-01 6.003042e-01
<VARIANCE> 25
 9.549541e+00 4.101771e+01 3.653406e+01 2.042116e+01 4.239074e+01 2.574256e+01 2.438986e+01 4.818486e+01 2.959831e+01 3.018105e+01 2.674876e+01 2.080713e+01 1.793445e+00 3.216677e+00 3.234553e+00 3.199707e+00 5.928484e+00 3.617352e+00 3.172020e+00 5.120672e+00 3.950178e+00 3.964373e+00 4.618414e+00 2.859892e+00 1.785985e+00
<GCONST> 1.015678e+02
<STATE> 4
<NUMMIXES> 7
<MIXTURE> 1 1.449561e-01
<MEAN> 25
 -1.242156e-01 2.225007e+00 -5.415483e-01 6.093362e+00 2.974658e+00 -2.908333e+00 2.878887e+00 4.238028e-01 2.033591e+00 -2.141053e+00 5.318613e+00 2.160056e+00 3.093419e-01 -1.252094e+00 -6.975034e-01 -5.303916e-01 7.765343e-01 -8.999397e-01 1.194811e+00 2.010737e-01 9.313426e-01 3.260131e-01 1.352648e+00 1.393239e+00 1.783553e+00
<VARIANCE> 25
 2.447931e+01 4.629214e+01 4.007262e+01 2.860982e+01 4.934779e+01 4.499434e+01 4.554842e+01 3.892093e+01 2.856332e+01 3.970868e+01 4.080109e+01 2.304054e+01 3.732109e+00 5.487825e+00 4.275146e+00 3.146059e+00 5.498654e+00 6.579643e+00 8.273196e+00 5.238717e+00 3.515023e+00 4.911428e+00 5.155073e+00 3.664004e+00 2.835962e+00
<GCONST> 1.088951e+02
<MIXTURE> 2 1.880976e-01
<MEAN> 25
 1.779788e+00 8.504781e-01 2.041527e+00 2.373998e+00 -5.271087e+00 -3.464366e+00 5.734908e+00 -7.974919e+00 2.828728e-02 -1.158802e+00 5.621911e+00 -1.727139e+00 1.224742e+00 -1.083096e+00 2.542614e+00 -3.953773e+00 -2.738348e+00 -6.312534e-01 -1.259466e+00 -1.455445e+00 2.125719e-01 2.170697e+00 -2.250443e+00 1.507166e+00 2.597891e+00
<VARIANCE> 25
 2.087617e+01 3.129064e+01 2.828280e+01 3.058226e+01 5.140173e+01 6.248599e+01 4.166801e+01 5.520373e+01 3.139167e+01 3.181934e+01 5.013894e+01 3.681479e+01 2.402286e+00 5.215153e+00 5.103642e+00 3.387548e+00 5.344642e+00 4.727551e+00 5.072584e+00 8.133698e+00 3.999137e+00 4.453840e+00 4.834944e+00 2.402559e+00 1.346790e+00
<GCONST> 1.073916e+02
<MIXTURE> 3 1.511060e-01
<MEAN> 25
 -3.977998e-02 -2.428190e+00 -1.819511e+00 5.510555e+00 5.804507e-01 -1.058585e-01 4.741265e+00 -3.738295e+00 -6.480020e-01 -2.963796e+00 7.321393e+00 -2.011027e+00 2.636035e-01 -3.454630e+00 4.773339e-01 -2.771131e+00 -2.029194e+00 -1.061553e+00 1.004332e+00 -1.644018e+00 2.941079e-01 1.741307e+00 5.101297e-01 1.036300e+00 3.247741e+00
<VARIANCE> 25
 1.818398e+01 3.733527e+01 2.479555e+01 2.495358e+01 3.060319e+01 3.947406e+01 3.205683e+01 4.080306e+01 3.636497e+01 2.902385e+01 3.129049e+01 2.751459e+01 1.624445e+00 3.852884e+00 4.152558e+00 2.232210e+00 5.980228e+00 4.788980e+00 4.224604e+00 8.315199e+00 3.788558e+00 3.866283e+00 4.969287e+00 3.080312e+00 1.244345e+00
<GCONST> 1.034935e+02
<MIXTURE> 4 1.012080e-01
<MEAN> 25
 3.163072e+00 6.874048e-01 4.805696e+00 7.973089e-01 -5.116548e+00 -1.546649e+00 5.001257e+00 -8.535221e+00 -3.845009e-01 -2.686350e-01 5.369425e+00 -1.368062e+00 8.921176e-01 -1.402367e+00 3.282414e+00 -4.414958e+00 -1.857450e+00 -1.990898e-01 -9.401032e-01 -2.840805e-01 6.022696e-01 2.878386e+00 -1.950933e+00 1.836992e+00 2.979700e+00
<VARIANCE> 25
 1.308332e+01 2.456766e+01 3.098150e+01 3.087389e+01 5.035157e+01 6.085348e+01 3.667493e+01 4.888545e+01 3.321390e+01 3.670100e+01 4.627678e+01 3.064284e+01 2.174126e+00 3.696671e+00 4.272705e+00 2.764346e+00 4.509372e+00 4.401159e+00 4.347639e+00 6.818571e+00 4.626690e+00 3.343969e+00 4.629721e+00 2.277891e+00 1.153555e+00
<GCONST> 1.046329e+02
<MIXTURE> 5 1.684674e-01
<MEAN> 25
 -3.303084e-01 -3.988791e+00 -3.181874e+00 2.753112e+00 1.173487e+00 -4.220542e+00 3.905800e+00 -3.826251e+00 2.296608e+00 -5.745665e+00 6.059036e+00 -8.539611e-01 7.533791e-01 -3.459397e+00 -5.517990e-01 -3.360300e+00 -5.325522e-01 -1.859440e+00 2.990437e-01 8.224338e-03 9.352366e-01 1.033490e+00 -6.118631e-01 1.002454e+00 3.649929e+00
<VARIANCE> 25
 2.473028e+01 2.811921e+01 2.920087e+01 3.283699e+01 3.574833e+01 4.994218e+01 3.858445e+01 4.177559e+01 4.186466e+01 4.037017e+01 4.936049e+01 2.986825e+01 1.944822e+00 4.413808e+00 4.331705e+00 2.712364e+00 5.894223e+00 4.259514e+00 4.312664e+00 9.977653e+00 3.834863e+00 4.894916e+00 6.131778e+00 2.935938e+00 1.505630e+00
<GCONST> 1.067889e+02
<MIXTURE> 6 1.449561e-01
<MEAN> 25
 -2.103278e+00 -4.965259e-01 -3.073666e+00 3.953836e+00 1.647383e-01 -5.591446e+00 1.793046e-01 -2.071663e+00 -1.041953e-01 -4.661645e+00 2.763583e+00 2.400337e-01 -4.634047e-01 -2.189138e+00 -1.524561e+00 -1.239877e+00 -1.614341e-01 -1.925972e+00 4.428470e-02 -7.144561e-01 1.814068e-01 -5.604565e-01 4.444561e-01 6.275752e-01 1.109941e+00
<VARIANCE> 25
 2.447931e+01 4.629214e+01 4.007262e+01 2.860982e+01 4.934779e+01 4.499434e+01 4.554842e+01 3.892093e+01 2.856332e+01 3.970868e+01 4.080109e+01 2.304054e+01 3.732109e+00 5.487825e+00 4.275146e+00 3.146059e+00 5.498654e+00 6.579643e+00 8.273196e+00 5.238717e+00 3.515023e+00 4.911428e+00 5.155073e+00 3.664004e+00 2.835962e+00
<GCONST> 1.088951e+02
<MIXTURE> 7 1.012080e-01
<MEAN> 25
 1.716237e+00 -1.295226e+00 2.579255e+00 -1.425262e+00 -7.954901e+00 -4.666995e+00 2.578863e+00 -1.133195e+01 -2.689761e+00 -2.691889e+00 2.648343e+00 -3.582301e+00 3.023209e-01 -2.171437e+00 2.455594e+00 -5.080010e+00 -2.706862e+00 -1.038247e+00 -1.774143e+00 -1.328576e+00 -2.581201e-01 2.146925e+00 -2.811605e+00 1.233284e+00 2.550086e+00
<VARIANCE> 25
 1.308332e+01 2.456766e+01 3.098150e+01 3.087389e+01 5.035157e+01 6.085348e+01 3.667493e+01 4.888545e+01 3.321390e+01 3.670100e+01 4.627678e+01 3.064284e+01 2.174126e+00 3.696671e+00 4.272705e+00 2.764346e+00 4.509372e+00 4.401159e+00 4.347639e+00 6.818571e+00 4.626690e+00 3.343969e+00 4.629721e+00 2.277891e+00 1.153555e+00
<GCONST> 1.046329e+02
<TRANSP> 5
 0.000000e+00 1.000000e+00 0.000000e+00 0.000000e+00 0.000000e+00
 0.000000e+00 7.317588e-01 2.682412e-01 0.000000e+00 0.000000e+00
 0.000000e+00 0.000000e+00 4.539682e-01 5.460318e-01 0.000000e+00
 0.000000e+00 0.000000e+00 0.000000e+00 5.234587e-01 4.765413e-01
 0.000000e+00 0.000000e+00 0.000000e+00 0.000000e+00 0.000000e+00
<ENDHMM>
~h "g"
<BEGINHMM>
<NUMSTATES> 5
<STATE> 2
<NUMMIXES> 7
<MIXTURE> 1 1.939678e-01
<MEAN> 25
 6.704514e+00 1.181094e+01 1.216763e+00 1.543827e+00 -2.890953e+00 2.435623e+00 -1.899483e-01 -4.637476e+00 -6.097902e-01 -1.797580e+00 -3.978268e-01 -1.645103e+00 -5.021144e-01 7.433975e-01 4.909504e-01 1.489311e+00 9.248346e-01 -4.489583e-01 -1.744215e-01 9.442871e-01 5.645106e-01 -3.665170e-02 1.001093e+00 3.368271e-01 -7.413576e-01
<VARIANCE> 25
 1.702572e+01 2.276718e+01 3.763771e+01 3.034377e+01 3.601247e+01 2.652118e+01 3.200236e+01 3.319112e+01 2.673426e+01 2.845561e+01 3.661225e+01 2.139964e+01 6.038060e-01 1.205525e+00 1.394266e+00 1.887267e+00 1.992444e+00 2.145129e+00 1.965975e+00 2.077629e+00 2.102075e+00 2.249433e+00 2.118434e+00 1.779265e+00 3.290907e-01
<GCONST> 9.135426e+01
<MIXTURE> 2 8.094500e-02
<MEAN> 25
 8.753885e+00 -9.100953e-01 -3.662793e+00 1.451138e+00 6.780177e+00 -5.663183e+00 -3.823464e+00 3.699805e+00 2.293615e+00 3.098541e+00 -9.743896e+00 -7.877576e-02 7.225201e-02 3.175071e+00 2.143853e-01 2.644317e+00 -6.724428e-01 3.092927e-01 -6.124601e-02 -6.567638e-01 5.283500e-01 -6.745386e-01 1.622625e+00 -1.945673e-01 -2.084033e+00
<VARIANCE> 25
 3.571105e+00 1.998911e+01 1.726239e+01 3.172865e+01 2.709338e+01 3.589313e+01 2.598834e+01 2.745959e+01 2.438923e+01 3.138756e+01 2.007728e+01 3.355336e+01 1.768609e-01 5.743608e-01 6.679385e-01 1.070244e+00 2.097940e+00 2.425932e+00 2.216451e+00 1.936263e+00 1.847249e+00 2.794571e+00 1.957907e+00 1.460895e+00 1.732948e-01
<GCONST> 8.452504e+01
<MIXTURE> 3 1.606741e-01
<MEAN> 25
 8.234299e+00 4.929777e+00 -4.378383e+00 5.555910e+00 1.768408e+00 -3.848512e+00 -3.837529e+00 9.910946e-01 1.779558e+00 -3.512213e+00 -5.166729e+00 -2.587334e+00 -4.524174e-01 1.900142e+00 -2.536750e-02 9.860523e-01 -1.082056e-02 7.203092e-01 1.212074e-01 -8.344787e-02 2.049637e-01 -1.042659e+00 1.264493e+00 -3.148848e-01 -1.494746e+00
<VARIANCE> 25
 4.011757e+00 1.159517e+01 1.948034e+01 1.688393e+01 3.814619e+01 2.473885e+01 2.742793e+01 3.271406e+01 2.089980e+01 2.485244e+01 2.130619e+01 2.734619e+01 2.312182e-01 7.203376e-01 1.328816e+00 1.362532e+00 2.118911e+00 1.559964e+00 1.627345e+00 1.422016e+00 1.586535e+00 1.687735e+00 2.463864e+00 1.469648e+00 3.120007e-01
<GCONST> 8.379469e+01
<MIXTURE> 4 1.513591e-01
<MEAN> 25
 7.330018e+00 -5.524129e+00 -3.356539e+00 -4.458457e+00 7.943616e+00 -7.850506e+00 -5.428931e+00 1.608681e+00 2.340775e-01 3.187105e+00 -1.332686e+01 -4.096873e-01 1.659857e-01 2.847163e+00 -1.815056e-01 2.330513e+00 -8.902036e-01 -6.442938e-01 -7.410150e-01 -1.456543e+00 -2.920654e-01 -4.139716e-01 2.145970e-01 -8.008013e-01 -2.074647e+00
<VARIANCE> 25
 3.833647e+00 1.865586e+01 1.312234e+01 3.317550e+01 1.474564e+01 2.828901e+01 2.856241e+01 2.277638e+01 1.916877e+01 4.160291e+01 1.585010e+01 3.306486e+01 1.825847e-01 7.315568e-01 7.599571e-01 1.113688e+00 1.689576e+00 2.785362e+00 1.933225e+00 1.797125e+00 2.059661e+00 3.634988e+00 1.703310e+00 1.602596e+00 2.400331e-01
<GCONST> 8.395202e+01
<MIXTURE> 5 1.381421e-01
<MEAN> 25
 7.040987e+00 2.227083e+00 -1.339674e+00 2.569026e+00 -4.214115e-01 -9.509990e-01 -2.809520e+00 -4.957031e+00 -3.314439e+00 -3.579441e+00 -8.819415e+00 -4.372703e+00 8.095357e-03 1.452727e+00 -5.485136e-01 1.193148e+00 -2.420919e-01 7.480419e-01 2.458678e-01 4.622800e-02 2.309950e-01 -1.324452e+00 6.606218e-01 -7.453158e-01 -1.189857e+00
<VARIANCE> 25
 5.133903e+00 2.186064e+01 3.888030e+01 3.388476e+01 5.894121e+01 3.033314e+01 4.338609e+01 4.419190e+01 2.700677e+01 3.047709e+01 2.352248e+01 2.251481e+01 3.360744e-01 7.099107e-01 1.031474e+00 1.892775e+00 1.695682e+00 2.028652e+00 1.475890e+00 1.594163e+00 1.884452e+00 1.861557e+00 1.715445e+00 1.628672e+00 2.852903e-01
<GCONST> 8.823890e+01
<MIXTURE> 6 1.939678e-01
<MEAN> 25
 5.054024e+00 9.902341e+00 -1.237221e+00 -6.595806e-01 -5.291368e+00 3.756746e-01 -2.452774e+00 -6.941946e+00 -2.677998e+00 -3.931332e+00 -2.818149e+00 -3.495493e+00 -8.129342e-01 3.042119e-01 1.863421e-02 9.397993e-01 3.602188e-01 -1.034809e+00 -7.352744e-01 3.677278e-01 -1.543081e-02 -6.365761e-01 4.188991e-01 -1.967293e-01 -9.708233e-01
<VARIANCE> 25
 1.702572e+01 2.276718e+01 3.763771e+01 3.034377e+01 3.601247e+01 2.652118e+01 3.200236e+01 3.319112e+01 2.673426e+01 2.845561e+01 3.661225e+01 2.139964e+01 6.038060e-01 1.205525e+00 1.394266e+00 1.887267e+00 1.992444e+00 2.145129e+00 1.965975e+00 2.077629e+00 2.102075e+00 2.249433e+00 2.118434e+00 1.779265e+00 3.290907e-01
<GCONST> 9.135426e+01
<MIXTURE> 7 8.094500e-02
<MEAN> 25
 7.997990e+00 -2.698463e+00 -5.324715e+00 -8.019892e-01 4.698125e+00 -8.059618e+00 -5.862614e+00 1.603729e+00 3.181970e-01 8.575569e-01 -1.153620e+01 -2.395786e+00 -9.596732e-02 2.871925e+00 -1.125247e-01 2.230507e+00 -1.251813e+00 -3.137234e-01 -6.567560e-01 -1.213362e+00 -1.530418e-02 -1.343217e+00 1.062924e+00 -6.780373e-01 -2.250547e+00
<VARIANCE> 25
 3.571105e+00 1.998911e+01 1.726239e+01 3.172865e+01 2.709338e+01 3.589313e+01 2.598834e+01 2.745959e+01 2.438923e+01 3.138756e+01 2.007728e+01 3.355336e+01 1.768609e-01 5.743608e-01 6.679385e-01 1.070244e+00 2.097940e+00 2.425932e+00 2.216451e+00 1.936263e+00 1.847249e+00 2.794571e+00 1.957907e+00 1.460895e+00 1.732948e-01
<GCONST> 8.452504e+01
<STATE> 3
<NUMMIXES> 7
<MIXTURE> 1 1.002036e-01
<MEAN> 25
 -1.961678e+00 8.195541e+00 -7.580180e-01 5.921418e+00 2.818509e+00 -1.200995e-01 -1.057136e+00 1.265273e+00 2.818201e+00 9.935600e-01 7.263689e+00 1.023615e+00 -2.914672e-01 -5.466223e-01 -8.408943e-02 3.265612e-01 7.451508e-01 2.848762e-01 1.004749e+00 1.015598e+00 4.081174e-01 4.069468e-01 4.836448e-01 5.372145e-01 -1.082812e-02
<VARIANCE> 25
 3.234573e+01 2.053048e+01 3.680078e+01 3.727843e+01 2.808227e+01 2.286009e+01 2.517239e+01 3.054263e+01 1.944842e+01 2.876937e+01 2.424891e+01 2.035412e+01 1.806549e+00 2.825779e+00 2.607819e+00 2.500276e+00 3.543878e+00 1.854863e+00 2.592162e+00 2.161047e+00 2.269055e+00 2.385382e+00 2.169970e+00 1.785637e+00 5.549555e-01
<GCONST> 9.487297e+01
<MIXTURE> 2 1.203196e-01
<MEAN> 25
 6.982733e+00 1.059924e+01 -2.982284e+00 5.167806e+00 2.852722e+00 -4.994845e-02 -1.100309e+00 7.621936e-01 1.232919e+00 -3.696322e+00 -1.738210e+00 -2.511212e+00 -3.708541e-01 2.506035e-01 3.436962e-01 6.044587e-01 7.149974e-01 2.696746e-01 3.416648e-01 6.121016e-01 4.993635e-01 2.921860e-01 8.457632e-01 8.019149e-01 -2.840141e-01
<VARIANCE> 25
 6.480652e+00 2.624819e+01 2.183941e+01 2.589677e+01 2.946832e+01 2.061468e+01 2.655473e+01 3.049235e+01 1.748280e+01 2.238597e+01 2.249179e+01 1.827412e+01 5.081657e-01 9.606451e-01 1.801875e+00 1.161185e+00 2.017956e+00 2.360463e+00 2.280542e+00 2.311244e+00 1.501465e+00 1.924699e+00 1.688798e+00 2.308643e+00 3.731470e-01
<GCONST> 8.719588e+01
<MIXTURE> 3 1.838586e-01
<MEAN> 25
 4.938671e+00 1.319075e+01 1.610531e+00 3.498246e+00 -2.515229e+00 1.641931e-02 -1.418383e+00 -3.712610e+00 -1.507572e+00 -4.525128e+00 -9.756284e-01 -2.209359e+00 -1.096360e+00 -1.984272e+00 -6.310485e-01 2.100144e+00 2.504252e+00 -1.298351e+00 -1.260406e+00 7.422934e-01 4.630617e-01 6.011944e-01 1.196626e+00 4.291936e-01 -1.058936e-01
<VARIANCE> 25
 9.915196e+00 1.461898e+01 2.823306e+01 1.902966e+01 2.609880e+01 2.111225e+01 2.203256e+01 2.691462e+01 1.774294e+01 1.732682e+01 1.981252e+01 1.664108e+01 7.788297e-01 2.897763e+00 4.479008e+00 4.422180e+00 4.921844e+00 5.154172e+00 3.651352e+00 4.441023e+00 3.476074e+00 4.526709e+00 3.709325e+00 1.941691e+00 5.278996e-01
<GCONST> 9.534412e+01
<MIXTURE> 4 1.820775e-01
<MEAN> 25
 6.408638e+00 5.062233e+00 -4.493279e+00 3.367039e+00 3.053120e+00 -2.743567e+00 -5.475454e+00 -2.516283e+00 -4.944772e-01 -3.448820e+00 -5.619666e+00 -3.199058e+00 -4.386154e-01 -7.799441e-02 -3.239454e-01 8.182917e-01 1.101577e-01 8.557659e-03 8.253613e-02 1.636461e-01 1.744811e-01 -5.208218e-01 7.106526e-01 1.473937e-01 -5.393047e-01
<VARIANCE> 25
 8.952043e+00 3.103473e+01 3.557302e+01 3.564539e+01 4.684530e+01 3.119190e+01 2.815294e+01 4.532087e+01 3.376611e+01 4.440555e+01 4.078230e+01 2.896681e+01 7.214525e-01 1.421060e+00 2.316858e+00 1.741520e+00 3.367056e+00 3.263604e+00 2.943062e+00 2.982917e+00 3.135514e+00 2.604171e+00 3.539650e+00 2.895763e+00 7.297447e-01
<GCONST> 9.764599e+01
<MIXTURE> 5 1.930175e-01
<MEAN> 25
 2.982504e+00 1.290414e+01 3.906925e+00 5.592600e+00 -2.743428e+00 -2.256378e+00 -4.203087e+00 -5.149590e+00 -2.327997e+00 -5.225910e+00 -5.306732e-01 -3.265587e+00 -1.234033e+00 -1.159707e+00 -4.002910e-01 1.344821e+00 1.822537e+00 -4.291128e-01 -6.623916e-01 3.940659e-01 2.791763e-01 4.633989e-01 8.649572e-01 3.860618e-01 -5.410126e-01
<VARIANCE> 25
 1.179578e+01 1.993637e+01 1.959461e+01 2.051257e+01 2.399618e+01 2.508679e+01 2.125134e+01 2.318490e+01 1.710309e+01 2.532936e+01 2.153272e+01 1.554778e+01 7.385303e-01 1.490256e+00 2.705723e+00 2.746866e+00 2.985859e+00 3.884084e+00 2.875435e+00 2.458933e+00 2.685080e+00 2.718751e+00 2.214677e+00 1.625666e+00 4.180988e-01
<GCONST> 9.079363e+01
<MIXTURE> 6 1.203196e-01
<MEAN> 25
 5.964448e+00 8.549916e+00 -4.851590e+00 3.132251e+00 6.813323e-01 -1.866084e+00 -3.161561e+00 -1.446602e+00 -4.395784e-01 -5.588874e+00 -3.635230e+00 -4.221142e+00 -6.559971e-01 -1.414466e-01 -1.932395e-01 1.734255e-01 1.467782e-01 -3.448773e-01 -2.623938e-01 3.990591e-03 9.226426e-03 -2.627481e-01 3.259482e-01 1.941461e-01 -5.283571e-01
<VARIANCE> 25
 6.480652e+00 2.624819e+01 2.183941e+01 2.589677e+01 2.946832e+01 2.061468e+01 2.655473e+01 3.049235e+01 1.748280e+01 2.238597e+01 2.249179e+01 1.827412e+01 5.081657e-01 9.606451e-01 1.801875e+00 1.161185e+00 2.017956e+00 2.360463e+00 2.280542e+00 2.311244e+00 1.501465e+00 1.924699e+00 1.688798e+00 2.308643e+00 3.731470e-01
<GCONST> 8.719588e+01
<MIXTURE> 7 1.002036e-01
<MEAN> 25
 -4.236610e+00 6.383119e+00 -3.184564e+00 3.479176e+00 6.988008e-01 -2.032588e+00 -3.064020e+00 -9.453424e-01 1.054187e+00 -1.151923e+00 5.293961e+00 -7.810072e-01 -8.290988e-01 -1.219024e+00 -7.300391e-01 -3.059292e-01 -7.856816e-03 -2.598973e-01 3.607408e-01 4.275778e-01 -1.944180e-01 -2.108405e-01 -1.055880e-01 2.703637e-03 -3.088095e-01
<VARIANCE> 25
 3.234573e+01 2.053048e+01 3.680078e+01 3.727843e+01 2.808227e+01 2.286009e+01 2.517239e+01 3.054263e+01 1.944842e+01 2.876937e+01 2.424891e+01 2.035412e+01 1.806549e+00 2.825779e+00 2.607819e+00 2.500276e+00 3.543878e+00 1.854863e+00 2.592162e+00 2.161047e+00 2.269055e+00 2.385382e+00 2.169970e+00 1.785637e+00 5.549555e-01
<GCONST> 9.487297e+01
<STATE> 4
<NUMMIXES> 7
<MIXTURE> 1 1.091119e-01
<MEAN> 25
 1.128177e+00 -4.320533e+00 -3.646627e+00 1.079366e+01 8.208366e+00 -6.793200e+00 3.225785e-01 6.045185e+00 2.615357e+00 -1.161280e-01 2.136781e+00 5.411949e+00 2.153944e+00 -9.408075e-01 2.766490e-01 -2.450875e+00 7.192969e-03 -2.451427e-01 2.534370e-01 1.281344e+00 4.948814e-01 1.028832e+00 -1.605648e+00 9.409893e-01 2.976280e+00
<VARIANCE> 25
 2.388542e+01 5.503590e+01 4.855291e+01 5.845612e+01 6.998434e+01 3.703523e+01 3.238499e+01 2.804604e+01 3.922279e+01 3.624287e+01 3.261267e+01 2.239340e+01 2.761777e+00 7.965562e+00 7.292226e+00 7.084669e+00 7.934043e+00 5.056538e+00 3.113804e+00 4.631548e+00 4.586716e+00 4.820905e+00 4.351207e+00 4.150008e+00 2.155835e+00
<GCONST> 1.097579e+02
<MIXTURE> 2 1.079677e-01
<MEAN> 25
 8.609510e+00 1.054605e+00 -5.895169e+00 5.196525e+00 6.758287e+00 -6.243471e+00 -5.275122e+00 2.615459e+00 4.395229e+00 8.423285e-01 -4.486561e+00 1.742781e+00 5.383492e-01 -1.627523e+00 1.185672e+00 -1.844814e+00 -6.316311e-01 -6.214994e-01 1.050078e+00 1.730043e+00 8.550875e-01 1.671239e+00 -1.009097e+00 1.582120e+00 2.025257e+00
<VARIANCE> 25
 7.417282e+00 3.129561e+01 2.904217e+01 3.811450e+01 4.384352e+01 3.327303e+01 3.441376e+01 3.562893e+01 3.173474e+01 3.073311e+01 3.495726e+01 2.565723e+01 9.517969e-01 3.110997e+00 5.644034e+00 4.447732e+00 6.898632e+00 3.892068e+00 4.215668e+00 4.464966e+00 4.470147e+00 3.644735e+00 3.988589e+00 3.988266e+00 9.339105e-01
<GCONST> 1.025052e+02
<MIXTURE> 3 1.838822e-01
<MEAN> 25
 9.461644e-01 5.207049e+00 -1.978567e+00 6.509601e+00 2.393509e+00 -9.896436e-01 -2.045479e+00 -1.767299e+00 -6.633385e-01 -1.897019e+00 2.591409e+00 -1.068069e-01 -5.340601e-01 -3.964365e+00 -2.286920e+00 -9.382970e-02 2.386489e+00 -6.491659e-01 2.901803e-01 8.692291e-01 2.529288e-01 1.275859e+00 6.141264e-01 1.283123e+00 1.285475e+00
<VARIANCE> 25
 1.906553e+01 4.949378e+01 6.085289e+01 5.140854e+01 5.474061e+01 4.468206e+01 3.918358e+01 3.506096e+01 3.771889e+01 3.380322e+01 2.899040e+01 1.997563e+01 1.854995e+00 5.956689e+00 9.696898e+00 7.841222e+00 8.274143e+00 8.860035e+00 5.129115e+00 6.978447e+00 4.310917e+00 4.830645e+00 3.953295e+00 3.463851e+00 1.570803e+00
<GCONST> 1.100953e+02
<MIXTURE> 4 1.835316e-01
<MEAN> 25
 7.037595e+00 -1.201725e+00 -7.565381e+00 2.595368e+00 7.973200e+00 -6.204701e+00 -6.975046e+00 -2.352835e+00 1.325277e-01 1.663142e+00 -6.640102e+00 -7.301247e-01 -1.648976e-02 -2.218677e+00 1.014202e+00 -2.260423e+00 -4.094905e-01 -1.610427e+00 -3.192013e-02 1.255290e+00 3.827524e-01 1.614791e+00 -1.797862e+00 1.150221e+00 1.956551e+00
<VARIANCE> 25
 8.906986e+00 2.727073e+01 5.829952e+01 4.441183e+01 7.363279e+01 5.357782e+01 3.158059e+01 3.931964e+01 2.792192e+01 3.711963e+01 4.328947e+01 3.435066e+01 9.467738e-01 3.257766e+00 6.362138e+00 5.110366e+00 7.389495e+00 4.669553e+00 3.745190e+00 5.066037e+00 4.371102e+00 4.407103e+00 3.889750e+00 4.156949e+00 1.345729e+00
<GCONST> 1.060817e+02
<MIXTURE> 5 1.984260e-01
<MEAN> 25
 3.779641e+00 7.270170e+00 -1.611502e+00 5.132669e+00 1.489245e+00 -8.643004e-01 -3.536258e+00 -3.648677e+00 -1.512000e+00 -3.474826e+00 -8.591501e-01 -2.525110e+00 -4.695070e-01 -2.477536e+00 -1.480981e+00 2.259886e-01 1.880983e+00 -8.639991e-02 -1.207111e-01 3.144577e-01 2.024340e-01 8.092319e-01 6.056497e-01 5.713680e-01 6.133067e-01
<VARIANCE> 25
 1.861307e+01 4.585797e+01 4.587918e+01 3.136010e+01 4.212579e+01 3.513819e+01 2.548386e+01 3.922116e+01 2.878777e+01 3.312767e+01 3.192624e+01 2.410990e+01 1.360934e+00 5.403396e+00 8.740977e+00 5.085354e+00 9.133433e+00 6.626297e+00 5.175937e+00 5.182603e+00 4.350369e+00 3.823918e+00 3.437178e+00 3.143238e+00 1.173739e+00
<GCONST> 1.062150e+02
<MIXTURE> 6 1.091119e-01
<MEAN> 25
 -8.267319e-01 -7.287981e+00 -6.433825e+00 7.735397e+00 4.862100e+00 -9.227464e+00 -1.953734e+00 3.926845e+00 1.102329e-01 -2.524210e+00 -1.475189e-01 3.519083e+00 1.489200e+00 -2.069741e+00 -8.035159e-01 -3.515557e+00 -1.119504e+00 -1.144613e+00 -4.524019e-01 4.205031e-01 -3.617834e-01 1.505694e-01 -2.440030e+00 1.261265e-01 2.388970e+00
<VARIANCE> 25
 2.388542e+01 5.503590e+01 4.855291e+01 5.845612e+01 6.998434e+01 3.703523e+01 3.238499e+01 2.804604e+01 3.922279e+01 3.624287e+01 3.261267e+01 2.239340e+01 2.761777e+00 7.965562e+00 7.292226e+00 7.084669e+00 7.934043e+00 5.056538e+00 3.113804e+00 4.631548e+00 4.586716e+00 4.820905e+00 4.351207e+00 4.150008e+00 2.155835e+00
<GCONST> 1.097579e+02
<MIXTURE> 7 1.079677e-01
<MEAN> 25
 7.520123e+00 -1.183095e+00 -8.050800e+00 2.727047e+00 4.109709e+00 -8.550781e+00 -7.621652e+00 2.278605e-01 2.141885e+00 -1.375170e+00 -6.851547e+00 -2.833375e-01 1.481088e-01 -2.333043e+00 2.353853e-01 -2.688400e+00 -1.682241e+00 -1.410632e+00 2.287945e-01 8.848246e-01 9.378642e-03 9.075912e-01 -1.807955e+00 7.832941e-01 1.638701e+00
<VARIANCE> 25
 7.417282e+00 3.129561e+01 2.904217e+01 3.811450e+01 4.384352e+01 3.327303e+01 3.441376e+01 3.562893e+01 3.173474e+01 3.073311e+01 3.495726e+01 2.565723e+01 9.517969e-01 3.110997e+00 5.644034e+00 4.447732e+00 6.898632e+00 3.892068e+00 4.215668e+00 4.464966e+00 4.470147e+00 3.644735e+00 3.988589e+00 3.988266e+00 9.339105e-01
<GCONST> 1.025052e+02
<TRANSP> 5
 0.000000e+00 1.000000e+00 0.000000e+00 0.000000e+00 0.000000e+00
 0.000000e+00 6.299644e-01 3.700356e-01 0.000000e+00 0.000000e+00
 0.000000e+00 0.000000e+00 4.384309e-01 5.615691e-01 0.000000e+00
 0.000000e+00 0.000000e+00 0.000000e+00 6.305038e-01 3.694961e-01
 0.000000e+00 0.000000e+00 0.000000e+00 0.000000e+00 0.000000e+00
<ENDHMM>
~h "h"
<BEGINHMM>
<NUMSTATES> 5
<STATE> 2
<NUMMIXES> 7
<MIXTURE> 1 1.421397e-01
<MEAN> 25
 1.837572e+00 -2.637724e+00 -2.122327e-01 2.428272e+00 7.554250e+00 9.009541e+00 3.775655e+00 -1.666522e+00 2.729287e-01 -9.254993e-01 1.916463e+00 3.620121e+00 2.346539e-02 4.056954e-01 3.544270e-01 3.403774e-01 6.772918e-01 1.951173e+00 6.421490e-01 -1.808927e-01 1.873201e-01 1.111806e-01 3.671065e-01 3.732701e-01 -2.616411e-01
<VARIANCE> 25
 3.641655e+01 5.952133e+01 8.297955e+01 3.922004e+01 9.015659e+01 6.399347e+01 6.295161e+01 4.658730e+01 4.796509e+01 4.803597e+01 5.170304e+01 3.943842e+01 1.451243e+00 2.294870e+00 2.703781e+00 2.660123e+00 3.346378e+00 4.077188e+00 3.729439e+00 2.807236e+00 3.759206e+00 2.946067e+00 3.140615e+00 2.517120e+00 5.231904e-01
<GCONST> 1.056851e+02
<MIXTURE> 2 1.816919e-01
<MEAN> 25
 3.305007e+00 -4.599644e+00 8.614234e+00 -8.001059e+00 -5.907409e+00 5.091843e+00 7.888174e+00 -6.261498e+00 -1.287158e+00 6.515082e-01 -8.064641e+00 -1.147079e+00 -1.238754e-01 1.152662e-01 4.217842e-02 1.241002e-01 -7.777596e-02 7.936024e-01 1.965420e-01 -3.801729e-01 2.920362e-01 -2.891079e-02 1.139190e-01 1.493674e-01 -2.280155e-01
<VARIANCE> 25
 5.629567e+00 3.136654e+01 1.309917e+01 2.539337e+01 2.488131e+01 6.107060e+01 3.007882e+01 3.447031e+01 3.009178e+01 2.905301e+01 1.912907e+01 1.901098e+01 2.248029e-01 1.076038e+00 8.032187e-01 1.360059e+00 1.367937e+00 2.425570e+00 2.051311e+00 2.159015e+00 1.821244e+00 2.446663e+00 1.414279e+00 1.438995e+00 3.600038e-01
<GCONST> 8.640723e+01
<MIXTURE> 3 9.445315e-02
<MEAN> 25
 3.735076e+00 -4.106865e+00 5.491138e+00 5.102449e+00 -2.399850e+00 1.072509e+01 1.337916e+01 -1.403960e+00 -1.195526e+00 -1.893140e+00 -2.699426e+00 2.195996e+00 -6.020318e-01 9.247444e-01 1.423309e+00 2.642572e-02 -5.341799e-01 1.955829e+00 4.603837e-01 -1.162169e+00 1.082586e+00 9.296573e-01 -8.142352e-03 1.010774e-01 -6.471960e-01
<VARIANCE> 25
 7.793956e+00 2.144828e+01 1.837524e+01 3.540401e+01 3.361064e+01 4.710227e+01 2.828914e+01 2.634132e+01 2.629488e+01 2.463017e+01 2.199884e+01 1.649031e+01 3.379206e-01 7.701687e-01 9.815429e-01 1.232583e+00 1.798939e+00 2.337945e+00 2.330038e+00 1.632870e+00 2.097239e+00 2.034444e+00 1.640959e+00 1.620764e+00 1.440407e-01
<GCONST> 8.600008e+01
<MIXTURE> 4 1.785610e-01
<MEAN> 25
 1.839575e+00 -7.890004e+00 8.157278e+00 -8.293324e+00 -2.188174e+00 2.795615e+00 8.245298e+00 -8.051232e+00 -6.030143e+00 -3.287096e+00 -9.662205e+00 -1.808505e+00 3.819104e-02 -6.755676e-01 7.356348e-03 -4.924179e-01 -3.341882e-01 -5.652354e-01 -2.349982e-01 4.775461e-01 -4.025292e-01 2.719072e-01 -1.424622e-01 4.006403e-02 4.111294e-01
<VARIANCE> 25
 5.245523e+00 1.930800e+01 1.320294e+01 2.186389e+01 2.320488e+01 4.427346e+01 2.943636e+01 4.038345e+01 2.901005e+01 3.054519e+01 1.882690e+01 1.432609e+01 2.533915e-01 1.157824e+00 9.942169e-01 1.772697e+00 1.647385e+00 2.706524e+00 1.819182e+00 3.782315e+00 1.941181e+00 3.013485e+00 1.710790e+00 1.227889e+00 3.628824e-01
<GCONST> 8.688869e+01
<MIXTURE> 5 1.665596e-01
<MEAN> 25
 3.024046e+00 -6.369464e+00 4.971079e+00 9.110773e-01 -1.343952e+00 6.724311e+00 1.047006e+01 -4.100498e+00 -3.165545e+00 -5.520473e+00 -7.919991e+00 4.019020e-01 -3.438655e-01 1.019141e+00 1.009531e+00 -4.177424e-01 -1.207482e+00 1.023355e+00 -1.817505e-01 -1.510875e+00 7.652029e-01 4.341801e-01 -4.442848e-01 -3.650706e-01 -5.785114e-01
<VARIANCE> 25
 7.516792e+00 1.646054e+01 1.569462e+01 4.063676e+01 3.592023e+01 6.668542e+01 3.870940e+01 2.795220e+01 2.820853e+01 3.165118e+01 2.163318e+01 1.757798e+01 3.517414e-01 6.226696e-01 7.902378e-01 1.033077e+00 1.957472e+00 2.527516e+00 2.140228e+00 1.681421e+00 1.971721e+00 2.504946e+00 1.449782e+00 1.684930e+00 1.942788e-01
<GCONST> 8.673597e+01
<MIXTURE> 6 1.421397e-01
<MEAN> 25
 -5.762732e-01 -5.723726e+00 -3.855958e+00 -7.676411e-02 3.756217e+00 5.809704e+00 6.019729e-01 -4.396718e+00 -2.497345e+00 -3.697819e+00 -9.597300e-01 1.108121e+00 -4.584048e-01 -2.002578e-01 -3.033001e-01 -3.120180e-01 -5.443257e-02 1.143491e+00 -1.303212e-01 -8.510851e-01 -5.882269e-01 -5.753838e-01 -3.417648e-01 -2.613473e-01 -5.509687e-01
<VARIANCE> 25
 3.641655e+01 5.952133e+01 8.297955e+01 3.922004e+01 9.015659e+01 6.399347e+01 6.295161e+01 4.658730e+01 4.796509e+01 4.803597e+01 5.170304e+01 3.943842e+01 1.451243e+00 2.294870e+00 2.703781e+00 2.660123e+00 3.346378e+00 4.077188e+00 3.729439e+00 2.807236e+00 3.759206e+00 2.946067e+00 3.140615e+00 2.517120e+00 5.231904e-01
<GCONST> 1.056851e+02
<MIXTURE> 7 9.445315e-02
<MEAN> 25
 2.618370e+00 -5.959357e+00 3.776484e+00 2.722399e+00 -4.718838e+00 7.979845e+00 1.125166e+01 -3.456912e+00 -3.246668e+00 -3.878292e+00 -4.575542e+00 5.716658e-01 -8.345556e-01 5.737074e-01 1.027017e+00 -4.176613e-01 -1.070678e+00 1.344215e+00 -1.501947e-01 -1.673305e+00 5.033118e-01 3.591215e-01 -5.205420e-01 -4.081596e-01 -7.990068e-01
<VARIANCE> 25
 7.793956e+00 2.144828e+01 1.837524e+01 3.540401e+01 3.361064e+01 4.710227e+01 2.828914e+01 2.634132e+01 2.629488e+01 2.463017e+01 2.199884e+01 1.649031e+01 3.379206e-01 7.701687e-01 9.815429e-01 1.232583e+00 1.798939e+00 2.337945e+00 2.330038e+00 1.632870e+00 2.097239e+00 2.034444e+00 1.640959e+00 1.620764e+00 1.440407e-01
<GCONST> 8.600008e+01
<STATE> 3
<NUMMIXES> 7
<MIXTURE> 1 1.329996e-01
<MEAN> 25
 -8.819311e-01 -1.302215e+00 2.054885e+00 3.278869e+00 1.769676e+00 1.238332e+01 9.146115e+00 -3.441384e+00 1.347026e+00 8.349108e-01 1.460315e+00 2.775302e+00 2.137123e+00 2.586925e+00 1.224670e+00 -8.053955e-01 -1.558382e+00 -5.460628e-01 -7.503620e-01 -5.302978e-01 -1.950259e-01 6.501439e-01 -1.278586e-01 -6.097224e-01 6.843092e-01
<VARIANCE> 25
 2.525474e+01 3.951375e+01 8.131300e+01 4.316610e+01 8.511118e+01 5.429102e+01 5.823608e+01 3.287248e+01 3.512012e+01 3.263265e+01 4.238321e+01 2.519950e+01 2.060156e+00 2.646580e+00 2.492962e+00 3.036907e+00 3.204307e+00 5.178609e+00 2.858263e+00 2.498373e+00 4.194253e+00 4.025423e+00 2.708660e+00 2.089268e+00 4.999315e-01
<GCONST> 1.033907e+02
<MIXTURE> 2 1.698808e-01
<MEAN> 25
 4.960563e+00 -3.551790e+00 7.968738e-01 -2.612022e+00 3.124521e+00 4.771836e+00 9.244781e-01 -4.188981e+00 -2.896054e+00 -2.711450e+00 -5.489223e+00 -1.097166e+00 4.435245e-02 6.470580e-01 -3.488347e-02 3.479972e-02 -1.403677e-01 5.600180e-02 -5.519386e-01 -2.663333e-01 3.223230e-01 -2.597943e-02 3.461334e-01 3.135885e-01 -3.541051e-01
<VARIANCE> 25
 1.067354e+01 4.512120e+01 7.902948e+01 5.630539e+01 1.146624e+02 4.798203e+01 5.828649e+01 3.890631e+01 3.882923e+01 5.143038e+01 3.419839e+01 3.007962e+01 2.338926e-01 1.109947e+00 1.185305e+00 1.414731e+00 1.914058e+00 1.734924e+00 2.136923e+00 2.240880e+00 2.279277e+00 2.240594e+00 2.212440e+00 1.608890e+00 3.230824e-01
<GCONST> 9.510461e+01
<MIXTURE> 3 1.072038e-01
<MEAN> 25
 2.461106e+00 4.313276e+00 1.136343e+01 -1.724859e+00 -5.598383e+00 1.622254e+01 4.761783e+00 -9.196796e+00 3.922627e+00 -2.052071e-01 -3.018961e+00 4.297753e+00 3.782326e-01 7.037067e-01 -5.886528e-02 4.018702e-02 -1.711419e-01 -2.039400e-02 3.999156e-01 2.751038e-01 1.318055e-01 4.785497e-01 4.598571e-01 -1.216007e-01 -1.827662e-02
<VARIANCE> 25
 1.459369e+01 2.396651e+01 2.788876e+01 2.981680e+01 2.927348e+01 5.617525e+01 4.542843e+01 2.915157e+01 3.010531e+01 3.080344e+01 2.203592e+01 2.690836e+01 3.373075e-01 1.212669e+00 1.132491e+00 1.702425e+00 1.719046e+00 2.324443e+00 3.016351e+00 1.691849e+00 1.985973e+00 1.890705e+00 1.336084e+00 1.961909e+00 2.445954e-01
<GCONST> 8.999494e+01
<MIXTURE> 4 1.841822e-01
<MEAN> 25
 3.097986e+00 -7.048799e+00 3.916737e+00 -4.335368e+00 4.190799e+00 3.902150e+00 8.464673e-01 -5.868943e+00 -6.256110e+00 -5.438297e+00 -8.699857e+00 -7.736836e-01 7.198905e-02 5.772146e-02 -1.940631e-01 2.363881e-01 2.621541e-01 -6.728789e-02 -7.501865e-01 2.070689e-02 1.220072e-01 -3.270172e-01 -2.986689e-02 -2.387095e-01 -1.067675e-01
<VARIANCE> 25
 9.796536e+00 3.469345e+01 5.502181e+01 5.235607e+01 1.057807e+02 4.754969e+01 4.615158e+01 4.544333e+01 3.677846e+01 4.905872e+01 3.677011e+01 2.114123e+01 2.981015e-01 1.307389e+00 1.694289e+00 1.729974e+00 2.996177e+00 1.954875e+00 2.108272e+00 2.968463e+00 2.326811e+00 2.994880e+00 2.464208e+00 1.885501e+00 3.742683e-01
<GCONST> 9.629601e+01
<MIXTURE> 5 1.655299e-01
<MEAN> 25
 1.315801e+00 1.242105e+00 8.114646e+00 -3.405865e+00 -1.933785e+00 1.378608e+01 1.331686e+00 -9.997650e+00 2.786928e-01 -3.984308e+00 -6.107892e+00 1.366379e+00 3.213898e-01 7.633002e-01 -4.557226e-02 -4.531043e-01 -2.068600e-01 -3.072679e-01 -5.871776e-01 -3.734250e-01 -2.178848e-01 -1.340067e-02 -8.255767e-02 -2.178042e-01 -7.857724e-02
<VARIANCE> 25
 1.993893e+01 2.982302e+01 5.282697e+01 4.829578e+01 4.636648e+01 6.166889e+01 4.463881e+01 3.328025e+01 3.719769e+01 2.782957e+01 3.256447e+01 3.096415e+01 3.537584e-01 1.144434e+00 1.110891e+00 1.472120e+00 1.860050e+00 2.659317e+00 2.752164e+00 1.947434e+00 2.290938e+00 2.210173e+00 1.888691e+00 1.906167e+00 2.896282e-01
<GCONST> 9.382864e+01
<MIXTURE> 6 1.329996e-01
<MEAN> 25
 -2.892095e+00 -3.816613e+00 -1.552064e+00 6.508328e-01 -1.920553e+00 9.436021e+00 6.093613e+00 -5.734765e+00 -1.023464e+00 -1.450089e+00 -1.143780e+00 7.673379e-01 1.562993e+00 1.936193e+00 5.931053e-01 -1.502464e+00 -2.274405e+00 -1.456325e+00 -1.426618e+00 -1.162548e+00 -1.014221e+00 -1.523944e-01 -7.861789e-01 -1.187894e+00 4.014859e-01
<VARIANCE> 25
 2.525474e+01 3.951375e+01 8.131300e+01 4.316610e+01 8.511118e+01 5.429102e+01 5.823608e+01 3.287248e+01 3.512012e+01 3.263265e+01 4.238321e+01 2.519950e+01 2.060156e+00 2.646580e+00 2.492962e+00 3.036907e+00 3.204307e+00 5.178609e+00 2.858263e+00 2.498373e+00 4.194253e+00 4.025423e+00 2.708660e+00 2.089268e+00 4.999315e-01
<GCONST> 1.033907e+02
<MIXTURE> 7 1.072038e-01
<MEAN> 25
 9.330382e-01 2.355052e+00 9.251034e+00 -3.909049e+00 -7.762582e+00 1.322454e+01 2.065759e+00 -1.135648e+01 1.727895e+00 -2.425241e+00 -4.896658e+00 2.222823e+00 1.459198e-01 2.632217e-01 -4.845395e-01 -4.817210e-01 -6.955914e-01 -6.302390e-01 -2.947903e-01 -2.451807e-01 -4.318927e-01 -7.146192e-02 -2.499312e-03 -6.818734e-01 -2.161030e-01
<VARIANCE> 25
 1.459369e+01 2.396651e+01 2.788876e+01 2.981680e+01 2.927348e+01 5.617525e+01 4.542843e+01 2.915157e+01 3.010531e+01 3.080344e+01 2.203592e+01 2.690836e+01 3.373075e-01 1.212669e+00 1.132491e+00 1.702425e+00 1.719046e+00 2.324443e+00 3.016351e+00 1.691849e+00 1.985973e+00 1.890705e+00 1.336084e+00 1.961909e+00 2.445954e-01
<GCONST> 8.999494e+01
<STATE> 4
<NUMMIXES> 7
<MIXTURE> 1 1.432288e-01
<MEAN> 25
 8.543851e-01 2.881010e+00 8.420202e-01 9.025009e-01 6.748422e-03 7.168519e+00 2.888370e+00 -4.468232e+00 -1.981886e-02 -7.004389e-01 5.341109e-01 1.159610e+00 3.405012e+00 2.140170e+00 1.119137e+00 -2.072545e+00 -1.943708e+00 -1.384616e+00 -1.235669e+00 -7.489655e-01 -1.729109e+00 -4.420640e-01 -1.512569e+00 -1.107116e+00 2.097958e+00
<VARIANCE> 25
 3.357350e+01 5.518090e+01 7.716053e+01 3.777034e+01 9.995264e+01 4.722133e+01 5.468439e+01 3.104599e+01 3.299271e+01 3.379766e+01 3.099928e+01 2.307042e+01 2.051085e+00 5.523016e+00 2.667092e+00 4.533270e+00 3.975495e+00 5.546668e+00 3.657472e+00 3.691048e+00 3.798173e+00 4.222885e+00 3.746073e+00 2.445408e+00 1.229809e+00
<GCONST> 1.067470e+02
<MIXTURE> 2 1.699899e-01
<MEAN> 25
 5.553193e+00 1.405121e+00 8.200728e+00 -2.533839e+00 -7.753585e+00 9.223038e+00 7.350106e+00 -6.989582e+00 5.289741e-01 1.389856e+00 -4.404322e+00 3.647810e-02 8.923435e-01 7.335466e-02 -1.746597e-01 -9.449438e-01 -9.812273e-01 -1.189776e+00 2.136572e-01 1.028496e+00 3.826489e-01 1.769172e+00 1.028067e+00 1.787291e-01 8.587217e-01
<VARIANCE> 25
 5.589630e+00 3.949882e+01 2.497162e+01 3.367536e+01 4.272373e+01 5.355767e+01 4.930119e+01 2.803438e+01 2.860092e+01 2.952115e+01 2.169126e+01 2.139445e+01 6.358395e-01 2.194683e+00 1.990401e+00 2.826756e+00 3.001932e+00 2.831692e+00 2.399513e+00 2.830432e+00 2.251379e+00 2.392023e+00 2.017052e+00 1.673844e+00 5.895699e-01
<GCONST> 9.441271e+01
<MIXTURE> 3 1.084686e-01
<MEAN> 25
 7.515841e+00 6.125537e+00 1.062329e+00 -2.533040e+00 -8.357749e+00 2.785115e+00 6.305239e+00 -1.915110e+00 -1.831786e+00 -1.387789e+00 1.098183e-01 6.568159e-01 3.105636e-01 2.268975e-01 -2.125777e-01 -8.272125e-01 -1.079261e+00 -3.510100e-01 3.028676e-01 2.127232e-01 1.459036e-01 9.118214e-01 8.147175e-01 3.070488e-01 1.076897e-01
<VARIANCE> 25
 9.126075e+00 8.608439e+01 3.577152e+01 2.464535e+01 3.445040e+01 2.792394e+01 3.348803e+01 2.657450e+01 1.984311e+01 3.378302e+01 2.227896e+01 1.571717e+01 3.852290e-01 8.488259e-01 1.220580e+00 1.596106e+00 1.849184e+00 1.947065e+00 1.180331e+00 1.677636e+00 1.670478e+00 1.852335e+00 1.507199e+00 1.279529e+00 2.730090e-01
<GCONST> 8.742286e+01
<MIXTURE> 4 1.403061e-01
<MEAN> 25
 4.797789e+00 -2.907807e+00 5.094615e+00 -2.946956e+00 4.934142e+00 6.408252e+00 1.197333e+00 -4.624913e+00 -3.056796e+00 -2.528327e+00 -6.792849e+00 -3.328074e-01 5.836104e-01 1.594603e-01 -1.325503e-01 -1.293726e-01 -1.325607e-04 -6.067272e-01 2.096838e-02 7.952227e-01 2.867166e-01 7.647088e-01 9.216169e-02 1.359469e-01 5.066913e-01
<VARIANCE> 25
 9.247614e+00 5.223775e+01 7.714958e+01 6.708159e+01 1.077674e+02 5.595093e+01 5.378381e+01 5.097397e+01 3.419598e+01 4.958750e+01 3.351178e+01 2.663915e+01 4.991263e-01 1.775949e+00 1.767566e+00 2.563171e+00 2.432518e+00 2.573885e+00 3.087024e+00 3.255302e+00 2.429515e+00 2.644665e+00 2.268004e+00 1.730803e+00 7.329681e-01
<GCONST> 9.997879e+01
<MIXTURE> 5 1.277137e-01
<MEAN> 25
 8.121690e+00 5.407723e+00 -2.924208e+00 -1.966965e+00 -9.997216e-01 3.818401e+00 2.378830e+00 -2.310469e+00 -4.123067e+00 -4.944391e+00 -1.133851e+00 -3.026296e-01 3.440076e-01 5.233263e-01 -3.213757e-02 -8.883415e-01 -1.283818e+00 -3.858417e-01 3.965084e-01 4.182353e-01 1.132808e-01 7.923684e-02 1.192228e-02 -8.382418e-02 5.502361e-02
<VARIANCE> 25
 1.183302e+01 1.040432e+02 5.000719e+01 2.821925e+01 6.256700e+01 2.947110e+01 3.522958e+01 2.709271e+01 2.591732e+01 2.820668e+01 2.691292e+01 1.961763e+01 3.960325e-01 8.420442e-01 1.114586e+00 1.532260e+00 1.952736e+00 1.590555e+00 1.509678e+00 1.799593e+00 1.773082e+00 1.720400e+00 1.564709e+00 1.207241e+00 2.416095e-01
<GCONST> 8.945979e+01
<MIXTURE> 6 1.699899e-01
<MEAN> 25
 4.607497e+00 -1.108803e+00 6.201864e+00 -4.855059e+00 -1.036812e+01 6.295714e+00 4.541513e+00 -9.107482e+00 -1.610219e+00 -7.834791e-01 -6.267277e+00 -1.813687e+00 5.733853e-01 -5.192239e-01 -7.389860e-01 -1.617462e+00 -1.674271e+00 -1.862882e+00 -4.059573e-01 3.555402e-01 -2.175349e-01 1.150526e+00 4.599750e-01 -3.387794e-01 5.515879e-01
<VARIANCE> 25
 5.589630e+00 3.949882e+01 2.497162e+01 3.367536e+01 4.272373e+01 5.355767e+01 4.930119e+01 2.803438e+01 2.860092e+01 2.952115e+01 2.169126e+01 2.139445e+01 6.358395e-01 2.194683e+00 1.990401e+00 2.826756e+00 3.001932e+00 2.831692e+00 2.399513e+00 2.830432e+00 2.251379e+00 2.392023e+00 2.017052e+00 1.673844e+00 5.895699e-01
<GCONST> 9.441271e+01
<MIXTURE> 7 1.403061e-01
<MEAN> 25
 3.581393e+00 -5.798835e+00 1.581221e+00 -6.223090e+00 7.816982e-01 3.416238e+00 -1.736165e+00 -7.480755e+00 -5.395889e+00 -5.345063e+00 -9.108423e+00 -2.397333e+00 3.010148e-01 -3.735987e-01 -6.643497e-01 -7.697688e-01 -6.239938e-01 -1.248461e+00 -6.818288e-01 7.352448e-02 -3.367594e-01 1.142116e-01 -5.102341e-01 -3.902931e-01 1.642371e-01
<VARIANCE> 25
 9.247614e+00 5.223775e+01 7.714958e+01 6.708159e+01 1.077674e+02 5.595093e+01 5.378381e+01 5.097397e+01 3.419598e+01 4.958750e+01 3.351178e+01 2.663915e+01 4.991263e-01 1.775949e+00 1.767566e+00 2.563171e+00 2.432518e+00 2.573885e+00 3.087024e+00 3.255302e+00 2.429515e+00 2.644665e+00 2.268004e+00 1.730803e+00 7.329681e-01
<GCONST> 9.997879e+01
<TRANSP> 5
 0.000000e+00 1.000000e+00 0.000000e+00 0.000000e+00 0.000000e+00
 0.000000e+00 7.094529e-01 2.905471e-01 0.000000e+00 0.000000e+00
 0.000000e+00 0.000000e+00 3.791631e-01 6.208369e-01 0.000000e+00
 0.000000e+00 0.000000e+00 0.000000e+00 4.977195e-01 5.022805e-01
 0.000000e+00 0.000000e+00 0.000000e+00 0.000000e+00 0.000000e+00
<ENDHMM>
~h "i"
<BEGINHMM>
<NUMSTATES> 5
<STATE> 2
<NUMMIXES> 7
<MIXTURE> 1 1.515155e-01
<MEAN> 25
 -6.208214e+00 3.267709e+00 8.811422e+00 -5.313984e+00 -7.334778e-01 3.511045e+00 -5.760791e-01 -1.521039e+00 4.026809e+00 5.342946e+00 5.255075e-02 3.708271e+00 2.225961e+00 -6.937080e-01 4.404252e+00 -5.095994e+00 -1.754431e+00 -8.541793e-02 -8.788546e-01 -2.551933e+00 -1.893081e+00 1.188330e+00 -3.778307e+00 4.200348e-01 4.230309e+00
<VARIANCE> 25
 2.232669e+01 2.520767e+01 6.571450e+01 1.073438e+02 3.795389e+01 3.917564e+01 3.818474e+01 4.565730e+01 3.709236e+01 5.022149e+01 5.090872e+01 3.002398e+01 2.552929e+00 3.640907e+00 4.425518e+00 8.683925e+00 4.421256e+00 4.325457e+00 2.930312e+00 3.690456e+00 3.817912e+00 3.797359e+00 4.560007e+00 2.725849e+00 4.743724e+00
<GCONST> 1.087322e+02
<MIXTURE> 2 1.258135e-01
<MEAN> 25
 2.938163e+00 4.355030e+00 1.535440e+01 -1.143275e+01 -6.238913e+00 4.491687e+00 -2.938212e+00 -8.770725e+00 4.815770e-01 3.501366e+00 -7.589022e+00 2.677217e+00 9.611791e-01 4.990676e-02 1.989953e+00 -2.277736e+00 2.308357e-01 5.522126e-01 -8.806231e-01 4.429931e-01 1.504955e-01 1.335749e+00 -1.809796e+00 9.976001e-01 1.559700e+00
<VARIANCE> 25
 7.233268e+00 3.022432e+01 1.622696e+01 5.160629e+01 3.934693e+01 3.721066e+01 2.723844e+01 2.396609e+01 2.544888e+01 3.720206e+01 2.300042e+01 2.343951e+01 2.135751e+00 3.110235e+00 3.109330e+00 4.982589e+00 3.915765e+00 4.605429e+00 4.710048e+00 4.658256e+00 3.974056e+00 3.774523e+00 5.289172e+00 2.901097e+00 1.241174e+00
<GCONST> 1.012472e+02
<MIXTURE> 3 1.820455e-01
<MEAN> 25
 5.408801e+00 -3.055558e+00 8.963556e+00 -2.981744e+00 -1.092926e+01 -5.245907e+00 2.362531e+00 -3.775081e+00 -4.209411e+00 3.897612e+00 -5.673141e-01 -4.691020e-01 3.600693e-02 -5.771714e-01 1.871695e+00 -2.113472e+00 -1.142483e+00 2.557942e-01 2.926205e-01 -1.015682e+00 -2.071957e-01 2.224797e+00 -1.042865e+00 7.289672e-01 9.543816e-01
<VARIANCE> 25
 8.296876e+00 3.480427e+01 2.310362e+01 2.940792e+01 3.036359e+01 3.565509e+01 2.630696e+01 3.509598e+01 2.052715e+01 3.140163e+01 2.631351e+01 1.779447e+01 1.005980e+00 2.245692e+00 2.135479e+00 2.609876e+00 3.290242e+00 3.539613e+00 3.289093e+00 4.090897e+00 3.328502e+00 2.860142e+00 3.594362e+00 1.901678e+00 6.548795e-01
<GCONST> 9.590597e+01
<MIXTURE> 4 2.010208e-01
<MEAN> 25
 2.138350e+00 3.563991e-01 1.397235e+01 -1.562396e+01 -8.718925e+00 -9.826390e-01 -3.547122e+00 -9.976047e+00 -3.417633e+00 2.883558e+00 -6.849336e+00 -1.590827e-01 2.405733e+00 -1.047067e+00 2.109933e+00 -3.013932e+00 -1.648021e+00 -7.983232e-01 -1.351347e+00 -5.494524e-01 -1.922420e+00 9.653844e-01 -3.660284e+00 -2.080759e-01 2.745299e+00
<VARIANCE> 25
 5.253765e+00 3.329754e+01 2.029366e+01 4.276878e+01 3.202065e+01 4.087231e+01 2.915850e+01 2.743649e+01 2.003577e+01 3.562024e+01 2.877061e+01 1.743884e+01 2.165564e+00 3.886215e+00 5.059781e+00 4.249972e+00 3.828773e+00 4.656836e+00 4.806083e+00 3.326030e+00 3.335880e+00 3.837720e+00 5.476173e+00 2.536555e+00 2.260446e+00
<GCONST> 1.013747e+02
<MIXTURE> 5 1.068961e-01
<MEAN> 25
 4.703248e+00 -4.765976e+00 1.229200e+01 -5.688087e+00 -8.708266e+00 -3.372986e+00 1.505675e+00 -1.572950e+00 -6.541366e+00 4.010278e+00 -8.508351e-01 -1.877891e+00 -9.210101e-02 -1.081696e+00 2.411720e+00 -2.645684e+00 -1.315780e-01 7.457082e-01 4.218970e-01 7.093811e-02 -4.261093e-01 2.684488e+00 -1.077104e+00 4.794764e-01 1.519164e+00
<VARIANCE> 25
 6.789972e+00 2.838463e+01 2.303524e+01 3.008155e+01 2.696801e+01 3.230722e+01 2.202761e+01 2.846718e+01 2.003768e+01 2.691379e+01 3.252495e+01 2.039415e+01 1.315244e+00 2.039701e+00 2.371719e+00 3.912353e+00 3.256434e+00 3.181642e+00 2.635284e+00 3.722723e+00 2.976550e+00 3.127505e+00 3.319199e+00 1.885777e+00 7.600842e-01
<GCONST> 9.537446e+01
<MIXTURE> 6 1.258135e-01
<MEAN> 25
 1.862373e+00 2.155964e+00 1.374310e+01 -1.430625e+01 -8.747998e+00 2.051665e+00 -5.025830e+00 -1.072893e+01 -1.536298e+00 1.061626e+00 -9.507372e+00 7.406427e-01 3.766107e-01 -6.555276e-01 1.284621e+00 -3.170604e+00 -5.606959e-01 -3.061980e-01 -1.748729e+00 -4.203267e-01 -6.469059e-01 5.586234e-01 -2.729724e+00 3.162958e-01 1.114068e+00
<VARIANCE> 25
 7.233268e+00 3.022432e+01 1.622696e+01 5.160629e+01 3.934693e+01 3.721066e+01 2.723844e+01 2.396609e+01 2.544888e+01 3.720206e+01 2.300042e+01 2.343951e+01 2.135751e+00 3.110235e+00 3.109330e+00 4.982589e+00 3.915765e+00 4.605429e+00 4.710048e+00 4.658256e+00 3.974056e+00 3.774523e+00 5.289172e+00 2.901097e+00 1.241174e+00
<GCONST> 1.012472e+02
<MIXTURE> 7 1.068961e-01
<MEAN> 25
 3.660944e+00 -6.897066e+00 1.037220e+01 -7.881953e+00 -1.078549e+01 -5.646564e+00 -3.716679e-01 -3.707136e+00 -8.331904e+00 1.935138e+00 -3.132061e+00 -3.684287e+00 -5.508374e-01 -1.652968e+00 1.795704e+00 -3.436871e+00 -8.534017e-01 3.222194e-02 -2.274453e-01 -7.008363e-01 -1.116217e+00 1.977098e+00 -1.805850e+00 -6.981800e-02 1.170432e+00
<VARIANCE> 25
 6.789972e+00 2.838463e+01 2.303524e+01 3.008155e+01 2.696801e+01 3.230722e+01 2.202761e+01 2.846718e+01 2.003768e+01 2.691379e+01 3.252495e+01 2.039415e+01 1.315244e+00 2.039701e+00 2.371719e+00 3.912353e+00 3.256434e+00 3.181642e+00 2.635284e+00 3.722723e+00 2.976550e+00 3.127505e+00 3.319199e+00 1.885777e+00 7.600842e-01
<GCONST> 9.537446e+01
<STATE> 3
<NUMMIXES> 7
<MIXTURE> 1 1.423156e-01
<MEAN> 25
 4.880196e+00 -4.122077e+00 1.271087e+01 -7.347656e+00 -8.885429e+00 -3.715270e+00 2.900380e+00 -2.974130e+00 -3.748072e+00 7.476901e+00 -2.510378e+00 1.352826e+00 2.611084e-02 6.739308e-01 5.841146e-01 -3.569040e-02 6.526007e-01 4.535051e-01 2.792194e-02 8.111127e-02 4.058901e-01 5.017302e-01 -4.086116e-01 9.677953e-01 -8.118670e-02
<VARIANCE> 25
 6.310828e+00 3.229757e+01 1.883563e+01 2.657805e+01 2.156228e+01 3.765415e+01 2.402262e+01 3.180023e+01 2.342123e+01 2.899171e+01 2.552847e+01 1.889624e+01 3.747036e-01 1.344473e+00 1.123192e+00 2.019281e+00 1.526196e+00 1.903701e+00 2.096118e+00 2.688476e+00 2.011601e+00 1.918279e+00 2.418384e+00 1.438396e+00 3.855733e-01
<GCONST> 8.809018e+01
<MIXTURE> 2 1.990711e-01
<MEAN> 25
 1.569684e+00 -8.202961e-02 1.689166e+01 -1.785603e+01 -4.831827e+00 1.527745e+00 -4.463695e+00 -7.363727e+00 -2.491501e+00 5.387539e+00 -1.062145e+01 2.528545e+00 3.216819e-01 -5.932088e-01 -3.008197e-01 1.046549e+00 -5.949025e-01 -5.760232e-01 7.716699e-01 1.581952e-01 -4.135312e-01 3.585328e-01 3.268174e-01 -7.367636e-02 1.694376e-01
<VARIANCE> 25
 4.290483e+00 2.868132e+01 1.272817e+01 2.009019e+01 2.390250e+01 2.832657e+01 2.430540e+01 1.998137e+01 1.659034e+01 2.775008e+01 1.896620e+01 2.081975e+01 3.786108e-01 1.603337e+00 9.601831e-01 2.336386e+00 1.388306e+00 2.105337e+00 1.598094e+00 1.873159e+00 1.727803e+00 2.242591e+00 1.645200e+00 1.644807e+00 6.426678e-01
<GCONST> 8.550317e+01
<MIXTURE> 3 1.800193e-01
<MEAN> 25
 3.196198e+00 8.064686e+00 1.386395e+01 -1.302832e+01 -4.881034e+00 5.129699e+00 -8.196083e+00 -5.882198e+00 2.487297e+00 -1.004490e+00 -8.220375e+00 2.726076e+00 -7.583138e-02 3.248272e-01 1.581699e-01 -4.717584e-01 4.590302e-01 1.031139e-01 -4.638340e-01 2.449412e-01 3.213996e-01 2.530212e-01 -1.852575e-01 5.290705e-01 -8.593993e-02
<VARIANCE> 25
 3.860617e+00 2.399188e+01 1.393014e+01 3.251184e+01 3.030367e+01 1.980023e+01 1.829191e+01 2.887821e+01 1.801412e+01 2.663427e+01 2.238186e+01 2.140758e+01 2.454028e-01 1.027109e+00 9.077579e-01 2.019848e+00 2.044439e+00 1.609594e+00 1.943113e+00 2.222503e+00 1.338464e+00 2.147625e+00 1.662586e+00 1.252880e+00 3.859586e-01
<GCONST> 8.432286e+01
<MIXTURE> 4 1.030604e-01
<MEAN> 25
 1.522796e+00 -1.319165e+00 1.786672e+01 -1.697198e+01 -4.587000e+00 2.654152e+00 -2.993117e+00 -6.431105e+00 -4.782595e+00 4.736722e+00 -1.141306e+01 1.385950e+00 2.335892e-01 3.887547e-01 -3.204926e-01 1.113406e+00 -6.716323e-02 6.300946e-02 4.300327e-01 -2.413723e-02 -6.534143e-02 -2.193476e-01 1.384924e-01 2.417014e-01 -2.451568e-01
<VARIANCE> 25
 3.874920e+00 2.450354e+01 9.806976e+00 1.325527e+01 1.985597e+01 2.612406e+01 2.304902e+01 1.656364e+01 1.501647e+01 2.212105e+01 1.646779e+01 1.338902e+01 2.152683e-01 1.136783e+00 7.175739e-01 1.927322e+00 1.022051e+00 1.722216e+00 1.365863e+00 1.698490e+00 1.529204e+00 1.558657e+00 1.692070e+00 1.210141e+00 3.555199e-01
<GCONST> 7.964008e+01
<MIXTURE> 5 1.301511e-01
<MEAN> 25
 2.237643e+00 2.018572e+00 1.454524e+01 -1.548650e+01 -4.282632e+00 5.513833e+00 -6.892938e+00 -8.160412e+00 -1.864093e+00 5.790097e-01 -1.153366e+01 1.009143e-01 -1.048130e-01 8.676388e-02 2.069530e-01 -7.461330e-01 4.606755e-01 -4.035643e-02 -4.062025e-01 1.874831e-01 6.574676e-02 2.801579e-01 -8.152087e-01 2.005933e-01 8.221027e-02
<VARIANCE> 25
 5.066344e+00 2.542396e+01 1.350698e+01 1.828097e+01 3.920953e+01 3.706695e+01 2.979211e+01 3.343777e+01 2.178393e+01 2.887381e+01 1.951667e+01 1.982718e+01 2.840941e-01 1.024004e+00 7.896115e-01 1.732338e+00 1.897185e+00 2.087739e+00 1.541253e+00 2.116886e+00 1.569465e+00 2.316640e+00 1.984326e+00 1.581390e+00 3.628485e-01
<GCONST> 8.596049e+01
<MIXTURE> 6 1.423156e-01
<MEAN> 25
 3.875342e+00 -6.395315e+00 1.097487e+01 -9.409813e+00 -1.074284e+01 -6.169789e+00 9.398645e-01 -5.229798e+00 -5.683892e+00 5.323143e+00 -4.531406e+00 -3.859662e-01 -2.187413e-01 2.101252e-01 1.601915e-01 -6.040961e-01 1.584435e-01 -9.839353e-02 -5.511972e-01 -5.747517e-01 -1.614335e-01 -5.227761e-02 -1.030658e+00 4.880627e-01 -3.295649e-01
<VARIANCE> 25
 6.310828e+00 3.229757e+01 1.883563e+01 2.657805e+01 2.156228e+01 3.765415e+01 2.402262e+01 3.180023e+01 2.342123e+01 2.899171e+01 2.552847e+01 1.889624e+01 3.747036e-01 1.344473e+00 1.123192e+00 2.019281e+00 1.526196e+00 1.903701e+00 2.096118e+00 2.688476e+00 2.011601e+00 1.918279e+00 2.418384e+00 1.438396e+00 3.855733e-01
<GCONST> 8.809018e+01
<MIXTURE> 7 1.030604e-01
<MEAN> 25
 7.354037e-01 -3.299207e+00 1.661408e+01 -1.842830e+01 -6.369402e+00 6.096839e-01 -4.913493e+00 -8.059043e+00 -6.332638e+00 2.855401e+00 -1.303628e+01 -7.769012e-02 4.800117e-02 -3.772546e-02 -6.593316e-01 5.580938e-01 -4.715494e-01 -4.619235e-01 -3.744788e-02 -5.454417e-01 -5.599854e-01 -7.187324e-01 -3.818260e-01 -1.983242e-01 -4.836588e-01
<VARIANCE> 25
 3.874920e+00 2.450354e+01 9.806976e+00 1.325527e+01 1.985597e+01 2.612406e+01 2.304902e+01 1.656364e+01 1.501647e+01 2.212105e+01 1.646779e+01 1.338902e+01 2.152683e-01 1.136783e+00 7.175739e-01 1.927322e+00 1.022051e+00 1.722216e+00 1.365863e+00 1.698490e+00 1.529204e+00 1.558657e+00 1.692070e+00 1.210141e+00 3.555199e-01
<GCONST> 7.964008e+01
<STATE> 4
<NUMMIXES> 7
<MIXTURE> 1 1.318039e-01
<MEAN> 25
 -1.050770e-02 9.660790e+00 8.058489e+00 3.889875e+00 -4.862652e+00 -1.283154e-01 -1.713356e+00 -4.029686e+00 2.550827e+00 2.015490e+00 2.195148e+00 2.072924e+00 -9.038419e-01 3.177360e-01 -1.084348e+00 1.356869e+00 1.219461e+00 -3.038749e-02 1.734594e-01 1.250224e+00 8.225262e-01 2.106908e-01 1.636637e+00 5.229045e-02 -1.183528e+00
<VARIANCE> 25
 1.293502e+01 1.874481e+01 1.754890e+01 2.404082e+01 3.886868e+01 2.762556e+01 2.723386e+01 2.444021e+01 2.548179e+01 3.828434e+01 2.434413e+01 2.053782e+01 4.850648e-01 1.624940e+00 1.241363e+00 2.190275e+00 2.655003e+00 2.004781e+00 2.415371e+00 1.977025e+00 2.443978e+00 2.226539e+00 2.091807e+00 1.690033e+00 6.191629e-01
<GCONST> 9.053484e+01
<MIXTURE> 2 1.179691e-01
<MEAN> 25
 5.050531e+00 -6.358802e-02 1.106761e+01 -2.605784e+00 -8.419531e+00 -4.422988e+00 2.030030e+00 -4.220748e+00 -4.181066e+00 5.291960e+00 -2.901670e+00 2.308545e+00 -1.513484e-01 2.348970e+00 -6.990290e-01 2.802318e+00 5.983918e-01 5.251210e-01 2.340057e-01 2.822542e-01 7.521968e-01 -1.077848e+00 1.305423e+00 7.873324e-02 -1.840090e+00
<VARIANCE> 25
 5.541019e+00 2.829782e+01 1.874658e+01 3.228567e+01 2.252743e+01 3.746599e+01 2.035303e+01 3.368678e+01 1.924695e+01 3.284424e+01 3.053645e+01 1.995240e+01 6.300660e-01 1.158118e+00 8.608702e-01 1.551455e+00 1.729481e+00 1.852819e+00 1.786068e+00 2.116339e+00 1.951102e+00 1.795170e+00 2.393449e+00 1.815075e+00 7.789738e-01
<GCONST> 8.847849e+01
<MIXTURE> 3 1.498908e-01
<MEAN> 25
 2.020238e+00 5.863997e+00 1.315551e+01 -8.485743e+00 -7.101767e+00 1.948460e+00 -3.984368e+00 -8.307720e+00 7.441555e-01 2.287203e+00 -6.574538e+00 3.132847e+00 -6.033484e-01 6.249093e-01 -5.803129e-01 1.566314e+00 7.416119e-02 -3.103910e-01 4.179449e-01 2.241033e-01 5.581704e-01 1.412441e-02 1.243476e+00 1.090110e-01 -1.127351e+00
<VARIANCE> 25
 9.613967e+00 3.125755e+01 1.820328e+01 5.776580e+01 3.047253e+01 3.241596e+01 3.360622e+01 2.694778e+01 2.475215e+01 4.013024e+01 3.036448e+01 2.549895e+01 8.064089e-01 3.015316e+00 1.643600e+00 3.838288e+00 2.446978e+00 2.480021e+00 2.331006e+00 2.383308e+00 2.475097e+00 2.963853e+00 2.807079e+00 1.761299e+00 2.057305e+00
<GCONST> 9.642818e+01
<MIXTURE> 4 2.099559e-01
<MEAN> 25
 3.525878e+00 -3.711458e+00 1.242036e+01 -9.048510e+00 -8.388264e+00 -3.527267e+00 -2.027090e-01 -5.732872e+00 -7.420959e+00 3.489036e+00 -7.074528e+00 -1.756793e-01 3.602409e-01 1.098573e+00 -1.544601e+00 2.828214e+00 1.789101e-02 -6.298304e-01 -4.554466e-02 -8.339904e-02 -2.902865e-01 -1.547046e+00 8.835615e-01 -2.738289e-01 -1.283778e+00
<VARIANCE> 25
 4.817019e+00 3.376722e+01 1.539354e+01 2.426400e+01 2.311683e+01 3.716853e+01 2.055035e+01 3.304615e+01 2.179317e+01 3.091464e+01 3.059138e+01 1.950917e+01 5.295579e-01 1.533550e+00 9.603808e-01 1.847787e+00 1.478746e+00 2.272946e+00 2.025961e+00 2.571572e+00 1.820028e+00 1.855276e+00 2.367867e+00 1.432732e+00 5.543963e-01
<GCONST> 8.821960e+01
<MIXTURE> 5 1.405984e-01
<MEAN> 25
 3.521032e-01 5.264260e+00 1.217389e+01 -5.074383e+00 -7.629899e+00 -3.075261e-01 -3.594941e+00 -8.842398e+00 -1.964881e+00 1.652735e+00 -5.460193e+00 1.263408e+00 -7.757069e-01 1.083314e+00 -9.695306e-01 2.157292e+00 -1.884648e-01 1.850828e-01 4.474462e-02 -8.340885e-02 6.468865e-01 -6.469871e-01 1.082518e+00 -5.547638e-01 -1.889386e+00
<VARIANCE> 25
 1.078726e+01 2.748244e+01 1.618344e+01 5.071096e+01 3.259827e+01 3.269418e+01 3.100359e+01 2.680879e+01 2.746732e+01 3.952576e+01 2.758447e+01 3.050113e+01 5.682816e-01 1.694717e+00 9.112604e-01 2.720282e+00 1.883052e+00 2.304579e+00 1.879582e+00 2.005122e+00 2.332420e+00 1.989201e+00 2.174368e+00 1.645886e+00 1.041680e+00
<GCONST> 9.228345e+01
<MIXTURE> 6 1.318039e-01
<MEAN> 25
 -1.449119e+00 7.928979e+00 6.382832e+00 1.928617e+00 -7.356442e+00 -2.230716e+00 -3.800798e+00 -6.007168e+00 5.316472e-01 -4.594837e-01 2.215576e-01 2.601776e-01 -1.182428e+00 -1.921565e-01 -1.530014e+00 7.648854e-01 5.676939e-01 -5.967487e-01 -4.481992e-01 6.877972e-01 1.971970e-01 -3.861728e-01 1.058113e+00 -4.677147e-01 -1.498276e+00
<VARIANCE> 25
 1.293502e+01 1.874481e+01 1.754890e+01 2.404082e+01 3.886868e+01 2.762556e+01 2.723386e+01 2.444021e+01 2.548179e+01 3.828434e+01 2.434413e+01 2.053782e+01 4.850648e-01 1.624940e+00 1.241363e+00 2.190275e+00 2.655003e+00 2.004781e+00 2.415371e+00 1.977025e+00 2.443978e+00 2.226539e+00 2.091807e+00 1.690033e+00 6.191629e-01
<GCONST> 9.053484e+01
<MIXTURE> 7 1.179691e-01
<MEAN> 25
 4.108956e+00 -2.191416e+00 9.335713e+00 -4.878603e+00 -1.031805e+01 -6.871367e+00 2.254564e-01 -6.542360e+00 -5.935920e+00 2.999564e+00 -5.112062e+00 5.218207e-01 -4.688552e-01 1.918506e+00 -1.070161e+00 2.304088e+00 7.235283e-02 -1.935220e-02 -3.005697e-01 -2.996515e-01 1.934694e-01 -1.613784e+00 6.865925e-01 -4.601656e-01 -2.193128e+00
<VARIANCE> 25
