~o
<STREAMINFO> 1 25
<VECSIZE> 25<NULLD><MFCC_D_N_Z_0><DIAGC>
~s "silst"
<NUMMIXES> 13
<MIXTURE> 1 4.839755e-02
<MEAN> 25
 -8.688717e+00 5.108732e+00 -3.003559e+00 7.425173e+00 3.629584e+00 3.723794e+00 1.083966e+00 3.753963e+00 5.008746e+00 9.816999e-01 6.555011e+00 6.964009e-01 3.149154e-01 -2.122239e+00 -2.072160e-01 -1.227305e+00 6.214384e-01 9.671383e-01 4.100097e-01 9.892663e-03 -5.424737e-01 3.220128e-01 3.162968e-01 5.901003e-01 1.546171e+00
<VARIANCE> 25
 2.694280e+00 6.447750e+00 9.883271e+00 1.125410e+01 1.128892e+01 1.436180e+01 9.609869e+00 1.322300e+01 1.472119e+01 1.407678e+01 1.318272e+01 1.336374e+01 1.675380e+00 3.077875e+00 7.620781e+00 4.706874e+00 6.428028e+00 6.112784e+00 4.522954e+00 4.949259e+00 5.117251e+00 4.286121e+00 4.486411e+00 2.843056e+00 1.186878e+00
<GCONST> 9.175664e+01
<MIXTURE> 2 3.276972e-02
<MEAN> 25
 -5.405279e+00 -1.542516e+00 -6.045936e-01 -1.448859e+00 3.164750e-01 -9.490249e-01 8.593766e-01 3.768863e+00 5.258860e+00 2.850139e+00 1.246991e+00 4.218586e+00 1.541345e+00 -2.968716e+00 -1.055684e+00 -5.867816e-01 2.599020e+00 8.509061e-02 3.750213e-01 1.413636e+00 -6.230541e-01 -1.029367e+00 -1.512993e+00 1.844306e-01 3.061750e+00
<VARIANCE> 25
 2.309261e+01 3.896888e+01 7.849169e+01 7.180574e+01 8.453997e+01 5.145356e+01 5.588598e+01 4.359871e+01 3.020368e+01 5.833048e+01 5.229160e+01 3.579147e+01 3.681990e+00 4.447056e+00 8.545643e+00 1.064067e+01 1.233323e+01 9.745303e+00 6.040750e+00 5.773195e+00 5.271050e+00 5.763084e+00 5.707293e+00 4.218797e+00 5.116355e+00
<GCONST> 1.164451e+02
<MIXTURE> 3 9.627894e-02
<MEAN> 25
 -7.902497e+00 -2.420515e-01 -3.234809e+00 4.471298e+00 4.460349e+00 2.066046e+00 1.255491e+00 3.618329e+00 4.002639e+00 1.715715e-01 6.092050e+00 1.617092e+00 -1.491559e-02 2.572240e-01 5.785787e-02 2.731752e-01 1.258150e-01 -1.298349e-02 -5.283890e-02 -1.343360e-01 -7.898186e-02 -9.660440e-03 -2.157878e-02 -9.341832e-02 -1.600184e-01
<VARIANCE> 25
 2.770671e+01 6.347013e+01 8.384551e+01 8.066563e+01 7.685497e+01 8.631339e+01 5.330445e+01 5.902879e+01 5.697258e+01 4.747701e+01 6.639395e+01 3.606150e+01 1.330679e+00 3.105714e+00 3.255612e+00 3.109683e+00 3.072996e+00 3.231953e+00 2.836941e+00 3.259842e+00 3.551913e+00 2.718139e+00 2.613463e+00 1.904953e+00 1.159948e+00
<GCONST> 1.070510e+02
<MIXTURE> 4 2.518464e-02
<MEAN> 25
 -1.696658e+00 1.000527e+01 1.923841e+00 8.827380e+00 2.831059e-01 -2.975888e-01 -1.932490e+00 -6.316813e-01 -3.863727e-01 -3.551280e+00 2.389094e+00 -2.422136e+00 3.965264e+00 2.958217e+00 9.809524e-01 -9.201052e-01 -1.789084e+00 -1.176853e+00 -1.244627e+00 -1.925223e+00 -1.876394e+00 -1.848414e+00 -2.093725e+00 -1.157255e+00 2.029119e+00
<VARIANCE> 25
 3.049937e+01 3.576093e+01 1.794521e+01 2.678419e+01 2.995655e+01 2.520064e+01 2.498189e+01 2.847266e+01 2.151824e+01 2.181067e+01 1.746981e+01 1.651715e+01 1.277375e+00 1.328333e+00 2.256189e+00 3.085221e+00 2.767505e+00 1.275127e+00 1.927214e+00 2.651181e+00 2.235683e+00 1.710726e+00 1.920795e+00 1.695987e+00 7.069563e-01
<GCONST> 9.166331e+01
<MIXTURE> 5 1.632045e-02
<MEAN> 25
 -2.882219e+00 -1.763771e+00 -5.334460e+00 4.578445e+00 -2.604341e+00 -4.173963e+00 2.034264e+00 4.741261e+00 3.747910e+00 -5.809832e+00 4.004371e+00 6.952173e-02 -1.908552e+00 -2.419056e+00 -9.395097e-01 -2.282669e+00 1.230949e+00 6.632613e-01 9.963608e-01 -2.948508e+00 2.038642e+00 1.547182e+00 3.222646e+00 1.949597e+00 2.729954e+00
<VARIANCE> 25
 8.232078e+00 3.146139e+01 1.506018e+01 3.040451e+01 2.390915e+01 3.092525e+01 1.858466e+01 4.298651e+01 2.167748e+01 2.272180e+01 5.032628e+01 1.294033e+01 1.347203e+00 1.600520e+00 1.885075e+00 2.577427e+00 3.115768e+00 4.582283e+00 3.300794e+00 4.767961e+00 2.738310e+00 3.015405e+00 3.491029e+00 3.045095e+00 1.449553e+00
<GCONST> 9.620782e+01
<MIXTURE> 6 6.532516e-02
<MEAN> 25
 -8.051578e+00 3.737253e+00 -3.707550e+00 7.777151e+00 2.414815e+00 4.268936e+00 1.297265e+00 4.979364e+00 4.983329e+00 1.102444e+00 7.526806e+00 1.128492e+00 6.430627e-02 2.809872e-01 3.722342e-01 4.534413e-01 5.639407e-01 7.204750e-01 7.127891e-01 7.388520e-01 5.744348e-01 4.879006e-01 3.992727e-01 3.140342e-01 -4.430735e-02
<VARIANCE> 25
 3.036516e+00 5.062415e+00 6.436830e+00 1.114625e+01 1.185955e+01 1.276152e+01 1.176603e+01 1.154686e+01 1.144995e+01 1.474733e+01 1.411010e+01 1.330266e+01 1.282406e-01 2.356893e-01 3.292949e-01 5.151185e-01 7.029526e-01 7.973233e-01 1.293194e+00 1.251920e+00 1.183763e+00 1.172304e+00 1.178522e+00 1.684873e+00 4.386647e-02
<GCONST> 6.576434e+01
<MIXTURE> 7 3.188094e-02
<MEAN> 25
 -7.359495e-01 -9.139474e+00 -7.487242e+00 3.158525e-01 1.280266e+01 5.775485e+00 -1.799960e+00 7.014390e+00 2.467899e+00 2.275099e-01 -7.398149e-01 5.446862e-01 3.347575e+00 -4.701768e+00 7.576352e-02 -2.842078e+00 2.248247e+00 6.724597e-01 -5.777967e-01 5.326434e-01 -2.372338e+00 -1.004455e-01 -2.072160e+00 -9.145101e-01 6.077153e+00
<VARIANCE> 25
 3.420055e+01 4.481020e+01 2.923932e+01 6.171951e+01 3.294636e+01 4.505204e+01 2.988452e+01 3.436803e+01 4.507298e+01 2.615632e+01 4.733390e+01 3.133127e+01 2.056844e+00 3.054916e+00 3.906791e+00 4.424132e+00 5.238687e+00 5.631439e+00 3.681440e+00 4.050665e+00 2.749063e+00 2.387163e+00 3.940672e+00 2.800128e+00 2.966487e+00
<GCONST> 1.055352e+02
<MIXTURE> 8 1.474113e-01
<MEAN> 25
 -7.803242e+00 4.153262e+00 -3.173161e+00 7.995697e+00 3.070568e+00 3.414195e+00 -8.480886e-02 1.812977e+00 2.800606e+00 -9.063269e-01 6.020089e+00 4.816713e-01 -3.512264e-01 1.301115e-01 1.627471e-01 1.225547e-01 4.807517e-03 -1.254513e-02 2.672704e-01 6.096938e-01 6.267693e-01 4.277839e-01 2.742286e-01 1.369823e-01 -3.110606e-01
<VARIANCE> 25
 3.941617e+00 7.449385e+00 1.200750e+01 1.438390e+01 1.778805e+01 1.603248e+01 1.607214e+01 1.615334e+01 1.688573e+01 1.682060e+01 1.624763e+01 1.446937e+01 1.766942e-01 6.026883e-01 1.057857e+00 9.890220e-01 1.551229e+00 1.534379e+00 1.618477e+00 1.492597e+00 1.663687e+00 1.686470e+00 1.446043e+00 1.555045e+00 8.936360e-02
<GCONST> 7.578136e+01
<MIXTURE> 9 8.600916e-02
<MEAN> 25
 -8.253634e+00 4.124883e+00 -3.438026e+00 6.427632e+00 2.847702e+00 2.732470e+00 5.800098e-01 3.171000e+00 4.046879e+00 2.214874e-01 5.806250e+00 3.448521e-01 1.285013e-01 2.789018e-01 3.037229e-01 5.616346e-01 3.858579e-01 -1.268605e-01 -2.143002e-01 -1.542193e-01 -2.172658e-01 -3.657389e-01 -3.078354e-01 -2.681490e-01 3.120381e-02
<VARIANCE> 25
 3.980935e+00 7.973568e+00 1.197597e+01 1.096429e+01 1.469965e+01 1.541964e+01 1.542269e+01 1.764749e+01 1.827618e+01 1.975176e+01 1.654140e+01 1.534263e+01 9.898010e-01 2.544505e+00 2.631869e+00 2.592288e+00 3.137405e+00 4.047444e+00 3.362653e+00 3.256627e+00 3.357113e+00 2.810107e+00 2.574605e+00 2.127402e+00 6.522552e-01
<GCONST> 8.803377e+01
<MIXTURE> 10 1.455255e-01
<MEAN> 25
 -7.993710e+00 3.773059e+00 -3.894649e+00 7.518456e+00 2.468908e+00 3.923122e+00 1.527757e+00 5.129947e+00 5.051607e+00 1.522519e+00 7.467723e+00 9.790742e-01 -1.599162e-02 3.043495e-02 -1.888074e-02 -2.333904e-02 -6.212636e-02 -3.032335e-02 -5.702418e-03 1.151959e-01 1.310741e-01 1.394116e-01 8.824791e-02 1.219132e-01 -6.148060e-02
<VARIANCE> 25
 2.752891e+00 5.890018e+00 7.368151e+00 9.673453e+00 1.015036e+01 1.182758e+01 1.331548e+01 1.301540e+01 1.338459e+01 1.655958e+01 1.352202e+01 1.400571e+01 8.866325e-02 1.814381e-01 3.594961e-01 5.283320e-01 6.110128e-01 7.088824e-01 9.594830e-01 1.023920e+00 1.098142e+00 1.209827e+00 1.225458e+00 1.228721e+00 2.988181e-02
<GCONST> 6.412486e+01
<MIXTURE> 11 8.168720e-02
<MEAN> 25
 -6.871984e+00 4.825127e+00 -2.643194e+00 7.191112e+00 2.311444e+00 2.467703e+00 -2.118953e-01 2.079705e+00 1.581572e+00 -2.280839e+00 4.411963e+00 -1.273459e-01 -5.951306e-01 -4.868697e-01 -7.432640e-01 -4.118720e-01 -9.696200e-03 1.997385e-03 1.360192e-01 1.710350e-01 1.789237e-01 3.225364e-01 3.819658e-01 1.260328e-01 -3.835450e-01
<VARIANCE> 25
 4.213528e+00 6.227514e+00 8.591529e+00 8.564040e+00 1.262291e+01 1.379956e+01 1.540847e+01 1.379157e+01 1.405217e+01 1.401290e+01 1.400129e+01 1.526044e+01 2.062079e-01 5.844389e-01 7.073476e-01 7.454391e-01 1.046681e+00 1.439237e+00 1.366516e+00 1.518424e+00 1.419591e+00 1.396979e+00 1.390600e+00 1.441560e+00 7.131393e-02
<GCONST> 7.180201e+01
<MIXTURE> 12 1.224923e-01
<MEAN> 25
 -8.026691e+00 3.269785e+00 -4.355878e+00 6.720223e+00 2.152499e+00 3.364290e+00 3.050728e-01 3.803705e+00 3.833318e+00 4.054284e-01 6.177784e+00 2.966869e-01 -1.461481e-01 -1.499231e-01 -2.468186e-01 -3.047417e-01 -3.719168e-01 -4.112249e-01 -4.649705e-01 -4.355621e-01 -3.858091e-01 -3.559347e-01 -3.192781e-01 -2.303479e-01 -1.129407e-01
<VARIANCE> 25
 2.794619e+00 5.060222e+00 6.831741e+00 9.821757e+00 1.151853e+01 1.385126e+01 1.365226e+01 1.227749e+01 1.336521e+01 1.529902e+01 1.442831e+01 1.561067e+01 8.475877e-02 1.952451e-01 3.860246e-01 5.811622e-01 6.739168e-01 7.454809e-01 9.043111e-01 1.146116e+00 1.271221e+00 1.279344e+00 1.312151e+00 1.391151e+00 2.893393e-02
<GCONST> 6.503059e+01
<MIXTURE> 13 1.007177e-01
<MEAN> 25
 -8.127991e+00 3.158656e+00 -4.256022e+00 6.890406e+00 1.697211e+00 2.710592e+00 -3.071968e-02 3.695111e+00 3.808230e+00 1.109741e-01 6.437642e+00 4.188186e-01 -5.668720e-02 9.961506e-02 1.830415e-01 3.121031e-01 3.600661e-01 3.576230e-01 3.022741e-01 2.698591e-01 1.497611e-01 1.131616e-01 -4.878198e-03 -1.419987e-01 -9.198778e-02
<VARIANCE> 25
 2.847164e+00 5.796234e+00 7.626358e+00 1.119639e+01 1.099686e+01 1.417082e+01 1.448079e+01 1.235177e+01 1.438066e+01 1.563414e+01 1.236252e+01 1.369731e+01 1.153566e-01 2.219095e-01 3.462747e-01 5.086720e-01 7.336069e-01 8.638977e-01 1.045738e+00 1.074425e+00 1.100431e+00 1.049875e+00 1.077100e+00 1.298600e+00 4.225239e-02
<GCONST> 6.555486e+01
~h "a"
<BEGINHMM>
<NUMSTATES> 5
<STATE> 2
<NUMMIXES> 13
<MIXTURE> 1 8.813278e-02
<MEAN> 25
 -9.007142e+00 -1.130980e+00 1.387288e-01 4.368024e+00 1.250404e+00 -3.542025e+00 4.510712e+00 4.889144e-01 2.971224e+00 -1.921970e-01 8.640718e+00 1.746697e+00 -1.116785e-01 5.126910e-01 4.860540e-02 5.271840e-01 4.600438e-01 5.043601e-01 -1.199821e-01 2.857691e-01 2.837710e-01 -4.368482e-04 -3.154940e-01 1.604349e-02 -1.239349e+00
<VARIANCE> 25
 3.039309e+01 4.540220e+01 6.179071e+01 5.473909e+01 5.144944e+01 5.281947e+01 4.742632e+01 5.075650e+01 4.314062e+01 3.956776e+01 3.771885e+01 3.190371e+01 2.215982e+00 2.431641e+00 3.304701e+00 2.571023e+00 4.074671e+00 3.041723e+00 3.807112e+00 3.171653e+00 2.631739e+00 2.778009e+00 2.135718e+00 1.907431e+00 1.217210e+00
<GCONST> 1.039548e+02
<MIXTURE> 2 8.462010e-02
<MEAN> 25
 1.015858e+01 -7.922143e+00 -8.485965e+00 -1.846460e+00 4.918675e+00 -5.258094e+00 6.481041e-01 4.539463e+00 4.446878e+00 -5.526593e-01 -1.192417e+01 -2.855576e-01 -3.378789e-02 -1.150227e+00 8.825107e-01 -5.693934e-02 -3.970572e-01 -6.704329e-01 1.515514e+00 1.494517e+00 -4.503020e-01 2.531388e-03 -7.436543e-01 7.664467e-01 7.435313e-01
<VARIANCE> 25
 4.070709e+00 1.501329e+01 1.652451e+01 2.711892e+01 4.123657e+01 3.098540e+01 4.623954e+01 3.029614e+01 2.719979e+01 4.571972e+01 2.466396e+01 3.222917e+01 4.404314e-01 1.184018e+00 1.534105e+00 2.253437e+00 3.418542e+00 3.402973e+00 3.529504e+00 2.476274e+00 1.901024e+00 4.411066e+00 2.654610e+00 2.938180e+00 4.015874e-01
<GCONST> 9.284576e+01
<MIXTURE> 3 6.152934e-02
<MEAN> 25
 2.769719e+00 -7.977605e-02 -6.379254e+00 -1.538648e+00 7.207671e-01 3.562726e-01 -6.679724e-01 2.274146e+00 3.717348e+00 9.711125e-01 1.778832e+00 9.204412e-01 -9.066970e-01 2.060943e-01 -7.720929e-02 3.921045e-01 5.617720e-01 5.333636e-01 4.367391e-01 4.624622e-01 5.836327e-01 3.497424e-01 5.418047e-01 2.432205e-01 -8.839315e-01
<VARIANCE> 25
 4.163020e+01 7.332236e+01 6.711956e+01 8.731785e+01 6.499992e+01 4.665544e+01 6.274750e+01 6.635459e+01 3.769731e+01 4.116800e+01 3.983150e+01 3.292923e+01 7.421557e-01 1.490659e+00 1.612536e+00 1.438883e+00 1.487866e+00 1.721396e+00 1.606841e+00 2.286846e+00 2.140726e+00 1.925297e+00 1.949509e+00 1.391964e+00 5.230116e-01
<GCONST> 9.847521e+01
<MIXTURE> 4 1.054912e-01
<MEAN> 25
 5.458902e+00 -9.402819e+00 5.395569e+00 -6.909933e+00 -5.086857e+00 -7.846219e+00 1.831392e+00 3.926627e+00 -3.625878e+00 -5.147747e-01 -3.305900e+00 2.213704e+00 1.403041e-01 -1.071653e+00 4.060572e-01 -1.204759e+00 6.209078e-01 -5.027772e-02 8.505461e-01 8.605784e-01 -7.064139e-01 8.733720e-01 -1.652656e+00 3.016827e-01 7.269729e-01
<VARIANCE> 25
 6.961746e+00 2.141877e+01 2.091606e+01 2.641992e+01 2.844992e+01 3.555128e+01 4.153957e+01 4.759613e+01 3.421099e+01 4.966133e+01 2.093608e+01 3.059618e+01 8.939324e-01 1.960906e+00 2.332179e+00 2.691110e+00 2.283544e+00 3.156556e+00 3.905301e+00 3.888749e+00 3.383542e+00 3.344543e+00 2.799266e+00 2.308603e+00 8.369291e-01
<GCONST> 9.688281e+01
<MIXTURE> 5 8.887641e-02
<MEAN> 25
 7.181299e+00 -3.214395e+00 -3.016750e-01 3.364770e+00 -5.378484e+00 -1.003900e+01 -4.907215e+00 1.616704e+00 9.617859e-02 -4.785038e+00 -3.097020e+00 2.085112e+00 -6.815111e-01 2.384974e+00 -5.980161e-01 1.753521e+00 6.697368e-01 2.793952e-01 6.753045e-01 -5.637367e-01 3.775052e-02 -5.380921e-01 1.733604e-01 -6.215832e-01 -2.033986e+00
<VARIANCE> 25
 6.087091e+00 2.538215e+01 1.794646e+01 2.439454e+01 2.778761e+01 2.805137e+01 3.740385e+01 3.146466e+01 3.475460e+01 2.862868e+01 4.411582e+01 3.875226e+01 5.945711e-01 6.521457e-01 8.954367e-01 1.436773e+00 1.718166e+00 1.712904e+00 2.600437e+00 2.230381e+00 2.448873e+00 2.263375e+00 2.507856e+00 2.257030e+00 3.145869e-01
<GCONST> 8.957621e+01
<MIXTURE> 6 7.330724e-02
<MEAN> 25
 7.231091e+00 -1.339068e+01 -1.532151e+00 -7.798615e+00 3.813739e+00 -5.175406e+00 -7.825676e-02 8.630861e+00 9.613078e-01 1.995147e-01 -1.016808e+01 7.785606e-01 -8.123491e-02 -1.326035e+00 6.131646e-01 -7.173338e-01 1.263288e+00 8.000557e-01 1.043678e+00 1.751392e+00 -4.667936e-01 4.396388e-01 -4.428571e-01 -3.046301e-01 8.312194e-01
<VARIANCE> 25
 4.327324e+00 1.085928e+01 1.090060e+01 1.809076e+01 2.394948e+01 3.685658e+01 2.957427e+01 1.562968e+01 2.020669e+01 4.906322e+01 1.786027e+01 3.052854e+01 2.886180e-01 1.038445e+00 1.774906e+00 1.674769e+00 2.997899e+00 2.084175e+00 1.861822e+00 1.722319e+00 2.160662e+00 2.344815e+00 2.132143e+00 2.640574e+00 4.621091e-01
<GCONST> 8.666132e+01
<MIXTURE> 7 8.807509e-02
<MEAN> 25
 4.265673e+00 -6.600715e+00 8.114188e+00 -6.673921e+00 -8.694514e+00 -6.462257e+00 2.927956e+00 -9.465706e-01 -5.113652e+00 3.183018e+00 -3.596416e+00 1.203750e+00 2.098570e-02 1.838009e+00 -8.696026e-01 2.537981e+00 -2.126100e-01 2.072745e-01 -9.838955e-01 -1.135612e-01 4.729583e-01 -1.050331e+00 6.237239e-01 -5.652462e-01 -1.950500e+00
<VARIANCE> 25
 8.572773e+00 2.858236e+01 1.940840e+01 3.260548e+01 2.661718e+01 3.941882e+01 3.231324e+01 5.215958e+01 2.966217e+01 4.018106e+01 3.086917e+01 2.097770e+01 6.172750e-01 1.121005e+00 8.531132e-01 1.447052e+00 1.663452e+00 2.342086e+00 2.677611e+00 1.945033e+00 1.867165e+00 2.031988e+00 2.017115e+00 1.629961e+00 8.484447e-01
<GCONST> 9.105247e+01
<MIXTURE> 8 6.583789e-02
<MEAN> 25
 7.174717e+00 2.767119e+00 9.332379e-01 5.198830e+00 -4.995008e+00 -5.161574e+00 -1.906078e+00 -2.487136e+00 -4.051545e+00 -5.059220e+00 -3.683851e-01 6.893054e-01 -7.894134e-01 7.910315e-01 2.822290e-01 -7.059824e-02 6.332072e-01 4.238895e-01 -1.477896e-01 2.163250e-01 4.116014e-01 2.255986e-02 5.958234e-01 1.288715e-01 -8.055459e-01
<VARIANCE> 25
 8.031153e+00 5.026032e+01 2.724016e+01 4.030497e+01 4.603308e+01 4.262271e+01 3.968689e+01 5.401878e+01 3.845975e+01 2.905408e+01 3.735001e+01 4.426144e+01 8.420925e-01 1.148490e+00 1.799277e+00 1.769839e+00 2.501113e+00 2.139263e+00 2.749134e+00 2.732966e+00 2.552283e+00 2.843970e+00 3.204789e+00 2.190207e+00 4.793060e-01
<GCONST> 9.664410e+01
<MIXTURE> 9 9.423385e-02
<MEAN> 25
 6.126185e+00 -1.343091e+01 -3.222925e+00 -9.495009e+00 6.935217e+00 -5.717943e+00 8.051933e-01 7.099062e+00 2.546353e-02 -7.714897e-01 -1.120059e+01 1.502232e+00 1.314597e+00 -1.707141e+00 4.728940e-01 -1.504941e+00 5.256127e-01 -3.885657e-01 1.523198e-01 7.631117e-01 -1.119614e+00 1.790107e-01 -1.777710e+00 -8.276243e-01 1.996317e+00
<VARIANCE> 25
 8.814251e+00 1.450405e+01 2.051663e+01 3.589960e+01 4.211997e+01 3.849194e+01 3.019012e+01 2.949178e+01 3.534546e+01 5.007167e+01 2.112479e+01 2.805113e+01 1.237286e+00 2.107945e+00 2.549554e+00 2.602476e+00 4.810500e+00 3.952205e+00 2.738695e+00 2.781808e+00 3.054744e+00 3.647651e+00 3.697300e+00 2.342320e+00 2.459055e+00
<GCONST> 9.874137e+01
<MIXTURE> 10 6.666794e-02
<MEAN> 25
 1.866529e+00 -1.052834e+00 2.625426e-01 1.039942e+00 -1.336316e-01 -4.642976e+00 -3.526303e+00 -1.517305e+00 -7.786912e-01 -3.553349e+00 9.534471e-01 -7.069702e-01 3.195745e-01 -4.308053e-01 6.318474e-01 1.779160e-01 1.695824e-01 -3.404079e-01 -5.163837e-01 -1.877927e-01 -1.932565e-01 -1.083917e-01 4.054417e-02 -5.484069e-01 5.535330e-01
<VARIANCE> 25
 3.195747e+01 5.617237e+01 6.383879e+01 7.682151e+01 6.849187e+01 5.978160e+01 8.778732e+01 5.483302e+01 3.807665e+01 4.924056e+01 3.335870e+01 3.292608e+01 7.152668e+00 7.776062e+00 5.496012e+00 8.906914e+00 9.199436e+00 5.181496e+00 8.155426e+00 5.234878e+00 3.688796e+00 5.665244e+00 5.803453e+00 3.299292e+00 2.661925e+00
<GCONST> 1.157706e+02
<MIXTURE> 11 5.880771e-02
<MEAN> 25
 7.566107e+00 -1.374588e+01 -2.524112e+00 -6.033869e+00 7.007760e+00 -2.659962e+00 -2.868982e+00 7.232282e+00 -2.704667e+00 -3.305633e+00 -1.093503e+01 -3.257403e+00 -8.485132e-01 -1.454924e+00 1.760956e+00 -3.451032e-01 4.678237e-01 -8.467389e-01 1.863937e+00 2.044187e+00 -1.361022e+00 -1.850934e+00 -7.849408e-01 1.833014e+00 9.095224e-01
<VARIANCE> 25
 5.988950e+00 9.539037e+00 1.425733e+01 2.573744e+01 3.038055e+01 2.721536e+01 2.515007e+01 2.403127e+01 3.475421e+01 5.634809e+01 2.413198e+01 2.270769e+01 2.822336e-01 8.649250e-01 2.205991e+00 1.909472e+00 3.649098e+00 3.234720e+00 3.267982e+00 3.049137e+00 2.833178e+00 3.021483e+00 2.377949e+00 2.676758e+00 2.984327e-01
<GCONST> 9.048946e+01
<MIXTURE> 12 5.860991e-02
<MEAN> 25
 7.204317e+00 -1.484247e+00 -4.336528e-01 6.472767e+00 -2.173986e+00 -6.120410e+00 -5.087432e+00 -3.071440e+00 -3.737908e+00 -5.654095e+00 -2.844497e+00 -2.668818e+00 -5.600107e-01 7.347905e-01 -1.948097e-01 7.196076e-02 8.288668e-01 7.858168e-02 -4.647462e-01 -2.057766e-02 1.686382e-01 -2.564666e-02 2.545962e-01 -2.681773e-01 -7.330955e-01
<VARIANCE> 25
 8.998120e+00 6.250978e+01 3.404689e+01 5.395749e+01 4.758589e+01 5.550416e+01 4.448271e+01 5.308948e+01 5.273929e+01 3.657671e+01 2.949851e+01 5.201470e+01 8.834098e-01 1.167612e+00 1.884351e+00 1.708112e+00 2.752295e+00 2.091390e+00 1.987002e+00 2.685232e+00 1.836691e+00 2.525225e+00 2.913456e+00 1.751850e+00 4.782103e-01
<GCONST> 9.739315e+01
<MIXTURE> 13 6.581222e-02
<MEAN> 25
 2.990841e+00 -1.571085e+00 -3.344239e+00 -5.276933e+00 3.006156e+00 -8.666608e-01 -3.749946e+00 3.501254e-01 2.963385e+00 2.415051e+00 -3.408879e+00 1.205361e+00 -6.280326e-01 8.538733e-01 -3.381906e-01 6.963149e-01 2.078651e-01 9.812625e-02 -1.256545e-01 2.308239e-02 1.720868e-01 -3.639528e-01 1.505889e-01 -3.835620e-01 -1.213990e+00
<VARIANCE> 25
 3.181507e+01 6.715717e+01 1.005046e+02 1.115737e+02 7.585460e+01 5.749177e+01 6.429380e+01 7.730908e+01 3.981306e+01 5.535648e+01 5.907858e+01 4.575303e+01 7.043645e-01 1.616621e+00 1.401995e+00 2.006262e+00 1.871621e+00 1.830402e+00 1.323489e+00 1.892190e+00 1.933601e+00 2.106425e+00 2.114684e+00 1.654492e+00 8.617708e-01
<GCONST> 1.012521e+02
<STATE> 3
<NUMMIXES> 13
<MIXTURE> 1 5.406852e-02
<MEAN> 25
 -6.887931e+00 4.641574e-01 -3.483701e+00 5.752933e+00 2.748260e+00 -6.039450e-01 1.929927e+00 2.194239e+00 4.346688e+00 1.711315e-01 6.422173e+00 1.201882e+00 -4.013706e-01 9.173696e-01 1.080465e-01 5.360655e-01 4.002689e-01 7.311270e-01 8.708549e-02 4.921882e-01 1.965083e-01 1.467163e-02 -2.807150e-01 -6.990974e-02 -1.171113e+00
<VARIANCE> 25
 2.209870e+01 3.402177e+01 5.124419e+01 3.504298e+01 3.943800e+01 5.024233e+01 4.142866e+01 3.646596e+01 3.387578e+01 3.199071e+01 2.727044e+01 2.299062e+01 2.171770e+00 3.260216e+00 3.476585e+00 2.487554e+00 3.369110e+00 3.435210e+00 2.463601e+00 2.911166e+00 2.344338e+00 2.480696e+00 2.620075e+00 1.976520e+00 1.493595e+00
<GCONST> 1.007435e+02
<MIXTURE> 2 1.026508e-01
<MEAN> 25
 8.576695e+00 -1.116620e+01 -3.366454e+00 -3.376142e+00 2.908139e+00 -6.714386e+00 2.372821e+00 8.899884e+00 9.807436e-01 -2.005239e+00 -1.017116e+01 1.007951e+00 -4.774695e-01 -1.664674e-01 1.576511e+00 3.106689e-01 -1.243789e+00 -8.285161e-01 1.564473e+00 3.942697e-01 -1.285653e+00 -8.164955e-01 1.037950e+00 1.168275e+00 1.560748e-01
<VARIANCE> 25
 4.452451e+00 1.975581e+01 1.702142e+01 2.561676e+01 2.900963e+01 2.781296e+01 2.658801e+01 2.197257e+01 2.871880e+01 3.833202e+01 2.218282e+01 2.354588e+01 2.091815e-01 7.276828e-01 1.212779e+00 1.292158e+00 1.658510e+00 2.042586e+00 2.741668e+00 2.164609e+00 2.258671e+00 2.492119e+00 1.816774e+00 2.268220e+00 1.845089e-01
<GCONST> 8.584869e+01
<MIXTURE> 3 9.026611e-02
<MEAN> 25
 6.210897e+00 -1.197180e-01 -7.500816e+00 4.263703e-01 4.388486e+00 -3.941209e+00 -6.904485e+00 1.275094e+00 3.956374e+00 1.681732e+00 -4.314970e+00 -2.893090e+00 -1.192092e+00 1.807743e+00 -2.337407e-01 1.558912e+00 -3.957293e-01 4.666359e-01 4.830710e-01 2.851918e-01 5.136526e-01 -9.860265e-01 1.007471e+00 -3.077225e-01 -2.300153e+00
<VARIANCE> 25
 1.482721e+01 2.671005e+01 1.829141e+01 4.784018e+01 3.095056e+01 4.137495e+01 3.163488e+01 5.712672e+01 4.210778e+01 5.305755e+01 4.051515e+01 3.156674e+01 5.322325e-01 1.122083e+00 1.620219e+00 1.926620e+00 2.286671e+00 1.743038e+00 2.479861e+00 2.981218e+00 2.751259e+00 2.678945e+00 2.568138e+00 1.726239e+00 5.120282e-01
<GCONST> 9.504606e+01
<MIXTURE> 4 6.481130e-02
<MEAN> 25
 8.835442e+00 -1.048426e+01 -6.126044e+00 -4.712982e+00 6.825400e+00 -1.446937e+00 5.355695e-01 6.109962e+00 5.111555e-01 -2.952435e+00 -9.484504e+00 -5.382645e-02 3.075248e-01 5.361475e-01 -2.627175e-01 4.179343e-01 7.934949e-01 3.993396e-01 -4.086715e-01 6.929853e-02 -6.147702e-02 8.624376e-01 2.166254e-01 -4.643944e-01 -3.706288e-01
<VARIANCE> 25
 4.670566e+00 2.025193e+01 1.674735e+01 3.639854e+01 4.130385e+01 3.495789e+01 2.949694e+01 2.532352e+01 4.047800e+01 6.105325e+01 2.810821e+01 3.181415e+01 2.256296e-01 5.948767e-01 9.851425e-01 1.164835e+00 2.260388e+00 2.089366e+00 1.957911e+00 1.888840e+00 2.228174e+00 2.667317e+00 1.766867e+00 1.968570e+00 2.038331e-01
<GCONST> 8.783673e+01
<MIXTURE> 5 8.741157e-02
<MEAN> 25
 6.296423e+00 -1.468586e+00 -1.725545e-01 2.110420e+00 -2.515914e+00 -1.109461e+01 -1.657689e-02 4.050630e+00 7.478940e-01 -1.140012e+00 -5.659765e+00 3.327645e+00 -1.065084e+00 2.324264e+00 -5.740469e-01 2.494397e+00 -7.638924e-01 1.035376e+00 2.908305e-02 6.387290e-01 9.120710e-01 -9.387767e-01 1.489585e+00 -9.477608e-01 -3.014729e+00
<VARIANCE> 25
 7.109271e+00 1.771884e+01 1.838696e+01 2.530701e+01 2.362428e+01 2.247263e+01 3.065842e+01 2.756695e+01 2.673911e+01 2.665823e+01 3.383708e+01 2.379370e+01 3.050925e-01 8.054921e-01 7.222049e-01 1.077832e+00 1.405544e+00 1.365669e+00 1.992643e+00 2.215069e+00 1.693237e+00 2.194367e+00 1.750574e+00 1.721313e+00 1.550242e-01
<GCONST> 8.423425e+01
<MIXTURE> 6 8.746557e-02
<MEAN> 25
 6.259231e+00 -1.209255e+01 2.210294e+00 -8.947310e+00 9.597083e-01 -8.012494e+00 3.176353e+00 7.983128e+00 -1.098642e+00 1.922156e+00 -8.599150e+00 2.464664e+00 -2.973890e-02 -2.063603e-01 1.607762e-01 -1.159667e-01 2.678765e-01 1.884768e-01 7.822629e-01 3.297426e-01 -1.806643e-01 1.844274e-01 -2.584205e-01 -1.058590e-01 1.823276e-01
<VARIANCE> 25
 3.968749e+00 1.382459e+01 1.845866e+01 1.567550e+01 4.771390e+01 2.389479e+01 3.183772e+01 2.773156e+01 2.188481e+01 2.767917e+01 2.659727e+01 2.189060e+01 2.380577e-01 7.568563e-01 8.991700e-01 8.111016e-01 1.483904e+00 1.545043e+00 1.871544e+00 1.684607e+00 1.472037e+00 1.681980e+00 1.498303e+00 1.261108e+00 2.338257e-01
<GCONST> 8.225323e+01
<MIXTURE> 7 8.633611e-02
<MEAN> 25
 3.402637e+00 5.168380e+00 9.183138e-01 6.966286e+00 -1.941608e+00 -3.590934e+00 -2.940232e+00 -2.342293e+00 -2.978010e+00 -5.437124e+00 1.048104e+00 -1.021248e+00 -1.439608e+00 2.602422e-01 9.494968e-02 2.697192e-01 8.685686e-01 7.326205e-01 2.577728e-01 4.696964e-01 4.939378e-01 3.136172e-01 8.376774e-01 -2.142036e-02 -1.164263e+00
<VARIANCE> 25
 1.674002e+01 4.574556e+01 3.643126e+01 2.941904e+01 4.258472e+01 4.141222e+01 4.598533e+01 3.718383e+01 3.474170e+01 2.698009e+01 2.644017e+01 2.729191e+01 9.614608e-01 2.118744e+00 2.334854e+00 1.981546e+00 2.849422e+00 3.218977e+00 2.969981e+00 2.850834e+00 2.224473e+00 2.705787e+00 1.967053e+00 2.197475e+00 7.013919e-01
<GCONST> 9.740845e+01
<MIXTURE> 8 8.504578e-02
<MEAN> 25
 3.071652e+00 -7.909188e-01 5.746654e+00 2.395039e+00 -8.179741e+00 -7.191144e+00 -1.183289e-01 -6.151952e-01 -4.415650e+00 -2.529289e+00 -1.287611e+00 -1.108393e+00 -7.805630e-01 1.657755e+00 -1.160350e+00 2.067619e+00 -3.915301e-02 9.477066e-01 5.407438e-01 1.577459e-01 6.264419e-01 -8.440222e-01 4.775989e-01 -6.709543e-01 -2.311566e+00
<VARIANCE> 25
 1.115070e+01 2.341194e+01 2.500043e+01 3.480607e+01 3.730429e+01 3.472453e+01 4.393997e+01 4.096582e+01 2.461877e+01 4.383938e+01 3.680501e+01 2.526634e+01 6.947015e-01 1.050952e+00 1.101671e+00 1.231112e+00 2.165877e+00 2.200578e+00 2.497311e+00 2.393178e+00 2.189125e+00 2.676066e+00 1.957168e+00 2.095921e+00 3.909163e-01
<GCONST> 9.234125e+01
<MIXTURE> 9 8.133917e-02
<MEAN> 25
 7.454130e+00 -1.017765e+01 -1.377013e+00 -6.139843e+00 2.205798e+00 -8.838273e+00 4.613731e-01 6.103065e+00 -6.571192e-01 8.980225e-01 -9.347430e+00 1.991844e+00 1.777096e-01 2.251885e+00 -2.170778e-01 1.827269e+00 -7.139562e-01 -7.367920e-01 -1.030815e+00 -1.128025e+00 2.287364e-01 -9.752890e-02 3.339335e-01 -1.542372e-01 -1.665970e+00
<VARIANCE> 25
 5.616390e+00 1.332280e+01 2.319190e+01 2.501159e+01 3.483036e+01 2.986893e+01 4.210056e+01 2.849811e+01 3.272526e+01 3.990107e+01 2.152854e+01 2.918883e+01 3.066401e-01 8.335927e-01 1.117143e+00 1.133934e+00 1.994424e+00 1.848857e+00 2.184011e+00 1.820949e+00 1.967224e+00 2.027568e+00 1.772885e+00 1.600482e+00 5.095250e-01
<GCONST> 8.759007e+01
<MIXTURE> 10 6.200432e-02
<MEAN> 25
 4.522533e+00 -1.435464e+01 3.088224e+00 -7.431445e+00 3.150357e+00 -5.996755e+00 1.477708e+00 5.764346e+00 -8.576357e+00 -7.796534e+00 -8.686329e+00 2.102658e+00 1.401492e-02 -2.161768e-01 1.920500e-01 1.726013e-01 6.468729e-01 3.682799e-01 1.439566e-01 1.224408e-01 -8.124078e-01 -4.345831e-01 -2.036041e-01 1.976911e-01 -6.920706e-02
<VARIANCE> 25
 5.226598e+00 1.653579e+01 1.744536e+01 1.586955e+01 4.936926e+01 2.273004e+01 3.192536e+01 2.115993e+01 2.388884e+01 3.283997e+01 2.655649e+01 3.142011e+01 2.616459e-01 6.515378e-01 1.181948e+00 1.040311e+00 2.162989e+00 1.596163e+00 2.453055e+00 1.750062e+00 2.776006e+00 2.204924e+00 2.220899e+00 1.412438e+00 1.492929e-01
<GCONST> 8.514665e+01
<MIXTURE> 11 7.390150e-02
<MEAN> 25
 5.793945e+00 -8.766044e-01 3.787339e+00 -6.860577e-01 -4.995802e+00 -4.726818e+00 -1.110479e+00 -3.829232e+00 -3.065677e+00 -2.901816e+00 -3.022894e+00 -2.041799e-02 -6.673914e-02 1.039726e+00 3.588167e-01 -2.164618e-01 3.078143e-01 6.588553e-01 1.928873e-01 -6.773809e-01 -1.997061e-01 -1.097553e-01 -3.467301e-01 -4.104358e-01 -3.524843e-01
<VARIANCE> 25
 1.170693e+01 4.417067e+01 4.448908e+01 6.612612e+01 4.242067e+01 5.170327e+01 5.958234e+01 4.950126e+01 4.187246e+01 5.808685e+01 3.346962e+01 4.327514e+01 2.964707e+00 2.526895e+00 2.789170e+00 4.486010e+00 3.888020e+00 3.413454e+00 4.774179e+00 4.329622e+00 3.122338e+00 4.281615e+00 3.917748e+00 3.546227e+00 8.188604e-01
<GCONST> 1.061185e+02
<MIXTURE> 12 5.584187e-02
<MEAN> 25
 -7.953516e+00 -1.111039e+00 -3.973543e-01 3.704384e+00 1.788616e+00 -2.679085e+00 3.259015e+00 1.354052e+00 3.057498e+00 -5.666701e-01 5.573811e+00 9.576402e-01 4.170198e-01 1.310890e+00 3.458594e-01 3.186308e-01 8.684870e-02 6.920565e-01 -4.957982e-01 -2.724702e-01 -2.952167e-01 -5.357671e-01 -9.139634e-01 -5.788931e-01 -9.119111e-01
<VARIANCE> 25
 3.186083e+01 3.606852e+01 7.149061e+01 5.918680e+01 5.939451e+01 5.126907e+01 5.507097e+01 5.392685e+01 3.526190e+01 4.320229e+01 3.352119e+01 3.222588e+01 4.264576e+00 3.276686e+00 3.661761e+00 2.362634e+00 3.880485e+00 3.792595e+00 3.842408e+00 3.442186e+00 2.841225e+00 2.530671e+00 3.316316e+00 2.214790e+00 1.592748e+00
<GCONST> 1.061735e+02
<MIXTURE> 13 6.885729e-02
<MEAN> 25
 7.649779e+00 -1.338782e+01 -4.872577e+00 -6.773593e+00 8.984678e+00 -1.697969e-01 -1.181807e+00 5.685304e+00 -2.099320e+00 -2.080841e+00 -1.099990e+01 -3.294985e+00 1.993836e-01 3.793969e-01 -4.034848e-01 1.027256e-01 4.952530e-01 1.906072e-01 -8.455884e-01 -7.402668e-01 -5.204741e-01 7.819360e-01 6.817970e-02 -8.105196e-01 -4.036767e-01
<VARIANCE> 25
 5.850244e+00 1.424630e+01 1.648159e+01 3.012216e+01 3.234526e+01 3.154542e+01 2.328701e+01 2.492375e+01 3.126099e+01 6.165044e+01 1.926177e+01 3.320546e+01 2.959814e-01 7.425305e-01 1.421541e+00 1.254509e+00 2.092004e+00 2.143882e+00 1.559118e+00 1.748037e+00 2.102512e+00 2.628753e+00 2.353364e+00 2.263959e+00 1.829956e-01
<GCONST> 8.714470e+01
<STATE> 4
<NUMMIXES> 13
<MIXTURE> 1 2.459085e-02
<MEAN> 25
 -1.311369e+01 -1.892672e-01 -7.739655e-01 -4.391810e+00 -2.610491e-01 6.052080e+00 1.655945e+00 2.396214e+00 3.142274e+00 3.422089e-01 3.713002e+00 7.577599e+00 -1.150937e-03 -1.496809e-02 3.395054e-04 8.315476e-02 6.057542e-02 2.052623e-02 -6.202765e-02 -2.763513e-02 -9.289075e-02 -1.959633e-02 1.328197e-02 5.697791e-02 -3.240008e-02
<VARIANCE> 25
 9.901989e-01 9.424220e-01 1.850614e+00 3.447277e+00 4.880015e+00 4.882296e+00 6.371212e+00 7.684203e+00 7.973648e+00 1.069581e+01 6.924264e+00 7.596097e+00 8.898822e-02 9.163085e-02 2.328292e-01 3.490413e-01 6.436335e-01 6.202775e-01 8.101045e-01 9.187329e-01 1.023667e+00 9.883677e-01 8.521543e-01 8.450885e-01 2.723199e-02
<GCONST> 5.074846e+01
<MIXTURE> 2 7.952928e-02
<MEAN> 25
 -4.541549e+00 9.848562e-02 4.330707e-01 3.657935e+00 1.745167e+00 -5.593042e-01 2.538912e+00 -2.928412e-01 1.243732e+00 -1.118146e+00 3.656941e+00 2.124557e-01 1.193571e+00 5.542184e-01 2.346160e-01 -7.894884e-01 -4.556203e-01 3.897544e-01 -6.417640e-01 -9.801467e-01 -4.074339e-01 -3.215772e-01 -8.343231e-01 -5.093714e-03 7.688120e-01
<VARIANCE> 25
 5.363467e+01 3.698285e+01 7.784578e+01 5.361003e+01 5.982335e+01 4.861843e+01 5.694391e+01 5.505443e+01 4.183435e+01 4.453008e+01 4.007432e+01 2.772702e+01 9.672356e+00 7.119592e+00 7.293565e+00 4.701586e+00 6.871251e+00 6.307382e+00 6.725386e+00 6.030304e+00 5.456273e+00 5.396410e+00 6.183337e+00 3.807860e+00 1.802102e+00
<GCONST> 1.148140e+02
<MIXTURE> 3 9.619681e-02
<MEAN> 25
 -4.894588e+00 2.176590e+00 -5.044470e+00 5.148417e+00 4.007051e-01 -2.309664e+00 -1.032197e+00 4.596761e+00 5.672548e+00 -1.134036e+00 4.697141e+00 7.752469e-01 -7.470389e-01 5.936261e-01 3.393868e-02 3.271554e-01 1.004689e+00 1.408560e+00 2.464233e-01 -2.959559e-01 -3.387801e-01 -1.939141e-01 -1.343586e-01 -3.662848e-01 -9.726442e-01
<VARIANCE> 25
 1.795795e+01 1.626182e+01 3.101001e+01 2.731591e+01 3.579477e+01 3.394958e+01 3.502360e+01 2.875667e+01 2.561377e+01 3.405913e+01 2.395280e+01 2.047206e+01 6.406532e-01 1.106545e+00 1.776984e+00 1.384711e+00 2.402119e+00 2.516437e+00 2.508961e+00 2.197116e+00 2.171430e+00 2.358560e+00 1.834866e+00 1.669783e+00 2.857259e-01
<GCONST> 9.091249e+01
<MIXTURE> 4 6.617496e-02
<MEAN> 25
 9.175737e+00 -6.975649e+00 -3.161859e+00 1.273476e+00 -2.049784e+00 -4.405635e+00 2.348189e+00 4.911141e+00 -9.990859e-01 -4.744559e+00 -4.757260e+00 3.593422e-01 -9.668885e-02 1.137970e+00 8.398570e-01 8.231726e-01 -1.103821e+00 -1.157728e-02 4.391301e-01 -9.439476e-01 -6.007156e-01 2.472458e-01 1.209949e+00 9.006273e-02 -6.748596e-01
<VARIANCE> 25
 3.419747e+00 2.698330e+01 2.941476e+01 2.788622e+01 3.536143e+01 2.643688e+01 4.099662e+01 3.662883e+01 3.175177e+01 3.555761e+01 3.075957e+01 3.324989e+01 2.843439e-01 7.596307e-01 1.537042e+00 1.358922e+00 2.109608e+00 1.683901e+00 2.996904e+00 3.008157e+00 2.712556e+00 2.412433e+00 2.424858e+00 1.991583e+00 2.384803e-01
<GCONST> 8.998575e+01
<MIXTURE> 5 6.729428e-02
<MEAN> 25
 -5.878726e+00 6.171808e+00 -1.757020e+00 6.940554e+00 3.386488e+00 2.132153e+00 -3.247071e-01 2.531062e+00 3.102499e+00 -1.376143e+00 4.833617e+00 -1.752465e-01 -1.123473e+00 -6.218700e-01 -5.285147e-01 -5.277037e-01 -2.073364e-01 2.639261e-01 3.486985e-01 3.015021e-01 4.197854e-01 8.436792e-01 7.846835e-01 4.208536e-01 -7.555953e-01
<VARIANCE> 25
 4.343606e+00 7.506086e+00 1.848645e+01 1.524823e+01 1.703383e+01 1.382808e+01 1.596422e+01 1.703715e+01 1.514327e+01 1.713112e+01 1.640116e+01 1.400659e+01 3.954810e-01 1.089238e+00 1.541469e+00 9.877323e-01 1.597514e+00 1.701338e+00 1.688464e+00 2.174225e+00 1.757144e+00 1.757881e+00 1.560894e+00 1.352031e+00 8.658857e-02
<GCONST> 7.844249e+01
<MIXTURE> 6 1.062208e-01
<MEAN> 25
 5.786510e-01 1.365649e+00 -5.874676e+00 6.904558e+00 -2.653158e+00 -6.731839e+00 -5.657212e-01 5.928763e+00 2.528798e+00 -5.954464e+00 6.207827e-01 -2.328385e-01 -1.374549e+00 5.269467e-01 -5.459087e-01 -2.443615e-01 6.113212e-01 7.766628e-01 2.402955e-01 8.835818e-01 8.352429e-01 2.941788e-01 1.029504e+00 2.484096e-01 -1.414515e+00
<VARIANCE> 25
 7.042261e+00 1.272615e+01 2.171487e+01 1.970152e+01 3.439862e+01 2.670835e+01 2.914022e+01 2.260399e+01 2.819861e+01 2.228218e+01 1.993774e+01 1.959010e+01 2.635667e-01 4.537073e-01 1.119376e+00 9.289485e-01 1.393103e+00 1.387296e+00 1.741250e+00 1.914295e+00 1.523945e+00 1.687723e+00 1.720057e+00 1.613976e+00 1.944867e-01
<GCONST> 8.233167e+01
<MIXTURE> 7 5.966369e-02
<MEAN> 25
 8.180441e+00 -9.790550e+00 -3.985603e+00 -5.944853e+00 7.043133e+00 -3.051243e+00 -1.990401e+00 6.022569e+00 -7.279697e-01 -3.832609e-01 -8.124923e+00 -1.206211e+00 3.671325e-01 1.661948e+00 -2.137312e-02 1.388262e+00 -7.279580e-01 -2.616909e-02 -9.352081e-01 -1.158465e+00 1.164282e-01 8.531886e-01 1.137952e+00 -4.871438e-01 -1.155477e+00
<VARIANCE> 25
 6.161877e+00 2.322324e+01 2.629924e+01 2.793681e+01 4.823920e+01 4.686055e+01 3.295464e+01 2.612390e+01 3.956341e+01 4.724227e+01 2.497916e+01 4.163834e+01 4.242586e-01 8.455764e-01 1.242072e+00 1.808181e+00 2.922826e+00 2.325187e+00 2.294981e+00 2.943859e+00 2.112008e+00 4.027147e+00 2.415571e+00 1.920179e+00 3.892894e-01
<GCONST> 9.281389e+01
<MIXTURE> 8 5.798478e-02
<MEAN> 25
 2.794753e+00 -1.844061e-01 -2.347130e+00 4.827592e+00 -5.657315e+00 -7.503840e+00 2.106335e+00 6.518055e+00 2.308333e+00 -3.248601e+00 -2.581506e+00 -4.661747e-01 -1.106734e+00 7.550688e-01 -1.476405e+00 9.938971e-01 -3.391194e-01 1.036273e+00 6.912793e-01 1.238805e+00 1.252207e+00 -4.990782e-01 1.452312e+00 -2.771467e-01 -2.079440e+00
<VARIANCE> 25
 8.232074e+00 1.417560e+01 2.273781e+01 2.259879e+01 2.607171e+01 1.902003e+01 2.707630e+01 2.445236e+01 3.049399e+01 3.110840e+01 2.958981e+01 2.644594e+01 3.629431e-01 5.649707e-01 9.402510e-01 1.102704e+00 1.460227e+00 1.667006e+00 2.133929e+00 1.942642e+00 2.028407e+00 2.108019e+00 1.997269e+00 2.092498e+00 2.407466e-01
<GCONST> 8.539009e+01
<MIXTURE> 9 8.938157e-02
<MEAN> 25
 2.685544e-01 8.387115e+00 -1.363733e+00 6.735303e+00 1.454075e+00 -1.636622e+00 -4.341861e+00 -1.429723e+00 4.709385e-01 -3.325113e+00 2.902499e+00 -8.868809e-01 -1.894545e+00 -3.689389e-01 -5.465284e-02 2.433576e-01 6.105868e-01 9.506179e-01 7.993985e-01 5.154191e-01 5.284809e-01 4.581973e-01 6.659189e-01 4.143970e-03 -1.309595e+00
<VARIANCE> 25
 1.077726e+01 1.721173e+01 2.861368e+01 2.516442e+01 3.296085e+01 3.609303e+01 2.592505e+01 3.072055e+01 2.904396e+01 2.568227e+01 2.817052e+01 2.668897e+01 3.828918e-01 9.670740e-01 1.527756e+00 1.380873e+00 1.483481e+00 1.867280e+00 1.735875e+00 2.424180e+00 2.167479e+00 1.834319e+00 1.566944e+00 1.896806e+00 2.354755e-01
<GCONST> 8.798029e+01
<MIXTURE> 10 1.306095e-01
<MEAN> 25
 4.870461e+00 1.108109e+00 4.255514e+00 9.954110e-01 -5.311104e+00 -3.550255e+00 -7.330384e-01 -4.049474e+00 -3.889365e+00 -2.775429e+00 -2.387681e+00 -1.197067e+00 -4.135553e-01 1.117447e+00 -9.733418e-02 5.409427e-01 2.918892e-01 9.901630e-01 2.728154e-01 -5.896326e-01 2.270596e-01 -3.715967e-01 1.282649e-02 -4.301891e-01 -8.685356e-01
<VARIANCE> 25
 1.496168e+01 4.380118e+01 4.280542e+01 5.466359e+01 4.142781e+01 4.407998e+01 4.979723e+01 4.310930e+01 2.978298e+01 4.554076e+01 3.545134e+01 3.009975e+01 1.787943e+00 2.459842e+00 2.377102e+00 3.543622e+00 2.739980e+00 3.161536e+00 3.391309e+00 4.144177e+00 3.248536e+00 3.091863e+00 3.292119e+00 2.868877e+00 9.771895e-01
<GCONST> 1.025003e+02
<MIXTURE> 11 1.185551e-01
<MEAN> 25
 5.989141e+00 -1.311808e+01 2.513946e+00 -6.568380e+00 1.173955e+00 -7.228537e+00 4.099989e+00 7.964887e+00 -4.833962e+00 -2.684041e+00 -7.675040e+00 1.691744e+00 -1.475684e-01 3.174937e-01 9.102180e-01 1.862072e-01 -1.088173e+00 -2.652025e-01 3.189922e-01 -2.916687e-01 -6.357657e-01 -1.169513e-01 8.739277e-01 1.338084e-01 -1.907468e-01
<VARIANCE> 25
 4.353445e+00 1.426576e+01 1.934958e+01 2.157524e+01 3.494347e+01 2.770040e+01 3.165387e+01 2.424787e+01 3.257453e+01 5.147258e+01 2.434999e+01 2.192079e+01 1.944574e-01 6.195269e-01 8.575198e-01 1.004386e+00 1.964915e+00 1.430178e+00 2.120350e+00 1.797776e+00 2.001445e+00 1.739944e+00 1.724811e+00 1.527197e+00 1.680994e-01
<GCONST> 8.387164e+01
<MIXTURE> 12 5.370242e-02
<MEAN> 25
 6.964879e+00 -1.108013e+01 -3.459919e+00 -7.343760e+00 7.922762e+00 -2.797063e+00 -2.570112e+00 3.793196e+00 -2.181796e+00 -2.393669e-01 -1.032509e+01 -1.515383e+00 5.563912e-02 1.413537e+00 -2.028567e-01 1.041670e+00 -3.769719e-01 -2.175961e-01 -8.407416e-01 -1.529152e+00 -5.092816e-01 1.058902e-02 3.441637e-01 -4.964300e-01 -1.192940e+00
<VARIANCE> 25
 7.506170e+00 2.259814e+01 2.713694e+01 3.114995e+01 4.993119e+01 4.659289e+01 3.393040e+01 3.048046e+01 3.917068e+01 4.782233e+01 2.592798e+01 4.083563e+01 4.682481e-01 8.988493e-01 1.116276e+00 1.447488e+00 2.148900e+00 2.193747e+00 1.672204e+00 1.757327e+00 1.928012e+00 3.324341e+00 2.477200e+00 2.114375e+00 3.975724e-01
<GCONST> 9.184822e+01
<MIXTURE> 13 5.010020e-02
<MEAN> 25
 2.757877e+00 -1.360207e+00 -3.651670e+00 4.912752e+00 -4.915830e+00 -7.112443e+00 1.125257e+00 5.753678e+00 1.395344e+00 -4.383988e+00 -3.463641e+00 -4.428143e-01 -1.157868e+00 5.221877e-01 -1.499569e+00 7.473990e-01 -4.842918e-01 7.907851e-01 1.530012e-01 6.752632e-01 6.658236e-01 -1.130667e+00 7.599301e-01 -7.613804e-01 -1.995134e+00
<VARIANCE> 25
 5.454842e+00 9.184575e+00 2.432639e+01 2.715531e+01 3.404478e+01 2.104848e+01 3.777790e+01 2.170772e+01 3.933812e+01 3.345491e+01 3.265757e+01 2.609349e+01 2.728496e-01 4.210844e-01 7.283741e-01 1.136977e+00 1.431019e+00 1.715280e+00 1.665494e+00 2.025015e+00 2.038508e+00 1.903856e+00 2.212518e+00 1.940353e+00 2.196026e-01
<GCONST> 8.462664e+01
<TRANSP> 5
 0.000000e+00 1.000000e+00 0.000000e+00 0.000000e+00 0.000000e+00
 0.000000e+00 2.327160e-01 7.672840e-01 0.000000e+00 0.000000e+00
 0.000000e+00 0.000000e+00 3.899193e-01 6.100807e-01 0.000000e+00
 0.000000e+00 0.000000e+00 0.000000e+00 4.015954e-01 5.984046e-01
 0.000000e+00 0.000000e+00 0.000000e+00 0.000000e+00 0.000000e+00
<ENDHMM>
~h "b"
<BEGINHMM>
<NUMSTATES> 5
<STATE> 2
<NUMMIXES> 13
<MIXTURE> 1 8.081038e-02
<MEAN> 25
 8.148109e+00 1.327922e+01 -7.326643e-01 5.379856e+00 7.746431e-01 1.490360e+00 -5.206348e+00 -5.675264e+00 -1.766292e-03 -2.380893e+00 -2.005330e-01 -2.846707e+00 -5.452459e-01 9.854518e-01 1.131478e+00 7.825583e-01 2.482480e-01 -1.567899e-02 4.210592e-02 -3.670835e-01 -3.507875e-01 3.927095e-01 4.598174e-01 4.035597e-01 -6.215445e-01
<VARIANCE> 25
 3.109142e+00 1.598900e+01 1.232101e+01 7.124628e+00 3.568665e+01 2.714915e+01 1.104358e+01 2.377643e+01 1.296535e+01 2.511543e+01 1.261202e+01 9.271068e+00 1.109913e-01 2.382030e-01 4.593076e-01 6.885060e-01 1.097630e+00 1.213833e+00 1.163946e+00 1.378760e+00 7.737847e-01 9.346954e-01 8.884813e-01 9.883764e-01 6.169401e-02
<GCONST> 7.005826e+01
<MIXTURE> 2 6.810217e-02
<MEAN> 25
 1.213564e+01 -4.703330e+00 -8.317940e+00 -2.312414e+00 1.561694e+00 1.586574e-01 -6.021569e+00 1.095893e+00 1.277263e+00 4.672864e+00 -1.482270e+00 -7.791486e+00 -3.436187e-01 3.629941e+00 4.872163e-01 2.452963e+00 -1.666615e-01 -3.694653e-01 -2.410701e-01 -8.539852e-01 -5.728979e-02 -1.176232e+00 8.804737e-01 3.370182e-02 -2.476062e+00
<VARIANCE> 25
 2.798693e+00 2.862690e+01 1.498499e+01 1.784963e+01 1.872345e+01 2.618961e+01 1.104177e+01 3.088667e+01 3.450376e+01 1.020407e+01 1.978640e+01 3.325914e+01 3.679240e-01 3.156895e-01 5.763059e-01 1.133851e+00 1.291991e+00 1.366770e+00 1.899759e+00 1.964548e+00 1.961192e+00 1.799399e+00 2.948154e+00 1.705741e+00 1.736633e-01
<GCONST> 8.073257e+01
<MIXTURE> 3 8.882435e-02
<MEAN> 25
 7.043625e+00 1.304649e+01 4.149846e+00 4.018669e+00 -6.823644e+00 -4.852020e-01 -1.392076e+00 -4.878658e+00 -2.547904e+00 -4.250783e+00 -1.858543e+00 -7.495086e+00 4.130494e-01 6.666328e-01 -9.131200e-01 -3.804054e-02 6.511486e-01 -4.203415e-01 3.809035e-01 1.228741e+00 9.711733e-01 8.162460e-01 8.699574e-01 2.672827e-02 -1.471353e-01
<VARIANCE> 25
 3.635324e+00 8.880748e+00 1.247924e+01 1.772155e+01 2.320325e+01 1.596803e+01 1.617492e+01 3.132033e+01 1.566785e+01 2.309620e+01 1.482085e+01 1.040207e+01 3.616264e-01 1.112419e+00 8.211144e-01 1.246318e+00 1.656538e+00 1.772206e+00 1.976450e+00 1.404261e+00 1.398856e+00 1.175627e+00 1.334129e+00 1.486480e+00 2.772930e-01
<GCONST> 7.900201e+01
<MIXTURE> 4 5.944274e-02
<MEAN> 25
 7.373769e+00 -5.839685e+00 4.169661e+00 -2.651120e-01 -6.859035e+00 -6.215330e+00 -5.953303e+00 -1.024884e+00 -3.349444e+00 1.492150e+00 -1.774740e+00 -2.576865e+00 2.639751e-01 3.147855e+00 -9.738898e-01 3.540089e+00 5.822238e-01 1.328506e+00 -1.175211e+00 -1.609740e+00 7.382027e-01 -1.848153e+00 -3.373214e-01 -2.209639e+00 -2.408655e+00
<VARIANCE> 25
 3.143472e+00 1.432159e+01 8.967300e+00 1.946736e+01 1.943178e+01 1.374090e+01 1.764489e+01 1.859870e+01 1.852340e+01 1.112144e+01 1.741044e+01 1.969071e+01 1.987927e-01 5.011084e-01 9.988275e-01 9.664337e-01 1.305056e+00 1.705687e+00 2.508671e+00 2.531547e+00 2.046256e+00 1.536113e+00 2.494321e+00 1.343280e+00 1.409248e-01
<GCONST> 7.816422e+01
<MIXTURE> 5 5.798821e-02
<MEAN> 25
 1.030200e+01 6.308994e+00 -2.956361e+00 7.635007e+00 -3.824996e+00 3.958701e-01 -2.972039e+00 -4.199024e+00 2.087809e+00 -2.169831e+00 -3.659384e+00 -5.329432e+00 -8.079411e-02 1.798617e+00 -3.889731e-01 -6.824527e-01 1.557202e+00 1.132758e+00 -2.997006e-01 4.970497e-01 4.678402e-02 -2.889163e-01 1.144367e+00 4.667174e-01 -8.649750e-01
<VARIANCE> 25
 2.583851e+00 1.669584e+01 1.546969e+01 6.779222e+00 1.955463e+01 2.001437e+01 3.290129e+01 7.032236e+01 1.409389e+01 4.651597e+01 1.527639e+01 2.483208e+01 1.229381e-01 2.486614e-01 6.338981e-01 5.788556e-01 7.268174e-01 1.066778e+00 1.634843e+00 1.126945e+00 1.436549e+00 1.461802e+00 1.383759e+00 6.747147e-01 7.444496e-02
<GCONST> 7.444625e+01
<MIXTURE> 6 9.651037e-02
<MEAN> 25
 8.410615e+00 1.304412e+01 -1.802533e+00 1.841636e+00 1.468821e-01 2.569705e+00 -1.587729e+00 -3.703784e+00 -3.539985e+00 -5.192636e+00 -1.621064e+00 -7.101177e+00 -7.024537e-01 1.317244e+00 1.075304e+00 6.603557e-01 -2.614323e-01 -1.151563e-01 3.655260e-01 8.430974e-01 5.782545e-01 -6.708475e-01 9.288409e-02 2.144798e-02 -8.969126e-01
<VARIANCE> 25
 1.937172e+00 1.115151e+01 6.872982e+00 7.840469e+00 2.305602e+01 2.570343e+01 1.747685e+01 3.801784e+01 2.765698e+01 1.613250e+01 1.437406e+01 1.329042e+01 3.100440e-01 6.921814e-01 8.347219e-01 1.758078e+00 1.109398e+00 1.640235e+00 1.388352e+00 2.563602e+00 2.087779e+00 2.064947e+00 2.904551e+00 3.782421e+00 2.461935e-01
<GCONST> 8.041233e+01
<MIXTURE> 7 6.639149e-02
<MEAN> 25
 6.337069e+00 1.728734e+00 6.015408e+00 4.066780e+00 -8.489648e+00 6.852124e-01 2.242665e-02 -5.776512e+00 -6.191277e+00 -1.073002e+00 -3.555318e+00 -6.106451e+00 -3.706045e-02 2.893376e+00 1.169424e-01 1.567432e+00 -9.707931e-01 1.155559e+00 1.309812e+00 -9.385619e-01 3.713332e-01 -1.007471e+00 -3.479479e-01 -9.245186e-01 -1.819688e+00
<VARIANCE> 25
 6.556010e+00 1.347864e+01 2.190942e+01 1.858780e+01 2.747664e+01 1.463022e+01 3.473460e+01 1.987229e+01 2.808052e+01 2.205148e+01 2.279742e+01 1.669952e+01 2.752204e-01 6.443683e-01 5.923284e-01 1.243819e+00 1.317673e+00 2.102278e+00 1.311534e+00 3.002774e+00 1.849135e+00 1.192357e+00 1.768815e+00 1.477388e+00 1.914514e-01
<GCONST> 8.179436e+01
<MIXTURE> 8 9.514929e-02
<MEAN> 25
 5.922003e+00 7.647303e+00 4.945152e+00 7.258817e+00 -7.899566e+00 -3.959498e-01 3.131367e-02 -6.998226e+00 -6.448490e+00 -6.315650e+00 -6.052281e+00 -8.838264e+00 8.578036e-02 1.957885e+00 -4.894743e-01 5.652564e-01 8.791359e-01 -1.993549e-01 -1.569314e-01 5.077966e-01 7.488224e-01 1.718090e-01 9.152502e-01 -4.374978e-01 -9.507712e-01
<VARIANCE> 25
 8.345607e+00 1.265616e+01 2.467951e+01 1.151245e+01 2.523018e+01 1.982285e+01 2.707047e+01 2.579865e+01 1.933802e+01 2.728016e+01 1.973942e+01 1.499377e+01 2.462326e-01 7.273554e-01 7.906402e-01 1.075246e+00 1.533533e+00 1.461450e+00 2.105661e+00 1.601569e+00 1.807576e+00 1.305816e+00 1.253250e+00 1.127621e+00 1.730089e-01
<GCONST> 8.056904e+01
<MIXTURE> 9 9.990409e-02
<MEAN> 25
 9.272630e+00 -4.354279e+00 -4.458101e+00 -2.387959e+00 5.956753e+00 -2.841074e+00 -8.246454e+00 5.905516e-01 -2.095793e+00 2.167338e+00 -6.010747e+00 -6.499274e+00 -8.576831e-02 2.669821e+00 3.161404e-01 3.027700e+00 -7.567659e-01 -2.636548e-01 -6.056649e-01 -9.602090e-02 -3.749990e-01 -1.964951e+00 -3.187298e-01 -1.244000e+00 -2.256247e+00
<VARIANCE> 25
 2.896439e+00 3.042833e+01 1.550938e+01 4.434911e+01 1.770984e+01 1.541965e+01 2.445609e+01 2.013562e+01 2.163856e+01 3.998684e+01 2.467329e+01 2.007238e+01 3.352134e-01 3.660088e-01 7.242585e-01 1.289288e+00 1.477165e+00 1.468754e+00 4.337284e+00 1.908015e+00 3.221482e+00 2.544820e+00 3.525490e+00 1.411489e+00 1.372257e-01
<GCONST> 8.418021e+01
<MIXTURE> 10 7.706801e-02
<MEAN> 25
 5.502513e+00 9.613525e+00 2.433623e+00 7.701944e+00 -4.132911e+00 -2.120383e+00 -1.875717e+00 -7.581191e+00 -5.659401e+00 -4.005701e+00 -2.483926e+00 -7.533458e+00 1.333366e+00 -9.519890e-02 -1.033600e+00 -5.795013e-01 2.557387e-01 6.418234e-01 2.319359e-01 -6.313735e-01 5.166887e-01 2.646826e-01 -3.267078e-01 -6.297948e-01 9.315835e-01
<VARIANCE> 25
 2.023625e+01 2.959301e+01 2.008634e+01 2.748736e+01 5.065735e+01 1.612930e+01 2.414540e+01 4.873825e+01 2.088976e+01 4.355386e+01 2.099359e+01 2.293252e+01 2.493353e+00 3.059388e+00 2.203941e+00 3.048808e+00 2.791689e+00 1.643214e+00 1.609860e+00 3.829453e+00 2.269064e+00 1.665794e+00 1.772593e+00 2.320248e+00 1.133596e+00
<GCONST> 9.557022e+01
<MIXTURE> 11 7.653410e-02
<MEAN> 25
 9.028560e+00 7.667509e+00 -3.232412e+00 5.755607e+00 -1.055421e+00 -6.667099e-01 -1.787680e-02 -4.541551e+00 -3.261972e+00 -1.885580e+00 -3.377150e+00 -9.011126e+00 -3.781525e-01 2.066501e+00 -6.415813e-03 -1.780392e-01 9.852942e-01 2.901298e-01 1.312483e-01 1.174951e+00 1.200208e-01 -1.371392e+00 8.099233e-02 -1.204524e-01 -1.079120e+00
<VARIANCE> 25
 2.712399e+00 1.625715e+01 1.145925e+01 4.687824e+00 2.888238e+01 2.256124e+01 2.148953e+01 6.857611e+01 1.874167e+01 2.933603e+01 1.916261e+01 2.271000e+01 1.957756e-01 2.201148e-01 3.386142e-01 5.904520e-01 7.503237e-01 6.298504e-01 1.377610e+00 2.391930e+00 1.389277e+00 1.805477e+00 6.491777e-01 1.610921e+00 9.592053e-02
<GCONST> 7.418626e+01
<MIXTURE> 12 7.556412e-02
<MEAN> 25
 6.333310e+00 2.443948e+00 1.389345e+00 6.252658e+00 -3.129164e+00 1.376338e-01 -1.470343e+00 -8.347200e+00 -8.296937e+00 -6.660797e+00 -7.620442e+00 -5.264998e+00 1.877485e-01 1.872033e+00 -6.835995e-01 4.942114e-01 5.544058e-02 8.720068e-01 4.791695e-01 -3.266792e-01 9.548564e-02 -9.733721e-01 2.577245e-01 -5.483972e-01 -1.082386e+00
<VARIANCE> 25
 7.998459e+00 1.363600e+01 1.963798e+01 1.600086e+01 3.870278e+01 3.481113e+01 3.084632e+01 4.240557e+01 1.818415e+01 3.765175e+01 2.105684e+01 2.608167e+01 5.680537e-01 5.094475e-01 8.094919e-01 6.560935e-01 1.299832e+00 1.364485e+00 2.812860e+00 1.731057e+00 1.787750e+00 1.667921e+00 1.448650e+00 2.944254e+00 1.871644e-01
<GCONST> 8.475896e+01
<MIXTURE> 13 5.771068e-02
<MEAN> 25
 4.718115e+00 1.802124e+00 6.639942e+00 4.109392e+00 -1.074630e+01 -3.367614e+00 -3.345610e+00 -6.343952e+00 -5.749822e+00 -2.932254e+00 -4.558485e+00 -7.618085e+00 -6.195058e-01 2.892065e+00 2.534590e-01 2.009793e+00 -6.082124e-02 1.087095e+00 9.857426e-01 -1.298705e+00 -4.674621e-01 -1.840005e+00 -1.213464e+00 -1.345816e+00 -2.235631e+00
<VARIANCE> 25
 6.143944e+00 1.455786e+01 1.756339e+01 1.254792e+01 1.777942e+01 1.160309e+01 3.223277e+01 2.169429e+01 1.943119e+01 1.336574e+01 1.829436e+01 2.095325e+01 4.232092e-01 1.148432e+00 5.333367e-01 1.425055e+00 1.188199e+00 8.638529e-01 1.609762e+00 1.788013e+00 1.439014e+00 2.060319e+00 2.107129e+00 2.672844e+00 2.929099e-01
<GCONST> 8.089851e+01
<STATE> 3
<NUMMIXES> 13
<MIXTURE> 1 9.120724e-02
<MEAN> 25
 6.118074e+00 5.131019e+00 -4.835225e-01 4.951711e+00 -8.688251e-01 -1.628617e+00 -2.631079e+00 -1.108055e+00 -1.209726e-01 -1.748687e+00 8.733889e-01 -5.223300e+00 2.050082e+00 -4.862771e+00 -4.146738e+00 -3.835647e+00 2.957782e+00 4.878448e-01 -2.323265e+00 9.707870e-01 2.273488e+00 3.030625e+00 -1.009947e+00 -4.945092e-01 3.738714e+00
<VARIANCE> 25
 1.030886e+01 5.103210e+01 2.153521e+01 1.400863e+01 1.574523e+01 1.709965e+01 2.004156e+01 2.646769e+01 2.155540e+01 1.521644e+01 2.582475e+01 1.988644e+01 1.707748e+00 2.116193e+00 2.612036e+00 2.778860e+00 5.722870e+00 3.122914e+00 1.984974e+00 3.808347e+00 2.854151e+00 2.975554e+00 2.689021e+00 2.447167e+00 7.421467e-01
<GCONST> 9.372355e+01
<MIXTURE> 2 7.645996e-02
<MEAN> 25
 1.615347e+00 1.223339e+01 4.333210e+00 8.023878e+00 4.763517e-01 2.373275e-01 -2.504118e+00 -2.699016e+00 -2.116843e+00 -4.924301e+00 2.735323e-01 -2.718092e+00 -1.165351e+00 -2.207145e+00 7.784626e-01 -1.498779e-01 5.785704e-02 1.835971e+00 2.488421e-01 3.197357e-02 1.090459e+00 2.841613e-01 7.539678e-01 7.053337e-01 2.298271e-01
<VARIANCE> 25
 3.184700e+01 1.963265e+01 1.479973e+01 1.659498e+01 1.690927e+01 3.205275e+01 1.302799e+01 4.020806e+01 1.362076e+01 1.179493e+01 2.294582e+01 1.463228e+01 4.008090e-01 1.168213e+00 5.397338e+00 1.928604e+00 2.816059e+00 4.370059e+00 2.323655e+00 7.525818e+00 3.307136e+00 3.071777e+00 9.674474e-01 1.011514e+00 3.243476e-01
<GCONST> 8.946707e+01
<MIXTURE> 3 9.531611e-02
<MEAN> 25
 6.816304e+00 1.368622e+01 6.398787e-01 6.574751e+00 -2.713317e+00 -3.899794e+00 -2.065588e+00 1.818718e+00 7.413654e-02 -8.108329e+00 -1.388961e+00 -4.137080e+00 6.943291e-02 -2.496745e+00 -3.739105e-01 -4.038356e-01 8.392431e-01 3.130122e-01 -5.925320e-01 -1.209110e+00 -4.332303e-02 1.607583e+00 1.372006e+00 3.818124e-01 1.387075e+00
<VARIANCE> 25
 1.785920e+00 1.734579e+01 1.694131e+01 2.398961e+01 2.025759e+01 2.539346e+01 1.137808e+01 1.971158e+01 1.598329e+01 1.791020e+01 1.596735e+01 3.132701e+01 4.893713e-01 4.107285e+00 1.901511e+00 2.527123e+00 5.189205e-01 3.923642e+00 1.307172e+00 1.799277e+00 1.506876e+00 4.036160e+00 2.739419e+00 4.690522e+00 1.198232e+00
<GCONST> 8.728905e+01
<MIXTURE> 4 9.809231e-02
<MEAN> 25
 9.985648e+00 7.682626e+00 -7.177560e+00 7.939025e+00 5.154566e+00 8.625997e-01 -4.606589e+00 -4.006280e-02 2.240329e+00 -7.886776e+00 -9.995608e+00 -1.279645e+01 -6.717752e-01 7.456405e-01 6.154363e-01 1.645210e-01 4.006150e-01 9.343052e-01 -3.012023e-02 1.624031e-01 3.872341e-01 -3.176874e-01 2.220780e-01 1.486975e-01 -7.234628e-01
<VARIANCE> 25
 3.745148e+00 7.706902e+00 7.741236e+00 1.488227e+01 2.579254e+01 1.115496e+01 2.149837e+01 1.355787e+01 1.102134e+01 1.892181e+01 1.434765e+01 1.257579e+01 9.911592e-02 7.961510e-01 5.424731e-01 7.786374e-01 1.193920e+00 1.786672e+00 3.221931e+00 1.957742e+00 2.768724e+00 9.576210e-01 1.480935e+00 1.175983e+00 2.560880e-01
<GCONST> 7.529439e+01
<MIXTURE> 5 4.533037e-02
<MEAN> 25
 9.598850e+00 1.041769e+01 -3.158379e-01 6.186542e+00 -6.553865e+00 9.592798e-01 2.663794e+00 5.518165e-03 -1.966455e+00 -3.143100e+00 -3.275585e+00 -1.074633e+01 7.505654e-01 -2.285964e+00 -2.889094e+00 -1.352448e+00 4.121633e+00 -3.663436e-01 -2.623248e+00 8.889195e-01 1.909718e+00 2.196501e+00 1.201122e+00 7.005435e-02 1.630829e+00
<VARIANCE> 25
 3.594386e+00 2.296719e+01 1.577559e+01 1.413256e+01 3.945850e+01 9.842240e+00 2.226018e+01 2.386792e+01 9.177222e+00 3.166505e+01 1.105957e+01 1.285903e+01 2.322987e-01 2.377304e+00 1.378811e+00 3.929844e+00 1.789235e+00 1.332511e+00 8.885654e-01 4.022106e+00 1.737701e+00 5.175898e-01 9.588778e-01 5.415581e-01 1.106116e+00
<GCONST> 8.121199e+01
<MIXTURE> 6 6.474146e-02
<MEAN> 25
 3.483034e+00 9.050376e+00 4.035017e+00 7.164171e+00 1.196057e+00 3.484381e-01 -3.683952e+00 -9.979642e-01 -1.103275e+00 -4.828452e+00 7.899079e-02 -4.919343e+00 5.338940e-01 -5.745768e+00 -9.128548e-01 -2.535066e+00 -3.350699e-01 -1.361821e+00 -4.284325e-01 7.084135e-01 1.057541e+00 2.266401e+00 1.094726e+00 1.614108e+00 3.602876e+00
<VARIANCE> 25
 2.652789e+01 7.693250e+01 1.213544e+01 2.073729e+01 1.360114e+01 2.028129e+01 2.146363e+01 1.450426e+01 7.707403e+00 1.159272e+01 1.268221e+01 1.342294e+01 1.446388e+00 1.563467e+00 4.401994e+00 2.920257e+00 6.942315e+00 3.233325e+00 3.777466e+00 4.842196e+00 5.484808e+00 3.261726e+00 3.014893e+00 3.083780e+00 5.406431e-01
<GCONST> 9.397273e+01
<MIXTURE> 7 8.181311e-02
<MEAN> 25
 6.924932e+00 1.494660e+01 1.625429e+00 5.048245e+00 -6.783088e-01 1.167646e+00 -1.218075e+00 -3.654271e+00 -3.751469e+00 -6.935775e+00 -2.040548e+00 -5.997172e+00 -3.081030e-01 -3.277359e+00 6.521372e-01 1.306253e+00 -4.720645e-01 -2.013673e+00 -6.481680e-01 1.162169e+00 3.987649e-01 -1.504203e-01 7.619238e-01 1.617049e+00 1.341855e+00
<VARIANCE> 25
 5.181415e+00 5.085300e+00 1.212945e+01 2.417609e+01 2.971625e+01 3.783275e+01 2.858390e+01 1.736013e+01 2.544266e+01 2.076018e+01 1.500665e+01 1.337870e+01 7.443099e-01 1.401339e+00 2.830235e+00 1.464866e+00 6.241158e+00 2.607890e+00 3.421656e+00 4.098421e+00 3.745269e+00 3.575031e+00 1.707047e+00 1.767594e+00 1.561808e-01
<GCONST> 8.843967e+01
<MIXTURE> 8 1.000532e-01
<MEAN> 25
 6.577396e+00 8.510158e+00 -2.117885e-01 4.997010e+00 -3.304924e+00 2.352390e+00 -8.860629e-01 -8.724068e+00 -5.530816e+00 -3.735118e+00 -5.909377e-01 -4.545562e+00 7.664744e-01 -2.000747e+00 -2.968352e+00 -1.701219e+00 2.327279e+00 -1.295921e+00 -1.784723e+00 1.636398e+00 2.734106e+00 1.278835e+00 -1.639797e-01 -5.306011e-01 1.458459e+00
<VARIANCE> 25
 7.385093e+00 1.943424e+01 1.530483e+01 1.680487e+01 2.944247e+01 2.032933e+01 1.862145e+01 2.189624e+01 2.077537e+01 2.761272e+01 2.286927e+01 1.559904e+01 6.955169e-01 1.496395e+00 2.216697e+00 2.516751e+00 1.214217e+00 3.274313e+00 2.809209e+00 7.594109e+00 2.762411e+00 6.121492e+00 1.955244e+00 3.034165e+00 4.361749e-01
<GCONST> 9.107553e+01
<MIXTURE> 9 7.254677e-02
<MEAN> 25
 8.805450e+00 -8.576190e-02 -7.318740e+00 4.002061e+00 2.916138e+00 -1.293941e+00 -3.329902e+00 5.955263e+00 3.183323e+00 2.778599e-01 -6.594484e+00 -1.072874e+01 -1.208961e+00 1.290811e+00 -8.847787e-01 1.410579e+00 -4.714813e-01 3.700555e-01 1.214861e+00 3.067232e-01 1.159242e+00 -1.497960e+00 -3.739564e-01 -4.121611e-01 -2.176738e+00
<VARIANCE> 25
 8.029299e+00 1.195318e+01 9.127168e+00 1.088523e+01 6.850856e+00 1.570151e+01 1.358581e+01 1.319957e+01 1.935699e+01 1.937840e+01 2.846461e+01 4.185622e+01 3.495659e-01 8.242719e-01 5.507727e-01 7.983942e-01 1.487921e+00 1.679882e+00 1.425402e+00 2.827279e+00 2.122751e+00 1.911736e+00 3.729274e+00 2.128149e+00 3.480660e-01
<GCONST> 8.064792e+01
<MIXTURE> 10 6.970683e-02
<MEAN> 25
 1.357778e+00 1.395880e+01 5.607029e+00 8.490662e+00 -6.659515e-01 -1.131564e+00 -3.244226e+00 -7.253977e+00 -4.123688e+00 -3.577386e+00 1.225359e+00 -5.029018e+00 -1.669938e+00 -2.806616e-01 6.113107e-01 4.257693e-01 6.986057e-01 -4.373810e-01 -2.576999e-01 1.013223e+00 -1.298147e-01 -7.684304e-01 9.252543e-01 6.635918e-01 -9.802879e-01
<VARIANCE> 25
 1.411433e+01 6.574726e+00 1.542921e+01 1.079059e+01 2.564917e+01 1.558348e+01 1.481604e+01 2.010665e+01 8.826454e+00 6.169127e+00 5.774502e+00 1.911745e+01 1.033438e-01 1.470283e+00 9.247956e-01 8.172933e-01 1.438047e+00 1.399307e+00 1.724368e+00 1.541169e+00 1.655582e+00 4.675895e-01 1.140260e+00 2.271978e+00 1.846968e-01
<GCONST> 7.450046e+01
<MIXTURE> 11 7.109049e-02
<MEAN> 25
 6.790849e+00 1.331000e+01 2.163802e+00 6.023582e+00 -4.610854e+00 -3.426669e+00 -2.526291e+00 -8.642431e-01 -7.125242e-01 -5.970740e+00 -2.778862e+00 -8.736382e+00 1.090712e+00 -3.338473e+00 -3.051349e+00 -1.433196e+00 2.506457e+00 7.966669e-01 -1.500645e+00 -1.011160e+00 8.744797e-01 2.233759e+00 4.213033e-01 2.227348e-01 2.050250e+00
<VARIANCE> 25
 6.718393e+00 2.109125e+01 2.113051e+01 7.101363e+00 2.405817e+01 9.066166e+00 1.128772e+01 1.757406e+01 1.333134e+01 1.009389e+01 1.876963e+01 1.000026e+01 1.244775e-01 7.789989e-01 1.143392e+00 2.774987e+00 1.180022e+00 1.320107e+00 1.774010e+00 2.378725e+00 1.574992e+00 2.595298e+00 1.959350e+00 1.805604e+00 1.698308e-01
<GCONST> 7.832652e+01
<MIXTURE> 12 6.926651e-02
<MEAN> 25
 5.719171e+00 7.230741e+00 1.346068e+00 8.459340e+00 2.272332e+00 -2.381480e+00 -4.694110e+00 -3.043033e+00 -3.693753e+00 -5.706577e+00 -2.300137e+00 -6.844133e+00 5.912035e-01 -5.688951e+00 -5.533850e-01 -2.046178e+00 -2.773942e-01 -1.527729e+00 -1.858920e+00 1.133426e+00 1.686971e+00 2.667997e+00 5.316915e-02 4.987869e-01 3.485637e+00
<VARIANCE> 25
 2.431261e+01 5.988059e+01 2.407841e+01 1.970155e+01 1.517797e+01 8.829790e+00 1.886266e+01 1.225853e+01 1.917601e+01 1.278464e+01 1.116810e+01 1.183105e+01 9.471641e-01 8.874495e-01 4.340048e+00 7.722305e+00 5.250727e+00 5.122158e+00 4.067468e+00 5.093314e+00 7.363693e+00 2.372692e+00 4.452484e+00 1.534679e+00 4.605573e-01
<GCONST> 9.378763e+01
<MIXTURE> 13 6.437526e-02
<MEAN> 25
 7.358479e+00 -2.813773e+00 -4.905223e+00 -4.868973e-01 3.084048e+00 -2.849565e-01 -8.538944e+00 -8.715813e-01 -1.967700e+00 -6.123925e-01 -9.644479e+00 -1.093833e+01 -8.438420e-01 6.811426e-01 -1.196801e+00 6.770054e-01 -1.461509e-01 6.165620e-01 7.484320e-01 -1.367431e-01 6.858810e-01 -1.196038e+00 -3.739530e-02 2.780998e-01 -1.505514e+00
<VARIANCE> 25
 3.214142e+00 9.203397e+00 1.671919e+01 2.991755e+01 1.537201e+01 1.402160e+01 3.135892e+01 1.583036e+01 1.547344e+01 1.501457e+01 7.419709e+00 2.562641e+01 5.080469e-01 1.629987e-01 9.603930e-01 1.222985e+00 1.284752e+00 7.090725e-01 2.668018e+00 2.404931e+00 8.627630e-01 8.267545e-01 2.214570e+00 2.284182e+00 5.318081e-01
<GCONST> 7.791261e+01
<STATE> 4
<NUMMIXES> 13
<MIXTURE> 1 6.654772e-02
<MEAN> 25
 1.945389e+00 -1.616854e+00 -4.203188e+00 4.007205e+00 2.457580e+00 4.688666e+00 -3.002918e+00 -2.383426e-01 4.191287e+00 -5.566078e-01 -1.217272e+00 -5.104090e+00 -1.400836e+00 -2.023350e-01 -1.776322e-01 -6.168850e-01 -3.863351e-01 5.893977e-01 5.255780e-01 -3.085246e-02 1.086744e+00 4.682353e-01 1.855518e+00 1.431167e+00 -8.030319e-01
<VARIANCE> 25
 1.310501e+01 3.407009e+01 1.064085e+02 3.423433e+01 2.362169e+01 6.184256e+01 4.202329e+01 7.746432e+01 3.618666e+01 2.604868e+01 1.983082e+01 3.217587e+01 5.251871e-01 1.088797e+00 2.099463e+00 1.509603e+00 1.070696e+00 1.441387e+00 1.974013e+00 3.912391e+00 3.046060e+00 7.565637e-01 2.033382e+00 1.829251e+00 3.947528e-01
<GCONST> 9.322249e+01
<MIXTURE> 2 1.094036e-01
<MEAN> 25
 1.230614e+01 -4.890019e+00 -1.465304e+01 -3.827244e+00 7.710942e+00 -3.311081e+00 -8.061410e+00 3.620937e+00 7.477582e+00 5.448050e+00 -6.721394e+00 -7.600759e+00 4.755761e-01 -2.972074e+00 -1.326762e+00 -1.460316e+00 1.462980e+00 -1.305688e+00 9.662675e-01 4.007632e+00 1.130339e+00 -1.670919e-01 -2.931711e+00 1.503709e+00 1.974134e+00
<VARIANCE> 25
 2.500826e+00 1.452554e+01 1.085422e+01 2.349260e+01 3.324347e+01 2.494384e+01 1.990790e+01 2.533608e+01 2.029835e+01 5.592419e+01 2.089912e+01 1.776110e+01 4.580669e-01 3.730982e+00 2.190161e+00 1.750233e+00 2.480567e+00 5.897550e+00 2.773462e+00 4.839636e+00 4.501971e+00 3.983856e+00 2.203331e+00 1.580583e+00 9.952120e-01
<GCONST> 9.226511e+01
<MIXTURE> 3 5.419612e-02
<MEAN> 25
 8.218998e+00 -6.432447e-02 -6.873714e+00 9.999961e-01 1.987935e+00 6.084368e-01 -1.839164e+00 -2.430623e+00 -2.928687e+00 1.136921e+00 6.870720e+00 -4.160338e+00 1.890362e+00 -1.869410e+00 -3.198369e+00 -4.889700e+00 1.258666e+00 7.524410e-01 -6.678798e-01 8.944336e-01 3.086722e-01 3.676237e+00 1.385254e+00 1.067334e+00 2.451937e+00
<VARIANCE> 25
 1.014157e+01 3.486703e+01 2.772656e+01 4.949740e+01 3.115543e+01 2.567010e+01 1.413603e+01 1.913276e+01 1.170584e+01 1.814757e+01 1.577419e+01 1.325907e+01 2.473373e-01 4.708691e+00 9.057589e-01 5.464302e+00 2.372396e+00 2.597219e+00 1.567255e+00 2.871816e+00 1.847903e+00 3.852962e+00 4.669924e+00 5.870260e+00 9.728848e-01
<GCONST> 9.234626e+01
<MIXTURE> 4 7.284168e-02
<MEAN> 25
 1.043868e+01 -1.137067e+01 -9.121162e+00 -7.651777e+00 9.143651e+00 1.456879e+00 -3.519120e+00 7.697553e+00 9.626909e-01 4.891794e+00 -9.258306e+00 -7.559785e+00 -6.012083e-01 -3.950383e+00 7.365592e-01 -1.346406e-01 9.954059e-01 -6.677344e-01 3.004952e+00 2.694776e+00 -1.742760e+00 -1.586457e+00 -2.068739e+00 2.155108e+00 2.217417e+00
<VARIANCE> 25
 1.573414e+00 9.983075e+00 1.939826e+01 3.100267e+01 8.028186e+00 2.682890e+01 1.990700e+01 2.984878e+01 2.858307e+01 2.620152e+01 1.358499e+01 9.029294e+00 4.215490e-01 2.299816e+00 2.003882e+00 3.260291e+00 1.758204e+00 1.526820e+00 1.006782e+00 2.081144e+00 1.809286e+00 4.812215e+00 1.865300e+00 1.716693e+00 9.679911e-01
<GCONST> 8.515649e+01
<MIXTURE> 5 5.527196e-02
<MEAN> 25
 1.021131e+01 1.799664e+00 -8.983655e+00 -8.518875e-01 3.843026e+00 -4.004624e-02 -4.372964e+00 -1.600634e+00 5.085539e+00 3.236271e+00 -5.280506e-01 -5.917790e+00 1.588125e+00 -4.775598e+00 -3.435037e+00 -2.959766e+00 1.688487e+00 -1.185481e+00 -7.265409e-01 3.448314e+00 2.733723e+00 1.193418e+00 -2.469086e+00 -3.064235e-01 3.316470e+00
<VARIANCE> 25
 2.820851e+00 2.714518e+01 1.039484e+01 2.457274e+01 7.812543e+00 4.017920e+01 9.311666e+00 3.127634e+01 9.272295e+00 9.783122e+00 8.812187e+00 6.725383e+00 5.308549e-01 2.138351e+00 1.214128e+00 2.747003e+00 2.128145e+00 4.514957e+00 3.088460e+00 6.178995e+00 2.634258e+00 4.115238e+00 1.997010e+00 2.754272e+00 1.208701e+00
<GCONST> 8.666145e+01
<MIXTURE> 6 7.050312e-02
<MEAN> 25
 2.565753e+00 -4.286370e+00 2.262665e+00 4.479280e+00 -3.553204e+00 -3.458764e+00 -6.567177e-01 4.512727e-01 2.756658e-02 -5.342827e+00 3.183610e+00 2.343148e+00 1.296607e+00 -4.319995e+00 4.424269e-01 -2.566285e+00 -3.164187e+00 -1.425150e+00 1.744394e-01 5.613150e-01 4.640786e-01 1.763435e+00 6.274440e-01 1.460077e+00 3.406912e+00
<VARIANCE> 25
 3.197276e+01 5.382867e+01 1.208876e+01 5.232726e+01 3.795969e+01 1.808474e+01 1.162716e+01 3.308901e+01 1.505059e+01 5.327425e+01 1.002236e+01 2.141120e+01 1.176656e+00 5.532444e+00 7.137156e+00 6.215981e+00 4.528631e+00 2.463581e+00 5.351321e+00 1.407313e+00 1.782952e+00 3.524721e+00 2.237814e+00 1.563391e+00 1.116372e+00
<GCONST> 9.768447e+01
<MIXTURE> 7 1.115714e-01
<MEAN> 25
 1.071329e+01 -1.506145e+00 -7.917403e+00 -1.799283e+01 7.424629e+00 6.914791e+00 -7.787025e+00 -4.030717e+00 -3.665595e+00 1.079803e+01 3.364106e-01 -4.446345e+00 -3.228941e-02 -5.184556e-01 -3.088277e-01 -2.420116e+00 1.580607e+00 1.333230e+00 6.124233e-01 3.442617e-01 -1.526918e-02 1.015285e+00 -1.759978e+00 -2.168775e-02 7.710043e-01
<VARIANCE> 25
 3.492762e+00 1.168091e+01 1.935755e+01 3.244780e+01 2.296074e+01 3.088676e+01 2.332406e+01 4.068937e+01 1.055318e+01 3.062891e+01 2.987416e+01 1.224634e+01 3.677704e-01 1.227917e+00 1.212554e+00 6.385080e+00 2.736465e+00 3.066271e+00 3.260185e+00 2.523478e+00 3.029546e+00 5.504416e+00 1.607653e+00 1.291565e+00 6.898080e-01
<GCONST> 8.985796e+01
<MIXTURE> 8 7.930572e-02
<MEAN> 25
 1.130297e+01 -4.122906e+00 -8.523849e+00 -8.005386e+00 4.540411e+00 2.691597e+00 -1.110032e+01 -3.061483e+00 3.740855e+00 8.959459e+00 -4.037770e+00 -1.050695e+01 7.588358e-01 -6.663233e+00 -2.071996e+00 -4.226085e+00 2.514321e+00 1.604705e-01 -8.555292e-02 2.025918e+00 5.056556e-01 2.592275e+00 -2.128662e+00 3.148434e-02 4.361290e+00
<VARIANCE> 25
 4.027972e+00 2.286121e+01 1.910196e+01 3.348059e+01 2.691219e+01 2.136221e+01 1.849897e+01 3.288701e+01 1.863568e+01 2.873218e+01 1.884923e+01 1.400500e+01 7.548838e-01 2.661256e+00 2.161110e+00 3.025293e+00 2.749440e+00 2.624655e+00 2.504698e+00 1.808414e+00 1.458874e+00 5.837549e+00 1.360943e+00 2.834771e+00 6.928380e-01
<GCONST> 9.074173e+01
<MIXTURE> 9 8.034902e-02
<MEAN> 25
 1.018586e+01 -7.800975e+00 -5.795177e+00 -2.648123e+00 1.748461e+00 -5.890954e+00 -1.021713e+01 2.435458e+00 2.918171e+00 2.053160e+00 -5.836898e+00 -8.431746e+00 -6.474593e-01 -4.212909e+00 1.384696e+00 -2.439533e+00 5.171419e-01 -1.472088e+00 8.565043e-01 4.088748e+00 -8.569975e-01 -9.996685e-01 -1.500640e+00 1.275229e+00 2.565602e+00
<VARIANCE> 25
 2.716196e+00 1.961837e+01 1.522628e+01 3.867340e+01 2.011482e+01 2.062283e+01 5.858451e+00 3.430621e+01 1.992293e+01 1.520795e+01 3.751122e+01 3.326771e+01 4.400471e-01 1.896768e+00 3.538403e+00 4.340910e+00 4.681239e+00 1.525571e+00 3.156889e+00 3.132786e+00 2.869815e+00 3.304150e+00 2.775379e+00 2.922022e+00 9.201716e-01
<GCONST> 9.154256e+01
<MIXTURE> 10 9.821443e-02
<MEAN> 25
 6.357866e+00 -3.891906e+00 4.995027e+00 5.539428e+00 -7.353217e+00 -6.498386e+00 -4.796956e+00 -5.759421e-01 -2.235067e+00 -1.514974e+00 5.271106e-02 -4.262555e+00 7.090253e-01 -3.532408e+00 1.658404e+00 -2.668771e+00 -2.788350e+00 -1.255297e+00 5.496863e-01 -1.802820e-01 -1.634273e+00 2.282929e+00 -4.639628e-01 2.849864e-01 2.926254e+00
<VARIANCE> 25
 1.551801e+01 2.918292e+01 2.856256e+01 6.427618e+01 6.226527e+01 3.022764e+01 1.954739e+01 1.850204e+01 2.910793e+01 1.569283e+01 1.358345e+01 7.750965e+00 1.231531e+00 4.129283e+00 2.202512e+00 5.308165e+00 2.733984e+00 1.676995e+00 2.952161e+00 1.798252e+00 3.299854e+00 5.018759e+00 2.913795e+00 1.234757e+00 1.605414e+00
<GCONST> 9.562766e+01
<MIXTURE> 11 6.570183e-02
<MEAN> 25
 9.453105e+00 1.390109e+00 -5.206139e+00 1.311354e+00 2.637254e+00 -1.641246e+00 -3.986985e+00 -6.228832e+00 -3.483102e+00 -2.266544e+00 6.222184e-01 -4.992963e+00 1.020830e+00 -4.461318e+00 -2.746602e+00 -6.574807e+00 2.235897e+00 1.784873e+00 -1.572075e+00 -3.761152e-01 -1.321190e+00 4.796935e+00 1.434642e+00 9.592625e-01 3.488828e+00
<VARIANCE> 25
 7.640469e+00 2.913444e+01 1.820065e+01 4.415505e+01 1.057743e+01 2.262918e+01 1.832870e+01 1.899872e+01 1.147578e+01 2.566086e+01 1.496641e+01 2.048822e+01 6.360517e-01 2.921775e+00 4.402062e+00 2.905998e+00 2.864961e+00 2.792437e+00 9.813484e-01 1.779606e+00 3.215232e+00 2.436943e+00 2.183071e+00 2.067873e+00 5.758661e-01
<GCONST> 8.960276e+01
<MIXTURE> 12 7.722242e-02
<MEAN> 25
 6.826468e+00 2.397026e+00 -7.333949e+00 4.551257e+00 3.252779e+00 -1.767688e+00 -6.882627e+00 2.408180e+00 2.748501e+00 -5.580906e+00 -5.471384e+00 -7.584974e+00 -1.845369e+00 -6.313113e-01 6.528233e-02 -4.141624e-01 2.771676e-01 -4.552417e-01 -6.218366e-02 -2.229729e-03 3.721939e-03 -3.911266e-01 1.914352e+00 1.061539e+00 -8.063150e-01
<VARIANCE> 25
 7.349215e+00 2.117053e+01 1.415438e+01 2.316125e+01 2.788293e+01 3.937015e+01 1.706195e+01 4.045321e+01 1.671065e+01 2.690995e+01 2.042160e+01 1.699710e+01 9.741431e-01 2.200665e+00 1.201878e+00 3.361580e+00 1.883106e+00 1.628689e+00 2.961143e+00 3.567985e+00 1.993083e+00 1.558332e+00 1.836637e+00 2.642012e+00 8.679292e-01
<GCONST> 9.049110e+01
<MIXTURE> 13 5.887086e-02
<MEAN> 25
 1.138613e+01 1.067033e+00 -1.216024e+01 -3.859486e-01 4.253743e+00 -1.703806e+00 -8.580003e+00 -4.194048e+00 4.329085e+00 5.972847e+00 -2.733116e-01 -1.080401e+01 1.441014e+00 -5.208523e+00 -3.737495e+00 -2.340637e+00 3.178374e+00 -7.037207e-01 -1.931352e+00 1.922814e+00 1.923346e+00 2.289033e+00 -1.930292e+00 -1.012618e+00 3.171602e+00
<VARIANCE> 25
 4.958760e+00 2.523637e+01 1.723122e+01 7.546205e+00 9.933775e+00 1.882570e+01 1.047380e+01 2.823953e+01 8.205274e+00 1.110807e+01 1.858958e+01 8.892303e+00 3.929487e-01 1.129621e+00 2.530361e+00 2.651373e+00 5.460146e+00 4.176468e+00 2.520682e+00 8.702745e+00 6.167742e+00 5.752279e+00 2.892608e+00 4.674342e+00 3.341134e-01
<GCONST> 8.856838e+01
<TRANSP> 5
 0.000000e+00 1.000000e+00 0.000000e+00 0.000000e+00 0.000000e+00
 0.000000e+00 7.850679e-01 2.149321e-01 0.000000e+00 0.000000e+00
 0.000000e+00 0.000000e+00 5.733255e-01 4.266745e-01 0.000000e+00
 0.000000e+00 0.000000e+00 0.000000e+00 5.925336e-01 4.074663e-01
 0.000000e+00 0.000000e+00 0.000000e+00 0.000000e+00 0.000000e+00
<ENDHMM>
~h "d"
<BEGINHMM>
<NUMSTATES> 5
<STATE> 2
<NUMMIXES> 13
<MIXTURE> 1 5.505307e-02
<MEAN> 25
 7.635719e-01 1.085892e+01 3.794923e+00 9.146458e+00 -2.464113e+00 -2.216864e+00 1.227207e+00 8.659097e-01 -7.773972e-01 -2.151937e+00 4.490242e+00 -1.428736e+00 -7.631977e-01 4.678851e-03 -5.147872e-01 1.571629e-01 1.054525e+00 4.600258e-01 -6.951712e-01 2.259596e-01 9.069684e-01 5.455638e-01 9.510282e-01 8.307821e-02 -7.027833e-01
<VARIANCE> 25
 3.074460e+01 2.217889e+01 1.679103e+01 1.758085e+01 3.954631e+01 2.416086e+01 1.867605e+01 1.489220e+01 2.730283e+01 2.686913e+01 9.650823e+00 1.281813e+01 9.953009e-01 1.616218e+00 8.139393e-01 8.349927e-01 1.607242e+00 2.498563e+00 1.748906e+00 1.372028e+00 1.058609e+00 1.376761e+00 1.317089e+00 1.546663e+00 6.349239e-01
<GCONST> 8.505423e+01
<MIXTURE> 2 6.833480e-02
<MEAN> 25
 9.483584e+00 5.072469e+00 -4.304937e+00 6.433353e+00 9.356986e-02 -6.621202e+00 -1.355095e+00 6.387805e+00 2.411054e+00 -5.163622e+00 -3.552547e+00 6.702414e-01 -4.133249e-01 2.665662e+00 2.118078e-01 1.572628e+00 4.930628e-01 1.096854e+00 -1.397819e-01 3.198640e-01 5.985429e-01 -1.262867e+00 1.277737e+00 -9.430857e-01 -1.929499e+00
<VARIANCE> 25
 4.331123e+00 1.424226e+01 1.328861e+01 1.686392e+01 2.854458e+01 1.306768e+01 2.288129e+01 1.137321e+01 2.453540e+01 1.889493e+01 2.553859e+01 2.130375e+01 1.734188e-01 8.347840e-01 9.007536e-01 8.403204e-01 1.856868e+00 2.480905e+00 1.679190e+00 1.469223e+00 1.166721e+00 1.663497e+00 1.144244e+00 1.680628e+00 2.406722e-01
<GCONST> 7.951447e+01
<MIXTURE> 3 9.722291e-02
<MEAN> 25
 7.880239e+00 1.245792e+01 1.226955e+00 3.059341e+00 -5.811617e+00 2.134975e+00 1.930340e+00 -3.786552e+00 -1.787565e+00 -5.928085e+00 -3.730981e+00 -4.785775e+00 -6.489357e-01 1.059143e+00 2.401047e-01 7.789746e-01 1.230854e+00 -8.618885e-01 -7.911431e-01 1.166635e+00 7.485575e-02 -4.993105e-01 1.361783e+00 3.287058e-01 -9.125427e-01
<VARIANCE> 25
 6.499802e+00 1.092848e+01 1.529930e+01 1.577172e+01 1.183258e+01 1.339756e+01 1.382345e+01 2.487715e+01 2.014150e+01 2.379570e+01 3.319064e+01 1.396936e+01 4.144853e-01 9.034785e-01 8.372759e-01 1.037163e+00 1.121650e+00 1.224631e+00 2.207608e+00 1.930837e+00 1.476105e+00 1.769782e+00 1.289897e+00 1.657954e+00 3.219015e-01
<GCONST> 8.014462e+01
<MIXTURE> 4 9.646042e-02
<MEAN> 25
 5.786559e+00 5.237678e-01 8.427157e+00 -1.582621e-01 -9.125876e+00 -3.820067e+00 9.184771e-01 -5.922957e+00 -7.725413e+00 -1.638464e+00 -4.770206e+00 -2.997590e-01 3.828261e-02 2.959734e+00 -6.342930e-01 2.985258e+00 1.304641e-01 1.852389e+00 1.130318e-01 -1.005314e+00 8.299076e-02 -2.201935e+00 -2.281068e-01 -1.736452e+00 -2.355454e+00
<VARIANCE> 25
 4.054726e+00 2.199205e+01 1.402762e+01 2.949286e+01 1.557727e+01 2.588068e+01 1.744436e+01 3.235058e+01 1.455409e+01 2.180735e+01 2.100818e+01 2.169947e+01 2.156649e-01 4.004160e-01 9.115505e-01 1.133995e+00 1.073668e+00 1.464211e+00 1.690327e+00 2.687770e+00 1.215215e+00 1.511242e+00 1.522511e+00 1.621772e+00 1.439277e-01
<GCONST> 7.980314e+01
<MIXTURE> 5 7.247914e-02
<MEAN> 25
 8.311759e+00 4.200984e+00 -6.623291e-02 9.272943e+00 -4.187859e+00 -4.949720e-01 2.908240e+00 -5.275608e+00 -6.212681e+00 -8.938018e+00 -7.733617e+00 -4.222030e+00 -3.971382e-01 1.809958e+00 -1.929520e-01 3.889157e-01 7.873520e-01 4.976700e-01 -1.998162e-01 9.149174e-01 -9.581751e-03 -6.639681e-01 1.383279e+00 -6.145777e-01 -1.228055e+00
<VARIANCE> 25
 2.433017e+00 1.155563e+01 1.887512e+01 1.067857e+01 1.974051e+01 2.559751e+01 2.240602e+01 2.016420e+01 1.538953e+01 1.871209e+01 1.851989e+01 1.369505e+01 2.911403e-01 4.643837e-01 5.516558e-01 1.135461e+00 1.465828e+00 1.700885e+00 1.448469e+00 1.121996e+00 1.292493e+00 1.087852e+00 2.117419e+00 2.088949e+00 2.174311e-01
<GCONST> 7.735863e+01
<MIXTURE> 6 8.875003e-02
<MEAN> 25
 7.939113e+00 1.243893e+01 -2.160636e+00 5.818515e+00 1.357909e+00 -2.711804e+00 -4.024690e+00 1.917151e+00 1.821081e+00 -5.271036e+00 -1.764230e+00 -3.493997e+00 -1.163677e+00 5.071146e-01 1.105345e+00 1.044047e+00 -4.793268e-02 3.003793e-01 -1.219732e-01 -1.005071e+00 -5.486633e-01 -9.510861e-02 1.437846e+00 2.576920e-02 -9.535873e-01
<VARIANCE> 25
 3.499904e+00 1.020438e+01 9.321175e+00 8.733281e+00 2.572862e+01 1.748123e+01 2.546919e+01 2.559221e+01 1.654175e+01 3.237843e+01 2.358348e+01 2.709579e+01 3.260454e-01 1.623618e+00 7.850771e-01 1.547885e+00 1.750147e+00 1.178179e+00 1.291334e+00 1.620933e+00 1.906926e+00 2.862465e+00 1.817532e+00 2.026265e+00 3.059710e-01
<GCONST> 8.209148e+01
<MIXTURE> 7 9.122959e-02
<MEAN> 25
 8.613836e+00 -6.246887e+00 -2.013773e+00 -2.069006e+00 -1.342648e-01 -1.011181e+01 -9.405799e-01 4.886167e+00 4.925339e-01 -1.466346e+00 -7.158292e+00 5.352010e+00 3.369372e-01 3.046586e+00 1.406500e-01 2.368514e+00 -9.836071e-01 -5.106909e-01 -1.279921e+00 -8.974071e-01 2.564916e-01 -5.066744e-01 1.351292e+00 -5.837262e-02 -2.036546e+00
<VARIANCE> 25
 3.939042e+00 3.188572e+01 2.491881e+01 3.235551e+01 3.399414e+01 2.379889e+01 4.458157e+01 3.487597e+01 4.020387e+01 3.508701e+01 2.345067e+01 2.060542e+01 1.306388e-01 4.840835e-01 4.845941e-01 1.023160e+00 1.120220e+00 2.648113e+00 2.715599e+00 1.133569e+00 1.919239e+00 2.254345e+00 1.643621e+00 1.470347e+00 2.117154e-01
<GCONST> 8.449369e+01
<MIXTURE> 8 1.033907e-01
<MEAN> 25
 5.499982e+00 7.964885e+00 7.233653e+00 4.126629e+00 -1.244266e+01 1.088310e+00 4.127560e+00 -9.724617e+00 -3.913021e+00 -2.288711e+00 -4.308071e+00 -3.464465e+00 -4.433964e-01 1.535173e+00 -3.711949e-01 9.029279e-01 1.022085e+00 -7.868674e-03 -1.122810e-01 8.252722e-01 3.400232e-01 -4.533657e-01 8.146839e-01 -7.422881e-01 -1.222212e+00
<VARIANCE> 25
 7.833412e+00 1.309811e+01 1.006038e+01 1.802835e+01 9.681454e+00 1.453817e+01 2.429788e+01 5.075928e+01 2.154736e+01 3.276506e+01 2.383801e+01 1.555310e+01 3.619107e-01 7.839982e-01 6.532606e-01 1.000740e+00 1.813194e+00 1.116413e+00 2.108505e+00 1.457319e+00 1.738563e+00 1.769917e+00 1.373437e+00 1.614991e+00 3.887949e-01
<GCONST> 8.143696e+01
<MIXTURE> 9 6.180969e-02
<MEAN> 25
 6.552415e+00 2.624705e+00 5.808710e+00 3.766717e+00 -8.299934e+00 -1.207658e-01 1.960475e+00 -7.039204e+00 -6.124939e+00 -6.955122e+00 -9.732232e+00 -3.515710e+00 -4.944424e-02 1.514643e+00 -6.894791e-01 1.594213e+00 1.942589e-01 1.185084e+00 2.303110e-02 -5.711414e-01 3.646975e-01 -1.277045e+00 3.887686e-01 -1.075100e+00 -1.273882e+00
<VARIANCE> 25
 7.279919e+00 1.018892e+01 2.575990e+01 2.287014e+01 1.846196e+01 3.416748e+01 2.318576e+01 4.250058e+01 1.824784e+01 1.857473e+01 3.039832e+01 4.536606e+01 2.234472e-01 5.898784e-01 7.281923e-01 9.005274e-01 2.353523e+00 1.655417e+00 2.148354e+00 3.054768e+00 1.668926e+00 1.638642e+00 2.764233e+00 2.831984e+00 7.960051e-02
<GCONST> 8.435307e+01
<MIXTURE> 10 6.782636e-02
<MEAN> 25
 3.709665e+00 7.451624e+00 -3.021219e+00 8.479304e+00 1.992811e+00 -2.542186e+00 -1.916651e+00 2.374572e+00 -5.155557e-01 -9.084970e+00 -2.335188e+00 -4.036676e+00 -1.547345e+00 4.670321e-01 5.782578e-01 1.443054e-01 6.269640e-01 8.576116e-01 9.819008e-02 -1.843848e-01 -2.212284e-03 -3.012344e-01 3.929973e-01 -3.244451e-01 -1.104405e+00
<VARIANCE> 25
 1.316194e+01 2.209017e+01 2.804761e+01 1.435649e+01 2.374953e+01 4.547170e+01 2.950149e+01 3.004096e+01 3.946692e+01 1.887060e+01 1.815056e+01 1.614334e+01 4.291742e-01 1.355066e+00 1.114567e+00 7.446734e-01 1.549837e+00 1.570797e+00 2.248377e+00 2.327757e+00 2.384167e+00 1.657555e+00 2.358385e+00 1.862850e+00 3.453631e-01
<GCONST> 8.729002e+01
<MIXTURE> 11 7.511223e-02
<MEAN> 25
 7.853192e+00 -5.403864e+00 1.199379e+00 -1.327624e-01 -2.120179e+00 -1.125189e+01 -2.745758e+00 3.643610e+00 -1.935745e+00 -5.918275e+00 -8.173029e+00 5.129871e+00 1.742588e-01 3.025486e+00 -4.602998e-01 3.231860e+00 -2.335543e-01 1.327099e+00 -5.351356e-01 -1.221628e+00 -6.451855e-01 -1.376180e+00 4.147479e-03 -1.974137e+00 -2.551839e+00
<VARIANCE> 25
 2.554889e+00 1.722232e+01 8.898241e+00 2.871933e+01 2.467396e+01 2.010251e+01 2.162890e+01 2.549622e+01 3.444159e+01 2.422135e+01 1.926291e+01 2.592520e+01 1.510287e-01 3.712094e-01 5.185503e-01 7.461916e-01 1.611573e+00 2.025884e+00 1.247633e+00 1.877662e+00 2.739326e+00 2.036424e+00 1.839391e+00 1.889783e+00 1.025093e-01
<GCONST> 7.962436e+01
<MIXTURE> 12 6.497432e-02
<MEAN> 25
 8.352705e+00 8.723675e-01 -2.203956e+00 5.799335e+00 -1.065995e+00 -7.030250e+00 -1.362489e+00 3.460279e+00 -1.029548e+00 -6.535960e+00 -6.123840e+00 6.538879e-01 -3.656527e-01 1.994883e+00 -6.423980e-01 1.902291e+00 -9.706165e-02 1.436411e+00 6.521440e-01 -3.126647e-01 -4.553640e-01 -1.516788e+00 8.186026e-01 -1.768114e+00 -1.990501e+00
<VARIANCE> 25
 4.306738e+00 1.567600e+01 1.489640e+01 1.495983e+01 1.922013e+01 2.708971e+01 2.979452e+01 2.839783e+01 2.265853e+01 3.683102e+01 1.369831e+01 2.583741e+01 2.050966e-01 7.366805e-01 1.031855e+00 6.899084e-01 1.970415e+00 1.918970e+00 2.725239e+00 2.260102e+00 1.344047e+00 2.783503e+00 1.764967e+00 1.603533e+00 2.119898e-01
<GCONST> 8.288425e+01
<MIXTURE> 13 5.735709e-02
<MEAN> 25
 6.821526e-01 9.858360e+00 2.242275e+00 8.042242e+00 -9.851419e-01 -2.573055e+00 -2.901889e+00 -1.784420e+00 -6.701590e-01 -2.531326e+00 2.760864e+00 -6.112289e-01 -1.447878e+00 -1.213224e+00 -5.352964e-01 -1.226727e-01 1.451334e-01 5.522721e-02 3.611006e-01 2.602293e-01 6.121784e-01 5.936178e-01 1.226537e+00 2.531647e-01 -4.857581e-01
<VARIANCE> 25
 2.591493e+01 2.853117e+01 2.169060e+01 1.100969e+01 2.332981e+01 3.398407e+01 3.281504e+01 2.986081e+01 2.657892e+01 1.881817e+01 2.509355e+01 2.759216e+01 6.483738e-01 1.462302e+00 1.654167e+00 9.754160e-01 1.633272e+00 3.408593e+00 2.438639e+00 1.952193e+00 1.810801e+00 1.737380e+00 1.775606e+00 2.832954e+00 6.333349e-01
<GCONST> 9.035380e+01
<STATE> 3
<NUMMIXES> 13
<MIXTURE> 1 5.321184e-02
<MEAN> 25
 -7.976566e+00 4.240114e+00 -1.814384e+00 7.578874e+00 2.940707e+00 3.366627e+00 6.539651e-01 2.759338e+00 4.315164e+00 -5.946344e-01 6.857520e+00 1.071868e+00 3.140196e-01 -2.720907e+00 -1.259745e+00 -1.163476e+00 -6.484795e-01 -1.335715e+00 2.239393e+00 -1.870713e+00 3.506335e-02 7.443983e-01 1.544292e+00 1.079602e-01 2.708454e+00
<VARIANCE> 25
 7.574925e+00 4.232082e+00 8.319401e+00 1.560073e+01 2.109566e+01 1.208594e+01 2.134900e+01 1.351055e+01 1.433458e+01 1.270622e+01 9.819141e+00 8.540951e+00 2.088514e+00 4.181451e+00 3.486525e+00 2.926827e+00 4.469640e+00 4.365552e+00 3.814116e+00 4.809891e+00 2.893371e+00 3.405226e+00 3.994188e+00 2.948575e+00 2.138979e+00
<GCONST> 9.100453e+01
<MIXTURE> 2 4.910600e-02
<MEAN> 25
 4.113918e+00 1.285552e+01 5.371465e+00 6.557592e+00 -3.318487e+00 3.322082e+00 -7.936286e-01 -4.131608e+00 1.478766e+00 -3.106078e+00 -2.301489e+00 -2.903496e+00 -1.513810e+00 -1.796492e+00 -8.639140e-01 -1.625142e-01 1.919421e+00 -1.962437e+00 1.972050e-01 8.531123e-01 -5.831320e-01 1.539689e-01 3.357378e+00 7.773800e-01 5.540559e-01
<VARIANCE> 25
 9.172308e+00 6.858935e+00 1.758254e+01 9.557736e+00 2.073675e+01 2.648595e+01 3.609755e+01 1.849970e+01 1.823106e+01 1.611044e+01 2.003365e+01 1.814196e+01 1.272789e+00 4.250591e+00 9.659286e+00 4.538528e+00 7.053045e+00 6.122176e+00 9.336274e+00 2.746804e+00 3.288503e+00 1.983888e+00 5.194919e+00 1.699620e+00 1.205724e+00
<GCONST> 9.632284e+01
<MIXTURE> 3 8.241940e-02
<MEAN> 25
 1.315343e+00 9.258691e+00 2.341484e+00 8.001239e+00 -3.400047e+00 -5.875603e+00 -2.859375e+00 1.386228e+00 2.730745e+00 4.171811e-01 4.057352e+00 9.006755e-01 -1.598623e+00 -4.013226e+00 -1.403340e+00 -6.211923e-01 3.387262e-01 1.397131e+00 1.906692e+00 -2.497327e+00 8.853925e-02 6.573920e-01 2.992948e+00 -2.490232e-01 1.527611e+00
<VARIANCE> 25
 1.147514e+01 2.264189e+01 1.084226e+01 1.421266e+01 4.399577e+01 1.979702e+01 2.681994e+01 1.647676e+01 2.522370e+01 4.641121e+01 1.870949e+01 1.382337e+01 5.064549e-01 2.707034e+00 2.764590e+00 3.287984e+00 5.926022e+00 3.218353e+00 8.140475e+00 6.007007e+00 3.227371e+00 7.020150e+00 2.719928e+00 3.024509e+00 1.272126e+00
<GCONST> 9.685511e+01
<MIXTURE> 4 7.764492e-02
<MEAN> 25
 7.507796e+00 5.039153e-01 -2.126648e+00 3.334466e+00 -1.183979e+00 -6.855221e+00 -4.552822e+00 2.312625e+00 7.339803e-01 -5.864827e+00 -6.306065e+00 7.974825e-01 -6.028522e-01 9.335561e-01 -5.411716e-01 1.272266e+00 -8.805153e-02 8.322417e-01 4.301257e-01 -1.004758e+00 4.058347e-01 1.972327e-01 1.017441e+00 -9.684557e-01 -1.304307e+00
<VARIANCE> 25
 5.090142e+00 2.798054e+01 2.106697e+01 2.769693e+01 4.734719e+01 2.208840e+01 2.064586e+01 3.518282e+01 4.661687e+01 4.737667e+01 2.198420e+01 2.460506e+01 5.485316e-01 2.357111e+00 9.836729e-01 2.444926e+00 1.812657e+00 3.086562e+00 1.795407e+00 2.571796e+00 2.029665e+00 1.389893e+00 1.771641e+00 3.647091e+00 1.174346e+00
<GCONST> 9.225858e+01
<MIXTURE> 5 1.241835e-01
<MEAN> 25
 3.792094e+00 4.655942e+00 -5.395932e+00 8.543869e+00 3.497963e+00 -1.788233e+00 9.955299e-01 4.952778e+00 7.320378e-01 -8.140119e+00 -4.650275e-01 -2.085868e+00 -1.526959e+00 -2.022476e+00 6.760039e-01 -1.492293e+00 -5.102173e-01 4.676881e-01 1.050733e+00 -2.514015e+00 4.511078e-01 1.382722e+00 1.951171e+00 3.526332e-01 1.200078e+00
<VARIANCE> 25
 1.349673e+01 2.866172e+01 1.524045e+01 1.017270e+01 2.339525e+01 2.095146e+01 1.549682e+01 1.359522e+01 2.003933e+01 2.283308e+01 1.782352e+01 1.420706e+01 1.282961e+00 4.263774e+00 2.884747e+00 2.147533e+00 4.149966e+00 3.582502e+00 3.185525e+00 4.783395e+00 5.529531e+00 2.613207e+00 4.335231e+00 3.179277e+00 9.466032e-01
<GCONST> 9.433910e+01
<MIXTURE> 6 5.555297e-02
<MEAN> 25
 5.097181e+00 7.945186e+00 3.839894e+00 9.473782e+00 -4.123796e+00 1.893043e-01 9.515437e-01 -6.818240e+00 -6.943749e+00 -9.430336e+00 -2.159009e+00 -4.686857e+00 -1.313161e+00 -2.774043e+00 -1.283430e+00 -1.623127e+00 1.496969e+00 -2.405077e+00 6.917318e-01 1.201941e+00 2.244507e+00 7.037933e-01 3.976766e+00 1.366711e+00 2.507495e+00
<VARIANCE> 25
 1.123170e+01 1.665260e+01 1.628651e+01 2.230935e+01 2.169326e+01 1.479355e+01 6.490642e+00 3.031968e+01 1.797308e+01 2.169908e+01 1.741025e+01 1.592832e+01 2.642081e+00 2.403560e+00 3.009278e+00 1.240443e+00 3.999896e+00 3.775998e+00 5.422303e+00 4.527927e+00 4.022244e+00 4.234663e+00 3.225579e+00 3.015414e+00 6.417935e-01
<GCONST> 9.346613e+01
<MIXTURE> 7 1.119758e-01
<MEAN> 25
 6.039655e+00 1.990455e+00 -8.464165e-01 9.071682e+00 -5.213802e+00 -4.513229e+00 1.062602e+00 -1.392672e+00 -5.243696e+00 -1.048371e+01 -4.523080e+00 -5.399326e-01 -1.505365e+00 -1.689691e-01 -6.775589e-01 -1.872276e-01 1.476174e+00 7.452605e-01 4.054953e-01 -1.126486e-01 9.439142e-01 1.779740e-01 2.894643e+00 -3.720695e-01 -4.263635e-01
<VARIANCE> 25
 6.571199e+00 1.583449e+01 1.486767e+01 1.287093e+01 2.377787e+01 2.415777e+01 1.705030e+01 5.401093e+01 2.719759e+01 4.208975e+01 4.751274e+01 2.190691e+01 5.816580e-01 7.275862e-01 1.670954e+00 1.514058e+00 2.194389e+00 2.176843e+00 2.514515e+00 2.965046e+00 3.094181e+00 2.761885e+00 2.802922e+00 2.523360e+00 8.582777e-01
<GCONST> 9.060535e+01
<MIXTURE> 8 7.027154e-02
<MEAN> 25
 5.123475e+00 6.251267e+00 1.967211e-01 9.102628e+00 5.983334e-01 -1.304955e+00 -8.272074e-02 -3.441977e+00 -4.646733e+00 -5.109275e+00 1.305663e+00 -4.496822e+00 -9.659065e-01 -2.116827e+00 1.921057e+00 -2.497467e+00 -2.363659e+00 -3.102009e-01 1.258469e+00 -2.174501e+00 6.306045e-01 2.459009e+00 1.568255e+00 9.975076e-01 1.959159e+00
<VARIANCE> 25
 1.087531e+01 1.707749e+01 2.063144e+01 8.961741e+00 4.329388e+01 2.505543e+01 3.049895e+01 2.304772e+01 1.679499e+01 5.164397e+01 2.117085e+01 1.741234e+01 1.341001e+00 2.471796e+00 4.207614e+00 1.488950e+00 6.168880e+00 2.569657e+00 3.609576e+00 5.127337e+00 3.515000e+00 8.961799e+00 4.462401e+00 3.704447e+00 8.782623e-01
<GCONST> 9.745082e+01
<MIXTURE> 9 1.097881e-01
<MEAN> 25
 3.984786e+00 1.500261e+01 2.852923e+00 7.806827e+00 1.066984e+00 -1.892347e+00 -5.077254e+00 -3.068879e+00 -4.592293e-01 -5.577961e+00 -6.489940e-01 -4.169908e+00 -2.067704e+00 -4.180919e+00 7.245591e-02 6.685372e-02 -9.585982e-02 -3.879517e-01 2.470699e+00 -1.558367e+00 -6.141910e-01 7.265641e-01 2.313415e+00 4.947593e-02 1.766358e+00
<VARIANCE> 25
 5.812676e+00 7.202055e+00 1.317755e+01 1.738521e+01 1.974087e+01 1.249010e+01 1.689816e+01 1.620958e+01 2.485463e+01 2.181428e+01 1.772507e+01 1.757609e+01 9.481121e-01 1.685530e+00 3.152326e+00 3.848632e+00 4.534164e+00 3.470219e+00 3.550542e+00 3.396445e+00 3.791890e+00 5.109603e+00 2.554637e+00 2.170007e+00 1.221708e+00
<GCONST> 9.136024e+01
<MIXTURE> 10 8.598743e-02
<MEAN> 25
 -6.178335e-01 4.332019e+00 -4.917301e-01 9.366590e+00 -6.500176e-01 -1.518110e+00 -1.612972e+00 -2.370257e+00 -1.919774e+00 -2.557544e+00 6.947049e+00 -1.622510e+00 -8.205658e-01 -3.882060e+00 -1.959555e+00 -1.431453e+00 3.544756e-01 -7.810654e-01 9.574516e-01 -1.008480e-01 1.272547e+00 -3.544560e-01 1.729912e+00 1.297844e+00 2.254375e+00
<VARIANCE> 25
 1.204849e+01 3.833248e+01 2.731306e+01 1.072768e+01 2.102908e+01 2.425778e+01 1.641094e+01 2.074809e+01 2.328427e+01 1.398170e+01 1.389686e+01 1.748236e+01 1.633870e+00 4.195542e+00 8.619176e-01 3.099196e+00 3.063962e+00 7.506634e+00 2.428864e+00 5.422975e+00 3.173085e+00 3.574393e+00 5.122423e+00 4.142184e+00 1.662881e+00
<GCONST> 9.571877e+01
<MIXTURE> 11 5.574073e-02
<MEAN> 25
 2.978571e+00 6.765766e+00 8.902286e+00 5.927198e+00 -1.004274e+01 -2.102203e+00 1.027825e+00 -7.795404e+00 -6.627395e+00 -3.541769e+00 -2.854204e+00 -4.037355e+00 -6.673147e-01 -1.818796e+00 -2.605893e+00 -3.401743e-01 2.160435e+00 -8.245789e-01 -9.046969e-02 7.314135e-01 1.787079e+00 -1.393726e+00 2.921521e+00 6.909681e-01 8.402776e-01
<VARIANCE> 25
 1.252232e+01 2.160901e+01 1.705536e+01 2.000437e+01 1.071973e+01 1.681065e+01 2.940703e+01 2.195012e+01 1.334548e+01 3.553389e+01 2.581335e+01 1.537520e+01 1.295006e+00 1.803280e+00 1.681837e+00 1.151040e+00 3.064291e+00 3.453650e+00 3.722008e+00 7.042870e+00 3.104472e+00 5.746757e+00 1.738692e+00 2.894541e+00 4.792967e-01
<GCONST> 9.208559e+01
<MIXTURE> 12 6.046044e-02
<MEAN> 25
 5.402546e+00 1.260494e+01 4.049172e+00 5.481073e+00 -5.884856e+00 -3.359081e-01 7.817573e-01 -4.296876e+00 -2.290429e+00 -5.761163e+00 -2.568427e+00 -4.043364e+00 -1.691909e+00 -2.196475e+00 -8.027506e-01 3.614174e-01 2.941928e+00 -1.621405e+00 -6.311771e-01 1.684193e-01 9.971712e-01 7.254866e-02 2.946944e+00 2.058887e-01 8.621613e-01
<VARIANCE> 25
 1.025135e+01 5.168527e+00 1.226533e+01 5.990025e+00 1.186393e+01 1.701178e+01 1.210493e+01 2.322686e+01 1.730264e+01 1.290082e+01 1.642941e+01 1.282718e+01 1.069186e+00 2.728263e+00 2.870743e+00 2.052846e+00 3.866835e+00 1.951027e+00 3.122769e+00 3.980854e+00 2.802033e+00 2.240489e+00 2.411897e+00 1.454448e+00 1.277749e+00
<GCONST> 8.664147e+01
<MIXTURE> 13 6.365800e-02
<MEAN> 25
 4.852028e+00 4.287234e+00 2.997433e+00 8.571072e+00 -2.103601e+00 6.997375e-01 3.087254e+00 -8.063821e+00 -7.437115e+00 -7.435045e+00 3.513441e-01 -7.656037e+00 -1.384268e+00 -2.281164e+00 1.784459e+00 -3.325622e+00 -1.112513e+00 -2.682163e-01 -2.631047e-02 -1.763411e+00 7.388374e-01 2.134681e+00 2.642936e+00 2.339017e-02 2.292659e+00
<VARIANCE> 25
 1.073634e+01 1.611708e+01 2.364467e+01 1.364444e+01 2.844061e+01 2.869121e+01 2.750477e+01 2.792819e+01 2.761220e+01 3.421216e+01 2.942522e+01 1.028178e+01 1.229118e+00 1.542635e+00 2.211405e+00 1.979953e+00 3.363802e+00 3.773468e+00 3.228182e+00 5.365081e+00 3.774566e+00 2.609748e+00 6.441161e+00 2.174891e+00 5.173721e-01
<GCONST> 9.456599e+01
<STATE> 4
<NUMMIXES> 13
<MIXTURE> 1 5.340088e-02
<MEAN> 25
 -9.827070e-01 2.475080e+00 -6.391460e-01 3.554287e+00 6.159530e-01 -1.152286e+01 2.972141e+00 -1.067780e+00 3.842724e+00 -3.202298e+00 6.062150e+00 5.942421e+00 1.935907e+00 1.626422e-01 -7.506799e-01 -1.271938e+00 2.449385e-01 -2.716408e+00 -1.259508e+00 5.732545e-01 5.165345e-01 9.517114e-01 -1.309837e+00 1.809555e+00 1.105472e+00
<VARIANCE> 25
 2.390190e+01 4.124978e+01 2.756966e+01 4.359073e+01 3.206447e+01 3.607264e+01 5.601486e+01 3.307357e+01 2.785076e+01 3.376765e+01 2.941169e+01 1.955561e+01 3.700892e+00 2.191913e+00 4.860687e+00 2.858595e+00 3.854043e+00 5.817250e+00 1.223894e+01 3.314739e+00 3.186575e+00 4.246427e+00 5.016659e+00 2.568889e+00 9.000788e-01
<GCONST> 1.043045e+02
<MIXTURE> 2 7.288041e-02
<MEAN> 25
 2.884478e+00 4.120201e+00 5.508689e+00 2.368925e+00 -1.158401e+01 -2.327960e+00 6.685959e+00 -1.225960e+01 2.590208e-01 -1.833913e-01 5.953598e+00 -2.830693e+00 1.411571e+00 4.697230e-01 3.673271e+00 -4.424238e+00 -3.392791e+00 6.980351e-01 -1.679685e+00 -2.320408e+00 8.054984e-01 1.955560e+00 -3.536922e+00 1.987575e+00 2.152743e+00
<VARIANCE> 25
 1.610824e+01 1.217775e+01 1.378391e+01 1.759850e+01 2.785811e+01 2.567651e+01 3.548330e+01 3.567451e+01 1.537117e+01 2.302155e+01 5.240807e+01 2.519274e+01 2.338890e+00 3.344638e+00 3.929501e+00 3.739157e+00 3.529118e+00 2.569412e+00 3.808831e+00 3.921480e+00 3.797892e+00 3.261622e+00 4.793911e+00 1.068672e+00 1.180306e+00
<GCONST> 9.745706e+01
<MIXTURE> 3 7.177751e-02
<MEAN> 25
 5.534566e+00 -4.320357e-01 -1.907136e+00 1.731372e+00 -2.058718e+00 -1.096346e+01 -9.905794e-01 6.251994e-01 2.989139e+00 -5.821157e+00 -6.199666e-01 5.052197e+00 1.149958e+00 -2.585408e+00 3.236632e-01 -2.594350e+00 -1.557349e+00 -2.284752e+00 -4.021698e-01 1.247532e+00 8.461477e-01 1.335137e+00 -2.286505e+00 2.949555e+00 2.567711e+00
<VARIANCE> 25
 1.245073e+01 2.806494e+01 1.142668e+01 2.447375e+01 2.784593e+01 4.168243e+01 3.449744e+01 1.165896e+01 1.988009e+01 3.077773e+01 3.076762e+01 1.935681e+01 5.240593e-01 1.394624e+00 1.203968e+00 1.284456e+00 2.407775e+00 3.665823e+00 1.172058e+00 3.719358e+00 3.171882e+00 3.054700e+00 2.444316e+00 2.016445e+00 4.375463e-01
<GCONST> 9.010856e+01
<MIXTURE> 4 7.223274e-02
<MEAN> 25
 5.350552e+00 -2.448598e+00 6.213524e+00 -1.908683e+00 -1.008326e+01 -8.852780e+00 2.747487e+00 -7.613194e+00 -3.783587e+00 2.014055e+00 2.341173e+00 1.903333e+00 7.075464e-01 -2.061177e+00 2.961341e+00 -4.290757e+00 -1.881186e+00 -2.393634e+00 -2.197798e-01 6.521091e-01 -9.260094e-01 3.513029e+00 -2.077500e+00 2.050553e+00 2.828966e+00
<VARIANCE> 25
 6.699230e+00 1.258398e+01 1.416949e+01 2.474193e+01 1.708680e+01 2.080005e+01 2.424891e+01 3.331441e+01 2.270229e+01 2.126266e+01 1.632034e+01 1.468336e+01 8.444663e-01 3.022735e+00 2.453392e+00 1.782166e+00 2.351303e+00 2.714659e+00 3.358117e+00 4.130483e+00 3.085167e+00 2.605875e+00 3.459741e+00 2.874678e+00 9.198476e-01
<GCONST> 9.166088e+01
<MIXTURE> 5 7.196847e-02
<MEAN> 25
 -4.276524e-01 -3.552084e+00 -3.437341e-01 3.287114e+00 3.655109e+00 -2.720284e+00 3.271861e+00 -2.587301e+00 6.987597e-01 -2.716586e+00 5.260051e+00 -1.268718e-01 -3.569762e-01 -4.402145e+00 -2.868841e-01 -2.970037e+00 6.628422e-01 -2.245474e+00 8.777629e-01 1.393648e-01 1.216431e+00 1.611308e+00 1.775076e-01 1.647340e+00 3.888140e+00
<VARIANCE> 25
 1.612722e+01 3.635970e+01 2.125360e+01 2.477455e+01 3.901259e+01 4.697433e+01 4.528695e+01 3.446883e+01 2.045828e+01 2.439401e+01 4.171716e+01 2.529643e+01 1.672709e+00 9.100454e-01 2.024691e+00 2.708786e+00 3.344273e+00 2.950706e+00 3.627265e+00 5.328171e+00 2.940086e+00 4.814055e+00 5.589703e+00 3.144474e+00 8.285196e-01
<GCONST> 9.932941e+01
<MIXTURE> 6 9.541796e-02
<MEAN> 25
 1.412992e+00 -2.085712e+00 -3.601020e+00 5.161535e+00 -5.542441e-01 -2.243318e+00 7.118960e-01 6.265063e-01 2.027101e-01 -4.055197e+00 2.542015e+00 -3.710744e-01 -1.027151e+00 -3.536172e-01 -1.131718e-01 3.993579e-01 -1.595013e-02 -4.385453e-01 1.004788e+00 -7.526346e-01 1.838191e-01 2.121897e-01 1.600444e+00 2.298802e-01 -1.296689e-01
<VARIANCE> 25
 2.663523e+01 4.954264e+01 4.645531e+01 2.704057e+01 4.739188e+01 2.383448e+01 3.594749e+01 3.588819e+01 2.731193e+01 3.314996e+01 6.638799e+01 2.628682e+01 1.263869e+00 4.707231e+00 2.019666e+00 3.004543e+00 5.322960e+00 4.324558e+00 3.770406e+00 2.686517e+00 3.366514e+00 1.538818e+00 2.157125e+00 3.310105e+00 1.618789e+00
<GCONST> 1.018633e+02
<MIXTURE> 7 5.375535e-02
<MEAN> 25
 -4.697451e+00 -5.376159e+00 -3.275854e+00 2.183401e+00 -5.342894e-01 8.982641e-01 9.770666e+00 -6.418725e+00 -2.162891e-01 5.655826e-01 1.441673e+01 -2.806583e+00 1.370662e+00 -7.181759e-01 2.586197e+00 -3.215869e+00 -3.008545e+00 -9.674496e-01 1.030838e+00 -4.350997e+00 -4.709270e-01 2.269237e+00 -2.025452e-01 -4.470307e-01 3.648117e+00
<VARIANCE> 25
 1.160151e+01 4.383694e+01 2.322694e+01 3.048555e+01 2.746255e+01 4.452639e+01 2.848961e+01 5.586510e+01 3.453675e+01 3.667981e+01 3.694573e+01 2.393091e+01 2.688021e+00 4.834847e+00 3.455863e+00 3.435744e+00 4.230004e+00 5.360948e+00 2.994215e+00 3.212440e+00 3.271509e+00 3.046749e+00 7.434382e+00 2.113409e+00 2.117602e+00
<GCONST> 1.033794e+02
<MIXTURE> 8 9.943413e-02
<MEAN> 25
 7.678874e+00 -7.665371e+00 -2.186023e+00 -3.918743e+00 -9.302792e-01 -1.153376e+01 -3.043046e+00 5.577240e+00 2.670531e+00 -3.742820e+00 -6.158881e+00 5.415718e+00 7.934991e-01 -2.876885e+00 2.851905e-01 -3.162962e+00 9.542336e-01 -6.353734e-01 -2.983829e-01 3.020080e+00 7.248266e-02 1.154346e+00 -2.812511e+00 6.340287e-01 2.403970e+00
<VARIANCE> 25
 3.406891e+00 1.529285e+01 2.087996e+01 1.985227e+01 2.399743e+01 1.126802e+01 3.415122e+01 2.326632e+01 1.852891e+01 3.855779e+01 3.126315e+01 1.974686e+01 1.471658e+00 1.504738e+00 3.771843e+00 3.144842e+00 4.247004e+00 3.692569e+00 3.566197e+00 4.087518e+00 3.426650e+00 5.012185e+00 5.083471e+00 2.182882e+00 1.308665e+00
<GCONST> 9.542126e+01
<MIXTURE> 9 8.244985e-02
<MEAN> 25
 -4.228792e+00 -2.770030e+00 -4.879959e+00 3.450623e+00 3.549523e+00 -8.232882e+00 8.573405e+00 -7.952319e+00 6.697206e+00 -8.176134e+00 8.390471e+00 -5.142239e-02 1.053007e+00 -1.757864e+00 -1.273568e+00 -3.194098e+00 3.636116e-01 -2.902067e+00 9.034677e-02 -9.291610e-01 8.856508e-01 6.479676e-01 9.154629e-02 7.107946e-01 3.614888e+00
<VARIANCE> 25
 1.282586e+01 3.637595e+01 1.792029e+01 4.039075e+01 4.443924e+01 2.179283e+01 4.009638e+01 4.023473e+01 2.962504e+01 4.889606e+01 2.572235e+01 2.603270e+01 3.067155e+00 3.560213e+00 3.175999e+00 4.213815e+00 5.425143e+00 4.558834e+00 1.180992e+01 7.345119e+00 3.127893e+00 8.443170e+00 6.608864e+00 2.319042e+00 1.326199e+00
<GCONST> 1.056648e+02
<MIXTURE> 10 1.019952e-01
<MEAN> 25
 4.096354e+00 4.194790e-01 9.872286e+00 -6.750339e+00 -1.169028e+01 -1.304029e+00 1.370313e+00 -1.320747e+01 -2.985471e+00 3.511882e+00 -1.476490e+00 -2.826124e+00 3.285435e-01 -1.096940e+00 4.570463e+00 -5.411577e+00 -1.635660e+00 -1.228187e-01 -2.442221e+00 8.918224e-02 -1.521069e-01 2.831230e+00 -3.765067e+00 2.065795e+00 2.246511e+00
<VARIANCE> 25
 6.312128e+00 1.529561e+01 2.021759e+01 2.556886e+01 2.158585e+01 1.452533e+01 2.091257e+01 1.863244e+01 2.437025e+01 2.323477e+01 2.722846e+01 1.883234e+01 1.707026e+00 2.666705e+00 2.004823e+00 2.243061e+00 3.327394e+00 3.417711e+00 2.290397e+00 3.283624e+00 4.365188e+00 2.075787e+00 4.618837e+00 1.716386e+00 6.425118e-01
<GCONST> 9.235677e+01
<MIXTURE> 11 9.427734e-02
<MEAN> 25
 1.953053e-01 -2.196141e+00 2.182816e-01 2.621193e+00 -3.503264e+00 -7.811435e-03 6.773331e+00 -1.116032e+01 -1.021647e+00 -2.143768e+00 1.041647e+01 -5.882907e+00 1.162347e-01 -2.827434e+00 2.602851e+00 -4.629124e+00 -2.932599e+00 -7.269872e-01 3.441326e-01 -2.303274e+00 -1.944353e-01 2.652496e+00 -9.509829e-01 8.493845e-01 3.606834e+00
<VARIANCE> 25
 8.585708e+00 2.173017e+01 3.005107e+01 2.524062e+01 3.205468e+01 3.874698e+01 2.985635e+01 3.417571e+01 3.355786e+01 4.295908e+01 2.490215e+01 2.574712e+01 1.622856e+00 1.748349e+00 2.634317e+00 1.690642e+00 4.316844e+00 3.411134e+00 2.666614e+00 3.686245e+00 3.476882e+00 1.895900e+00 2.704798e+00 1.854275e+00 4.234816e-01
<GCONST> 9.574696e+01
<MIXTURE> 12 7.733157e-02
<MEAN> 25
 1.990900e+00 -3.171945e+00 -6.491020e-01 3.356797e+00 9.361576e-01 -3.593383e+00 1.540549e+00 -2.793262e+00 7.498114e-02 -5.215980e+00 4.627882e+00 -7.121037e-01 3.205112e-01 -4.458231e+00 -1.178153e+00 -3.603516e+00 4.229826e-01 -3.046737e+00 -6.652712e-02 2.035012e+00 1.296090e+00 5.118577e-01 -4.472010e-01 1.665988e+00 3.944929e+00
<VARIANCE> 25
 1.656357e+01 1.921726e+01 2.431445e+01 2.171315e+01 3.498447e+01 3.630075e+01 2.430191e+01 2.416377e+01 3.133040e+01 3.519135e+01 3.467120e+01 1.589699e+01 1.963161e+00 1.568768e+00 2.958330e+00 2.677218e+00 5.455497e+00 1.897054e+00 3.599257e+00 4.710615e+00 3.470728e+00 7.138662e+00 7.303867e+00 2.664951e+00 9.132264e-01
<GCONST> 9.926791e+01
<MIXTURE> 13 5.307793e-02
<MEAN> 25
 1.814998e+00 7.186593e-01 1.076910e+00 -2.915102e-02 5.670260e-01 -9.758499e+00 -2.463313e-01 -1.888095e+00 2.987383e-01 -4.993178e+00 1.109325e+00 2.431448e+00 1.729273e+00 -8.088202e-01 4.514676e-01 -2.017498e+00 7.400996e-02 -1.407841e+00 -3.066805e+00 9.141527e-01 -4.319399e-01 1.098250e+00 -1.778096e+00 5.242501e-01 1.376111e+00
<VARIANCE> 25
 2.593435e+01 2.288382e+01 5.904892e+01 4.966157e+01 3.122119e+01 1.213174e+02 4.504695e+01 3.221570e+01 3.204719e+01 2.931756e+01 5.566505e+01 4.112635e+01 5.033566e+00 4.159612e+00 8.425733e+00 4.129053e+00 6.506773e+00 4.713433e+00 9.215230e+00 3.420105e+00 2.773409e+00 3.478939e+00 6.966187e+00 3.638891e+00 1.147405e+00
<GCONST> 1.095193e+02
<TRANSP> 5
 0.000000e+00 1.000000e+00 0.000000e+00 0.000000e+00 0.000000e+00
 0.000000e+00 7.291225e-01 2.708775e-01 0.000000e+00 0.000000e+00
 0.000000e+00 0.000000e+00 4.612550e-01 5.387449e-01 0.000000e+00
 0.000000e+00 0.000000e+00 0.000000e+00 5.729929e-01 4.270071e-01
 0.000000e+00 0.000000e+00 0.000000e+00 0.000000e+00 0.000000e+00
<ENDHMM>
~h "g"
<BEGINHMM>
<NUMSTATES> 5
<STATE> 2
<NUMMIXES> 13
<MIXTURE> 1 9.361976e-02
<MEAN> 25
 6.554916e+00 1.108368e+01 3.329104e+00 2.794351e+00 -8.737154e+00 3.765872e+00 -1.201278e+00 -8.371479e+00 2.471695e+00 -1.913031e+00 -4.200334e+00 -1.330584e+00 -8.647326e-01 4.828490e-01 -6.624411e-01 2.166665e+00 2.347932e+00 -1.646274e+00 -7.529496e-01 1.876290e+00 -3.312300e-01 -9.937353e-01 1.911816e+00 1.826544e-01 -1.073879e+00
<VARIANCE> 25
 1.949120e+01 1.569106e+01 1.663173e+01 2.091198e+01 1.298844e+01 1.750358e+01 1.100762e+01 2.593605e+01 1.780577e+01 2.735893e+01 1.812338e+01 2.786797e+01 4.262788e-01 3.084994e+00 1.588336e+00 4.543928e+00 1.729593e+00 2.096687e+00 1.295683e+00 9.912906e-01 1.922611e+00 2.156224e+00 1.853526e+00 1.549048e+00 2.426002e-01
<GCONST> 8.586487e+01
<MIXTURE> 2 1.119103e-01
<MEAN> 25
 8.128753e+00 -1.674471e+00 -3.598810e+00 7.737714e-01 5.075344e+00 -1.130988e+01 -3.652498e+00 3.198389e+00 -2.211541e-01 1.633727e+00 -1.184100e+01 3.915309e-01 2.288639e-01 3.287180e+00 2.763764e-01 2.524212e+00 -1.900201e+00 5.344620e-02 -5.154242e-01 -5.536871e-01 3.138801e-01 -8.765745e-01 1.555359e+00 -5.490214e-01 -2.329398e+00
<VARIANCE> 25
 3.964060e+00 1.560020e+01 1.659221e+01 2.367160e+01 3.912426e+01 2.416516e+01 2.456081e+01 3.316891e+01 2.337364e+01 3.661139e+01 2.535954e+01 2.619722e+01 1.614403e-01 3.363574e-01 5.076285e-01 9.862678e-01 1.618349e+00 1.651132e+00 1.596411e+00 1.793276e+00 1.602935e+00 2.601011e+00 1.888667e+00 1.213941e+00 1.219036e-01
<GCONST> 8.143248e+01
<MIXTURE> 3 7.390215e-02
<MEAN> 25
 8.600999e+00 4.767952e+00 -2.720706e+00 6.353958e+00 -1.731050e+00 -7.424106e+00 -2.583181e+00 4.357335e+00 2.236499e+00 -4.520259e+00 -6.045721e+00 -8.474488e-02 -3.679822e-01 2.041405e+00 -2.912244e-01 1.793537e+00 1.529606e-01 1.114862e+00 -5.116916e-01 -5.546237e-01 1.627180e-01 -1.659260e+00 2.068523e+00 -2.968389e-01 -1.839201e+00
<VARIANCE> 25
 2.797314e+00 4.987216e+00 2.375148e+01 1.824222e+01 2.214577e+01 1.026721e+01 1.143164e+01 1.502858e+01 2.251965e+01 2.555894e+01 1.619637e+01 2.969206e+01 1.502225e-01 6.378753e-01 1.239975e+00 7.493154e-01 1.711359e+00 1.503890e+00 7.900579e-01 1.107171e+00 1.021467e+00 1.553924e+00 1.524226e+00 8.816906e-01 2.205411e-01
<GCONST> 7.539649e+01
<MIXTURE> 4 6.084617e-02
<MEAN> 25
 7.118140e+00 -8.815660e+00 -5.208400e-01 -9.256933e+00 1.097007e+01 -7.416966e+00 -4.768263e+00 5.617232e+00 1.307763e+00 4.769077e+00 -1.249634e+01 9.775618e-01 4.842315e-01 2.871651e+00 3.457450e-01 1.388594e+00 -8.600323e-01 -2.110178e+00 -1.672039e+00 -1.049748e+00 3.862448e-01 1.848280e+00 3.427277e-01 -3.234643e-01 -1.560999e+00
<VARIANCE> 25
