#############################################################################
## Copyright (c) 1996, Carnegie Mellon University, Cambridge University,
## Ronald Rosenfeld and Philip Clarkson
## Version 3, Copyright (c) 2006, Carnegie Mellon University 
## Contributors includes Wen Xu, Ananlada Chotimongkol, 
## David Huggins-Daines, Arthur Chan and Alan Black 
#############################################################################
=============================================================================
===============  This file was produced by the CMU-Cambridge  ===============
===============     Statistical Language Modeling Toolkit     ===============
=============================================================================
This is a 3-gram language model, based on a vocabulary of 53 words,
  which begins "</s>", "<s>", "SIL"...
This is a CLOSED-vocabulary model
  (OOVs eliminated from training data and are forbidden in test data)
Good-Turing discounting was applied.
1-gram frequency of frequency : 0 
2-gram frequency of frequency : 106 91 52 50 28 35 28 
3-gram frequency of frequency : 1833 882 523 356 249 179 145 
1-gram discounting ratios : 
2-gram discounting ratios : 
3-gram discounting ratios : 0.93 0.79 0.83 0.76 0.74 0.90 0.72 
This file is in the ARPA-standard format introduced by Doug Paul.

p(wd3|wd1,wd2)= if(trigram exists)           p_3(wd1,wd2,wd3)
                else if(bigram w1,w2 exists) bo_wt_2(w1,w2)*p(wd3|wd2)
                else                         p(wd3|w2)

p(wd2|wd1)= if(bigram exists) p_2(wd1,wd2)
            else              bo_wt_1(wd1)*p_1(wd2)

All probs and back-off weights (bo_wt) are given in log10 form.

Data formats:

Beginning of data mark: \data\
ngram 1=nr            # number of 1-grams
ngram 2=nr            # number of 2-grams
ngram 3=nr            # number of 3-grams

\1-grams:
p_1     wd_1 bo_wt_1
\2-grams:
p_2     wd_1 wd_2 bo_wt_2
\3-grams:
p_3     wd_1 wd_2 wd_3 

end of data mark: \end\

\data\
ngram 1=53
ngram 2=923
ngram 3=5350

\1-grams:
-1.6509 </s> -2.9906
-1.6505 <s>	-2.9584
-1.0349 SIL	-2.7102
-0.7700 a	-2.7722
-1.1584 aa	-2.2858
-1.8616 ai	-2.1464
-2.5106 au	-1.9612
-2.0707 b	-2.2882
-2.0753 bh	-2.3123
-2.3140 ch	-2.1098
-2.8651 chh	-1.6068
-1.7634 d	-2.5704
-2.6637 d:	-1.7380
-3.1190 d:h	-1.2713
-2.2757 dh	-2.1638
-1.3615 ei	-2.3412
-1.9992 g	-2.3342
-3.0823 gh	-1.3910
-1.4876 h	-2.8877
-3.1591 h:	-1.1881
-1.4375 i	-2.4796
-1.5909 ii	-2.1984
-1.9361 j	-2.4324
-2.9877 jh	-1.4839
-1.3423 k	-2.9075
-2.1762 kh	-2.2553
-1.7860 l	-2.5686
-1.5974 m	-2.6707
-1.4951 n	-2.7155
-1.6787 n:	-2.0776
-2.5606 nd~	-1.8855
-4.3494 ng~	-0.4658
-3.1319 nj~	-1.4037
-1.8047 oo	-2.1666
-3.1319 o~	-1.4715
-1.7155 p	-2.6337
-2.8309 ph	-1.5934
-1.3627 r	-2.7358
-2.5137 rx	-2.0441
-1.5260 s	-2.5998
-2.1591 sh	-2.1858
-2.2543 shh	-2.1272
-1.6867 sp	-2.2923
-1.5864 t	-2.6023
-2.5201 t:	-1.9179
-2.8796 t:h	-1.5839
-4.0484 t:ra	-0.5829
-2.2491 th	-2.1692
-2.8309 tra	-1.4569
-1.7534 u	-2.3713
-2.2223 uu	-2.0659
-1.7848 v	-2.6456
-1.6619 y	-2.7784

\2-grams:
-0.0004 </s> <s> 0.0004
-0.0004 <s> SIL -1.3296
-0.6157 SIL </s> 0.0004
-0.2880 SIL SIL 1.2418
-1.9082 SIL a -0.6242
-2.0475 SIL aa -1.0811
-2.6615 SIL ai -0.5263
-3.1386 SIL au -0.2272
-2.1386 SIL b 0.1556
-2.0475 SIL bh 0.1821
-2.8376 SIL ch -0.2414
-2.7126 SIL chh 0.0626
-2.2355 SIL d 0.0005
-3.3147 SIL d: -0.9823
-2.5366 SIL dh -0.0153
-2.6157 SIL ei -0.5185
-2.4696 SIL g -0.1703
-3.6157 SIL gh -0.8687
-1.9625 SIL h -0.4363
-1.7126 SIL i -2.3828
-2.0972 SIL j 0.0511
-3.3147 SIL jh -1.0436
-1.9345 SIL k 0.3558
-2.8376 SIL kh -0.2470
-2.6615 SIL l -0.2468
-1.6567 SIL m -0.6790
-2.4116 SIL n -0.4297
-3.3147 SIL o~ -0.6269
-1.8833 SIL p -0.3137
-2.3147 SIL ph -0.5778
-2.2540 SIL r -0.8092
-3.1386 SIL rx -0.7213
-1.7126 SIL s -0.9543
-2.5018 SIL sh -0.1120
-2.2008 SIL t -0.4708
-3.6157 SIL t: -1.1211
-1.8164 SIL u -0.8002
-2.8376 SIL uu -0.4904
-1.7832 SIL v 0.1295
-1.7897 SIL y 1.0603
-1.4197 a SIL -1.8456
-2.3124 a a -0.5151
-2.5004 a aa -0.5622
-3.2785 a ai -0.7771
-2.3892 a au -0.9611
-1.6579 a b -0.0878
-1.6684 a bh 0.1774
-1.9668 a ch -0.4784
-2.9263 a chh -0.3452
-1.5189 a d 0.1538
-2.6765 a d: -0.5992
-2.4492 a d:h -0.0300
-2.0355 a dh 0.0640
-2.5189 a ei -0.8589
-1.7345 a g -0.2196
-2.9775 a gh 0.2306
-1.0015 a h 0.3305
-2.4492 a h: -0.1889
-2.7666 a i -0.9980
-1.8763 a j 0.3927
-2.7666 a jh -1.2676
-0.9288 a k -1.0304
-2.3008 a kh -0.3660
-1.5625 a l -1.1514
-1.2313 a m 0.1794
-1.1061 a n -0.1727
-1.4723 a n: -0.9226
-2.1482 a nd~ -0.2104
-3.5796 a ng~ -0.2025
-3.8806 a oo -1.1356
-1.4639 a p -0.9491
-2.8806 a ph -0.3558
-1.0078 a r 0.2760
-2.6018 a rx -0.9105
-1.2481 a s -0.1376
-1.9168 a sh 0.2373
-3.2785 a shh -0.5793
-1.3077 a sp 0.8917
-1.2985 a t -0.1753
-2.3491 a t: -0.0740
-2.8392 a t:h 0.3373
-2.0882 a th -0.0308
-3.1024 a tra -0.6363
-2.4334 a u -0.7373
-1.5502 a v -0.0099
-1.5861 a y 0.2353
-1.5057 aa SIL -1.3715
-1.6664 aa a -1.6135
-2.6474 aa aa -0.5849
-2.6474 aa au -0.0204
-2.0154 aa b -0.2183
-2.1501 aa bh -0.4726
-2.0011 aa ch -0.0660
-1.4026 aa d -0.7515
-2.8904 aa d: -0.7653
-3.0154 aa d:h -0.7047
-2.1501 aa dh 0.4113
-2.0453 aa ei -0.5788
-1.7765 aa g -0.8546
-3.4925 aa gh -0.8687
-0.9779 aa h -0.1088
-2.3164 aa i -0.5503
-2.2884 aa ii -0.6675
-1.3371 aa j -0.8141
-3.1915 aa jh -0.6795
-1.3853 aa k 0.0861
-2.5382 aa kh -0.4681
-1.4433 aa l -0.4755
-1.3021 aa m -0.9173
-0.9846 aa n -0.7968
-1.9610 aa n: -0.5406
-2.2620 aa nd~ -0.0494
-1.9873 aa oo -1.4239
-1.2994 aa p -0.6430
-2.2620 aa ph -1.3535
-0.9326 aa r -0.8454
-3.1915 aa rx -0.8941
-1.2698 aa s -0.5068
-2.0611 aa sh -0.3210
-1.8490 aa shh -1.2813
-1.2830 aa sp -0.0433
-1.5148 aa t -0.3324
-2.3164 aa t: 0.1175
-2.7143 aa t:h -0.0936
-2.0011 aa th -0.6151
-2.3785 aa tra -1.2135
-2.7935 aa u -0.8164
-2.0301 aa uu -1.0864
-1.5631 aa v -0.6835
-1.5682 aa y 0.1667
-0.3736 ai SIL -1.8013
-2.7903 ai a -1.1381
-2.3132 ai aa -0.7466
-2.3132 ai b -0.6669
-1.9452 ai bh 0.2473
-2.7903 ai ch -1.1374
-2.7903 ai chh -1.0272
-1.8872 ai d -0.4306
-2.7903 ai d: -1.0593
-2.7903 ai g -0.7684
-2.3132 ai h -0.6816
-1.7111 ai j -0.4728
-1.5350 ai k -1.0245
-2.4893 ai kh -0.6403
-1.8872 ai l -0.3813
-1.8360 ai m -0.1865
-1.5598 ai n -0.4477
-0.7147 ai n: -0.2154
-2.1882 ai p -0.6530
-2.3132 ai ph -0.7607
-1.5598 ai r -0.9200
-1.0660 ai s -1.1968
-2.3132 ai sh -0.8337
-2.7903 ai shh -1.1316
-1.3132 ai sp -0.3403
-1.6442 ai t -1.3684
-2.0913 ai t:h -0.2889
-2.4893 ai th -0.6639
-2.0121 ai v -0.1964
-2.3132 ai y -0.3374
-1.8420 au bh -0.4437
-1.5410 au d -0.8016
-1.8420 au d:h -0.6541
-2.1430 au g -1.1196
-2.1430 au gh -1.0448
-1.6659 au h -0.7230
-2.1430 au j -1.1466
-2.1430 au k -1.0247
-1.6659 au l -0.6565
-2.1430 au n -0.8875
-1.5410 au n: -0.5896
-1.5410 au p -0.5215
-0.1518 au r -1.4495
-1.6659 au s -0.4893
-2.1430 au shh -1.0260
-1.2979 au t -0.3493
-2.1430 au th -1.1061
-2.1430 au v -0.9377
-0.3022 b a -0.3853
-0.8175 b aa -0.6439
-1.7358 b ai -0.6010
-2.1038 b au -0.7447
-2.5809 b b -0.8476
-1.1338 b d -0.8218
-1.7358 b ei -0.6144
-1.1660 b i -0.6203
-1.4348 b ii -0.5268
-2.2799 b l -0.6784
-1.4670 b oo -2.2247
-1.8028 b o~ -0.8706
-1.4048 b r -0.6887
-2.2799 b rx -0.6669
-1.7358 b u -0.6263
-2.5809 b uu -1.1459
-0.7438 bh a -0.6997
-0.3777 bh aa -1.5414
-2.0992 bh au -0.7617
-2.2753 bh ei -1.1253
-1.4972 bh i -0.6869
-0.5851 bh ii -0.2385
-2.2753 bh oo -1.1012
-2.5763 bh r -0.8216
-2.5763 bh rx -1.1114
-1.6221 bh u -0.8550
-1.2753 bh uu -1.0395
-2.2753 bh y -0.3467
-0.4520 ch a -0.4137
-0.6483 ch aa -1.2774
-1.4934 ch au -0.7701
-1.4354 ch ch -0.3146
-1.1080 ch chh -1.0194
-1.6395 ch ei -0.8343
-0.8761 ch i -0.7987
-1.1080 ch ii -1.0535
-2.0374 ch oo -0.5983
-1.6395 ch u -0.6272
-2.3385 ch y -0.8146
-0.3452 chh a -0.2109
-0.6163 chh aa -0.5049
-1.1903 chh ei -1.0700
-1.3153 chh ii -0.7602
-0.9473 chh oo -0.9958
-1.3153 chh u -1.1018
-1.7924 chh uu -1.1378
-0.5020 d a -0.8932
-1.2442 d aa -0.5594
-2.8876 d ai -1.1353
-2.4105 d au -0.2272
-2.4105 d d -0.6557
-1.3561 d dh -0.7135
-0.7907 d ei -1.2251
-2.5866 d g -0.3006
-0.9633 d i -0.8073
-1.0011 d ii -0.6134
-1.2748 d oo -0.2987
-1.6572 d r -0.6285
-2.1095 d rx -0.4605
-1.4105 d u -0.3201
-1.4897 d uu -0.9651
-1.4726 d v -1.0962
-1.8876 d y 0.0599
-0.7360 d: a -0.5266
-0.8773 d: aa -0.7341
-1.3892 d: ei -0.8046
-0.3680 d: i -2.7195
-0.9120 d: ii -0.6057
-1.3892 d: k -0.4957
-1.9912 d: oo -1.1305
-1.6902 d: s -0.6147
-1.9912 d: uu -1.1459
-1.2430 d:h a -1.0955
-0.6990 d:h aa -0.7107
-1.2430 d:h au -0.1494
-1.5441 d:h g -0.7684
-0.9420 d:h ii -0.5752
-1.2430 d:h k -0.9641
-1.5441 d:h m -1.0360
-1.0669 d:h n -0.7036
-1.0669 d:h r -0.4529
-1.0669 d:h t -0.5247
-0.7659 d:h v -0.8769
-0.3472 dh a -1.1100
-0.6442 dh aa -1.4093
-2.3766 dh ei -1.1255
-0.7745 dh i -1.0583
-1.4735 dh ii -0.7759
-2.3766 dh rx -0.9521
-1.5984 dh u -0.6314
-1.0755 dh y -0.8756
-1.4201 ei SIL -1.2539
-1.8270 ei a -1.1892
-2.6873 ei aa -0.8344
-2.6873 ei au -0.0936
-1.6266 ei b -0.9187
-1.8914 ei bh -0.4730
-2.2894 ei ch -0.2284
-2.9883 ei chh -1.0875
-1.5651 ei d -0.2476
-2.9883 ei d: -0.4366
-1.9671 ei dh -2.1384
-2.6873 ei ei -0.5753
-1.9671 ei g 0.3727
-2.5904 ei gh -0.1613
-1.3599 ei h 0.2049
-2.5112 ei i -0.6561
-1.6459 ei j -0.8829
-0.9755 ei k -0.6618
-1.1162 ei kh -1.0560
-1.1558 ei l -2.3453
-1.5185 ei m -0.0155
-1.5904 ei n -0.3428
-0.8094 ei n: 0.0257
-2.5904 ei nd~ -0.6088
-1.4505 ei p -0.3392
-1.5818 ei r -0.4544
-2.9883 ei rx -0.9161
-1.3599 ei s -0.3281
-1.4086 ei sh -0.4007
-2.0852 ei shh -0.9759
-1.2030 ei sp 0.0312
-1.6983 ei t -0.4700
-2.5112 ei t: -0.2560
-2.2480 ei th -0.5284
-2.1754 ei tra -0.5172
-2.3863 ei u -0.6391
-1.3071 ei v -0.5037
-2.2894 ei y 0.1691
-0.2349 g a -0.3582
-1.0969 g aa -0.6023
-1.9542 g au -0.0778
-1.5071 g ei -0.5895
-1.8081 g i -0.7516
-1.4491 g ii -0.4911
-1.9542 g l -0.6445
-2.3522 g n -0.6498
-1.2061 g oo -0.8460
-1.1217 g r -0.5776
-2.6532 g rx -1.1443
-1.2553 g u -0.7069
-2.6532 g uu -1.1459
-1.6990 g v -0.9325
-2.0512 g y -0.1214
-0.3245 gh a -0.7300
-0.6767 gh aa -0.8672
-1.2788 gh i -0.6637
-0.8016 gh oo -0.9790
-1.5798 gh r -0.8216
-1.2788 gh u -1.1232
-0.7383 h a -0.3213
-1.1178 h aa -0.4504
-0.4883 h ai 0.0385
-1.4730 h ei -0.6334
-0.9700 h i -0.5575
-1.1994 h ii -0.3453
-2.2089 h m -0.3844
-0.9618 h oo -0.5661
-3.1632 h r -0.8216
-2.5611 h rx -0.5667
-1.1809 h u -0.8699
-1.5721 h uu -1.2274
-1.2041 h: a -1.0959
-1.5051 h: aa -1.1251
-1.5051 h: k -1.0247
-0.9031 h: kh -0.3314
-1.5051 h: n -0.8875
-1.5051 h: p -0.8999
-1.5051 h: r -0.8216
-0.5509 h: s -1.7837
-1.0280 h: sp -1.0277
-1.2041 h: t -0.6609
-1.5051 h: u -1.0754
-1.2041 h: v -0.9882
-1.0280 h: y -0.4245
-1.7364 i SIL -0.8618
-2.9125 i a -1.1199
-2.5145 i au -0.0551
-1.9348 i b 0.0929
-2.0996 i bh 0.3038
-1.9582 i ch -0.3501
-3.2135 i chh -0.8866
-1.6115 i d 0.2620
-2.7364 i d: -0.6693
-2.0996 i dh 0.1743
-1.2049 i ei -1.1898
-2.1343 i g -1.3830
-1.7084 i h -0.3344
-3.2135 i i -1.1092
-1.6820 i j -1.0644
-0.8831 i k 0.2339
-1.8518 i kh -0.4395
-1.2404 i l -1.1371
-1.5800 i m -0.4398
-1.1236 i n -0.4809
-1.4975 i n: -0.9588
-2.5145 i nd~ -0.0291
-1.4732 i p -0.2299
-3.2135 i ph -1.1067
-1.4427 i r -0.3232
-0.9730 i s -0.5184
-1.6453 i sh -0.1929
-1.7084 i shh 0.0032
-1.7664 i sp -0.5433
-1.0736 i t -0.4373
-2.3104 i t: -0.0045
-3.2135 i th -1.1173
-1.9582 i tra -0.1272
-2.9125 i u -0.6075
-1.7084 i v -0.1053
-0.9831 i y -1.8203
-1.2902 ii SIL -1.1555
-2.2160 ii a -0.7733
-2.3621 ii aa -1.0736
-2.0611 ii au -0.4698
-1.7600 ii b -0.4461
-1.6297 ii bh -0.5977
-1.9471 ii ch -0.2244
-1.5170 ii d 0.0354
-1.4590 ii d: -2.3918
-3.0611 ii d:h -1.0948
-1.9471 ii dh -0.6086
-2.1068 ii ei -0.6608
-1.9471 ii g -0.2850
-2.0611 ii gh 0.1742
-1.2222 ii h -0.8420
-1.5697 ii j -0.0731
-0.9747 ii k -0.3739
-2.7600 ii kh -1.0718
-1.5559 ii l -0.1461
-1.3621 ii m -0.1252
-1.3890 ii n -0.4079
-1.5170 ii n: -0.3309
-3.0611 ii nd~ -0.5981
-2.5840 ii oo -0.7455
-1.2549 ii p -0.3836
-2.1068 ii ph -0.3064
-1.4276 ii r -1.2876
-1.0788 ii s -0.0962
-1.7823 ii sh 0.1251
-2.1580 ii shh -0.4625
-1.0698 ii sp 0.1957
-1.4813 ii t -0.6053
-2.7600 ii t: -0.6360
-1.8570 ii th -1.2416
-2.4590 ii u -0.7246
-1.3890 ii v -0.0846
-1.3451 ii y -1.3831
-0.5629 j a 0.0051
-0.6396 j aa -0.4824
-1.5391 j ai -1.4041
-2.7152 j au -1.1348
-1.0524 j ei -1.6732
-1.1131 j i -0.6040
-1.0717 j ii -0.6820
-2.0162 j j -0.5682
-1.1967 j nj~ -0.2973
-1.3350 j oo -0.5212
-2.4141 j r -0.6726
-1.7152 j u -0.4999
-2.7152 j uu -1.1410
-1.1589 j y -0.4259
-0.4680 jh a -0.5547
-0.7179 jh aa -0.8267
-0.4960 jh ei -0.7319
-1.6721 jh i -1.1326
-1.1950 jh ii -0.7452
-1.6721 jh o~ -1.0948
-1.6721 jh uu -1.1443
-0.5926 k a -0.1161
-0.6087 k aa -0.2639
-3.3086 k ai -1.1085
-3.3086 k au -1.1443
-0.7153 k ei -0.3405
-1.2441 k i -0.3271
-1.0075 k ii -0.1454
-2.7065 k k -0.5983
-2.8314 k kh -0.4650
-2.6096 k l -0.3071
-1.3263 k oo 0.4820
-2.8314 k o~ -0.6583
-2.0781 k r -0.5365
-1.6554 k rx -0.6276
-3.3086 k s -0.8794
-1.5762 k shh -1.5124
-1.8772 k t -1.1322
-3.3086 k t: -0.8201
-1.7645 k u -1.2686
-3.0075 k uu -0.6413
-2.3086 k y -0.9509
-0.3098 kh a -0.2273
-1.0621 kh aa -0.4505
-1.1347 kh ei -0.8103
-1.2218 kh i -0.4162
-1.8751 kh ii -1.0864
-0.8337 kh oo -1.7231
-1.6990 kh u -0.8557
-0.9720 kh y -0.7994
-0.4226 l a -0.2105
-1.0200 l aa 0.1843
-2.5641 l ai -1.0393
-2.5641 l d -0.6340
-2.3880 l d: -0.7393
-0.7859 l ei -0.6004
-0.6833 l i -1.4100
-1.2119 l ii -0.3964
-1.9620 l l -0.2494
-1.6098 l m -1.1556
-1.4027 l oo -0.6566
-2.5641 l o~ -0.6541
-2.8651 l p -0.8999
-2.5641 l u -0.6430
-2.8651 l y -0.8146
-0.4344 m a -0.0511
-0.9890 m aa -0.1265
-1.2611 m ai -1.2813
-2.0992 m au -0.2285
-2.1504 m b -0.1452
-2.2753 m bh -0.5378
-0.6452 m ei -1.3840
-2.2753 m h -0.5112
-1.2405 m i -0.7607
-1.7110 m ii -0.4308
-3.0535 m j -1.1090
-1.9743 m m -0.1242
-2.7524 m n -0.4197
-1.7747 m oo -1.1368
-2.5763 m o~ -0.7047
-1.9743 m p 0.0070
-2.5763 m r -0.6999
-1.9073 m rx -1.0947
-1.1726 m u -1.4273
-1.7110 m uu -1.2264
-0.3464 n a -0.5918
-0.9055 n aa -0.3524
-2.8549 n ai -0.6697
-2.8549 n au -1.1380
-1.3430 n d -0.3008
-2.4570 n dh -0.3071
-0.9332 n ei -0.7518
-1.6788 n h -1.2403
-1.1782 n i -0.7264
-1.4235 n ii -0.2839
-2.5539 n k -0.5309
-2.1559 n m -1.5833
-2.0420 n n -0.6810
-1.9007 n oo -1.2935
-3.1559 n rx -0.9521
-3.1559 n sp -1.1365
-1.7580 n t -1.1730
-2.5539 n th -0.3445
-2.4570 n tra -0.6823
-1.5125 n u -0.7008
-2.5539 n uu -1.1143
-1.3851 n y -1.0651
-0.8868 n: SIL -1.4711
-2.1950 n: a -0.8639
-2.6721 n: aa -1.1315
-2.6721 n: ai -0.6406
-2.6721 n: au -0.5727
-1.5107 n: b -0.6054
-1.5260 n: bh 0.1162
-2.1950 n: ch -0.7941
-1.1219 n: d -0.3703
-1.9317 n: d: -1.4648
-1.5582 n: dh 0.0143
-2.3711 n: ei -0.7539
-1.1219 n: g 0.3097
-2.0189 n: gh -0.6755
-1.3933 n: h 1.0732
-2.1280 n: i -0.5933
-1.6307 n: j -0.4531
-2.6721 n: jh -1.0436
-0.9519 n: k -0.3626
-2.1950 n: kh -0.9343
-2.1280 n: l -0.1349
-1.4818 n: m -0.3168
-1.6114 n: n -0.9191
-1.3199 n: p -0.4353
-1.7427 n: r -0.8756
-2.6721 n: rx -0.5035
-0.9909 n: s -0.6485
-2.0700 n: sh -0.2559
-1.2571 n: sp -0.3277
-1.4049 n: t -0.0639
-2.9731 n: t: -0.8201
-2.9731 n: t:h -1.0936
-2.2742 n: th -0.2042
-2.1950 n: tra -0.6122
-2.1280 n: u -0.5146
-1.7179 n: v 0.8682
-1.8270 n: y 0.9110
-0.1440 nd~ a -0.1421
-1.6163 nd~ aa -1.0950
-1.4914 nd~ d: -0.5357
-2.0934 nd~ ei -1.1302
-1.0520 nd~ i -0.6722
-1.0934 nd~ ii -0.5866
-1.7924 nd~ oo -0.5983
-1.6163 nd~ u -0.7300
-0.1761 ng~ ii -1.0967
-1.2304 nj~ a -0.6252
-0.0544 nj~ aa -2.2407
-1.5315 nj~ oo -1.1356
-1.3556 oo SIL -0.8761
-2.5459 oo a -1.1302
-2.8470 oo au -0.6172
-2.0019 oo b -0.3043
-2.0688 oo bh 0.0799
-1.8470 oo ch -0.4912
-2.8470 oo chh -1.0954
-2.0019 oo d -0.3041
-2.5459 oo d: -1.0701
-2.0019 oo dh -0.2790
-1.0144 oo g -0.2136
-1.5045 oo h -2.2919
-2.3698 oo i -0.7289
-1.7678 oo ii -0.5873
-1.1310 oo j -0.5745
-1.3998 oo k -0.2361
-1.1749 oo l 0.0021
-1.7330 oo m 0.0377
-1.4156 oo n -0.3017
-0.7678 oo n: -1.1162
-1.5682 oo p 0.2772
-1.5682 oo r -0.4932
-1.5917 oo s -0.7860
-1.7330 oo sh -0.0661
-2.0019 oo shh -0.4629
-1.3029 oo sp 0.0413
-0.8785 oo t -0.2148
-1.8470 oo t: 0.2473
-2.5459 oo th -0.9430
-2.2449 oo u -0.7701
-2.2449 oo uu -0.6781
-1.8470 oo v 0.1871
-2.5459 oo y -0.9687
-1.2430 o~ g -0.3006
-0.6410 o~ l -0.5466
-1.5441 o~ n -0.8875
-1.5441 o~ p -1.1237
-0.9420 o~ r -0.4988
-0.9420 o~ s -0.8084
-0.3979 o~ t: -0.8188
-0.3620 p a -0.4115
-1.1507 p aa -0.2617
-2.4589 p au -0.2272
-2.1579 p ei -0.6713
-1.9360 p i -0.6987
-1.2733 p ii -1.4493
-2.9360 p oo -1.1174
-1.7899 p o~ -0.9243
-2.4589 p p -0.5098
-0.5858 p r -1.2257
-1.6350 p rx -2.2677
-1.7599 p t -2.0244
-1.2926 p u -1.2829
-1.4045 p uu -1.5208
-2.1579 p y -0.4921
-1.3490 ph a -1.0928
-1.0479 ph aa -0.9294
-1.5250 ph ai -1.1023
-1.8261 ph h -1.0983
-0.4281 ph i -1.5034
-0.6500 ph ii -0.6260
-1.0479 ph r -0.5551
-1.0479 ph u -0.9800
-1.5250 ph uu -0.6413
-0.2775 r a -0.7227
-0.9062 r aa -0.4851
-2.6862 r au -0.8210
-2.6862 r bh -0.5374
-2.5893 r ch -0.3147
-2.3340 r d -0.3158
-3.2882 r dh -1.0357
-1.3852 r ei -0.3331
-2.4432 r g -0.1716
-1.3852 r i -0.6400
-1.2469 r ii -0.1221
-2.2882 r j -0.2507
-2.6862 r k -0.6374
-3.2882 r l -1.0465
-1.6448 r m -1.3175
-3.2882 r n -1.0898
-1.8733 r nd~ -0.4073
-1.7442 r oo -0.2414
-3.2882 r o~ -1.1349
-3.2882 r p -0.8999
-2.9872 r ph -1.1207
-3.2882 r r -1.0899
-3.2882 r rx -1.1347
-2.3852 r sh -0.3360
-1.8733 r shh -0.9905
-2.3340 r t -0.1489
-2.5893 r t: -0.2723
-1.3962 r th -1.1157
-2.0330 r u -0.5115
-1.7969 r uu -1.0357
-1.8903 r v -0.6462
-1.6070 r y -0.8113
-2.1399 rx bh -0.9116
-0.9094 rx d -0.6581
-1.0985 rx g -0.8860
-2.1399 rx h -1.0599
-2.1399 rx k -1.1358
-1.5378 rx n: -0.6085
-1.5378 rx p -0.3740
-2.1399 rx sh -1.1260
-0.4771 rx shh -0.9322
-0.4409 rx t -2.0859
-2.1399 rx th -1.1458
-0.3367 s a -0.6876
-0.9818 s aa -0.5887
-2.6477 s ai -0.7695
-2.4259 s au -0.2868
-0.8577 s ei -0.0810
-1.4436 s i -0.9162
-1.4173 s ii -0.2035
-3.1248 s j -1.1126
-1.5228 s k -1.5892
-2.5228 s l -0.5229
-2.5228 s m -0.6193
-2.8238 s n -1.0278
-1.9487 s oo -0.6390
-3.1248 s p -0.8999
-2.5228 s r -0.6159
-2.8238 s rx -0.5035
-2.8238 s s -0.6318
-1.5685 s t -0.9726
-2.4259 s t: -0.6277
-1.5934 s th -0.4967
-2.6477 s tra -1.0374
-1.2327 s u -0.4638
-2.0456 s uu -0.5880
-1.8461 s v -0.7160
-1.7269 s y -0.3658
-0.3959 sh a -0.5572
-0.8695 sh aa -0.5884
-1.8907 sh ai -0.8171
-1.6477 sh ch -0.1475
-1.6477 sh ei -0.9876
-0.9613 sh i -0.6036
-1.3466 sh ii -0.6552
-1.7146 sh m -0.4289
-1.7146 sh oo -0.6648
-1.1125 sh r -0.3988
-2.4928 sh rx -1.1347
-1.4514 sh u -0.6342
-1.3466 sh v -1.0279
-1.3167 sh y -1.6179
-0.6126 shh a -0.5216
-0.6576 shh aa -0.6082
-1.2218 shh ei -1.9947
-0.8416 shh i -0.4300
-2.0969 shh ii -0.6568
-2.3979 shh k -1.0247
-1.7959 shh m -0.6143
-1.4437 shh nd~ -0.3060
-2.0969 shh p -0.4320
-1.0969 shh t: -0.1210
-0.8794 shh t:h -0.8336
-1.7959 shh t:ra -0.1544
-1.5528 shh y -0.2177
-0.8275 sp a -0.5884
-0.9775 sp aa -0.4957
-1.7090 sp ai -1.2271
-1.6025 sp au -1.9682
-1.9643 sp b -0.1504
-2.1192 sp bh -0.2802
-2.3622 sp ch -0.8735
-2.6632 sp chh -0.9571
-2.0100 sp d -0.6205
-2.4871 sp dh -0.4562
-1.1719 sp ei -2.5420
-2.1192 sp g -0.3737
-2.4871 sp gh -0.3458
-1.7090 sp h 0.3269
-1.2653 sp i -0.9565
-2.1861 sp ii -0.7080
-1.7338 sp j -0.0626
-2.6632 sp jh -1.0194
-0.7739 sp k 0.0295
-2.1861 sp kh -0.2458
-2.1861 sp l -0.4402
-1.1581 sp m -0.5816
-1.7338 sp n -0.5062
-2.6632 sp o~ -1.0348
-1.4457 sp p -0.7966
-2.6632 sp ph -1.0618
-2.2653 sp r -0.2624
-2.6632 sp rx -0.6308
-1.4871 sp s -0.3833
-2.2653 sp sh -0.4236
-1.8503 sp t -1.1525
-2.4871 sp th -0.5830
-1.1861 sp u -1.0617
-2.3622 sp uu -0.6758
-1.6025 sp v -0.7124
-1.7882 sp y 0.1952
-0.3918 t a -0.4027
-0.7304 t aa -0.3948
-2.7638 t au -0.5359
-1.3166 t ei -0.6930
-1.0354 t i -0.1564
-1.1783 t ii -0.9035
-2.7638 t k -0.5569
-2.5877 t m -0.8216
-2.5877 t n -0.7407
-1.6024 t oo -0.6707
-2.7638 t p -0.4320
-1.7638 t r -1.2298
-2.4628 t rx -0.6267
-2.7638 t s -1.0953
-1.4416 t t -0.7042
-3.0648 t th -0.9874
-1.3746 t u -0.7062
-2.3659 t uu -1.0967
-1.8887 t v -0.9663
-1.3324 t y -0.0300
-0.2762 t: a -0.9791
-0.9874 t: aa -0.5141
-1.2304 t: ei -0.8785
-1.0196 t: i -0.7258
-0.9294 t: ii -0.9114
-1.1335 t: r -0.7581
-1.8325 t: t: -0.6253
-0.2218 t:h a -0.2984
-1.3010 t:h aa -0.7449
-1.4771 t:h ei -1.1253
-0.8751 t:h i -0.6253
-0.9331 t:h ii -0.8129
-1.3010 t:h oo -0.6761
-0.6990 t:ra a -1.1212
-0.6990 t:ra k -1.1025
-0.3979 t:ra p -0.4320
-0.3239 th a -0.5989
-0.5110 th aa -0.6102
-1.1727 th ei -1.2734
-1.4489 th i -0.8227
-1.0414 th ii -1.0445
-2.4031 th oo -1.1462
-2.4031 th u -1.1132
-2.4031 th v -1.1367
-2.1021 th y -0.3467
-1.3490 tra SIL -0.1721
-0.7469 tra a -0.6372
-1.8261 tra b -1.0758
-1.3490 tra bh -0.2939
-1.1271 tra d -0.7140
-1.8261 tra g -0.7684
-1.0479 tra h -0.4407
-0.8261 tra k -0.0234
-1.5250 tra l -0.6020
-1.2240 tra m -0.5124
-1.3490 tra n -0.4239
-1.5250 tra nd~ -0.1303
-1.5250 tra p -0.9734
-1.2240 tra s -0.3875
-1.5250 tra sp -1.1157
-1.1271 tra t -0.4959
-1.8261 tra v -1.1325
-2.2961 u SIL -0.2118
-1.2647 u aa -1.6584
-2.5971 u au -0.1494
-2.0531 u b -0.1812
-1.5364 u bh -1.1503
-1.8982 u ch -0.3130
-1.5971 u chh -1.0401
-1.3667 u d -0.3502
-1.9439 u d: -0.4741
-1.9951 u dh -0.4240
-2.1992 u ei -0.6712
-1.7221 u g -1.0179
-2.1992 u h -0.3604
-2.2961 u h: -0.5658
-1.9951 u ii -0.6220
-1.9951 u j -0.4513
-1.5002 u jh -0.2876
-1.3184 u k 0.1941
-1.1992 u kh -1.4816
-1.7842 u l -0.8462
-1.2354 u m -0.4205
-0.8154 u n -0.5279
-1.9951 u n: -0.6069
-2.2961 u nd~ -0.2522
-2.1992 u oo -0.5040
-1.3419 u p -0.7080
-2.8982 u ph -1.1276
-1.1200 u r -0.1767
-2.8982 u rx -0.9714
-1.0920 u s -0.5036
-1.9951 u sh -0.4640
-1.9951 u shh -0.5533
-1.8190 u sp -0.5824
-1.1500 u t -1.2074
-2.1200 u t: -0.6560
-2.8982 u t:h -1.0853
-2.5971 u tra -1.0996
-1.6941 u v -0.3799
-2.2961 u y -0.1214
-0.8435 uu SIL -0.9758
-2.4346 uu aa -1.1340
-2.1335 uu au -0.1494
-2.1335 uu b -1.0717
-2.1335 uu bh -0.4437
-1.6564 uu ch -0.9481
-2.4346 uu chh -1.1185
-1.8325 uu d -0.4803
-2.4346 uu d:h -1.1086
-2.1335 uu dh -0.4203
-1.4346 uu g -0.9721
-1.5895 uu h -0.3165
-1.9574 uu j -0.6443
-2.4346 uu k -1.1025
-1.0728 uu l -1.1556
-1.4803 uu m -0.7282
-0.8325 uu n -2.0127
-1.9574 uu n: -0.7152
-0.9722 uu p -2.3309
-2.4346 uu ph -1.1067
-0.7270 uu r -0.1400
-1.3206 uu s -1.9842
-2.1335 uu shh -0.5581
-2.4346 uu sp -1.0775
-1.5315 uu t -0.3764
-1.6564 uu t: -0.2068
-2.1335 uu t:h -0.6915
-2.1335 uu v -0.7022
-0.4166 v a -0.3693
-0.6628 v aa -0.2805
-1.8669 v ai -0.7285
-1.3106 v ei -0.8216
-0.5881 v i -0.8748
-1.6116 v ii -0.3945
-1.8255 v oo -0.5688
-2.3898 v rx -0.7267
-1.4689 v y -0.6922
-0.2713 y a 0.0148
-0.5724 y aa -0.2056
-1.2408 y ei -0.1727
-2.6880 y i -1.0422
-2.9890 y ii -1.1088
-1.1565 y oo -1.5730
-1.3762 y u -1.0199
-1.6273 y uu -0.9755

\3-grams:
-0.0004 </s> <s> SIL 
-0.0711 <s> SIL SIL 
-2.2984 <s> SIL a 
-2.8009 <s> SIL ai 
-3.0321 <s> SIL b 
-2.4317 <s> SIL bh 
-2.6063 <s> SIL ch 
-2.6063 <s> SIL chh 
-2.8009 <s> SIL d 
-2.6063 <s> SIL ei 
-3.0321 <s> SIL g 
-2.8009 <s> SIL h 
-1.7447 <s> SIL i 
-2.2984 <s> SIL j 
-3.0321 <s> SIL jh 
-1.8861 <s> SIL k 
-2.6063 <s> SIL kh 
-3.0321 <s> SIL l 
-1.7696 <s> SIL m 
-3.0321 <s> SIL o~ 
-1.8539 <s> SIL p 
-2.6063 <s> SIL ph 
-3.0321 <s> SIL r 
-2.8009 <s> SIL s 
-2.0458 <s> SIL t 
-1.8239 <s> SIL u 
-2.8009 <s> SIL uu 
-2.2984 <s> SIL v 
-2.0969 <s> SIL y 
-0.0004 SIL </s> <s> 
-0.6641 SIL SIL </s> 
-0.4155 SIL SIL SIL 
-1.6843 SIL SIL a 
-1.7596 SIL SIL aa 
-2.6262 SIL SIL ai 
-2.9341 SIL SIL au 
-1.8654 SIL SIL b 
-1.8226 SIL SIL bh 
-2.9341 SIL SIL ch 
-2.7595 SIL SIL chh 
-1.9853 SIL SIL d 
-3.1286 SIL SIL d: 
-2.2486 SIL SIL dh 
-2.6262 SIL SIL ei 
-2.2138 SIL SIL g 
-3.3598 SIL SIL gh 
-1.6943 SIL SIL h 
-1.5354 SIL SIL i 
-1.9128 SIL SIL j 
-3.3598 SIL SIL jh 
-1.7837 SIL SIL k 
-2.9341 SIL SIL kh 
-2.4247 SIL SIL l 
-1.4585 SIL SIL m 
-2.1236 SIL SIL n 
-3.3598 SIL SIL o~ 
-1.7257 SIL SIL p 
-2.0973 SIL SIL ph 
-1.9853 SIL SIL r 
-2.9341 SIL SIL rx 
-1.4357 SIL SIL s 
-2.2138 SIL SIL sh 
-2.0973 SIL SIL t 
-3.3598 SIL SIL t: 
-1.6465 SIL SIL u 
-2.8436 SIL SIL uu 
-1.5424 SIL SIL v 
-1.5569 SIL SIL y 
-1.3139 SIL a b 
-1.2234 SIL a bh 
-1.7397 SIL a dh 
-1.5084 SIL a g 
-1.7397 SIL a j 
-1.5084 SIL a kh 
-1.7397 SIL a l 
-1.3139 SIL a m 
-0.7076 SIL a n 
-1.3139 SIL a n: 
-1.3139 SIL a p 
-1.7397 SIL a ph 
-1.3139 SIL a r 
-1.5084 SIL a s 
-1.7397 SIL a sh 
-0.7076 SIL a t 
-1.7397 SIL a y 
-1.6003 SIL aa d 
-1.3691 SIL aa dh 
-1.6003 SIL aa g 
-1.3691 SIL aa j 
-1.6003 SIL aa m 
-0.1703 SIL aa p 
-1.3691 SIL aa r 
-1.3691 SIL aa sh 
-1.6003 SIL aa v 
-0.2527 SIL ai s 
-0.7551 SIL ai t 
-0.0834 SIL au r 
-0.5740 SIL b a 
-0.9930 SIL b aa 
-1.2780 SIL b ai 
-1.5092 SIL b au 
-1.5092 SIL b ei 
-0.9930 SIL b i 
-1.5092 SIL b ii 
-1.5092 SIL b l 
-1.2780 SIL b oo 
-0.9088 SIL b r 
-1.5092 SIL b u 
-0.8666 SIL bh a 
-0.2065 SIL bh aa 
-1.6003 SIL bh au 
-1.6003 SIL bh ii 
-1.6003 SIL bh u 
-1.0841 SIL bh uu 
-0.5790 SIL ch a 
-0.5790 SIL ch aa 
-0.8102 SIL ch i 
-0.8102 SIL ch y 
-0.3348 SIL chh a 
-0.7039 SIL chh aa 
-0.9352 SIL chh oo 
-0.8961 SIL d a 
-1.4123 SIL d aa 
-0.4260 SIL d ei 
-1.1811 SIL d i 
-1.4123 SIL d ii 
-0.8961 SIL d oo 
-1.4123 SIL d r 
-1.4123 SIL d u 
-1.4123 SIL d uu 
-0.3331 SIL d: a 
-0.3331 SIL d: aa 
-0.5109 SIL dh a 
-0.6855 SIL dh aa 
-0.5950 SIL dh y 
-0.8009 SIL ei h 
-0.2984 SIL ei k 
-1.0321 SIL ei sh 
-0.4156 SIL g a 
-0.9470 SIL g aa 
-1.1782 SIL g au 
-1.1782 SIL g i 
-1.1782 SIL g oo 
-0.9470 SIL g u 
-1.1782 SIL g y 
-0.0321 SIL gh a 
-0.7501 SIL h a 
-1.4541 SIL h aa 
-1.1691 SIL h ai 
-1.4541 SIL h ei 
-0.2553 SIL h i 
-1.1691 SIL h oo 
-1.9352 SIL i l 
-0.6478 SIL i n 
-1.9352 SIL i n: 
-0.1322 SIL i s 
-1.9352 SIL i t 
-0.3724 SIL j a 
-1.5506 SIL j aa 
-0.9502 SIL j ai 
-1.5506 SIL j au 
-1.5506 SIL j ei 
-0.9502 SIL j i 
-1.3194 SIL j ii 
-1.5506 SIL j nj~ 
-1.3194 SIL j oo 
-1.5506 SIL j r 
-0.3331 SIL jh aa 
-0.3331 SIL jh o~ 
-0.3388 SIL k a 
-0.9507 SIL k aa 
-1.7133 SIL k ei 
-1.7133 SIL k i 
-1.1971 SIL k ii 
-1.7133 SIL k oo 
-0.9507 SIL k rx 
-1.7133 SIL k shh 
-1.2876 SIL k u 
-1.2876 SIL k y 
-0.2098 SIL kh a 
-0.8102 SIL kh y 
-0.3859 SIL l a 
-0.7551 SIL l ei 
-0.7551 SIL l oo 
-0.5277 SIL m a 
-0.9590 SIL m aa 
-0.5611 SIL m ai 
-0.9590 SIL m ei 
-1.9911 SIL m i 
-1.5654 SIL m oo 
-1.7599 SIL m rx 
-0.9176 SIL m u 
-1.7599 SIL m uu 
-0.2499 SIL n a 
-1.2362 SIL n aa 
-1.2362 SIL n ei 
-0.6358 SIL n i 
-0.1019 SIL o~ s 
-0.5863 SIL p a 
-1.0308 SIL p aa 
-0.3900 SIL p r 
-1.0019 SIL p u 
-1.2483 SIL p uu 
-1.7645 SIL p y 
-1.1019 SIL ph aa 
-0.2596 SIL ph i 
-0.8169 SIL ph r 
-0.9074 SIL ph u 
-0.8776 SIL r a 
-0.1313 SIL r aa 
-1.3938 SIL r i 
-1.3938 SIL r o~ 
-0.0834 SIL rx g 
-0.2903 SIL s a 
-0.9488 SIL s aa 
-1.7039 SIL s au 
-1.7039 SIL s i 
-1.9352 SIL s ii 
-1.9352 SIL s k 
-1.9352 SIL s m 
-1.9352 SIL s n 
-1.9352 SIL s r 
-1.7039 SIL s rx 
-0.6990 SIL s u 
-1.9352 SIL s uu 
-1.7039 SIL s v 
-1.1460 SIL sh a 
-0.6298 SIL sh aa 
-1.1460 SIL sh ai 
-0.7203 SIL sh i 
-0.9148 SIL sh oo 
-0.9148 SIL sh r 
-0.3358 SIL t a 
-1.4471 SIL t au 
-1.0213 SIL t ei 
-1.2158 SIL t i 
-1.4471 SIL t ii 
-1.2158 SIL t oo 
-0.8467 SIL t u 
-0.0321 SIL t: ei 
-1.8314 SIL u ch 
-1.2310 SIL u d 
-1.8314 SIL u d: 
-1.8314 SIL u j 
-1.6002 SIL u m 
-0.3680 SIL u n 
-1.4057 SIL u p 
-1.2310 SIL u r 
-1.0688 SIL u s 
-0.7202 SIL u t 
-0.5790 SIL uu p 
-0.2940 SIL uu r 
-0.7186 SIL v a 
-1.6334 SIL v aa 
-1.3484 SIL v ai 
-0.8325 SIL v ei 
-0.3140 SIL v i 
-1.3484 SIL v oo 
-1.6334 SIL v y 
-0.1018 SIL y a 
-1.6269 SIL y aa 
-1.2578 SIL y ei 
-1.6269 SIL y oo 
-1.3419 SIL y u 
-1.8582 SIL y uu 
-0.3503 a SIL </s> 
-0.2595 a SIL SIL 
-1.3691 a a b 
-1.1745 a a bh 
-0.8377 a a ch 
-1.3691 a a dh 
-1.6003 a a k 
-1.6003 a a m 
-1.0841 a a n 
-1.6003 a a n: 
-1.3691 a a p 
-0.6140 a a r 
-1.6003 a a t 
-0.9999 a a v 
-1.4123 a aa ch 
-1.4123 a aa d 
-1.4123 a aa dh 
-0.8961 a aa ei 
-1.1811 a aa g 
-1.4123 a aa k 
-1.4123 a aa n 
-1.4123 a aa n: 
-0.6497 a aa p 
-1.4123 a aa r 
-1.4123 a aa s 
-1.4123 a aa sh 
-1.4123 a aa t 
-1.1811 a aa y 
-0.6341 a ai s 
-0.2084 a ai t 
-0.0142 a au r 
-0.2589 a b a 
-1.0466 a b aa 
-1.8290 a b ai 
-0.8425 a b d 
-1.2685 a b i 
-1.7386 a b ii 
-1.7386 a b oo 
-1.4922 a b o~ 
-1.6544 a b r 
-2.2548 a b rx 
-1.7386 a b u 
-0.9334 a bh a 
-0.4340 a bh aa 
-2.2443 a bh au 
-1.2579 a bh i 
-0.4962 a bh ii 
-2.2443 a bh oo 
-2.2443 a bh rx 
-1.5106 a bh u 
-1.1708 a bh uu 
-2.0130 a bh y 
-0.3340 a ch a 
-1.0107 a ch aa 
-1.4297 a ch ch 
-0.7097 a ch chh 
-1.5201 a ch ei 
-0.9138 a ch i 
-1.5201 a ch ii 
-0.5606 a chh a 
-0.5606 a chh oo 
-0.5606 a chh u 
-0.5292 a d a 
-1.0193 a d aa 
-2.3938 a d d 
-2.3938 a d dh 
-0.6375 a d ei 
-0.7935 a d i 
-1.3617 a d ii 
-1.3617 a d oo 
-1.8776 a d r 
-2.1626 a d rx 
-2.1626 a d u 
-1.6312 a d uu 
-1.2825 a d v 
-2.1626 a d y 
-0.4736 a d: aa 
-1.2362 a d: ei 
-0.7200 a d: ii 
-0.8104 a d: k 
-1.0050 a d: s 
-1.2322 a d:h a 
-0.7298 a d:h aa 
-1.4634 a d:h g 
-1.2322 a d:h k 
-1.4634 a d:h m 
-1.0377 a d:h n 
-1.2322 a d:h r 
-1.0377 a d:h t 
-0.7009 a d:h v 
-0.6146 a dh a 
-0.4834 a dh aa 
-0.6690 a dh i 
-1.3610 a dh ii 
-1.8772 a dh u 
-0.8451 a dh y 
-1.1626 a ei ch 
-0.2825 a ei k 
-1.3938 a ei sh 
-1.3938 a ei th 
-0.6602 a ei v 
-0.2066 a g a 
-0.9420 a g aa 
-1.9470 a g au 
-1.4446 a g ei 
-1.7525 a g ii 
-1.9470 a g n 
-1.5778 a g oo 
-1.4156 a g r 
-1.0669 a g u 
-0.7039 a gh a 
-0.9352 a gh aa 
-0.5094 a gh oo 
-0.7039 a gh u 
-0.5846 a h a 
-1.0040 a h aa 
-0.6669 a h ai 
-1.5569 a h ei 
-1.1715 a h i 
-1.0662 a h ii 
-2.1486 a h m 
-0.8621 a h oo 
-2.9112 a h r 
-2.6799 a h rx 
-1.0867 a h u 
-1.8791 a h uu 
-1.2322 a h: a 
-1.4634 a h: aa 
-1.4634 a h: k 
-1.4634 a h: n 
-1.4634 a h: p 
-1.4634 a h: r 
-0.4771 a h: s 
-1.0377 a h: sp 
-1.2322 a h: t 
-1.4634 a h: u 
-1.2322 a h: v 
-1.0377 a h: y 
-1.1460 a i m 
-0.2109 a i s 
-0.6298 a i t 
-0.6426 a j a 
-0.5730 a j aa 
-2.0364 a j ai 
-2.0364 a j ei 
-0.7033 a j i 
-0.9629 a j ii 
-1.6106 a j j 
-1.2738 a j nj~ 
-1.2738 a j oo 
-1.8052 a j u 
-2.0364 a j y 
-0.0726 a jh a 
-0.9148 a jh ii 
-0.6941 a k a 
-0.5286 a k aa 
-0.6338 a k ei 
-1.5539 a k i 
-0.9432 a k ii 
-1.2443 a k oo 
-2.9839 a k o~ 
-1.9104 a k r 
-2.5582 a k rx 
-2.9839 a k s 
-1.5539 a k shh 
-1.8726 a k t 
-1.9976 a k u 
-2.9839 a k y 
-0.3493 a kh a 
-1.0115 a kh aa 
-0.8493 a kh ei 
-0.8782 a kh i 
-1.1861 a kh u 
-0.3938 a l a 
-1.0876 a l aa 
-2.3501 a l ai 
-2.1189 a l d 
-0.4985 a l ei 
-1.0393 a l i 
-1.3638 a l ii 
-2.3501 a l l 
-1.3638 a l oo 
-0.4452 a m a 
-1.1179 a m aa 
-1.4452 a m ai 
-2.2557 a m au 
-1.9478 a m b 
-1.9188 a m bh 
-0.5702 a m ei 
-1.3941 a m i 
-1.9188 a m ii 
-2.6814 a m j 
-1.7462 a m m 
-2.1652 a m oo 
-1.6079 a m p 
-2.4502 a m r 
-1.9478 a m rx 
-1.1179 a m u 
-1.6951 a m uu 
-0.4482 a n a 
-0.7877 a n aa 
-2.5754 a n ai 
-2.8066 a n au 
-2.0729 a n d 
-2.2062 a n dh 
-0.8714 a n ei 
-1.3595 a n i 
-1.4523 a n ii 
-2.2904 a n k 
-1.7745 a n m 
-1.7745 a n n 
-2.2904 a n oo 
-2.8066 a n sp 
-1.6953 a n t 
-2.2904 a n th 
-2.2062 a n tra 
-1.2063 a n u 
-2.2904 a n uu 
-1.0502 a n y 
-1.2943 a n: b 
-1.3291 a n: bh 
-2.4403 a n: ch 
-1.0280 a n: d 
-1.5051 a n: d: 
-1.0465 a n: dh 
-0.7648 a n: g 
-1.5051 a n: gh 
-1.7067 a n: j 
-1.2943 a n: k 
-1.6777 a n: kh 
-2.4403 a n: m 
-1.3668 a n: p 
-2.2091 a n: r 
-0.7648 a n: s 
-2.2091 a n: sh 
-1.9241 a n: sp 
-1.1778 a n: t 
-2.0146 a n: th 
-1.6777 a n: tra 
-2.2091 a n: v 
-1.8399 a n: y 
-0.0889 a nd~ a 
-1.3387 a nd~ aa 
-1.5332 a nd~ d: 
-1.7645 a nd~ ei 
-1.7645 a nd~ i 
-1.3387 a nd~ ii 
-0.1019 a ng~ ii 
-0.0321 a oo r 
-0.3955 a p a 
-1.1862 a p aa 
-1.9325 a p ei 
-1.7151 a p i 
-2.4487 a p oo 
-0.5245 a p r 
-1.4166 a p rx 
-1.0364 a p u 
-1.2405 a p uu 
-1.0321 a ph a 
-0.2695 a ph i 
-1.0321 a ph ii 
-0.8009 a ph r 
-0.2930 a r a 
-1.0276 a r aa 
-2.9048 a r au 
-2.3886 a r bh 
-2.3886 a r ch 
-2.6736 a r d 
-1.6686 a r ei 
-2.3886 a r g 
-1.4925 a r i 
-1.4925 a r ii 
-2.3886 a r j 
-2.4791 a r k 
-2.9048 a r l 
-1.4256 a r m 
-2.9048 a r n 
-1.8727 a r nd~ 
-1.8313 a r oo 
-2.9048 a r p 
-2.9048 a r r 
-2.1422 a r sh 
-1.5110 a r shh 
-2.3044 a r t 
-0.9919 a r th 
-2.3886 a r u 
-1.6686 a r uu 
-1.7266 a r v 
-1.7588 a r y 
-0.8851 a rx g 
-0.3757 a rx shh 
-0.3757 a rx t 
-0.4506 a s a 
-1.1553 a s aa 
-2.6645 a s ai 
-2.4333 a s au 
-0.6281 a s ei 
-1.3314 a s i 
-1.4020 a s ii 
-2.6645 a s j 
-1.9020 a s k 
-2.6645 a s m 
-1.7294 a s oo 
-2.4333 a s r 
-1.9020 a s t 
-2.6645 a s t: 
-1.3314 a s th 
-1.2011 a s u 
-2.2388 a s uu 
-1.9020 a s v 
-1.2345 a s y 
-0.5658 a sh a 
-0.7597 a sh aa 
-1.2333 a sh ch 
-1.9959 a sh ei 
-1.0095 a sh i 
-1.9959 a sh ii 
-1.4796 a sh m 
-1.9959 a sh oo 
-1.0095 a sh r 
-1.9959 a sh rx 
-1.2333 a sh u 
-1.9959 a sh v 
-0.8846 a sh y 
-0.6341 a shh a 
-0.6341 a shh i 
-0.4029 a shh t: 
-0.9818 a sp a 
-1.1257 a sp aa 
-2.1792 a sp ai 
-1.5729 a sp au 
-2.3737 a sp b 
-2.1792 a sp bh 
-2.3737 a sp ch 
-2.3737 a sp chh 
-1.8713 a sp d 
-2.6050 a sp dh 
-1.4267 a sp ei 
-2.6050 a sp g 
-2.3737 a sp gh 
-1.8713 a sp h 
-1.6698 a sp i 
-2.1792 a sp ii 
-1.8713 a sp j 
-2.6050 a sp jh 
-0.6044 a sp k 
-2.0046 a sp kh 
-2.3737 a sp l 
-0.9601 a sp m 
-1.5315 a sp n 
-2.3737 a sp o~ 
-1.1579 a sp p 
-2.6050 a sp ph 
-2.6050 a sp r 
-2.6050 a sp rx 
-1.3688 a sp s 
-2.3737 a sp sh 
-1.6698 a sp t 
-2.3737 a sp th 
-1.5315 a sp u 
-1.8713 a sp v 
-2.0046 a sp y 
-0.3889 a t a 
-0.8112 a t aa 
-2.6141 a t au 
-1.1507 a t ei 
-1.0769 a t i 
-0.9289 a t ii 
-2.3829 a t k 
-2.1884 a t n 
-2.1884 a t oo 
-1.8516 a t r 
-1.5821 a t t 
-1.8516 a t u 
-2.6141 a t uu 
-1.5029 a t v 
-1.3033 a t y 
-0.1891 a t: a 
-0.9632 a t: aa 
-1.5636 a t: ei 
-1.5636 a t: i 
-0.9632 a t: ii 
-0.5573 a t:h a 
-0.8422 a t:h aa 
-0.5573 a t:h i 
-1.0735 a t:h ii 
-0.7510 a th a 
-0.2013 a th aa 
-1.3083 a th ei 
-1.2241 a th ii 
-1.8245 a th u 
-1.5932 a th y 
-0.8102 a tra bh 
-0.5790 a tra d 
-0.3845 a tra k 
-1.4792 a u ch 
-0.7456 a u n 
-1.0535 a u p 
-0.4472 a u s 
-0.7167 a u t 
-1.4792 a u t:h 
-0.5242 a v a 
-0.6228 a v aa 
-2.1313 a v ai 
-1.4273 a v ei 
-0.4439 a v i 
-1.8463 a v ii 
-2.3625 a v rx 
-1.6288 a v y 
-0.3807 a y a 
-0.7382 a y aa 
-1.5640 a y ei 
-2.3265 a y i 
-0.7760 a y oo 
-0.9327 a y u 
-1.0903 a y uu 
-0.1543 aa SIL </s> 
-0.5396 aa SIL SIL 
-1.6269 aa a bh 
-1.8582 aa a dh 
-1.4324 aa a n 
-1.8582 aa a n: 
-0.0552 aa a r 
-1.8582 aa a t 
-0.8772 aa aa k 
-0.2768 aa aa p 
-0.8772 aa aa r 
-0.1435 aa au r 
-0.3010 aa b a 
-0.9088 aa b aa 
-0.9930 aa b d 
-1.5092 aa b ei 
-1.2780 aa b i 
-1.5092 aa b l 
-1.5092 aa b u 
-1.5092 aa b uu 
-1.1433 aa bh a 
-0.1963 aa bh aa 
-0.6119 aa bh ii 
-1.5234 aa ch a 
-0.3452 aa ch aa 
-1.5234 aa ch au 
-0.7898 aa ch i 
-0.7898 aa ch ii 
-1.5234 aa ch u 
-0.2266 aa d a 
-1.3594 aa d aa 
-2.1220 aa d au 
-1.0899 aa d ei 
-0.7677 aa d i 
-1.6058 aa d ii 
-2.1220 aa d rx 
-1.8908 aa d u 
-1.6962 aa d uu 
-1.8908 aa d v 
-0.2084 aa d: ii 
-0.6341 aa d: uu 
-0.0834 aa d:h ii 
-0.9488 aa dh a 
-0.3424 aa dh aa 
-1.1433 aa dh i 
-1.3745 aa dh rx 
-0.8583 aa dh u 
-1.1433 aa dh y 
-0.4929 aa ei SIL 
-1.4792 aa ei d 
-1.0535 aa ei g 
-1.4792 aa ei j 
-0.7456 aa ei k 
-1.2480 aa ei n 
-0.9630 aa ei n: 
-1.4792 aa ei sp 
-0.0825 aa g a 
-1.3223 aa g ei 
-1.7481 aa g i 
-1.7481 aa g oo 
-1.5169 aa g r 
-1.7481 aa g u 
-1.7481 aa g y 
-0.0321 aa gh a 
-1.1923 aa h a 
-2.1209 aa h aa 
-0.2312 aa h ai 
-1.5145 aa h ei 
-0.8711 aa h i 
-1.5145 aa h ii 
-2.1209 aa h m 
-1.3684 aa h oo 
-1.5603 aa h u 
-1.1923 aa h uu 
-1.2082 aa i b 
-0.7824 aa i d: 
-0.9769 aa i k 
-0.7824 aa i s 
-1.2082 aa i sp 
-0.7824 aa i t 
-1.2082 aa i t: 
-1.2082 aa i y 
-0.4736 aa ii SIL 
-1.2362 aa ii d 
-1.2362 aa ii g 
-0.8104 aa ii h 
-1.2362 aa ii k 
-1.2362 aa ii s 
-1.2362 aa ii sp 
-1.0050 aa ii th 
-0.4926 aa j a 
-0.5219 aa j aa 
-1.5870 aa j i 
-1.1553 aa j ii 
-1.6712 aa j nj~ 
-1.7617 aa j oo 
-2.1874 aa j r 
-2.1874 aa j u 
-0.6782 aa j y 
-0.3331 aa jh a 
-0.3331 aa jh ei 
-0.7648 aa k a 
-0.5887 aa k aa 
-2.1393 aa k au 
-0.6021 aa k ei 
-1.3767 aa k i 
-1.0280 aa k ii 
-2.1393 aa k l 
-1.2041 aa k oo 
-1.9081 aa k r 
-1.7135 aa k rx 
-2.1393 aa k shh 
-2.1393 aa k t: 
-1.5389 aa k u 
-2.1393 aa k y 
-0.7551 aa kh a 
-0.2237 aa kh aa 
-0.9863 aa kh i 
-0.2231 aa l a 
-1.3187 aa l aa 
-0.9031 aa l ei 
-1.1461 aa l i 
-1.0078 aa l ii 
-1.4809 aa l oo 
-2.0813 aa l p 
-0.2361 aa m a 
-1.0764 aa m aa 
-2.2224 aa m ai 
-2.2224 aa m au 
-0.8286 aa m ei 
-1.1903 aa m i 
-2.2224 aa m ii 
-2.2224 aa m oo 
-2.2224 aa m r 
-2.2224 aa m rx 
-1.1489 aa m u 
-1.9912 aa m uu 
-0.2025 aa n a 
-0.9893 aa n aa 
-2.3087 aa n d 
-1.1654 aa n ei 
-1.3318 aa n i 
-1.1461 aa n ii 
-1.7774 aa n oo 
-1.4665 aa n t 
-2.0237 aa n u 
-2.0237 aa n y 
-1.0473 aa n: ch 
-1.1378 aa n: d 
-1.5636 aa n: dh 
-0.8010 aa n: g 
-1.3323 aa n: j 
-1.5636 aa n: k 
-1.5636 aa n: p 
-1.5636 aa n: r 
-0.5772 aa n: s 
-1.5636 aa n: sp 
-1.0473 aa n: t 
-1.5636 aa n: v 
-0.1891 aa nd~ a 
-1.0313 aa nd~ d: 
-1.0313 aa nd~ i 
-1.2625 aa nd~ ii 
-1.2625 aa nd~ oo 
-0.0138 aa oo n: 
-0.1888 aa p a 
-1.6248 aa p aa 
-1.9940 aa p ei 
-2.2252 aa p i 
-0.7307 aa p r 
-1.9940 aa p rx 
-1.1139 aa p t 
-1.9940 aa p u 
-1.9940 aa p uu 
-1.2625 aa ph aa 
-1.2625 aa ph ai 
-1.2625 aa ph i 
-0.0843 aa ph ii 
-0.1907 aa r a 
-1.2377 aa r aa 
-2.5920 aa r ch 
-1.3838 aa r ei 
-2.3608 aa r g 
-1.4460 aa r i 
-1.1797 aa r ii 
-2.5920 aa r j 
-1.6568 aa r m 
-2.0758 aa r oo 
-2.3608 aa r sh 
-2.1662 aa r t 
-2.3608 aa r t: 
-2.3608 aa r th 
-2.5920 aa r uu 
-1.0828 aa r y 
-0.3331 aa rx g 
-0.3331 aa rx t 
-0.1735 aa s a 
-1.2227 aa s aa 
-2.2548 aa s ai 
-1.2227 aa s ei 
-1.1088 aa s i 
-2.0236 aa s ii 
-1.7386 aa s t 
-2.2548 aa s t: 
-2.2548 aa s th 
-1.8290 aa s tra 
-1.5211 aa s u 
-1.8290 aa s v 
-0.4314 aa sh a 
-1.0377 aa sh aa 
-1.4634 aa sh ch 
-0.7009 aa sh i 
-1.0377 aa sh ii 
-0.9472 aa sh r 
-0.1120 aa shh aa 
-0.9130 aa shh t: 
-1.1593 aa shh t:ra 
-0.8478 aa sp a 
-1.2095 aa sp aa 
-1.7254 aa sp ai 
-1.6412 aa sp au 
-2.2416 aa sp b 
-2.2416 aa sp bh 
-2.2416 aa sp d 
-2.2416 aa sp dh 
-0.8293 aa sp ei 
-1.8158 aa sp g 
-2.0104 aa sp h 
-1.6412 aa sp i 
-2.2416 aa sp ii 
-0.6075 aa sp k 
-2.0104 aa sp l 
-1.8158 aa sp m 
-1.7254 aa sp n 
-2.2416 aa sp p 
-2.0104 aa sp r 
-2.2416 aa sp rx 
-2.0104 aa sp s 
-2.2416 aa sp sh 
-2.2416 aa sp t 
-2.2416 aa sp th 
-0.9542 aa sp u 
-1.6412 aa sp v 
-0.5798 aa t a 
-0.4095 aa t aa 
-1.0746 aa t ei 
-1.7786 aa t i 
-1.0235 aa t ii 
-1.5841 aa t m 
-1.7786 aa t oo 
-1.7786 aa t r 
-2.0098 aa t rx 
-2.0098 aa t s 
-1.5841 aa t u 
-2.0098 aa t uu 
-2.0098 aa t y 
-0.4745 aa t: a 
-0.9769 aa t: aa 
-1.2082 aa t: ei 
-0.6078 aa t: ii 
-0.8102 aa t:h a 
-0.2098 aa t:h ii 
-0.2126 aa th a 
-0.5883 aa th aa 
-1.0072 aa th ii 
-1.1460 aa tra SIL 
-0.2109 aa tra a 
-1.1460 aa tra d 
-1.1460 aa tra h 
-1.1460 aa tra k 
-1.1460 aa tra v 
-0.7311 aa u ch 
-0.7311 aa u d 
-0.7311 aa u p 
-0.4998 aa u t 
-0.1402 aa uu SIL 
-1.0687 aa uu h 
-1.4945 aa uu m 
-0.9783 aa uu n 
-0.2392 aa v a 
-0.7533 aa v aa 
-1.9615 aa v ei 
-0.8155 aa v i 
-1.9615 aa v oo 
-1.1989 aa v y 
-0.2908 aa y a 
-0.6021 aa y aa 
-1.2227 aa y ei 
-1.9564 aa y ii 
-1.1938 aa y oo 
-1.1938 aa y u 
-0.2435 ai SIL </s> 
-0.3713 ai SIL SIL 
-0.0321 ai a bh 
-0.5092 ai aa d 
-0.2780 ai aa p 
-0.5092 ai b a 
-0.5092 ai b aa 
-0.5092 ai b u 
-0.6460 ai bh a 
-0.6460 ai bh aa 
-0.8772 ai bh ii 
-0.8772 ai bh r 
-0.8772 ai bh uu 
-0.0321 ai ch u 
-0.0321 ai chh aa 
-0.9352 ai d a 
-0.9352 ai d aa 
-0.9352 ai d ei 
-0.5094 ai d i 
-0.9352 ai d r 
-0.9352 ai d u 
-0.0321 ai d: a 
-0.0321 ai g a 
-0.2780 ai h i 
-0.5092 ai h oo 
-0.6855 ai j a 
-0.6855 ai j ai 
-1.1113 ai j i 
-0.6855 ai j nj~ 
-0.8800 ai j oo 
-1.0561 ai k aa 
-1.2874 ai k ei 
-0.1761 ai k i 
-1.2874 ai k oo 
-1.2874 ai k shh 
-1.2874 ai k u 
-0.1019 ai kh aa 
-0.4190 ai l a 
-0.9352 ai l aa 
-0.5094 ai l ii 
-0.5606 ai m a 
-0.9863 ai m aa 
-0.9863 ai m ei 
-0.9863 ai m i 
-0.9863 ai m oo 
-0.7551 ai m uu 
-0.7463 ai n a 
-0.3274 ai n ei 
-0.7463 ai n i 
-1.2625 ai n y 
-0.3352 ai n: SIL 
-1.6819 ai n: a 
-1.8764 ai n: ai 
-2.1076 ai n: b 
-2.1076 ai n: bh 
-2.1076 ai n: d 
-2.1076 ai n: d: 
-2.1076 ai n: ei 
-1.8764 ai n: g 
-1.8764 ai n: h 
-1.6819 ai n: j 
-1.0342 ai n: k 
-1.8764 ai n: m 
-1.3450 ai n: n 
-1.6819 ai n: p 
-1.6819 ai n: s 
-1.5914 ai n: sh 
-1.1725 ai n: sp 
-1.5072 ai n: t 
-2.1076 ai n: t:h 
-2.1076 ai n: u 
-2.1076 ai n: v 
-1.8764 ai n: y 
-0.6341 ai p aa 
-0.2084 ai p r 
-0.5092 ai ph ai 
-0.2780 ai ph uu 
-0.8368 ai r a 
-1.2625 ai r aa 
-0.1165 ai r ii 
-0.7243 ai s a 
-0.4938 ai s aa 
-0.4021 ai s ei 
-1.5251 ai s ii 
-1.7564 ai s m 
-1.7564 ai s u 
-1.7564 ai s uu 
-0.5092 ai sh a 
-0.5092 ai sh r 
-0.5092 ai sh u 
-0.0321 ai shh nd~ 
-1.2780 ai sp a 
-0.7466 ai sp aa 
-1.5092 ai sp au 
-1.5092 ai sp b 
-1.5092 ai sp ei 
-0.9088 ai sp i 
-0.9088 ai sp j 
-1.5092 ai sp l 
-1.2780 ai sp m 
-1.5092 ai sp r 
-1.2780 ai sp s 
-1.0834 ai sp u 
-0.1047 ai t i 
-1.1782 ai t ii 
-0.9470 ai t oo 
-0.3053 ai t:h a 
-0.4998 ai t:h ei 
-0.1019 ai th i 
-0.5790 ai v a 
-0.2940 ai v i 
-0.5092 ai y a 
-0.5092 ai y aa 
-0.5092 ai y u 
-0.1019 au bh aa 
-0.2084 au d dh 
-0.6341 au d y 
-0.1019 au d:h au 
-0.0321 au g oo 
-0.0321 au gh aa 
-0.0834 au h aa 
-0.0321 au j uu 
-0.0321 au k aa 
-0.0834 au l i 
-0.0321 au n a 
-0.4029 au n: d 
-0.4029 au n: k 
-0.6341 au p a 
-0.2084 au p aa 
-0.0274 au r a 
-1.5071 au r aa 
-2.0233 au r u 
-2.0233 au r y 
-0.0834 au s a 
-0.0321 au shh a 
-0.3610 au t a 
-0.6460 au t i 
-0.8772 au t u 
-0.0321 au th ii 
-0.0321 au v a 
-2.3108 b a SIL 
-2.3108 b a a 
-2.3108 b a aa 
-2.0796 b a b 
-2.3108 b a bh 
-1.1648 b a ch 
-1.1996 b a d 
-1.5483 b a d: 
-1.3757 b a d:h 
-2.0796 b a g 
-0.8016 b a h 
-1.5772 b a k 
-1.7946 b a l 
-2.0796 b a m 
-0.8638 b a n 
-0.9363 b a n: 
-2.0796 b a ng~ 
-2.3108 b a p 
-1.7104 b a r 
-0.7874 b a s 
-2.0796 b a sh 
-1.7104 b a sp 
-1.7104 b a t 
-2.3108 b a t:h 
-1.5643 b aa b 
-0.5873 b aa d 
-1.7955 b aa g 
-1.3698 b aa h 
-1.3698 b aa k 
-1.1951 b aa l 
-1.2793 b aa n 
-1.2793 b aa n: 
-0.5593 b aa r 
-1.7955 b aa sp 
-1.2793 b aa t 
-0.6460 b ai l 
-0.2768 b ai t:h 
-0.0834 b au d 
-0.0321 b b a 
-0.1461 b d a 
-1.2480 b d i 
-1.2480 b d ii 
-0.9630 b d oo 
-0.2768 b ei h 
-0.8772 b ei k 
-0.8772 b ei t: 
-1.0213 b i b 
-1.2158 b i bh 
-0.9308 b i ch 
-0.6845 b i dh 
-1.4471 b i g 
-1.4471 b i h 
-1.2158 b i n 
-1.2158 b i n: 
-1.4471 b i p 
-1.0213 b i s 
-1.4471 b i shh 
-0.5778 b ii ch 
-1.1782 b ii ei 
-1.1782 b ii j 
-1.1782 b ii k 
-1.1782 b ii m 
-1.1782 b ii r 
-0.9470 b ii s 
-0.9470 b ii sp 
-0.1019 b l o~ 
-0.0348 b oo l 
-1.1460 b oo t: 
-0.0477 b o~ l 
-0.1761 b r a 
-0.7824 b r aa 
-0.9769 b r i 
-0.1019 b rx n: 
-0.2768 b u d 
-0.8772 b u dh 
-0.8772 b u r 
-0.0321 b uu sp 
-1.8646 bh a a 
-1.4388 bh a b 
-1.3484 bh a d 
-0.7533 bh a g 
-1.6334 bh a h 
-1.8646 bh a jh 
-1.6334 bh a k 
-1.6334 bh a l 
-1.4388 bh a m 
-1.6334 bh a p 
-0.8325 bh a r 
-1.8646 bh a s 
-1.6334 bh a sp 
-1.8646 bh a t: 
-0.7186 bh a v 
-0.8783 bh a y 
-2.2307 bh aa d 
-1.9995 bh aa ei 
-0.9945 bh aa g 
-1.4682 bh aa ii 
-1.8050 bh aa j 
-0.3122 bh aa r 
-2.2307 bh aa s 
-0.6672 bh aa shh 
-1.0847 bh aa uu 
-1.6303 bh aa v 
-0.5092 bh au g 
-0.2780 bh au t 
-0.3331 bh ei d 
-0.3331 bh ei j 
-0.8800 bh i k 
-1.1113 bh i m 
-0.3487 bh i n 
-0.6855 bh i y 
-2.0233 bh ii a 
-2.0233 bh ii aa 
-1.4229 bh ii b 
-1.5071 bh ii bh 
-2.0233 bh ii ch 
-1.7921 bh ii d 
-1.7921 bh ii dh 
-2.0233 bh ii g 
-2.0233 bh ii gh 
-0.8773 bh ii h 
-1.2607 bh ii j 
-1.0881 bh ii k 
-1.2607 bh ii l 
-1.2607 bh ii m 
-1.7921 bh ii n 
-2.0233 bh ii p 
-1.5071 bh ii r 
-1.2607 bh ii s 
-1.7921 bh ii sh 
-1.5976 bh ii shh 
-0.7871 bh ii sp 
-1.5976 bh ii t 
-1.5976 bh ii v 
-2.0233 bh ii y 
-0.3331 bh oo j 
-0.3331 bh oo p 
-0.0321 bh r a 
-0.0321 bh rx g 
-0.9863 bh u b 
-0.9863 bh u bh 
-0.9863 bh u ch 
-0.9863 bh u m 
-0.7551 bh u p 
-0.9863 bh u s 
-0.9863 bh u sp 
-0.9863 bh u v 
-0.3468 bh uu g 
-1.3331 bh uu l 
-0.5705 bh uu m 
-1.3331 bh uu p 
-1.1019 bh uu t 
-1.3331 bh uu t: 
-0.1019 bh y a 
-1.9186 ch a b 
-1.9186 ch a bh 
-1.9186 ch a ei 
-1.9186 ch a g 
-1.9186 ch a gh 
-1.6873 ch a h 
-1.4024 ch a k 
-0.8451 ch a l 
-1.9186 ch a m 
-0.4715 ch a n 
-1.6873 ch a n: 
-1.6873 ch a p 
-0.8451 ch a r 
-1.4024 ch a s 
-1.9186 ch a sp 
-1.6873 ch a t 
-1.4928 ch a t: 
-1.9186 ch a v 
-1.6873 ch a y 
-0.4114 ch aa h 
-1.7223 ch aa k 
-1.4910 ch aa l 
-1.7223 ch aa m 
-0.3680 ch aa r 
-1.7223 ch aa rx 
-1.4910 ch aa sp 
-1.4910 ch aa t 
-0.4514 ch au h 
-0.4514 ch au p 
-0.8772 ch au th 
-0.4190 ch ch a 
-0.9352 ch ch aa 
-0.9352 ch ch ei 
-0.7039 ch ch oo 
-0.1891 ch chh aa 
-0.8368 ch chh ei 
-0.8368 ch chh ii 
-0.7311 ch ei dh 
-0.7311 ch ei h 
-0.7311 ch ei sp 
-0.4998 ch ei t 
-1.4945 ch i k 
-0.9783 ch i m 
-1.2633 ch i n 
-1.2633 ch i n: 
-1.2633 ch i r 
-0.5593 ch i t 
-0.5593 ch i tra 
-1.2633 ch i v 
-0.8368 ch ii h 
-1.2625 ch ii k 
-1.2625 ch ii l 
-1.0313 ch ii m 
-0.2304 ch ii n 
-0.1019 ch oo n: 
-0.3053 ch u k 
-0.4998 ch u n 
-0.0321 ch y a 
-1.4792 chh a a 
-1.2480 chh a au 
-1.2480 chh a b 
-1.4792 chh a bh 
-1.4792 chh a d 
-1.2480 chh a h 
-1.4792 chh a k 
-1.4792 chh a l 
-1.2480 chh a m 
-0.9630 chh a n 
-1.4792 chh a p 
-1.4792 chh a r 
-1.4792 chh a sh 
-1.0535 chh a sp 
-0.8788 chh a t 
-1.2082 chh aa d 
-0.6920 chh aa h 
-0.9769 chh aa k 
-0.9769 chh aa l 
-1.2082 chh aa m 
-1.2082 chh aa r 
-1.2082 chh aa t 
-0.7824 chh aa y 
-0.6341 chh ei d 
-0.6341 chh ei h 
-0.6341 chh ei j 
-0.6341 chh ei l 
-0.2780 chh ii l 
-0.5092 chh ii t 
-0.8772 chh oo d: 
-0.1146 chh oo t: 
-0.5092 chh u b 
-0.5092 chh u r 
-0.5092 chh u sp 
-0.0321 chh uu t: 
-0.9085 d a SIL 
-2.1865 d a a 
-1.9919 d a aa 
-2.4177 d a au 
-2.1865 d a bh 
-1.8173 d a d 
-1.1552 d a h 
-2.4177 d a i 
-2.4177 d a j 
-0.9085 d a k 
-1.3442 d a l 
-1.0846 d a m 
-1.3442 d a n 
-2.1865 d a n: 
-1.6551 d a p 
-0.8671 d a r 
-2.4177 d a rx 
-0.9085 d a s 
-2.1865 d a sh 
-1.1303 d a sp 
-2.4177 d a th 
-2.4177 d a u 
-2.4177 d a v 
-1.2395 d a y 
-1.2498 d aa d:h 
-0.9419 d aa h 
-1.6755 d aa j 
-1.6755 d aa l 
-0.4674 d aa n 
-0.9419 d aa r 
-0.9130 d aa s 
-1.6755 d aa t 
-1.2498 d aa y 
-0.0321 d ai n 
-0.0834 d au r 
-0.2780 d d ei 
-0.5092 d d ii 
-0.0691 d dh a 
-1.5636 d dh aa 
-1.0473 d dh i 
-2.1290 d ei SIL 
-2.1290 d ei au 
-1.8978 d ei h 
-2.1290 d ei i 
-2.1290 d ei k 
-0.5918 d ei kh 
-1.0969 d ei n 
-1.5286 d ei n: 
-2.1290 d ei r 
-2.1290 d ei s 
-0.4535 d ei sh 
-1.3664 d ei t 
-0.7959 d ei v 
-0.1019 d g a 
-0.9700 d i SIL 
-1.9564 d i bh 
-1.7251 d i ei 
-1.1938 d i k 
-1.9564 d i kh 
-0.9700 d i l 
-0.9243 d i n 
-1.3560 d i r 
-1.3560 d i sh 
-1.9564 d i t 
-1.4401 d i v 
-0.4329 d i y 
-1.6873 d ii SIL 
-1.9186 d ii au 
-1.9186 d ii b 
-1.9186 d ii d 
-1.9186 d ii dh 
-1.4024 d ii g 
-1.6873 d ii h 
-1.4024 d ii j 
-0.5643 d ii k 
-1.4928 d ii m 
-1.6873 d ii n 
-1.4928 d ii p 
-1.4024 d ii ph 
-0.7104 d ii s 
-1.6873 d ii sp 
-1.9186 d ii u 
-0.8865 d ii v 
-1.1286 d oo SIL 
-1.6449 d oo b 
-1.6449 d oo bh 
-1.4136 d oo k 
-1.0445 d oo l 
-0.8823 d oo n 
-0.8823 d oo n: 
-1.0445 d oo p 
-1.0445 d oo s 
-1.6449 d oo shh 
-1.6449 d oo sp 
-1.6449 d oo t 
-1.4136 d oo uu 
-1.6449 d oo v 
-0.1891 d r a 
-0.7463 d r aa 
-1.2625 d r ii 
-1.2625 d r oo 
-0.8102 d rx sh 
-0.2098 d rx shh 
-1.2780 d u b 
-1.5092 d u g 
-0.9930 d u h: 
-1.5092 d u j 
-1.5092 d u k 
-0.9088 d u kh 
-1.5092 d u m 
-1.2780 d u n 
-0.9930 d u oo 
-1.5092 d u p 
-1.2780 d u r 
-1.0834 d u s 
-1.2780 d u sh 
-1.5092 d u shh 
-1.1988 d uu b 
-1.4300 d uu bh 
-1.4300 d uu d 
-1.1988 d uu dh 
-1.4300 d uu m 
-1.4300 d uu ph 
-1.4300 d uu r 
-0.3188 d uu s 
-1.1988 d uu shh 
-1.4300 d uu t 
-1.4300 d uu v 
-0.1597 d v aa 
-0.6845 d v i 
-1.2158 d v ii 
-0.8009 d y a 
-0.2695 d y aa 
-0.8009 d y oo 
-0.8616 d: a SIL 
-1.2874 d: a ei 
-1.2874 d: a g 
-0.7711 d: a k 
-0.8616 d: a l 
-1.0561 d: a p 
-1.0561 d: a r 
-1.0561 d: a v 
-1.1460 d: aa a 
-0.3834 d: aa h 
-0.9148 d: aa j 
-0.9148 d: aa k 
-1.1460 d: aa l 
-1.1460 d: aa sp 
-0.2084 d: ei m 
-0.6341 d: ei t 
-1.6553 d: i g 
-0.0105 d: i y 
-0.8800 d: ii b 
-1.1113 d: ii gh 
-0.8800 d: ii h 
-0.8800 d: ii k 
-1.1113 d: ii n 
-0.6855 d: ii s 
-1.1113 d: ii th 
-0.1179 d: k a 
-0.0321 d: oo n 
-0.1019 d: s ei 
-0.0321 d: uu k 
-0.3331 d:h a n 
-0.3331 d:h a p 
-0.8772 d:h aa d 
-0.8772 d:h aa h 
-0.6460 d:h aa ii 
-0.8772 d:h aa sp 
-0.6460 d:h aa v 
-0.1019 d:h au r 
-0.0321 d:h g a 
-0.1179 d:h ii k 
-0.3331 d:h k aa 
-0.3331 d:h k ii 
-0.0321 d:h m ei 
-0.0834 d:h n ei 
-0.2780 d:h r a 
-0.5092 d:h r u 
-0.5092 d:h t a 
-0.2780 d:h t ei 
-0.0477 d:h v aa 
-1.8302 dh a SIL 
-2.0615 dh a aa 
-2.0615 dh a dh 
-0.9880 dh a h 
-0.9502 dh a k 
-2.0615 dh a l 
-1.8302 dh a m 
-0.3762 dh a n 
-1.6357 dh a p 
-0.6677 dh a r 
-2.0615 dh a s 
-1.5452 dh a sp 
-2.0615 dh a th 
-1.7645 dh aa h 
-1.5332 dh aa k 
-1.7645 dh aa m 
-0.4314 dh aa n 
-0.3010 dh aa r 
-1.5332 dh aa s 
-1.7645 dh aa t 
-0.0321 dh ei v 
-1.6341 dh i SIL 
-1.4029 dh i b 
-1.6341 dh i d 
-1.6341 dh i g 
-1.6341 dh i h 
-0.3010 dh i k 
-1.4029 dh i n 
-1.6341 dh i r 
-1.6341 dh i s 
-0.6478 dh i t 
-1.6341 dh i y 
-0.9352 dh ii au 
-0.9352 dh ii bh 
-0.9352 dh ii gh 
-0.5094 dh ii n 
-0.7039 dh ii p 
-0.0321 dh rx t 
-0.8102 dh u b 
-0.8102 dh u m 
-0.2940 dh u n 
-0.9074 dh y a 
-0.0706 dh y aa 
-0.3641 ei SIL </s> 
-0.2564 ei SIL SIL 
-1.4945 ei a b 
-0.8941 ei a dh 
-0.1402 ei a n 
-1.4945 ei a n: 
-1.4945 ei a t 
-0.4029 ei aa bh 
-0.6341 ei aa sh 
-0.6341 ei aa y 
-0.1179 ei au r 
-0.3617 ei b a 
-0.3840 ei b aa 
-1.6948 ei b ei 
-1.0944 ei b ii 
-1.6948 ei b oo 
-0.9138 ei bh a 
-0.3979 ei bh aa 
-1.4300 ei bh ei 
-0.4437 ei bh ii 
-1.4300 ei bh oo 
-0.2984 ei ch a 
-0.6063 ei ch aa 
-0.3331 ei chh oo 
-0.3331 ei chh uu 
-0.4690 ei d a 
-1.5251 ei d aa 
-1.5251 ei d au 
-0.7700 ei d ei 
-1.2401 ei d i 
-1.7564 ei d ii 
-0.6829 ei d oo 
-1.5251 ei d u 
-1.7564 ei d uu 
-1.3306 ei d v 
-0.1019 ei d: i 
-0.0212 ei dh a 
-1.3543 ei dh y 
-0.1179 ei ei k 
-0.7539 ei g a 
-0.5917 ei g aa 
-1.3543 ei g ei 
-1.1231 ei g ii 
-1.3543 ei g oo 
-1.1231 ei g r 
-0.8381 ei g u 
-0.7311 ei gh a 
-0.4998 ei gh aa 
-0.4998 ei gh i 
-0.9294 ei h a 
-1.9615 ei h aa 
-0.3274 ei h ai 
-1.7303 ei h ei 
-1.2278 ei h i 
-0.8502 ei h ii 
-1.2278 ei h oo 
-1.1989 ei h u 
-0.8102 ei i n: 
-0.8102 ei i r 
-0.2940 ei i s 
-0.5295 ei j a 
-0.6021 ei j aa 
-1.6755 ei j ai 
-0.5643 ei j ii 
-1.4443 ei j oo 
-1.4443 ei j u 
-1.2498 ei j y 
-0.2457 ei k a 
-0.8087 ei k aa 
-0.8989 ei k ei 
-1.4108 ei k i 
-1.2347 ei k ii 
-1.8297 ei k oo 
-1.7456 ei k shh 
-2.1147 ei k u 
-0.2811 ei kh a 
-1.6890 ei kh aa 
-1.0592 ei kh ei 
-1.2701 ei kh i 
-2.2053 ei kh ii 
-0.5397 ei kh oo 
-1.9740 ei kh u 
-0.9574 ei l a 
-2.1656 ei l aa 
-1.2304 ei l ei 
-0.1165 ei l i 
-1.2304 ei l oo 
-0.5667 ei m a 
-1.2867 ei m aa 
-1.5717 ei m ai 
-1.3772 ei m au 
-0.4698 ei m ei 
-1.3772 ei m i 
-1.3772 ei m o~ 
-1.8029 ei m p 
-1.2025 ei m u 
-1.5717 ei m uu 
-0.5850 ei n a 
-0.4202 ei n aa 
-1.2148 ei n d 
-0.9974 ei n ei 
-0.9685 ei n i 
-1.7311 ei n ii 
-0.7241 ei n: SIL 
-2.5121 ei n: a 
-2.5121 ei n: aa 
-2.5121 ei n: au 
-1.3661 ei n: b 
-1.3339 ei n: bh 
-1.7784 ei n: d 
-2.2809 ei n: dh 
-2.2809 ei n: ei 
-1.7784 ei n: g 
-1.0650 ei n: h 
-1.7784 ei n: i 
-1.7495 ei n: j 
-2.2809 ei n: jh 
-1.3039 ei n: k 
-1.9117 ei n: l 
-1.9959 ei n: m 
-1.9117 ei n: n 
-1.1578 ei n: p 
-1.4008 ei n: r 
-2.2809 ei n: rx 
-1.0176 ei n: s 
-2.5121 ei n: sh 
-0.9615 ei n: sp 
-1.7495 ei n: t 
-2.5121 ei n: th 
-1.9117 ei n: u 
-1.4386 ei n: v 
-1.7495 ei n: y 
-0.7311 ei nd~ i 
-0.2148 ei nd~ ii 
-0.4771 ei p a 
-0.8388 ei p aa 
-1.8709 ei p i 
-1.8709 ei p ii 
-0.4239 ei p r 
-1.6397 ei p rx 
-1.4452 ei p u 
-1.6397 ei p uu 
-1.8709 ei p y 
-1.1393 ei r a 
-0.5035 ei r aa 
-0.8045 ei r ei 
-1.1393 ei r i 
-0.7076 ei r ii 
-1.7397 ei r u 
-0.9771 ei r uu 
-0.3331 ei rx g 
-0.3331 ei rx shh 
-0.2860 ei s a 
-0.7253 ei s aa 
-1.5357 ei s ei 
-1.9615 ei s i 
-1.7303 ei s ii 
-1.7303 ei s oo 
-1.9615 ei s r 
-1.7303 ei s t 
-1.7303 ei s th 
-1.0263 ei s u 
-1.9615 ei s uu 
-1.5357 ei s v 
-0.1326 ei sh a 
-1.4871 ei sh aa 
-1.3967 ei sh i 
-1.4871 ei sh ii 
-1.6817 ei sh oo 
-1.4871 ei sh r 
-1.4871 ei sh u 
-1.6817 ei sh y 
-0.4736 ei shh a 
-1.0050 ei shh ii 
-0.3010 ei shh t:h 
-0.7246 ei sp a 
-0.6550 ei sp aa 
-1.8872 ei sp ai 
-2.1184 ei sp au 
-2.1184 ei sp b 
-2.1184 ei sp d 
-1.1833 ei sp ei 
-2.1184 ei sp g 
-1.8872 ei sp h 
-1.1321 ei sp i 
-1.8872 ei sp j 
-2.1184 ei sp jh 
-1.8872 ei sp k 
-2.1184 ei sp kh 
-1.6022 ei sp m 
-2.1184 ei sp n 
-1.8872 ei sp p 
-1.8872 ei sp s 
-1.8872 ei sp sh 
-2.1184 ei sp t 
-0.8822 ei sp u 
-1.6927 ei sp uu 
-1.6022 ei sp v 
-1.3559 ei sp y 
-1.0228 ei t a 
-0.6368 ei t aa 
-1.1974 ei t ei 
-1.1974 ei t ii 
-0.6880 ei t oo 
-1.3919 ei t r 
-0.6368 ei t u 
-0.2098 ei t: a 
-0.8102 ei t: ei 
-0.8422 ei th a 
-1.0735 ei th aa 
-0.1383 ei th ei 
-0.9148 ei tra SIL 
-1.1460 ei tra g 
-0.9148 ei tra h 
-1.1460 ei tra k 
-0.7203 ei tra m 
-1.1460 ei tra p 
-1.1460 ei tra s 
-0.9148 ei tra sp 
-0.9352 ei u d 
-0.7039 ei u m 
-0.5094 ei u n 
-0.9352 ei u p 
-0.9352 ei u t 
-0.3291 ei v a 
-0.6205 ei v aa 
-2.0144 ei v ei 
-0.8361 ei v i 
-1.0280 ei v ii 
-1.4981 ei v y 
-0.2695 ei y a 
-1.0321 ei y aa 
-1.0321 ei y oo 
-1.0321 ei y u 
-1.0321 ei y uu 
-1.3769 g a SIL 
-2.0246 g a a 
-2.4504 g a ai 
-2.2192 g a b 
-1.5152 g a bh 
-1.1630 g a d 
-2.4504 g a d: 
-1.3769 g a d:h 
-2.4504 g a dh 
-2.4504 g a ei 
-2.2192 g a g 
-1.1395 g a h 
-2.2192 g a i 
-2.0246 g a j 
-1.3391 g a k 
-1.2722 g a l 
-1.2142 g a m 
-1.3769 g a n 
-2.0246 g a n: 
-1.9342 g a nd~ 
-1.8500 g a p 
-1.0204 g a r 
-1.9342 g a s 
-1.3391 g a sp 
-1.0033 g a t 
-2.4504 g a t: 
-2.0246 g a t:h 
-1.5152 g a v 
-0.8742 g a y 
-0.5149 g aa SIL 
-1.5884 g aa au 
-1.5884 g aa d 
-1.1626 g aa i 
-1.5884 g aa ii 
-1.5884 g aa k 
-1.1626 g aa n 
-1.3572 g aa n: 
-1.3572 g aa r 
-1.0722 g aa sp 
-1.3572 g aa v 
-0.9880 g aa y 
-0.7311 g au r 
-0.2148 g au t 
-0.4446 g ei SIL 
-1.1782 g ei ch 
-0.9470 g ei h 
-1.1782 g ei n 
-0.9470 g ei s 
-1.1782 g ei th 
-0.8772 g i j 
-0.8772 g i k 
-0.8772 g i n 
-0.4514 g i r 
-0.8772 g i t 
-0.6358 g ii SIL 
-1.2362 g ii h 
-1.0050 g ii k 
-1.2362 g ii n 
-1.2362 g ii n: 
-1.2362 g ii ph 
-1.2362 g ii sp 
-0.7200 g ii t 
-0.2148 g l aa 
-0.7311 g l ai 
-0.1019 g n i 
-1.2480 g oo b 
-1.4792 g oo d 
-0.3010 g oo l 
-1.4792 g oo m 
-1.4792 g oo n 
-0.8788 g oo n: 
-1.0535 g oo r 
-1.4792 g oo s 
-0.4175 g r a 
-0.9632 g r aa 
-0.4523 g r ei 
-1.0473 g r ii 
-0.0321 g rx h 
-1.1988 g u j 
-0.3979 g u n 
-0.9138 g u nd~ 
-1.4300 g u p 
-0.6964 g u r 
-1.4300 g u rx 
-0.0321 g uu d:h 
-0.0512 g v ei 
-0.2084 g y a 
-0.6341 g y aa 
-1.2874 gh a h 
-1.0561 gh a k 
-1.2874 gh a m 
-1.2874 gh a n 
-0.7711 gh a r 
-1.2874 gh a sp 
-0.3522 gh a t: 
-0.7039 gh aa l 
-0.1726 gh aa t: 
-0.1019 gh i r 
-0.0477 gh oo shh 
-0.0321 gh r a 
-0.3331 gh u b 
-0.3331 gh u p 
-1.7233 h a SIL 
-2.2257 h a a 
-2.2257 h a aa 
-2.2257 h a b 
-2.0312 h a bh 
-1.9407 h a d 
-2.2257 h a dh 
-1.9407 h a ei 
-1.9407 h a g 
-1.2788 h a h 
-2.4570 h a i 
-1.7233 h a j 
-2.4570 h a jh 
-1.2208 h a k 
-2.4570 h a kh 
-0.9064 h a l 
-1.3109 h a m 
-1.2788 h a n 
-1.2208 h a p 
-0.8808 h a r 
-2.4570 h a rx 
-1.2488 h a s 
-2.0312 h a sh 
-1.3457 h a sp 
-0.9478 h a t 
-1.6944 h a t: 
-2.4570 h a t:h 
-1.5218 h a v 
-1.4706 h a y 
-1.6517 h aa SIL 
-1.8462 h aa b 
-1.5612 h aa bh 
-1.5612 h aa d 
-2.0774 h aa d: 
-0.9661 h aa h 
-1.8462 h aa i 
-1.4770 h aa j 
-1.8462 h aa k 
-1.8462 h aa l 
-0.4890 h aa n 
-1.3437 h aa n: 
-1.4770 h aa r 
-0.7666 h aa s 
-1.8462 h aa sp 
-1.8462 h aa t 
-2.0774 h aa v 
-1.8462 h aa y 
-0.2599 h ai SIL 
-2.2812 h ai aa 
-2.4757 h ai b 
-2.1066 h ai bh 
-2.7069 h ai ch 
-2.7069 h ai chh 
-2.1907 h ai d 
-2.7069 h ai d: 
-2.7069 h ai g 
-2.4757 h ai h 
-1.7206 h ai j 
-1.4196 h ai k 
-2.4757 h ai kh 
-2.7069 h ai l 
-1.7206 h ai m 
-2.4757 h ai n 
-0.7828 h ai n: 
-2.2812 h ai p 
-2.2812 h ai ph 
-1.4707 h ai r 
-1.6335 h ai s 
-2.2812 h ai sh 
-1.2277 h ai sp 
-2.2812 h ai t 
-2.1907 h ai v 
-2.2812 h ai y 
-1.2965 h ei SIL 
-1.7223 h ei bh 
-1.2061 h ei g 
-1.7223 h ei h 
-1.4910 h ei k 
-1.7223 h ei n 
-0.4861 h ei n: 
-1.4910 h ei p 
-1.2061 h ei r 
-1.2965 h ei sh 
-1.7223 h ei sp 
-0.7360 h ei t 
-1.7223 h ei th 
-1.7223 h ei v 
-2.2252 h i SIL 
-1.9940 h i b 
-2.2252 h i bh 
-2.2252 h i d 
-1.1517 h i ei 
-2.2252 h i g 
-2.2252 h i h 
-2.2252 h i j 
-1.7090 h i k 
-1.7090 h i l 
-1.6248 h i m 
-0.5304 h i n 
-0.6249 h i n: 
-2.2252 h i p 
-1.4915 h i s 
-1.9940 h i sp 
-0.7307 h i t 
-1.9940 h i y 
-1.9959 h ii SIL 
-1.9959 h ii a 
-1.7646 h ii bh 
-1.7646 h ii d 
-1.9959 h ii g 
-1.9959 h ii gh 
-0.8498 h ii h 
-1.5701 h ii j 
-1.5701 h ii k 
-1.9959 h ii l 
-1.3955 h ii m 
-1.2333 h ii n 
-0.4867 h ii n: 
-1.4796 h ii p 
-1.4796 h ii r 
-1.5701 h ii s 
-1.7646 h ii sh 
-1.2333 h ii sp 
-1.7646 h ii th 
-1.9959 h ii u 
-1.9959 h ii v 
-0.5606 h m a 
-0.3859 h m aa 
-0.9863 h m ii 
-0.9226 h oo SIL 
-2.0023 h oo ch 
-1.4998 h oo g 
-2.0023 h oo h 
-2.0023 h oo i 
-2.2335 h oo ii 
-1.8077 h oo j 
-2.2335 h oo k 
-1.6331 h oo l 
-1.1600 h oo n 
-1.0553 h oo n: 
-2.2335 h oo p 
-1.7173 h oo s 
-1.8077 h oo sp 
-0.2876 h oo t 
-2.2335 h oo uu 
-2.2335 h oo y 
-0.0321 h r a 
-0.1179 h rx d 
-0.3590 h u aa 
-2.0144 h u au 
-2.0144 h u bh 
-1.4140 h u ei 
-1.0792 h u ii 
-1.7831 h u k 
-1.7831 h u m 
-1.4981 h u n 
-1.7831 h u n: 
-2.0144 h u r 
-1.5886 h u s 
-1.7831 h u sp 
-0.6398 h u t 
-2.0144 h u v 
-1.6231 h uu SIL 
-1.6231 h uu d 
-0.0997 h uu n 
-1.3919 h uu n: 
-1.1069 h uu t 
-0.3331 h: a n 
-0.3331 h: a n: 
-0.0321 h: aa p 
-0.0321 h: k aa 
-0.1179 h: kh a 
-0.0321 h: n a 
-0.0321 h: p a 
-0.0321 h: r a 
-0.0512 h: s a 
-0.9863 h: s u 
-0.5092 h: sp g 
-0.5092 h: sp k 
-0.5092 h: sp u 
-0.1019 h: t u 
-0.0321 h: u n 
-0.3331 h: v ei 
-0.3331 h: v i 
-0.0834 h: y a 
-0.3632 i SIL </s> 
-0.2730 i SIL SIL 
-0.3331 i a kh 
-0.3331 i a s 
-0.1307 i au r 
-0.7104 i b a 
-1.3108 i b aa 
-1.3108 i b ai 
-1.3108 i b b 
-1.3108 i b ei 
-0.5772 i b i 
-1.3108 i b ii 
-1.3108 i b r 
-1.3108 i b rx 
-0.6298 i bh a 
-0.5456 i bh aa 
-1.1460 i bh i 
-0.7203 i bh ii 
-0.7711 i ch a 
-0.2553 i ch aa 
-1.2874 i ch chh 
-1.0561 i ch i 
-1.2874 i ch u 
-0.0321 i chh a 
-1.1179 i d a 
-1.2084 i d aa 
-0.5607 i d dh 
-1.1179 i d ei 
-1.6341 i d i 
-1.6341 i d ii 
-1.4029 i d r 
-1.6341 i d u 
-1.4029 i d uu 
-1.0338 i d v 
-0.8716 i d y 
-0.0834 i d: a 
-0.7203 i dh a 
-0.7203 i dh aa 
-0.4124 i dh i 
-0.8625 i ei SIL 
-2.0407 i ei aa 
-2.0407 i ei b 
-1.6149 i ei d 
-0.8625 i ei dh 
-1.5245 i ei h 
-2.0407 i ei j 
-0.4175 i ei kh 
-2.0407 i ei n 
-1.6149 i ei p 
-2.0407 i ei r 
-2.0407 i ei s 
-2.0407 i ei sh 
-0.8625 i ei sp 
-2.0407 i ei u 
-2.0407 i ei v 
-1.8095 i ei y 
-0.0792 i g a 
-1.1113 i g r 
-1.1113 i g u 
-1.3060 i h a 
-0.2041 i h aa 
-1.0210 i h ai 
-1.5372 i h ei 
-1.0210 i h i 
-1.5372 i h oo 
-0.0321 i i t 
-0.4523 i j a 
-1.0473 i j aa 
-1.5636 i j ii 
-0.3010 i j nj~ 
-0.3762 i k a 
-0.8253 i k aa 
-1.2512 i k ei 
-0.7176 i k i 
-1.2512 i k ii 
-1.8463 i k k 
-1.9367 i k kh 
-2.1313 i k oo 
-2.3625 i k r 
-2.3625 i k rx 
-1.2890 i k shh 
-2.3625 i k t 
-1.9367 i k u 
-2.3625 i k y 
-0.2825 i kh a 
-0.7934 i kh aa 
-1.1626 i kh ei 
-1.3938 i kh i 
-0.9681 i kh ii 
-0.6307 i l a 
-0.4049 i l aa 
-1.0189 i l ei 
-1.5795 i l ii 
-1.4048 i l l 
-0.7179 i l m 
-0.5195 i m a 
-0.5195 i m aa 
-0.9030 i m ei 
-1.4343 i m ii 
-1.4343 i m n 
-1.1493 i m oo 
-1.6655 i m rx 
-1.4343 i m u 
-0.3823 i n a 
-1.3594 i n aa 
-0.3997 i n d 
-1.5216 i n ei 
-1.6058 i n h 
-1.8908 i n i 
-2.1220 i n ii 
-1.6962 i n n 
-2.1220 i n oo 
-2.1220 i n t 
-1.7481 i n: a 
-1.7481 i n: b 
-0.2846 i n: d 
-1.5169 i n: d: 
-0.8129 i n: g 
-1.7481 i n: h 
-1.7481 i n: j 
-1.2319 i n: k 
-1.7481 i n: m 
-1.7481 i n: r 
-1.7481 i n: s 
-1.3223 i n: t 
-1.7481 i n: t: 
-0.3053 i nd~ a 
-0.4998 i nd~ ii 
-1.3467 i p a 
-1.2562 i p aa 
-0.2089 i p ii 
-1.3467 i p p 
-1.0099 i p r 
-1.5412 i p t 
-1.3467 i p u 
-0.0321 i ph aa 
-0.3906 i r a 
-0.8678 i r aa 
-1.5717 i r d 
-1.8029 i r dh 
-1.2025 i r i 
-1.0693 i r m 
-1.8029 i r oo 
-1.5717 i r ph 
-1.2867 i r u 
-1.8029 i r uu 
-1.2867 i r v 
-0.2194 i s a 
-1.7564 i s aa 
-2.2726 i s ai 
-1.0364 i s ei 
-1.6722 i s i 
-0.9395 i s ii 
-2.0414 i s l 
-2.2726 i s m 
-2.2726 i s oo 
-2.0414 i s s 
-1.2863 i s t 
-1.5390 i s u 
-2.2726 i s v 
-1.0841 i sh a 
-0.6140 i sh aa 
-0.8377 i sh ei 
-1.0841 i sh i 
-1.3691 i sh ii 
-1.6003 i sh oo 
-1.3691 i sh r 
-0.6140 i sh v 
-0.4638 i shh a 
-1.5372 i shh aa 
-1.3060 i shh i 
-1.5372 i shh k 
-1.1115 i shh nd~ 
-1.0210 i shh t: 
-0.7747 i shh t:h 
-1.0210 i shh y 
-0.4472 i sp a 
-1.2480 i sp au 
-1.4792 i sp bh 
-1.4792 i sp ch 
-1.2480 i sp ei 
-1.4792 i sp g 
-0.9630 i sp i 
-1.4792 i sp k 
-1.4792 i sp l 
-1.0535 i sp m 
-1.4792 i sp u 
-1.4792 i sp v 
-0.3270 i t a 
-0.8846 i t aa 
-2.1720 i t ei 
-1.1399 i t i 
-1.6557 i t ii 
-2.1720 i t r 
-2.1720 i t s 
-2.1720 i t t 
-1.6557 i t u 
-2.1720 i t v 
-0.6347 i t y 
-0.9352 i t: a 
-0.7039 i t: aa 
-0.7039 i t: ei 
-0.9352 i t: ii 
-0.7039 i t: t: 
-0.0321 i th ei 
-1.2874 i tra a 
-1.2874 i tra b 
-1.0561 i tra d 
-0.8616 i tra h 
-1.0561 i tra k 
-1.2874 i tra m 
-0.8616 i tra n 
-1.0561 i tra nd~ 
-1.0561 i tra s 
-1.2874 i tra t 
-0.1019 i u n 
-0.5509 i v a 
-0.3291 i v aa 
-1.1115 i v ei 
-1.1115 i v i 
-1.3060 i v y 
-0.8325 i y a 
-0.2261 i y aa 
-0.7533 i y ei 
-1.1165 i y oo 
-2.2625 i y u 
-0.2937 ii SIL </s> 
-0.3237 ii SIL SIL 
-0.6460 ii a ch 
-0.8772 ii a dh 
-0.8772 ii a l 
-0.8772 ii a p 
-0.6460 ii a v 
-0.7311 ii aa d 
-0.7311 ii aa ii 
-0.7311 ii aa s 
-0.7311 ii aa t 
-0.7311 ii aa v 
-0.0458 ii au r 
-0.2596 ii b a 
-0.8169 ii b aa 
-0.8169 ii b oo 
-1.3331 ii b r 
-1.4634 ii bh a 
-0.3174 ii bh aa 
-1.4634 ii bh ei 
-0.4314 ii bh ii 
-1.2322 ii bh uu 
-0.5456 ii ch a 
-0.7203 ii ch aa 
-0.6298 ii ch au 
-1.1460 ii ch ei 
-0.8425 ii d a 
-1.5761 ii d aa 
-1.5761 ii d ai 
-0.4649 ii d ei 
-1.1504 ii d i 
-1.0599 ii d ii 
-1.5761 ii d oo 
-1.1504 ii d rx 
-1.3449 ii d u 
-1.5761 ii d v 
-1.6341 ii d: aa 
-0.0110 ii d: i 
-0.0321 ii d:h ii 
-0.2109 ii dh a 
-0.6298 ii dh aa 
-1.1460 ii dh ei 
-0.9863 ii ei ch 
-0.4701 ii ei k 
-0.5606 ii ei m 
-0.9863 ii ei p 
-0.3834 ii g a 
-1.1460 ii g au 
-0.7203 ii g ii 
-1.1460 ii g oo 
-0.9148 ii g u 
-0.5159 ii gh a 
-0.6063 ii gh aa 
-0.8009 ii gh oo 
-1.0321 ii gh r 
-1.8709 ii h aa 
-0.1668 ii h ai 
-1.6397 ii h i 
-0.8388 ii h oo 
-1.1373 ii h u 
-1.6397 ii h uu 
-0.9231 ii j a 
-0.4122 ii j aa 
-1.0977 ii j ei 
-0.7609 ii j i 
-1.2922 ii j ii 
-1.5234 ii j nj~ 
-1.5234 ii j oo 
-1.5234 ii j u 
-0.7061 ii k a 
-0.5812 ii k aa 
-0.6392 ii k ei 
-1.8872 ii k i 
-0.7853 ii k ii 
-1.1833 ii k oo 
-2.1184 ii k o~ 
-1.8872 ii k rx 
-1.6927 ii k shh 
-1.8872 ii k u 
-0.3331 ii kh aa 
-0.3331 ii kh ei 
-0.3010 ii l a 
-1.5372 ii l aa 
-1.0210 ii l ei 
-0.7747 ii l i 
-1.1115 ii l oo 
-1.3060 ii l u 
-0.7959 ii m a 
-1.1307 ii m aa 
-1.1307 ii m ai 
-1.7311 ii m au 
-0.4437 ii m ei 
-0.7959 ii m i 
-1.4998 ii m ii 
-1.3053 ii m u 
-0.2097 ii n a 
-1.1880 ii n aa 
-0.9705 ii n ei 
-1.1038 ii n h 
-1.7042 ii n ii 
-1.7042 ii n oo 
-0.8136 ii n: SIL 
-1.5761 ii n: a 
-1.5761 ii n: aa 
-1.5761 ii n: b 
-0.8425 ii n: h 
-1.5761 ii n: j 
-1.1504 ii n: k 
-1.5761 ii n: l 
-1.1504 ii n: m 
-1.1504 ii n: p 
-1.5761 ii n: r 
-1.5761 ii n: s 
-1.5761 ii n: sh 
-1.5761 ii n: sp 
-1.5761 ii n: t 
-1.5761 ii n: th 
-1.5761 ii n: u 
-1.5761 ii n: v 
-0.0321 ii nd~ a 
-0.0834 ii oo r 
-0.4260 ii p a 
-1.8383 ii p au 
-1.2379 ii p ii 
-0.6922 ii p o~ 
-0.6922 ii p r 
-1.6070 ii p rx 
-1.6070 ii p u 
-1.3220 ii p uu 
-0.2527 ii ph i 
-0.7551 ii ph u 
-0.2717 ii r a 
-0.4574 ii r aa 
-1.6655 ii r oo 
-1.2398 ii r shh 
-1.6655 ii r uu 
-0.3010 ii s a 
-0.6398 ii s aa 
-1.2807 ii s ei 
-2.0144 ii s i 
-1.4981 ii s ii 
-2.0144 ii s k 
-2.0144 ii s oo 
-2.0144 ii s p 
-1.4981 ii s th 
-1.7831 ii s u 
-1.4981 ii s uu 
-2.0144 ii s v 
-0.7104 ii sh a 
-0.8851 ii sh aa 
-0.8851 ii sh ai 
-1.0796 ii sh i 
-1.3108 ii sh ii 
-1.3108 ii sh r 
-1.3108 ii sh u 
-0.8851 ii sh v 
-0.2015 ii shh a 
-0.9352 ii shh m 
-0.7871 ii sp a 
-0.8773 ii sp aa 
-1.7921 ii sp ai 
-2.0233 ii sp au 
-1.5976 ii sp b 
-2.0233 ii sp bh 
-2.0233 ii sp dh 
-0.9912 ii sp ei 
-2.0233 ii sp gh 
-1.4229 ii sp h 
-1.0370 ii sp i 
-1.5976 ii sp j 
-1.2607 ii sp k 
-1.2897 ii sp m 
-2.0233 ii sp n 
-1.5976 ii sp p 
-2.0233 ii sp ph 
-2.0233 ii sp r 
-1.7921 ii sp s 
-1.5976 ii sp t 
-1.4229 ii sp u 
-2.0233 ii sp uu 
-2.0233 ii sp v 
-1.7921 ii sp y 
-0.3010 ii t a 
-1.0956 ii t aa 
-0.6255 ii t i 
-1.6119 ii t ii 
-1.1861 ii t oo 
-1.6119 ii t rx 
-1.6119 ii t u 
-0.1019 ii t: i 
-1.2362 ii th aa 
-1.0050 ii th ei 
-0.0902 ii th ii 
-0.6341 ii u m 
-0.6341 ii u n 
-0.4029 ii u p 
-0.3297 ii v a 
-1.2784 ii v aa 
-1.7042 ii v ai 
-1.7042 ii v ei 
-0.4416 ii v i 
-1.4730 ii v oo 
-1.7042 ii v y 
-0.0084 ii y a 
-1.1980 j a SIL 
-1.4218 j a b 
-1.7586 j a bh 
-2.1844 j a chh 
-1.9531 j a d 
-1.4218 j a dh 
-2.1844 j a ei 
-1.1980 j a g 
-1.2492 j a h 
-1.9531 j a j 
-1.4507 j a k 
-1.4218 j a l 
-1.1523 j a m 
-0.6338 j a n 
-1.7586 j a n: 
-1.9531 j a p 
-1.1980 j a r 
-1.2492 j a s 
-2.1844 j a sh 
-1.4507 j a sp 
-2.1844 j a t 
-2.1844 j a v 
-1.4507 j a y 
-2.1076 j aa au 
-2.1076 j aa b 
-2.1076 j aa ch 
-2.1076 j aa d 
-2.1076 j aa dh 
-1.3450 j aa ei 
-2.1076 j aa h 
-1.8764 j aa i 
-2.1076 j aa ii 
-1.1213 j aa k 
-2.1076 j aa l 
-1.8764 j aa m 
-0.5441 j aa n 
-1.8764 j aa nd~ 
-1.8764 j aa p 
-1.8764 j aa r 
-1.3740 j aa s 
-1.8764 j aa sp 
-0.5570 j aa t 
-1.5914 j aa uu 
-2.1076 j aa v 
-1.5072 j aa y 
-0.7824 j ai n 
-0.0969 j ai s 
-0.0321 j au n: 
-1.2691 j ei SIL 
-1.6948 j ei n 
-0.0607 j ei n: 
-1.6948 j ei t 
-1.6948 j ei y 
-1.6341 j i d 
-1.4029 j i ei 
-1.4029 j i k 
-0.3233 j i l 
-1.2084 j i n 
-0.8716 j i s 
-1.2084 j i t 
-1.1179 j i y 
-1.6755 j ii a 
-1.4443 j ii aa 
-1.6755 j ii ch 
-1.6755 j ii d 
-1.6755 j ii dh 
-1.2498 j ii k 
-1.6755 j ii l 
-1.2498 j ii m 
-1.2498 j ii n 
-1.6755 j ii p 
-1.6755 j ii s 
-1.6755 j ii sh 
-1.2498 j ii sp 
-1.2498 j ii t 
-1.6755 j ii t: 
-0.3882 j ii v 
-0.3053 j j a 
-0.4998 j j ai 
-1.3194 j nj~ a 
-0.0414 j nj~ aa 
-1.5506 j nj~ oo 
-1.4123 j oo bh 
-1.4123 j oo d 
-1.4123 j oo g 
-1.4123 j oo j 
-1.1811 j oo k 
-1.1811 j oo m 
-0.8119 j oo r 
-0.8961 j oo s 
-1.4123 j oo sh 
-1.1811 j oo sp 
-1.4123 j oo th 
-1.1811 j oo v 
-1.4123 j oo y 
-0.1019 j r uu 
-0.2984 j u d: 
-1.0321 j u m 
-0.8009 j u n 
-0.0321 j uu d 
-0.0939 j y a 
-0.9880 j y aa 
-1.3572 j y oo 
-1.2362 jh a aa 
-1.2362 jh a bh 
-1.2362 jh a l 
-1.0050 jh a m 
-0.8104 jh a n 
-1.2362 jh a r 
-0.7200 jh a s 
-0.8104 jh a t 
-0.5606 jh aa r 
-0.2237 jh aa v 
-1.2082 jh ei au 
-1.2082 jh ei b 
-1.2082 jh ei bh 
-1.2082 jh ei chh 
-0.9769 jh ei d 
-1.2082 jh ei i 
-1.2082 jh ei j 
-1.2082 jh ei kh 
-1.2082 jh ei l 
-1.2082 jh ei n 
-1.2082 jh ei n: 
-1.2082 jh ei s 
-1.2082 jh ei u 
-1.2082 jh ei v 
-0.0321 jh i p 
-0.0834 jh ii l 
-0.0321 jh o~ s 
-0.0321 jh uu t:h 
-1.5119 k a SIL 
-2.2319 k a a 
-2.5169 k a ai 
-2.5169 k a au 
-1.7618 k a b 
-1.6368 k a bh 
-1.9855 k a ch 
-2.2319 k a chh 
-1.6746 k a d 
-2.5169 k a d: 
-2.7481 k a dh 
-2.3223 k a ei 
-2.1477 k a g 
-2.5169 k a gh 
-0.9167 k a h 
-2.7481 k a i 
-1.6368 k a j 
-1.2688 k a k 
-1.5699 k a l 
-1.4856 k a m 
-1.6021 k a n 
-2.1477 k a n: 
-2.7481 k a oo 
-1.3181 k a p 
-2.7481 k a ph 
-0.6054 k a r 
-2.7481 k a rx 
-1.3736 k a s 
-1.6021 k a sh 
-2.7481 k a shh 
-1.3736 k a sp 
-1.3736 k a t 
-2.5169 k a t: 
-2.3223 k a t:h 
-1.7160 k a th 
-2.5169 k a u 
-1.2389 k a v 
-2.2319 k a y 
-2.3062 k aa SIL 
-0.9074 k aa a 
-2.2157 k aa aa 
-2.3062 k aa b 
-1.9693 k aa bh 
-2.5007 k aa ch 
-2.1315 k aa d 
-2.3062 k aa dh 
-1.9693 k aa ei 
-2.5007 k aa g 
-1.7456 k aa h 
-2.3062 k aa i 
-2.7319 k aa ii 
-1.6584 k aa j 
-1.9983 k aa k 
-2.7319 k aa kh 
-1.2085 k aa l 
-1.2685 k aa m 
-1.5237 k aa n 
-2.5007 k aa n: 
-1.3019 k aa p 
-1.4957 k aa ph 
-0.7360 k aa r 
-1.1316 k aa s 
-1.4446 k aa sh 
-0.8673 k aa sp 
-2.2157 k aa t 
-2.7319 k aa th 
-2.2157 k aa u 
-1.9983 k aa uu 
-1.4694 k aa v 
-1.7456 k aa y 
-0.0321 k ai s 
-0.0321 k au n 
-2.6254 k ei SIL 
-1.1953 k ei a 
-2.6254 k ei aa 
-2.6254 k ei au 
-1.1953 k ei b 
-2.1091 k ei bh 
-1.4172 k ei d 
-2.6254 k ei ei 
-2.0250 k ei g 
-1.8628 k ei h 
-2.1996 k ei j 
-1.2509 k ei k 
-2.6254 k ei kh 
-0.5680 k ei l 
-1.8917 k ei m 
-1.4793 k ei n 
-2.1091 k ei n: 
-1.2509 k ei p 
-1.4793 k ei r 
-1.0618 k ei s 
-1.4793 k ei sh 
-0.9912 k ei sp 
-2.1091 k ei t 
-2.1996 k ei t: 
-2.3941 k ei u 
-1.2923 k ei v 
-2.6254 k ei y 
-1.8653 k i SIL 
-2.0965 k i a 
-1.8653 k i b 
-2.0965 k i bh 
-1.8653 k i d 
-1.6708 k i ei 
-1.8653 k i j 
-1.5803 k i k 
-1.8653 k i l 
-1.4961 k i m 
-1.5803 k i n 
-0.5204 k i p 
-1.6708 k i r 
-0.9183 k i s 
-1.8653 k i sh 
-1.1614 k i sp 
-1.4961 k i t 
-1.8653 k i u 
-0.7857 k i y 
-1.9074 k ii SIL 
-2.3331 k ii a 
-2.3331 k ii au 
-2.1019 k ii b 
-1.7327 k ii bh 
-1.2218 k ii d 
-2.3331 k ii d: 
-1.9074 k ii dh 
-1.9074 k ii ei 
-1.8169 k ii g 
-1.9074 k ii gh 
-2.1019 k ii h 
-1.3010 k ii j 
-1.2596 k ii k 
-2.3331 k ii kh 
-1.5995 k ii l 
-1.5995 k ii m 
-1.5705 k ii n 
-2.3331 k ii oo 
-0.9031 k ii p 
-2.1019 k ii ph 
-1.1871 k ii r 
-0.8097 k ii s 
-1.5995 k ii sh 
-0.8386 k ii sp 
-1.8169 k ii t 
-2.3331 k ii t: 
-2.1019 k ii th 
-2.3331 k ii u 
-2.1019 k ii v 
-0.1179 k k i 
-0.0834 k kh a 
-0.2148 k l a 
-0.7311 k l i 
-2.0144 k oo SIL 
-1.5886 k oo b 
-1.7831 k oo bh 
-1.7831 k oo ch 
-2.0144 k oo chh 
-1.4981 k oo d 
-2.0144 k oo g 
-1.5886 k oo h 
-0.9823 k oo ii 
-1.4981 k oo j 
-1.4981 k oo k 
-1.4981 k oo l 
-1.2518 k oo m 
-1.5886 k oo n 
-1.4140 k oo n: 
-1.5886 k oo p 
-2.0144 k oo r 
-1.5886 k oo s 
-1.0280 k oo sh 
-0.7782 k oo sp 
-2.0144 k oo t 
-1.5886 k oo t: 
-1.5886 k oo u 
-2.0144 k oo uu 
-1.5886 k oo v 
-0.2780 k o~ l 
-0.5092 k o~ p 
-0.5289 k r a 
-0.2762 k r i 
-1.2625 k r oo 
-1.1691 k rx p 
-0.9516 k rx shh 
-0.1217 k rx t 
-0.0321 k s a 
-0.7324 k shh a 
-0.4771 k shh aa 
-0.5563 k shh ei 
-0.8293 k shh i 
-1.3387 k shh m 
-0.2272 k t a 
-0.4314 k t i 
-0.0321 k t: a 
-0.2653 k u chh 
-1.5761 k u k 
-1.5761 k u l 
-0.6410 k u m 
-1.5761 k u n 
-1.1504 k u r 
-1.3449 k u sh 
-0.1019 k uu l 
-1.0321 k y a 
-0.0969 k y aa 
-1.0321 k y oo 
-1.5990 kh a SIL 
-1.9682 kh a aa 
-1.5990 kh a b 
-1.9682 kh a bh 
-1.2642 kh a d 
-1.9682 kh a d: 
-1.7736 kh a dh 
-1.4368 kh a g 
-2.1994 kh a gh 
-1.4657 kh a h 
-2.1994 kh a j 
-0.7049 kh a k 
-1.2642 kh a l 
-1.5990 kh a m 
-0.7694 kh a n 
-1.5990 kh a n: 
-1.1673 kh a p 
-1.9682 kh a r 
-1.9682 kh a rx 
-1.7736 kh a s 
-1.1673 kh a sp 
-1.4368 kh a t 
-1.4471 kh aa SIL 
-1.4471 kh aa b 
-0.9308 kh aa g 
-0.9308 kh aa h 
-1.4471 kh aa ii 
-1.4471 kh aa j 
-1.4471 kh aa k 
-1.0213 kh aa n 
-1.2158 kh aa oo 
-1.2158 kh aa r 
-0.6845 kh aa s 
-0.7741 kh ei SIL 
-1.3745 kh ei b 
-1.3745 kh ei g 
-0.8583 kh ei l 
-0.3010 kh ei n: 
-1.0561 kh i SIL 
-1.2874 kh i ei 
-0.5537 kh i l 
-1.2874 kh i m 
-1.2874 kh i n 
-1.0561 kh i p 
-1.0561 kh i s 
-1.2874 kh i sp 
-1.2874 kh i t 
-0.6341 kh ii g 
-0.6341 kh ii h 
-0.6341 kh ii j 
-0.6341 kh ii t 
-0.0414 kh oo j 
-1.2498 kh oo k 
-1.6755 kh oo n: 
-0.8102 kh u d 
-0.8102 kh u k 
-0.8102 kh u l 
-0.3845 kh u sh 
-0.2264 kh y a 
-0.4260 kh y aa 
-1.1637 l a SIL 
-2.4746 l a a 
-2.2433 l a au 
-2.2433 l a b 
-1.4882 l a bh 
-2.2433 l a ch 
-1.8742 l a d 
-2.4746 l a dh 
-2.4746 l a ei 
-1.0445 l a g 
-1.3633 l a h 
-1.8742 l a j 
-0.8297 l a k 
-1.9583 l a kh 
-1.4882 l a l 
-1.2120 l a m 
-1.1001 l a n 
-1.8742 l a n: 
-1.5394 l a p 
-2.2433 l a r 
-1.2384 l a s 
-2.2433 l a sh 
-1.1637 l a sp 
-1.1001 l a t 
-2.4746 l a u 
-2.0488 l a v 
-1.1001 l a y 
-1.3610 l aa SIL 
-1.6460 l aa a 
-1.8772 l aa au 
-1.4514 l aa b 
-1.8772 l aa bh 
-1.2768 l aa d 
-1.6460 l aa d: 
-1.8772 l aa g 
-0.7659 l aa h 
-1.8772 l aa i 
-1.3610 l aa j 
-1.3610 l aa k 
-1.8772 l aa l 
-1.4514 l aa m 
-1.2768 l aa n 
-1.8772 l aa p 
-1.8772 l aa r 
-1.8772 l aa s 
-1.8772 l aa sh 
-1.1435 l aa sp 
-1.6460 l aa t 
-1.8772 l aa t: 
-1.8772 l aa u 
-1.3610 l aa v 
-1.6460 l aa y 
-0.3331 l ai n 
-0.3331 l ai n: 
-0.1019 l d ii 
-0.0834 l d: ei 
-2.1113 l ei SIL 
-2.1113 l ei aa 
-2.1113 l ei au 
-2.1113 l ei b 
-2.1113 l ei bh 
-2.1113 l ei ch 
-2.1113 l ei d 
-1.6855 l ei h 
-1.8800 l ei j 
-1.1761 l ei k 
-0.2041 l ei kh 
-1.5950 l ei m 
-1.8800 l ei n 
-1.8800 l ei n: 
-1.8800 l ei p 
-1.5109 l ei s 
-2.1113 l ei sh 
-1.6855 l ei sp 
-1.5950 l ei t 
-2.1113 l ei t: 
-2.1113 l ei y 
-2.2139 l i au 
-1.7882 l i d 
-0.2628 l i ei 
-2.2139 l i g 
-1.4513 l i k 
-0.9031 l i kh 
-1.9827 l i m 
-1.9827 l i n 
-1.6977 l i n: 
-0.6905 l i y 
-1.4541 l ii SIL 
-1.6853 l ii au 
-1.6853 l ii b 
-1.6853 l ii bh 
-1.6853 l ii d 
-1.6853 l ii ei 
-1.6853 l ii g 
-1.4541 l ii gh 
-1.6853 l ii h 
-1.6853 l ii j 
-0.6990 l ii k 
-1.6853 l ii kh 
-1.6853 l ii l 
-1.2595 l ii m 
-1.6853 l ii n 
-1.1691 l ii p 
-1.4541 l ii ph 
-1.6853 l ii r 
-1.6853 l ii s 
-0.7501 l ii sp 
-1.6853 l ii th 
-1.6853 l ii v 
-0.9352 l l a 
-0.7039 l l ei 
-0.3348 l l ii 
-0.0792 l m a 
-1.2874 l m ei 
-1.0561 l m oo 
-1.2633 l oo SIL 
-1.4945 l oo bh 
-1.4945 l oo ch 
-0.3485 l oo g 
-0.7608 l oo k 
-1.2633 l oo n 
-1.2633 l oo n: 
-1.4945 l oo sp 
-0.1019 l o~ g 
-0.0321 l p a 
-0.1019 l u s 
-0.0321 l y a 
-1.2969 m a SIL 
-2.6512 m a a 
-2.4199 m a aa 
-2.6512 m a au 
-1.7160 m a b 
-1.8886 m a bh 
-2.2254 m a ch 
-1.9175 m a d 
-2.0508 m a dh 
-1.4150 m a g 
-0.8267 m a h 
-1.8886 m a j 
-1.6191 m a jh 
-0.9756 m a k 
-2.6512 m a kh 
-1.7160 m a l 
-1.4730 m a m 
-0.9289 m a n 
-1.4150 m a n: 
-1.7160 m a nd~ 
-1.6191 m a p 
-1.4150 m a r 
-2.4199 m a rx 
-1.0280 m a s 
-2.1350 m a sh 
-1.5051 m a sp 
-1.4150 m a t 
-2.6512 m a t:h 
-2.0508 m a th 
-2.6512 m a u 
-2.2254 m a v 
-1.3638 m a y 
-2.0965 m aa a 
-2.0965 m aa ch 
-2.0965 m aa d 
-2.0965 m aa dh 
-2.0965 m aa gh 
-1.8653 m aa h 
-1.3629 m aa j 
-1.8653 m aa jh 
-1.5803 m aa k 
-1.5803 m aa l 
-2.0965 m aa m 
-0.4210 m aa n 
-1.3629 m aa nd~ 
-1.6708 m aa p 
-1.0231 m aa r 
-1.8653 m aa s 
-1.8653 m aa sp 
-1.4961 m aa t 
-2.0965 m aa tra 
-1.5803 m aa uu 
-1.4961 m aa v 
-1.3629 m aa y 
-1.8245 m ai a 
-1.8245 m ai b 
-1.5932 m ai bh 
-1.8245 m ai d 
-1.8245 m ai h 
-0.8893 m ai n 
-0.1903 m ai n: 
-1.8245 m ai p 
-1.8245 m ai r 
-1.8245 m ai s 
-1.5932 m ai sp 
-1.5932 m ai th 
-1.8245 m ai v 
-0.9863 m au j 
-0.9863 m au k 
-0.5606 m au l 
-0.9863 m au r 
-0.5606 m au s 
-0.3348 m b a 
-0.7039 m b aa 
-0.9352 m b ii 
-0.2098 m bh a 
-0.8102 m bh i 
-2.2091 m ei SIL 
-2.2091 m ei b 
-2.4403 m ei d 
-2.4403 m ei g 
-2.2091 m ei gh 
-2.2091 m ei h 
-2.0146 m ei j 
-2.0146 m ei l 
-2.4403 m ei m 
-0.1050 m ei n: 
-2.4403 m ei p 
-1.0280 m ei r 
-2.2091 m ei s 
-2.4403 m ei sh 
-1.5051 m ei sp 
-2.4403 m ei t 
-2.4403 m ei y 
-0.2098 m h a 
-0.8102 m h aa 
-1.8450 m i SIL 
-1.8450 m i h 
-0.8129 m i k 
-0.3658 m i l 
-1.6138 m i m 
-1.6138 m i n: 
-1.8450 m i r 
-1.8450 m i sh 
-1.8450 m i sp 
-1.1113 m i t 
-1.3288 m i t: 
-1.1113 m i tra 
-1.3745 m ii bh 
-0.8583 m ii d 
-1.3745 m ii dh 
-1.1433 m ii k 
-1.3745 m ii m 
-1.3745 m ii n 
-1.3745 m ii nd~ 
-0.8583 m ii r 
-1.3745 m ii s 
-0.7741 m ii sp 
-1.3745 m ii t 
-0.0321 m j ii 
-1.1113 m m a 
-0.6855 m m aa 
-0.8800 m m ei 
-0.5950 m m ii 
-0.8800 m m uu 
-0.1019 m n a 
-0.1648 m oo h 
-1.3108 m oo k 
-1.0796 m oo n: 
-0.8851 m oo r 
-0.0834 m o~ r 
-0.8800 m p a 
-0.8800 m p aa 
-0.6855 m p r 
-0.6855 m p uu 
-0.8800 m p y 
-0.0834 m r aa 
-0.1047 m rx d 
-0.9470 m rx g 
-1.1782 m rx t 
-1.9129 m u ch 
-1.9129 m u d 
-1.9129 m u g 
-0.6021 m u jh 
-1.6817 m u k 
-0.2897 m u kh 
-1.9129 m u m 
-0.9266 m u n 
-1.6817 m u s 
-1.9129 m u t 
-1.1433 m uu au 
-1.1433 m uu h 
-0.1120 m uu l 
-1.3745 m uu r 
-1.0034 n a SIL 
-2.6104 n a a 
-2.6104 n a aa 
-2.8416 n a ai 
-2.1080 n a au 
-1.7682 n a b 
-1.4478 n a bh 
-1.8553 n a ch 
-2.4159 n a chh 
-1.3182 n a d 
-2.3254 n a dh 
-2.4159 n a ei 
-1.5543 n a g 
-0.9966 n a h 
-1.7304 n a j 
-0.6082 n a k 
-2.8416 n a kh 
-2.4159 n a l 
-1.1468 n a m 
-1.4873 n a n 
-1.5308 n a p 
-2.6104 n a ph 
-1.5791 n a r 
-2.4159 n a rx 
-1.2185 n a s 
-2.2412 n a sh 
-1.3946 n a sp 
-1.4293 n a t 
-2.4159 n a th 
-2.8416 n a u 
-1.6634 n a v 
-2.1080 n a y 
-1.7663 n aa SIL 
-2.2825 n aa bh 
-1.2504 n aa ch 
-1.8567 n aa d 
-2.2825 n aa d: 
-2.2825 n aa dh 
-1.8567 n aa ei 
-1.5199 n aa g 
-1.1712 n aa h 
-2.0513 n aa i 
-2.2825 n aa ii 
-1.1712 n aa j 
-1.2090 n aa k 
-2.2825 n aa l 
-0.6170 n aa m 
-1.3473 n aa n 
-1.2504 n aa oo 
-2.2825 n aa p 
-1.2962 n aa r 
-1.6821 n aa s 
-1.3473 n aa sp 
-1.5199 n aa t 
-1.7663 n aa t: 
-1.8567 n aa th 
-1.6821 n aa v 
-1.3473 n aa y 
-0.1019 n ai t 
-0.3331 n au bh 
-0.3331 n au gh 
-0.6668 n d a 
-1.6138 n d ei 
-1.8450 n d i 
-0.3505 n d ii 
-1.6138 n d oo 
-1.2446 n d r 
-1.2446 n d u 
-1.1113 n d uu 
-0.4998 n dh a 
-0.3053 n dh i 
-2.2548 n ei SIL 
-2.0236 n ei a 
-2.0236 n ei b 
-2.0236 n ei bh 
-2.2548 n ei ch 
-1.8290 n ei d 
-2.2548 n ei dh 
-2.2548 n ei ei 
-2.2548 n ei gh 
-1.6544 n ei h 
-2.0236 n ei i 
-1.8290 n ei j 
-0.4165 n ei k 
-1.3196 n ei l 
-1.0766 n ei m 
-2.2548 n ei n 
-1.2685 n ei p 
-2.0236 n ei r 
-2.2548 n ei rx 
-1.6544 n ei s 
-1.8290 n ei sh 
-1.1088 n ei sp 
-1.6544 n ei t 
-2.2548 n ei t: 
-2.2548 n ei u 
-1.0186 n ei v 
-1.0834 n h a 
-1.5092 n h aa 
-0.4357 n h ei 
-1.5092 n h i 
-1.5092 n h ii 
-0.3632 n h oo 
-1.5841 n i SIL 
-1.7786 n i b 
-1.5841 n i bh 
-2.0098 n i ch 
-2.0098 n i d 
-1.5841 n i dh 
-1.7786 n i g 
-1.7786 n i h 
-2.0098 n i i 
-1.2472 n i j 
-0.5975 n i k 
-1.5841 n i m 
-2.0098 n i n 
-1.5841 n i p 
-0.6990 n i r 
-1.0746 n i s 
-1.7786 n i sp 
-1.5841 n i v 
-1.0746 n i y 
-0.8293 n ii SIL 
-1.5332 n ii au 
-1.7645 n ii b 
-1.5332 n ii bh 
-1.3387 n ii ch 
-1.5332 n ii d 
-1.3387 n ii h 
-1.0019 n ii k 
-1.2483 n ii m 
-1.7645 n ii p 
-1.5332 n ii s 
-1.2483 n ii shh 
-1.3387 n ii sp 
-1.0019 n ii t 
-1.7645 n ii th 
-1.2483 n ii v 
-1.5332 n ii y 
-0.1179 n k ei 
-0.0969 n m a 
-1.0321 n m ii 
-1.0321 n m u 
-0.1597 n n a 
-0.9148 n n aa 
-0.9148 n n ei 
-1.2874 n oo h 
-1.2874 n oo l 
-0.1413 n oo n: 
-1.2874 n oo r 
-1.0561 n oo v 
-0.0321 n rx t 
-0.0321 n sp au 
-0.0969 n t a 
-1.4300 n t i 
-1.4300 n t ii 
-1.1988 n t r 
-1.4300 n t u 
-0.1179 n th a 
-0.3053 n tra a 
-0.7311 n tra k 
-0.7311 n tra p 
-1.4443 n u bh 
-1.6755 n u g 
-1.4443 n u j 
-1.6755 n u k 
-1.4443 n u kh 
-1.1593 n u m 
-1.4443 n u n 
-1.6755 n u r 
-0.4130 n u s 
-1.1593 n u shh 
-0.7404 n u v 
-0.6341 n uu bh 
-0.6341 n uu h 
-0.6341 n uu m 
-0.6341 n uu t:h 
-0.1476 n y a 
-0.5667 n y aa 
-0.2055 n: SIL </s> 
-0.4331 n: SIL SIL 
-0.8102 n: a b 
-0.5790 n: a bh 
-0.8102 n: a dh 
-0.8102 n: a p 
-0.8102 n: a s 
-0.3331 n: aa ei 
-0.3331 n: aa y 
-0.1019 n: ai s 
-0.3331 n: au p 
-0.3331 n: au r 
-0.1614 n: b a 
-1.4945 n: b aa 
-1.4945 n: b ai 
-1.2633 n: b ei 
-1.4945 n: b i 
-1.4945 n: b oo 
-1.0687 n: b r 
-0.4472 n: bh a 
-0.9630 n: bh aa 
-1.4792 n: bh i 
-0.4058 n: bh ii 
-1.4792 n: bh u 
-1.4792 n: bh uu 
-0.0477 n: ch a 
-0.5088 n: d a 
-0.8970 n: d ei 
-1.2829 n: d i 
-0.5502 n: d ii 
-1.2829 n: d oo 
-1.6521 n: d r 
-1.1497 n: d u 
-1.8833 n: d v 
-0.0872 n: d: a 
-1.0735 n: d: i 
-1.0735 n: d: oo 
-0.3736 n: dh a 
-0.9308 n: dh aa 
-0.6845 n: dh i 
-0.9308 n: dh ii 
-1.4471 n: dh u 
-0.2084 n: ei k 
-0.6341 n: ei v 
-0.4363 n: g a 
-1.1497 n: g aa 
-1.6521 n: g ei 
-1.6521 n: g i 
-1.4576 n: g ii 
-1.2829 n: g l 
-1.3671 n: g oo 
-0.5725 n: g r 
-1.8833 n: g rx 
-1.8833 n: g u 
-1.8833 n: g y 
-0.0512 n: gh a 
-1.1861 n: h a 
-1.6119 n: h aa 
-0.5798 n: h ai 
-1.6119 n: h ei 
-1.0115 n: h i 
-1.3806 n: h ii 
-1.1861 n: h oo 
-1.6119 n: h rx 
-0.5798 n: h u 
-1.3806 n: h uu 
-0.8772 n: i ch 
-0.8772 n: i n 
-0.2768 n: i s 
-0.3010 n: j a 
-0.6408 n: j aa 
-1.3745 n: j ai 
-1.3745 n: j ei 
-1.3745 n: j u 
-1.3745 n: j y 
-0.3331 n: jh aa 
-0.3331 n: jh uu 
-0.8751 n: k a 
-0.6062 n: k aa 
-2.0533 n: k ai 
-0.5898 n: k ei 
-1.5371 n: k i 
-0.7907 n: k ii 
-1.0669 n: k oo 
-1.5371 n: k shh 
-1.8220 n: k u 
-2.0533 n: k y 
-0.0477 n: kh y 
-0.8772 n: l a 
-0.6460 n: l ei 
-0.4514 n: l i 
-0.8772 n: l oo 
-1.0977 n: m a 
-1.2922 n: m aa 
-1.5234 n: m ai 
-0.1691 n: m ei 
-1.2922 n: m i 
-1.2922 n: m u 
-1.1626 n: n a 
-0.1313 n: n ei 
-0.9681 n: n i 
-1.3938 n: n rx 
-0.3979 n: p a 
-1.2595 n: p aa 
-1.6853 n: p au 
-1.6853 n: p i 
-0.4491 n: p r 
-1.6853 n: p rx 
-1.6853 n: p u 
-1.4541 n: p uu 
-1.4541 n: p y 
-0.2304 n: r a 
-0.4999 n: r aa 
-1.2625 n: r ei 
-0.1019 n: rx shh 
-0.6205 n: s a 
-1.0792 n: s aa 
-0.7035 n: s ei 
-1.7831 n: s i 
-2.0144 n: s ii 
-0.4771 n: s k 
-2.0144 n: s oo 
-1.2518 n: s th 
-1.5886 n: s u 
-2.0144 n: s v 
-0.3348 n: sh a 
-0.9352 n: sh aa 
-0.9352 n: sh ii 
-0.9352 n: sh r 
-0.5699 n: sp a 
-1.0144 n: sp aa 
-1.1477 n: sp ai 
-1.5169 n: sp au 
-1.7481 n: sp ch 
-1.7481 n: sp h 
-1.2319 n: sp i 
-0.8129 n: sp k 
-1.3223 n: sp m 
-1.3223 n: sp s 
-1.3223 n: sp u 
-1.7481 n: sp v 
-0.3921 n: t a 
-1.6003 n: t aa 
-1.3691 n: t ei 
-1.6003 n: t i 
-1.6003 n: t ii 
-0.9999 n: t oo 
-0.8377 n: t r 
-1.1745 n: t u 
-1.1745 n: t uu 
-0.0321 n: t: a 
-0.0321 n: t:h ii 
-0.3053 n: th a 
-0.7311 n: th aa 
-0.7311 n: th oo 
-0.8102 n: tra k 
-0.8102 n: tra l 
-0.2940 n: tra t 
-0.6460 n: u n 
-0.6460 n: u r 
-0.6460 n: u s 
-0.8772 n: u t 
-0.6870 n: v a 
-1.2874 n: v aa 
-1.2874 n: v ei 
-0.5537 n: v i 
-1.2874 n: v ii 
-1.0561 n: v rx 
-1.2874 n: v y 
-0.5778 n: y a 
-0.9470 n: y aa 
-1.1782 n: y ei 
-1.1782 n: y oo 
-0.5778 n: y u 
-0.9080 nd~ a SIL 
-1.3811 nd~ a bh 
-1.9815 nd~ a d 
-1.2478 nd~ a h 
-1.7502 nd~ a i 
-1.7502 nd~ a j 
-0.5877 nd~ a k 
-1.5557 nd~ a l 
-1.3811 nd~ a m 
-1.2478 nd~ a n 
-1.7502 nd~ a p 
-1.7502 nd~ a r 
-1.2478 nd~ a s 
-1.7502 nd~ a sh 
-1.4653 nd~ a sp 
-1.9815 nd~ a u 
-1.5557 nd~ a v 
-1.7502 nd~ a y 
-0.5092 nd~ aa p 
-0.5092 nd~ aa s 
-0.5092 nd~ aa th 
-0.1179 nd~ d: a 
-0.0321 nd~ ei sh 
-0.8422 nd~ i k 
-0.3109 nd~ i m 
-0.8422 nd~ i t 
-1.0735 nd~ i y 
-0.8009 nd~ ii bh 
-0.6063 nd~ ii k 
-1.0321 nd~ ii l 
-0.8009 nd~ ii m 
-0.8009 nd~ ii sp 
-0.1019 nd~ oo n: 
-0.2780 nd~ u k 
-0.5092 nd~ u r 
-0.3331 ng~ ii aa 
-0.3331 ng~ ii k 
-0.1019 nj~ a k 
-1.5092 nj~ aa d 
-0.0300 nj~ aa n 
-1.5092 nj~ aa t 
-0.0321 nj~ oo p 
-0.3153 oo SIL </s> 
-0.3153 oo SIL SIL 
-0.3331 oo a ch 
-0.3331 oo a v 
-0.0321 oo au r 
-0.3610 oo b a 
-0.8772 oo b ei 
-0.6460 oo b i 
-0.8102 oo bh a 
-0.3845 oo bh aa 
-0.5790 oo bh ii 
-0.2695 oo ch a 
-1.0321 oo ch aa 
-1.0321 oo ch au 
-0.8009 oo ch u 
-0.0321 oo chh oo 
-0.8772 oo d a 
-0.6460 oo d ei 
-0.8772 oo d i 
-0.8772 oo d ii 
-0.8772 oo d oo 
-0.8772 oo d u 
-0.3331 oo d: ii 
-0.3331 oo d: k 
-0.2768 oo dh a 
-0.6460 oo dh y 
-0.1513 oo g a 
-1.2642 oo g aa 
-1.8646 oo g ei 
-1.6334 oo g i 
-1.2642 oo g ii 
-1.3484 oo g oo 
-1.6334 oo g r 
-1.8646 oo g y 
-0.2632 oo h a 
-1.3745 oo h aa 
-0.3882 oo h i 
-0.2780 oo i h 
-0.5092 oo i s 
-0.8800 oo ii SIL 
-0.6855 oo ii bh 
-1.1113 oo ii d 
-0.8800 oo ii m 
-1.1113 oo ii n 
-1.1113 oo ii s 
-0.8800 oo ii sp 
-1.3223 oo j a 
-1.1477 oo j aa 
-0.1139 oo j ei 
-1.7481 oo j i 
-1.7481 oo j nj~ 
-1.7481 oo j oo 
-1.7481 oo j y 
-0.3010 oo k a 
-1.2480 oo k aa 
-1.0535 oo k ei 
-1.0535 oo k i 
-1.0535 oo k oo 
-1.4792 oo k rx 
-1.4792 oo k shh 
-1.4792 oo k u 
-0.3297 oo l a 
-1.7042 oo l aa 
-1.2784 oo l d: 
-1.1038 oo l ei 
-1.4730 oo l i 
-0.5582 oo l ii 
-1.7042 oo l oo 
-0.4124 oo m a 
-1.1460 oo m aa 
-1.1460 oo m ai 
-1.1460 oo m ei 
-0.7203 oo m i 
-1.4634 oo n a 
-0.9472 oo n aa 
-0.3900 oo n ei 
-1.2322 oo n i 
-1.0377 oo n ii 
-0.7009 oo n oo 
-2.1113 oo n: au 
-2.1113 oo n: bh 
-2.1113 oo n: ei 
-1.8800 oo n: g 
-1.8800 oo n: h 
-0.3310 oo n: k 
-2.1113 oo n: l 
-0.7782 oo n: m 
-1.0000 oo n: n 
-1.3487 oo n: p 
-1.1249 oo n: s 
-1.5109 oo n: sp 
-2.1113 oo n: t 
-1.8800 oo n: v 
-2.1113 oo n: y 
-0.7946 oo p a 
-1.0796 oo p aa 
-0.7104 oo p ii 
-0.5772 oo p r 
-1.3108 oo p u 
-0.2374 oo r a 
-1.3108 oo r aa 
-1.0796 oo r ei 
-0.7946 oo r i 
-1.3108 oo r oo 
-0.2139 oo s a 
-1.2874 oo s aa 
-1.2874 oo s au 
-0.7711 oo s t 
-1.2874 oo s uu 
-0.5456 oo sh a 
-0.9148 oo sh aa 
-0.5456 oo sh i 
-1.1460 oo sh r 
-0.4514 oo shh a 
-0.3610 oo shh i 
-0.8136 oo sp a 
-0.9758 oo sp aa 
-1.3449 oo sp ai 
-1.5761 oo sp bh 
-1.1504 oo sp ei 
-1.5761 oo sp h 
-1.0599 oo sp i 
-1.3449 oo sp ii 
-1.0599 oo sp k 
-1.5761 oo sp m 
-1.5761 oo sp p 
-1.3449 oo sp s 
-1.5761 oo sp u 
-1.5761 oo sp v 
-1.5761 oo sp y 
-1.2380 oo t a 
-0.1424 oo t aa 
-1.2669 oo t ei 
-1.7693 oo t i 
-1.4002 oo t ii 
-1.7693 oo t oo 
-1.5748 oo t t 
-2.0006 oo t y 
-1.0321 oo t: a 
-0.5159 oo t: aa 
-1.0321 oo t: ei 
-0.6063 oo t: i 
-1.0321 oo t: ii 
-0.3331 oo th aa 
-0.3331 oo th ei 
-0.6341 oo u k 
-0.6341 oo u p 
-0.4029 oo u s 
-0.2084 oo uu SIL 
-0.6341 oo uu n 
-0.5159 oo v a 
-1.0321 oo v aa 
-0.8009 oo v ai 
-0.6063 oo v i 
-0.3331 oo y aa 
-0.3331 oo y oo 
-0.1019 o~ g a 
-0.1726 o~ l a 
-0.7039 o~ l ei 
-0.0321 o~ n a 
-0.0321 o~ p ii 
-0.6341 o~ r a 
-0.2084 o~ r t: 
-0.6341 o~ s ii 
-0.2084 o~ s t: 
-0.0322 o~ t: a 
-2.0057 p a SIL 
-2.3749 p a a 
-2.6061 p a ch 
-1.4601 p a d 
-2.3749 p a d: 
-1.6709 p a d:h 
-2.6061 p a dh 
-2.6061 p a g 
-1.1116 p a h 
-2.0057 p a j 
-0.8928 p a k 
-2.6061 p a l 
-1.5740 p a m 
-0.8416 p a n 
-2.1804 p a n: 
-2.1804 p a nd~ 
-2.6061 p a p 
-0.5096 p a r 
-1.2316 p a s 
-1.8725 p a sh 
-2.6061 p a shh 
-1.6709 p a sp 
-1.4949 p a t 
-2.1804 p a t: 
-2.3749 p a th 
-2.0057 p a tra 
-2.1804 p a u 
-2.1804 p a v 
-1.8435 p a y 
-1.3917 p aa d 
-1.8174 p aa dh 
-1.8174 p aa ei 
-1.5862 p aa h 
-1.3012 p aa k 
-1.0548 p aa l 
-1.3012 p aa n 
-1.3917 p aa n: 
-1.8174 p aa nd~ 
-1.0838 p aa r 
-1.0838 p aa s 
-1.5862 p aa sp 
-1.3012 p aa t 
-1.8174 p aa t:h 
-1.2170 p aa tra 
-0.8311 p aa v 
-1.8174 p aa y 
-0.0834 p au r 
-0.8102 p ei j 
-0.5790 p ei k 
-0.5790 p ei s 
-0.8102 p ei sp 
-1.0321 p i a 
-1.0321 p i chh 
-1.0321 p i m 
-1.0321 p i n 
-0.5159 p i t 
-1.0321 p i v 
-1.0321 p i y 
-0.0717 p ii d: 
-1.6948 p ii d:h 
-1.6948 p ii r 
-1.0944 p ii y 
-0.0321 p oo l 
-0.0322 p o~ t: 
-0.0834 p p a 
-0.1461 p r a 
-0.7592 p r aa 
-1.9566 p r au 
-1.6197 p r ei 
-1.3502 p r i 
-1.8661 p r ii 
-2.1511 p r oo 
-0.0223 p rx shh 
-1.3331 p rx th 
-0.0300 p t a 
-1.2082 p t i 
-0.9130 p u n 
-1.6755 p u n: 
-0.2455 p u r 
-0.7404 p u s 
-1.4443 p u shh 
-1.4443 p u tra 
-1.5636 p uu chh 
-1.1378 p uu j 
-1.5636 p uu n 
-0.0691 p uu r 
-0.5790 p y aa 
-0.2940 p y uu 
-0.5092 ph a l 
-0.5092 ph a p 
-0.5092 ph a s 
-0.0477 ph aa r 
-0.3331 ph ai l 
-0.3331 ph ai s 
-0.0321 ph h i 
-1.4300 ph i j 
-0.1427 ph i l 
-0.6674 ph i r 
-0.9769 ph ii a 
-1.2082 ph ii aa 
-1.2082 ph ii b 
-1.2082 ph ii j 
-0.9769 ph ii k 
-1.2082 ph ii l 
-0.7824 ph ii p 
-0.7824 ph ii s 
-1.2082 ph ii v 
-0.2940 ph r aa 
-0.5790 ph r ii 
-0.0477 ph u t: 
-0.1019 ph uu l 
-1.5794 r a SIL 
-2.0565 r a a 
-2.6171 r a aa 
-2.1076 r a au 
-1.6128 r a b 
-1.5056 r a bh 
-1.6885 r a ch 
-1.3032 r a d 
-1.8646 r a dh 
-2.5266 r a ei 
-2.0107 r a g 
-2.6171 r a gh 
-1.0469 r a h 
-2.8116 r a i 
-1.8346 r a j 
-1.0240 r a k 
-1.7097 r a kh 
-1.8968 r a l 
-1.1534 r a m 
-1.4197 r a n 
-1.8066 r a n: 
-1.5056 r a nd~ 
-1.4425 r a p 
-2.5266 r a ph 
-1.6885 r a r 
-3.0428 r a rx 
-1.1595 r a s 
-1.8346 r a sh 
-2.8116 r a shh 
-1.1656 r a sp 
-0.9576 r a t 
-2.0107 r a th 
-1.9693 r a u 
-1.4667 r a v 
-1.5336 r a y 
-2.4141 r aa au 
-2.1829 r aa b 
-2.4141 r aa bh 
-1.6804 r aa ch 
-2.4141 r aa dh 
-2.4141 r aa ei 
-1.3406 r aa h 
-2.4141 r aa i 
-0.5967 r aa j 
-1.4278 r aa k 
-1.8979 r aa kh 
-1.9883 r aa l 
-0.8769 r aa m 
-0.9049 r aa n 
-1.8979 r aa n: 
-1.6515 r aa nd~ 
-1.3028 r aa p 
-1.8137 r aa r 
-1.8137 r aa s 
-2.4141 r aa sh 
-1.3820 r aa shh 
-1.8979 r aa sp 
-1.9883 r aa t 
-2.1829 r aa t: 
-1.8979 r aa t:h 
-2.4141 r aa uu 
-1.6515 r aa v 
-1.2359 r aa y 
-0.6341 r au d 
-0.4029 r au d:h 
-0.6341 r au n: 
-0.1179 r bh a 
-0.7311 r ch a 
-0.2148 r ch aa 
-0.7551 r d a 
-0.7551 r d ei 
-0.3859 r d uu 
-0.0321 r dh aa 
-1.7039 r ei SIL 
-1.9352 r ei b 
-1.7039 r ei bh 
-1.9352 r ei d 
-1.9352 r ei d: 
-1.9352 r ei g 
-1.9352 r ei h 
-0.8617 r ei j 
-1.5094 r ei k 
-1.2015 r ei l 
-0.6990 r ei m 
-1.7039 r ei n 
-1.1726 r ei n: 
-1.3348 r ei nd~ 
-1.7039 r ei r 
-1.3348 r ei s 
-1.0000 r ei shh 
-1.7039 r ei sp 
-1.5094 r ei v 
-1.9352 r ei y 
-0.1435 r g a 
-1.5094 r i SIL 
-1.5094 r i b 
-1.9352 r i ch 
-1.9352 r i d 
-1.7039 r i h 
-1.7039 r i j 
-0.6478 r i k 
-1.9352 r i m 
-1.9352 r i n 
-1.7039 r i p 
-1.7039 r i r 
-1.5094 r i s 
-1.7039 r i shh 
-0.9488 r i t 
-1.7039 r i t: 
-1.9352 r i tra 
-0.9031 r i v 
-0.6726 r i y 
-1.4731 r ii SIL 
-1.8422 r ii au 
-1.5573 r ii b 
-1.6477 r ii bh 
-1.6477 r ii ch 
-1.4731 r ii d 
-2.0735 r ii ei 
-1.5573 r ii h 
-2.0735 r ii j 
-0.7626 r ii k 
-1.4731 r ii m 
-1.8422 r ii n 
-1.8422 r ii oo 
-0.8373 r ii p 
-1.3398 r ii r 
-1.6477 r ii s 
-2.0735 r ii sh 
-1.3109 r ii sp 
-1.3398 r ii t 
-1.5573 r ii v 
-1.0414 r ii y 
-0.8009 r j a 
-0.4317 r j aa 
-1.0321 r j ii 
-0.8009 r j u 
-0.2084 r k a 
-0.6341 r k ii 
-0.0321 r l i 
-0.2285 r m a 
-0.6892 r m aa 
-0.7404 r m i 
-0.0321 r n aa 
-0.1362 r nd~ a 
-0.7134 r nd~ i 
-1.1504 r oo SIL 
-1.5761 r oo au 
-1.5761 r oo ch 
-1.1504 r oo dh 
-1.1504 r oo g 
-1.3449 r oo h 
-1.5761 r oo j 
-1.5761 r oo k 
-1.5761 r oo m 
-0.8425 r oo n: 
-0.8136 r oo p 
-1.5761 r oo s 
-0.9758 r oo t 
-0.0321 r o~ n 
-0.0321 r p a 
-0.3331 r ph a 
-0.3331 r ph h 
-0.0321 r r aa 
-0.0321 r rx n: 
-0.2015 r sh a 
-0.9352 r sh v 
-0.1597 r shh a 
-1.2158 r shh aa 
-0.6845 r shh i 
-0.3859 r t a 
-0.7551 r t aa 
-0.9863 r t i 
-0.9863 r t oo 
-0.3053 r t: a 
-0.4998 r t: ii 
-0.0288 r th a 
-1.3238 r th aa 
-1.2874 r u aa 
-1.0561 r u ch 
-1.0561 r u d 
-1.2874 r u k 
-0.8616 r u n 
-0.7711 r u p 
-1.2874 r u s 
-1.2874 r u sh 
-1.2874 r u shh 
-1.2874 r u sp 
-1.2874 r u v 
-1.5234 r uu aa 
-1.5234 r uu h 
-1.2922 r uu n 
-0.1296 r uu p 
-1.0072 r uu r 
-0.1938 r v a 
-0.8296 r v aa 
-1.4300 r v ei 
-1.0043 r v oo 
-0.0478 r y a 
-1.2876 r y aa 
-1.4821 r y oo 
-0.0321 rx bh aa 
-0.7463 rx d a 
-0.3274 rx d dh 
-0.6621 rx d u 
-0.8422 rx g a 
-1.0735 rx g u 
-0.1383 rx g v 
-0.0321 rx h a 
-0.0321 rx k shh 
-0.4029 rx n: d 
-0.4029 rx n: g 
-0.4029 rx p a 
-0.4029 rx p aa 
-0.0321 rx sh y 
-0.4867 rx shh i 
-1.0944 rx shh nd~ 
-0.9612 rx shh t: 
-0.3840 rx shh t:h 
-0.3979 rx t a 
-0.4437 rx t i 
-1.7311 rx t ii 
-0.6990 rx t u 
-1.7311 rx t y 
-0.0321 rx th v 
-1.8339 s a SIL 
-2.3945 s a a 
-2.8202 s a au 
-1.2084 s a b 
-1.6420 s a bh 
-2.0577 s a ch 
-1.3110 s a d 
-2.3945 s a d: 
-2.8202 s a ei 
-2.0577 s a g 
-1.4080 s a h 
-2.8202 s a i 
-2.3040 s a j 
-2.8202 s a jh 
-0.8388 s a k 
-2.3945 s a kh 
-1.5329 s a l 
-0.8059 s a m 
-1.3110 s a n 
-0.7275 s a n: 
-1.5577 s a p 
-1.1971 s a r 
-1.5840 s a s 
-2.2199 s a sh 
-1.5094 s a sp 
-1.6742 s a t 
-1.8851 s a v 
-2.2199 s a y 
-1.9439 s aa aa 
-2.1751 s aa au 
-1.9439 s aa b 
-1.4125 s aa d 
-1.9439 s aa dh 
-0.6959 s aa h 
-2.1751 s aa ii 
-1.4125 s aa k 
-1.7493 s aa l 
-1.1016 s aa m 
-1.1016 s aa n 
-1.5747 s aa n: 
-1.7493 s aa p 
-0.7117 s aa r 
-1.9439 s aa s 
-1.5747 s aa sp 
-1.9439 s aa t 
-2.1751 s aa t:h 
-0.9126 s aa th 
-2.1751 s aa v 
-1.7493 s aa y 
-0.5092 s ai l 
-0.2780 s ai n 
-0.7311 s au bh 
-0.4998 s au n: 
-0.7311 s au r 
-0.7311 s au v 
-2.0680 s ei a 
-2.2993 s ei aa 
-1.2672 s ei b 
-1.2672 s ei bh 
-2.0680 s ei ch 
-2.2993 s ei chh 
-1.8735 s ei d 
-2.0680 s ei ei 
-2.0680 s ei g 
-2.0680 s ei gh 
-1.0631 s ei h 
-1.2672 s ei j 
-1.5656 s ei k 
-2.2993 s ei kh 
-1.8735 s ei l 
-1.5656 s ei m 
-1.3129 s ei n 
-1.5367 s ei n: 
-0.9450 s ei p 
-2.2993 s ei r 
-2.2993 s ei rx 
-0.9054 s ei s 
-2.2993 s ei sh 
-2.0680 s ei shh 
-0.9247 s ei sp 
-1.7830 s ei t 
-2.2993 s ei th 
-2.0680 s ei u 
-1.2258 s ei v 
-2.0680 s ei y 
-1.4821 s i ch 
-0.6398 s i d 
-0.4771 s i k 
-1.2876 s i kh 
-1.2876 s i n 
-1.7133 s i n: 
-0.9507 s i r 
-1.2876 s i s 
-1.7133 s i t: 
-1.4821 s i v 
-1.7397 s ii a 
-1.7397 s ii b 
-1.5084 s ii bh 
-1.5084 s ii d 
-1.1393 s ii dh 
-1.7397 s ii j 
-1.1393 s ii k 
-1.1393 s ii l 
-1.3139 s ii m 
-1.5084 s ii n 
-1.5084 s ii p 
-1.7397 s ii r 
-0.7533 s ii s 
-1.7397 s ii sh 
-1.2234 s ii sp 
-1.3139 s ii t 
-1.7397 s ii u 
-1.5084 s ii v 
-1.7397 s ii y 
-0.0321 s j i 
-1.6341 s k a 
-0.6478 s k aa 
-0.1549 s k rx 
-1.4029 s k uu 
-0.4029 s l aa 
-0.4029 s l i 
-0.2084 s m a 
-0.6341 s m rx 
-0.3331 s n aa 
-0.3331 s n ei 
-0.6920 s oo ch 
-1.2082 s oo ii 
-1.2082 s oo l 
-0.9769 s oo m 
-0.7824 s oo n 
-1.2082 s oo p 
-1.2082 s oo sp 
-0.9769 s oo v 
-0.0321 s p a 
-0.1179 s r oo 
-0.1019 s rx shh 
-0.1019 s s aa 
-0.2341 s t a 
-0.6021 s t aa 
-1.1626 s t ei 
-1.5884 s t i 
-1.3572 s t rx 
-0.7311 s t: ei 
-0.2148 s t: r 
-0.6284 s th a 
-0.2527 s th aa 
-0.8299 s th i 
-0.5092 s tra bh 
-0.5092 s tra k 
-0.5092 s tra l 
-0.6616 s u bh 
-1.6929 s u d 
-1.1905 s u dh 
-1.9242 s u g 
-1.4984 s u h 
-1.9242 s u j 
-1.3238 s u jh 
-1.4080 s u kh 
-1.4984 s u m 
-0.6133 s u n 
-1.3238 s u n: 
-1.6929 s u p 
-1.9242 s u ph 
-1.4984 s u r 
-1.6929 s u sp 
-1.9242 s u t 
-1.6929 s u v 
-0.3487 s uu ch 
-1.1113 s uu n 
-0.5109 s uu r 
-0.1648 s v a 
-0.7104 s v aa 
-1.3108 s v ii 
-0.1192 s y a 
-0.9138 s y aa 
-1.1988 s y oo 
-1.7032 sh a SIL 
-0.7167 sh a b 
-1.8978 sh a bh 
-1.5286 sh a d 
-1.0555 sh a h 
-2.1290 sh a h: 
-1.6128 sh a j 
-0.8665 sh a k 
-1.8978 sh a l 
-1.0177 sh a n 
-1.6128 sh a n: 
-1.8978 sh a p 
-1.5286 sh a r 
-0.6990 sh a sp 
-1.8978 sh a t 
-1.8978 sh a u 
-2.1290 sh a v 
-1.7032 sh a y 
-1.4241 sh aa SIL 
-1.4241 sh aa b 
-1.6553 sh aa ch 
-0.9217 sh aa h 
-1.6553 sh aa k 
-1.1391 sh aa kh 
-1.2296 sh aa l 
-1.4241 sh aa m 
-1.4241 sh aa n: 
-1.6553 sh aa oo 
-0.5441 sh aa s 
-1.0549 sh aa y 
-0.2084 sh ai l 
-0.6341 sh ai v 
-0.8772 sh ch a 
-0.6460 sh ch aa 
-0.3610 sh ch i 
-0.8772 sh ei d 
-0.1146 sh ei shh 
-0.4175 sh i k 
-1.0473 sh i sh 
-0.8299 sh i shh 
-0.9632 sh i t 
-1.5636 sh i v 
-1.0473 sh i y 
-1.1782 sh ii bh 
-1.1782 sh ii gh 
-0.7525 sh ii h 
-1.1782 sh ii k 
-0.9470 sh ii l 
-0.7525 sh ii r 
-1.1782 sh ii shh 
-1.1782 sh ii sp 
-1.1782 sh ii t 
-0.5790 sh m a 
-0.2940 sh m ii 
-0.8102 sh oo bh 
-0.5790 sh oo k 
-0.5790 sh oo n: 
-0.8102 sh oo r 
-0.8119 sh r a 
-1.4123 sh r aa 
-0.2663 sh r ei 
-0.8961 sh r ii 
-1.4123 sh r rx 
-0.0321 sh rx n: 
-1.0735 sh u bh 
-1.0735 sh u d 
-0.4731 sh u k 
-1.0735 sh u oo 
-0.6477 sh u r 
-0.1047 sh v a 
-0.7525 sh v aa 
-0.0300 sh y a 
-1.2082 sh y aa 
-1.2170 shh a SIL 
-1.5862 shh a b 
-1.5862 shh a bh 
-1.8174 shh a ch 
-1.8174 shh a dh 
-0.8822 shh a k 
-1.2170 shh a m 
-1.3012 shh a n 
-1.3012 shh a nd~ 
-1.3917 shh a r 
-1.5862 shh a s 
-0.7439 shh a sp 
-1.3917 shh a v 
-0.7853 shh a y 
-1.2562 shh aa b 
-1.7724 shh aa bh 
-1.3467 shh aa d 
-1.3467 shh aa ei 
-1.0388 shh aa h 
-1.7724 shh aa j 
-0.6612 shh aa k 
-0.8373 shh aa m 
-1.0388 shh aa oo 
-1.3467 shh aa p 
-1.7724 shh aa rx 
-1.3467 shh aa sp 
-1.7724 shh aa th 
-1.7724 shh aa v 
-1.2082 shh ei p 
-1.2082 shh ei t 
-0.0621 shh ei tra 
-1.5884 shh i d 
-1.3572 shh i h 
-0.9880 shh i k 
-1.1626 shh i m 
-1.3572 shh i n 
-0.9880 shh i nd~ 
-1.1626 shh i p 
-0.8258 shh i sp 
-0.8547 shh i t 
-1.3572 shh i v 
-0.1019 shh ii SIL 
-0.0321 shh k aa 
-0.2084 shh m a 
-0.6341 shh m ii 
-0.2237 shh nd~ a 
-0.5606 shh nd~ u 
-0.1019 shh p a 
-0.5995 shh t: a 
-0.5995 shh t: i 
-0.5705 shh t: r 
-0.0872 shh t:h a 
-1.1248 shh t:h i 
-1.1248 shh t:h oo 
-0.6341 shh t:ra a 
-0.6341 shh t:ra k 
-0.4029 shh t:ra p 
-0.1435 shh y a 
-1.6526 sp a bh 
-1.4351 sp a ch 
-2.1688 sp a d 
-1.1367 sp a dh 
-1.7430 sp a g 
-2.1688 sp a j 
-1.9376 sp a k 
-1.9376 sp a kh 
-1.6526 sp a l 
-1.5684 sp a m 
-0.8145 sp a n 
-0.9906 sp a n: 
-0.9063 sp a p 
-2.1688 sp a ph 
-0.9063 sp a r 
-1.6526 sp a s 
-2.1688 sp a sh 
-0.9326 sp a t 
-1.9376 sp a th 
-1.6526 sp a v 
-2.1688 sp a y 
-2.0189 sp aa b 
-1.7876 sp aa bh 
-2.0189 sp aa ch 
-1.4185 sp aa d 
-1.0837 sp aa dh 
-1.4185 sp aa g 
-2.0189 sp aa h 
-1.2563 sp aa j 
-1.0837 sp aa k 
-1.5026 sp aa n 
-1.7876 sp aa n: 
-0.5554 sp aa p 
-1.5931 sp aa r 
-1.5026 sp aa s 
-1.5931 sp aa sh 
-1.4185 sp aa t 
-0.9868 sp aa v 
-1.7876 sp aa y 
-0.1091 sp ai s 
-0.7711 sp ai t 
-0.0193 sp au r 
-1.3938 sp au shh 
-0.5159 sp b a 
-0.6063 sp b aa 
-1.0321 sp b au 
-1.0321 sp b i 
-1.0321 sp b oo 
-0.8772 sp bh a 
-0.2768 sp bh aa 
-0.8772 sp bh au 
-0.6341 sp ch aa 
-0.6341 sp ch au 
-0.6341 sp ch i 
-0.6341 sp ch ii 
-0.3331 sp chh aa 
-0.3331 sp chh oo 
-0.9863 sp d aa 
-0.9863 sp d ei 
-0.5606 sp d i 
-0.5606 sp d oo 
-0.9863 sp d v 
-0.2780 sp dh a 
-0.5092 sp dh y 
-0.1112 sp ei k 
-1.8245 sp ei sh 
-1.8245 sp ei th 
-0.7132 sp ei v 
-0.4514 sp g a 
-0.8772 sp g au 
-0.8772 sp g i 
-0.8772 sp g oo 
-0.8772 sp g u 
-0.5092 sp gh a 
-0.5092 sp gh aa 
-0.5092 sp gh oo 
-1.2874 sp h a 
-0.8616 sp h ai 
-1.2874 sp h ei 
-0.6870 sp h i 
-1.2874 sp h ii 
-1.2874 sp h oo 
-1.2874 sp h rx 
-1.2874 sp h u 
-0.7711 sp h uu 
-1.4998 sp i k 
-1.3053 sp i l 
-1.1307 sp i n 
-1.4998 sp i n: 
-0.2366 sp i s 
-0.7959 sp i t 
-1.7311 sp i v 
-0.8102 sp ii r 
-0.5790 sp ii s 
-0.3845 sp ii sh 
-1.0313 sp j a 
-1.2625 sp j aa 
-1.0313 sp j ai 
-1.2625 sp j i 
-0.8368 sp j ii 
-0.5289 sp j oo 
-1.2625 sp j u 
-0.3331 sp jh aa 
-0.3331 sp jh ii 
-0.8101 sp k a 
-0.5276 sp k aa 
-0.5883 sp k ei 
-1.2361 sp k i 
-1.0142 sp k ii 
-1.4598 sp k oo 
-2.2224 sp k o~ 
-1.9912 sp k r 
-2.2224 sp k rx 
-2.2224 sp k shh 
-1.4888 sp k u 
-1.7967 sp k y 
-0.3845 sp kh a 
-0.8102 sp kh aa 
-0.8102 sp kh i 
-0.8102 sp kh oo 
-0.2940 sp l ei 
-0.5790 sp l i 
-0.6301 sp m a 
-0.8062 sp m ai 
-1.8383 sp m au 
-0.4082 sp m ei 
-1.4125 sp m i 
-1.6070 sp m oo 
-1.1046 sp m u 
-1.8383 sp m uu 
-0.3274 sp n a 
-0.8368 sp n aa 
-1.2625 sp n au 
-0.6621 sp n i 
-0.3331 sp o~ r 
-0.3331 sp o~ s 
-0.5643 sp p a 
-0.2632 sp p r 
-1.1248 sp p rx 
-1.3194 sp p u 
-1.5506 sp p uu 
-0.3331 sp ph aa 
-0.3331 sp ph u 
-0.4998 sp r a 
-0.4998 sp r aa 
-0.7311 sp r uu 
-0.3331 sp rx shh 
-0.3331 sp rx t 
-0.2218 sp s a 
-1.0834 sp s aa 
-1.5092 sp s ei 
-1.2780 sp s i 
-1.5092 sp s n 
-1.5092 sp s th 
-1.2780 sp s u 
-1.2780 sp s v 
-0.3053 sp sh a 
-0.7311 sp sh aa 
-0.7311 sp sh i 
-0.1139 sp t a 
-1.1460 sp t r 
-0.9148 sp t u 
-0.2780 sp th aa 
-0.5092 sp th ei 
-1.3845 sp u ch 
-0.8751 sp u d 
-1.8102 sp u d: 
-1.8102 sp u j 
-1.5790 sp u l 
-1.8102 sp u m 
-0.6320 sp u n 
-0.6642 sp u p 
-1.5790 sp u r 
-1.0477 sp u s 
-0.8239 sp u t 
-0.2084 sp uu p 
-0.6341 sp uu r 
-0.3617 sp v a 
-1.3938 sp v aa 
-1.3938 sp v ai 
-1.3938 sp v ei 
-0.4075 sp v i 
-1.3938 sp v oo 
-0.2730 sp y a 
-0.7824 sp y aa 
-0.9769 sp y ei 
-1.2082 sp y oo 
-1.2082 sp y uu 
-2.2793 t a a 
-2.1889 t a aa 
-2.4739 t a au 
-1.9714 t a b 
-1.9714 t a bh 
-2.7051 t a ch 
-2.1889 t a d 
-2.1889 t a dh 
-2.4739 t a ei 
-2.7051 t a g 
-2.7051 t a gh 
-0.9487 t a h 
-1.3508 t a h: 
-2.7051 t a i 
-2.1047 t a j 
-0.7980 t a k 
-1.6316 t a l 
-1.1415 t a m 
-1.3943 t a n 
-1.7699 t a n: 
-1.4426 t a p 
-0.8342 t a r 
-2.1889 t a rx 
-1.2580 t a s 
-2.1047 t a sh 
-1.1048 t a sp 
-1.7699 t a t 
-2.7051 t a t: 
-1.2928 t a th 
-1.5269 t a v 
-2.2793 t a y 
-1.9408 t aa SIL 
-1.8503 t aa b 
-2.3665 t aa bh 
-2.1353 t aa ch 
-1.9408 t aa d 
-2.3665 t aa ei 
-0.2041 t aa h 
-2.1353 t aa j 
-1.6329 t aa k 
-2.3665 t aa l 
-1.6329 t aa m 
-1.3802 t aa n 
-1.8503 t aa oo 
-1.6329 t aa p 
-1.6040 t aa r 
-1.3802 t aa s 
-1.4314 t aa sp 
-1.9408 t aa t 
-2.1353 t aa th 
-2.3665 t aa v 
-2.3665 t aa y 
-0.3331 t au r 
-0.3331 t au t 
-1.5490 t ei SIL 
-1.7803 t ei d 
-0.2430 t ei h 
-1.1799 t ei j 
-1.7803 t ei k 
-1.7803 t ei m 
-1.2640 t ei n: 
-1.7803 t ei p 
-1.7803 t ei r 
