~o
<STREAMINFO> 1 25
<VECSIZE> 25<NULLD><MFCC_D_N_Z_0><DIAGC>
~h "a"
<BEGINHMM>
<NUMSTATES> 5
<STATE> 2
<MEAN> 25
 3.518844e+00 -3.528811e+00 -1.133699e+00 3.281042e-01 -4.574208e-01 -3.693326e+00 1.488286e-01 1.719940e+00 -6.632690e-01 -2.106860e+00 -2.826192e+00 -1.801092e-01 -3.435316e-02 -6.829091e-02 -1.097895e-01 1.390151e-01 2.431299e-01 2.968950e-02 6.730403e-02 2.991214e-01 8.825954e-04 -7.073233e-02 -6.592658e-02 9.026821e-03 -1.089943e-01
<VARIANCE> 25
 3.846075e+01 7.264786e+01 5.407204e+01 5.883895e+01 6.239753e+01 4.738937e+01 4.545012e+01 5.543008e+01 4.373500e+01 4.840939e+01 5.695539e+01 3.204108e+01 2.033144e+00 4.567665e+00 2.693647e+00 3.599817e+00 3.937335e+00 3.217523e+00 3.306367e+00 3.988669e+00 3.130877e+00 3.437565e+00 4.181689e+00 2.586061e+00 2.797584e+00
<GCONST> 1.083426e+02
<STATE> 3
<MEAN> 25
 3.312821e+00 -3.376061e+00 -1.229001e+00 6.110774e-01 -8.498319e-02 -3.537416e+00 2.837681e-01 2.062904e+00 -6.979290e-01 -2.192572e+00 -2.728919e+00 -1.550370e-01 -1.392015e-01 1.950119e-01 -2.410654e-02 1.588607e-01 1.089482e-01 1.296616e-01 5.302095e-02 4.405544e-02 -3.319060e-03 -1.230759e-02 1.210841e-01 -7.310836e-03 -2.585906e-01
<VARIANCE> 25
 3.855032e+01 7.289433e+01 5.175478e+01 5.866900e+01 6.244270e+01 4.684192e+01 4.421149e+01 5.507160e+01 4.381386e+01 4.608485e+01 5.657332e+01 3.114031e+01 1.859887e+00 4.160453e+00 2.553569e+00 3.470293e+00 3.803847e+00 3.127877e+00 3.162330e+00 3.821185e+00 3.066040e+00 3.338943e+00 3.710970e+00 2.508746e+00 2.584834e+00
<GCONST> 1.074723e+02
<STATE> 4
<MEAN> 25
 3.110422e+00 -2.902857e+00 -1.210564e+00 8.214760e-01 -1.318135e-01 -3.334344e+00 3.922023e-01 1.967844e+00 -7.808204e-01 -2.164660e+00 -2.526796e+00 -2.275644e-01 -1.784451e-01 3.255078e-01 7.505033e-03 1.446922e-01 -1.797876e-02 1.987791e-01 2.020849e-02 -2.152049e-01 4.684948e-02 4.572978e-02 2.445236e-01 -1.877666e-02 -2.927092e-01
<VARIANCE> 25
 3.976923e+01 7.205502e+01 5.096747e+01 5.803227e+01 6.157293e+01 4.662234e+01 4.243600e+01 5.403989e+01 4.392822e+01 4.443745e+01 5.529115e+01 3.054741e+01 1.853841e+00 4.020532e+00 2.481369e+00 3.470551e+00 3.784780e+00 3.035294e+00 3.023262e+00 3.675576e+00 2.961393e+00 3.190157e+00 3.474091e+00 2.401428e+00 2.405587e+00
<GCONST> 1.068642e+02
<TRANSP> 5
 0.000000e+00 1.000000e+00 0.000000e+00 0.000000e+00 0.000000e+00
 0.000000e+00 4.562535e-01 5.437465e-01 0.000000e+00 0.000000e+00
 0.000000e+00 0.000000e+00 4.580285e-01 5.419715e-01 0.000000e+00
 0.000000e+00 0.000000e+00 0.000000e+00 5.586675e-01 4.413324e-01
 0.000000e+00 0.000000e+00 0.000000e+00 0.000000e+00 0.000000e+00
<ENDHMM>
~h "b"
<BEGINHMM>
<NUMSTATES> 5
<STATE> 2
<MEAN> 25
 4.765537e+00 3.276389e+00 -2.453689e-01 2.889950e+00 -7.796137e-01 -1.257406e+00 -2.303532e+00 -2.169134e+00 -1.715003e+00 -1.191187e+00 -2.310130e+00 -4.842727e+00 3.875268e-01 5.243424e-01 -2.542158e-01 3.697645e-01 1.342402e-01 -3.468611e-02 -1.111803e-01 -2.244161e-01 1.090917e-01 -7.198918e-02 -4.676997e-02 -4.356466e-01 -9.347617e-02
<VARIANCE> 25
 3.539391e+01 7.749879e+01 4.651465e+01 4.523663e+01 4.641240e+01 2.729145e+01 3.060580e+01 4.479449e+01 3.892067e+01 3.787664e+01 4.240225e+01 3.091770e+01 1.987729e+00 7.100413e+00 3.502517e+00 4.542299e+00 3.155101e+00 2.376240e+00 3.051050e+00 4.355733e+00 3.374643e+00 3.950266e+00 3.491761e+00 2.451141e+00 3.534513e+00
<GCONST> 1.063724e+02
<STATE> 3
<MEAN> 25
 6.004569e+00 3.518130e+00 -8.585818e-01 3.084062e+00 -6.184800e-01 -1.360407e+00 -2.239432e+00 -2.609283e+00 -1.524127e+00 -1.184451e+00 -3.053566e+00 -5.853854e+00 3.515124e-01 -4.712204e-01 -5.277667e-01 -2.317160e-01 2.811903e-01 1.275195e-02 1.604720e-02 2.445444e-01 2.927103e-01 1.465567e-01 -2.274112e-01 -1.837563e-01 4.497609e-01
<VARIANCE> 25
 2.396510e+01 7.083020e+01 5.020431e+01 4.562209e+01 4.845014e+01 2.674286e+01 3.376397e+01 4.781590e+01 3.888076e+01 4.078038e+01 3.719674e+01 3.075199e+01 2.159683e+00 9.288757e+00 4.416116e+00 5.222077e+00 3.813992e+00 2.641772e+00 3.210358e+00 4.849391e+00 3.554587e+00 4.410991e+00 3.893128e+00 2.714195e+00 4.152257e+00
<GCONST> 1.078107e+02
<STATE> 4
<MEAN> 25
 6.584507e+00 1.649044e+00 -1.401184e+00 2.034248e+00 -3.783952e-01 -1.211084e+00 -1.558744e+00 -1.870568e+00 -1.158024e+00 -6.407301e-01 -3.599500e+00 -6.074948e+00 1.001747e-01 -1.245859e+00 -4.627608e-01 -6.862561e-01 3.534102e-01 1.200149e-01 1.339201e-01 6.866272e-01 2.917216e-01 1.718453e-01 -1.688155e-01 3.417693e-01 7.643070e-01
<VARIANCE> 25
 1.939636e+01 8.596260e+01 5.745013e+01 5.395515e+01 5.410828e+01 3.024711e+01 3.920435e+01 5.223107e+01 4.099196e+01 4.305829e+01 3.504858e+01 3.293860e+01 1.717546e+00 9.368624e+00 4.591206e+00 5.155059e+00 4.418566e+00 3.091531e+00 3.639708e+00 4.364054e+00 3.485807e+00 4.373164e+00 3.854610e+00 2.816275e+00 3.873146e+00
<GCONST> 1.087423e+02
<TRANSP> 5
 0.000000e+00 1.000000e+00 0.000000e+00 0.000000e+00 0.000000e+00
 0.000000e+00 5.446307e-01 4.553693e-01 0.000000e+00 0.000000e+00
 0.000000e+00 0.000000e+00 5.591281e-01 4.408719e-01 0.000000e+00
 0.000000e+00 0.000000e+00 0.000000e+00 6.875749e-01 3.124250e-01
 0.000000e+00 0.000000e+00 0.000000e+00 0.000000e+00 0.000000e+00
<ENDHMM>
~h "d"
<BEGINHMM>
<NUMSTATES> 5
<STATE> 2
<MEAN> 25
 4.281970e+00 2.706604e+00 1.141586e+00 3.268656e+00 -1.996173e+00 -2.907345e+00 5.094776e-01 -8.845871e-01 -1.671693e+00 -3.369581e+00 -2.907733e+00 -8.392918e-01 -2.022562e-01 5.285287e-01 3.511388e-02 3.539501e-01 -6.606954e-03 1.759750e-02 9.860603e-02 -3.757985e-01 1.167271e-01 -2.631410e-01 4.278962e-01 -1.224868e-01 -3.388340e-01
<VARIANCE> 25
 2.831937e+01 6.565360e+01 4.172899e+01 4.849160e+01 5.018356e+01 4.358751e+01 4.092123e+01 5.616265e+01 3.737979e+01 4.646614e+01 4.807230e+01 3.205616e+01 1.861587e+00 4.977166e+00 2.468389e+00 4.108839e+00 3.615974e+00 3.867819e+00 3.571699e+00 4.086626e+00 2.870160e+00 3.418108e+00 4.171571e+00 2.830457e+00 2.919727e+00
<GCONST> 1.070033e+02
<STATE> 3
<MEAN> 25
 3.913956e+00 3.231232e+00 1.116635e+00 3.568532e+00 -1.882091e+00 -2.920228e+00 7.640391e-01 -1.631216e+00 -1.482423e+00 -3.793978e+00 -2.117642e+00 -1.044868e+00 -1.942933e-01 -2.632592e-02 -4.282266e-02 -1.632529e-01 1.169428e-02 -7.485087e-03 3.937052e-02 -3.937834e-01 1.533638e-01 6.629848e-02 4.666936e-01 4.835286e-03 6.407047e-02
<VARIANCE> 25
 2.763964e+01 6.165220e+01 4.109907e+01 4.962282e+01 4.900245e+01 4.399025e+01 4.270568e+01 5.631175e+01 3.754602e+01 4.537816e+01 5.238803e+01 3.171581e+01 2.119241e+00 5.580678e+00 2.881318e+00 4.762946e+00 3.991290e+00 4.174232e+00 4.122396e+00 4.731513e+00 3.057692e+00 3.979129e+00 4.987059e+00 2.998875e+00 3.369896e+00
<GCONST> 1.086172e+02
<STATE> 4
<MEAN> 25
 3.596941e+00 2.996297e+00 1.116572e+00 2.772926e+00 -1.857808e+00 -3.016116e+00 7.890236e-01 -2.496835e+00 -1.320808e+00 -3.320048e+00 -1.190775e+00 -9.705241e-01 -8.995105e-02 -4.656837e-01 6.394944e-02 -7.765604e-01 -8.687222e-02 4.273381e-02 -1.724915e-01 -3.313698e-01 1.572832e-01 5.083309e-01 3.384112e-01 2.152461e-01 4.392090e-01
<VARIANCE> 25
 2.787203e+01 6.341731e+01 4.424667e+01 5.570862e+01 4.997766e+01 4.510163e+01 4.638221e+01 5.685550e+01 3.696902e+01 4.676732e+01 5.685777e+01 3.209012e+01 2.219720e+00 5.569084e+00 3.514988e+00 5.325412e+00 4.422396e+00 4.379361e+00 4.519097e+00 5.093575e+00 3.257290e+00 4.285509e+00 5.696598e+00 2.897782e+00 3.359574e+00
<GCONST> 1.099923e+02
<TRANSP> 5
 0.000000e+00 1.000000e+00 0.000000e+00 0.000000e+00 0.000000e+00
 0.000000e+00 4.813447e-01 5.186552e-01 0.000000e+00 0.000000e+00
 0.000000e+00 0.000000e+00 4.855189e-01 5.144811e-01 0.000000e+00
 0.000000e+00 0.000000e+00 0.000000e+00 5.960943e-01 4.039057e-01
 0.000000e+00 0.000000e+00 0.000000e+00 0.000000e+00 0.000000e+00
<ENDHMM>
~h "g"
<BEGINHMM>
<NUMSTATES> 5
<STATE> 2
<MEAN> 25
 5.867064e+00 1.626098e+00 -2.066006e+00 -6.788830e-01 6.860240e-01 -1.667718e+00 -2.177446e+00 -8.129373e-01 -9.530090e-01 -7.983208e-01 -4.257213e+00 -8.113872e-01 -1.737300e-02 5.699308e-01 -2.342556e-02 5.597635e-01 -6.384072e-02 -2.923868e-01 -7.389284e-02 2.019009e-02 1.388148e-01 -1.759328e-01 1.137744e-01 -8.872268e-02 -4.293759e-01
<VARIANCE> 25
 2.395302e+01 8.723797e+01 5.299908e+01 5.994342e+01 5.429327e+01 4.292952e+01 3.706970e+01 5.447617e+01 3.511879e+01 4.377688e+01 5.343616e+01 2.675996e+01 1.302358e+00 3.985324e+00 2.333042e+00 3.885834e+00 3.433032e+00 3.154950e+00 2.444468e+00 3.527711e+00 2.622520e+00 3.220474e+00 3.138251e+00 2.192947e+00 1.951755e+00
<GCONST> 1.047426e+02
<STATE> 3
<MEAN> 25
 5.790111e+00 2.685975e+00 -2.190675e+00 4.456416e-01 6.272791e-01 -2.086324e+00 -2.331734e+00 -8.770186e-01 -8.022134e-01 -1.243503e+00 -3.877001e+00 -1.028357e+00 -1.381329e-01 2.125773e-01 -8.902298e-02 4.396724e-01 8.796456e-02 -1.225706e-01 -2.249110e-02 1.020896e-01 8.687069e-02 -1.348228e-01 2.441961e-01 -5.181837e-02 -3.300610e-01
<VARIANCE> 25
 2.147944e+01 8.233700e+01 5.052741e+01 5.675879e+01 5.278110e+01 4.080701e+01 3.572839e+01 5.176502e+01 3.403699e+01 4.153998e+01 5.057656e+01 2.663251e+01 1.197707e+00 4.272961e+00 2.714860e+00 3.938710e+00 3.747802e+00 3.172369e+00 2.463981e+00 3.443025e+00 2.550370e+00 3.256628e+00 2.971079e+00 2.255554e+00 1.906176e+00
<GCONST> 1.043240e+02
<STATE> 4
<MEAN> 25
 5.377441e+00 2.946960e+00 -2.397907e+00 1.295425e+00 1.004908e+00 -2.037008e+00 -2.312203e+00 -6.191590e-01 -6.644884e-01 -1.418847e+00 -3.249277e+00 -1.306447e+00 -2.396356e-01 -2.581544e-01 -7.786474e-02 1.696095e-01 2.295060e-01 1.065569e-02 6.049844e-02 1.507823e-01 4.441828e-02 1.090257e-01 2.769523e-01 7.173599e-02 -9.248646e-02
<VARIANCE> 25
 2.294235e+01 8.183391e+01 5.203905e+01 5.472313e+01 5.425233e+01 3.981366e+01 3.609384e+01 4.849860e+01 3.371055e+01 4.085867e+01 4.878401e+01 2.653697e+01 1.073182e+00 4.359880e+00 3.536168e+00 4.137665e+00 4.291981e+00 3.326609e+00 2.600640e+00 3.320711e+00 2.613561e+00 3.338437e+00 2.991102e+00 2.332770e+00 1.802695e+00
<GCONST> 1.047174e+02
<TRANSP> 5
 0.000000e+00 1.000000e+00 0.000000e+00 0.000000e+00 0.000000e+00
 0.000000e+00 5.042650e-01 4.957350e-01 0.000000e+00 0.000000e+00
 0.000000e+00 0.000000e+00 5.082704e-01 4.917296e-01 0.000000e+00
 0.000000e+00 0.000000e+00 0.000000e+00 6.230848e-01 3.769153e-01
 0.000000e+00 0.000000e+00 0.000000e+00 0.000000e+00 0.000000e+00
<ENDHMM>
~h "h"
<BEGINHMM>
<NUMSTATES> 5
<STATE> 2
<MEAN> 25
 4.037135e+00 2.881927e-01 2.298695e+00 -1.495957e+00 -4.935439e+00 5.674066e+00 5.874305e+00 -3.927418e+00 -9.691885e-01 5.998880e-01 -1.802329e+00 -4.959607e-01 -2.016474e-01 4.501025e-01 -4.358592e-02 1.851578e-02 -1.824529e-01 2.013254e-01 8.206517e-02 -5.674286e-02 1.147774e-01 8.142912e-02 2.389445e-01 -6.487509e-02 -4.370844e-01
<VARIANCE> 25
 2.628611e+01 5.001513e+01 6.305046e+01 4.625617e+01 9.461149e+01 5.503773e+01 5.751050e+01 3.545322e+01 3.526274e+01 4.091404e+01 4.162643e+01 2.317261e+01 7.355164e-01 1.496486e+00 1.421093e+00 2.041021e+00 2.317015e+00 2.579566e+00 2.013046e+00 2.146106e+00 2.156870e+00 2.295287e+00 1.867631e+00 1.539521e+00 7.702906e-01
<GCONST> 9.823710e+01
<STATE> 3
<MEAN> 25
 3.084228e+00 1.738206e+00 1.330218e+00 -1.247043e+00 -4.070174e+00 4.806687e+00 4.693011e+00 -3.385871e+00 -9.428133e-01 1.742646e-01 -1.018481e+00 -6.827486e-01 -2.902860e-01 4.066504e-01 -9.297612e-02 1.785014e-01 1.084365e-01 -2.002192e-03 -1.340058e-01 9.893480e-02 3.798553e-02 -1.147296e-01 2.157790e-01 -3.698266e-02 -5.158510e-01
<VARIANCE> 25
 3.352158e+01 5.765179e+01 6.442577e+01 4.692180e+01 9.607894e+01 4.905379e+01 5.622548e+01 3.728605e+01 3.612246e+01 3.945138e+01 4.611890e+01 2.434786e+01 7.345114e-01 1.410124e+00 1.308839e+00 1.951558e+00 2.373155e+00 2.244286e+00 1.959288e+00 2.090729e+00 2.066735e+00 2.152602e+00 1.802472e+00 1.522851e+00 7.940774e-01
<GCONST> 9.824667e+01
<STATE> 4
<MEAN> 25
 7.028222e-01 3.288386e+00 5.037606e-01 3.211667e-01 -2.713774e+00 3.802544e+00 3.330685e+00 -1.912961e+00 -2.249153e-01 5.994640e-02 7.980865e-01 -4.547468e-01 -3.268385e-01 2.499997e-01 -1.249405e-01 2.553310e-01 3.154876e-01 -1.423533e-01 -2.749105e-01 1.719274e-01 3.566304e-02 -1.223622e-01 2.548759e-01 4.196239e-02 -4.494062e-01
<VARIANCE> 25
 4.630408e+01 5.502436e+01 5.601323e+01 5.108094e+01 7.722331e+01 4.087574e+01 4.922295e+01 4.085140e+01 3.596692e+01 3.364290e+01 5.288649e+01 2.342008e+01 8.719534e-01 1.411123e+00 1.337086e+00 1.975566e+00 2.500338e+00 2.064794e+00 2.008070e+00 2.119979e+00 2.027237e+00 1.987668e+00 1.862826e+00 1.587259e+00 8.352901e-01
<GCONST> 9.819911e+01
<TRANSP> 5
 0.000000e+00 1.000000e+00 0.000000e+00 0.000000e+00 0.000000e+00
 0.000000e+00 6.522287e-01 3.477713e-01 0.000000e+00 0.000000e+00
 0.000000e+00 0.000000e+00 5.770146e-01 4.229854e-01 0.000000e+00
 0.000000e+00 0.000000e+00 0.000000e+00 6.966681e-01 3.033319e-01
 0.000000e+00 0.000000e+00 0.000000e+00 0.000000e+00 0.000000e+00
<ENDHMM>
~h "i"
<BEGINHMM>
<NUMSTATES> 5
<STATE> 2
<MEAN> 25
 1.472246e+00 8.509796e-01 8.851106e+00 -5.344885e+00 -5.770437e+00 -4.898054e-01 -1.094742e+00 -4.514679e+00 -1.172276e+00 1.975927e+00 -3.087385e+00 5.013554e-01 1.127654e-01 -8.685982e-02 9.279697e-01 -8.988075e-01 -3.947662e-01 9.416858e-02 -2.225900e-01 -3.358624e-01 -2.179454e-01 4.974432e-01 -5.647174e-01 2.054569e-01 4.441249e-01
<VARIANCE> 25
 3.261168e+01 5.250346e+01 5.711201e+01 8.675073e+01 4.752452e+01 4.989506e+01 3.747781e+01 4.650621e+01 3.971986e+01 3.983376e+01 5.887562e+01 2.504395e+01 2.138305e+00 3.245907e+00 4.431020e+00 6.770601e+00 3.598825e+00 2.984314e+00 3.131633e+00 3.965492e+00 3.036906e+00 3.518275e+00 4.855579e+00 2.100228e+00 3.071577e+00
<GCONST> 1.078426e+02
<STATE> 3
<MEAN> 25
 1.697731e+00 1.052480e+00 1.044364e+01 -6.853986e+00 -6.333124e+00 -4.175642e-01 -1.534184e+00 -5.274993e+00 -1.716281e+00 2.660079e+00 -4.255319e+00 7.830885e-01 4.755252e-02 6.629483e-02 2.728883e-01 -2.005280e-01 -1.367722e-01 -7.585446e-02 -4.953543e-02 -1.623085e-01 -1.758131e-01 1.474217e-01 -2.022319e-01 6.849667e-02 9.345511e-02
<VARIANCE> 25
 2.552866e+01 5.261077e+01 4.930371e+01 8.677174e+01 4.153077e+01 4.839973e+01 3.545184e+01 4.084152e+01 3.672821e+01 3.869938e+01 5.737418e+01 2.332091e+01 1.883075e+00 3.033531e+00 3.703526e+00 6.521210e+00 3.114697e+00 2.768635e+00 2.745659e+00 3.404032e+00 2.787106e+00 3.249236e+00 4.363338e+00 1.990876e+00 3.202251e+00
<GCONST> 1.056986e+02
<STATE> 4
<MEAN> 25
 1.376346e+00 1.862355e+00 1.046294e+01 -6.520695e+00 -6.383219e+00 -5.924233e-01 -1.820650e+00 -6.107158e+00 -2.019181e+00 2.423824e+00 -4.451421e+00 8.528442e-01 -1.440501e-01 1.321591e-01 -5.354928e-01 7.011067e-01 1.402702e-01 -2.275187e-01 1.696271e-01 7.404719e-02 -8.792056e-03 -2.359159e-01 4.032457e-01 -7.194888e-02 -3.186363e-01
<VARIANCE> 25
 2.273223e+01 5.075090e+01 4.562382e+01 8.851285e+01 3.908705e+01 4.393691e+01 3.446541e+01 3.815388e+01 3.476248e+01 3.690446e+01 5.836168e+01 2.338754e+01 1.579499e+00 3.048543e+00 2.782279e+00 5.060835e+00 2.901426e+00 2.657521e+00 2.674125e+00 3.075808e+00 2.561417e+00 3.140378e+00 3.685719e+00 1.954394e+00 2.257843e+00
<GCONST> 1.035473e+02
<TRANSP> 5
 0.000000e+00 1.000000e+00 0.000000e+00 0.000000e+00 0.000000e+00
 0.000000e+00 5.529387e-01 4.470613e-01 0.000000e+00 0.000000e+00
 0.000000e+00 0.000000e+00 5.680869e-01 4.319131e-01 0.000000e+00
 0.000000e+00 0.000000e+00 0.000000e+00 7.374877e-01 2.625123e-01
 0.000000e+00 0.000000e+00 0.000000e+00 0.000000e+00 0.000000e+00
<ENDHMM>
~h "j"
<BEGINHMM>
<NUMSTATES> 5
<STATE> 2
<MEAN> 25
 -1.019830e+00 4.994073e+00 2.316808e+00 1.940084e+00 1.618935e+00 -3.087704e+00 8.271851e-01 -6.553810e-01 -1.376043e+00 -2.096161e+00 1.039430e+00 -1.535012e+00 -1.431753e+00 4.025746e-01 3.136767e-01 -5.937585e-01 8.068771e-01 -2.309358e-01 4.361652e-01 -6.927685e-02 2.726999e-03 4.673730e-02 6.978213e-01 -2.716262e-01 2.050706e-01
<VARIANCE> 25
 7.693813e+01 5.517295e+01 4.617833e+01 5.052302e+01 6.128745e+01 4.208468e+01 4.126975e+01 5.086460e+01 3.354976e+01 4.106644e+01 4.652180e+01 2.321357e+01 8.487337e+00 5.016973e+00 2.878422e+00 5.079484e+00 7.085959e+00 3.822066e+00 3.564135e+00 3.828535e+00 3.145949e+00 3.365330e+00 4.197696e+00 2.352888e+00 2.711339e+00
<GCONST> 1.097662e+02
<STATE> 3
<MEAN> 25
 -4.384472e+00 5.132115e+00 3.185582e+00 -4.835626e-01 3.019844e+00 -3.861797e+00 2.226061e+00 -7.207866e-01 -1.379253e+00 -1.900110e+00 2.468824e+00 -2.093297e+00 -7.057466e-01 -1.642942e-01 3.293245e-01 -8.372736e-01 7.591498e-02 -2.846331e-01 4.719853e-01 8.166599e-02 8.209731e-02 8.336153e-02 3.607473e-01 -1.205328e-01 5.932664e-01
<VARIANCE> 25
 1.009030e+02 5.631459e+01 5.043272e+01 5.262585e+01 6.749699e+01 4.681246e+01 4.302250e+01 4.835831e+01 3.181789e+01 3.971518e+01 5.132659e+01 2.340827e+01 1.216237e+01 5.822267e+00 3.011331e+00 4.345047e+00 8.518578e+00 3.948851e+00 3.532382e+00 3.818472e+00 2.964725e+00 3.072699e+00 4.849436e+00 2.333544e+00 2.328907e+00
<GCONST> 1.108375e+02
<STATE> 4
<MEAN> 25
 -4.542562e+00 3.587600e+00 4.316810e+00 -2.555357e+00 1.728982e+00 -4.330185e+00 3.104402e+00 -4.197557e-01 -1.157309e+00 -1.495432e+00 2.725403e+00 -2.187133e+00 7.385144e-01 -8.549117e-01 1.670315e-01 -5.665317e-01 -6.783533e-01 -8.747406e-02 1.065935e-01 1.133696e-01 8.701946e-02 4.388059e-02 -3.503220e-01 6.202087e-02 7.156729e-01
<VARIANCE> 25
 1.004568e+02 6.854855e+01 5.398526e+01 4.804252e+01 6.742953e+01 4.693012e+01 4.269958e+01 4.546840e+01 2.952355e+01 3.855404e+01 5.073776e+01 2.204786e+01 1.244317e+01 5.948007e+00 3.120446e+00 3.683525e+00 8.395354e+00 4.331743e+00 3.284283e+00 3.680993e+00 2.874231e+00 2.845865e+00 5.236925e+00 2.136958e+00 2.301421e+00
<GCONST> 1.105154e+02
<TRANSP> 5
 0.000000e+00 1.000000e+00 0.000000e+00 0.000000e+00 0.000000e+00
 0.000000e+00 6.347206e-01 3.652793e-01 0.000000e+00 0.000000e+00
 0.000000e+00 0.000000e+00 6.186255e-01 3.813744e-01 0.000000e+00
 0.000000e+00 0.000000e+00 0.000000e+00 7.341497e-01 2.658503e-01
 0.000000e+00 0.000000e+00 0.000000e+00 0.000000e+00 0.000000e+00
<ENDHMM>
~h "k"
<BEGINHMM>
<NUMSTATES> 5
<STATE> 2
<MEAN> 25
 -1.792041e+00 -8.535509e-01 -7.901934e-01 8.123575e-01 1.538738e+00 -1.764082e+00 -1.508135e+00 -8.252812e-01 1.405664e+00 -6.011347e-01 5.362727e-01 1.102083e+00 7.465521e-02 -1.361196e+00 -3.403024e-01 -8.905022e-01 8.363754e-01 -1.814920e-01 -3.071576e-02 2.232495e-02 3.023281e-01 4.286107e-01 -1.274399e-01 5.745726e-01 1.093580e+00
<VARIANCE> 25
 3.799791e+01 7.543809e+01 1.036453e+02 7.625687e+01 8.331682e+01 4.892570e+01 4.078167e+01 5.635929e+01 5.092404e+01 4.928753e+01 5.631071e+01 3.257374e+01 3.888967e+00 7.612380e+00 8.274811e+00 8.193605e+00 8.505638e+00 5.473339e+00 4.271770e+00 5.154124e+00 4.991463e+00 4.714756e+00 6.117878e+00 3.572978e+00 4.532518e+00
<GCONST> 1.165694e+02
<STATE> 3
<MEAN> 25
 -6.526522e-01 -3.573007e+00 -9.377667e-01 -2.220949e+00 2.635346e+00 -2.342310e+00 -1.583775e+00 -9.591480e-01 1.543837e+00 5.433160e-01 -8.863358e-01 2.144071e+00 8.214956e-01 -8.287967e-01 3.323290e-01 -1.559942e+00 -7.320074e-02 -8.216637e-02 -1.046882e-01 -1.050951e-01 -3.019501e-01 4.882270e-01 -1.042339e+00 1.106444e-01 1.511148e+00
<VARIANCE> 25
 4.338641e+01 7.861384e+01 1.285164e+02 8.927615e+01 9.529115e+01 5.385688e+01 4.231643e+01 5.974770e+01 5.386532e+01 5.112276e+01 6.261929e+01 3.537046e+01 4.400239e+00 6.875537e+00 8.145651e+00 8.173792e+00 9.095893e+00 5.427780e+00 4.194254e+00 5.047139e+00 5.827401e+00 4.856002e+00 7.447788e+00 4.102106e+00 4.414410e+00
<GCONST> 1.182387e+02
<STATE> 4
<MEAN> 25
 1.999245e+00 -4.693341e+00 9.958306e-01 -6.318254e+00 7.842357e-01 -2.280771e+00 -1.779297e+00 -1.466830e+00 -3.503958e-01 1.830639e+00 -4.408448e+00 1.645825e+00 8.358198e-01 -4.102329e-01 6.177065e-01 -1.144008e+00 -5.341195e-01 2.807482e-01 -1.270714e-02 -2.518775e-02 -6.961322e-01 3.360088e-01 -1.052068e+00 -3.641411e-01 1.120629e+00
<VARIANCE> 25
 3.714874e+01 7.565479e+01 1.261612e+02 8.553355e+01 9.131266e+01 4.775925e+01 4.189020e+01 6.137601e+01 4.928672e+01 4.933627e+01 6.154073e+01 3.716484e+01 3.617179e+00 5.031283e+00 5.666611e+00 7.583350e+00 6.878303e+00 4.777647e+00 3.719700e+00 4.235658e+00 5.238209e+00 4.581013e+00 6.698820e+00 3.663435e+00 3.987961e+00
<GCONST> 1.156114e+02
<TRANSP> 5
 0.000000e+00 1.000000e+00 0.000000e+00 0.000000e+00 0.000000e+00
 0.000000e+00 5.353228e-01 4.646772e-01 0.000000e+00 0.000000e+00
 0.000000e+00 0.000000e+00 5.458502e-01 4.541498e-01 0.000000e+00
 0.000000e+00 0.000000e+00 0.000000e+00 6.650257e-01 3.349743e-01
 0.000000e+00 0.000000e+00 0.000000e+00 0.000000e+00 0.000000e+00
<ENDHMM>
~h "l"
<BEGINHMM>
<NUMSTATES> 5
<STATE> 2
<MEAN> 25
 5.193569e+00 -1.021162e+00 7.020525e+00 -4.509039e+00 -5.437914e+00 -2.713120e+00 -2.068626e+00 -2.381124e+00 -1.038877e+00 -8.654498e-01 -5.319814e+00 2.055241e+00 5.555822e-02 4.849334e-01 3.805749e-01 1.164799e-01 -2.537346e-01 -1.380489e-01 -4.068432e-01 -9.659248e-02 9.206855e-02 -2.195515e-01 -1.372338e-01 2.239867e-01 -1.977805e-01
<VARIANCE> 25
 1.325377e+01 6.145641e+01 5.059086e+01 4.863438e+01 4.029816e+01 4.963541e+01 4.588415e+01 5.867360e+01 3.619493e+01 4.523168e+01 3.977189e+01 2.452751e+01 7.355063e-01 2.893317e+00 2.236568e+00 3.103651e+00 2.691354e+00 3.685445e+00 3.803362e+00 3.216215e+00 2.667016e+00 3.645595e+00 3.201865e+00 2.041210e+00 1.228468e+00
<GCONST> 1.020892e+02
<STATE> 3
<MEAN> 25
 5.221834e+00 -1.086624e-01 7.627491e+00 -4.419523e+00 -5.709898e+00 -2.531815e+00 -2.800836e+00 -2.650454e+00 -8.832948e-01 -1.225000e+00 -5.475403e+00 2.228406e+00 -2.599680e-02 2.033270e-01 1.263481e-01 3.241998e-02 -2.855162e-02 2.419482e-02 -1.832596e-01 -1.176776e-03 4.163304e-02 -8.953407e-02 -6.928124e-03 3.163936e-02 -1.183273e-01
<VARIANCE> 25
 1.085970e+01 5.787534e+01 4.720031e+01 4.889167e+01 3.969349e+01 5.506637e+01 4.387564e+01 5.453412e+01 3.553414e+01 4.476165e+01 3.961637e+01 2.539763e+01 5.383167e-01 2.957187e+00 2.152972e+00 2.978304e+00 2.671332e+00 3.353199e+00 3.718641e+00 3.194321e+00 2.696429e+00 3.765984e+00 3.017730e+00 1.953419e+00 1.146162e+00
<GCONST> 1.011087e+02
<STATE> 4
<MEAN> 25
 5.004440e+00 -1.235647e-01 8.015391e+00 -5.177073e+00 -5.791253e+00 -1.978592e+00 -2.820749e+00 -3.018325e+00 -1.206991e+00 -9.957277e-01 -5.457122e+00 2.033620e+00 -7.592148e-02 -7.890914e-02 -1.158154e-01 -3.487720e-02 1.370354e-01 1.014524e-01 5.578003e-02 6.760655e-02 -4.656085e-02 5.355502e-02 8.428387e-02 -6.428267e-02 -2.245392e-02
<VARIANCE> 25
 1.037301e+01 6.008642e+01 5.083278e+01 5.620948e+01 4.146767e+01 5.357986e+01 4.393718e+01 5.217554e+01 3.521008e+01 4.785193e+01 3.829679e+01 2.541677e+01 4.889601e-01 3.102463e+00 2.221316e+00 3.137268e+00 2.723711e+00 3.211385e+00 3.751749e+00 3.140700e+00 2.651836e+00 3.783357e+00 2.952887e+00 1.895535e+00 1.166016e+00
<GCONST> 1.012685e+02
<TRANSP> 5
 0.000000e+00 1.000000e+00 0.000000e+00 0.000000e+00 0.000000e+00
 0.000000e+00 5.935352e-01 4.064648e-01 0.000000e+00 0.000000e+00
 0.000000e+00 0.000000e+00 5.894489e-01 4.105512e-01 0.000000e+00
 0.000000e+00 0.000000e+00 0.000000e+00 7.137157e-01 2.862844e-01
 0.000000e+00 0.000000e+00 0.000000e+00 0.000000e+00 0.000000e+00
<ENDHMM>
~h "m"
<BEGINHMM>
<NUMSTATES> 5
<STATE> 2
<MEAN> 25
 6.508772e+00 -4.154597e-01 -1.714165e-01 3.658320e+00 -2.415244e+00 -4.214134e-01 -1.409423e+00 -5.595142e+00 -4.662021e+00 -1.900689e+00 -2.938315e+00 -3.783078e+00 4.715660e-01 5.005026e-01 2.077295e-01 6.670408e-01 -6.303908e-01 -1.130683e-01 1.088032e-01 -1.034798e+00 -2.490381e-01 7.441589e-02 -2.723266e-01 -3.433073e-01 -1.898655e-02
<VARIANCE> 25
 2.928783e+01 5.236288e+01 3.440453e+01 4.422522e+01 5.269555e+01 3.680061e+01 3.251278e+01 5.403302e+01 3.766510e+01 3.675485e+01 4.097926e+01 3.177106e+01 1.510120e+00 2.698355e+00 2.338018e+00 3.461640e+00 3.364459e+00 2.637484e+00 2.333502e+00 4.452289e+00 2.698421e+00 2.973203e+00 2.905562e+00 2.181021e+00 1.729146e+00
<GCONST> 1.025518e+02
<STATE> 3
<MEAN> 25
 7.679998e+00 2.377390e-01 1.137390e-01 4.483904e+00 -3.414294e+00 -5.252584e-01 -1.159733e+00 -7.297551e+00 -5.203741e+00 -1.991235e+00 -3.778504e+00 -4.496217e+00 2.424820e-01 1.269064e-01 4.109750e-02 1.305495e-01 -2.531473e-01 -9.577882e-03 9.628671e-02 -2.778684e-01 -7.645647e-02 -3.525548e-02 -1.467211e-01 -1.600346e-01 8.785781e-02
<VARIANCE> 25
 1.597145e+01 4.759772e+01 3.189465e+01 4.256986e+01 4.752129e+01 3.565156e+01 3.071462e+01 5.033974e+01 3.257063e+01 3.594791e+01 3.614559e+01 3.037395e+01 1.207337e+00 2.778570e+00 2.237056e+00 3.565109e+00 3.244833e+00 2.619204e+00 2.158077e+00 4.868307e+00 2.498688e+00 2.797525e+00 2.748155e+00 2.189522e+00 1.457507e+00
<GCONST> 1.005337e+02
<STATE> 4
<MEAN> 25
 7.521065e+00 -5.710953e-02 4.346441e-01 2.638786e+00 -3.410338e+00 1.391267e-02 -8.851056e-01 -6.618749e+00 -5.491981e+00 -2.461414e+00 -3.975547e+00 -4.440907e+00 -1.059450e-01 -1.800590e-01 -2.715455e-02 -4.579711e-01 1.694949e-01 1.206829e-01 -2.302774e-02 4.961323e-01 5.503348e-02 -1.153654e-01 9.278625e-02 7.783780e-02 1.041037e-01
<VARIANCE> 25
 1.713029e+01 5.521172e+01 4.385907e+01 6.153305e+01 5.065930e+01 3.808378e+01 3.192829e+01 5.272132e+01 3.347985e+01 3.729350e+01 3.764386e+01 2.950261e+01 8.075847e-01 2.969238e+00 2.713675e+00 4.073261e+00 3.361222e+00 2.892537e+00 2.241321e+00 4.649361e+00 2.466828e+00 2.888604e+00 2.541892e+00 2.266302e+00 1.208691e+00
<GCONST> 1.016352e+02
<TRANSP> 5
 0.000000e+00 1.000000e+00 0.000000e+00 0.000000e+00 0.000000e+00
 0.000000e+00 5.749072e-01 4.250929e-01 0.000000e+00 0.000000e+00
 0.000000e+00 0.000000e+00 5.926467e-01 4.073533e-01 0.000000e+00
 0.000000e+00 0.000000e+00 0.000000e+00 7.835165e-01 2.164835e-01
 0.000000e+00 0.000000e+00 0.000000e+00 0.000000e+00 0.000000e+00
<ENDHMM>
~h "n"
<BEGINHMM>
<NUMSTATES> 5
<STATE> 2
<MEAN> 25
 6.576219e+00 -3.243113e+00 1.376524e+00 1.904587e+00 -1.246115e+00 -1.812999e+00 3.832196e-01 -7.677931e-02 -6.415396e+00 -6.582172e+00 -4.197785e+00 -8.280404e-01 1.418811e-01 7.026119e-01 2.308141e-01 5.798807e-01 -6.374046e-01 -2.317038e-01 1.247003e-01 -4.947605e-01 -2.169329e-01 -1.737739e-01 -2.941919e-02 -4.860116e-02 -3.558429e-01
<VARIANCE> 25
 1.257497e+01 7.318910e+01 3.949434e+01 4.471919e+01 6.871127e+01 3.762411e+01 3.460701e+01 5.616490e+01 4.210635e+01 4.604274e+01 3.556354e+01 2.509678e+01 6.758424e-01 3.234733e+00 2.011247e+00 3.066166e+00 3.796875e+00 2.680439e+00 2.492353e+00 3.884863e+00 2.539661e+00 2.809028e+00 2.319494e+00 1.876638e+00 1.200983e+00
<GCONST> 1.008526e+02
<STATE> 3
<MEAN> 25
 6.816970e+00 -1.424133e+00 1.748515e+00 2.962978e+00 -2.533599e+00 -2.053542e+00 4.871061e-01 -1.504313e+00 -6.495137e+00 -6.565501e+00 -4.246223e+00 -9.660918e-01 2.881015e-02 6.066048e-01 6.817190e-02 3.295237e-01 -3.318834e-01 -9.468112e-03 6.717507e-03 -4.483408e-01 3.579110e-02 2.061107e-02 1.630121e-02 -5.754237e-02 -3.566753e-01
<VARIANCE> 25
 1.123557e+01 6.720042e+01 3.586893e+01 4.256744e+01 6.369241e+01 3.680751e+01 3.421229e+01 5.155320e+01 4.048835e+01 4.051470e+01 3.513255e+01 2.500524e+01 5.861086e-01 3.087215e+00 1.830319e+00 2.972204e+00 3.670759e+00 2.537603e+00 2.338889e+00 3.606539e+00 2.340186e+00 2.580076e+00 2.150057e+00 1.751125e+00 1.049126e+00
<GCONST> 9.914314e+01
<STATE> 4
<MEAN> 25
 6.673226e+00 -3.928097e-02 1.866380e+00 2.962984e+00 -2.974736e+00 -1.537099e+00 2.133236e-01 -2.754691e+00 -6.445017e+00 -6.393502e+00 -4.235189e+00 -1.242873e+00 -1.813989e-01 3.305778e-01 2.437177e-02 -1.047972e-01 5.918017e-02 1.712577e-01 -1.587253e-01 -1.784056e-01 1.835460e-01 1.693759e-01 1.141476e-01 -6.274431e-02 -2.603826e-01
<VARIANCE> 25
 1.214046e+01 6.601473e+01 3.899314e+01 4.816817e+01 6.277125e+01 4.073399e+01 3.719046e+01 4.965638e+01 3.916870e+01 3.892521e+01 3.596751e+01 2.550008e+01 6.401968e-01 2.837132e+00 1.936385e+00 3.379903e+00 3.377199e+00 2.519799e+00 2.339925e+00 3.186399e+00 2.333262e+00 2.494111e+00 2.159835e+00 1.786746e+00 1.045302e+00
<GCONST> 9.947165e+01
<TRANSP> 5
 0.000000e+00 1.000000e+00 0.000000e+00 0.000000e+00 0.000000e+00
 0.000000e+00 5.840636e-01 4.159363e-01 0.000000e+00 0.000000e+00
 0.000000e+00 0.000000e+00 5.821013e-01 4.178987e-01 0.000000e+00
 0.000000e+00 0.000000e+00 0.000000e+00 7.125767e-01 2.874232e-01
 0.000000e+00 0.000000e+00 0.000000e+00 0.000000e+00 0.000000e+00
<ENDHMM>
~h "p"
<BEGINHMM>
<NUMSTATES> 5
<STATE> 2
<MEAN> 25
 -9.573312e-01 8.222580e-02 -2.878645e+00 1.890100e+00 -1.007944e-01 -6.221345e-01 -1.449277e+00 6.064614e-01 1.407091e+00 3.168864e-01 1.782463e+00 -6.034777e-01 2.976144e-01 -7.495164e-01 -4.798640e-01 2.622072e-02 2.009776e-01 4.329224e-02 -1.840834e-01 1.186967e-01 4.302221e-01 1.357820e-01 2.742570e-01 -4.039036e-02 4.798739e-01
<VARIANCE> 25
 3.599778e+01 5.940379e+01 6.224237e+01 5.064465e+01 5.645921e+01 3.331096e+01 3.019354e+01 3.818464e+01 3.957329e+01 3.443738e+01 4.413104e+01 2.889528e+01 3.892644e+00 6.564471e+00 3.408283e+00 4.947324e+00 4.076333e+00 2.955914e+00 3.145682e+00 3.578966e+00 3.338297e+00 3.395614e+00 3.801585e+00 2.757289e+00 5.687010e+00
<GCONST> 1.081200e+02
<STATE> 3
<MEAN> 25
 3.382349e-01 -1.877541e+00 -3.790861e+00 1.347125e+00 2.159195e-01 -4.459125e-01 -1.830364e+00 6.391866e-01 2.014418e+00 5.639300e-01 1.663645e+00 -8.801181e-01 9.892929e-01 -9.777639e-01 -3.786378e-01 -5.491185e-01 5.647646e-02 5.258109e-03 -2.591863e-01 8.392916e-02 1.659015e-01 6.592396e-02 -4.542868e-01 -2.951945e-01 1.274791e+00
<VARIANCE> 25
 4.053596e+01 6.178441e+01 6.546603e+01 5.692790e+01 5.819002e+01 3.404218e+01 3.325397e+01 3.774043e+01 3.998445e+01 3.439048e+01 4.482172e+01 3.162943e+01 5.337774e+00 6.843108e+00 4.176641e+00 6.165113e+00 4.895080e+00 3.373573e+00 3.700538e+00 3.980507e+00 3.920659e+00 3.819319e+00 5.178799e+00 3.419199e+00 6.697530e+00
<GCONST> 1.110280e+02
<STATE> 4
<MEAN> 25
 2.996782e+00 -3.658850e+00 -4.560009e+00 -3.942308e-01 1.471417e-01 -4.388765e-01 -2.434533e+00 8.073647e-01 1.947471e+00 6.384377e-01 -1.545680e-01 -1.878588e+00 1.128097e+00 -8.109626e-01 -6.613380e-02 -7.653319e-01 -5.137303e-02 -8.393174e-02 -5.825246e-02 2.778677e-01 -1.394159e-01 -1.108999e-01 -9.699348e-01 -3.035715e-01 1.419608e+00
<VARIANCE> 25
 4.520469e+01 6.458561e+01 6.848795e+01 6.502996e+01 6.373504e+01 3.749392e+01 3.679939e+01 3.999887e+01 4.424418e+01 3.874306e+01 4.855757e+01 3.460514e+01 4.994066e+00 6.023438e+00 4.320303e+00 6.419051e+00 5.296718e+00 3.634574e+00 4.145383e+00 4.262725e+00 4.080225e+00 3.967097e+00 5.649027e+00 3.531877e+00 5.497399e+00
<GCONST> 1.123121e+02
<TRANSP> 5
 0.000000e+00 1.000000e+00 0.000000e+00 0.000000e+00 0.000000e+00
 0.000000e+00 4.714654e-01 5.285346e-01 0.000000e+00 0.000000e+00
 0.000000e+00 0.000000e+00 4.770485e-01 5.229515e-01 0.000000e+00
 0.000000e+00 0.000000e+00 0.000000e+00 5.688930e-01 4.311070e-01
 0.000000e+00 0.000000e+00 0.000000e+00 0.000000e+00 0.000000e+00
<ENDHMM>
~h "r"
<BEGINHMM>
<NUMSTATES> 5
<STATE> 2
<MEAN> 25
 5.529027e+00 -8.127303e+00 -9.957551e-01 -9.368683e-01 -1.201669e+00 -3.543833e+00 3.522344e-01 4.460563e+00 -4.190260e-01 -1.894997e+00 -3.827159e+00 5.444023e-02 2.255421e-01 -1.393362e-01 3.373559e-01 1.632407e-01 -6.180620e-01 -3.638869e-01 -1.375144e-01 2.575898e-01 2.679453e-02 -2.744718e-01 6.896574e-02 7.454523e-02 1.827540e-01
<VARIANCE> 25
 2.501147e+01 6.135347e+01 4.840689e+01 5.326546e+01 6.207054e+01 4.330995e+01 5.472744e+01 4.825891e+01 4.121445e+01 3.839560e+01 4.686210e+01 2.386708e+01 1.744884e+00 3.824440e+00 2.773831e+00 3.977167e+00 4.473345e+00 3.430240e+00 3.878573e+00 3.678695e+00 3.242153e+00 3.449783e+00 3.930608e+00 2.157060e+00 2.622562e+00
<GCONST> 1.065038e+02
<STATE> 3
<MEAN> 25
 5.927360e+00 -8.178596e+00 -3.903553e-01 -5.732087e-01 -2.215171e+00 -4.006692e+00 2.173510e-03 4.691247e+00 -4.533566e-01 -2.400903e+00 -3.637954e+00 2.815158e-02 7.841215e-02 1.934583e-01 2.179457e-01 1.926195e-01 -3.292125e-01 -7.369526e-02 -1.595701e-01 -9.527159e-02 -5.027648e-02 -1.603437e-01 1.228780e-01 -3.363399e-02 -8.857732e-02
<VARIANCE> 25
 1.992291e+01 5.600962e+01 4.563822e+01 5.062310e+01 5.816428e+01 4.307269e+01 5.354956e+01 4.699083e+01 4.105103e+01 3.733217e+01 4.160244e+01 2.349094e+01 1.485318e+00 3.587827e+00 2.735427e+00 4.015682e+00 4.792462e+00 3.417051e+00 3.992023e+00 3.713887e+00 3.251621e+00 3.382329e+00 3.772640e+00 2.089562e+00 2.392044e+00
<GCONST> 1.054821e+02
<STATE> 4
<MEAN> 25
 5.980876e+00 -7.779779e+00 -1.146337e-01 -6.474702e-02 -2.470513e+00 -4.124027e+00 -1.528877e-01 4.190861e+00 -8.820065e-01 -2.748156e+00 -3.535895e+00 -2.074211e-01 -9.381115e-02 4.586278e-01 6.384255e-02 1.847486e-01 -1.050097e-02 1.526919e-01 -8.856424e-02 -4.156406e-01 -1.115260e-01 5.709232e-03 1.171731e-01 -9.214766e-02 -3.135495e-01
<VARIANCE> 25
 1.775005e+01 5.523035e+01 4.647711e+01 4.925804e+01 5.986306e+01 4.662016e+01 5.125672e+01 4.693641e+01 4.177336e+01 3.712995e+01 3.872694e+01 2.435856e+01 1.276139e+00 3.159240e+00 2.531033e+00 3.867997e+00 4.631033e+00 3.226572e+00 3.772851e+00 3.570390e+00 3.270828e+00 3.264870e+00 3.431042e+00 2.015751e+00 2.006084e+00
<GCONST> 1.044652e+02
<TRANSP> 5
 0.000000e+00 1.000000e+00 0.000000e+00 0.000000e+00 0.000000e+00
 0.000000e+00 5.082630e-01 4.917370e-01 0.000000e+00 0.000000e+00
 0.000000e+00 0.000000e+00 5.183046e-01 4.816954e-01 0.000000e+00
 0.000000e+00 0.000000e+00 0.000000e+00 6.472870e-01 3.527130e-01
 0.000000e+00 0.000000e+00 0.000000e+00 0.000000e+00 0.000000e+00
<ENDHMM>
~h "s"
<BEGINHMM>
<NUMSTATES> 5
<STATE> 2
<MEAN> 25
 -6.428107e+00 4.341983e+00 -3.586144e+00 4.563110e+00 5.436292e-01 -5.611467e+00 3.234154e+00 -2.862015e+00 1.405610e+00 -2.961021e+00 3.680233e+00 3.255544e-02 -1.496233e+00 6.265326e-01 -6.324232e-01 5.529968e-01 4.003972e-01 -8.863629e-02 7.189277e-01 -8.947261e-02 6.059756e-01 -2.774496e-01 1.038304e+00 -9.599210e-02 -2.966152e-01
<VARIANCE> 25
 6.128962e+01 4.940188e+01 4.980663e+01 4.520521e+01 5.797580e+01 4.549783e+01 4.751811e+01 5.961288e+01 4.143980e+01 4.593790e+01 5.325097e+01 2.755138e+01 4.616124e+00 4.688394e+00 3.222726e+00 3.775372e+00 3.251081e+00 3.422656e+00 3.858574e+00 3.766427e+00 3.676371e+00 3.446695e+00 4.577534e+00 2.690312e+00 1.819018e+00
<GCONST> 1.086588e+02
<STATE> 3
<MEAN> 25
 -9.618975e+00 4.893614e+00 -4.979305e+00 5.360290e+00 1.491383e+00 -5.380538e+00 4.982435e+00 -2.647540e+00 3.008192e+00 -3.192248e+00 5.734518e+00 1.203345e-01 -2.417141e-01 -2.897092e-01 -2.137335e-01 -5.749476e-02 1.673740e-01 5.952905e-02 3.940967e-01 1.080014e-01 3.101054e-01 -5.880241e-02 1.817950e-01 1.060310e-01 9.855791e-02
<VARIANCE> 25
 5.396272e+01 4.677564e+01 4.985294e+01 4.415037e+01 5.796553e+01 4.531338e+01 4.524958e+01 5.277843e+01 3.991385e+01 4.636597e+01 4.863140e+01 2.693275e+01 7.087308e+00 4.776678e+00 3.202212e+00 3.598434e+00 3.607319e+00 3.236450e+00 3.961959e+00 3.924773e+00 3.609141e+00 3.373789e+00 6.083961e+00 2.496783e+00 2.613106e+00
<GCONST> 1.091785e+02
<STATE> 4
<MEAN> 25
 -7.197052e+00 2.264999e+00 -4.749719e+00 3.836863e+00 1.646293e+00 -5.564271e+00 5.698321e+00 -2.173317e+00 3.438734e+00 -3.090162e+00 4.278181e+00 7.498180e-01 1.806020e+00 -1.086619e+00 2.161643e-01 -8.904591e-01 -2.650763e-01 5.255455e-02 -3.389192e-01 1.343296e-01 -3.415513e-01 5.435308e-02 -1.299029e+00 2.844829e-02 9.358371e-01
<VARIANCE> 25
 9.164309e+01 5.931865e+01 5.126965e+01 4.927157e+01 6.688208e+01 4.498736e+01 4.678511e+01 4.883041e+01 3.792297e+01 4.711282e+01 6.805602e+01 2.610660e+01 9.180095e+00 4.897917e+00 3.646016e+00 4.115610e+00 4.733435e+00 3.729604e+00 4.904327e+00 4.365151e+00 3.971337e+00 3.858280e+00 8.482502e+00 2.703379e+00 3.658106e+00
<GCONST> 1.127038e+02
<TRANSP> 5
 0.000000e+00 1.000000e+00 0.000000e+00 0.000000e+00 0.000000e+00
 0.000000e+00 6.791003e-01 3.208997e-01 0.000000e+00 0.000000e+00
 0.000000e+00 0.000000e+00 6.916074e-01 3.083927e-01 0.000000e+00
 0.000000e+00 0.000000e+00 0.000000e+00 8.193707e-01 1.806293e-01
 0.000000e+00 0.000000e+00 0.000000e+00 0.000000e+00 0.000000e+00
<ENDHMM>
~h "t"
<BEGINHMM>
<NUMSTATES> 5
<STATE> 2
<MEAN> 25
 -2.391399e-01 -9.307654e-02 -2.438308e+00 2.052354e+00 -9.473269e-01 -3.424948e+00 3.683042e-01 1.167814e+00 1.449597e+00 -1.834859e-01 2.358843e+00 1.276092e+00 -2.875399e-02 -8.172563e-01 -2.801961e-01 -1.841205e-01 -6.640121e-02 -1.479787e-02 4.969360e-01 -3.818378e-02 2.064895e-01 -1.404168e-01 2.598692e-01 1.086366e-01 5.769494e-01
<VARIANCE> 25
 3.666102e+01 6.669560e+01 4.513401e+01 4.505606e+01 5.124258e+01 4.768979e+01 4.599268e+01 4.984188e+01 3.847076e+01 3.789578e+01 6.328271e+01 2.303883e+01 3.214191e+00 6.745641e+00 2.979921e+00 4.393095e+00 3.849162e+00 4.191657e+00 4.439968e+00 4.513608e+00 3.537823e+00 3.387763e+00 6.107653e+00 2.490714e+00 6.929892e+00
<GCONST> 1.100432e+02
<STATE> 3
<MEAN> 25
 1.623213e-01 -2.150529e+00 -2.884429e+00 1.301749e+00 -1.325970e+00 -3.517978e+00 1.527101e+00 1.014241e+00 1.712036e+00 -5.908575e-01 2.347351e+00 1.330291e+00 4.490317e-01 -8.420171e-01 -3.044366e-02 -5.484689e-01 -1.504950e-01 9.238659e-03 3.071197e-01 -1.596983e-01 -5.485559e-02 -1.166835e-01 -4.367614e-01 -1.073416e-01 1.053061e+00
<VARIANCE> 25
 3.671812e+01 6.467783e+01 4.457657e+01 4.647165e+01 5.226583e+01 5.112619e+01 5.029315e+01 5.314350e+01 3.970290e+01 3.887589e+01 7.311009e+01 2.420310e+01 4.044085e+00 6.498366e+00 3.617915e+00 4.782829e+00 4.155468e+00 4.447926e+00 4.881498e+00 5.455313e+00 3.923657e+00 3.667750e+00 8.694475e+00 2.661472e+00 7.527699e+00
<GCONST> 1.121028e+02
<STATE> 4
<MEAN> 25
 1.407232e+00 -3.579726e+00 -2.370038e+00 -1.403581e-01 -1.838963e+00 -3.422338e+00 2.010590e+00 6.649434e-01 1.125114e+00 -6.928764e-01 5.211489e-01 8.180608e-01 5.784007e-01 -4.239601e-01 3.174427e-01 -7.203355e-01 -1.992179e-02 2.448487e-01 -1.582427e-01 -2.438203e-01 -3.050665e-01 6.425501e-02 -8.438001e-01 -2.178687e-01 8.848685e-01
<VARIANCE> 25
 3.815516e+01 6.364220e+01 5.034039e+01 5.279571e+01 5.751752e+01 5.111376e+01 5.153128e+01 6.067006e+01 3.854919e+01 3.980733e+01 7.929955e+01 2.371389e+01 3.675476e+00 4.981494e+00 4.180568e+00 4.827583e+00 4.234289e+00 4.144768e+00 4.744405e+00 6.036420e+00 3.855304e+00 3.639782e+00 9.129438e+00 2.548581e+00 5.766705e+00
<GCONST> 1.122087e+02
<TRANSP> 5
 0.000000e+00 1.000000e+00 0.000000e+00 0.000000e+00 0.000000e+00
 0.000000e+00 5.452881e-01 4.547119e-01 0.000000e+00 0.000000e+00
 0.000000e+00 0.000000e+00 5.367944e-01 4.632055e-01 0.000000e+00
 0.000000e+00 0.000000e+00 0.000000e+00 6.236385e-01 3.763615e-01
 0.000000e+00 0.000000e+00 0.000000e+00 0.000000e+00 0.000000e+00
<ENDHMM>
~h "u"
<BEGINHMM>
<NUMSTATES> 5
<STATE> 2
<MEAN> 25
 5.354370e+00 4.286164e+00 -6.083957e+00 -4.063684e+00 2.557962e+00 4.178105e-01 -3.432336e+00 -3.345361e+00 -1.888507e+00 1.907978e+00 1.303383e+00 -3.383268e-01 3.069696e-01 2.197603e-01 -3.124984e-01 -2.582314e-01 1.663014e-01 4.313708e-01 -1.823731e-01 -1.979938e-01 -2.545144e-01 2.836890e-01 2.121874e-01 -9.876952e-02 -8.540445e-03
<VARIANCE> 25
 5.411825e+01 4.516725e+01 4.741782e+01 7.673424e+01 4.597532e+01 4.415544e+01 4.501044e+01 4.036304e+01 5.089906e+01 5.140433e+01 4.525349e+01 2.998844e+01 2.734630e+00 2.521863e+00 2.759010e+00 5.554520e+00 3.044509e+00 3.163569e+00 3.525028e+00 2.908677e+00 4.559624e+00 3.863761e+00 3.221568e+00 2.526322e+00 2.334735e+00
<GCONST> 1.072176e+02
<STATE> 3
<MEAN> 25
 5.453185e+00 4.683570e+00 -6.201848e+00 -3.752522e+00 2.692006e+00 7.993360e-01 -3.655952e+00 -3.576873e+00 -2.104532e+00 2.036367e+00 1.507921e+00 -7.376472e-01 -5.522423e-02 8.512573e-02 1.115390e-01 2.988864e-01 2.364275e-03 9.224205e-02 -9.860838e-02 -9.027995e-03 3.928356e-02 -3.232285e-02 -3.643061e-03 -1.655180e-01 -1.629726e-01
<VARIANCE> 25
 5.127093e+01 4.083506e+01 4.599623e+01 7.485561e+01 4.353528e+01 4.226864e+01 4.540218e+01 3.741933e+01 5.126204e+01 4.968131e+01 4.536444e+01 2.979211e+01 2.378315e+00 2.337739e+00 2.285390e+00 5.062109e+00 2.765588e+00 2.846999e+00 3.207341e+00 2.769023e+00 4.334365e+00 3.619793e+00 3.132984e+00 2.489667e+00 2.236106e+00
<GCONST> 1.057678e+02
<STATE> 4
<MEAN> 25
 3.721126e+00 5.279449e+00 -5.366088e+00 -1.335241e+00 2.448434e+00 6.850215e-01 -3.677049e+00 -2.864212e+00 -1.023721e+00 1.474392e+00 2.070113e+00 -8.342708e-01 -3.841751e-01 -1.294854e-01 3.714671e-01 5.921568e-01 -5.377083e-02 -9.974006e-02 7.179564e-02 1.624448e-01 2.349933e-01 -1.924901e-01 -2.775616e-02 -5.369459e-02 -2.341280e-01
<VARIANCE> 25
 5.865672e+01 3.618513e+01 3.992920e+01 6.845010e+01 4.118575e+01 3.981880e+01 4.348854e+01 3.836049e+01 4.884808e+01 4.448046e+01 4.509457e+01 2.754584e+01 1.773865e+00 2.248999e+00 2.111454e+00 3.655311e+00 2.557163e+00 2.590509e+00 2.932561e+00 2.506063e+00 3.433939e+00 3.328826e+00 2.909176e+00 2.338772e+00 1.469682e+00
<GCONST> 1.032022e+02
<TRANSP> 5
 0.000000e+00 1.000000e+00 0.000000e+00 0.000000e+00 0.000000e+00
 0.000000e+00 5.610069e-01 4.389931e-01 0.000000e+00 0.000000e+00
 0.000000e+00 0.000000e+00 5.651878e-01 4.348122e-01 0.000000e+00
 0.000000e+00 0.000000e+00 0.000000e+00 7.193472e-01 2.806528e-01
 0.000000e+00 0.000000e+00 0.000000e+00 0.000000e+00 0.000000e+00
<ENDHMM>
~h "v"
<BEGINHMM>
<NUMSTATES> 5
<STATE> 2
<MEAN> 25
 6.144672e+00 -2.802572e-01 -3.519521e+00 -4.299505e-01 1.533108e+00 -8.014832e-01 -4.180553e+00 -1.380324e+00 -2.194964e-01 1.958960e+00 -1.324293e+00 -3.975625e+00 3.576451e-01 2.147645e-01 -4.172015e-01 1.369345e-01 2.275311e-01 9.389248e-02 -2.067784e-01 -1.348107e-01 2.644735e-02 1.340009e-01 2.867862e-02 -4.466559e-01 -4.600701e-03
<VARIANCE> 25
 3.412879e+01 5.294967e+01 6.391436e+01 5.694957e+01 5.175646e+01 4.169376e+01 3.865946e+01 3.404263e+01 3.685553e+01 4.008393e+01 4.304641e+01 2.500909e+01 1.677755e+00 3.423780e+00 2.715449e+00 3.420936e+00 2.761472e+00 2.777912e+00 2.895050e+00 3.051195e+00 2.849844e+00 3.029246e+00 2.957692e+00 2.232086e+00 2.117850e+00
<GCONST> 1.037713e+02
<STATE> 3
<MEAN> 25
 6.786592e+00 -1.642616e-01 -3.959229e+00 -3.052343e-01 1.726706e+00 -7.095828e-01 -4.197689e+00 -1.526624e+00 -3.699396e-01 1.998002e+00 -1.472874e+00 -4.603921e+00 1.785785e-01 -1.701862e-01 -1.474733e-01 9.210302e-03 8.165637e-02 9.358223e-02 1.324793e-01 5.025225e-02 -5.569611e-02 -2.518956e-02 -1.594334e-01 -1.645027e-01 1.907169e-01
<VARIANCE> 25
 2.769542e+01 5.040328e+01 6.659314e+01 5.537413e+01 5.050572e+01 4.131706e+01 3.750062e+01 3.281276e+01 3.643603e+01 4.182217e+01 3.899640e+01 2.606697e+01 1.684964e+00 3.637128e+00 2.712901e+00 3.280041e+00 2.683550e+00 2.587429e+00 2.826678e+00 3.136362e+00 2.729382e+00 3.118096e+00 3.041996e+00 2.377256e+00 2.106231e+00
<GCONST> 1.033961e+02
<STATE> 4
<MEAN> 25
 6.668274e+00 -8.371713e-01 -3.803609e+00 -2.586304e-01 1.863359e+00 -5.496210e-01 -3.590271e+00 -1.208676e+00 -4.344206e-01 1.731663e+00 -1.805810e+00 -4.465266e+00 -9.905078e-02 -4.808977e-01 1.960399e-01 -7.750037e-02 -3.619237e-02 5.140580e-02 3.650935e-01 1.867599e-01 -1.041892e-01 -1.184152e-01 -2.368951e-01 1.977956e-01 2.801794e-01
<VARIANCE> 25
 2.716432e+01 5.309443e+01 7.220576e+01 5.503571e+01 5.399834e+01 4.514769e+01 3.587035e+01 3.340447e+01 3.537653e+01 4.062127e+01 4.008830e+01 2.730488e+01 1.223540e+00 3.503377e+00 2.689738e+00 3.247133e+00 2.745465e+00 2.374483e+00 2.769953e+00 3.099212e+00 2.664720e+00 3.219657e+00 3.056856e+00 2.260045e+00 1.715321e+00
<GCONST> 1.029335e+02
<TRANSP> 5
 0.000000e+00 1.000000e+00 0.000000e+00 0.000000e+00 0.000000e+00
 0.000000e+00 5.417733e-01 4.582268e-01 0.000000e+00 0.000000e+00
 0.000000e+00 0.000000e+00 5.386956e-01 4.613044e-01 0.000000e+00
 0.000000e+00 0.000000e+00 0.000000e+00 6.459383e-01 3.540617e-01
 0.000000e+00 0.000000e+00 0.000000e+00 0.000000e+00 0.000000e+00
<ENDHMM>
~h "y"
<BEGINHMM>
<NUMSTATES> 5
<STATE> 2
<MEAN> 25
 2.738440e+00 -2.253049e+00 7.598655e+00 -5.988148e+00 -6.241250e+00 -1.585982e+00 2.361892e+00 -1.724583e+00 -2.786945e+00 3.158165e+00 -3.008737e+00 -2.924071e-01 2.129250e-01 -4.051908e-01 2.949723e-01 -3.889871e-01 -2.759760e-01 -1.592892e-02 2.128563e-01 7.586031e-02 -2.921376e-01 3.859955e-01 -2.808443e-01 -8.665941e-02 4.063654e-01
<VARIANCE> 25
 2.599504e+01 6.516967e+01 6.017197e+01 6.642398e+01 4.781690e+01 3.637166e+01 4.430630e+01 4.472760e+01 3.787381e+01 4.270552e+01 4.579147e+01 2.102915e+01 1.510529e+00 3.602350e+00 3.794463e+00 3.982386e+00 3.299717e+00 2.734137e+00 3.151976e+00 4.377002e+00 2.704666e+00 3.836863e+00 3.458952e+00 1.743082e+00 1.733625e+00
<GCONST> 1.049066e+02
<STATE> 3
<MEAN> 25
 3.211538e+00 -2.881721e+00 7.998268e+00 -6.817636e+00 -6.542334e+00 -1.622925e+00 2.673593e+00 -1.628385e+00 -3.345706e+00 3.566996e+00 -3.687291e+00 -5.274596e-01 1.654553e-01 -3.311113e-01 -2.534848e-01 4.752044e-02 1.455904e-01 -4.523735e-02 1.321283e-01 2.580878e-01 -2.033970e-01 -8.460715e-02 -1.435176e-01 -4.080709e-02 1.762120e-01
<VARIANCE> 25
 2.077474e+01 6.657632e+01 5.622014e+01 5.809137e+01 4.798208e+01 3.523098e+01 4.370098e+01 4.479699e+01 3.552258e+01 4.130431e+01 4.024566e+01 2.094747e+01 1.146830e+00 3.231893e+00 3.377266e+00 3.724248e+00 3.347095e+00 2.591500e+00 2.872855e+00 4.108950e+00 2.539660e+00 3.801682e+00 2.920236e+00 1.691568e+00 1.643839e+00
<GCONST> 1.031433e+02
<STATE> 4
<MEAN> 25
 3.328119e+00 -3.344964e+00 7.381957e+00 -6.634046e+00 -6.100763e+00 -1.798094e+00 2.907835e+00 -1.188410e+00 -3.528532e+00 3.230558e+00 -3.897572e+00 -5.843852e-01 1.056787e-01 -1.858446e-01 -7.249833e-01 5.378813e-01 4.436971e-01 -6.848209e-02 -5.325840e-02 3.037912e-01 -2.427949e-02 -4.814467e-01 5.853450e-02 2.718104e-02 -1.212002e-01
<VARIANCE> 25
 1.928396e+01 6.904282e+01 5.797232e+01 5.742033e+01 5.155087e+01 3.510851e+01 4.407851e+01 4.726690e+01 3.427430e+01 4.232079e+01 3.795454e+01 2.113102e+01 8.851150e-01 3.011553e+00 2.809745e+00 3.056370e+00 3.397852e+00 2.529191e+00 2.745697e+00 3.606216e+00 2.458949e+00 3.630755e+00 2.497347e+00 1.761376e+00 1.502176e+00
<GCONST> 1.020128e+02
<TRANSP> 5
 0.000000e+00 1.000000e+00 0.000000e+00 0.000000e+00 0.000000e+00
 0.000000e+00 5.271499e-01 4.728502e-01 0.000000e+00 0.000000e+00
 0.000000e+00 0.000000e+00 5.313477e-01 4.686523e-01 0.000000e+00
 0.000000e+00 0.000000e+00 0.000000e+00 6.612787e-01 3.387214e-01
 0.000000e+00 0.000000e+00 0.000000e+00 0.000000e+00 0.000000e+00
<ENDHMM>
~h "aa"
<BEGINHMM>
<NUMSTATES> 5
<STATE> 2
<MEAN> 25
 6.792994e+00 -1.149391e+01 -7.317260e+00 -1.258568e+00 8.418413e+00 4.161777e+00 1.070987e+00 2.819310e+00 -3.094196e+00 -2.940684e+00 -5.590418e+00 -2.075744e+00 1.803231e-01 -6.425231e-01 -4.397132e-01 2.532564e-01 8.620795e-01 7.738732e-01 -5.848968e-02 8.094321e-02 -4.062245e-01 -1.750279e-01 -6.273176e-02 -2.826314e-02 2.369423e-01
<VARIANCE> 25
 1.690889e+01 4.735986e+01 4.194302e+01 3.848352e+01 5.347313e+01 4.829822e+01 3.830002e+01 3.603553e+01 3.157022e+01 3.910751e+01 3.647142e+01 3.267257e+01 1.086682e+00 3.023664e+00 2.224555e+00 2.304362e+00 4.097912e+00 3.334798e+00 2.506012e+00 2.785351e+00 2.423899e+00 2.429380e+00 2.647138e+00 2.132444e+00 1.657643e+00
<GCONST> 1.006983e+02
<STATE> 3
<MEAN> 25
 6.891198e+00 -1.189758e+01 -7.762733e+00 -3.155943e-01 9.050632e+00 4.948118e+00 1.038099e+00 2.723869e+00 -3.717845e+00 -3.376721e+00 -5.234001e+00 -1.893724e+00 -5.564928e-02 1.345399e-01 2.354504e-02 2.851435e-01 -1.309673e-01 -1.335551e-02 5.062597e-02 1.210978e-02 -7.927137e-02 -1.148608e-01 1.560033e-01 7.882602e-02 -2.340677e-01
<VARIANCE> 25
 1.444971e+01 4.453220e+01 3.881498e+01 3.615751e+01 5.227534e+01 4.796302e+01 4.131207e+01 3.466359e+01 2.986397e+01 3.708281e+01 3.472094e+01 3.144404e+01 7.580928e-01 2.174367e+00 1.761341e+00 1.813000e+00 3.232534e+00 3.041866e+00 2.349734e+00 2.391191e+00 2.076457e+00 2.062296e+00 1.988345e+00 1.858295e+00 1.213905e+00
<GCONST> 9.738763e+01
<STATE> 4
<MEAN> 25
 6.048708e+00 -1.007331e+01 -6.996564e+00 6.422448e-01 6.960032e+00 3.860162e+00 1.834718e+00 2.884220e+00 -3.256469e+00 -3.735164e+00 -4.515875e+00 -1.566307e+00 -2.713533e-01 7.102929e-01 3.929694e-01 1.656886e-01 -7.699730e-01 -5.345580e-01 1.380162e-01 1.763479e-04 2.060238e-01 -1.927776e-02 2.335007e-01 1.415316e-01 -5.496032e-01
<VARIANCE> 25
 1.955539e+01 5.588779e+01 4.596042e+01 3.835966e+01 6.547636e+01 5.414757e+01 4.642602e+01 3.634682e+01 3.329540e+01 3.874150e+01 3.618869e+01 3.061983e+01 7.965392e-01 2.047674e+00 1.850143e+00 2.021587e+00 2.907420e+00 3.098209e+00 2.408985e+00 2.645540e+00 2.073477e+00 2.285619e+00 2.062842e+00 1.879380e+00 1.097425e+00
<GCONST> 9.905780e+01
<TRANSP> 5
 0.000000e+00 1.000000e+00 0.000000e+00 0.000000e+00 0.000000e+00
 0.000000e+00 6.893409e-01 3.106591e-01 0.000000e+00 0.000000e+00
 0.000000e+00 0.000000e+00 6.893303e-01 3.106697e-01 0.000000e+00
 0.000000e+00 0.000000e+00 0.000000e+00 8.253045e-01 1.746955e-01
 0.000000e+00 0.000000e+00 0.000000e+00 0.000000e+00 0.000000e+00
<ENDHMM>
~h "ai"
<BEGINHMM>
<NUMSTATES> 5
<STATE> 2
<MEAN> 25
 -1.874054e+00 4.172181e+00 7.478430e-01 3.646425e+00 -3.960070e+00 1.567842e+00 4.368530e+00 -1.603461e-01 8.151369e-02 -5.121367e-02 2.304370e+00 -1.616969e+00 -8.200355e-01 2.317460e-02 -5.173327e-01 5.368522e-01 1.015004e+00 -1.798141e-01 -5.215219e-01 6.164749e-01 4.002831e-01 -6.151103e-02 5.779993e-01 2.817177e-01 -8.197219e-01
<VARIANCE> 25
 3.119967e+01 4.272283e+01 2.984473e+01 3.694841e+01 4.418279e+01 3.050285e+01 3.927890e+01 3.035671e+01 2.982273e+01 2.777672e+01 3.862914e+01 1.973368e+01 6.599568e-01 1.028140e+00 1.163288e+00 1.351181e+00 2.292141e+00 1.757532e+00 2.122353e+00 1.844839e+00 1.770757e+00 1.807731e+00 1.696205e+00 1.661454e+00 4.810294e-01
<GCONST> 9.208371e+01
<STATE> 3
<MEAN> 25
 -4.313363e+00 4.120721e+00 -5.096196e-01 4.801159e+00 -1.222736e+00 1.249689e+00 2.852489e+00 1.463236e+00 1.310732e+00 3.603017e-01 4.120571e+00 -6.086707e-01 -5.674424e-01 -3.888393e-02 -3.463013e-01 2.436336e-01 6.739806e-01 -1.134174e-01 -4.263972e-01 3.570147e-01 3.047193e-01 1.491398e-02 3.956861e-01 2.170078e-01 -5.320597e-01
<VARIANCE> 25
 3.139645e+01 3.422768e+01 2.470063e+01 3.290355e+01 3.832458e+01 2.493598e+01 2.963612e+01 2.883047e+01 2.830790e+01 2.498182e+01 4.084318e+01 1.939424e+01 5.379549e-01 8.373627e-01 9.526185e-01 1.108763e+00 1.976354e+00 1.544495e+00 1.958660e+00 1.667701e+00 1.703467e+00 1.706828e+00 1.596416e+00 1.559960e+00 3.584687e-01
<GCONST> 8.898660e+01
<STATE> 4
<MEAN> 25
 -6.201522e+00 4.203004e+00 -1.437373e+00 5.529574e+00 6.081363e-01 1.103435e+00 1.516769e+00 2.816534e+00 2.562300e+00 1.163086e+00 5.824244e+00 3.279040e-01 -2.679510e-01 -2.123347e-02 -1.374166e-01 7.495758e-02 3.658552e-01 -2.451683e-02 -2.872052e-01 1.294423e-01 2.022972e-01 2.150820e-02 1.669064e-01 1.203148e-01 -2.607180e-01
<VARIANCE> 25
 2.693666e+01 2.559838e+01 1.966245e+01 2.664830e+01 2.933214e+01 1.989454e+01 2.532404e+01 2.616867e+01 2.589841e+01 2.275578e+01 3.767921e+01 1.816662e+01 4.884112e-01 8.122188e-01 8.775079e-01 1.050989e+00 1.635029e+00 1.369648e+00 1.664979e+00 1.596457e+00 1.657191e+00 1.726866e+00 1.678534e+00 1.511731e+00 3.173773e-01
<GCONST> 8.613076e+01
<TRANSP> 5
 0.000000e+00 1.000000e+00 0.000000e+00 0.000000e+00 0.000000e+00
 0.000000e+00 4.915111e-01 5.084889e-01 0.000000e+00 0.000000e+00
 0.000000e+00 0.000000e+00 5.475081e-01 4.524919e-01 0.000000e+00
 0.000000e+00 0.000000e+00 0.000000e+00 6.895751e-01 3.104248e-01
 0.000000e+00 0.000000e+00 0.000000e+00 0.000000e+00 0.000000e+00
<ENDHMM>
~h "au"
<BEGINHMM>
<NUMSTATES> 5
<STATE> 2
<MEAN> 25
 3.696241e+00 -1.931988e+00 -7.032498e+00 -7.045459e+00 6.316829e+00 3.287044e+00 -3.191820e+00 4.457527e-01 -1.624137e+00 1.905742e+00 1.092271e+00 -1.245324e+00 1.037315e+00 -5.549830e-01 -1.385166e+00 -2.359845e+00 1.509019e+00 1.422544e+00 -2.826891e-01 3.818288e-01 -6.397415e-01 9.472616e-01 2.233062e-01 -3.200154e-01 1.056233e+00
<VARIANCE> 25
 4.325351e+01 5.805013e+01 6.375166e+01 1.169950e+02 6.233172e+01 6.845525e+01 4.214445e+01 3.767799e+01 6.100668e+01 6.035103e+01 4.353512e+01 4.275495e+01 3.012544e+00 3.219942e+00 4.783860e+00 1.009560e+01 5.275764e+00 5.382537e+00 3.456742e+00 4.031390e+00 4.886072e+00 4.789313e+00 3.344668e+00 2.798432e+00 4.036279e+00
<GCONST> 1.130762e+02
<STATE> 3
<MEAN> 25
 6.403257e+00 -2.886392e+00 -9.365545e+00 -1.333483e+01 9.119271e+00 7.396512e+00 -4.017246e+00 1.505900e+00 -3.444148e+00 3.789299e+00 1.222170e+00 -2.321212e+00 7.349151e-01 -3.063028e-01 -4.062963e-01 -1.536052e+00 6.014673e-01 9.645007e-01 -2.347330e-01 2.760186e-01 -4.493951e-01 4.002205e-01 -1.265117e-01 -3.766519e-01 8.585761e-01
<VARIANCE> 25
 3.042677e+01 4.528512e+01 4.644032e+01 1.123214e+02 4.738863e+01 6.061837e+01 3.697619e+01 3.381410e+01 5.360158e+01 5.532320e+01 3.721219e+01 4.060920e+01 2.405616e+00 2.581641e+00 3.903972e+00 1.081601e+01 3.852679e+00 4.890969e+00 2.964088e+00 2.964942e+00 4.033711e+00 3.731467e+00 3.141639e+00 2.217454e+00 4.182671e+00
<GCONST> 1.089067e+02
<STATE> 4
<MEAN> 25
 7.885737e+00 -4.606152e+00 -8.613159e+00 -1.398325e+01 8.932246e+00 7.344648e+00 -4.918892e+00 2.631694e+00 -2.767054e+00 4.022883e+00 -1.302338e+00 -4.289796e+00 3.698046e-02 -3.838245e-01 3.010716e-01 6.490948e-01 -2.675347e-01 -7.154312e-01 -1.036875e-01 2.019301e-01 2.850455e-01 -1.861713e-01 -5.445491e-01 -1.549140e-01 1.891070e-01
<VARIANCE> 25
 1.731401e+01 4.313270e+01 3.155699e+01 1.099093e+02 3.573646e+01 6.823975e+01 3.023765e+01 2.882524e+01 4.885397e+01 4.682482e+01 4.122399e+01 3.237535e+01 1.162384e+00 2.107529e+00 1.875845e+00 7.006040e+00 2.446242e+00 4.983770e+00 2.075359e+00 2.341437e+00 2.983940e+00 2.847371e+00 3.088859e+00 2.447919e+00 2.270527e+00
<GCONST> 1.027515e+02
<TRANSP> 5
 0.000000e+00 1.000000e+00 0.000000e+00 0.000000e+00 0.000000e+00
 0.000000e+00 6.462083e-01 3.537917e-01 0.000000e+00 0.000000e+00
 0.000000e+00 0.000000e+00 7.093626e-01 2.906373e-01 0.000000e+00
 0.000000e+00 0.000000e+00 0.000000e+00 9.209305e-01 7.906953e-02
 0.000000e+00 0.000000e+00 0.000000e+00 0.000000e+00 0.000000e+00
<ENDHMM>
~h "bh"
<BEGINHMM>
<NUMSTATES> 5
<STATE> 2
<MEAN> 25
 5.166464e+00 2.709053e+00 -1.575753e+00 2.349545e+00 1.114103e+00 -9.002924e-02 -1.720573e+00 -2.739048e+00 -1.913760e+00 -1.618775e+00 -3.329483e+00 -3.547825e+00 3.646382e-01 3.178405e-01 -1.041771e-01 4.241605e-01 1.531164e-01 1.049333e-01 1.225678e-01 -3.527856e-01 -1.340297e-01 -2.397751e-01 -2.872972e-01 -2.528457e-01 5.137743e-02
<VARIANCE> 25
 3.457010e+01 7.093614e+01 5.077531e+01 5.323477e+01 6.161319e+01 3.504877e+01 3.358247e+01 4.417543e+01 3.980416e+01 3.992034e+01 4.954457e+01 3.163205e+01 2.236658e+00 4.708954e+00 2.766501e+00 3.711987e+00 3.617479e+00 2.622157e+00 2.557322e+00 3.699517e+00 3.262778e+00 2.757433e+00 3.883969e+00 2.980260e+00 2.537190e+00
<GCONST> 1.061189e+02
<STATE> 3
<MEAN> 25
 6.198709e+00 2.787201e+00 -2.152475e+00 2.834539e+00 1.660682e+00 1.743746e-01 -1.680277e+00 -3.370683e+00 -2.169063e+00 -2.236995e+00 -4.014251e+00 -3.977235e+00 1.315912e-01 -1.082934e-01 -2.207149e-01 1.717395e-01 3.092442e-01 1.419946e-01 6.700259e-02 -5.968503e-02 3.660790e-02 -1.813565e-01 -3.124721e-02 4.697308e-02 1.160901e-01
<VARIANCE> 25
 2.187589e+01 7.257072e+01 5.221180e+01 5.079005e+01 6.768227e+01 3.944193e+01 3.210777e+01 4.568610e+01 3.772273e+01 3.774052e+01 4.372478e+01 3.279377e+01 1.719356e+00 4.793898e+00 2.574630e+00 3.430717e+00 3.515249e+00 2.640795e+00 2.380816e+00 3.395437e+00 2.997826e+00 2.581161e+00 3.508868e+00 2.998436e+00 1.950474e+00
<GCONST> 1.045830e+02
<STATE> 4
<MEAN> 25
 5.905851e+00 2.449332e+00 -2.989659e+00 2.841701e+00 2.848549e+00 8.034867e-01 -1.602411e+00 -2.964027e+00 -1.875143e+00 -2.696280e+00 -3.534264e+00 -3.322453e+00 -1.049000e-01 -4.627670e-01 -1.025526e-01 -7.652170e-02 2.849794e-01 1.631607e-01 9.660108e-02 1.746096e-01 6.449475e-02 -2.980539e-02 1.548541e-01 2.917553e-01 1.908653e-01
<VARIANCE> 25
 2.521956e+01 8.276125e+01 5.116819e+01 5.037510e+01 6.652056e+01 4.391191e+01 3.094135e+01 4.325863e+01 3.830118e+01 3.325124e+01 4.525157e+01 3.224213e+01 1.018720e+00 4.696235e+00 2.823253e+00 3.177698e+00 3.656244e+00 2.561793e+00 2.435978e+00 3.259037e+00 2.716242e+00 2.561275e+00 3.018767e+00 2.487642e+00 1.412735e+00
<GCONST> 1.034289e+02
<TRANSP> 5
 0.000000e+00 1.000000e+00 0.000000e+00 0.000000e+00 0.000000e+00
 0.000000e+00 5.800046e-01 4.199954e-01 0.000000e+00 0.000000e+00
 0.000000e+00 0.000000e+00 5.776628e-01 4.223372e-01 0.000000e+00
 0.000000e+00 0.000000e+00 0.000000e+00 7.078347e-01 2.921653e-01
 0.000000e+00 0.000000e+00 0.000000e+00 0.000000e+00 0.000000e+00
<ENDHMM>
~h "d:"
<BEGINHMM>
<NUMSTATES> 5
<STATE> 2
<MEAN> 25
 2.041018e+00 -5.352612e-01 9.590136e+00 -2.441851e+00 -6.231977e+00 -2.092126e+00 -2.434325e+00 -3.808905e+00 -2.387593e+00 4.832373e-02 -1.821776e+00 -1.084517e+00 -4.097221e-02 -2.191751e-01 5.319843e-01 -4.233713e-01 -1.366075e-01 5.018835e-02 -3.142424e-01 -7.035430e-02 -2.748027e-01 4.888885e-01 -2.825676e-01 -4.991350e-02 1.539419e-01
<VARIANCE> 25
 2.767946e+01 6.158969e+01 5.200053e+01 1.208151e+02 5.019317e+01 2.901816e+01 2.842686e+01 3.790855e+01 3.500418e+01 5.055878e+01 5.003479e+01 1.995457e+01 2.628606e+00 5.431848e+00 4.141240e+00 1.218542e+01 5.343966e+00 3.100915e+00 2.629441e+00 3.501932e+00 4.196434e+00 4.638738e+00 6.094210e+00 2.081545e+00 4.023951e+00
<GCONST> 1.092938e+02
<STATE> 3
<MEAN> 25
 1.672219e+00 -1.122313e+00 1.106402e+01 -4.646192e+00 -6.562174e+00 -1.537113e+00 -3.420055e+00 -4.307066e+00 -2.743312e+00 1.659915e+00 -3.038672e+00 -9.414053e-01 -4.521543e-02 -1.596487e-01 2.973016e-01 -7.824105e-01 -7.646060e-03 1.567265e-01 -1.679455e-01 -8.824201e-02 -1.054447e-01 3.909537e-01 -4.637890e-01 4.705608e-02 2.560244e-01
<VARIANCE> 25
 2.213238e+01 5.295869e+01 4.918589e+01 1.167903e+02 4.650939e+01 3.210541e+01 2.689371e+01 3.348064e+01 3.528260e+01 4.801266e+01 4.648943e+01 2.126965e+01 1.912128e+00 4.834738e+00 3.449794e+00 1.151770e+01 4.829652e+00 3.589761e+00 2.346538e+00 3.233831e+00 4.131968e+00 4.404887e+00 5.214285e+00 2.007669e+00 3.778965e+00
<GCONST> 1.074774e+02
<STATE> 4
<MEAN> 25
 1.781632e+00 2.065412e-01 1.384272e+01 -9.405062e+00 -7.042859e+00 1.309078e+00 -4.171576e+00 -6.208320e+00 -3.187773e+00 3.138211e+00 -6.140399e+00 -1.450144e+00 4.249495e-02 4.505137e-02 -2.793655e-02 -2.390918e-01 7.254560e-02 1.238713e-01 5.639822e-02 -3.911585e-02 2.071876e-02 -3.557463e-02 -2.447379e-01 7.841585e-02 6.376142e-02
<VARIANCE> 25
 1.148170e+01 4.096241e+01 3.512558e+01 8.192188e+01 3.534488e+01 3.373320e+01 2.359254e+01 2.783688e+01 3.156447e+01 3.630268e+01 4.464773e+01 2.365087e+01 9.806415e-01 3.512237e+00 2.376000e+00 7.494400e+00 2.759709e+00 3.029308e+00 2.084084e+00 2.492121e+00 3.580155e+00 3.402832e+00 4.553865e+00 2.061420e+00 2.712048e+00
<GCONST> 1.012664e+02
<TRANSP> 5
 0.000000e+00 1.000000e+00 0.000000e+00 0.000000e+00 0.000000e+00
 0.000000e+00 7.013739e-01 2.986261e-01 0.000000e+00 0.000000e+00
 0.000000e+00 0.000000e+00 7.423812e-01 2.576188e-01 0.000000e+00
 0.000000e+00 0.000000e+00 0.000000e+00 9.234069e-01 7.659309e-02
 0.000000e+00 0.000000e+00 0.000000e+00 0.000000e+00 0.000000e+00
<ENDHMM>
~h "ch"
<BEGINHMM>
<NUMSTATES> 5
<STATE> 2
<MEAN> 25
 -4.869240e+00 1.293465e+00 -3.514506e-01 -5.726515e-01 2.680039e+00 -3.968729e+00 1.612988e+00 1.981477e+00 5.493429e-01 -3.690510e-01 3.013444e+00 2.212029e-01 -1.845101e+00 -1.050033e-01 4.411506e-01 -1.249063e+00 1.130154e+00 -1.256098e-01 6.256407e-01 3.654359e-02 -9.902381e-03 2.197207e-01 7.975543e-01 -2.056160e-02 7.494634e-01
<VARIANCE> 25
 8.153681e+01 4.867120e+01 5.295306e+01 5.438388e+01 6.620651e+01 4.659372e+01 5.449464e+01 5.496572e+01 3.758527e+01 4.046185e+01 5.190186e+01 2.245906e+01 8.109673e+00 5.208753e+00 4.385605e+00 6.070803e+00 7.171543e+00 4.765871e+00 4.046137e+00 4.054699e+00 3.662397e+00 3.601336e+00 4.616241e+00 2.441198e+00 4.130548e+00
<GCONST> 1.124000e+02
<STATE> 3
<MEAN> 25
 -9.372729e+00 1.490903e+00 1.390541e+00 -3.527607e+00 4.627200e+00 -4.657848e+00 3.692897e+00 1.766157e+00 4.448886e-01 1.532398e-01 4.986834e+00 3.827932e-03 -4.502050e-01 -9.779190e-02 5.113477e-01 -7.237941e-01 4.833759e-02 -3.261856e-01 5.442310e-01 -6.516570e-02 -1.046146e-01 -3.060020e-02 1.744487e-01 -1.582118e-01 8.566961e-01
<VARIANCE> 25
 1.086294e+02 4.655783e+01 5.230996e+01 4.864490e+01 6.901730e+01 4.892633e+01 5.029637e+01 5.190731e+01 3.650531e+01 3.982132e+01 5.543127e+01 2.333014e+01 1.488548e+01 5.314312e+00 4.232457e+00 5.023081e+00 8.551731e+00 4.784830e+00 4.156586e+00 3.914294e+00 3.284150e+00 3.588558e+00 5.970253e+00 2.382468e+00 3.435225e+00
<GCONST> 1.130405e+02
<STATE> 4
<MEAN> 25
 -6.333046e+00 4.315676e-01 2.232867e+00 -4.264100e+00 2.571924e+00 -6.347263e+00 4.493536e+00 1.367919e+00 -1.930117e-01 -6.676897e-01 3.501390e+00 -4.777403e-01 1.807186e+00 -7.968498e-01 -4.390573e-02 -2.007467e-01 -7.250499e-01 -1.442562e-01 -1.305385e-01 -1.136400e-01 -2.378015e-01 -3.337741e-01 -1.059484e+00 -2.236823e-01 8.454150e-01
<VARIANCE> 25
 1.158635e+02 5.686854e+01 5.448182e+01 4.145757e+01 6.670268e+01 4.569507e+01 4.180344e+01 4.796121e+01 3.457660e+01 3.696644e+01 5.633519e+01 2.175091e+01 1.369413e+01 6.164550e+00 3.963733e+00 3.865974e+00 8.110685e+00 4.818527e+00 3.680777e+00 3.891311e+00 2.953706e+00 3.534753e+00 6.110028e+00 2.256263e+00 3.495173e+00
<GCONST> 1.120658e+02
<TRANSP> 5
 0.000000e+00 1.000000e+00 0.000000e+00 0.000000e+00 0.000000e+00
 0.000000e+00 6.613581e-01 3.386419e-01 0.000000e+00 0.000000e+00
 0.000000e+00 0.000000e+00 6.659289e-01 3.340711e-01 0.000000e+00
 0.000000e+00 0.000000e+00 0.000000e+00 7.867624e-01 2.132377e-01
 0.000000e+00 0.000000e+00 0.000000e+00 0.000000e+00 0.000000e+00
<ENDHMM>
~h "dh"
<BEGINHMM>
<NUMSTATES> 5
<STATE> 2
<MEAN> 25
 4.420839e+00 1.323386e+00 1.084666e+00 2.158010e+00 -2.105134e+00 -4.214153e+00 8.000367e-01 -8.186712e-01 -1.419276e+00 -2.937768e+00 -2.951994e+00 8.854250e-01 4.008853e-02 2.075086e-01 -3.466370e-02 5.781204e-01 -6.483003e-03 -7.178956e-02 2.640905e-01 -1.869028e-01 -1.871925e-01 -5.060160e-01 3.115026e-01 -8.695424e-02 -1.178966e-01
<VARIANCE> 25
 2.612042e+01 7.477564e+01 4.131997e+01 4.821077e+01 5.293969e+01 4.598657e+01 4.629787e+01 4.993369e+01 3.262530e+01 4.129804e+01 5.396233e+01 2.998081e+01 2.124569e+00 7.403534e+00 2.403713e+00 3.952686e+00 3.638854e+00 4.058108e+00 4.140691e+00 3.547888e+00 2.855303e+00 3.414330e+00 5.690906e+00 3.391030e+00 3.392613e+00
<GCONST> 1.081044e+02
<STATE> 3
<MEAN> 25
 4.507182e+00 1.261099e+00 9.060776e-01 3.007255e+00 -1.874875e+00 -3.886455e+00 1.585378e+00 -1.178033e+00 -1.864554e+00 -4.241371e+00 -2.294083e+00 5.456325e-01 -5.793455e-02 -3.331183e-01 -9.794903e-02 5.801504e-02 2.203459e-01 2.122664e-01 2.892671e-01 -8.037723e-02 -2.505252e-02 -3.399107e-01 1.074727e-01 3.053904e-02 1.909343e-01
<VARIANCE> 25
 2.117655e+01 6.565932e+01 3.859967e+01 4.104999e+01 5.226203e+01 4.810187e+01 4.337962e+01 5.239068e+01 3.122443e+01 4.267541e+01 5.715329e+01 3.021678e+01 1.893762e+00 7.422410e+00 2.689590e+00 4.130983e+00 3.858095e+00 4.139641e+00 4.134130e+00 4.249993e+00 3.027771e+00 3.536625e+00 6.647184e+00 3.396721e+00 3.319220e+00
<GCONST> 1.081353e+02
<STATE> 4
<MEAN> 25
 4.340484e+00 -3.910129e-01 1.255513e+00 1.751515e+00 -1.624564e+00 -3.608802e+00 2.167023e+00 -1.374767e+00 -1.987678e+00 -4.629153e+00 -2.668656e+00 1.155578e+00 -8.024865e-02 -6.130958e-01 -1.728938e-02 -4.029581e-01 2.882190e-01 2.483887e-01 1.518974e-01 3.263991e-02 8.936391e-02 -1.194013e-02 -1.736069e-01 2.321845e-01 3.805278e-01
<VARIANCE> 25
 1.811628e+01 6.023201e+01 4.067891e+01 4.632655e+01 6.029354e+01 5.286253e+01 4.472826e+01 5.244579e+01 3.219005e+01 4.865442e+01 5.649008e+01 3.283180e+01 1.564236e+00 6.292191e+00 2.993452e+00 3.982588e+00 3.902052e+00 4.054104e+00 4.242196e+00 4.776206e+00 3.225066e+00 3.529138e+00 7.096313e+00 3.152134e+00 2.757601e+00
<GCONST> 1.082816e+02
<TRANSP> 5
 0.000000e+00 1.000000e+00 0.000000e+00 0.000000e+00 0.000000e+00
 0.000000e+00 6.286125e-01 3.713876e-01 0.000000e+00 0.000000e+00
 0.000000e+00 0.000000e+00 6.442750e-01 3.557249e-01 0.000000e+00
 0.000000e+00 0.000000e+00 0.000000e+00 7.827063e-01 2.172937e-01
 0.000000e+00 0.000000e+00 0.000000e+00 0.000000e+00 0.000000e+00
<ENDHMM>
~h "ei"
<BEGINHMM>
<NUMSTATES> 5
<STATE> 2
<MEAN> 25
 2.973069e+00 -1.364995e+00 1.155544e+01 -9.975396e+00 -8.332924e+00 2.660620e-01 -8.033060e-01 -6.410971e+00 -2.496996e+00 4.376259e+00 -5.447265e+00 9.297017e-01 2.029091e-02 -3.038569e-01 9.210016e-01 -1.224469e+00 -2.268177e-01 3.279502e-01 -3.151195e-01 -1.589370e-01 -1.391227e-01 7.240123e-01 -5.996996e-01 2.462792e-01 4.953651e-01
<VARIANCE> 25
 1.495976e+01 4.667310e+01 4.236179e+01 7.409852e+01 3.976241e+01 3.817404e+01 3.251521e+01 3.284999e+01 3.332824e+01 4.188513e+01 3.667186e+01 2.727275e+01 1.582811e+00 2.600802e+00 3.620909e+00 6.465847e+00 3.178279e+00 2.792697e+00 2.733220e+00 2.964621e+00 2.545713e+00 3.308156e+00 3.492422e+00 1.831247e+00 1.944353e+00
<GCONST> 1.024902e+02
<STATE> 3
<MEAN> 25
 2.629710e+00 -1.221269e+00 1.264250e+01 -1.158274e+01 -8.219586e+00 7.397918e-01 -1.469000e+00 -6.646327e+00 -2.434827e+00 5.384926e+00 -6.238033e+00 1.509577e+00 -9.587011e-02 1.649312e-01 -8.971644e-03 4.279831e-02 5.552477e-02 2.706206e-02 -1.071851e-01 -2.695851e-02 2.120370e-02 5.831469e-02 -4.146683e-02 8.568646e-02 -1.945887e-01
<VARIANCE> 25
 1.157090e+01 4.742763e+01 3.342877e+01 6.287651e+01 3.439622e+01 3.926520e+01 3.003035e+01 2.854338e+01 3.191957e+01 3.755548e+01 3.240200e+01 2.491191e+01 8.340761e-01 2.089871e+00 2.321419e+00 5.129440e+00 2.160463e+00 2.292142e+00 2.075613e+00 2.220599e+00 2.045424e+00 2.750013e+00 2.641923e+00 1.617008e+00 1.621396e+00
<GCONST> 9.747299e+01
<STATE> 4
<MEAN> 25
 1.851299e+00 4.195606e-01 1.130242e+01 -9.406086e+00 -7.832500e+00 4.900225e-01 -1.729847e+00 -6.760178e+00 -1.867493e+00 4.519658e+00 -5.341383e+00 1.537265e+00 -1.872079e-01 4.122170e-01 -6.821797e-01 1.005182e+00 2.232385e-01 -1.371233e-01 1.529837e-02 1.106980e-01 1.369782e-01 -4.551129e-01 4.292636e-01 -1.100367e-01 -6.742588e-01
<VARIANCE> 25
 1.534370e+01 5.076543e+01 4.009155e+01 8.076543e+01 3.526779e+01 4.067681e+01 3.222420e+01 3.112798e+01 3.344009e+01 4.024556e+01 3.744226e+01 2.483004e+01 9.770416e-01 2.445162e+00 1.884340e+00 3.835785e+00 2.631523e+00 2.320346e+00 2.139322e+00 2.462351e+00 2.202511e+00 2.631582e+00 2.663418e+00 1.662193e+00 1.617450e+00
<GCONST> 9.895213e+01
<TRANSP> 5
 0.000000e+00 1.000000e+00 0.000000e+00 0.000000e+00 0.000000e+00
 0.000000e+00 7.023916e-01 2.976083e-01 0.000000e+00 0.000000e+00
 0.000000e+00 0.000000e+00 7.047560e-01 2.952440e-01 0.000000e+00
 0.000000e+00 0.000000e+00 0.000000e+00 8.460432e-01 1.539568e-01
 0.000000e+00 0.000000e+00 0.000000e+00 0.000000e+00 0.000000e+00
<ENDHMM>
~h "h:"
<BEGINHMM>
<NUMSTATES> 5
<STATE> 2
<MEAN> 25
 3.894993e+00 -6.354121e+00 4.378884e-01 -3.132955e+00 -1.173970e+00 -7.477381e+00 -1.474531e+00 6.653690e+00 -2.196641e-01 -1.421423e+00 -4.271437e+00 1.904538e+00 -1.148098e-01 -3.009234e-03 -6.360108e-01 -1.700431e-01 3.246033e-01 -4.262127e-01 2.660539e-01 3.405934e-01 4.252417e-01 3.407672e-02 -1.969402e-01 4.261390e-01 -8.170639e-02
<VARIANCE> 25
 1.576408e+01 3.282032e+01 3.551734e+01 3.397795e+01 3.981015e+01 2.993883e+01 5.068922e+01 3.774953e+01 2.145226e+01 2.935604e+01 4.928836e+01 2.318868e+01 1.105619e+00 3.503014e+00 1.228606e+00 4.088517e+00 1.966009e+00 2.413810e+00 4.762579e+00 3.281136e+00 2.152415e+00 2.617431e+00 5.986973e+00 1.798916e+00 3.634165e+00
<GCONST> 1.000883e+02
<STATE> 3
<MEAN> 25
 3.265233e+00 -5.583217e+00 -1.700725e+00 -2.441692e+00 1.367097e-01 -7.717155e+00 -1.121069e+00 6.035815e+00 1.448793e+00 -1.416830e+00 -4.405448e+00 2.314863e+00 -1.135647e-01 1.809637e-01 -4.138385e-01 8.912026e-02 3.723866e-01 1.642716e-02 -6.412024e-02 -3.087071e-01 4.002860e-01 -1.099297e-01 -1.094449e-01 5.098901e-02 -1.597430e-01
<VARIANCE> 25
 1.579286e+01 3.969549e+01 3.000853e+01 4.103673e+01 4.058979e+01 3.309385e+01 3.203640e+01 3.625949e+01 2.339209e+01 2.196849e+01 6.201034e+01 2.239276e+01 1.486116e+00 3.814682e+00 1.352551e+00 4.073578e+00 2.200710e+00 2.552785e+00 3.488046e+00 3.141707e+00 2.290612e+00 2.369247e+00 6.837135e+00 1.790793e+00 4.579305e+00
<GCONST> 1.005217e+02
<STATE> 4
<MEAN> 25
 4.563704e+00 -7.306903e+00 -5.212717e+00 -6.148503e+00 6.734069e+00 -4.833868e+00 -2.393082e+00 9.480436e-01 2.151906e+00 -1.218547e+00 -1.116384e+01 2.584034e+00 -7.331213e-02 1.173334e-01 -9.858044e-02 -1.980383e-02 8.724974e-02 9.511404e-02 -9.965948e-02 -1.450351e-01 3.048454e-02 -3.544623e-02 -6.188248e-03 5.564040e-03 -9.722186e-02
<VARIANCE> 25
 1.257936e+01 2.947622e+01 2.468532e+01 4.386091e+01 4.914764e+01 3.085038e+01 2.762067e+01 5.598293e+01 2.490121e+01 3.324624e+01 7.088954e+01 2.370012e+01 1.131138e+00 2.325448e+00 1.469906e+00 2.826308e+00 2.774443e+00 2.317079e+00 2.660965e+00 3.680188e+00 2.270773e+00 2.296567e+00 5.327662e+00 1.857429e+00 2.296892e+00
<GCONST> 9.897176e+01
<TRANSP> 5
 0.000000e+00 1.000000e+00 0.000000e+00 0.000000e+00 0.000000e+00
 0.000000e+00 6.831763e-01 3.168237e-01 0.000000e+00 0.000000e+00
 0.000000e+00 0.000000e+00 7.137927e-01 2.862072e-01 0.000000e+00
 0.000000e+00 0.000000e+00 0.000000e+00 9.547381e-01 4.526179e-02
 0.000000e+00 0.000000e+00 0.000000e+00 0.000000e+00 0.000000e+00
<ENDHMM>
~h "gh"
<BEGINHMM>
<NUMSTATES> 5
<STATE> 2
<MEAN> 25
 1.770229e+00 3.492758e+00 1.616694e+00 2.489437e+00 -7.485292e-01 -5.262064e-01 -3.159448e+00 -4.288775e+00 -7.868577e-01 -2.321668e+00 -2.114160e+00 7.635514e-02 3.024982e-01 -1.377469e+00 -1.886413e+00 9.784008e-01 1.694785e+00 -5.321841e-01 5.322754e-02 3.547298e-01 4.582186e-02 1.258675e-01 3.367409e-01 2.879358e-01 4.220594e-01
<VARIANCE> 25
 3.288616e+01 6.152550e+01 9.283995e+01 5.122526e+01 7.710242e+01 4.555800e+01 3.405338e+01 5.629925e+01 2.990212e+01 4.524053e+01 7.036035e+01 2.565424e+01 2.311854e+00 7.326328e+00 6.558859e+00 5.316987e+00 7.849361e+00 4.831282e+00 3.413514e+00 4.706181e+00 4.309914e+00 4.423927e+00 7.155722e+00 2.840178e+00 3.007823e+00
<GCONST> 1.123119e+02
<STATE> 3
<MEAN> 25
 2.845441e+00 -1.832037e-01 -2.074290e+00 3.574671e+00 2.862154e+00 -1.557848e+00 -3.113291e+00 -3.205334e+00 -2.042592e-01 -2.188595e+00 -2.722890e+00 8.339975e-01 5.396709e-01 -1.244478e+00 -1.421489e+00 -4.392331e-03 1.631082e+00 -3.055843e-01 9.491731e-03 6.984088e-01 1.182866e-01 -2.711031e-02 -5.841659e-01 3.406861e-01 9.189659e-01
<VARIANCE> 25
 2.392446e+01 6.661234e+01 1.067736e+02 5.059713e+01 9.107466e+01 6.743262e+01 4.161080e+01 5.855254e+01 3.334177e+01 4.876750e+01 6.674856e+01 3.341661e+01 2.917299e+00 6.691569e+00 6.658310e+00 6.621974e+00 8.043221e+00 6.290204e+00 3.806479e+00 4.695750e+00 5.036345e+00 4.725478e+00 9.983346e+00 3.174416e+00 2.738503e+00
<GCONST> 1.147383e+02
<STATE> 4
<MEAN> 25
 3.661468e+00 -2.394182e+00 -4.486232e+00 2.096339e+00 6.452287e+00 1.820343e-01 -2.822276e+00 -2.144681e+00 1.679593e-01 -3.203116e+00 -5.002564e+00 7.656091e-01 5.474948e-01 -6.465496e-01 -6.363794e-01 -7.435999e-01 1.057618e+00 4.340138e-01 2.178537e-01 6.794534e-01 -2.706127e-01 -3.736043e-03 -7.933731e-01 1.060996e-03 8.997471e-01
<VARIANCE> 25
 2.688229e+01 5.106835e+01 9.323262e+01 4.947571e+01 9.555933e+01 9.407375e+01 4.040963e+01 6.857285e+01 3.893101e+01 4.670432e+01 6.886760e+01 3.561584e+01 2.975671e+00 4.979080e+00 4.950161e+00 5.988079e+00 7.440013e+00 6.329957e+00 4.045613e+00 4.155823e+00 5.062010e+00 4.473144e+00 8.987784e+00 3.182463e+00 2.043200e+00
<GCONST> 1.138967e+02
<TRANSP> 5
 0.000000e+00 1.000000e+00 0.000000e+00 0.000000e+00 0.000000e+00
 0.000000e+00 5.285833e-01 4.714167e-01 0.000000e+00 0.000000e+00
 0.000000e+00 0.000000e+00 5.385147e-01 4.614853e-01 0.000000e+00
 0.000000e+00 0.000000e+00 0.000000e+00 6.802754e-01 3.197246e-01
 0.000000e+00 0.000000e+00 0.000000e+00 0.000000e+00 0.000000e+00
<ENDHMM>
~h "ii"
<BEGINHMM>
<NUMSTATES> 5
<STATE> 2
<MEAN> 25
 1.665353e+00 2.554354e+00 1.117500e+01 -8.829525e+00 -5.302265e+00 1.838129e+00 -3.293500e+00 -6.476389e+00 -1.275805e+00 -5.673689e-02 -5.539785e+00 1.962713e-01 2.452081e-01 3.040275e-02 1.255427e+00 -1.623728e+00 -3.378040e-01 5.016005e-01 -8.069026e-01 -4.013355e-01 -2.336545e-01 3.295941e-01 -1.143539e+00 2.809194e-01 5.629092e-01
<VARIANCE> 25
 2.411669e+01 4.407190e+01 4.644931e+01 9.402406e+01 4.478400e+01 4.097421e+01 4.749722e+01 4.109496e+01 3.687219e+01 3.468711e+01 5.935867e+01 2.517076e+01 2.510950e+00 3.041285e+00 4.147598e+00 7.107626e+00 4.398967e+00 3.341256e+00 4.296378e+00 4.497918e+00 3.277666e+00 3.381218e+00 5.582956e+00 2.083669e+00 1.849340e+00
<GCONST> 1.073918e+02
<STATE> 3
<MEAN> 25
 1.850348e+00 3.071911e+00 1.323514e+01 -1.185927e+01 -5.183514e+00 2.779759e+00 -5.130024e+00 -6.792371e+00 -1.810257e+00 5.395417e-01 -7.853043e+00 1.029820e+00 4.335725e-03 1.519789e-01 2.070673e-01 -2.829900e-01 3.357919e-02 1.002608e-01 -2.812977e-01 -6.935851e-02 -1.248065e-01 8.554140e-02 -3.167797e-01 1.507662e-01 -3.061617e-02
<VARIANCE> 25
 1.424947e+01 4.124120e+01 3.195519e+01 7.146680e+01 3.773594e+01 3.675906e+01 3.575405e+01 3.252602e+01 3.385644e+01 3.284425e+01 4.309207e+01 2.339406e+01 1.303238e+00 2.187224e+00 2.782784e+00 6.394652e+00 2.825358e+00 2.701350e+00 3.128552e+00 2.970129e+00 2.512689e+00 2.767008e+00 4.379439e+00 1.806831e+00 1.408677e+00
<GCONST> 1.008183e+02
<STATE> 4
<MEAN> 25
 1.310156e+00 4.217781e+00 1.199623e+01 -9.570298e+00 -4.919369e+00 2.284352e+00 -5.072220e+00 -6.822459e+00 -1.779915e+00 3.189529e-01 -6.664402e+00 1.440448e+00 -1.685159e-01 8.461057e-02 -6.904386e-01 9.939436e-01 7.722575e-02 -2.929557e-01 2.912509e-01 1.019783e-01 4.731282e-02 -1.233916e-01 6.074397e-01 -6.453435e-02 -4.616736e-01
<VARIANCE> 25
 1.734790e+01 4.463796e+01 3.925626e+01 9.376395e+01 3.737547e+01 3.976216e+01 3.718975e+01 3.284517e+01 3.380585e+01 3.571289e+01 4.734818e+01 2.552744e+01 1.137675e+00 2.377155e+00 2.102751e+00 4.805552e+00 2.507892e+00 2.646583e+00 2.578717e+00 2.608317e+00 2.426347e+00 2.776478e+00 3.390281e+00 1.821441e+00 1.322151e+00
<GCONST> 1.005291e+02
<TRANSP> 5
 0.000000e+00 1.000000e+00 0.000000e+00 0.000000e+00 0.000000e+00
 0.000000e+00 7.053348e-01 2.946652e-01 0.000000e+00 0.000000e+00
 0.000000e+00 0.000000e+00 7.157394e-01 2.842606e-01 0.000000e+00
 0.000000e+00 0.000000e+00 0.000000e+00 8.744300e-01 1.255701e-01
 0.000000e+00 0.000000e+00 0.000000e+00 0.000000e+00 0.000000e+00
<ENDHMM>
~h "jh"
<BEGINHMM>
<NUMSTATES> 5
<STATE> 2
<MEAN> 25
 -7.492251e-01 6.490620e+00 3.502848e-01 2.291681e+00 2.736761e+00 -5.357057e+00 -5.117435e-01 -1.595133e+00 -1.291471e+00 -3.669973e+00 1.041144e+00 -1.426587e+00 -1.585970e+00 5.445606e-01 5.815843e-01 -6.947464e-01 1.244788e+00 -4.216633e-01 3.065284e-01 -1.009560e-02 -1.114555e-01 1.688710e-01 7.457672e-01 -1.616303e-01 1.643941e-01
<VARIANCE> 25
 9.347858e+01 4.975068e+01 3.162924e+01 3.395097e+01 5.696747e+01 4.283970e+01 5.822802e+01 5.885542e+01 4.219571e+01 3.081434e+01 5.275589e+01 3.065144e+01 8.869836e+00 5.209603e+00 2.815989e+00 3.867777e+00 5.934805e+00 3.743105e+00 5.904584e+00 4.348865e+00 3.524136e+00 3.674891e+00 4.737798e+00 2.666398e+00 2.443482e+00
<GCONST> 1.104272e+02
<STATE> 3
<MEAN> 25
 -6.015242e+00 6.953392e+00 2.552930e+00 -8.210225e-01 5.523303e+00 -5.976622e+00 9.625250e-01 -1.386125e+00 -1.862938e+00 -2.453867e+00 3.501743e+00 -1.658844e+00 -1.339371e+00 -1.197174e-01 6.152598e-01 -9.055507e-01 4.340756e-01 -1.265215e-01 7.181397e-01 7.776245e-02 -2.144937e-01 4.520907e-01 6.814457e-01 -1.255093e-01 5.089260e-01
<VARIANCE> 25
 1.105510e+02 5.317204e+01 3.789845e+01 3.971321e+01 5.357370e+01 4.348636e+01 7.717677e+01 5.094480e+01 3.886262e+01 3.430394e+01 5.820102e+01 3.505694e+01 1.169714e+01 5.443546e+00 2.893750e+00 3.780752e+00 7.159981e+00 3.864755e+00 6.361378e+00 4.387966e+00 3.324215e+00 3.547602e+00 5.669089e+00 2.772022e+00 2.359977e+00
<GCONST> 1.120656e+02
<STATE> 4
<MEAN> 25
 -7.496232e+00 4.620391e+00 4.825213e+00 -4.001049e+00 4.332785e+00 -4.873798e+00 2.953398e+00 -1.168620e+00 -2.559831e+00 -1.324282e+00 4.221002e+00 -1.907122e+00 9.851513e-01 -9.158931e-01 9.983230e-02 -4.228086e-01 -7.078893e-01 1.785273e-01 1.969116e-01 -1.900914e-01 -1.988629e-01 6.763215e-02 -6.737142e-01 -5.559992e-02 6.062750e-01
<VARIANCE> 25
 9.674022e+01 6.743098e+01 4.282259e+01 3.576044e+01 5.465423e+01 4.417037e+01 7.534641e+01 4.914044e+01 2.883007e+01 3.872365e+01 5.401735e+01 3.063538e+01 1.197514e+01 5.442625e+00 3.026218e+00 3.389568e+00 6.293694e+00 3.293163e+00 5.600050e+00 4.165190e+00 2.817503e+00 3.361126e+00 7.204704e+00 2.917320e+00 2.095909e+00
<GCONST> 1.112187e+02
<TRANSP> 5
 0.000000e+00 1.000000e+00 0.000000e+00 0.000000e+00 0.000000e+00
 0.000000e+00 6.311888e-01 3.688112e-01 0.000000e+00 0.000000e+00
 0.000000e+00 0.000000e+00 6.920463e-01 3.079537e-01 0.000000e+00
 0.000000e+00 0.000000e+00 0.000000e+00 8.722502e-01 1.277498e-01
 0.000000e+00 0.000000e+00 0.000000e+00 0.000000e+00 0.000000e+00
<ENDHMM>
~h "kh"
<BEGINHMM>
<NUMSTATES> 5
<STATE> 2
<MEAN> 25
 -1.634995e+00 6.712954e-01 1.068469e+00 -1.553633e+00 -8.668491e-01 5.399517e-03 -1.699161e+00 -4.758528e+00 2.364105e+00 3.068848e+00 1.122953e+00 2.546698e+00 -6.098487e-01 -1.206346e+00 -1.056606e+00 2.734468e-01 1.276611e+00 1.618745e-01 2.696164e-01 9.473409e-02 4.710561e-01 3.921746e-01 6.992399e-01 3.637308e-01 2.620302e-02
<VARIANCE> 25
 3.090196e+01 7.169275e+01 1.381951e+02 5.757062e+01 8.818250e+01 4.369471e+01 4.375863e+01 4.485320e+01 4.566141e+01 4.520812e+01 4.292737e+01 2.844840e+01 2.070925e+00 7.229428e+00 8.251734e+00 6.058677e+00 8.450435e+00 4.934423e+00 4.225852e+00 3.947978e+00 3.689432e+00 4.864293e+00 3.935720e+00 2.981849e+00 3.611913e+00
<GCONST> 1.130079e+02
<STATE> 3
<MEAN> 25
 -2.933518e+00 -1.695830e+00 -2.971672e-01 -1.821204e+00 1.468087e+00 6.926524e-01 -7.587482e-01 -4.347551e+00 3.222714e+00 3.639027e+00 2.267331e+00 3.377547e+00 -2.379228e-01 -6.669834e-01 -5.189542e-01 1.443008e-01 5.258471e-01 1.240662e-01 3.694484e-01 3.778250e-01 9.536435e-02 -3.323143e-02 3.209717e-01 1.955860e-01 6.834308e-02
<VARIANCE> 25
 3.850357e+01 6.996817e+01 1.554464e+02 5.877011e+01 9.305798e+01 5.367147e+01 5.001853e+01 4.554192e+01 4.918634e+01 4.870076e+01 4.464262e+01 2.866266e+01 2.891077e+00 5.972186e+00 6.329509e+00 5.345282e+00 6.725198e+00 5.001289e+00 3.842844e+00 3.975617e+00 4.435329e+00 4.537451e+00 4.289723e+00 3.126044e+00 2.659361e+00
<GCONST> 1.133366e+02
<STATE> 4
<MEAN> 25
 -2.844090e+00 -1.335145e+00 1.892919e-01 -2.699715e+00 1.175371e+00 1.316936e+00 -1.725822e-01 -3.562012e+00 2.819910e+00 2.980244e+00 2.224449e+00 3.408558e+00 4.732085e-01 -1.902452e-01 -1.885036e-01 3.576415e-02 -1.712701e-01 -3.283686e-02 2.864340e-01 4.263381e-01 -4.716264e-01 -3.520062e-01 -1.928532e-01 -1.097033e-01 2.908019e-01
<VARIANCE> 25
 4.559637e+01 6.949695e+01 1.446317e+02 7.348061e+01 8.457217e+01 6.144666e+01 4.958012e+01 4.213548e+01 4.749869e+01 4.516242e+01 4.945600e+01 2.831285e+01 3.793056e+00 5.753250e+00 4.334006e+00 4.951980e+00 5.001563e+00 5.085870e+00 3.408632e+00 3.745575e+00 4.366427e+00 3.892621e+00 4.212348e+00 2.946038e+00 2.594137e+00
<GCONST> 1.126319e+02
<TRANSP> 5
 0.000000e+00 1.000000e+00 0.000000e+00 0.000000e+00 0.000000e+00
 0.000000e+00 6.340064e-01 3.659936e-01 0.000000e+00 0.000000e+00
 0.000000e+00 0.000000e+00 5.901595e-01 4.098405e-01 0.000000e+00
 0.000000e+00 0.000000e+00 0.000000e+00 6.827852e-01 3.172148e-01
 0.000000e+00 0.000000e+00 0.000000e+00 0.000000e+00 0.000000e+00
<ENDHMM>
~h "n:"
<BEGINHMM>
<NUMSTATES> 5
<STATE> 2
<MEAN> 25
 4.719684e+00 1.904632e+00 1.976778e+00 1.099403e+00 -3.686036e+00 -1.877156e-01 -1.071312e-01 -4.184236e+00 -3.762435e+00 -2.990673e+00 -3.960626e+00 -1.640400e+00 -2.212241e-01 8.764151e-01 -2.165243e-01 9.212891e-01 -7.603842e-02 -1.778418e-01 -7.177709e-02 -2.582293e-01 1.389359e-01 -3.400230e-01 4.223519e-01 -7.800864e-02 -7.876739e-01
<VARIANCE> 25
 2.963850e+01 5.583822e+01 4.587663e+01 6.444647e+01 4.466632e+01 4.129356e+01 3.224857e+01 4.246296e+01 3.971861e+01 3.281717e+01 4.367308e+01 2.765545e+01 1.221978e+00 2.140143e+00 2.060173e+00 3.050856e+00 3.240071e+00 2.246636e+00 2.093208e+00 3.446709e+00 2.419209e+00 2.380556e+00 2.566566e+00 1.703670e+00 1.037621e+00
<GCONST> 1.003854e+02
<STATE> 3
<MEAN> 25
 4.140603e+00 3.519575e+00 1.482541e+00 2.481190e+00 -3.442556e+00 -3.320506e-01 -2.170703e-01 -4.366137e+00 -3.521427e+00 -3.510270e+00 -3.051471e+00 -1.729229e+00 -3.698327e-01 6.554597e-01 -3.047901e-01 5.910868e-01 2.257385e-01 -7.291185e-02 -4.561903e-02 3.333009e-02 1.710239e-01 -1.867165e-01 4.877833e-01 -4.585007e-02 -7.394719e-01
<VARIANCE> 25
 3.500922e+01 5.151973e+01 3.960749e+01 5.899118e+01 4.249134e+01 3.617283e+01 3.048165e+01 4.024270e+01 3.725782e+01 3.192384e+01 4.421690e+01 2.657489e+01 1.192789e+00 2.222442e+00 1.820027e+00 2.746342e+00 2.775732e+00 2.104477e+00 2.032962e+00 3.149923e+00 2.321349e+00 2.299764e+00 2.349842e+00 1.694907e+00 9.623697e-01
<GCONST> 9.902531e+01
<STATE> 4
<MEAN> 25
 2.754439e+00 4.568823e+00 8.358755e-01 3.498863e+00 -2.576111e+00 -2.332689e-01 -1.074949e-01 -3.629641e+00 -3.025501e+00 -3.619972e+00 -1.775359e+00 -1.708398e+00 -5.299843e-01 2.364461e-01 -3.001395e-01 2.825269e-01 4.519077e-01 -6.635424e-02 -9.170260e-03 3.024677e-01 2.822913e-01 4.125483e-02 5.305248e-01 2.403519e-02 -5.269912e-01
<VARIANCE> 25
 4.367048e+01 4.949475e+01 3.603082e+01 5.471203e+01 4.176193e+01 3.278466e+01 2.985992e+01 4.275578e+01 3.785187e+01 3.248631e+01 4.578737e+01 2.558564e+01 1.217782e+00 2.769686e+00 1.872896e+00 2.541895e+00 2.639786e+00 2.109499e+00 2.187468e+00 2.780882e+00 2.267603e+00 2.367100e+00 2.448396e+00 1.789961e+00 1.031621e+00
<GCONST> 9.925439e+01
<TRANSP> 5
 0.000000e+00 1.000000e+00 0.000000e+00 0.000000e+00 0.000000e+00
 0.000000e+00 5.059999e-01 4.940001e-01 0.000000e+00 0.000000e+00
 0.000000e+00 0.000000e+00 5.044147e-01 4.955854e-01 0.000000e+00
 0.000000e+00 0.000000e+00 0.000000e+00 6.263912e-01 3.736088e-01
 0.000000e+00 0.000000e+00 0.000000e+00 0.000000e+00 0.000000e+00
<ENDHMM>
~h "oo"
<BEGINHMM>
<NUMSTATES> 5
<STATE> 2
<MEAN> 25
 7.980516e+00 4.461203e+00 -8.673063e+00 -7.446070e+00 3.041071e+00 2.378486e+00 -2.725384e+00 -4.117723e+00 -3.794329e+00 1.312335e+00 2.363633e+00 5.824542e-01 8.774941e-01 7.625602e-01 -3.139140e-01 -1.083760e+00 3.678329e-02 2.825825e-01 -4.561062e-01 -3.576116e-01 -6.491864e-01 3.639607e-01 -5.661269e-02 -4.839232e-02 2.709989e-01
<VARIANCE> 25
 3.830044e+01 5.309449e+01 5.464499e+01 7.586765e+01 4.171640e+01 4.368491e+01 4.939111e+01 3.273320e+01 5.816784e+01 4.384792e+01 3.671791e+01 2.599216e+01 3.705549e+00 3.843170e+00 3.200281e+00 6.157129e+00 4.417137e+00 3.762281e+00 4.421765e+00 3.086472e+00 5.474979e+00 4.272118e+00 3.443764e+00 2.309822e+00 1.529679e+00
<GCONST> 1.082076e+02
<STATE> 3
<MEAN> 25
 9.431520e+00 6.037473e+00 -8.741240e+00 -9.265993e+00 3.099645e+00 2.676939e+00 -4.084679e+00 -4.694571e+00 -4.702633e+00 2.391149e+00 2.053147e+00 3.712179e-01 6.050900e-02 2.483558e-01 1.683417e-01 -1.527585e-02 -3.465905e-02 -4.351838e-02 -2.999544e-01 -5.485102e-02 -4.292495e-03 1.509121e-01 -1.076254e-01 -8.114948e-02 -9.493265e-02
<VARIANCE> 25
 2.490894e+01 4.567127e+01 4.413736e+01 7.343484e+01 3.661782e+01 3.517921e+01 5.292979e+01 3.230328e+01 5.358450e+01 4.447229e+01 3.716050e+01 2.645228e+01 2.257840e+00 2.682033e+00 2.646857e+00 5.640756e+00 3.454231e+00 3.384866e+00 4.318908e+00 2.942186e+00 5.207666e+00 4.048698e+00 3.335480e+00 2.279055e+00 1.295879e+00
<GCONST> 1.051807e+02
<STATE> 4
<MEAN> 25
 8.118842e+00 6.458072e+00 -7.147074e+00 -7.777849e+00 2.479981e+00 1.888233e+00 -4.971568e+00 -4.332065e+00 -3.536178e+00 2.530640e+00 1.794319e+00 1.165234e-01 -6.511655e-01 -1.574161e-01 6.545312e-01 9.051291e-01 -2.829488e-01 -3.416863e-01 -2.170274e-02 2.064388e-01 4.601516e-01 -2.268751e-01 -3.445867e-02 -9.372513e-02 -4.015663e-01
<VARIANCE> 25
 2.729989e+01 4.347794e+01 4.463797e+01 8.598004e+01 3.732325e+01 3.447594e+01 5.532900e+01 3.293591e+01 5.407002e+01 4.589582e+01 4.341130e+01 2.755690e+01 1.391343e+00 2.465753e+00 2.710802e+00 4.290920e+00 3.025942e+00 3.072360e+00 4.188076e+00 2.865674e+00 4.197821e+00 3.901098e+00 3.595636e+00 2.379440e+00 1.196443e+00
<GCONST> 1.043731e+02
<TRANSP> 5
 0.000000e+00 1.000000e+00 0.000000e+00 0.000000e+00 0.000000e+00
 0.000000e+00 7.001571e-01 2.998429e-01 0.000000e+00 0.000000e+00
 0.000000e+00 0.000000e+00 6.922705e-01 3.077295e-01 0.000000e+00
 0.000000e+00 0.000000e+00 0.000000e+00 8.220759e-01 1.779241e-01
 0.000000e+00 0.000000e+00 0.000000e+00 0.000000e+00 0.000000e+00
<ENDHMM>
~h "o~"
<BEGINHMM>
<NUMSTATES> 5
<STATE> 2
<MEAN> 25
 3.810974e+00 1.545005e-01 -8.218226e+00 -3.233150e+00 4.966980e+00 5.534907e+00 -8.716682e-01 8.680875e-01 -3.897277e+00 -1.262696e+00 2.756962e+00 -2.049791e+00 1.069383e+00 -7.669671e-01 -1.000371e+00 -2.326441e+00 1.072716e+00 9.960269e-01 -3.066354e-01 4.637271e-01 -8.196385e-01 4.755046e-01 2.425670e-01 -2.128800e-01 1.430200e+00
<VARIANCE> 25
 4.940485e+01 7.563873e+01 5.135361e+01 1.819575e+02 4.266885e+01 5.332543e+01 4.112047e+01 3.117561e+01 6.390093e+01 4.644857e+01 3.856548e+01 2.768927e+01 3.010588e+00 4.262942e+00 4.333776e+00 1.190670e+01 3.479374e+00 3.672053e+00 3.124051e+00 3.040702e+00 3.424817e+00 3.596924e+00 2.747945e+00 2.356642e+00 2.703222e+00
<GCONST> 1.098387e+02
<STATE> 3
<MEAN> 25
 8.447577e+00 -3.596103e+00 -8.913924e+00 -1.268247e+01 7.656710e+00 7.821560e+00 -2.945220e+00 1.572653e+00 -6.125704e+00 8.073938e-01 1.053032e+00 -3.424373e+00 4.738931e-01 -9.959248e-01 -1.259129e-01 -1.071120e+00 6.263534e-01 4.475208e-01 -5.213986e-01 2.580140e-01 1.311571e-01 4.375678e-01 -4.229944e-01 -3.835021e-01 1.091271e+00
<VARIANCE> 25
 1.835000e+01 7.182195e+01 3.681926e+01 1.405544e+02 4.235890e+01 5.055907e+01 3.773182e+01 3.059246e+01 6.640546e+01 5.459177e+01 3.297968e+01 3.049049e+01 2.009029e+00 3.033340e+00 2.487136e+00 1.220713e+01 3.333007e+00 4.446385e+00 3.108832e+00 2.114449e+00 3.934946e+00 3.318067e+00 2.519703e+00 1.909161e+00 2.429065e+00
<GCONST> 1.063390e+02
<STATE> 4
<MEAN> 25
 8.452778e+00 -6.980824e+00 -7.483586e+00 -9.451829e+00 6.712785e+00 3.719750e+00 -5.679591e+00 2.230549e+00 -1.313355e+00 2.828177e+00 -2.142318e+00 -4.779326e+00 -2.074187e-01 -1.726587e-01 2.323921e-01 1.039670e+00 -3.228329e-01 -8.054100e-01 -1.652782e-01 4.145456e-02 5.289791e-01 -1.774422e-01 -2.488327e-01 7.863007e-02 -2.150386e-01
<VARIANCE> 25
 1.080919e+01 4.548702e+01 3.009998e+01 1.182219e+02 3.350893e+01 6.979016e+01 2.923486e+01 3.206709e+01 5.645196e+01 4.810300e+01 3.844933e+01 3.678970e+01 6.863450e-01 3.113157e+00 1.711707e+00 6.303630e+00 2.807767e+00 5.625379e+00 2.438579e+00 2.159110e+00 3.328258e+00 3.131269e+00 3.242865e+00 2.495100e+00 1.874382e+00
<GCONST> 1.027052e+02
<TRANSP> 5
 0.000000e+00 1.000000e+00 0.000000e+00 0.000000e+00 0.000000e+00
 0.000000e+00 7.282022e-01 2.717979e-01 0.000000e+00 0.000000e+00
 0.000000e+00 0.000000e+00 7.175856e-01 2.824144e-01 0.000000e+00
 0.000000e+00 0.000000e+00 0.000000e+00 9.182201e-01 8.177990e-02
 0.000000e+00 0.000000e+00 0.000000e+00 0.000000e+00 0.000000e+00
<ENDHMM>
~h "ph"
<BEGINHMM>
<NUMSTATES> 5
<STATE> 2
<MEAN> 25
 -3.868190e+00 -4.652805e+00 -2.844795e+00 3.966579e+00 2.469807e+00 2.332848e-01 1.285708e+00 2.125460e+00 1.437155e+00 -1.730379e+00 3.086053e+00 8.238974e-01 -8.645279e-01 -7.793949e-01 -1.192315e-01 1.478031e-01 2.602528e-01 4.677412e-02 4.453251e-01 1.114035e-01 3.117730e-01 -1.061562e-01 6.132522e-01 3.247344e-01 1.281875e-02
<VARIANCE> 25
 4.091327e+01 3.385305e+01 4.843541e+01 3.148029e+01 3.478497e+01 4.389204e+01 3.660629e+01 2.780731e+01 3.381386e+01 2.953172e+01 3.825957e+01 2.574023e+01 2.328543e+00 2.640160e+00 2.261384e+00 2.556317e+00 2.039988e+00 3.019705e+00 2.659909e+00 2.089082e+00 2.074060e+00 2.549377e+00 2.360994e+00 2.256498e+00 1.706862e+00
<GCONST> 9.954189e+01
<STATE> 3
<MEAN> 25
 -5.872150e+00 -6.431119e+00 -2.783332e+00 3.893273e+00 3.162987e+00 3.583148e-01 2.396914e+00 2.489738e+00 2.342890e+00 -1.935643e+00 4.147513e+00 1.509104e+00 -8.644187e-01 -4.550915e-01 8.750740e-02 -3.095038e-02 2.350477e-01 -7.278978e-02 4.303165e-01 2.606821e-01 3.576166e-01 -1.120128e-01 3.867210e-01 2.850792e-01 -6.322919e-02
<VARIANCE> 25
 3.896384e+01 3.042940e+01 4.537403e+01 2.896716e+01 3.641754e+01 4.113577e+01 3.649739e+01 2.767618e+01 3.482375e+01 2.860825e+01 3.900693e+01 2.524275e+01 1.823984e+00 2.541227e+00 2.233010e+00 2.301047e+00 1.943828e+00 2.612070e+00 2.591153e+00 2.133197e+00 2.067925e+00 2.187182e+00 2.605520e+00 2.173660e+00 1.407640e+00
<GCONST> 9.832214e+01
<STATE> 4
<MEAN> 25
 -9.010893e+00 -6.912272e+00 -2.517890e+00 4.096570e+00 3.887774e+00 -4.466322e-01 3.916185e+00 3.919924e+00 4.150212e+00 -2.322905e+00 5.092594e+00 2.523422e+00 -2.840580e-01 -6.190332e-02 2.622593e-01 -7.481729e-02 -8.990044e-02 -2.910592e-01 3.638820e-01 2.445565e-01 1.275584e-01 7.418392e-02 5.772933e-02 7.379226e-02 6.946974e-02
<VARIANCE> 25
 3.151681e+01 3.190111e+01 3.579033e+01 2.623785e+01 3.367167e+01 3.230065e+01 3.407819e+01 2.667521e+01 3.210142e+01 2.612831e+01 3.501604e+01 2.397515e+01 2.632071e+00 2.131673e+00 2.687087e+00 2.329216e+00 2.594957e+00 2.242855e+00 2.793228e+00 2.194887e+00 2.476845e+00 2.060565e+00 2.670623e+00 1.956686e+00 1.174481e+00
<GCONST> 9.755152e+01
<TRANSP> 5
 0.000000e+00 1.000000e+00 0.000000e+00 0.000000e+00 0.000000e+00
 0.000000e+00 5.734593e-01 4.265406e-01 0.000000e+00 0.000000e+00
 0.000000e+00 0.000000e+00 5.972298e-01 4.027703e-01 0.000000e+00
 0.000000e+00 0.000000e+00 0.000000e+00 7.811047e-01 2.188953e-01
 0.000000e+00 0.000000e+00 0.000000e+00 0.000000e+00 0.000000e+00
<ENDHMM>
~h "rx"
<BEGINHMM>
<NUMSTATES> 5
<STATE> 2
<MEAN> 25
 -5.771989e-01 -3.032916e+00 5.414777e+00 1.503172e+00 -2.592394e+00 -4.157896e+00 -3.623492e+00 2.108174e+00 1.606785e+00 -2.656789e+00 3.010011e+00 1.457145e+00 6.269594e-01 -4.648020e-01 1.190820e+00 -5.861962e-01 -1.318364e+00 -3.955664e-01 -3.138009e-02 3.336672e-02 -6.595528e-01 1.608419e-01 1.479264e-01 1.384524e-01 9.902158e-01
<VARIANCE> 25
 6.915205e+01 4.739552e+01 6.662041e+01 5.782136e+01 7.875595e+01 5.208020e+01 5.414116e+01 5.682675e+01 6.535668e+01 5.285485e+01 4.203220e+01 2.572163e+01 5.119901e+00 4.754290e+00 4.989689e+00 3.976697e+00 7.201541e+00 5.090328e+00 5.377925e+00 5.281801e+00 5.971030e+00 6.822011e+00 4.179803e+00 3.087871e+00 3.129204e+00
<GCONST> 1.143159e+02
<STATE> 3
<MEAN> 25
 1.793598e+00 -3.859307e+00 7.990481e+00 -6.127498e-01 -6.240309e+00 -5.573293e+00 -2.873849e+00 1.372023e+00 -1.329892e+00 -6.014295e-01 2.851341e+00 1.299312e+00 6.916103e-01 -1.552714e-01 6.441493e-01 -7.784253e-01 -1.075399e+00 -4.252442e-01 4.078692e-01 -3.975846e-01 -9.144934e-01 8.875268e-01 -2.066866e-01 -1.374729e-01 8.289835e-01
<VARIANCE> 25
 5.161616e+01 4.289388e+01 5.223178e+01 5.482001e+01 6.959631e+01 4.803867e+01 4.589186e+01 4.790342e+01 5.895016e+01 6.290538e+01 3.930618e+01 2.176977e+01 5.040004e+00 3.943722e+00 4.190622e+00 4.568941e+00 6.984149e+00 4.304808e+00 5.025903e+00 5.131423e+00 5.533988e+00 7.510020e+00 4.530848e+00 2.501141e+00 3.510018e+00
<GCONST> 1.123951e+02
<STATE> 4
<MEAN> 25
 2.493932e+00 -2.024622e+00 8.527911e+00 -1.839629e+00 -8.138008e+00 -7.233421e+00 -4.544019e-01 -6.684865e-01 -3.499166e+00 3.459477e+00 2.214553e+00 5.944485e-01 -7.406691e-02 4.296023e-01 -1.096607e-01 -2.266122e-01 4.902027e-02 3.398879e-02 3.282690e-01 -4.703308e-01 -1.065746e-01 3.966153e-01 -1.404571e-01 -1.380251e-01 -9.363365e-02
<VARIANCE> 25
 3.122700e+01 5.094568e+01 4.741417e+01 5.347340e+01 4.485061e+01 3.887104e+01 3.645322e+01 3.704581e+01 4.452206e+01 5.436988e+01 4.698454e+01 2.048661e+01 3.540208e+00 3.630725e+00 3.017695e+00 4.506217e+00 4.725773e+00 3.246693e+00 4.025184e+00 3.688868e+00 4.208534e+00 6.409364e+00 4.472304e+00 2.108214e+00 3.565166e+00
<GCONST> 1.078922e+02
<TRANSP> 5
 0.000000e+00 1.000000e+00 0.000000e+00 0.000000e+00 0.000000e+00
 0.000000e+00 6.249962e-01 3.750039e-01 0.000000e+00 0.000000e+00
 0.000000e+00 0.000000e+00 6.478551e-01 3.521449e-01 0.000000e+00
 0.000000e+00 0.000000e+00 0.000000e+00 8.211342e-01 1.788659e-01
 0.000000e+00 0.000000e+00 0.000000e+00 0.000000e+00 0.000000e+00
<ENDHMM>
~h "t:"
<BEGINHMM>
<NUMSTATES> 5
<STATE> 2
<MEAN> 25
 -3.362780e-01 -1.974085e+00 8.687605e-01 9.414598e-01 -2.149039e+00 -8.300380e-01 1.367806e-01 1.414609e+00 -6.985124e-01 -3.776602e-01 3.238497e+00 -1.930764e+00 2.022962e-01 -4.882353e-01 6.133646e-01 -5.291924e-01 -4.486242e-01 9.692647e-02 -4.757819e-02 -1.863995e-01 -2.842405e-01 2.211066e-01 -7.958540e-02 9.096067e-02 5.319674e-01
<VARIANCE> 25
 4.211140e+01 6.635880e+01 7.677551e+01 7.577672e+01 6.079518e+01 3.631838e+01 4.134475e+01 5.329996e+01 4.220066e+01 3.678081e+01 5.366259e+01 2.308264e+01 4.148692e+00 6.950843e+00 5.798971e+00 7.387830e+00 5.137088e+00 3.936476e+00 3.570955e+00 5.712731e+00 4.449514e+00 3.412650e+00 5.306960e+00 2.568906e+00 6.351010e+00
<GCONST> 1.127408e+02
<STATE> 3
<MEAN> 25
 -1.755004e-02 -3.535391e+00 2.630788e+00 -8.084454e-01 -2.933678e+00 -6.422600e-01 8.755329e-02 1.071973e+00 -9.612908e-01 2.526132e-01 2.846711e+00 -1.565428e+00 4.772387e-01 -8.172259e-01 1.002006e+00 -1.083736e+00 -4.255839e-01 -2.088517e-01 -2.603671e-01 -5.841317e-02 -2.879483e-01 1.950313e-01 -7.773783e-01 1.723085e-01 1.272869e+00
<VARIANCE> 25
 3.733589e+01 6.312259e+01 8.329198e+01 8.862476e+01 5.918565e+01 4.132890e+01 4.734408e+01 6.054556e+01 4.388385e+01 4.166550e+01 6.545570e+01 2.381528e+01 3.927030e+00 7.929099e+00 6.657162e+00 8.422002e+00 6.136769e+00 4.407237e+00 4.502236e+00 6.386715e+00 4.828015e+00 3.760852e+00 7.003703e+00 2.713157e+00 7.954172e+00
<GCONST> 1.152834e+02
<STATE> 4
<MEAN> 25
 1.362483e+00 -4.795331e+00 4.291334e+00 -3.296158e+00 -3.587988e+00 -1.351924e+00 -9.157060e-01 1.161981e+00 -1.277981e+00 4.888885e-01 5.101578e-01 -1.249431e+00 6.071361e-01 -5.736404e-01 5.869249e-01 -9.336777e-01 -8.064801e-02 -3.152498e-01 -4.164208e-01 1.666290e-01 -2.628144e-01 -1.500905e-02 -1.238137e+00 1.524760e-01 1.124076e+00
<VARIANCE> 25
 3.553502e+01 6.869481e+01 8.557863e+01 9.440080e+01 5.582769e+01 4.354481e+01 4.821321e+01 6.598480e+01 3.929473e+01 3.920757e+01 6.705968e+01 2.392186e+01 3.549853e+00 7.080828e+00 6.221690e+00 7.958407e+00 6.407015e+00 4.824440e+00 5.079318e+00 5.218041e+00 4.555965e+00 3.664275e+00 7.256003e+00 2.717296e+00 6.579802e+00
<GCONST> 1.148410e+02
<TRANSP> 5
 0.000000e+00 1.000000e+00 0.000000e+00 0.000000e+00 0.000000e+00
 0.000000e+00 5.231044e-01 4.768956e-01 0.000000e+00 0.000000e+00
 0.000000e+00 0.000000e+00 5.427526e-01 4.572474e-01 0.000000e+00
 0.000000e+00 0.000000e+00 0.000000e+00 6.511875e-01 3.488125e-01
 0.000000e+00 0.000000e+00 0.000000e+00 0.000000e+00 0.000000e+00
<ENDHMM>
~h "sh"
<BEGINHMM>
<NUMSTATES> 5
<STATE> 2
<MEAN> 25
 -7.708793e+00 1.624903e+00 8.951177e+00 -5.440590e+00 -6.646181e-01 -2.656823e+00 1.432032e+00 -2.021299e+00 -1.140476e+00 -7.295087e-01 4.164705e+00 -5.567594e-01 -2.981618e+00 8.311151e-01 6.908080e-01 -4.505674e-01 8.531082e-01 1.780454e-01 8.413956e-01 2.742811e-01 2.883243e-01 -1.800623e-01 1.789536e+00 -3.769375e-01 4.404048e-02
<VARIANCE> 25
 9.377048e+01 4.245451e+01 5.011781e+01 4.207769e+01 4.111293e+01 3.694032e+01 5.077651e+01 5.234370e+01 3.560665e+01 4.048109e+01 5.555987e+01 2.388705e+01 4.763505e+00 3.091650e+00 3.415661e+00 3.120791e+00 3.821429e+00 3.053387e+00 3.445030e+00 2.986040e+00 3.124509e+00 3.120024e+00 3.955136e+00 2.377866e+00 1.050089e+00
<GCONST> 1.059763e+02
<STATE> 3
<MEAN> 25
 -1.573259e+01 3.153099e+00 9.907862e+00 -6.121801e+00 1.072499e+00 -1.668971e+00 3.686215e+00 -6.673636e-01 2.917338e-01 -2.770724e-01 8.694358e+00 -1.070791e+00 -1.444685e+00 1.606799e-01 7.890997e-02 -5.196355e-02 3.070909e-01 2.264760e-01 4.912384e-01 3.443962e-01 3.244880e-01 1.068982e-01 8.541707e-01 -6.473690e-02 -8.259530e-02
<VARIANCE> 25
 6.431235e+01 3.640662e+01 3.758089e+01 3.335986e+01 3.885950e+01 3.880251e+01 4.398492e+01 4.415134e+01 3.720813e+01 3.666000e+01 4.277948e+01 2.310042e+01 7.236474e+00 2.577991e+00 2.595289e+00 2.314759e+00 2.970440e+00 2.794678e+00 2.958144e+00 2.812175e+00 2.728727e+00 2.518271e+00 4.038837e+00 2.133699e+00 1.129583e+00
<GCONST> 1.030005e+02
<STATE> 4
<MEAN> 25
 -1.452329e+01 1.636875e+00 9.004649e+00 -5.421041e+00 9.182259e-01 -1.346207e+00 4.577132e+00 3.776821e-01 9.164836e-01 -2.056483e-01 8.785275e+00 -9.558477e-01 1.782386e+00 -6.479208e-01 -5.731699e-01 -1.916808e-02 -2.796904e-01 -3.032973e-01 -2.889262e-01 -1.444744e-02 -2.695073e-01 -1.355938e-01 -8.813915e-01 -2.504104e-01 3.469199e-01
<VARIANCE> 25
 1.034749e+02 4.010401e+01 4.433836e+01 3.615800e+01 4.413034e+01 4.330725e+01 4.058288e+01 3.633257e+01 3.684887e+01 3.753777e+01 4.763090e+01 2.371934e+01 1.014973e+01 3.162234e+00 3.309041e+00 2.297553e+00 4.024970e+00 3.704994e+00 3.664537e+00 3.314296e+00 3.147990e+00 3.271787e+00 5.265490e+00 2.485935e+00 2.517406e+00
<GCONST> 1.072945e+02
<TRANSP> 5
 0.000000e+00 1.000000e+00 0.000000e+00 0.000000e+00 0.000000e+00
 0.000000e+00 7.134686e-01 2.865314e-01 0.000000e+00 0.000000e+00
 0.000000e+00 0.000000e+00 7.429073e-01 2.570926e-01 0.000000e+00
 0.000000e+00 0.000000e+00 0.000000e+00 8.916865e-01 1.083134e-01
 0.000000e+00 0.000000e+00 0.000000e+00 0.000000e+00 0.000000e+00
<ENDHMM>
~h "th"
<BEGINHMM>
<NUMSTATES> 5
<STATE> 2
<MEAN> 25
 3.698149e+00 -1.115460e+01 -5.583260e+00 -3.714874e+00 6.501170e+00 1.124797e+00 2.400599e-01 4.574358e+00 1.316267e+00 -1.365454e+00 -6.564642e+00 1.655171e+00 9.021500e-02 -1.312615e-01 -1.669364e-02 6.641129e-02 3.737351e-02 -1.730590e-02 1.339279e-01 1.628212e-01 -6.918028e-02 -9.515671e-02 -1.050514e-01 -1.415958e-01 7.554682e-02
<VARIANCE> 25
 2.706485e+01 6.515419e+01 3.144423e+01 6.237025e+01 5.740216e+01 5.181666e+01 3.392521e+01 4.024723e+01 3.392557e+01 3.420951e+01 6.532725e+01 3.250788e+01 1.693356e+00 3.646550e+00 1.815784e+00 2.768265e+00 3.172320e+00 3.188323e+00 2.736197e+00 2.627417e+00 2.690328e+00 2.401319e+00 4.493143e+00 2.550264e+00 3.321038e+00
<GCONST> 1.041643e+02
<STATE> 3
<MEAN> 25
 3.928885e+00 -9.711061e+00 -5.082458e+00 -1.393482e+00 4.275452e+00 -4.177291e-01 1.119835e+00 4.485388e+00 6.744981e-01 -2.352762e+00 -5.232542e+00 3.553889e-01 -2.987095e-02 9.497474e-02 3.955807e-02 2.186964e-01 -2.957438e-01 -1.529467e-01 7.356229e-02 -9.015366e-02 -1.356762e-01 -1.552301e-01 3.003012e-01 -1.136059e-01 -1.413390e-01
<VARIANCE> 25
 3.017340e+01 6.311143e+01 3.751138e+01 5.213659e+01 6.651823e+01 6.205699e+01 3.303862e+01 4.181133e+01 3.424305e+01 3.487248e+01 6.895317e+01 2.921431e+01 1.686820e+00 3.482326e+00 1.739977e+00 2.580205e+00 3.263006e+00 3.167637e+00 2.868456e+00 2.773106e+00 2.599808e+00 2.381359e+00 4.437117e+00 2.623624e+00 2.790959e+00
<GCONST> 1.043127e+02
<STATE> 4
<MEAN> 25
 3.348806e+00 -8.113598e+00 -4.955721e+00 4.946263e-01 1.810739e+00 -2.125561e+00 1.462469e+00 3.722543e+00 1.668181e-01 -3.405867e+00 -3.113276e+00 2.400215e-01 -2.442738e-01 3.737201e-01 -2.923884e-02 1.879349e-01 -2.305634e-01 -1.058037e-02 8.975057e-02 -2.459753e-01 -3.873724e-03 -4.657450e-02 4.214247e-01 3.656526e-02 -4.162561e-01
<VARIANCE> 25
 3.297888e+01 5.528688e+01 3.930438e+01 4.219004e+01 7.271468e+01 7.748031e+01 3.528314e+01 4.198513e+01 3.512257e+01 3.461212e+01 6.735072e+01 2.809869e+01 1.524009e+00 3.355990e+00 1.761890e+00 2.552332e+00 3.259838e+00 3.269929e+00 2.945918e+00 3.474587e+00 2.659286e+00 2.517186e+00 4.377692e+00 2.519201e+00 2.525355e+00
<GCONST> 1.045107e+02
<TRANSP> 5
 0.000000e+00 1.000000e+00 0.000000e+00 0.000000e+00 0.000000e+00
 0.000000e+00 7.950941e-01 2.049059e-01 0.000000e+00 0.000000e+00
 0.000000e+00 0.000000e+00 7.442143e-01 2.557857e-01 0.000000e+00
 0.000000e+00 0.000000e+00 0.000000e+00 8.599309e-01 1.400692e-01
 0.000000e+00 0.000000e+00 0.000000e+00 0.000000e+00 0.000000e+00
<ENDHMM>
~h "uu"
<BEGINHMM>
<NUMSTATES> 5
<STATE> 2
<MEAN> 25
 8.642076e+00 1.014028e+01 -4.964442e+00 -4.756506e+00 -1.520199e+00 2.377370e+00 -3.841397e-01 -2.860757e+00 -4.121810e+00 -2.001372e+00 1.912229e+00 -3.705329e-01 -1.011881e-01 5.819951e-01 2.770843e-01 1.166442e-01 -3.507751e-01 -1.884830e-02 8.506717e-02 1.769532e-01 3.731686e-02 -2.657088e-01 1.167089e-01 8.379913e-02 -3.498514e-01
<VARIANCE> 25
