~o
<STREAMINFO> 1 25
<VECSIZE> 25<NULLD><MFCC_D_N_Z_0><DIAGC>
~s "silst"
<NUMMIXES> 19
<MIXTURE> 1 6.260830e-02
<MEAN> 25
 -1.028665e+01 5.738668e+00 -2.420050e+00 5.742310e+00 2.880899e+00 1.165480e+00 -3.274983e-01 3.994999e+00 5.245540e+00 5.625853e+00 1.017893e+01 3.573869e+00 3.150681e-01 4.788877e-01 6.407732e-01 5.739197e-01 4.881105e-01 3.501040e-01 3.190700e-01 7.388329e-02 -1.196465e-01 -2.907045e-01 -3.601391e-01 -3.372822e-01 1.881300e-01
<VARIANCE> 25
 2.732841e+00 4.112444e+00 8.008422e+00 8.610076e+00 9.937218e+00 1.245549e+01 1.153613e+01 1.199444e+01 1.287122e+01 1.084013e+01 1.106591e+01 1.062542e+01 7.613151e-02 1.815803e-01 2.943841e-01 5.310405e-01 7.531605e-01 9.679156e-01 1.129697e+00 1.163711e+00 1.223357e+00 1.124799e+00 1.166277e+00 1.099588e+00 7.546811e-02
<GCONST> 6.385770e+01
<MIXTURE> 2 4.572769e-02
<MEAN> 25
 -1.032125e+01 5.153337e+00 -2.581767e+00 5.463387e+00 3.120194e+00 2.021053e+00 2.229672e+00 7.665822e+00 9.096099e+00 8.835381e+00 1.184200e+01 4.229980e+00 5.787115e-02 1.175213e-01 1.824776e-01 1.639946e-01 1.255929e-01 1.069546e-01 2.206906e-01 3.293234e-01 3.790608e-01 2.475584e-01 1.660651e-01 1.005880e-01 3.499388e-02
<VARIANCE> 25
 2.645870e+00 4.852497e+00 8.320688e+00 8.838707e+00 1.311842e+01 1.164785e+01 1.032281e+01 1.189263e+01 1.162448e+01 9.431642e+00 1.127345e+01 1.062419e+01 8.003351e-02 1.709024e-01 2.841316e-01 4.420354e-01 5.724924e-01 7.055019e-01 8.962128e-01 1.123287e+00 1.133101e+00 1.071701e+00 1.060171e+00 1.031564e+00 3.919855e-02
<GCONST> 6.189750e+01
<MIXTURE> 3 6.568553e-02
<MEAN> 25
 -9.571404e+00 5.761708e+00 -2.410904e+00 4.776525e+00 1.328262e+00 -3.000489e-01 -1.220373e+00 3.910633e+00 5.905624e+00 5.394684e+00 9.429974e+00 2.510190e+00 -2.547396e-02 6.902560e-03 7.768827e-02 1.933017e-01 4.138688e-01 5.302898e-01 6.110075e-01 7.045873e-01 8.655301e-01 9.803989e-01 8.294610e-01 4.043558e-01 -1.232327e-02
<VARIANCE> 25
 2.679788e+00 4.754128e+00 7.229813e+00 7.512892e+00 1.094050e+01 1.031690e+01 9.735262e+00 1.033539e+01 9.535110e+00 9.233045e+00 1.149177e+01 1.099583e+01 6.547908e-02 1.473590e-01 2.410941e-01 3.511990e-01 5.172657e-01 7.296839e-01 8.858839e-01 1.054057e+00 9.006698e-01 7.970578e-01 9.074926e-01 9.517148e-01 3.257279e-02
<GCONST> 5.908598e+01
<MIXTURE> 4 5.381122e-02
<MEAN> 25
 -1.016546e+01 6.763831e+00 -1.236937e+00 7.239434e+00 4.415391e+00 3.768967e+00 1.982046e+00 5.059965e+00 5.173056e+00 4.112387e+00 8.229247e+00 2.208151e+00 1.220904e-01 3.593440e-02 5.418502e-02 -2.677672e-02 2.707765e-02 -1.751950e-01 -2.078614e-01 -2.696379e-01 -7.136844e-02 1.048135e-01 2.754107e-01 2.862120e-01 1.553752e-01
<VARIANCE> 25
 2.349519e+00 3.870857e+00 5.000688e+00 6.864275e+00 1.024082e+01 9.123440e+00 1.079593e+01 1.103185e+01 1.088971e+01 1.029744e+01 1.009267e+01 1.079644e+01 6.415077e-02 1.504645e-01 2.495230e-01 4.022766e-01 5.482872e-01 6.678690e-01 8.022202e-01 8.769239e-01 8.738695e-01 9.168352e-01 9.270557e-01 9.616613e-01 6.868911e-02
<GCONST> 5.910810e+01
<MIXTURE> 5 5.556306e-02
<MEAN> 25
 -8.788930e+00 7.475921e+00 -1.188977e+00 5.460477e+00 1.632760e+00 5.138562e-01 -1.135527e+00 2.848068e+00 5.122146e+00 3.788210e+00 7.527116e+00 9.027253e-01 1.900611e-01 4.490723e-01 6.225663e-01 5.936949e-01 4.124026e-01 3.374173e-01 4.066503e-01 4.489764e-01 3.922404e-01 2.220103e-01 1.263734e-02 -7.852802e-02 4.758290e-02
<VARIANCE> 25
 1.992645e+00 4.133246e+00 5.574719e+00 8.799696e+00 1.060370e+01 1.063232e+01 1.044242e+01 1.181297e+01 1.217061e+01 1.332521e+01 1.366229e+01 1.058782e+01 6.266139e-02 1.389093e-01 2.785056e-01 4.389793e-01 5.653792e-01 7.555977e-01 8.818770e-01 8.525062e-01 8.960281e-01 9.426838e-01 9.091049e-01 9.816254e-01 2.726231e-02
<GCONST> 5.968536e+01
<MIXTURE> 6 5.669302e-02
<MEAN> 25
 -9.069716e+00 6.890052e+00 -2.359274e+00 6.009411e+00 2.374106e+00 5.163637e-01 -3.542287e-01 4.746503e+00 7.221124e+00 6.755123e+00 1.058168e+01 2.743424e+00 -1.930862e-01 -3.339905e-01 -4.160956e-01 -4.597933e-01 -3.482541e-01 -2.325636e-01 -1.872284e-03 1.918561e-01 6.039922e-01 8.832113e-01 9.806936e-01 6.843692e-01 -4.193634e-02
<VARIANCE> 25
 2.387790e+00 5.244706e+00 7.833786e+00 8.676888e+00 9.861706e+00 1.138865e+01 1.000818e+01 1.232705e+01 1.045750e+01 9.927510e+00 1.182068e+01 1.063372e+01 8.109251e-02 1.707405e-01 2.645498e-01 4.513554e-01 6.097023e-01 8.253255e-01 9.737052e-01 9.536153e-01 1.004683e+00 1.059560e+00 9.010075e-01 9.373855e-01 5.261521e-02
<GCONST> 6.148957e+01
<MIXTURE> 7 3.618050e-02
<MEAN> 25
 -8.507863e+00 7.459038e+00 -2.911699e+00 4.264239e+00 -8.142554e-01 -1.119435e+00 -1.584204e+00 5.997632e+00 9.180325e+00 8.952386e+00 1.159214e+01 3.079478e+00 1.030370e-02 -9.261903e-02 2.520050e-01 7.200303e-02 5.695400e-01 3.619639e-01 6.264355e-01 4.607437e-01 4.834341e-01 3.954241e-01 3.295418e-01 3.145765e-01 2.869244e-01
<VARIANCE> 25
 3.988248e+00 7.150216e+00 1.168216e+01 1.164701e+01 1.612490e+01 1.319290e+01 1.376148e+01 1.439805e+01 1.393741e+01 1.329178e+01 1.421270e+01 1.160641e+01 1.992561e-01 3.496943e-01 5.256069e-01 9.416047e-01 1.190374e+00 1.256548e+00 1.148645e+00 1.231553e+00 1.356423e+00 1.226351e+00 1.144400e+00 1.145274e+00 1.310381e-01
<GCONST> 7.131635e+01
<MIXTURE> 8 4.984414e-02
<MEAN> 25
 -8.851161e+00 7.924286e+00 -1.073990e+00 5.690121e+00 1.238897e+00 -2.033420e-01 -2.903773e+00 4.907619e-01 2.954931e+00 3.203999e+00 8.028303e+00 1.904019e+00 1.536306e-01 1.107099e-01 1.256551e-01 -8.088792e-02 -9.128310e-02 -1.911163e-01 -7.244410e-03 1.670067e-01 4.322414e-01 5.174174e-01 4.846690e-01 2.853076e-01 1.761716e-01
<VARIANCE> 25
 2.467104e+00 5.272006e+00 7.231657e+00 8.049610e+00 1.005755e+01 1.097467e+01 1.085737e+01 9.976830e+00 9.905926e+00 1.150589e+01 1.124965e+01 1.071233e+01 9.731989e-02 2.130913e-01 3.241410e-01 5.281233e-01 7.004589e-01 8.064151e-01 1.046525e+00 1.141846e+00 1.270963e+00 9.764172e-01 1.019438e+00 1.160892e+00 9.515227e-02
<GCONST> 6.349146e+01
<MIXTURE> 9 6.674920e-02
<MEAN> 25
 -9.730495e+00 6.944561e+00 -6.925454e-01 6.337140e+00 3.418908e+00 2.671376e+00 7.786924e-01 2.865128e+00 3.194598e+00 2.068504e+00 6.714735e+00 9.790660e-01 -1.087739e-01 -1.112334e-01 -2.232185e-02 1.385665e-01 2.961649e-01 5.333945e-01 6.202803e-01 6.274704e-01 5.557433e-01 4.196948e-01 3.658683e-01 2.322577e-01 -5.695218e-02
<VARIANCE> 25
 2.823825e+00 3.684457e+00 5.761329e+00 7.834822e+00 9.688572e+00 1.040951e+01 1.301970e+01 1.308847e+01 1.264471e+01 1.048304e+01 1.136237e+01 1.181352e+01 6.468991e-02 1.602036e-01 2.806125e-01 4.814532e-01 6.591675e-01 7.280105e-01 8.246670e-01 9.570609e-01 1.038462e+00 9.857526e-01 9.688491e-01 1.112323e+00 2.652059e-02
<GCONST> 6.056359e+01
<MIXTURE> 10 5.370494e-02
<MEAN> 25
 -9.442030e+00 6.653376e+00 -1.573650e+00 5.673010e+00 2.645441e+00 9.251566e-01 -7.747213e-01 3.173510e+00 4.715304e+00 4.396659e+00 8.835101e+00 2.310434e+00 -2.009174e-01 -2.529132e-01 -3.202237e-01 -3.262690e-01 -5.105362e-01 -8.107810e-01 -1.136164e+00 -1.148740e+00 -8.250656e-01 -3.704230e-01 -1.220478e-01 -3.133306e-02 -9.347495e-02
<VARIANCE> 25
 2.538467e+00 5.178510e+00 7.140706e+00 7.854846e+00 9.286386e+00 1.085615e+01 9.147248e+00 1.183496e+01 1.173780e+01 1.149364e+01 1.264582e+01 1.117917e+01 7.656974e-02 1.933499e-01 3.506728e-01 5.571700e-01 7.137302e-01 7.313904e-01 7.493662e-01 8.519631e-01 1.013405e+00 1.068914e+00 1.139122e+00 9.856505e-01 2.998962e-02
<GCONST> 6.144819e+01
<MIXTURE> 11 6.771824e-02
<MEAN> 25
 -8.627038e+00 7.117802e+00 -2.809403e+00 4.337636e+00 -7.229280e-01 -1.447284e+00 -1.930405e+00 4.843329e+00 8.279228e+00 8.118686e+00 1.098238e+01 2.581055e+00 1.733979e-01 1.302222e-01 1.519204e-01 -9.796610e-02 -1.669631e-01 -3.417017e-01 -3.837256e-01 -6.156377e-01 -6.915056e-01 -7.551340e-01 -6.613354e-01 -4.483711e-01 1.891683e-01
<VARIANCE> 25
 3.192471e+00 6.614707e+00 9.724710e+00 1.010068e+01 1.332044e+01 1.232779e+01 1.174049e+01 1.405198e+01 1.106669e+01 1.161311e+01 1.267629e+01 1.106570e+01 1.082544e-01 2.582048e-01 3.978433e-01 6.165543e-01 7.168090e-01 9.559962e-01 1.033534e+00 1.135897e+00 1.101666e+00 1.051518e+00 9.903048e-01 9.799658e-01 7.664780e-02
<GCONST> 6.593930e+01
<MIXTURE> 12 4.191094e-02
<MEAN> 25
 -8.690810e+00 7.278921e+00 -1.456151e+00 5.525604e+00 1.791576e+00 3.845543e-01 -4.887573e-01 3.766321e+00 5.871686e+00 4.721758e+00 8.752826e+00 2.057865e+00 7.157377e-02 1.939826e-01 3.608993e-01 5.493791e-01 5.564219e-01 4.056822e-01 9.459339e-02 -2.817565e-01 -5.706202e-01 -5.394773e-01 -3.073715e-01 -1.080831e-01 1.860609e-02
<VARIANCE> 25
 2.135864e+00 4.412792e+00 6.886631e+00 7.271327e+00 8.421634e+00 9.031694e+00 9.598942e+00 1.079243e+01 1.145615e+01 9.878916e+00 1.065147e+01 9.655334e+00 5.328435e-02 1.325289e-01 2.381554e-01 3.284629e-01 5.214046e-01 7.541651e-01 8.977070e-01 9.027662e-01 8.031427e-01 8.983226e-01 8.962054e-01 1.002343e+00 2.043024e-02
<GCONST> 5.746877e+01
<MIXTURE> 13 6.157542e-02
<MEAN> 25
 -9.250154e+00 6.652684e+00 -1.218898e+00 5.558562e+00 1.969929e+00 4.405551e-01 -9.342973e-01 2.231647e+00 3.304726e+00 2.129784e+00 6.943160e+00 1.225372e+00 -2.187226e-01 -3.344837e-01 -4.228781e-01 -3.230869e-01 -1.583533e-01 2.080272e-01 4.663665e-01 5.057360e-01 1.804046e-01 -1.949238e-01 -3.350093e-01 -2.819745e-01 -9.685343e-02
<VARIANCE> 25
 2.357628e+00 4.443259e+00 6.055414e+00 7.452200e+00 8.228139e+00 9.783223e+00 9.782365e+00 1.079013e+01 1.039466e+01 1.011810e+01 1.205533e+01 1.285954e+01 6.521067e-02 1.598920e-01 2.628845e-01 4.162353e-01 6.768321e-01 7.347791e-01 8.407169e-01 8.425676e-01 9.632974e-01 9.703007e-01 9.731012e-01 9.666592e-01 2.737085e-02
<GCONST> 5.930584e+01
<MIXTURE> 14 7.335096e-02
<MEAN> 25
 -1.007719e+01 5.185131e+00 -2.559972e+00 4.951103e+00 2.435120e+00 8.969450e-01 4.245389e-01 5.724053e+00 7.636829e+00 7.432892e+00 1.090091e+01 3.689619e+00 -9.727583e-02 -1.422000e-01 -2.267386e-01 -2.645272e-01 -2.727924e-01 -1.944102e-01 -1.383966e-01 -1.682233e-01 -1.993792e-01 -3.307962e-01 -4.438056e-01 -2.650181e-01 -4.192521e-02
<VARIANCE> 25
 2.565884e+00 4.264659e+00 8.801756e+00 8.203127e+00 1.221336e+01 1.213307e+01 1.091680e+01 1.063044e+01 1.012875e+01 8.919978e+00 1.039966e+01 1.192280e+01 5.785203e-02 1.423710e-01 2.646809e-01 4.264060e-01 5.692982e-01 7.542472e-01 8.709614e-01 9.480601e-01 8.867899e-01 8.584120e-01 8.897293e-01 8.989169e-01 2.374329e-02
<GCONST> 5.944110e+01
<MIXTURE> 15 3.932414e-02
<MEAN> 25
 -9.116912e+00 6.342937e+00 -2.129641e+00 4.648924e+00 9.677758e-01 -5.074667e-01 -1.277608e+00 3.681145e+00 5.916852e+00 5.140262e+00 8.822144e+00 2.006218e+00 -3.233493e-01 -5.657977e-01 -7.271146e-01 -7.818270e-01 -6.804981e-01 -5.609161e-01 -3.177749e-01 -1.809657e-03 1.682746e-01 2.789400e-01 4.782783e-01 4.301209e-01 -1.033332e-01
<VARIANCE> 25
 2.807898e+00 5.151058e+00 8.852596e+00 8.393221e+00 1.206486e+01 1.184803e+01 1.249258e+01 1.268537e+01 1.173569e+01 1.096517e+01 1.224131e+01 1.082522e+01 8.322268e-02 1.601370e-01 3.099164e-01 4.662714e-01 6.985345e-01 8.028954e-01 9.646391e-01 8.841000e-01 9.254272e-01 1.022988e+00 9.630654e-01 1.071219e+00 4.129630e-02
<GCONST> 6.249831e+01
<MIXTURE> 16 5.470974e-02
<MEAN> 25
 -1.014087e+01 6.314550e+00 -1.203821e+00 6.122187e+00 3.933031e+00 2.917428e+00 1.008218e+00 3.324404e+00 3.384575e+00 2.412552e+00 6.901530e+00 1.524426e+00 4.306226e-02 -3.971309e-02 -7.455862e-02 -2.106718e-01 -3.116837e-01 -4.544179e-01 -5.764807e-01 -6.314731e-01 -4.876353e-01 -3.563235e-01 -2.427833e-01 -1.056252e-01 7.304545e-02
<VARIANCE> 25
 2.316966e+00 3.882169e+00 5.443789e+00 7.367000e+00 9.109941e+00 8.858982e+00 1.091466e+01 1.116764e+01 1.183460e+01 1.155805e+01 1.073120e+01 1.076978e+01 6.959487e-02 1.611719e-01 2.810911e-01 4.589035e-01 5.532333e-01 5.775667e-01 8.004746e-01 8.175933e-01 1.015855e+00 1.009705e+00 1.018179e+00 1.030219e+00 4.394387e-02
<GCONST> 5.954245e+01
<MIXTURE> 17 3.728446e-02
<MEAN> 25
 -9.194448e+00 6.476994e+00 -1.917282e+00 3.917343e+00 -1.143009e-01 -1.608411e+00 -3.930632e+00 -6.781908e-01 1.899676e+00 1.996502e+00 6.588376e+00 8.116927e-01 -1.291580e-03 -1.286782e-02 -6.560237e-02 -1.696795e-01 -2.943890e-01 -3.557675e-01 -3.250617e-01 -2.559702e-01 -8.775104e-02 -6.205964e-02 -7.927768e-02 -1.033403e-01 1.630221e-02
<VARIANCE> 25
 3.052437e+00 5.853125e+00 6.749633e+00 7.557145e+00 1.001567e+01 1.009935e+01 1.049383e+01 9.884306e+00 1.107192e+01 1.126174e+01 1.281787e+01 1.119943e+01 8.275935e-02 2.000275e-01 3.294093e-01 5.895709e-01 7.995121e-01 8.767801e-01 9.917983e-01 1.025668e+00 1.101389e+00 9.803345e-01 1.029878e+00 1.030307e+00 5.549589e-02
<GCONST> 6.297920e+01
<MIXTURE> 18 3.816402e-02
<MEAN> 25
 -9.140434e+00 6.465981e+00 -2.223213e+00 4.531736e+00 8.546840e-01 -7.756200e-01 -1.720112e+00 2.498605e+00 4.343908e+00 3.358950e+00 7.427627e+00 9.526260e-01 -3.314123e-03 8.783671e-02 1.953769e-01 3.321429e-01 2.549732e-01 2.811000e-02 -3.017427e-01 -6.161541e-01 -8.922880e-01 -8.934783e-01 -7.213754e-01 -4.514714e-01 -2.719732e-02
<VARIANCE> 25
 2.192830e+00 4.441658e+00 6.882566e+00 7.688425e+00 8.571284e+00 9.004260e+00 9.752733e+00 1.117249e+01 1.136452e+01 1.066041e+01 1.082357e+01 1.020531e+01 5.637855e-02 1.445076e-01 2.416060e-01 3.326149e-01 5.332398e-01 7.566794e-01 8.764037e-01 9.427645e-01 8.530180e-01 8.973220e-01 9.533303e-01 1.004790e+00 2.094472e-02
<GCONST> 5.812468e+01
<MIXTURE> 19 3.934779e-02
<MEAN> 25
 -8.675472e+00 6.575436e+00 -3.551890e+00 2.933038e+00 -2.033087e+00 -2.970579e+00 -2.973087e+00 4.442586e+00 7.847368e+00 7.568270e+00 1.013720e+01 2.210651e+00 -1.759310e-01 -3.616753e-01 -4.701693e-02 -2.692051e-01 2.014020e-01 2.855827e-02 1.939909e-01 4.196931e-02 8.437498e-02 -2.884642e-02 -8.472489e-02 -1.695107e-03 1.883152e-01
<VARIANCE> 25
 4.314417e+00 7.271040e+00 1.182607e+01 1.139656e+01 1.697251e+01 1.292692e+01 1.424087e+01 1.474957e+01 1.462226e+01 1.314739e+01 1.490214e+01 1.144600e+01 1.873780e-01 3.456466e-01 5.627898e-01 9.476848e-01 1.172040e+00 1.278148e+00 1.194396e+00 1.272240e+00 1.367620e+00 1.240725e+00 1.231510e+00 1.106766e+00 1.347925e-01
<GCONST> 7.172402e+01
~h "a"
<BEGINHMM>
<NUMSTATES> 5
<STATE> 2
<NUMMIXES> 19
<MIXTURE> 1 3.596552e-02
<MEAN> 25
 -4.785709e+00 -3.951303e+00 -8.354064e-01 -3.072315e+00 3.367807e-01 -4.393491e+00 1.950450e+00 3.338632e+00 5.123596e+00 2.092011e+00 7.875321e-01 6.585392e+00 8.923252e-01 -2.591039e+00 -1.962495e+00 -4.169286e-01 3.699324e+00 3.076218e-01 2.032576e-01 1.686236e+00 2.533747e-01 -8.370740e-01 -1.979262e+00 4.007346e-01 1.902097e+00
<VARIANCE> 25
 2.028476e+01 5.236028e+01 6.030541e+01 9.156911e+01 7.550758e+01 5.236377e+01 5.462740e+01 4.928659e+01 3.616495e+01 5.577419e+01 7.418515e+01 3.662867e+01 2.261084e+00 3.993039e+00 4.435301e+00 5.714236e+00 7.058342e+00 5.815774e+00 4.556861e+00 6.162213e+00 4.029539e+00 6.722958e+00 4.356070e+00 3.905435e+00 4.044610e+00
<GCONST> 1.132422e+02
<MIXTURE> 2 7.175566e-02
<MEAN> 25
 9.085278e+00 -1.103520e+01 -6.873738e+00 -2.844967e+00 5.436567e+00 -2.825135e+00 -1.950748e+00 7.223919e+00 3.281621e+00 -5.609604e-01 -1.177851e+01 -3.428902e+00 -6.800699e-01 -1.397780e+00 1.807408e+00 4.720404e-01 -7.717275e-01 -1.175490e+00 2.414756e+00 2.257900e+00 -9.797990e-01 -1.998575e+00 -4.799592e-01 2.117094e+00 7.749441e-01
<VARIANCE> 25
 4.768342e+00 1.937491e+01 2.057826e+01 3.167813e+01 2.818056e+01 3.192303e+01 2.701321e+01 2.390714e+01 3.301067e+01 4.489508e+01 2.413281e+01 2.706140e+01 2.410620e-01 7.612578e-01 1.206536e+00 1.868190e+00 2.229024e+00 2.023085e+00 2.634847e+00 2.054821e+00 2.286233e+00 2.551941e+00 2.240674e+00 2.083474e+00 2.509679e-01
<GCONST> 8.824267e+01
<MIXTURE> 3 3.678141e-02
<MEAN> 25
 -3.057322e+00 -2.429250e+00 -5.523319e+00 3.186271e+00 1.113292e+00 -1.706978e+00 1.742020e+00 3.012421e+00 5.845245e+00 -2.666910e-01 5.965573e+00 2.608326e+00 -9.117844e-01 1.688958e-01 6.595977e-02 2.670790e-01 6.454897e-01 3.947442e-01 5.486042e-01 7.398472e-01 1.188192e+00 9.144371e-01 7.332588e-01 6.806604e-01 -7.941226e-01
<VARIANCE> 25
 3.287880e+01 4.789138e+01 4.912114e+01 5.063297e+01 5.153324e+01 6.396285e+01 7.153119e+01 6.055223e+01 4.635564e+01 4.845062e+01 5.432848e+01 2.895770e+01 9.989560e-01 1.599136e+00 2.016141e+00 1.726758e+00 2.833612e+00 2.682868e+00 2.891769e+00 2.541828e+00 2.439479e+00 2.276730e+00 2.363673e+00 1.979716e+00 6.201012e-01
<GCONST> 1.011984e+02
<MIXTURE> 4 4.247034e-02
<MEAN> 25
 -7.371889e-01 -8.331473e+00 -7.934791e+00 -2.141376e+00 1.150228e+01 3.608879e+00 -5.827010e-01 8.740627e+00 4.738332e+00 1.658820e-01 -3.120416e+00 2.930979e+00 2.700395e+00 -3.669585e+00 4.592924e-01 -2.565698e+00 2.129760e+00 1.814110e-02 -6.145081e-02 1.109029e+00 -1.838757e+00 -7.965956e-01 -2.781039e+00 -4.244838e-01 5.009657e+00
<VARIANCE> 25
 2.262909e+01 3.895240e+01 3.212594e+01 4.991660e+01 3.972228e+01 3.587362e+01 2.988398e+01 2.360634e+01 4.055918e+01 3.669342e+01 4.028471e+01 2.666730e+01 2.140135e+00 4.337194e+00 4.316894e+00 4.543270e+00 5.942370e+00 4.794167e+00 3.884371e+00 3.946203e+00 4.803284e+00 5.052524e+00 4.402136e+00 3.243129e+00 4.341264e+00
<GCONST> 1.068135e+02
<MIXTURE> 5 3.663620e-02
<MEAN> 25
 3.449803e+00 -1.972222e+00 1.062715e+01 -1.125978e+01 -7.695600e+00 -3.963889e-01 7.093956e-01 -4.833755e+00 -1.479489e+00 3.948157e+00 -5.779437e+00 2.014286e+00 -6.409454e-02 5.218728e-01 -1.830059e-01 3.995243e-01 1.178480e-01 -1.363134e-01 1.094554e-01 2.577991e-01 3.388807e-01 7.685649e-02 1.749275e-02 2.355481e-01 -5.013953e-01
<VARIANCE> 25
 8.641723e+00 7.103648e+01 2.222549e+01 4.619804e+01 3.478764e+01 5.200488e+01 5.644929e+01 4.470806e+01 3.320515e+01 3.422509e+01 2.349339e+01 2.963358e+01 6.256859e-01 1.292829e+00 1.237476e+00 2.812703e+00 1.942291e+00 2.477677e+00 2.564805e+00 2.264691e+00 2.436482e+00 3.011990e+00 2.551846e+00 1.837341e+00 7.392748e-01
<GCONST> 9.581815e+01
<MIXTURE> 6 5.223024e-02
<MEAN> 25
 7.617314e+00 -1.125445e+01 -1.287870e+00 -3.952565e+00 -1.535004e+00 -6.810601e+00 4.087425e+00 8.189832e+00 1.510189e+00 -7.155831e-01 -7.807541e+00 2.293266e+00 1.007036e-01 -7.235768e-01 -1.552071e-02 -4.181890e-01 8.946224e-01 4.408232e-01 1.029217e+00 1.068018e+00 -2.769131e-01 7.852273e-01 -1.147707e+00 -2.473013e-01 4.175143e-01
<VARIANCE> 25
 3.482380e+00 1.061887e+01 1.324499e+01 1.566858e+01 3.340152e+01 2.064846e+01 2.905284e+01 2.426265e+01 1.634330e+01 2.574230e+01 2.397319e+01 2.001998e+01 4.345031e-01 1.046089e+00 1.577207e+00 1.501530e+00 2.390386e+00 2.089943e+00 2.921751e+00 2.044606e+00 2.068471e+00 2.303811e+00 2.071702e+00 2.060382e+00 3.988664e-01
<GCONST> 8.576560e+01
<MIXTURE> 7 7.772335e-02
<MEAN> 25
 6.666218e+00 -6.620777e+00 1.302952e+00 1.010698e+00 -5.819131e+00 -8.464903e+00 -2.580389e+00 2.911509e+00 -2.255664e+00 -3.108992e+00 -3.294436e+00 6.050546e-01 -1.445437e-01 2.257885e+00 -8.046377e-01 2.215506e+00 5.703143e-01 -1.179541e-02 -4.098810e-01 -8.904958e-01 3.560015e-01 -7.294094e-01 2.039366e-01 -3.607752e-01 -1.872265e+00
<VARIANCE> 25
 5.459692e+00 1.921270e+01 2.303027e+01 3.010271e+01 3.420193e+01 2.653782e+01 4.480510e+01 2.503643e+01 3.656913e+01 4.007207e+01 2.581965e+01 2.662039e+01 4.904006e-01 9.182326e-01 1.077195e+00 1.340345e+00 1.939262e+00 2.358356e+00 3.091791e+00 2.226941e+00 2.140707e+00 2.149308e+00 2.136659e+00 2.168294e+00 3.529074e-01
<GCONST> 8.983455e+01
<MIXTURE> 8 7.840477e-02
<MEAN> 25
 3.699098e+00 6.189858e+00 1.855133e+00 7.344270e+00 -1.511154e+00 -3.876998e+00 -3.811234e+00 -4.219046e+00 -4.674215e+00 -5.931831e+00 -7.631127e-02 -1.809837e+00 -1.561152e+00 3.221552e-01 -6.479810e-02 6.405523e-01 1.451318e+00 1.446663e-01 -2.196891e-01 7.455733e-01 4.072674e-01 1.673959e-01 1.118956e+00 1.148428e-02 -1.272732e+00
<VARIANCE> 25
 1.341824e+01 4.435983e+01 3.214556e+01 2.492164e+01 3.723343e+01 3.591564e+01 4.307837e+01 3.948349e+01 2.842723e+01 2.819165e+01 2.994578e+01 2.526294e+01 4.101084e-01 1.904420e+00 1.634367e+00 1.912987e+00 2.153811e+00 2.960777e+00 2.588420e+00 2.383189e+00 2.412085e+00 2.773768e+00 2.319761e+00 2.211460e+00 3.829245e-01
<GCONST> 9.411514e+01
<MIXTURE> 9 7.487825e-02
<MEAN> 25
 2.562831e+00 -1.421684e+00 2.777096e-01 -4.550207e-01 -1.934371e+00 -5.068384e+00 -1.269255e+00 -1.567635e+00 -9.879992e-01 -1.911835e+00 5.602336e-01 1.506025e-01 6.464131e-01 -2.422530e-01 9.516224e-01 -5.208211e-01 -5.704052e-01 -2.345051e-01 -1.571111e-01 -5.900548e-01 -3.119667e-01 4.649630e-01 -5.791289e-01 -2.890860e-01 8.669908e-01
<VARIANCE> 25
 4.151606e+01 4.523811e+01 6.760502e+01 7.249894e+01 7.199799e+01 5.963258e+01 6.527126e+01 4.873475e+01 4.079791e+01 5.631582e+01 4.149234e+01 3.648110e+01 6.550350e+00 6.264280e+00 4.953744e+00 7.401989e+00 6.561732e+00 6.077145e+00 8.193364e+00 5.147832e+00 4.459983e+00 5.553267e+00 6.024660e+00 3.372878e+00 1.702298e+00
<GCONST> 1.149710e+02
<MIXTURE> 10 4.913993e-02
<MEAN> 25
 5.216545e+00 -1.456384e+01 1.324871e+00 -5.180333e+00 3.534049e+00 -1.975483e+00 2.825558e-01 7.597690e+00 -7.514515e+00 -8.526473e+00 -7.517061e+00 -9.042065e-01 -2.146394e-01 -1.190596e+00 1.114803e-01 -6.065407e-01 1.861401e+00 6.604612e-01 3.959492e-01 1.244749e+00 -1.185113e+00 -3.202390e-01 -7.245132e-01 2.089238e-01 5.990872e-01
<VARIANCE> 25
 4.588418e+00 1.291019e+01 2.121197e+01 2.295762e+01 5.265350e+01 2.570227e+01 3.530550e+01 2.406584e+01 3.103992e+01 3.680441e+01 2.769837e+01 2.711577e+01 4.985062e-01 8.838006e-01 2.346919e+00 2.499645e+00 2.653075e+00 2.839927e+00 2.581633e+00 2.913884e+00 3.072598e+00 3.746939e+00 1.967466e+00 2.628543e+00 3.437366e-01
<GCONST> 9.183997e+01
<MIXTURE> 11 4.962977e-02
<MEAN> 25
 9.271804e+00 -1.015952e+01 -8.504941e+00 8.218043e-02 2.871156e+00 -2.740155e+00 4.413926e+00 6.094563e+00 3.421462e+00 -5.293705e+00 -1.109337e+01 1.046564e+00 3.814876e-01 -5.498031e-01 9.685060e-04 -7.913634e-02 1.154957e+00 7.975996e-01 5.136586e-01 1.082698e+00 -2.792203e-01 1.060712e+00 -8.660230e-01 -4.624085e-01 2.688043e-01
<VARIANCE> 25
 4.031517e+00 1.176625e+01 1.473524e+01 2.237070e+01 2.992852e+01 2.598922e+01 2.571703e+01 2.169971e+01 2.839301e+01 4.328653e+01 1.890691e+01 1.953948e+01 3.292097e-01 1.229194e+00 1.337854e+00 1.321706e+00 2.886111e+00 3.115190e+00 2.336673e+00 2.680461e+00 2.584804e+00 2.761953e+00 2.438668e+00 2.075059e+00 3.849204e-01
<GCONST> 8.793972e+01
<MIXTURE> 12 4.207588e-02
<MEAN> 25
 -7.210664e+00 1.356880e+00 -5.795035e-01 3.897388e+00 1.572697e+00 -2.562141e+00 3.445314e+00 1.283963e+00 2.841932e+00 1.425545e+00 7.496698e+00 1.146622e+00 1.489794e-01 8.945925e-01 3.703710e-01 9.772897e-01 7.602336e-01 5.549938e-01 -2.882858e-02 2.700072e-01 -4.598135e-02 -7.871471e-02 -2.648913e-01 -1.202994e-01 -1.152801e+00
<VARIANCE> 25
 4.306994e+01 4.722152e+01 6.100597e+01 3.916707e+01 6.111538e+01 5.160525e+01 4.686626e+01 5.061255e+01 3.374743e+01 3.440291e+01 3.090443e+01 2.431544e+01 2.159106e+00 2.246807e+00 3.238935e+00 2.151925e+00 2.826651e+00 2.643655e+00 2.413318e+00 2.608606e+00 2.289775e+00 2.241328e+00 1.823831e+00 1.803347e+00 8.999978e-01
<GCONST> 1.009430e+02
<MIXTURE> 13 7.012269e-02
<MEAN> 25
 7.210382e+00 -5.243187e-01 1.518193e-01 4.520844e+00 -3.788939e+00 -5.906670e+00 -3.019942e+00 -3.157522e+00 -3.267061e+00 -4.512232e+00 -2.994717e+00 -6.118395e-01 -9.001161e-02 9.102229e-01 -2.337198e-02 -7.686426e-02 1.222779e-01 3.477899e-01 1.681114e-01 -3.073123e-01 -6.867669e-02 3.183492e-03 2.935460e-02 -2.141947e-01 -4.889854e-01
<VARIANCE> 25
 6.907796e+00 3.957521e+01 3.295409e+01 4.431118e+01 4.578247e+01 4.703701e+01 4.644829e+01 4.896564e+01 3.990044e+01 4.245143e+01 3.288907e+01 4.562394e+01 2.829278e-01 9.106987e-01 1.321657e+00 1.415238e+00 1.573654e+00 2.041582e+00 1.746934e+00 2.103167e+00 1.671422e+00 1.977354e+00 2.006060e+00 1.741293e+00 2.248684e-01
<GCONST> 9.168925e+01
<MIXTURE> 14 5.232913e-02
<MEAN> 25
 5.410979e+00 -1.367010e+01 2.746411e+00 -8.626559e+00 -5.693012e-01 -9.554407e+00 2.058721e+00 7.793125e+00 -2.739254e+00 -1.419785e-01 -8.634142e+00 2.894454e+00 7.245039e-04 -1.802452e+00 8.320237e-01 -1.550301e+00 9.954257e-01 1.472403e-01 1.229880e+00 1.486854e+00 -1.177982e+00 4.994759e-01 -1.747514e+00 1.130919e-01 1.249297e+00
<VARIANCE> 25
 4.086618e+00 9.190877e+00 1.570829e+01 1.450822e+01 2.556785e+01 1.547019e+01 2.103468e+01 2.014409e+01 2.297915e+01 2.607358e+01 2.482363e+01 1.761974e+01 6.546358e-01 1.428874e+00 2.068219e+00 1.819712e+00 2.261814e+00 2.570974e+00 2.826800e+00 2.405683e+00 2.818653e+00 2.266093e+00 2.716394e+00 1.693892e+00 6.299140e-01
<GCONST> 8.736192e+01
<MIXTURE> 15 5.940273e-02
<MEAN> 25
 5.681089e+00 -1.543363e+01 -4.348199e+00 -9.811279e+00 9.408791e+00 -1.627678e+00 -1.921102e+00 8.155259e+00 -1.152180e+00 -1.053930e+00 -1.113744e+01 2.441762e-01 1.653249e+00 -2.124079e+00 9.256640e-01 -1.866249e+00 2.498638e-01 -7.237883e-01 2.992739e-01 6.139236e-01 -1.562343e+00 -2.537034e-01 -2.006598e+00 -1.076367e+00 3.143367e+00
<VARIANCE> 25
 1.012557e+01 1.618562e+01 1.859833e+01 3.608107e+01 4.631338e+01 4.518279e+01 2.755479e+01 2.277263e+01 3.338285e+01 4.743988e+01 2.402980e+01 2.860559e+01 1.566203e+00 1.798049e+00 2.614903e+00 2.463663e+00 4.295926e+00 3.495781e+00 2.848288e+00 2.830906e+00 2.651032e+00 3.189373e+00 2.639353e+00 2.383049e+00 1.827013e+00
<GCONST> 9.781438e+01
<MIXTURE> 16 4.931433e-02
<MEAN> 25
 8.197295e+00 -1.099933e+01 -6.964383e+00 -3.670186e+00 7.335353e+00 -1.448763e-01 -7.463783e-02 4.747468e+00 -1.739954e+00 -2.764575e+00 -9.593637e+00 -3.684559e+00 1.195339e-02 -2.474016e-01 -2.285812e-01 -4.173034e-01 1.683105e+00 3.713057e-01 6.499893e-03 4.226851e-01 -8.202524e-01 4.757349e-01 -8.924400e-01 -3.341757e-01 1.606174e-01
<VARIANCE> 25
 4.756976e+00 2.241782e+01 2.173407e+01 3.657986e+01 4.278247e+01 3.993006e+01 4.160041e+01 3.491174e+01 3.487339e+01 7.104443e+01 2.700464e+01 3.049300e+01 3.882966e-01 1.030048e+00 1.718099e+00 1.581483e+00 3.611494e+00 3.129847e+00 2.713957e+00 2.274535e+00 2.727786e+00 2.865167e+00 2.350672e+00 2.342832e+00 2.930790e-01
<GCONST> 9.341087e+01
<MIXTURE> 17 4.243610e-02
<MEAN> 25
 3.080591e+00 -7.895220e+00 1.096052e+01 -1.125586e+01 -8.588741e+00 -4.157430e+00 3.597775e+00 -3.829662e+00 -5.005432e+00 5.803318e+00 -6.289959e+00 1.128420e+00 4.348819e-02 1.167718e+00 -6.179900e-01 1.330019e+00 1.226477e-03 -1.480428e-02 -2.818778e-01 -7.184572e-01 -1.872192e-02 -8.583596e-01 -2.488310e-01 2.683804e-02 -1.048538e+00
<VARIANCE> 25
 6.769054e+00 2.413250e+01 1.495552e+01 2.248870e+01 1.743202e+01 2.457816e+01 2.224128e+01 2.801828e+01 2.496397e+01 2.531417e+01 1.858708e+01 1.558081e+01 2.992840e-01 1.385731e+00 8.410094e-01 1.515491e+00 1.129835e+00 2.041715e+00 2.477544e+00 1.904636e+00 1.299035e+00 1.882912e+00 1.945012e+00 1.419412e+00 6.059095e-01
<GCONST> 8.463202e+01
<MIXTURE> 18 3.947235e-02
<MEAN> 25
 -6.900216e+00 7.061546e-01 -6.412887e-01 2.813195e+00 3.060807e-01 -4.425996e+00 2.059654e+00 1.268470e-01 1.579214e+00 -5.117934e-01 6.102862e+00 2.777930e-01 -2.425238e-02 7.803395e-01 -4.609287e-02 7.123744e-01 5.041340e-01 2.229635e-01 -3.968520e-01 -9.209429e-02 -4.925930e-01 -4.786719e-01 -6.222605e-01 -4.877017e-01 -1.294384e+00
<VARIANCE> 25
 3.849318e+01 5.197147e+01 5.982681e+01 4.130661e+01 6.347921e+01 4.649503e+01 4.817266e+01 5.187576e+01 3.505188e+01 3.798212e+01 3.314633e+01 2.693473e+01 2.177198e+00 1.873166e+00 2.949648e+00 2.020690e+00 2.725046e+00 2.563890e+00 2.416605e+00 2.341448e+00 2.295295e+00 2.175644e+00 1.911978e+00 1.787436e+00 8.191549e-01
<GCONST> 1.006681e+02
<MIXTURE> 19 3.923226e-02
<MEAN> 25
 -2.757032e+00 -3.372236e+00 -5.960446e+00 2.575001e+00 4.353718e-01 -2.883595e+00 -2.699553e-01 1.709461e+00 4.631026e+00 -1.980260e+00 3.930934e+00 1.238422e+00 -1.105111e+00 6.273149e-02 -3.119458e-01 -1.196884e-02 3.597893e-01 7.172748e-02 2.037057e-01 3.808443e-01 7.824052e-01 4.296245e-01 4.054857e-01 2.175983e-01 -9.147547e-01
<VARIANCE> 25
 2.658201e+01 4.876864e+01 5.134455e+01 4.975887e+01 4.998025e+01 6.545333e+01 7.288314e+01 6.290614e+01 4.929115e+01 5.158521e+01 5.591613e+01 3.087403e+01 9.976314e-01 1.649720e+00 1.801018e+00 1.748929e+00 2.760316e+00 2.509674e+00 2.519066e+00 2.609360e+00 2.268410e+00 2.186889e+00 2.256442e+00 2.067647e+00 5.976196e-01
<GCONST> 1.008692e+02
<STATE> 3
<NUMMIXES> 19
<MIXTURE> 1 4.535661e-02
<MEAN> 25
 -6.449808e+00 -1.369282e-01 -5.118561e+00 6.910758e+00 3.357284e+00 -2.547161e+00 1.154239e+00 2.792997e+00 4.860304e+00 -2.010078e-01 7.249689e+00 2.499534e+00 -3.412436e-01 1.608501e+00 5.503014e-01 4.369050e-01 1.322491e-01 6.219831e-01 -2.740309e-01 7.213261e-01 8.617644e-02 3.664856e-01 -3.969542e-01 -1.552477e-01 -1.674036e+00
<VARIANCE> 25
 7.541706e+00 2.163441e+01 2.252408e+01 2.578469e+01 3.217290e+01 3.968232e+01 4.191883e+01 3.579108e+01 3.011872e+01 3.002976e+01 2.282183e+01 2.433120e+01 8.180457e-01 1.827670e+00 2.118105e+00 2.608578e+00 2.697589e+00 2.277257e+00 3.350498e+00 2.840989e+00 2.202039e+00 2.525764e+00 2.251055e+00 1.949972e+00 8.701400e-01
<GCONST> 9.423446e+01
<MIXTURE> 2 5.464456e-02
<MEAN> 25
 9.702793e+00 -9.258939e+00 -7.348550e+00 2.414836e-01 7.362461e-01 -4.854134e+00 4.130464e+00 8.247810e+00 3.170244e+00 -3.379571e+00 -9.859457e+00 1.044843e+00 -2.617105e-01 2.493567e-01 1.057060e+00 6.707795e-01 -1.210675e+00 -7.290657e-01 1.401414e+00 2.426437e-01 -1.084792e+00 -3.750695e-01 1.115035e+00 7.079414e-01 -1.858404e-01
<VARIANCE> 25
 2.808127e+00 1.345792e+01 1.403645e+01 2.149351e+01 2.532689e+01 2.702704e+01 2.225986e+01 2.120130e+01 2.708892e+01 3.531100e+01 2.265042e+01 2.351599e+01 1.495586e-01 7.339865e-01 8.916426e-01 1.072751e+00 2.111042e+00 2.042697e+00 2.358816e+00 2.061804e+00 2.152012e+00 2.570885e+00 1.944271e+00 2.100621e+00 1.693888e-01
<GCONST> 8.324676e+01
<MIXTURE> 3 5.362673e-02
<MEAN> 25
 8.230120e+00 -4.985999e+00 -6.694379e+00 -2.661873e+00 5.255259e+00 -6.005333e+00 -4.228503e+00 2.500235e+00 1.520783e+00 3.818123e+00 -9.391017e+00 -2.673663e+00 -7.033005e-01 2.743250e+00 -1.407784e-01 2.207227e+00 -3.929378e-01 -8.756959e-02 -3.286772e-01 -2.108735e-01 6.528082e-01 -4.842283e-01 1.174495e+00 -3.188106e-01 -2.580016e+00
<VARIANCE> 25
 4.983789e+00 2.475425e+01 1.516033e+01 3.380005e+01 2.795665e+01 4.351498e+01 3.625445e+01 3.928364e+01 3.394423e+01 3.866068e+01 3.383195e+01 3.335992e+01 4.770061e-01 7.643204e-01 9.994738e-01 1.182215e+00 1.572929e+00 1.654738e+00 2.152267e+00 2.409334e+00 2.005795e+00 2.511363e+00 2.167616e+00 1.688526e+00 3.114457e-01
<GCONST> 8.908282e+01
<MIXTURE> 4 6.469236e-02
<MEAN> 25
 5.403964e+00 -1.501621e+01 -3.157997e+00 -1.172972e+01 1.244133e+01 2.649061e-01 -1.806231e-01 7.754195e+00 7.091266e-01 1.864301e+00 -1.297138e+01 5.940416e-01 6.560087e-01 3.152183e-01 1.600981e-01 7.628886e-01 -8.093590e-01 -3.890097e-01 5.208174e-01 -2.823655e-04 -3.232337e-01 -2.258947e-01 -5.283982e-02 -6.744747e-01 2.023713e-01
<VARIANCE> 25
 8.454487e+00 1.355807e+01 1.603766e+01 1.821205e+01 2.219404e+01 2.902528e+01 1.988529e+01 2.376431e+01 2.191656e+01 3.107055e+01 1.479688e+01 2.997556e+01 6.502427e-01 1.103421e+00 1.233285e+00 1.919978e+00 2.346758e+00 2.128733e+00 1.887886e+00 1.401893e+00 1.446518e+00 1.880891e+00 1.451201e+00 1.414206e+00 9.441575e-01
<GCONST> 8.638431e+01
<MIXTURE> 5 4.115857e-02
<MEAN> 25
 6.295594e+00 -1.026119e+00 2.033248e-01 4.179773e+00 -3.409021e+00 -1.015162e+01 7.161910e-01 3.227396e+00 -1.239809e-01 -1.706134e+00 -4.448531e+00 3.545990e+00 -1.138970e+00 2.609700e+00 -6.027476e-01 2.421792e+00 -1.375000e-01 8.385383e-01 -2.140541e-02 6.571826e-01 1.109237e+00 -6.747556e-01 1.890857e+00 -6.963019e-01 -2.996417e+00
<VARIANCE> 25
 5.408866e+00 1.499236e+01 1.531850e+01 1.866953e+01 3.021740e+01 1.938890e+01 2.500024e+01 2.541153e+01 2.078986e+01 2.354380e+01 2.903938e+01 2.162883e+01 2.388261e-01 7.182915e-01 7.926554e-01 1.082572e+00 1.839395e+00 1.386313e+00 1.767747e+00 1.880298e+00 1.584425e+00 2.000533e+00 1.696154e+00 1.779447e+00 1.628670e-01
<GCONST> 8.212643e+01
<MIXTURE> 6 5.221207e-02
<MEAN> 25
 -4.886995e+00 -7.098103e-01 1.889380e-01 2.243830e+00 2.057258e+00 -3.039884e+00 2.032486e+00 2.286750e-02 9.688218e-01 -1.336957e+00 4.274960e+00 -1.033818e-01 9.292118e-01 1.128811e+00 8.235849e-01 -1.189754e-01 -2.114697e-01 2.336654e-01 -3.939019e-01 -1.019952e+00 -5.688734e-01 -4.349700e-01 -1.018495e+00 -5.597755e-01 3.309177e-01
<VARIANCE> 25
 5.328345e+01 4.045852e+01 7.024057e+01 6.717254e+01 6.807838e+01 6.192144e+01 7.233093e+01 5.665374e+01 4.596851e+01 5.599490e+01 4.324417e+01 3.512197e+01 8.059733e+00 5.585513e+00 5.202776e+00 3.850706e+00 6.949099e+00 4.800432e+00 6.107187e+00 5.391743e+00 4.260994e+00 4.392499e+00 4.923008e+00 3.035153e+00 1.652132e+00
<GCONST> 1.138675e+02
<MIXTURE> 7 7.348771e-02
<MEAN> 25
 6.899469e+00 -1.432510e+01 -1.815631e+00 -4.711452e+00 4.714650e+00 -5.119258e+00 1.781903e+00 8.767265e+00 -1.886451e+00 -2.690434e+00 -1.176444e+01 -4.012600e-01 -5.418298e-01 -5.503552e-01 1.670590e+00 4.104130e-02 -1.031995e+00 -7.871699e-01 1.344709e+00 9.031888e-01 -1.181766e+00 -9.864862e-01 8.502253e-01 1.017573e+00 3.809201e-01
<VARIANCE> 25
 3.768640e+00 1.216173e+01 1.252158e+01 2.046472e+01 2.332121e+01 3.208336e+01 2.993650e+01 2.159208e+01 2.703228e+01 4.312346e+01 2.114607e+01 2.311397e+01 2.040709e-01 5.645081e-01 1.036391e+00 1.368286e+00 1.681373e+00 2.051075e+00 2.427426e+00 1.783710e+00 2.078836e+00 2.300616e+00 1.735608e+00 2.533834e+00 1.606890e-01
<GCONST> 8.376971e+01
<MIXTURE> 8 3.943310e-02
<MEAN> 25
 7.276646e+00 -1.129807e+01 -1.790039e+00 -4.505465e+00 2.242454e+00 -5.888355e+00 2.935608e+00 8.633841e+00 -2.058863e-01 -1.812359e+00 -8.799432e+00 2.464876e+00 3.706674e-01 1.381239e+00 -4.320539e-01 8.874810e-01 9.468088e-02 -5.354172e-01 -4.492019e-01 -5.894192e-01 6.392130e-01 8.863997e-01 -1.598089e-02 1.240792e-01 -7.898333e-01
<VARIANCE> 25
 4.335649e+00 1.395456e+01 1.919444e+01 1.937601e+01 3.231821e+01 2.562118e+01 3.628858e+01 2.559635e+01 3.035978e+01 3.212048e+01 2.049263e+01 2.566117e+01 2.007098e-01 6.007993e-01 1.157927e+00 1.029494e+00 2.845242e+00 2.142445e+00 2.157556e+00 1.877186e+00 1.997730e+00 2.277344e+00 1.745132e+00 1.872747e+00 1.796607e-01
<GCONST> 8.491814e+01
<MIXTURE> 9 3.804855e-02
<MEAN> 25
 5.911535e+00 -6.695564e+00 4.007846e+00 -3.563165e+00 -6.127303e+00 -8.902001e+00 2.202897e+00 8.439266e-01 -3.080725e+00 1.294552e+00 -5.913423e+00 3.114326e+00 -1.143010e-01 2.792205e+00 -7.061774e-02 2.561619e+00 -2.591225e-01 2.239583e-02 -6.764372e-01 -7.937363e-01 3.985978e-01 -6.823509e-01 1.038751e+00 4.865336e-02 -2.124083e+00
<VARIANCE> 25
 6.309161e+00 2.656075e+01 2.618746e+01 2.600535e+01 2.834440e+01 3.608931e+01 3.251086e+01 5.361845e+01 2.110323e+01 2.817221e+01 2.692440e+01 1.990034e+01 2.790802e-01 6.434356e-01 7.872380e-01 1.111246e+00 1.758869e+00 1.768327e+00 1.893509e+00 1.899215e+00 2.097378e+00 1.822209e+00 1.677761e+00 1.607719e+00 4.288045e-01
<GCONST> 8.670728e+01
<MIXTURE> 10 6.381262e-02
<MEAN> 25
 -1.353957e+00 9.383446e+00 1.938420e+00 7.855060e+00 1.106464e+00 -1.636452e+00 -2.741612e+00 -2.149255e+00 -1.609913e+00 -3.222120e+00 3.441481e+00 -1.066424e+00 -1.575253e+00 -6.926700e-01 -5.896083e-01 6.907223e-02 6.745316e-01 5.262433e-01 3.619283e-01 8.465242e-01 9.308870e-01 6.844716e-01 7.337466e-01 2.010241e-01 -1.050379e+00
<VARIANCE> 25
 1.112209e+01 1.740469e+01 2.466395e+01 2.208108e+01 2.795072e+01 3.011015e+01 2.741671e+01 2.805782e+01 2.549453e+01 2.327628e+01 2.255181e+01 1.946749e+01 4.910581e-01 1.002902e+00 1.478669e+00 1.185599e+00 1.596032e+00 1.652280e+00 1.765901e+00 1.660043e+00 1.872997e+00 1.719295e+00 1.671216e+00 1.512972e+00 2.274384e-01
<GCONST> 8.587834e+01
<MIXTURE> 11 4.210512e-02
<MEAN> 25
 5.559314e+00 -1.394785e+01 2.392663e+00 -6.927927e+00 1.833630e+00 -5.189522e+00 3.928801e+00 9.130375e+00 -4.329464e+00 -2.745747e+00 -7.555469e+00 2.390153e+00 4.075646e-03 -5.808378e-02 -1.230701e-02 2.248289e-01 8.428347e-01 4.265772e-01 6.077161e-01 3.199738e-01 -2.101824e-01 1.315419e-01 -1.016008e-01 2.950355e-01 5.218265e-02
<VARIANCE> 25
 3.951593e+00 1.362481e+01 1.493536e+01 1.668878e+01 3.679541e+01 2.600630e+01 2.487655e+01 2.231616e+01 2.899819e+01 4.060637e+01 2.078810e+01 2.410010e+01 1.897888e-01 4.785327e-01 8.151802e-01 7.344623e-01 1.413713e+00 1.662363e+00 1.757398e+00 1.157686e+00 1.672763e+00 1.522823e+00 1.219632e+00 1.205873e+00 1.139424e-01
<GCONST> 7.972372e+01
<MIXTURE> 12 6.851029e-02
<MEAN> 25
 5.567494e+00 -2.449626e+00 4.721526e+00 -2.549594e+00 -6.046841e+00 -2.682973e+00 2.167867e+00 -2.404854e+00 -3.831728e+00 -1.546023e+00 -3.349413e+00 -3.164913e-01 -2.343823e-01 8.149715e-02 7.150696e-01 -4.846515e-01 -1.797556e-01 1.127687e+00 7.059750e-01 -6.333570e-01 -1.836802e-01 9.227703e-02 -4.733779e-01 -7.654877e-02 -2.633441e-02
<VARIANCE> 25
 1.011562e+01 4.937048e+01 3.707766e+01 5.531433e+01 4.009980e+01 4.447199e+01 5.314983e+01 6.018200e+01 4.197358e+01 5.173299e+01 3.150662e+01 2.942524e+01 1.011963e+00 1.791412e+00 2.618249e+00 3.119116e+00 3.010565e+00 3.736778e+00 3.903263e+00 3.390914e+00 2.882655e+00 4.083055e+00 3.120657e+00 2.459288e+00 5.227088e-01
<GCONST> 1.014113e+02
<MIXTURE> 13 7.474416e-02
<MEAN> 25
 8.454336e+00 -1.117573e+01 -7.994174e+00 -2.839250e+00 9.552908e+00 1.837228e+00 -4.482755e-01 4.960942e+00 -2.130564e+00 -3.477582e+00 -9.627720e+00 -4.054288e+00 1.476023e-01 5.405850e-01 -1.768503e-01 1.933764e-01 7.146314e-01 4.331299e-01 -4.575632e-01 -4.204319e-01 -5.735787e-01 7.913290e-01 4.279250e-01 -7.463155e-01 -3.741836e-01
<VARIANCE> 25
 4.789175e+00 2.449885e+01 1.848151e+01 2.864528e+01 3.694909e+01 3.857220e+01 2.737317e+01 3.101637e+01 4.395713e+01 5.530767e+01 2.917190e+01 2.648466e+01 2.388392e-01 6.522702e-01 1.069917e+00 1.292856e+00 2.487398e+00 2.226621e+00 1.871609e+00 1.855620e+00 2.246364e+00 3.159027e+00 1.824353e+00 2.582020e+00 1.834556e-01
<GCONST> 8.867121e+01
<MIXTURE> 14 8.130866e-02
<MEAN> 25
 5.473601e+00 1.473500e+00 -6.082432e-01 6.800505e+00 -1.856810e+00 -5.455193e+00 -4.716107e+00 -2.623739e+00 -3.002607e+00 -7.057705e+00 -2.376176e+00 -1.556988e+00 -8.000730e-01 1.695174e+00 -4.991837e-01 6.784919e-01 9.103289e-01 2.379259e-01 5.400460e-01 2.579192e-01 7.266590e-02 -3.272619e-02 4.072749e-01 -4.285407e-01 -1.486021e+00
<VARIANCE> 25
 1.179908e+01 3.627193e+01 3.483082e+01 2.633609e+01 3.700687e+01 3.569056e+01 4.251873e+01 4.259924e+01 3.977914e+01 2.835184e+01 2.995932e+01 2.544961e+01 9.866433e-01 1.190939e+00 1.793826e+00 1.795306e+00 2.216546e+00 2.234115e+00 2.782460e+00 2.857105e+00 2.435807e+00 2.566319e+00 2.208814e+00 2.066797e+00 4.843595e-01
<GCONST> 9.480984e+01
<MIXTURE> 15 4.955529e-02
<MEAN> 25
 -6.097673e+00 -1.736185e+00 -3.799715e+00 3.279802e+00 1.096867e+00 -3.262020e+00 3.600887e+00 4.882037e+00 5.558115e+00 -6.804780e-01 4.131838e+00 2.034516e+00 -9.885437e-02 1.105948e+00 -5.632113e-01 7.209399e-01 1.059256e+00 7.497514e-01 -5.302362e-01 -2.017608e-01 -4.691997e-01 1.409704e-01 -3.700634e-01 -2.983711e-01 -1.445818e+00
<VARIANCE> 25
 2.158439e+01 3.384910e+01 5.092406e+01 3.666375e+01 5.277421e+01 5.482624e+01 4.002442e+01 5.475411e+01 4.543121e+01 4.239186e+01 3.745604e+01 2.662076e+01 1.209981e+00 1.416424e+00 2.312371e+00 2.008773e+00 2.955211e+00 4.117645e+00 2.600026e+00 2.291449e+00 2.790565e+00 2.978993e+00 3.376162e+00 1.883240e+00 6.873961e-01
<GCONST> 1.001543e+02
<MIXTURE> 16 4.145259e-02
<MEAN> 25
 3.301334e+00 -2.831170e+00 2.219559e+00 7.566780e-01 -5.154612e+00 -8.881269e+00 6.142592e-02 3.642807e+00 -1.494991e+00 -9.007576e-01 -2.814057e+00 1.560037e+00 -1.133697e+00 1.955847e+00 -1.023793e+00 2.228322e+00 -8.617024e-01 9.056464e-01 6.401654e-01 3.088161e-01 8.792384e-01 -8.315480e-01 9.237947e-01 -8.883665e-01 -2.889979e+00
<VARIANCE> 25
 9.276316e+00 1.726957e+01 2.982549e+01 2.576009e+01 3.840637e+01 2.932302e+01 4.040552e+01 4.171879e+01 4.491276e+01 4.147361e+01 3.236446e+01 3.027575e+01 2.314531e-01 8.716034e-01 8.287746e-01 1.189445e+00 1.303714e+00 1.700910e+00 1.715640e+00 2.232185e+00 1.845707e+00 2.140219e+00 1.655142e+00 1.462578e+00 1.922236e-01
<GCONST> 8.767403e+01
<MIXTURE> 17 3.637384e-02
<MEAN> 25
 4.536333e+00 -8.831648e+00 4.446140e+00 -6.047019e+00 -4.470963e+00 -9.060283e+00 3.495156e-01 1.417684e+00 -4.530981e+00 9.710392e-02 -6.709693e+00 3.437344e+00 -2.655765e-02 2.620591e+00 -5.255726e-01 2.440209e+00 -3.744765e-01 -2.958204e-01 -1.103857e+00 -1.333543e+00 1.970652e-01 -9.828726e-01 2.697445e-01 -6.148729e-01 -2.102527e+00
<VARIANCE> 25
 7.449563e+00 2.175425e+01 3.100661e+01 3.231213e+01 3.575265e+01 2.982611e+01 3.043859e+01 4.538513e+01 2.587881e+01 2.973183e+01 2.746042e+01 2.720584e+01 4.005779e-01 7.797151e-01 7.807959e-01 1.222209e+00 1.334707e+00 2.097291e+00 2.054603e+00 1.830171e+00 1.555989e+00 1.952236e+00 1.581189e+00 1.505563e+00 3.836305e-01
<GCONST> 8.757300e+01
<MIXTURE> 18 4.103723e-02
<MEAN> 25
 4.831232e+00 -1.515705e+01 2.742417e+00 -8.107350e+00 1.250681e+00 -6.143691e+00 2.185368e+00 7.287134e+00 -6.916378e+00 -4.804037e+00 -9.196667e+00 1.630070e+00 -1.287066e-01 -2.334979e-01 -2.046547e-01 -6.667768e-02 4.897586e-01 3.268585e-02 -8.446570e-03 -1.600159e-01 -7.644698e-01 -3.745566e-01 -5.881016e-01 3.337259e-02 -6.267417e-02
<VARIANCE> 25
 4.734755e+00 1.350657e+01 1.724719e+01 1.748040e+01 3.324820e+01 2.568658e+01 2.620416e+01 2.236929e+01 2.952688e+01 3.678306e+01 2.121238e+01 2.345861e+01 1.812536e-01 4.674932e-01 8.553163e-01 7.270433e-01 1.229386e+00 1.463667e+00 1.890767e+00 1.226577e+00 1.787079e+00 1.708980e+00 1.344215e+00 1.180583e+00 1.045853e-01
<GCONST> 7.994344e+01
<MIXTURE> 19 3.844444e-02
<MEAN> 25
 6.443416e+00 -1.279794e+01 -1.962505e+00 -5.564041e+00 2.452041e+00 -7.304657e+00 5.661634e-01 6.626368e+00 -2.909483e+00 -3.473200e+00 -1.093094e+01 1.521278e+00 2.112939e-01 1.263570e+00 -8.628114e-01 6.172862e-01 -3.763818e-02 -1.018590e+00 -1.104343e+00 -1.300407e+00 1.449646e-01 4.664129e-01 -5.170417e-01 -2.454825e-01 -9.149399e-01
<VARIANCE> 25
 4.073370e+00 1.555086e+01 1.707874e+01 2.047517e+01 3.363081e+01 2.549332e+01 4.019064e+01 2.353174e+01 3.071941e+01 3.506895e+01 2.087611e+01 2.924391e+01 2.040769e-01 6.482138e-01 1.071748e+00 1.066776e+00 2.597218e+00 2.231623e+00 2.036228e+00 1.771762e+00 2.035117e+00 2.504227e+00 1.779715e+00 1.983669e+00 1.920947e-01
<GCONST> 8.534646e+01
<STATE> 4
<NUMMIXES> 19
<MIXTURE> 1 3.991833e-02
<MEAN> 25
 -8.112041e+00 4.871804e+00 -2.156547e+00 6.924830e+00 2.572932e+00 2.341347e+00 6.574183e-01 4.599634e+00 5.089325e+00 2.705684e+00 8.489569e+00 2.334849e+00 7.234751e-02 2.672841e-01 4.515548e-01 6.035783e-01 5.908244e-01 5.971497e-01 5.418752e-01 4.750936e-01 2.603694e-01 1.812909e-01 1.637478e-01 -1.158250e-03 -3.568690e-02
<VARIANCE> 25
 3.314171e+00 7.487423e+00 8.048227e+00 1.266564e+01 1.153832e+01 1.665151e+01 1.487850e+01 1.508045e+01 1.518402e+01 2.030298e+01 1.722254e+01 1.397417e+01 9.428848e-02 2.116275e-01 2.561459e-01 4.686385e-01 7.204738e-01 8.595816e-01 1.245448e+00 1.259359e+00 1.103259e+00 1.175022e+00 1.175685e+00 1.117264e+00 3.813822e-02
<GCONST> 6.687109e+01
<MIXTURE> 2 8.465331e-02
<MEAN> 25
 -4.263454e+00 1.149997e+00 -1.059659e+00 3.426234e+00 2.838083e+00 -1.935845e+00 1.273024e+00 2.721480e-01 1.619256e+00 -9.470367e-01 3.532045e+00 5.922616e-01 1.101648e+00 3.472320e-01 3.185159e-01 -6.463920e-01 -1.557731e-01 6.783468e-01 -4.845891e-01 -1.013482e+00 -5.888774e-01 -7.405575e-02 -1.135121e+00 -2.142654e-01 7.643245e-01
<VARIANCE> 25
 4.649137e+01 5.462707e+01 6.669081e+01 5.244489e+01 5.931363e+01 5.196672e+01 5.087251e+01 5.715153e+01 4.250032e+01 4.514562e+01 3.990021e+01 2.956853e+01 7.798660e+00 6.405458e+00 6.038467e+00 5.382332e+00 7.828200e+00 6.319819e+00 5.257622e+00 5.616389e+00 4.959304e+00 5.067096e+00 5.552336e+00 3.277225e+00 3.012526e+00
<GCONST> 1.144947e+02
<MIXTURE> 3 3.517363e-02
<MEAN> 25
 -2.804829e+00 5.376150e+00 -2.981334e+00 6.857976e+00 4.199271e+00 5.731153e-01 -1.118133e+00 1.756824e+00 2.302646e+00 -2.688265e+00 2.363823e+00 -1.588445e+00 -1.619065e+00 -6.219592e-01 -4.516306e-01 -4.966444e-01 1.811450e-02 4.451370e-01 4.981893e-01 5.433948e-01 8.190942e-01 1.075606e+00 1.247188e+00 7.417099e-01 -9.511271e-01
<VARIANCE> 25
 1.092875e+01 1.909542e+01 3.787403e+01 2.800198e+01 2.769892e+01 3.133034e+01 2.866050e+01 3.095424e+01 2.144503e+01 2.717893e+01 2.381264e+01 1.849490e+01 4.832607e-01 1.212476e+00 2.152430e+00 1.953802e+00 2.605402e+00 2.644770e+00 2.532833e+00 1.919769e+00 1.849259e+00 1.806340e+00 1.591704e+00 1.567206e+00 2.582984e-01
<GCONST> 8.944408e+01
<MIXTURE> 4 5.347616e-02
<MEAN> 25
 9.157994e+00 -5.998206e+00 -5.707109e+00 1.463069e+00 3.986335e-01 -5.510375e+00 8.199921e-01 4.412136e+00 4.766532e-01 -3.804555e+00 -6.117499e+00 7.749307e-01 -2.043068e-01 1.809886e+00 5.534633e-01 1.273682e+00 -2.923653e-01 -3.359960e-01 -2.432516e-01 -1.233631e+00 -6.406486e-01 -1.055982e-01 1.130110e+00 2.166507e-02 -1.108520e+00
<VARIANCE> 25
 4.023162e+00 2.616938e+01 2.426409e+01 2.629872e+01 5.069019e+01 4.375082e+01 4.529561e+01 3.579069e+01 4.230912e+01 3.486798e+01 2.993450e+01 3.351770e+01 4.653114e-01 9.812992e-01 1.442633e+00 1.557537e+00 3.119152e+00 2.275804e+00 3.531560e+00 2.589613e+00 2.625048e+00 2.644233e+00 2.476590e+00 2.152450e+00 3.227082e-01
<GCONST> 9.304366e+01
<MIXTURE> 5 4.323280e-02
<MEAN> 25
 -7.789555e+00 3.083387e+00 -3.065585e+00 7.207144e+00 2.819615e+00 6.291235e-01 1.639561e+00 5.508799e+00 4.979111e+00 1.168531e+00 7.751441e+00 2.220184e+00 -1.136727e-01 5.541436e-01 4.295805e-01 1.058698e-01 4.354404e-01 6.511180e-01 -6.977055e-04 -1.107448e-01 1.632601e-01 5.037904e-01 3.240147e-01 1.844459e-01 -2.985976e-01
<VARIANCE> 25
 3.624675e+00 1.009391e+01 1.140639e+01 1.661337e+01 1.758878e+01 2.128748e+01 1.765835e+01 1.949752e+01 2.116660e+01 2.131990e+01 2.102670e+01 1.583575e+01 3.805372e-01 1.017825e+00 1.407662e+00 1.519206e+00 2.173399e+00 2.167461e+00 2.089081e+00 2.073195e+00 2.117309e+00 2.017118e+00 2.226891e+00 1.668719e+00 3.188202e-01
<GCONST> 8.292663e+01
<MIXTURE> 6 5.919679e-02
<MEAN> 25
 5.120603e+00 3.074121e+00 -2.274759e+00 7.658525e+00 -1.437926e+00 -6.759847e+00 -1.816433e+00 1.328454e+00 1.907557e-01 -4.478975e+00 -1.382592e+00 -8.066646e-01 -1.435912e+00 1.819695e+00 -2.877575e-01 6.912147e-01 6.328747e-01 3.226184e-01 3.040336e-01 1.115733e+00 5.714859e-01 -3.510315e-01 1.303711e+00 -2.462642e-01 -2.068167e+00
<VARIANCE> 25
 9.842071e+00 1.742372e+01 2.196489e+01 2.033121e+01 3.149162e+01 2.295088e+01 3.768970e+01 3.808988e+01 3.591534e+01 3.251846e+01 2.605982e+01 2.213701e+01 7.356573e-01 1.020314e+00 1.436700e+00 1.372533e+00 2.017218e+00 1.872385e+00 2.532533e+00 2.051979e+00 2.447489e+00 2.250333e+00 2.895603e+00 1.936232e+00 4.562054e-01
<GCONST> 9.048042e+01
<MIXTURE> 7 7.169443e-02
<MEAN> 25
 7.216984e+00 -1.308771e+01 -1.202376e+00 -2.613733e+00 1.192985e+00 -4.797654e+00 4.817525e+00 9.605767e+00 -2.852947e+00 -3.828944e+00 -7.879471e+00 7.975890e-02 -2.016644e-01 2.179544e-01 1.271176e+00 2.457419e-01 -1.665195e+00 -3.614041e-01 5.739824e-01 -8.145235e-02 -6.316657e-01 -1.887598e-01 1.395864e+00 2.591296e-01 -1.225150e-01
<VARIANCE> 25
 3.720624e+00 1.454979e+01 1.668688e+01 2.542231e+01 2.710815e+01 3.085149e+01 3.101538e+01 2.241335e+01 2.822461e+01 4.199350e+01 2.222777e+01 2.184689e+01 1.852085e-01 6.107598e-01 9.970840e-01 1.240531e+00 1.656660e+00 1.641157e+00 1.944150e+00 1.942326e+00 1.943558e+00 1.907072e+00 1.685589e+00 1.793872e+00 1.368026e-01
<GCONST> 8.331450e+01
<MIXTURE> 8 6.483064e-02
<MEAN> 25
 -8.342607e+00 5.040188e+00 -2.917003e+00 6.101785e+00 2.757277e+00 1.583943e+00 3.851281e-01 5.053858e+00 6.148634e+00 3.175093e+00 8.376258e+00 1.837108e+00 -9.822653e-02 -1.510011e-01 -2.590933e-01 -2.291130e-01 -1.521016e-01 -5.652261e-02 -1.548705e-02 1.993401e-01 3.769075e-01 5.267459e-01 4.435597e-01 3.899482e-01 -8.362874e-02
<VARIANCE> 25
 2.353502e+00 5.296037e+00 6.648254e+00 8.233384e+00 8.459009e+00 1.214084e+01 1.148864e+01 1.281265e+01 1.129808e+01 1.566384e+01 1.264489e+01 1.220786e+01 8.441672e-02 2.200153e-01 3.070662e-01 4.730415e-01 5.947273e-01 8.580069e-01 9.714521e-01 1.043931e+00 1.114183e+00 1.168763e+00 1.272404e+00 9.816458e-01 3.166316e-02
<GCONST> 6.277102e+01
<MIXTURE> 9 4.408742e-02
<MEAN> 25
 1.179041e+00 -6.996486e-01 -5.315463e+00 4.539533e+00 -4.537984e+00 -7.336987e+00 1.812579e+00 8.012197e+00 4.040318e+00 -2.812034e+00 8.476698e-01 1.285744e+00 -1.193757e+00 6.388292e-01 -1.308894e+00 -1.237650e-01 1.191715e-01 4.444104e-01 5.183461e-01 1.370311e+00 1.245113e+00 8.680085e-02 1.023036e+00 1.626027e-02 -1.664559e+00
<VARIANCE> 25
 7.420113e+00 1.396090e+01 2.280912e+01 1.759673e+01 2.857502e+01 1.884075e+01 2.979573e+01 2.249942e+01 2.841753e+01 2.889906e+01 2.576076e+01 2.158589e+01 3.941297e-01 4.587854e-01 9.696939e-01 1.273499e+00 2.024649e+00 1.607458e+00 2.000175e+00 1.959888e+00 2.048604e+00 1.915644e+00 1.976629e+00 1.932053e+00 2.598939e-01
<GCONST> 8.481699e+01
<MIXTURE> 10 4.904665e-02
<MEAN> 25
 -6.134824e+00 7.022561e+00 -1.765111e-01 6.011903e+00 1.127233e+00 -4.189238e-01 -2.559901e+00 -5.084913e-01 1.190153e+00 -8.029416e-01 5.259173e+00 4.346280e-01 -8.231116e-01 -6.668159e-01 -6.875719e-01 -2.142721e-01 4.486454e-01 5.882589e-01 6.104689e-01 7.870847e-01 7.368973e-01 6.617263e-01 4.181320e-01 2.746142e-01 -5.169149e-01
<VARIANCE> 25
 3.911978e+00 7.187062e+00 1.051419e+01 1.156421e+01 1.339050e+01 1.625237e+01 1.764900e+01 1.861042e+01 1.366255e+01 1.523311e+01 1.745983e+01 1.296464e+01 2.075329e-01 4.959292e-01 7.270694e-01 8.600695e-01 1.185362e+00 1.264249e+00 1.425982e+00 1.482645e+00 1.441427e+00 1.410453e+00 1.382589e+00 1.300238e+00 7.684140e-02
<GCONST> 7.316134e+01
<MIXTURE> 11 5.458423e-02
<MEAN> 25
 5.369080e+00 1.152067e-01 5.112950e+00 -9.643279e-01 -6.154052e+00 -7.384402e-01 1.964763e+00 -3.577846e+00 -3.517475e+00 -2.265078e+00 -3.120167e+00 -1.016142e+00 -3.534892e-01 2.959048e-01 6.300129e-01 -2.977851e-01 2.056130e-03 1.265336e+00 3.724042e-01 -7.084280e-01 2.725093e-01 2.278943e-01 -2.460224e-01 6.126143e-02 -2.323096e-01
<VARIANCE> 25
 1.082360e+01 5.991603e+01 3.410508e+01 5.683683e+01 3.731319e+01 4.375925e+01 5.450298e+01 4.221068e+01 3.458529e+01 4.738277e+01 3.109735e+01 2.524965e+01 8.180276e-01 1.839021e+00 2.106805e+00 2.653374e+00 2.533877e+00 3.718269e+00 3.197780e+00 3.339613e+00 3.037727e+00 3.158826e+00 2.836490e+00 2.318352e+00 5.325257e-01
<GCONST> 9.945313e+01
<MIXTURE> 12 5.458345e-02
<MEAN> 25
 8.171494e+00 -1.045927e+01 -6.158962e+00 -5.062859e+00 9.170094e+00 -2.181868e-01 -2.527372e+00 5.094209e+00 -2.213235e+00 -1.273790e+00 -9.440928e+00 -4.710705e+00 4.196936e-01 1.685731e+00 -1.723743e-01 9.548521e-01 -7.532099e-01 -1.232936e-01 -9.326076e-01 -1.689352e+00 -2.509271e-01 1.244002e+00 1.141477e+00 -9.483499e-01 -1.069066e+00
<VARIANCE> 25
 4.471250e+00 1.960550e+01 1.976465e+01 3.007845e+01 3.154074e+01 3.038787e+01 2.520857e+01 2.993200e+01 3.841824e+01 4.973798e+01 2.661465e+01 2.625720e+01 2.304621e-01 6.143915e-01 1.164948e+00 1.413868e+00 2.606231e+00 1.951506e+00 2.193620e+00 1.769725e+00 2.105260e+00 3.342619e+00 2.235464e+00 2.188652e+00 1.652850e-01
<GCONST> 8.767019e+01
<MIXTURE> 13 5.425258e-02
<MEAN> 25
 4.962106e+00 -1.381669e+01 2.966435e+00 -7.354948e+00 2.248734e+00 -6.788727e+00 3.190723e+00 7.748052e+00 -5.868212e+00 -4.307245e+00 -8.623671e+00 2.551143e+00 6.127128e-02 8.666407e-01 3.603951e-01 6.748637e-01 -8.043839e-01 -4.891689e-01 -2.849316e-01 -6.754088e-01 -4.643710e-01 -2.615106e-01 5.429735e-01 1.081568e-01 -5.592816e-01
<VARIANCE> 25
 3.503146e+00 1.345132e+01 1.456487e+01 1.723001e+01 3.780332e+01 2.764571e+01 2.900452e+01 1.915139e+01 3.601748e+01 4.219510e+01 2.362127e+01 2.337930e+01 1.849391e-01 1.034641e+00 8.412647e-01 1.036412e+00 1.773126e+00 1.724894e+00 1.874360e+00 1.683831e+00 1.852817e+00 2.061288e+00 1.490111e+00 1.327940e+00 2.784812e-01
<GCONST> 8.345753e+01
<MIXTURE> 14 5.687105e-02
<MEAN> 25
 -1.425580e+00 4.673770e+00 -4.730243e+00 4.496640e+00 -1.087147e+00 -5.143426e+00 -2.198350e+00 4.501590e+00 3.324824e+00 -3.912450e+00 2.023365e+00 5.371197e-01 -1.229870e+00 4.876669e-01 3.659320e-01 2.892589e-02 5.851427e-01 1.024943e+00 8.460418e-02 -4.185681e-01 -1.168779e-01 1.653638e-01 2.765889e-01 -3.561526e-01 -1.073011e+00
<VARIANCE> 25
 1.083726e+01 1.640945e+01 2.702804e+01 1.951676e+01 2.750847e+01 2.670497e+01 3.450766e+01 4.342464e+01 3.679237e+01 3.154307e+01 2.145347e+01 1.910220e+01 3.114431e-01 5.792410e-01 8.631769e-01 9.202540e-01 1.552788e+00 1.519167e+00 1.803948e+00 1.806220e+00 1.883543e+00 2.100494e+00 1.457186e+00 1.450909e+00 1.196414e-01
<GCONST> 8.447722e+01
<MIXTURE> 15 5.059861e-02
<MEAN> 25
 -7.462084e+00 4.981567e+00 -2.567394e+00 6.345489e+00 1.801282e+00 1.630740e+00 -1.426758e+00 2.677731e+00 3.862887e+00 8.343616e-01 5.873057e+00 6.817123e-01 -6.974543e-02 -1.218641e-01 -2.928231e-01 -2.849583e-01 -3.612953e-01 -3.584193e-01 -4.832540e-01 -5.367071e-01 -5.173000e-01 -3.931267e-01 -2.669829e-01 -1.818262e-01 -8.441354e-02
<VARIANCE> 25
 3.462755e+00 6.700500e+00 7.349188e+00 9.705113e+00 9.115989e+00 1.965005e+01 1.314024e+01 1.061728e+01 1.099314e+01 1.434251e+01 1.414427e+01 1.187381e+01 9.736413e-02 2.405325e-01 3.460493e-01 4.906816e-01 6.661342e-01 8.176094e-01 1.007991e+00 1.237963e+00 1.082798e+00 1.227115e+00 1.116562e+00 1.262672e+00 3.212564e-02
<GCONST> 6.494490e+01
<MIXTURE> 16 5.333030e-02
<MEAN> 25
 4.170349e+00 -3.293952e-01 5.882137e+00 -5.406613e-01 -6.035536e+00 -4.528250e+00 -3.195843e-01 -4.856016e+00 -5.637477e+00 -2.070113e+00 -4.315012e+00 -8.238040e-01 -3.240738e-01 1.834086e+00 -3.983664e-01 1.619456e+00 1.310003e-01 6.755512e-01 7.206369e-02 -6.196640e-01 1.527091e-01 -1.061285e+00 1.465047e-01 -8.828088e-01 -1.446021e+00
<VARIANCE> 25
 1.015243e+01 4.396555e+01 2.991471e+01 5.120621e+01 3.804442e+01 3.373796e+01 3.548317e+01 4.343396e+01 2.905269e+01 4.113032e+01 2.973868e+01 3.117176e+01 1.666632e+00 2.032475e+00 1.648276e+00 2.570036e+00 2.546398e+00 2.661550e+00 3.059646e+00 3.618211e+00 2.601047e+00 2.786981e+00 3.134002e+00 2.214382e+00 1.088410e+00
<GCONST> 9.878220e+01
<MIXTURE> 17 4.333808e-02
<MEAN> 25
 2.786921e+00 -1.948433e+00 -4.672695e+00 3.823027e+00 -2.220662e+00 -6.243844e+00 1.598480e-01 5.899587e+00 2.188094e+00 -2.774848e+00 -4.170010e+00 -8.098662e-01 -1.107311e+00 6.562846e-01 -1.487112e+00 6.706445e-01 -4.016835e-01 7.184525e-01 4.798143e-01 6.405860e-01 7.917611e-01 -9.677389e-01 7.509249e-01 -4.588502e-01 -1.947787e+00
<VARIANCE> 25
 5.780138e+00 1.053727e+01 3.035922e+01 2.312561e+01 4.927726e+01 2.721674e+01 3.204258e+01 2.302552e+01 3.443642e+01 3.612780e+01 3.309050e+01 2.506145e+01 2.426948e-01 3.968117e-01 7.207008e-01 1.330622e+00 1.473541e+00 1.584086e+00 1.899118e+00 1.947670e+00 2.086286e+00 1.838692e+00 2.227543e+00 1.766039e+00 2.469717e-01
<GCONST> 8.535119e+01
<MIXTURE> 18 4.272299e-02
<MEAN> 25
 -7.987351e+00 2.475787e+00 -3.578491e+00 6.438911e+00 1.970389e+00 -8.830451e-01 3.419102e-01 4.065193e+00 3.426194e+00 -3.388629e-01 6.313509e+00 1.074744e+00 -2.722457e-01 4.763566e-01 6.287708e-02 -1.734484e-01 7.026011e-02 3.043155e-01 -4.715217e-01 -6.616524e-01 -2.742811e-01 9.590432e-02 -1.157795e-01 -2.219041e-01 -4.723952e-01
<VARIANCE> 25
 4.159054e+00 1.018769e+01 1.304971e+01 1.722184e+01 1.876142e+01 2.184186e+01 1.854534e+01 2.002184e+01 2.058326e+01 2.213423e+01 2.081372e+01 1.691750e+01 3.384348e-01 1.084628e+00 1.382116e+00 1.487654e+00 2.039602e+00 2.164266e+00 2.057715e+00 2.151434e+00 2.197225e+00 1.987170e+00 2.125758e+00 1.603049e+00 2.974872e-01
<GCONST> 8.320532e+01
<MIXTURE> 19 4.439741e-02
<MEAN> 25
 -8.439833e+00 4.127972e+00 -2.695572e+00 5.929842e+00 1.316804e+00 8.396361e-01 -4.517373e-01 3.326488e+00 3.764553e+00 1.208163e+00 7.274226e+00 1.515924e+00 -4.389005e-02 1.572107e-01 2.832156e-01 3.811445e-01 3.026718e-01 2.622435e-01 1.010314e-01 1.446905e-02 -1.509816e-01 -2.239511e-01 -2.369481e-01 -3.333633e-01 -1.047881e-01
<VARIANCE> 25
 3.426808e+00 8.603510e+00 9.065053e+00 1.316862e+01 1.130917e+01 1.769311e+01 1.670991e+01 1.590105e+01 1.632318e+01 2.029159e+01 1.868223e+01 1.476456e+01 9.742376e-02 2.274632e-01 2.877910e-01 4.295061e-01 6.699263e-01 8.199146e-01 1.127851e+00 1.218847e+00 1.221416e+00 1.187881e+00 1.202023e+00 1.094278e+00 4.188161e-02
<GCONST> 6.770914e+01
<TRANSP> 5
 0.000000e+00 1.000000e+00 0.000000e+00 0.000000e+00 0.000000e+00
 0.000000e+00 2.677592e-01 7.322408e-01 0.000000e+00 0.000000e+00
 0.000000e+00 0.000000e+00 4.123628e-01 5.876371e-01 0.000000e+00
 0.000000e+00 0.000000e+00 0.000000e+00 5.114019e-01 4.885981e-01
 0.000000e+00 0.000000e+00 0.000000e+00 0.000000e+00 0.000000e+00
<ENDHMM>
~h "b"
<BEGINHMM>
<NUMSTATES> 5
<STATE> 2
<NUMMIXES> 19
<MIXTURE> 1 4.571964e-02
<MEAN> 25
 6.964949e+00 1.162908e+01 7.075499e-02 4.631101e+00 4.239381e-02 3.489185e+00 1.058638e+00 -6.956783e+00 -4.930202e+00 -1.991748e+00 -1.773859e+00 -7.425567e+00 -6.243458e-01 1.648869e+00 6.783075e-01 -1.443152e-01 3.690028e-01 -9.553612e-01 -8.292491e-01 1.582101e+00 1.272067e+00 -3.066089e-01 1.119232e+00 7.961827e-01 -9.340720e-01
<VARIANCE> 25
 4.665120e+00 1.098962e+01 3.894424e+00 7.311359e+00 1.418425e+01 8.037353e+00 1.975307e+01 1.489550e+01 1.182626e+01 1.861326e+01 1.323594e+01 1.183085e+01 1.865340e-01 7.384049e-01 3.833686e-01 9.390007e-01 1.091178e+00 1.200160e+00 1.186747e+00 1.569349e+00 1.013336e+00 1.713796e+00 2.047466e+00 9.381433e-01 1.808102e-01
<GCONST> 7.148332e+01
<MIXTURE> 2 4.614368e-02
<MEAN> 25
 1.065996e+01 6.931061e-01 -7.974534e+00 1.047710e+00 3.438731e+00 -6.523776e-01 -6.601677e+00 2.613494e-01 3.039922e+00 1.401167e+00 -1.463818e+00 -6.056404e+00 -7.787241e-01 3.468614e+00 9.967744e-01 2.411975e+00 4.384726e-01 -5.529236e-01 2.628392e-01 2.802465e-02 -1.767900e-01 -1.572461e+00 1.199202e-01 7.336900e-02 -2.369867e+00
<VARIANCE> 25
 3.575585e+00 1.607896e+01 1.589924e+01 2.057659e+01 1.436396e+01 2.365688e+01 1.675825e+01 2.190836e+01 2.974449e+01 1.742913e+01 3.134979e+01 3.242850e+01 1.592406e-01 4.480957e-01 9.723939e-01 9.383426e-01 1.191721e+00 1.152616e+00 1.863896e+00 1.966816e+00 1.682071e+00 1.613343e+00 3.305110e+00 2.283545e+00 1.720020e-01
<GCONST> 8.084225e+01
<MIXTURE> 3 4.537265e-02
<MEAN> 25
 7.317560e-01 8.587013e+00 2.222189e+00 7.434898e+00 -6.309260e-01 -8.496239e-01 -6.951839e-01 -4.845740e+00 -2.333060e+00 -4.014829e-01 6.777798e-01 -4.855473e+00 3.178777e+00 7.464551e-01 3.146980e-01 -1.900419e-01 -1.413799e+00 -1.378334e-01 3.846239e-01 -2.065683e+00 -1.356916e+00 -4.782457e-01 -1.968749e+00 -1.389067e+00 2.048988e+00
<VARIANCE> 25
 3.469387e+01 3.842902e+01 2.345788e+01 1.778920e+01 4.139676e+01 1.975238e+01 3.226361e+01 4.776687e+01 2.974365e+01 3.848507e+01 3.021058e+01 2.306039e+01 2.974793e+00 3.727491e+00 2.138071e+00 2.348753e+00 3.536240e+00 1.766499e+00 2.133924e+00 4.440812e+00 2.555609e+00 3.233951e+00 3.063440e+00 1.818527e+00 1.854311e+00
<GCONST> 9.935967e+01
<MIXTURE> 4 7.182180e-02
<MEAN> 25
 6.189731e+00 -2.436023e+00 5.829092e+00 5.081326e-01 -6.949518e+00 -4.257942e+00 -5.074052e+00 -3.529375e+00 -4.965327e+00 4.174040e-01 -3.363213e+00 -3.900679e+00 1.502357e-01 3.642229e+00 -4.497974e-01 2.649358e+00 4.373477e-01 1.097104e+00 -3.930378e-01 -1.676048e+00 2.273234e-01 -1.887792e+00 -5.790579e-01 -1.758185e+00 -2.341267e+00
<VARIANCE> 25
 4.637331e+00 3.465066e+01 1.577921e+01 1.999100e+01 1.765059e+01 1.842019e+01 2.154801e+01 2.949293e+01 2.425681e+01 1.178650e+01 2.179226e+01 2.186005e+01 3.699590e-01 6.666910e-01 1.201558e+00 1.564253e+00 1.534731e+00 1.575071e+00 2.172658e+00 2.332941e+00 1.624128e+00 1.844226e+00 1.817036e+00 2.193242e+00 1.559597e-01
<GCONST> 8.319931e+01
<MIXTURE> 5 4.925898e-02
<MEAN> 25
 8.512758e+00 9.515047e+00 -4.254473e+00 5.001873e+00 3.922514e+00 1.279840e+00 -3.870944e+00 5.838947e-01 2.073650e+00 -4.920044e+00 -4.402407e+00 -7.812000e+00 -1.580237e-01 1.221529e+00 6.019416e-01 -3.933712e-01 -1.942257e-01 1.015933e+00 5.446473e-01 -1.281839e-01 9.657463e-02 2.088063e-01 5.132746e-01 2.530184e-01 -5.263186e-01
<VARIANCE> 25
 4.068468e+00 6.707708e+00 7.874677e+00 1.509745e+01 1.617490e+01 1.910445e+01 1.694792e+01 3.253684e+01 1.116461e+01 2.516980e+01 1.302752e+01 2.183083e+01 1.254306e-01 2.033959e-01 4.952323e-01 6.803398e-01 8.192498e-01 1.167318e+00 1.457469e+00 1.242226e+00 1.481825e+00 1.395999e+00 1.470213e+00 2.114433e+00 4.427024e-02
<GCONST> 7.190240e+01
<MIXTURE> 6 6.767546e-02
<MEAN> 25
 6.018871e+00 8.733823e+00 5.450537e+00 6.261816e+00 -8.574943e+00 -2.219962e+00 2.008548e+00 -4.501262e+00 -4.918645e+00 -3.948279e+00 -4.117118e+00 -8.010624e+00 -3.062306e-01 1.856655e+00 -1.434513e-01 5.269933e-01 9.257155e-01 -1.284272e-01 -1.785439e-02 5.262836e-01 4.780597e-01 7.350157e-02 8.957642e-01 -2.104761e-01 -1.106950e+00
<VARIANCE> 25
 6.652409e+00 1.109755e+01 1.524126e+01 1.045974e+01 1.773198e+01 1.450735e+01 2.317330e+01 1.572383e+01 2.518116e+01 2.200807e+01 2.042481e+01 1.926818e+01 2.826234e-01 4.228526e-01 7.842482e-01 8.925088e-01 1.469540e+00 1.374553e+00 2.286091e+00 1.534900e+00 2.279436e+00 1.574216e+00 7.490256e-01 1.847110e+00 1.146676e-01
<GCONST> 7.797498e+01
<MIXTURE> 7 5.081932e-02
<MEAN> 25
 5.666026e+00 2.496642e+00 5.529909e+00 2.290487e+00 -4.564928e+00 -1.316347e+00 -4.108287e+00 -7.716204e+00 -9.321253e+00 -5.314109e+00 -6.098117e+00 -5.171759e+00 -9.739532e-02 2.985776e+00 4.361590e-01 2.120883e+00 -2.166785e-01 1.111522e+00 1.054662e+00 -1.433750e+00 -4.099575e-01 -1.324515e+00 -1.098392e+00 -1.463503e+00 -1.829517e+00
<VARIANCE> 25
 5.541811e+00 1.867169e+01 3.153940e+01 2.282162e+01 3.834024e+01 1.577023e+01 1.836339e+01 2.868655e+01 2.728427e+01 2.028858e+01 2.267777e+01 3.423416e+01 2.792399e-01 5.668030e-01 7.278134e-01 1.338770e+00 1.168441e+00 2.179425e+00 1.501352e+00 1.620522e+00 2.591622e+00 2.526695e+00 1.942252e+00 1.148506e+00 1.543210e-01
<GCONST> 8.357484e+01
<MIXTURE> 8 3.800238e-02
<MEAN> 25
 1.122253e+01 -8.140444e+00 -9.285796e+00 -5.880562e+00 3.394857e+00 5.858700e-01 -5.106965e+00 3.487852e+00 1.430704e+00 4.456413e+00 -4.134678e+00 -9.839560e+00 1.255624e-01 3.587969e+00 3.406026e-01 1.597165e+00 -2.001852e-01 -3.805733e-01 -1.512912e+00 -1.950786e+00 -4.194799e-02 3.608914e-01 1.793581e+00 1.513502e-01 -2.126077e+00
<VARIANCE> 25
 2.187382e+00 1.908772e+01 1.043349e+01 1.146478e+01 1.336945e+01 2.364034e+01 1.140756e+01 2.698823e+01 3.684981e+01 1.265058e+01 2.525564e+01 3.183936e+01 1.792151e-01 4.297347e-01 5.831847e-01 1.196367e+00 1.097514e+00 1.292730e+00 1.621240e+00 1.372511e+00 1.583038e+00 1.969803e+00 1.164836e+00 1.334318e+00 2.042445e-01
<GCONST> 7.699865e+01
<MIXTURE> 9 7.746644e-02
<MEAN> 25
 8.244682e+00 2.836056e+00 -4.048893e+00 7.131546e+00 2.032121e+00 -4.024123e+00 -2.432714e+00 1.876108e+00 -1.823786e+00 -6.971751e+00 -7.639609e+00 -7.818870e+00 -1.474972e-01 1.940998e+00 -2.683342e-01 5.144759e-01 6.700155e-01 1.097216e-01 3.406309e-01 7.609624e-01 6.654855e-01 -1.136789e+00 -1.735814e-01 -1.173243e-01 -1.116389e+00
<VARIANCE> 25
 5.340071e+00 1.019369e+01 9.985941e+00 1.759379e+01 1.912411e+01 1.850006e+01 2.492333e+01 2.712456e+01 3.125857e+01 1.961032e+01 2.435321e+01 2.226706e+01 1.285391e-01 2.294229e-01 4.365387e-01 8.082989e-01 1.124133e+00 1.599623e+00 2.158426e+00 2.225902e+00 1.610531e+00 1.484224e+00 1.793927e+00 1.669728e+00 9.605034e-02
<GCONST> 7.742829e+01
<MIXTURE> 10 5.829526e-02
<MEAN> 25
 7.967233e+00 6.532578e+00 -5.360916e-01 7.511387e+00 -2.859051e+00 1.822608e+00 1.916137e+00 -1.283324e+01 -5.233412e+00 2.523690e+00 -4.521419e+00 -1.206180e+01 -3.411249e-01 1.724851e+00 -3.156207e-01 -8.325666e-01 1.606352e+00 9.766450e-01 -7.612887e-02 1.604144e+00 1.702449e-02 -1.197691e+00 8.582397e-01 5.110607e-01 -8.941462e-01
<VARIANCE> 25
 3.542564e+00 1.464029e+01 4.699856e+00 8.122671e+00 2.055114e+01 2.302498e+01 1.710212e+01 1.266321e+01 1.820485e+01 1.900635e+01 1.573554e+01 1.946519e+01 2.061787e-01 4.129682e-01 3.995342e-01 5.474696e-01 1.046431e+00 1.036916e+00 1.077511e+00 1.194131e+00 1.320908e+00 9.081264e-01 9.869439e-01 1.291380e+00 1.465236e-01
<GCONST> 7.150051e+01
<MIXTURE> 11 4.291840e-02
<MEAN> 25
 5.539387e+00 4.143428e+00 7.927293e+00 4.609902e+00 -8.728923e+00 -3.850967e-01 1.221619e+00 -7.018343e+00 -8.172397e+00 -3.334060e+00 -6.140899e+00 -6.756877e+00 2.760823e-01 1.820219e+00 -4.558790e-01 1.245562e+00 -1.327806e-01 9.042662e-01 1.498519e+00 -8.961687e-02 8.851718e-01 -5.089160e-01 -3.153908e-01 -7.662641e-01 -1.004140e+00
<VARIANCE> 25
 5.434105e+00 1.152876e+01 1.590425e+01 1.146929e+01 2.417727e+01 2.090372e+01 2.817793e+01 2.273532e+01 1.702221e+01 2.686426e+01 1.954075e+01 1.902572e+01 1.730751e-01 6.506414e-01 6.886970e-01 1.120307e+00 1.745111e+00 1.272291e+00 1.444275e+00 1.455735e+00 1.523676e+00 1.547263e+00 1.110674e+00 1.993371e+00 1.616400e-01
<GCONST> 7.894974e+01
<MIXTURE> 12 4.271708e-02
<MEAN> 25
 7.910764e+00 1.186870e+01 -3.334776e+00 1.070306e+00 2.755668e+00 2.978458e+00 -3.077873e+00 -5.724411e+00 -5.119812e+00 -5.165724e+00 -2.179188e+00 -7.653357e+00 -5.602598e-01 1.235126e+00 1.410962e+00 8.085767e-01 -8.518956e-01 7.880603e-02 1.068423e+00 2.784761e-01 3.952598e-01 -3.643283e-01 -3.191844e-01 -3.576789e-01 -7.729710e-01
<VARIANCE> 25
 2.851241e+00 1.012764e+01 9.663714e+00 1.262579e+01 2.133235e+01 2.268760e+01 2.354058e+01 4.309245e+01 3.157260e+01 2.723745e+01 1.694378e+01 1.674334e+01 1.053891e-01 5.111381e-01 8.329403e-01 1.360176e+00 8.394756e-01 2.139536e+00 1.919951e+00 2.152833e+00 1.735248e+00 1.857258e+00 2.413177e+00 2.909843e+00 1.268932e-01
<GCONST> 7.988616e+01
<MIXTURE> 13 6.531502e-02
<MEAN> 25
 6.401384e+00 1.035767e+01 5.580599e+00 2.148738e+00 -7.825411e+00 1.840639e+00 2.769628e-01 -1.032478e+01 -7.157898e+00 -6.332624e+00 -7.620494e+00 -7.480964e+00 3.546125e-01 1.664225e+00 -8.252875e-01 1.899242e-01 9.552267e-01 -8.655340e-02 2.559358e-01 1.131269e+00 8.274325e-01 -5.071358e-02 3.609709e-01 -9.162204e-01 -6.539538e-01
<VARIANCE> 25
 4.391702e+00 1.426837e+01 1.208192e+01 1.839833e+01 1.162952e+01 2.684088e+01 2.586951e+01 1.512696e+01 2.384023e+01 1.647649e+01 1.369935e+01 1.498527e+01 2.716106e-01 6.170094e-01 6.378427e-01 1.112817e+00 1.493156e+00 1.460516e+00 2.076802e+00 1.603687e+00 1.831728e+00 1.638081e+00 2.155005e+00 1.217947e+00 1.308965e-01
<GCONST> 7.838359e+01
<MIXTURE> 14 5.386382e-02
<MEAN> 25
 7.769023e+00 1.854288e+00 2.810723e+00 1.086483e+01 -8.176989e+00 -2.871807e+00 3.445545e+00 -1.353218e+01 -5.772795e+00 2.361689e+00 -7.811155e+00 -8.853321e+00 1.748973e-01 7.985104e-01 -4.561166e-01 3.945003e-01 5.732976e-01 8.406601e-01 -1.204242e-01 3.343961e-02 1.949215e-01 -2.106188e-01 2.618121e-01 -1.288323e+00 -4.796951e-01
<VARIANCE> 25
 2.450250e+00 9.167491e+00 8.130282e+00 8.316652e+00 2.060884e+01 2.026769e+01 1.870259e+01 3.166441e+01 2.321988e+01 2.291766e+01 1.508972e+01 2.490348e+01 1.509812e-01 6.780753e-01 7.787235e-01 1.041550e+00 2.075405e+00 1.451329e+00 1.434993e+00 1.608777e+00 1.615925e+00 1.981003e+00 1.541642e+00 2.053776e+00 2.814719e-01
<GCONST> 7.839626e+01
<MIXTURE> 15 4.641752e-02
<MEAN> 25
 8.430098e+00 -1.219967e+01 -4.889088e+00 -9.826275e+00 4.842163e+00 -1.142129e+00 -7.117579e+00 9.630182e-01 -2.716797e+00 2.855048e+00 -7.715427e+00 -4.068332e+00 4.785692e-01 3.222823e+00 3.580612e-01 2.389119e+00 -1.337782e+00 -5.831259e-01 -1.654405e+00 -1.188998e+00 -2.884297e-01 -8.985709e-02 1.476100e+00 -1.022033e+00 -2.287089e+00
<VARIANCE> 25
 3.569388e+00 1.744551e+01 1.402351e+01 1.989064e+01 1.386834e+01 2.105976e+01 1.880032e+01 1.812389e+01 2.577604e+01 3.162646e+01 2.264757e+01 1.685242e+01 3.304621e-01 6.873963e-01 9.274818e-01 1.573305e+00 9.906687e-01 1.438120e+00 1.927796e+00 1.116383e+00 2.467801e+00 1.392424e+00 1.245232e+00 7.190506e-01 1.761181e-01
<GCONST> 7.926894e+01
<MIXTURE> 16 7.167461e-02
<MEAN> 25
 8.891846e+00 -2.581339e+00 -4.785405e+00 -4.764209e-01 4.775261e+00 -2.695409e+00 -7.878236e+00 -6.990135e-01 -2.941683e+00 -5.801451e-01 -6.078668e+00 -6.340416e+00 -2.194508e-01 2.936932e+00 6.316087e-01 3.483802e+00 -6.309430e-01 -6.169170e-01 4.277599e-01 -2.933971e-01 -4.807586e-01 -2.354514e+00 -5.750815e-01 -1.079004e+00 -2.263027e+00
<VARIANCE> 25
 2.790080e+00 2.478669e+01 1.241123e+01 2.507180e+01 1.457428e+01 1.865894e+01 2.455028e+01 2.915757e+01 1.973835e+01 2.695791e+01 2.375440e+01 2.043144e+01 1.899980e-01 5.337623e-01 7.167861e-01 1.120022e+00 1.078991e+00 1.545296e+00 2.961018e+00 2.280576e+00 2.582530e+00 1.653245e+00 2.631685e+00 1.446346e+00 1.484826e-01
<GCONST> 8.135826e+01
<MIXTURE> 17 4.243908e-02
<MEAN> 25
 8.646112e+00 6.378811e+00 -6.593270e+00 6.630573e+00 7.859635e+00 1.186595e+00 -5.023436e+00 -2.742830e+00 -1.653016e+00 -6.491837e+00 -7.623816e+00 -1.006810e+01 -4.666170e-01 1.326289e+00 3.828633e-01 2.580284e-01 7.525247e-01 8.766624e-01 -1.255514e-01 -1.340705e-01 5.706109e-01 -4.132527e-01 2.000050e-01 2.672474e-01 -8.776312e-01
<VARIANCE> 25
 2.915608e+00 7.278401e+00 7.936151e+00 1.186877e+01 1.549995e+01 1.970703e+01 1.498400e+01 1.973551e+01 2.131331e+01 3.510756e+01 1.824811e+01 2.198401e+01 1.859533e-01 2.907113e-01 6.282279e-01 6.588818e-01 9.025463e-01 9.673930e-01 1.330817e+00 1.376677e+00 2.179611e+00 1.310791e+00 8.241385e-01 1.013478e+00 9.342898e-02
<GCONST> 7.273982e+01
<MIXTURE> 18 4.368801e-02
<MEAN> 25
 4.619369e+00 6.318350e+00 1.496552e+00 6.087220e+00 -4.762475e+00 -3.506570e+00 -2.926396e-01 -9.317902e+00 -5.893815e+00 -8.745555e-01 -3.123916e+00 -6.199505e+00 3.081347e+00 -3.387864e-01 -2.248453e-01 -3.178718e-01 -1.756496e+00 -4.623160e-01 4.121336e-01 -2.507533e+00 -1.603909e+00 -1.075810e-01 -2.429792e+00 -1.828331e+00 2.359187e+00
<VARIANCE> 25
 2.436873e+01 4.459579e+01 1.960388e+01 1.892166e+01 4.123923e+01 1.772514e+01 3.833212e+01 4.888511e+01 3.029236e+01 4.114146e+01 3.651577e+01 2.822886e+01 2.102580e+00 4.245432e+00 1.766060e+00 1.852460e+00 3.232918e+00 2.269889e+00 2.485627e+00 4.023725e+00 2.719882e+00 3.238504e+00 2.985923e+00 2.064600e+00 1.519300e+00
<GCONST> 9.913297e+01
<MIXTURE> 19 4.039088e-02
<MEAN> 25
 5.121703e+00 3.403168e+00 7.341608e+00 3.905751e+00 -9.654413e+00 -1.290645e+00 -2.239388e-01 -9.303331e+00 -9.653027e+00 -4.559593e+00 -6.974267e+00 -7.225423e+00 1.337380e-01 1.755418e+00 -5.444068e-01 9.605535e-01 -2.280990e-01 7.108101e-01 1.090157e+00 -6.091641e-01 1.472946e-01 -9.306914e-01 -6.899828e-01 -1.029422e+00 -1.110417e+00
<VARIANCE> 25
 4.923537e+00 1.543528e+01 1.684274e+01 1.183311e+01 2.144617e+01 2.249389e+01 2.479231e+01 1.702225e+01 1.421615e+01 2.162107e+01 1.757870e+01 1.885604e+01 2.454515e-01 5.701258e-01 7.420580e-01 8.541522e-01 2.262315e+00 1.342684e+00 1.454129e+00 1.473923e+00 1.673976e+00 2.058999e+00 9.401122e-01 2.396112e+00 1.882032e-01
<GCONST> 7.915801e+01
<STATE> 3
<NUMMIXES> 19
<MIXTURE> 1 7.086458e-02
<MEAN> 25
 4.863477e+00 1.509590e+01 4.687083e+00 5.469038e+00 -1.662855e+00 8.149418e-01 -8.705052e-01 -2.522362e+00 3.158332e-01 -3.100609e+00 -1.197945e+00 -5.328326e+00 -1.598166e-02 -3.918900e-01 -5.106275e-01 4.888800e-01 1.029513e+00 -1.152287e-01 -3.826668e-01 2.302980e-01 4.059130e-01 7.492266e-01 8.852400e-01 3.363027e-01 6.578757e-02
<VARIANCE> 25
 8.521934e+00 5.088506e+00 1.402096e+01 1.280817e+01 2.495185e+01 2.169703e+01 1.340491e+01 1.550018e+01 1.038956e+01 1.949544e+01 1.408276e+01 1.612342e+01 1.644572e-01 7.454364e-01 8.822918e-01 1.022945e+00 1.081373e+00 1.935354e+00 1.393003e+00 1.915221e+00 1.547896e+00 1.195780e+00 7.706941e-01 1.411481e+00 1.207614e-01
<GCONST> 7.537830e+01
<MIXTURE> 2 5.994671e-02
<MEAN> 25
 5.013906e+00 9.731339e+00 -1.370162e+00 4.486971e+00 1.872035e+00 2.234347e+00 -1.686939e+00 7.987570e-01 -9.075786e-01 -6.687591e+00 -1.696271e+00 -3.391227e+00 -3.898710e-01 -1.946974e+00 1.837616e+00 -7.761298e-01 -6.666954e-01 1.289281e+00 -9.549177e-01 -2.133434e+00 4.517141e-01 1.302098e+00 3.138428e-01 4.946541e-01 1.224920e+00
<VARIANCE> 25
 3.079492e+01 2.431240e+01 2.326488e+01 3.009203e+01 2.563094e+01 3.839317e+01 2.622646e+01 3.754303e+01 3.079843e+01 4.032154e+01 4.832404e+01 2.012499e+01 2.432448e+00 2.488513e+00 6.802701e+00 3.527783e+00 4.240902e+00 7.848115e+00 2.713011e+00 4.129941e+00 4.764104e+00 6.695990e+00 2.301156e+00 2.988193e+00 1.627122e+00
<GCONST> 1.036821e+02
<MIXTURE> 3 5.181352e-02
<MEAN> 25
 5.502583e+00 1.516739e+01 2.097415e+00 3.977848e+00 -1.661025e+00 -1.064830e+00 1.595064e+00 5.927835e-01 -2.181001e+00 -5.101845e+00 -1.249372e+00 -7.768849e+00 6.748686e-01 -3.288862e+00 -2.057249e+00 -7.667094e-01 1.161582e+00 2.545114e-01 -1.120305e+00 -3.129357e-01 5.966699e-01 1.016275e+00 8.476093e-01 7.356770e-01 1.668689e+00
<VARIANCE> 25
 2.544440e+00 6.965866e+00 6.069577e+00 9.085719e+00 1.826980e+01 1.209922e+01 1.688877e+01 1.658584e+01 9.367034e+00 1.764992e+01 1.586482e+01 1.359639e+01 3.759172e-01 2.815705e+00 1.713922e+00 1.668444e+00 1.275579e+00 2.310760e+00 4.228829e+00 1.225504e+00 4.234181e+00 1.471872e+00 3.069765e+00 1.536015e+00 8.470362e-01
<GCONST> 8.139553e+01
<MIXTURE> 4 4.450696e-02
<MEAN> 25
 8.258404e+00 6.749740e+00 -7.845423e+00 4.627352e+00 5.506629e+00 -3.012089e+00 -3.738845e+00 6.832061e+00 6.530763e+00 -5.471186e+00 -5.251769e+00 -4.223824e+00 -1.570539e+00 1.377341e+00 3.882651e-01 1.623248e-01 1.751175e-01 2.267777e-01 1.272197e+00 9.398312e-01 -7.156165e-01 -1.073191e+00 7.448039e-01 -6.437404e-02 -1.803149e+00
<VARIANCE> 25
 1.867388e+00 9.236074e+00 1.079567e+01 1.129959e+01 9.916556e+00 1.684412e+01 1.861565e+01 1.638407e+01 7.576043e+00 2.302562e+01 2.331676e+01 1.926773e+01 1.773936e-01 9.946035e-01 1.243280e+00 1.388580e+00 9.094237e-01 8.731510e-01 1.261761e+00 2.098082e+00 1.278861e+00 2.553623e+00 3.725881e+00 2.430626e+00 3.483279e-01
<GCONST> 7.759271e+01
<MIXTURE> 5 5.291517e-02
<MEAN> 25
 5.168761e+00 1.355140e+01 2.874635e+00 6.840763e+00 5.783712e-01 2.132663e+00 -4.153888e+00 -8.492855e+00 -3.857272e+00 -3.339418e+00 5.917782e-01 -3.211231e+00 -1.722903e-01 -2.665982e+00 -7.030417e-01 5.234060e-02 1.644561e-01 -1.515266e+00 2.889269e-01 2.940457e+00 1.173046e+00 -4.466835e-01 6.584532e-01 6.632365e-01 1.136616e+00
<VARIANCE> 25
 7.402858e+00 1.371313e+01 1.473562e+01 7.488710e+00 1.861686e+01 1.760413e+01 1.173553e+01 1.688753e+01 2.072301e+01 2.677750e+01 1.165384e+01 1.292905e+01 8.764995e-01 2.080348e+00 5.571858e+00 4.805734e+00 6.121165e+00 3.879097e+00 2.171216e+00 2.420233e+00 2.747391e+00 2.679096e+00 2.734019e+00 4.136508e+00 6.925297e-01
<GCONST> 9.045525e+01
<MIXTURE> 6 6.524752e-02
<MEAN> 25
 7.022037e+00 1.365641e+01 1.311226e+00 5.800398e+00 1.888975e-02 -1.323202e+00 -3.489440e+00 -2.332352e+00 -3.762768e-01 -3.214175e+00 7.914030e-01 -2.902554e+00 -7.643852e-01 1.195529e+00 1.409879e+00 7.315502e-01 5.614498e-02 -3.932344e-01 -2.216138e-01 -4.838035e-02 2.647402e-01 4.445159e-01 4.915171e-01 5.305414e-01 -8.247647e-01
<VARIANCE> 25
 5.658523e+00 8.961221e+00 1.199019e+01 8.224521e+00 3.128631e+01 2.084132e+01 1.929924e+01 3.319305e+01 1.061465e+01 1.528717e+01 1.338566e+01 9.949692e+00 1.037972e-01 1.372553e-01 3.275496e-01 4.491695e-01 6.997517e-01 7.412432e-01 1.081622e+00 1.415712e+00 1.101658e+00 1.396507e+00 1.319681e+00 7.999763e-01 4.175463e-02
<GCONST> 6.829869e+01
<MIXTURE> 7 3.670899e-02
<MEAN> 25
 5.323448e+00 9.893291e+00 6.717275e+00 6.498656e+00 -8.299416e+00 1.922420e-01 3.293675e+00 -5.644506e+00 -3.666898e+00 -1.606113e+00 -3.806542e+00 -8.887460e+00 1.335106e+00 -1.687780e+00 -4.232289e+00 -1.773112e+00 3.119038e+00 1.998337e-01 -1.493797e+00 7.127881e-01 2.466928e+00 1.871606e+00 9.732387e-01 8.103523e-02 1.365915e+00
<VARIANCE> 25
 5.963906e+00 1.786309e+01 1.748773e+01 9.330738e+00 1.212293e+01 2.244332e+01 2.819678e+01 3.269972e+01 2.618907e+01 7.018493e+00 1.714502e+01 1.069206e+01 5.128379e-01 2.278906e+00 3.173607e+00 1.095034e+00 2.678111e+00 1.827499e+00 1.034399e+00 2.075549e+00 1.034586e+00 1.135381e+00 2.248313e+00 1.508531e+00 7.723553e-01
<GCONST> 8.344560e+01
<MIXTURE> 8 6.004309e-02
<MEAN> 25
 8.334360e+00 1.167996e+01 1.591447e-01 3.511898e+00 -2.361291e+00 3.337077e+00 7.300616e-01 -7.339558e+00 -6.611495e+00 -6.358465e+00 -4.688614e+00 -8.738382e+00 2.637605e-01 -3.359501e+00 -1.393119e+00 -7.438249e-01 1.519913e+00 -1.546942e+00 -1.978403e+00 1.972958e+00 2.191013e+00 1.564428e+00 7.213092e-01 4.782757e-01 1.882362e+00
<VARIANCE> 25
 3.158406e+00 1.595268e+01 1.034619e+01 2.318629e+01 2.507026e+01 1.239825e+01 1.657324e+01 3.699881e+01 2.333612e+01 2.273426e+01 1.877907e+01 9.083876e+00 6.256741e-01 3.547175e+00 3.984347e+00 5.902000e+00 3.887993e+00 4.961143e+00 3.364216e+00 2.400480e+00 3.059029e+00 1.964364e+00 1.243068e+00 1.551837e+00 1.096181e+00
<GCONST> 9.046324e+01
<MIXTURE> 9 4.326256e-02
<MEAN> 25
 8.247920e+00 -1.556394e+00 -4.227274e+00 3.745703e+00 2.493671e+00 -1.300234e+00 -3.982805e+00 1.273546e+00 -2.675828e+00 -2.638566e+00 -7.487236e+00 -9.080668e+00 -5.857970e-01 1.093902e+00 -9.974464e-01 1.231049e+00 6.946268e-02 3.496394e-01 9.742203e-01 1.156596e-01 6.958698e-01 -1.079426e+00 3.579313e-01 4.205661e-01 -1.575292e+00
<VARIANCE> 25
 3.430983e+00 8.741794e+00 1.599595e+01 2.145395e+01 1.746635e+01 1.138022e+01 3.239108e+01 3.050675e+01 2.334726e+01 2.722834e+01 1.937029e+01 2.924311e+01 4.033580e-01 3.254044e-01 5.792950e-01 9.760004e-01 1.030214e+00 9.868250e-01 1.652900e+00 2.923217e+00 1.221251e+00 1.341455e+00 2.644417e+00 1.981425e+00 4.438630e-01
<GCONST> 8.049677e+01
<MIXTURE> 10 4.039260e-02
<MEAN> 25
 5.985729e+00 1.524744e+01 2.447595e+00 4.174926e+00 -1.780748e+00 -1.829938e+00 -2.088235e+00 -2.445537e+00 -2.914974e+00 -6.219310e+00 -2.452329e+00 -7.717333e+00 5.495723e-01 2.747454e-01 -8.493788e-01 -6.202920e-02 7.552381e-01 7.555082e-01 1.400285e+00 1.406239e+00 7.484131e-01 1.964063e-01 -4.617016e-01 -1.067575e-01 9.309994e-02
<VARIANCE> 25
 3.588202e+00 4.757949e+00 1.835001e+01 1.384852e+01 8.890643e+00 9.880794e+00 2.345107e+01 2.008498e+01 1.318084e+01 1.687459e+01 1.078322e+01 2.427758e+00 2.650078e-01 4.489724e-01 7.404214e-01 7.175210e-01 1.866492e+00 9.546987e-01 1.336967e+00 1.181967e+00 1.975293e+00 1.129377e+00 1.203706e+00 7.373421e-01 1.184344e-01
<GCONST> 7.044592e+01
<MIXTURE> 11 6.755282e-02
<MEAN> 25
 2.455405e+00 1.458219e+01 4.977705e+00 7.741180e+00 8.937419e-01 -1.936518e+00 -4.425009e+00 -5.631797e+00 -4.066535e+00 -4.494442e+00 4.918447e-01 -5.098668e+00 -1.379843e+00 -2.380657e-01 8.387225e-01 7.685978e-01 7.607360e-01 -3.711009e-02 -5.336139e-02 7.553543e-01 -1.409670e-01 -4.761928e-01 7.443446e-01 4.299606e-01 -7.224368e-01
<VARIANCE> 25
 1.100019e+01 3.876591e+00 1.248164e+01 1.386007e+01 2.710224e+01 1.345281e+01 1.390478e+01 2.542915e+01 1.144644e+01 1.024212e+01 1.229230e+01 1.840610e+01 2.190256e-01 1.747467e+00 1.117004e+00 8.065280e-01 7.867917e-01 1.816286e+00 1.224122e+00 1.731567e+00 1.377275e+00 1.265731e+00 1.795128e+00 1.593359e+00 3.476594e-01
<GCONST> 7.739945e+01
<MIXTURE> 12 4.078359e-02
<MEAN> 25
 4.971036e+00 1.259049e+01 5.374101e+00 7.362720e+00 -3.757858e+00 -9.705632e-01 1.439232e+00 -4.588518e+00 -4.405485e+00 -4.409410e+00 -2.849646e+00 -7.084993e+00 -4.640473e-01 -3.036962e+00 3.426534e-02 9.119381e-01 1.152356e+00 -1.281994e+00 -1.528588e+00 1.744453e+00 1.620010e+00 -7.646446e-01 1.337904e+00 2.304047e+00 1.184238e+00
<VARIANCE> 25
 5.281574e+00 1.321029e+01 1.068357e+01 1.029596e+01 3.019837e+01 2.037859e+01 2.550403e+01 2.122216e+01 1.643024e+01 2.100433e+01 1.655835e+01 1.170944e+01 5.330377e-01 3.323099e+00 1.352631e+00 3.010499e+00 2.273891e+00 2.094099e+00 2.122637e+00 2.671705e+00 3.235681e+00 1.915661e+00 2.937653e+00 1.565425e+00 8.769119e-01
<GCONST> 8.721051e+01
<MIXTURE> 13 6.292598e-02
<MEAN> 25
 4.260943e+00 1.570851e+01 4.579455e+00 7.062870e+00 -2.007439e-01 -3.162244e+00 -3.017480e+00 -2.087906e+00 -2.029075e+00 -6.455800e+00 -2.198323e+00 -5.913941e+00 1.399563e+00 -3.487799e+00 -3.384048e+00 -2.062877e+00 9.386601e-01 1.292205e+00 -9.274866e-01 -7.528761e-01 1.248648e+00 2.793704e+00 7.734750e-01 -3.513928e-01 2.106740e+00
<VARIANCE> 25
 3.880943e+00 7.479338e+00 1.115993e+01 7.644290e+00 1.774231e+01 1.418350e+01 1.251308e+01 1.615092e+01 2.279042e+01 1.295664e+01 7.470644e+00 1.741001e+01 5.745429e-01 3.497616e+00 2.356808e+00 2.961128e+00 1.966089e+00 1.727883e+00 1.648047e+00 1.843468e+00 2.349230e+00 2.594574e+00 1.530370e+00 2.440251e+00 7.804852e-01
<GCONST> 8.300644e+01
<MIXTURE> 14 6.341781e-02
<MEAN> 25
 5.809916e+00 1.536652e+01 6.249214e-01 2.944265e+00 1.083175e+00 2.062038e-01 -1.598930e+00 -5.531912e-01 2.670294e-01 -4.321126e+00 -2.624195e+00 -7.113701e+00 -8.212298e-01 4.562412e-01 1.026172e+00 9.760244e-01 4.054313e-01 -3.035075e-01 -1.998740e-01 1.213191e-01 -4.904977e-02 -3.656270e-01 -2.136610e-02 8.407965e-02 -6.137708e-01
<VARIANCE> 25
 2.317275e+00 7.050632e+00 9.906126e+00 9.940275e+00 1.591798e+01 1.911732e+01 2.084773e+01 1.950723e+01 2.747720e+01 1.894781e+01 4.607468e+00 1.187383e+01 1.235995e-01 2.158003e-01 4.784221e-01 7.277898e-01 1.345318e+00 9.275477e-01 2.133122e+00 1.990367e+00 1.870119e+00 1.067535e+00 7.386301e-01 1.243138e+00 4.964720e-02
<GCONST> 6.990475e+01
<MIXTURE> 15 7.089566e-02
<MEAN> 25
 7.593680e+00 7.511590e+00 -4.317916e+00 7.458871e+00 4.335066e+00 -4.220839e+00 -4.933598e+00 1.843583e+00 7.891126e-01 -8.511435e+00 -7.570531e+00 -7.626457e+00 -8.533257e-01 -1.161525e+00 6.701121e-01 -3.513747e-01 1.338166e-01 1.595355e-01 -4.222894e-01 1.913740e-01 -1.263338e-01 -1.794799e-01 1.546422e+00 1.181150e+00 3.039408e-01
<VARIANCE> 25
 2.012326e+00 8.840785e+00 1.250705e+01 2.149274e+01 2.350084e+01 2.606967e+01 3.430380e+01 2.402262e+01 1.876990e+01 1.260893e+01 1.115887e+01 2.036014e+01 8.495772e-01 1.495398e+00 1.381328e+00 2.129936e+00 3.436152e+00 5.051774e+00 2.391365e+00 3.142741e+00 1.626098e+00 3.138389e+00 2.369283e+00 2.123692e+00 6.887280e-01
<GCONST> 8.750642e+01
<MIXTURE> 16 4.674467e-02
<MEAN> 25
 5.941541e+00 1.444078e+01 3.646962e+00 2.754745e+00 -3.607089e+00 -2.349092e+00 -2.768033e+00 -6.275863e+00 -2.461234e+00 -1.800641e+00 -3.851985e+00 -7.667318e+00 -1.570818e-01 2.131254e-01 1.349380e-01 6.429403e-01 6.670932e-01 -2.399381e-01 8.704791e-02 8.800486e-01 7.085090e-01 -1.549825e-02 2.392280e-01 -3.627678e-01 -2.809559e-01
<VARIANCE> 25
 1.311113e+00 4.540033e+00 8.860219e+00 1.410420e+01 9.519656e+00 4.133749e+00 9.382086e+00 2.404176e+01 1.044513e+01 1.488036e+01 1.292456e+01 3.705418e+00 2.158115e-01 2.988385e-01 6.940822e-01 6.143307e-01 1.287695e+00 6.660584e-01 7.051299e-01 6.088091e-01 1.066616e+00 1.566415e+00 1.843151e+00 1.129186e+00 1.048914e-01
<GCONST> 6.496371e+01
<MIXTURE> 17 3.849717e-02
<MEAN> 25
 4.733731e+00 7.799467e+00 5.853051e+00 6.650612e+00 -9.681882e+00 -3.340094e+00 9.437534e-01 -7.070056e+00 -4.688470e+00 -2.987787e+00 -5.360347e+00 -9.002627e+00 1.149858e+00 -2.020175e+00 -3.772035e+00 -1.506608e+00 2.401088e+00 2.721738e-01 -1.286294e+00 9.421974e-01 1.732959e+00 7.043424e-01 6.052428e-01 -9.580843e-02 1.351190e+00
<VARIANCE> 25
 8.114407e+00 1.697082e+01 1.917422e+01 1.420253e+01 2.174149e+01 1.244012e+01 1.065384e+01 1.702953e+01 1.614716e+01 1.385276e+01 2.005457e+01 1.548363e+01 4.263543e-01 2.205115e+00 2.093958e+00 1.454255e+00 1.604992e+00 2.501781e+00 2.519862e+00 3.430976e+00 1.897834e+00 1.268477e+00 1.255839e+00 1.412165e+00 5.589734e-01
<GCONST> 8.389737e+01
<MIXTURE> 18 4.358717e-02
<MEAN> 25
 7.223979e+00 -3.306949e+00 -4.535279e+00 1.879488e+00 2.965406e+00 -1.982014e+00 -6.789635e+00 -5.186871e-01 -4.000087e+00 -3.623899e+00 -1.036589e+01 -9.821923e+00 -6.903393e-01 9.594362e-01 -1.036608e+00 1.069222e+00 -3.654973e-01 1.194631e-01 5.665246e-01 -2.339594e-01 3.483815e-01 -1.199069e+00 -8.702842e-03 3.904312e-02 -1.648124e+00
<VARIANCE> 25
 5.136713e+00 1.111376e+01 1.722245e+01 2.675421e+01 1.872799e+01 1.192750e+01 3.031007e+01 2.453374e+01 2.593670e+01 3.546217e+01 2.558012e+01 3.305350e+01 6.017981e-01 3.143109e-01 6.900314e-01 1.183063e+00 1.057854e+00 1.185630e+00 2.570835e+00 2.482755e+00 1.206634e+00 1.383631e+00 2.811052e+00 2.292776e+00 4.545519e-01
<GCONST> 8.350833e+01
<MIXTURE> 19 3.989397e-02
<MEAN> 25
 4.680627e+00 1.194258e+01 5.021580e+00 7.119155e+00 -3.597178e+00 -1.816450e+00 8.847190e-01 -6.238428e+00 -6.297516e+00 -5.257960e+00 -4.639656e+00 -8.188396e+00 -5.144709e-01 -2.936921e+00 -6.666596e-02 7.801778e-01 9.546546e-01 -1.192892e+00 -1.484335e+00 1.460177e+00 1.327510e+00 -1.011607e+00 1.012300e+00 2.008485e+00 1.064336e+00
<VARIANCE> 25
 3.953340e+00 1.021834e+01 9.893997e+00 1.057881e+01 2.281274e+01 1.807014e+01 3.015732e+01 1.699657e+01 1.788068e+01 2.522324e+01 1.605891e+01 1.248392e+01 5.978118e-01 2.960212e+00 1.780568e+00 3.161753e+00 2.632742e+00 2.503506e+00 2.302904e+00 2.425954e+00 2.285235e+00 1.483075e+00 1.894233e+00 1.351138e+00 1.023995e+00
<GCONST> 8.605868e+01
<STATE> 4
<NUMMIXES> 19
<MIXTURE> 1 4.528475e-02
<MEAN> 25
 -8.620861e-01 2.816756e+00 4.399302e+00 7.119328e+00 2.258346e+00 -1.166549e+00 -3.405970e+00 -8.331263e-01 1.754315e-01 -2.121289e+00 2.964616e+00 -1.539903e+00 6.200130e-01 -3.733737e+00 -9.788989e-01 -1.252453e+00 -7.129769e-01 3.955452e-01 3.740327e-01 1.369079e+00 7.142940e-01 1.985569e-01 -6.128059e-02 6.552560e-01 2.068149e+00
<VARIANCE> 25
 2.187265e+01 1.040917e+02 7.165505e+00 1.883705e+01 1.443938e+01 7.429335e+00 1.031147e+01 1.673485e+01 2.218319e+01 1.873051e+01 1.987796e+01 6.495352e+00 2.086715e+00 7.722958e+00 3.099414e+00 2.873135e+00 4.127331e+00 1.662833e+00 1.134070e+00 2.102136e+00 4.282121e+00 2.531949e+00 2.153654e+00 2.672642e+00 2.027202e+00
<GCONST> 9.190052e+01
<MIXTURE> 2 4.060025e-02
<MEAN> 25
 1.070620e+01 1.558342e+00 -9.563765e+00 -1.655812e+00 3.371616e+00 2.308302e+00 -6.556859e+00 -3.813406e+00 6.083853e+00 4.749094e+00 -1.828122e+00 -6.475497e+00 1.987506e+00 -5.827684e+00 -4.134703e+00 -3.671264e+00 1.892154e+00 1.064309e+00 -8.011028e-01 2.000059e+00 1.858521e+00 1.984231e+00 -1.931411e+00 -4.991792e-01 3.951033e+00
<VARIANCE> 25
 2.739854e+00 1.906520e+01 9.519422e+00 2.072137e+01 1.211890e+01 2.934485e+01 1.431159e+01 1.434291e+01 1.126488e+01 1.564486e+01 1.355475e+01 1.551926e+01 1.181854e+00 4.884785e+00 4.811450e+00 3.055728e+00 4.351083e+00 4.405035e+00 2.002689e+00 5.691978e+00 2.584103e+00 5.282543e+00 4.965373e+00 1.582602e+00 1.273511e+00
<GCONST> 9.165112e+01
<MIXTURE> 3 3.698931e-02
<MEAN> 25
 8.413098e+00 2.077801e+00 -4.667424e+00 1.805286e+00 1.421454e+00 -4.203428e-02 -2.428057e+00 -2.763749e+00 -2.429734e+00 -3.373193e-01 4.875685e+00 -3.302062e+00 1.591211e+00 -3.282323e+00 -3.368662e+00 -5.306997e+00 1.745875e+00 1.725685e+00 -7.291503e-01 6.299383e-02 2.050525e-01 4.249463e+00 8.772542e-01 1.391802e-01 2.957696e+00
<VARIANCE> 25
 8.365924e+00 3.774381e+01 2.775875e+01 6.110135e+01 2.045126e+01 3.412121e+01 2.224311e+01 2.916168e+01 2.444350e+01 3.156188e+01 2.323692e+01 1.925542e+01 9.182099e-01 4.511946e+00 2.545549e+00 3.678499e+00 1.408390e+00 2.651385e+00 2.594354e+00 3.874640e+00 2.969025e+00 2.658847e+00 5.350019e+00 4.603535e+00 1.344716e+00
<GCONST> 9.776252e+01
<MIXTURE> 4 5.434428e-02
<MEAN> 25
 1.161371e+01 -7.503840e+00 -1.310756e+01 -1.214188e+00 5.735950e+00 -1.027411e+00 -4.304721e+00 4.592672e+00 9.935139e+00 4.951616e-01 -1.263472e+01 -5.319759e+00 -9.425425e-02 -2.591130e+00 3.246612e-01 3.995346e-01 -3.460284e-01 -1.742190e-01 2.370336e+00 2.628052e+00 3.106982e-01 -2.320534e+00 -2.358536e+00 2.582803e+00 1.277502e+00
<VARIANCE> 25
 2.666590e+00 8.521830e+00 1.048205e+01 1.267219e+01 2.524875e+01 2.969375e+01 2.352634e+01 2.636279e+01 1.056782e+01 3.195111e+01 2.182361e+01 1.517407e+01 3.883935e-01 1.982214e+00 2.771553e+00 1.651685e+00 3.514473e+00 4.330524e+00 1.569121e+00 3.290936e+00 2.347627e+00 1.877065e+00 2.283870e+00 1.362297e+00 6.681158e-01
<GCONST> 8.647262e+01
<MIXTURE> 5 5.536689e-02
<MEAN> 25
 3.792637e+00 3.880874e-02 4.119152e+00 7.006442e+00 -2.990230e+00 -4.102198e+00 -9.737254e-01 2.719665e+00 -1.660505e+00 -6.196509e+00 1.558571e+00 6.865008e-02 6.521845e-01 -6.001087e+00 8.972502e-01 -2.962654e+00 -3.050486e+00 -1.763400e+00 2.372771e-01 1.330127e+00 2.635464e-02 2.412950e+00 9.166310e-01 1.217697e+00 3.985098e+00
<VARIANCE> 25
 2.188790e+01 3.788964e+01 1.890644e+01 4.562327e+01 3.208548e+01 3.656914e+01 1.904827e+01 2.939118e+01 1.804958e+01 2.514567e+01 2.165172e+01 2.290915e+01 1.168316e+00 1.407697e+00 4.968436e+00 4.406272e+00 5.983240e+00 2.399917e+00 4.868963e+00 4.374463e+00 2.718691e+00 4.374085e+00 1.803529e+00 1.503640e+00 5.575126e-01
<GCONST> 9.734310e+01
<MIXTURE> 6 5.382403e-02
<MEAN> 25
 2.564456e+00 3.865696e+00 -3.401892e+00 2.019940e+00 2.477284e+00 3.792540e+00 -1.728897e+00 1.341025e+00 5.093229e+00 -1.039502e+00 -2.508264e+00 -4.442391e+00 -1.497008e+00 -2.085827e-01 2.814067e-01 -1.501137e-01 -4.689881e-01 2.853895e-01 4.094734e-01 2.671092e-01 1.055326e+00 6.988050e-01 1.057484e+00 9.916041e-01 -9.967353e-01
<VARIANCE> 25
 1.017163e+01 3.962979e+01 8.956431e+01 2.182308e+01 2.516953e+01 8.540804e+01 4.105558e+01 6.812852e+01 2.157376e+01 2.990961e+01 1.906295e+01 2.215469e+01 1.753534e-01 6.766828e-01 2.519826e+00 1.195787e+00 1.364071e+00 2.633139e+00 1.803421e+00 2.354734e+00 2.880652e+00 1.694462e+00 1.829085e+00 2.026306e+00 2.115198e-01
<GCONST> 9.068710e+01
<MIXTURE> 7 7.344586e-02
<MEAN> 25
 6.459488e+00 3.573423e+00 -1.776483e+00 5.136352e+00 1.159110e+00 -9.371144e-01 -1.960292e+00 -3.773122e-01 1.618408e+00 -5.612597e-01 5.989003e-01 -5.223482e+00 1.810088e+00 -4.975894e+00 -4.382737e+00 -2.535875e+00 1.705864e+00 -2.280339e-02 -1.919300e+00 1.293070e+00 2.954563e+00 2.061355e+00 -1.524562e+00 -3.132718e-01 3.138052e+00
<VARIANCE> 25
 5.207238e+00 5.907493e+01 1.874434e+01 1.473198e+01 2.297206e+01 2.562636e+01 1.568448e+01 2.163334e+01 1.505316e+01 2.509020e+01 1.536482e+01 1.663597e+01 5.442349e-01 1.916944e+00 2.350613e+00 1.764827e+00 5.133807e+00 3.310827e+00 2.426841e+00 4.674970e+00 3.144572e+00 3.039455e+00 2.613190e+00 2.239122e+00 4.873297e-01
<GCONST> 9.101136e+01
<MIXTURE> 8 7.158029e-02
<MEAN> 25
 9.574210e+00 -8.599383e+00 -7.252264e+00 -6.673121e+00 4.383317e+00 -1.027172e+00 -9.051651e+00 1.371245e+00 1.507871e+00 4.279579e+00 -5.086528e+00 -8.333156e+00 -2.844458e-02 -5.971202e+00 -9.126801e-01 -4.026463e+00 2.582984e+00 2.633328e-01 2.701480e-01 3.613502e+00 3.687857e-01 1.466821e+00 -1.828925e+00 8.801323e-01 3.928337e+00
<VARIANCE> 25
 3.258143e+00 1.689010e+01 1.152330e+01 3.536255e+01 2.328806e+01 4.602703e+01 1.958738e+01 3.089404e+01 2.155813e+01 3.133785e+01 2.356697e+01 2.286134e+01 6.626804e-01 2.843584e+00 1.897925e+00 2.547659e+00 2.466614e+00 5.842074e+00 4.536988e+00 3.316996e+00 2.377393e+00 4.203037e+00 2.578079e+00 2.163483e+00 6.561399e-01
<GCONST> 9.334032e+01
<MIXTURE> 9 5.146503e-02
<MEAN> 25
 1.214443e+01 -4.223455e+00 -1.357829e+01 -2.912598e+00 5.605922e+00 -1.112977e+00 -6.606845e+00 2.328395e+00 6.767803e+00 4.920689e+00 -5.271883e+00 -8.511147e+00 1.173804e+00 -3.685954e+00 -2.757735e+00 -1.963545e+00 1.249670e+00 -4.626617e-01 1.025468e+00 3.082165e+00 1.793846e+00 8.731146e-01 -3.585056e+00 5.020034e-01 2.344831e+00
<VARIANCE> 25
 2.621293e+00 1.452877e+01 1.540199e+01 1.691134e+01 2.518331e+01 2.228358e+01 1.424164e+01 1.642069e+01 1.847769e+01 3.370155e+01 2.442968e+01 1.469741e+01 2.446971e-01 4.553428e+00 1.129116e+00 2.806684e+00 3.832965e+00 6.269579e+00 2.596781e+00 4.515406e+00 3.337116e+00 4.843349e+00 2.081903e+00 2.440202e+00 1.008628e+00
<GCONST> 9.057088e+01
<MIXTURE> 10 6.984476e-02
<MEAN> 25
 7.021253e+00 1.570475e-01 -5.934990e+00 3.933702e+00 4.425027e+00 -6.783764e-01 -4.551559e+00 -2.590124e+00 -3.272796e+00 -4.099655e+00 -4.520991e+00 -5.947659e+00 -1.572874e-01 -1.101452e+00 -6.212142e-01 -1.658059e+00 3.301753e-02 2.306989e-01 -7.234333e-01 1.256990e-01 6.335633e-01 1.089577e+00 1.885911e+00 1.558975e+00 6.370887e-01
<VARIANCE> 25
 8.652551e+00 2.827041e+01 1.913775e+01 3.861498e+01 2.290524e+01 2.609365e+01 2.940397e+01 4.562747e+01 3.482310e+01 2.905869e+01 1.281547e+01 1.424181e+01 1.915299e+00 3.163723e+00 2.367420e+00 3.520000e+00 2.640022e+00 1.976772e+00 2.486592e+00 3.210137e+00 1.963895e+00 3.860214e+00 3.041364e+00 2.711083e+00 1.083058e+00
<GCONST> 9.563947e+01
<MIXTURE> 11 5.090362e-02
<MEAN> 25
 6.995589e+00 -5.868540e+00 7.596867e+00 7.186643e-01 -1.323856e+01 -6.761645e+00 -2.533876e+00 -7.912908e-01 -4.765705e+00 -6.411155e-01 7.237336e-01 -2.849366e+00 2.012969e-01 -3.427467e+00 2.611484e+00 -4.300865e+00 -3.399419e+00 2.067334e-01 1.163025e+00 -9.320838e-01 -1.371700e+00 3.779860e+00 -5.694227e-01 3.689543e-01 3.070313e+00
<VARIANCE> 25
 4.469920e+00 2.278895e+01 1.353032e+01 2.733087e+01 3.680718e+01 1.656507e+01 1.929882e+01 2.469129e+01 1.571315e+01 2.262062e+01 1.814396e+01 1.937742e+01 1.293095e+00 3.178993e+00 4.013093e+00 3.189873e+00 4.269518e+00 3.461826e+00 3.414338e+00 4.403679e+00 4.071644e+00 3.443251e+00 2.240003e+00 1.966766e+00 1.071904e+00
<GCONST> 9.435846e+01
<MIXTURE> 12 4.655297e-02
<MEAN> 25
 1.009879e+01 -9.574731e+00 -1.027785e+01 -6.911212e+00 8.273143e+00 2.461735e+00 -2.503748e+00 5.875379e+00 1.296483e+00 5.565739e+00 -7.339724e+00 -8.716834e+00 -3.937020e-01 -2.942833e+00 1.848947e-01 -8.215036e-01 1.878550e+00 4.591587e-01 2.041842e+00 2.904249e+00 -1.070137e+00 -5.150362e-01 -2.014737e+00 1.233960e+00 1.704885e+00
<VARIANCE> 25
 3.215949e+00 2.753788e+01 2.477309e+01 2.214361e+01 2.117727e+01 4.886374e+01 2.524927e+01 2.565825e+01 2.604973e+01 2.745956e+01 2.130399e+01 1.901008e+01 2.496415e-01 1.744263e+00 1.540758e+00 2.040774e+00 2.450915e+00 5.190780e+00 2.237602e+00 3.916493e+00 2.655702e+00 2.923992e+00 2.066453e+00 1.987383e+00 4.790180e-01
<GCONST> 9.048457e+01
<MIXTURE> 13 5.499850e-02
<MEAN> 25
 4.446243e+00 7.526311e-01 2.638807e+00 1.239614e+01 1.709228e+00 -7.212974e+00 -6.179220e+00 -9.327933e-01 4.666957e-01 -5.095857e+00 -1.224863e+00 -2.668671e+00 1.016456e+00 -4.059435e+00 -3.212125e-01 -8.031308e-01 -2.847903e+00 -1.511434e+00 -1.173945e-01 3.060734e-01 7.742612e-01 7.596231e-01 1.428946e-01 1.493429e+00 2.436627e+00
<VARIANCE> 25
 1.337011e+01 5.081361e+01 3.417428e+01 3.756323e+01 2.591011e+01 2.999215e+01 2.267903e+01 1.245761e+01 1.953666e+01 1.277702e+01 1.313013e+01 1.561542e+01 6.316994e-01 2.350166e+00 3.332380e+00 3.930045e+00 4.676300e+00 4.617879e+00 3.546582e+00 2.085622e+00 3.931325e+00 3.173255e+00 3.620957e+00 1.642539e+00 4.605923e-01
<GCONST> 9.434050e+01
<MIXTURE> 14 5.513152e-02
<MEAN> 25
 7.155749e+00 3.845427e+00 -1.887508e-01 6.073696e+00 4.054525e-01 -1.326411e+00 -5.018125e+00 -5.797773e+00 -2.422861e+00 -3.800363e+00 -2.882764e+00 -7.633574e+00 7.472209e-01 -5.586198e+00 -2.848114e+00 -3.700679e+00 2.648006e+00 -3.001919e-01 -2.154009e+00 2.830598e+00 1.943959e+00 2.326462e+00 -2.520169e-01 4.143030e-01 3.506038e+00
<VARIANCE> 25
 5.575857e+00 5.357788e+01 1.658630e+01 2.036508e+01 1.035198e+01 1.110656e+01 1.426938e+01 1.556563e+01 2.017303e+01 2.066003e+01 1.050427e+01 1.098162e+01 6.037453e-01 2.290276e+00 3.187009e+00 2.800813e+00 4.347613e+00 4.030707e+00 3.665962e+00 5.379210e+00 4.079601e+00 3.194713e+00 3.286208e+00 1.077632e+00 6.386841e-01
<GCONST> 9.013927e+01
<MIXTURE> 15 5.481768e-02
<MEAN> 25
 1.105419e+01 1.007248e+00 -1.218614e+01 -3.109706e+00 4.007609e+00 9.710031e-01 -7.003035e+00 -4.832521e+00 3.735097e+00 6.356951e+00 -2.536923e-01 -9.739627e+00 1.619314e+00 -5.446084e+00 -4.540239e+00 -3.239801e+00 2.854472e+00 4.602884e-01 -1.303387e+00 1.894592e+00 1.683544e+00 2.691696e+00 -2.047341e+00 -1.312358e+00 3.294638e+00
<VARIANCE> 25
 3.534186e+00 2.308129e+01 1.590262e+01 1.661110e+01 1.337012e+01 1.475224e+01 1.769548e+01 1.645683e+01 1.577683e+01 1.432815e+01 1.578508e+01 1.036951e+01 3.256449e-01 2.054200e+00 1.696685e+00 3.576710e+00 3.623807e+00 3.989546e+00 2.117209e+00 5.257453e+00 4.343481e+00 4.160500e+00 1.864863e+00 3.362075e+00 3.400840e-01
<GCONST> 8.753564e+01
<MIXTURE> 16 5.533567e-02
<MEAN> 25
 1.118526e+01 -4.563387e+00 -1.305304e+01 -6.956799e+00 4.974730e+00 2.176713e+00 -8.545669e+00 -2.745913e+00 5.421813e+00 5.108583e+00 -7.142441e+00 -9.295758e+00 7.939496e-01 -3.797364e+00 -2.255583e+00 -2.101592e+00 1.743473e+00 6.160368e-01 -6.657825e-01 2.195679e+00 1.657289e+00 3.192605e-01 -3.080439e+00 -1.123076e-01 2.216301e+00
<VARIANCE> 25
 2.703150e+00 1.971417e+01 2.201529e+01 3.101632e+01 2.631754e+01 1.930142e+01 2.006176e+01 2.364549e+01 3.727187e+01 1.738275e+01 2.105793e+01 2.116076e+01 3.233408e-01 4.159735e+00 3.947768e+00 2.880590e+00 5.217380e+00 2.784068e+00 1.801634e+00 3.517791e+00 5.337492e+00 2.037532e+00 2.186616e+00 2.078624e+00 9.400746e-01
<GCONST> 9.250322e+01
<MIXTURE> 17 4.786178e-02
<MEAN> 25
 3.461684e+00 9.182501e-01 -4.600193e+00 2.816891e+00 4.107713e+00 -1.091369e+00 -5.179311e+00 4.553899e+00 2.174889e+00 -6.715424e+00 -3.215182e+00 -2.911418e+00 -1.955269e+00 -8.245519e-01 4.751997e-01 -7.409440e-01 2.017329e-01 7.588865e-01 6.156397e-01 3.282785e-01 1.524150e-01 -2.128132e-02 2.137675e+00 9.359384e-01 -6.904932e-01
<VARIANCE> 25
 6.943611e+00 4.273500e+01 6.381709e+01 3.475773e+01 2.090528e+01 5.984540e+01 3.086226e+01 4.656586e+01 3.576571e+01 3.772181e+01 2.871914e+01 2.168846e+01 6.136101e-01 1.453115e+00 2.523825e+00 1.543648e+00 1.752636e+00 2.304580e+00 3.799473e+00 2.544049e+00 2.699175e+00 2.741285e+00 1.671619e+00 1.800210e+00 6.765671e-01
<GCONST> 9.501015e+01
<MIXTURE> 18 4.429413e-02
<MEAN> 25
 9.811042e+00 -1.091350e+01 -1.017604e+01 -7.028902e+00 7.404866e+00 1.402424e+00 -4.826970e+00 4.841530e+00 6.822606e-01 3.169939e+00 -9.925553e+00 -9.549398e+00 -4.636491e-01 -3.413677e+00 9.511950e-02 -8.187079e-01 1.470694e+00 -4.772664e-02 1.705877e+00 2.651788e+00 -1.218050e+00 -1.215308e+00 -2.421898e+00 1.063573e+00 1.837097e+00
<VARIANCE> 25
 4.083054e+00 2.677720e+01 2.758521e+01 1.989834e+01 2.359443e+01 4.202514e+01 2.411248e+01 2.589432e+01 2.770168e+01 2.841520e+01 2.362160e+01 2.480964e+01 2.587560e-01 1.630031e+00 1.669979e+00 2.599093e+00 3.054383e+00 4.026125e+00 1.949106e+00 3.584796e+00 1.906649e+00 2.461456e+00 2.305081e+00 2.386713e+00 5.188700e-01
<GCONST> 9.098029e+01
<MIXTURE> 19 3.735985e-02
<MEAN> 25
 8.302550e+00 7.266687e-01 -5.479247e+00 1.019521e+00 1.139667e+00 -9.515721e-01 -3.011124e+00 -4.303986e+00 -3.481704e+00 -8.807501e-01 3.235453e+00 -4.488800e+00 1.298781e+00 -3.388741e+00 -3.195217e+00 -4.935109e+00 1.536138e+00 1.571288e+00 -1.120963e+00 -4.819611e-01 -5.191890e-01 3.664659e+00 6.591051e-01 -1.833174e-01 2.710605e+00
<VARIANCE> 25
 5.911391e+00 3.708792e+01 1.636772e+01 4.694243e+01 1.521943e+01 3.168409e+01 2.274734e+01 2.907812e+01 2.625147e+01 2.835788e+01 2.193337e+01 1.792145e+01 6.397194e-01 3.849642e+00 2.659548e+00 4.113987e+00 1.878541e+00 2.919998e+00 2.642702e+00 2.996251e+00 4.246500e+00 3.242355e+00 4.212643e+00 4.469325e+00 1.297038e+00
<GCONST> 9.612365e+01
<TRANSP> 5
 0.000000e+00 1.000000e+00 0.000000e+00 0.000000e+00 0.000000e+00
 0.000000e+00 7.891436e-01 2.108563e-01 0.000000e+00 0.000000e+00
 0.000000e+00 0.000000e+00 5.719544e-01 4.280456e-01 0.000000e+00
 0.000000e+00 0.000000e+00 0.000000e+00 6.436715e-01 3.563285e-01
 0.000000e+00 0.000000e+00 0.000000e+00 0.000000e+00 0.000000e+00
<ENDHMM>
~h "d"
<BEGINHMM>
<NUMSTATES> 5
<STATE> 2
<NUMMIXES> 19
<MIXTURE> 1 6.080614e-02
<MEAN> 25
 3.699514e+00 9.454110e+00 -8.253838e-02 8.026450e+00 7.229401e-01 -2.344226e+00 4.825933e-01 4.192247e+00 1.192820e+00 -4.972867e+00 1.981593e+00 -1.210726e+00 -9.274474e-01 4.524342e-01 1.529829e-01 -1.087698e-03 4.125312e-01 9.482222e-01 2.985412e-01 7.468298e-02 1.331413e-01 -1.694871e-01 1.939168e-01 -5.455010e-01 -8.676302e-01
<VARIANCE> 25
 1.997462e+01 2.118705e+01 1.624103e+01 1.784392e+01 1.763523e+01 3.135976e+01 2.928169e+01 2.996328e+01 2.311768e+01 2.000584e+01 1.296292e+01 1.676166e+01 4.924225e-01 8.912945e-01 4.999748e-01 8.181685e-01 1.004059e+00 1.736140e+00 1.444592e+00 1.539204e+00 1.249267e+00 1.007068e+00 1.628639e+00 1.400777e+00 2.066358e-01
<GCONST> 8.138915e+01
<MIXTURE> 2 3.681190e-02
<MEAN> 25
 8.485551e+00 3.571521e+00 -4.615299e+00 8.742134e+00 1.169380e+00 -5.637934e+00 1.230549e+00 6.740946e+00 1.546605e+00 -5.787517e+00 -2.916493e+00 -7.108088e-01 -5.574666e-01 2.597462e+00 3.020276e-01 1.450234e+00 1.476681e+00 1.570154e+00 2.135205e-01 5.839009e-01 5.122398e-01 -1.114249e+00 1.030952e+00 -8.544073e-01 -1.848118e+00
