~o
<STREAMINFO> 1 25
<VECSIZE> 25<NULLD><MFCC_D_N_Z_0><DIAGC>
~s "silst"
<NUMMIXES> 9
<MIXTURE> 1 7.633029e-02
<MEAN> 25
 -9.938889e+00 5.688494e+00 -2.547313e+00 5.652381e+00 2.366956e+00 1.366517e+00 2.764090e-01 5.383812e+00 6.909049e+00 6.617902e+00 1.040048e+01 3.335810e+00 2.452478e-01 3.840462e-01 6.374792e-01 6.343274e-01 6.024893e-01 4.492259e-01 4.656817e-01 3.216261e-01 2.165373e-01 1.072264e-01 2.814479e-02 -6.395892e-02 1.746971e-01
<VARIANCE> 25
 3.112685e+00 5.259702e+00 9.200883e+00 9.320938e+00 1.272406e+01 1.299756e+01 1.311030e+01 1.366404e+01 1.366948e+01 1.156033e+01 1.328757e+01 1.196807e+01 8.684345e-02 2.230240e-01 3.198585e-01 4.793907e-01 6.852846e-01 8.781695e-01 1.012132e+00 1.095585e+00 1.199857e+00 1.089030e+00 1.062605e+00 1.087647e+00 7.489700e-02
<GCONST> 6.521915e+01
<MIXTURE> 2 1.231672e-01
<MEAN> 25
 -9.755294e+00 5.714883e+00 -2.585023e+00 5.838017e+00 2.493947e+00 1.514071e+00 9.000703e-01 6.350215e+00 8.019736e+00 7.631381e+00 1.110690e+01 3.592066e+00 2.613229e-02 -3.971448e-02 -6.944244e-02 -2.170460e-01 -2.416852e-01 -2.867318e-01 -8.991931e-02 6.554783e-02 3.492116e-01 4.399460e-01 4.382926e-01 2.999318e-01 8.347995e-02
<VARIANCE> 25
 3.093134e+00 6.127561e+00 9.239256e+00 9.169538e+00 1.495601e+01 1.301290e+01 1.268423e+01 1.254423e+01 1.263822e+01 1.154602e+01 1.167916e+01 1.141702e+01 9.809927e-02 2.051627e-01 2.925584e-01 4.579327e-01 6.018558e-01 7.811230e-01 9.564969e-01 1.048615e+00 1.130894e+00 1.127575e+00 1.095604e+00 1.024167e+00 6.832414e-02
<GCONST> 6.455206e+01
<MIXTURE> 3 7.900115e-02
<MEAN> 25
 -9.433304e+00 6.450306e+00 -1.555757e+00 5.991343e+00 2.924910e+00 1.523787e+00 3.033711e-01 4.362161e+00 5.759761e+00 4.817738e+00 8.909317e+00 2.344693e+00 2.255248e-03 5.164076e-02 1.494100e-01 2.744228e-01 4.537062e-01 6.144649e-01 7.306732e-01 7.933658e-01 8.469517e-01 8.479099e-01 7.246885e-01 4.055354e-01 -5.073902e-03
<VARIANCE> 25
 2.579254e+00 4.731369e+00 7.013188e+00 7.819253e+00 1.066272e+01 1.146657e+01 1.146753e+01 1.234073e+01 1.165890e+01 1.131970e+01 1.217081e+01 1.055539e+01 6.862192e-02 1.761884e-01 3.047343e-01 3.968463e-01 5.462884e-01 7.410120e-01 8.480931e-01 1.007519e+00 1.007137e+00 1.002545e+00 1.040120e+00 1.062564e+00 2.884576e-02
<GCONST> 6.092432e+01
<MIXTURE> 4 1.467729e-01
<MEAN> 25
 -9.523816e+00 6.389679e+00 -1.491559e+00 5.665293e+00 2.549705e+00 1.200681e+00 -3.580529e-01 3.474080e+00 4.850851e+00 4.261834e+00 8.420327e+00 2.186728e+00 -4.646590e-02 -1.235917e-01 -2.167507e-01 -3.613896e-01 -5.120559e-01 -6.739573e-01 -7.415889e-01 -7.334276e-01 -6.376547e-01 -5.071716e-01 -3.661863e-01 -1.896649e-01 1.026437e-02
<VARIANCE> 25
 2.768953e+00 5.144284e+00 7.266645e+00 7.965702e+00 1.060018e+01 1.154027e+01 1.192681e+01 1.248374e+01 1.248553e+01 1.209994e+01 1.272271e+01 1.121070e+01 8.980874e-02 2.158246e-01 3.456985e-01 5.238785e-01 6.778954e-01 7.209728e-01 9.408853e-01 1.028296e+00 1.057694e+00 1.010687e+00 1.099447e+00 1.047988e+00 4.759542e-02
<GCONST> 6.321208e+01
<MIXTURE> 5 1.129745e-01
<MEAN> 25
 -8.644907e+00 7.492772e+00 -1.173593e+00 5.473913e+00 1.535851e+00 2.418666e-01 -1.268124e+00 2.608581e+00 4.972698e+00 4.220074e+00 8.255855e+00 1.596014e+00 9.624648e-02 1.909629e-01 2.918577e-01 3.719366e-01 3.692248e-01 3.289708e-01 2.512590e-01 9.653591e-02 -7.079311e-02 -1.352706e-01 -9.144391e-02 -2.663750e-02 3.635711e-02
<VARIANCE> 25
 2.548795e+00 4.988063e+00 7.041333e+00 7.984129e+00 1.036182e+01 1.081097e+01 1.153018e+01 1.189477e+01 1.276211e+01 1.171905e+01 1.210822e+01 1.021271e+01 7.039596e-02 1.725724e-01 3.024997e-01 4.430068e-01 5.707340e-01 7.378358e-01 9.342535e-01 9.747269e-01 9.969376e-01 9.758062e-01 9.531944e-01 9.849554e-01 2.933461e-02
<GCONST> 6.098532e+01
<MIXTURE> 6 1.295101e-01
<MEAN> 25
 -9.179111e+00 6.038582e+00 -2.546869e+00 4.817281e+00 1.126184e+00 -2.922641e-01 -8.578027e-01 4.603211e+00 6.926026e+00 6.370034e+00 9.987299e+00 2.709035e+00 -2.269818e-01 -3.779242e-01 -4.736965e-01 -5.464042e-01 -4.585907e-01 -3.745139e-01 -1.989815e-01 -4.996127e-02 1.778951e-01 3.054118e-01 3.691187e-01 2.809832e-01 -5.578174e-02
<VARIANCE> 25
 3.045569e+00 6.220611e+00 9.706418e+00 9.381342e+00 1.470395e+01 1.320959e+01 1.243090e+01 1.278493e+01 1.270840e+01 1.169227e+01 1.198380e+01 1.143769e+01 9.435715e-02 2.006149e-01 3.204862e-01 5.009113e-01 6.782445e-01 8.395292e-01 1.033910e+00 1.035538e+00 1.058968e+00 1.099814e+00 1.109661e+00 1.091907e+00 4.928819e-02
<GCONST> 6.470235e+01
<MIXTURE> 7 1.307843e-01
<MEAN> 25
 -9.135798e+00 6.384093e+00 -2.916434e+00 4.294371e+00 -9.079845e-02 -9.859057e-01 -1.597170e+00 4.779368e+00 7.343798e+00 7.243537e+00 1.060737e+01 2.783198e+00 1.416289e-01 1.305916e-01 3.426602e-01 1.692262e-01 3.086059e-01 6.811225e-02 4.444210e-03 -3.002163e-01 -4.384003e-01 -5.819942e-01 -5.822849e-01 -3.844442e-01 2.266363e-01
<VARIANCE> 25
 3.539964e+00 7.181879e+00 1.013858e+01 1.074545e+01 1.662226e+01 1.440874e+01 1.319771e+01 1.430277e+01 1.486711e+01 1.445301e+01 1.342048e+01 1.085851e+01 1.459952e-01 3.055274e-01 3.911189e-01 7.096881e-01 8.779833e-01 1.071948e+00 1.157189e+00 1.245502e+00 1.279504e+00 1.176453e+00 1.116793e+00 1.074028e+00 1.037060e-01
<GCONST> 6.918227e+01
<MIXTURE> 8 8.794627e-02
<MEAN> 25
 -8.949335e+00 6.614532e+00 -1.876719e+00 4.306537e+00 4.801241e-01 -1.083499e+00 -2.605591e+00 1.260445e+00 3.433183e+00 2.841164e+00 6.963903e+00 7.181292e-01 -3.376538e-02 -8.984569e-03 -9.316955e-04 6.171234e-02 4.179439e-02 -2.066963e-03 -9.978630e-02 -1.982147e-01 -3.377321e-01 -4.585356e-01 -4.229395e-01 -2.819088e-01 -2.733011e-02
<VARIANCE> 25
 2.762239e+00 5.555634e+00 7.370005e+00 8.050146e+00 1.054811e+01 1.061819e+01 1.148920e+01 1.297619e+01 1.325316e+01 1.236833e+01 1.220024e+01 1.058628e+01 7.675901e-02 1.893196e-01 3.205881e-01 4.624960e-01 6.169320e-01 7.519171e-01 9.731527e-01 1.053905e+00 1.048502e+00 9.972352e-01 1.033435e+00 9.979644e-01 3.209181e-02
<GCONST> 6.219765e+01
<MIXTURE> 9 1.134646e-01
<MEAN> 25
 -9.603135e+00 5.939431e+00 -1.841331e+00 5.205908e+00 2.085497e+00 4.183240e-01 -8.381839e-01 2.975305e+00 4.080253e+00 3.263821e+00 7.543302e+00 1.368161e+00 -1.270775e-01 -1.197793e-01 -1.058822e-01 1.536161e-02 1.561016e-01 3.368967e-01 4.176903e-01 4.926505e-01 5.282634e-01 5.027124e-01 3.847672e-01 1.604337e-01 -7.199071e-02
<VARIANCE> 25
 2.691597e+00 4.817525e+00 7.278232e+00 7.585990e+00 1.039007e+01 1.144763e+01 1.131816e+01 1.212992e+01 1.169053e+01 1.110632e+01 1.166820e+01 1.171605e+01 6.703766e-02 1.698133e-01 2.863559e-01 4.070286e-01 5.685328e-01 7.139040e-01 8.388319e-01 9.679694e-01 9.983286e-01 9.644549e-01 1.008341e+00 1.047771e+00 2.666571e-02
<GCONST> 6.066313e+01
~h "a"
<BEGINHMM>
<NUMSTATES> 5
<STATE> 2
<NUMMIXES> 9
<MIXTURE> 1 8.620526e-02
<MEAN> 25
 -5.737283e+00 -2.404490e+00 -2.625540e+00 7.204712e-01 2.452442e+00 -2.654913e+00 3.435043e+00 2.612274e+00 4.926657e+00 1.102686e+00 4.642891e+00 3.647561e+00 6.820572e-01 -8.123866e-01 -9.427402e-02 -2.572414e-01 1.336066e+00 3.754024e-01 -8.841780e-03 6.864876e-01 -3.788170e-02 1.242682e-02 -1.033861e+00 1.874724e-01 6.046621e-01
<VARIANCE> 25
 3.959484e+01 4.104115e+01 7.082799e+01 6.191795e+01 7.166079e+01 6.597527e+01 5.872468e+01 5.859513e+01 4.286277e+01 5.012283e+01 6.050757e+01 3.365029e+01 3.381579e+00 6.814759e+00 5.547069e+00 5.715105e+00 8.356335e+00 4.953758e+00 4.726499e+00 5.467505e+00 4.121535e+00 4.936358e+00 4.197753e+00 3.057549e+00 6.107311e+00
<GCONST> 1.145658e+02
<MIXTURE> 2 1.262228e-01
<MEAN> 25
 9.293379e+00 -9.275686e+00 -7.217631e+00 -1.824068e+00 2.631437e+00 -3.776695e+00 9.051547e-01 6.275627e+00 4.243638e+00 -1.538639e+00 -1.019062e+01 -5.314854e-01 5.454034e-02 -1.030360e+00 5.438721e-01 -9.113486e-02 1.267423e-01 -2.233429e-01 1.587084e+00 1.493562e+00 -4.903520e-01 -1.578092e-02 -1.033160e+00 5.669689e-01 6.669738e-01
<VARIANCE> 25
 5.059204e+00 1.629980e+01 2.638906e+01 2.861098e+01 4.791353e+01 3.590453e+01 3.795982e+01 2.599515e+01 2.370583e+01 4.788196e+01 2.768341e+01 3.390303e+01 6.343780e-01 1.272699e+00 2.311559e+00 2.084027e+00 3.761608e+00 3.292295e+00 3.241834e+00 2.649131e+00 2.666716e+00 4.493032e+00 3.110938e+00 3.227962e+00 4.185147e-01
<GCONST> 9.515368e+01
<MIXTURE> 3 1.103751e-01
<MEAN> 25
 8.954294e-01 3.036461e+00 -1.961597e+00 5.226517e+00 -1.410265e-01 -2.488013e+00 -1.691082e+00 -7.055194e-01 3.367462e-01 -2.450228e+00 3.046775e+00 -2.292215e-01 -1.136924e+00 3.640031e-01 -1.457309e-03 5.313625e-01 8.546880e-01 4.228917e-01 2.632996e-01 6.115806e-01 6.122643e-01 3.971210e-01 8.113125e-01 1.692041e-01 -1.127879e+00
<VARIANCE> 25
 3.669986e+01 5.949670e+01 5.160228e+01 3.644501e+01 4.510099e+01 4.429811e+01 5.200351e+01 4.964478e+01 4.854686e+01 3.838402e+01 3.497813e+01 2.709176e+01 8.514380e-01 1.851255e+00 1.978096e+00 1.590834e+00 2.281752e+00 2.062051e+00 2.129963e+00 2.236060e+00 2.273656e+00 2.141656e+00 2.089375e+00 1.849554e+00 4.931523e-01
<GCONST> 9.795390e+01
<MIXTURE> 4 1.340780e-01
<MEAN> 25
 4.872958e+00 -1.353939e+01 -3.762684e+00 -8.554102e+00 6.887414e+00 -3.247616e+00 -5.316997e-01 7.381755e+00 -2.785698e-01 -1.115431e+00 -9.666792e+00 1.934409e+00 1.718518e+00 -2.308840e+00 6.764755e-01 -1.987536e+00 7.891667e-01 -2.872595e-01 8.019587e-02 9.522633e-01 -1.427339e+00 7.196670e-03 -2.494755e+00 -8.113232e-01 2.964889e+00
<VARIANCE> 25
 1.411537e+01 2.015891e+01 3.122898e+01 3.777035e+01 6.638972e+01 5.569937e+01 2.880889e+01 2.404315e+01 3.669567e+01 4.451469e+01 2.700978e+01 2.996173e+01 1.586037e+00 2.726691e+00 3.042522e+00 3.152150e+00 4.975665e+00 3.641094e+00 3.112096e+00 3.146139e+00 3.268121e+00 3.867991e+00 3.495246e+00 2.571776e+00 3.216283e+00
<GCONST> 1.023259e+02
<MIXTURE> 5 1.065864e-01
<MEAN> 25
 4.523384e+00 -2.282746e+00 7.825253e+00 -6.070009e+00 -7.596467e+00 -2.221164e+00 6.821122e-01 -4.242421e+00 -2.478843e+00 1.760991e+00 -4.968867e+00 1.264262e+00 -1.071053e-01 7.638381e-01 -2.627715e-01 5.432950e-01 1.310083e-01 1.370053e-01 1.335591e-01 -5.410323e-02 1.513469e-01 -1.508671e-01 1.142348e-01 7.018741e-02 -6.931034e-01
<VARIANCE> 25
 1.168344e+01 5.973996e+01 3.784097e+01 9.414085e+01 3.926751e+01 5.043375e+01 4.987407e+01 4.646545e+01 3.127780e+01 5.126212e+01 2.783280e+01 3.427170e+01 4.306996e-01 1.375196e+00 1.099777e+00 2.644574e+00 1.745958e+00 2.373620e+00 2.207503e+00 2.337161e+00 2.065629e+00 2.644702e+00 2.488210e+00 1.874892e+00 7.564820e-01
<GCONST> 9.681836e+01
<MIXTURE> 6 1.355090e-01
<MEAN> 25
 6.617087e+00 -1.326725e+01 -1.256405e+00 -5.520360e+00 3.575020e+00 -3.643385e+00 -6.757022e-02 7.120760e+00 -2.851301e+00 -3.238134e+00 -9.166684e+00 -1.351583e+00 -2.725444e-01 -1.426100e+00 7.084851e-01 -6.910395e-01 1.140442e+00 1.153140e-01 1.166385e+00 1.654211e+00 -1.047055e+00 -4.378657e-01 -1.154363e+00 5.017707e-01 8.882171e-01
<VARIANCE> 25
 4.897347e+00 1.336182e+01 2.543072e+01 2.968246e+01 4.732892e+01 3.671128e+01 3.443396e+01 2.731101e+01 3.252993e+01 5.851262e+01 2.801845e+01 3.030756e+01 5.669309e-01 1.037155e+00 2.520725e+00 2.110377e+00 3.217247e+00 3.185139e+00 2.920717e+00 2.729997e+00 2.799584e+00 3.801090e+00 2.231734e+00 3.090398e+00 4.057485e-01
<GCONST> 9.429408e+01
<MIXTURE> 7 1.058090e-01
<MEAN> 25
 5.268787e+00 -7.175760e+00 3.920104e+00 -1.826453e+00 -6.231295e+00 -7.585757e+00 4.332986e-02 1.721969e+00 -4.465599e+00 -1.983860e+00 -4.243168e+00 8.493264e-01 -5.097080e-03 1.771566e+00 -8.986183e-01 2.003815e+00 3.692491e-01 1.437669e-01 -4.491069e-01 -6.468484e-01 3.084339e-01 -8.316591e-01 1.038076e-01 -4.189456e-01 -1.596689e+00
<VARIANCE> 25
 8.202127e+00 2.654137e+01 2.791585e+01 4.541866e+01 3.369003e+01 2.822781e+01 4.137632e+01 3.994661e+01 2.998136e+01 4.395377e+01 2.417532e+01 2.580852e+01 5.075380e-01 1.429287e+00 1.075356e+00 1.750095e+00 1.857227e+00 2.595792e+00 3.040069e+00 2.339015e+00 1.871806e+00 2.158267e+00 2.221955e+00 1.835342e+00 6.993416e-01
<GCONST> 9.265277e+01
<MIXTURE> 8 1.105704e-01
<MEAN> 25
 3.456066e+00 1.931305e+00 -1.611024e+00 5.276966e+00 -8.058158e-01 -5.136590e+00 -4.455398e+00 -2.466422e+00 -2.578936e+00 -5.222139e+00 -9.099393e-02 -1.526799e+00 -1.158735e+00 7.367982e-01 -1.882298e-02 3.238233e-01 8.719181e-01 1.532656e-01 1.715277e-02 2.679750e-01 1.150692e-01 -5.029378e-03 5.795584e-01 -2.211895e-01 -1.126435e+00
<VARIANCE> 25
 2.828360e+01 5.605844e+01 4.808692e+01 3.770455e+01 4.112661e+01 3.995787e+01 4.980605e+01 5.303683e+01 5.101280e+01 3.999043e+01 3.469926e+01 2.961530e+01 8.300667e-01 1.807494e+00 1.786451e+00 1.680596e+00 2.258195e+00 2.146861e+00 2.392248e+00 2.507278e+00 2.318874e+00 2.324582e+00 2.008240e+00 1.872352e+00 5.138667e-01
<GCONST> 9.787606e+01
<MIXTURE> 9 8.465385e-02
<MEAN> 25
 -1.999543e+00 -1.468085e+00 4.218575e-01 -8.723733e-01 -5.370600e-02 -4.814003e+00 6.470810e-01 -5.199283e-01 7.717421e-01 -8.239917e-01 2.353553e+00 1.843601e+00 1.020231e+00 -1.263402e-01 2.665177e-01 -2.694353e-01 4.447659e-01 -1.609317e-01 -7.209096e-01 -1.639377e-01 -3.371284e-01 -1.784700e-01 -1.295665e+00 -3.549356e-01 6.076989e-01
<VARIANCE> 25
 5.651506e+01 4.771206e+01 7.226336e+01 8.277181e+01 7.191561e+01 6.210139e+01 6.399720e+01 5.901894e+01 4.700091e+01 5.931967e+01 5.296009e+01 4.398263e+01 5.596159e+00 6.347042e+00 6.067735e+00 6.810583e+00 7.870525e+00 5.518735e+00 6.057677e+00 5.543955e+00 4.218685e+00 5.811105e+00 5.079771e+00 3.433032e+00 3.197828e+00
<GCONST> 1.166677e+02
<STATE> 3
<NUMMIXES> 9
<MIXTURE> 1 1.625767e-01
<MEAN> 25
 -3.739137e+00 2.070418e+00 -2.111304e+00 5.571332e+00 9.908853e-01 -2.998249e+00 5.319721e-01 1.632255e+00 2.588739e+00 -1.270931e+00 4.957790e+00 9.971293e-01 -7.697998e-01 6.756278e-01 -3.195170e-01 4.205568e-01 6.638396e-01 6.134034e-01 -8.182660e-02 5.028865e-01 3.067808e-01 3.080053e-01 5.836067e-02 -1.240941e-01 -1.432377e+00
<VARIANCE> 25
 3.168089e+01 4.290011e+01 4.598565e+01 3.216364e+01 4.841508e+01 4.446795e+01 5.049829e+01 4.514848e+01 4.373831e+01 3.707342e+01 3.040892e+01 2.473153e+01 1.457344e+00 2.113106e+00 2.299397e+00 1.894186e+00 2.636691e+00 2.922657e+00 2.795971e+00 2.544919e+00 2.640160e+00 2.464475e+00 2.619448e+00 1.892667e+00 7.046015e-01
<GCONST> 9.960526e+01
<MIXTURE> 2 1.147018e-01
<MEAN> 25
 9.023077e+00 -1.015859e+01 -6.257597e+00 -5.952770e-01 2.147741e+00 -3.319579e+00 4.089413e+00 7.611402e+00 1.734605e+00 -4.170449e+00 -9.830519e+00 6.936461e-01 -5.623876e-02 1.781242e-01 4.481193e-01 3.464606e-01 -1.308712e-01 -2.309038e-02 7.306997e-01 2.707279e-01 -7.260354e-01 1.968348e-01 5.171310e-01 7.200129e-02 -1.549467e-01
<VARIANCE> 25
 3.698058e+00 1.287784e+01 2.094006e+01 2.353318e+01 3.589419e+01 3.243645e+01 2.435571e+01 2.383091e+01 2.918798e+01 4.490589e+01 2.223883e+01 2.411010e+01 1.749381e-01 6.704856e-01 1.244075e+00 1.150991e+00 3.750239e+00 2.472474e+00 2.704551e+00 2.245066e+00 2.199109e+00 2.840616e+00 2.255409e+00 2.445148e+00 1.565671e-01
<GCONST> 8.682861e+01
<MIXTURE> 3 7.965835e-02
<MEAN> 25
 8.403281e+00 -3.506951e+00 -6.723579e+00 1.536825e+00 2.262593e+00 -6.505011e+00 -1.932775e+00 4.263732e+00 3.328716e+00 -3.691577e-01 -8.120044e+00 -1.334265e+00 -8.161291e-01 2.295242e+00 4.904829e-02 1.581011e+00 -5.906494e-02 -1.838047e-02 -1.219716e-01 -3.005620e-02 2.071768e-01 -3.797613e-01 1.456911e+00 -1.307403e-02 -2.117635e+00
<VARIANCE> 25
 5.427435e+00 2.749808e+01 1.598460e+01 2.981217e+01 3.380504e+01 3.596207e+01 4.199623e+01 2.689058e+01 2.656520e+01 4.567793e+01 2.716801e+01 3.227723e+01 6.334144e-01 1.012770e+00 1.602364e+00 1.444891e+00 2.229887e+00 1.899399e+00 2.984077e+00 3.017347e+00 2.986436e+00 2.635634e+00 2.318263e+00 2.038257e+00 6.813831e-01
<GCONST> 9.239834e+01
<MIXTURE> 4 9.075668e-02
<MEAN> 25
 6.429421e+00 -1.318758e+01 -2.600172e+00 -7.911643e+00 7.461221e+00 -2.047642e+00 1.243200e+00 8.013570e+00 -8.351465e-01 -4.275142e-01 -9.848329e+00 1.907570e-01 5.630316e-01 9.039104e-01 -3.526268e-01 8.686142e-01 -1.385415e-01 -7.806189e-02 -6.590059e-02 -1.956966e-01 2.947906e-01 5.198039e-01 1.522064e-01 -3.614921e-01 -4.335300e-01
<VARIANCE> 25
 6.301242e+00 1.498036e+01 2.384990e+01 2.537242e+01 5.122754e+01 4.480457e+01 2.876486e+01 2.536997e+01 2.907378e+01 4.301313e+01 2.244160e+01 3.480801e+01 3.333316e-01 9.455541e-01 1.009833e+00 1.312513e+00 2.976583e+00 2.198627e+00 2.102862e+00 1.582191e+00 1.684881e+00 2.429549e+00 1.578145e+00 1.776935e+00 4.632865e-01
<GCONST> 8.890224e+01
<MIXTURE> 5 9.460978e-02
<MEAN> 25
 5.494192e+00 -1.996106e+00 1.617337e+00 1.466739e+00 -4.194175e+00 -8.018375e+00 -1.612752e-01 1.487947e+00 -1.390474e+00 -7.741469e-01 -3.637372e+00 1.771239e+00 -7.957332e-01 2.442732e+00 -5.175985e-01 2.280872e+00 -5.628533e-02 6.625296e-01 1.800355e-01 2.398964e-01 8.999605e-01 -5.433846e-01 1.297559e+00 -5.264553e-01 -2.528301e+00
<VARIANCE> 25
 8.422504e+00 2.897883e+01 2.698231e+01 4.055001e+01 4.447042e+01 3.392363e+01 4.217698e+01 4.419297e+01 2.983011e+01 4.141002e+01 3.186365e+01 3.069627e+01 5.249740e-01 9.137851e-01 9.539310e-01 1.430702e+00 1.868255e+00 1.869147e+00 2.143029e+00 2.276602e+00 1.892743e+00 2.116372e+00 2.037740e+00 1.800513e+00 5.079547e-01
<GCONST> 9.171825e+01
<MIXTURE> 6 1.274420e-01
<MEAN> 25
 1.788373e+00 6.747354e-01 2.240875e+00 1.915988e+00 -2.132358e+00 -3.232631e+00 -5.082333e-02 -2.812414e+00 -2.600790e+00 -3.390189e+00 -4.868546e-01 -9.936363e-01 1.423517e-01 6.948999e-01 6.263635e-01 -3.685678e-01 1.314880e-02 5.589538e-01 -4.656803e-02 -5.076350e-01 -2.718563e-01 -9.384726e-02 -5.440327e-01 -3.645768e-01 -4.371105e-02
<VARIANCE> 25
 4.272618e+01 4.941224e+01 5.325418e+01 6.460418e+01 5.753680e+01 5.124201e+01 5.908090e+01 5.567789e+01 4.724096e+01 5.003753e+01 4.032615e+01 3.122680e+01 5.100172e+00 3.988319e+00 3.853408e+00 3.944542e+00 5.241971e+00 4.598431e+00 5.068602e+00 4.558456e+00 3.861937e+00 4.179051e+00 4.541574e+00 2.989812e+00 1.449111e+00
<GCONST> 1.105562e+02
<MIXTURE> 7 1.587618e-01
<MEAN> 25
 6.164719e+00 -1.382189e+01 -4.830408e-01 -5.529076e+00 4.328377e+00 -4.384935e+00 2.165471e+00 7.649485e+00 -4.008980e+00 -3.728459e+00 -1.019557e+01 1.961251e-01 -3.626833e-01 -4.144801e-01 9.625968e-01 -1.612316e-01 3.589267e-03 -1.132379e-01 9.424585e-01 4.886805e-01 -1.061526e+00 -4.371336e-01 1.041599e-01 4.839062e-01 2.741922e-01
<VARIANCE> 25
 4.292877e+00 1.524645e+01 2.268711e+01 2.345984e+01 4.651687e+01 3.769705e+01 3.022393e+01 2.675201e+01 3.178830e+01 4.713863e+01 2.498296e+01 2.788565e+01 2.386318e-01 6.924289e-01 1.407439e+00 1.303677e+00 2.595527e+00 2.599428e+00 2.402871e+00 1.880115e+00 2.013961e+00 2.596089e+00 1.993786e+00 2.323611e+00 2.111952e-01
<GCONST> 8.828440e+01
<MIXTURE> 8 8.272862e-02
<MEAN> 25
 6.136907e+00 -1.370063e+01 -2.200605e+00 -7.320606e+00 6.282150e+00 -3.666755e+00 -1.460283e-02 6.246740e+00 -2.963087e+00 -2.524760e+00 -1.124377e+01 1.811917e-02 2.784556e-01 8.727183e-01 -6.955203e-01 4.533405e-01 4.889157e-02 -5.037615e-01 -8.982316e-01 -9.865271e-01 -9.837645e-02 3.586166e-01 -2.657044e-01 -4.737250e-01 -6.320937e-01
<VARIANCE> 25
 5.423018e+00 1.574353e+01 2.300508e+01 2.356233e+01 4.383091e+01 3.910326e+01 2.939050e+01 2.620499e+01 3.125739e+01 4.324848e+01 2.240315e+01 3.386143e+01 2.235277e-01 9.626999e-01 8.593318e-01 1.232617e+00 2.285890e+00 2.218515e+00 2.028646e+00 1.564011e+00 1.884029e+00 2.374790e+00 1.760729e+00 1.900258e+00 3.727843e-01
<GCONST> 8.764201e+01
<MIXTURE> 9 8.877456e-02
<MEAN> 25
 4.735564e+00 -4.224890e+00 1.428378e+00 -8.117055e-01 -3.190842e+00 -7.908183e+00 -1.822448e+00 7.485921e-01 -3.105722e+00 -1.410252e+00 -5.455934e+00 6.781993e-01 -6.194820e-01 2.223466e+00 -7.107627e-01 2.194981e+00 -3.841145e-01 3.053806e-01 -1.050005e-01 -5.045084e-01 3.678190e-01 -1.007405e+00 5.021055e-01 -8.714620e-01 -2.362817e+00
<VARIANCE> 25
 1.006861e+01 2.899686e+01 3.454795e+01 4.704565e+01 4.813571e+01 3.687861e+01 4.080500e+01 4.806138e+01 3.417267e+01 4.231410e+01 3.475127e+01 3.640300e+01 5.671365e-01 1.066281e+00 9.230612e-01 1.352005e+00 1.687819e+00 1.986690e+00 2.274496e+00 2.604319e+00 1.990761e+00 2.024958e+00 1.990062e+00 1.513538e+00 4.801776e-01
<GCONST> 9.296983e+01
<STATE> 4
<NUMMIXES> 9
<MIXTURE> 1 8.638438e-02
<MEAN> 25
 -8.448236e+00 5.013531e+00 -2.553327e+00 6.692710e+00 3.013804e+00 2.141858e+00 7.701926e-01 5.080580e+00 5.820399e+00 3.218187e+00 8.843940e+00 2.299916e+00 2.796951e-02 1.265715e-01 1.855385e-01 2.786825e-01 2.783604e-01 3.151941e-01 2.599626e-01 3.115174e-01 2.738482e-01 3.109398e-01 2.514599e-01 1.444910e-01 -4.627681e-02
<VARIANCE> 25
 2.719235e+00 6.896467e+00 7.245421e+00 1.071373e+01 1.034290e+01 1.398364e+01 1.355543e+01 1.415720e+01 1.324439e+01 1.725476e+01 1.539061e+01 1.299197e+01 9.392066e-02 2.317920e-01 3.475572e-01 5.545934e-01 7.362239e-01 9.253235e-01 1.200823e+00 1.256806e+00 1.167795e+00 1.207802e+00 1.289277e+00 1.145203e+00 3.701706e-02
<GCONST> 6.618253e+01
<MIXTURE> 2 1.339384e-01
<MEAN> 25
 1.826302e-02 1.673825e+00 1.420669e+00 1.615486e+00 -9.497592e-01 -1.481419e+00 4.366389e-01 -2.117493e+00 -7.161971e-01 -1.580826e+00 6.539860e-01 -1.260827e-01 5.487781e-01 3.142650e-01 3.058741e-01 -4.663925e-01 -1.592317e-02 6.613551e-01 -1.216585e-01 -7.144527e-01 -2.789423e-01 -1.484467e-01 -7.604657e-01 -2.923881e-01 4.894046e-01
<VARIANCE> 25
 5.164201e+01 5.311871e+01 6.184897e+01 6.297473e+01 6.634490e+01 5.191310e+01 5.096175e+01 6.103353e+01 4.644748e+01 4.721795e+01 4.238778e+01 2.936479e+01 6.448405e+00 5.842924e+00 5.017503e+00 5.326445e+00 6.318500e+00 5.672293e+00 5.148822e+00 5.404580e+00 4.655229e+00 4.703737e+00 5.341835e+00 3.235620e+00 2.815533e+00
<GCONST> 1.139290e+02
<MIXTURE> 3 1.223498e-01
<MEAN> 25
 -3.850030e+00 4.391111e+00 -2.741044e+00 6.236404e+00 1.523263e+00 -1.636636e+00 -7.040613e-01 2.454167e+00 2.601722e+00 -1.958546e+00 4.200476e+00 2.675388e-01 -1.066733e+00 -5.194724e-02 -1.854009e-01 -6.470796e-02 5.107481e-01 8.062173e-01 2.385262e-01 1.006741e-01 3.156654e-01 6.372902e-01 6.777552e-01 2.877475e-01 -8.589820e-01
<VARIANCE> 25
 1.733911e+01 3.109512e+01 3.786794e+01 2.721700e+01 3.370058e+01 3.520768e+01 3.394641e+01 4.359397e+01 3.099464e+01 2.697322e+01 2.826451e+01 2.195789e+01 7.023423e-01 1.547519e+00 1.857210e+00 1.592539e+00 2.243494e+00 2.243840e+00 2.408044e+00 2.405477e+00 2.373699e+00 1.875030e+00 1.857516e+00 1.789131e+00 2.486946e-01
<GCONST> 9.255579e+01
<MIXTURE> 4 1.279647e-01
<MEAN> 25
 8.320171e+00 -8.682442e+00 -3.970876e+00 -1.218205e+00 1.764322e+00 -3.339392e+00 2.142240e+00 5.774992e+00 -1.174607e+00 -3.203113e+00 -7.327640e+00 -8.512053e-01 -1.759965e-02 1.095010e+00 5.452064e-01 7.602248e-01 -7.781942e-01 -1.476638e-01 -1.561698e-02 -7.580119e-01 -3.358420e-01 1.823082e-01 1.093423e+00 -9.207285e-02 -6.630822e-01
<VARIANCE> 25
 4.774458e+00 3.225603e+01 3.168598e+01 3.301172e+01 5.504219e+01 3.927727e+01 4.192577e+01 4.192138e+01 3.432817e+01 4.274162e+01 2.883199e+01 3.162422e+01 3.088030e-01 1.357249e+00 1.416256e+00 1.531487e+00 2.659158e+00 2.087583e+00 2.905779e+00 2.673564e+00 2.286802e+00 2.930850e+00 2.149878e+00 2.216031e+00 4.245301e-01
<GCONST> 9.346925e+01
<MIXTURE> 5 1.410428e-01
<MEAN> 25
 -7.181563e+00 5.022614e+00 -2.246027e+00 6.399281e+00 2.001927e+00 6.567999e-01 -4.988177e-01 2.330179e+00 2.949834e+00 -1.155354e-02 5.839378e+00 5.485307e-01 -3.592431e-01 -3.825531e-03 -1.035891e-01 -9.540889e-02 1.712441e-01 2.903536e-01 1.108623e-01 1.303420e-01 2.615970e-01 3.427751e-01 1.665420e-01 5.516219e-02 -3.256350e-01
<VARIANCE> 25
 3.886343e+00 8.383948e+00 1.023560e+01 1.109103e+01 1.390648e+01 1.693789e+01 1.636959e+01 1.616737e+01 1.605698e+01 1.554934e+01 1.518037e+01 1.374781e+01 2.972359e-01 8.020551e-01 1.042218e+00 1.073576e+00 1.515009e+00 1.569780e+00 1.814338e+00 1.774425e+00 1.705388e+00 1.640913e+00 1.642140e+00 1.506745e+00 1.584472e-01
<GCONST> 7.687086e+01
<MIXTURE> 6 8.893592e-02
<MEAN> 25
 2.253114e+00 1.977636e+00 -3.775267e+00 5.373610e+00 -2.297459e+00 -5.400432e+00 -2.240916e-01 4.378008e+00 2.300686e+00 -3.648509e+00 -5.699189e-01 -5.249707e-01 -1.242161e+00 9.168825e-01 -5.270523e-01 2.883547e-01 3.936409e-01 7.155663e-01 5.301296e-01 9.390677e-01 8.861816e-01 2.027254e-02 1.078342e+00 -4.854197e-03 -1.609272e+00
<VARIANCE> 25
 1.239297e+01 2.277365e+01 3.920388e+01 2.229374e+01 3.891588e+01 2.866357e+01 3.317397e+01 4.399510e+01 3.760753e+01 3.429287e+01 2.566551e+01 2.358248e+01 4.699578e-01 8.068791e-01 1.544090e+00 1.287050e+00 1.763268e+00 1.653892e+00 1.932620e+00 2.084218e+00 2.196680e+00 2.081812e+00 2.268129e+00 1.888872e+00 3.946891e-01
<GCONST> 9.045952e+01
<MIXTURE> 7 1.096207e-01
<MEAN> 25
 5.687593e+00 -1.129475e+01 1.469331e+00 -5.812720e+00 2.356055e+00 -4.798075e+00 1.448600e+00 5.102656e+00 -5.442975e+00 -3.159277e+00 -8.176699e+00 3.971932e-02 3.130025e-02 1.073486e+00 3.289211e-01 8.232457e-01 -6.476498e-01 -9.619091e-02 -2.563866e-01 -1.058538e+00 -4.932745e-01 -8.993295e-02 4.215999e-01 -2.258327e-01 -7.307962e-01
<VARIANCE> 25
 4.718902e+00 2.506965e+01 3.042382e+01 2.859560e+01 6.022874e+01 3.762222e+01 4.048307e+01 3.918636e+01 3.457465e+01 4.894242e+01 2.871330e+01 2.985189e+01 3.199961e-01 1.392105e+00 1.234150e+00 1.712464e+00 2.358755e+00 2.327636e+00 2.439873e+00 2.237555e+00 2.091707e+00 2.818611e+00 2.096184e+00 1.929406e+00 4.847270e-01
<GCONST> 9.255836e+01
<MIXTURE> 8 1.033864e-01
<MEAN> 25
 -8.321127e+00 4.799598e+00 -2.873293e+00 6.131424e+00 2.132384e+00 1.100460e+00 -5.026546e-01 3.752642e+00 4.700713e+00 1.918315e+00 7.408196e+00 1.434114e+00 -7.892132e-02 -6.646165e-02 -1.507982e-01 -1.420002e-01 -1.897106e-01 -1.659288e-01 -2.675115e-01 -2.757036e-01 -2.521682e-01 -1.922383e-01 -1.596925e-01 -9.576366e-02 -9.129437e-02
<VARIANCE> 25
 2.749863e+00 7.431741e+00 7.372900e+00 1.041610e+01 9.123884e+00 1.621107e+01 1.431648e+01 1.289195e+01 1.306160e+01 1.693162e+01 1.521368e+01 1.275945e+01 8.294321e-02 2.196339e-01 3.633657e-01 5.307661e-01 6.635110e-01 8.209162e-01 9.402187e-01 1.189849e+00 1.195096e+00 1.249401e+00 1.285808e+00 1.111992e+00 3.026485e-02
<GCONST> 6.530148e+01
<MIXTURE> 9 8.636590e-02
<MEAN> 25
 1.880604e+00 6.780431e-01 -4.730698e+00 4.446472e+00 -2.111954e+00 -5.614587e+00 -9.724370e-01 3.904442e+00 1.594827e+00 -3.977629e+00 -2.038616e+00 -1.206898e+00 -1.215803e+00 6.847497e-01 -9.041331e-01 1.399689e-01 2.498721e-02 4.319045e-01 2.212247e-01 6.112947e-01 5.644594e-01 -5.433986e-01 6.061312e-01 -2.968599e-01 -1.612136e+00
<VARIANCE> 25
 8.219001e+00 1.880574e+01 4.357539e+01 2.478919e+01 4.602476e+01 2.998585e+01 3.458929e+01 4.431160e+01 4.184986e+01 3.797269e+01 2.734205e+01 2.385748e+01 3.718228e-01 5.876282e-01 1.299435e+00 1.331784e+00 1.787029e+00 1.572345e+00 1.797849e+00 2.049333e+00 2.137753e+00 2.020027e+00 1.983707e+00 1.737768e+00 3.359199e-01
<GCONST> 8.936283e+01
<TRANSP> 5
 0.000000e+00 1.000000e+00 0.000000e+00 0.000000e+00 0.000000e+00
 0.000000e+00 2.782326e-01 7.217674e-01 0.000000e+00 0.000000e+00
 0.000000e+00 0.000000e+00 4.295235e-01 5.704765e-01 0.000000e+00
 0.000000e+00 0.000000e+00 0.000000e+00 5.547590e-01 4.452409e-01
 0.000000e+00 0.000000e+00 0.000000e+00 0.000000e+00 0.000000e+00
<ENDHMM>
~h "b"
<BEGINHMM>
<NUMSTATES> 5
<STATE> 2
<NUMMIXES> 9
<MIXTURE> 1 1.304944e-01
<MEAN> 25
 7.345817e+00 1.232481e+01 -1.270696e+00 3.382724e+00 1.329527e+00 2.131975e+00 -1.701556e+00 -4.689253e+00 -2.905599e+00 -3.501774e+00 -1.550093e+00 -6.576049e+00 -5.280065e-01 1.272202e+00 1.029752e+00 2.822744e-01 -2.449536e-01 -2.306908e-01 1.529350e-01 6.370243e-01 5.309116e-01 -5.059629e-02 3.769898e-01 2.411643e-01 -7.373984e-01
<VARIANCE> 25
 3.137349e+00 9.951761e+00 1.015947e+01 1.180238e+01 2.447517e+01 1.942197e+01 2.136038e+01 3.279874e+01 2.601467e+01 2.467237e+01 1.348133e+01 1.479290e+01 1.215306e-01 3.992999e-01 5.227409e-01 9.048986e-01 1.001262e+00 1.476145e+00 1.492297e+00 1.805781e+00 1.340882e+00 1.790498e+00 1.900464e+00 1.644193e+00 1.044202e-01
<GCONST> 7.601415e+01
<MIXTURE> 2 8.483282e-02
<MEAN> 25
 9.814111e+00 -1.755286e+00 -7.482286e+00 -8.977361e-01 3.926026e+00 -3.913681e-01 -6.202519e+00 1.738435e+00 2.462823e+00 1.721963e+00 -2.291445e+00 -6.382284e+00 -4.334229e-01 3.379777e+00 8.554351e-01 2.401124e+00 1.512305e-01 -4.266620e-01 -1.250964e-01 -5.266838e-01 -1.952737e-01 -1.061022e+00 5.391318e-01 -6.352328e-02 -2.224863e+00
<VARIANCE> 25
 1.284127e+01 3.366727e+01 1.831133e+01 3.121513e+01 1.590669e+01 2.733326e+01 1.622221e+01 2.596265e+01 3.254149e+01 2.241067e+01 3.017328e+01 3.548717e+01 4.341171e-01 7.060354e-01 9.996546e-01 1.503371e+00 1.381734e+00 1.214146e+00 2.706095e+00 2.794891e+00 1.795979e+00 2.658607e+00 3.199834e+00 2.010382e+00 3.573706e-01
<GCONST> 8.821191e+01
<MIXTURE> 3 1.891178e-01
<MEAN> 25
 6.688817e+00 8.657221e+00 2.450361e+00 5.866122e+00 -5.516902e+00 3.707034e-01 1.294893e+00 -8.864202e+00 -4.538816e+00 -1.457169e+00 -4.868967e+00 -9.346827e+00 7.985963e-02 1.218157e+00 -5.496420e-01 -7.785281e-02 1.134632e+00 3.125162e-01 8.876363e-03 8.936721e-01 4.999820e-01 -1.698025e-01 6.939552e-01 -6.257363e-02 -5.422229e-01
<VARIANCE> 25
 9.917535e+00 2.154135e+01 1.678036e+01 1.996892e+01 2.514930e+01 2.140742e+01 2.321874e+01 3.550215e+01 2.172092e+01 3.354405e+01 1.993397e+01 2.212251e+01 6.243466e-01 1.234590e+00 9.523444e-01 1.306605e+00 1.582467e+00 1.718410e+00 1.699618e+00 1.849627e+00 1.987424e+00 1.848654e+00 1.621897e+00 1.695558e+00 5.073250e-01
<GCONST> 8.654723e+01
<MIXTURE> 4 9.188132e-02
<MEAN> 25
 5.939609e+00 -1.119133e+00 6.164323e+00 1.285235e+00 -7.711478e+00 -4.110566e+00 -3.871912e+00 -4.312281e+00 -5.860060e+00 -5.232651e-01 -3.353324e+00 -4.096203e+00 4.656525e-02 3.479461e+00 -2.899393e-01 2.391490e+00 2.500552e-01 1.098032e+00 -6.469041e-02 -1.608924e+00 3.978446e-01 -1.402093e+00 -4.113496e-01 -1.428609e+00 -2.231686e+00
<VARIANCE> 25
 5.026598e+00 3.718427e+01 1.746661e+01 1.882774e+01 1.998868e+01 1.961577e+01 2.155663e+01 3.368859e+01 2.659838e+01 1.651396e+01 2.201461e+01 2.429510e+01 3.140610e-01 6.781275e-01 1.329685e+00 1.632143e+00 1.806609e+00 1.768834e+00 2.731575e+00 2.406699e+00 1.210369e+00 1.754070e+00 1.602491e+00 2.114318e+00 1.692279e-01
<GCONST> 8.436936e+01
<MIXTURE> 5 8.952876e-02
<MEAN> 25
 8.554515e+00 6.041880e+00 -5.076097e+00 7.054095e+00 3.951983e+00 -4.154508e-01 -2.575976e+00 1.032634e+00 5.538523e-01 -5.979913e+00 -5.818264e+00 -8.034314e+00 -2.600819e-01 1.635542e+00 1.811215e-01 -2.831569e-02 6.484922e-01 6.485900e-01 2.461831e-01 4.150209e-01 5.218810e-01 -3.316764e-01 3.588570e-01 2.468013e-01 -8.723483e-01
<VARIANCE> 25
 4.146413e+00 1.141119e+01 1.101709e+01 1.359452e+01 2.435854e+01 2.605679e+01 2.116668e+01 3.427593e+01 2.082308e+01 2.778412e+01 1.923325e+01 2.469770e+01 1.630885e-01 3.620932e-01 5.679447e-01 8.539346e-01 1.095993e+00 1.189872e+00 1.747368e+00 2.011769e+00 1.858722e+00 1.422725e+00 1.452782e+00 1.845367e+00 1.138172e-01
<GCONST> 7.813194e+01
<MIXTURE> 6 1.698540e-01
<MEAN> 25
 6.028080e+00 4.955920e+00 6.378768e+00 5.622916e+00 -8.818997e+00 -9.456381e-01 1.472600e+00 -9.890243e+00 -8.078290e+00 -3.381331e+00 -7.034958e+00 -7.372457e+00 1.385344e-01 1.649161e+00 -4.064604e-01 7.061458e-01 2.194895e-01 6.001050e-01 7.256398e-01 1.357923e-01 4.146512e-01 -5.017905e-01 -1.496015e-01 -1.136057e+00 -9.227791e-01
<VARIANCE> 25
 4.711901e+00 1.974850e+01 1.433587e+01 2.081851e+01 1.892920e+01 2.460027e+01 2.640276e+01 2.877954e+01 1.982534e+01 2.878975e+01 1.669424e+01 1.906220e+01 2.227041e-01 4.966378e-01 6.619229e-01 1.101341e+00 2.090930e+00 1.435013e+00 2.090628e+00 1.888744e+00 1.694591e+00 1.915670e+00 1.377589e+00 1.886902e+00 1.620907e-01
<GCONST> 8.133250e+01
<MIXTURE> 7 5.245220e-02
<MEAN> 25
 6.458966e+00 -7.636124e-01 3.317108e+00 1.300642e+00 -2.283618e+00 -3.016064e+00 -5.399418e+00 -4.108289e+00 -8.297906e+00 -4.206061e+00 -6.400349e+00 -5.796318e+00 -3.571917e-02 2.887004e+00 2.945773e-01 2.928702e+00 -4.794407e-02 8.025996e-01 6.387647e-01 -1.233291e+00 -6.292782e-01 -2.359907e+00 -1.739353e+00 -1.911379e+00 -2.012337e+00
<VARIANCE> 25
 5.251639e+00 2.910005e+01 3.331105e+01 2.654202e+01 4.853844e+01 1.558747e+01 1.970865e+01 3.297440e+01 2.783397e+01 2.834924e+01 2.927732e+01 3.223224e+01 5.026340e-01 7.303141e-01 1.102422e+00 1.431208e+00 1.124480e+00 2.217474e+00 2.340354e+00 1.222597e+00 2.508704e+00 2.232878e+00 2.039239e+00 1.258834e+00 2.483048e-01
<GCONST> 8.707863e+01
<MIXTURE> 8 1.066125e-01
<MEAN> 25
 9.283477e+00 -6.191991e+00 -5.806219e+00 -4.315482e+00 4.377280e+00 -2.068808e+00 -7.672009e+00 8.438850e-03 -1.680230e+00 1.783785e+00 -6.252086e+00 -5.952470e+00 -3.420226e-02 3.121809e+00 4.351329e-01 2.791428e+00 -7.464468e-01 -5.798326e-01 -5.158450e-01 -8.050926e-01 -4.447370e-01 -1.299246e+00 5.181077e-01 -8.712053e-01 -2.311855e+00
<VARIANCE> 25
 3.262180e+00 3.623234e+01 1.385141e+01 3.512280e+01 1.265747e+01 1.779551e+01 2.171664e+01 2.544052e+01 2.432140e+01 2.795796e+01 2.335345e+01 2.435736e+01 3.718886e-01 6.536852e-01 7.761646e-01 1.487467e+00 1.164329e+00 1.506225e+00 3.267517e+00 2.133087e+00 2.556930e+00 2.483574e+00 2.644279e+00 1.180494e+00 1.558046e-01
<GCONST> 8.386417e+01
<MIXTURE> 9 8.522487e-02
<MEAN> 25
 8.589211e+00 2.607441e+00 -4.747554e+00 5.688521e+00 3.840262e+00 -2.778060e+00 -5.049654e+00 -1.410666e+00 -3.567105e+00 -6.132648e+00 -8.679873e+00 -9.465693e+00 -2.661319e-01 1.679556e+00 -1.986484e-01 6.585444e-01 4.740399e-01 3.001351e-01 1.714159e-01 1.183113e-01 4.162566e-01 -1.232776e+00 -2.598093e-01 -1.621226e-01 -1.146519e+00
<VARIANCE> 25
 4.501786e+00 1.512704e+01 9.693356e+00 1.862151e+01 1.651939e+01 1.827254e+01 2.540433e+01 3.541158e+01 3.181587e+01 2.704841e+01 2.125066e+01 2.562033e+01 2.162130e-01 3.559361e-01 7.930979e-01 8.609698e-01 1.121179e+00 1.517963e+00 1.883053e+00 2.289565e+00 1.784163e+00 1.420978e+00 1.748170e+00 1.726488e+00 1.361082e-01
<GCONST> 8.002055e+01
<STATE> 3
<NUMMIXES> 9
<MIXTURE> 1 1.707744e-01
<MEAN> 25
 4.529459e+00 1.523215e+01 4.109652e+00 5.758372e+00 -2.608785e-01 -6.522409e-01 -2.262245e+00 -2.812225e+00 -8.439349e-01 -3.867905e+00 -1.408632e+00 -5.859555e+00 -1.527548e-01 -5.803201e-01 -1.426616e-01 6.391036e-01 6.862928e-01 -1.647336e-01 9.953102e-02 8.551374e-01 5.218765e-01 1.852518e-01 5.083767e-01 3.675843e-01 1.010472e-01
<VARIANCE> 25
 9.474746e+00 5.080236e+00 1.256416e+01 1.306377e+01 1.805651e+01 1.734397e+01 1.256160e+01 1.749626e+01 9.812029e+00 1.644675e+01 1.265340e+01 1.314042e+01 3.691693e-01 1.573487e+00 9.717852e-01 1.098209e+00 1.312617e+00 1.752185e+00 1.786344e+00 1.741299e+00 1.523529e+00 1.707442e+00 1.248029e+00 1.448818e+00 2.393003e-01
<GCONST> 7.786620e+01
<MIXTURE> 2 8.658019e-02
<MEAN> 25
 4.740807e+00 8.651734e+00 -2.132734e+00 5.686543e+00 2.694711e+00 9.680510e-01 -2.589629e+00 1.335758e+00 4.987114e-01 -6.501923e+00 -3.102968e+00 -4.591356e+00 -1.282487e-01 -8.764857e-01 1.513553e+00 -6.545160e-01 -2.590678e-01 1.298635e+00 -1.082552e+00 -1.710622e+00 2.591399e-01 4.683262e-01 3.102359e-01 4.581923e-01 8.418607e-01
<VARIANCE> 25
 3.196594e+01 1.863575e+01 2.281023e+01 1.901253e+01 2.388885e+01 4.582548e+01 2.990161e+01 3.243889e+01 2.880850e+01 4.247485e+01 3.638471e+01 2.749579e+01 2.583834e+00 2.914767e+00 3.784616e+00 2.207683e+00 3.743506e+00 9.602078e+00 2.033588e+00 3.557004e+00 4.710255e+00 5.699304e+00 2.291439e+00 2.774181e+00 8.545781e-01
<GCONST> 1.009874e+02
<MIXTURE> 3 1.013333e-01
<MEAN> 25
 5.307887e+00 1.542211e+01 3.272009e+00 5.362030e+00 -1.303328e+00 -1.744929e+00 -8.879578e-01 -6.234872e-01 -2.007143e+00 -6.369703e+00 -1.583091e+00 -6.017319e+00 7.772709e-01 -3.604025e+00 -2.182209e+00 -1.043548e+00 8.398218e-01 2.704187e-01 -8.354066e-01 -2.691025e-01 9.090958e-01 1.639957e+00 9.908690e-01 6.960610e-01 1.959680e+00
<VARIANCE> 25
 4.714606e+00 7.473982e+00 8.544559e+00 9.440281e+00 1.713134e+01 1.909110e+01 2.342505e+01 1.932719e+01 1.749136e+01 1.455711e+01 1.456726e+01 1.632164e+01 4.637663e-01 3.819303e+00 2.204384e+00 2.749568e+00 1.741995e+00 2.709283e+00 2.939581e+00 2.243499e+00 4.173868e+00 2.728568e+00 2.620385e+00 2.643036e+00 9.383953e-01
<GCONST> 8.693169e+01
<MIXTURE> 4 1.116477e-01
<MEAN> 25
 7.351546e+00 5.765225e+00 -5.963343e+00 5.613865e+00 5.176559e+00 -2.055905e+00 -3.198306e+00 3.555689e+00 1.409664e+00 -6.355451e+00 -6.099718e+00 -6.889855e+00 -1.213491e+00 -3.074098e-02 2.626871e-01 -2.581580e-02 -2.520163e-01 1.695950e-01 7.827818e-01 6.251335e-01 4.294358e-01 -1.964744e-02 1.526883e+00 1.274012e+00 -8.119018e-01
<VARIANCE> 25
 4.120787e+00 2.062153e+01 2.074327e+01 2.010598e+01 1.838240e+01 2.898835e+01 2.238823e+01 3.534690e+01 3.346075e+01 2.438144e+01 1.849852e+01 2.103546e+01 6.753293e-01 1.953628e+00 1.347733e+00 1.853354e+00 1.500780e+00 1.349288e+00 2.075728e+00 2.070076e+00 1.720786e+00 2.772354e+00 2.659696e+00 2.165958e+00 1.118044e+00
<GCONST> 8.882381e+01
<MIXTURE> 5 1.022514e-01
<MEAN> 25
 5.912181e+00 1.124486e+01 3.260958e+00 6.327374e+00 -3.364446e+00 1.638956e+00 1.014528e+00 -6.807381e+00 -5.262602e+00 -4.199760e+00 -2.705062e+00 -7.314647e+00 -4.273027e-02 -2.527692e+00 -1.179914e+00 -1.768509e-01 1.435364e+00 -1.180221e+00 -1.203852e+00 2.172641e+00 1.871273e+00 9.032904e-02 1.166665e+00 1.196119e+00 1.193346e+00
<VARIANCE> 25
 7.487129e+00 1.573253e+01 1.980817e+01 1.565156e+01 2.976109e+01 2.108386e+01 2.617233e+01 2.672447e+01 1.800787e+01 2.068842e+01 2.213493e+01 1.359547e+01 9.819610e-01 3.062355e+00 4.424400e+00 3.915496e+00 3.164085e+00 2.564526e+00 2.420569e+00 2.734369e+00 2.476634e+00 2.839468e+00 2.871710e+00 3.031951e+00 7.469740e-01
<GCONST> 9.283128e+01
<MIXTURE> 6 1.607840e-01
<MEAN> 25
 4.052032e+00 1.448045e+01 3.452646e+00 5.960880e+00 4.066434e-01 -1.689364e+00 -4.023985e+00 -4.474908e+00 -2.377283e+00 -3.621247e+00 -5.457925e-01 -5.111617e+00 -1.085634e+00 3.087176e-01 9.042166e-01 9.227425e-01 8.411367e-01 -1.205428e-01 -2.818212e-01 3.017527e-01 -1.598703e-01 -3.914640e-01 4.976621e-01 3.149337e-01 -7.653807e-01
<VARIANCE> 25
 1.243956e+01 7.053749e+00 1.303053e+01 1.464674e+01 2.268043e+01 1.744185e+01 1.715390e+01 2.519483e+01 2.028588e+01 1.349042e+01 1.490959e+01 1.730538e+01 3.405260e-01 9.156762e-01 8.599076e-01 8.578241e-01 8.293627e-01 1.291970e+00 1.589570e+00 1.876441e+00 1.657744e+00 8.386291e-01 1.455491e+00 1.422104e+00 1.653304e-01
<GCONST> 7.783646e+01
<MIXTURE> 7 8.401290e-02
<MEAN> 25
 5.196093e+00 1.265330e+01 4.692892e+00 6.219552e+00 -5.562045e+00 -3.165077e+00 -2.909677e-01 -3.516875e+00 -2.390202e+00 -3.069593e+00 -2.500521e+00 -8.366631e+00 1.012171e+00 -2.536192e+00 -3.210385e+00 -1.202478e+00 2.282101e+00 6.486501e-01 -1.289474e+00 -6.217983e-02 1.376239e+00 1.183215e+00 4.702759e-01 6.768753e-02 1.495567e+00
<VARIANCE> 25
 5.840189e+00 1.803065e+01 1.942529e+01 8.814613e+00 3.740063e+01 1.202266e+01 1.681802e+01 1.968505e+01 1.411433e+01 1.326262e+01 1.704647e+01 1.285878e+01 2.861686e-01 2.351737e+00 1.499952e+00 1.659333e+00 1.695626e+00 1.755109e+00 2.608610e+00 2.106117e+00 2.036887e+00 1.783321e+00 1.861405e+00 1.480016e+00 5.906671e-01
<GCONST> 8.336651e+01
<MIXTURE> 8 9.357630e-02
<MEAN> 25
 5.548920e+00 1.068471e+01 4.255928e+00 6.222320e+00 -4.160309e+00 3.761113e-01 3.164841e-01 -8.347405e+00 -7.155418e+00 -5.671880e+00 -5.117938e+00 -8.367335e+00 1.453074e-01 -2.638631e+00 -1.469000e+00 -2.308833e-01 1.450327e+00 -1.377893e+00 -1.524223e+00 2.065981e+00 1.966296e+00 2.007423e-01 8.461516e-01 8.117027e-01 1.309602e+00
<VARIANCE> 25
 6.676040e+00 1.919794e+01 1.627826e+01 2.112150e+01 2.988585e+01 1.732879e+01 2.859811e+01 2.500343e+01 2.064302e+01 2.567047e+01 1.745970e+01 1.505389e+01 1.093396e+00 2.382959e+00 4.605231e+00 5.578051e+00 4.015131e+00 3.560365e+00 2.855819e+00 2.517761e+00 2.423104e+00 2.274136e+00 1.417984e+00 2.324987e+00 7.903546e-01
<GCONST> 9.280737e+01
<MIXTURE> 9 8.903926e-02
<MEAN> 25
 6.807918e+00 3.909090e-01 -5.036086e+00 2.886632e+00 3.495740e+00 -2.984401e+00 -6.460917e+00 4.037131e-01 -2.230736e+00 -4.897208e+00 -7.914543e+00 -7.359190e+00 -9.351059e-01 3.211472e-01 -5.292449e-01 2.669806e-01 -2.068697e-01 7.275682e-02 3.563253e-01 1.952585e-01 1.895606e-01 -5.152964e-01 1.087939e+00 4.623066e-01 -1.070050e+00
<VARIANCE> 25
 5.068238e+00 3.286432e+01 1.750119e+01 3.120221e+01 2.376151e+01 1.872680e+01 3.008292e+01 2.820582e+01 3.347660e+01 2.852689e+01 1.953374e+01 2.507814e+01 9.081467e-01 1.101584e+00 1.428066e+00 2.319877e+00 1.249591e+00 1.971156e+00 2.760755e+00 2.974688e+00 1.578706e+00 2.402117e+00 2.632015e+00 1.937342e+00 1.087925e+00
<GCONST> 9.051403e+01
<STATE> 4
<NUMMIXES> 9
<MIXTURE> 1 1.203370e-01
<MEAN> 25
 9.342705e-01 3.922619e+00 1.936793e+00 7.293093e+00 2.646253e+00 -1.866397e+00 -3.460158e+00 1.391234e-01 -1.003921e-01 -3.544769e+00 1.796715e+00 -1.760552e+00 3.793053e-01 -3.423974e+00 -2.852798e-01 -1.015603e+00 -1.603163e+00 -7.450028e-01 6.596183e-02 8.955654e-01 7.601827e-01 3.746915e-01 6.058992e-01 1.216856e+00 1.881538e+00
<VARIANCE> 25
 2.215558e+01 6.591824e+01 3.714252e+01 3.501377e+01 1.854042e+01 2.264619e+01 1.671349e+01 3.583279e+01 2.658895e+01 2.696362e+01 1.817493e+01 1.413757e+01 3.359996e+00 7.555426e+00 4.130878e+00 4.147305e+00 6.520700e+00 3.436602e+00 2.252015e+00 4.037163e+00 3.136775e+00 4.254566e+00 2.802448e+00 2.266238e+00 2.580733e+00
<GCONST> 1.017427e+02
<MIXTURE> 2 9.121907e-02
<MEAN> 25
 1.110598e+01 -1.462098e-01 -1.068644e+01 -2.961765e+00 3.980908e+00 1.257956e+00 -6.242457e+00 -2.550409e+00 4.418547e+00 5.933431e+00 -5.885508e-01 -7.651614e+00 1.533967e+00 -5.049212e+00 -3.898200e+00 -3.621598e+00 2.504424e+00 7.174577e-01 -6.562886e-01 2.425668e+00 1.695414e+00 2.283181e+00 -1.974040e+00 -4.514379e-01 3.340965e+00
<VARIANCE> 25
 2.903304e+00 2.401397e+01 1.455440e+01 2.340851e+01 1.880548e+01 2.392784e+01 1.474382e+01 2.239698e+01 2.154461e+01 1.868178e+01 1.819303e+01 1.643362e+01 6.404311e-01 5.285986e+00 3.394379e+00 3.754397e+00 4.121411e+00 6.361488e+00 2.878031e+00 5.982806e+00 3.604377e+00 4.619177e+00 3.899114e+00 2.674394e+00 1.346022e+00
<GCONST> 9.496035e+01
<MIXTURE> 3 8.289340e-02
<MEAN> 25
 6.241563e+00 4.193743e+00 -1.737064e+00 4.266555e+00 8.704919e-01 -1.361346e-01 -2.129274e+00 -1.048434e+00 2.594561e-01 -1.796581e+00 2.539293e+00 -3.996813e+00 2.065050e+00 -4.405952e+00 -4.317073e+00 -4.357610e+00 1.285762e+00 1.627459e+00 -1.463596e+00 -2.916290e-01 1.278719e+00 3.540821e+00 1.724159e-02 -8.375261e-01 3.304324e+00
<VARIANCE> 25
 9.427494e+00 7.032116e+01 2.946842e+01 2.833493e+01 2.165691e+01 2.860567e+01 2.097062e+01 2.959071e+01 2.424354e+01 2.746634e+01 2.434382e+01 1.445704e+01 8.961874e-01 2.530964e+00 2.799410e+00 2.874814e+00 2.362873e+00 1.738642e+00 1.725608e+00 3.029075e+00 3.661638e+00 3.534211e+00 5.383984e+00 2.910417e+00 8.717271e-01
<GCONST> 9.554118e+01
<MIXTURE> 4 1.135528e-01
<MEAN> 25
 1.124005e+01 -7.014448e+00 -1.263103e+01 -4.643836e+00 7.603615e+00 2.117468e-01 -5.585636e+00 4.493750e+00 6.280653e+00 4.269438e+00 -8.633085e+00 -7.888344e+00 2.941888e-02 -3.344609e+00 -3.909334e-01 -9.670254e-01 1.169601e+00 -1.331617e-01 1.711270e+00 3.294158e+00 4.125232e-01 -8.707640e-01 -2.630904e+00 1.655633e+00 1.963171e+00
<VARIANCE> 25
 3.270428e+00 1.802494e+01 2.066719e+01 2.873128e+01 2.069422e+01 3.531501e+01 2.269127e+01 2.565537e+01 3.151665e+01 3.789462e+01 2.450428e+01 1.780470e+01 6.329145e-01 3.492116e+00 3.065415e+00 3.571404e+00 3.779928e+00 4.985632e+00 2.508655e+00 3.196625e+00 4.132413e+00 4.875654e+00 2.275792e+00 1.920792e+00 1.178887e+00
<GCONST> 9.538176e+01
<MIXTURE> 5 1.449480e-01
<MEAN> 25
 6.581217e+00 -3.776132e-01 2.328238e+00 5.519586e+00 -3.024834e+00 -4.244027e+00 -2.863908e+00 -1.159138e+00 -2.516978e+00 -4.137519e+00 -3.058635e-01 -3.263238e+00 3.841937e-01 -5.307312e+00 3.788196e-01 -3.745390e+00 -1.128492e+00 -8.757418e-01 -4.826961e-01 1.364883e+00 1.850718e-01 3.198409e+00 3.800616e-01 7.581192e-01 3.694845e+00
<VARIANCE> 25
 8.367610e+00 5.703825e+01 3.095040e+01 4.019962e+01 5.363966e+01 3.049617e+01 2.127006e+01 2.894014e+01 1.749321e+01 2.340864e+01 1.734653e+01 2.300456e+01 8.157556e-01 2.205439e+00 6.137274e+00 4.354394e+00 1.081367e+01 4.595749e+00 5.818062e+00 5.654431e+00 5.251011e+00 3.059419e+00 3.115207e+00 2.081981e+00 6.210530e-01
<GCONST> 1.005098e+02
<MIXTURE> 6 1.409387e-01
<MEAN> 25
 6.065681e+00 1.814348e+00 -2.824032e+00 4.752240e+00 2.415580e+00 -1.308354e+00 -5.055554e+00 -3.367746e-01 4.893577e-01 -5.100041e+00 -4.061007e+00 -4.571196e+00 -4.122431e-01 -1.218993e+00 -5.899628e-02 -9.339395e-01 -6.781198e-01 1.107431e-01 1.655749e-01 1.992922e-01 2.306075e-01 3.765223e-01 1.147679e+00 1.175691e+00 4.425067e-01
<VARIANCE> 25
 8.757616e+00 5.165255e+01 4.015554e+01 5.296820e+01 2.920896e+01 7.361647e+01 3.327167e+01 5.225629e+01 3.249652e+01 3.082963e+01 2.061572e+01 1.719308e+01 2.289035e+00 3.863275e+00 4.275030e+00 4.127524e+00 4.156526e+00 3.168601e+00 2.874927e+00 3.252170e+00 3.694485e+00 3.840088e+00 3.498688e+00 2.508135e+00 2.350341e+00
<GCONST> 1.031805e+02
<MIXTURE> 7 1.028849e-01
<MEAN> 25
 6.765983e+00 5.357406e+00 -1.070612e+00 5.281680e+00 6.144145e-01 -5.839853e-01 -3.085106e+00 -4.533734e+00 -5.974437e-01 -9.082724e-01 -1.123580e+00 -7.051920e+00 1.471130e+00 -4.808283e+00 -4.326450e+00 -2.559890e+00 2.599961e+00 -1.765161e-01 -2.135070e+00 1.773650e+00 2.598431e+00 2.102276e+00 -8.134431e-01 -2.492728e-01 2.924805e+00
<VARIANCE> 25
 5.346664e+00 5.112866e+01 2.243510e+01 1.403715e+01 1.710800e+01 1.927795e+01 1.708000e+01 2.345614e+01 2.146331e+01 2.636689e+01 1.888392e+01 1.435556e+01 4.936583e-01 2.031353e+00 2.758432e+00 2.410098e+00 4.322341e+00 3.218279e+00 2.559117e+00 5.718827e+00 3.515072e+00 3.886051e+00 2.986205e+00 2.083407e+00 5.330452e-01
<GCONST> 9.206903e+01
<MIXTURE> 8 1.049903e-01
<MEAN> 25
 1.022452e+01 -9.013112e+00 -8.986712e+00 -6.258026e+00 4.858276e+00 -1.179291e+00 -8.441182e+00 2.767368e+00 3.628050e+00 3.421062e+00 -8.671118e+00 -8.247612e+00 -5.575233e-02 -4.429842e+00 -3.010100e-01 -2.128847e+00 1.098609e+00 -6.045418e-01 9.651766e-01 3.395187e+00 1.061100e-01 -1.783805e-01 -2.570037e+00 9.696497e-01 2.743501e+00
<VARIANCE> 25
 3.411311e+00 2.135793e+01 2.033783e+01 2.944249e+01 2.588001e+01 3.589009e+01 2.032803e+01 3.051249e+01 2.612899e+01 2.701084e+01 2.585203e+01 2.472027e+01 6.782265e-01 3.309099e+00 2.490204e+00 4.664363e+00 4.237813e+00 3.963615e+00 3.685260e+00 3.532823e+00 3.579841e+00 3.638247e+00 2.864845e+00 2.939713e+00 1.241882e+00
<GCONST> 9.647638e+01
<MIXTURE> 9 9.823573e-02
<MEAN> 25
 1.102587e+01 -2.685343e+00 -1.200403e+01 -5.162446e+00 4.070058e+00 1.295429e+00 -8.280340e+00 -3.811865e+00 3.238794e+00 5.341602e+00 -3.557571e+00 -9.542857e+00 1.208695e+00 -4.873988e+00 -3.346434e+00 -3.171791e+00 2.233127e+00 1.046798e+00 -8.256947e-01 1.616371e+00 1.448824e+00 1.820090e+00 -2.455363e+00 -5.145640e-01 2.990014e+00
<VARIANCE> 25
 3.661840e+00 2.297804e+01 2.117946e+01 2.815388e+01 1.970073e+01 2.282438e+01 1.639063e+01 2.029994e+01 3.287971e+01 1.997726e+01 2.189886e+01 1.657900e+01 5.299190e-01 5.572025e+00 2.720556e+00 2.568257e+00 3.866798e+00 3.386692e+00 2.607654e+00 3.508898e+00 4.400512e+00 3.958869e+00 2.868052e+00 2.715374e+00 1.435337e+00
<GCONST> 9.415246e+01
<TRANSP> 5
 0.000000e+00 1.000000e+00 0.000000e+00 0.000000e+00 0.000000e+00
 0.000000e+00 7.902996e-01 2.097004e-01 0.000000e+00 0.000000e+00
 0.000000e+00 0.000000e+00 4.788215e-01 5.211785e-01 0.000000e+00
 0.000000e+00 0.000000e+00 0.000000e+00 6.151422e-01 3.848577e-01
 0.000000e+00 0.000000e+00 0.000000e+00 0.000000e+00 0.000000e+00
<ENDHMM>
~h "d"
<BEGINHMM>
<NUMSTATES> 5
<STATE> 2
<NUMMIXES> 9
<MIXTURE> 1 1.334849e-01
<MEAN> 25
 4.987700e+00 8.300549e+00 -1.709074e+00 7.801973e+00 1.541608e+00 -2.817408e+00 9.858113e-01 5.119044e+00 6.873975e-01 -5.849268e+00 -4.951058e-02 -2.022774e+00 -7.780772e-01 8.079379e-01 2.943317e-01 1.452405e-01 3.072327e-01 5.942409e-01 -1.777687e-01 -1.630251e-01 1.248395e-01 -5.012625e-02 8.138626e-01 -1.154940e-01 -9.026374e-01
<VARIANCE> 25
 1.979473e+01 2.191432e+01 1.744392e+01 1.706943e+01 2.274315e+01 2.649506e+01 3.126942e+01 3.287060e+01 2.597156e+01 3.214156e+01 2.566727e+01 1.782733e+01 3.077188e-01 9.753221e-01 8.430939e-01 8.758842e-01 1.288342e+00 1.720234e+00 1.644462e+00 1.826927e+00 1.518088e+00 1.206138e+00 2.147790e+00 1.360591e+00 1.753110e-01
<GCONST> 8.423045e+01
<MIXTURE> 2 1.428559e-01
<MEAN> 25
 8.200260e+00 1.786765e+00 -3.260769e+00 7.173897e+00 -5.650888e-02 -6.504984e+00 1.769868e-01 4.501089e+00 -2.029717e-01 -6.355028e+00 -5.565597e+00 -8.009542e-01 -4.232154e-01 2.524129e+00 -2.271594e-01 1.619064e+00 8.561592e-01 1.477611e+00 4.745571e-01 2.117254e-01 1.680768e-01 -1.361567e+00 7.328245e-01 -1.453351e+00 -1.958649e+00
<VARIANCE> 25
 4.898125e+00 1.701598e+01 1.725864e+01 1.429006e+01 2.272917e+01 1.870831e+01 2.703786e+01 2.392066e+01 3.091055e+01 3.193397e+01 2.324266e+01 2.453039e+01 2.062643e-01 8.036403e-01 1.132486e+00 1.089108e+00 2.312831e+00 1.969348e+00 2.662670e+00 2.282254e+00 2.019589e+00 1.861170e+00 2.017868e+00 1.817588e+00 2.083135e-01
<GCONST> 8.443126e+01
<MIXTURE> 3 9.076501e-02
<MEAN> 25
 5.378129e+00 1.280134e+01 3.571645e+00 4.802683e+00 -4.034204e+00 7.708035e-01 1.866375e+00 -2.167907e+00 -1.041190e+00 -3.845419e+00 -1.547479e+00 -4.114663e+00 -9.011840e-01 9.785420e-01 2.645916e-01 9.109569e-01 1.442628e+00 -7.194715e-01 -9.101494e-01 7.913742e-01 4.533070e-01 3.380087e-01 1.448093e+00 3.095624e-01 -1.046499e+00
<VARIANCE> 25
 5.349538e+00 1.085131e+01 1.500073e+01 1.532606e+01 2.728366e+01 2.237063e+01 2.259818e+01 2.128519e+01 2.568194e+01 2.356222e+01 3.268878e+01 1.597558e+01 3.604813e-01 1.177258e+00 1.029956e+00 1.205594e+00 1.691071e+00 1.864087e+00 1.967676e+00 2.220522e+00 1.806741e+00 1.549644e+00 1.680399e+00 1.494136e+00 3.216167e-01
<GCONST> 8.349715e+01
<MIXTURE> 4 1.196527e-01
<MEAN> 25
 7.952916e+00 -5.956136e+00 -5.593618e-01 -6.315852e-01 -2.090443e+00 -1.082409e+01 -1.673580e+00 4.399282e+00 -9.399260e-01 -3.084030e+00 -6.759682e+00 5.030575e+00 1.695331e-01 3.369183e+00 -7.218598e-03 3.044194e+00 -2.381778e-01 3.660945e-01 -8.622208e-01 -1.142583e+00 -7.701016e-02 -1.131482e+00 5.690612e-01 -1.239677e+00 -2.402642e+00
<VARIANCE> 25
 4.403097e+00 2.219088e+01 2.370270e+01 2.400405e+01 2.680487e+01 1.704009e+01 2.815311e+01 2.882891e+01 3.147200e+01 3.191653e+01 2.153175e+01 1.761086e+01 1.613907e-01 3.796293e-01 5.535507e-01 8.245258e-01 1.274306e+00 2.048045e+00 1.947269e+00 1.833943e+00 1.861545e+00 1.807978e+00 1.616120e+00 1.964833e+00 1.530642e-01
<GCONST> 8.169368e+01
<MIXTURE> 5 9.959066e-02
<MEAN> 25
 6.820577e+00 6.458815e+00 4.503992e+00 4.347126e+00 -7.954565e+00 6.069320e-01 3.671233e+00 -6.803953e+00 -5.143297e+00 -5.492588e+00 -7.166700e+00 -4.173892e+00 -6.737497e-02 1.502522e+00 -4.925426e-01 7.178893e-01 7.093812e-01 7.902577e-01 3.819325e-01 6.150799e-01 6.314400e-01 -4.314560e-01 8.572064e-01 -6.425018e-01 -9.887362e-01
<VARIANCE> 25
 6.596799e+00 1.583732e+01 2.213611e+01 2.092441e+01 2.935705e+01 2.759178e+01 2.844239e+01 4.222543e+01 2.232465e+01 3.500711e+01 2.419424e+01 2.199404e+01 2.901820e-01 9.586293e-01 7.715206e-01 1.144044e+00 2.079114e+00 1.564686e+00 1.890648e+00 1.823008e+00 2.007734e+00 1.794625e+00 2.188928e+00 1.644907e+00 4.394281e-01
<GCONST> 8.621339e+01
<MIXTURE> 6 1.494670e-01
<MEAN> 25
 5.202986e+00 5.155646e+00 -4.589886e+00 8.170343e+00 2.771437e+00 -3.653946e+00 -1.031349e+00 3.907125e+00 -4.411433e-01 -9.568297e+00 -4.416990e+00 -2.816613e+00 -1.231573e+00 5.336042e-01 2.132838e-01 2.272455e-01 3.407772e-01 6.672219e-01 7.299878e-02 -2.847683e-01 2.180733e-01 2.391100e-01 1.213841e+00 -2.469997e-02 -1.110533e+00
<VARIANCE> 25
 1.246006e+01 3.270149e+01 2.254089e+01 1.624880e+01 2.382298e+01 3.108034e+01 3.065738e+01 3.462809e+01 2.629377e+01 2.725649e+01 2.063769e+01 2.192820e+01 4.428688e-01 1.392178e+00 2.150147e+00 1.100640e+00 1.451118e+00 1.783200e+00 1.792665e+00 2.822122e+00 2.559571e+00 2.162940e+00 2.350166e+00 1.821921e+00 2.978423e-01
<GCONST> 8.902876e+01
<MIXTURE> 7 8.349030e-02
<MEAN> 25
 5.966181e+00 -1.876957e+00 4.628471e+00 1.403446e+00 -4.364965e+00 -6.396596e+00 -1.170755e+00 -1.931561e+00 -6.897494e+00 -4.660810e+00 -7.565545e+00 -3.562198e-01 7.575206e-02 2.824557e+00 -4.661926e-01 2.867172e+00 -2.042677e-02 1.781479e+00 3.755055e-01 -1.225568e+00 -4.334731e-01 -1.994288e+00 -3.887086e-01 -2.232603e+00 -2.275423e+00
<VARIANCE> 25
 4.569260e+00 1.914256e+01 2.795847e+01 2.733769e+01 4.050761e+01 3.424839e+01 2.539908e+01 3.894092e+01 2.123506e+01 3.130331e+01 2.571349e+01 2.601841e+01 2.232763e-01 6.121634e-01 8.655269e-01 8.748204e-01 1.227524e+00 1.381622e+00 1.802971e+00 2.256595e+00 2.410305e+00 1.899339e+00 1.759984e+00 1.783601e+00 1.848507e-01
<GCONST> 8.483456e+01
<MIXTURE> 8 9.117074e-02
<MEAN> 25
 4.893940e+00 1.252760e+01 4.752983e+00 4.140593e+00 -4.768162e+00 2.399874e-01 -9.200052e-02 -5.078069e+00 -3.580858e+00 -5.387826e+00 -3.738806e+00 -5.559568e+00 -1.010868e+00 9.179181e-01 2.356846e-01 9.815493e-01 1.197810e+00 -8.799257e-01 -1.001851e+00 5.750089e-01 7.979327e-02 4.527322e-03 1.214754e+00 -5.465228e-02 -1.137319e+00
<VARIANCE> 25
 8.785215e+00 1.054387e+01 1.958555e+01 1.756313e+01 4.123306e+01 2.030805e+01 3.475960e+01 2.552675e+01 2.205176e+01 2.270924e+01 3.004112e+01 1.358774e+01 3.871222e-01 1.193716e+00 1.092069e+00 1.220426e+00 2.015297e+00 1.184093e+00 1.747639e+00 1.623321e+00 1.940811e+00 1.942996e+00 1.610518e+00 1.607492e+00 2.358435e-01
<GCONST> 8.432426e+01
<MIXTURE> 9 8.952232e-02
<MEAN> 25
 6.719872e+00 4.563399e+00 3.846201e+00 5.160229e+00 -7.166896e+00 -1.402294e+00 1.979612e+00 -7.232802e+00 -6.980462e+00 -7.251580e+00 -8.446174e+00 -3.950744e+00 -1.201938e-01 1.575294e+00 -4.805019e-01 1.022851e+00 6.803467e-01 7.802684e-01 -7.224513e-03 6.738583e-02 2.222960e-01 -1.002007e+00 4.901372e-01 -1.110699e+00 -1.117019e+00
<VARIANCE> 25
 7.515397e+00 1.363119e+01 2.781704e+01 2.268093e+01 3.564778e+01 2.754249e+01 3.324681e+01 3.300730e+01 2.468127e+01 2.849862e+01 2.640888e+01 2.652308e+01 3.242977e-01 9.567225e-01 7.680353e-01 1.156994e+00 2.180541e+00 1.774501e+00 2.053798e+00 2.260571e+00 1.853778e+00 1.770803e+00 2.343638e+00 1.923448e+00 3.912842e-01
<GCONST> 8.737727e+01
<STATE> 3
<NUMMIXES> 9
<MIXTURE> 1 1.487560e-01
<MEAN> 25
 -4.660501e+00 6.336377e+00 -2.088525e+00 6.824306e+00 3.996335e+00 1.682256e+00 8.893320e-01 4.226941e+00 2.994661e+00 -2.656830e+00 2.613803e+00 -9.802628e-01 -9.894317e-01 -8.490682e-01 -1.742474e-01 -2.326948e-01 -3.905357e-01 1.978789e-01 3.469306e-01 -9.502265e-03 3.545454e-01 9.600527e-01 1.124968e+00 3.957652e-01 -3.999790e-01
<VARIANCE> 25
 1.762482e+01 1.342557e+01 1.798948e+01 1.514288e+01 1.852903e+01 1.731135e+01 1.761465e+01 2.178205e+01 1.656799e+01 2.676468e+01 2.368850e+01 1.465899e+01 9.296939e-01 1.203460e+00 9.929462e-01 1.100100e+00 1.669483e+00 1.421096e+00 1.948715e+00 1.931570e+00 1.696021e+00 1.910506e+00 1.849856e+00 1.241939e+00 4.619365e-01
<GCONST> 8.431099e+01
<MIXTURE> 2 1.355499e-01
<MEAN> 25
 4.299538e+00 4.545161e+00 -4.057949e+00 8.795802e+00 2.936058e+00 -1.395499e+00 1.601646e+00 4.266304e+00 6.456466e-01 -6.916432e+00 4.892833e-01 -2.487648e+00 -1.051883e+00 -1.542690e+00 1.185221e+00 -1.757317e+00 -1.912387e+00 6.343913e-01 6.201990e-01 -3.091576e+00 2.781732e-01 1.114690e+00 1.415168e+00 3.431961e-01 1.152803e+00
<VARIANCE> 25
 9.921955e+00 2.540801e+01 2.456806e+01 1.266689e+01 2.632944e+01 3.024808e+01 2.122810e+01 2.827028e+01 2.318999e+01 2.607859e+01 1.764259e+01 1.676604e+01 1.065980e+00 1.657480e+00 3.370902e+00 2.117394e+00 4.580978e+00 3.582198e+00 4.587719e+00 5.319431e+00 3.976434e+00 4.340520e+00 4.034953e+00 3.229040e+00 7.301913e-01
<GCONST> 9.601726e+01
<MIXTURE> 3 9.713826e-02
<MEAN> 25
 -3.863730e-01 1.170412e+01 5.045819e+00 8.604046e+00 -2.502382e-01 -1.261181e+00 -1.777006e+00 -2.001106e+00 1.378067e-01 -7.240668e-01 3.926753e+00 -2.095402e+00 -1.271740e+00 -3.646077e+00 -1.611768e+00 -7.364326e-01 6.829857e-01 -3.282857e-01 1.126453e+00 -2.067726e-01 6.823247e-01 3.830002e-01 1.881546e+00 9.820905e-01 1.324841e+00
<VARIANCE> 25
 8.955039e+00 1.564091e+01 1.406565e+01 1.528767e+01 3.952324e+01 2.496467e+01 2.372423e+01 2.105902e+01 2.185896e+01 2.294312e+01 2.216148e+01 1.179754e+01 1.027471e+00 4.332922e+00 2.625438e+00 2.997428e+00 4.978373e+00 5.609438e+00 5.765479e+00 3.884048e+00 3.011689e+00 3.725121e+00 4.091296e+00 2.284339e+00 2.558502e+00
<GCONST> 9.673849e+01
<MIXTURE> 4 1.486017e-01
<MEAN> 25
 5.547235e+00 9.846317e+00 4.258282e+00 6.811050e+00 -6.046715e+00 -9.316626e-01 1.878258e+00 -5.336379e+00 -4.615453e+00 -6.007978e+00 -3.531149e+00 -4.399332e+00 -1.253351e+00 -1.619368e+00 -6.790460e-01 -4.684701e-01 2.048525e+00 -8.153950e-01 -5.821595e-01 1.108299e-01 8.824662e-01 1.925645e-01 3.229741e+00 3.664200e-01 8.631269e-01
<VARIANCE> 25
 7.767883e+00 2.088521e+01 2.063552e+01 1.415093e+01 2.247445e+01 2.241712e+01 1.958993e+01 2.963914e+01 2.453605e+01 2.358628e+01 2.447128e+01 1.645769e+01 1.362763e+00 1.905800e+00 2.420338e+00 2.355357e+00 3.705648e+00 3.561960e+00 3.249285e+00 3.281602e+00 3.391627e+00 2.822739e+00 3.146011e+00 2.508538e+00 1.060049e+00
<GCONST> 9.368331e+01
<MIXTURE> 5 7.816623e-02
<MEAN> 25
 3.135713e+00 1.302930e+01 2.043203e+00 7.068670e+00 1.287267e+00 -2.286846e+00 -2.885111e+00 -1.549627e-01 3.769658e-01 -4.795392e+00 -2.292165e-01 -3.255625e+00 -1.695857e+00 -3.655841e+00 -5.619690e-02 -6.776777e-02 9.414953e-02 3.395809e-01 1.860928e+00 -1.989156e+00 -6.767870e-01 1.240892e+00 2.738578e+00 4.257707e-01 1.287405e+00
<VARIANCE> 25
 9.410369e+00 1.510124e+01 1.410541e+01 1.233262e+01 1.658791e+01 1.867483e+01 2.032154e+01 2.587188e+01 2.269718e+01 1.781691e+01 1.684112e+01 1.801766e+01 7.219880e-01 3.501967e+00 1.776948e+00 3.106256e+00 4.619722e+00 4.030896e+00 3.992091e+00 5.449830e+00 4.540337e+00 3.461784e+00 2.610931e+00 3.168739e+00 1.443083e+00
<GCONST> 9.365530e+01
<MIXTURE> 6 1.122293e-01
<MEAN> 25
 5.241306e+00 6.072998e+00 -1.239485e+00 9.094438e+00 -1.485553e-01 -3.066282e+00 -2.618376e-02 -9.086119e-01 -5.516712e+00 -1.069045e+01 -2.558161e+00 -4.737199e+00 -1.623230e+00 -2.119452e+00 9.917709e-01 -1.828742e+00 -7.027247e-01 5.813190e-01 8.429570e-01 -1.821110e+00 1.210903e+00 2.004396e+00 3.187925e+00 1.345820e-01 1.369472e+00
<VARIANCE> 25
 7.940564e+00 3.052950e+01 2.186286e+01 1.316455e+01 2.470131e+01 2.489944e+01 2.126559e+01 4.496450e+01 3.123041e+01 2.509337e+01 2.732385e+01 1.725956e+01 9.351485e-01 2.015021e+00 2.340815e+00 2.227255e+00 4.173307e+00 3.492442e+00 3.083876e+00 4.613709e+00 3.400856e+00 3.357084e+00 4.782118e+00 2.804835e+00 8.271732e-01
<GCONST> 9.566567e+01
<MIXTURE> 7 9.433649e-02
<MEAN> 25
 4.688705e+00 3.017519e+00 1.719878e+00 4.949419e+00 -4.620591e+00 -5.207759e+00 -8.920571e-01 -2.143471e+00 -3.108199e+00 -3.952973e+00 -3.572227e+00 -1.136078e+00 -8.568612e-01 1.972170e-01 -8.422962e-01 5.705467e-01 3.494615e-01 2.229341e-01 4.061249e-01 -3.212478e-01 1.094236e+00 -5.418447e-02 1.787256e+00 -2.198493e-01 -6.665649e-01
<VARIANCE> 25
 1.323236e+01 4.055200e+01 3.381661e+01 2.229384e+01 5.618288e+01 2.602680e+01 3.351662e+01 5.238200e+01 3.138377e+01 4.385400e+01 3.480401e+01 2.965064e+01 1.588041e+00 2.394006e+00 1.854301e+00 2.347424e+00 4.414366e+00 2.584432e+00 2.229639e+00 3.772461e+00 3.292807e+00 2.946314e+00 4.200498e+00 3.422221e+00 1.667554e+00
<GCONST> 1.006015e+02
<MIXTURE> 8 1.071266e-01
<MEAN> 25
 -8.380013e-01 1.013759e+01 4.767300e+00 8.190221e+00 6.277028e-01 -1.923273e+00 -3.087154e+00 -3.428535e+00 -1.270407e+00 -2.739576e+00 2.235354e+00 -2.647437e+00 -1.213133e+00 -3.759736e+00 -2.033047e+00 -1.036842e+00 8.317499e-01 -1.034996e+00 1.465214e+00 -7.309846e-02 9.390070e-01 -2.285513e-02 1.915287e+00 7.790608e-01 1.893197e+00
<VARIANCE> 25
 1.282387e+01 1.900630e+01 1.653497e+01 1.704334e+01 4.235523e+01 1.925278e+01 2.097310e+01 2.394306e+01 2.412212e+01 2.808857e+01 2.060565e+01 1.075810e+01 1.644354e+00 4.669023e+00 3.232943e+00 3.611026e+00 5.339224e+00 6.563974e+00 6.381796e+00 5.033931e+00 4.025601e+00 3.776391e+00 5.233022e+00 2.500507e+00 2.617451e+00
<GCONST> 9.970377e+01
<MIXTURE> 9 7.809447e-02
<MEAN> 25
 3.766678e+00 1.285097e+01 1.939372e+00 6.729915e+00 1.064909e+00 -2.925246e+00 -3.721086e+00 -1.491884e+00 -1.327388e+00 -6.750813e+00 -2.078559e+00 -4.610780e+00 -1.836899e+00 -3.656922e+00 1.588904e-01 -1.043758e-01 -8.288673e-02 -1.580907e-01 1.856425e+00 -1.920936e+00 -6.716582e-01 1.266264e+00 2.727734e+00 3.398810e-01 1.433812e+00
<VARIANCE> 25
 6.603193e+00 1.772227e+01 1.562917e+01 1.260338e+01 1.711338e+01 1.553620e+01 1.488841e+01 2.353259e+01 2.625183e+01 1.686163e+01 1.392094e+01 1.544991e+01 8.056542e-01 3.152142e+00 1.980998e+00 3.191502e+00 4.595157e+00 3.558077e+00 3.569067e+00 4.867265e+00 3.508133e+00 3.701325e+00 2.375867e+00 2.929777e+00 1.430555e+00
<GCONST> 9.218543e+01
<STATE> 4
<NUMMIXES> 9
<MIXTURE> 1 1.503286e-01
<MEAN> 25
 -4.240660e+00 -1.249704e+00 -4.554420e+00 4.444761e+00 2.398672e+00 -1.849860e+00 3.697669e+00 -1.897031e-01 2.449710e+00 -2.064770e+00 7.395842e+00 1.979227e+00 -3.743919e-01 -2.491686e+00 -1.093325e+00 -8.488509e-01 -1.297428e-01 -1.949327e+00 1.765648e+00 -6.486447e-01 2.384753e-01 -3.266938e-01 1.647959e+00 1.550487e+00 2.048039e+00
<VARIANCE> 25
 1.403772e+01 3.919589e+01 3.449290e+01 2.552317e+01 3.600679e+01 3.598933e+01 3.727797e+01 3.724657e+01 2.374956e+01 3.246718e+01 2.548976e+01 2.027832e+01 2.007890e+00 3.189488e+00 4.436377e+00 2.680439e+00 4.201794e+00 5.908875e+00 6.091049e+00 5.320051e+00 3.051238e+00 4.998557e+00 3.624048e+00 3.224413e+00 1.597610e+00
<GCONST> 1.030107e+02
<MIXTURE> 2 1.066906e-01
<MEAN> 25
 -2.158145e+00 -7.667142e-01 1.313110e-01 3.242969e+00 -4.586012e+00 -2.617468e-01 9.643519e+00 -9.974922e+00 5.703468e-01 7.228550e-01 1.057227e+01 -3.990341e+00 1.749667e+00 -2.187056e-01 3.447927e+00 -3.934733e+00 -3.775390e+00 -1.186959e-01 -9.550451e-01 -2.859811e+00 -1.942915e-01 1.339868e+00 -2.712870e+00 7.054878e-01 2.943861e+00
<VARIANCE> 25
 1.553201e+01 4.115825e+01 3.542539e+01 2.708047e+01 5.013604e+01 5.750765e+01 3.590924e+01 4.643406e+01 3.067460e+01 3.727399e+01 4.123957e+01 2.756856e+01 2.098253e+00 4.578532e+00 2.855918e+00 4.355040e+00 3.544813e+00 4.754898e+00 4.896183e+00 5.246414e+00 3.469091e+00 3.179585e+00 4.421351e+00 2.021006e+00 1.792274e+00
<GCONST> 1.047650e+02
<MIXTURE> 3 7.723917e-02
<MEAN> 25
 -2.391986e-01 -1.344858e+00 -4.179991e-01 6.390224e+00 5.341882e-01 1.908074e+00 5.143941e+00 -5.249712e+00 -2.503254e+00 -2.105057e+00 8.064366e+00 -3.590470e+00 2.742407e-02 -3.842753e+00 5.752389e-01 -2.740484e+00 -2.491408e+00 -6.130544e-01 1.543687e+00 -2.366560e+00 8.961444e-02 2.233156e+00 1.365659e+00 6.890092e-01 3.372050e+00
<VARIANCE> 25
 1.518340e+01 4.349805e+01 2.667876e+01 2.330169e+01 2.559365e+01 2.699560e+01 2.969778e+01 3.931490e+01 3.451317e+01 2.525844e+01 2.904582e+01 1.922773e+01 1.177382e+00 2.702797e+00 4.022839e+00 2.395079e+00 5.125018e+00 4.055803e+00 3.907440e+00 5.411975e+00 3.995010e+00 3.660024e+00 4.367536e+00 2.893203e+00 1.047777e+00
<GCONST> 1.003432e+02
<MIXTURE> 4 1.010942e-01
<MEAN> 25
 4.869182e+00 1.195661e+00 5.737599e+00 2.494780e-01 -1.149970e+01 -3.198338e+00 4.660119e+00 -1.094253e+01 -2.867913e+00 1.036220e+00 2.942332e+00 -2.067115e+00 4.183691e-01 -1.572808e+00 3.139186e+00 -4.455747e+00 -3.251696e+00 -4.139156e-01 -5.984676e-01 -1.753568e+00 4.906143e-01 3.300034e+00 -2.247065e+00 2.119060e+00 2.407342e+00
<VARIANCE> 25
 7.706617e+00 2.197373e+01 1.356136e+01 2.228450e+01 2.702907e+01 3.262167e+01 2.461654e+01 3.440620e+01 2.674527e+01 2.592749e+01 3.414899e+01 2.303604e+01 7.573691e-01 2.811883e+00 2.591634e+00 1.681549e+00 3.192570e+00 4.456758e+00 2.753613e+00 4.657289e+00 3.699589e+00 3.059091e+00 4.019078e+00 1.751010e+00 8.605933e-01
<GCONST> 9.518497e+01
<MIXTURE> 5 1.245396e-01
<MEAN> 25
 2.806679e+00 -2.940591e+00 -2.035533e+00 2.002733e+00 5.815639e-01 -7.130465e+00 1.958208e+00 3.625862e-01 2.898196e+00 -4.203875e+00 2.571491e+00 3.167031e+00 1.176916e+00 -3.449437e+00 -3.764443e-01 -3.308092e+00 -1.891958e-01 -2.267485e+00 -4.747110e-01 1.507846e+00 9.191416e-01 1.476175e+00 -1.835149e+00 1.823852e+00 3.374318e+00
<VARIANCE> 25
 2.360066e+01 2.916956e+01 2.096885e+01 3.104488e+01 3.689340e+01 4.387220e+01 3.585326e+01 2.844322e+01 2.554213e+01 2.854123e+01 4.346214e+01 2.536341e+01 1.539196e+00 3.524267e+00 3.635806e+00 2.207176e+00 4.751206e+00 3.374239e+00 4.060169e+00 4.976463e+00 3.057597e+00 4.192617e+00 4.132500e+00 2.621095e+00 1.090397e+00
<GCONST> 1.014473e+02
<MIXTURE> 6 1.396140e-01
<MEAN> 25
 1.133060e+00 1.143986e+00 1.585940e-01 3.725348e+00 -5.002890e-01 -6.941213e+00 4.749651e-01 -1.784372e+00 -2.895902e-01 -4.951433e+00 1.374758e+00 8.121674e-01 2.693718e-01 -2.947234e-01 -6.133375e-01 -7.240538e-01 6.908024e-01 -8.518995e-01 -9.590091e-01 2.195369e-02 5.918114e-01 5.801011e-01 4.940835e-01 4.678292e-01 4.546689e-01
<VARIANCE> 25
 2.556258e+01 4.565047e+01 4.182621e+01 3.941916e+01 5.272066e+01 5.865843e+01 5.034571e+01 4.674920e+01 3.885120e+01 4.498175e+01 4.784295e+01 3.703222e+01 4.237881e+00 3.126271e+00 3.831846e+00 3.613454e+00 5.027995e+00 5.757147e+00 6.368219e+00 5.341728e+00 3.771644e+00 4.334715e+00 4.057358e+00 3.047113e+00 1.693261e+00
<GCONST> 1.091028e+02
<MIXTURE> 7 8.799529e-02
<MEAN> 25
 2.486851e+00 5.211553e-01 8.469344e+00 -4.259243e+00 -9.195756e+00 -4.332954e-01 2.063496e+00 -1.343280e+01 -2.790563e+00 9.938341e-02 1.050849e+00 -4.026626e+00 -2.018586e-01 -1.694829e+00 4.184471e+00 -5.879194e+00 -1.556497e+00 -1.291407e-01 -2.390208e+00 -2.025885e-01 3.918984e-01 2.676096e+00 -3.309796e+00 1.932669e+00 2.613535e+00
<VARIANCE> 25
 6.019793e+00 2.112204e+01 1.786376e+01 3.263784e+01 4.125326e+01 2.002024e+01 2.585973e+01 2.316670e+01 2.717352e+01 3.186882e+01 3.172720e+01 1.818544e+01 1.473292e+00 3.227669e+00 2.066940e+00 2.007695e+00 2.822674e+00 2.448762e+00 2.454671e+00 3.404812e+00 4.391391e+00 1.986442e+00 5.394232e+00 1.533762e+00 7.281380e-01
<GCONST> 9.439463e+01
<MIXTURE> 8 1.248228e-01
<MEAN> 25
 3.395987e+00 -4.112539e+00 -3.308181e+00 3.541404e-01 -4.040281e-01 -9.528114e+00 9.079199e-02 -6.833310e-01 3.067656e+00 -7.233469e+00 1.721722e-01 1.493034e+00 1.163349e+00 -3.339081e+00 -5.803084e-01 -3.726017e+00 9.814102e-02 -1.776657e+00 -6.020325e-01 1.854989e+00 7.637187e-01 8.321310e-01 -2.369144e+00 1.315896e+00 3.245940e+00
<VARIANCE> 25
 2.396116e+01 2.303043e+01 2.031787e+01 3.078885e+01 3.771302e+01 3.461730e+01 3.389354e+01 2.994476e+01 2.649374e+01 3.139841e+01 4.802986e+01 2.486307e+01 1.435261e+00 3.465666e+00 4.105738e+00 2.507418e+00 4.224029e+00 3.482942e+00 4.754594e+00 6.487298e+00 3.926491e+00 5.040948e+00 5.011782e+00 2.970799e+00 1.497855e+00
<GCONST> 1.027481e+02
<MIXTURE> 9 8.767568e-02
<MEAN> 25
 2.734511e-02 -2.520991e+00 2.408712e-01 4.611185e+00 -6.931400e-01 8.895811e-01 5.279894e+00 -8.507372e+00 -3.177310e+00 -3.693182e+00 8.208855e+00 -4.966387e+00 -2.032181e-01 -3.611631e+00 1.119273e+00 -3.296293e+00 -2.525313e+00 -7.310060e-01 1.031408e+00 -2.358256e+00 3.432595e-01 2.194598e+00 1.000190e+00 7.717500e-01 3.410003e+00
<VARIANCE> 25
 1.083578e+01 3.230352e+01 3.246332e+01 2.906681e+01 3.188048e+01 2.968575e+01 2.855663e+01 3.605690e+01 3.844654e+01 3.803506e+01 3.727366e+01 2.234535e+01 1.488796e+00 2.122630e+00 3.287302e+00 2.358909e+00 5.241477e+00 4.136693e+00 3.640134e+00 4.905325e+00 4.230090e+00 2.971288e+00 3.575567e+00 2.666752e+00 9.253929e-01
<GCONST> 1.003234e+02
<TRANSP> 5
 0.000000e+00 1.000000e+00 0.000000e+00 0.000000e+00 0.000000e+00
 0.000000e+00 7.342945e-01 2.657056e-01 0.000000e+00 0.000000e+00
 0.000000e+00 0.000000e+00 4.724199e-01 5.275801e-01 0.000000e+00
 0.000000e+00 0.000000e+00 0.000000e+00 5.492493e-01 4.507507e-01
 0.000000e+00 0.000000e+00 0.000000e+00 0.000000e+00 0.000000e+00
<ENDHMM>
~h "g"
<BEGINHMM>
<NUMSTATES> 5
<STATE> 2
<NUMMIXES> 9
<MIXTURE> 1 9.893664e-02
<MEAN> 25
 7.240504e+00 1.307187e+01 6.008789e-01 6.935056e-01 -4.770232e+00 2.543438e+00 -3.071042e-01 -5.113913e+00 -9.082095e-01 -4.003205e+00 -2.126867e+00 -2.803500e+00 -7.449296e-01 8.180659e-01 5.307709e-01 1.499156e+00 1.108252e+00 -1.024141e+00 -6.559833e-01 1.139644e+00 3.547930e-01 -3.451754e-01 1.029391e+00 2.052180e-01 -9.288436e-01
<VARIANCE> 25
 4.998704e+00 1.323636e+01 2.178686e+01 1.782226e+01 2.442798e+01 1.699719e+01 1.798352e+01 2.406305e+01 1.629030e+01 2.405071e+01 2.445407e+01 1.704493e+01 4.237846e-01 8.200456e-01 1.037288e+00 1.341343e+00 1.754962e+00 1.908849e+00 1.678873e+00 1.727034e+00 1.643018e+00 2.113300e+00 2.046419e+00 1.457072e+00 2.232365e-01
<GCONST> 8.258775e+01
<MIXTURE> 2 8.530919e-02
<MEAN> 25
 8.749244e+00 -1.134171e-01 -4.940180e+00 3.218766e+00 3.909830e+00 -7.067114e+00 -3.907936e+00 2.973611e+00 1.424947e+00 1.054444e+00 -8.743531e+00 -1.492755e+00 -1.325077e-01 3.181758e+00 2.813047e-01 2.450169e+00 -9.930574e-01 2.620900e-01 -4.087111e-01 -9.322826e-01 4.657317e-01 -1.054248e+00 1.838851e+00 -3.652695e-01 -2.272022e+00
<VARIANCE> 25
 3.663177e+00 1.441980e+01 1.912233e+01 1.678073e+01 3.996815e+01 3.424705e+01 2.496000e+01 2.835300e+01 2.442944e+01 1.883452e+01 2.501772e+01 2.840593e+01 1.976768e-01 3.900559e-01 6.863252e-01 9.038110e-01 2.332684e+00 1.753901e+00 2.257340e+00 1.983455e+00 1.845120e+00 1.788747e+00 1.532863e+00 1.607072e+00 9.712516e-02
<GCONST> 8.179790e+01
<MIXTURE> 3 1.378694e-01
<MEAN> 25
 8.370754e+00 4.969028e+00 -5.122491e+00 5.878326e+00 3.120541e+00 -4.143947e+00 -4.526493e+00 1.792442e+00 2.262317e+00 -3.761065e+00 -5.366164e+00 -2.380948e+00 -4.473332e-01 1.839687e+00 -1.066098e-01 1.018725e+00 1.112240e-01 7.041909e-01 7.713209e-02 -1.956459e-01 9.966123e-02 -1.176296e+00 1.288642e+00 -4.064090e-01 -1.480075e+00
<VARIANCE> 25
 3.657727e+00 9.725858e+00 1.769002e+01 1.759269e+01 3.891465e+01 2.569555e+01 2.694856e+01 2.247947e+01 1.952653e+01 2.657139e+01 2.452090e+01 2.465597e+01 2.338410e-01 6.019470e-01 1.358381e+00 1.136124e+00 2.120654e+00 1.696053e+00 1.733029e+00 1.583997e+00 1.602825e+00 1.707256e+00 2.433878e+00 1.355303e+00 1.852775e-01
<GCONST> 8.250675e+01
<MIXTURE> 4 1.497940e-01
<MEAN> 25
 7.702777e+00 -7.401491e+00 -3.767085e+00 -6.230249e+00 8.677140e+00 -6.741415e+00 -4.615938e+00 3.598736e+00 8.795435e-01 3.518175e+00 -1.319762e+01 -3.893920e-01 2.231641e-01 3.070746e+00 1.212826e-01 1.934491e+00 -9.278041e-01 -1.724516e+00 -1.227606e+00 -1.721837e+00 7.294746e-02 5.566501e-01 2.149967e-01 -3.528492e-01 -1.896975e+00
<VARIANCE> 25
 5.054664e+00 1.429172e+01 1.569662e+01 2.754330e+01 1.564241e+01 3.107665e+01 2.829827e+01 2.570861e+01 1.871004e+01 4.145226e+01 1.834004e+01 3.308906e+01 1.319832e-01 4.931726e-01 6.000686e-01 1.188114e+00 1.488147e+00 1.051207e+00 1.575600e+00 1.616262e+00 1.612922e+00 2.322281e+00 1.747353e+00 1.313160e+00 2.275303e-01
<GCONST> 8.111667e+01
<MIXTURE> 5 1.240212e-01
<MEAN> 25
 5.990187e+00 3.149004e+00 4.543468e+00 9.977165e-01 -5.854898e+00 1.995252e+00 1.660368e+00 -9.101113e+00 -5.220839e+00 -6.985911e-01 -9.484797e+00 -4.627831e+00 3.175572e-01 1.800335e+00 -8.900446e-01 1.235393e+00 -2.656933e-01 5.788508e-01 3.174444e-01 2.437877e-01 6.339451e-01 -1.211389e+00 7.944455e-01 -5.752689e-01 -1.208915e+00
<VARIANCE> 25
 7.107786e+00 2.167931e+01 2.789870e+01 2.551088e+01 4.042001e+01 2.114733e+01 4.429340e+01 2.708469e+01 2.652490e+01 3.475976e+01 2.046900e+01 1.213904e+01 2.352676e-01 6.758275e-01 1.139694e+00 1.868290e+00 1.529095e+00 1.972902e+00 1.491854e+00 1.439849e+00 1.549455e+00 1.448787e+00 1.740829e+00 1.487065e+00 3.571716e-01
<GCONST> 8.525062e+01
<MIXTURE> 6 9.355313e-02
<MEAN> 25
 3.803381e+00 8.232029e+00 -7.980956e-01 1.722677e+00 -2.584488e+00 2.130621e-01 -1.976557e+00 -5.330220e+00 -5.156205e-01 -4.211655e-01 6.886644e-01 -1.013387e+00 -5.415928e-01 -4.405676e-01 -3.522582e-01 1.259011e+00 8.685914e-01 -6.621391e-01 -1.815628e-01 9.850597e-01 5.377393e-01 -1.051244e-01 6.183174e-01 2.755208e-01 -4.541060e-01
<VARIANCE> 25
 3.205880e+01 3.019382e+01 5.933642e+01 4.439939e+01 5.270148e+01 3.159108e+01 3.293450e+01 4.914972e+01 3.893586e+01 3.337651e+01 4.782641e+01 3.036728e+01 1.234645e+00 1.844465e+00 2.392052e+00 3.693625e+00 3.486977e+00 3.593476e+00 3.377302e+00 2.338087e+00 3.036908e+00 3.050484e+00 3.346235e+00 2.303153e+00 6.912655e-01
<GCONST> 1.014515e+02
<MIXTURE> 7 1.205097e-01
<MEAN> 25
 7.321218e+00 -1.532153e+00 -3.092139e+00 -8.479289e-02 6.242584e+00 -7.970962e+00 -5.686422e+00 3.556946e-01 -5.476812e-02 1.331361e+00 -1.268115e+01 -1.049391e+00 -4.028603e-02 2.392088e+00 -5.467702e-01 2.676631e+00 -8.422043e-01 1.130227e+00 3.106188e-01 -5.481191e-01 -3.830888e-01 -1.903111e+00 6.915939e-01 -9.954973e-01 -2.220096e+00
<VARIANCE> 25
 3.633100e+00 1.384013e+01 1.405437e+01 2.382298e+01 1.432901e+01 2.781921e+01 3.003772e+01 2.121607e+01 2.020426e+01 4.299416e+01 1.515343e+01 3.849498e+01 2.565234e-01 9.255249e-01 6.855305e-01 1.008761e+00 2.007274e+00 1.300230e+00 1.542455e+00 1.560749e+00 2.320953e+00 2.571725e+00 1.989345e+00 1.750188e+00 2.128754e-01
<GCONST> 8.277721e+01
<MIXTURE> 8 1.166848e-01
<MEAN> 25
 6.445186e+00 1.224364e+01 1.247213e+00 -1.886416e-01 -5.757833e+00 1.651379e+00 -8.657854e-01 -6.107532e+00 -2.699062e+00 -4.584694e+00 -2.878937e+00 -4.123783e+00 -7.223440e-01 7.452048e-01 3.648205e-01 1.266774e+00 8.887603e-01 -1.121413e+00 -7.991594e-01 7.588295e-01 3.926269e-02 -4.664488e-01 8.670069e-01 1.200923e-01 -9.257866e-01
<VARIANCE> 25
 6.089895e+00 1.449313e+01 2.089412e+01 1.797636e+01 2.028636e+01 2.044982e+01 2.620558e+01 2.257744e+01 1.723699e+01 2.187333e+01 2.805584e+01 1.730361e+01 3.767373e-01 7.994294e-01 8.260778e-01 1.153269e+00 1.669268e+00 1.697390e+00 1.589215e+00 2.006315e+00 1.751966e+00 2.210771e+00 1.782205e+00 1.554468e+00 1.772581e-01
<GCONST> 8.247945e+01
<MIXTURE> 9 7.332134e-02
<MEAN> 25
 5.412033e+00 7.727907e+00 -4.557834e-01 1.102638e+00 -2.715458e+00 -1.528972e-01 -3.681120e+00 -8.027733e+00 -3.462766e+00 -2.714441e+00 -2.471923e+00 -4.170691e+00 -2.977116e-01 4.924248e-02 7.489842e-02 1.310322e+00 6.619952e-01 -9.688430e-01 -6.472825e-01 5.279535e-01 2.102526e-01 -2.247454e-01 1.977965e-01 -1.736342e-01 -4.720598e-01
<VARIANCE> 25
 2.262261e+01 2.576074e+01 5.470945e+01 3.757171e+01 5.319721e+01 3.469622e+01 3.832327e+01 4.139729e+01 4.190943e+01 4.132253e+01 3.237772e+01 1.904171e+01 1.052110e+00 2.182369e+00 3.096827e+00 3.074617e+00 3.902157e+00 4.125479e+00 3.364433e+00 2.331335e+00 3.138115e+00 3.232882e+00 2.989670e+00 3.204551e+00 7.148672e-01
<GCONST> 1.008782e+02
<STATE> 3
<NUMMIXES> 9
<MIXTURE> 1 7.875738e-02
<MEAN> 25
 -2.294508e+00 7.569173e+00 -4.333858e+00 2.505453e+00 1.862449e+00 -1.194574e-01 -1.738612e+00 -4.760845e-01 1.661494e+00 2.450392e-01 7.795740e+00 1.405015e+00 -9.348918e-01 -1.206848e+00 -3.915767e-01 3.201676e-01 3.177269e-01 6.204335e-02 9.950046e-01 8.614510e-01 3.130969e-01 2.422146e-01 3.391029e-01 4.142349e-01 -3.630156e-01
<VARIANCE> 25
 4.149046e+01 1.307141e+01 4.560941e+01 4.243369e+01 2.690077e+01 2.564712e+01 2.139536e+01 2.191715e+01 1.517952e+01 2.532878e+01 2.510714e+01 1.882020e+01 8.697249e-01 1.596971e+00 1.732022e+00 2.525429e+00 2.925352e+00 1.736327e+00 2.331442e+00 1.686936e+00 1.174646e+00 2.135633e+00 1.902002e+00 1.709039e+00 3.405690e-01
<GCONST> 9.042813e+01
<MIXTURE> 2 1.439158e-01
<MEAN> 25
 6.697746e+00 1.324968e+01 -2.397249e+00 1.504530e+00 -4.949197e-01 1.058140e+00 6.063722e-01 -4.366044e-01 -3.142776e-01 -4.386033e+00 -2.746124e-01 -2.991995e+00 -4.370179e-01 4.820684e-01 7.371806e-01 5.910220e-01 -7.212191e-02 7.754661e-02 1.461947e-01 7.287749e-03 6.758650e-02 8.313000e-02 1.844150e-01 1.035877e-01 -4.531447e-01
<VARIANCE> 25
 5.284379e+00 8.313750e+00 1.568220e+01 1.862609e+01 1.520211e+01 1.147143e+01 2.231435e+01 1.524677e+01 1.809495e+01 1.610521e+01 1.594569e+01 1.753741e+01 3.704000e-01 4.064001e-01 6.597729e-01 9.418705e-01 8.776165e-01 9.934309e-01 1.799621e+00 1.304773e+00 1.294714e+00 1.116039e+00 1.234606e+00 9.923569e-01 2.328034e-01
<GCONST> 7.516660e+01
<MIXTURE> 3 1.193654e-01
<MEAN> 25
 4.972328e+00 1.217928e+01 1.175971e+00 4.024271e+00 -1.856416e+00 -6.566015e-03 -1.572564e+00 -3.984630e+00 -1.711233e+00 -3.356999e+00 -7.429042e-01 -1.833910e+00 -7.398987e-01 -3.568420e+00 -1.763051e+00 2.315531e+00 3.486944e+00 -2.015143e+00 -1.573639e+00 1.346101e+00 8.317019e-01 9.179215e-01 7.606419e-01 4.634692e-01 7.027651e-01
<VARIANCE> 25
 1.149103e+01 2.076485e+01 3.491250e+01 2.151916e+01 2.886059e+01 1.788775e+01 2.353146e+01 2.200560e+01 2.077821e+01 2.264267e+01 2.380508e+01 1.885043e+01 8.241012e-01 3.354319e+00 4.649281e+00 4.645643e+00 5.033431e+00 4.725703e+00 4.088880e+00 5.160111e+00 4.361215e+00 4.837330e+00 5.267999e+00 3.238558e+00 6.016653e-01
<GCONST> 9.848556e+01
<MIXTURE> 4 1.080731e-01
<MEAN> 25
 7.229904e+00 4.032468e+00 -6.202023e+00 7.777889e+00 5.438776e+00 -4.422071e+00 -5.263756e+00 1.253727e+00 1.694165e+00 -4.503357e+00 -5.793801e+00 -3.047118e+00 -3.216699e-01 -8.488500e-01 -7.823166e-01 8.112147e-01 1.045830e+00 -9.772809e-01 -5.677460e-01 6.884191e-01 9.283777e-01 -9.604881e-02 1.079768e+00 1.217928e+00 -1.986270e-02
<VARIANCE> 25
 4.266930e+00 1.248956e+01 1.576273e+01 2.054469e+01 3.754275e+01 2.615863e+01 2.429371e+01 2.542461e+01 1.593825e+01 2.932500e+01 2.183464e+01 2.014093e+01 4.081066e-01 1.465053e+00 3.264935e+00 1.605847e+00 4.904984e+00 3.866878e+00 2.343077e+00 2.859223e+00 2.168692e+00 2.722861e+00 2.268865e+00 2.881070e+00 5.454877e-01
<GCONST> 9.028642e+01
<MIXTURE> 5 1.677394e-01
<MEAN> 25
 1.576045e+00 1.465225e+01 4.344440e+00 6.798455e+00 -1.272742e+00 -3.603208e+00 -5.320243e+00 -3.733513e+00 -1.826966e+00 -5.171153e+00 1.665795e+00 -2.720100e+00 -1.462887e+00 -9.193323e-01 3.730372e-02 8.852986e-01 1.082789e+00 2.878136e-01 -3.521350e-01 7.310610e-02 2.332105e-01 6.444815e-01 8.357957e-01 3.636537e-01 -8.119326e-01
<VARIANCE> 25
 8.246137e+00 9.855201e+00 1.192302e+01 1.642517e+01 2.102714e+01 2.081815e+01 1.598327e+01 1.989225e+01 1.510314e+01 2.174969e+01 1.263222e+01 1.325495e+01 5.243835e-01 1.063359e+00 2.019039e+00 1.925252e+00 1.526308e+00 2.229986e+00 2.332503e+00 1.649020e+00 1.608581e+00 2.007998e+00 2.045285e+00 1.371926e+00 2.185642e-01
<GCONST> 8.240971e+01
<MIXTURE> 6 1.201083e-01
<MEAN> 25
 5.855006e+00 8.134176e+00 -3.149972e+00 5.502876e+00 3.738980e+00 -2.698520e+00 -4.815178e+00 -4.008457e-01 1.092188e+00 -5.391881e+00 -4.609140e+00 -4.161166e+00 -7.365500e-01 9.018771e-01 4.853859e-01 2.253408e-02 -2.225867e-01 6.700384e-01 7.945260e-01 3.122133e-01 -1.684266e-02 -2.592460e-01 3.246292e-01 -1.532571e-01 -8.707526e-01
<VARIANCE> 25
 4.790534e+00 1.134414e+01 2.035710e+01 1.460591e+01 1.762977e+01 1.655603e+01 1.658062e+01 3.073670e+01 1.467878e+01 1.894022e+01 1.167716e+01 1.537599e+01 4.162138e-01 7.823358e-01 1.031995e+00 1.009555e+00 1.237285e+00 1.152773e+00 9.635100e-01 1.833321e+00 1.205634e+00 1.558004e+00 1.424991e+00 1.623281e+00 1.843800e-01
<GCONST> 7.798658e+01
<MIXTURE> 7 4.844253e-02
<MEAN> 25
 -1.339566e+00 5.901284e+00 2.175494e+00 5.614937e+00 -1.264931e+00 -3.138538e+00 -2.796460e+00 -1.209967e+00 3.297789e+00 -2.504840e+00 3.110130e+00 -8.411954e-02 3.691982e-01 -2.364297e-01 -6.749784e-01 -1.031380e+00 3.892915e-01 -7.595692e-01 3.400754e-01 8.126782e-01 -3.337211e-01 -3.390630e-01 -3.860717e-01 5.422813e-01 5.125747e-01
<VARIANCE> 25
 2.900740e+01 4.293727e+01 3.763609e+01 5.990024e+01 3.470403e+01 2.979002e+01 4.083540e+01 5.432262e+01 4.744561e+01 3.338131e+01 2.503609e+01 3.451187e+01 4.767448e+00 5.329242e+00 4.726807e+00 3.794168e+00 7.277279e+00 2.450493e+00 2.869918e+00 5.111939e+00 5.271863e+00 3.565660e+00 3.271538e+00 3.110404e+00 1.386287e+00
<GCONST> 1.068386e+02
<MIXTURE> 8 1.162651e-01
<MEAN> 25
 5.463647e+00 9.373974e+00 1.952324e+00 4.401464e+00 -3.303327e+00 -1.023004e+00 -2.486005e+00 -7.134120e+00 -3.262293e+00 -3.700900e+00 -3.509313e+00 -3.360100e+00 -5.894408e-01 -2.936778e+00 -1.886045e+00 1.882746e+00 3.464925e+00 -2.197990e+00 -1.272703e+00 1.513158e+00 6.039668e-01 6.597295e-01 5.160034e-01 8.992969e-01 6.102211e-01
<VARIANCE> 25
 1.152686e+01 2.647651e+01 3.307693e+01 2.364693e+01 3.351904e+01 2.192659e+01 2.943974e+01 2.577782e+01 1.859705e+01 2.853419e+01 2.397387e+01 2.059158e+01 6.653489e-01 2.718774e+00 4.368298e+00 4.815747e+00 5.250959e+00 6.450787e+00 3.981624e+00 5.217300e+00 4.194592e+00 4.007775e+00 3.653931e+00 3.443369e+00 5.271143e-01
<GCONST> 9.894680e+01
<MIXTURE> 9 9.733307e-02
<MEAN> 25
 6.791207e+00 1.337893e+00 -6.822639e+00 3.430877e+00 6.412061e+00 -5.070642e+00 -6.250633e+00 2.913905e-01 1.131064e-01 -2.440267e+00 -9.064388e+00 -4.203659e+00 -3.238862e-01 -2.201256e-02 -9.637994e-01 1.065327e+00 5.610411e-02 3.563924e-01 -1.113548e-01 1.518645e-01 6.506991e-01 -8.798639e-01 1.052400e+00 1.599939e-01 -7.703274e-01
<VARIANCE> 25
 5.337001e+00 1.683201e+01 2.161392e+01 3.056141e+01 3.520931e+01 2.519740e+01 2.544004e+01 2.284211e+01 2.710349e+01 5.436239e+01 3.245754e+01 3.197400e+01 5.035920e-01 1.526842e+00 1.359734e+00 1.578015e+00 3.165280e+00 2.845819e+00 2.114361e+00 2.547686e+00 3.204959e+00 3.016634e+00 3.042809e+00 2.657538e+00 8.977717e-01
<GCONST> 9.296500e+01
<STATE> 4
<NUMMIXES> 9
<MIXTURE> 1 8.024935e-02
<MEAN> 25
 -1.586156e+00 -6.097237e+00 -2.707472e+00 1.075805e+01 4.426212e+00 -8.485602e+00 4.884015e-01 6.237286e+00 1.487482e+00 -9.572377e-01 3.847537e+00 5.676756e+00 1.887646e+00 -7.379953e-01 7.114758e-02 -2.884022e+00 -9.026535e-01 -3.944367e-01 -3.854003e-01 7.627965e-01 6.501488e-01 1.739090e-01 -1.600280e+00 1.073823e+00 2.345193e+00
<VARIANCE> 25
 2.357348e+01 5.101980e+01 3.141019e+01 6.775550e+01 3.973992e+01 3.390594e+01 3.734755e+01 2.524684e+01 3.218087e+01 2.729292e+01 2.475167e+01 2.099113e+01 3.720208e+00 5.803806e+00 6.528896e+00 5.707395e+00 8.059649e+00 4.853801e+00 3.312969e+00 4.520761e+00 3.957501e+00 3.891200e+00 4.494371e+00 4.532739e+00 2.588481e+00
<GCONST> 1.075512e+02
<MIXTURE> 2 9.762029e-02
<MEAN> 25
 9.319297e+00 -6.159321e-01 -7.677619e+00 3.386114e+00 4.144250e+00 -8.566059e+00 -5.630360e+00 5.501461e+00 5.411273e+00 -1.991691e+00 -6.273886e+00 1.485183e+00 7.338616e-01 -1.622200e+00 -2.278493e-01 -2.597617e+00 -1.158747e+00 -5.056173e-02 1.005349e+00 1.502287e+00 7.577350e-01 9.655629e-01 -1.537823e+00 1.019243e+00 1.627524e+00
<VARIANCE> 25
 4.047438e+00 3.651489e+01 1.743721e+01 3.071960e+01 2.688161e+01 2.331964e+01 2.574733e+01 2.524177e+01 2.851100e+01 2.223193e+01 3.489870e+01 2.323738e+01 7.277632e-01 3.032179e+00 3.034974e+00 3.641454e+00 4.876723e+00 3.664106e+00 3.996128e+00 2.481075e+00 4.407646e+00 2.917187e+00 3.735435e+00 3.298197e+00 5.177517e-01
<GCONST> 9.607193e+01
<MIXTURE> 3 8.868182e-02
<MEAN> 25
 -8.319188e-01 8.165821e-01 -2.593040e+00 1.001408e+01 5.197379e+00 -2.720850e+00 -2.368584e+00 2.825250e-01 -2.186058e-02 -1.617507e+00 3.667004e+00 1.261715e+00 -1.788339e-01 -5.230615e+00 -3.496444e+00 -3.596951e-01 3.251081e+00 -1.038137e+00 5.284446e-01 1.661537e+00 3.570126e-01 1.311790e+00 3.450057e-01 1.793601e+00 2.020790e+00
<VARIANCE> 25
 1.476087e+01 6.763499e+01 5.760180e+01 5.784106e+01 7.154526e+01 5.308211e+01 4.068271e+01 3.828466e+01 3.835258e+01 3.385735e+01 2.541816e+01 2.008195e+01 1.670163e+00 3.355407e+00 5.909199e+00 8.519831e+00 6.059604e+00 1.008110e+01 4.230720e+00 6.014429e+00 4.440867e+00 4.578521e+00 3.759415e+00 3.118107e+00 1.717655e+00
<GCONST> 1.089675e+02
<MIXTURE> 4 1.536903e-01
<MEAN> 25
 6.680902e+00 -4.082463e-01 -9.392539e+00 4.328908e+00 1.019947e+01 -5.000901e+00 -7.800713e+00 -3.339634e+00 4.486766e-01 1.449898e+00 -4.099601e+00 -1.239781e+00 5.470671e-02 -2.500763e+00 2.880662e-01 -1.929465e+00 2.036956e-01 -2.124052e+00 -5.825434e-01 1.395679e+00 1.147487e+00 1.864572e+00 -1.827016e+00 1.414542e+00 1.948378e+00
<VARIANCE> 25
 9.323174e+00 2.540259e+01 6.389967e+01 5.276115e+01 7.073756e+01 4.980212e+01 3.534288e+01 3.614790e+01 3.184738e+01 4.169688e+01 3.796721e+01 3.430131e+01 9.591879e-01 2.405484e+00 7.118505e+00 4.119744e+00 7.142587e+00 4.352065e+00 3.009953e+00 5.720540e+00 3.761854e+00 4.563880e+00 4.295074e+00 4.149359e+00 8.303676e-01
<GCONST> 1.052553e+02
<MIXTURE> 5 1.197206e-01
<MEAN> 25
 3.774048e+00 7.133480e+00 -3.881882e+00 2.674625e+00 1.963602e+00 1.699515e-01 -1.228790e+00 -6.781584e-01 4.617870e-01 -2.263247e+00 6.598678e-01 -9.498326e-01 -5.986592e-01 -1.294230e+00 1.511352e-01 -7.002549e-01 -1.682966e-01 6.783954e-01 5.889077e-01 -5.346085e-01 5.864687e-03 1.135234e+00 6.256865e-01 4.170739e-01 3.293186e-01
<VARIANCE> 25
 2.254233e+01 4.696260e+01 4.982992e+01 3.854169e+01 3.276775e+01 3.694315e+01 3.800120e+01 3.862651e+01 2.766458e+01 3.216802e+01 2.786014e+01 1.988820e+01 1.977299e+00 2.924152e+00 8.581708e+00 3.471435e+00 6.423892e+00 2.986651e+00 4.180773e+00 4.312154e+00 3.198342e+00 3.449426e+00 3.109812e+00 2.416544e+00 8.719055e-01
<GCONST> 1.032466e+02
<MIXTURE> 6 1.068973e-01
<MEAN> 25
 2.272248e+00 -6.546546e+00 -8.108095e+00 5.505637e+00 8.676870e+00 -8.140337e+00 -2.611180e+00 4.350835e+00 2.470503e+00 3.686444e-02 -2.394259e+00 4.513526e+00 1.985941e+00 -9.087573e-01 5.341240e-01 -3.994852e+00 -1.248311e+00 -4.864494e-01 -3.165678e-01 5.464947e-01 -5.232735e-01 8.151624e-01 -2.739452e+00 -3.683361e-01 2.866700e+00
<VARIANCE> 25
 1.843316e+01 4.410213e+01 5.376955e+01 3.441004e+01 7.816047e+01 3.841697e+01 2.393925e+01 2.638410e+01 3.755299e+01 4.310826e+01 2.386537e+01 1.727321e+01 1.532771e+00 5.377354e+00 5.980126e+00 4.913751e+00 5.715829e+00 4.204931e+00 2.950551e+00 3.601722e+00 4.395274e+00 5.003369e+00 3.948870e+00 3.187379e+00 2.158766e+00
<GCONST> 1.054627e+02
<MIXTURE> 7 1.527347e-01
<MEAN> 25
 7.885417e+00 -5.700505e+00 -3.555912e+00 -2.690358e+00 3.075385e+00 -1.122243e+01 -5.040235e+00 3.045658e+00 9.014546e-01 3.475994e+00 -1.199201e+01 2.373612e+00 1.333415e-01 -2.693881e+00 2.218881e+00 -3.572629e+00 -1.520422e+00 -3.297158e-01 1.589148e+00 1.762303e+00 -9.147620e-01 1.344576e+00 -2.002851e+00 3.691764e-01 2.711120e+00
<VARIANCE> 25
 3.994025e+00 1.978731e+01 1.961292e+01 2.892448e+01 2.582611e+01 1.995187e+01 1.901941e+01 2.370496e+01 2.325829e+01 2.436611e+01 1.875225e+01 2.148923e+01 1.030040e+00 2.181166e+00 2.006896e+00 2.996904e+00 3.923256e+00 3.906187e+00 2.658170e+00 3.091703e+00 3.054593e+00 3.028921e+00 2.536745e+00 5.071728e+00 6.293228e-01
<GCONST> 9.310799e+01
<MIXTURE> 8 1.129981e-01
<MEAN> 25
 4.360312e+00 4.991608e+00 -3.661672e+00 2.937863e+00 1.999490e+00 -6.651909e-01 -3.051589e+00 -1.799622e+00 -3.450300e-01 -3.414623e+00 -1.923985e+00 -1.951795e+00 -5.707535e-01 -9.108846e-01 -3.696782e-02 -3.079304e-01 9.909186e-02 8.705587e-01 4.994219e-01 -3.579926e-01 -2.371269e-01 3.243740e-01 5.493509e-01 1.487068e-01 2.423153e-02
<VARIANCE> 25
 1.872610e+01 5.830854e+01 4.255589e+01 3.135999e+01 3.309857e+01 3.782114e+01 2.847748e+01 5.029827e+01 2.683208e+01 3.100368e+01 3.962225e+01 2.704027e+01 1.225752e+00 2.340267e+00 7.245584e+00 3.282296e+00 6.495053e+00 2.761511e+00 3.470284e+00 3.523773e+00 2.999936e+00 3.108509e+00 3.143327e+00 2.222625e+00 8.033748e-01
<GCONST> 1.018099e+02
<MIXTURE> 9 8.740737e-02
<MEAN> 25
 2.692461e-01 1.789130e+00 -8.134689e-01 9.794189e+00 3.519747e+00 -3.116978e+00 -2.762608e+00 -2.099553e+00 -1.240577e+00 -2.191346e+00 1.078904e+00 -1.010094e+00 -4.321942e-01 -4.944474e+00 -2.922274e+00 2.689900e-02 2.781717e+00 -1.101251e+00 3.956574e-01 1.273630e+00 2.305345e-02 1.168859e+00 5.001975e-01 1.358770e+00 1.674348e+00
<VARIANCE> 25
 1.656648e+01 7.149626e+01 5.805445e+01 4.377601e+01 7.421962e+01 5.384010e+01 5.244020e+01 4.780693e+01 5.014639e+01 4.605805e+01 2.620761e+01 2.145302e+01 2.055410e+00 2.429399e+00 8.542128e+00 7.296419e+00 7.565691e+00 8.260400e+00 6.110404e+00 6.858618e+00 4.924360e+00 5.653858e+00 3.561661e+00 2.685742e+00 8.877010e-01
<GCONST> 1.101378e+02
<TRANSP> 5
 0.000000e+00 1.000000e+00 0.000000e+00 0.000000e+00 0.000000e+00
 0.000000e+00 6.330457e-01 3.669543e-01 0.000000e+00 0.000000e+00
 0.000000e+00 0.000000e+00 4.995690e-01 5.004311e-01 0.000000e+00
 0.000000e+00 0.000000e+00 0.000000e+00 6.321176e-01 3.678823e-01
 0.000000e+00 0.000000e+00 0.000000e+00 0.000000e+00 0.000000e+00
<ENDHMM>
~h "h"
<BEGINHMM>
<NUMSTATES> 5
<STATE> 2
<NUMMIXES> 9
<MIXTURE> 1 1.281420e-01
<MEAN> 25
 -5.359835e+00 -7.685903e+00 -2.749152e+00 -7.700595e-01 4.047977e+00 9.277750e+00 5.916110e+00 -2.414921e+00 1.188362e+00 7.449263e-02 3.706272e+00 5.972499e+00 3.878692e-01 2.978151e-01 1.731888e-01 -6.467661e-01 -4.502524e-02 1.529465e+00 2.452875e-02 -4.962049e-01 -3.618097e-01 -6.132329e-03 -4.981209e-01 -5.755975e-02 -3.315292e-02
<VARIANCE> 25
 1.763110e+01 5.121313e+01 8.268275e+01 4.147787e+01 8.505621e+01 7.311359e+01 5.132509e+01 4.845620e+01 4.341416e+01 4.871463e+01 4.186395e+01 2.791883e+01 2.303754e+00 3.190778e+00 2.355329e+00 2.542732e+00 2.828615e+00 5.331793e+00 3.457450e+00 2.700866e+00 4.081656e+00 2.965717e+00 2.985007e+00 2.533056e+00 7.149232e-01
<GCONST> 1.050808e+02
<MIXTURE> 2 1.251786e-01
<MEAN> 25
 3.558058e+00 -2.967293e-01 1.005272e+01 -6.164101e+00 -7.823591e+00 8.093782e+00 5.808179e+00 -7.099945e+00 1.347786e+00 1.450106e+00 -6.148205e+00 8.960810e-01 -4.887155e-01 5.068511e-01 4.951001e-01 3.744762e-01 2.364549e-01 1.827102e+00 1.727291e-01 -7.069169e-01 6.317333e-01 -5.319108e-01 2.166416e-01 5.052381e-01 -6.545410e-01
<VARIANCE> 25
 4.816531e+00 3.138527e+01 1.442537e+01 2.993449e+01 2.159170e+01 5.434055e+01 4.123431e+01 2.848243e+01 2.938160e+01 2.291662e+01 2.343485e+01 2.688964e+01 2.184115e-01 1.167355e+00 9.828071e-01 1.426048e+00 1.528124e+00 1.818034e+00 2.932369e+00 1.668670e+00 1.744030e+00 1.896393e+00 1.729919e+00 1.634793e+00 2.304190e-01
<GCONST> 8.647609e+01
<MIXTURE> 3 1.203971e-01
<MEAN> 25
 5.508675e+00 -6.415461e+00 4.127823e-01 6.195668e+00 -3.391053e-01 4.848204e+00 1.107697e+01 1.487517e+00 -4.566215e+00 -5.464016e+00 -2.846402e+00 2.341964e+00 -1.074480e+00 5.461577e-01 1.704667e+00 6.240056e-01 -7.940330e-01 2.118780e+00 1.125630e+00 -1.165941e+00 5.111549e-01 4.181813e-01 3.698491e-01 4.969062e-02 -9.565684e-01
<VARIANCE> 25
 4.894221e+00 2.028972e+01 2.072101e+01 2.151643e+01 4.247361e+01 2.621490e+01 2.621385e+01 2.120345e+01 2.162997e+01 2.695167e+01 2.208431e+01 1.781899e+01 2.150995e-01 8.117287e-01 1.362766e+00 1.214377e+00 1.420198e+00 1.759151e+00 2.571313e+00 2.041470e+00 2.036008e+00 1.993719e+00 1.668213e+00 1.680737e+00 1.490431e-01
<GCONST> 8.418467e+01
<MIXTURE> 4 1.380560e-01
<MEAN> 25
 1.503569e+00 -8.408111e+00 8.238907e+00 -9.474713e+00 -1.612740e+00 1.966105e+00 7.951628e+00 -7.466770e+00 -6.517323e+00 -3.127626e+00 -8.369166e+00 -1.577994e+00 1.400207e-01 -8.825467e-01 -1.154646e-01 -4.483827e-01 -4.118643e-01 -6.991660e-01 -1.056854e-02 8.457826e-01 -4.238024e-01 4.338366e-01 6.815748e-02 2.792044e-01 5.534568e-01
<VARIANCE> 25
 4.414052e+00 2.032390e+01 1.251340e+01 1.915903e+01 1.854236e+01 3.942940e+01 2.778856e+01 4.506099e+01 2.739971e+01 3.238885e+01 1.683960e+01 1.420590e+01 2.185887e-01 1.068887e+00 8.948015e-01 1.719851e+00 1.392989e+00 2.155651e+00 1.857876e+00 2.949980e+00 1.841241e+00 2.588984e+00 1.532516e+00 1.171014e+00 2.495356e-01
<GCONST> 8.445228e+01
<MIXTURE> 5 8.031930e-02
<MEAN> 25
 3.854766e+00 -5.584609e+00 4.970263e+00 1.388932e+00 -1.638743e+00 4.575631e+00 1.115620e+01 -3.124725e+00 -2.826589e+00 -4.722213e+00 -7.279873e+00 1.260496e+00 -2.608254e-01 1.251874e+00 1.214449e+00 -5.171857e-01 -1.491742e+00 8.486163e-01 -8.516116e-02 -1.555038e+00 9.994558e-01 1.129658e+00 -8.751842e-02 -1.169450e-01 -5.610883e-01
<VARIANCE> 25
 4.599474e+00 1.168699e+01 1.047565e+01 3.125343e+01 3.327879e+01 5.659301e+01 2.581014e+01 2.672880e+01 2.529758e+01 2.867344e+01 2.079811e+01 1.932286e+01 1.791566e-01 4.474376e-01 6.254048e-01 9.808544e-01 1.311044e+00 1.381889e+00 2.495034e+00 1.430868e+00 1.873398e+00 1.913749e+00 1.338856e+00 1.628249e+00 1.335266e-01
<GCONST> 8.127980e+01
<MIXTURE> 6 1.327476e-01
<MEAN> 25
 5.783634e+00 -3.123698e+00 -3.594728e+00 3.257673e-01 8.182958e+00 4.265604e+00 -1.754136e+00 -3.894884e+00 -4.440243e+00 -3.329551e+00 -3.477452e+00 -1.118119e+00 -4.903433e-01 3.488203e-02 -3.305541e-01 9.605738e-01 1.170125e+00 9.373143e-01 -1.898342e-01 -2.715824e-01 2.056687e-01 -6.084636e-01 3.643512e-01 -1.204733e-03 -6.252978e-01
<VARIANCE> 25
 1.268278e+01 5.069409e+01 5.327962e+01 4.692487e+01 6.650639e+01 4.583419e+01 4.034474e+01 4.342823e+01 3.881576e+01 5.022570e+01 4.974192e+01 3.123209e+01 5.549913e-01 1.845649e+00 3.452016e+00 2.885036e+00 3.751191e+00 3.189579e+00 3.459800e+00 3.810791e+00 3.507887e+00 3.366364e+00 3.840314e+00 2.433485e+00 4.719828e-01
<GCONST> 1.019881e+02
<MIXTURE> 7 8.691751e-02
<MEAN> 25
 1.693784e+00 -8.002068e+00 1.576404e+00 6.808002e+00 -6.886182e-02 1.257516e+01 1.489182e+01 -6.721778e-01 -2.161984e+00 -4.055391e+00 -4.196087e+00 1.081901e+00 -9.708771e-01 4.285936e-01 1.089393e+00 -3.672495e-01 -8.076711e-01 1.727175e+00 4.734298e-01 -1.215772e+00 8.642540e-01 7.928483e-01 -4.906361e-01 -4.106532e-01 -7.840891e-01
<VARIANCE> 25
 9.760956e+00 1.387960e+01 1.643362e+01 2.284965e+01 2.864001e+01 3.648725e+01 2.857901e+01 2.553771e+01 2.352654e+01 2.266369e+01 2.265528e+01 1.370909e+01 3.287553e-01 7.380472e-01 1.048956e+00 1.228644e+00 1.863561e+00 2.477517e+00 2.205479e+00 2.250843e+00 2.343668e+00 1.764510e+00 1.925599e+00 1.527963e+00 1.028662e-01
<GCONST> 8.453989e+01
<MIXTURE> 8 1.154085e-01
<MEAN> 25
 2.513708e+00 -5.414625e+00 9.115637e+00 -8.949879e+00 -4.515618e+00 4.047880e+00 7.303333e+00 -6.778745e+00 -2.217841e+00 -2.149106e-01 -9.021632e+00 -1.935776e+00 -3.999243e-01 4.101645e-01 1.232450e-01 2.788785e-01 4.092604e-01 1.525314e+00 -5.535824e-02 -1.129611e+00 4.518134e-02 -1.111063e+00 -4.532190e-01 -2.053333e-01 -5.682630e-01
<VARIANCE> 25
 5.979174e+00 2.027692e+01 1.302290e+01 2.279353e+01 2.328398e+01 4.560161e+01 3.555286e+01 3.347945e+01 2.768221e+01 2.623877e+01 1.664970e+01 1.551609e+01 2.122452e-01 8.404908e-01 8.580694e-01 9.974603e-01 1.476375e+00 2.105665e+00 1.848765e+00 2.250779e+00 1.950823e+00 1.958885e+00 1.323469e+00 1.297729e+00 2.140889e-01
<GCONST> 8.365060e+01
<MIXTURE> 9 7.282948e-02
<MEAN> 25
 3.390043e+00 -8.115929e+00 4.518131e+00 -1.410683e+00 1.315118e+00 1.976400e+00 8.489457e+00 -4.046760e+00 -5.752050e+00 -8.205501e+00 -9.728193e+00 9.200219e-01 -4.160601e-01 1.054681e+00 1.097648e+00 -3.351190e-01 -1.359201e+00 9.625441e-01 -5.065037e-02 -1.712255e+00 7.034735e-01 3.476706e-01 -3.573401e-01 -4.193089e-01 -6.596225e-01
<VARIANCE> 25
 5.662395e+00 1.164452e+01 1.222962e+01 2.271880e+01 3.709894e+01 5.026574e+01 3.213563e+01 2.296784e+01 3.327291e+01 3.333398e+01 1.924220e+01 1.899839e+01 2.245221e-01 5.335464e-01 6.845186e-01 1.146136e+00 1.351042e+00 2.081271e+00 1.959094e+00 1.529279e+00 1.882742e+00 2.510946e+00 1.439569e+00 1.661199e+00 2.152988e-01
<GCONST> 8.346646e+01
<STATE> 3
<NUMMIXES> 9
<MIXTURE> 1 8.988900e-02
<MEAN> 25
 -4.256488e+00 -3.432129e+00 -3.637712e+00 -5.453287e-01 2.898895e+00 9.470147e+00 5.266970e+00 -3.589734e+00 1.611015e+00 9.354917e-01 2.625861e+00 3.693842e+00 2.968133e+00 3.128484e+00 1.383362e+00 -4.068642e-01 -1.270923e+00 -5.304779e-01 -1.295150e+00 -8.134375e-01 -1.751142e+00 -1.053299e+00 -1.157818e+00 -1.340318e+00 9.203840e-01
<VARIANCE> 25
 1.676183e+01 4.705117e+01 9.058778e+01 3.680281e+01 9.207230e+01 5.633086e+01 5.963686e+01 3.021966e+01 3.327767e+01 3.290417e+01 3.422132e+01 2.178826e+01 1.800549e+00 2.218667e+00 2.288877e+00 3.051404e+00 2.200057e+00 4.630155e+00 2.612518e+00 2.899207e+00 3.878843e+00 2.470083e+00 2.686482e+00 2.312465e+00 8.319778e-01
<GCONST> 1.019693e+02
<MIXTURE> 2 1.314922e-01
<MEAN> 25
 6.486509e+00 -3.142917e+00 -8.537282e+00 2.711087e+00 1.374271e+01 7.064725e+00 -2.544709e+00 -1.601487e+00 -2.799079e+00 -3.617150e+00 -2.090753e+00 -2.701350e+00 -1.411598e-01 6.525536e-01 -1.253470e-01 1.743216e-01 1.035966e-01 3.789307e-01 -1.071757e-01 -1.763922e-01 1.846152e-01 -3.877172e-01 3.287654e-01 1.948564e-01 -5.218270e-01
<VARIANCE> 25
 8.527501e+00 4.990561e+01 2.212117e+01 4.141410e+01 3.677295e+01 2.853492e+01 2.816723e+01 2.710080e+01 3.313798e+01 4.056281e+01 4.008363e+01 3.109829e+01 2.665517e-01 9.874899e-01 9.137754e-01 1.313603e+00 1.473336e+00 1.584332e+00 1.796106e+00 1.730669e+00 2.745949e+00 1.711444e+00 1.874413e+00 1.731614e+00 2.659629e-01
<GCONST> 8.897583e+01
<MIXTURE> 3 9.673472e-02
<MEAN> 25
 1.997229e+00 5.657752e+00 1.288044e+01 -3.794664e+00 -7.287755e+00 1.662500e+01 1.129263e+00 -1.123987e+01 5.247707e+00 -6.250909e-01 -4.301201e+00 4.677200e+00 -1.620218e-01 -9.321305e-01 -4.774826e-01 8.736063e-01 -1.069006e-01 7.020804e-01 1.762642e+00 3.810420e-02 -7.047768e-01 3.635391e-01 2.619943e-01 -9.483147e-01 -4.991737e-02
<VARIANCE> 25
 4.875807e+00 1.276283e+01 1.359502e+01 2.556508e+01 2.012301e+01 3.759541e+01 3.964645e+01 2.081693e+01 2.312069e+01 2.635116e+01 1.591118e+01 2.598968e+01 5.089602e-01 1.229563e+00 1.508515e+00 1.916349e+00 1.598341e+00 2.877974e+00 2.691570e+00 1.407915e+00 2.192385e+00 2.284380e+00 1.610595e+00 1.834388e+00 2.819708e-01
<GCONST> 8.658970e+01
<MIXTURE> 4 9.913644e-02
<MEAN> 25
 3.476185e+00 -8.584797e+00 4.113760e+00 -3.080598e+00 7.120723e-01 9.992365e-01 4.527566e+00 -3.077033e+00 -6.493633e+00 -5.028668e+00 -7.729294e+00 3.148440e-01 2.529685e-01 -4.784208e-01 -8.598617e-01 5.079705e-01 7.459956e-01 3.837770e-02 -5.547632e-01 3.747436e-01 3.240968e-01 -4.783257e-02 -3.043775e-03 -2.420488e-01 8.198413e-02
<VARIANCE> 25
 7.609531e+00 3.642474e+01 2.358854e+01 5.236264e+01 6.495390e+01 4.322615e+01 4.979002e+01 3.900307e+01 3.290571e+01 5.135011e+01 3.076791e+01 1.793697e+01 3.380304e-01 1.101686e+00 2.947949e+00 2.092138e+00 5.246387e+00 2.046529e+00 2.383360e+00 3.710474e+00 2.699616e+00 5.302741e+00 2.502331e+00 2.140145e+00 2.753984e-01
<GCONST> 9.638253e+01
<MIXTURE> 5 9.866974e-02
<MEAN> 25
 3.893997e-01 2.482330e+00 1.183185e+01 -5.468076e+00 -2.781229e+00 1.304447e+01 -8.981613e-01 -1.033757e+01 1.747588e+00 -5.177702e+00 -7.363940e+00 2.948724e+00 2.735535e-01 1.318844e+00 3.791436e-01 -5.708648e-01 1.364259e-01 -7.645953e-01 -1.480971e+00 -2.760307e-01 1.835237e-01 1.478198e-01 1.449916e-01 3.736467e-01 -1.705294e-01
<VARIANCE> 25
 8.859532e+00 2.533939e+01 1.589420e+01 4.188421e+01 2.844775e+01 4.607579e+01 3.712397e+01 2.940038e+01 3.220870e+01 2.828210e+01 2.481211e+01 1.990332e+01 4.375405e-01 1.025799e+00 8.980749e-01 1.453342e+00 1.705889e+00 3.455300e+00 1.849130e+00 2.518681e+00 2.461666e+00 2.835583e+00 1.785683e+00 1.805270e+00 4.405784e-01
<GCONST> 9.012360e+01
<MIXTURE> 6 1.117386e-01
<MEAN> 25
 9.988735e-01 -2.865201e+00 6.096670e+00 5.539277e+00 -4.469747e+00 1.397498e+01 1.248232e+01 -5.979539e+00 -1.903425e+00 -2.309330e+00 -4.596908e+00 -6.792496e-01 1.016526e+00 1.807419e+00 6.701376e-01 -1.580073e+00 -2.772341e+00 -1.800754e+00 -1.154472e+00 -1.232642e+00 3.360125e-01 1.387832e+00 -3.697000e-02 -8.593186e-01 2.311883e-01
<VARIANCE> 25
 9.803799e+00 2.146467e+01 1.759924e+01 2.402520e+01 2.623337e+01 3.607096e+01 2.933719e+01 2.427430e+01 2.547218e+01 2.408112e+01 2.265484e+01 1.530704e+01 6.129054e-01 8.618437e-01 1.161371e+00 1.569601e+00 1.746974e+00 2.338668e+00 1.951765e+00 1.802657e+00 1.942507e+00 2.037387e+00 2.013227e+00 1.554804e+00 3.297028e-01
<GCONST> 8.706638e+01
<MIXTURE> 7 1.339593e-01
<MEAN> 25
 2.380473e+00 1.039339e+00 9.810555e+00 -4.398427e+00 -7.692300e+00 1.448700e+01 6.755554e+00 -9.419292e+00 1.236025e+00 -8.426043e-01 -4.899998e+00 8.167587e-01 1.639487e-01 2.730246e-01 -2.346133e-01 -3.302731e-02 -3.440681e-01 -3.718693e-02 -2.368823e-03 -1.592745e-01 -4.534609e-02 -4.708399e-03 -1.190769e-01 -5.004501e-01 -1.349482e-01
<VARIANCE> 25
 1.310614e+01 2.283329e+01 1.568768e+01 3.986211e+01 2.206237e+01 6.019685e+01 4.277908e+01 2.090558e+01 3.138287e+01 2.673666e+01 2.350711e+01 2.903539e+01 1.958462e-01 6.844722e-01 6.837043e-01 1.055282e+00 1.263988e+00 1.565470e+00 1.420552e+00 1.326634e+00 1.479007e+00 1.356207e+00 1.293718e+00 1.488248e+00 1.585506e-01
<GCONST> 8.382191e+01
<MIXTURE> 8 1.310412e-01
<MEAN> 25
