~o
<STREAMINFO> 1 25
<VECSIZE> 25<NULLD><MFCC_D_N_Z_0><DIAGC>
~s "silst"
<NUMMIXES> 7
<MIXTURE> 1 8.975449e-02
<MEAN> 25
 -9.692239e+00 5.978550e+00 -2.340423e+00 5.625299e+00 2.117920e+00 1.330513e+00 2.882768e-01 5.732256e+00 7.317655e+00 7.034336e+00 1.065442e+01 3.514694e+00 2.175743e-01 3.004585e-01 5.639740e-01 5.248955e-01 6.529281e-01 5.603073e-01 6.445082e-01 4.899251e-01 3.774035e-01 2.163039e-01 1.223998e-01 4.325374e-02 2.108534e-01
<VARIANCE> 25
 3.458356e+00 6.788923e+00 9.561205e+00 9.801638e+00 1.577785e+01 1.436621e+01 1.413169e+01 1.525170e+01 1.545042e+01 1.383711e+01 1.370850e+01 1.161952e+01 1.143730e-01 2.697286e-01 3.787354e-01 5.857671e-01 7.468784e-01 9.391984e-01 1.013368e+00 1.210642e+00 1.368272e+00 1.283430e+00 1.174599e+00 1.111894e+00 9.308202e-02
<GCONST> 6.819683e+01
<MIXTURE> 2 1.312193e-01
<MEAN> 25
 -9.283014e+00 6.567924e+00 -1.757874e+00 6.266844e+00 2.686391e+00 1.595753e+00 6.217313e-01 5.537131e+00 7.366916e+00 6.857933e+00 1.064814e+01 3.334321e+00 1.933568e-02 -3.584164e-02 -5.003097e-02 -1.519202e-01 -1.499222e-01 -2.046168e-01 -7.433917e-02 3.324940e-02 2.882172e-01 4.265021e-01 4.982873e-01 3.994594e-01 7.224018e-02
<VARIANCE> 25
 3.077528e+00 6.131957e+00 8.491767e+00 8.564808e+00 1.385867e+01 1.258142e+01 1.268707e+01 1.374810e+01 1.367644e+01 1.344945e+01 1.275883e+01 1.124483e+01 1.060208e-01 2.287962e-01 3.542657e-01 5.178906e-01 6.576830e-01 8.112139e-01 9.962497e-01 1.116845e+00 1.207588e+00 1.215148e+00 1.156257e+00 1.084710e+00 6.146033e-02
<GCONST> 6.555909e+01
<MIXTURE> 3 1.653005e-01
<MEAN> 25
 -9.303322e+00 6.374246e+00 -1.780497e+00 5.614996e+00 2.227642e+00 8.641279e-01 -1.826621e-01 4.295142e+00 6.066522e+00 5.213209e+00 9.144958e+00 2.207532e+00 1.485732e-02 6.405196e-02 1.285242e-01 2.148502e-01 2.993998e-01 3.715445e-01 4.344001e-01 4.290512e-01 4.255404e-01 4.248893e-01 3.858592e-01 2.248007e-01 3.145936e-03
<VARIANCE> 25
 2.654260e+00 5.508878e+00 7.359040e+00 7.965167e+00 1.185943e+01 1.171449e+01 1.185468e+01 1.290254e+01 1.237620e+01 1.231461e+01 1.273756e+01 1.073264e+01 7.209560e-02 1.762599e-01 2.943106e-01 4.008593e-01 5.314071e-01 7.071759e-01 8.537080e-01 9.868431e-01 1.059168e+00 1.098860e+00 1.071607e+00 1.007870e+00 3.010385e-02
<GCONST> 6.168170e+01
<MIXTURE> 4 1.723904e-01
<MEAN> 25
 -9.360203e+00 6.195334e+00 -1.803529e+00 5.003177e+00 1.670326e+00 2.717331e-01 -1.035040e+00 3.423932e+00 5.159011e+00 4.667809e+00 8.638379e+00 2.229544e+00 -1.129677e-01 -2.234811e-01 -3.100111e-01 -4.254546e-01 -5.082657e-01 -6.018978e-01 -5.965983e-01 -5.558972e-01 -4.372845e-01 -3.508464e-01 -2.509976e-01 -1.281526e-01 -9.012205e-03
<VARIANCE> 25
 3.100173e+00 6.149679e+00 8.501348e+00 8.599907e+00 1.294924e+01 1.275582e+01 1.243110e+01 1.418532e+01 1.463459e+01 1.406622e+01 1.396341e+01 1.177446e+01 1.041780e-01 2.373567e-01 3.794709e-01 5.617548e-01 7.237477e-01 7.922364e-01 1.046340e+00 1.174391e+00 1.200359e+00 1.144120e+00 1.201188e+00 1.082381e+00 5.361136e-02
<GCONST> 6.595379e+01
<MIXTURE> 5 1.965870e-01
<MEAN> 25
 -9.025713e+00 6.404015e+00 -1.971337e+00 4.541089e+00 8.502765e-01 -5.545915e-01 -1.689047e+00 2.835314e+00 4.944746e+00 4.289439e+00 8.165522e+00 1.514557e+00 -1.087393e-02 1.688572e-02 5.805394e-02 1.248450e-01 1.773855e-01 1.821350e-01 1.119448e-01 -9.583208e-03 -1.434707e-01 -2.462427e-01 -2.641763e-01 -1.930415e-01 -1.600481e-03
<VARIANCE> 25
 2.960722e+00 6.442964e+00 8.397317e+00 8.533119e+00 1.288781e+01 1.247323e+01 1.220271e+01 1.357254e+01 1.441096e+01 1.348486e+01 1.263780e+01 1.111598e+01 7.866475e-02 1.857833e-01 3.103065e-01 4.442591e-01 5.708067e-01 7.424045e-01 9.097375e-01 1.035613e+00 1.102782e+00 1.080510e+00 1.057977e+00 9.877236e-01 3.433301e-02
<GCONST> 6.329361e+01
<MIXTURE> 6 1.323322e-01
<MEAN> 25
 -9.584929e+00 5.887861e+00 -2.412157e+00 5.251904e+00 1.697360e+00 3.371858e-01 -5.904692e-01 4.293548e+00 6.100318e+00 5.604369e+00 9.405281e+00 2.382493e+00 -1.125311e-01 -2.028376e-01 -2.737539e-01 -3.975854e-01 -4.287560e-01 -4.873657e-01 -4.172537e-01 -3.223417e-01 -9.716479e-02 6.131587e-02 1.318997e-01 8.323950e-02 -7.403845e-03
<VARIANCE> 25
 2.967216e+00 6.115941e+00 8.597271e+00 8.468936e+00 1.389027e+01 1.278252e+01 1.260988e+01 1.377507e+01 1.385277e+01 1.350088e+01 1.279249e+01 1.155947e+01 1.028910e-01 2.268310e-01 3.497291e-01 5.215659e-01 6.466193e-01 8.008386e-01 1.014336e+00 1.130364e+00 1.202828e+00 1.219102e+00 1.174746e+00 1.108577e+00 5.702743e-02
<GCONST> 6.549973e+01
<MIXTURE> 7 1.123606e-01
<MEAN> 25
 -9.998106e+00 5.276286e+00 -3.004375e+00 4.478927e+00 9.604123e-01 -9.587205e-02 -9.501827e-01 4.493914e+00 6.067537e+00 5.873176e+00 9.565897e+00 2.582197e+00 1.051366e-01 1.372495e-01 3.333950e-01 2.582305e-01 3.573695e-01 2.356183e-01 2.558118e-01 6.679124e-02 -6.315408e-02 -2.519936e-01 -3.317825e-01 -3.071994e-01 1.547497e-01
<VARIANCE> 25
 3.433627e+00 7.017055e+00 9.952024e+00 9.817044e+00 1.659321e+01 1.496119e+01 1.423691e+01 1.524954e+01 1.624671e+01 1.480779e+01 1.376254e+01 1.174981e+01 1.276884e-01 2.832820e-01 3.918432e-01 6.273341e-01 7.702964e-01 9.660217e-01 1.051143e+00 1.208456e+00 1.377524e+00 1.281754e+00 1.205940e+00 1.099415e+00 9.823099e-02
<GCONST> 6.892561e+01
~h "a"
<BEGINHMM>
<NUMSTATES> 5
<STATE> 2
<NUMMIXES> 7
<MIXTURE> 1 1.804942e-01
<MEAN> 25
 -4.720885e+00 -1.767196e+00 -1.278697e+00 6.710698e-01 1.706939e+00 -3.389230e+00 1.967900e+00 1.451042e+00 3.257425e+00 -4.490858e-02 3.772239e+00 2.873406e+00 7.397944e-01 -5.135991e-01 -1.056421e-01 -2.741799e-01 1.001703e+00 1.360898e-01 -3.494516e-01 4.014480e-01 -9.720115e-02 -2.164972e-01 -1.072362e+00 1.149994e-02 5.068250e-01
<VARIANCE> 25
 4.442076e+01 4.944104e+01 7.425720e+01 7.054601e+01 7.470676e+01 6.488791e+01 6.094986e+01 6.297966e+01 4.660578e+01 5.495222e+01 5.741848e+01 3.774485e+01 4.560702e+00 6.888173e+00 5.570986e+00 5.904378e+00 8.159435e+00 4.901612e+00 5.149301e+00 5.520860e+00 3.846521e+00 5.114687e+00 4.732430e+00 3.235077e+00 5.071906e+00
<GCONST> 1.157819e+02
<MIXTURE> 2 1.176516e-01
<MEAN> 25
 7.874370e+00 -1.045160e+01 -4.748532e+00 -4.089455e+00 3.867939e+00 -3.260993e+00 3.695310e-01 7.514390e+00 2.912155e+00 -7.285981e-01 -9.005039e+00 1.619406e-01 7.865481e-02 -1.374925e+00 8.076733e-01 -4.566913e-01 7.047096e-01 3.464877e-02 1.626548e+00 1.963172e+00 -3.186086e-01 2.067456e-02 -1.216664e+00 7.648714e-01 1.060293e+00
<VARIANCE> 25
 1.040239e+01 1.840183e+01 3.517031e+01 3.461604e+01 5.152996e+01 4.318311e+01 3.857320e+01 2.370099e+01 3.320863e+01 5.308788e+01 2.891525e+01 3.751879e+01 8.649257e-01 1.466169e+00 2.595072e+00 2.463502e+00 3.890107e+00 3.454101e+00 3.094216e+00 2.860496e+00 2.782891e+00 4.391833e+00 2.933908e+00 3.357363e+00 7.063417e-01
<GCONST> 9.860992e+01
<MIXTURE> 3 2.083031e-01
<MEAN> 25
 3.409515e+00 1.255299e+00 -7.103314e-01 2.928049e+00 -2.684180e+00 -3.359954e+00 -1.754963e+00 -1.139067e+00 -9.679299e-01 -2.688925e+00 3.335851e-01 -1.406794e-01 -9.844315e-01 6.798330e-01 -2.269245e-01 5.497011e-01 6.834887e-01 3.036488e-01 2.391428e-01 5.300027e-01 4.754103e-01 1.108888e-01 7.275315e-01 -2.142811e-02 -1.179882e+00
<VARIANCE> 25
 2.467327e+01 6.131779e+01 5.698984e+01 5.268396e+01 5.533224e+01 4.572449e+01 5.560641e+01 5.690467e+01 4.315236e+01 4.585972e+01 3.782448e+01 3.066583e+01 7.747917e-01 1.764351e+00 1.766380e+00 1.926928e+00 2.334362e+00 2.138592e+00 2.338058e+00 2.269975e+00 2.384037e+00 2.315002e+00 2.237425e+00 1.810217e+00 7.637247e-01
<GCONST> 9.946988e+01
<MIXTURE> 4 1.647863e-01
<MEAN> 25
 5.832010e+00 -1.282426e+01 -2.039753e+00 -7.383611e+00 3.921886e+00 -4.756861e+00 -1.816922e-01 6.032847e+00 -2.228984e+00 -2.391992e+00 -8.981032e+00 1.138209e+00 1.428543e+00 -2.087650e+00 6.020545e-01 -1.968493e+00 7.398899e-01 -1.905513e-01 1.179515e-01 1.055821e+00 -1.520507e+00 1.858185e-01 -2.496910e+00 -7.735464e-01 2.467702e+00
<VARIANCE> 25
 8.902239e+00 2.269600e+01 3.772128e+01 3.675811e+01 7.045348e+01 4.925254e+01 3.102995e+01 3.270679e+01 3.388411e+01 5.115419e+01 2.770817e+01 2.805548e+01 2.015710e+00 2.713559e+00 2.902235e+00 3.002278e+00 4.799862e+00 3.857187e+00 3.382859e+00 3.152720e+00 3.149464e+00 3.802099e+00 3.547919e+00 2.645477e+00 2.878011e+00
<GCONST> 1.026068e+02
<MIXTURE> 5 1.052472e-01
<MEAN> 25
 5.301634e+00 -2.123561e+00 4.828418e+00 -1.539785e+00 -5.661015e+00 -3.873233e+00 -4.794192e-02 -1.298683e+00 -3.039644e+00 -1.191691e+00 -3.411850e+00 9.116482e-01 -1.706541e-01 1.402373e+00 -4.121690e-01 1.290288e+00 5.296513e-01 3.481220e-01 1.762353e-02 -2.932007e-02 3.833846e-01 -3.401393e-01 4.469360e-01 -1.261002e-01 -1.203048e+00
<VARIANCE> 25
 1.051853e+01 5.360334e+01 4.475935e+01 7.638744e+01 4.360786e+01 4.775095e+01 5.001640e+01 5.499012e+01 3.619936e+01 5.560733e+01 2.982928e+01 2.898698e+01 6.488828e-01 1.618394e+00 1.292395e+00 2.631592e+00 2.162935e+00 2.390900e+00 2.702477e+00 2.364765e+00 2.142417e+00 2.605148e+00 2.415686e+00 1.988685e+00 9.644682e-01
<GCONST> 9.837296e+01
<MIXTURE> 6 1.248245e-01
<MEAN> 25
 7.287707e+00 -1.179754e+01 -4.157081e+00 -5.102381e+00 3.644653e+00 -4.229841e+00 -1.214139e+00 5.925752e+00 6.428200e-02 -2.270264e+00 -1.044637e+01 -1.355326e+00 -7.201778e-02 -1.560939e+00 5.802655e-01 -7.355120e-01 5.956152e-01 -3.401614e-01 1.152527e+00 1.578599e+00 -8.538719e-01 -6.183450e-01 -1.633345e+00 4.725834e-01 1.024989e+00
<VARIANCE> 25
 9.312222e+00 1.789159e+01 3.255479e+01 3.640160e+01 4.810206e+01 4.084943e+01 3.644542e+01 2.500483e+01 3.597316e+01 5.443991e+01 2.804982e+01 3.769572e+01 8.585138e-01 1.482960e+00 2.594533e+00 2.352526e+00 3.830232e+00 3.389487e+00 3.072019e+00 3.014567e+00 2.843867e+00 4.319058e+00 2.836134e+00 3.448412e+00 6.506475e-01
<GCONST> 9.828020e+01
<MIXTURE> 7 9.869969e-02
<MEAN> 25
 4.426254e+00 -4.208148e+00 4.426949e+00 -2.316009e+00 -5.842567e+00 -5.221020e+00 -1.550020e+00 -2.376674e+00 -5.279640e+00 -2.894725e+00 -4.829683e+00 -3.779674e-01 -2.965079e-01 1.276573e+00 -6.820281e-01 1.192478e+00 2.447587e-01 1.676540e-02 -2.969829e-01 -4.582291e-01 9.856652e-03 -8.044116e-01 5.137477e-03 -5.546240e-01 -1.306249e+00
<VARIANCE> 25
 1.123445e+01 4.809560e+01 4.541411e+01 7.202682e+01 4.293922e+01 4.347873e+01 4.584864e+01 5.482027e+01 3.791242e+01 5.585916e+01 2.799843e+01 2.744816e+01 7.076468e-01 1.587161e+00 1.293685e+00 2.516480e+00 2.090823e+00 2.527292e+00 2.661946e+00 2.363858e+00 1.982846e+00 2.531431e+00 2.285530e+00 1.873875e+00 9.561856e-01
<GCONST> 9.781966e+01
<STATE> 3
<NUMMIXES> 7
<MIXTURE> 1 1.359525e-01
<MEAN> 25
 -1.361799e+00 2.711771e+00 -2.621236e-01 5.162963e+00 -2.322029e-01 -3.010952e+00 8.377618e-01 9.272775e-01 1.478656e+00 -1.372501e+00 3.973552e+00 8.754761e-01 -5.864750e-01 9.244847e-01 -6.646039e-02 5.955775e-01 6.290984e-01 7.048638e-01 9.968436e-02 5.784780e-01 4.421248e-01 2.559939e-01 3.097058e-01 -1.120053e-01 -1.280064e+00
<VARIANCE> 25
 4.299046e+01 4.336938e+01 5.112979e+01 3.978074e+01 5.634815e+01 4.525090e+01 5.340352e+01 5.129356e+01 4.766899e+01 4.278761e+01 3.527769e+01 2.722092e+01 2.542873e+00 2.561280e+00 2.634158e+00 2.536855e+00 3.305306e+00 3.206711e+00 2.999143e+00 2.928680e+00 2.811384e+00 3.010677e+00 3.462604e+00 2.161758e+00 1.312499e+00
<GCONST> 1.040701e+02
<MIXTURE> 2 1.250851e-01
<MEAN> 25
 8.030087e+00 -1.136711e+01 -4.029735e+00 -3.155122e+00 3.977303e+00 -2.962306e+00 3.894543e+00 8.546229e+00 5.635585e-01 -2.435202e+00 -9.445669e+00 7.071081e-01 3.962131e-02 1.214679e-01 5.550110e-01 3.762103e-01 2.280670e-02 2.126367e-01 8.539870e-01 5.960487e-01 -2.253232e-01 3.500277e-01 4.471081e-01 2.196591e-01 -1.295600e-02
<VARIANCE> 25
 5.210990e+00 1.599450e+01 2.713164e+01 2.889861e+01 4.238279e+01 3.689410e+01 2.887369e+01 2.464049e+01 3.171580e+01 4.851365e+01 2.211073e+01 2.794414e+01 3.003303e-01 1.060263e+00 1.356838e+00 1.283904e+00 3.399785e+00 2.633591e+00 2.696741e+00 2.199131e+00 2.030869e+00 2.616927e+00 2.035595e+00 2.331156e+00 3.472559e-01
<GCONST> 9.027428e+01
<MIXTURE> 3 9.556362e-02
<MEAN> 25
 8.117742e+00 -5.131612e+00 -4.984425e+00 1.166572e+00 5.023996e-01 -6.293281e+00 9.924643e-02 5.068233e+00 2.029145e+00 -1.896262e+00 -7.414205e+00 -5.984965e-02 -7.383975e-01 1.334860e+00 5.883456e-01 1.157862e+00 -5.410392e-01 5.219038e-02 6.621236e-01 1.637995e-01 -1.955196e-01 -5.661696e-01 1.309720e+00 3.724919e-01 -1.332462e+00
<VARIANCE> 25
 7.054802e+00 3.115952e+01 2.914021e+01 2.734555e+01 4.136578e+01 3.749039e+01 3.999521e+01 3.163630e+01 3.313122e+01 4.337252e+01 2.893749e+01 3.170955e+01 4.734195e-01 2.707157e+00 2.428165e+00 2.358658e+00 2.484121e+00 2.444116e+00 3.964803e+00 2.986296e+00 3.739548e+00 2.956708e+00 2.629910e+00 2.536567e+00 1.727026e+00
<GCONST> 9.771774e+01
<MIXTURE> 4 2.147849e-01
<MEAN> 25
 5.917383e+00 -1.320436e+01 -1.354748e+00 -7.334884e+00 6.409384e+00 -3.456066e+00 7.111595e-01 6.453822e+00 -3.170735e+00 -2.138609e+00 -1.015002e+01 3.394311e-01 2.302510e-01 7.027676e-01 -2.589980e-01 5.188308e-01 3.489256e-02 -2.516960e-01 -4.315617e-01 -5.990126e-01 -2.075849e-01 2.463810e-01 -4.486677e-03 -2.366399e-01 -4.588842e-01
<VARIANCE> 25
 5.755417e+00 1.760456e+01 2.640295e+01 2.588913e+01 5.234797e+01 4.267276e+01 3.157612e+01 2.792256e+01 3.511086e+01 4.897931e+01 2.410877e+01 3.439806e+01 3.262524e-01 1.352453e+00 1.162042e+00 1.449334e+00 2.552019e+00 2.180072e+00 2.286800e+00 1.873822e+00 2.031057e+00 2.467554e+00 1.899462e+00 1.857404e+00 5.702263e-01
<GCONST> 9.094162e+01
<MIXTURE> 5 1.588136e-01
<MEAN> 25
 5.771771e+00 -3.103498e+00 9.976274e-01 -9.885533e-01 -2.653598e+00 -6.548779e+00 -1.436686e+00 -2.432634e-01 -2.150521e+00 -7.097842e-01 -5.830365e+00 3.252959e-01 -4.736138e-01 1.941019e+00 -3.631881e-01 1.710290e+00 -4.785819e-02 5.505360e-01 6.846509e-02 -3.228968e-01 3.848210e-01 -7.512932e-01 5.161297e-01 -5.775613e-01 -1.860251e+00
<VARIANCE> 25
 9.152990e+00 3.129263e+01 4.466565e+01 5.173485e+01 5.420948e+01 4.579893e+01 4.702797e+01 4.851514e+01 3.543468e+01 5.290594e+01 2.970925e+01 3.797708e+01 5.447637e-01 1.660792e+00 1.188607e+00 2.527638e+00 1.750530e+00 2.062332e+00 2.271483e+00 2.562080e+00 2.235164e+00 2.349111e+00 2.328825e+00 1.884932e+00 1.140327e+00
<GCONST> 9.677798e+01
<MIXTURE> 6 1.344531e-01
<MEAN> 25
 -7.238599e-01 1.500192e+00 -4.509677e-01 3.940171e+00 -1.509350e+00 -4.768970e+00 -9.269840e-01 -8.561826e-01 -5.558011e-01 -3.250674e+00 1.827346e+00 -4.219632e-01 -6.003277e-01 8.915693e-01 -3.724460e-01 3.602442e-01 3.252540e-01 3.458192e-01 -2.259800e-01 1.238598e-01 6.081523e-02 -2.111470e-01 -7.604129e-02 -5.485747e-01 -1.246086e+00
<VARIANCE> 25
 3.919563e+01 4.288540e+01 5.347442e+01 4.298922e+01 5.885899e+01 4.403666e+01 5.465393e+01 5.561172e+01 5.161163e+01 4.442070e+01 3.502157e+01 2.765768e+01 2.871106e+00 2.332909e+00 2.702920e+00 2.760271e+00 3.463989e+00 3.244399e+00 3.365879e+00 3.152670e+00 2.952257e+00 3.054421e+00 3.455772e+00 2.176238e+00 1.383893e+00
<GCONST> 1.048415e+02
<MIXTURE> 7 1.353565e-01
<MEAN> 25
 7.334760e+00 -1.266449e+01 -3.658204e+00 -4.254122e+00 4.102548e+00 -3.862610e+00 2.197783e+00 7.045559e+00 -1.856182e+00 -3.631865e+00 -1.082009e+01 -6.969395e-01 -1.343311e-01 -7.009253e-02 3.861506e-01 2.012260e-02 -4.877412e-02 -1.821846e-01 3.848753e-01 1.674159e-01 -8.414741e-01 -1.600954e-01 -2.060906e-03 -1.950434e-02 -3.587086e-02
<VARIANCE> 25
 5.139213e+00 1.621740e+01 2.615175e+01 2.767586e+01 4.268776e+01 3.615458e+01 3.165384e+01 2.524191e+01 3.261301e+01 4.752259e+01 2.276803e+01 2.894502e+01 2.827619e-01 1.052490e+00 1.418186e+00 1.259631e+00 3.144233e+00 2.626196e+00 2.587943e+00 2.166381e+00 2.068905e+00 2.874061e+00 2.078256e+00 2.435776e+00 3.464283e-01
<GCONST> 9.036383e+01
<STATE> 4
<NUMMIXES> 7
<MIXTURE> 1 1.740408e-01
<MEAN> 25
 -8.354461e+00 4.801515e+00 -2.760462e+00 6.458732e+00 2.584791e+00 1.599465e+00 4.210787e-01 4.617462e+00 5.343200e+00 2.588292e+00 8.265541e+00 1.916616e+00 -4.502179e-02 7.165650e-02 9.130086e-02 1.464443e-01 1.743305e-01 2.262973e-01 1.508842e-01 1.824833e-01 1.839838e-01 2.224986e-01 1.638962e-01 8.555167e-02 -9.120187e-02
<VARIANCE> 25
 2.714627e+00 7.518427e+00 7.522538e+00 1.101161e+01 1.034721e+01 1.481014e+01 1.405752e+01 1.414890e+01 1.420007e+01 1.776137e+01 1.608404e+01 1.362882e+01 1.071023e-01 2.790197e-01 4.206876e-01 6.236255e-01 8.496517e-01 1.024630e+00 1.257167e+00 1.312463e+00 1.268011e+00 1.319627e+00 1.351515e+00 1.141641e+00 4.807284e-02
<GCONST> 6.805200e+01
<MIXTURE> 2 1.501127e-01
<MEAN> 25
 2.194829e+00 -1.290454e+00 -6.921583e-01 1.194770e+00 -2.821759e-01 -1.983150e+00 1.067409e+00 4.772693e-01 -2.388678e-01 -2.099592e+00 -1.669593e+00 -4.729529e-01 1.958532e-01 5.963282e-01 4.019096e-01 1.856198e-02 -2.003694e-01 5.380179e-01 4.654184e-02 -6.979046e-01 -3.172988e-01 -1.958084e-01 -8.662035e-02 -1.838989e-01 -4.997994e-02
<VARIANCE> 25
 4.597079e+01 6.281689e+01 6.244180e+01 5.282586e+01 6.660369e+01 5.108878e+01 4.928086e+01 6.347929e+01 4.485725e+01 4.739626e+01 4.676114e+01 3.034634e+01 4.538958e+00 4.130808e+00 3.858867e+00 3.963036e+00 5.100852e+00 4.626833e+00 4.784083e+00 4.715298e+00 4.043252e+00 3.982743e+00 5.129015e+00 2.847174e+00 2.303868e+00
<GCONST> 1.113475e+02
<MIXTURE> 3 1.520885e-01
<MEAN> 25
 -1.987291e+00 3.798877e+00 -3.167526e+00 6.137599e+00 8.742229e-01 -2.137539e+00 1.834195e-02 3.590107e+00 3.199547e+00 -1.979507e+00 3.255212e+00 2.431907e-01 -1.047843e+00 3.019899e-01 -1.717166e-01 1.303697e-01 6.763512e-01 8.534655e-01 4.246574e-01 5.875819e-01 6.968395e-01 5.892074e-01 8.343809e-01 3.129618e-01 -1.044286e+00
<VARIANCE> 25
 2.552884e+01 2.921575e+01 4.392251e+01 2.572615e+01 3.989142e+01 3.622855e+01 3.490704e+01 4.377617e+01 3.518179e+01 3.130497e+01 3.056057e+01 2.156865e+01 6.811717e-01 1.461633e+00 1.874022e+00 1.461977e+00 2.086869e+00 2.106951e+00 2.254531e+00 2.340145e+00 2.343770e+00 2.034580e+00 1.955397e+00 1.832699e+00 3.667693e-01
<GCONST> 9.367739e+01
<MIXTURE> 4 1.167767e-01
<MEAN> 25
 7.236335e+00 -7.607560e+00 -1.143328e+00 -1.905437e+00 1.495699e+00 -3.547375e+00 1.701689e+00 4.865108e+00 -2.177059e+00 -2.521897e+00 -6.709743e+00 -4.435866e-01 -1.866673e-02 1.337420e+00 3.548433e-01 1.113275e+00 -4.476499e-01 1.912448e-01 2.968431e-02 -5.878710e-01 -1.382836e-02 1.170240e-01 9.556234e-01 -1.229127e-01 -8.979887e-01
<VARIANCE> 25
 6.541359e+00 4.548247e+01 4.077428e+01 4.241409e+01 6.201073e+01 4.120458e+01 3.944594e+01 4.754950e+01 3.708974e+01 4.633128e+01 2.839965e+01 3.213736e+01 4.125780e-01 1.626317e+00 1.273631e+00 1.721018e+00 2.283972e+00 2.184157e+00 2.610478e+00 2.612653e+00 2.136051e+00 2.801507e+00 2.161350e+00 2.027251e+00 7.430751e-01
<GCONST> 9.562843e+01
<MIXTURE> 5 1.531274e-01
<MEAN> 25
 -7.399919e+00 5.146388e+00 -2.259610e+00 6.329660e+00 2.003509e+00 7.098185e-01 -8.148152e-01 2.309329e+00 3.071277e+00 1.712231e-01 5.971844e+00 6.459280e-01 -2.850210e-01 -5.175646e-02 -1.825781e-01 -1.897337e-01 -6.558266e-02 3.472602e-02 -1.307274e-01 -1.469343e-01 -2.610399e-02 8.697824e-02 -2.152329e-02 -5.255113e-02 -2.627278e-01
<VARIANCE> 25
 3.868086e+00 8.166711e+00 9.628577e+00 1.095176e+01 1.236028e+01 1.726847e+01 1.572069e+01 1.500669e+01 1.493833e+01 1.558423e+01 1.445488e+01 1.293027e+01 2.497049e-01 6.064414e-01 8.150228e-01 8.729342e-01 1.189009e+00 1.335180e+00 1.469613e+00 1.587806e+00 1.588251e+00 1.590657e+00 1.514465e+00 1.420874e+00 1.226579e-01
<GCONST> 7.424188e+01
<MIXTURE> 6 1.550193e-01
<MEAN> 25
 -1.041879e+00 2.774552e+00 -4.386509e+00 5.084904e+00 -5.084803e-01 -3.974952e+00 -1.428123e+00 2.475325e+00 1.861616e+00 -3.401153e+00 1.061049e+00 -1.000480e+00 -1.226939e+00 2.875437e-01 -5.270805e-01 -1.161465e-01 3.168834e-01 4.813729e-01 5.227053e-02 2.963091e-01 3.679167e-01 1.329133e-02 4.926656e-01 -8.105554e-02 -1.233514e+00
<VARIANCE> 25
 1.988982e+01 2.616266e+01 4.565916e+01 2.493572e+01 4.176615e+01 3.667949e+01 3.563174e+01 4.805452e+01 3.910664e+01 3.362065e+01 3.057800e+01 2.213167e+01 5.759070e-01 1.207068e+00 1.700230e+00 1.393796e+00 1.984706e+00 1.964295e+00 2.098142e+00 2.348811e+00 2.295955e+00 2.105802e+00 1.884407e+00 1.740992e+00 3.422283e-01
<GCONST> 9.286394e+01
<MIXTURE> 7 9.882217e-02
<MEAN> 25
 6.310824e+00 -9.078397e+00 -7.999077e-01 -3.505813e+00 1.682670e+00 -4.589412e+00 -2.763879e-02 3.618678e+00 -4.476014e+00 -3.723193e+00 -8.317339e+00 -1.553673e+00 -1.010669e-01 1.235587e+00 1.017906e-01 9.425214e-01 -6.860200e-01 -1.123072e-01 -3.609056e-01 -1.086272e+00 -5.441668e-01 -3.134754e-01 4.475605e-01 -5.348908e-01 -9.946134e-01
<VARIANCE> 25
 6.982353e+00 4.168476e+01 3.992560e+01 4.247285e+01 6.171164e+01 4.139624e+01 4.009423e+01 4.716271e+01 3.832355e+01 4.691358e+01 2.923334e+01 3.434904e+01 4.464100e-01 1.648227e+00 1.290244e+00 1.772822e+00 2.183021e+00 2.170187e+00 2.532859e+00 2.615869e+00 2.102296e+00 2.866979e+00 2.219801e+00 2.076788e+00 7.518445e-01
<GCONST> 9.585944e+01
<TRANSP> 5
 0.000000e+00 1.000000e+00 0.000000e+00 0.000000e+00 0.000000e+00
 0.000000e+00 2.878267e-01 7.121732e-01 0.000000e+00 0.000000e+00
 0.000000e+00 0.000000e+00 4.485781e-01 5.514219e-01 0.000000e+00
 0.000000e+00 0.000000e+00 0.000000e+00 5.595598e-01 4.404402e-01
 0.000000e+00 0.000000e+00 0.000000e+00 0.000000e+00 0.000000e+00
<ENDHMM>
~h "b"
<BEGINHMM>
<NUMSTATES> 5
<STATE> 2
<NUMMIXES> 7
<MIXTURE> 1 1.430078e-01
<MEAN> 25
 7.521612e+00 1.198666e+01 -1.303391e+00 3.686919e+00 7.493870e-01 2.326584e+00 -1.421821e+00 -5.162083e+00 -2.595203e+00 -2.733910e+00 -1.312066e+00 -6.560890e+00 -4.708376e-01 1.208268e+00 8.834355e-01 2.264943e-01 -5.247116e-02 -1.578507e-01 1.124067e-01 6.400801e-01 4.376935e-01 5.359878e-02 5.392925e-01 3.321112e-01 -6.864670e-01
<VARIANCE> 25
 3.777717e+00 1.213039e+01 1.036408e+01 1.144205e+01 2.378225e+01 1.935181e+01 2.193751e+01 3.413739e+01 2.459462e+01 2.528801e+01 1.253384e+01 1.613189e+01 1.486775e-01 4.566055e-01 6.168035e-01 8.267969e-01 1.099230e+00 1.248948e+00 1.279846e+00 1.762229e+00 1.259232e+00 1.781356e+00 1.710259e+00 1.362242e+00 1.157492e-01
<GCONST> 7.630406e+01
<MIXTURE> 2 1.716710e-01
<MEAN> 25
 9.226180e+00 -2.776834e+00 -6.967008e+00 -1.659402e+00 3.936585e+00 -1.184712e+00 -6.490684e+00 1.141886e+00 1.217174e+00 1.492586e+00 -3.853277e+00 -6.413250e+00 -3.173786e-01 3.115947e+00 6.690981e-01 2.422120e+00 -1.830402e-01 -4.910973e-01 -1.523836e-01 -5.658013e-01 -3.725864e-01 -1.241048e+00 4.260111e-01 -3.643090e-01 -2.180801e+00
<VARIANCE> 25
 1.419804e+01 3.967711e+01 1.657845e+01 3.625618e+01 1.429325e+01 2.410925e+01 2.072214e+01 2.626653e+01 3.019972e+01 2.628215e+01 3.141574e+01 3.041450e+01 4.734188e-01 9.096582e-01 1.107994e+00 1.602600e+00 1.405839e+00 1.251139e+00 3.029474e+00 2.728692e+00 2.370180e+00 2.390557e+00 2.955124e+00 1.774411e+00 4.405012e-01
<GCONST> 8.934064e+01
<MIXTURE> 3 1.739955e-01
<MEAN> 25
 6.738305e+00 7.192548e+00 4.240983e+00 6.087584e+00 -6.778992e+00 1.245316e-01 1.872254e+00 -8.246901e+00 -5.435856e+00 -2.185845e+00 -5.437242e+00 -8.271723e+00 1.208324e-01 1.533736e+00 -4.750445e-01 3.046194e-01 8.482692e-01 4.913824e-01 5.048901e-01 7.708313e-01 7.005736e-01 -1.001106e-01 4.961539e-01 -3.728653e-01 -7.443470e-01
<VARIANCE> 25
 5.740790e+00 2.338108e+01 1.870361e+01 1.903477e+01 2.510123e+01 2.257714e+01 2.411858e+01 3.343864e+01 2.383353e+01 3.119337e+01 1.804537e+01 2.130592e+01 3.396805e-01 8.950498e-01 7.632275e-01 1.467648e+00 1.912659e+00 1.661752e+00 1.968391e+00 1.982105e+00 1.703008e+00 1.826305e+00 1.613981e+00 1.861559e+00 3.075958e-01
<GCONST> 8.481357e+01
<MIXTURE> 4 8.716390e-02
<MEAN> 25
 6.949418e+00 -1.049714e+00 3.250170e+00 1.618314e+00 -3.610213e+00 -2.941691e+00 -4.673243e+00 -3.517451e+00 -5.582270e+00 -1.299108e+00 -4.251560e+00 -4.754385e+00 5.152607e-02 3.337705e+00 1.050931e-01 2.749458e+00 5.760987e-02 9.651843e-01 4.042098e-01 -1.287783e+00 1.670069e-01 -1.543830e+00 -5.654429e-01 -1.349517e+00 -2.138303e+00
<VARIANCE> 25
 5.799576e+00 3.267160e+01 3.491139e+01 2.275257e+01 4.629924e+01 1.851001e+01 2.346525e+01 3.410350e+01 2.910160e+01 2.357724e+01 2.396081e+01 2.457852e+01 2.971200e-01 7.865081e-01 1.177979e+00 1.677088e+00 1.517166e+00 2.286515e+00 2.635687e+00 2.427875e+00 1.857639e+00 1.896348e+00 2.079998e+00 1.640034e+00 1.960802e-01
<GCONST> 8.740067e+01
<MIXTURE> 5 1.767438e-01
<MEAN> 25
 8.440646e+00 5.906077e+00 -4.723145e+00 6.254494e+00 4.081094e+00 -1.212291e+00 -3.665023e+00 -5.988786e-01 -1.190976e+00 -5.735899e+00 -6.558847e+00 -8.873870e+00 -3.719736e-01 1.570593e+00 2.205165e-01 1.774080e-01 5.010893e-01 4.961912e-01 1.023238e-01 2.258493e-01 4.467655e-01 -6.891000e-01 1.723012e-01 1.726106e-01 -9.430333e-01
<VARIANCE> 25
 4.182087e+00 1.805434e+01 1.114856e+01 1.510298e+01 2.204078e+01 2.496299e+01 2.390359e+01 3.672511e+01 2.565259e+01 2.905239e+01 2.243817e+01 2.383849e+01 2.378605e-01 3.900757e-01 7.586361e-01 9.315217e-01 1.169508e+00 1.454916e+00 1.802525e+00 1.927483e+00 1.838264e+00 1.484062e+00 1.530679e+00 1.915023e+00 1.290035e-01
<GCONST> 8.046433e+01
<MIXTURE> 6 1.686292e-01
<MEAN> 25
 6.256037e+00 5.599455e+00 4.559329e+00 5.778965e+00 -7.712239e+00 -1.237120e+00 7.801136e-01 -1.039226e+01 -7.599925e+00 -3.109771e+00 -7.114408e+00 -8.461388e+00 1.805938e-02 1.518781e+00 -5.163366e-01 3.906566e-01 5.708459e-01 4.734577e-01 3.177064e-01 2.637953e-01 2.148337e-01 -6.122803e-01 2.712962e-02 -9.654920e-01 -8.899633e-01
<VARIANCE> 25
 5.668922e+00 2.369779e+01 1.976223e+01 2.211975e+01 2.414959e+01 2.260331e+01 2.476055e+01 2.880684e+01 2.207907e+01 3.345853e+01 1.731159e+01 2.174488e+01 3.207703e-01 7.810889e-01 7.265459e-01 1.241958e+00 2.107357e+00 1.600591e+00 2.002846e+00 1.994271e+00 1.742192e+00 1.874348e+00 1.603021e+00 2.109338e+00 2.635869e-01
<GCONST> 8.451758e+01
<MIXTURE> 7 7.878891e-02
<MEAN> 25
 6.550619e+00 -2.625170e+00 3.047287e+00 5.137162e-02 -3.718181e+00 -3.968984e+00 -6.091542e+00 -3.994465e+00 -7.273502e+00 -2.306201e+00 -5.951110e+00 -5.793435e+00 -8.581015e-02 3.027769e+00 -4.430989e-03 2.612144e+00 -2.061295e-01 5.614059e-01 8.885428e-02 -1.392218e+00 -4.006696e-01 -2.051656e+00 -1.073388e+00 -1.741740e+00 -2.180043e+00
<VARIANCE> 25
 5.447078e+00 3.031529e+01 3.704085e+01 2.591629e+01 4.675343e+01 1.653784e+01 2.112725e+01 3.080890e+01 2.745903e+01 2.444268e+01 2.524326e+01 2.718195e+01 3.974252e-01 8.233544e-01 1.120645e+00 1.424041e+00 1.302990e+00 2.104423e+00 2.623888e+00 1.834547e+00 1.903264e+00 2.018434e+00 2.191269e+00 1.683754e+00 2.304854e-01
<GCONST> 8.720389e+01
<STATE> 3
<NUMMIXES> 7
<MIXTURE> 1 1.588871e-01
<MEAN> 25
 3.988122e+00 1.526115e+01 4.644028e+00 6.312442e+00 1.159377e-01 -5.488530e-01 -2.549518e+00 -3.182695e+00 -1.014852e+00 -3.040658e+00 -2.023630e-01 -4.551577e+00 -5.169122e-01 -3.886393e-01 2.888446e-01 8.823765e-01 8.278642e-01 -1.764559e-01 -1.601612e-02 8.595547e-01 4.390018e-01 4.143715e-02 6.890628e-01 5.309079e-01 -1.706159e-01
<VARIANCE> 25
 1.071990e+01 6.076490e+00 1.101104e+01 1.216134e+01 1.871612e+01 1.683612e+01 1.411329e+01 1.948586e+01 1.305680e+01 1.605577e+01 1.204436e+01 1.469533e+01 5.265515e-01 1.845147e+00 1.204423e+00 1.139191e+00 1.289550e+00 1.698937e+00 1.628944e+00 2.166799e+00 1.818436e+00 1.473434e+00 1.257187e+00 1.405087e+00 4.315057e-01
<GCONST> 7.995886e+01
<MIXTURE> 2 1.250019e-01
<MEAN> 25
 4.653022e+00 7.026472e+00 -4.159330e+00 6.286520e+00 4.097099e+00 4.202040e-01 -1.243021e+00 2.571717e+00 1.108261e+00 -5.163430e+00 -3.152102e+00 -5.612016e+00 -3.588013e-01 -6.021400e-01 1.000717e+00 -4.597969e-01 -3.901179e-01 5.469997e-01 -4.703498e-01 -8.588502e-01 3.943934e-01 5.922745e-01 7.262526e-01 8.882551e-01 3.403488e-01
<VARIANCE> 25
 2.794274e+01 2.632652e+01 2.711283e+01 1.882133e+01 1.868896e+01 3.494049e+01 1.832373e+01 3.771407e+01 3.177519e+01 3.596401e+01 2.801546e+01 2.289229e+01 2.340833e+00 3.432907e+00 3.074482e+00 1.958879e+00 2.165833e+00 4.662510e+00 2.210352e+00 3.931948e+00 4.336252e+00 4.059301e+00 3.304019e+00 2.422110e+00 1.196738e+00
<GCONST> 9.878868e+01
<MIXTURE> 3 8.899312e-02
<MEAN> 25
 5.542566e+00 1.472634e+01 3.416216e+00 5.899386e+00 -2.473218e+00 -9.108661e-01 -2.379783e-01 -1.778781e+00 -1.945489e+00 -4.529977e+00 -1.238399e+00 -6.649110e+00 8.053709e-01 -2.879215e+00 -2.495952e+00 -1.023784e+00 1.594761e+00 1.910345e-01 -8.645430e-01 3.790806e-01 1.249428e+00 1.309999e+00 9.813607e-01 7.896303e-01 1.642655e+00
<VARIANCE> 25
 5.325861e+00 1.001219e+01 1.212319e+01 9.208098e+00 2.720306e+01 1.831958e+01 2.275328e+01 2.584235e+01 1.229072e+01 1.718341e+01 1.602958e+01 1.325639e+01 4.271351e-01 3.310249e+00 2.137349e+00 1.957932e+00 2.247838e+00 2.357235e+00 2.795670e+00 2.633499e+00 3.225891e+00 2.522449e+00 2.382173e+00 2.140092e+00 7.219356e-01
<GCONST> 8.677938e+01
<MIXTURE> 4 1.749119e-01
<MEAN> 25
 7.140731e+00 3.335088e+00 -4.445326e+00 4.247994e+00 4.068324e+00 -3.085979e+00 -6.019525e+00 1.521531e-01 -2.074176e+00 -6.669344e+00 -7.506269e+00 -7.024377e+00 -7.781407e-01 -7.179908e-02 -9.202700e-02 3.531642e-02 -2.122710e-01 1.569017e-01 2.526513e-01 3.148626e-01 1.936464e-01 -2.008812e-01 1.418218e+00 6.340890e-01 -5.648683e-01
<VARIANCE> 25
 4.325301e+00 4.005569e+01 1.744211e+01 2.835120e+01 2.179301e+01 2.489598e+01 2.695871e+01 3.643572e+01 3.489112e+01 2.686608e+01 2.030424e+01 2.260214e+01 1.451387e+00 2.919613e+00 1.666534e+00 2.461120e+00 1.955469e+00 2.944431e+00 2.559447e+00 3.312145e+00 1.757708e+00 3.001013e+00 2.738414e+00 2.316774e+00 1.713879e+00
<GCONST> 9.425589e+01
<MIXTURE> 5 1.943293e-01
<MEAN> 25
 5.586305e+00 1.059041e+01 4.569609e+00 6.159378e+00 -4.851876e+00 5.612485e-01 1.292612e+00 -7.369088e+00 -6.236262e+00 -4.865733e+00 -4.585806e+00 -8.323004e+00 2.182959e-01 -2.168122e+00 -1.576603e+00 -2.326072e-01 1.530990e+00 -1.058368e+00 -1.361812e+00 1.787862e+00 2.031704e+00 3.070603e-01 9.674522e-01 9.008439e-01 1.089792e+00
<VARIANCE> 25
 7.641530e+00 1.884404e+01 1.941351e+01 1.903163e+01 3.103201e+01 2.005356e+01 2.579200e+01 2.574148e+01 1.951312e+01 2.521891e+01 1.980911e+01 1.313837e+01 1.055020e+00 3.207739e+00 4.386445e+00 4.213696e+00 3.283585e+00 3.403771e+00 2.634019e+00 2.928141e+00 2.324333e+00 2.473351e+00 1.972070e+00 2.437193e+00 8.228855e-01
<GCONST> 9.323741e+01
<MIXTURE> 6 1.687976e-01
<MEAN> 25
 3.519420e+00 1.437199e+01 3.991451e+00 5.712485e+00 -3.324071e-01 -1.997436e+00 -3.649392e+00 -4.411105e+00 -2.636625e+00 -4.328559e+00 -1.230064e+00 -5.678905e+00 -7.686905e-01 -2.741341e-01 2.868145e-01 7.690135e-01 7.113007e-01 -2.940231e-01 -2.783876e-01 5.405422e-01 8.512879e-02 -3.781418e-01 4.022328e-01 1.998793e-01 -4.038545e-01
<VARIANCE> 25
 1.121693e+01 5.707127e+00 1.160040e+01 1.427513e+01 2.051294e+01 1.458424e+01 1.503785e+01 2.211411e+01 1.751211e+01 1.419285e+01 1.493232e+01 1.752118e+01 6.659201e-01 1.810425e+00 1.146766e+00 1.146168e+00 1.135369e+00 1.541704e+00 1.676317e+00 1.972973e+00 1.836619e+00 1.307043e+00 1.529891e+00 1.732067e+00 4.423466e-01
<GCONST> 8.105686e+01
<MIXTURE> 7 8.907884e-02
<MEAN> 25
 5.455695e+00 1.361071e+01 3.009119e+00 5.553992e+00 -3.077008e+00 -1.980116e+00 -8.329161e-01 -3.325266e+00 -2.766720e+00 -4.841378e+00 -2.348343e+00 -7.870011e+00 7.482659e-01 -3.013283e+00 -2.533516e+00 -9.982505e-01 1.547502e+00 8.754379e-02 -1.240774e+00 8.824202e-02 9.825587e-01 9.220265e-01 5.486233e-01 3.823990e-01 1.653083e+00
<VARIANCE> 25
 4.979080e+00 1.373892e+01 1.300936e+01 1.009358e+01 2.839683e+01 1.593402e+01 2.120495e+01 2.181485e+01 1.382853e+01 1.778957e+01 1.578298e+01 1.431856e+01 4.861654e-01 3.118878e+00 2.376156e+00 1.915274e+00 1.965171e+00 2.167147e+00 3.074628e+00 2.877125e+00 3.045833e+00 2.195865e+00 2.444371e+00 2.062896e+00 7.136538e-01
<GCONST> 8.696886e+01
<STATE> 4
<NUMMIXES> 7
<MIXTURE> 1 1.478213e-01
<MEAN> 25
 3.669014e+00 3.386830e+00 9.475203e-01 6.485680e+00 1.442606e+00 -1.814777e+00 -3.278698e+00 1.353323e+00 1.265979e+00 -3.999681e+00 -7.194653e-02 -1.866670e+00 4.244865e-02 -2.823496e+00 4.285683e-01 -1.071926e+00 -1.730118e+00 -5.230451e-01 3.576127e-01 6.309119e-01 5.743428e-01 8.348382e-01 9.029855e-01 1.366804e+00 1.550976e+00
<VARIANCE> 25
 2.054185e+01 6.374874e+01 4.179803e+01 4.259681e+01 3.438807e+01 5.311514e+01 2.453227e+01 4.024658e+01 2.485911e+01 2.685517e+01 2.405509e+01 2.105819e+01 3.139733e+00 8.083138e+00 5.204488e+00 4.464353e+00 6.516435e+00 4.740048e+00 2.839141e+00 4.623450e+00 3.925451e+00 5.242579e+00 3.269506e+00 2.350877e+00 3.799938e+00
<GCONST> 1.065288e+02
<MIXTURE> 2 1.831004e-01
<MEAN> 25
 1.126455e+01 -1.001891e+00 -1.194063e+01 -3.907565e+00 4.374361e+00 1.585380e+00 -6.764962e+00 -3.040728e+00 3.956984e+00 5.587759e+00 -1.928546e+00 -8.264968e+00 1.394641e+00 -4.644396e+00 -3.609313e+00 -3.240725e+00 2.291351e+00 8.974820e-01 -6.414489e-01 1.945731e+00 1.630027e+00 1.953059e+00 -2.290666e+00 -4.471406e-01 2.992164e+00
<VARIANCE> 25
 3.140476e+00 2.442029e+01 1.671789e+01 2.675484e+01 1.664107e+01 2.526264e+01 1.570776e+01 2.064641e+01 2.953216e+01 1.898625e+01 2.432337e+01 1.773410e+01 6.884508e-01 5.893371e+00 3.350208e+00 3.545474e+00 3.930133e+00 4.759550e+00 2.681439e+00 5.030697e+00 3.940400e+00 4.836214e+00 3.685081e+00 2.798550e+00 1.606491e+00
<GCONST> 9.576974e+01
<MIXTURE> 3 8.677089e-02
<MEAN> 25
 6.478589e+00 5.765662e+00 -1.341068e+00 5.064136e+00 1.242998e+00 2.040007e-01 -1.978512e+00 -1.733325e+00 8.132129e-01 -4.850129e-01 2.041915e+00 -4.777728e+00 1.843157e+00 -4.610629e+00 -4.375405e+00 -3.454364e+00 1.919457e+00 9.614468e-01 -1.627906e+00 6.724892e-01 2.062845e+00 3.008654e+00 -2.513029e-01 -4.972537e-01 3.153424e+00
<VARIANCE> 25
 7.486530e+00 5.653376e+01 2.920178e+01 2.074338e+01 1.838675e+01 2.517999e+01 1.850419e+01 2.555508e+01 2.005274e+01 2.855336e+01 2.228207e+01 1.681108e+01 7.049757e-01 2.356225e+00 2.632234e+00 3.506690e+00 3.594180e+00 3.311641e+00 2.146661e+00 5.232779e+00 3.520755e+00 3.740103e+00 4.795806e+00 2.559931e+00 7.249978e-01
<GCONST> 9.536332e+01
<MIXTURE> 4 1.945766e-01
<MEAN> 25
 1.076872e+01 -7.020433e+00 -1.062896e+01 -5.593494e+00 5.708001e+00 -6.621034e-01 -8.476684e+00 2.249876e+00 4.628090e+00 4.244302e+00 -7.384937e+00 -8.666889e+00 1.491627e-01 -4.390878e+00 -7.440433e-01 -2.132773e+00 1.343814e+00 -4.056068e-01 8.150135e-01 3.449421e+00 5.639206e-01 4.112557e-03 -2.584206e+00 1.051750e+00 2.710783e+00
<VARIANCE> 25
 3.632229e+00 2.010510e+01 2.346226e+01 3.225184e+01 2.545059e+01 3.255605e+01 2.025738e+01 3.430513e+01 3.107464e+01 3.050535e+01 2.547653e+01 1.800306e+01 6.362923e-01 4.121577e+00 2.996036e+00 4.368118e+00 4.279002e+00 4.419326e+00 3.577945e+00 3.622109e+00 3.892748e+00 4.584359e+00 2.682052e+00 2.578617e+00 1.398105e+00
<GCONST> 9.730086e+01
<MIXTURE> 5 1.517653e-01
<MEAN> 25
 6.988492e+00 1.564021e+00 5.209135e-01 5.019148e+00 -1.406385e+00 -2.580579e+00 -2.766219e+00 -3.614164e+00 -3.603771e+00 -4.076571e+00 -1.181959e+00 -5.068797e+00 6.163670e-01 -5.037975e+00 -1.269604e+00 -3.841788e+00 6.441166e-01 -2.036856e-01 -1.246521e+00 1.558445e+00 8.030931e-01 2.912736e+00 4.133885e-01 6.535827e-01 3.445789e+00
<VARIANCE> 25
 7.057247e+00 6.832140e+01 3.072445e+01 3.463800e+01 4.598263e+01 2.411364e+01 2.013586e+01 2.497586e+01 1.861942e+01 2.264541e+01 1.730469e+01 1.920893e+01 7.167852e-01 2.749182e+00 5.527694e+00 4.448329e+00 8.193761e+00 4.849775e+00 4.825032e+00 5.729774e+00 5.720038e+00 3.492132e+00 3.042027e+00 2.531184e+00 8.062087e-01
<GCONST> 9.987989e+01
<MIXTURE> 6 1.444615e-01
<MEAN> 25
 4.378228e+00 1.242510e+00 4.090111e-01 6.127629e+00 4.541753e-01 -3.565818e+00 -5.046839e+00 2.203721e-01 -2.789292e-01 -5.175695e+00 -1.952338e+00 -3.292192e+00 8.879781e-02 -2.551067e+00 4.078480e-01 -1.372766e+00 -1.930095e+00 -5.454890e-01 1.233842e-01 1.898220e-01 -1.923979e-03 5.278140e-01 4.738548e-01 8.703961e-01 1.483900e+00
<VARIANCE> 25
 1.917391e+01 6.231027e+01 4.235337e+01 4.865574e+01 3.953491e+01 5.034911e+01 2.631616e+01 3.920593e+01 2.674832e+01 2.714246e+01 2.494478e+01 1.820204e+01 2.888721e+00 7.119819e+00 5.275737e+00 4.867927e+00 6.199362e+00 3.885296e+00 3.182265e+00 4.236464e+00 3.822445e+00 4.836938e+00 3.206591e+00 2.409554e+00 3.617692e+00
<GCONST> 1.062045e+02
<MIXTURE> 7 9.150334e-02
<MEAN> 25
 6.419555e+00 4.907419e+00 -1.555000e+00 4.047902e+00 2.860602e-01 -9.288945e-01 -3.309576e+00 -3.392390e+00 -2.201332e-01 -1.273095e+00 2.385106e-01 -6.093757e+00 1.648965e+00 -4.740019e+00 -4.298731e+00 -3.189368e+00 1.807616e+00 6.788726e-01 -1.918781e+00 4.430514e-01 1.796830e+00 2.749425e+00 -6.296655e-01 -8.551009e-01 2.988603e+00
<VARIANCE> 25
 7.264985e+00 6.092947e+01 2.585822e+01 2.217027e+01 1.720129e+01 2.346589e+01 1.791030e+01 2.986818e+01 2.080922e+01 2.649221e+01 2.214594e+01 1.393939e+01 6.749087e-01 2.541712e+00 2.964964e+00 3.258134e+00 3.770639e+00 3.219538e+00 2.207219e+00 4.799493e+00 3.857652e+00 4.182168e+00 3.735743e+00 2.484619e+00 7.223790e-01
<GCONST> 9.506657e+01
<TRANSP> 5
 0.000000e+00 1.000000e+00 0.000000e+00 0.000000e+00 0.000000e+00
 0.000000e+00 7.872566e-01 2.127434e-01 0.000000e+00 0.000000e+00
 0.000000e+00 0.000000e+00 4.864974e-01 5.135027e-01 0.000000e+00
 0.000000e+00 0.000000e+00 0.000000e+00 5.923951e-01 4.076049e-01
 0.000000e+00 0.000000e+00 0.000000e+00 0.000000e+00 0.000000e+00
<ENDHMM>
~h "d"
<BEGINHMM>
<NUMSTATES> 5
<STATE> 2
<NUMMIXES> 7
<MIXTURE> 1 1.388454e-01
<MEAN> 25
 5.478669e+00 8.087358e+00 -2.135705e+00 8.393179e+00 2.123705e+00 -2.725962e+00 1.146207e+00 5.338923e+00 7.227808e-01 -6.391020e+00 -7.161798e-01 -1.838158e+00 -9.054784e-01 9.056076e-01 4.355885e-01 3.475260e-01 5.696262e-01 6.850474e-01 -1.104705e-01 -3.993038e-02 3.138434e-01 1.762849e-01 1.118430e+00 8.361091e-02 -1.001757e+00
<VARIANCE> 25
 1.561135e+01 2.660150e+01 2.172341e+01 1.615627e+01 2.515097e+01 2.530960e+01 2.801058e+01 3.033875e+01 2.584491e+01 3.169142e+01 2.819548e+01 1.772170e+01 3.744089e-01 1.049796e+00 1.087300e+00 9.490030e-01 1.451830e+00 1.767004e+00 1.725100e+00 1.990641e+00 1.777530e+00 1.513928e+00 2.009108e+00 1.507830e+00 2.117613e-01
<GCONST> 8.577917e+01
<MIXTURE> 2 1.712852e-01
<MEAN> 25
 8.238377e+00 1.313628e+00 -2.758439e+00 6.381298e+00 -1.127811e+00 -7.118643e+00 3.378612e-01 4.070889e+00 -1.708426e-01 -4.786020e+00 -5.325666e+00 -8.860543e-02 -3.783489e-01 2.724855e+00 -2.031786e-01 1.802303e+00 6.893774e-01 1.381087e+00 3.873035e-01 2.013208e-01 2.751318e-01 -1.354789e+00 8.280249e-01 -1.453730e+00 -2.076855e+00
<VARIANCE> 25
 5.389592e+00 1.880701e+01 2.322494e+01 1.734259e+01 2.870854e+01 1.905490e+01 2.772546e+01 2.571517e+01 3.067173e+01 3.678328e+01 2.393985e+01 2.609439e+01 2.146953e-01 8.123378e-01 1.064928e+00 1.107469e+00 2.264478e+00 1.841498e+00 2.942767e+00 2.224497e+00 2.069623e+00 1.832572e+00 1.958920e+00 1.852123e+00 2.231029e-01
<GCONST> 8.575071e+01
<MIXTURE> 3 1.915164e-01
<MEAN> 25
 5.524045e+00 1.091056e+01 4.642174e+00 3.908159e+00 -6.181324e+00 1.287434e+00 2.245660e+00 -4.553858e+00 -2.515625e+00 -4.132196e+00 -3.681774e+00 -4.612149e+00 -7.073166e-01 1.135029e+00 -5.511197e-02 8.839126e-01 1.249616e+00 -5.039384e-01 -6.753433e-01 7.900602e-01 4.793243e-01 1.291526e-01 1.399357e+00 -2.763577e-03 -1.078310e+00
<VARIANCE> 25
 6.315596e+00 1.611018e+01 1.794136e+01 1.677090e+01 3.183802e+01 2.469600e+01 2.785262e+01 3.036841e+01 2.616383e+01 2.553419e+01 3.006879e+01 1.596184e+01 3.979324e-01 1.250358e+00 1.000358e+00 1.123311e+00 2.164193e+00 2.157817e+00 2.276477e+00 2.042354e+00 2.006428e+00 1.940320e+00 1.863839e+00 1.656667e+00 3.495858e-01
<GCONST> 8.629401e+01
<MIXTURE> 4 9.711155e-02
<MEAN> 25
 7.240808e+00 -3.251694e+00 2.178378e+00 9.737375e-01 -2.960711e+00 -8.413239e+00 -1.032783e+00 1.461193e+00 -3.476589e+00 -3.354487e+00 -6.571886e+00 2.797121e+00 1.841632e-01 3.155833e+00 -1.536544e-01 3.090478e+00 -4.382247e-02 1.242289e+00 -4.444115e-02 -1.034615e+00 -3.705623e-02 -1.298602e+00 3.020386e-01 -1.503492e+00 -2.297464e+00
<VARIANCE> 25
 4.564229e+00 2.574170e+01 2.736831e+01 2.370178e+01 3.364036e+01 3.080075e+01 2.745642e+01 4.382723e+01 3.552201e+01 2.991109e+01 2.132316e+01 2.877391e+01 1.912971e-01 5.831574e-01 6.774182e-01 9.606184e-01 1.229620e+00 2.199583e+00 2.242667e+00 2.012722e+00 1.847922e+00 2.009890e+00 1.753880e+00 1.965077e+00 2.160846e-01
<GCONST> 8.550865e+01
<MIXTURE> 5 1.695805e-01
<MEAN> 25
 6.739733e+00 6.520525e+00 2.866413e+00 5.652765e+00 -5.070585e+00 -9.575924e-01 1.102806e+00 -6.062640e+00 -5.769532e+00 -7.267457e+00 -7.558177e+00 -4.955079e+00 -3.527120e-01 1.116579e+00 -2.871256e-01 7.285091e-01 7.814969e-01 4.863997e-01 -1.316110e-02 2.973940e-01 2.446395e-01 -5.927957e-01 9.276495e-01 -6.558053e-01 -8.890918e-01
<VARIANCE> 25
 8.965703e+00 2.382150e+01 2.993929e+01 1.997875e+01 4.748835e+01 2.517522e+01 4.268792e+01 3.732803e+01 2.390675e+01 3.323481e+01 2.849675e+01 2.445909e+01 4.995329e-01 1.253338e+00 1.078149e+00 1.329062e+00 2.220787e+00 1.724737e+00 1.862698e+00 2.053436e+00 2.069895e+00 1.974219e+00 2.736940e+00 1.877205e+00 4.415989e-01
<GCONST> 9.019218e+01
<MIXTURE> 6 1.468401e-01
<MEAN> 25
 4.591679e+00 6.237341e+00 -3.212438e+00 7.794302e+00 1.369899e+00 -4.222585e+00 -8.795888e-01 3.844025e+00 -5.247974e-01 -8.564832e+00 -3.076345e+00 -2.797760e+00 -1.148660e+00 6.452776e-01 1.829823e-01 1.366342e-01 3.108400e-01 4.249245e-01 -3.003584e-01 -3.783990e-01 1.739855e-02 -6.747495e-02 7.950743e-01 -1.584713e-01 -1.137554e+00
<VARIANCE> 25
 1.519273e+01 3.629470e+01 2.445632e+01 1.571365e+01 2.209273e+01 2.689196e+01 2.876923e+01 3.046103e+01 2.695105e+01 3.004377e+01 2.552090e+01 1.837697e+01 3.965905e-01 1.104104e+00 1.638731e+00 9.246337e-01 1.300870e+00 1.748904e+00 1.682434e+00 2.242055e+00 1.965710e+00 1.741889e+00 2.185836e+00 1.560071e+00 2.127535e-01
<GCONST> 8.687028e+01
<MIXTURE> 7 8.481771e-02
<MEAN> 25
 6.514844e+00 -4.625497e+00 1.842363e+00 1.938564e-01 -3.525187e+00 -9.017881e+00 -2.229485e+00 3.123108e-01 -5.179916e+00 -5.849161e+00 -8.063687e+00 1.940351e+00 4.536271e-02 2.849067e+00 -3.910418e-01 2.793177e+00 -3.318504e-01 8.822463e-01 -2.739798e-01 -1.516219e+00 -5.167781e-01 -1.672217e+00 -1.846948e-01 -2.035751e+00 -2.314113e+00
<VARIANCE> 25
 5.114686e+00 2.378164e+01 2.748785e+01 2.879383e+01 3.439438e+01 3.251903e+01 2.622460e+01 4.147651e+01 2.860006e+01 2.797004e+01 2.334186e+01 3.312386e+01 2.340940e-01 7.796168e-01 7.643685e-01 9.014070e-01 1.297655e+00 2.224472e+00 1.809305e+00 1.922988e+00 2.260885e+00 1.848946e+00 1.782336e+00 1.904059e+00 2.157861e-01
<GCONST> 8.612067e+01
<STATE> 3
<NUMMIXES> 7
<MIXTURE> 1 1.787656e-01
<MEAN> 25
 -3.720750e+00 6.159332e+00 -2.258409e+00 6.945556e+00 3.792529e+00 1.184050e+00 8.808202e-01 3.881236e+00 2.945568e+00 -2.264288e+00 2.774013e+00 -8.237718e-01 -8.050110e-01 -1.055299e+00 -3.092784e-01 -4.118103e-01 -4.285201e-01 8.410124e-02 3.904707e-01 -2.238774e-01 1.897832e-01 7.042609e-01 1.077707e+00 3.769672e-01 -6.481363e-02
<VARIANCE> 25
 2.574001e+01 1.353600e+01 1.968496e+01 1.546367e+01 2.080863e+01 1.947159e+01 1.966337e+01 2.411922e+01 1.748152e+01 2.692427e+01 2.410616e+01 1.334172e+01 1.232305e+00 1.877570e+00 1.374809e+00 1.190045e+00 2.026925e+00 1.795534e+00 2.007454e+00 2.604274e+00 1.987332e+00 2.261387e+00 2.303988e+00 1.395405e+00 9.445733e-01
<GCONST> 8.850288e+01
<MIXTURE> 2 1.095148e-01
<MEAN> 25
 5.536826e+00 7.010280e+00 -1.563904e+00 8.765760e+00 1.095934e+00 -9.353086e-01 1.401908e+00 1.086360e+00 -2.353529e+00 -7.802146e+00 -9.454980e-01 -4.065568e+00 -1.223787e+00 -1.821730e+00 1.083760e+00 -1.532114e+00 -9.610530e-01 1.682315e-01 5.160106e-01 -1.973509e+00 8.975453e-01 1.630558e+00 2.534177e+00 8.019974e-01 1.276284e+00
<VARIANCE> 25
 7.970981e+00 2.824865e+01 2.746699e+01 1.375329e+01 3.126221e+01 2.541795e+01 2.419333e+01 4.316075e+01 2.929099e+01 2.938990e+01 1.872571e+01 1.830499e+01 1.057844e+00 2.358931e+00 3.322383e+00 2.564552e+00 6.187843e+00 4.777172e+00 4.232552e+00 6.480626e+00 3.603872e+00 4.678874e+00 4.349643e+00 3.236954e+00 1.052849e+00
<GCONST> 9.879817e+01
<MIXTURE> 3 2.200931e-01
<MEAN> 25
 6.763425e-01 1.179770e+01 4.400146e+00 7.622820e+00 -9.875156e-01 -2.028910e+00 -2.037670e+00 -1.799405e+00 -1.300910e-01 -1.843270e+00 2.652505e+00 -2.337084e+00 -1.476366e+00 -3.414340e+00 -1.247863e+00 -3.938312e-01 7.782657e-01 -1.948741e-01 1.228691e+00 -7.974759e-01 3.543843e-01 4.623559e-01 2.216990e+00 7.495145e-01 1.182820e+00
<VARIANCE> 25
 1.159592e+01 1.677968e+01 1.657160e+01 1.540445e+01 3.905013e+01 2.420286e+01 2.360442e+01 2.498574e+01 2.159150e+01 2.351670e+01 2.165819e+01 1.305931e+01 8.698978e-01 4.629565e+00 3.027996e+00 3.170731e+00 5.315518e+00 5.188684e+00 6.179154e+00 5.188818e+00 3.897658e+00 3.733149e+00 3.384917e+00 2.492273e+00 2.426169e+00
<GCONST> 9.800225e+01
<MIXTURE> 4 1.037853e-01
<MEAN> 25
 5.508362e+00 7.406187e+00 2.168562e+00 7.191863e+00 -3.468231e+00 -2.056460e+00 4.259403e-01 -3.482451e+00 -4.041684e+00 -7.040695e+00 -3.575370e+00 -3.350255e+00 -1.206151e+00 -1.321984e+00 -3.985915e-01 -4.076305e-01 1.091274e+00 -3.035019e-01 3.293042e-01 -6.148273e-02 1.293192e+00 6.811953e-01 3.084545e+00 4.062764e-01 7.192446e-01
<VARIANCE> 25
 9.749456e+00 4.031939e+01 3.430714e+01 2.088381e+01 3.953502e+01 2.679840e+01 2.437157e+01 4.323574e+01 2.594378e+01 3.197079e+01 2.467535e+01 2.317337e+01 1.679758e+00 3.005507e+00 2.761600e+00 2.767861e+00 4.718802e+00 3.700476e+00 3.062014e+00 4.461677e+00 3.745773e+00 3.557025e+00 4.261966e+00 2.827058e+00 1.850053e+00
<GCONST> 1.003118e+02
<MIXTURE> 5 1.725773e-01
<MEAN> 25
 2.502732e+00 1.075658e+01 1.888956e+00 7.672191e+00 1.112576e+00 -3.209687e+00 -3.036861e+00 -4.309273e-01 -4.740448e-01 -5.027355e+00 -1.505582e-01 -3.043324e+00 -1.637752e+00 -3.109432e+00 -3.967586e-01 -2.994697e-01 6.638136e-02 2.155505e-01 1.676223e+00 -1.545258e+00 -1.401532e-01 9.338342e-01 2.500651e+00 2.499253e-01 1.113891e+00
<VARIANCE> 25
 1.118034e+01 3.018091e+01 2.153797e+01 1.357813e+01 2.550265e+01 1.835867e+01 1.910664e+01 2.976862e+01 2.337172e+01 2.212101e+01 1.886448e+01 1.683903e+01 8.084862e-01 4.403034e+00 2.523661e+00 3.514445e+00 4.180886e+00 4.382290e+00 3.806596e+00 4.781774e+00 4.079520e+00 3.114036e+00 3.340208e+00 3.061366e+00 2.126258e+00
<GCONST> 9.683108e+01
<MIXTURE> 6 1.182339e-01
<MEAN> 25
 4.926005e+00 6.247505e+00 -1.630045e+00 7.990635e+00 5.341346e-01 -2.265549e+00 4.091385e-01 -3.562388e-01 -3.833308e+00 -9.241138e+00 -2.009089e+00 -4.736618e+00 -1.409980e+00 -2.013737e+00 9.232547e-01 -1.691542e+00 -9.879517e-01 8.788165e-02 4.375632e-01 -2.077343e+00 6.800358e-01 1.400272e+00 2.329251e+00 3.060346e-01 1.276584e+00
<VARIANCE> 25
 7.922389e+00 3.172238e+01 2.879740e+01 1.409337e+01 3.143889e+01 2.610984e+01 2.428851e+01 4.273413e+01 3.091281e+01 2.583356e+01 2.040926e+01 1.771359e+01 1.043281e+00 2.296336e+00 3.064553e+00 2.636272e+00 5.827390e+00 4.165545e+00 4.117205e+00 6.409049e+00 3.577009e+00 3.825564e+00 3.983159e+00 2.962160e+00 1.000752e+00
<GCONST> 9.821840e+01
<MIXTURE> 7 9.702910e-02
<MEAN> 25
 4.957602e+00 5.676249e+00 2.033574e+00 6.141255e+00 -4.038455e+00 -3.633450e+00 -8.715600e-01 -4.705771e+00 -5.667651e+00 -7.820786e+00 -4.933192e+00 -3.871502e+00 -1.226290e+00 -1.234339e+00 -6.628873e-01 -5.860271e-01 8.851102e-01 -3.264208e-01 2.060312e-01 -3.872699e-01 1.038678e+00 2.369897e-01 2.553019e+00 -1.749204e-01 5.859197e-01
<VARIANCE> 25
 9.771729e+00 4.342964e+01 3.716163e+01 2.094802e+01 4.482951e+01 2.620618e+01 2.396329e+01 5.061374e+01 2.929115e+01 3.143193e+01 2.716052e+01 2.172899e+01 1.881477e+00 3.219000e+00 2.903018e+00 3.130766e+00 5.529404e+00 3.444710e+00 2.773766e+00 4.384677e+00 3.922363e+00 3.701009e+00 4.762109e+00 2.761528e+00 2.033485e+00
<GCONST> 1.014449e+02
<STATE> 4
<NUMMIXES> 7
<MIXTURE> 1 1.328939e-01
<MEAN> 25
 -1.193970e+00 1.511649e+00 -1.469832e+00 5.389847e+00 1.554910e+00 -4.074173e+00 2.041317e+00 7.294483e-02 1.573501e+00 -2.501321e+00 4.902330e+00 2.109368e+00 -1.149764e-01 -1.546043e+00 -8.087244e-01 -6.271242e-01 2.652077e-01 -1.264770e+00 6.854188e-01 -1.050241e-01 7.318262e-01 5.272463e-02 1.028455e+00 1.351650e+00 1.241752e+00
<VARIANCE> 25
 2.375384e+01 4.313491e+01 4.156512e+01 2.826669e+01 4.713221e+01 4.907536e+01 4.354681e+01 3.779628e+01 2.697962e+01 3.983946e+01 3.729131e+01 2.244407e+01 3.488432e+00 5.154636e+00 4.528324e+00 3.021419e+00 4.991994e+00 6.758701e+00 8.361066e+00 5.076307e+00 3.391859e+00 5.276503e+00 5.090780e+00 3.686898e+00 2.484397e+00
<GCONST> 1.083092e+02
<MIXTURE> 2 1.696927e-01
<MEAN> 25
 1.099042e+00 1.046815e+00 1.823416e+00 2.613190e+00 -5.752024e+00 -2.846387e+00 6.719602e+00 -8.626023e+00 1.388789e-01 -6.329038e-01 6.637556e+00 -2.295678e+00 1.439833e+00 -5.495857e-01 2.984373e+00 -3.801038e+00 -3.209505e+00 -3.672677e-01 -1.399572e+00 -1.973167e+00 7.686229e-03 1.876959e+00 -2.495463e+00 1.301414e+00 2.486336e+00
<VARIANCE> 25
 2.246899e+01 3.243871e+01 2.913468e+01 2.991232e+01 4.865316e+01 6.464957e+01 4.286474e+01 5.128492e+01 2.886068e+01 3.155063e+01 5.252020e+01 3.635614e+01 2.317729e+00 4.846169e+00 4.256545e+00 3.618659e+00 4.715097e+00 4.862370e+00 5.411744e+00 7.746560e+00 3.973610e+00 4.169946e+00 4.904547e+00 2.380549e+00 1.445678e+00
<GCONST> 1.070815e+02
<MIXTURE> 3 1.726291e-01
<MEAN> 25
 -3.277568e-01 -2.341880e+00 -1.649922e+00 5.769138e+00 5.349746e-01 1.010981e+00 4.923978e+00 -4.589037e+00 -1.586525e+00 -2.476247e+00 7.885316e+00 -2.955082e+00 1.035767e-01 -3.551572e+00 6.514197e-01 -2.708512e+00 -2.379786e+00 -8.414369e-01 1.298592e+00 -2.156403e+00 6.482317e-02 1.868937e+00 9.236949e-01 8.682085e-01 3.252999e+00
<VARIANCE> 25
 1.598882e+01 3.804224e+01 2.573195e+01 2.343386e+01 2.872760e+01 3.270295e+01 3.062684e+01 4.186275e+01 3.585414e+01 2.963634e+01 2.992003e+01 2.384919e+01 1.370361e+00 3.221669e+00 3.783860e+00 2.173499e+00 5.221663e+00 4.685091e+00 3.895827e+00 6.355126e+00 3.719192e+00 3.526549e+00 4.384982e+00 3.040959e+00 1.123596e+00
<GCONST> 1.015789e+02
<MIXTURE> 4 9.085850e-02
<MEAN> 25
 3.275420e+00 8.988088e-01 5.563569e+00 8.330638e-02 -8.321205e+00 -1.935878e+00 4.386517e+00 -1.076665e+01 -1.761629e+00 2.313169e-01 4.087317e+00 -2.319924e+00 3.857300e-01 -1.740235e+00 3.353912e+00 -4.878105e+00 -2.452729e+00 -4.908146e-01 -1.052094e+00 -8.777238e-01 4.795937e-01 3.046784e+00 -2.209958e+00 1.947030e+00 2.775142e+00
<VARIANCE> 25
 1.043107e+01 2.248923e+01 2.299037e+01 2.723737e+01 4.473834e+01 4.721737e+01 2.991373e+01 4.091222e+01 3.002847e+01 3.121416e+01 4.225523e+01 2.732603e+01 1.644747e+00 3.320264e+00 3.182562e+00 2.318049e+00 3.569074e+00 4.099711e+00 3.741403e+00 5.422835e+00 4.581697e+00 3.190041e+00 4.769856e+00 2.042332e+00 9.170943e-01
<GCONST> 1.007656e+02
<MIXTURE> 5 2.106836e-01
<MEAN> 25
 5.205739e-01 -3.864082e+00 -3.199789e+00 2.069895e+00 1.370129e+00 -6.155481e+00 2.874792e+00 -2.245665e+00 3.274290e+00 -5.972305e+00 4.476320e+00 7.702345e-01 1.002338e+00 -3.563519e+00 -9.259008e-01 -3.561184e+00 3.980329e-02 -2.161247e+00 -1.262948e-01 9.286085e-01 1.127528e+00 9.813607e-01 -1.278639e+00 1.320523e+00 3.687453e+00
<VARIANCE> 25
 2.869804e+01 2.621331e+01 2.699195e+01 3.299238e+01 3.692680e+01 4.564705e+01 3.937601e+01 3.838990e+01 3.288514e+01 3.679170e+01 4.934613e+01 2.799643e+01 1.844654e+00 3.891078e+00 3.598859e+00 2.524543e+00 4.718167e+00 3.447794e+00 4.432404e+00 8.276335e+00 3.422924e+00 5.205089e+00 5.665013e+00 2.891215e+00 1.192977e+00
<GCONST> 1.048636e+02
<MIXTURE> 6 1.325131e-01
<MEAN> 25
 -7.299265e-01 -1.586361e-01 -2.155175e+00 4.156029e+00 1.054439e+00 -5.310263e+00 1.173322e+00 -1.572042e+00 1.355179e-01 -4.554806e+00 2.845570e+00 4.877971e-01 -8.333120e-02 -1.343981e+00 -1.122576e+00 -8.617209e-01 3.573980e-01 -1.392236e+00 2.880090e-01 -3.328083e-01 3.725512e-01 -1.595450e-01 8.245805e-01 7.434573e-01 1.158405e+00
<VARIANCE> 25
 2.619276e+01 4.449863e+01 4.106543e+01 3.144321e+01 5.028663e+01 4.521505e+01 4.864980e+01 4.075854e+01 3.050172e+01 4.036345e+01 4.510747e+01 2.562527e+01 3.702351e+00 4.488394e+00 4.079938e+00 3.059505e+00 5.271493e+00 6.133983e+00 7.969298e+00 5.065502e+00 3.488569e+00 4.512171e+00 4.568487e+00 3.498917e+00 2.322597e+00
<GCONST> 1.085406e+02
<MIXTURE> 7 9.072904e-02
<MEAN> 25
 2.597390e+00 -6.087850e-01 5.309359e+00 -1.952108e+00 -8.290098e+00 -2.432955e+00 2.925929e+00 -1.188620e+01 -3.202737e+00 -1.378036e+00 2.832498e+00 -3.431559e+00 1.750881e-01 -1.946104e+00 3.385554e+00 -5.206221e+00 -2.439123e+00 -6.369506e-01 -1.543406e+00 -8.137606e-01 4.047475e-02 2.572254e+00 -2.675191e+00 1.564128e+00 2.746559e+00
<VARIANCE> 25
 9.263821e+00 2.025801e+01 2.405893e+01 2.764888e+01 4.349533e+01 4.697599e+01 2.978248e+01 3.626675e+01 3.021974e+01 3.305817e+01 3.805304e+01 2.561310e+01 1.850807e+00 2.862548e+00 2.777801e+00 2.479954e+00 3.583882e+00 4.146251e+00 3.841492e+00 5.155394e+00 4.597521e+00 2.793469e+00 4.577127e+00 1.941305e+00 9.116270e-01
<GCONST> 1.000042e+02
<TRANSP> 5
 0.000000e+00 1.000000e+00 0.000000e+00 0.000000e+00 0.000000e+00
 0.000000e+00 7.350459e-01 2.649541e-01 0.000000e+00 0.000000e+00
 0.000000e+00 0.000000e+00 4.552081e-01 5.447919e-01 0.000000e+00
 0.000000e+00 0.000000e+00 0.000000e+00 5.277502e-01 4.722499e-01
 0.000000e+00 0.000000e+00 0.000000e+00 0.000000e+00 0.000000e+00
<ENDHMM>
~h "g"
<BEGINHMM>
<NUMSTATES> 5
<STATE> 2
<NUMMIXES> 7
<MIXTURE> 1 1.913651e-01
<MEAN> 25
 6.361244e+00 1.169215e+01 4.134737e-01 1.095554e+00 -3.992471e+00 1.878015e+00 -6.285132e-01 -5.152742e+00 -9.803069e-01 -2.632549e+00 -1.128028e+00 -1.995805e+00 -6.074633e-01 5.920379e-01 3.507127e-01 1.303054e+00 8.016949e-01 -6.968803e-01 -4.072191e-01 8.563470e-01 4.310187e-01 -2.199920e-01 8.633987e-01 2.583016e-01 -8.030471e-01
<VARIANCE> 25
 1.503929e+01 2.332405e+01 3.365243e+01 2.781756e+01 3.442500e+01 2.440594e+01 2.867361e+01 3.214273e+01 2.521098e+01 2.992954e+01 3.524787e+01 2.184963e+01 5.911953e-01 1.126749e+00 1.357911e+00 1.870614e+00 2.070684e+00 2.242835e+00 1.935257e+00 2.101857e+00 2.039205e+00 2.235526e+00 2.245361e+00 1.649359e+00 3.422775e-01
<GCONST> 9.070011e+01
<MIXTURE> 2 7.357831e-02
<MEAN> 25
 8.616342e+00 -7.220095e-01 -4.507556e+00 1.869983e+00 5.341427e+00 -6.692325e+00 -4.479448e+00 3.311396e+00 1.735510e+00 1.929225e+00 -9.756757e+00 -1.241894e+00 -1.613429e-02 3.096543e+00 1.194344e-01 2.559580e+00 -9.528252e-01 2.949655e-01 -1.474784e-01 -7.407244e-01 4.553500e-01 -1.069865e+00 1.640566e+00 -2.944226e-01 -2.205391e+00
<VARIANCE> 25
 3.578674e+00 1.667660e+01 1.961358e+01 2.174354e+01 3.446124e+01 3.648010e+01 2.378945e+01 2.508143e+01 2.431765e+01 2.792870e+01 2.063283e+01 3.521491e+01 1.651039e-01 5.317218e-01 6.321363e-01 1.007570e+00 2.162790e+00 2.128359e+00 2.444064e+00 1.842949e+00 1.900800e+00 2.352916e+00 1.767544e+00 1.594756e+00 1.420875e-01
<GCONST> 8.345942e+01
<MIXTURE> 3 1.665197e-01
<MEAN> 25
 8.136674e+00 5.092079e+00 -4.572487e+00 5.789256e+00 2.186565e+00 -4.196857e+00 -4.142943e+00 1.483381e+00 2.082646e+00 -3.865443e+00 -5.198931e+00 -2.412292e+00 -4.957429e-01 1.902868e+00 -8.777660e-03 1.007705e+00 2.259498e-02 7.075348e-01 1.129993e-01 -1.239430e-01 1.623293e-01 -1.067002e+00 1.255598e+00 -3.312603e-01 -1.515458e+00
<VARIANCE> 25
 3.811331e+00 1.089064e+01 1.848878e+01 1.551569e+01 3.635023e+01 2.255282e+01 2.550849e+01 2.721364e+01 1.948136e+01 2.500142e+01 2.204789e+01 2.536769e+01 2.203996e-01 6.883250e-01 1.306796e+00 1.324153e+00 2.022722e+00 1.543805e+00 1.616398e+00 1.407454e+00 1.545934e+00 1.741515e+00 2.494844e+00 1.393947e+00 2.834817e-01
<GCONST> 8.269807e+01
<MIXTURE> 4 1.583137e-01
<MEAN> 25
 7.390732e+00 -6.063931e+00 -3.020210e+00 -5.087471e+00 8.248550e+00 -7.893929e+00 -5.379666e+00 2.281354e+00 6.425523e-01 3.467238e+00 -1.342048e+01 -1.640252e-01 1.963304e-01 2.925791e+00 -9.240546e-02 2.286216e+00 -8.376890e-01 -8.847440e-01 -8.480474e-01 -1.510193e+00 -2.145061e-01 -1.122202e-01 1.822028e-01 -6.902794e-01 -2.038160e+00
<VARIANCE> 25
 4.327958e+00 1.655787e+01 1.336531e+01 3.188971e+01 1.375359e+01 2.746474e+01 2.867110e+01 2.296337e+01 1.900959e+01 4.171309e+01 1.663689e+01 3.369781e+01 1.707956e-01 6.363102e-01 7.034032e-01 1.079224e+00 1.588117e+00 2.444428e+00 1.904445e+00 1.702070e+00 2.102353e+00 3.477413e+00 1.630391e+00 1.528312e+00 2.363163e-01
<GCONST> 8.319985e+01
<MIXTURE> 5 1.411104e-01
<MEAN> 25
 7.006271e+00 1.829507e+00 -5.133925e-01 2.370537e+00 -1.004589e+00 -3.675928e-01 -1.979066e+00 -5.474466e+00 -3.715209e+00 -2.968723e+00 -9.246080e+00 -4.605453e+00 1.089967e-01 1.483458e+00 -6.178048e-01 1.222910e+00 -2.559119e-01 8.024585e-01 3.109445e-01 5.787854e-02 3.009267e-01 -1.248635e+00 6.196082e-01 -7.231990e-01 -1.160696e+00
<VARIANCE> 25
 5.486406e+00 2.088083e+01 3.804709e+01 3.258090e+01 5.856201e+01 2.964433e+01 4.436679e+01 4.345946e+01 2.450618e+01 3.096676e+01 2.204821e+01 2.226180e+01 2.990656e-01 6.707819e-01 1.017544e+00 1.956759e+00 1.760236e+00 1.978355e+00 1.477404e+00 1.602168e+00 1.766234e+00 1.768402e+00 1.665900e+00 1.760332e+00 2.777644e-01
<GCONST> 8.778766e+01
<MIXTURE> 6 1.907342e-01
<MEAN> 25
 5.431536e+00 1.020876e+01 -2.270130e-02 -2.207475e-01 -4.505985e+00 7.510176e-01 -1.960064e+00 -6.671213e+00 -2.629481e+00 -3.321270e+00 -2.297414e+00 -3.488544e+00 -6.656597e-01 4.179389e-01 1.680564e-01 1.139109e+00 5.733619e-01 -9.169757e-01 -6.471165e-01 4.648059e-01 7.005985e-02 -4.184380e-01 5.644045e-01 -5.239321e-02 -8.623631e-01
<VARIANCE> 25
 1.600344e+01 2.301183e+01 3.862187e+01 3.083676e+01 3.474632e+01 2.742081e+01 3.284821e+01 3.245003e+01 2.700760e+01 2.922925e+01 3.698183e+01 1.995314e+01 6.350731e-01 1.204221e+00 1.462055e+00 1.820548e+00 1.976898e+00 2.275578e+00 2.091274e+00 2.158971e+00 2.242642e+00 2.363912e+00 2.105469e+00 2.056066e+00 3.200408e-01
<GCONST> 9.176030e+01
<MIXTURE> 7 7.837811e-02
<MEAN> 25
 8.159664e+00 -1.878530e+00 -4.689803e+00 3.410390e-01 5.225711e+00 -7.705618e+00 -5.149714e+00 1.301622e+00 3.556687e-01 1.468066e+00 -1.175581e+01 -1.878942e+00 -1.095683e-01 2.892904e+00 -1.196238e-01 2.516171e+00 -1.072017e+00 1.995023e-01 -3.124897e-01 -1.034052e+00 -4.129108e-03 -1.501287e+00 1.165573e+00 -6.372690e-01 -2.278955e+00
<VARIANCE> 25
 3.569437e+00 1.480789e+01 1.537966e+01 2.349298e+01 2.338252e+01 3.293265e+01 2.834163e+01 2.798567e+01 2.426841e+01 2.959953e+01 2.032547e+01 3.418500e+01 1.789990e-01 6.582356e-01 7.704182e-01 1.124465e+00 2.113908e+00 2.124730e+00 2.035302e+00 2.041272e+00 1.806352e+00 2.649742e+00 1.969512e+00 1.371329e+00 1.429328e-01
<GCONST> 8.350560e+01
<STATE> 3
<NUMMIXES> 7
<MIXTURE> 1 7.818483e-02
<MEAN> 25
 -2.917656e+00 7.318464e+00 -2.316215e+00 4.158888e+00 1.677361e+00 -2.505653e-01 -5.656004e-01 7.397062e-01 2.337776e+00 2.741870e-01 6.714653e+00 8.410755e-01 -5.889258e-01 -1.075759e+00 -3.745998e-01 2.304254e-01 4.588709e-01 9.536672e-02 9.777064e-01 9.227989e-01 3.623478e-01 2.473005e-01 3.021038e-01 4.856961e-01 -1.310173e-01
<VARIANCE> 25
 3.519676e+01 2.143290e+01 4.899364e+01 4.639028e+01 3.165430e+01 2.611048e+01 2.662810e+01 2.891222e+01 2.199964e+01 2.762236e+01 2.517573e+01 1.976725e+01 1.799766e+00 2.805768e+00 2.649779e+00 3.007418e+00 4.019837e+00 2.016929e+00 2.809996e+00 2.076343e+00 2.089027e+00 2.505125e+00 2.253237e+00 1.833649e+00 6.080667e-01
<GCONST> 9.641235e+01
<MIXTURE> 2 1.189260e-01
<MEAN> 25
 6.676328e+00 1.102964e+01 -3.540800e+00 4.109168e+00 1.484941e+00 -3.776346e-01 -1.149603e+00 7.165432e-01 1.293087e+00 -4.237083e+00 -1.709611e+00 -2.709361e+00 -4.405918e-01 1.943993e-01 3.019703e-01 3.688250e-01 3.722337e-01 1.702096e-01 2.457069e-01 2.646914e-01 3.003295e-01 3.251757e-01 5.812472e-01 3.573625e-01 -3.543207e-01
<VARIANCE> 25
 5.446936e+00 1.878248e+01 1.821010e+01 2.118915e+01 2.597339e+01 1.837839e+01 2.409878e+01 2.406311e+01 1.680572e+01 1.797704e+01 1.690333e+01 1.735912e+01 4.540329e-01 8.183388e-01 1.573597e+00 9.722555e-01 1.826575e+00 1.890893e+00 2.343486e+00 2.000852e+00 1.267597e+00 1.518070e+00 1.528226e+00 2.030360e+00 3.148724e-01
<GCONST> 8.330507e+01
<MIXTURE> 3 2.025339e-01
<MEAN> 25
 5.368755e+00 1.233830e+01 1.702293e+00 2.924525e+00 -3.195946e+00 4.709441e-01 -1.226267e+00 -4.862893e+00 -2.076596e+00 -4.301010e+00 -1.851206e+00 -2.420580e+00 -8.938420e-01 -2.447533e+00 -1.096413e+00 2.346546e+00 3.013211e+00 -1.768108e+00 -1.417383e+00 1.039688e+00 5.433782e-01 6.073846e-01 1.059315e+00 3.710377e-01 1.948664e-01
<VARIANCE> 25
 1.009014e+01 1.671366e+01 3.209360e+01 1.934373e+01 2.668384e+01 1.948845e+01 2.215943e+01 2.771091e+01 1.979961e+01 1.989946e+01 2.406861e+01 1.917403e+01 8.105659e-01 2.851233e+00 4.770410e+00 4.674290e+00 5.457520e+00 5.611234e+00 4.059841e+00 4.701508e+00 4.183921e+00 4.834936e+00 4.262713e+00 2.614944e+00 4.796486e-01
<GCONST> 9.728712e+01
<MIXTURE> 4 1.951614e-01
<MEAN> 25
 6.803630e+00 3.827280e+00 -5.349033e+00 4.093888e+00 4.290877e+00 -3.469798e+00 -5.786915e+00 -1.677244e+00 3.831863e-01 -2.840229e+00 -6.383327e+00 -3.092803e+00 -4.060562e-01 -2.509832e-01 -4.483211e-01 9.362518e-01 1.496609e-01 -2.159266e-01 2.025182e-02 3.666396e-01 3.918365e-01 -5.302535e-01 9.285480e-01 4.357865e-01 -4.576153e-01
<VARIANCE> 25
 7.709544e+00 2.252638e+01 3.066851e+01 3.680795e+01 4.786738e+01 2.995565e+01 2.763602e+01 4.284697e+01 2.932929e+01 4.363604e+01 3.977471e+01 2.859628e+01 6.510358e-01 1.516499e+00 2.333754e+00 1.748886e+00 3.781576e+00 3.657753e+00 3.081163e+00 3.190444e+00 3.362934e+00 2.799464e+00 3.678718e+00 3.072493e+00 8.488580e-01
<GCONST> 9.747847e+01
<MIXTURE> 5 2.017486e-01
<MEAN> 25
 2.358908e+00 1.358014e+01 4.244130e+00 6.502181e+00 -2.024702e+00 -3.003462e+00 -4.913990e+00 -4.462193e+00 -2.013645e+00 -5.178395e+00 5.413304e-01 -3.004323e+00 -1.370547e+00 -1.022381e+00 -2.054018e-01 1.111968e+00 1.497799e+00 -2.612082e-02 -5.272231e-01 2.923600e-01 3.191394e-01 5.561151e-01 9.110637e-01 4.362131e-01 -7.019312e-01
<VARIANCE> 25
 9.599854e+00 1.801206e+01 1.401470e+01 1.752704e+01 2.260814e+01 2.233710e+01 1.777930e+01 2.209602e+01 1.687988e+01 2.441738e+01 1.656990e+01 1.463691e+01 6.422467e-01 1.237832e+00 2.388030e+00 2.344853e+00 2.124415e+00 2.857833e+00 2.564661e+00 2.020058e+00 2.162920e+00 2.379379e+00 2.059798e+00 1.455977e+00 3.215085e-01
<GCONST> 8.685776e+01
<MIXTURE> 6 1.163327e-01
<MEAN> 25
 6.080102e+00 8.954275e+00 -4.368222e+00 4.147340e+00 2.309155e+00 -1.483385e+00 -2.821619e+00 -7.759786e-01 -5.790117e-02 -5.324743e+00 -3.552740e+00 -4.278807e+00 -5.962040e-01 8.278790e-02 -5.819027e-02 1.870471e-01 2.567171e-01 5.697203e-02 4.275681e-02 1.992719e-01 3.707178e-02 -1.823424e-01 4.193087e-01 1.749738e-01 -5.068576e-01
<VARIANCE> 25
 6.404418e+00 2.600229e+01 1.871003e+01 2.395358e+01 2.312340e+01 1.822509e+01 2.529394e+01 3.019455e+01 1.588983e+01 2.025704e+01 2.031860e+01 1.571147e+01 4.708926e-01 9.132121e-01 1.627472e+00 1.121899e+00 1.861140e+00 2.043546e+00 1.913116e+00 2.249837e+00 1.330134e+00 1.690162e+00 1.427298e+00 1.945344e+00 3.259055e-01
<GCONST> 8.465303e+01
<MIXTURE> 7 8.711383e-02
<MEAN> 25
 -2.266571e+00 6.716846e+00 -2.861096e+00 4.091875e+00 1.203888e+00 -1.293693e+00 -2.936085e+00 -1.243791e+00 1.540707e+00 -1.354545e+00 5.506736e+00 -3.963797e-01 -5.993651e-01 -7.527151e-01 -4.349810e-01 -2.149326e-01 1.445995e-01 -1.605500e-01 6.138030e-01 6.303236e-01 -1.162116e-01 -1.873238e-01 8.673505e-02 1.786881e-01 -2.165044e-01
<VARIANCE> 25
 2.887705e+01 2.562583e+01 4.149607e+01 4.337831e+01 3.105483e+01 2.358768e+01 2.337551e+01 3.502091e+01 2.636551e+01 2.370803e+01 2.418356e+01 2.350725e+01 2.302061e+00 3.340412e+00 3.098181e+00 2.543792e+00 3.922853e+00 2.050670e+00 2.724950e+00 2.698726e+00 2.616782e+00 2.521844e+00 2.067227e+00 1.917797e+00 6.529470e-01
<GCONST> 9.715675e+01
<STATE> 4
<NUMMIXES> 7
<MIXTURE> 1 9.933966e-02
<MEAN> 25
 -2.248993e-01 -5.799181e+00 -4.161082e+00 1.011541e+01 6.243352e+00 -7.623408e+00 -6.522000e-03 6.012301e+00 1.801942e+00 -7.994016e-01 2.280728e+00 5.197325e+00 1.932614e+00 -1.313657e+00 -1.640490e-01 -3.115854e+00 -6.799549e-01 -3.463947e-01 -1.429119e-02 9.832810e-01 4.749682e-01 7.269312e-01 -1.832617e+00 7.689801e-01 2.675278e+00
<VARIANCE> 25
 2.423517e+01 4.791707e+01 4.111468e+01 6.002530e+01 6.530168e+01 3.710048e+01 3.522630e+01 2.576357e+01 3.627779e+01 3.394109e+01 3.199278e+01 1.881723e+01 2.653392e+00 7.705438e+00 7.494918e+00 6.623153e+00 8.288862e+00 5.073741e+00 3.012771e+00 4.804461e+00 4.509823e+00 4.678229e+00 4.367878e+00 4.216866e+00 2.147462e+00
<GCONST> 1.089957e+02
<MIXTURE> 2 1.026235e-01
<MEAN> 25
 8.658937e+00 7.720645e-02 -6.492358e+00 4.104948e+00 5.007472e+00 -7.984924e+00 -5.984171e+00 3.451696e+00 4.816244e+00 -2.692277e-03 -5.397017e+00 1.749179e+00 5.102281e-01 -1.960501e+00 7.250679e-01 -2.525029e+00 -1.451220e+00 -7.002676e-01 1.063354e+00 1.533327e+00 4.710093e-01 1.329874e+00 -1.321423e+00 1.293949e+00 1.938866e+00
<VARIANCE> 25
 6.021166e+00 2.828386e+01 2.171792e+01 3.810092e+01 3.583727e+01 2.631327e+01 3.238908e+01 2.909485e+01 3.008900e+01 2.783905e+01 3.348492e+01 2.410639e+01 8.707823e-01 2.921933e+00 5.308684e+00 4.293156e+00 6.366266e+00 3.586668e+00 4.193970e+00 3.860914e+00 4.575016e+00 3.492680e+00 3.886452e+00 3.865855e+00 7.426058e-01
<GCONST> 1.000809e+02
<MIXTURE> 3 1.963954e-01
<MEAN> 25
 3.372838e-01 3.722689e+00 -2.068547e+00 7.137472e+00 3.072773e+00 -1.377700e+00 -2.031620e+00 -1.578538e+00 -6.175281e-01 -1.549224e+00 2.853620e+00 1.685461e-01 -4.696989e-01 -4.324433e+00 -2.537068e+00 -1.692493e-01 2.576386e+00 -8.588108e-01 2.985854e-01 1.113053e+00 2.020745e-01 1.283065e+00 5.389373e-01 1.438856e+00 1.462752e+00
<VARIANCE> 25
 1.796040e+01 5.503275e+01 6.791220e+01 6.138159e+01 6.370146e+01 4.933665e+01 4.595133e+01 3.623103e+01 4.254990e+01 3.701604e+01 2.767430e+01 2.033381e+01 1.968566e+00 5.335588e+00 9.121484e+00 8.352610e+00 7.708741e+00 9.044079e+00 5.139956e+00 6.953152e+00 4.612021e+00 5.080190e+00 3.899499e+00 3.256096e+00 1.536574e+00
<GCONST> 1.109741e+02
<MIXTURE> 4 1.823992e-01
<MEAN> 25
 6.876701e+00 -1.434820e+00 -7.434548e+00 2.324379e+00 8.307899e+00 -6.336568e+00 -6.897131e+00 -2.525348e+00 -1.098951e-01 2.332753e+00 -6.432391e+00 -3.711552e-01 -3.218833e-02 -2.292782e+00 1.090661e+00 -2.380592e+00 -3.716882e-01 -1.747989e+00 -9.813221e-02 1.355267e+00 5.153383e-01 1.770347e+00 -1.882933e+00 1.252222e+00 2.056208e+00
<VARIANCE> 25
 8.750854e+00 2.577655e+01 6.483950e+01 4.982117e+01 7.836172e+01 5.516241e+01 3.328405e+01 3.734594e+01 2.790679e+01 3.832025e+01 4.456887e+01 3.546493e+01 9.493384e-01 2.947026e+00 6.495702e+00 4.802431e+00 7.254673e+00 4.767290e+00 3.618913e+00 5.405976e+00 4.365469e+00 4.499029e+00 3.737129e+00 4.043675e+00 1.177045e+00
<GCONST> 1.061255e+02
<MIXTURE> 5 2.127557e-01
<MEAN> 25
 4.275796e+00 7.197954e+00 -2.527798e+00 4.626777e+00 1.859230e+00 -5.382736e-01 -3.576794e+00 -3.502554e+00 -1.125920e+00 -3.324855e+00 -1.112801e+00 -2.517361e+00 -5.023491e-01 -1.965218e+00 -9.856725e-01 5.115647e-02 1.337654e+00 1.582291e-01 -5.622926e-02 3.078919e-02 2.064761e-01 8.146521e-01 5.724488e-01 4.458914e-01 4.268049e-01
<VARIANCE> 25
 1.787309e+01 4.114229e+01 4.200867e+01 2.923245e+01 3.680309e+01 3.415965e+01 2.723688e+01 4.226244e+01 2.853801e+01 3.104461e+01 3.306797e+01 2.544837e+01 1.381823e+00 4.750969e+00 8.794343e+00 4.305082e+00 9.211329e+00 5.248202e+00 4.869141e+00 4.780682e+00 4.022885e+00 3.542713e+00 3.342326e+00 3.022049e+00 1.030011e+00
<GCONST> 1.049079e+02
<MIXTURE> 6 1.010870e-01
<MEAN> 25
 5.698483e-01 -7.002261e+00 -6.521802e+00 7.730327e+00 7.010652e+00 -8.592911e+00 -1.748816e+00 4.576955e+00 1.515798e+00 -1.419446e+00 -6.864706e-01 4.254653e+00 1.750045e+00 -1.244958e+00 -1.372632e-01 -3.224008e+00 -6.388113e-01 -8.147188e-01 -3.230260e-01 6.803181e-01 -3.151789e-01 3.904991e-01 -2.310243e+00 2.356830e-01 2.596715e+00
<VARIANCE> 25
 2.116257e+01 4.908961e+01 5.401404e+01 5.442221e+01 7.022207e+01 3.551950e+01 2.612442e+01 2.661549e+01 3.630393e+01 3.801070e+01 3.003646e+01 2.071339e+01 2.256772e+00 6.195126e+00 6.728680e+00 6.352168e+00 6.768070e+00 4.539412e+00 3.218469e+00 4.216635e+00 4.344415e+00 4.437528e+00 4.321428e+00 3.807509e+00 2.301131e+00
<GCONST> 1.079267e+02
<MIXTURE> 7 1.053992e-01
<MEAN> 25
 7.969885e+00 -1.621513e+00 -7.348155e+00 3.213143e+00 5.239464e+00 -8.808126e+00 -6.854380e+00 1.762109e+00 2.726904e+00 -9.513547e-01 -7.833205e+00 2.784237e-01 3.159752e-01 -2.098800e+00 1.010132e+00 -2.675151e+00 -1.426159e+00 -9.477751e-01 7.121935e-01 1.182123e+00 -6.790145e-02 1.173861e+00 -1.824450e+00 9.926952e-01 1.985838e+00
<VARIANCE> 25
 6.499676e+00 2.739386e+01 2.451842e+01 3.506709e+01 3.562893e+01 2.535852e+01 2.647356e+01 2.727911e+01 2.602006e+01 2.782987e+01 3.012363e+01 2.346031e+01 8.973088e-01 3.173153e+00 4.927130e+00 3.869005e+00 5.765532e+00 3.588408e+00 3.447987e+00 3.889405e+00 4.233333e+00 3.138630e+00 3.549495e+00 4.195791e+00 8.481446e-01
<GCONST> 9.916257e+01
<TRANSP> 5
 0.000000e+00 1.000000e+00 0.000000e+00 0.000000e+00 0.000000e+00
 0.000000e+00 6.331190e-01 3.668810e-01 0.000000e+00 0.000000e+00
 0.000000e+00 0.000000e+00 4.230538e-01 5.769462e-01 0.000000e+00
 0.000000e+00 0.000000e+00 0.000000e+00 6.300434e-01 3.699566e-01
 0.000000e+00 0.000000e+00 0.000000e+00 0.000000e+00 0.000000e+00
<ENDHMM>
~h "h"
<BEGINHMM>
<NUMSTATES> 5
<STATE> 2
<NUMMIXES> 7
<MIXTURE> 1 1.254653e-01
<MEAN> 25
 -6.845192e-03 -3.776785e+00 -2.733683e+00 1.665297e+00 5.960864e+00 7.880299e+00 2.974922e+00 -2.147019e+00 -3.214426e-02 -1.225000e+00 2.220027e+00 3.259769e+00 -7.271613e-02 1.864201e-01 1.477381e-01 3.305454e-02 3.637619e-01 1.637491e+00 3.802175e-01 -3.047566e-01 -1.840954e-01 -5.604809e-02 2.024207e-01 2.747136e-01 -3.284698e-01
<VARIANCE> 25
 3.835172e+01 6.405640e+01 8.785069e+01 3.918665e+01 8.760022e+01 6.212724e+01 5.684533e+01 4.559984e+01 4.678513e+01 4.844665e+01 4.938830e+01 3.806771e+01 1.730111e+00 2.717205e+00 2.641839e+00 2.833782e+00 3.178392e+00 4.173992e+00 3.684916e+00 2.838382e+00 3.777478e+00 2.786984e+00 3.055573e+00 2.465026e+00 5.466723e-01
<GCONST> 1.058877e+02
<MIXTURE> 2 2.108616e-01
<MEAN> 25
 3.337770e+00 -3.988369e+00 9.078878e+00 -8.316669e+00 -6.487557e+00 5.652586e+00 7.396875e+00 -6.219500e+00 -6.255539e-01 1.195332e+00 -7.910453e+00 -1.255267e+00 -2.115998e-01 2.550468e-01 5.122805e-02 2.526469e-01 7.318772e-02 1.110678e+00 1.669096e-01 -5.912423e-01 2.429432e-01 -3.697432e-01 4.672468e-02 1.331511e-01 -3.941475e-01
<VARIANCE> 25
 5.302581e+00 3.305412e+01 1.379823e+01 2.462162e+01 2.325021e+01 5.786168e+01 3.074665e+01 3.382032e+01 2.842986e+01 2.504953e+01 1.921947e+01 2.000020e+01 2.119011e-01 1.035088e+00 7.502638e-01 1.201675e+00 1.336997e+00 2.179564e+00 2.109653e+00 1.919626e+00 1.762984e+00 2.129621e+00 1.408087e+00 1.403692e+00 2.978064e-01
<GCONST> 8.525302e+01
<MIXTURE> 3 9.416659e-02
<MEAN> 25
 3.613951e+00 -4.728329e+00 3.811821e+00 5.556858e+00 -3.021183e+00 9.215278e+00 1.302661e+01 -9.515626e-01 -2.310986e+00 -2.790584e+00 -2.221527e+00 2.127919e+00 -8.910083e-01 6.345246e-01 1.438272e+00 3.763337e-02 -6.137136e-01 2.088881e+00 4.899728e-01 -1.371025e+00 8.540165e-01 7.456123e-01 -1.025269e-01 -7.005407e-03 -7.916164e-01
<VARIANCE> 25
 7.406992e+00 2.185942e+01 1.972995e+01 2.985522e+01 3.659943e+01 4.180173e+01 2.561754e+01 2.506356e+01 2.521865e+01 2.486155e+01 2.078239e+01 1.638135e+01 2.664697e-01 7.700865e-01 1.081465e+00 1.263989e+00 1.593826e+00 2.029347e+00 2.501665e+00 1.679641e+00 2.233776e+00 1.917376e+00 1.722878e+00 1.713832e+00 1.267361e-01
<GCONST> 8.529126e+01
<MIXTURE> 4 1.764155e-01
<MEAN> 25
 1.730282e+00 -8.075279e+00 8.228672e+00 -8.532883e+00 -2.022433e+00 2.551535e+00 8.293036e+00 -8.039179e+00 -6.347068e+00 -3.377989e+00 -9.341320e+00 -1.672502e+00 9.094350e-02 -7.914147e-01 -3.222996e-02 -5.385575e-01 -3.798128e-01 -7.502881e-01 -1.256268e-01 6.913150e-01 -4.199858e-01 4.407599e-01 -5.437768e-02 1.378408e-01 5.204655e-01
<VARIANCE> 25
 4.910439e+00 1.954350e+01 1.278291e+01 2.150164e+01 2.190325e+01 4.219769e+01 2.918431e+01 4.157467e+01 2.756872e+01 2.952425e+01 1.858230e+01 1.427006e+01 2.386944e-01 1.077471e+00 1.023222e+00 1.792628e+00 1.540239e+00 2.439136e+00 1.883235e+00 3.554577e+00 1.881787e+00 2.926675e+00 1.696954e+00 1.249821e+00 2.826417e-01
<GCONST> 8.600742e+01
<MIXTURE> 5 1.738258e-01
<MEAN> 25
 3.119889e+00 -6.735039e+00 4.875322e+00 6.910388e-01 -4.706713e-01 5.468121e+00 1.048743e+01 -3.829087e+00 -3.563950e+00 -5.960322e+00 -8.408155e+00 7.860004e-01 -3.262077e-01 1.112829e+00 1.080147e+00 -4.143396e-01 -1.316494e+00 9.285200e-01 -1.660018e-01 -1.539763e+00 8.369050e-01 5.750455e-01 -3.457190e-01 -2.975322e-01 -5.953539e-01
<VARIANCE> 25
 6.637501e+00 1.367280e+01 1.439274e+01 3.787663e+01 3.449092e+01 6.914056e+01 3.752947e+01 2.657537e+01 2.841744e+01 3.192927e+01 2.085389e+01 1.775497e+01 2.877645e-01 5.729477e-01 6.959264e-01 1.022278e+00 1.748132e+00 2.201537e+00 2.222950e+00 1.662166e+00 1.943894e+00 2.492673e+00 1.414074e+00 1.661904e+00 1.819813e-01
<GCONST> 8.540305e+01
<MIXTURE> 6 1.303323e-01
<MEAN> 25
 9.342093e-01 -5.277801e+00 -2.542696e+00 2.174996e-01 6.595510e+00 6.161387e+00 8.576211e-01 -3.767207e+00 -2.516499e+00 -3.158997e+00 -8.010597e-01 1.320318e+00 -1.765471e-01 9.202790e-02 -2.156813e-01 -6.428540e-02 4.253683e-01 1.257267e+00 -1.495353e-01 -6.649742e-01 -3.008007e-01 -5.216971e-01 -2.316836e-01 -1.155610e-01 -4.072749e-01
<VARIANCE> 25
 3.870838e+01 5.566281e+01 7.567653e+01 4.186185e+01 8.520136e+01 6.085941e+01 6.261034e+01 4.650175e+01 4.723654e+01 4.926318e+01 5.458158e+01 4.357191e+01 1.445512e+00 2.192396e+00 2.932559e+00 2.977232e+00 3.633381e+00 4.175385e+00 3.639926e+00 2.890616e+00 3.784818e+00 3.081348e+00 3.535707e+00 2.527613e+00 5.617375e-01
<GCONST> 1.062026e+02
<MIXTURE> 7 8.893271e-02
<MEAN> 25
 3.092025e+00 -6.443140e+00 3.403516e+00 3.924705e+00 -3.107858e+00 8.916591e+00 1.212250e+01 -2.197924e+00 -3.072360e+00 -3.598407e+00 -4.020288e+00 8.357766e-01 -9.107102e-01 5.429074e-01 1.215276e+00 -1.927917e-01 -7.872296e-01 1.797586e+00 2.045023e-01 -1.523636e+00 6.554489e-01 4.369092e-01 -4.519321e-01 -3.459601e-01 -8.005902e-01
<VARIANCE> 25
 9.654804e+00 1.999467e+01 1.940985e+01 3.371329e+01 3.512364e+01 4.494011e+01 2.836670e+01 2.701602e+01 2.509477e+01 2.396314e+01 2.178188e+01 1.587503e+01 3.037072e-01 7.872370e-01 1.068284e+00 1.314791e+00 1.702612e+00 2.301246e+00 2.392021e+00 1.846146e+00 2.270314e+00 2.173273e+00 1.782401e+00 1.603056e+00 1.330990e-01
<GCONST> 8.633340e+01
<STATE> 3
<NUMMIXES> 7
<MIXTURE> 1 1.101591e-01
<MEAN> 25
 -2.604662e+00 -2.324246e+00 -8.359404e-01 2.161212e+00 5.755489e-01 1.090671e+01 7.885483e+00 -3.739263e+00 9.847651e-01 8.006011e-01 1.534916e+00 2.439806e+00 2.174477e+00 2.690593e+00 1.287128e+00 -9.278564e-01 -1.889857e+00 -8.019781e-01 -9.689382e-01 -7.803324e-01 -6.756785e-01 6.601641e-02 -4.398600e-01 -8.278891e-01 6.374671e-01
<VARIANCE> 25
 2.155072e+01 3.980614e+01 8.138927e+01 4.009798e+01 8.734148e+01 5.207834e+01 6.192899e+01 3.049163e+01 3.350634e+01 3.171741e+01 3.890575e+01 2.267929e+01 2.292809e+00 2.535402e+00 2.332398e+00 2.932987e+00 2.788517e+00 5.224066e+00 2.939179e+00 2.428710e+00 4.076647e+00 3.816522e+00 2.650035e+00 1.983746e+00 5.919986e-01
<GCONST> 1.027164e+02
<MIXTURE> 2 1.883393e-01
<MEAN> 25
 5.870944e+00 -3.234731e+00 -3.113368e+00 -3.035345e-01 7.185763e+00 4.964136e+00 -4.693337e-01 -3.145619e+00 -3.675521e+00 -2.982938e+00 -3.944933e+00 -2.115806e+00 2.237337e-02 7.028004e-01 -6.073949e-02 -1.300910e-02 -2.453146e-01 1.210566e-01 -3.643381e-01 -3.495430e-01 2.148618e-01 -1.184329e-01 2.762041e-01 2.138786e-01 -3.957930e-01
<VARIANCE> 25
 9.130323e+00 4.891991e+01 6.651812e+01 5.509392e+01 1.095286e+02 3.424572e+01 5.573951e+01 3.319413e+01 3.657300e+01 4.717812e+01 3.768136e+01 3.270010e+01 2.223098e-01 9.395881e-01 1.032531e+00 1.249064e+00 1.629941e+00 1.508712e+00 2.106501e+00 1.920743e+00 2.482579e+00 2.016330e+00 1.982847e+00 1.608718e+00 2.675934e-01
<GCONST> 9.301603e+01
<MIXTURE> 3 1.131037e-01
<MEAN> 25
 1.586331e+00 3.889740e+00 1.163875e+01 -2.573030e+00 -7.403654e+00 1.612233e+01 3.983730e+00 -1.034009e+01 3.973502e+00 -3.910869e-01 -3.577713e+00 3.974054e+00 1.489552e-01 1.493292e-01 -2.323245e-01 1.116888e-01 -3.085732e-01 -2.169688e-02 5.102894e-01 1.272033e-01 -1.461032e-01 3.230095e-01 2.268770e-01 -5.058442e-01 -9.272844e-02
<VARIANCE> 25
 1.049747e+01 1.916431e+01 1.678991e+01 2.634901e+01 2.074993e+01 4.594951e+01 4.381930e+01 2.405243e+01 2.759751e+01 2.983781e+01 1.796813e+01 2.531864e+01 3.887532e-01 1.574907e+00 1.079553e+00 1.692924e+00 1.708117e+00 2.507265e+00 3.269458e+00 1.514641e+00 2.019167e+00 1.905318e+00 1.287100e+00 1.952015e+00 2.426626e-01
<GCONST> 8.801662e+01
<MIXTURE> 4 1.675677e-01
<MEAN> 25
 3.212186e+00 -7.935759e+00 3.111715e+00 -3.291550e+00 5.005171e+00 2.810127e+00 1.169140e+00 -4.942942e+00 -6.606060e+00 -5.945751e+00 -8.310085e+00 -3.809765e-01 1.111614e-01 -1.658865e-01 -4.126429e-01 3.724815e-01 4.848674e-01 -3.585899e-02 -7.219394e-01 2.008004e-01 2.242195e-01 -2.625383e-01 -3.304091e-02 -2.983685e-01 -4.538388e-02
<VARIANCE> 25
 8.784872e+00 3.062473e+01 4.576130e+01 5.037927e+01 1.078642e+02 4.333562e+01 5.101896e+01 4.166776e+01 3.383267e+01 4.922903e+01 3.700050e+01 1.983267e+01 3.598282e-01 1.184624e+00 2.125101e+00 1.803900e+00 3.715693e+00 2.009823e+00 2.236780e+00 3.224380e+00 2.580618e+00 3.477606e+00 2.410834e+00 2.016445e+00 3.433749e-01
<GCONST> 9.659695e+01
<MIXTURE> 5 1.929368e-01
<MEAN> 25
 2.762479e-01 1.111529e+00 9.971893e+00 -4.754791e+00 -1.842174e+00 1.445968e+01 1.047116e+00 -1.059244e+01 4.436501e-01 -4.750981e+00 -7.279042e+00 1.921424e+00 3.142589e-01 9.004986e-01 1.469836e-01 -5.132684e-01 -8.221366e-02 -3.167132e-01 -9.100978e-01 -5.129816e-01 -6.114430e-02 4.657670e-02 -1.554363e-01 -9.236348e-02 -6.482606e-02
<VARIANCE> 25
 1.610445e+01 2.679259e+01 2.729327e+01 5.119862e+01 3.252127e+01 5.100468e+01 4.648905e+01 3.109530e+01 3.560093e+01 2.800223e+01 3.277200e+01 2.603876e+01 3.638534e-01 1.133077e+00 9.605975e-01 1.362047e+00 1.860494e+00 3.060388e+00 2.559304e+00 2.074573e+00 2.378731e+00 2.398152e+00 2.085237e+00 1.843584e+00 2.932073e-01
<GCONST> 9.225298e+01
<MIXTURE> 6 1.094625e-01
<MEAN> 25
 -1.869567e+00 -3.407544e+00 7.084533e-01 1.830320e+00 1.171003e-02 1.154593e+01 7.803520e+00 -5.151014e+00 -6.838288e-01 -1.411549e+00 -1.023969e+00 1.225078e+00 1.758129e+00 2.243396e+00 8.599920e-01 -1.183295e+00 -2.048448e+00 -1.235538e+00 -1.335889e+00 -1.123802e+00 -7.621527e-01 1.355831e-01 -7.157214e-01 -1.192486e+00 4.845230e-01
<VARIANCE> 25
 2.399726e+01 4.057569e+01 7.425992e+01 4.754781e+01 8.014420e+01 5.388872e+01 6.692747e+01 3.093108e+01 3.272665e+01 3.366899e+01 4.169827e+01 2.552848e+01 1.884323e+00 1.978405e+00 2.123562e+00 2.853284e+00 2.920646e+00 4.376328e+00 2.461641e+00 2.521822e+00 4.204482e+00 3.897467e+00 2.786359e+00 2.095198e+00 4.507757e-01
<GCONST> 1.022338e+02
<MIXTURE> 7 1.184306e-01
<MEAN> 25
 1.424273e+00 2.564827e+00 1.094600e+01 -4.266158e+00 -7.204994e+00 1.511245e+01 3.355743e+00 -1.123574e+01 2.491254e+00 -1.774707e+00 -5.190580e+00 2.943403e+00 1.554746e-01 2.639009e-01 -2.996921e-01 -1.275216e-01 -4.071020e-01 -2.050207e-01 1.231521e-02 -9.613393e-02 -2.916693e-01 -4.322394e-02 -9.866723e-02 -6.999560e-01 -1.275890e-01
<VARIANCE> 25
 1.241236e+01 2.187760e+01 1.731990e+01 3.141179e+01 2.154003e+01 5.360880e+01 4.880822e+01 2.368355e+01 2.668910e+01 2.865605e+01 2.014211e+01 2.579343e+01 3.465886e-01 1.318555e+00 1.021736e+00 1.664729e+00 1.627440e+00 2.425513e+00 3.096002e+00 1.597592e+00 1.978505e+00 1.884483e+00 1.358912e+00 2.042778e+00 2.668091e-01
<GCONST> 8.858249e+01
<STATE> 4
<NUMMIXES> 7
<MIXTURE> 1 1.282973e-01
<MEAN> 25
 1.092259e+00 3.594125e+00 5.857396e-01 8.899555e-01 4.723016e-01 7.319867e+00 2.633567e+00 -4.620197e+00 -3.093252e-01 -1.229619e+00 6.262682e-01 1.138252e+00 3.520339e+00 2.323668e+00 1.021549e+00 -2.200737e+00 -2.085586e+00 -1.363309e+00 -1.193089e+00 -7.237328e-01 -1.815008e+00 -5.608180e-01 -1.527233e+00 -1.127360e+00 2.066897e+00
<VARIANCE> 25
 3.365944e+01 5.378033e+01 7.832688e+01 3.614605e+01 9.597616e+01 4.211150e+01 5.308855e+01 3.010281e+01 3.393395e+01 3.334373e+01 3.020946e+01 2.149313e+01 1.516033e+00 4.516141e+00 2.619773e+00 4.151759e+00 3.590519e+00 5.426320e+00 3.748049e+00 3.659500e+00 3.798599e+00 3.982124e+00 3.853853e+00 2.375952e+00 1.095564e+00
<GCONST> 1.055054e+02
<MIXTURE> 2 1.868340e-01
<MEAN> 25
 5.231768e+00 9.130363e-01 7.461295e+00 -2.547320e+00 -1.080786e+01 8.194472e+00 7.941718e+00 -7.689768e+00 3.839095e-01 1.784696e+00 -4.105388e+00 -5.974169e-01 8.800683e-01 -8.169267e-02 -4.741654e-01 -1.431625e+00 -1.591442e+00 -1.658577e+00 2.139502e-02 7.204064e-01 2.273470e-01 1.768641e+00 1.037434e+00 1.915449e-02 7.674080e-01
<VARIANCE> 25
 4.767115e+00 2.870555e+01 1.698754e+01 3.156407e+01 2.810699e+01 4.356641e+01 3.847298e+01 2.218585e+01 2.528491e+01 2.416438e+01 2.072909e+01 1.896383e+01 6.178384e-01 2.210581e+00 1.756288e+00 2.606936e+00 2.723061e+00 2.354659e+00 2.095887e+00 2.435442e+00 2.078471e+00 2.121457e+00 1.815419e+00 1.626977e+00 4.759707e-01
<GCONST> 9.054488e+01
<MIXTURE> 3 1.004622e-01
<MEAN> 25
 7.673348e+00 5.984840e+00 1.542842e+00 -2.928788e+00 -8.993029e+00 2.027872e+00 6.642636e+00 -1.186481e+00 -2.187346e+00 -1.418569e+00 5.970564e-02 7.787147e-01 2.418633e-01 6.691429e-02 -2.995745e-01 -6.259041e-01 -8.053735e-01 -1.189554e-01 2.558570e-01 7.623004e-03 4.950629e-02 8.449595e-01 8.415602e-01 3.134333e-01 7.456420e-02
<VARIANCE> 25
 6.827449e+00 9.716818e+01 3.064707e+01 2.486128e+01 2.180903e+01 2.649001e+01 3.181341e+01 2.545063e+01 1.704414e+01 3.258318e+01 2.319088e+01 1.566969e+01 2.827650e-01 7.072111e-01 1.181079e+00 1.364491e+00 1.526022e+00 1.908329e+00 1.122318e+00 1.686802e+00 1.652909e+00 1.590567e+00 1.453673e+00 1.296539e+00 2.237743e-01
<GCONST> 8.502905e+01
<MIXTURE> 4 1.280360e-01
<MEAN> 25
 4.631124e+00 -3.113333e+00 1.986766e+00 -3.470377e+00 4.433846e+00 5.018095e+00 -8.468441e-01 -4.788333e+00 -2.945521e+00 -3.660912e+00 -6.771837e+00 -3.762918e-01 4.607640e-01 2.351934e-02 -4.752029e-01 -3.480233e-01 -4.956498e-02 -6.215212e-01 -1.765286e-01 5.392251e-01 3.620732e-01 5.899894e-01 -3.317961e-03 1.546369e-01 2.551965e-01
<VARIANCE> 25
 1.024415e+01 5.957090e+01 8.372913e+01 7.443581e+01 9.824609e+01 5.411640e+01 5.494676e+01 5.258731e+01 3.454166e+01 5.659673e+01 3.418729e+01 2.742478e+01 5.076212e-01 1.786952e+00 1.984095e+00 2.615584e+00 2.623865e+00 2.778531e+00 3.266128e+00 3.285961e+00 2.775319e+00 2.751096e+00 2.371691e+00 1.941884e+00 7.112519e-01
<GCONST> 1.011955e+02
<MIXTURE> 5 1.448780e-01
<MEAN> 25
 8.595402e+00 5.416064e+00 -4.847447e+00 -1.361512e+00 1.501706e+00 4.107924e+00 1.456691e+00 -2.288603e+00 -4.843994e+00 -5.707603e+00 -7.669223e-01 -8.349652e-01 3.522892e-01 6.127743e-01 7.488275e-03 -8.876239e-01 -1.418402e+00 -3.509422e-01 5.192804e-01 4.855741e-01 2.105809e-01 -1.348686e-01 -6.905424e-02 2.141266e-02 2.145865e-02
<VARIANCE> 25
 9.299212e+00 1.013273e+02 3.689439e+01 2.856084e+01 5.737291e+01 2.495834e+01 3.127173e+01 2.332661e+01 2.476768e+01 2.378718e+01 2.771268e+01 2.405688e+01 3.253720e-01 7.343472e-01 1.013274e+00 1.382822e+00 1.741415e+00 1.432005e+00 1.474943e+00 1.771003e+00 1.781825e+00 1.640418e+00 1.471417e+00 1.086968e+00 2.048678e-01
<GCONST> 8.723189e+01
<MIXTURE> 6 1.964981e-01
<MEAN> 25
 4.754745e+00 -1.685703e+00 7.593382e+00 -4.145277e+00 -9.437068e+00 7.756172e+00 6.416327e+00 -9.135349e+00 -1.541517e+00 -4.886143e-01 -7.112756e+00 -1.892695e+00 6.736697e-01 -4.368531e-01 -2.860252e-01 -1.333910e+00 -1.416337e+00 -1.819277e+00 -4.397514e-01 6.732857e-01 -1.495837e-01 1.387191e+00 3.795027e-01 -3.751945e-01 8.089579e-01
<VARIANCE> 25
 4.393090e+00 3.723438e+01 1.543504e+01 2.952488e+01 2.879783e+01 5.493297e+01 3.993869e+01 2.435287e+01 2.646800e+01 2.375718e+01 2.196338e+01 1.906464e+01 6.084605e-01 2.064959e+00 1.831296e+00 2.455641e+00 2.692315e+00 2.244018e+00 2.172342e+00 2.818112e+00 2.056885e+00 2.033545e+00 1.831095e+00 1.594881e+00 4.576314e-01
<GCONST> 9.095673e+01
<MIXTURE> 7 1.149954e-01
<MEAN> 25
 3.832721e+00 -5.462298e+00 2.704591e+00 -5.066131e+00 4.268333e+00 3.840091e+00 -1.540870e+00 -6.180380e+00 -5.205490e+00 -4.431412e+00 -8.747248e+00 -1.876609e+00 4.331351e-01 -1.372848e-01 -5.284333e-01 -4.279063e-01 -3.470735e-01 -1.115284e+00 -4.951956e-01 3.705429e-01 -1.338235e-01 2.743441e-01 -4.638714e-01 -2.237990e-01 2.772171e-01
<VARIANCE> 25
 1.001089e+01 5.123245e+01 8.118109e+01 7.412059e+01 1.077310e+02 5.071221e+01 5.138621e+01 5.017255e+01 3.380545e+01 5.249996e+01 3.496616e+01 2.698874e+01 5.102323e-01 1.481496e+00 1.650267e+00 2.637433e+00 2.242352e+00 2.433245e+00 3.035552e+00 3.343252e+00 2.454350e+00 2.531386e+00 2.351957e+00 1.709655e+00 7.581101e-01
<GCONST> 9.982747e+01
<TRANSP> 5
 0.000000e+00 1.000000e+00 0.000000e+00 0.000000e+00 0.000000e+00
 0.000000e+00 7.119064e-01 2.880936e-01 0.000000e+00 0.000000e+00
 0.000000e+00 0.000000e+00 4.502235e-01 5.497764e-01 0.000000e+00
 0.000000e+00 0.000000e+00 0.000000e+00 5.133405e-01 4.866595e-01
 0.000000e+00 0.000000e+00 0.000000e+00 0.000000e+00 0.000000e+00
<ENDHMM>
~h "i"
<BEGINHMM>
<NUMSTATES> 5
<STATE> 2
<NUMMIXES> 7
<MIXTURE> 1 1.413844e-01
<MEAN> 25
 -6.479964e+00 3.419514e+00 8.863344e+00 -5.134203e+00 -5.382994e-01 3.825215e+00 -6.468872e-01 -1.381821e+00 4.166506e+00 5.366374e+00 1.823636e-01 3.721667e+00 2.262032e+00 -7.232785e-01 4.496634e+00 -5.229581e+00 -1.764448e+00 -8.064338e-02 -8.861361e-01 -2.602264e+00 -1.930870e+00 1.259299e+00 -3.830455e+00 4.241098e-01 4.326719e+00
<VARIANCE> 25
 2.204622e+01 2.443703e+01 6.518684e+01 1.035767e+02 3.783870e+01 3.944276e+01 3.811149e+01 4.310501e+01 3.793622e+01 5.168489e+01 4.800975e+01 2.893984e+01 2.409507e+00 3.641684e+00 4.103122e+00 8.285649e+00 4.340437e+00 4.198600e+00 2.952248e+00 3.643707e+00 3.733676e+00 3.680969e+00 4.434481e+00 2.745773e+00 4.384314e+00
<GCONST> 1.081583e+02
<MIXTURE> 2 1.285161e-01
<MEAN> 25
 2.745825e+00 4.997685e+00 1.454306e+01 -1.126196e+01 -7.578814e+00 4.123236e+00 -3.669392e+00 -9.271087e+00 7.318410e-01 2.271637e+00 -7.729276e+00 2.262120e+00 4.619197e-01 1.661647e-02 1.717064e+00 -2.711311e+00 1.726313e-01 5.248825e-01 -1.381191e+00 1.444389e-01 2.069336e-01 1.000525e+00 -1.963597e+00 1.024088e+00 1.079479e+00
<VARIANCE> 25
 8.012816e+00 2.732526e+01 1.588190e+01 5.463084e+01 4.009636e+01 3.133184e+01 2.514887e+01 2.426535e+01 2.332673e+01 3.638401e+01 2.174972e+01 2.441139e+01 1.727715e+00 2.982178e+00 2.857467e+00 4.520138e+00 3.666187e+00 4.155197e+00 4.614517e+00 4.727392e+00 3.932114e+00 3.675335e+00 4.888228e+00 2.670813e+00 9.969720e-01
<GCONST> 9.991075e+01
<MIXTURE> 3 1.967591e-01
<MEAN> 25
 5.624067e+00 -3.080076e+00 8.476305e+00 -2.667520e+00 -1.124286e+01 -5.362265e+00 2.631291e+00 -4.037228e+00 -4.104835e+00 3.680182e+00 -6.639370e-01 -5.937234e-01 1.170041e-01 -4.531440e-01 1.710334e+00 -1.896941e+00 -1.231615e+00 2.346504e-01 2.800845e-01 -1.139198e+00 -1.715274e-01 2.069424e+00 -1.100618e+00 6.751499e-01 8.350796e-01
<VARIANCE> 25
 7.496538e+00 3.147112e+01 2.283972e+01 2.791412e+01 3.121938e+01 3.478712e+01 2.550335e+01 3.446394e+01 2.007187e+01 3.018486e+01 2.649278e+01 1.746882e+01 1.031088e+00 2.187041e+00 2.073383e+00 2.436494e+00 3.203075e+00 3.601764e+00 3.286727e+00 3.923881e+00 3.429639e+00 2.671064e+00 3.617320e+00 1.913396e+00 6.025859e-01
<GCONST> 9.525948e+01
<MIXTURE> 4 2.032901e-01
<MEAN> 25
 2.154247e+00 3.084257e-01 1.398198e+01 -1.555270e+01 -8.807257e+00 -1.451398e+00 -2.975905e+00 -9.832105e+00 -3.270517e+00 3.644672e+00 -6.539060e+00 2.243116e-01 2.671941e+00 -1.088542e+00 2.196660e+00 -2.987663e+00 -1.826565e+00 -1.062628e+00 -1.277830e+00 -7.061750e-01 -2.104011e+00 1.016376e+00 -3.647150e+00 -2.275702e-01 2.999351e+00
<VARIANCE> 25
 5.567228e+00 3.236399e+01 2.173844e+01 4.748627e+01 3.235067e+01 3.948709e+01 2.973163e+01 2.640209e+01 1.961124e+01 3.437357e+01 2.848752e+01 1.845830e+01 1.760293e+00 4.040132e+00 5.174331e+00 4.537172e+00 3.565591e+00 4.468109e+00 4.872876e+00 3.185100e+00 2.962955e+00 3.937631e+00 5.547035e+00 2.520964e+00 2.294932e+00
<GCONST> 1.012307e+02
<MIXTURE> 5 9.953443e-02
<MEAN> 25
 4.267199e+00 -5.856507e+00 1.244125e+01 -6.989660e+00 -9.269167e+00 -4.454801e+00 8.228965e-01 -1.874570e+00 -7.062212e+00 4.885559e+00 -1.395085e+00 -1.959756e+00 -3.878707e-01 -1.411356e+00 2.371728e+00 -3.110663e+00 -1.684297e-01 4.381326e-01 2.488328e-01 -4.166049e-02 -6.148059e-01 2.796048e+00 -1.224798e+00 5.448671e-01 1.470603e+00
<VARIANCE> 25
 5.086303e+00 2.490344e+01 1.796074e+01 2.334708e+01 2.273332e+01 3.063196e+01 1.903259e+01 2.587780e+01 1.677097e+01 2.639621e+01 2.804619e+01 2.026862e+01 1.102877e+00 1.910115e+00 2.163394e+00 3.524867e+00 2.797224e+00 2.836000e+00 2.555212e+00 3.307136e+00 2.559662e+00 2.816494e+00 3.078509e+00 1.774573e+00 6.964811e-01
<GCONST> 9.230185e+01
<MIXTURE> 6 1.308642e-01
<MEAN> 25
 2.268986e+00 2.503664e+00 1.416232e+01 -1.344903e+01 -7.574728e+00 3.767070e+00 -5.154202e+00 -1.057300e+01 -1.493170e+00 6.090856e-01 -9.722586e+00 4.346493e-01 4.144739e-01 -3.130503e-01 1.470235e+00 -2.985394e+00 -3.687931e-02 3.296097e-01 -1.589749e+00 1.068216e-01 -1.367536e-01 6.321449e-01 -2.572441e+00 4.490756e-01 1.137859e+00
<VARIANCE> 25
 6.760559e+00 2.505131e+01 1.542962e+01 4.287863e+01 4.102645e+01 3.574000e+01 2.585291e+01 2.388128e+01 2.482258e+01 3.494879e+01 2.165506e+01 2.179150e+01 1.681921e+00 2.466925e+00 3.054217e+00 4.448966e+00 3.554627e+00 4.380020e+00 4.164268e+00 4.578136e+00 3.833418e+00 3.594776e+00 5.193162e+00 2.755991e+00 8.082653e-01
<GCONST> 9.900876e+01
<MIXTURE> 7 9.964952e-02
<MEAN> 25
 3.553123e+00 -7.259565e+00 1.215827e+01 -8.884470e+00 -9.900923e+00 -4.645261e+00 -1.923577e-01 -3.015562e+00 -8.500866e+00 2.693375e+00 -3.184671e+00 -3.329636e+00 -3.961076e-01 -1.564589e+00 2.054323e+00 -3.341835e+00 -3.887507e-01 2.720815e-01 -1.142734e-01 -2.046081e-01 -1.005871e+00 2.120636e+00 -1.813430e+00 3.533796e-02 1.397988e+00
<VARIANCE> 25
 5.718112e+00 2.289158e+01 2.024337e+01 2.458114e+01 2.354733e+01 3.094304e+01 1.962701e+01 2.503362e+01 1.810304e+01 2.365935e+01 3.043173e+01 2.000608e+01 1.316519e+00 1.921052e+00 2.363351e+00 3.815799e+00 3.004712e+00 3.049683e+00 2.411098e+00 3.568462e+00 2.859396e+00 3.121936e+00 3.333425e+00 1.872596e+00 7.376394e-01
<GCONST> 9.350140e+01
<STATE> 3
<NUMMIXES> 7
<MIXTURE> 1 1.335302e-01
<MEAN> 25
 4.688795e+00 -4.606490e+00 1.182635e+01 -7.592285e+00 -9.513577e+00 -5.075016e+00 2.585049e+00 -3.746714e+00 -3.998235e+00 7.396702e+00 -2.385916e+00 1.124669e+00 -2.770972e-02 5.481145e-01 4.529743e-01 -1.206642e-01 4.878557e-01 2.257713e-01 -1.138581e-02 -6.446918e-02 2.627397e-01 4.444980e-01 -4.085903e-01 9.324506e-01 -2.072083e-01
<VARIANCE> 25
 6.787534e+00 2.795475e+01 2.052294e+01 2.616212e+01 2.224896e+01 3.575328e+01 2.164997e+01 3.103575e+01 2.151516e+01 2.836925e+01 2.456192e+01 1.818958e+01 3.848420e-01 1.337128e+00 1.086941e+00 1.994937e+00 1.507383e+00 1.831329e+00 1.892006e+00 2.656802e+00 1.860115e+00 1.800884e+00 2.412335e+00 1.328588e+00 3.833591e-01
<GCONST> 8.733824e+01
<MIXTURE> 2 1.868464e-01
<MEAN> 25
 1.597455e+00 -2.354657e-01 1.674013e+01 -1.804638e+01 -5.030371e+00 1.328423e+00 -4.411888e+00 -7.909443e+00 -2.471054e+00 5.637714e+00 -1.070194e+01 2.745029e+00 3.848835e-01 -9.355220e-01 -3.078204e-01 1.128331e+00 -7.876321e-01 -7.965748e-01 9.691711e-01 2.131938e-01 -6.895587e-01 5.051839e-01 3.779810e-01 -2.366958e-01 3.614655e-01
<VARIANCE> 25
 4.656739e+00 2.641217e+01 1.373724e+01 2.074308e+01 2.515959e+01 2.762293e+01 2.382835e+01 1.975570e+01 1.638149e+01 2.720431e+01 1.968545e+01 2.171890e+01 4.326810e-01 1.408429e+00 1.081866e+00 2.556923e+00 1.409493e+00 2.120396e+00 1.567104e+00 2.000447e+00 1.765856e+00 2.268094e+00 1.706380e+00 1.790444e+00 6.784838e-01
<GCONST> 8.614334e+01
<MIXTURE> 3 1.921226e-01
<MEAN> 25
 3.412394e+00 8.808308e+00 1.344143e+01 -1.222419e+01 -5.186692e+00 5.070697e+00 -8.255376e+00 -5.413548e+00 2.852669e+00 -1.474927e+00 -7.712587e+00 2.432466e+00 -7.105763e-02 4.121206e-01 8.335035e-02 -3.734937e-01 4.207525e-01 1.178335e-01 -5.137984e-01 1.864980e-01 3.636558e-01 9.332077e-02 -1.702148e-01 4.963153e-01 -1.625162e-01
<VARIANCE> 25
 3.554277e+00 2.103504e+01 1.442386e+01 3.340603e+01 3.003773e+01 1.851291e+01 1.690844e+01 2.784611e+01 1.664454e+01 2.505634e+01 2.249670e+01 2.064902e+01 2.140279e-01 9.823956e-01 8.893651e-01 1.991161e+00 2.024701e+00 1.430775e+00 1.957348e+00 2.159908e+00 1.340994e+00 1.840903e+00 1.604791e+00 1.162313e+00 3.559147e-01
<GCONST> 8.309992e+01
<MIXTURE> 4 1.075756e-01
<MEAN> 25
 1.389139e+00 -1.480728e+00 1.779317e+01 -1.726918e+01 -4.969681e+00 1.987403e+00 -3.784583e+00 -6.175987e+00 -4.595773e+00 4.298162e+00 -1.154771e+01 1.084931e+00 1.622963e-01 4.729939e-01 -3.196373e-01 7.628397e-01 -1.868079e-02 1.634722e-01 1.726786e-01 -1.954354e-01 9.296621e-02 -3.615289e-01 -4.356490e-02 2.925219e-01 -4.002122e-01
<VARIANCE> 25
 3.684429e+00 2.447678e+01 8.985264e+00 1.333755e+01 1.804895e+01 2.303012e+01 2.153007e+01 1.527144e+01 1.473927e+01 2.218665e+01 1.535397e+01 1.226053e+01 1.795455e-01 9.250686e-01 6.181528e-01 1.481334e+00 8.997700e-01 1.483062e+00 1.212541e+00 1.553688e+00 1.330428e+00 1.408823e+00 1.466844e+00 1.057604e+00 2.904471e-01
<GCONST> 7.695763e+01
<MIXTURE> 5 1.395297e-01
<MEAN> 25
 1.987039e+00 1.682414e+00 1.505137e+01 -1.599785e+01 -3.868265e+00 5.638039e+00 -6.945270e+00 -8.403541e+00 -2.316338e+00 9.602562e-01 -1.189895e+01 1.174273e-01 -1.130980e-01 3.116460e-02 2.967274e-01 -8.327177e-01 5.043155e-01 -5.497342e-02 -3.865922e-01 2.870652e-01 7.613029e-02 3.864198e-01 -8.288832e-01 2.604650e-01 1.449981e-01
<VARIANCE> 25
 5.160321e+00 2.015796e+01 1.324131e+01 1.791113e+01 3.889700e+01 3.596322e+01 2.821739e+01 3.202229e+01 1.865287e+01 2.774384e+01 1.827189e+01 1.849763e+01 2.961258e-01 9.830969e-01 7.416920e-01 1.642270e+00 1.879074e+00 2.106065e+00 1.442341e+00 2.079461e+00 1.606487e+00 2.383514e+00 1.969422e+00 1.547078e+00 3.376864e-01
<GCONST> 8.499040e+01
<MIXTURE> 6 1.481532e-01
<MEAN> 25
 3.850191e+00 -7.247640e+00 1.190005e+01 -9.643477e+00 -9.720904e+00 -5.824051e+00 1.665673e+00 -3.748396e+00 -6.173422e+00 5.853136e+00 -4.540795e+00 -1.376259e-01 -1.449653e-01 3.061984e-01 1.785938e-01 -2.609093e-01 2.416505e-01 -1.271773e-02 -3.775307e-01 -4.725562e-01 -1.534478e-01 -4.418188e-02 -9.480051e-01 4.748719e-01 -2.577161e-01
<VARIANCE> 25
 5.898278e+00 2.410350e+01 1.741806e+01 2.630285e+01 1.961442e+01 3.189720e+01 2.360948e+01 2.861113e+01 1.941236e+01 2.670640e+01 2.390734e+01 1.982913e+01 3.242709e-01 1.229658e+00 1.055375e+00 1.754553e+00 1.346578e+00 1.712830e+00 1.844151e+00 2.505549e+00 1.783171e+00 1.895380e+00 2.148419e+00 1.399564e+00 3.610052e-01
<GCONST> 8.576028e+01
<MIXTURE> 7 9.223523e-02
<MEAN> 25
 8.397968e-01 -2.965660e+00 1.708762e+01 -1.827669e+01 -5.832367e+00 1.158016e+00 -4.506253e+00 -7.538093e+00 -6.321947e+00 3.210164e+00 -1.273639e+01 3.394264e-01 5.239419e-02 2.941855e-01 -5.491251e-01 6.429617e-01 -3.049337e-01 -1.891673e-01 -2.637099e-02 -5.527807e-01 -2.940255e-01 -6.310046e-01 -3.348634e-01 -1.510460e-02 -4.815200e-01
<VARIANCE> 25
 3.789024e+00 2.334323e+01 9.157191e+00 1.189352e+01 1.862134e+01 2.365148e+01 2.187318e+01 1.564020e+01 1.391878e+01 2.144596e+01 1.558458e+01 1.251970e+01 1.763248e-01 9.625632e-01 6.362111e-01 1.489815e+00 9.129717e-01 1.546241e+00 1.219577e+00 1.491606e+00 1.401913e+00 1.511737e+00 1.580097e+00 1.132063e+00 3.025123e-01
<GCONST> 7.726806e+01
<STATE> 4
<NUMMIXES> 7
<MIXTURE> 1 1.213071e-01
<MEAN> 25
 -3.337685e-01 9.656720e+00 7.397092e+00 3.673067e+00 -5.334475e+00 -4.457644e-01 -2.196585e+00 -4.124290e+00 2.298113e+00 9.060496e-01 1.965922e+00 1.579952e+00 -1.027214e+00 1.274921e-01 -1.179136e+00 1.103169e+00 1.090711e+00 -2.490351e-01 -1.429935e-02 1.168772e+00 6.531370e-01 1.700322e-01 1.504686e+00 -8.654857e-02 -1.293606e+00
<VARIANCE> 25
 1.337753e+01 1.943715e+01 1.723851e+01 2.225590e+01 4.200393e+01 2.769573e+01 2.740883e+01 2.326860e+01 2.431705e+01 3.770152e+01 2.296630e+01 1.980016e+01 5.222421e-01 1.741898e+00 1.246549e+00 2.189745e+00 2.558458e+00 2.014250e+00 2.474570e+00 1.947557e+00 2.390968e+00 2.172905e+00 2.168884e+00 1.661351e+00 6.381477e-01
<GCONST> 9.051727e+01
<MIXTURE> 2 1.179040e-01
<MEAN> 25
 5.126443e+00 3.919084e-02 9.552321e+00 -1.433776e+00 -9.272439e+00 -5.722565e+00 2.124677e+00 -4.486579e+00 -4.353239e+00 4.446530e+00 -2.271287e+00 2.015743e+00 -4.593973e-01 2.451986e+00 -6.222316e-01 2.514389e+00 6.076679e-01 5.488121e-01 3.819830e-02 2.444512e-01 7.840555e-01 -1.139064e+00 1.154308e+00 -7.045956e-02 -2.175772e+00
<VARIANCE> 25
 5.486821e+00 2.727208e+01 1.923723e+01 3.114716e+01 2.290838e+01 3.446886e+01 1.986020e+01 3.288457e+01 1.841665e+01 3.060705e+01 2.794465e+01 1.981066e+01 5.834354e-01 8.714921e-01 8.636568e-01 1.595512e+00 1.819302e+00 1.754151e+00 1.782231e+00 2.098859e+00 1.907105e+00 1.807364e+00 2.344645e+00 1.802539e+00 6.613105e-01
<GCONST> 8.754412e+01
<MIXTURE> 3 1.485236e-01
<MEAN> 25
 2.129528e+00 5.753634e+00 1.357009e+01 -1.012467e+01 -6.953578e+00 2.748950e+00 -4.865570e+00 -8.784156e+00 1.258612e+00 2.109573e+00 -7.585555e+00 3.336294e+00 -4.403892e-01 2.305800e-01 -5.835941e-01 1.462029e+00 4.566302e-02 -5.703075e-01 6.091287e-01 1.356077e-01 2.742472e-01 5.347969e-02 1.109227e+00 1.554287e-01 -7.214735e-01
<VARIANCE> 25
 9.145489e+00 3.375500e+01 1.729059e+01 4.988164e+01 3.059304e+01 2.930783e+01 3.213292e+01 2.643905e+01 2.401691e+01 4.023922e+01 2.894178e+01 2.513395e+01 8.658592e-01 3.107055e+00 1.971755e+00 4.364738e+00 2.634798e+00 2.535603e+00 2.408002e+00 2.678943e+00 2.417627e+00 3.452477e+00 3.011187e+00 1.818892e+00 1.774491e+00
<GCONST> 9.674712e+01
<MIXTURE> 4 2.158118e-01
<MEAN> 25
 3.697800e+00 -3.557528e+00 1.263519e+01 -9.409178e+00 -8.213208e+00 -2.894293e+00 -9.681384e-02 -5.853817e+00 -7.206841e+00 3.725544e+00 -7.448092e+00 -2.318613e-01 5.055524e-01 9.063164e-01 -1.604080e+00 2.911969e+00 -2.384719e-02 -7.695287e-01 4.962517e-02 1.006850e-01 -3.815385e-01 -1.513007e+00 9.619067e-01 -2.069212e-01 -1.135082e+00
<VARIANCE> 25
 4.670999e+00 3.216945e+01 1.474480e+01 2.221990e+01 2.379352e+01 3.704199e+01 2.019732e+01 3.276712e+01 2.190707e+01 3.087962e+01 3.076684e+01 1.829029e+01 3.940314e-01 1.396687e+00 9.004082e-01 1.778832e+00 1.457368e+00 2.250128e+00 1.981041e+00 2.509197e+00 1.746487e+00 1.766816e+00 2.266620e+00 1.393299e+00 4.213165e-01
<GCONST> 8.695477e+01
<MIXTURE> 5 1.564797e-01
<MEAN> 25
 6.761993e-02 5.630952e+00 1.260402e+01 -4.945537e+00 -7.514116e+00 -2.182071e-01 -3.283416e+00 -9.023297e+00 -1.901965e+00 2.272010e+00 -5.415931e+00 1.457012e+00 -8.597848e-01 1.308364e+00 -1.043585e+00 2.287331e+00 -1.823179e-01 3.084596e-01 -3.385413e-02 -8.688760e-03 8.887490e-01 -6.040240e-01 1.263960e+00 -4.987703e-01 -2.156511e+00
<VARIANCE> 25
 9.375739e+00 2.361633e+01 1.382669e+01 4.375779e+01 3.142013e+01 2.737239e+01 2.892725e+01 2.382094e+01 2.796386e+01 3.847117e+01 2.537727e+01 2.931290e+01 4.658369e-01 1.294292e+00 7.682331e-01 2.239140e+00 1.706042e+00 1.913005e+00 1.716293e+00 1.800185e+00 2.178249e+00 1.817746e+00 2.146117e+00 1.612818e+00 6.906523e-01
<GCONST> 8.923232e+01
<MIXTURE> 6 1.223506e-01
<MEAN> 25
 -1.355606e+00 8.048937e+00 6.673583e+00 2.715347e+00 -6.888191e+00 -2.042401e+00 -3.190408e+00 -5.743830e+00 9.813795e-01 8.082643e-01 8.577056e-01 6.207284e-01 -1.079608e+00 -8.337840e-02 -1.500260e+00 9.506699e-01 7.594563e-01 -4.379260e-01 -2.631223e-01 8.159689e-01 2.826031e-01 -3.021721e-01 1.155259e+00 -3.632561e-01 -1.362531e+00
<VARIANCE> 25
 1.091021e+01 1.643912e+01 1.573067e+01 2.226755e+01 3.696078e+01 2.481450e+01 2.632187e+01 2.403559e+01 2.513028e+01 3.912157e+01 2.349082e+01 2.076837e+01 4.583860e-01 1.401905e+00 1.099076e+00 2.121782e+00 2.688641e+00 1.943699e+00 2.339629e+00 1.917337e+00 2.421569e+00 2.253812e+00 1.952940e+00 1.738992e+00 5.069410e-01
<GCONST> 8.914643e+01
<MIXTURE> 7 1.176169e-01
<MEAN> 25
 3.964710e+00 -2.134198e+00 9.696977e+00 -3.624394e+00 -9.899279e+00 -7.290634e+00 4.393147e-01 -5.373152e+00 -6.049132e+00 3.013494e+00 -3.889444e+00 8.833980e-01 -5.184695e-01 2.198306e+00 -8.721548e-01 2.355007e+00 1.877024e-01 2.993306e-01 -3.319936e-01 -3.822749e-01 3.100253e-01 -1.488814e+00 7.426440e-01 -4.838181e-01 -2.227681e+00
<VARIANCE> 25
