~o
<STREAMINFO> 1 25
<VECSIZE> 25<NULLD><MFCC_D_N_Z_0><DIAGC>
~s "silst"
<NUMMIXES> 5
<MIXTURE> 1 2.122916e-01
<MEAN> 25
 -9.839587e+00 5.597136e+00 -2.596584e+00 5.187450e+00 1.792802e+00 8.237709e-01 -1.341937e-01 5.195544e+00 6.681668e+00 6.361300e+00 1.004682e+01 3.054970e+00 1.472656e-01 2.056827e-01 4.201615e-01 3.817439e-01 5.004475e-01 4.313610e-01 5.104824e-01 3.783235e-01 2.770786e-01 1.038733e-01 9.605858e-03 -5.847108e-02 1.643210e-01
<VARIANCE> 25
 3.448561e+00 6.975650e+00 9.683423e+00 9.934980e+00 1.630197e+01 1.471448e+01 1.440528e+01 1.554915e+01 1.582771e+01 1.443186e+01 1.392645e+01 1.186915e+01 1.191179e-01 2.700904e-01 3.907982e-01 5.957118e-01 7.506517e-01 9.317695e-01 1.015454e+00 1.187959e+00 1.365218e+00 1.327356e+00 1.226640e+00 1.130434e+00 9.304304e-02
<GCONST> 6.860702e+01
<MIXTURE> 2 2.651424e-01
<MEAN> 25
 -9.316654e+00 6.441300e+00 -1.859814e+00 5.782936e+00 2.163920e+00 9.530130e-01 -1.087569e-01 4.615953e+00 6.492729e+00 5.953517e+00 9.808067e+00 2.734667e+00 -3.076288e-02 -8.977900e-02 -1.202527e-01 -2.147785e-01 -2.227366e-01 -2.831315e-01 -2.156448e-01 -1.555774e-01 4.030065e-02 1.730365e-01 2.504810e-01 2.052058e-01 3.485352e-02
<VARIANCE> 25
 3.025848e+00 6.181395e+00 8.403098e+00 8.573543e+00 1.382616e+01 1.277051e+01 1.278389e+01 1.412277e+01 1.421819e+01 1.394632e+01 1.313392e+01 1.147743e+01 1.031942e-01 2.287692e-01 3.604306e-01 5.430355e-01 6.753991e-01 8.311451e-01 1.022991e+00 1.143099e+00 1.230337e+00 1.244367e+00 1.197088e+00 1.116484e+00 5.643873e-02
<GCONST> 6.587119e+01
<MIXTURE> 3 1.497736e-01
<MEAN> 25
 -9.234061e+00 6.454134e+00 -1.788051e+00 5.673418e+00 2.138802e+00 9.034865e-01 -1.155071e-01 4.523267e+00 6.413070e+00 5.603422e+00 9.483960e+00 2.393994e+00 3.516974e-02 7.901838e-02 1.456195e-01 2.103141e-01 2.795278e-01 3.240163e-01 3.827784e-01 3.634898e-01 3.615949e-01 3.624795e-01 3.416201e-01 2.151734e-01 2.330070e-02
<VARIANCE> 25
 2.755224e+00 5.864563e+00 7.680515e+00 8.367865e+00 1.291012e+01 1.230177e+01 1.243823e+01 1.345705e+01 1.301306e+01 1.296446e+01 1.314631e+01 1.086520e+01 7.750671e-02 1.841293e-01 3.036305e-01 4.203629e-01 5.520777e-01 7.330557e-01 8.711877e-01 1.004854e+00 1.098308e+00 1.147436e+00 1.128193e+00 1.035856e+00 3.544844e-02
<GCONST> 6.287208e+01
<MIXTURE> 4 1.888108e-01
<MEAN> 25
 -9.414785e+00 6.041202e+00 -1.957066e+00 4.826083e+00 1.467083e+00 5.801247e-02 -1.227561e+00 3.264971e+00 5.012683e+00 4.534911e+00 8.488643e+00 2.074387e+00 -1.224207e-01 -2.305556e-01 -3.140434e-01 -4.186551e-01 -4.937197e-01 -5.806153e-01 -5.787745e-01 -5.423377e-01 -4.336890e-01 -3.513047e-01 -2.627784e-01 -1.497041e-01 -1.696148e-02
<VARIANCE> 25
 3.191869e+00 6.411246e+00 8.627868e+00 8.746551e+00 1.334249e+01 1.292097e+01 1.254872e+01 1.440608e+01 1.482092e+01 1.423880e+01 1.399316e+01 1.181403e+01 1.046040e-01 2.379399e-01 3.846754e-01 5.744985e-01 7.390017e-01 8.232011e-01 1.061006e+00 1.180041e+00 1.218238e+00 1.174662e+00 1.223401e+00 1.088818e+00 5.324287e-02
<GCONST> 6.633323e+01
<MIXTURE> 5 1.839256e-01
<MEAN> 25
 -9.224870e+00 6.037584e+00 -2.229533e+00 4.477294e+00 8.629647e-01 -5.154808e-01 -1.549750e+00 3.147681e+00 5.121653e+00 4.474103e+00 8.317365e+00 1.621315e+00 -2.391216e-02 -9.184632e-03 2.546899e-02 7.214291e-02 1.194648e-01 1.214025e-01 7.366932e-02 -2.765333e-02 -1.256936e-01 -2.151618e-01 -2.443162e-01 -1.942207e-01 1.861960e-04
<VARIANCE> 25
 3.090872e+00 6.692846e+00 8.662901e+00 8.781954e+00 1.368751e+01 1.302518e+01 1.254560e+01 1.381177e+01 1.436291e+01 1.358192e+01 1.274739e+01 1.132147e+01 8.174776e-02 1.912366e-01 3.136155e-01 4.555654e-01 5.829880e-01 7.582772e-01 9.065113e-01 1.036697e+00 1.116969e+00 1.119446e+00 1.105994e+00 1.014478e+00 3.901771e-02
<GCONST> 6.400411e+01
~h "a"
<BEGINHMM>
<NUMSTATES> 5
<STATE> 2
<NUMMIXES> 5
<MIXTURE> 1 1.783671e-01
<MEAN> 25
 -5.157560e+00 -1.680260e+00 -1.316669e+00 9.536745e-01 1.854226e+00 -3.154581e+00 1.903440e+00 1.497257e+00 3.450762e+00 -1.563471e-01 4.021871e+00 2.781772e+00 6.670075e-01 -5.078225e-01 -1.542175e-01 -2.389491e-01 1.019304e+00 1.146625e-01 -3.159780e-01 4.626590e-01 -5.853438e-02 -2.111418e-01 -1.007916e+00 2.519090e-02 4.592457e-01
<VARIANCE> 25
 4.040568e+01 5.045095e+01 7.583429e+01 6.879836e+01 7.288610e+01 6.555393e+01 6.000466e+01 6.180164e+01 4.535336e+01 5.498250e+01 5.482337e+01 3.703166e+01 4.762795e+00 6.977236e+00 5.502551e+00 5.771644e+00 8.169404e+00 4.855418e+00 4.999781e+00 5.476644e+00 3.821570e+00 5.104281e+00 4.815215e+00 3.194266e+00 5.255226e+00
<GCONST> 1.155693e+02
<MIXTURE> 2 2.459322e-01
<MEAN> 25
 7.332510e+00 -1.104662e+01 -4.339244e+00 -4.900684e+00 3.755774e+00 -3.806732e+00 -3.401169e-01 6.806796e+00 1.708139e+00 -1.310514e+00 -9.351797e+00 -9.716357e-02 1.692297e-01 -1.583285e+00 6.917452e-01 -7.895123e-01 6.969709e-01 -1.178280e-01 1.281510e+00 1.769013e+00 -5.654328e-01 -1.467730e-01 -1.591958e+00 5.111334e-01 1.223738e+00
<VARIANCE> 25
 1.135689e+01 1.955068e+01 3.579768e+01 3.659992e+01 5.363815e+01 4.529190e+01 3.814253e+01 2.466352e+01 3.529032e+01 5.332473e+01 3.035485e+01 3.911903e+01 1.134394e+00 1.732035e+00 2.798548e+00 2.772670e+00 4.152936e+00 3.599416e+00 3.364347e+00 3.088094e+00 2.965847e+00 4.511675e+00 3.149858e+00 3.519244e+00 1.049397e+00
<GCONST> 1.006066e+02
<MIXTURE> 3 1.838379e-01
<MEAN> 25
 3.936042e+00 7.364425e-01 3.164994e-01 1.902853e+00 -3.544081e+00 -3.435412e+00 -1.225733e+00 -9.297152e-01 -1.047671e+00 -2.103825e+00 -3.619391e-01 1.725273e-01 -8.532545e-01 7.559463e-01 -2.900486e-01 6.662452e-01 6.039348e-01 3.303927e-01 2.301650e-01 5.019174e-01 5.303067e-01 5.082040e-02 7.267102e-01 4.135206e-03 -1.184903e+00
<VARIANCE> 25
 2.044230e+01 6.221728e+01 5.806579e+01 6.048025e+01 5.555149e+01 4.659858e+01 5.495788e+01 5.608830e+01 4.081589e+01 4.804513e+01 3.793707e+01 3.079871e+01 8.283966e-01 1.918508e+00 1.756459e+00 2.201967e+00 2.406326e+00 2.212159e+00 2.460253e+00 2.340067e+00 2.415047e+00 2.462029e+00 2.420555e+00 1.916801e+00 9.093354e-01
<GCONST> 1.002568e+02
<MIXTURE> 4 1.723922e-01
<MEAN> 25
 6.112627e+00 -1.248022e+01 -2.014227e+00 -6.942586e+00 3.392337e+00 -4.969745e+00 -5.383063e-01 5.405954e+00 -2.647664e+00 -2.841797e+00 -9.146382e+00 5.798625e-01 1.289057e+00 -1.991847e+00 5.413589e-01 -1.845013e+00 6.971913e-01 -2.306437e-01 1.249143e-01 1.090052e+00 -1.532854e+00 2.571986e-02 -2.459021e+00 -6.888424e-01 2.267672e+00
<VARIANCE> 25
 8.385144e+00 2.482695e+01 3.795953e+01 3.745518e+01 6.853601e+01 4.604029e+01 3.189346e+01 3.555711e+01 3.376557e+01 5.294015e+01 2.879711e+01 3.033683e+01 2.233650e+00 2.677371e+00 2.977286e+00 3.058297e+00 4.899659e+00 3.914678e+00 3.562178e+00 3.281845e+00 3.157624e+00 3.905864e+00 3.753079e+00 2.886882e+00 2.681125e+00
<GCONST> 1.031879e+02
<MIXTURE> 5 2.194822e-01
<MEAN> 25
 4.762695e+00 -2.418149e+00 3.784904e+00 -7.919978e-01 -5.028237e+00 -4.619056e+00 -1.552961e+00 -2.052922e+00 -4.089648e+00 -2.774302e+00 -3.762757e+00 -1.314972e-01 -3.315324e-01 1.234166e+00 -5.219355e-01 1.136001e+00 4.300013e-01 1.442116e-01 -1.145683e-01 -1.496724e-01 1.660058e-01 -5.460146e-01 2.614436e-01 -3.470361e-01 -1.226591e+00
<VARIANCE> 25
 1.237907e+01 5.342812e+01 5.078722e+01 7.441837e+01 4.583805e+01 4.473983e+01 4.913547e+01 5.542389e+01 3.929289e+01 5.439193e+01 3.145515e+01 2.879147e+01 8.129507e-01 1.728671e+00 1.405603e+00 2.608254e+00 2.223015e+00 2.444625e+00 2.693445e+00 2.427091e+00 2.142277e+00 2.604447e+00 2.394751e+00 1.962147e+00 9.827426e-01
<GCONST> 9.914878e+01
<STATE> 3
<NUMMIXES> 5
<MIXTURE> 1 2.811728e-01
<MEAN> 25
 -7.064131e-01 2.007106e+00 -3.004831e-01 4.434361e+00 -1.124619e+00 -4.099686e+00 -1.069336e-01 1.110799e-01 5.479378e-01 -2.134911e+00 2.654334e+00 3.304402e-01 -6.423631e-01 9.772885e-01 -3.062661e-01 5.992666e-01 4.536856e-01 5.153856e-01 -3.864780e-02 3.877426e-01 3.219201e-01 -9.541374e-03 2.385032e-01 -3.350087e-01 -1.380571e+00
<VARIANCE> 25
 4.169329e+01 4.201562e+01 5.231686e+01 4.123349e+01 5.976200e+01 4.592847e+01 5.377982e+01 5.493724e+01 5.042097e+01 4.536095e+01 3.750872e+01 2.855523e+01 2.462608e+00 2.361215e+00 2.530402e+00 2.649488e+00 3.252805e+00 3.128457e+00 3.102280e+00 2.943055e+00 2.844761e+00 3.031467e+00 3.426732e+00 2.175261e+00 1.329466e+00
<GCONST> 1.043547e+02
<MIXTURE> 2 2.760586e-01
<MEAN> 25
 7.616917e+00 -1.176532e+01 -3.746501e+00 -4.116399e+00 4.253519e+00 -3.350058e+00 2.789654e+00 7.608160e+00 -4.923889e-01 -2.333344e+00 -9.812554e+00 7.412480e-02 3.867128e-02 2.373340e-01 3.374625e-01 3.441691e-01 -2.274933e-02 2.561110e-02 4.310302e-01 2.244043e-01 -3.196984e-01 2.172770e-01 2.577875e-01 4.604949e-02 -1.509780e-01
<VARIANCE> 25
 5.497790e+00 1.774994e+01 2.765913e+01 3.005950e+01 4.649615e+01 3.912824e+01 3.223096e+01 2.611844e+01 3.234190e+01 4.860584e+01 2.326355e+01 3.036427e+01 3.167187e-01 1.349570e+00 1.359079e+00 1.381223e+00 3.182951e+00 2.563095e+00 2.728502e+00 2.301483e+00 2.080096e+00 2.695847e+00 2.077191e+00 2.233273e+00 4.848469e-01
<GCONST> 9.166369e+01
<MIXTURE> 3 9.852435e-02
<MEAN> 25
 7.929983e+00 -5.388793e+00 -3.965455e+00 5.814284e-01 -1.380540e-01 -5.861942e+00 5.512786e-01 4.589371e+00 1.346068e+00 -1.742041e+00 -7.066514e+00 4.030731e-02 -6.253806e-01 1.158728e+00 5.689318e-01 1.063234e+00 -4.449726e-01 1.861639e-01 7.705799e-01 2.950131e-01 -1.138847e-01 -4.910326e-01 1.068472e+00 3.396784e-01 -1.155233e+00
<VARIANCE> 25
 7.698761e+00 3.392989e+01 3.611465e+01 3.167536e+01 4.671813e+01 4.023151e+01 4.201043e+01 3.783984e+01 3.533852e+01 4.607326e+01 3.011532e+01 3.219579e+01 4.648766e-01 2.925252e+00 2.352288e+00 2.626286e+00 2.480392e+00 2.470041e+00 3.760532e+00 2.862476e+00 3.470855e+00 2.970057e+00 2.683578e+00 2.516264e+00 1.871216e+00
<GCONST> 9.892340e+01
<MIXTURE> 4 2.181943e-01
<MEAN> 25
 6.106975e+00 -1.285217e+01 -1.604055e+00 -6.763509e+00 5.953601e+00 -3.795776e+00 4.939792e-01 6.071354e+00 -3.429954e+00 -2.483600e+00 -1.030112e+01 7.318598e-02 1.367033e-01 6.632026e-01 -1.905277e-01 4.855085e-01 3.729651e-02 -2.576137e-01 -4.175709e-01 -6.088126e-01 -3.710182e-01 1.032728e-01 -1.848225e-02 -2.452019e-01 -4.791626e-01
<VARIANCE> 25
 5.627750e+00 1.906312e+01 2.723420e+01 2.764653e+01 5.228068e+01 4.283065e+01 3.354857e+01 2.948142e+01 3.494628e+01 5.066547e+01 2.507074e+01 3.474674e+01 3.214568e-01 1.546358e+00 1.236650e+00 1.571626e+00 2.547960e+00 2.226155e+00 2.400047e+00 2.056015e+00 2.112334e+00 2.541779e+00 2.012014e+00 1.957052e+00 6.620742e-01
<GCONST> 9.204205e+01
<MIXTURE> 5 1.260547e-01
<MEAN> 25
 5.990934e+00 -3.606584e+00 4.658335e-01 -1.224886e+00 -2.157113e+00 -6.209371e+00 -1.186947e+00 5.818039e-02 -2.227112e+00 -1.187561e+00 -6.311815e+00 2.711061e-02 -4.509031e-01 1.661802e+00 -2.036980e-01 1.411341e+00 -5.626410e-02 4.571569e-01 1.586698e-01 -2.827271e-01 1.736382e-01 -7.707779e-01 3.745255e-01 -4.581769e-01 -1.580965e+00
<VARIANCE> 25
 9.436839e+00 3.453902e+01 4.836238e+01 5.178511e+01 5.618479e+01 4.580465e+01 4.803351e+01 5.150774e+01 3.769398e+01 5.593933e+01 3.035525e+01 3.712691e+01 5.538699e-01 2.130468e+00 1.459988e+00 2.957513e+00 1.933669e+00 2.159111e+00 2.447007e+00 2.662661e+00 2.479018e+00 2.587840e+00 2.436933e+00 2.041980e+00 1.434567e+00
<GCONST> 9.866301e+01
<STATE> 4
<NUMMIXES> 5
<MIXTURE> 1 1.711522e-01
<MEAN> 25
 -8.292624e+00 4.820557e+00 -2.720789e+00 6.487361e+00 2.608464e+00 1.632766e+00 4.912855e-01 4.592521e+00 5.298656e+00 2.497713e+00 8.195834e+00 1.885742e+00 -6.002426e-02 8.566421e-02 1.101444e-01 1.618529e-01 2.180353e-01 2.790074e-01 1.989879e-01 2.356117e-01 2.445422e-01 2.864364e-01 2.134132e-01 1.141881e-01 -1.056042e-01
<VARIANCE> 25
 2.850732e+00 7.617146e+00 7.683218e+00 1.116507e+01 1.058482e+01 1.478281e+01 1.411180e+01 1.456153e+01 1.461955e+01 1.801389e+01 1.629194e+01 1.384097e+01 1.269071e-01 3.236462e-01 4.724009e-01 6.756881e-01 9.283731e-01 1.075883e+00 1.314218e+00 1.331223e+00 1.307686e+00 1.343513e+00 1.374279e+00 1.163738e+00 6.150538e-02
<GCONST> 6.931512e+01
<MIXTURE> 2 1.601372e-01
<MEAN> 25
 4.122156e+00 -3.471357e+00 -1.590395e+00 2.826697e-01 8.019108e-02 -2.443045e+00 1.282905e+00 1.966345e+00 -3.236903e-01 -2.130111e+00 -3.548546e+00 -5.295058e-01 5.519099e-03 8.346475e-01 4.353929e-01 3.896017e-01 -3.147559e-01 4.616317e-01 1.115462e-01 -6.175722e-01 -2.170274e-01 -1.306829e-01 3.935673e-01 -1.049455e-01 -3.969738e-01
<VARIANCE> 25
 3.477573e+01 6.218618e+01 5.649824e+01 4.828011e+01 6.567514e+01 4.808508e+01 4.779951e+01 6.084617e+01 4.331136e+01 4.766932e+01 4.488889e+01 3.136685e+01 3.047610e+00 3.159455e+00 3.058527e+00 3.211506e+00 4.137516e+00 3.843531e+00 4.170339e+00 4.086343e+00 3.550702e+00 3.550032e+00 4.460048e+00 2.625372e+00 1.879471e+00
<GCONST> 1.082299e+02
<MIXTURE> 3 3.193592e-01
<MEAN> 25
 -1.683012e+00 3.263228e+00 -3.677786e+00 5.564954e+00 2.472824e-01 -3.128833e+00 -5.794665e-01 2.997382e+00 2.521248e+00 -2.607987e+00 2.309685e+00 -3.474768e-01 -1.122260e+00 2.859963e-01 -3.476402e-01 6.568747e-04 5.226405e-01 6.819884e-01 2.129463e-01 4.171223e-01 5.233915e-01 3.075720e-01 6.379783e-01 1.134725e-01 -1.127961e+00
<VARIANCE> 25
 2.458737e+01 2.826238e+01 4.601660e+01 2.626366e+01 4.262130e+01 3.772020e+01 3.682904e+01 4.651944e+01 3.780453e+01 3.308074e+01 3.133974e+01 2.228702e+01 7.275232e-01 1.393804e+00 1.882854e+00 1.479013e+00 2.122187e+00 2.150033e+00 2.268668e+00 2.408250e+00 2.412440e+00 2.167005e+00 2.024475e+00 1.832080e+00 3.780501e-01
<GCONST> 9.434299e+01
<MIXTURE> 4 1.958499e-01
<MEAN> 25
 6.314407e+00 -7.137007e+00 -5.188851e-01 -2.238189e+00 1.055568e+00 -4.074710e+00 2.773092e-01 3.194870e+00 -3.589625e+00 -3.243443e+00 -6.932624e+00 -1.187664e+00 -1.240293e-01 1.277348e+00 1.661787e-01 1.005566e+00 -4.644769e-01 1.236883e-01 -1.465847e-01 -8.334103e-01 -2.781971e-01 -1.871820e-01 5.858785e-01 -4.150122e-01 -9.747278e-01
<VARIANCE> 25
 8.825237e+00 5.246844e+01 4.303933e+01 4.736142e+01 6.519709e+01 4.204459e+01 4.202821e+01 5.269339e+01 3.944142e+01 4.873075e+01 3.099113e+01 3.371958e+01 6.346573e-01 1.810840e+00 1.451292e+00 1.996614e+00 2.368428e+00 2.308192e+00 2.649595e+00 2.851814e+00 2.291654e+00 2.942001e+00 2.386480e+00 2.109604e+00 8.663502e-01
<GCONST> 9.814185e+01
<MIXTURE> 5 1.534904e-01
<MEAN> 25
 -7.522405e+00 5.075393e+00 -2.373481e+00 6.244074e+00 1.956253e+00 6.768480e-01 -8.106336e-01 2.481118e+00 3.217500e+00 3.358275e-01 6.111589e+00 7.263962e-01 -2.589417e-01 -5.698138e-02 -1.817339e-01 -1.899088e-01 -1.008727e-01 -7.126323e-03 -1.736388e-01 -1.938292e-01 -8.438274e-02 2.162410e-02 -6.585721e-02 -7.941370e-02 -2.412354e-01
<VARIANCE> 25
 3.865517e+00 8.230173e+00 9.464454e+00 1.105602e+01 1.192519e+01 1.711299e+01 1.576988e+01 1.518350e+01 1.509430e+01 1.619655e+01 1.482685e+01 1.307390e+01 2.375337e-01 5.503249e-01 7.500784e-01 8.263641e-01 1.100655e+00 1.267869e+00 1.390750e+00 1.528136e+00 1.540044e+00 1.566766e+00 1.467022e+00 1.386033e+00 1.147267e-01
<GCONST> 7.361977e+01
<TRANSP> 5
 0.000000e+00 1.000000e+00 0.000000e+00 0.000000e+00 0.000000e+00
 0.000000e+00 2.911729e-01 7.088271e-01 0.000000e+00 0.000000e+00
 0.000000e+00 0.000000e+00 4.550126e-01 5.449873e-01 0.000000e+00
 0.000000e+00 0.000000e+00 0.000000e+00 5.593279e-01 4.406721e-01
 0.000000e+00 0.000000e+00 0.000000e+00 0.000000e+00 0.000000e+00
<ENDHMM>
~h "b"
<BEGINHMM>
<NUMSTATES> 5
<STATE> 2
<NUMMIXES> 5
<MIXTURE> 1 1.394357e-01
<MEAN> 25
 7.611892e+00 1.143768e+01 -1.586819e+00 4.087302e+00 1.049523e+00 2.312391e+00 -1.451505e+00 -4.569145e+00 -2.030179e+00 -2.802881e+00 -1.590792e+00 -6.543672e+00 -4.322547e-01 1.206790e+00 8.044612e-01 1.998527e-01 4.424454e-02 -4.170718e-02 1.490492e-01 6.007075e-01 4.039365e-01 1.080977e-01 6.250571e-01 3.931047e-01 -6.777226e-01
<VARIANCE> 25
 4.526457e+00 1.377922e+01 1.194476e+01 1.176232e+01 2.476416e+01 2.031364e+01 2.221625e+01 3.786961e+01 2.389895e+01 2.607152e+01 1.364807e+01 1.678598e+01 1.610107e-01 4.640657e-01 6.257039e-01 7.771973e-01 1.064620e+00 1.267982e+00 1.267641e+00 1.817104e+00 1.287485e+00 1.687086e+00 1.691531e+00 1.356393e+00 1.184684e-01
<GCONST> 7.714224e+01
<MIXTURE> 2 1.611109e-01
<MEAN> 25
 8.952736e+00 -1.513414e+00 -6.405044e+00 -4.440722e-01 3.209196e+00 -1.013081e+00 -5.979902e+00 7.304649e-01 1.062967e+00 9.926891e-01 -3.239188e+00 -6.367356e+00 -3.718950e-01 3.103780e+00 6.860255e-01 2.359473e+00 -4.496457e-02 -3.591914e-01 4.720722e-02 -5.147984e-01 -2.992528e-01 -1.293612e+00 2.750948e-01 -3.359445e-01 -2.130121e+00
<VARIANCE> 25
 1.658005e+01 3.778490e+01 2.232638e+01 3.447317e+01 2.049753e+01 2.388824e+01 2.029922e+01 2.945592e+01 3.239819e+01 2.639763e+01 2.990937e+01 3.149747e+01 5.278110e-01 1.046395e+00 1.282837e+00 1.640224e+00 1.475301e+00 1.401105e+00 2.776499e+00 2.848947e+00 2.383892e+00 2.068956e+00 2.876325e+00 1.889016e+00 5.380068e-01
<GCONST> 9.083259e+01
<MIXTURE> 3 3.541164e-01
<MEAN> 25
 6.648996e+00 5.973652e+00 3.889606e+00 6.124212e+00 -6.739419e+00 -6.322520e-01 1.271235e+00 -9.017463e+00 -6.416483e+00 -2.658727e+00 -6.458589e+00 -8.505603e+00 5.066855e-02 1.563819e+00 -4.955003e-01 3.408764e-01 7.405038e-01 4.757071e-01 3.963884e-01 5.125610e-01 4.703324e-01 -3.657516e-01 2.724707e-01 -6.460017e-01 -8.419549e-01
<VARIANCE> 25
 5.530291e+00 2.452930e+01 2.231281e+01 2.054622e+01 2.918370e+01 2.209699e+01 2.515219e+01 3.518305e+01 2.436601e+01 3.305582e+01 1.880113e+01 2.166097e+01 3.006854e-01 8.113621e-01 7.192404e-01 1.341945e+00 1.941119e+00 1.628581e+00 2.009464e+00 2.106668e+00 1.801061e+00 1.876154e+00 1.638245e+00 2.065742e+00 2.740378e-01
<GCONST> 8.523026e+01
<MIXTURE> 4 1.802718e-01
<MEAN> 25
 7.035468e+00 -2.240867e+00 1.914014e+00 3.662144e-01 -2.451227e+00 -3.523586e+00 -5.890625e+00 -3.267570e+00 -5.872070e+00 -1.607104e+00 -5.580137e+00 -5.517468e+00 -4.789061e-02 3.077675e+00 7.337525e-02 2.702294e+00 -1.575276e-01 5.870183e-01 1.950015e-01 -1.213767e+00 -1.904253e-01 -1.836494e+00 -7.310473e-01 -1.473961e+00 -2.157851e+00
<VARIANCE> 25
 5.768142e+00 3.194266e+01 4.187997e+01 2.794207e+01 4.916780e+01 1.760510e+01 2.398685e+01 3.345265e+01 2.997582e+01 2.645607e+01 2.492097e+01 2.569065e+01 3.403603e-01 8.882312e-01 1.088783e+00 1.507816e+00 1.370529e+00 2.299270e+00 2.769771e+00 2.174706e+00 2.049230e+00 1.938543e+00 2.361069e+00 1.683710e+00 2.210074e-01
<GCONST> 8.830977e+01
<MIXTURE> 5 1.650644e-01
<MEAN> 25
 8.203665e+00 7.547788e+00 -4.157180e+00 5.623658e+00 3.730077e+00 -8.046985e-01 -3.697715e+00 -1.351469e+00 -1.296595e+00 -5.565060e+00 -5.691277e+00 -8.527496e+00 -4.467567e-01 1.466743e+00 4.268790e-01 1.588703e-01 3.717511e-01 4.039123e-01 1.486303e-02 2.154490e-01 4.158807e-01 -6.071944e-01 1.936354e-01 1.847773e-01 -8.912921e-01
<VARIANCE> 25
 4.443732e+00 1.963599e+01 1.365668e+01 1.546600e+01 2.485858e+01 2.579894e+01 2.343256e+01 3.782150e+01 2.609667e+01 2.949080e+01 2.348457e+01 2.313638e+01 2.517857e-01 4.660072e-01 7.451379e-01 9.211919e-01 1.238903e+00 1.551207e+00 1.837029e+00 1.780168e+00 1.788579e+00 1.476293e+00 1.432453e+00 1.905296e+00 1.332284e-01
<GCONST> 8.124123e+01
<STATE> 3
<NUMMIXES> 5
<MIXTURE> 1 3.327325e-01
<MEAN> 25
 3.685447e+00 1.479240e+01 4.324049e+00 6.173815e+00 2.608068e-03 -1.204983e+00 -3.112761e+00 -3.895169e+00 -1.875635e+00 -3.660277e+00 -5.964016e-01 -5.049540e+00 -6.557119e-01 -4.289195e-01 3.010402e-01 8.272972e-01 7.294219e-01 -2.566849e-01 -1.232603e-01 7.263225e-01 2.781437e-01 -1.744651e-01 5.304964e-01 4.152525e-01 -2.467687e-01
<VARIANCE> 25
 1.124001e+01 6.091770e+00 1.120039e+01 1.238316e+01 2.006430e+01 1.606202e+01 1.476878e+01 2.166060e+01 1.617437e+01 1.546962e+01 1.320122e+01 1.658185e+01 6.216849e-01 2.082121e+00 1.207381e+00 1.187344e+00 1.274848e+00 1.659526e+00 1.608924e+00 2.216024e+00 1.866890e+00 1.538559e+00 1.474652e+00 1.628594e+00 5.075439e-01
<GCONST> 8.145194e+01
<MIXTURE> 2 1.371481e-01
<MEAN> 25
 5.122605e+00 6.814264e+00 -4.359866e+00 6.080287e+00 3.903570e+00 1.471701e-01 -1.376112e+00 2.177805e+00 7.191408e-01 -5.219445e+00 -3.502500e+00 -5.955786e+00 -4.660101e-01 -6.582408e-01 6.921329e-01 -4.904221e-01 -2.907086e-01 4.579361e-01 -2.699033e-01 -4.593889e-01 5.137613e-01 6.074449e-01 9.799374e-01 9.844813e-01 2.249909e-01
<VARIANCE> 25
 2.590158e+01 2.823703e+01 2.717291e+01 2.093710e+01 2.145846e+01 3.258155e+01 1.835755e+01 4.230601e+01 3.542902e+01 3.594003e+01 2.903096e+01 2.314325e+01 2.178428e+00 2.903140e+00 2.816616e+00 2.025660e+00 2.189840e+00 3.840329e+00 2.255819e+00 3.890493e+00 3.616807e+00 3.630389e+00 3.391869e+00 2.373357e+00 1.385596e+00
<GCONST> 9.862389e+01
<MIXTURE> 3 1.817620e-01
<MEAN> 25
 5.509508e+00 1.374475e+01 3.413831e+00 5.749519e+00 -3.233154e+00 -8.839740e-01 3.683614e-02 -3.143201e+00 -2.763873e+00 -4.422919e+00 -1.941270e+00 -7.365623e+00 6.797131e-01 -2.753626e+00 -2.373874e+00 -8.749612e-01 1.652040e+00 -1.158613e-01 -1.103924e+00 5.499569e-01 1.281219e+00 9.755737e-01 8.797721e-01 7.115311e-01 1.528705e+00
<VARIANCE> 25
 5.449998e+00 1.375177e+01 1.416517e+01 1.071091e+01 2.815155e+01 1.850269e+01 2.328633e+01 2.743862e+01 1.448134e+01 1.825656e+01 1.719581e+01 1.322763e+01 5.524613e-01 3.467253e+00 2.621296e+00 2.051579e+00 2.247967e+00 2.274249e+00 2.902051e+00 3.014470e+00 3.139021e+00 2.575239e+00 2.397218e+00 2.181138e+00 8.202243e-01
<GCONST> 8.868407e+01
<MIXTURE> 4 1.707562e-01
<MEAN> 25
 6.942700e+00 3.673453e+00 -4.055813e+00 4.611109e+00 3.826960e+00 -3.005997e+00 -5.921242e+00 -3.702688e-01 -2.504389e+00 -6.948178e+00 -7.328354e+00 -7.106410e+00 -5.474386e-01 -4.253391e-02 -1.870064e-02 -9.525064e-02 -2.590749e-01 1.550216e-01 1.115258e-01 2.024662e-01 1.514680e-01 -2.204626e-01 1.265924e+00 5.069929e-01 -3.585992e-01
<VARIANCE> 25
 5.867912e+00 4.323417e+01 2.075233e+01 2.917108e+01 2.326182e+01 2.594645e+01 2.796785e+01 3.948220e+01 3.485588e+01 2.575253e+01 2.172233e+01 2.171574e+01 2.123245e+00 3.387851e+00 2.000685e+00 2.399150e+00 2.090372e+00 3.394405e+00 2.540117e+00 3.774223e+00 2.119591e+00 3.166976e+00 2.870170e+00 2.361762e+00 1.874352e+00
<GCONST> 9.646246e+01
<MIXTURE> 5 1.776019e-01
<MEAN> 25
 5.519198e+00 1.089906e+01 4.712517e+00 6.082308e+00 -4.886744e+00 1.612503e-01 1.013114e+00 -7.070576e+00 -5.974700e+00 -4.957582e+00 -4.777234e+00 -8.498206e+00 3.004854e-01 -2.196776e+00 -1.678416e+00 -2.243119e-01 1.530507e+00 -9.605029e-01 -1.391652e+00 1.560737e+00 1.962936e+00 3.817841e-01 8.725207e-01 7.747707e-01 1.117544e+00
<VARIANCE> 25
 6.956635e+00 1.923357e+01 1.840500e+01 1.885106e+01 3.123605e+01 2.009908e+01 2.581440e+01 2.512108e+01 2.002921e+01 2.501609e+01 1.929064e+01 1.256098e+01 9.485555e-01 3.278010e+00 4.099033e+00 4.027556e+00 3.069658e+00 3.422001e+00 2.733826e+00 2.946282e+00 2.390564e+00 2.340049e+00 1.929426e+00 2.291215e+00 8.361256e-01
<GCONST> 9.272166e+01
<STATE> 4
<NUMMIXES> 5
<MIXTURE> 1 3.034206e-01
<MEAN> 25
 4.095927e+00 2.179726e+00 7.863398e-01 6.360882e+00 7.419888e-01 -2.756336e+00 -4.033154e+00 1.035179e+00 5.693848e-01 -4.568583e+00 -1.024588e+00 -2.655162e+00 1.699965e-02 -2.827333e+00 4.912366e-01 -1.284680e+00 -1.860300e+00 -5.355472e-01 2.485651e-01 4.525589e-01 3.025762e-01 7.544269e-01 7.129049e-01 1.138458e+00 1.585435e+00
<VARIANCE> 25
 1.974379e+01 6.443475e+01 4.248272e+01 4.462782e+01 3.887679e+01 5.127362e+01 2.580121e+01 3.799511e+01 2.587754e+01 2.658282e+01 2.479919e+01 2.008815e+01 2.799495e+00 7.515320e+00 5.187402e+00 4.768851e+00 6.367387e+00 4.588142e+00 3.086304e+00 4.674222e+00 4.000581e+00 5.220942e+00 3.276494e+00 2.394367e+00 3.748517e+00
<GCONST> 1.065917e+02
<MIXTURE> 2 1.852503e-01
<MEAN> 25
 1.128254e+01 -1.613250e+00 -1.193724e+01 -3.843897e+00 4.621793e+00 1.425048e+00 -6.580459e+00 -2.221788e+00 4.473208e+00 5.482155e+00 -2.509144e+00 -8.050253e+00 1.272599e+00 -4.528127e+00 -3.284100e+00 -3.081400e+00 2.195832e+00 7.497445e-01 -4.226434e-01 2.165200e+00 1.607352e+00 1.700432e+00 -2.383334e+00 -1.746414e-01 2.927517e+00
<VARIANCE> 25
 3.159460e+00 2.656570e+01 1.682283e+01 2.725214e+01 1.641825e+01 2.666198e+01 1.608121e+01 2.402337e+01 2.958033e+01 2.142621e+01 2.758569e+01 1.739778e+01 8.214722e-01 5.945134e+00 4.002033e+00 4.204743e+00 3.898475e+00 5.062475e+00 3.202085e+00 5.160840e+00 3.729868e+00 5.541321e+00 3.562331e+00 2.983638e+00 1.711162e+00
<GCONST> 9.729410e+01
<MIXTURE> 3 1.876066e-01
<MEAN> 25
 6.500777e+00 5.266804e+00 -1.522634e+00 4.597156e+00 9.798842e-01 -2.965667e-01 -2.532305e+00 -2.469220e+00 9.726492e-02 -1.076573e+00 1.235528e+00 -5.282971e+00 1.676255e+00 -4.701657e+00 -4.128780e+00 -3.366589e+00 1.765219e+00 7.896878e-01 -1.722758e+00 5.597228e-01 1.831189e+00 2.911793e+00 -3.607500e-01 -5.352734e-01 3.102179e+00
<VARIANCE> 25
 7.579548e+00 5.864058e+01 2.815175e+01 2.331385e+01 1.727222e+01 2.437363e+01 1.912971e+01 2.672044e+01 2.116707e+01 2.811193e+01 2.260149e+01 1.643391e+01 7.587710e-01 2.580621e+00 3.083506e+00 3.510973e+00 3.675684e+00 3.273141e+00 2.343487e+00 4.851375e+00 4.052031e+00 3.906828e+00 4.451749e+00 2.830800e+00 7.620527e-01
<GCONST> 9.611213e+01
<MIXTURE> 4 1.806656e-01
<MEAN> 25
 1.077223e+01 -6.295352e+00 -1.061394e+01 -5.629194e+00 5.302292e+00 -3.327766e-01 -8.875710e+00 1.065479e+00 4.218185e+00 4.389632e+00 -6.613305e+00 -9.055316e+00 2.877989e-01 -4.596493e+00 -1.112596e+00 -2.382188e+00 1.498207e+00 -2.825963e-01 4.798571e-01 3.284418e+00 7.181388e-01 3.553744e-01 -2.566635e+00 7.438307e-01 2.829661e+00
<VARIANCE> 25
 3.575730e+00 2.188529e+01 2.330658e+01 3.336047e+01 2.507145e+01 3.176369e+01 1.907351e+01 3.518140e+01 3.115502e+01 2.808362e+01 2.623286e+01 1.740812e+01 7.033994e-01 4.108444e+00 3.619476e+00 4.096842e+00 4.506094e+00 4.526175e+00 3.627520e+00 3.979216e+00 4.181858e+00 4.707510e+00 2.692411e+00 2.905110e+00 1.329520e+00
<GCONST> 9.781436e+01
<MIXTURE> 5 1.430570e-01
<MEAN> 25
 6.923406e+00 2.252464e+00 3.573440e-01 4.868306e+00 -1.407129e+00 -2.537880e+00 -2.956008e+00 -4.122430e+00 -3.616048e+00 -3.858460e+00 -1.470015e+00 -5.535048e+00 7.536223e-01 -4.892543e+00 -1.812123e+00 -3.792352e+00 1.040671e+00 -4.934354e-02 -1.423152e+00 1.493323e+00 9.603394e-01 2.769740e+00 2.916254e-01 4.202273e-01 3.328852e+00
<VARIANCE> 25
 6.979240e+00 7.181141e+01 2.973097e+01 3.309608e+01 4.182198e+01 2.297007e+01 1.918670e+01 2.643473e+01 2.066584e+01 2.390536e+01 1.707250e+01 1.884537e+01 8.151224e-01 2.964291e+00 5.951426e+00 4.263339e+00 7.720888e+00 4.912294e+00 4.446815e+00 6.186097e+00 5.538071e+00 3.641370e+00 2.870330e+00 2.539112e+00 8.865568e-01
<GCONST> 1.000643e+02
<TRANSP> 5
 0.000000e+00 1.000000e+00 0.000000e+00 0.000000e+00 0.000000e+00
 0.000000e+00 7.844583e-01 2.155417e-01 0.000000e+00 0.000000e+00
 0.000000e+00 0.000000e+00 4.749897e-01 5.250102e-01 0.000000e+00
 0.000000e+00 0.000000e+00 0.000000e+00 5.881436e-01 4.118564e-01
 0.000000e+00 0.000000e+00 0.000000e+00 0.000000e+00 0.000000e+00
<ENDHMM>
~h "d"
<BEGINHMM>
<NUMSTATES> 5
<STATE> 2
<NUMMIXES> 5
<MIXTURE> 1 2.868156e-01
<MEAN> 25
 4.957228e+00 7.496282e+00 -2.240715e+00 8.180481e+00 1.410967e+00 -3.521667e+00 2.811128e-01 4.404289e+00 3.276008e-02 -7.064405e+00 -1.422189e+00 -2.282887e+00 -1.019189e+00 8.332478e-01 3.210608e-01 2.433266e-01 5.033076e-01 5.006576e-01 -2.972884e-01 -1.464613e-01 1.936099e-01 4.745079e-02 9.564698e-01 -6.440761e-03 -1.083529e+00
<VARIANCE> 25
 1.593538e+01 3.036226e+01 2.419764e+01 1.567387e+01 2.539064e+01 2.497391e+01 2.803983e+01 3.013346e+01 2.667771e+01 3.339342e+01 2.916880e+01 1.763459e+01 3.802755e-01 1.078866e+00 1.260494e+00 9.284300e-01 1.390562e+00 1.791484e+00 1.734061e+00 2.046245e+00 1.801081e+00 1.632026e+00 2.085114e+00 1.494629e+00 2.030539e-01
<GCONST> 8.635971e+01
<MIXTURE> 2 1.828377e-01
<MEAN> 25
 8.182266e+00 1.213682e+00 -2.203510e+00 5.907408e+00 -1.415714e+00 -7.107470e+00 3.453985e-01 3.690154e+00 -4.184396e-01 -4.132863e+00 -5.172476e+00 1.524453e-01 -3.310922e-01 2.788394e+00 -1.773361e-01 1.913328e+00 6.459905e-01 1.398900e+00 3.653749e-01 2.013965e-01 3.330901e-01 -1.326296e+00 8.592601e-01 -1.401269e+00 -2.102537e+00
<VARIANCE> 25
 5.489464e+00 1.968479e+01 2.643575e+01 1.915655e+01 3.209495e+01 1.996015e+01 2.932242e+01 2.989256e+01 3.141498e+01 3.753630e+01 2.458017e+01 2.628813e+01 2.237009e-01 7.995924e-01 1.003907e+00 1.234339e+00 2.219852e+00 1.790139e+00 2.913485e+00 2.207364e+00 2.039595e+00 1.842132e+00 1.881301e+00 1.826131e+00 2.389348e-01
<GCONST> 8.649952e+01
<MIXTURE> 3 1.805927e-01
<MEAN> 25
 5.764153e+00 1.021346e+01 4.284505e+00 4.056849e+00 -5.965010e+00 1.428070e+00 2.247095e+00 -4.780002e+00 -2.591084e+00 -4.318227e+00 -4.198355e+00 -4.622765e+00 -6.477450e-01 1.113748e+00 -8.112959e-02 8.851317e-01 1.166611e+00 -3.369308e-01 -4.853730e-01 7.609649e-01 5.145323e-01 1.394181e-01 1.436960e+00 -2.365528e-02 -1.037122e+00
<VARIANCE> 25
 6.644032e+00 1.896649e+01 2.027465e+01 1.686849e+01 3.549223e+01 2.657896e+01 3.008767e+01 3.341372e+01 2.780379e+01 2.871550e+01 2.997590e+01 1.731641e+01 4.271393e-01 1.271185e+00 1.046787e+00 1.165671e+00 2.286541e+00 2.376075e+00 2.302989e+00 2.144148e+00 2.066180e+00 1.968223e+00 1.949942e+00 1.686620e+00 3.836546e-01
<GCONST> 8.782841e+01
<MIXTURE> 4 1.836861e-01
<MEAN> 25
 6.904856e+00 -3.356493e+00 1.574980e+00 1.416769e+00 -3.084146e+00 -8.306985e+00 -1.723246e+00 5.638801e-01 -4.558538e+00 -5.489390e+00 -7.598701e+00 1.655167e+00 6.573156e-02 2.847595e+00 -3.309989e-01 2.785682e+00 -1.292154e-01 1.125094e+00 -3.431393e-02 -1.252103e+00 -3.075556e-01 -1.497972e+00 4.614345e-02 -1.825668e+00 -2.220141e+00
<VARIANCE> 25
 4.897288e+00 2.628375e+01 2.701140e+01 2.858273e+01 3.404630e+01 3.342389e+01 2.837583e+01 4.232189e+01 3.237930e+01 3.127267e+01 2.253789e+01 3.398038e+01 2.501993e-01 8.556372e-01 7.936599e-01 1.159267e+00 1.366786e+00 2.143276e+00 2.074830e+00 2.015996e+00 2.135696e+00 1.922336e+00 1.853973e+00 2.001631e+00 2.726176e-01
<GCONST> 8.744772e+01
<MIXTURE> 5 1.660665e-01
<MEAN> 25
 6.364649e+00 7.277864e+00 2.803445e+00 5.531127e+00 -4.709997e+00 -9.228393e-01 7.233339e-01 -5.597469e+00 -5.162706e+00 -7.248529e+00 -7.052421e+00 -5.031465e+00 -5.047373e-01 1.007476e+00 -2.158933e-01 7.115266e-01 8.591672e-01 2.628370e-01 -1.748328e-01 3.040316e-01 1.807608e-01 -4.646699e-01 9.979308e-01 -5.458049e-01 -9.055103e-01
<VARIANCE> 25
 9.981485e+00 2.706637e+01 3.078263e+01 1.985109e+01 4.899108e+01 2.581739e+01 4.203645e+01 3.770657e+01 2.489750e+01 3.280112e+01 2.840780e+01 2.240692e+01 5.331397e-01 1.289801e+00 1.211364e+00 1.265647e+00 2.189408e+00 1.786483e+00 1.877589e+00 2.046643e+00 2.169087e+00 2.009220e+00 2.641964e+00 1.813259e+00 4.186128e-01
<GCONST> 9.056428e+01
<STATE> 3
<NUMMIXES> 5
<MIXTURE> 1 1.846313e-01
<MEAN> 25
 -3.753821e+00 6.347474e+00 -1.962932e+00 7.029917e+00 3.722608e+00 1.296107e+00 8.749618e-01 3.671773e+00 2.924582e+00 -2.025392e+00 3.004415e+00 -8.516203e-01 -6.805072e-01 -1.091937e+00 -3.538414e-01 -4.355819e-01 -4.354905e-01 6.450263e-02 4.705424e-01 -2.189549e-01 1.621118e-01 6.281540e-01 1.009994e+00 3.941374e-01 6.203158e-02
<VARIANCE> 25
 2.623864e+01 1.446364e+01 1.953899e+01 1.616666e+01 2.015837e+01 1.840710e+01 2.056992e+01 2.479201e+01 1.727003e+01 2.687786e+01 2.371532e+01 1.307937e+01 1.510841e+00 2.437486e+00 1.519959e+00 1.238642e+00 2.092483e+00 1.961130e+00 2.094294e+00 2.783181e+00 2.052145e+00 2.495202e+00 2.609380e+00 1.417820e+00 1.164729e+00
<GCONST> 8.987431e+01
<MIXTURE> 2 2.325270e-01
<MEAN> 25
 5.145714e+00 7.283955e+00 -4.732741e-01 8.007789e+00 -8.449905e-02 -1.396205e+00 8.303595e-01 -5.932922e-01 -3.173314e+00 -7.879992e+00 -1.659811e+00 -4.332855e+00 -1.295228e+00 -1.916012e+00 6.022260e-01 -1.293954e+00 -4.651844e-01 -1.040921e-01 4.508939e-01 -1.533989e+00 8.542644e-01 1.292426e+00 2.591952e+00 6.369591e-01 1.183704e+00
<VARIANCE> 25
 8.578061e+00 3.272512e+01 3.154268e+01 1.540940e+01 3.631966e+01 2.618919e+01 2.638920e+01 4.515056e+01 2.846755e+01 2.928147e+01 2.015751e+01 1.922739e+01 1.133400e+00 2.699355e+00 3.632028e+00 2.900605e+00 6.566959e+00 4.357119e+00 4.207547e+00 6.647224e+00 3.653511e+00 4.316277e+00 4.086167e+00 3.151973e+00 1.281216e+00
<GCONST> 1.001163e+02
<MIXTURE> 3 1.987701e-01
<MEAN> 25
 1.184916e+00 1.166403e+01 3.622458e+00 7.689616e+00 -5.054452e-01 -2.312514e+00 -1.888149e+00 -8.465458e-01 2.167110e-01 -2.323526e+00 2.246335e+00 -2.241166e+00 -1.522707e+00 -3.333276e+00 -9.339621e-01 -3.124517e-01 5.433699e-01 1.576585e-01 1.271268e+00 -1.136689e+00 1.481899e-01 6.370046e-01 2.277025e+00 6.580224e-01 1.060204e+00
<VARIANCE> 25
 1.164759e+01 1.908718e+01 1.903157e+01 1.503866e+01 3.628797e+01 2.460669e+01 2.346342e+01 2.858412e+01 2.092798e+01 2.386624e+01 2.077965e+01 1.376169e+01 7.761864e-01 4.568087e+00 2.859867e+00 3.123376e+00 4.970125e+00 4.750967e+00 5.658298e+00 5.456521e+00 3.935630e+00 3.647086e+00 3.171517e+00 2.625846e+00 2.181666e+00
<GCONST> 9.779083e+01
<MIXTURE> 4 2.153646e-01
<MEAN> 25
 5.127195e+00 6.732111e+00 1.415121e+00 7.112979e+00 -2.559786e+00 -2.852164e+00 -4.835527e-01 -3.524122e+00 -4.885848e+00 -8.096900e+00 -3.907966e+00 -3.980738e+00 -1.250481e+00 -1.507255e+00 -2.426625e-01 -7.819796e-01 5.549281e-01 -2.182182e-01 4.324501e-01 -6.111345e-01 1.046367e+00 6.633811e-01 2.732067e+00 8.344077e-02 8.675858e-01
<VARIANCE> 25
 9.549541e+00 4.101771e+01 3.653406e+01 2.042116e+01 4.239074e+01 2.574256e+01 2.438986e+01 4.818486e+01 2.959831e+01 3.018105e+01 2.674876e+01 2.080713e+01 1.793445e+00 3.216677e+00 3.234553e+00 3.199707e+00 5.928484e+00 3.617352e+00 3.172020e+00 5.120672e+00 3.950178e+00 3.964373e+00 4.618414e+00 2.859892e+00 1.785985e+00
<GCONST> 1.015678e+02
<MIXTURE> 5 1.687066e-01
<MEAN> 25
 2.179240e+00 1.026319e+01 2.103346e+00 7.614900e+00 6.732638e-01 -3.262966e+00 -2.806698e+00 -5.258833e-01 -4.966205e-01 -4.500361e+00 2.634687e-01 -2.742098e+00 -1.581908e+00 -3.003312e+00 -5.866030e-01 -3.484607e-01 1.664771e-01 1.982357e-01 1.528861e+00 -1.368660e+00 2.673611e-02 8.085458e-01 2.332536e+00 2.821514e-01 1.023918e+00
<VARIANCE> 25
 1.170179e+01 3.330878e+01 2.472160e+01 1.367687e+01 3.038670e+01 1.981146e+01 2.005132e+01 2.980469e+01 2.163567e+01 2.406507e+01 1.989592e+01 1.612412e+01 7.862898e-01 4.831835e+00 2.782822e+00 3.439096e+00 4.314050e+00 4.437737e+00 4.104700e+00 4.839897e+00 4.061405e+00 3.070404e+00 3.306725e+00 2.914927e+00 2.394875e+00
<GCONST> 9.775203e+01
<STATE> 4
<NUMMIXES> 5
<MIXTURE> 1 2.899122e-01
<MEAN> 25
 -1.113747e+00 8.642406e-01 -1.807607e+00 5.023599e+00 1.569698e+00 -4.249890e+00 1.529096e+00 -8.239301e-01 9.646980e-01 -3.401349e+00 4.041098e+00 1.200045e+00 -7.703140e-02 -1.720616e+00 -1.111032e+00 -8.851343e-01 3.075501e-01 -1.412956e+00 6.195480e-01 -2.566912e-01 5.563747e-01 -1.172217e-01 8.985518e-01 1.010407e+00 1.446747e+00
<VARIANCE> 25
 2.447931e+01 4.629214e+01 4.007262e+01 2.860982e+01 4.934779e+01 4.499434e+01 4.554842e+01 3.892093e+01 2.856332e+01 3.970868e+01 4.080109e+01 2.304054e+01 3.732109e+00 5.487825e+00 4.275146e+00 3.146059e+00 5.498654e+00 6.579643e+00 8.273196e+00 5.238717e+00 3.515023e+00 4.911428e+00 5.155073e+00 3.664004e+00 2.835962e+00
<GCONST> 1.088951e+02
<MIXTURE> 2 1.880976e-01
<MEAN> 25
 1.779788e+00 8.504781e-01 2.041527e+00 2.373998e+00 -5.271087e+00 -3.464366e+00 5.734908e+00 -7.974919e+00 2.828728e-02 -1.158802e+00 5.621911e+00 -1.727139e+00 1.224742e+00 -1.083096e+00 2.542614e+00 -3.953773e+00 -2.738348e+00 -6.312534e-01 -1.259466e+00 -1.455445e+00 2.125719e-01 2.170697e+00 -2.250443e+00 1.507166e+00 2.597891e+00
<VARIANCE> 25
 2.087617e+01 3.129064e+01 2.828280e+01 3.058226e+01 5.140173e+01 6.248599e+01 4.166801e+01 5.520373e+01 3.139167e+01 3.181934e+01 5.013894e+01 3.681479e+01 2.402286e+00 5.215153e+00 5.103642e+00 3.387548e+00 5.344642e+00 4.727551e+00 5.072584e+00 8.133698e+00 3.999137e+00 4.453840e+00 4.834944e+00 2.402559e+00 1.346790e+00
<GCONST> 1.073916e+02
<MIXTURE> 3 1.511060e-01
<MEAN> 25
 -3.977998e-02 -2.428190e+00 -1.819511e+00 5.510555e+00 5.804507e-01 -1.058585e-01 4.741265e+00 -3.738295e+00 -6.480020e-01 -2.963796e+00 7.321393e+00 -2.011027e+00 2.636035e-01 -3.454630e+00 4.773339e-01 -2.771131e+00 -2.029194e+00 -1.061553e+00 1.004332e+00 -1.644018e+00 2.941079e-01 1.741307e+00 5.101297e-01 1.036300e+00 3.247741e+00
<VARIANCE> 25
 1.818398e+01 3.733527e+01 2.479555e+01 2.495358e+01 3.060319e+01 3.947406e+01 3.205683e+01 4.080306e+01 3.636497e+01 2.902385e+01 3.129049e+01 2.751459e+01 1.624445e+00 3.852884e+00 4.152558e+00 2.232210e+00 5.980228e+00 4.788980e+00 4.224604e+00 8.315199e+00 3.788558e+00 3.866283e+00 4.969287e+00 3.080312e+00 1.244345e+00
<GCONST> 1.034936e+02
<MIXTURE> 4 2.024160e-01
<MEAN> 25
 2.439654e+00 -3.039107e-01 3.692475e+00 -3.139767e-01 -6.535724e+00 -3.106822e+00 3.790060e+00 -9.933584e+00 -1.537131e+00 -1.480262e+00 4.008884e+00 -2.475181e+00 5.972192e-01 -1.786902e+00 2.869004e+00 -4.747484e+00 -2.282156e+00 -6.186686e-01 -1.357123e+00 -8.063284e-01 1.720748e-01 2.512656e+00 -2.381269e+00 1.535138e+00 2.764893e+00
<VARIANCE> 25
 1.308332e+01 2.456766e+01 3.098150e+01 3.087389e+01 5.035157e+01 6.085348e+01 3.667493e+01 4.888545e+01 3.321390e+01 3.670100e+01 4.627678e+01 3.064284e+01 2.174126e+00 3.696671e+00 4.272705e+00 2.764346e+00 4.509372e+00 4.401159e+00 4.347639e+00 6.818571e+00 4.626690e+00 3.343969e+00 4.629721e+00 2.277891e+00 1.153555e+00
<GCONST> 1.046329e+02
<MIXTURE> 5 1.684674e-01
<MEAN> 25
 -3.303084e-01 -3.988791e+00 -3.181874e+00 2.753112e+00 1.173487e+00 -4.220542e+00 3.905800e+00 -3.826251e+00 2.296608e+00 -5.745665e+00 6.059036e+00 -8.539611e-01 7.533791e-01 -3.459397e+00 -5.517990e-01 -3.360300e+00 -5.325522e-01 -1.859440e+00 2.990437e-01 8.224338e-03 9.352366e-01 1.033490e+00 -6.118631e-01 1.002454e+00 3.649929e+00
<VARIANCE> 25
 2.473028e+01 2.811921e+01 2.920087e+01 3.283699e+01 3.574833e+01 4.994218e+01 3.858445e+01 4.177559e+01 4.186466e+01 4.037017e+01 4.936049e+01 2.986825e+01 1.944822e+00 4.413808e+00 4.331705e+00 2.712364e+00 5.894223e+00 4.259514e+00 4.312664e+00 9.977653e+00 3.834863e+00 4.894916e+00 6.131778e+00 2.935938e+00 1.505630e+00
<GCONST> 1.067889e+02
<TRANSP> 5
 0.000000e+00 1.000000e+00 0.000000e+00 0.000000e+00 0.000000e+00
 0.000000e+00 7.317588e-01 2.682412e-01 0.000000e+00 0.000000e+00
 0.000000e+00 0.000000e+00 4.539681e-01 5.460318e-01 0.000000e+00
 0.000000e+00 0.000000e+00 0.000000e+00 5.234587e-01 4.765413e-01
 0.000000e+00 0.000000e+00 0.000000e+00 0.000000e+00 0.000000e+00
<ENDHMM>
~h "g"
<BEGINHMM>
<NUMSTATES> 5
<STATE> 2
<NUMMIXES> 5
<MIXTURE> 1 3.879356e-01
<MEAN> 25
 5.879269e+00 1.085664e+01 -1.022907e-02 4.421231e-01 -4.091161e+00 1.405649e+00 -1.321361e+00 -5.789711e+00 -1.643894e+00 -2.864456e+00 -1.607988e+00 -2.570298e+00 -6.575243e-01 5.238047e-01 2.547923e-01 1.214555e+00 6.425267e-01 -7.418835e-01 -4.548480e-01 6.560074e-01 2.745399e-01 -3.366139e-01 7.099959e-01 7.004892e-02 -8.560904e-01
<VARIANCE> 25
 1.702572e+01 2.276718e+01 3.763771e+01 3.034377e+01 3.601247e+01 2.652118e+01 3.200236e+01 3.319112e+01 2.673426e+01 2.845561e+01 3.661225e+01 2.139964e+01 6.038060e-01 1.205525e+00 1.394266e+00 1.887267e+00 1.992444e+00 2.145129e+00 1.965975e+00 2.077629e+00 2.102075e+00 2.249433e+00 2.118434e+00 1.779265e+00 3.290907e-01
<GCONST> 9.135426e+01
<MIXTURE> 2 1.618900e-01
<MEAN> 25
 8.375937e+00 -1.804279e+00 -4.493754e+00 3.245746e-01 5.739151e+00 -6.861400e+00 -4.843039e+00 2.651767e+00 1.305906e+00 1.978049e+00 -1.064005e+01 -1.237281e+00 -1.185765e-02 3.023498e+00 5.093033e-02 2.437412e+00 -9.621281e-01 -2.215378e-03 -3.590010e-01 -9.350631e-01 2.565229e-01 -1.008878e+00 1.342774e+00 -4.363023e-01 -2.167290e+00
<VARIANCE> 25
 3.571105e+00 1.998911e+01 1.726239e+01 3.172865e+01 2.709338e+01 3.589313e+01 2.598834e+01 2.745959e+01 2.438923e+01 3.138756e+01 2.007728e+01 3.355336e+01 1.768609e-01 5.743608e-01 6.679385e-01 1.070244e+00 2.097940e+00 2.425932e+00 2.216451e+00 1.936263e+00 1.847249e+00 2.794571e+00 1.957907e+00 1.460895e+00 1.732948e-01
<GCONST> 8.452504e+01
<MIXTURE> 3 1.606741e-01
<MEAN> 25
 8.234299e+00 4.929777e+00 -4.378383e+00 5.555910e+00 1.768408e+00 -3.848512e+00 -3.837529e+00 9.910946e-01 1.779558e+00 -3.512213e+00 -5.166729e+00 -2.587334e+00 -4.524174e-01 1.900142e+00 -2.536750e-02 9.860523e-01 -1.082056e-02 7.203092e-01 1.212074e-01 -8.344787e-02 2.049637e-01 -1.042659e+00 1.264493e+00 -3.148848e-01 -1.494746e+00
<VARIANCE> 25
 4.011757e+00 1.159517e+01 1.948034e+01 1.688393e+01 3.814619e+01 2.473885e+01 2.742793e+01 3.271406e+01 2.089980e+01 2.485244e+01 2.130619e+01 2.734619e+01 2.312182e-01 7.203376e-01 1.328816e+00 1.362532e+00 2.118911e+00 1.559964e+00 1.627345e+00 1.422016e+00 1.586535e+00 1.687735e+00 2.463864e+00 1.469648e+00 3.120007e-01
<GCONST> 8.379469e+01
<MIXTURE> 4 1.513591e-01
<MEAN> 25
 7.330018e+00 -5.524129e+00 -3.356539e+00 -4.458457e+00 7.943616e+00 -7.850506e+00 -5.428931e+00 1.608681e+00 2.340775e-01 3.187105e+00 -1.332686e+01 -4.096873e-01 1.659857e-01 2.847163e+00 -1.815056e-01 2.330513e+00 -8.902036e-01 -6.442938e-01 -7.410150e-01 -1.456543e+00 -2.920654e-01 -4.139716e-01 2.145970e-01 -8.008013e-01 -2.074647e+00
<VARIANCE> 25
 3.833647e+00 1.865586e+01 1.312234e+01 3.317550e+01 1.474564e+01 2.828901e+01 2.856241e+01 2.277638e+01 1.916877e+01 4.160291e+01 1.585010e+01 3.306486e+01 1.825847e-01 7.315568e-01 7.599571e-01 1.113688e+00 1.689576e+00 2.785362e+00 1.933225e+00 1.797125e+00 2.059661e+00 3.634988e+00 1.703310e+00 1.602596e+00 2.400331e-01
<GCONST> 8.395203e+01
<MIXTURE> 5 1.381421e-01
<MEAN> 25
 7.040987e+00 2.227083e+00 -1.339674e+00 2.569026e+00 -4.214115e-01 -9.509990e-01 -2.809520e+00 -4.957031e+00 -3.314439e+00 -3.579441e+00 -8.819415e+00 -4.372703e+00 8.095357e-03 1.452727e+00 -5.485136e-01 1.193148e+00 -2.420919e-01 7.480419e-01 2.458678e-01 4.622800e-02 2.309950e-01 -1.324452e+00 6.606218e-01 -7.453158e-01 -1.189857e+00
<VARIANCE> 25
 5.133903e+00 2.186064e+01 3.888030e+01 3.388476e+01 5.894121e+01 3.033314e+01 4.338609e+01 4.419190e+01 2.700677e+01 3.047709e+01 2.352248e+01 2.251481e+01 3.360744e-01 7.099107e-01 1.031474e+00 1.892775e+00 1.695682e+00 2.028652e+00 1.475890e+00 1.594163e+00 1.884452e+00 1.861557e+00 1.715445e+00 1.628672e+00 2.852903e-01
<GCONST> 8.823890e+01
<STATE> 3
<NUMMIXES> 5
<MIXTURE> 1 2.004073e-01
<MEAN> 25
 -3.099144e+00 7.289330e+00 -1.971291e+00 4.700297e+00 1.758655e+00 -1.076344e+00 -2.060578e+00 1.599653e-01 1.936194e+00 -7.918172e-02 6.278825e+00 1.213037e-01 -5.602830e-01 -8.828234e-01 -4.070643e-01 1.031601e-02 3.686470e-01 1.248945e-02 6.827447e-01 7.215878e-01 1.068497e-01 9.805314e-02 1.890284e-01 2.699591e-01 -1.598188e-01
<VARIANCE> 25
 3.234573e+01 2.053048e+01 3.680078e+01 3.727843e+01 2.808227e+01 2.286009e+01 2.517239e+01 3.054263e+01 1.944842e+01 2.876937e+01 2.424891e+01 2.035412e+01 1.806549e+00 2.825779e+00 2.607819e+00 2.500276e+00 3.543878e+00 1.854863e+00 2.592162e+00 2.161047e+00 2.269055e+00 2.385382e+00 2.169970e+00 1.785637e+00 5.549555e-01
<GCONST> 9.487297e+01
<MIXTURE> 2 2.406392e-01
<MEAN> 25
 6.473591e+00 9.574576e+00 -3.916937e+00 4.150028e+00 1.767027e+00 -9.580163e-01 -2.130935e+00 -3.422040e-01 3.966703e-01 -4.642598e+00 -2.686720e+00 -3.366177e+00 -5.134256e-01 5.457846e-02 7.522833e-02 3.889421e-01 4.308878e-01 -3.760134e-02 3.963552e-02 3.080461e-01 2.542950e-01 1.471891e-02 5.858557e-01 4.980305e-01 -4.061856e-01
<VARIANCE> 25
 6.480652e+00 2.624819e+01 2.183941e+01 2.589677e+01 2.946832e+01 2.061468e+01 2.655473e+01 3.049235e+01 1.748280e+01 2.238597e+01 2.249179e+01 1.827412e+01 5.081657e-01 9.606451e-01 1.801875e+00 1.161185e+00 2.017956e+00 2.360463e+00 2.280542e+00 2.311244e+00 1.501465e+00 1.924699e+00 1.688798e+00 2.308643e+00 3.731470e-01
<GCONST> 8.719588e+01
<MIXTURE> 3 1.838586e-01
<MEAN> 25
 4.938671e+00 1.319075e+01 1.610531e+00 3.498246e+00 -2.515229e+00 1.641931e-02 -1.418383e+00 -3.712610e+00 -1.507572e+00 -4.525128e+00 -9.756284e-01 -2.209359e+00 -1.096360e+00 -1.984272e+00 -6.310485e-01 2.100144e+00 2.504252e+00 -1.298351e+00 -1.260406e+00 7.422934e-01 4.630617e-01 6.011944e-01 1.196626e+00 4.291936e-01 -1.058936e-01
<VARIANCE> 25
 9.915196e+00 1.461898e+01 2.823306e+01 1.902966e+01 2.609880e+01 2.111225e+01 2.203256e+01 2.691462e+01 1.774294e+01 1.732682e+01 1.981252e+01 1.664108e+01 7.788297e-01 2.897763e+00 4.479008e+00 4.422180e+00 4.921844e+00 5.154172e+00 3.651352e+00 4.441023e+00 3.476074e+00 4.526709e+00 3.709325e+00 1.941691e+00 5.278996e-01
<GCONST> 9.534412e+01
<MIXTURE> 4 1.820775e-01
<MEAN> 25
 6.408638e+00 5.062233e+00 -4.493279e+00 3.367039e+00 3.053120e+00 -2.743567e+00 -5.475454e+00 -2.516283e+00 -4.944772e-01 -3.448820e+00 -5.619666e+00 -3.199058e+00 -4.386154e-01 -7.799441e-02 -3.239454e-01 8.182917e-01 1.101577e-01 8.557659e-03 8.253613e-02 1.636461e-01 1.744811e-01 -5.208218e-01 7.106526e-01 1.473937e-01 -5.393047e-01
<VARIANCE> 25
 8.952043e+00 3.103473e+01 3.557302e+01 3.564539e+01 4.684530e+01 3.119190e+01 2.815294e+01 4.532087e+01 3.376611e+01 4.440555e+01 4.078230e+01 2.896681e+01 7.214525e-01 1.421060e+00 2.316858e+00 1.741520e+00 3.367056e+00 3.263604e+00 2.943062e+00 2.982917e+00 3.135514e+00 2.604171e+00 3.539650e+00 2.895763e+00 7.297447e-01
<GCONST> 9.764599e+01
<MIXTURE> 5 1.930175e-01
<MEAN> 25
 2.982504e+00 1.290414e+01 3.906925e+00 5.592600e+00 -2.743428e+00 -2.256378e+00 -4.203087e+00 -5.149590e+00 -2.327997e+00 -5.225910e+00 -5.306732e-01 -3.265587e+00 -1.234033e+00 -1.159707e+00 -4.002910e-01 1.344821e+00 1.822537e+00 -4.291128e-01 -6.623916e-01 3.940659e-01 2.791763e-01 4.633989e-01 8.649572e-01 3.860618e-01 -5.410126e-01
<VARIANCE> 25
 1.179578e+01 1.993637e+01 1.959461e+01 2.051257e+01 2.399618e+01 2.508679e+01 2.125134e+01 2.318490e+01 1.710309e+01 2.532936e+01 2.153272e+01 1.554778e+01 7.385303e-01 1.490256e+00 2.705723e+00 2.746866e+00 2.985859e+00 3.884084e+00 2.875435e+00 2.458933e+00 2.685080e+00 2.718751e+00 2.214677e+00 1.625666e+00 4.180988e-01
<GCONST> 9.079363e+01
<STATE> 4
<NUMMIXES> 5
<MIXTURE> 1 2.182237e-01
<MEAN> 25
 1.507223e-01 -5.804257e+00 -5.040226e+00 9.264529e+00 6.535233e+00 -8.010332e+00 -8.155778e-01 4.986015e+00 1.362795e+00 -1.320169e+00 9.946313e-01 4.465516e+00 1.821572e+00 -1.505274e+00 -2.634335e-01 -2.983216e+00 -5.561557e-01 -6.948777e-01 -9.948243e-02 8.509238e-01 6.654898e-02 5.897006e-01 -2.022839e+00 5.335579e-01 2.682625e+00
<VARIANCE> 25
 2.388542e+01 5.503590e+01 4.855291e+01 5.845612e+01 6.998434e+01 3.703523e+01 3.238499e+01 2.804604e+01 3.922279e+01 3.624287e+01 3.261267e+01 2.239340e+01 2.761777e+00 7.965562e+00 7.292226e+00 7.084669e+00 7.934043e+00 5.056538e+00 3.113804e+00 4.631548e+00 4.586716e+00 4.820905e+00 4.351207e+00 4.150008e+00 2.155835e+00
<GCONST> 1.097579e+02
<MIXTURE> 2 2.159353e-01
<MEAN> 25
 8.064816e+00 -6.424499e-02 -6.972985e+00 3.961786e+00 5.433998e+00 -7.397126e+00 -6.448387e+00 1.421660e+00 3.268557e+00 -2.664205e-01 -5.669054e+00 7.297219e-01 3.432290e-01 -1.980283e+00 7.105288e-01 -2.266607e+00 -1.156936e+00 -1.016066e+00 6.394363e-01 1.307434e+00 4.322331e-01 1.289415e+00 -1.408526e+00 1.182707e+00 1.831979e+00
<VARIANCE> 25
 7.417282e+00 3.129561e+01 2.904217e+01 3.811450e+01 4.384352e+01 3.327303e+01 3.441376e+01 3.562893e+01 3.173474e+01 3.073311e+01 3.495726e+01 2.565723e+01 9.517969e-01 3.110997e+00 5.644034e+00 4.447732e+00 6.898632e+00 3.892068e+00 4.215668e+00 4.464966e+00 4.470147e+00 3.644735e+00 3.988589e+00 3.988266e+00 9.339105e-01
<GCONST> 1.025052e+02
<MIXTURE> 3 1.838822e-01
<MEAN> 25
 9.461644e-01 5.207049e+00 -1.978567e+00 6.509601e+00 2.393509e+00 -9.896436e-01 -2.045479e+00 -1.767299e+00 -6.633385e-01 -1.897019e+00 2.591409e+00 -1.068069e-01 -5.340601e-01 -3.964365e+00 -2.286920e+00 -9.382970e-02 2.386489e+00 -6.491659e-01 2.901803e-01 8.692291e-01 2.529288e-01 1.275859e+00 6.141264e-01 1.283123e+00 1.285475e+00
<VARIANCE> 25
 1.906553e+01 4.949378e+01 6.085289e+01 5.140854e+01 5.474061e+01 4.468206e+01 3.918358e+01 3.506096e+01 3.771889e+01 3.380322e+01 2.899040e+01 1.997563e+01 1.854995e+00 5.956689e+00 9.696898e+00 7.841222e+00 8.274143e+00 8.860035e+00 5.129115e+00 6.978447e+00 4.310917e+00 4.830645e+00 3.953295e+00 3.463851e+00 1.570803e+00
<GCONST> 1.100953e+02
<MIXTURE> 4 1.835316e-01
<MEAN> 25
 7.037595e+00 -1.201725e+00 -7.565381e+00 2.595368e+00 7.973200e+00 -6.204701e+00 -6.975046e+00 -2.352835e+00 1.325277e-01 1.663142e+00 -6.640102e+00 -7.301247e-01 -1.648976e-02 -2.218677e+00 1.014202e+00 -2.260423e+00 -4.094905e-01 -1.610427e+00 -3.192013e-02 1.255290e+00 3.827524e-01 1.614791e+00 -1.797862e+00 1.150221e+00 1.956551e+00
<VARIANCE> 25
 8.906986e+00 2.727073e+01 5.829952e+01 4.441183e+01 7.363279e+01 5.357782e+01 3.158059e+01 3.931964e+01 2.792192e+01 3.711963e+01 4.328947e+01 3.435066e+01 9.467738e-01 3.257766e+00 6.362138e+00 5.110366e+00 7.389495e+00 4.669553e+00 3.745190e+00 5.066037e+00 4.371102e+00 4.407103e+00 3.889750e+00 4.156949e+00 1.345729e+00
<GCONST> 1.060817e+02
<MIXTURE> 5 1.984260e-01
<MEAN> 25
 3.779641e+00 7.270170e+00 -1.611502e+00 5.132669e+00 1.489245e+00 -8.643004e-01 -3.536258e+00 -3.648677e+00 -1.512000e+00 -3.474826e+00 -8.591501e-01 -2.525110e+00 -4.695070e-01 -2.477536e+00 -1.480981e+00 2.259886e-01 1.880983e+00 -8.639991e-02 -1.207111e-01 3.144577e-01 2.024340e-01 8.092319e-01 6.056497e-01 5.713680e-01 6.133067e-01
<VARIANCE> 25
 1.861307e+01 4.585797e+01 4.587918e+01 3.136010e+01 4.212579e+01 3.513819e+01 2.548386e+01 3.922116e+01 2.878777e+01 3.312767e+01 3.192624e+01 2.410990e+01 1.360934e+00 5.403396e+00 8.740977e+00 5.085354e+00 9.133433e+00 6.626297e+00 5.175937e+00 5.182603e+00 4.350369e+00 3.823918e+00 3.437178e+00 3.143238e+00 1.173739e+00
<GCONST> 1.062150e+02
<TRANSP> 5
 0.000000e+00 1.000000e+00 0.000000e+00 0.000000e+00 0.000000e+00
 0.000000e+00 6.299644e-01 3.700356e-01 0.000000e+00 0.000000e+00
 0.000000e+00 0.000000e+00 4.384309e-01 5.615691e-01 0.000000e+00
 0.000000e+00 0.000000e+00 0.000000e+00 6.305038e-01 3.694961e-01
 0.000000e+00 0.000000e+00 0.000000e+00 0.000000e+00 0.000000e+00
<ENDHMM>
~h "h"
<BEGINHMM>
<NUMSTATES> 5
<STATE> 2
<NUMMIXES> 5
<MIXTURE> 1 2.842795e-01
<MEAN> 25
 6.306493e-01 -4.180725e+00 -2.034095e+00 1.175754e+00 5.655234e+00 7.409622e+00 2.188814e+00 -3.031620e+00 -1.112208e+00 -2.311659e+00 4.783665e-01 2.364121e+00 -2.174697e-01 1.027188e-01 2.556346e-02 1.417970e-02 3.114296e-01 1.547332e+00 2.559139e-01 -5.159889e-01 -2.004534e-01 -2.321016e-01 1.267085e-02 5.596138e-02 -4.063049e-01
<VARIANCE> 25
 3.641655e+01 5.952133e+01 8.297955e+01 3.922004e+01 9.015659e+01 6.399347e+01 6.295161e+01 4.658730e+01 4.796509e+01 4.803597e+01 5.170304e+01 3.943842e+01 1.451243e+00 2.294870e+00 2.703781e+00 2.660123e+00 3.346378e+00 4.077188e+00 3.729439e+00 2.807236e+00 3.759206e+00 2.946067e+00 3.140615e+00 2.517120e+00 5.231904e-01
<GCONST> 1.056851e+02
<MIXTURE> 2 1.816919e-01
<MEAN> 25
 3.305007e+00 -4.599644e+00 8.614234e+00 -8.001059e+00 -5.907409e+00 5.091843e+00 7.888174e+00 -6.261498e+00 -1.287158e+00 6.515082e-01 -8.064641e+00 -1.147079e+00 -1.238754e-01 1.152662e-01 4.217842e-02 1.241002e-01 -7.777596e-02 7.936024e-01 1.965420e-01 -3.801729e-01 2.920362e-01 -2.891079e-02 1.139190e-01 1.493674e-01 -2.280155e-01
<VARIANCE> 25
 5.629567e+00 3.136654e+01 1.309917e+01 2.539337e+01 2.488131e+01 6.107060e+01 3.007882e+01 3.447031e+01 3.009178e+01 2.905301e+01 1.912907e+01 1.901098e+01 2.248029e-01 1.076038e+00 8.032187e-01 1.360059e+00 1.367937e+00 2.425570e+00 2.051311e+00 2.159015e+00 1.821244e+00 2.446663e+00 1.414279e+00 1.438995e+00 3.600038e-01
<GCONST> 8.640722e+01
<MIXTURE> 3 1.889063e-01
<MEAN> 25
 3.176723e+00 -5.033111e+00 4.633811e+00 3.912424e+00 -3.559344e+00 9.352467e+00 1.231541e+01 -2.430436e+00 -2.221097e+00 -2.885716e+00 -3.637484e+00 1.383831e+00 -7.182937e-01 7.492259e-01 1.225163e+00 -1.956178e-01 -8.024290e-01 1.650022e+00 1.550945e-01 -1.417737e+00 7.929487e-01 6.443894e-01 -2.643422e-01 -1.535411e-01 -7.231014e-01
<VARIANCE> 25
 7.793956e+00 2.144828e+01 1.837524e+01 3.540401e+01 3.361064e+01 4.710227e+01 2.828914e+01 2.634132e+01 2.629488e+01 2.463017e+01 2.199884e+01 1.649031e+01 3.379206e-01 7.701687e-01 9.815429e-01 1.232583e+00 1.798939e+00 2.337945e+00 2.330038e+00 1.632870e+00 2.097239e+00 2.034444e+00 1.640959e+00 1.620764e+00 1.440407e-01
<GCONST> 8.600008e+01
<MIXTURE> 4 1.785610e-01
<MEAN> 25
 1.839575e+00 -7.890004e+00 8.157278e+00 -8.293324e+00 -2.188174e+00 2.795615e+00 8.245298e+00 -8.051232e+00 -6.030143e+00 -3.287096e+00 -9.662205e+00 -1.808505e+00 3.819104e-02 -6.755676e-01 7.356348e-03 -4.924179e-01 -3.341882e-01 -5.652354e-01 -2.349982e-01 4.775461e-01 -4.025292e-01 2.719072e-01 -1.424622e-01 4.006403e-02 4.111294e-01
<VARIANCE> 25
 5.245523e+00 1.930800e+01 1.320294e+01 2.186389e+01 2.320488e+01 4.427346e+01 2.943636e+01 4.038345e+01 2.901005e+01 3.054519e+01 1.882690e+01 1.432609e+01 2.533915e-01 1.157824e+00 9.942169e-01 1.772697e+00 1.647385e+00 2.706524e+00 1.819182e+00 3.782315e+00 1.941181e+00 3.013485e+00 1.710790e+00 1.227889e+00 3.628824e-01
<GCONST> 8.688870e+01
<MIXTURE> 5 1.665596e-01
<MEAN> 25
 3.024046e+00 -6.369464e+00 4.971079e+00 9.110773e-01 -1.343952e+00 6.724311e+00 1.047006e+01 -4.100498e+00 -3.165545e+00 -5.520473e+00 -7.919991e+00 4.019020e-01 -3.438655e-01 1.019141e+00 1.009531e+00 -4.177424e-01 -1.207482e+00 1.023355e+00 -1.817505e-01 -1.510875e+00 7.652029e-01 4.341801e-01 -4.442848e-01 -3.650706e-01 -5.785114e-01
<VARIANCE> 25
 7.516792e+00 1.646054e+01 1.569462e+01 4.063676e+01 3.592023e+01 6.668542e+01 3.870940e+01 2.795220e+01 2.820853e+01 3.165118e+01 2.163318e+01 1.757798e+01 3.517414e-01 6.226696e-01 7.902378e-01 1.033077e+00 1.957472e+00 2.527516e+00 2.140228e+00 1.681421e+00 1.971721e+00 2.504946e+00 1.449782e+00 1.684930e+00 1.942788e-01
<GCONST> 8.673597e+01
<STATE> 3
<NUMMIXES> 5
<MIXTURE> 1 2.659992e-01
<MEAN> 25
 -1.887013e+00 -2.559414e+00 2.514106e-01 1.964851e+00 -7.543832e-02 1.090967e+01 7.619864e+00 -4.588074e+00 1.617808e-01 -3.075891e-01 1.582678e-01 1.771320e+00 1.850058e+00 2.261559e+00 9.088876e-01 -1.153930e+00 -1.916394e+00 -1.001194e+00 -1.088490e+00 -8.464227e-01 -6.046234e-01 2.488747e-01 -4.570188e-01 -8.988084e-01 5.428976e-01
<VARIANCE> 25
 2.525474e+01 3.951375e+01 8.131300e+01 4.316610e+01 8.511118e+01 5.429102e+01 5.823608e+01 3.287248e+01 3.512012e+01 3.263265e+01 4.238321e+01 2.519950e+01 2.060156e+00 2.646580e+00 2.492962e+00 3.036907e+00 3.204307e+00 5.178609e+00 2.858263e+00 2.498373e+00 4.194253e+00 4.025423e+00 2.708660e+00 2.089268e+00 4.999315e-01
<GCONST> 1.033907e+02
<MIXTURE> 2 1.698808e-01
<MEAN> 25
 4.960563e+00 -3.551790e+00 7.968738e-01 -2.612022e+00 3.124521e+00 4.771836e+00 9.244781e-01 -4.188981e+00 -2.896054e+00 -2.711450e+00 -5.489223e+00 -1.097166e+00 4.435245e-02 6.470580e-01 -3.488347e-02 3.479972e-02 -1.403677e-01 5.600180e-02 -5.519386e-01 -2.663333e-01 3.223230e-01 -2.597943e-02 3.461334e-01 3.135885e-01 -3.541051e-01
<VARIANCE> 25
 1.067354e+01 4.512120e+01 7.902948e+01 5.630539e+01 1.146624e+02 4.798203e+01 5.828649e+01 3.890631e+01 3.882923e+01 5.143038e+01 3.419839e+01 3.007962e+01 2.338926e-01 1.109947e+00 1.185305e+00 1.414731e+00 1.914058e+00 1.734924e+00 2.136923e+00 2.240880e+00 2.279277e+00 2.240594e+00 2.212440e+00 1.608890e+00 3.230824e-01
<GCONST> 9.510461e+01
<MIXTURE> 3 2.144075e-01
<MEAN> 25
 1.697072e+00 3.334164e+00 1.030723e+01 -2.816954e+00 -6.680483e+00 1.472354e+01 3.413771e+00 -1.027664e+01 2.825261e+00 -1.315224e+00 -3.957810e+00 3.260288e+00 2.620762e-01 4.834642e-01 -2.717024e-01 -2.207670e-01 -4.333667e-01 -3.253165e-01 5.256265e-02 1.496156e-02 -1.500436e-01 2.035439e-01 2.286789e-01 -4.017371e-01 -1.171898e-01
<VARIANCE> 25
 1.459369e+01 2.396651e+01 2.788876e+01 2.981680e+01 2.927348e+01 5.617525e+01 4.542843e+01 2.915157e+01 3.010531e+01 3.080344e+01 2.203592e+01 2.690836e+01 3.373075e-01 1.212669e+00 1.132491e+00 1.702425e+00 1.719046e+00 2.324443e+00 3.016351e+00 1.691849e+00 1.985973e+00 1.890705e+00 1.336084e+00 1.961909e+00 2.445954e-01
<GCONST> 8.999494e+01
<MIXTURE> 4 1.841822e-01
<MEAN> 25
 3.097986e+00 -7.048799e+00 3.916737e+00 -4.335368e+00 4.190799e+00 3.902150e+00 8.464673e-01 -5.868943e+00 -6.256110e+00 -5.438297e+00 -8.699857e+00 -7.736836e-01 7.198905e-02 5.772146e-02 -1.940631e-01 2.363881e-01 2.621541e-01 -6.728789e-02 -7.501865e-01 2.070689e-02 1.220072e-01 -3.270172e-01 -2.986689e-02 -2.387095e-01 -1.067675e-01
<VARIANCE> 25
 9.796536e+00 3.469345e+01 5.502181e+01 5.235607e+01 1.057807e+02 4.754969e+01 4.615158e+01 4.544333e+01 3.677846e+01 4.905872e+01 3.677011e+01 2.114123e+01 2.981015e-01 1.307389e+00 1.694289e+00 1.729974e+00 2.996177e+00 1.954875e+00 2.108272e+00 2.968463e+00 2.326811e+00 2.994880e+00 2.464208e+00 1.885501e+00 3.742683e-01
<GCONST> 9.629601e+01
<MIXTURE> 5 1.655299e-01
<MEAN> 25
 1.315801e+00 1.242105e+00 8.114646e+00 -3.405865e+00 -1.933785e+00 1.378608e+01 1.331686e+00 -9.997650e+00 2.786928e-01 -3.984308e+00 -6.107892e+00 1.366379e+00 3.213898e-01 7.633002e-01 -4.557226e-02 -4.531043e-01 -2.068600e-01 -3.072679e-01 -5.871776e-01 -3.734250e-01 -2.178848e-01 -1.340067e-02 -8.255767e-02 -2.178042e-01 -7.857724e-02
<VARIANCE> 25
 1.993893e+01 2.982302e+01 5.282697e+01 4.829578e+01 4.636648e+01 6.166889e+01 4.463881e+01 3.328025e+01 3.719769e+01 2.782957e+01 3.256447e+01 3.096415e+01 3.537584e-01 1.144434e+00 1.110891e+00 1.472120e+00 1.860050e+00 2.659317e+00 2.752164e+00 1.947434e+00 2.290938e+00 2.210173e+00 1.888691e+00 1.906167e+00 2.896282e-01
<GCONST> 9.382864e+01
<STATE> 4
<NUMMIXES> 5
<MIXTURE> 1 1.432288e-01
<MEAN> 25
 8.543851e-01 2.881010e+00 8.420202e-01 9.025009e-01 6.748422e-03 7.168519e+00 2.888370e+00 -4.468232e+00 -1.981886e-02 -7.004389e-01 5.341109e-01 1.159610e+00 3.405012e+00 2.140170e+00 1.119137e+00 -2.072545e+00 -1.943708e+00 -1.384616e+00 -1.235669e+00 -7.489655e-01 -1.729109e+00 -4.420640e-01 -1.512569e+00 -1.107116e+00 2.097958e+00
<VARIANCE> 25
 3.357350e+01 5.518090e+01 7.716053e+01 3.777034e+01 9.995264e+01 4.722133e+01 5.468439e+01 3.104599e+01 3.299271e+01 3.379766e+01 3.099928e+01 2.307042e+01 2.051085e+00 5.523016e+00 2.667092e+00 4.533270e+00 3.975495e+00 5.546668e+00 3.657472e+00 3.691048e+00 3.798173e+00 4.222885e+00 3.746073e+00 2.445408e+00 1.229809e+00
<GCONST> 1.067470e+02
<MIXTURE> 2 3.399799e-01
<MEAN> 25
 5.080345e+00 1.481593e-01 7.201296e+00 -3.694449e+00 -9.060853e+00 7.759376e+00 5.945810e+00 -8.048532e+00 -5.406225e-01 3.031883e-01 -5.335799e+00 -8.886046e-01 7.328644e-01 -2.229346e-01 -4.568228e-01 -1.281203e+00 -1.327749e+00 -1.526329e+00 -9.615003e-02 6.920179e-01 8.255704e-02 1.459849e+00 7.440209e-01 -8.002516e-02 7.051548e-01
<VARIANCE> 25
 5.589630e+00 3.949882e+01 2.497162e+01 3.367536e+01 4.272373e+01 5.355767e+01 4.930119e+01 2.803438e+01 2.860092e+01 2.952115e+01 2.169126e+01 2.139445e+01 6.358395e-01 2.194683e+00 1.990401e+00 2.826756e+00 3.001932e+00 2.831692e+00 2.399513e+00 2.830432e+00 2.251379e+00 2.392023e+00 2.017052e+00 1.673844e+00 5.895699e-01
<GCONST> 9.441271e+01
<MIXTURE> 3 1.084686e-01
<MEAN> 25
 7.515841e+00 6.125537e+00 1.062329e+00 -2.533040e+00 -8.357749e+00 2.785115e+00 6.305239e+00 -1.915110e+00 -1.831786e+00 -1.387789e+00 1.098183e-01 6.568159e-01 3.105636e-01 2.268975e-01 -2.125777e-01 -8.272125e-01 -1.079261e+00 -3.510100e-01 3.028676e-01 2.127232e-01 1.459036e-01 9.118214e-01 8.147175e-01 3.070488e-01 1.076897e-01
<VARIANCE> 25
 9.126075e+00 8.608439e+01 3.577152e+01 2.464535e+01 3.445040e+01 2.792394e+01 3.348803e+01 2.657450e+01 1.984311e+01 3.378302e+01 2.227896e+01 1.571717e+01 3.852290e-01 8.488259e-01 1.220580e+00 1.596106e+00 1.849184e+00 1.947065e+00 1.180331e+00 1.677636e+00 1.670478e+00 1.852335e+00 1.507199e+00 1.279529e+00 2.730090e-01
<GCONST> 8.742286e+01
<MIXTURE> 4 2.806121e-01
<MEAN> 25
 4.189591e+00 -4.353321e+00 3.337918e+00 -4.585023e+00 2.857920e+00 4.912245e+00 -2.694157e-01 -6.052834e+00 -4.226342e+00 -3.936695e+00 -7.950636e+00 -1.365070e+00 4.423126e-01 -1.070692e-01 -3.984500e-01 -4.495707e-01 -3.120632e-01 -9.275939e-01 -3.304302e-01 4.343736e-01 -2.502141e-02 4.394602e-01 -2.090362e-01 -1.271731e-01 3.354642e-01
<VARIANCE> 25
 9.247614e+00 5.223775e+01 7.714958e+01 6.708159e+01 1.077674e+02 5.595093e+01 5.378381e+01 5.097397e+01 3.419598e+01 4.958750e+01 3.351178e+01 2.663915e+01 4.991263e-01 1.775949e+00 1.767566e+00 2.563171e+00 2.432518e+00 2.573885e+00 3.087024e+00 3.255302e+00 2.429515e+00 2.644665e+00 2.268004e+00 1.730803e+00 7.329681e-01
<GCONST> 9.997879e+01
<MIXTURE> 5 1.277137e-01
<MEAN> 25
 8.121690e+00 5.407723e+00 -2.924208e+00 -1.966965e+00 -9.997216e-01 3.818401e+00 2.378830e+00 -2.310469e+00 -4.123067e+00 -4.944391e+00 -1.133851e+00 -3.026296e-01 3.440076e-01 5.233263e-01 -3.213757e-02 -8.883415e-01 -1.283818e+00 -3.858417e-01 3.965084e-01 4.182353e-01 1.132808e-01 7.923684e-02 1.192228e-02 -8.382418e-02 5.502361e-02
<VARIANCE> 25
 1.183302e+01 1.040432e+02 5.000719e+01 2.821925e+01 6.256700e+01 2.947110e+01 3.522958e+01 2.709271e+01 2.591732e+01 2.820668e+01 2.691292e+01 1.961763e+01 3.960325e-01 8.420442e-01 1.114586e+00 1.532260e+00 1.952736e+00 1.590555e+00 1.509678e+00 1.799593e+00 1.773082e+00 1.720400e+00 1.564709e+00 1.207241e+00 2.416095e-01
<GCONST> 8.945980e+01
<TRANSP> 5
 0.000000e+00 1.000000e+00 0.000000e+00 0.000000e+00 0.000000e+00
 0.000000e+00 7.094529e-01 2.905471e-01 0.000000e+00 0.000000e+00
 0.000000e+00 0.000000e+00 3.791631e-01 6.208369e-01 0.000000e+00
 0.000000e+00 0.000000e+00 0.000000e+00 4.977195e-01 5.022805e-01
 0.000000e+00 0.000000e+00 0.000000e+00 0.000000e+00 0.000000e+00
<ENDHMM>
~h "i"
<BEGINHMM>
<NUMSTATES> 5
<STATE> 2
<NUMMIXES> 5
<MIXTURE> 1 1.515155e-01
<MEAN> 25
 -6.208214e+00 3.267709e+00 8.811422e+00 -5.313984e+00 -7.334778e-01 3.511045e+00 -5.760791e-01 -1.521039e+00 4.026809e+00 5.342946e+00 5.255075e-02 3.708271e+00 2.225961e+00 -6.937080e-01 4.404252e+00 -5.095994e+00 -1.754431e+00 -8.541793e-02 -8.788546e-01 -2.551933e+00 -1.893081e+00 1.188330e+00 -3.778307e+00 4.200348e-01 4.230309e+00
<VARIANCE> 25
 2.232669e+01 2.520767e+01 6.571450e+01 1.073438e+02 3.795389e+01 3.917564e+01 3.818474e+01 4.565730e+01 3.709236e+01 5.022149e+01 5.090872e+01 3.002398e+01 2.552929e+00 3.640907e+00 4.425518e+00 8.683925e+00 4.421256e+00 4.325457e+00 2.930312e+00 3.690456e+00 3.817912e+00 3.797359e+00 4.560007e+00 2.725849e+00 4.743724e+00
<GCONST> 1.087322e+02
<MIXTURE> 2 2.516271e-01
<MEAN> 25
 2.400268e+00 3.255497e+00 1.454875e+01 -1.286950e+01 -7.493456e+00 3.271676e+00 -3.982021e+00 -9.749828e+00 -5.273607e-01 2.281496e+00 -8.548197e+00 1.708930e+00 6.688949e-01 -3.028104e-01 1.637287e+00 -2.724170e+00 -1.649301e-01 1.230073e-01 -1.314676e+00 1.133324e-02 -2.482052e-01 9.471861e-01 -2.269760e+00 6.569480e-01 1.336884e+00
<VARIANCE> 25
 7.233268e+00 3.022432e+01 1.622696e+01 5.160629e+01 3.934693e+01 3.721066e+01 2.723844e+01 2.396609e+01 2.544888e+01 3.720206e+01 2.300042e+01 2.343951e+01 2.135751e+00 3.110235e+00 3.109330e+00 4.982589e+00 3.915765e+00 4.605429e+00 4.710048e+00 4.658256e+00 3.974056e+00 3.774523e+00 5.289172e+00 2.901097e+00 1.241174e+00
<GCONST> 1.012472e+02
<MIXTURE> 3 1.820455e-01
<MEAN> 25
 5.408801e+00 -3.055558e+00 8.963556e+00 -2.981744e+00 -1.092926e+01 -5.245907e+00 2.362531e+00 -3.775081e+00 -4.209411e+00 3.897612e+00 -5.673141e-01 -4.691020e-01 3.600693e-02 -5.771714e-01 1.871695e+00 -2.113472e+00 -1.142483e+00 2.557942e-01 2.926205e-01 -1.015682e+00 -2.071957e-01 2.224797e+00 -1.042865e+00 7.289672e-01 9.543816e-01
<VARIANCE> 25
 8.296876e+00 3.480427e+01 2.310362e+01 2.940792e+01 3.036359e+01 3.565509e+01 2.630696e+01 3.509598e+01 2.052715e+01 3.140163e+01 2.631351e+01 1.779447e+01 1.005980e+00 2.245692e+00 2.135479e+00 2.609876e+00 3.290242e+00 3.539613e+00 3.289093e+00 4.090897e+00 3.328502e+00 2.860142e+00 3.594362e+00 1.901678e+00 6.548795e-01
<GCONST> 9.590598e+01
<MIXTURE> 4 2.010208e-01
<MEAN> 25
 2.138350e+00 3.563991e-01 1.397235e+01 -1.562396e+01 -8.718925e+00 -9.826390e-01 -3.547122e+00 -9.976047e+00 -3.417633e+00 2.883558e+00 -6.849336e+00 -1.590827e-01 2.405733e+00 -1.047067e+00 2.109933e+00 -3.013932e+00 -1.648021e+00 -7.983232e-01 -1.351347e+00 -5.494524e-01 -1.922420e+00 9.653844e-01 -3.660284e+00 -2.080759e-01 2.745299e+00
<VARIANCE> 25
 5.253765e+00 3.329754e+01 2.029366e+01 4.276878e+01 3.202065e+01 4.087231e+01 2.915850e+01 2.743649e+01 2.003577e+01 3.562024e+01 2.877061e+01 1.743884e+01 2.165564e+00 3.886215e+00 5.059781e+00 4.249972e+00 3.828773e+00 4.656836e+00 4.806083e+00 3.326030e+00 3.335880e+00 3.837720e+00 5.476173e+00 2.536555e+00 2.260446e+00
<GCONST> 1.013747e+02
<MIXTURE> 5 2.137923e-01
<MEAN> 25
 4.182096e+00 -5.831521e+00 1.133210e+01 -6.785020e+00 -9.746881e+00 -4.509775e+00 5.670037e-01 -2.640043e+00 -7.436635e+00 2.972708e+00 -1.991448e+00 -2.781089e+00 -3.214692e-01 -1.367332e+00 2.103712e+00 -3.041278e+00 -4.924898e-01 3.889651e-01 9.722582e-02 -3.149491e-01 -7.711629e-01 2.330793e+00 -1.441477e+00 2.048292e-01 1.344798e+00
<VARIANCE> 25
 6.789972e+00 2.838463e+01 2.303524e+01 3.008155e+01 2.696801e+01 3.230722e+01 2.202761e+01 2.846718e+01 2.003768e+01 2.691379e+01 3.252495e+01 2.039415e+01 1.315244e+00 2.039701e+00 2.371719e+00 3.912353e+00 3.256434e+00 3.181642e+00 2.635284e+00 3.722723e+00 2.976550e+00 3.127505e+00 3.319199e+00 1.885777e+00 7.600842e-01
<GCONST> 9.537446e+01
<STATE> 3
<NUMMIXES> 5
<MIXTURE> 1 2.846311e-01
<MEAN> 25
 4.377769e+00 -5.258696e+00 1.184287e+01 -8.378735e+00 -9.814134e+00 -4.942529e+00 1.920122e+00 -4.101964e+00 -4.715982e+00 6.400022e+00 -3.520892e+00 4.834300e-01 -9.631524e-02 4.420280e-01 3.721530e-01 -3.198932e-01 4.055221e-01 1.775558e-01 -2.616376e-01 -2.468202e-01 1.222283e-01 2.247263e-01 -7.196347e-01 7.279290e-01 -2.053758e-01
<VARIANCE> 25
 6.310828e+00 3.229757e+01 1.883563e+01 2.657805e+01 2.156228e+01 3.765415e+01 2.402262e+01 3.180023e+01 2.342123e+01 2.899171e+01 2.552847e+01 1.889624e+01 3.747036e-01 1.344473e+00 1.123192e+00 2.019281e+00 1.526196e+00 1.903701e+00 2.096118e+00 2.688476e+00 2.011601e+00 1.918279e+00 2.418384e+00 1.438396e+00 3.855733e-01
<GCONST> 8.809018e+01
<MIXTURE> 2 1.990711e-01
<MEAN> 25
 1.569684e+00 -8.202961e-02 1.689166e+01 -1.785603e+01 -4.831827e+00 1.527745e+00 -4.463695e+00 -7.363727e+00 -2.491501e+00 5.387539e+00 -1.062145e+01 2.528545e+00 3.216819e-01 -5.932088e-01 -3.008197e-01 1.046549e+00 -5.949025e-01 -5.760232e-01 7.716699e-01 1.581952e-01 -4.135312e-01 3.585328e-01 3.268174e-01 -7.367636e-02 1.694376e-01
<VARIANCE> 25
 4.290483e+00 2.868132e+01 1.272817e+01 2.009019e+01 2.390250e+01 2.832657e+01 2.430540e+01 1.998137e+01 1.659034e+01 2.775008e+01 1.896620e+01 2.081975e+01 3.786108e-01 1.603337e+00 9.601831e-01 2.336386e+00 1.388306e+00 2.105337e+00 1.598094e+00 1.873159e+00 1.727803e+00 2.242591e+00 1.645200e+00 1.644807e+00 6.426678e-01
<GCONST> 8.550317e+01
<MIXTURE> 3 1.800193e-01
<MEAN> 25
 3.196198e+00 8.064686e+00 1.386395e+01 -1.302832e+01 -4.881034e+00 5.129699e+00 -8.196083e+00 -5.882198e+00 2.487297e+00 -1.004490e+00 -8.220375e+00 2.726076e+00 -7.583138e-02 3.248272e-01 1.581699e-01 -4.717584e-01 4.590302e-01 1.031139e-01 -4.638340e-01 2.449412e-01 3.213996e-01 2.530212e-01 -1.852575e-01 5.290705e-01 -8.593993e-02
<VARIANCE> 25
 3.860617e+00 2.399188e+01 1.393014e+01 3.251184e+01 3.030367e+01 1.980023e+01 1.829191e+01 2.887821e+01 1.801412e+01 2.663427e+01 2.238186e+01 2.140758e+01 2.454028e-01 1.027109e+00 9.077579e-01 2.019848e+00 2.044439e+00 1.609594e+00 1.943113e+00 2.222503e+00 1.338464e+00 2.147625e+00 1.662586e+00 1.252880e+00 3.859586e-01
<GCONST> 8.432286e+01
<MIXTURE> 4 2.061208e-01
<MEAN> 25
 1.129100e+00 -2.309186e+00 1.724040e+01 -1.770014e+01 -5.478201e+00 1.631918e+00 -3.953305e+00 -7.245074e+00 -5.557616e+00 3.796061e+00 -1.222467e+01 6.541301e-01 1.407952e-01 1.755146e-01 -4.899121e-01 8.357498e-01 -2.693563e-01 -1.994570e-01 1.962924e-01 -2.847895e-01 -3.126634e-01 -4.690400e-01 -1.216668e-01 2.168862e-02 -3.644078e-01
<VARIANCE> 25
 3.874920e+00 2.450354e+01 9.806976e+00 1.325527e+01 1.985597e+01 2.612406e+01 2.304902e+01 1.656364e+01 1.501647e+01 2.212105e+01 1.646779e+01 1.338902e+01 2.152683e-01 1.136783e+00 7.175739e-01 1.927322e+00 1.022051e+00 1.722216e+00 1.365863e+00 1.698490e+00 1.529204e+00 1.558657e+00 1.692070e+00 1.210141e+00 3.555199e-01
<GCONST> 7.964009e+01
<MIXTURE> 5 1.301511e-01
<MEAN> 25
 2.237643e+00 2.018572e+00 1.454524e+01 -1.548650e+01 -4.282632e+00 5.513833e+00 -6.892938e+00 -8.160412e+00 -1.864093e+00 5.790097e-01 -1.153366e+01 1.009143e-01 -1.048130e-01 8.676388e-02 2.069530e-01 -7.461330e-01 4.606755e-01 -4.035643e-02 -4.062025e-01 1.874831e-01 6.574676e-02 2.801579e-01 -8.152087e-01 2.005933e-01 8.221027e-02
<VARIANCE> 25
 5.066344e+00 2.542396e+01 1.350698e+01 1.828097e+01 3.920953e+01 3.706695e+01 2.979211e+01 3.343777e+01 2.178393e+01 2.887381e+01 1.951667e+01 1.982718e+01 2.840941e-01 1.024004e+00 7.896115e-01 1.732338e+00 1.897185e+00 2.087739e+00 1.541253e+00 2.116886e+00 1.569465e+00 2.316640e+00 1.984326e+00 1.581390e+00 3.628485e-01
<GCONST> 8.596049e+01
<STATE> 4
<NUMMIXES> 5
<MIXTURE> 1 2.636079e-01
<MEAN> 25
 -7.298135e-01 8.794885e+00 7.220660e+00 2.909246e+00 -6.109547e+00 -1.179516e+00 -2.757077e+00 -5.018427e+00 1.541237e+00 7.780031e-01 1.208353e+00 1.166551e+00 -1.043135e+00 6.278978e-02 -1.307181e+00 1.060877e+00 8.935775e-01 -3.135681e-01 -1.373699e-01 9.690107e-01 5.098616e-01 -8.774100e-02 1.347375e+00 -2.077121e-01 -1.340902e+00
<VARIANCE> 25
 1.293502e+01 1.874481e+01 1.754890e+01 2.404082e+01 3.886868e+01 2.762556e+01 2.723386e+01 2.444021e+01 2.548179e+01 3.828434e+01 2.434413e+01 2.053782e+01 4.850648e-01 1.624940e+00 1.241363e+00 2.190275e+00 2.655003e+00 2.004781e+00 2.415371e+00 1.977025e+00 2.443978e+00 2.226539e+00 2.091807e+00 1.690033e+00 6.191629e-01
<GCONST> 9.053484e+01
<MIXTURE> 2 2.359381e-01
<MEAN> 25
 4.579744e+00 -1.127502e+00 1.020166e+01 -3.742194e+00 -9.368793e+00 -5.647177e+00 1.127743e+00 -5.381554e+00 -5.058493e+00 4.145762e+00 -4.006866e+00 1.415183e+00 -3.101018e-01 2.133738e+00 -8.845952e-01 2.553203e+00 3.353723e-01 2.528844e-01 -3.328202e-02 -8.698677e-03 4.728331e-01 -1.345816e+00 9.960080e-01 -1.907162e-01 -2.016609e+00
<VARIANCE> 25
 5.541019e+00 2.829782e+01 1.874658e+01 3.228567e+01 2.252743e+01 3.746599e+01 2.035303e+01 3.368678e+01 1.924695e+01 3.284424e+01 3.053645e+01 1.995240e+01 6.300660e-01 1.158118e+00 8.608702e-01 1.551455e+00 1.729481e+00 1.852819e+00 1.786068e+00 2.116339e+00 1.951102e+00 1.795170e+00 2.393449e+00 1.815075e+00 7.789738e-01
<GCONST> 8.847849e+01
<MIXTURE> 3 1.498908e-01
<MEAN> 25
 2.020238e+00 5.863997e+00 1.315551e+01 -8.485743e+00 -7.101767e+00 1.948460e+00 -3.984368e+00 -8.307720e+00 7.441555e-01 2.287203e+00 -6.574538e+00 3.132847e+00 -6.033484e-01 6.249093e-01 -5.803129e-01 1.566314e+00 7.416119e-02 -3.103910e-01 4.179449e-01 2.241033e-01 5.581704e-01 1.412441e-02 1.243476e+00 1.090110e-01 -1.127351e+00
<VARIANCE> 25
 9.613967e+00 3.125755e+01 1.820328e+01 5.776580e+01 3.047253e+01 3.241596e+01 3.360622e+01 2.694778e+01 2.475215e+01 4.013024e+01 3.036448e+01 2.549895e+01 8.064089e-01 3.015316e+00 1.643600e+00 3.838288e+00 2.446978e+00 2.480021e+00 2.331006e+00 2.383308e+00 2.475097e+00 2.963853e+00 2.807079e+00 1.761299e+00 2.057305e+00
<GCONST> 9.642817e+01
<MIXTURE> 4 2.099559e-01
<MEAN> 25
 3.525878e+00 -3.711458e+00 1.242036e+01 -9.048510e+00 -8.388264e+00 -3.527267e+00 -2.027090e-01 -5.732872e+00 -7.420959e+00 3.489036e+00 -7.074528e+00 -1.756793e-01 3.602409e-01 1.098573e+00 -1.544601e+00 2.828214e+00 1.789101e-02 -6.298304e-01 -4.554466e-02 -8.339904e-02 -2.902865e-01 -1.547046e+00 8.835615e-01 -2.738289e-01 -1.283778e+00
<VARIANCE> 25
 4.817019e+00 3.376722e+01 1.539354e+01 2.426400e+01 2.311683e+01 3.716853e+01 2.055035e+01 3.304615e+01 2.179317e+01 3.091464e+01 3.059138e+01 1.950917e+01 5.295579e-01 1.533550e+00 9.603808e-01 1.847787e+00 1.478746e+00 2.272946e+00 2.025961e+00 2.571572e+00 1.820028e+00 1.855276e+00 2.367867e+00 1.432732e+00 5.543963e-01
<GCONST> 8.821960e+01
<MIXTURE> 5 1.405984e-01
<MEAN> 25
 3.521032e-01 5.264260e+00 1.217389e+01 -5.074383e+00 -7.629899e+00 -3.075261e-01 -3.594941e+00 -8.842398e+00 -1.964881e+00 1.652735e+00 -5.460193e+00 1.263408e+00 -7.757069e-01 1.083314e+00 -9.695306e-01 2.157292e+00 -1.884648e-01 1.850828e-01 4.474462e-02 -8.340885e-02 6.468865e-01 -6.469871e-01 1.082518e+00 -5.547638e-01 -1.889386e+00
<VARIANCE> 25
 1.078726e+01 2.748244e+01 1.618344e+01 5.071096e+01 3.259827e+01 3.269418e+01 3.100359e+01 2.680879e+01 2.746732e+01 3.952576e+01 2.758447e+01 3.050113e+01 5.682816e-01 1.694717e+00 9.112604e-01 2.720282e+00 1.883052e+00 2.304579e+00 1.879582e+00 2.005122e+00 2.332420e+00 1.989201e+00 2.174368e+00 1.645886e+00 1.041680e+00
<GCONST> 9.228345e+01
<TRANSP> 5
 0.000000e+00 1.000000e+00 0.000000e+00 0.000000e+00 0.000000e+00
 0.000000e+00 4.930873e-01 5.069128e-01 0.000000e+00 0.000000e+00
 0.000000e+00 0.000000e+00 7.105492e-01 2.894508e-01 0.000000e+00
 0.000000e+00 0.000000e+00 0.000000e+00 7.182735e-01 2.817266e-01
 0.000000e+00 0.000000e+00 0.000000e+00 0.000000e+00 0.000000e+00
<ENDHMM>
~h "j"
<BEGINHMM>
<NUMSTATES> 5
<STATE> 2
<NUMMIXES> 5
<MIXTURE> 1 1.796041e-01
<MEAN> 25
 5.621197e-01 1.071777e+01 2.356992e-01 6.787501e+00 3.754524e+00 -8.033481e-01 -3.019990e+00 1.005153e+00 1.977702e+00 -8.069869e-01 4.231188e+00 -6.368257e-01 -1.927064e+00 -1.189617e+00 1.076962e+00 -1.071437e+00 8.742255e-01 4.171649e-01 -2.589561e-01 -1.987420e-01 -4.060887e-01 3.674237e-01 6.158620e-01 -7.403401e-02 3.275336e-01
<VARIANCE> 25
 3.319241e+01 1.676377e+01 2.312391e+01 1.522112e+01 2.034089e+01 2.066770e+01 2.301279e+01 2.223638e+01 1.877775e+01 2.143529e+01 1.745352e+01 1.686896e+01 4.291508e+00 6.320498e+00 3.570807e+00 3.690637e+00 2.697618e+00 2.907039e+00 2.466612e+00 2.275914e+00 3.257320e+00 2.740277e+00 3.326324e+00 2.563503e+00 1.786458e+00
<GCONST> 9.666994e+01
<MIXTURE> 2 3.649981e-01
<MEAN> 25
 7.218640e+00 5.445712e+00 -4.848266e-02 6.217116e+00 -2.530768e+00 -3.621363e+00 1.944009e+00 5.224397e-02 -2.836875e+00 -5.540312e+00 -2.950620e+00 -2.603535e+00 -6.826472e-01 1.780141e+00 -1.292971e-01 8.691672e-01 1.242980e+00 4.738406e-01 -1.816531e-01 6.099967e-01 3.489675e-01 -5.841555e-01 7.809703e-01 -3.445640e-01 -1.417033e+00
<VARIANCE> 25
 5.947124e+00 4.092745e+01 2.135837e+01 1.955607e+01 2.800534e+01 3.299786e+01 2.668968e+01 4.692820e+01 2.373225e+01 2.365487e+01 2.159039e+01 2.309526e+01 5.601380e-01 1.447090e+00 1.201277e+00 1.646143e+00 1.808412e+00 2.324152e+00 2.194962e+00 2.013362e+00 1.884350e+00 1.936448e+00 1.760551e+00 1.910240e+00 4.700228e-01
<GCONST> 8.912627e+01
<MIXTURE> 3 1.114810e-01
<MEAN> 25
 3.601360e+00 7.927133e+00 -1.028508e+00 7.694173e+00 1.007622e+00 -2.548550e+00 2.421101e+00 3.194231e+00 -1.260605e+00 -6.245875e+00 1.440513e-01 -1.704667e+00 -2.737359e+00 -5.622885e-01 3.243564e-02 -1.629909e+00 2.438503e+00 -4.701051e-02 -6.341815e-02 -2.235169e-01 5.669073e-01 8.100857e-01 1.515133e+00 7.089265e-01 -1.150044e-01
<VARIANCE> 25
 9.541140e+00 4.160197e+01 3.911887e+01 1.958751e+01 3.083577e+01 2.353458e+01 2.929156e+01 4.045174e+01 2.012776e+01 2.403422e+01 1.631504e+01 1.944924e+01 1.449824e+00 3.864667e+00 2.115650e+00 3.244908e+00 4.323741e+00 3.502603e+00 4.192207e+00 3.474560e+00 2.834166e+00 3.173822e+00 2.653990e+00 2.151580e+00 1.462511e+00
<GCONST> 9.754341e+01
<MIXTURE> 4 1.745385e-01
<MEAN> 25
 5.846314e+00 4.160906e+00 3.063627e+00 3.662728e+00 -3.572870e+00 -4.480408e+00 -7.173777e-01 -4.296567e+00 -6.467366e+00 -6.906221e+00 -6.173243e+00 -2.390641e+00 3.250086e-01 2.001733e+00 -2.604982e-01 1.205164e+00 2.219451e-01 2.112228e-01 1.119966e-01 -6.804692e-01 -1.812275e-01 -1.271821e+00 -2.230073e-01 -1.406855e+00 -7.105349e-01
<VARIANCE> 25
 1.204402e+01 6.279552e+01 2.029917e+01 2.884352e+01 3.567402e+01 4.172252e+01 3.088313e+01 5.204127e+01 2.290242e+01 3.075577e+01 2.782586e+01 2.488932e+01 3.490228e+00 2.688600e+00 1.529367e+00 4.245610e+00 3.347080e+00 3.031993e+00 2.402958e+00 3.191017e+00 2.229202e+00 2.100692e+00 2.903903e+00 1.746715e+00 2.591055e+00
<GCONST> 9.931712e+01
<MIXTURE> 5 1.693771e-01
<MEAN> 25
 2.819884e+00 7.894566e+00 2.441374e+00 6.579271e+00 -6.671202e-01 -3.574941e+00 5.528748e-02 -2.025733e+00 -3.304737e+00 -6.788868e+00 -2.344495e+00 -3.036592e+00 -3.559407e+00 -6.611222e-01 1.449310e-01 -2.174319e+00 3.508474e+00 -7.448313e-01 2.685568e-01 -1.879345e-01 5.041982e-01 7.928604e-01 1.598998e+00 3.447258e-02 8.295578e-01
<VARIANCE> 25
 1.246610e+01 4.115182e+01 4.344714e+01 2.168535e+01 3.518265e+01 2.769723e+01 3.143512e+01 5.413736e+01 2.772120e+01 3.411415e+01 2.230328e+01 2.029607e+01 1.338802e+00 5.657466e+00 4.057342e+00 3.678749e+00 4.825054e+00 5.081122e+00 4.802400e+00 4.571729e+00 4.045391e+00 2.756837e+00 2.835620e+00 2.203756e+00 1.154987e+00
<GCONST> 1.017282e+02
<STATE> 3
<NUMMIXES> 5
<MIXTURE> 1 2.947055e-01
<MEAN> 25
 -1.877101e+01 8.489328e+00 6.087249e+00 -6.295100e+00 9.962606e+00 -2.710464e+00 2.804653e+00 -1.060494e+00 -1.201289e+00 1.158236e+00 8.348655e+00 -3.572245e+00 -1.931941e+00 1.278422e+00 1.705705e+00 -5.904526e-01 -1.175068e+00 2.901706e-02 1.613936e+00 1.305154e-01 -1.819803e-02 2.961359e-01 1.430371e+00 -2.650032e-01 2.947586e-01
<VARIANCE> 25
 1.467957e+01 2.121884e+01 4.009026e+01 2.009206e+01 2.842238e+01 3.614810e+01 3.755134e+01 4.398339e+01 3.694671e+01 3.814975e+01 2.992883e+01 2.398391e+01 3.471668e+00 2.719549e+00 2.677140e+00 2.154274e+00 2.939207e+00 3.797296e+00 3.338187e+00 3.276146e+00 2.693589e+00 2.708883e+00 2.469510e+00 2.297642e+00 1.000961e+00
<GCONST> 9.907736e+01
<MIXTURE> 2 2.447974e-01
<MEAN> 25
 -6.900526e+00 2.598963e+00 1.799590e+00 -1.484621e+00 9.697269e+00 -3.887769e+00 1.514377e+00 -1.844501e+00 -6.492814e-01 -1.202252e+00 2.769937e+00 -9.964718e-01 -5.027216e+00 -1.030721e-01 4.727300e-01 -3.362419e+00 2.900331e+00 -7.297027e-01 1.231639e+00 -5.253692e-01 7.041535e-02 1.328789e+00 1.872539e+00 -1.857152e-01 1.926275e+00
<VARIANCE> 25
 2.385615e+01 4.525111e+01 4.869796e+01 3.587515e+01 4.277502e+01 4.688259e+01 5.466156e+01 5.849125e+01 3.342897e+01 3.509754e+01 2.759704e+01 2.214917e+01 1.586890e+00 4.329432e+00 3.702150e+00 2.548857e+00 3.660498e+00 3.350360e+00 4.111779e+00 3.513458e+00 3.979389e+00 2.949124e+00 2.593440e+00 2.359931e+00 1.012859e+00
<GCONST> 1.031895e+02
<MIXTURE> 3 1.219877e-01
<MEAN> 25
 -9.382843e+00 1.371294e+00 4.862267e+00 -2.392473e+00 6.346354e+00 3.032052e-01 -2.720515e+00 4.440245e-01 1.477664e+00 -9.505093e-01 7.764064e+00 -3.050989e-01 -4.143981e+00 -1.032218e+00 1.058066e+00 -3.391369e+00 1.208740e+00 3.051868e-01 1.174279e+00 2.650271e-01 -1.094920e-01 3.962142e-01 1.943754e+00 1.341956e-02 2.324104e+00
<VARIANCE> 25
 3.062306e+01 5.420869e+01 5.435526e+01 5.703424e+01 4.848925e+01 5.593348e+01 5.832711e+01 3.804354e+01 3.693119e+01 3.344890e+01 3.884533e+01 3.076376e+01 3.705465e+00 5.258816e+00 4.421794e+00 4.676549e+00 4.013546e+00 4.652800e+00 4.276443e+00 3.840937e+00 4.163666e+00 3.383640e+00 6.074609e+00 3.667844e+00 1.843103e+00
<GCONST> 1.093013e+02
<MIXTURE> 4 2.122373e-01
<MEAN> 25
 -6.730849e+00 5.271727e+00 4.137657e+00 -3.010253e+00 9.211713e+00 -5.091974e+00 6.529734e-01 -2.677828e+00 -4.034100e+00 -3.129438e+00 6.589367e-01 -4.086672e+00 -4.561541e+00 7.269725e-01 8.962542e-01 -2.776480e+00 2.475451e+00 -1.079459e+00 8.390389e-01 2.130711e-01 -3.201396e-01 6.455903e-01 1.913627e+00 -6.484209e-01 1.499734e+00
<VARIANCE> 25
 2.676112e+01 5.285471e+01 5.159796e+01 2.592320e+01 3.871402e+01 5.483898e+01 5.867942e+01 6.311775e+01 3.388787e+01 4.441174e+01 2.805797e+01 2.347585e+01 2.183243e+00 2.924569e+00 3.275831e+00 2.733546e+00 4.606581e+00 3.866593e+00 3.747928e+00 3.560895e+00 2.869157e+00 2.929930e+00 2.786353e+00 2.397240e+00 7.450141e-01
<GCONST> 1.033355e+02
<MIXTURE> 5 1.262715e-01
<MEAN> 25
 -9.611084e+00 7.096232e+00 2.984953e+00 -3.064368e+00 8.736448e+00 -4.855584e+00 2.254231e-01 -1.855217e+00 -2.072092e+00 -2.941244e+00 4.070619e+00 -3.112160e+00 -2.842473e+00 5.172479e-01 8.118842e-01 -1.673455e+00 3.392091e-01 -7.927963e-01 1.026405e+00 1.255132e-01 -1.571140e-01 4.999668e-01 1.421508e+00 -3.634203e-01 1.066868e+00
<VARIANCE> 25
 4.499882e+01 4.971971e+01 5.678824e+01 3.338240e+01 5.101294e+01 5.083266e+01 5.815387e+01 5.470984e+01 4.123263e+01 4.660896e+01 4.182426e+01 2.760840e+01 4.853408e+00 2.674993e+00 3.082721e+00 4.233359e+00 3.904881e+00 3.413103e+00 3.821346e+00 3.830562e+00 3.022428e+00 2.695951e+00 3.274652e+00 2.711823e+00 1.478492e+00
<GCONST> 1.068243e+02
<STATE> 4
<NUMMIXES> 5
<MIXTURE> 1 1.183021e-01
<MEAN> 25
 -1.868027e+01 3.519346e+00 9.548108e+00 -5.123198e+00 4.137861e+00 -1.454913e-01 5.901258e+00 2.465949e+00 -1.028894e+00 1.117340e+00 1.283076e+01 -1.436898e+00 1.687148e+00 -5.376254e-01 3.724399e-01 8.314292e-01 -1.270824e+00 -7.714321e-01 4.400468e-01 2.615255e-01 2.159602e-01 -2.419127e-01 -4.194323e-01 2.443189e-01 -3.224820e-01
<VARIANCE> 25
 1.716495e+01 1.881456e+01 5.970088e+01 2.329734e+01 3.759900e+01 6.126120e+01 3.985264e+01 5.514377e+01 4.021081e+01 4.380541e+01 2.580077e+01 2.466813e+01 3.266708e+00 2.184695e+00 2.594779e+00 1.857694e+00 3.330007e+00 3.379467e+00 2.880926e+00 2.630147e+00 2.394989e+00 2.066880e+00 2.922485e+00 2.010316e+00 1.457543e+00
<GCONST> 1.000600e+02
<MIXTURE> 2 2.239855e-01
<MEAN> 25
 2.354752e+00 -3.974080e+00 3.576617e+00 -5.305057e+00 -3.126610e+00 -1.171437e+01 5.533113e+00 2.153327e+00 -2.153862e-01 -2.701986e+00 6.026340e-01 -2.258501e-01 3.097939e+00 -4.079627e+00 -1.058022e+00 9.112345e-02 -6.615592e-01 1.146449e+00 1.525523e-01 2.162100e+00 1.076275e+00 -1.256064e-01 -2.410573e+00 6.901624e-01 1.410107e+00
<VARIANCE> 25
 1.104282e+01 4.277252e+01 2.693050e+01 1.382119e+01 2.359814e+01 1.841559e+01 2.597804e+01 3.055336e+01 1.976497e+01 1.968139e+01 2.281750e+01 1.398811e+01 2.533847e+00 2.762600e+00 2.068198e+00 1.758778e+00 6.676931e+00 3.289420e+00 2.466264e+00 3.390507e+00 2.160125e+00 2.903781e+00 2.369415e+00 1.825059e+00 1.095606e+00
<GCONST> 9.434648e+01
<MIXTURE> 3 3.714198e-01
<MEAN> 25
 -8.348686e+00 9.955920e+00 9.932750e+00 -5.796830e+00 2.645477e+00 -6.283222e+00 3.819620e+00 -4.124968e+00 -2.804222e+00 -4.518264e-01 4.704576e+00 -4.187117e+00 4.051241e+00 -1.860250e+00 7.383454e-01 -1.395372e+00 -3.981501e+00 -9.006451e-01 -1.997954e-01 -5.546553e-01 -3.715817e-02 2.985399e-01 -1.603093e+00 5.087276e-01 1.730833e+00
<VARIANCE> 25
 4.304331e+01 2.282854e+01 4.337535e+01 2.868035e+01 5.963088e+01 3.624801e+01 3.177113e+01 4.313343e+01 2.689931e+01 3.276293e+01 3.436385e+01 2.238499e+01 5.035824e+00 4.103554e+00 3.443461e+00 2.644011e+00 4.198338e+00 4.950914e+00 3.256054e+00 4.733681e+00 3.312170e+00 3.347514e+00 4.264348e+00 2.198919e+00 1.171644e+00
<GCONST> 1.041006e+02
<MIXTURE> 4 1.535714e-01
<MEAN> 25
 3.110695e-01 -2.298728e+00 6.192899e+00 -8.360240e+00 -5.904020e+00 -1.184648e+01 1.403275e+00 -2.618781e+00 -2.651114e+00 -3.851753e+00 1.772385e+00 -1.890443e+00 4.783483e+00 -4.249059e+00 -5.216525e-01 -4.340375e-01 -2.641579e+00 -1.032243e+00 -7.896887e-01 7.180167e-01 6.968660e-01 -6.013432e-01 -2.894932e+00 3.400605e-01 2.141412e+00
<VARIANCE> 25
 9.661551e+00 2.671045e+01 2.242674e+01 1.186459e+01 1.906040e+01 1.701192e+01 2.532566e+01 3.112203e+01 1.196782e+01 2.209000e+01 1.569042e+01 1.150957e+01 2.090423e+00 2.293030e+00 3.005810e+00 2.013893e+00 4.193509e+00 3.264148e+00 3.902600e+00 3.331787e+00 2.841022e+00 3.541733e+00 3.055326e+00 1.500797e+00 7.958391e-01
<GCONST> 9.246165e+01
<MIXTURE> 5 1.327193e-01
<MEAN> 25
 -1.828583e+01 4.974087e+00 8.617011e+00 -5.457212e+00 7.556462e+00 -6.973299e-01 5.962778e+00 9.762852e-01 -7.200927e-01 7.820097e-01 1.039995e+01 -2.008607e+00 3.946215e+00 -3.807000e-01 1.216406e+00 -1.994461e-01 -3.558193e+00 -1.829008e+00 -6.664641e-02 -8.035924e-01 -6.220192e-01 -7.995446e-01 -1.467741e+00 -2.556168e-01 1.011409e+00
<VARIANCE> 25
 1.473375e+01 1.504833e+01 4.741802e+01 2.144382e+01 3.074661e+01 3.067419e+01 3.131118e+01 3.703565e+01 3.540202e+01 4.594807e+01 2.380129e+01 2.279299e+01 3.571179e+00 3.015332e+00 3.176332e+00 1.708148e+00 3.620560e+00 3.884305e+00 3.192801e+00 2.601856e+00 3.146332e+00 2.487610e+00 2.686054e+00 1.924045e+00 1.205562e+00
<GCONST> 9.858373e+01
<TRANSP> 5
 0.000000e+00 1.000000e+00 0.000000e+00 0.000000e+00 0.000000e+00
 0.000000e+00 7.605404e-01 2.394596e-01 0.000000e+00 0.000000e+00
 0.000000e+00 0.000000e+00 6.699738e-01 3.300262e-01 0.000000e+00
 0.000000e+00 0.000000e+00 0.000000e+00 7.224116e-01 2.775883e-01
 0.000000e+00 0.000000e+00 0.000000e+00 0.000000e+00 0.000000e+00
<ENDHMM>
~h "k"
<BEGINHMM>
<NUMSTATES> 5
<STATE> 2
<NUMMIXES> 5
<MIXTURE> 1 2.670389e-01
<MEAN> 25
 -4.037226e+00 -1.370968e+00 -3.332496e+00 8.269224e+00 4.308982e+00 -3.197155e+00 -2.632681e+00 1.088787e+00 2.906590e+00 4.690576e-01 3.761467e+00 1.588165e+00 7.769672e-01 -5.364865e+00 -4.301838e+00 4.327450e-01 4.053322e+00 -1.785653e+00 3.047055e-01 2.022731e+00 1.093297e+00 1.032972e+00 5.459154e-02 1.851179e+00 2.670651e+00
<VARIANCE> 25
 1.642602e+01 6.900770e+01 4.986004e+01 3.270224e+01 8.621223e+01 4.250811e+01 3.648627e+01 3.688566e+01 3.247493e+01 3.449208e+01 2.770466e+01 2.273405e+01 1.467081e+00 2.811092e+00 3.651881e+00 4.969786e+00 6.335174e+00 5.511218e+00 5.509642e+00 5.484378e+00 4.331836e+00 5.642107e+00 4.381101e+00 3.270153e+00 1.365307e+00
<GCONST> 1.067011e+02
<MIXTURE> 2 1.989539e-01
<MEAN> 25
 -5.854819e+00 3.749343e+00 4.316675e+00 -1.293092e-01 1.103990e-01 -5.804056e-02 -3.405579e+00 -2.862375e+00 2.849686e+00 -1.884897e+00 4.094976e+00 8.820930e-01 -1.898192e+00 -1.468593e+00 3.871695e-02 -2.169029e+00 2.945049e+00 1.769926e-02 2.879117e-01 6.063324e-01 1.356535e+00 -6.848674e-01 1.709134e+00 9.051654e-01 1.020802e+00
<VARIANCE> 25
 1.805982e+01 3.292786e+01 4.084134e+01 5.207531e+01 6.012186e+01 2.835758e+01 3.564835e+01 3.860479e+01 2.897805e+01 4.776694e+01 3.513694e+01 2.207705e+01 1.545494e+00 3.968704e+00 4.448363e+00 7.756282e+00 5.162440e+00 4.363274e+00 3.695141e+00 3.657040e+00 4.230110e+00 4.316607e+00 3.756113e+00 3.210594e+00 2.029337e+00
<GCONST> 1.057277e+02
<MIXTURE> 3 1.676267e-01
<MEAN> 25
 -4.518732e+00 9.973302e-01 -6.113065e+00 5.045691e+00 3.400252e+00 6.396486e-01 9.324677e-01 3.883452e+00 4.286969e+00 -7.106323e-01 3.688934e+00 2.731726e-01 -7.395288e-01 -2.352308e+00 -1.753981e-01 -1.807859e+00 1.285410e+00 1.268722e+00 4.635189e-01 -8.906518e-01 5.994898e-01 1.263843e+00 8.899337e-01 1.516755e+00 1.248483e+00
<VARIANCE> 25
 1.840220e+01 2.762912e+01 5.101191e+01 2.350490e+01 3.987762e+01 4.036065e+01 2.574772e+01 3.834403e+01 2.884280e+01 3.051643e+01 2.848925e+01 1.840972e+01 2.514486e+00 3.283904e+00 1.253016e+01 6.831611e+00 7.881040e+00 6.532410e+00 4.831859e+00 4.976130e+00 5.543292e+00 4.336919e+00 3.742153e+00 2.838970e+00 1.747560e+00
<GCONST> 1.063717e+02
<MIXTURE> 4 1.984710e-01
<MEAN> 25
 -2.050989e+00 4.824424e+00 4.460073e+00 1.755878e+00 -3.108038e+00 -2.031742e+00 -3.574156e+00 -5.086737e+00 -1.517164e+00 -2.698078e+00 -8.681310e-01 -1.085876e+00 -1.255399e+00 -1.482320e+00 -9.917864e-01 1.763069e-01 2.018786e+00 -3.681269e-01 7.721703e-03 8.450321e-01 9.812750e-01 -4.758228e-01 1.376064e+00 4.689919e-01 1.305056e-01
<VARIANCE> 25
 1.915208e+01 3.870186e+01 5.035287e+01 4.468768e+01 5.815596e+01 3.681126e+01 3.643678e+01 4.086576e+01 3.905951e+01 4.586081e+01 3.604702e+01 2.363392e+01 1.485976e+00 5.222768e+00 4.977892e+00 8.677815e+00 4.616214e+00 4.938085e+00 3.733449e+00 3.636073e+00 3.744519e+00 3.377004e+00 3.652187e+00 2.691725e+00 2.013263e+00
<GCONST> 1.065592e+02
<MIXTURE> 5 1.679081e-01
<MEAN> 25
 -1.075267e+00 1.454545e+00 -4.770975e+00 5.326275e+00 9.426675e-01 -2.206364e+00 -8.844711e-01 5.607978e-01 -4.608509e-01 -3.849325e+00 7.466301e-02 -1.612748e+00 -1.072286e+00 -2.777896e+00 -4.390535e-01 -5.243341e-01 1.732967e+00 4.376776e-01 4.758407e-01 -4.564155e-01 8.790159e-01 1.567016e+00 5.135894e-01 1.154709e+00 9.190861e-01
<VARIANCE> 25
 1.566064e+01 4.246266e+01 4.860848e+01 2.839468e+01 4.551516e+01 4.212404e+01 4.016623e+01 5.626987e+01 4.089410e+01 3.792027e+01 2.824916e+01 2.167715e+01 1.822403e+00 3.212906e+00 1.062160e+01 6.138513e+00 8.791551e+00 6.695848e+00 6.367988e+00 4.963693e+00 4.559935e+00 4.301203e+00 3.559821e+00 2.697325e+00 9.256970e-01
<GCONST> 1.073568e+02
<STATE> 3
<NUMMIXES> 5
<MIXTURE> 1 1.623294e-01
<MEAN> 25
 -1.503471e+00 -1.351780e+01 -1.465927e+01 6.767491e+00 1.286392e+01 -6.214643e+00 -8.022439e-01 4.892926e+00 5.139836e+00 3.023423e+00 2.946846e+00 5.283323e+00 1.551097e+00 -2.702311e+00 -2.146115e+00 -1.500432e+00 1.999631e+00 -1.161611e+00 2.595938e-01 1.130548e+00 1.059926e+00 1.343700e+00 -1.269516e+00 1.568730e+00 2.764900e+00
<VARIANCE> 25
 1.141816e+01 2.550815e+01 3.942440e+01 3.777928e+01 4.969775e+01 6.236517e+01 3.905143e+01 3.741150e+01 3.765805e+01 4.416441e+01 3.580306e+01 2.951795e+01 1.679897e+00 3.379496e+00 4.658134e+00 5.049739e+00 6.213718e+00 5.622695e+00 3.690265e+00 4.348875e+00 3.625187e+00 4.410139e+00 3.842744e+00 2.885423e+00 1.911326e+00
<GCONST> 1.056817e+02
<MIXTURE> 2 1.937066e-01
<MEAN> 25
 -1.244604e+01 -7.194846e-01 5.910770e+00 -8.207356e+00 7.061173e+00 2.861202e-02 2.858815e-01 -2.416543e+00 7.657475e+00 -3.408861e+00 6.217671e+00 4.264365e+00 -4.506839e-01 1.279328e+00 1.750434e+00 -2.213529e+00 8.484109e-01 -5.024888e-02 -1.931157e-01 -7.496275e-01 1.107361e+00 -2.698253e-02 1.216163e-01 7.990294e-01 7.497346e-01
<VARIANCE> 25
 1.288264e+01 5.548856e+01 2.675425e+01 3.083204e+01 4.775717e+01 3.684082e+01 3.724681e+01 4.318647e+01 3.193787e+01 5.002259e+01 4.354813e+01 3.062229e+01 3.542943e+00 3.561041e+00 2.765620e+00 5.169913e+00 5.713012e+00 3.624755e+00 3.887711e+00 3.458525e+00 3.370658e+00 3.318249e+00 3.207788e+00 2.735466e+00 1.920635e+00
<GCONST> 1.047253e+02
<MIXTURE> 3 2.765405e-01
<MEAN> 25
 -2.516559e+00 -4.553561e+00 -5.253817e+00 3.140423e-01 2.368219e+00 8.181487e-01 1.178017e+00 -1.536221e+00 9.550688e-01 1.255599e+00 2.430529e+00 2.160175e+00 -5.317116e-01 -6.361369e-01 8.459879e-02 -9.264215e-01 5.804065e-01 4.481111e-01 5.517282e-01 -2.033909e-01 4.776990e-01 6.083699e-01 7.953613e-01 7.958601e-01 4.700904e-01
<VARIANCE> 25
 2.349784e+01 5.631779e+01 1.337741e+02 5.579741e+01 8.766727e+01 6.975437e+01 5.029836e+01 6.036293e+01 5.044738e+01 4.431858e+01 3.875710e+01 2.557292e+01 2.462267e+00 3.556210e+00 8.089191e+00 5.964561e+00 4.681695e+00 4.498661e+00 3.840415e+00 5.096757e+00 4.486458e+00 3.963924e+00 3.922037e+00 2.599475e+00 2.383550e+00
<GCONST> 1.115373e+02
<MIXTURE> 4 1.380149e-01
<MEAN> 25
 -1.154076e+01 3.799840e-02 5.568056e+00 -8.431734e+00 6.385746e+00 -7.948784e-01 -8.143685e-01 -3.729769e+00 6.653627e+00 -3.965370e+00 6.656796e+00 3.620278e+00 1.338820e+00 1.457472e+00 1.732375e+00 -2.379583e+00 -1.158195e+00 -4.721886e-01 -9.154539e-01 -1.732740e+00 -1.030803e-01 2.093816e-01 -1.184276e+00 3.876270e-01 1.474515e+00
<VARIANCE> 25
 1.395107e+01 5.746606e+01 2.827661e+01 3.083079e+01 5.290746e+01 3.707517e+01 3.307898e+01 4.304805e+01 3.533958e+01 4.459456e+01 4.586717e+01 2.961267e+01 2.584808e+00 3.621627e+00 2.922792e+00 6.020801e+00 4.811087e+00 3.132104e+00 2.834793e+00 3.730851e+00 3.054322e+00 3.604231e+00 3.186287e+00 2.053808e+00 2.693764e+00
<GCONST> 1.042672e+02
<MIXTURE> 5 2.294105e-01
<MEAN> 25
 -1.106716e+00 -1.447287e+01 -1.559546e+01 3.632757e+00 1.261217e+01 -9.519107e+00 -1.413381e+00 5.183220e+00 6.658482e+00 3.907964e+00 1.588929e+00 6.829043e+00 2.658666e+00 -1.494360e+00 -6.536009e-01 -3.128248e+00 -1.093947e-01 -8.709065e-01 -2.667340e-01 -1.107250e-01 -5.809736e-01 3.829732e-01 -3.266758e+00 1.252948e-01 3.497161e+00
<VARIANCE> 25
 1.057300e+01 2.436649e+01 4.150352e+01 3.307225e+01 4.638227e+01 4.563046e+01 3.797912e+01 3.874608e+01 3.518660e+01 4.841002e+01 3.385286e+01 2.846940e+01 1.426490e+00 3.308909e+00 3.913941e+00 3.890764e+00 5.633413e+00 4.536850e+00 2.885316e+00 3.157014e+00 4.026023e+00 3.350672e+00 2.948691e+00 3.696205e+00 1.856056e+00
<GCONST> 1.033199e+02
<STATE> 4
<NUMMIXES> 5
<MIXTURE> 1 2.712780e-01
<MEAN> 25
 -1.753197e+00 -3.956327e+00 -6.561218e+00 1.240268e+00 4.563549e+00 -1.359975e+00 8.281677e-01 1.201803e+00 2.266527e+00 2.634217e+00 3.061385e+00 2.476499e+00 5.977707e-01 1.228295e+00 1.166850e+00 -9.383426e-01 -9.094368e-01 1.308030e-02 -4.172446e-01 -1.473592e-01 -2.475942e-01 -5.180780e-01 -3.942193e-01 -3.850713e-01 5.235023e-01
<VARIANCE> 25
 2.324280e+01 5.166536e+01 1.191902e+02 5.941341e+01 9.015167e+01 8.070538e+01 5.066273e+01 6.979205e+01 4.819913e+01 4.497258e+01 4.612666e+01 2.703764e+01 5.303131e+00 4.333272e+00 5.367365e+00 5.619498e+00 5.124882e+00 3.842039e+00 4.597277e+00 4.737878e+00 4.550817e+00 3.527060e+00 5.428601e+00 2.846135e+00 2.477941e+00
<GCONST> 1.127992e+02
<MIXTURE> 2 2.141416e-01
<MEAN> 25
 4.072308e+00 -5.305645e+00 -1.065727e+01 2.402898e+00 9.429753e+00 -5.542573e+00 -1.342129e+00 4.163759e+00 4.897953e+00 2.561277e+00 -4.117745e+00 3.343075e+00 2.941624e+00 2.775512e-02 2.190285e+00 -3.893830e+00 -2.211529e+00 1.059236e+00 2.019032e-01 -1.995578e-01 -2.400725e+00 -7.334094e-02 -4.052591e+00 -2.162201e+00 3.254395e+00
<VARIANCE> 25
 1.634698e+01 1.972436e+01 2.549417e+01 3.670298e+01 4.521175e+01 4.074757e+01 2.142373e+01 2.669281e+01 3.420348e+01 3.226149e+01 2.683768e+01 3.381648e+01 1.011277e+00 2.507316e+00 3.789898e+00 3.085361e+00 4.430542e+00 6.028007e+00 3.313250e+00 3.132767e+00 5.557871e+00 4.000711e+00 3.454824e+00 4.619620e+00 9.696468e-01
<GCONST> 1.011039e+02
<MIXTURE> 3 1.466301e-01
<MEAN> 25
 -7.877798e+00 2.700563e+00 5.971984e+00 -3.023017e+00 6.369326e+00 1.946811e+00 1.022147e+00 -1.815280e+00 7.061172e+00 -9.915140e-01 5.205009e+00 5.568401e+00 3.648246e+00 1.715564e+00 2.377613e+00 -3.392923e+00 -3.661050e+00 -8.709109e-01 -2.087897e+00 -2.182144e+00 -2.046187e+00 8.662435e-01 -3.340481e+00 -5.462631e-01 2.465469e+00
<VARIANCE> 25
 3.052382e+01 3.519307e+01 6.283943e+01 4.957476e+01 4.626353e+01 3.694119e+01 3.015896e+01 3.550053e+01 3.508044e+01 3.711131e+01 3.680399e+01 2.266783e+01 1.213924e+00 3.642951e+00 2.622313e+00 3.645789e+00 3.674720e+00 3.537848e+00 3.783748e+00 3.717083e+00 3.379334e+00 4.994721e+00 3.377999e+00 3.079660e+00 1.208391e+00
<GCONST> 1.035986e+02
<MIXTURE> 4 1.980297e-01
<MEAN> 25
 8.039190e+00 -1.123034e+01 -7.693269e+00 -8.389672e+00 2.678699e+00 -5.555192e+00 -4.060148e+00 1.178134e+00 -3.393644e-01 1.361773e+00 -1.178364e+01 1.478187e+00 1.932289e+00 -1.433687e+00 2.300020e+00 -3.565879e+00 -1.481152e+00 1.872208e+00 4.502016e-01 1.822181e-01 -2.358993e+00 -4.627643e-01 -3.641712e+00 -1.920871e+00 3.264989e+00
<VARIANCE> 25
 4.560151e+00 1.601299e+01 1.604429e+01 2.069551e+01 2.150343e+01 3.291862e+01 1.870438e+01 2.139599e+01 2.171956e+01 2.465499e+01 1.859025e+01 4.112497e+01 9.226346e-01 1.970700e+00 3.323058e+00 2.370494e+00 3.594516e+00 4.829580e+00 2.516278e+00 2.989130e+00 3.838613e+00 3.467328e+00 3.049281e+00 3.584665e+00 8.378699e-01
<GCONST> 9.385658e+01
<MIXTURE> 5 1.699208e-01
<MEAN> 25
 -3.326019e+00 8.287339e+00 1.028151e+01 -8.896886e+00 1.521547e-01 -1.707401e+00 -4.858416e+00 -6.998755e+00 4.945133e+00 -3.733967e+00 1.631444e+00 3.151257e+00 3.825536e+00 1.396131e-01 2.325299e+00 -3.332306e+00 -4.245184e+00 4.523426e-02 -1.552842e+00 -1.732808e+00 -2.334064e+00 1.726187e+00 -4.232276e+00 -2.407311e-01 2.680797e+00
<VARIANCE> 25
 2.479910e+01 2.938650e+01 1.690266e+01 3.732013e+01 5.633757e+01 2.536676e+01 2.664777e+01 3.151764e+01 2.240049e+01 2.892098e+01 3.936503e+01 2.375305e+01 1.332062e+00 3.749928e+00 2.663214e+00 2.954072e+00 3.559245e+00 3.776426e+00 3.480374e+00 3.345129e+00 3.755047e+00 5.253969e+00 3.805077e+00 3.364794e+00 1.094312e+00
<GCONST> 1.006436e+02
<TRANSP> 5
 0.000000e+00 1.000000e+00 0.000000e+00 0.000000e+00 0.000000e+00
 0.000000e+00 5.273619e-01 4.726380e-01 0.000000e+00 0.000000e+00
 0.000000e+00 0.000000e+00 3.885565e-01 6.114435e-01 0.000000e+00
 0.000000e+00 0.000000e+00 0.000000e+00 4.212361e-01 5.787639e-01
 0.000000e+00 0.000000e+00 0.000000e+00 0.000000e+00 0.000000e+00
<ENDHMM>
~h "l"
<BEGINHMM>
<NUMSTATES> 5
<STATE> 2
<NUMMIXES> 5
<MIXTURE> 1 2.141891e-01
<MEAN> 25
 8.064501e+00 -3.613882e-01 1.617442e+00 2.876671e+00 -5.216506e+00 -6.059925e+00 -5.332205e+00 1.021844e+00 2.899362e+00 -4.834466e+00 -2.441272e+00 3.848786e+00 -2.230721e-01 9.697757e-01 1.047858e+00 5.751371e-01 -3.561290e-01 -9.569051e-01 -5.520732e-01 3.592721e-01 -5.878212e-01 -1.251094e+00 4.276727e-01 8.737984e-01 -4.825840e-01
<VARIANCE> 25
 4.748366e+00 3.900832e+01 3.235641e+01 2.213399e+01 2.629749e+01 3.818165e+01 5.109072e+01 4.949959e+01 3.473303e+01 2.961484e+01 2.526708e+01 2.137823e+01 6.868561e-01 2.697665e+00 3.097634e+00 3.047198e+00 3.719102e+00 3.826416e+00 4.736907e+00 3.763272e+00 2.983804e+00 3.013184e+00 3.342744e+00 2.178883e+00 8.164055e-01
<GCONST> 9.809431e+01
<MIXTURE> 2 2.595227e-01
<MEAN> 25
 4.730105e+00 -4.000656e-01 1.035228e+01 -5.144098e+00 -6.876729e+00 -4.437667e+00 -2.052480e+00 -4.080270e+00 -2.955031e+00 -2.381101e-01 -5.502676e+00 3.167434e+00 3.003356e-01 1.487274e+00 -1.247650e-01 9.335304e-01 8.264420e-02 7.653393e-01 -1.044089e+00 -2.384344e-01 7.562749e-01 -1.295173e+00 -6.809467e-01 6.982396e-01 -9.759716e-01
<VARIANCE> 25
 3.456335e+00 3.190098e+01 1.610629e+01 2.280196e+01 2.498312e+01 3.883295e+01 2.373998e+01 4.336971e+01 2.576297e+01 3.140158e+01 2.628392e+01 2.132785e+01 1.670263e-01 1.057751e+00 9.438213e-01 1.480982e+00 1.451247e+00 2.279234e+00 2.281833e+00 2.264548e+00 1.821720e+00 2.444767e+00 2.564195e+00 1.729821e+00 3.725971e-01
<GCONST> 8.683117e+01
<MIXTURE> 3 1.420041e-01
<MEAN> 25
 7.362887e+00 -4.653458e+00 2.179814e+00 -5.760273e-01 -4.493807e+00 -8.815044e+00 3.144747e-01 4.297153e+00 -1.008484e+00 -1.269980e+00 -2.858681e+00 4.842989e+00 1.338233e-01 2.312605e+00 5.933155e-01 8.643844e-01 -4.077584e-01 -1.637994e+00 -2.137789e+00 -7.946226e-01 4.821505e-02 -1.405830e-01 9.554531e-01 1.281692e+00 -1.106276e+00
<VARIANCE> 25
 5.129368e+00 3.217087e+01 1.922548e+01 2.154120e+01 1.978952e+01 3.498193e+01 4.230635e+01 2.988550e+01 2.766584e+01 3.140886e+01 2.283946e+01 2.649743e+01 1.151092e-01 9.214815e-01 1.194822e+00 1.313726e+00 1.566451e+00 2.751076e+00 2.405823e+00 2.056100e+00 2.244341e+00 2.880203e+00 1.787682e+00 1.473063e+00 1.752066e-01
<GCONST> 8.629376e+01
<MIXTURE> 4 1.982139e-01
<MEAN> 25
 4.266802e+00 -6.821503e+00 8.795327e+00 -6.955122e+00 -3.623104e+00 -8.997682e+00 -2.649755e+00 3.275071e+00 -5.812101e+00 -3.169967e+00 -5.862589e+00 3.519025e+00 6.286637e-02 1.569179e+00 4.973116e-01 7.262940e-01 -2.767230e-01 6.353031e-01 -1.543923e+00 -1.261648e+00 2.215545e-01 -8.800054e-01 -7.870620e-01 -2.233384e-02 -1.063804e+00
<VARIANCE> 25
 3.317873e+00 1.891802e+01 1.517213e+01 1.558896e+01 2.161229e+01 2.497878e+01 4.645499e+01 3.490234e+01 2.338231e+01 3.138183e+01 2.130266e+01 1.637655e+01 2.226239e-01 1.044672e+00 1.068662e+00 1.410998e+00 1.757187e+00 2.603014e+00 2.713863e+00 3.538319e+00 2.020221e+00 2.274697e+00 2.147287e+00 1.485548e+00 3.185539e-01
<GCONST> 8.596322e+01
<MIXTURE> 5 1.860709e-01
<MEAN> 25
 6.407202e+00 -8.679473e+00 3.002944e+00 -3.617542e+00 -2.445763e+00 -1.146060e+01 -2.273867e-01 6.518719e+00 -2.372552e+00 -2.404429e+00 -6.025302e+00 5.279809e+00 -3.418741e-02 1.709190e+00 8.228305e-01 4.078745e-01 -8.069215e-01 -1.529239e+00 -1.572154e+00 -9.156088e-01 -4.012960e-01 -1.189413e-01 8.085628e-01 8.458328e-01 -8.677285e-01
<VARIANCE> 25
 3.088259e+00 2.515059e+01 1.168254e+01 2.012612e+01 1.855900e+01 2.728096e+01 5.023091e+01 2.731436e+01 2.174293e+01 3.221399e+01 1.904235e+01 2.395309e+01 1.611291e-01 9.353167e-01 1.220693e+00 1.114051e+00 1.627002e+00 3.205206e+00 2.669475e+00 2.076614e+00 2.366060e+00 2.584728e+00 1.384287e+00 1.944338e+00 2.066495e-01
<GCONST> 8.488854e+01
<STATE> 3
<NUMMIXES> 5
<MIXTURE> 1 3.754019e-01
<MEAN> 25
 6.516727e+00 2.723743e+00 4.562922e+00 1.885147e+00 -3.949196e+00 -8.773926e+00 -5.323887e+00 2.241205e+00 -1.557554e+00 -5.482368e+00 -2.124050e-01 4.577176e+00 -1.893420e-01 6.039261e-01 9.856398e-02 7.982947e-02 3.475329e-01 1.083614e-02 -4.542166e-01 1.809623e-01 8.022507e-02 -2.484148e-01 2.550832e-01 -8.593591e-02 -3.916422e-01
<VARIANCE> 25
